// Neural Network File Format by Kyle Julian, Stanford 2016
6,5,5,25,
5,25,25,25,25,25,5,
0,
-56000.000000,-56000.000000,-3.141593,200.000000,200.000000
56000.000000,56000.000000,3.141593,200.000000,200.000000
-278.628049,0.000000,0.000000,200.000000,200.000000,-0.242819
112000.000000,112000.000000,6.283185,1.000000,1.000000,17.479225
1.35771e-01,7.06470e-02,-1.76358e-01,-2.77057e-01,2.49660e-02,
-1.99417e-01,5.48597e-02,-9.53474e-02,-1.91338e-01,2.10813e-01,
-6.33673e-02,7.43502e-02,-2.79187e-01,-1.40313e-01,1.36719e-01,
-3.30917e-01,-8.82979e-02,5.98971e-02,-6.52188e-02,-1.63647e-01,
5.60270e-02,-4.63070e-02,-2.87993e-02,-3.27921e-01,2.54398e-01,
2.34683e-02,-2.08648e-01,2.80985e-01,5.71153e-02,3.88151e-01,
8.01077e-03,1.84745e-01,-3.62768e-02,1.52677e-02,3.17759e-01,
2.82475e-02,-3.23841e-01,2.59256e-02,-3.49383e-01,-1.15646e-01,
9.69445e-02,9.31180e-02,-2.37673e-01,3.62599e-01,-4.38965e-01,
1.12619e-01,-3.35243e-02,-2.12703e-01,-2.43675e-01,3.70397e-01,
-7.02339e-03,1.05163e-01,-3.44028e-01,2.28003e-01,2.29002e-01,
-2.30528e-01,-3.69532e-02,8.77486e-02,-4.09236e-01,-7.46626e-02,
1.73373e-01,-1.72083e-02,1.83796e-01,-1.43289e-02,-3.39026e-01,
-7.02120e-02,-1.94695e-01,7.29186e-02,-1.74587e-02,-1.94969e-01,
3.74226e-02,1.81650e-01,1.11767e-01,4.29980e-01,-2.83963e-01,
-2.22638e-01,-3.60219e-02,2.91016e-01,-4.11340e-01,4.21617e-01,
1.90986e-01,-1.81966e-01,2.73022e-01,-1.15124e-01,-1.22324e-01,
-6.50850e-04,-5.36372e-02,-5.55844e-02,-3.81621e-01,-1.41535e-01,
-1.79575e-01,-3.51685e-02,-1.07076e-02,-3.28915e-01,4.17473e-01,
-1.66440e-01,-1.52316e-01,-2.22375e-01,-2.40093e-02,9.96658e-03,
-5.68424e-01,1.66846e-01,1.69656e-01,-2.73235e-01,-7.31941e-02,
1.37271e-01,-5.08829e-02,3.17415e-01,1.15396e-01,-2.70567e-01,
-7.00704e-03,-2.71423e-02,-2.24717e-02,3.85603e-01,1.94392e-01,
3.87399e-02,1.53828e-01,1.62855e-01,2.20656e-02,-3.71232e-02,
-4.72299e-02,3.13149e-01,-8.65682e-02,-3.77890e-01,3.22379e-01,
9.43490e-02,
-2.73146e-01,
1.75174e-01,
1.21736e-01,
-1.76263e-01,
-5.91047e-02,
1.56305e-01,
-2.76658e-03,
-6.95470e-02,
-4.24634e-02,
-1.84596e-01,
-7.30268e-03,
1.54536e-01,
-7.21115e-02,
-9.52363e-04,
-1.42632e-01,
-7.90508e-02,
-5.46046e-03,
-2.47458e-01,
6.45571e-02,
-1.25501e-01,
1.29791e-01,
-2.06984e-01,
3.39242e-03,
-7.83617e-02,
1.81890e-02,1.38544e-01,-5.39137e-02,3.22915e-01,-1.69524e-01,-3.74012e-01,-2.10171e-01,-7.25566e-02,-2.46566e-01,-3.77659e-01,2.38588e-01,-4.20142e-03,1.14781e-01,-4.11159e-01,-3.55632e-01,2.25022e-01,2.74388e-02,-7.61297e-02,-3.26765e-01,1.39742e-01,-3.84981e-01,-2.37542e-01,7.09999e-02,-2.87403e-01,3.59354e-02,
1.88090e-01,3.96496e-01,-2.17977e-01,-2.97004e-02,-2.32295e-01,-1.22705e-01,-5.73911e-02,-8.30750e-02,2.33274e-01,3.10003e-02,-1.54677e-01,7.19170e-02,-3.48103e-01,2.37055e-01,4.18023e-01,-2.16652e-01,2.84523e-01,-9.12165e-02,-3.32811e-02,-3.27345e-01,-1.60959e-01,-1.09216e-01,1.24651e-01,3.53403e-02,9.70205e-02,
2.36977e-01,2.97481e-01,-1.98371e-02,-1.28586e-01,-1.73468e-01,3.63657e-01,5.78565e-02,1.38411e-02,1.27173e-01,3.61284e-02,3.05895e-01,-1.26018e-01,-1.24538e-02,-1.57402e-01,8.50811e-02,1.92569e-01,-1.67477e-01,-1.41573e-01,6.21893e-02,4.31031e-02,2.19284e-01,2.06884e-01,3.61625e-01,-8.39142e-02,-7.20936e-02,
6.40381e-02,2.73963e-01,2.80832e-01,1.52923e-01,-4.39527e-02,-8.31636e-02,6.68613e-03,1.72683e-01,-4.46434e-02,1.88685e-01,-2.73486e-02,-1.91340e-01,2.10835e-01,2.07990e-01,2.03592e-01,-1.35856e-03,2.47218e-01,2.64108e-01,-1.31258e-01,1.54940e-01,3.22402e-01,-2.56895e-02,6.87205e-02,4.23029e-02,2.88778e-01,
2.92333e-01,8.49994e-02,1.24188e-01,1.80529e-01,-1.91105e-01,-2.42000e-01,-1.29760e-01,-5.02840e-01,-3.26799e-01,1.21739e-01,-5.79161e-02,-1.68115e-01,3.44104e-01,-1.05763e-01,-1.52082e-01,-1.12786e-01,2.43021e-01,1.56908e-01,-2.88646e-01,-7.87563e-02,2.63846e-01,2.26894e-02,-5.20567e-02,-4.05765e-01,-3.39361e-01,
8.35513e-02,3.35796e-01,-3.11228e-01,-6.72011e-02,9.38173e-02,-3.50476e-02,6.42893e-02,-1.75245e-01,3.02887e-01,-5.21515e-02,-2.56127e-01,1.29869e-01,1.36431e-01,9.05663e-02,-7.53355e-02,-9.10029e-02,-1.26822e-01,2.47196e-01,-3.04165e-02,1.68968e-01,3.44207e-02,2.62512e-01,6.90771e-03,-1.74643e-01,9.62443e-02,
3.14911e-01,-3.53103e-01,-9.82519e-02,1.93739e-01,4.95781e-02,-3.34643e-01,1.09317e-01,-3.54288e-03,2.46008e-01,-1.93539e-01,-3.12583e-01,6.67938e-02,3.30068e-01,-2.50556e-01,-5.08168e-02,1.04124e-01,-4.64619e-02,-7.96218e-02,6.42826e-02,7.93942e-02,7.97742e-02,-1.66379e-01,-3.02677e-01,-1.73701e-01,5.15196e-02,
-3.03106e-01,-2.00407e-01,-2.89128e-01,2.04064e-02,4.86009e-02,2.61238e-01,3.50704e-01,-1.42714e-01,2.13547e-01,-1.45621e-01,2.43483e-01,1.54417e-01,-1.95425e-01,2.49636e-01,1.67674e-01,1.41953e-01,1.45568e-02,-2.14533e-01,-2.32992e-01,5.62654e-02,-2.92418e-01,-2.36511e-01,9.98772e-02,-1.07780e-01,1.06277e-01,
-3.41703e-01,1.07305e-01,1.67082e-01,1.05123e-01,2.02510e-01,-9.39431e-02,-1.71442e-01,-1.48980e-01,-9.82189e-02,1.43479e-01,1.75861e-01,1.16425e-01,2.29282e-01,-2.54438e-02,1.42306e-01,3.56809e-01,-2.80803e-01,-2.19686e-01,-3.28012e-02,-3.31181e-01,-2.22557e-01,-3.05872e-02,-9.24468e-03,2.76490e-01,-1.79208e-01,
2.66385e-01,2.95028e-01,3.05696e-01,1.82163e-01,-9.13395e-02,3.67448e-01,-1.71341e-02,-1.05809e-01,2.28667e-01,1.92189e-01,-3.28478e-01,2.43071e-02,2.98738e-01,3.67965e-02,-3.35926e-01,8.60967e-03,-1.93217e-01,3.36305e-03,2.40905e-01,-2.35964e-01,-1.95550e-01,2.42552e-01,2.50332e-01,2.80086e-02,-1.87968e-01,
1.07639e-01,-2.11983e-01,2.34541e-02,2.61511e-01,1.76900e-01,1.60918e-01,-3.05506e-01,-1.93405e-01,-1.36712e-01,1.06058e-02,4.56728e-02,1.89553e-01,1.18897e-01,-1.26734e-01,1.58577e-01,4.96790e-02,-1.50596e-01,-2.35456e-01,2.43825e-02,-2.57381e-01,-2.76218e-01,-3.15513e-01,3.05956e-01,2.36969e-01,-5.47326e-02,
-4.71756e-02,1.55402e-01,-8.75365e-02,-9.52641e-02,3.24078e-01,3.06647e-01,-2.95070e-01,1.65822e-01,-8.09604e-02,1.56899e-01,4.95690e-02,3.82171e-03,3.10988e-01,-2.30037e-01,-1.95864e-01,8.74349e-02,-8.41092e-02,2.31310e-01,-1.26558e-02,-3.41172e-02,-2.49192e-01,-2.45699e-01,-2.11038e-01,-7.75857e-03,1.03980e-01,
9.46501e-02,-1.51138e-01,-1.65183e-01,-1.34296e-01,-8.87990e-02,8.62882e-02,2.84897e-01,1.98575e-01,3.42822e-01,1.26192e-01,4.22564e-02,-2.38010e-01,-1.19111e-01,2.58169e-01,-9.23721e-02,1.35270e-01,-7.17336e-02,-4.35394e-02,7.29214e-04,3.73196e-02,5.04631e-02,1.98932e-01,-1.96587e-01,6.91911e-02,-2.78504e-01,
3.05305e-01,5.77365e-02,-5.93661e-02,-1.29980e-01,-1.62736e-01,-1.69256e-01,2.78286e-01,1.85906e-01,-3.41854e-01,-1.26876e-02,-2.39173e-02,1.62609e-01,2.47934e-01,-8.95288e-02,-2.30358e-01,-2.28746e-01,3.76386e-02,-1.31528e-01,2.97584e-02,3.41853e-02,1.10398e-01,-1.85184e-01,2.38519e-01,3.61391e-01,-1.50986e-01,
1.36079e-01,-1.72335e-01,-3.53978e-01,2.63084e-02,-5.72494e-02,-2.47303e-01,-3.27986e-01,8.10733e-02,8.15955e-02,6.51271e-02,1.58394e-01,2.33005e-01,-2.43223e-01,-2.66303e-02,-2.61138e-01,3.24356e-01,2.82125e-01,2.14235e-01,-1.30666e-01,1.59402e-01,2.70941e-01,-2.20052e-02,8.86538e-03,6.40905e-02,3.28453e-01,
-2.52719e-01,1.51332e-01,-2.54059e-02,-3.01688e-01,1.92305e-01,-2.76097e-02,-1.77355e-01,2.73326e-01,2.80535e-01,-2.69721e-01,1.33432e-01,-2.15672e-01,-9.72632e-02,3.57935e-01,1.67979e-01,-2.29014e-01,7.63313e-02,-2.43624e-01,4.13944e-02,-1.55246e-01,2.46162e-01,1.77116e-01,8.72929e-02,1.73037e-01,1.78601e-01,
-1.24862e-01,1.03122e-01,-2.28966e-01,1.53084e-01,-2.45255e-01,2.53455e-01,-2.65604e-01,-2.40628e-01,3.41973e-01,-2.64249e-01,-5.23132e-02,-1.34286e-01,2.75341e-01,-2.09233e-01,-1.50431e-01,-1.98632e-01,1.08861e-03,-1.43000e-01,-2.09324e-01,1.50740e-01,1.89905e-01,9.72276e-02,7.83380e-02,1.66789e-01,2.72506e-01,
-4.17075e-02,1.72335e-01,2.83363e-01,2.52740e-01,-4.05094e-02,-2.91492e-01,1.06812e-01,1.29889e-01,-2.11197e-01,-2.47417e-01,-1.70633e-01,1.73097e-01,3.54329e-02,4.32360e-04,1.07174e-01,-3.25169e-01,2.75919e-01,-2.27825e-02,-3.04378e-01,-1.50397e-01,-4.96250e-02,-2.53195e-01,-3.52190e-01,8.63425e-02,-1.51270e-01,
-6.75871e-02,1.80619e-01,1.56161e-01,-2.65581e-01,1.52842e-01,1.58459e-01,-1.40101e-01,-1.37988e-01,-2.04764e-01,-1.79368e-01,-1.14770e-01,-2.27015e-01,1.80249e-01,-2.96686e-01,2.64390e-02,1.58323e-01,-1.93513e-01,-1.27935e-01,-1.67176e-01,8.88142e-03,-1.62212e-01,-1.98503e-01,1.05108e-01,1.10467e-01,-3.16551e-01,
2.22470e-01,-3.14606e-01,5.40926e-02,3.73446e-01,2.15484e-01,-1.37430e-01,8.81289e-02,-1.55922e-01,8.45434e-03,-1.75074e-01,-2.64178e-02,-2.27243e-01,-2.17932e-01,-1.26150e-01,-9.61868e-02,-2.18616e-01,2.17969e-01,-1.69300e-01,-2.77381e-01,1.24489e-01,-3.03516e-01,6.05038e-02,2.56766e-02,-1.35512e-01,-2.65003e-01,
2.05101e-01,3.58935e-01,-3.29386e-01,1.68874e-02,-8.30685e-02,-1.48529e-01,2.08607e-01,-1.47664e-02,-5.03181e-02,-8.25990e-02,-2.11687e-01,9.85942e-02,-1.11686e-02,1.67495e-01,-2.70232e-03,-8.13663e-02,2.81629e-01,1.33169e-01,2.21684e-01,1.55048e-01,-7.07400e-02,1.58996e-01,3.19894e-01,2.78939e-02,9.96543e-02,
1.44447e-01,-1.55032e-01,-2.07122e-01,2.00849e-01,-2.29495e-01,1.92037e-01,-7.65546e-02,3.46171e-02,-1.09995e-01,1.71347e-02,1.42898e-01,-1.73486e-01,1.21068e-01,-2.71758e-01,2.22411e-01,1.89073e-01,-3.24251e-01,-1.77509e-01,-2.78403e-01,1.75113e-01,-5.25998e-02,-8.21559e-02,1.18032e-01,-1.09172e-01,-6.14418e-02,
-3.06556e-01,9.97037e-02,2.17088e-01,-3.43558e-01,-2.29054e-01,3.97490e-02,-2.32003e-02,-5.11491e-01,-2.55654e-02,-1.80083e-02,3.11046e-01,-5.11769e-02,2.59175e-01,2.59607e-01,-3.63258e-01,1.19222e-01,2.30065e-01,3.08104e-01,2.05980e-01,8.54835e-02,3.52761e-02,2.28027e-01,-2.67695e-01,-2.32395e-01,5.31320e-02,
1.42624e-02,3.26343e-01,-1.90262e-01,-2.84271e-01,1.28354e-01,1.16192e-01,-1.70849e-01,-1.72846e-01,-9.59645e-02,-1.36929e-01,1.14739e-01,1.34036e-03,1.79459e-01,1.79638e-01,3.30507e-01,-1.23042e-01,-7.50294e-02,1.79817e-01,6.47369e-02,9.45667e-02,2.76837e-02,-3.09933e-02,-1.08493e-01,-3.39848e-02,7.85800e-02,
1.14081e-02,3.34738e-01,3.16808e-01,-1.94256e-01,3.06793e-01,-2.49527e-02,3.01925e-01,6.48177e-02,2.22333e-02,-6.97346e-02,-2.16763e-01,3.83374e-01,2.38413e-01,-1.68735e-01,1.13662e-01,1.88022e-01,-2.56790e-01,9.99563e-02,-2.01731e-01,-6.14726e-02,-1.57323e-01,-6.73258e-03,-3.00590e-01,-2.51483e-02,-3.04857e-01,
-2.46637e-01,
1.84840e-01,
2.27707e-01,
-1.86065e-01,
-2.40651e-01,
2.74625e-01,
-2.82768e-01,
-1.52839e-01,
2.70679e-01,
-5.46116e-02,
2.38490e-02,
-2.06324e-01,
-1.21190e-01,
-9.22097e-02,
1.93090e-01,
2.72871e-01,
-2.17711e-01,
-2.83388e-01,
-7.08453e-02,
-1.05181e-01,
1.64820e-01,
-1.40106e-01,
6.38238e-02,
1.52911e-01,
-1.66915e-01,
-2.87398e-01,1.40080e-01,2.03214e-01,-1.73564e-03,-5.79038e-03,-2.28528e-01,-8.31706e-02,-2.98778e-01,-2.00708e-01,-3.14422e-01,1.70846e-01,1.71955e-01,-1.42984e-01,-1.28201e-01,1.50467e-01,-2.00319e-01,2.07935e-01,2.67911e-03,-1.72199e-01,3.43948e-01,2.60025e-01,-5.17429e-04,-9.65172e-03,-1.44436e-01,5.45190e-02,
1.67472e-01,3.64784e-02,-2.51809e-01,6.85619e-02,1.17560e-02,2.81065e-01,-2.59418e-01,-2.46819e-01,-3.63908e-02,-3.15752e-03,-5.08455e-02,-2.70115e-01,2.76199e-01,2.31445e-02,-5.47576e-02,2.06944e-01,-2.36798e-02,-2.26647e-03,-1.47607e-01,-2.92905e-02,-1.44871e-01,3.89297e-02,-8.86586e-04,1.07139e-01,1.68337e-01,
-2.59834e-01,-2.02493e-01,-4.43582e-02,-1.00778e-01,5.32357e-03,-2.04442e-01,7.79170e-02,3.46182e-01,-2.74347e-01,4.61562e-02,2.30125e-01,-1.47238e-01,-2.81615e-01,-3.53430e-02,8.53954e-03,1.36612e-01,-8.50383e-02,-1.63103e-03,-2.67194e-01,1.35428e-01,-1.25647e-01,-9.21518e-03,-4.44148e-04,-7.58222e-02,5.93469e-03,
-8.89159e-03,8.24068e-02,-2.04466e-01,4.48545e-02,1.92079e-03,3.17642e-02,-1.00653e-01,-2.32794e-01,3.44454e-01,1.65041e-02,-1.29615e-01,-3.69435e-01,1.00823e-01,-4.80405e-02,-3.58883e-02,8.79884e-02,-1.05099e-01,-1.77297e-02,-7.05120e-02,1.92517e-01,1.50345e-01,1.05296e-02,4.51885e-03,-1.14513e-01,8.94366e-02,
-1.16616e-01,-6.50731e-03,-6.17994e-02,-2.75635e-01,2.59147e-03,-3.93779e-02,7.58730e-02,3.08233e-01,-2.03245e-01,-1.47484e-01,1.95487e-01,-1.75775e-01,-2.10284e-01,8.69813e-03,1.01105e-01,-2.13989e-01,-8.84257e-02,5.79685e-03,-1.22684e-01,8.59817e-02,1.94198e-01,2.21075e-04,-1.26526e-03,-4.52855e-02,4.13900e-02,
8.52852e-02,-1.96155e-02,2.50559e-02,-1.02358e-01,7.20853e-04,-3.11698e-01,1.07626e-01,2.01396e-01,-1.02447e-01,-2.65925e-02,2.10351e-01,2.28480e-01,-9.59035e-03,-1.99297e-02,9.00628e-02,-6.42368e-02,-1.53522e-01,4.67842e-03,1.32726e-01,-1.43886e-01,2.24897e-01,-1.52405e-02,1.81189e-03,1.84476e-01,2.15002e-02,
1.81623e-02,-1.96661e-01,2.63818e-01,-1.75198e-01,-5.88407e-03,1.55317e-01,1.23298e-01,-2.93408e-01,-8.49758e-02,-8.30824e-02,2.01535e-01,-1.08863e-01,1.38931e-02,5.36517e-02,-1.97757e-01,-2.63645e-01,-1.78528e-01,5.61448e-03,3.50554e-01,-7.92417e-02,1.99678e-01,1.93275e-03,8.61159e-03,2.37008e-01,-1.19577e-01,
7.28739e-03,1.12014e-01,-2.15033e-01,2.43896e-01,1.07416e-02,1.19965e-01,-1.10282e-01,1.06966e-02,-9.00006e-02,9.68084e-02,-2.94791e-02,2.50977e-01,2.58904e-02,5.10084e-02,-2.00968e-01,-8.20439e-02,2.71930e-01,5.87768e-03,-2.22740e-01,-1.53294e-01,-1.39876e-01,3.82783e-02,-9.26273e-03,-1.97075e-01,-2.62446e-03,
1.36970e-01,1.50159e-01,1.26274e-01,2.82519e-01,1.25270e-02,-2.88271e-01,4.98054e-02,3.78263e-01,1.12973e-01,1.94450e-01,-3.89040e-02,-2.00713e-01,3.04810e-01,-4.63524e-03,-2.62582e-01,-6.58972e-02,-2.12674e-01,6.52530e-03,-1.57146e-01,-2.22676e-01,2.48354e-01,-4.38660e-03,1.17614e-03,-1.43660e-01,-1.13581e-02,
1.31969e-01,2.67145e-01,-1.29789e-01,7.36972e-02,6.10400e-03,4.37736e-01,6.84354e-02,-2.01065e-01,-2.62732e-02,-1.09487e-02,1.74388e-01,-9.98900e-02,1.13249e-01,-1.63851e-02,-1.20467e-01,1.01619e-01,-3.19110e-01,6.67584e-04,-1.68884e-01,-1.30399e-01,3.94599e-01,1.75892e-02,2.88491e-03,-1.55995e-01,-7.07259e-02,
-2.98653e-01,1.50058e-01,3.46083e-01,-3.97501e-01,-7.53078e-04,-1.29317e-01,3.19460e-03,1.23032e-01,1.27367e-01,-2.87466e-02,-1.94577e-01,1.23859e-01,-3.41047e-01,-1.11014e-02,1.07921e-01,-7.09893e-02,-1.88354e-01,1.14811e-02,-1.57324e-01,8.93362e-02,3.42584e-03,-9.45445e-03,1.60901e-03,-1.27380e-01,-4.71930e-02,
1.78679e-02,-1.65997e-01,-2.40757e-01,2.96763e-01,-8.02383e-03,-2.81848e-01,1.56755e-01,-1.72352e-02,-9.61034e-02,-1.46814e-01,-1.03181e-01,2.83617e-01,-1.04366e-01,-1.43095e-01,-6.50303e-02,-1.07999e-01,2.12360e-01,-3.63956e-03,1.58730e-01,-4.19541e-02,3.40383e-02,-1.87022e-02,-1.12403e-02,3.78307e-01,-1.49750e-01,
1.76081e-01,-1.01595e-01,8.99436e-02,-1.57841e-01,1.37758e-02,-1.55800e-01,1.42914e-01,2.41511e-01,-1.75267e-01,-1.34365e-01,2.38519e-01,1.81611e-01,3.05991e-01,-6.70239e-04,7.82025e-02,5.13659e-02,1.08191e-01,7.03202e-03,-2.29195e-01,-1.75658e-01,2.20232e-02,-1.31719e-02,-1.92083e-03,2.40348e-01,1.16406e-01,
2.37079e-01,1.16666e-01,-3.98239e-02,1.06820e-01,8.88378e-03,-1.03587e-01,-2.73824e-02,-1.84213e-01,-1.25368e-01,-9.59096e-03,2.04305e-01,-4.51555e-03,1.45587e-01,-5.40897e-02,-2.84242e-02,1.52451e-01,-1.06312e-01,5.58091e-03,3.36893e-01,-2.84594e-01,4.98720e-02,-6.94062e-03,-2.98748e-03,-5.07096e-02,1.28098e-02,
-5.31426e-02,8.50227e-02,-1.86421e-01,-1.54698e-01,-5.71306e-03,-8.82101e-02,1.42036e-02,1.02435e-01,4.70835e-02,-1.27253e-01,1.79496e-02,-3.80523e-02,-1.38276e-01,-9.00010e-02,-7.77917e-02,-1.52344e-01,-2.49190e-01,-7.27933e-03,9.35557e-02,-2.49614e-02,-1.11579e-01,-1.36952e-02,7.34817e-03,-1.59063e-01,-1.81838e-01,
-5.93793e-02,3.98159e-02,8.36042e-02,2.58675e-01,-1.22216e-02,9.17896e-02,1.62045e-01,-5.52691e-02,2.73141e-01,5.17711e-02,-2.30994e-02,2.94737e-01,-1.27020e-01,-6.64631e-02,3.04690e-01,9.28040e-02,1.74985e-02,-8.00521e-03,3.01075e-01,1.92131e-01,-1.59410e-01,-1.65165e-02,9.70041e-03,-1.13989e-01,-1.63704e-01,
-1.13669e-01,-1.72418e-02,1.73978e-02,-6.71397e-02,1.19710e-02,-1.28978e-03,-3.33282e-02,-1.55774e-01,3.24346e-01,1.26140e-02,1.64045e-01,-1.79878e-01,3.18785e-01,-3.98958e-02,8.27574e-02,1.71100e-02,-1.27227e-01,-1.57865e-03,-3.45134e-01,1.40722e-01,-2.71383e-01,-1.89325e-03,8.67071e-03,6.11353e-02,-8.12974e-02,
-2.04753e-01,-1.33004e-01,6.81076e-02,-1.88980e-01,-1.77739e-03,1.88442e-01,-2.74573e-02,-1.00300e-01,-1.21908e-02,-7.86655e-02,-2.20361e-01,-2.32371e-01,-3.30505e-01,-2.13628e-02,-1.33219e-02,1.45125e-01,-2.44268e-01,-3.06042e-04,2.09428e-01,2.30843e-01,1.99914e-01,-5.92756e-04,-1.71784e-03,-2.95265e-01,-1.04126e-03,
-1.43092e-01,-7.96018e-03,7.75335e-02,2.68757e-01,8.68526e-03,1.15624e-01,-1.83830e-02,2.89390e-02,-3.02267e-01,-6.71912e-02,-2.29718e-02,5.23659e-02,-9.69943e-02,2.77300e-02,-2.03524e-01,7.28143e-02,1.38136e-01,6.87970e-03,3.26436e-01,7.81398e-02,-4.09970e-02,1.79715e-02,-7.24873e-03,-2.12536e-01,-7.83244e-03,
-9.82194e-02,-6.17471e-02,1.15198e-02,1.41460e-01,4.64407e-03,-1.33477e-01,-2.78060e-02,2.81854e-01,1.04249e-01,-6.76766e-02,-2.97916e-01,-7.24617e-03,4.95977e-02,4.84904e-02,-2.12190e-01,-1.92366e-01,8.96393e-02,1.10250e-03,-1.86805e-01,1.33916e-01,2.10849e-01,1.49487e-03,-1.05255e-02,7.40227e-02,7.59524e-02,
2.56680e-03,8.34969e-02,-2.07127e-01,9.19485e-02,3.26360e-03,1.87933e-01,-1.42832e-01,1.30613e-01,-1.53582e-01,1.13576e-02,1.21796e-01,1.47569e-01,3.14084e-01,-1.91767e-02,-4.94469e-02,-1.97208e-02,1.85317e-01,6.31111e-04,-9.25258e-02,-3.43142e-01,-3.03240e-01,1.08544e-02,1.23621e-03,6.77698e-02,-1.24305e-01,
-5.71174e-02,1.39117e-01,3.04198e-01,2.43906e-01,-9.34172e-04,1.41125e-01,5.39962e-02,3.07227e-01,-5.75323e-02,-1.28526e-01,2.95230e-01,2.98845e-01,-2.27608e-03,-2.02466e-02,4.05473e-03,-2.74096e-02,-2.61468e-01,8.20889e-03,1.08232e-01,-1.53361e-01,1.97176e-01,-1.10081e-02,1.25334e-03,-5.88928e-02,3.11814e-02,
2.41341e-02,1.56256e-01,1.47675e-01,-1.87685e-01,1.52908e-02,1.31864e-01,-9.49349e-03,2.80273e-01,-5.54126e-02,1.89107e-01,-2.59540e-02,1.20385e-01,2.78456e-01,9.99737e-03,-2.27545e-02,-1.84406e-02,-4.87386e-02,7.96739e-03,-2.33082e-01,-2.13603e-01,-2.32392e-01,6.91516e-05,3.80569e-03,-1.09693e-01,-9.09134e-02,
8.83122e-02,1.88222e-01,-3.99279e-01,-1.17882e-01,1.13348e-03,2.60822e-01,-8.90255e-02,6.55850e-02,-1.18562e-01,9.07960e-02,1.72533e-01,-1.41027e-01,-1.14492e-01,-5.39854e-02,2.16769e-02,-3.93190e-02,-1.44654e-01,3.15238e-03,7.63295e-02,-2.67968e-01,-1.87471e-01,1.00710e-02,-4.24034e-03,-3.53570e-02,-2.69494e-02,
2.74137e-01,-1.11664e-01,3.12809e-02,-2.15223e-01,-1.34611e-03,1.44284e-01,-6.37578e-02,1.74015e-01,3.71539e-01,-7.10964e-02,-1.10232e-01,-2.60532e-01,5.04386e-03,-1.07959e-01,-1.06999e-01,7.72373e-03,-3.10091e-01,2.12539e-03,7.47171e-02,-3.85751e-03,3.62991e-01,-1.29994e-02,-4.58448e-03,6.52330e-02,-1.52730e-02,
-1.55687e-02,
-2.27902e-01,
2.72014e-03,
-2.96944e-01,
-6.62774e-02,
-1.53059e-01,
-1.49079e-01,
1.93233e-01,
1.16615e-01,
-1.85935e-01,
-1.51384e-01,
3.00546e-01,
2.41060e-01,
1.23445e-01,
-7.40857e-02,
2.88128e-02,
-2.30818e-01,
-3.50338e-02,
1.30858e-01,
6.63125e-02,
2.08838e-01,
1.66880e-01,
8.83204e-02,
-4.93925e-02,
-2.17893e-01,
2.33319e-01,1.67869e-01,-5.93213e-02,3.80269e-01,-2.86463e-01,-2.22187e-01,1.44118e-01,-1.01568e-01,1.69279e-01,-2.73440e-01,7.65019e-02,-4.20728e-01,2.28152e-01,5.89897e-02,3.17902e-01,3.81364e-01,-3.95525e-01,-2.42263e-01,-2.38319e-01,-4.05078e-02,2.32285e-03,1.47747e-02,-9.63145e-02,-2.65792e-01,-8.11337e-02,
5.28338e-02,-4.48353e-03,7.04578e-04,-8.39593e-02,1.36842e-01,2.19255e-02,-1.19006e-01,2.37552e-01,1.34587e-01,-2.28438e-03,-2.83973e-01,-1.21759e-01,7.66555e-02,-1.65155e-04,1.78413e-01,-2.94670e-02,-7.77288e-02,-3.15800e-01,-1.93323e-01,5.09879e-02,-3.80231e-02,-1.27979e-01,-4.37686e-02,1.45107e-01,1.23865e-01,
-8.26290e-02,7.80618e-02,3.03194e-01,2.95853e-01,-2.42274e-01,1.10299e-01,1.63809e-01,6.84965e-02,9.48546e-02,-5.55492e-02,1.26298e-01,-3.11926e-01,-7.23505e-02,-1.34409e-01,-7.34646e-02,2.35418e-01,5.33987e-02,-3.10755e-01,7.63792e-02,-7.69387e-02,-6.85709e-02,1.76320e-01,1.39248e-01,-2.40296e-01,-1.72629e-01,
-8.93988e-02,2.15630e-01,2.09783e-01,1.41837e-01,-1.58451e-01,-7.32428e-03,1.57714e-01,-1.77505e-01,-1.16109e-01,2.15348e-01,-8.05537e-02,-2.38275e-01,-2.09631e-01,2.50933e-01,1.91441e-01,3.13318e-01,1.57371e-01,-1.84532e-01,-8.53176e-02,-8.93101e-02,3.45321e-02,-4.08731e-02,3.49032e-02,-4.91994e-02,-1.16232e-01,
2.37309e-02,2.11376e-01,2.54849e-01,-3.60149e-01,-3.40495e-01,4.37888e-02,3.92050e-02,1.36536e-01,-3.23467e-01,2.20010e-01,9.24941e-02,-1.41015e-01,5.84915e-02,1.00513e-01,-2.90407e-01,2.81301e-01,1.67719e-01,-1.02166e-01,-1.72413e-01,7.20951e-01,-1.31189e-01,-5.41313e-02,-1.88082e-01,3.07337e-01,1.44808e-01,
4.26115e-02,2.73507e-01,3.34886e-01,3.75923e-01,-2.50659e-01,2.69826e-01,4.12527e-02,1.61270e-01,1.33472e-01,2.46148e-01,-2.23710e-01,1.85112e-01,-2.19103e-01,1.48021e-01,1.01303e-01,1.85318e-01,2.09849e-01,-3.17005e-01,1.73743e-01,8.96358e-02,-2.41505e-01,-2.03541e-01,1.66956e-01,7.35763e-02,1.82721e-01,
1.00760e-01,-3.16759e-01,-4.94547e-02,-3.01041e-01,-7.68309e-02,-2.48819e-01,-5.70760e-02,-1.40873e-01,-2.63063e-01,-1.21586e-02,-2.28482e-01,-2.05205e-01,-1.54158e-01,9.95690e-02,1.24635e-01,-2.26240e-01,-3.52807e-02,-2.19031e-01,-2.70213e-01,1.73684e-01,1.44575e-01,-3.33046e-02,-1.40336e-03,5.43351e-02,6.04745e-02,
-1.11308e-01,3.42537e-01,4.17278e-02,-2.03840e-01,7.74598e-02,2.04115e-01,-1.06912e-01,-4.18349e-01,-3.70214e-01,1.02868e-01,1.31138e-01,-8.78438e-02,1.60941e-02,-1.06320e-01,1.08507e-01,3.41812e-02,-9.53847e-02,-1.69031e-02,-2.71169e-02,-1.62849e-01,2.36692e-01,-1.04297e-01,-2.09263e-01,-2.33928e-01,1.87338e-02,
-1.71822e-01,1.46892e-01,-1.59165e-02,-3.13059e-01,1.16208e-01,-8.00885e-02,1.59528e-01,-1.38403e-01,-4.39026e-02,-1.39301e-01,1.86859e-01,-1.93891e-01,-3.55251e-02,1.97178e-01,1.38697e-01,4.54285e-02,2.72317e-01,-2.38334e-01,-2.65773e-01,6.86776e-02,4.52047e-01,1.33196e-01,-3.21568e-01,7.81824e-02,-1.56409e-01,
1.48029e-01,-4.36947e-01,1.58643e-01,-2.53990e-01,2.25458e-02,-3.24869e-01,-1.37399e-01,2.87178e-01,2.85765e-03,1.23047e-01,-1.44227e-01,-1.22381e-01,1.05953e-01,2.00326e-01,-1.45580e-01,-5.66726e-02,1.62620e-01,-2.07415e-01,3.90728e-01,4.65585e-02,4.49566e-02,-2.11817e-01,-6.88129e-02,-1.38393e-01,3.01984e-01,
1.63520e-01,2.42581e-01,3.05621e-02,2.18786e-02,4.37408e-01,2.74896e-02,1.07002e-01,-2.00233e-02,9.32201e-02,-1.01720e-01,-5.72507e-02,3.91505e-02,-2.10838e-01,1.24599e-01,-2.27453e-01,2.43846e-01,3.77740e-02,-3.48899e-01,2.48364e-01,-2.20926e-02,4.13868e-02,-1.60786e-01,2.72285e-01,-1.33413e-01,1.78210e-01,
-1.22960e-02,2.02559e-01,8.35965e-02,2.53635e-01,2.45407e-02,-8.97222e-02,8.41316e-02,-8.36617e-02,-8.75364e-02,-3.30284e-02,1.13012e-01,1.42706e-01,4.01651e-02,-4.58720e-02,-7.78695e-02,8.78155e-03,-1.48589e-01,-1.31497e-01,5.91505e-02,-2.40847e-02,2.67882e-02,7.19418e-02,3.28298e-01,-4.48580e-02,2.94584e-02,
-2.07632e-01,-1.10313e-01,-1.12462e-01,-1.42803e-01,2.12154e-01,-3.98978e-01,-9.69986e-02,-1.08050e-01,-3.53852e-01,4.47891e-02,-1.07107e-01,9.90882e-02,-1.61971e-01,1.91465e-01,6.67465e-02,7.21208e-03,1.29453e-02,2.60061e-01,-1.21300e-01,3.62180e-01,1.95076e-01,2.16765e-01,3.07254e-01,-1.79795e-01,-2.21696e-02,
-4.41278e-02,3.25478e-01,-1.09028e-01,-2.80274e-01,2.65704e-01,3.10025e-01,-1.82720e-02,-1.04378e-01,3.14652e-01,-1.73773e-01,1.82279e-01,1.46739e-01,-2.74062e-01,7.53610e-02,-1.94189e-01,1.12246e-01,7.66914e-02,1.44995e-01,1.46178e-01,9.26959e-02,1.74169e-01,-1.66530e-02,2.84367e-02,1.99032e-01,-1.85755e-02,
2.08441e-02,-6.12882e-02,-1.40283e-01,1.01423e-01,-1.65874e-01,3.81852e-01,-2.34543e-01,-3.01443e-01,1.81461e-01,1.39356e-02,-7.33634e-02,1.82029e-01,-2.60619e-01,-3.06927e-01,-1.39259e-01,-3.14285e-01,2.24940e-01,-3.10818e-01,3.24954e-01,-1.92796e-01,-1.44349e-01,-7.54883e-02,4.93134e-02,-1.28920e-02,3.00154e-02,
-2.04993e-01,-1.12158e-02,-2.22967e-01,-2.20091e-01,9.55905e-02,-1.24973e-01,1.97602e-02,-1.43552e-01,1.14056e-01,1.06670e-01,-1.73383e-01,-3.30176e-01,-2.07083e-01,1.91647e-01,6.22959e-02,1.15518e-01,1.58887e-01,3.46417e-01,-1.61715e-01,-4.21370e-02,2.29803e-01,1.77969e-01,2.65028e-04,3.18990e-01,-2.56963e-01,
-1.07868e-01,-1.37515e-01,-2.97487e-01,-1.14446e-01,1.59454e-01,-7.49103e-02,-1.52286e-01,6.53003e-04,8.47308e-02,4.59883e-03,1.36920e-02,6.54149e-02,2.75462e-01,-3.01216e-02,-1.06317e-01,-1.34165e-02,2.52827e-01,1.75755e-01,3.64754e-01,-9.39043e-02,-1.72254e-01,1.78610e-02,5.82391e-02,4.75226e-02,-1.45056e-02,
3.79427e-02,-8.44647e-02,-1.43901e-01,4.84223e-02,3.05905e-01,-1.66660e-01,-5.09939e-02,-2.52266e-02,-2.13401e-01,1.46546e-01,-5.69754e-02,4.69062e-02,6.12210e-02,7.09457e-02,-1.84595e-01,4.88773e-02,-1.89967e-02,-1.52455e-01,9.26684e-02,-1.81443e-01,-1.37265e-01,-1.55728e-01,4.33896e-01,-9.96394e-02,7.43195e-02,
-1.79041e-01,-1.11720e-01,8.13037e-02,2.66487e-01,8.15183e-02,3.41274e-01,-4.82375e-02,-5.02288e-02,-7.78845e-02,8.09850e-02,-1.45416e-01,-2.20279e-01,-3.40067e-01,3.99390e-02,4.18337e-01,-9.13618e-02,-1.19243e-01,-1.06304e-01,-5.37948e-01,-3.30386e-01,1.00591e-01,-2.01266e-02,-2.32294e-01,-3.40402e-01,-3.17034e-01,
1.38130e-01,-1.72994e-01,4.44351e-02,-2.77597e-01,-2.07273e-01,-1.02341e-01,2.42849e-02,-3.90253e-01,2.98742e-01,3.11388e-02,-4.19984e-02,-2.64245e-02,5.91652e-02,-2.01920e-01,-1.29678e-01,1.12736e-01,-4.19795e-02,7.92075e-02,4.09257e-01,-9.14318e-02,1.03138e-01,-2.01773e-01,1.36069e-01,1.92426e-01,7.40552e-02,
1.55181e-01,-1.83819e-01,-1.23953e-01,1.41046e-01,-1.85893e-01,-2.19215e-01,-6.93100e-02,4.15127e-02,-3.95263e-01,5.19376e-02,-7.74110e-02,3.08167e-01,-2.16487e-01,6.17358e-02,-1.92554e-01,-4.81890e-01,2.11374e-01,2.64766e-01,3.07153e-01,-1.15684e-01,-3.78390e-01,1.50785e-01,3.91105e-01,-1.93415e-01,1.35809e-01,
9.82857e-02,1.44545e-01,7.35306e-02,2.55411e-01,-1.44413e-01,2.02201e-01,-4.28442e-02,2.73611e-01,2.66093e-01,-1.58389e-01,6.62912e-02,2.75771e-01,1.76509e-01,-2.04184e-01,4.00876e-02,-3.50966e-02,-2.25111e-01,4.68581e-02,-2.22574e-02,1.89605e-01,-1.41456e-01,-5.37420e-03,-8.28207e-02,5.64889e-03,1.36444e-01,
1.05412e-01,-1.16412e-01,1.84224e-01,1.31275e-02,1.12323e-02,-1.07575e-03,2.53364e-01,-1.28565e-01,-2.02022e-01,2.08938e-02,2.71921e-01,2.74550e-01,-3.07396e-02,2.46234e-01,1.53181e-01,1.46256e-01,-1.59659e-01,8.28399e-02,-1.95874e-01,-1.13482e-02,-1.74736e-01,-2.31207e-01,-9.68916e-02,-1.21715e-01,-1.25538e-01,
-1.65156e-01,1.96517e-01,1.84988e-01,-5.91012e-02,-1.59925e-02,2.92236e-01,2.34974e-01,-1.95687e-02,1.34260e-01,-7.66117e-02,2.93506e-01,1.63121e-01,-1.62821e-01,1.13873e-01,1.05882e-01,1.54230e-01,8.97712e-02,1.32515e-01,-2.35272e-01,1.29927e-01,1.09868e-01,5.86490e-02,-2.07830e-01,1.31889e-01,-2.44368e-01,
-1.84245e-01,-9.21318e-02,-8.49830e-02,7.68500e-02,-4.89452e-02,-1.00590e-01,-8.52204e-03,5.23884e-02,2.36762e-01,1.42815e-01,7.23208e-04,-7.61628e-02,7.69755e-02,-2.57522e-01,4.55568e-01,5.93519e-03,-1.17061e-01,-2.35065e-01,-1.05218e-01,2.89999e-01,2.44984e-01,1.41372e-01,-4.25176e-01,-4.52394e-01,-5.43706e-02,
1.51590e-02,
1.87535e-01,
2.27290e-01,
-1.43419e-01,
5.71310e-02,
2.78002e-01,
-5.55527e-02,
1.00512e-01,
1.58298e-01,
-1.01921e-01,
1.24097e-01,
1.50188e-02,
-2.37851e-01,
1.02940e-01,
2.18879e-01,
2.81366e-01,
-9.51546e-02,
-3.76198e-02,
1.56334e-01,
-7.58148e-02,
-1.93133e-01,
2.31326e-01,
1.86189e-01,
-2.90272e-01,
3.97017e-02,
1.37113e-01,-7.35586e-02,-8.41693e-02,-2.54788e-01,-2.67484e-01,-9.45049e-02,-1.85841e-01,1.62068e-02,-2.07584e-01,-9.76609e-02,3.04645e-01,-6.92997e-02,-7.76280e-03,1.25394e-01,1.57936e-02,-1.40366e-01,-1.37328e-01,1.54471e-02,-7.34731e-02,2.00176e-01,2.24782e-01,-3.04025e-01,-1.66933e-01,-1.60665e-01,-3.06184e-01,
-8.97137e-02,1.24078e-01,-1.67490e-01,-8.23151e-02,1.77568e-01,-9.38120e-02,2.03482e-01,-5.72174e-02,-8.67548e-02,8.15074e-02,1.74692e-01,1.42076e-01,1.85343e-02,-6.72498e-02,1.21224e-01,-1.14915e-01,1.90496e-02,-4.01326e-02,2.18591e-01,9.38554e-02,1.73599e-01,1.69224e-01,-3.84708e-01,2.86852e-01,-1.26563e-01,
1.33549e-01,2.24049e-01,2.26165e-01,-3.30512e-01,1.15495e-01,-4.39176e-02,1.61983e-01,1.54681e-01,1.09653e-01,6.86973e-03,-1.47579e-01,2.11883e-01,7.35965e-02,-1.04477e-01,-1.52288e-01,-2.19422e-01,-9.78933e-03,1.97263e-01,9.16870e-02,-1.98619e-01,-2.88504e-01,2.96499e-02,-2.02389e-02,-3.49208e-01,2.98960e-01,
-1.72964e-01,-3.16796e-01,2.61256e-01,3.09958e-01,-1.94403e-01,-1.17605e-01,1.87064e-01,1.67317e-01,-3.15258e-01,6.25492e-02,-1.82945e-01,-2.52406e-01,-8.21622e-02,5.94289e-02,-2.78720e-01,-1.54546e-01,-4.12878e-02,-1.04533e-01,1.23988e-01,-4.66908e-02,1.27832e-01,-2.08544e-01,-3.38040e-01,2.15517e-01,2.16251e-01,
-6.85816e-02,-3.49401e-01,-2.28871e-02,-1.16521e-01,1.51413e-01,-4.90548e-02,1.23084e-01,4.45484e-01,2.62226e-01,-4.59294e-02,1.06483e-01,-2.41555e-01,-3.69605e-01,5.75963e-02,1.23668e-01,-6.81218e-02,-1.07805e-01,3.32184e-01,3.25076e-01,-2.95899e-01,-2.42119e-01,1.60030e-01,-2.79995e-01,-1.85335e-01,-1.76089e-01,
1.25527e-01,1.07958e-01,-2.20690e-01,-2.58808e-01,1.99216e-02,2.79885e-01,-5.30360e-01,-1.65822e-01,3.33586e-01,1.89681e-01,-4.48949e-01,3.81105e-01,8.64389e-02,1.55265e-01,1.71267e-01,3.62067e-02,-1.48105e-01,8.21446e-02,2.05994e-01,1.12715e-01,-5.73002e-02,-2.68734e-01,3.16548e-01,-3.35735e-01,-3.41443e-02,
-1.64242e-01,-4.84697e-02,1.77939e-01,-3.77104e-01,-7.28231e-02,3.34748e-01,2.64933e-01,2.29927e-01,2.14126e-01,-1.95478e-01,3.52437e-01,-1.89785e-01,1.01811e-01,2.50125e-02,-2.22931e-01,2.67377e-01,-4.02639e-01,-8.54104e-02,-3.49825e-01,2.54751e-01,-3.20479e-01,-1.73971e-01,-1.76378e-02,2.26187e-01,2.49254e-02,
-1.35258e-01,2.53586e-01,-1.20779e-01,2.70483e-01,2.12525e-01,-2.64626e-01,1.31258e-02,1.09843e-01,-2.10486e-01,1.32974e-01,-1.69914e-01,4.43178e-01,-9.33280e-03,3.01425e-01,5.28616e-02,1.05250e-01,6.40935e-02,5.13702e-02,-2.47837e-01,3.66838e-02,1.72540e-01,2.36587e-01,-2.29553e-01,6.39951e-02,-9.29626e-02,
1.56629e-01,-2.83780e-01,1.90004e-01,3.46253e-01,4.36977e-01,-2.95649e-01,-5.91729e-02,-2.66140e-01,-1.31074e-01,-1.27257e-01,-1.04656e-02,1.48676e-01,-4.21662e-02,6.89925e-02,2.20214e-01,-1.96486e-01,1.97460e-01,3.16309e-01,-6.57845e-03,-7.93687e-02,-1.02384e-01,2.96101e-02,3.37820e-02,-7.01260e-02,1.85432e-01,
2.37626e-01,-5.56890e-02,-2.51410e-01,-2.90326e-01,-8.03133e-02,-2.17588e-01,-1.82633e-01,-2.51109e-01,-1.94804e-01,-2.75911e-01,-8.30579e-02,1.52174e-01,8.64441e-02,-1.30905e-02,-8.40716e-02,1.47776e-01,-1.73694e-01,1.59230e-01,-4.47470e-02,1.70620e-01,1.76560e-01,-7.53909e-02,1.37319e-01,1.33098e-01,2.96999e-01,
-1.51271e-01,2.69507e-01,-6.90251e-02,2.01615e-01,1.79910e-01,-7.70773e-02,-7.44356e-02,-1.83234e-01,3.21945e-01,-1.07614e-01,-2.14248e-01,2.16427e-01,1.88981e-01,2.10892e-01,1.25744e-01,-1.97098e-02,-1.46154e-01,1.39488e-01,-2.16706e-01,6.64937e-02,-2.34710e-01,-3.10207e-01,-2.75225e-01,1.39496e-01,-2.24091e-02,
1.23382e-01,7.11765e-02,2.42886e-01,-1.12480e-01,-3.40651e-01,1.28671e-01,1.16985e-01,9.12323e-02,-2.49587e-01,1.91236e-01,-3.59326e-01,1.62392e-02,1.06047e-01,-1.65664e-01,1.09631e-01,1.83972e-01,-2.29216e-01,-9.64387e-02,-4.93666e-01,-2.60211e-01,-1.58134e-01,-2.18864e-01,-4.50583e-02,2.56111e-01,-2.14837e-01,
7.64860e-02,-5.32659e-02,-2.46234e-01,-2.35790e-01,6.35014e-02,-2.33958e-02,-3.81302e-01,2.33982e-01,2.23738e-01,-3.07148e-01,-1.26458e-01,-1.08127e-01,-1.27838e-01,-3.02720e-01,4.04448e-02,2.25253e-01,2.01841e-01,1.54642e-01,1.80633e-01,-1.22469e-01,-1.76219e-02,-7.38849e-02,-3.54203e-02,2.10969e-01,-3.07564e-02,
-2.77206e-01,2.43401e-01,-1.48136e-01,1.42892e-01,-3.81654e-01,-2.13602e-01,-1.85437e-01,2.49304e-01,6.73982e-02,1.71832e-01,3.32107e-02,-3.28869e-01,2.11841e-02,9.00419e-02,-8.68456e-02,-3.48360e-01,1.52934e-01,1.36253e-01,-3.34040e-03,-3.78216e-01,8.03531e-02,1.62761e-01,5.04841e-02,1.25882e-01,-4.58950e-02,
-1.60873e-01,1.11939e-01,-6.98835e-02,2.99165e-01,1.46930e-02,-9.34757e-02,-1.99548e-01,-2.13309e-01,2.73376e-01,-8.51529e-02,-5.79691e-01,-1.37377e-01,-1.05549e-01,3.66053e-01,3.59241e-01,-2.34153e-01,-5.43991e-01,8.52656e-01,-2.36909e-01,-8.89468e-03,-1.99988e-02,-2.57629e-02,2.62593e-01,-1.69567e-01,2.05475e-01,
1.90209e-01,-2.15287e-01,3.67862e-01,3.04588e-01,5.07635e-02,3.67890e-02,4.08343e-01,2.25974e-01,-6.55204e-02,-1.91246e-01,5.46003e-02,-1.97314e-01,-7.42260e-02,-1.87909e-01,8.37166e-02,2.92131e-01,1.17842e-01,1.52018e-01,-1.82714e-01,1.15531e-02,-1.16766e-01,2.20391e-01,5.42788e-02,2.35055e-01,-5.19763e-02,
2.99050e-01,-1.91556e-01,2.14833e-01,-2.75860e-01,1.21714e-02,-7.59837e-02,-1.17600e-01,-2.67321e-01,-7.33251e-02,3.28781e-01,-1.48721e-01,-7.91353e-02,-1.52617e-01,1.92141e-01,2.24630e-01,1.87245e-01,-2.91605e-01,-3.04759e-02,1.24272e-01,1.65929e-01,2.58919e-01,-2.96971e-01,3.97026e-01,2.83479e-01,-6.76860e-03,
-2.68725e-01,-6.61139e-02,4.41367e-02,-7.52177e-03,2.19580e-01,2.59243e-01,-1.86568e-01,-1.61871e-01,2.28316e-01,-1.20540e-01,-2.70068e-01,-1.16212e-01,-2.16661e-01,-6.55011e-02,-7.63651e-02,-3.17297e-01,9.12709e-02,3.00338e-02,2.30951e-01,1.26074e-01,1.18435e-01,2.92120e-01,-2.77104e-01,9.25391e-02,2.93213e-02,
-2.20050e-01,-2.05322e-01,-2.65392e-01,3.41206e-01,1.60898e-02,-1.66499e-01,-4.71072e-02,-7.84559e-02,-9.97537e-02,-2.00549e-01,7.37192e-01,1.81240e-01,1.61916e-01,-5.50682e-01,2.28606e-01,1.94752e-01,2.02175e-01,-4.49173e-01,1.43613e-01,1.16055e-01,-1.57994e-01,2.90209e-02,5.58924e-04,7.26719e-02,3.94335e-02,
6.96868e-02,-8.36710e-02,-1.83278e-01,-1.05407e-03,2.26504e-01,-7.46924e-02,3.66068e-01,1.13979e-02,-3.55697e-01,3.45462e-01,2.91608e-01,6.66903e-01,-2.71466e-01,-3.94155e-02,-3.48071e-01,1.92767e-01,5.47587e-01,-4.77206e-01,5.18267e-01,1.60761e-01,7.83295e-02,1.28176e-01,-1.10345e-01,3.28860e-01,7.07494e-02,
2.64040e-02,2.04397e-01,-1.51697e-01,2.47888e-01,-3.48149e-01,8.62262e-02,4.05617e-01,1.86740e-01,-2.19455e-01,2.29639e-01,-1.27819e-02,9.85907e-02,-1.55725e-01,1.05599e-01,1.86598e-01,-2.40940e-01,-4.71569e-01,-8.59992e-02,-3.55884e-01,7.56533e-03,-1.81117e-01,-9.21197e-02,-2.23018e-01,-3.36765e-01,6.05034e-02,
-1.45139e-02,2.21896e-01,-3.31166e-01,2.59891e-01,1.07455e-01,2.45431e-01,-1.05048e-01,-6.35151e-02,-1.08710e-01,1.86295e-01,1.87816e-01,-5.11161e-02,-1.84284e-01,6.22697e-02,-1.21427e-01,-3.61016e-01,-4.79662e-02,-3.19135e-01,-2.91800e-01,3.21119e-02,-2.49309e-01,4.20993e-02,2.81097e-01,2.08236e-01,-2.14910e-02,
2.19037e-01,-2.89759e-01,-1.59542e-01,-3.04827e-01,-9.93724e-02,1.02385e-01,-1.60836e-01,-8.30272e-02,-7.12426e-02,1.08416e-01,-2.43934e-01,1.71792e-01,8.62017e-02,-5.21815e-02,1.02560e-01,-1.47779e-01,3.93530e-01,6.13424e-01,-2.34138e-01,-2.93411e-01,-1.31905e-02,2.42094e-01,-7.94088e-02,2.02017e-01,-1.95408e-01,
2.93474e-01,-1.12993e-01,-1.20277e-01,2.04107e-01,2.18834e-01,-2.02080e-01,-1.08829e-01,-1.21091e-01,-1.85363e-01,1.82435e-01,1.05397e-01,2.82709e-01,-7.29954e-02,-4.32167e-02,2.48206e-01,2.38282e-01,-7.33019e-02,-2.30885e-01,1.14339e-01,1.42051e-01,-4.13407e-03,-3.07517e-01,-2.13755e-02,-1.25962e-01,-1.79148e-01,
-2.56982e-01,-3.75657e-01,1.34465e-01,-1.13493e-03,-2.94739e-02,-1.23269e-01,2.79834e-01,-9.21317e-02,1.90025e-01,-2.98602e-02,-2.64983e-01,-1.12895e-01,3.11564e-02,2.54981e-01,-1.46188e-01,-7.49561e-02,-1.01232e-01,-2.23833e-01,-2.48564e-02,1.02292e-01,-2.30455e-01,-2.25547e-01,3.42458e-02,1.81127e-01,-5.72369e-02,
-1.86694e-01,
-3.51661e-01,
-3.19056e-01,
-2.97637e-01,
7.46059e-03,
-2.68449e-01,
-2.27034e-01,
1.69060e-01,
1.54619e-01,
-2.88528e-01,
-2.65810e-01,
2.81098e-02,
8.86641e-02,
-5.33017e-02,
1.84979e-02,
-4.74406e-02,
-9.11510e-02,
3.30647e-01,
7.59417e-02,
1.14871e-01,
9.95657e-02,
-5.46580e-02,
1.10634e-02,
-2.19648e-01,
2.20646e-01,
5.31363e-02,2.17647e-01,3.08599e-02,1.73763e-01,9.22988e-03,7.30756e-04,-1.17276e-01,-1.40683e-01,-4.16500e-04,3.41251e-01,2.81526e-01,5.10124e-05,-1.81833e-01,3.75133e-01,-2.26069e-04,2.75322e-01,-1.42101e-01,1.58805e-01,-1.80526e-04,-5.77973e-04,-7.95722e-03,1.83326e-01,1.54140e-02,4.14201e-01,5.14608e-02,
2.17924e-01,3.73188e-01,6.65139e-02,4.12233e-01,-4.35454e-02,2.69784e-04,-1.64517e-01,-1.43129e-01,1.10527e-05,-1.42838e-01,2.73129e-01,-3.23589e-04,3.35474e-01,-3.61270e-01,4.90016e-04,-7.83101e-02,1.26409e-01,-3.51829e-01,-6.01637e-04,-3.51547e-04,-3.17050e-03,3.30666e-01,1.02177e-01,-3.59000e-01,-7.20253e-02,
2.67001e-01,-2.32432e-02,3.11572e-01,-5.23243e-01,-3.03520e-01,-9.13643e-02,-3.67579e-01,-8.27707e-02,5.25714e-02,-1.78677e-01,2.17260e-01,5.52944e-02,2.56391e-01,1.43963e-01,-3.90325e-02,-3.56916e-01,1.15145e-01,8.49437e-02,-2.98581e-03,-5.44657e-02,-1.73180e-01,4.29013e-02,-5.64705e-01,2.22528e-01,6.80970e-02,
-1.54372e-01,4.39223e-01,1.40493e-01,1.36001e-01,-2.29196e-01,1.09918e-03,4.08808e-01,7.49724e-02,2.14292e-03,2.97614e-02,-3.96337e-02,3.91989e-04,2.75727e-01,3.99217e-01,1.14983e-03,2.36517e-01,2.31602e-01,8.92146e-02,-1.01897e-03,-3.74316e-03,6.31234e-02,-2.00887e-02,1.68078e-01,3.89973e-01,-2.38603e-01,
-1.96394e-01,3.23864e-01,-6.26022e-03,1.85982e-01,-4.23491e-03,1.02693e-03,3.69529e-01,-2.06234e-01,1.22497e-03,6.62065e-03,-1.42627e-01,-1.03729e-03,1.52356e-01,-9.40834e-03,5.20104e-03,-1.54663e-01,-2.67090e-03,4.56448e-03,-2.85789e-03,-7.01276e-03,4.58292e-02,-1.04070e-02,3.56167e-01,3.75952e-01,-3.15345e-02,
7.08537e-01,
6.09572e-01,
-2.20168e-01,
5.39256e-01,
3.44004e-01,
