// Neural Network File Format by Kyle Julian, Stanford 2016
6,5,5,25,
5,25,25,25,25,25,5,
0,
-56000.000000,-56000.000000,-3.141593,200.000000,200.000000
56000.000000,56000.000000,3.141593,200.000000,200.000000
-278.628049,0.000000,0.000000,200.000000,200.000000,-0.242819
112000.000000,112000.000000,6.283185,1.000000,1.000000,17.479225
1.25637e+00,-1.45689e+00,2.57706e-01,-1.95387e-01,2.01955e-01,
-1.61740e+00,1.66279e+00,1.29285e-01,1.43841e-02,-2.11632e-01,
2.99458e-01,-1.07751e+00,9.26552e-01,-3.25948e-01,-2.92976e-01,
-5.03734e-01,4.19157e-01,4.38857e-01,1.28456e-02,2.12294e-01,
2.43293e+00,-2.04275e-01,7.03504e-03,-1.12911e-01,1.14442e-01,
-1.63771e+00,2.39249e+00,-1.23889e-01,3.87683e-01,-8.89558e-02,
1.31605e+00,6.64850e-02,-1.52729e-01,7.95147e-02,9.62611e-02,
-3.03200e+00,1.49583e+00,3.73520e-01,1.64081e-01,-1.70713e-01,
-4.65430e-01,6.76510e-01,1.13851e-01,1.55308e-01,1.44208e-01,
1.49201e+00,-3.74355e-01,1.06646e-01,-1.36306e-01,3.65954e-01,
-1.61630e-01,-8.47995e-01,2.76657e-01,2.09817e-01,-3.27013e-01,
-4.67154e-01,-2.34332e+00,-1.11925e-01,2.49315e-01,3.04202e-01,
1.04475e+00,2.08250e-01,-4.17933e-02,1.86808e-01,-2.41387e-01,
-1.14467e+00,-1.61918e+00,-1.63768e-01,1.57833e-01,8.92573e-02,
1.21914e+00,3.64759e-01,5.02593e-01,-9.02968e-02,-3.63741e-01,
-1.69257e-01,-3.45467e+00,-1.01636e+00,-2.74122e-01,1.13316e-01,
9.85835e-01,1.38260e+00,-4.75002e-01,3.16415e-01,-3.08029e-01,
-2.81935e-01,-8.01754e-01,-3.51732e-01,1.74548e-01,2.24430e-02,
-1.39239e+00,-1.24711e+00,-8.53818e-01,4.24425e-01,3.41149e-02,
1.24013e+00,-1.10016e+00,1.92555e-02,-3.28926e-01,1.87367e-01,
-3.42360e-01,5.18541e-02,5.36907e-02,-4.88131e-02,-1.72771e-01,
-6.34975e-01,-1.73292e-01,-6.20858e-02,-1.04051e-01,1.85145e-01,
1.60020e+00,-1.42989e+00,-1.02168e-01,-4.45599e-02,-1.34821e-01,
-9.59946e-01,-1.39275e+00,6.64810e-01,-2.91131e-01,1.89994e-01,
-6.25027e-01,5.53114e-02,-8.65685e-01,-8.97876e-02,-1.99872e-02,
1.93672e-01,
1.05015e-01,
2.12966e-02,
-2.29512e-01,
-6.94544e-03,
-3.19820e-02,
6.36540e-02,
1.12233e-03,
2.07374e-01,
1.80917e-01,
2.21346e-01,
7.70838e-02,
1.40702e-01,
1.82648e-01,
-3.73870e-03,
4.91856e-02,
2.18204e-01,
1.86377e-01,
1.66782e-01,
3.52801e-04,
-1.17498e-01,
-2.57679e-01,
8.91623e-02,
-4.30421e-02,
-1.42269e-01,
-1.61313e-01,-2.23296e-01,2.75119e-01,-1.28338e-01,-2.87581e-02,5.91569e-01,6.02279e-03,-5.22369e-01,3.55681e-02,8.86031e-02,-2.87989e-01,3.05317e-01,2.56460e-01,7.60934e-02,1.05232e-01,-3.29503e-02,-2.65658e-01,2.56088e-01,5.02805e-01,-3.10793e-02,-3.74511e-02,1.81568e-01,8.93145e-02,9.72317e-02,-9.07503e-01,
-2.08734e-01,2.95167e-02,-8.62137e-02,3.58060e-01,-3.71973e-02,4.84821e-01,-2.78626e-01,2.28557e-01,2.25857e-01,4.99650e-02,-3.38597e-02,-1.70170e-01,-1.06915e-01,-4.34848e-01,3.65830e-01,1.09149e-01,-2.09376e-01,-3.15549e-01,2.45826e-01,5.83049e-01,1.76528e-01,-3.16868e-01,-3.39438e-01,3.49336e-01,1.65448e-01,
-2.14444e-01,2.63925e-01,1.11127e-01,-8.41327e-02,6.48171e-01,5.77743e-01,-3.54402e-02,5.50680e-01,-1.49222e-01,-1.01044e-01,-1.13578e-01,4.64694e-02,-4.10642e-01,-7.98581e-02,3.24315e-01,-2.49474e-01,-3.63655e-01,-1.12647e-01,2.52544e-01,3.38533e-01,-7.82550e-03,4.51120e-02,-1.04123e-01,-2.91374e-01,6.57817e-01,
1.13614e-01,-5.27943e-02,1.72008e-01,1.52464e-01,-5.28558e-01,3.72673e-01,-8.45448e-03,-3.36597e-01,2.01063e-01,-7.85089e-03,-2.14254e-01,7.46637e-02,7.04928e-02,1.75144e-01,-9.26452e-02,-5.30262e-01,-1.85193e-01,1.36993e-01,-8.70032e-02,5.17797e-01,1.24899e-01,1.65832e-01,-4.15114e-01,-3.61171e-01,5.18620e-01,
1.00562e-01,1.71441e-01,-3.94197e-01,2.48088e-01,1.04650e+00,-6.67277e-01,-1.86606e-01,1.17993e+00,2.79154e-01,3.13024e-01,-2.53659e-01,-1.29273e-01,1.87835e-01,-7.45582e-02,1.54089e-01,-1.42971e+00,2.63805e-01,3.13551e-02,-8.22636e-01,1.49870e-02,-1.07716e-01,-4.07221e-01,-1.85521e-01,-8.51071e-01,6.42389e-01,
-1.73772e-01,2.49639e-01,-4.89431e-01,2.56863e-01,-1.48473e-01,3.99019e-01,-3.34008e-02,-4.37022e-01,-2.07096e-02,-4.34590e-01,1.04257e-01,-3.60352e-01,3.95381e-02,3.28047e-02,8.77546e-01,-1.00176e-01,-8.48512e-02,-3.72735e-01,-2.91979e-05,-4.89981e-02,1.70441e-01,2.63120e-01,-3.18850e-01,-2.23754e-01,7.93125e-01,
-3.00189e-01,7.25683e-03,-2.16251e-01,2.07696e-01,-8.67567e-01,1.77605e-01,1.78363e-02,-1.34822e+00,-3.54588e-01,-1.45392e-01,2.48475e-01,1.53873e-01,-1.60589e-01,-2.64266e-02,-8.54084e-01,1.54228e-01,3.89970e-01,-9.37908e-02,-1.08453e-01,-1.05957e+00,-3.56443e-01,-4.26361e-02,-3.13492e-01,3.84624e-01,-8.14229e-01,
1.57310e-01,-1.69590e-01,4.07174e-01,4.85850e-02,-1.33795e+00,8.04208e-02,-4.05574e-02,-1.60852e+00,-1.58566e-01,2.55170e-01,1.68664e-01,-1.06912e-01,1.83509e-01,6.05410e-02,-2.74407e-01,-7.08342e-01,-3.18101e-01,-1.53310e-01,-2.79999e-01,-3.09647e-01,-1.15244e-01,-2.86370e-02,-5.53695e-02,-7.21514e-01,-2.75666e-01,
-3.50860e-01,6.60168e-02,2.11976e-01,-2.10331e-01,-1.28901e+00,3.81927e-01,2.55975e-01,1.03353e-01,1.42315e-01,1.99941e-01,-1.64850e-01,-5.29084e-01,1.74151e-01,-3.34033e-01,6.28213e-01,-5.16666e-01,1.45055e-01,4.45585e-02,1.55952e-01,-8.53249e-01,5.20097e-02,4.87497e-02,-4.18925e-01,-5.01709e-03,9.23120e-02,
-1.18027e-01,-3.23606e-01,-5.16102e-01,2.28737e-01,-4.86728e-01,8.87695e-01,-1.33067e-01,-1.14743e+00,4.33304e-01,2.71793e-02,-1.18033e-01,1.65225e-01,1.39109e-01,1.67435e-01,2.03155e-01,-2.41788e-01,-2.01541e-01,-1.15479e-01,2.26813e-01,4.69271e-01,-1.50389e-01,-1.93875e-01,-1.35312e-02,-1.25546e+00,-1.05785e+00,
1.83129e-01,-2.15846e-02,4.33795e-02,-1.34756e-02,-6.01373e-01,-4.06668e-01,2.30262e-01,-7.84943e-02,-5.59444e-02,-1.62758e-01,-3.24539e-01,3.29084e-01,2.65905e-01,-2.03777e-01,9.25396e-03,-4.47098e-01,2.01336e-01,-1.50245e-01,6.40336e-02,3.44911e-01,-8.28937e-02,2.90361e-01,4.89019e-01,2.32952e-01,5.62146e-01,
-2.76493e-01,-2.54646e-01,2.51615e-01,1.36744e-01,-8.53126e-01,4.93181e-01,-9.86705e-03,-8.69556e-01,-4.23210e-01,3.65714e-01,-3.97997e-01,-9.29342e-02,6.57747e-02,-2.63958e-01,-3.66192e-01,2.19762e-01,-2.10184e-01,-5.31977e-02,1.03331e-01,4.39841e-02,2.37862e-01,-1.02364e-01,-8.91217e-02,-2.53030e-01,-1.91049e-01,
-4.44143e-02,1.81431e-01,8.50556e-02,2.22996e-01,-1.01731e+00,-9.43590e-01,3.36803e-01,-4.86657e-01,-3.55937e-01,3.04907e-01,5.17971e-02,-4.60509e-02,3.33656e-01,3.62989e-02,4.51361e-01,-1.52307e-01,1.76753e-01,1.82757e-01,1.01883e-01,-1.08758e+00,2.55831e-01,1.19422e-01,4.13776e-01,-2.69799e-01,-9.47680e-02,
3.14207e-01,-3.56475e-01,4.86442e-01,-2.03153e-02,2.61467e-01,2.28645e-01,4.20006e-01,-8.61707e-01,-7.66390e-02,-2.06170e-01,2.11880e-01,-7.17585e-02,4.44819e-02,2.06550e-01,-2.19708e-01,-1.14396e-01,-2.33675e-01,-1.27279e-02,-8.11083e-02,7.71960e-01,-2.76467e-01,2.76641e-01,-1.30952e-01,3.50079e-01,-8.36450e-02,
-2.92990e-01,2.67834e-01,2.22988e-01,3.01045e-01,7.23630e-01,-1.35418e+00,-3.52677e-01,4.07815e-01,-2.60648e-01,-4.62856e-01,4.09183e-01,-2.90031e-01,-2.10669e-01,-1.96855e-01,1.95663e-01,3.29406e-02,-5.55233e-01,-1.16853e-01,1.34383e-01,7.67237e-01,1.52379e-02,-3.05735e-01,-4.01832e-01,-3.64825e-01,-3.28773e-01,
2.75630e-01,2.34705e-01,-5.12433e-02,7.03300e-02,-1.02985e+00,4.14465e-02,-1.05381e-01,-9.64023e-02,-1.50592e-01,3.05838e-01,4.26603e-02,1.46658e-01,7.74425e-04,-2.75493e-01,3.60196e-01,9.57293e-03,-1.49874e-01,3.57268e-01,2.42159e-01,-8.58456e-01,-2.88750e-01,-7.98869e-02,-2.14618e-02,-4.59819e-01,-3.18366e-01,
-1.31730e-01,1.37725e-01,1.73828e-01,1.20169e-01,-2.10505e+00,-7.27601e-01,-3.69575e-01,-5.65639e-01,5.67715e-02,-6.00043e-02,2.42123e-01,2.22902e-01,-3.16039e-02,-2.27032e-01,-5.00931e-01,-1.30943e+00,5.66643e-02,-2.53550e-01,-6.58755e-02,2.62682e-01,7.68251e-02,3.52035e-01,-3.41382e-01,-2.41791e-01,2.89982e-02,
1.04550e-01,-3.37992e-01,9.18848e-01,-6.57445e-02,-1.80594e+00,-1.07655e+00,-3.64318e-01,-5.37984e-01,1.05988e-01,-6.85845e-02,-2.48273e-01,2.45905e-01,-2.22053e-01,2.10568e-01,-1.49847e-01,2.46930e-01,-4.70372e-01,1.68167e-01,3.12692e-01,-2.12506e+00,3.36586e-01,1.65001e-02,1.95625e-01,-6.78624e-02,-1.21757e-01,
1.74648e-01,-5.87948e-01,1.20118e-01,-1.31489e-01,1.22655e-01,8.24393e-01,3.48010e-01,2.77869e-01,-4.21401e-01,1.65596e-01,1.97526e-01,2.65169e-01,-4.21376e-02,2.61895e-01,-3.45370e-02,6.67707e-01,-3.39479e-02,3.83431e-02,5.75649e-01,-2.74289e-01,-1.73563e-01,3.00368e-01,-1.15868e-01,7.15226e-01,2.33077e-01,
-2.57539e-01,1.70082e-01,6.86859e-02,-4.42795e-01,-7.57810e-01,-1.40537e+00,7.17411e-02,-2.78448e+00,1.68202e-01,2.35580e-01,-4.74317e-02,2.53653e-01,2.26705e-01,-1.38338e-02,-7.98439e-01,-1.99080e-01,-7.02663e-02,-2.12290e-01,1.38063e-02,-1.04112e+00,-1.76108e-01,-4.16977e-01,3.53717e-01,-5.46724e-01,2.83149e-02,
8.82469e-02,9.27528e-03,-4.58900e-01,-2.62618e-01,-2.96703e-01,-1.74298e-01,3.47670e-02,9.95071e-02,3.64668e-01,1.69909e-01,6.31154e-02,5.43450e-01,-2.24832e-01,3.77771e-01,1.86078e-01,-2.34758e-01,5.29534e-02,1.93044e-01,-1.99039e-01,2.29264e-01,-2.87545e-01,1.91968e-02,-7.43373e-02,-6.43695e-01,-9.20193e-02,
-4.95110e-03,-3.98064e-01,1.44521e-01,3.37572e-01,4.81224e-01,-1.19613e+00,1.16640e-01,4.83094e-01,1.49481e-01,-2.71708e-01,3.92799e-01,1.35313e-01,2.05178e-01,2.50687e-01,-4.73982e-01,7.29262e-02,-3.91675e-01,-1.20310e-01,-1.34957e-01,5.24332e-01,1.72049e-01,1.64898e-01,2.47563e-01,2.39147e-01,-1.98243e-01,
-4.00112e-01,8.11770e-02,2.33334e-01,1.61130e-01,-2.03206e-01,9.69522e-01,-4.19716e-01,-4.78068e-01,2.58010e-01,-1.68988e-01,4.30144e-01,3.77817e-01,-1.17635e-01,5.35167e-01,6.11975e-02,1.50195e-01,-1.33013e-01,3.38702e-01,5.05962e-01,8.00716e-01,2.04207e-01,4.39205e-01,-4.02055e-01,3.38653e-01,-7.58629e-02,
-5.55426e-02,-1.17199e-01,-3.49263e-01,8.03385e-03,4.69629e-01,5.44917e-01,-1.95412e-01,3.54131e-01,1.52500e-01,3.51117e-01,1.76258e-01,6.74541e-02,-7.54837e-02,-5.26624e-01,3.53133e-01,-3.37718e-01,-3.47446e-01,-4.09342e-01,6.50958e-02,3.36618e-01,-4.52031e-02,1.62722e-01,-2.04156e-01,4.40718e-01,6.04943e-01,
4.20140e-01,3.42143e-01,-6.76587e-01,5.70848e-01,5.05269e-02,7.75754e-02,-1.10720e-01,2.86259e-01,2.99374e-01,4.47619e-01,-3.21777e-01,-3.76043e-02,-6.44479e-02,1.94472e-01,2.78024e-01,3.07926e-01,-1.07240e-01,-1.62068e-01,-1.84417e-01,-7.63113e-01,-5.95599e-02,3.38994e-03,1.48887e-02,-4.20506e-01,-6.04264e-01,
8.35992e-02,
-1.58653e-01,
-2.80389e-01,
-2.67961e-01,
9.21309e-02,
2.30959e-01,
2.01236e-02,
2.56557e-01,
1.13622e-01,
3.19675e-01,
-2.92482e-01,
1.68753e-01,
2.70044e-01,
-8.27124e-02,
-3.92248e-02,
-2.24985e-01,
2.85005e-01,
1.94846e-01,
-1.16951e-01,
-9.65594e-02,
-2.77460e-01,
1.32452e-01,
-2.08125e-01,
1.15395e-01,
-2.18617e-01,
-7.33020e-02,1.03678e-01,1.83560e-01,-3.85832e-01,-8.02440e-01,-1.26579e-01,-1.16669e-01,4.39145e-01,-5.54611e-01,-4.37032e-01,-2.33627e-01,-3.05974e-01,-1.44640e-01,-2.21700e-02,2.08196e-01,2.79721e-01,7.75668e-01,5.08479e-01,3.26412e-01,-3.33795e-01,7.60496e-02,5.62540e-02,-4.46559e-01,4.08628e-01,-1.55744e-01,
-1.37769e-01,-9.27880e-02,-3.71173e-01,-1.94045e-01,1.19495e-01,2.80038e-01,1.10246e-01,-3.72331e-01,1.27086e-01,-8.40904e-02,2.76582e-02,-7.37996e-02,4.61605e-02,-2.79470e-01,2.13339e-01,-3.38776e-01,-5.27668e-01,-5.88946e-02,-1.55195e-01,-4.76686e-02,4.23063e-02,1.76414e-01,3.51360e-01,4.52669e-01,-1.80738e-01,
-3.27358e-01,-1.71960e-01,-1.46262e-01,-9.12664e-02,1.80033e-01,4.16591e-01,-2.89512e-01,4.15252e-01,1.85901e-01,3.00987e-02,4.82338e-01,2.56676e-01,-1.79116e-02,-8.26926e-03,1.88878e-01,1.66173e-01,7.82088e-02,-1.67980e-01,-8.91910e-02,5.84721e-02,-3.38064e-02,1.51405e-02,1.01256e-01,3.95521e-02,2.84596e-01,
1.33687e-01,2.45406e-02,-2.94937e-01,-4.23964e-01,-7.64788e-01,-7.72586e-01,-1.13264e-01,-4.14468e-01,-5.35534e-01,9.63733e-02,-3.83247e-01,3.11041e-01,-2.51222e-01,-4.62389e-01,1.67848e-01,-3.09052e-01,-5.10188e-01,3.45085e-01,3.45379e-02,6.41116e-03,-2.68406e-01,5.42841e-01,2.43210e-01,-4.14462e-02,7.79183e-02,
3.04739e-01,7.06846e-02,-5.69860e-02,-3.71221e-01,-9.21821e-03,-1.45229e-01,-1.18733e-01,-5.71916e-01,-5.35438e-02,4.27054e-01,-3.82165e-01,3.24004e-02,-1.12452e-01,-1.15002e-01,-1.48487e-01,-3.96926e-01,-1.75651e-01,-7.63026e-02,-7.06818e-02,-2.59174e-03,-8.39414e-01,-8.09394e-02,6.78684e-02,-1.69229e-01,-3.32160e-01,
2.02177e-01,1.59280e-01,-7.43094e-02,-3.42469e-02,-6.37849e-01,-6.69136e-01,3.34821e-01,7.53762e-02,-2.33030e-01,-1.42757e-01,2.39766e-01,4.03588e-01,2.96907e-01,-2.28733e-01,-2.45263e-01,-3.78954e-02,-1.04209e-01,-6.12271e-02,-2.14626e-01,1.60219e-01,-1.56520e-01,-1.87375e-01,-3.69533e-01,4.44236e-01,-4.38604e-02,
-9.15137e-02,3.10805e-01,2.36123e-01,1.60138e-01,3.30838e-01,5.94369e-01,-2.30944e-01,1.06933e-02,6.96853e-01,1.62346e-01,3.29075e-01,-1.90150e-01,-2.58591e-01,2.92239e-01,3.74610e-01,-2.75008e-01,3.04223e-01,-2.76972e-01,-6.04939e-01,-3.62997e-01,-5.37056e-02,-9.59190e-02,-1.22883e-02,-6.48390e-01,-5.42398e-01,
2.93272e-01,2.21060e-01,1.53589e-01,4.52333e-01,-7.05069e-02,-3.76899e-01,1.19728e-01,7.82759e-02,-4.59673e-01,3.80816e-01,2.63643e-02,5.22319e-01,-2.00391e-01,-3.58533e-01,-1.50380e-01,1.78187e-01,-2.73932e-01,-6.67038e-01,-2.01728e-01,1.37666e-01,3.06082e-01,4.44476e-01,4.45010e-01,5.08722e-02,-6.76251e-02,
-6.79950e-02,-3.42142e-01,2.15225e-01,1.44199e-01,-1.78581e-03,-1.06856e+00,7.72572e-01,-3.97394e-01,-3.70918e-01,4.79793e-01,-2.85615e-01,-3.55158e-01,-1.04263e-01,-3.32962e-02,8.68805e-02,-2.57980e-01,-3.75547e-02,1.90339e-01,-3.76162e-01,2.19379e-01,3.65337e-01,1.92842e-01,-1.20310e-01,1.66808e-01,9.26744e-02,
-1.74086e-01,1.33914e-01,-3.08639e-01,-2.42066e-01,-6.44486e-02,-1.51491e+00,7.73268e-01,1.24744e-02,2.23217e-01,1.70407e-01,2.35897e-01,6.29296e-01,2.83088e-01,5.22791e-01,-1.72499e-01,2.64067e-01,3.95794e-01,3.19538e-01,-1.69993e-02,1.16757e+00,1.58256e-01,-8.95185e-02,-7.64277e-01,-1.00896e-01,6.87004e-02,
3.74825e-01,1.66413e-01,-4.23888e-01,1.01161e-01,-3.46571e-01,5.59502e-01,1.43662e-01,-4.82806e-01,-1.09310e+00,5.16845e-01,-3.06385e-01,4.24132e-03,-7.68715e-02,-3.56767e-01,-1.56299e-01,7.52502e-01,-4.94275e-02,8.16472e-03,7.82125e-03,-2.53815e-01,2.80391e-01,4.17553e-01,2.53706e-01,1.13146e+00,1.88499e-01,
-3.53355e-01,-3.40497e-01,-3.81402e-01,-2.63721e-01,-7.09330e-02,2.51874e-01,-5.91101e-02,3.93026e-01,3.09992e-01,-4.61152e-01,-1.70228e-01,-3.52797e-01,4.94610e-01,-3.20458e-03,-1.71283e-01,1.87000e-01,1.22482e-02,-3.41044e-01,-1.87820e-01,6.13611e-01,9.35753e-02,-3.10990e-01,-1.00317e-01,1.39999e-03,2.34015e-01,
1.55198e-02,8.07688e-03,3.08486e-03,-8.81906e-04,-7.74970e-02,-4.17554e-01,-1.99503e-01,-3.00818e-01,-1.79458e-01,-2.29697e-01,1.42318e-01,3.76659e-01,-4.95804e-02,7.37912e-02,-2.45319e-01,-6.90184e-02,1.15392e-01,-9.24418e-02,-4.04468e-01,-9.29617e-02,5.73031e-02,-1.38823e-01,-2.75455e-01,3.97989e-01,-5.70253e-01,
2.01519e-01,-3.41509e-01,2.08389e-01,-1.36924e-01,-4.27400e-01,-5.63785e-01,-2.95302e-01,8.78144e-02,-1.59451e-01,-2.37141e-01,-1.31213e-02,-1.98734e-01,-2.36170e-01,1.28837e-01,2.94145e-01,-3.19890e-01,-2.80882e-02,-1.25271e-01,3.22301e-01,2.04316e-01,-3.42534e-01,-2.69875e-01,-2.44008e-01,-4.05038e-01,1.20868e-01,
-1.51525e-01,-4.29543e-02,-5.49115e-01,6.65963e-02,-3.77332e-01,1.41007e-01,-4.33245e-01,-4.81486e-01,2.42426e-01,-3.13026e-01,2.60152e-03,3.28933e-02,2.30239e-01,2.68076e-02,4.80966e-01,-6.40748e-02,3.03838e-02,-4.70069e-01,-1.00177e-01,6.58539e-02,-4.15035e-01,-1.50053e-01,-4.57317e-02,5.26059e-01,-3.28497e-01,
1.80289e-01,-2.90325e-01,-3.85811e-01,-1.86656e-01,-1.75841e-01,-2.75677e-01,7.63473e-02,-1.82071e-02,4.96049e-01,-8.31712e-02,-2.12562e-01,-1.42063e-01,1.63079e-01,-6.40517e-02,-3.54662e-01,7.38023e-02,-1.39169e-01,3.18166e-01,-4.70240e-01,1.94890e-01,-4.26904e-01,-2.67046e-01,-3.30594e-01,-3.31724e-01,-2.63309e-01,
-8.89837e-02,-1.53414e-01,-2.23207e-01,-1.09941e-02,6.23045e-03,-2.31267e-01,7.97462e-03,6.77571e-02,2.72518e-01,-2.69718e-01,-2.17053e-02,-2.05423e-01,3.57089e-01,4.96551e-01,-3.33635e-01,2.51308e-01,-3.96440e-01,3.89167e-01,3.11887e-01,-2.48930e-01,-1.73625e-01,-2.19400e-01,1.89862e-02,3.31644e-03,-2.75677e-01,
1.76203e-01,4.34578e-01,-1.34080e-01,-6.61103e-02,-1.23884e-01,-1.23861e-01,9.54703e-02,-5.88732e-03,-7.91571e-01,3.03846e-01,2.82983e-01,1.95623e-01,-1.80773e-01,2.10705e-02,-6.52980e-02,1.56227e-01,1.82183e-01,-4.50832e-01,1.22783e-01,3.12921e-01,-1.19614e-01,-7.25585e-02,4.46039e-01,3.09769e-01,-2.36285e-01,
2.06672e-01,2.33054e-01,-2.88045e-01,-3.53988e-01,-1.15593e+00,-8.55603e-01,-1.38477e-01,3.14098e-02,-2.72270e-01,2.54454e-01,-2.74838e-01,-1.35639e-01,3.11147e-02,-3.64433e-02,-7.86280e-02,-1.13103e-01,1.01336e+00,-9.91153e-02,2.35855e-01,-3.94865e-01,8.83867e-02,-2.53014e-01,-8.67912e-02,-1.56744e-01,-1.04338e-01,
-1.46729e-01,2.73209e-01,2.00513e-01,-6.61140e-02,-4.39370e-01,4.10099e-01,8.29284e-02,3.00521e-02,-8.40856e-01,-2.64447e-01,1.68957e-02,2.44970e-01,-2.06837e-01,-6.90768e-01,-6.96805e-02,1.77878e-01,3.84623e-01,-1.26224e-01,-1.73799e-01,4.97070e-01,2.69148e-01,-1.19776e-02,2.35250e-01,1.16153e-01,1.34941e-01,
1.29384e-01,-3.31756e-01,-3.85635e-01,-9.47140e-02,-1.39257e-01,-6.37156e-01,-6.26247e-02,5.62967e-01,4.73446e-01,-3.75563e-01,3.75174e-01,1.67856e-01,2.96389e-01,3.14795e-01,-3.37864e-01,1.89946e-01,-2.66507e-01,-3.75364e-01,-2.97917e-01,3.66372e-01,8.85761e-03,-3.68496e-01,-2.96457e-02,-2.87200e-01,-4.19931e-01,
-4.66213e-02,-2.46432e-02,-2.65748e-01,8.93349e-02,-1.09390e-01,-3.07679e-01,2.31506e-01,2.28708e-01,-6.13017e-02,5.31076e-01,-2.70920e-02,3.17850e-01,2.51101e-01,-2.39481e-02,1.13004e-01,-3.91403e-02,-7.05209e-01,-4.92454e-01,-2.16883e-01,1.05068e-01,-2.59379e-01,-2.16664e-02,4.88205e-01,9.38276e-02,-3.80497e-01,
2.42306e-01,-2.78343e-01,9.74806e-02,1.72675e-01,-7.81675e-01,2.29097e-02,4.31317e-01,3.49260e-01,-3.08689e-01,3.43699e-01,-3.15290e-01,2.59027e-01,1.25337e-01,7.10354e-01,-2.80124e-01,-6.76549e-02,1.97391e-01,3.40699e-01,-9.95831e-02,4.92651e-01,-1.30973e-02,-4.56738e-01,-1.31066e+00,-4.13865e-02,-2.17351e-01,
-2.58412e-01,1.70459e-01,-1.77385e-01,8.50301e-03,2.43449e-01,-9.01456e-01,-7.12961e-02,4.08773e-01,-1.74953e-01,-2.16092e-01,-1.90219e-01,1.90655e-01,-4.59362e-02,-2.58356e-01,-7.20556e-01,-2.78326e-02,3.20488e-01,-1.98369e-01,1.54496e-01,-2.46360e-01,-1.50711e-01,1.14445e-01,-2.40092e-01,1.74389e-01,-2.10588e-01,
9.87645e-02,1.11960e-01,2.62928e-01,2.77563e-01,-1.16957e+00,1.24116e-01,1.64574e-01,3.52788e-02,-1.02987e+00,1.19438e-01,5.93223e-02,-2.77425e-01,-3.05356e-01,7.05762e-02,5.49424e-01,-1.50644e-01,4.71342e-01,1.78542e-01,-2.32502e-02,2.19876e-01,-1.55693e-02,2.55710e-01,1.15806e-01,6.92074e-01,1.42344e-01,
-1.62885e-01,
2.53623e-02,
-2.57703e-02,
6.15130e-02,
-2.77164e-01,
1.03102e-01,
1.63682e-01,
5.02083e-03,
-1.37376e-01,
-9.36286e-02,
-1.73877e-01,
-2.91046e-02,
-8.03607e-03,
1.18901e-01,
-2.78882e-01,
-3.48660e-01,
-1.09586e-01,
-1.41447e-02,
-1.39833e-01,
2.12502e-01,
1.24138e-01,
-2.68537e-01,
-7.83487e-02,
-1.51559e-01,
4.42429e-02,
1.55320e-01,2.30964e-02,1.12557e-01,2.56204e-01,1.89616e-01,-8.16188e-02,1.39383e-01,1.84861e-01,9.04495e-02,5.23880e-01,-4.53917e-01,3.19606e-01,-8.29986e-02,9.98650e-02,5.79493e-02,-1.90541e-01,-1.98652e-01,-3.38595e-01,1.28660e-01,-4.34859e-01,-1.51301e-01,-3.18837e-01,-1.25033e-01,1.54767e-01,1.71614e-01,
-3.45354e-01,-2.62354e-01,-4.09347e-01,-9.23500e-01,-1.11909e-01,-7.81842e-02,7.66115e-02,-5.14313e-01,-4.98345e-01,-6.05099e-03,-1.21642e-01,-9.59554e-01,-3.12743e-01,5.99404e-01,-4.37697e-02,-6.48348e-02,2.32345e-01,-1.92608e-01,3.69011e-01,2.38056e-01,5.58537e-01,6.26718e-02,7.63882e-01,7.18305e-02,-6.99537e-01,
4.40545e-01,-3.22587e-01,-8.46420e-02,3.07106e-01,1.63468e-02,-2.25601e-01,-2.33865e-04,5.98322e-02,-3.03701e-01,-1.03483e-01,3.44180e-01,6.32771e-02,9.78842e-02,-1.92679e-01,3.83740e-01,1.95814e-01,-4.12115e-01,1.34935e-01,-4.79263e-01,-3.47359e-01,-2.86542e-01,2.65266e-01,-1.82234e-01,1.05607e-01,5.60117e-01,
4.19475e-01,2.96961e-02,-8.18095e-02,4.49906e-02,-3.23034e-01,-9.81020e-02,-1.83080e-01,7.18677e-01,1.72548e-01,-8.22861e-02,-4.45114e-01,7.38185e-01,-1.16540e-01,4.70583e-01,-1.69557e-01,4.05352e-02,-2.58543e-01,2.29677e-01,-3.50319e-01,-4.30944e-01,2.18168e-01,-4.51303e-01,-6.36584e-01,2.14814e-01,-3.44527e-01,
2.56950e-01,-1.91140e-01,-5.65699e-02,-1.15498e-01,-1.64221e-01,-2.83319e-01,3.30831e-01,-7.58940e-02,3.32170e-01,2.91963e-01,-7.94147e-02,-2.83228e-02,2.25543e-01,2.34179e-01,1.90220e-01,4.60693e-01,-1.26019e-01,1.44949e-01,-4.05447e-02,8.28206e-02,-1.80850e-01,-2.76655e-01,5.12214e-01,-2.17833e-01,-6.24760e-01,
-1.99263e-01,-1.58708e-01,-7.08571e-01,3.74584e-01,-1.89406e-01,-1.88761e-01,3.49162e-01,6.49087e-02,-2.12683e-02,-7.71282e-02,-5.69918e-03,-3.13796e-01,4.59157e-02,1.07671e-01,-6.02777e-01,-1.72613e-01,-4.02995e-02,-1.94838e-01,-7.15879e-01,6.04435e-02,-5.71063e-01,-4.01057e-01,1.21080e-01,-9.71496e-02,6.56141e-02,
2.28914e-01,-9.94376e-02,2.39997e-01,-9.69940e-04,3.11607e-01,-2.29385e-01,3.27539e-01,-6.49408e-02,1.99843e-01,2.33183e-01,-2.00654e-01,9.13430e-01,-9.94602e-02,1.40679e-01,9.70051e-02,2.04334e-01,-5.75150e-02,8.83238e-02,-7.04445e-01,2.84327e-01,-2.92977e-02,-1.57444e-01,-8.29353e-02,1.96577e-01,-2.87283e-01,
1.07469e-01,7.48511e-02,-1.98981e-01,1.21334e-01,-2.73389e-01,-2.24733e-01,1.36709e-01,-5.07053e-02,-1.77329e-01,-1.30281e-01,5.10675e-02,-9.86777e-02,-1.55990e-02,2.50296e-01,-2.56795e-01,-5.73196e-02,-2.42864e-02,-7.90234e-02,-2.14568e-01,-2.76542e-01,2.62542e-01,-2.03666e-01,-7.31177e-01,-1.80869e-01,4.07410e-01,
2.36241e-01,1.74109e-02,3.97625e-01,2.36745e-01,8.54347e-02,2.69836e-01,-1.64238e-01,3.95344e-01,-4.90813e-01,-3.30708e-01,2.82437e-01,-2.20027e-01,2.89270e-02,-8.35863e-02,-6.07180e-02,3.10880e-01,-1.81401e-01,-4.06307e-01,-4.09981e-01,4.47392e-01,-1.64058e-01,-4.47080e-01,3.54855e-01,6.71420e-02,-3.74409e-01,
-3.74342e-01,-1.07247e-01,-3.98445e-01,-1.61160e-01,1.01232e-01,2.67640e-01,1.54746e-01,-2.00109e-01,-2.26834e-01,3.44674e-01,8.23957e-03,-3.85035e-01,1.04210e-02,3.31217e-02,-1.18089e-01,1.45303e-01,-2.29864e-02,-4.51037e-01,-1.89861e-01,3.62577e-01,-1.02482e-01,-2.60098e-02,2.02250e-01,-1.13007e-01,-3.68695e-01,
1.52364e-01,4.05532e-01,-7.82252e-02,-2.81188e-01,-2.32549e-01,2.89557e-01,1.61602e-01,-3.95802e-01,-3.20712e-02,1.61751e-01,1.60358e-01,-3.17165e-01,1.42363e-01,-8.18547e-02,1.08865e-01,-1.84333e-01,-8.60445e-02,1.13717e-01,1.41185e-01,-2.17723e-01,2.87253e-01,-4.52947e-02,5.01011e-01,-1.35783e-01,4.12323e-01,
-1.99280e-01,1.08654e-01,-5.69306e-02,1.98844e-01,-3.64422e-01,1.58416e-01,-1.50910e-01,8.35290e-02,-2.89411e-01,-9.46620e-02,-1.83145e-01,-1.53461e-01,1.35604e-01,4.26209e-01,-6.53086e-03,3.84358e-02,-1.36398e-01,-2.35098e-02,-3.59112e-01,3.87720e-01,1.67812e-01,3.41917e-01,-5.70512e-01,-2.50807e-01,2.08593e-01,
4.60173e-01,6.47706e-02,-1.10865e-01,5.77320e-01,7.17856e-02,-1.15819e-01,7.34310e-02,3.68885e-01,-2.14474e-02,-5.93570e-01,1.19420e-01,5.01071e-01,2.71121e-01,3.52910e-02,-3.13832e-01,-4.38475e-01,-2.40714e-01,1.52444e-01,-4.83743e-01,3.52956e-01,-3.90695e-01,-9.27792e-02,-8.84675e-01,1.57005e-01,4.67806e-01,
-2.66760e-01,-1.52163e-01,-5.97472e-01,4.69785e-01,8.77941e-02,1.41301e-01,1.62354e-01,4.52752e-01,-2.48575e-01,-3.15241e-01,-3.50872e-01,8.94760e-01,1.48896e-01,-6.11655e-01,-4.48197e-01,-8.52009e-02,-1.69468e-02,3.22105e-02,-2.74465e-01,3.76237e-02,2.49668e-01,1.64099e-01,-2.54878e-01,1.23359e-01,3.23245e-02,
5.80164e-02,-1.46736e-01,4.83996e-01,-3.51121e-01,8.06000e-02,1.26709e-01,3.01874e-01,4.07268e-01,-2.19848e-01,5.27245e-01,-6.75062e-02,7.20978e-01,-3.98765e-01,-3.20132e-02,-5.69858e-01,-2.43643e-01,2.43104e-01,-3.00202e-02,3.18199e-01,2.74106e-01,-5.32556e-01,-1.34178e-01,-1.84509e-02,1.41534e-01,-4.07005e-01,
5.81621e-01,-1.24304e-01,3.70460e-01,-2.51127e-01,9.76657e-04,-8.08901e-02,-1.83895e-01,2.85491e-02,-6.57140e-02,1.87638e-01,-2.32971e-02,1.48169e-01,-2.26113e-01,-1.89201e-01,-3.06671e-01,4.94285e-01,2.78532e-01,-2.95671e-01,-1.38747e-01,2.69372e-01,-8.37554e-02,-5.15817e-03,5.73648e-03,-3.49484e-02,-7.23071e-01,
4.67127e-02,-1.71718e-01,-3.00882e-01,5.73257e-02,4.19515e-02,4.77792e-02,3.47150e-01,3.83961e-01,-4.91650e-01,1.82522e-01,2.80810e-01,6.91787e-02,2.25276e-01,9.85883e-02,-2.41934e-02,-1.49692e-01,2.04145e-01,-3.05454e-01,-2.70095e-01,7.70877e-02,-2.87675e-02,1.94896e-01,-3.08312e-01,-1.51979e-01,4.02527e-01,
1.64981e-01,-2.64463e-01,3.31652e-01,2.27036e-01,3.58934e-01,-2.91629e-02,-1.34450e-01,5.77625e-03,5.24992e-01,1.38297e-01,2.60698e-01,4.51862e-01,-1.91602e-01,-3.93692e-01,3.39116e-01,3.99117e-01,-1.72197e-01,-6.67413e-02,-1.23474e-01,-7.31736e-02,-4.64260e-01,4.56528e-01,-4.66392e-01,-2.64657e-01,6.26550e-01,
-4.39524e-02,-2.07007e-01,-1.45373e-01,2.04093e-01,1.43650e-01,5.10578e-02,-6.80240e-02,4.32589e-02,6.61771e-02,-2.58295e-01,-5.20543e-02,-2.11990e-02,3.27550e-02,-1.36400e-01,-2.96874e-02,-5.46461e-03,-9.16755e-02,-1.72436e-01,-3.20814e-02,1.55631e-01,1.15077e-02,-5.75936e-01,-3.70979e-01,1.94564e-01,-2.36528e-01,
-3.52289e-01,2.30994e-01,2.03006e-01,-1.69431e-01,-1.79807e-01,1.88657e-02,5.30677e-02,-1.38311e+00,-1.83180e-01,6.74421e-01,3.20379e-01,3.19204e-02,1.36782e-01,1.57390e-01,3.05907e-02,8.18383e-02,2.05553e-01,-7.03564e-01,-1.14928e-01,1.40363e-01,3.04379e-01,-4.35958e-01,2.93884e-01,5.89028e-02,2.00651e-01,
-6.89709e-01,-6.87760e-02,3.24092e-01,3.12686e-01,8.57488e-02,3.53438e-01,-1.34946e+00,-1.39456e-01,3.02101e-01,1.77803e-01,-1.03811e+00,-8.21152e-01,-4.86265e-02,-6.76176e-02,-3.10793e-01,-2.49025e-01,-2.20521e-01,2.70725e-01,4.51458e-01,-8.41533e-03,2.71179e-01,4.53879e-01,3.12411e-01,-4.28180e-01,3.92880e-01,
1.02625e-01,-4.48501e-01,7.56835e-02,-1.13503e-01,1.28397e-01,-3.85104e-01,1.29718e-01,3.31787e-01,2.87345e-01,-1.49081e-01,-2.44058e-01,3.47038e-01,-1.03982e-01,7.71906e-02,-9.08087e-02,2.27769e-01,1.92756e-01,-5.06040e-02,4.08713e-01,-2.70138e-01,2.18396e-02,4.59019e-01,-1.78379e-01,3.13258e-01,5.74836e-02,
-1.64284e-01,-2.30443e-02,2.61689e-01,-4.08249e-01,-1.32842e-01,3.31984e-01,-7.80106e-02,-2.30812e-01,-1.11368e-01,6.72711e-02,-2.41870e-01,3.95970e-01,1.99074e-01,3.74508e-01,5.29385e-01,3.06862e-02,-2.01658e-01,1.82857e-01,1.42877e-01,1.11149e-01,3.65918e-01,-3.58224e-01,3.47708e-01,2.74103e-01,-4.96752e-01,
4.87089e-01,1.64731e-01,1.82363e-01,2.32073e-01,5.77693e-02,6.91540e-03,-2.06237e-01,4.26342e-02,-7.71508e-02,-5.51245e-01,-2.33064e-05,-1.05409e-01,3.11780e-01,-2.36443e-01,3.58741e-01,-1.79163e-01,-2.82399e-01,2.92431e-01,1.17997e-01,1.37410e-01,-4.49966e-01,-2.99264e-01,-4.33249e-01,3.50479e-02,3.63908e-01,
4.01461e-02,3.25116e-01,9.47303e-02,1.14671e-01,2.89116e-01,-2.78109e-01,-1.77788e-01,-5.61193e-01,3.53975e-01,-3.97797e-02,1.14114e-01,-5.33641e-03,-2.17179e-01,5.49812e-02,-2.26762e-01,-1.08374e-01,1.48034e-01,1.17812e-01,7.56534e-02,-1.69743e-01,2.29286e-01,-2.36468e-01,-8.37678e-02,-3.42239e-01,6.43392e-01,
-1.98935e-01,
-4.53324e-02,
2.27934e-01,
-3.21211e-01,
2.12249e-01,
-1.30344e-01,
7.66700e-02,
3.59016e-02,
-2.20280e-01,
1.02474e-01,
1.69238e-01,
1.08114e-01,
1.97469e-01,
-2.65815e-01,
-4.21731e-02,
1.26111e-01,
3.69325e-02,
1.36952e-01,
-8.49129e-02,
-2.58750e-01,
-1.45972e-01,
2.45143e-01,
1.97432e-01,
2.50058e-01,
-1.81308e-01,
-4.70580e-01,-1.78001e-01,-4.15019e-01,-3.19273e-01,2.94356e-01,-6.13338e-01,3.21990e-01,3.90715e-02,1.25630e-01,5.28947e-01,8.84418e-02,4.71803e-02,1.83890e-01,-2.26907e-01,-3.63671e-01,1.01140e-01,-1.26511e-01,-4.42077e-01,1.93484e-01,-5.84231e-01,-5.25611e-01,-1.04146e-01,-4.57045e-01,-4.15586e-02,4.85645e-02,
1.56899e-01,3.09068e-01,-2.75328e-02,9.53031e-02,-3.76177e-01,-6.79365e-01,-4.18170e-01,1.13555e-01,-3.38159e-01,-2.56419e-01,-1.85075e-01,1.31734e-03,3.96617e-01,-3.03997e-01,-6.15956e-02,2.16004e-01,-2.69006e-01,5.02689e-01,2.53732e-01,1.10558e-01,-7.61510e-01,-9.69179e-02,3.80707e-01,-4.61101e-01,-1.65281e-01,
-2.40072e-01,3.60997e-02,-2.97477e-01,-1.45825e-01,1.96510e-01,-4.20438e-01,-4.51088e-01,-3.52947e-02,7.41528e-02,2.08391e-01,1.23986e-01,1.66282e-01,5.22334e-01,1.02245e-01,-1.49028e-02,2.40677e-02,-3.71100e-01,3.47107e-01,-2.27767e-01,2.80268e-01,-4.07314e-01,-1.77198e-01,3.96442e-01,-3.65922e-01,1.41885e-01,
-3.20489e-01,-4.60609e-01,1.43554e-01,-2.08079e-01,-2.25513e-01,-1.79947e-02,4.04750e-01,-3.14393e-01,-2.91314e-01,-3.41432e-02,-3.65310e-03,2.36229e-01,-9.61795e-02,1.52414e-01,-2.23284e-01,1.32744e-01,-8.55782e-02,-8.96039e-02,-4.11056e-02,-1.08560e-01,-6.84756e-01,2.24515e-01,-9.03586e-02,-5.19984e-03,9.83737e-02,
-7.07369e-01,-3.00246e-01,1.10264e-01,1.51703e-03,-8.90580e-02,-3.75679e-01,3.32271e-02,1.50223e-02,-4.02681e-01,8.98539e-02,2.05879e-02,1.91253e-01,2.26863e-01,-2.76977e-01,-1.56901e-01,-1.93787e-01,-2.58717e-01,3.69487e-01,2.04108e-02,1.38197e-01,-3.99107e-01,-8.48647e-02,4.03245e-01,2.43797e-01,3.28543e-01,
-1.60708e-01,-1.97717e-01,-2.34861e-01,2.45405e-01,-2.92398e-01,2.21297e-01,-1.35252e-01,-1.21191e-01,-3.01232e-01,2.48927e-01,-2.54539e-01,2.18684e-02,1.85906e-01,-1.92727e-01,-2.31006e-01,-2.39850e-01,1.83562e-01,1.39985e-01,2.67068e-02,-1.63212e-01,2.28821e-01,7.57051e-02,-7.43487e-03,-3.36454e-01,-4.11408e-01,
2.21003e-01,-6.05516e-01,1.70860e-01,2.58503e-01,1.30618e-01,-2.82076e-01,5.10882e-02,-3.40027e-01,2.31752e-01,1.08464e-01,-2.96326e-01,1.08334e-01,-2.81727e-01,-2.78327e-01,-1.33060e-01,-3.76710e-01,2.45149e-01,-3.63328e-01,2.79720e-01,1.18259e-01,1.51108e-01,2.49799e-01,1.21058e-01,3.92276e-01,1.08069e-02,
2.83667e-01,-3.82348e-01,1.00267e-01,-2.25085e-01,-1.28112e-01,1.57539e-01,3.35859e-01,-5.21232e-02,-4.82732e-02,-1.08474e-01,2.12083e-01,1.54756e-01,-1.08548e-01,3.40963e-01,2.08459e-01,1.73831e-01,-2.07204e-01,-6.01007e-01,2.96636e-01,-1.90551e-01,4.92134e-01,-2.61601e-01,-1.35476e-01,3.63608e-01,-1.66670e-01,
-3.13425e-01,-5.04435e-01,2.49358e-01,5.75640e-02,6.00297e-02,-1.77447e-01,-2.93797e-02,-1.68182e-01,3.84754e-01,-2.63326e-01,-7.32818e-02,1.00284e-01,9.36826e-02,4.62250e-01,1.77354e-01,-3.76997e-01,1.09670e-01,-6.06609e-01,8.30636e-02,2.24714e-01,7.49637e-01,6.14617e-02,2.15014e-01,-1.25936e-01,5.12718e-02,
1.30451e-01,6.48485e-01,2.08291e-01,2.73310e-01,9.87089e-03,1.48597e-01,-4.20116e-01,-2.85601e-01,-1.46237e-01,-2.81201e-01,2.50296e-01,2.67982e-01,1.04052e-01,-2.24611e-01,2.99744e-01,1.94343e-01,-1.04837e-01,1.44066e-01,2.72347e-02,8.88952e-02,-9.19857e-01,1.39004e-03,3.29002e-01,1.23957e-01,1.74779e-01,
1.94225e-01,5.38839e-01,-1.87668e-01,-3.30397e-01,-2.02102e-01,-9.76821e-02,-8.62192e-01,3.92129e-01,-1.03773e-01,1.92125e-01,3.16768e-01,2.09333e-01,-3.65237e-01,-2.76612e-01,5.42402e-01,-3.57952e-01,-7.91996e-02,2.19854e-01,-1.58605e-01,5.19696e-01,6.39663e-01,-2.07222e-01,-2.27162e-02,-2.68395e-01,-5.06766e-01,
-1.75143e-01,6.70017e-01,-2.15749e-01,2.53803e-01,2.65092e-01,-1.78877e-01,3.69686e-02,2.06867e-01,2.27905e-01,2.32053e-01,-2.75235e-01,2.91717e-02,2.41204e-01,-1.37803e-01,-3.15519e-01,3.18551e-01,1.72806e-01,4.66951e-01,1.43877e-01,-1.57949e-01,-8.64899e-01,-1.31497e-01,-2.24807e-01,-5.40078e-01,-7.63536e-02,
1.56257e-01,-3.35194e-02,-1.26673e-01,1.15163e-01,2.03859e-01,-1.02826e-01,-1.89964e-01,1.22285e-01,-1.35943e-01,5.52135e-03,1.22418e-01,-3.14565e-01,5.07827e-01,4.10413e-02,1.97608e-01,-2.93266e-01,-1.79478e-01,1.74990e-01,-1.77041e-01,-1.26713e-01,5.88233e-01,-3.69500e-02,-1.03756e-01,-3.05755e-01,2.46223e-03,
1.93414e-01,4.35117e-01,-1.36884e-02,-1.45623e-03,-2.80071e-01,-4.96196e-01,-5.21927e-01,-3.06059e-02,7.23586e-02,-7.96120e-02,3.14540e-01,-7.29653e-02,2.92620e-01,8.30910e-02,1.48614e-01,3.57823e-01,-2.30886e-01,5.81450e-01,3.14158e-01,-3.98513e-01,9.41007e-03,9.05757e-02,-2.50731e-02,-5.03147e-01,2.07336e-02,
3.08759e-01,1.34900e-01,2.41313e-01,4.57067e-01,7.27475e-02,-1.58092e-01,-3.98302e-02,6.03919e-02,-3.65584e-01,-2.70034e-01,-1.22374e-01,-7.01424e-03,-4.50487e-01,2.95882e-01,-2.61809e-01,-4.57812e-02,-2.73981e-01,-5.35137e-01,6.12696e-02,2.62172e-01,-9.16210e-01,9.59057e-02,-1.60161e-02,1.42314e-01,7.54671e-01,
7.57366e-02,5.32064e-01,-8.63059e-02,-1.75660e-02,5.67694e-02,-9.17408e-02,-4.82559e-02,2.29850e-01,-6.43487e-02,-2.81829e-01,2.19266e-01,-1.71184e-02,1.56333e-01,8.73179e-02,1.11361e-01,1.96508e-01,-2.06420e-01,-6.04607e-03,-2.89090e-01,-1.95205e-01,3.14676e-01,1.11953e-02,2.42731e-01,-1.93915e-03,-8.98656e-02,
-2.81695e-01,4.06967e-01,2.32836e-02,-2.66202e-01,-7.48350e-03,1.48033e-01,-3.41897e-01,1.49075e-01,-3.19447e-01,2.23224e-01,2.23974e-01,-3.11847e-01,2.69523e-01,-1.17846e-01,2.91910e-01,1.58583e-02,-4.76918e-02,-3.04278e-02,-2.63112e-01,5.59842e-02,2.71965e-01,2.41343e-01,2.20998e-01,-3.12244e-01,-1.56180e-01,
2.08457e-01,-3.68896e-01,7.01186e-02,-1.71971e-01,-2.38257e-01,4.81257e-01,4.44456e-01,2.31780e-01,-1.66054e-01,-1.79902e-01,1.61838e-01,2.78139e-01,-5.10945e-01,1.54807e-01,-1.22935e-01,-9.97286e-02,2.05999e-02,-4.97343e-02,1.25027e-01,2.79685e-01,-2.16737e-01,-1.76157e-01,-1.09986e-01,9.19226e-02,-1.67638e-01,
2.18060e-01,2.79247e-01,6.42639e-02,-1.33557e-01,3.89952e-01,-1.26787e-01,2.27230e-02,1.44395e-01,-1.32055e-01,-1.64539e-01,-1.41016e-01,1.80972e-01,-4.95415e-02,-1.96809e-01,-1.79905e-01,3.57271e-01,-1.36833e-01,5.93229e-03,-1.08196e-02,-2.37847e-01,1.91258e-01,-2.06064e-01,1.07681e-01,1.53083e-01,-1.61493e-01,
-4.76393e-02,1.53922e-02,2.59166e-01,2.35825e-01,-2.75667e-01,2.44051e-02,4.68323e-02,9.87268e-02,2.14396e-02,2.80801e-01,-8.55465e-02,1.27933e-01,-2.96044e-01,8.16883e-02,2.95878e-01,-2.82942e-01,4.19994e-01,-1.65846e-01,2.83099e-01,1.88565e-01,-2.15000e-01,-3.95782e-02,2.35053e-01,1.31214e-01,-8.56336e-02,
7.51541e-02,-2.25777e-01,-1.66783e-02,-1.45888e-01,-6.74957e-02,-1.70103e-01,4.01567e-01,-2.92380e-01,3.43059e-01,2.64464e-01,-2.31250e-02,-9.87589e-02,8.40225e-02,2.82615e-01,-1.29240e-01,9.94136e-02,1.85793e-01,-9.32295e-02,1.41978e-01,2.54944e-01,8.56692e-01,-1.86973e-01,2.24990e-01,-8.93240e-02,2.61892e-01,
1.44809e-03,9.72277e-02,-1.02493e-01,3.26249e-01,-8.92103e-02,-3.71269e-01,1.85137e-01,-1.48143e-01,9.96226e-02,-3.15103e-01,-3.30274e-02,-1.58469e-01,2.83128e-01,-4.05544e-02,-3.47655e-01,-5.09453e-02,-3.62271e-01,-8.75506e-03,-2.03034e-02,-5.31391e-03,2.42286e-01,-2.29471e-01,1.06247e-01,-1.18373e-02,-7.25616e-02,
-2.28041e-01,3.72667e-01,2.20235e-01,-5.97389e-02,1.21120e-01,-1.65374e-01,-2.09598e-01,-1.44658e-01,-1.98484e-02,-3.11765e-01,-7.62378e-02,-1.24907e-01,4.33024e-02,-2.37842e-01,-2.04773e-01,3.32550e-01,1.31406e-01,1.79847e-01,-2.68128e-01,2.32158e-01,1.78905e-01,3.38047e-03,3.16676e-01,1.47859e-01,-2.70111e-01,
-2.16263e-01,2.31357e-01,-2.52392e-01,-4.17293e-01,1.59824e-01,-1.56898e-02,1.02501e-01,-8.56437e-02,1.20776e-01,-9.52256e-02,2.06465e-01,-1.63146e-02,5.52200e-01,-1.46759e-01,-2.34117e-01,1.87780e-01,-2.40797e-01,-2.11728e-01,3.97638e-01,1.56517e-01,1.23828e+00,1.53337e-01,-2.16353e-01,-1.71646e-01,-2.59710e-03,
-1.95682e-01,-2.38386e-01,1.77927e-01,-1.20884e-01,-1.24600e-01,3.32570e-01,1.14842e-01,-2.82944e-01,2.84663e-01,-2.62798e-02,1.78446e-01,-1.57291e-01,1.79210e-01,-2.22523e-02,-5.71772e-02,2.41589e-01,-3.68363e-02,2.90356e-02,-2.82452e-01,3.57320e-01,9.33429e-01,-5.95994e-02,-2.21345e-01,-2.21657e-01,-1.10845e-01,
-1.77847e-01,
-1.95224e-01,
2.59188e-01,
1.13319e-01,
-2.60003e-01,
-3.03236e-01,
-1.83257e-01,
-3.67573e-01,
-2.68677e-01,
-1.41335e-01,
9.65236e-02,
2.33132e-01,
1.85675e-01,
-2.49661e-01,
1.76708e-01,
2.26406e-01,
1.73467e-01,
-2.72719e-01,
-1.61746e-01,
4.62325e-03,
1.84910e-01,
5.79999e-02,
-3.07217e-01,
2.34523e-01,
1.63739e-01,
1.54667e-01,-6.59486e-02,-2.01794e-01,7.84085e-02,-1.65909e-01,3.44729e-01,3.01983e-01,3.98026e-01,4.11859e-01,3.21605e-01,-5.41047e-01,-2.95552e-01,2.65808e-02,-7.08478e-02,1.78141e-01,-2.52694e-01,-3.60129e-01,-6.30510e-02,-2.28494e-01,-1.15409e-01,1.38789e-01,-1.78160e-01,-4.37167e-02,-2.31305e-01,-2.29191e-01,
8.34739e-02,4.24008e-02,-7.51337e-02,1.72191e-01,1.77210e-01,-6.22128e-01,2.95215e-01,3.09217e-01,-2.25650e-01,-2.33302e-01,-5.06290e-01,-9.22654e-02,-3.26161e-01,-3.01780e-01,-4.23169e-02,-2.69234e-01,-8.65157e-02,6.25402e-01,1.35760e-01,4.55604e-02,-9.43593e-02,-4.60455e-02,1.80461e-01,-3.06844e-02,2.18344e-02,
4.40855e-02,-2.45559e-01,2.67341e-02,2.96459e-01,1.30797e-01,-2.92886e-01,2.52486e-01,-2.93123e-02,-1.93897e-01,-1.24451e-01,-5.91950e-01,1.38729e-02,-3.17508e-01,-4.13084e-01,-7.82394e-02,-1.74314e-01,2.38067e-02,3.90133e-01,8.44924e-02,-1.78962e-01,-2.62449e-01,-7.30024e-02,-2.65361e-01,-9.58327e-02,8.98565e-03,
1.32960e-01,-4.28180e-01,-4.56492e-01,-2.66842e-01,4.33344e-01,3.69234e-01,4.42470e-01,1.53602e-01,-1.94573e-02,-5.05451e-01,-1.56356e-01,-2.14562e-01,-5.42239e-01,-4.68067e-01,-1.16573e-01,-8.66644e-02,-4.78501e-01,4.82354e-01,2.14128e-01,1.59026e-01,2.77714e-01,-1.02905e-01,2.58446e-01,-1.66091e-01,-5.03101e-03,
-2.84214e-01,4.73394e-01,1.33826e-01,-6.79064e-02,-3.54537e-02,1.72856e-01,-2.89483e-01,-1.99589e-01,-4.24721e-01,5.37986e-02,-4.83638e-01,3.40442e-01,-3.01557e-01,3.57674e-01,1.14508e-01,-1.01226e-01,-2.75764e-01,-8.44188e-02,-8.68846e-02,9.56932e-03,-1.69749e-01,2.16321e-01,1.07238e-01,-3.57369e-01,-2.68715e-01,
4.06104e-01,
2.10796e-01,
1.02660e-01,
5.42475e-01,
2.17898e-01,
