// Neural Network File Format by Kyle Julian, Stanford 2016
6,5,5,25,
5,25,25,25,25,25,5,
0,
-56000.000000,-56000.000000,-3.141593,200.000000,200.000000
56000.000000,56000.000000,3.141593,200.000000,200.000000
-278.628049,0.000000,0.000000,200.000000,200.000000,-0.242819
112000.000000,112000.000000,6.283185,1.000000,1.000000,17.479225
-2.91993e-01,1.50306e-01,5.12904e-01,-9.01137e-02,-4.74068e-02,
1.86141e-01,3.80809e-01,3.44754e-01,-2.88193e-01,2.82584e-01,
3.02754e-01,-3.75883e-01,-7.60127e-02,-3.41579e-01,1.19954e-01,
2.88338e-01,-1.09450e+00,-1.44526e-01,3.75257e-01,-2.46996e-01,
-2.76147e-02,3.11511e-02,7.52999e-03,-3.82625e-02,-2.76753e-01,
1.44318e-01,-2.13708e-01,1.30804e-01,-2.75265e-01,-2.55287e-01,
7.90659e-01,4.69732e-01,-4.01783e-01,4.01453e-01,3.29392e-01,
-6.37885e-02,-2.19980e-01,-4.04414e-02,-2.30827e-01,2.38583e-01,
-1.21123e-01,1.99474e-01,-3.06489e-03,-2.74654e-01,3.43815e-01,
-9.26620e-01,-6.09470e-02,2.33465e-01,3.62078e-01,4.09574e-01,
-3.19596e-01,-2.97034e-01,-1.04760e-02,4.34524e-01,-2.81959e-01,
-8.53038e-01,1.25294e+00,2.28362e-01,4.36463e-01,2.07880e-02,
-3.54238e-01,1.45983e-01,-1.88897e-02,-1.29520e-01,-1.41954e-01,
-6.07022e-01,5.75594e-02,-5.48930e-01,3.98730e-02,1.38441e-01,
-9.11314e-02,8.34874e-01,3.44423e-02,1.86902e-01,-4.32693e-01,
3.10541e-02,7.94433e-01,5.66591e-01,3.64052e-01,-5.18592e-02,
-2.35416e+00,7.52001e-02,4.74465e-02,1.82364e-01,1.75907e-01,
-8.18282e-01,-4.24557e-01,5.08332e-02,-3.09106e-01,-3.39007e-01,
1.94754e-01,-3.06703e-01,-3.52705e-02,4.28644e-01,-4.32626e-01,
-3.31434e-01,-5.24361e-01,-4.38649e-01,1.76461e-01,1.31017e-01,
3.83763e-02,7.13105e-02,-3.60826e-01,1.12165e-01,3.80607e-01,
-2.74403e-01,1.67726e-01,1.24214e-01,-3.06017e-01,3.34724e-01,
-2.02802e-01,-1.43026e+00,5.16951e-01,2.00366e-02,-2.61361e-01,
-5.10323e-01,7.96180e-01,-6.01844e-01,-1.40745e-01,-2.69168e-01,
3.95697e-01,2.42607e+00,4.48089e-03,8.92084e-02,2.69931e-01,
9.38288e-02,
-1.05935e-01,
1.90837e-01,
2.46744e-01,
-6.45179e-03,
2.19025e-01,
-1.92541e-01,
-5.03267e-02,
-1.44036e-01,
-2.00659e-01,
2.29445e-01,
1.76143e-01,
-1.46631e-01,
1.47198e-01,
7.63895e-02,
3.31153e-02,
3.95984e-02,
8.93760e-02,
-1.47741e-01,
-1.49418e-02,
-1.96185e-01,
1.68089e-01,
5.83281e-03,
-8.71977e-02,
7.68312e-02,
3.50448e-01,2.28263e-01,-2.57159e-01,1.15034e-01,-1.86776e-01,3.55636e-02,1.50326e-01,-1.86688e-01,-1.75720e-01,4.68051e-02,-1.68366e-01,-1.76744e-01,-3.51912e-01,-9.16153e-02,7.80286e-02,-1.78125e-02,8.55029e-02,2.92901e-01,-1.33138e-01,-6.68220e-01,-4.58949e-01,-1.23856e-01,-1.54429e-01,-1.19597e+00,6.73948e-02,
-4.48935e-01,-2.23803e-01,-3.37463e-01,2.42144e-01,-6.88762e-02,-3.44736e-01,-8.97398e-02,-1.93228e-01,4.36933e-02,1.65909e-01,-2.06071e-01,2.47223e-01,1.06771e-01,-1.52022e-01,4.47323e-02,2.09433e-01,2.51973e-01,3.50577e-01,6.46066e-03,-3.46176e-03,-9.90045e-02,1.41096e-01,7.95385e-02,-7.94639e-02,2.46659e-01,
-1.25044e-01,-3.06993e-01,2.15112e-01,6.89980e-02,-3.84038e-01,-1.69242e-01,-8.70708e-01,6.60778e-02,-2.31607e-01,1.90335e-01,-5.86621e-02,-1.97370e-01,2.43377e-01,-1.72890e-01,-3.46251e-01,-1.01661e+00,-3.99558e-02,2.83826e-01,-2.66322e-01,-2.46792e-01,-2.67007e-01,1.55462e-01,3.59499e-01,3.00771e-01,-4.85891e-01,
3.12350e-01,2.23518e-01,1.30940e-01,-1.79652e-01,-1.01821e-01,1.73763e-01,-3.19862e-01,2.88192e-02,-2.77167e-01,2.06038e-01,-5.32642e-02,-2.70933e-01,3.91127e-01,-4.12557e-01,-1.84994e-01,2.75434e-01,-3.33748e-01,-1.56379e-01,-2.91712e-01,5.27483e-01,2.82544e-02,-1.38346e-01,-2.32190e-02,-5.48451e-01,2.68500e-01,
-2.07484e-01,2.78158e-01,-2.50134e-01,-3.98498e-02,-1.01781e-01,1.32131e-01,2.30753e-01,-6.74307e-02,2.00601e-01,1.54932e-01,4.83709e-02,4.14789e-01,2.90990e-01,-1.48463e-01,2.31362e-01,3.96326e-01,1.59302e-01,2.42643e-01,1.35499e-01,2.97230e-01,-1.13111e-01,2.21264e-01,-6.88218e-01,2.41766e-01,-8.51230e-02,
1.37865e-01,-4.01781e-01,-1.67856e-01,-2.77425e-01,4.10615e-02,3.22905e-02,7.58869e-01,1.79361e-01,-7.19587e-02,-1.55327e-01,-3.06093e-01,-6.11195e-02,6.86235e-02,-3.59285e-01,4.01667e-02,5.70057e-01,-3.21969e-01,-3.54497e-01,2.38667e-01,9.30226e-01,1.23991e-01,2.23342e-01,5.64055e-02,9.82208e-02,-4.65604e-02,
2.81954e-01,5.05300e-01,-2.50886e-01,-2.58879e-01,1.73087e-01,2.22287e-01,-4.50385e-01,-1.45447e-01,3.21439e-01,5.21738e-01,1.20872e-01,1.65148e-01,3.66243e-01,-3.62790e-01,-6.11006e-01,-1.50365e-02,-5.83245e-01,2.75531e-01,-1.60368e-01,-1.21813e-01,1.00886e-01,1.11211e-03,1.72320e-01,1.58021e-02,-1.00132e+00,
5.69881e-02,-3.73965e-01,6.71530e-02,-2.35335e-01,1.67110e-01,-3.19647e-01,2.27928e-01,3.90758e-01,-2.20715e-01,-3.92860e-01,1.81636e-01,2.65527e-01,-5.34027e-02,5.17382e-02,3.77210e-02,2.88264e-01,8.04287e-01,3.81814e-01,3.01323e-02,8.18303e-01,-4.81338e-03,-2.48378e-01,1.10944e-01,-1.18552e-01,3.88574e-01,
-1.57345e-01,-3.29738e-01,-1.28297e-01,1.07705e-01,-1.44974e-01,-6.28857e-02,-8.71414e-03,-1.82913e-01,1.30556e-01,-1.57670e-01,-3.42638e-02,8.02179e-03,-1.64556e-01,-1.75117e-01,3.40811e-01,2.96963e-01,5.78376e-02,2.01875e-01,-1.47200e-01,4.51657e-01,1.86491e-01,-2.02941e-01,2.89816e-02,2.32118e-01,-2.86891e-01,
-2.43340e-01,-2.62246e-01,-2.04021e-02,-2.72565e-01,2.30931e-01,-1.68008e-01,2.30608e-01,4.53208e-03,-2.41684e-01,1.24268e-01,-8.01734e-02,6.78173e-02,3.15247e-01,-3.23012e-01,1.93667e-01,2.51116e-01,-1.09571e+00,-1.94615e-01,-1.03465e-01,1.68743e-01,-7.89077e-02,4.36739e-02,-2.05795e-01,2.13594e-01,2.86737e-01,
7.07560e-02,1.76497e-01,1.55550e-02,-3.91269e-02,-1.62485e-01,2.65622e-01,4.34514e-01,2.48077e-01,2.87228e-01,-2.18473e-01,2.56413e-01,1.21161e-01,2.75986e-01,3.07925e-02,-2.93952e-01,-1.52327e-01,2.12626e-01,-7.09266e-02,-1.83394e-01,-2.20560e-01,-2.55236e-01,-2.69628e-01,1.92249e-01,-9.12507e-02,-2.19855e-01,
7.29960e-02,5.60759e-01,1.93610e-01,1.50538e-01,-2.02270e-01,3.15820e-01,-1.12627e-01,4.55139e-02,-3.46232e-01,1.56184e-01,-9.64113e-02,1.65629e-01,-3.96199e-01,-1.60720e-01,-9.00410e-02,-6.86836e-02,-4.59174e-01,-5.16390e-01,-2.40427e-02,-1.60924e-03,2.79980e-01,-3.78540e-02,-1.73180e-02,3.80121e-01,-4.59310e-01,
-2.68351e-01,-3.46894e-01,-1.23822e-01,-7.70405e-02,-1.70406e-01,-1.11075e-01,-3.77935e-01,9.90029e-02,3.58645e-01,6.62081e-02,-8.51939e-02,4.63282e-03,1.90475e-01,7.37675e-02,9.20441e-02,-9.02961e-02,-9.33358e-01,4.90905e-02,-3.56510e-01,-7.38152e-01,-2.77423e-02,-2.14204e-01,-4.98615e-01,-1.00590e-03,-6.66495e-01,
9.11144e-02,-3.84604e-01,2.89899e-01,-1.51615e-01,-1.35295e-01,1.35328e-01,2.99498e-01,-1.67915e-02,-1.80343e-02,1.41228e-01,4.29650e-03,3.56591e-01,-1.18857e-01,-9.39128e-02,1.11071e-02,3.36866e-01,-1.78903e-01,-3.59567e-01,-2.85476e-01,4.11136e-01,1.28238e-01,1.94804e-02,3.78689e-02,4.88297e-01,-3.37566e-01,
-3.64177e-01,-1.50919e-02,-6.11623e-02,9.12570e-02,5.85558e-02,-6.41478e-02,-1.09350e-01,-2.78026e-01,2.46856e-01,2.59811e-01,2.55911e-01,1.59751e-01,-1.19332e-01,3.73795e-01,1.24581e-01,-1.14810e-02,1.97395e-01,4.90672e-02,-3.26574e-01,1.12198e-01,2.51672e-01,3.08348e-01,2.19397e-01,-4.34865e-01,-6.46730e-02,
2.50855e-01,1.62582e-01,7.76045e-02,-2.25853e-01,-4.13181e-01,-1.22396e-01,-1.03378e+00,1.33013e-01,3.14647e-01,-4.36805e-01,-1.26068e-01,-1.41726e-01,9.08875e-02,1.17294e-01,-3.83838e-01,-6.11911e-01,3.89523e-01,-2.31200e-03,-2.67811e-01,-4.23641e-01,-3.05470e-01,1.97235e-01,3.24796e-01,8.10756e-02,-6.41796e-01,
2.32795e-01,1.42284e-02,-2.85367e-01,-1.07602e-01,2.51890e-01,-1.82530e-01,-2.96930e-01,2.18962e-01,3.41747e-02,-3.02842e-01,-2.30293e-01,2.41074e-02,3.46780e-02,3.64974e-01,1.26876e-01,-4.51840e-01,1.77612e-01,7.59790e-02,-9.59568e-02,-6.03406e-01,-1.87181e-01,-6.88510e-02,-1.55176e-01,6.05040e-02,-3.18869e-01,
1.47685e-01,-8.00378e-01,2.02673e-02,-2.58909e-01,1.73442e-01,2.53341e-01,2.61634e-01,1.19796e-01,-1.99425e-01,9.78852e-02,-2.61097e-01,1.32694e-01,2.89342e-02,1.32687e-01,2.65505e-01,-5.29219e-02,1.32705e-01,4.45787e-01,-1.97411e-01,-4.95774e-02,-2.49024e-01,-9.29313e-02,7.34869e-01,1.29874e-01,-6.37204e-01,
-1.69705e-01,-5.12733e-01,-8.58333e-02,-9.56100e-02,1.83874e-01,1.60043e-02,5.26500e-01,1.09570e-02,-8.64574e-02,-2.73112e-02,8.34269e-02,4.55542e-01,-2.39927e-01,-3.72338e-01,4.76166e-01,4.23936e-01,-3.91539e-01,-4.04479e-02,-1.00013e-01,5.05297e-01,1.83756e-01,2.74537e-01,-1.44482e-01,-8.35819e-02,1.84112e-01,
-4.82934e-01,8.68139e-02,1.82876e-01,4.04446e-01,6.92094e-02,2.27974e-01,-1.02979e+00,1.63006e-01,-3.29916e-01,-2.57261e-01,3.66122e-01,-2.50185e-01,2.15038e-01,-1.05683e-02,-5.51445e-02,4.76319e-02,1.42750e-01,-2.56107e-01,2.89600e-02,4.50799e-01,8.70933e-02,3.52774e-01,-4.60481e-01,-6.67186e-01,-1.62961e-04,
1.17516e-01,8.23902e-02,2.37054e-01,-7.93510e-03,1.16770e-01,-2.34642e-01,1.63352e-01,-1.09712e-01,1.87951e-01,1.08013e-01,2.26301e-01,1.27440e-01,-1.37653e-02,-3.83606e-01,-1.57147e-01,6.31538e-01,-9.54238e-02,-4.56625e-01,-1.25474e-01,-2.23888e-01,-1.11652e-01,2.27777e-02,-1.47787e-01,3.47101e-01,3.76299e-01,
1.91337e-01,4.20080e-01,3.57288e-01,-9.21111e-02,-3.88316e-01,-2.71837e-01,3.37416e-01,2.10346e-01,-3.57924e-01,-3.66113e-01,-2.54669e-01,2.59508e-01,-5.31028e-02,-2.82751e-01,-8.68258e-02,-2.57781e-01,-3.13293e-01,1.33322e-01,1.40402e-01,-3.96461e-01,-3.80754e-01,3.21533e-01,2.93644e-01,-1.42599e-01,1.16397e-01,
-2.50457e-01,-9.30833e-02,-2.34472e-01,2.43294e-01,1.38659e-01,1.58886e-02,1.81505e-01,-2.53619e-01,1.91149e-01,-1.23715e-01,2.59990e-02,-1.68327e-01,2.00120e-01,1.13880e-01,2.96565e-01,-3.50055e-01,-1.27157e-01,-1.25165e-01,-9.16070e-02,-4.19705e-02,2.51550e-01,-1.12425e-01,-1.32061e-01,-3.34110e-01,4.16361e-01,
2.31384e-01,6.34064e-03,-2.58080e-01,2.90305e-02,-2.23604e-01,-1.00719e-01,-5.38793e-01,-4.63339e-03,-2.64874e-01,3.22397e-01,-5.85867e-02,2.59497e-02,-2.46327e-01,-8.67702e-02,-4.43796e-01,-5.87670e-01,-2.07837e-02,-8.80833e-02,8.19710e-03,-6.70816e-01,2.02114e-03,-2.69401e-01,3.93033e-01,-2.46562e-01,-7.93281e-01,
1.13347e-01,1.08593e-01,2.54520e-01,2.90850e-01,-1.37017e-01,-8.64373e-02,-1.59347e-01,3.79908e-01,-1.68713e-01,1.78984e-02,1.96055e-01,-1.91223e-02,-1.83489e-01,2.95669e-01,-4.76049e-02,-3.92415e-01,-2.54074e-01,-4.13813e-01,-8.75792e-02,-7.83199e-02,-2.13697e-01,1.12464e-01,-3.11414e-01,-6.20540e-01,7.72402e-02,
-2.08564e-01,
2.45033e-01,
-2.75096e-01,
8.77953e-02,
-8.28845e-02,
-1.85403e-01,
-1.27835e-01,
-2.31181e-01,
1.52415e-01,
1.87534e-01,
6.33721e-02,
-1.84055e-01,
2.72335e-01,
-1.80072e-01,
7.43030e-03,
-2.47342e-01,
-1.42973e-01,
-1.87299e-01,
-8.09785e-02,
-2.74911e-01,
7.94500e-02,
-2.14233e-01,
1.77304e-01,
-2.38566e-01,
1.05162e-02,
1.39302e-01,-2.50150e-01,1.61696e-01,2.00222e-03,3.64606e-01,-1.03530e-01,-1.69109e-02,-2.28197e-01,4.05190e-01,2.21802e-01,-2.96101e-01,-3.18741e-01,3.41357e-02,-1.59743e-01,1.96634e-01,-1.40845e-01,1.56464e-01,1.90423e-01,-1.64790e-01,-3.84061e-01,3.04985e-01,6.55632e-02,-4.52415e-02,-2.73866e-01,2.12739e-01,
-1.82922e-01,-1.72618e-02,2.90239e-01,4.10090e-01,4.29793e-01,-8.75156e-02,1.60824e-03,6.73169e-02,9.85028e-02,4.00779e-02,-6.00460e-02,-3.93650e-02,6.42038e-01,-4.87170e-03,-2.13336e-01,-1.47868e-01,2.26811e-01,7.86931e-02,2.10145e-01,-6.84035e-02,-1.77865e-02,6.33650e-02,2.51438e-01,1.52494e-01,1.56487e-01,
2.77613e-01,3.05767e-01,1.12527e-01,8.37445e-02,-1.36930e-01,1.11792e-01,-2.50326e-01,-5.88559e-02,-2.64797e-01,1.34135e-01,-3.00622e-01,5.25917e-02,3.83243e-01,-1.86592e-01,2.11484e-01,-3.06060e-01,2.66350e-01,2.55489e-01,-2.62006e-01,1.57007e-01,2.93865e-01,-7.25423e-03,-1.49408e-01,-1.95652e-01,2.16827e-01,
-2.96877e-01,-7.25463e-02,-2.35672e-01,6.23382e-01,-6.36038e-01,-3.40184e-01,-4.36544e-01,-1.31891e-01,1.62439e-01,1.02680e-01,6.64946e-02,4.87618e-02,2.81937e-01,-3.16302e-01,-2.11411e-01,-2.91271e-01,-3.98060e-01,-3.50617e-01,-5.83177e-01,-3.18450e-01,1.97659e-01,-5.41388e-01,-6.33123e-02,-2.45484e-02,1.04593e-01,
-1.31524e-02,-5.67791e-02,7.10214e-02,2.97405e-02,-6.89123e-01,-3.24798e-01,-3.58195e-01,-1.21886e-01,-2.26235e-01,-2.65297e-01,7.92351e-02,-4.67121e-01,2.47736e-01,-1.89342e-01,4.35489e-01,-1.31138e-01,1.32328e-01,-1.86922e-01,3.01432e-01,-6.07572e-01,-1.21704e-01,-2.52388e-01,7.70973e-02,-1.76139e-01,1.69701e-01,
4.32192e-02,6.27029e-02,-6.50072e-02,-1.14558e-01,-2.97212e-01,2.07344e-01,9.44084e-02,-3.11587e-02,-6.53046e-02,-1.00437e-01,7.56773e-03,-1.25063e-01,2.46764e-02,-1.61558e-03,5.12574e-02,2.22720e-02,-2.05570e-01,-7.25491e-01,3.94586e-01,1.98509e-01,-3.74301e-01,-1.35786e-01,2.97049e-01,-4.29637e-02,2.57679e-02,
-2.57533e-02,-3.57538e-01,-3.49071e-03,-2.32679e-01,2.58713e-01,-2.99718e-02,2.83667e-01,1.72455e-01,2.55771e-01,7.43690e-01,1.52287e-01,-3.65226e-01,4.82631e-01,1.55344e-01,-6.94641e-02,1.77878e-01,3.37779e-01,-1.84655e-01,-3.92581e-01,4.00521e-01,-2.10790e-01,-8.30612e-02,-1.02498e-01,-1.21531e-01,1.61426e-01,
1.01134e-01,-1.63572e-01,-2.96921e-01,-9.30270e-02,4.16261e-01,-4.29350e-01,-2.10647e-01,-2.98344e-01,-6.13345e-02,-2.92701e-01,-1.22688e-01,2.09255e-01,3.27172e-01,-1.40035e-01,-4.79143e-02,-3.69546e-01,-2.15970e-01,5.39816e-01,7.25344e-03,4.83812e-01,-1.27704e-01,-4.02852e-01,-3.06548e-02,2.08825e-01,-1.42236e-01,
-3.81399e-02,9.57699e-02,2.85213e-01,7.61976e-02,-1.66191e-01,-8.39477e-02,-7.09256e-02,-2.63625e-02,-4.55723e-05,1.39552e-01,3.41135e-01,-1.32341e-01,-5.17063e-02,-6.89119e-03,-1.29547e-01,-2.87616e-01,3.35655e-01,3.92447e-02,-2.42523e-02,1.73879e-01,3.10588e-01,-8.55971e-02,1.59155e-02,2.80390e-01,-1.11684e-01,
-3.56574e-01,3.74044e-01,-4.10912e-01,-3.34473e-01,1.28919e-01,2.56900e-01,-3.36435e-02,-4.40832e-01,3.04069e-01,-3.92230e-02,2.31581e-01,3.28339e-01,-6.22848e-02,3.04576e-01,1.87986e-01,-2.27527e-01,-2.52812e-01,2.09391e-01,-2.55955e-01,2.29487e-01,3.60473e-01,1.17235e-01,-6.00875e-02,-4.06936e-01,-2.56056e-01,
3.20413e-02,-2.40447e-01,-1.85318e-01,8.77630e-02,-1.27432e+00,3.73628e-01,-4.22301e-01,1.79235e-01,-2.55767e-01,-7.85977e-01,-3.96584e-01,-1.66001e-01,2.34878e-01,2.67530e-01,-3.31142e-01,-3.38160e-02,3.63625e-02,1.41514e-01,3.66280e-01,-2.93086e-01,-1.47646e-01,1.56356e-01,1.94297e-01,-3.90542e-01,2.08546e-02,
-8.60407e-02,-1.54233e-01,-1.43063e-01,-4.12183e-02,3.45161e-01,-2.85568e-02,4.27642e-01,6.45896e-02,3.94241e-02,3.82572e-01,8.48792e-02,-1.40899e-01,1.50826e-01,6.29465e-02,-1.06582e-01,4.61357e-01,2.60561e-01,3.87393e-02,-2.06331e-01,1.92208e-01,1.70769e-01,3.11247e-01,-2.09388e-01,4.08506e-01,-1.39730e-01,
-1.90041e-01,-2.03922e-01,6.37905e-02,2.97083e-01,7.48722e-02,-7.86257e-02,-4.11543e-02,1.46476e-01,2.89032e-02,7.34338e-02,-1.93287e-01,-2.71708e-01,-1.11778e-02,-2.42881e-03,2.11608e-02,3.16250e-01,1.91005e-01,2.00486e-01,5.24966e-02,3.32026e-01,-6.76778e-02,5.19649e-02,-1.58603e-01,-7.94478e-02,1.71751e-01,
1.14477e-01,2.18134e-02,-4.04214e-02,-2.31214e-01,-1.39961e-01,-2.21157e-02,1.78786e-01,-8.42554e-02,2.20737e-01,2.99666e-01,-3.04919e-01,4.11577e-02,4.79208e-01,-6.81603e-02,1.78037e-01,-3.49714e-01,-2.72073e-02,-1.19380e-01,-2.43004e-01,2.48706e-01,1.51515e-01,-9.21869e-02,-3.36792e-01,-7.76811e-02,-9.85271e-02,
2.18095e-01,-1.15754e-01,-2.36569e-02,2.21495e-01,-3.70123e-01,2.05484e-01,9.55649e-02,-2.43008e-01,-2.17897e-01,-4.17789e-01,-1.79803e-01,-5.35573e-01,9.45553e-02,-9.75430e-02,-8.02441e-02,-4.97982e-02,-7.09710e-02,-3.72178e-01,2.25406e-01,-2.05282e-02,-1.82308e-01,3.55713e-01,-4.27228e-01,3.18012e-01,-2.50154e-01,
-1.94607e-01,1.04684e-01,1.71641e-01,3.51589e-01,-1.08989e+00,-8.72136e-02,-3.40806e-02,-1.36263e-01,-3.63862e-01,-6.37657e-02,-3.41535e-01,-1.42834e-01,1.02680e-01,9.10454e-02,2.60611e-01,4.38060e-01,3.49609e-01,-5.08615e-01,-5.72821e-02,-1.26296e+00,-3.51732e-01,5.98691e-02,-6.48602e-02,-1.34297e-01,-1.93122e-01,
-2.02532e-01,1.11179e-01,-9.85269e-03,2.11363e-01,-3.81510e-02,2.05256e-01,4.66488e-01,-2.81219e-01,2.02730e-01,2.24502e-01,-2.49357e-01,4.02316e-01,3.08863e-02,1.55534e-01,-1.17043e-01,1.26134e-01,-1.62562e-01,-1.32659e-01,-3.19084e-01,7.17550e-01,-2.79749e-01,2.89789e-01,-7.06921e-02,1.58550e-01,-2.72514e-01,
-2.75030e-02,2.64727e-01,4.94662e-02,2.60838e-01,-8.16600e-01,4.18078e-01,1.27564e-01,8.88735e-02,1.96479e-01,-4.88249e-02,-5.68421e-02,1.19198e-01,-3.93263e-02,5.89419e-02,-2.72130e-01,1.75997e-01,-9.77634e-02,-4.20238e-01,1.98282e-01,-7.68147e-02,-2.49985e-01,-1.16187e-01,2.02337e-01,-7.68180e-03,-1.20759e-01,
3.55948e-01,3.98984e-02,-1.44229e-01,-2.40709e-01,-5.01422e-01,2.59848e-01,-2.07031e-02,3.01940e-01,-2.98028e-01,-1.57323e-01,6.21280e-03,-3.22226e-01,3.36063e-01,1.54455e-01,-1.02125e-01,-2.72105e-01,-8.10128e-02,-4.11954e-01,-3.32742e-01,2.07103e-01,1.93369e-01,-7.59072e-02,6.10096e-02,1.96982e-01,2.34786e-01,
-7.14077e-02,7.86354e-02,-2.88324e-01,1.71751e-01,-7.89572e-02,2.37014e-01,-1.82598e-01,3.75212e-02,7.95098e-02,-5.53811e-01,2.17634e-01,4.91654e-02,-1.34080e-01,-3.51952e-01,3.53423e-02,-1.72261e-01,1.63385e-01,-4.12064e-02,2.33533e-01,-3.11564e-01,2.15128e-01,-2.92321e-02,1.04317e-01,-4.92730e-02,2.95808e-01,
9.93431e-02,1.45827e-01,-2.01205e-01,-2.69445e-01,6.47097e-02,2.14780e-01,-1.80155e-01,-2.52394e-01,2.44254e-01,-9.94963e-02,-1.77380e-02,-3.19143e-01,1.52390e-01,-3.72281e-01,2.82984e-01,-1.92748e-01,5.26674e-02,2.59984e-01,1.58832e-01,-5.25632e-01,-8.48568e-02,-2.07890e-01,1.16560e-01,-2.54741e-01,4.16969e-01,
4.48291e-01,1.47192e-04,-1.50727e-02,1.32153e-01,2.12053e-01,7.54592e-02,1.67082e-01,1.26139e-01,8.60462e-02,6.35883e-02,-5.60666e-02,1.83327e-01,-6.15608e-03,-1.96043e-01,-2.90033e-01,1.86591e-01,5.54744e-02,6.19013e-02,-3.86325e-01,4.13137e-01,1.80285e-01,-7.21192e-03,-1.81511e-01,2.23487e-02,-5.17106e-02,
1.48865e-01,-3.08877e-01,-2.55831e-01,1.03513e-01,-4.66360e-01,3.20275e-01,1.02864e-01,3.18142e-01,-2.18242e-01,-5.71366e-02,2.17198e-01,4.67210e-01,7.53409e-01,-8.85796e-02,2.44350e-01,1.22113e-01,-8.59637e-02,-1.80248e-01,-1.83947e-01,-2.80137e-01,2.27659e-01,1.04136e-01,3.06562e-01,-2.49373e-01,3.87249e-02,
1.56415e-01,3.24411e-01,1.78874e-01,3.56588e-02,1.11185e-01,-3.47202e-01,-3.71689e-02,-1.26041e-01,6.70978e-02,-8.02620e-04,2.23308e-01,7.66117e-02,-9.62451e-02,-1.03288e-01,-1.52929e-01,-1.36547e-01,-1.05218e-01,9.22793e-02,2.47733e-01,1.98646e-01,-1.25555e-01,3.05713e-01,3.15668e-01,1.33111e-01,-2.93694e-01,
-4.62107e-01,1.33449e-01,-9.60499e-02,4.46017e-02,4.46696e-01,1.14431e-01,2.33681e-01,-3.63648e-01,3.26496e-01,3.32406e-01,-7.49697e-03,-3.10572e-01,-5.81920e-01,1.00467e-01,3.01866e-01,8.37247e-03,2.64137e-02,1.03687e-01,-3.40754e-02,6.76379e-01,-1.25962e-01,-4.78522e-01,-3.54142e-02,-2.76283e-01,-3.65151e-01,
-1.49421e-01,
-4.51788e-02,
-2.47053e-01,
-2.41493e-01,
-1.54277e-01,
-1.50954e-01,
-1.45746e-01,
-8.01710e-02,
-2.10083e-01,
-1.17448e-01,
1.54130e-01,
1.70693e-01,
-1.73726e-01,
-4.12236e-02,
1.62819e-01,
1.39948e-01,
1.66285e-01,
2.74574e-02,
6.29347e-02,
2.52220e-01,
-2.83948e-01,
1.81354e-01,
-1.53396e-01,
3.31455e-01,
-1.06638e-01,
-1.90686e-01,-3.18937e-01,-2.92572e-01,4.54648e-02,-6.92851e-02,3.09735e-01,-1.74712e-01,-2.19442e-01,1.37826e-01,1.93565e-02,1.86281e-01,-2.71163e-01,-2.01778e-01,2.34327e-01,5.21703e-01,-4.53556e-02,2.72299e-01,-3.76838e-02,1.46971e-01,-8.39322e-02,-8.50729e-02,9.14885e-02,-8.19584e-02,1.22930e-01,2.82521e-02,
-8.39296e-03,2.46947e-01,-2.81296e-01,-1.19881e-01,-5.32306e-01,-2.14345e-01,-1.16949e-01,-3.42448e-01,-2.02490e-01,2.44385e-01,-1.15634e-01,1.54741e-01,1.25814e-01,8.96709e-02,3.10487e-01,-2.12556e-01,-2.43503e-01,-1.33955e-01,8.25083e-02,-3.98067e-02,1.19135e-01,2.94293e-01,-2.58003e-01,-1.39234e-01,6.39876e-02,
2.14401e-01,-2.69702e-01,-5.09392e-02,7.03188e-04,-5.50143e-02,3.13767e-01,-3.85293e-01,9.22132e-03,-2.69648e-01,1.94516e-01,-6.87338e-02,-1.62918e-01,3.09449e-01,8.10402e-02,1.54369e-01,8.24123e-02,-1.45570e-01,1.91379e-01,2.47540e-01,1.87646e-01,3.13630e-03,2.95196e-01,-4.61597e-02,3.31829e-01,-4.88365e-02,
1.81877e-01,3.66104e-02,6.43741e-02,2.22351e-01,9.11461e-01,-7.52223e-02,-2.99104e-01,-6.25047e-03,-7.68454e-02,1.00241e-01,-3.94032e-01,-1.78044e-02,-8.38209e-02,-9.02959e-02,-6.19529e-01,1.68660e-01,1.93643e-02,1.14830e-01,-5.32059e-02,2.24565e-01,2.76225e-01,-2.45759e-01,-2.18246e-01,-2.72062e-01,-2.85828e-01,
5.71897e-02,-2.35461e-01,2.38540e-01,3.44667e-02,-1.18399e-01,1.53159e-01,2.65387e-01,-1.71750e-01,-2.36202e-01,2.19331e-01,-2.43464e-01,-7.46528e-02,7.39823e-02,1.63019e-01,1.93549e-01,2.06637e-01,-3.53611e-02,7.21159e-02,3.32141e-01,-5.51321e-02,1.62474e-01,9.05408e-02,3.23644e-01,1.42611e-01,-3.42267e-02,
-2.19578e-02,6.52982e-02,2.01059e-01,-1.11616e-01,4.77023e-01,3.32994e-01,1.65064e-01,1.69153e-01,3.03658e-01,-1.90604e-01,-3.63304e-01,-3.12793e-01,-4.55267e-02,1.37837e-01,-1.94328e-01,2.14704e-01,2.81231e-03,7.59696e-02,3.84760e-02,1.55802e-01,-5.77838e-02,1.61339e-01,3.24604e-01,-3.44053e-01,5.21714e-02,
-1.41773e-01,-4.47035e-02,-3.66235e-01,1.75349e-01,9.12982e-01,1.03517e-01,3.07135e-02,3.35564e-01,-1.55684e-01,-2.11819e-02,1.77651e-01,-5.36309e-01,-2.40250e-01,-2.93904e-02,7.97348e-01,-3.75791e-01,1.59602e-01,2.16778e-01,-1.47305e-01,-1.99801e-01,1.99893e-01,-1.41781e-01,-1.55881e-01,-1.86332e-01,3.63617e-01,
1.57870e-01,4.21235e-02,-1.76971e-01,3.32814e-01,7.85826e-02,-3.65329e-01,-2.47180e-03,3.32571e-01,1.59538e-01,-2.85509e-01,1.45715e-01,8.52679e-02,-8.25812e-02,-1.01441e-01,8.82176e-02,-4.77568e-01,-2.15317e-01,-3.40939e-01,8.35582e-02,3.23329e-01,2.45482e-01,-1.00007e-01,-4.78571e-01,-4.59014e-02,5.25539e-01,
-6.03194e-02,-1.58438e-01,3.30691e-01,9.52418e-02,-2.93675e-01,-1.46943e-01,2.03725e-01,-1.11604e-01,1.22146e-01,2.23815e-01,-4.70393e-02,1.86710e-02,3.75086e-01,-1.87017e-01,-1.16895e-01,-2.21675e-01,9.75281e-02,4.97096e-02,7.85395e-02,1.89101e-01,-2.34074e-01,-2.10350e-01,9.27152e-02,1.74122e-01,1.68064e-01,
3.19316e-01,-2.40144e-01,-1.60563e-01,4.38998e-02,-3.25177e-01,-3.03393e-02,-5.11718e-01,-1.52873e-01,-2.85437e-01,3.79634e-01,-2.42978e-01,2.48089e-01,-1.72274e-01,-2.85397e-02,2.25722e-01,-2.83701e-01,-9.38086e-02,-7.60127e-02,-3.33736e-01,1.85110e-01,5.36016e-02,5.20193e-02,-3.13948e-01,3.68455e-01,-5.69690e-01,
-3.08852e-01,2.57444e-01,-1.28542e-01,3.33821e-02,3.04304e-02,1.60896e-01,1.66886e-01,-2.23643e-01,2.75133e-01,-1.44035e-01,3.91199e-01,-1.79329e-01,-2.35361e-01,7.71310e-02,-1.96743e-02,2.11782e-01,-7.86456e-02,-8.66968e-03,-9.49848e-02,-1.01644e-01,-1.59284e-01,2.73028e-01,-4.04769e-02,2.87688e-01,-1.04307e-01,
5.42600e-02,-2.65156e-01,1.77671e-01,7.54517e-02,-1.64860e-02,-1.80951e-01,-1.64496e-01,1.42661e-01,-2.84392e-01,-2.17833e-01,2.84107e-01,3.37638e-02,-9.21552e-02,1.20879e-01,1.77371e-01,-2.77610e-01,1.04044e-01,-8.80969e-02,-2.20347e-01,1.36812e-01,5.09371e-02,-2.58421e-01,-1.78283e-01,2.75794e-02,9.03154e-02,
1.77188e-01,-2.41188e-01,-1.06462e-01,-7.10858e-03,1.00047e-01,2.87288e-01,-1.60648e-01,3.47723e-02,-2.12955e-01,6.24028e-02,-4.74135e-01,4.46933e-02,-1.66443e-01,-1.34459e-01,2.73998e-01,-2.58679e-01,-5.79781e-02,-9.32615e-02,-2.07595e-01,-9.61171e-03,1.41440e-01,-2.33254e-01,3.95675e-01,-2.63427e-01,-9.35739e-02,
1.63028e-01,2.64341e-01,-4.79212e-02,-1.92569e-01,-6.16643e-02,-1.35500e-01,2.50863e-01,2.99857e-01,-9.21168e-02,2.79938e-01,-5.58913e-02,1.84075e-01,-8.08991e-02,-3.69848e-02,-3.49073e-01,-1.63267e-01,8.59666e-04,-1.37079e-01,-8.90810e-02,-1.59761e-01,-2.81189e-01,1.13095e-01,2.72176e-01,-3.00927e-01,3.11338e-01,
9.47070e-02,-1.53334e-01,-3.48649e-02,1.74674e-01,-2.72475e-01,3.47757e-01,2.78899e-01,-8.42718e-02,-3.02043e-01,-2.61110e-01,2.52048e-01,1.24668e-01,-1.10575e-01,-2.60313e-01,-1.01582e-01,1.61833e-01,-5.61346e-02,1.47612e-02,3.16786e-02,2.66264e-01,1.77405e-01,-7.43056e-02,-2.47713e-01,2.05115e-01,-4.06068e-01,
-2.36229e-01,2.18369e-01,1.77755e-01,1.59064e-01,-8.60588e-02,-3.02989e-01,3.53547e-01,1.66423e-01,1.21640e-01,1.21608e-01,1.19088e-01,2.74075e-01,-2.19853e-01,2.63105e-01,-1.16369e-01,1.40871e-01,-6.41979e-02,6.77067e-02,3.57583e-02,-1.70081e-01,2.35416e-01,-1.27472e-01,-2.21731e-01,1.69308e-02,-7.99987e-02,
2.51059e-01,-1.17481e-01,-1.21871e-02,2.57270e-01,7.07644e-02,-1.94595e-02,4.66189e-02,1.11015e-01,1.65554e-01,-3.27730e-01,-9.88498e-02,8.11853e-02,2.45933e-01,1.71712e-01,-9.11595e-01,1.77724e-01,1.03944e-01,-6.01483e-02,-9.86456e-02,-6.60236e-02,1.24838e-01,1.24090e-01,1.15611e-01,-3.67176e-02,-2.87792e-01,
-1.35839e-01,3.03184e-02,-6.86773e-02,-2.83535e-01,3.14444e-02,2.46648e-01,-6.46045e-02,1.38475e-01,-3.74062e-02,-1.97551e-01,-6.57945e-02,1.34348e-01,2.95527e-02,-2.21101e-01,-4.37933e-01,-9.75818e-05,-1.71682e-01,-3.75988e-01,-4.01498e-02,8.83942e-02,-2.85415e-01,-2.59893e-01,-1.06834e-01,1.52695e-01,4.86139e-01,
1.44466e-02,4.91962e-01,-7.97470e-03,-2.57459e-01,-2.58587e-01,3.33933e-02,2.99416e-01,2.93379e-02,2.36528e-01,5.10434e-02,-5.82963e-01,1.39706e-01,2.75647e-01,8.43767e-02,-3.75459e-01,-7.96846e-02,1.65701e-01,-9.02869e-02,-2.12383e-01,-1.38184e-01,6.35160e-02,2.81357e-01,-2.54145e-01,5.10604e-03,-7.70286e-02,
1.24922e-01,-1.70804e-01,-4.11933e-01,-2.42935e-01,2.77018e-02,2.14471e-01,1.65623e-01,1.82798e-01,1.26281e-01,3.31325e-01,1.40596e-01,-6.74749e-01,4.54051e-03,-3.49494e-01,-2.34910e-01,2.29874e-01,1.60872e-01,-3.59982e-02,2.63099e-01,2.82756e-01,3.41783e-02,-1.54902e-01,-3.54608e-01,1.12146e-01,-1.60100e-01,
1.92908e-01,-1.04637e-01,3.22278e-01,1.55712e-01,4.00119e-02,2.78551e-02,-1.53675e-01,2.98345e-02,7.38178e-02,9.99710e-02,-2.56489e-01,-5.29393e-01,1.34977e-01,1.42626e-01,7.77102e-02,-6.90694e-02,-3.27409e-01,-3.29698e-01,-1.36329e-01,4.18078e-02,2.29803e-01,1.72839e-01,-1.24313e-01,-2.99156e-01,-7.24944e-02,
2.11419e-01,-1.06215e-01,-6.18082e-05,-5.54832e-01,3.80744e-01,-2.91295e-01,2.93842e-01,1.00582e-01,1.21925e-01,5.20770e-01,-3.62090e-01,-2.86329e-01,-1.88296e-01,1.64736e-01,2.16699e-01,7.13989e-02,-1.82197e-02,2.14585e-01,-8.20397e-03,-1.85969e-01,-1.95577e-01,2.17044e-01,7.48998e-03,-1.36655e-02,6.53316e-01,
-1.02721e-02,-1.57520e-01,-1.47673e-01,2.02613e-01,-1.71690e-01,1.25128e-01,-1.34776e-01,9.63010e-02,-2.31723e-01,1.13020e-01,3.00791e-01,-3.82410e-01,-9.41191e-02,-1.08571e-01,7.01486e-01,-2.18039e-01,-1.17304e-01,-1.30304e-01,-3.28148e-01,2.85561e-01,3.33125e-01,1.05211e-01,-2.01041e-01,2.01542e-01,2.71679e-01,
-1.13576e-01,1.94831e-01,1.68763e-01,-9.03313e-02,1.65195e-01,2.99622e-01,-1.22947e-01,-1.37673e-01,-7.80545e-02,1.55390e-01,-3.47377e-01,-3.10697e-01,1.63536e-02,4.19086e-01,-4.16790e-02,-2.94255e-02,3.11936e-01,1.67533e-01,-8.21726e-02,-1.48981e-02,3.24216e-01,-6.11922e-02,-1.68482e-01,4.02186e-03,2.67763e-01,
-1.43056e-01,-3.01110e-01,-2.60227e-01,7.76474e-02,-5.48473e-01,-1.58365e-01,-1.39831e-01,-3.68931e-01,-3.02956e-01,-2.09516e-01,1.09870e-01,-4.96742e-02,2.36738e-01,-2.35917e-01,1.82465e-01,-1.86713e-01,5.62891e-02,-7.21731e-02,-1.53489e-01,-2.37579e-02,2.61033e-01,-1.51123e-01,-2.30790e-01,-4.57924e-04,2.64982e-01,
-1.04143e-01,
-2.55984e-01,
-1.73190e-01,
6.14800e-02,
6.76349e-02,
2.24305e-01,
1.75449e-01,
-4.63517e-02,
-1.05055e-01,
-2.27574e-01,
1.25246e-01,
2.43983e-01,
2.19067e-01,
2.42349e-01,
1.08438e-02,
2.45878e-01,
2.50487e-02,
-3.41499e-01,
3.01470e-02,
-1.85452e-01,
2.03108e-01,
7.95488e-02,
-2.61434e-01,
-1.54275e-01,
-1.83258e-01,
-2.86854e-02,3.31533e-01,-5.90299e-02,-6.65554e-02,-4.58507e-02,1.63696e-01,-1.41870e-01,2.51890e-01,2.54484e-01,-1.50207e-01,-3.05971e-01,-3.22389e-02,1.71594e-01,3.07371e-01,-7.24897e-02,3.21924e-02,-1.13953e-01,4.90183e-02,-2.05393e-01,1.24830e-01,1.38358e-01,-1.37379e-02,3.92021e-01,2.43178e-01,-4.01579e-02,
-6.22707e-02,-2.02290e-02,-1.29233e-02,2.09406e-01,-5.32042e-02,-1.71663e-01,6.04313e-01,6.41683e-01,1.54146e-01,1.73631e-01,3.70210e-02,3.63804e-01,-4.01252e-02,-1.33351e-01,-1.02341e-01,2.36984e-01,-5.92112e-02,-7.29168e-02,-2.21862e-01,-3.49909e-01,3.56732e-01,-3.76667e-01,-2.51227e-01,-3.27203e-01,-1.98371e-02,
-8.11059e-02,-1.53237e-01,-1.19728e-01,2.11256e-01,-9.38655e-02,3.06694e-01,-9.56203e-02,1.65152e-01,9.02101e-02,1.74867e-01,2.30421e-01,1.51759e-01,-8.95578e-02,-1.69310e-01,-6.42416e-02,-4.22260e-02,3.95258e-02,4.04975e-03,-2.04390e-01,-1.24947e-01,1.00121e-01,6.25131e-02,-1.37706e-01,1.01197e-01,7.52895e-02,
-1.94998e-01,-3.61483e-01,3.91077e-01,2.67801e-01,1.19829e-01,-1.68194e-01,6.87875e-01,-3.61181e-01,-1.20232e-01,2.25943e-01,2.24893e-01,-2.54854e-02,1.35826e-02,-7.04128e-02,2.56618e-01,2.79896e-02,2.20516e-01,-2.88590e-01,-4.72477e-01,3.54504e-01,1.72716e-01,-4.11211e-01,-5.01032e-02,-1.88813e-01,1.07867e-01,
2.13946e-01,4.60666e-02,1.12341e-01,-4.12191e-02,7.30077e-02,-1.99924e-01,-2.42558e-01,3.36284e-01,4.21254e-02,-4.36420e-01,-1.39838e-02,-1.78330e-01,-1.28517e-01,-3.34074e-01,-1.56468e-01,-1.72464e-01,3.65120e-02,4.45927e-02,2.85958e-01,-1.69504e-01,-2.92629e-01,1.46212e-01,2.49680e-01,-3.02019e-01,-2.45247e-01,
-7.64578e-02,1.74188e-01,1.43497e-01,3.83248e-01,-2.64646e-01,1.51049e-01,5.37443e-02,-2.42340e-02,2.52240e-01,5.63510e-01,1.10763e-01,-3.01689e-01,1.97031e-01,-2.35707e-01,1.40460e-01,-1.18455e-01,1.62196e-01,-1.02148e-02,2.46444e-01,-7.63479e-02,1.38737e-01,-2.07108e-01,-2.03003e-01,2.76505e-01,2.39359e-01,
-1.05082e-01,8.38721e-02,2.86919e-01,2.73360e-01,-1.01128e-01,3.48803e-01,-2.46920e-01,-1.13674e-01,-6.58018e-02,-1.86474e-01,-8.02814e-02,2.30553e-01,7.61187e-02,2.36769e-02,-3.78911e-02,-2.48447e-02,1.09782e-01,1.24713e-01,2.38751e-01,-2.80700e-01,-2.77768e-02,-1.03297e-01,3.04817e-01,-6.24717e-02,1.10788e-01,
-1.75398e-01,-1.51362e-01,8.92552e-02,-3.59615e-02,-8.01580e-02,2.42559e-01,-1.79173e-02,-2.93100e-01,1.61341e-01,1.58361e-01,2.38973e-01,-2.22591e-01,-6.73706e-02,3.06311e-01,-1.81065e-01,6.26470e-02,-2.12788e-01,2.58812e-01,7.33599e-02,-2.22163e-01,-1.40104e-01,1.12061e-01,-2.60105e-01,-8.63478e-02,4.05845e-02,
-2.70303e-01,2.43700e-01,7.49003e-02,2.15456e-02,2.95774e-01,-2.49190e-01,1.50407e-01,-5.43745e-02,3.29095e-01,1.04305e-01,1.96535e-01,1.20614e-01,-5.81134e-02,-3.26917e-01,2.10226e-01,1.70494e-01,-1.68268e-01,-6.66903e-02,-2.74846e-01,2.13321e-01,2.39912e-01,1.83401e-01,2.88315e-01,-2.14084e-01,3.33228e-01,
-8.67885e-02,-1.67385e-01,2.04416e-02,2.03937e-01,3.21760e-01,3.80127e-03,5.44771e-02,2.66421e-01,7.27511e-02,2.63614e-01,3.49550e-01,2.66929e-01,2.23336e-01,2.50353e-01,1.81807e-01,-8.08396e-03,-1.30923e-01,-3.65499e-01,-1.93118e-02,-1.09976e-01,-1.25599e-01,2.41339e-01,-5.07908e-02,-2.52562e-01,-1.62623e-01,
3.28875e-01,-1.01464e-01,2.18105e-01,2.74771e-01,5.23557e-03,8.87873e-02,1.53084e-01,-6.60155e-03,3.03904e-01,-9.49976e-02,-3.25229e-01,1.77304e-01,-1.56540e-01,9.79723e-02,-2.40240e-01,2.64784e-01,-4.34025e-01,-1.08210e-01,-2.34148e-01,-2.61904e-01,1.48011e-01,2.99518e-01,4.33261e-02,2.77754e-01,1.34452e-01,
-7.50859e-02,1.56228e-01,-9.25566e-02,2.07016e-01,-2.15702e-01,1.18182e-01,1.72631e-01,2.73622e-01,-1.10845e-02,4.72467e-02,-7.67116e-02,-2.03171e-02,-3.00665e-01,6.40346e-03,-3.17285e-01,2.49203e-01,4.93630e-01,-1.59231e-01,-3.33536e-01,-7.72502e-02,2.97912e-01,8.57736e-02,-2.94580e-01,4.27230e-02,-9.21323e-02,
-1.44410e-01,1.42645e-01,-1.17937e-01,-1.47458e-01,-8.74077e-02,-2.38446e-02,2.57232e-02,-1.49435e-01,7.95362e-02,-1.00968e-01,-3.23409e-01,-6.73070e-02,-1.04481e-01,1.75289e-01,1.24826e-01,2.08250e-01,7.51364e-02,-2.73130e-01,4.98692e-02,-4.68826e-02,2.42603e-01,-2.17946e-01,-3.40124e-01,-1.46466e-01,8.09322e-02,
1.03687e-02,-2.32439e-01,2.02041e-01,2.85147e-01,2.81580e-01,3.69074e-01,-1.76384e-01,4.27448e-01,-1.74298e-01,2.35406e-01,-1.73468e-01,-2.00284e-01,2.41347e-01,-5.13876e-02,-1.35733e-01,7.37149e-02,-9.18905e-02,-7.30517e-02,2.07899e-01,5.08629e-01,3.90689e-01,2.16311e-01,2.27498e-01,1.08898e-01,2.85568e-01,
2.96318e-01,-2.28413e-01,6.22926e-02,3.12046e-01,7.64663e-02,1.08087e-01,-3.53208e-01,8.59954e-02,1.62833e-01,-2.73173e-01,1.44201e-01,-3.06717e-01,1.73288e-02,-3.08846e-01,-3.54267e-01,-3.28997e-01,3.50118e-02,1.48529e-01,-2.26500e-02,1.37385e-01,-2.46316e-01,4.03945e-01,6.93657e-02,2.07437e-01,3.39987e-01,
1.29557e-01,-3.03073e-01,1.50869e-01,-1.54419e-01,2.76730e-01,1.27494e-01,2.23455e-01,2.20259e-01,-2.89366e-01,-1.73508e-01,2.24823e-01,2.76442e-01,-1.70135e-01,1.74014e-01,6.29671e-02,2.18617e-01,6.19345e-02,4.13873e-02,1.45301e-01,8.90924e-02,1.05357e-01,-1.09412e-02,-1.69473e-01,-3.86207e-02,2.52329e-01,
3.49776e-01,-2.30718e-01,6.76558e-02,-9.18407e-02,-2.83090e-01,-1.40583e-01,-2.73202e-01,1.67933e-01,-2.87409e-02,-2.28674e-01,-8.92354e-02,-3.96126e-01,-2.76460e-02,2.23423e-01,-1.58495e-01,-3.46637e-01,-4.07506e-01,3.43982e-01,3.17800e-01,1.31549e-01,-2.45058e-01,2.61245e-01,1.36943e-01,4.44494e-01,-1.33750e-01,
1.19841e-01,-2.30110e-01,3.29093e-01,7.52491e-03,2.65513e-01,-2.38757e-01,9.94394e-02,-1.56690e-03,1.99933e-01,-1.65577e-01,-2.52951e-01,-2.21210e-01,1.83480e-01,7.73545e-02,2.56204e-01,-3.05915e-01,-4.75391e-02,-1.25376e-01,-2.57232e-01,1.16497e-01,9.26825e-02,1.55745e-01,1.68652e-01,-7.60129e-03,1.63447e-01,
-2.35626e-01,-1.77167e-02,5.47029e-02,-1.01426e-01,2.76897e-02,1.77021e-01,-5.31053e-02,-5.21520e-02,1.24704e-01,7.96340e-02,1.28820e-01,1.91918e-01,6.89527e-02,-2.22265e-01,-1.44080e-01,2.08777e-02,-1.57556e-01,2.00193e-01,-5.66908e-02,1.37483e-01,-7.05057e-02,-4.50957e-02,-2.69247e-01,-8.66035e-02,-1.95136e-01,
-2.12268e-01,5.24804e-02,-1.15294e-01,-1.38653e-02,2.30096e-01,-2.81261e-01,1.16565e-01,-1.02024e-01,2.77532e-01,-1.05168e-01,2.85496e-01,2.92648e-03,-1.15172e-01,-3.41484e-01,-2.50691e-01,-3.50471e-01,-1.21671e-01,1.01229e-02,2.31970e-01,-1.09026e-01,1.49213e-01,-2.80367e-01,1.24631e-01,1.79617e-01,2.85338e-01,
4.34031e-02,3.01424e-01,1.27141e-01,-1.91210e-01,-3.81938e-01,-6.56797e-02,5.61713e-02,-2.80061e-01,-2.75998e-01,-1.10247e-01,-1.69483e-01,-2.31501e-01,-1.20422e-01,1.05537e-01,2.85718e-02,-1.03987e-01,-2.05267e-01,-2.73694e-01,-7.94872e-02,-3.71238e-01,-3.30888e-01,-2.48413e-01,4.26440e-01,3.46524e-01,-1.36345e-01,
4.71299e-02,3.61738e-01,2.04517e-01,1.55565e-01,-3.14883e-01,1.67826e-01,-2.93858e-01,-4.53570e-01,-1.52199e-01,-4.09540e-01,-2.53383e-01,-1.30875e-01,5.02033e-03,-5.09518e-02,-3.40203e-01,-2.90960e-01,-2.08780e-01,1.42867e-01,1.12015e-01,1.80946e-01,-1.74976e-01,-2.39932e-01,4.09958e-01,1.94486e-01,7.07520e-02,
-3.72824e-02,-3.87864e-02,-3.47396e-01,-1.27270e-01,1.14478e-01,2.26322e-01,2.20641e-01,1.93851e-01,-1.44397e-01,2.01529e-01,5.66929e-02,5.66645e-02,1.62217e-01,-6.96470e-02,6.55404e-02,-1.65992e-01,2.44363e-01,4.16481e-02,3.03008e-01,-2.63018e-01,-9.05251e-02,-3.06373e-01,-2.13605e-01,-1.80781e-01,-1.94681e-01,
1.29730e-01,3.14897e-01,-2.80113e-01,-2.01849e-01,-1.66154e-01,-4.40566e-02,-8.19029e-02,-2.62671e-01,-7.99628e-02,-2.24323e-01,-1.34756e-01,2.28781e-02,-9.68209e-02,1.02249e-01,1.11973e-01,3.45552e-01,-2.32379e-01,2.14610e-01,6.53640e-02,-1.40047e-02,-4.05091e-02,2.71968e-01,2.54360e-02,2.98957e-01,-5.40547e-02,
-1.77441e-01,-2.48978e-01,-5.73727e-02,1.11635e-01,-2.14383e-01,-3.22962e-01,-5.42541e-02,-2.86873e-01,-1.93589e-01,9.49242e-02,-2.87065e-01,5.79077e-02,4.98277e-02,-3.47849e-01,-2.86246e-01,1.65426e-02,-4.10218e-01,2.84016e-01,-2.91499e-01,1.35356e-01,1.07532e-01,-9.09771e-02,3.73583e-01,2.02710e-01,2.93004e-01,
-3.31150e-01,
-1.25607e-01,
-1.28230e-02,
-1.06744e-01,
-1.68987e-01,
-2.64439e-01,
-1.28660e-02,
-2.10433e-01,
2.36085e-02,
1.99517e-01,
-2.25429e-01,
6.62114e-02,
1.64762e-01,
-4.82795e-02,
-2.38581e-01,
2.15785e-02,
2.52209e-01,
-1.39364e-01,
2.64062e-01,
2.91034e-01,
-9.13594e-02,
2.40095e-01,
2.50559e-01,
-2.11412e-01,
1.23714e-03,
2.45713e-01,2.57426e-01,-3.50242e-01,-9.49117e-02,3.98465e-01,-9.65079e-02,-2.58560e-01,-2.93169e-01,-4.39197e-01,-4.60846e-01,-1.69696e-02,3.71435e-02,-3.14541e-01,2.48997e-01,2.84843e-01,-4.12840e-01,-2.71957e-01,-1.64622e-01,-2.73514e-01,2.08007e-01,-8.62584e-02,-4.21372e-01,-2.64658e-01,-1.51275e-01,-1.18720e-01,
4.01390e-01,-1.00232e-01,3.20640e-01,1.16083e-01,9.19124e-02,2.77851e-01,-2.09259e-01,2.35981e-01,1.20642e-01,-4.13192e-01,-2.36747e-02,-2.44315e-02,-2.66922e-01,-5.09568e-02,-1.07862e-02,-2.43324e-01,1.08303e-01,3.02171e-01,-3.06101e-01,-2.74581e-01,-3.11438e-01,-1.90199e-02,2.68984e-01,3.97535e-01,2.46465e-02,
6.30781e-01,1.32806e-02,-1.84057e-01,1.71080e-02,-5.00661e-01,4.81587e-01,1.43899e-01,1.73615e-01,-1.01199e-01,-2.40144e-01,-5.12027e-02,5.74101e-02,-1.43663e-01,-1.98220e-02,-1.23145e-01,4.05985e-02,4.68268e-03,-5.07039e-02,2.06138e-01,9.70074e-03,5.46945e-02,-1.82411e+00,-1.16432e-01,2.86009e-02,3.51245e-01,
4.57023e-01,8.67022e-03,-8.13679e-02,-5.63381e-02,2.82332e-01,3.64730e-01,2.75387e-02,-1.68787e-01,2.86094e-01,-1.61580e-01,2.63246e-01,-6.05593e-02,1.67174e-02,-1.99292e-03,1.30853e-01,9.52707e-02,6.96445e-02,6.06192e-03,-2.31142e-01,-1.18086e-01,4.26064e-01,8.49055e-02,1.57268e-01,-1.20608e-02,3.15014e-01,
-3.94677e-01,-5.48771e-03,-2.71153e-01,-8.97472e-02,-4.54114e-01,-3.65696e-01,2.42372e-01,4.06243e-02,2.40682e-01,-1.46307e-02,-3.43444e-01,2.29420e-01,3.16260e-02,6.01825e-03,-2.88970e-01,-4.86371e-02,1.50062e-01,-2.49059e-01,4.08296e-01,-7.98837e-02,1.15634e-01,-9.71368e-02,1.36822e-01,2.66688e-01,-5.95195e-02,
6.48407e-01,
3.97590e-01,
1.42286e-01,
1.45974e-01,
-2.33570e-01,
