// Neural Network File Format by Kyle Julian, Stanford 2016
6,5,5,25,
5,25,25,25,25,25,5,
0,
-56000.000000,-56000.000000,-3.141593,200.000000,200.000000
56000.000000,56000.000000,3.141593,200.000000,200.000000
-278.628049,0.000000,0.000000,200.000000,200.000000,-0.242819
112000.000000,112000.000000,6.283185,1.000000,1.000000,17.479225
1.49465e-01,-1.80264e+00,-1.62201e-01,4.46445e-01,-3.42970e-01,
5.14271e-01,9.44603e-01,-1.46696e-01,2.72925e-01,-2.54958e-01,
-2.17564e+00,-8.94095e-01,4.23110e-02,-8.21640e-02,-2.29734e-01,
-8.54969e-01,2.77626e-01,-1.87346e-01,-1.91569e-01,-2.35216e-01,
1.46774e+00,-1.38409e+00,-5.64619e-01,-2.52012e-01,-6.42475e-02,
1.14172e+00,7.48421e-01,-2.34775e-01,-1.40193e-01,6.60772e-02,
8.98217e-01,-6.02644e-01,-9.33499e-01,3.58268e-02,-3.79771e-02,
2.32477e+00,1.95877e+00,4.51098e-01,1.58988e-01,-1.73014e-01,
1.40817e+00,-1.75540e+00,-7.33888e-02,-4.21652e-01,2.60707e-01,
1.10320e-01,1.95453e+00,-6.02524e-02,4.28080e-01,-1.89363e-01,
-2.06130e+00,9.53952e-01,1.00812e-01,-7.93531e-02,8.22992e-02,
-1.55763e+00,-1.40276e+00,3.21367e-01,-7.56681e-02,-4.45203e-01,
-1.74923e+00,1.72709e-01,-2.96958e-01,-1.87082e-01,4.15769e-01,
7.85892e-01,2.37438e+00,3.97162e-01,-3.30521e-01,-1.50178e-01,
1.00700e+00,1.48104e+00,-3.01285e-01,-1.65903e-01,-1.03543e-01,
-5.66445e-01,7.32001e-01,1.00979e-01,-1.34894e-01,-1.37929e-01,
-2.36773e-01,-1.23273e-01,2.76060e-02,2.95458e-01,-1.40334e-01,
9.40285e-01,-2.54057e+00,1.34098e-01,-2.84640e-02,2.70781e-03,
8.14648e-01,-1.62775e+00,2.10856e-01,-1.15391e-01,-8.52553e-02,
9.48532e-01,-1.82729e+00,3.35901e-01,3.00987e-01,-1.72854e-01,
-3.40176e+00,-9.58825e-01,2.33271e-02,-3.05477e-01,-1.11405e-01,
-2.55461e+00,-2.44108e-01,-2.58207e-01,4.37860e-01,-8.41374e-02,
-3.74042e-01,-6.34109e-01,2.23749e-01,1.06910e-01,-3.23433e-01,
8.65272e-01,-2.65565e-01,-5.51916e-01,7.33411e-02,-2.42756e-02,
1.09970e-02,2.25220e-01,-4.41777e-02,-2.57851e-01,4.03759e-01,
9.61790e-02,
2.11340e-01,
-3.19319e-02,
2.49201e-01,
2.12518e-01,
1.25519e-01,
6.21968e-02,
2.51151e-01,
7.83623e-02,
1.29222e-01,
9.68638e-02,
1.86172e-01,
-2.68853e-02,
-8.13583e-02,
4.00130e-02,
2.72369e-01,
-3.23952e-01,
1.27061e-01,
-3.64448e-02,
2.43163e-01,
1.21129e-02,
1.19643e-01,
1.74700e-01,
-7.73256e-02,
-2.36686e-01,
1.77825e-01,-3.24088e-03,-3.59114e-01,5.62580e-02,1.29731e-01,-2.18209e-01,-2.07511e-01,2.75775e-01,1.09259e-01,2.23242e-01,-2.47119e-01,2.81360e-01,-3.47577e-02,-6.86881e-01,-1.67355e-01,-2.25800e-01,-9.30622e-02,-2.12496e-01,-1.21204e-01,2.21126e-02,8.64586e-01,-1.73747e-01,-3.14067e-02,2.61424e-01,2.50417e-01,
2.39603e-01,-1.33699e-02,3.40557e-01,2.95864e-01,-9.12061e-01,-2.06137e-01,1.08341e+00,4.46498e-01,-1.15497e-02,1.42957e-01,-1.44595e-02,-9.67555e-02,2.37950e-01,-6.84036e-01,2.28286e-01,-1.94976e-01,-3.06033e-01,1.40057e-01,5.43640e-01,-5.76903e-02,4.79885e-01,2.74279e-01,2.75386e-01,-5.58645e-01,1.98770e-01,
1.16346e-03,1.11922e-01,-2.96669e-01,1.45751e-01,-2.39355e-01,-3.18130e-01,-3.03639e-01,3.10005e-01,3.52753e-01,-2.71428e-01,-2.56169e-01,4.35884e-01,1.09560e+00,-2.91813e-01,-4.03530e-01,-1.12789e-01,-5.78577e-02,4.70911e-01,-3.52861e-01,3.55312e-01,1.18334e+00,-2.97908e-01,3.28677e-01,-2.30069e+00,2.14200e-01,
-9.46424e-02,-3.62445e-01,-2.15587e+00,1.75689e-01,-1.08502e+00,-8.38477e-02,1.17486e-01,-1.62657e-01,-9.34798e-02,1.02162e-01,4.47550e-01,-3.23520e-02,9.75497e-01,-3.05713e-01,-7.00649e-02,2.62930e-01,1.28907e-01,1.84538e-01,4.06979e-01,8.44511e-02,1.49535e-01,4.28920e-01,7.13697e-02,8.22182e-01,-3.06015e-01,
-2.94242e-02,-8.95406e-02,1.11873e+00,3.88181e-01,2.17650e-01,7.01675e-02,3.13113e-01,-1.80678e-01,-2.33548e-01,3.89048e-01,-2.61173e-01,-6.32045e-01,4.04488e-01,1.01808e+00,-2.03594e-01,4.86686e-02,1.32846e-01,-1.13720e-02,2.70339e-01,-3.45388e-01,1.17165e+00,4.68670e-02,-4.03799e-02,-1.88160e-01,-1.49289e-01,
8.59259e-02,-1.63806e-01,-2.24561e-01,1.16662e-01,8.94823e-02,-9.63459e-02,4.26516e-03,-1.70898e-01,-1.87799e-01,-2.44346e-01,-1.10810e-01,1.47075e-01,-1.76556e-01,2.05064e-01,-3.11285e-01,-2.07831e-01,-3.13531e-01,-2.12789e-01,-2.12240e-02,1.36059e-01,-7.74704e-02,1.26696e-01,-1.45213e-01,-3.28390e-01,2.72997e-02,
-1.14762e-01,2.93335e-01,-1.97737e-01,-1.07027e-01,-3.02358e-01,-1.93375e-02,3.11157e-01,2.38649e-01,-3.68458e-01,1.28052e-01,2.62200e-01,-7.55078e-02,6.51758e-01,1.44144e-01,-2.25835e-01,4.59600e-02,-6.37826e-02,-1.92543e-01,3.87756e-01,-8.91368e-02,1.05347e+00,-2.38730e-02,-1.72617e-01,-5.48193e-01,-1.33756e-02,
-5.35408e-01,-2.81635e-01,-2.02421e+00,2.09919e-02,-2.85549e-01,-6.52430e-02,1.00870e-01,2.13920e-02,-3.76524e-01,3.60198e-01,1.74783e-01,-4.19366e-02,2.91853e-01,1.46028e-02,5.46062e-01,-1.00366e-02,9.39001e-02,-4.34957e-01,-2.66137e-01,-3.00258e-01,-1.27269e-01,1.01029e-01,2.63198e-01,1.03932e-01,-9.72207e-02,
1.66511e-01,-8.71663e-02,-7.69275e-02,-1.29278e-01,1.75495e-01,-1.74385e-01,-1.19661e-01,-1.20391e-02,1.09296e-01,-2.60452e-01,-9.86614e-02,-2.84744e-01,-8.40306e-01,1.96818e-01,-5.46911e-02,-3.52600e-01,1.08267e-02,2.81473e-01,-5.01592e-01,6.32904e-02,-4.49444e-01,1.58718e-01,9.93978e-02,-1.29228e-01,-1.66439e-01,
-1.41034e-01,-6.14558e-02,-4.44720e-01,3.92883e-01,2.90299e-01,-4.90429e-02,-2.01219e-01,-2.18767e-01,9.30611e-02,-1.56602e-01,-2.71876e-01,1.13779e-01,3.12090e-01,4.05367e-01,-7.55807e-02,1.31108e-01,1.84133e-01,3.46926e-01,-4.07826e-01,-1.92996e-01,7.50541e-01,-2.52668e-01,1.60885e-01,2.04536e-01,-2.06021e-01,
-8.26028e-02,-1.02882e-01,1.59381e-01,1.27177e-01,1.58463e-01,2.12595e-01,5.35137e-01,3.46146e-02,2.98707e-01,-3.76981e-02,-1.64274e-01,7.10033e-02,2.55555e-01,-1.31599e-01,3.98813e-01,-2.89322e-01,-3.06963e-01,4.45832e-01,1.00395e+00,1.61277e-01,7.38691e-01,-1.36331e-01,3.47771e-02,1.77430e-01,2.00604e-01,
-1.94411e-01,-1.59975e-01,2.00078e-01,1.11330e-01,-3.81266e-01,1.43202e-01,1.72516e-01,1.75932e-01,-2.75484e-01,1.94442e-01,2.57642e-01,1.94543e-01,5.08786e-01,-6.59333e-01,-3.08679e-01,8.33146e-02,6.09269e-02,1.65924e-01,3.25705e-01,2.48697e-02,6.55400e-01,-1.24972e-01,-3.73674e-01,2.55439e-01,-2.21917e-01,
-1.89690e-01,-4.75548e-03,-2.36675e-01,-9.89152e-02,2.67765e-01,6.52588e-02,-3.22672e-01,2.53676e-01,8.51469e-02,3.06049e-01,-4.82761e-01,-2.96753e-01,7.92869e-01,4.43889e-01,1.50488e-01,-3.33451e-03,1.80133e-01,1.83169e-01,-1.28178e+00,2.84773e-01,-1.05096e-01,-4.26201e-01,-3.99644e-01,8.28461e-03,6.87832e-02,
4.61690e-01,-2.23922e-01,3.43703e-01,3.92543e-01,-2.57111e-01,2.59515e-01,-1.36197e-01,-7.36162e-02,-1.17318e-01,-9.16062e-02,1.95965e-01,-6.28162e-02,8.07025e-02,1.87367e-01,6.64070e-01,-1.80919e-01,9.24075e-03,2.31944e-01,1.15507e-01,-6.43690e-03,-2.60582e-01,2.43985e-01,-4.29570e-02,-7.44655e-01,3.21203e-01,
-4.12037e-04,-1.77930e-01,6.16615e-01,1.43043e-01,-1.18273e-01,1.15389e-01,-1.90648e-01,3.17334e-01,4.78810e-01,-1.62915e-01,-2.24075e-01,-7.92624e-02,-6.01086e-01,-6.90700e-01,-3.56998e-01,9.75078e-02,2.06157e-01,3.16800e-01,1.06179e-01,-1.83836e-02,-1.04447e+00,9.37368e-02,2.09354e-01,3.91946e-02,6.17550e-02,
4.06772e-01,-2.22557e-01,3.30414e-01,-1.79308e-02,3.35269e-01,-9.67909e-02,3.87458e-01,-1.94823e-01,2.30260e-01,-3.62374e-01,-1.36967e-01,-3.81382e-01,-2.14111e-01,9.65866e-02,9.34923e-02,-1.57661e-01,-1.36600e-01,2.86507e-01,-6.75385e-01,-2.50734e-01,9.04197e-02,2.60115e-01,-2.47430e-02,-2.21461e-01,6.81322e-02,
-7.89038e-03,-8.83519e-02,-7.00709e-01,-1.75024e-01,3.61982e-01,-1.99546e-01,5.97029e-01,-2.41510e-01,3.26789e-01,-4.86106e-01,-2.18301e-01,1.90745e-01,6.21720e-03,2.01613e-02,-1.07525e-01,-2.67151e-01,-2.33917e-01,4.75572e-01,-8.42666e-02,3.91575e-01,3.20298e-01,4.22499e-01,1.51834e-01,-5.73695e-01,2.36890e-01,
2.69799e-01,2.83037e-01,1.07580e-01,-1.86961e-01,3.10473e-01,4.49193e-01,-3.04482e-01,2.04704e-01,2.52605e-01,3.24953e-02,-1.88274e-02,-5.19020e-01,-2.73376e-01,4.86013e-01,2.83729e-02,1.78083e-01,1.24166e-01,-3.36074e-01,4.48340e-01,-2.27899e-01,-8.88210e-03,-2.86915e-01,-1.26439e-01,8.13845e-01,-1.84962e-01,
-9.31608e-02,-8.66321e-02,-1.26421e-01,-3.43166e-02,-7.45243e-03,-2.27584e-01,-5.43099e-04,3.32321e-01,-1.39442e-01,3.30445e-01,-2.73703e-01,-8.58826e-01,-4.21424e-01,1.98642e-02,7.03427e-01,4.34119e-01,2.57640e-01,5.64185e-02,-3.30604e-02,1.30133e-01,1.44051e+00,-1.15090e-01,-5.62363e-02,-4.34367e-01,-1.61453e-01,
1.34818e-01,-4.09916e-02,-1.16352e+00,3.42720e-01,3.74667e-01,3.66029e-01,9.88989e-02,-3.05037e-01,-1.87418e-01,4.03672e-01,-5.02662e-02,7.85087e-02,5.55955e-01,4.54935e-01,-1.97191e-02,2.63907e-01,-1.11358e-02,-9.09607e-02,7.88350e-01,-2.84894e-01,6.43510e-01,3.40570e-01,-1.51564e-01,-1.78440e-01,9.57310e-04,
1.80205e-01,-6.56678e-02,-3.72558e-01,-3.18910e-01,2.25540e-01,1.94801e-01,1.57546e-01,2.51626e-01,2.39194e-01,-4.24270e-01,-4.03882e-01,-5.65649e-02,-2.60512e-02,-3.48374e-01,6.57088e-03,-2.76941e-01,3.25015e-01,1.33380e-01,-3.28752e-02,1.04355e-01,1.72579e+00,-4.88635e-01,5.27124e-02,-4.53509e-01,2.17681e-01,
-2.78068e-02,1.98877e-01,-1.84300e-01,-2.45932e-01,-1.36599e-01,8.48617e-02,2.75587e-02,-5.32961e-02,-2.27979e-01,-3.06349e-01,-2.27304e-01,-1.65293e-01,-2.57543e-01,-2.68859e-01,-2.71054e-01,-3.72165e-02,1.96138e-01,-1.64199e-01,5.79315e-03,-1.70460e-01,1.44877e-01,-1.75249e-01,-9.93098e-02,1.85026e-01,1.21665e-03,
5.75971e-01,-1.55336e-01,1.95228e+00,-1.23695e-01,5.81687e-02,1.57497e-01,1.43870e-01,-4.36956e-01,2.39085e-01,-3.63790e-02,3.77691e-02,2.49194e-01,1.61672e-01,-3.76756e-02,-3.11986e-01,-1.85431e-01,-2.42792e-01,5.57563e-01,1.39330e-01,2.49475e-01,-8.12887e-01,-1.00184e-01,5.51897e-02,-3.10385e-01,2.86809e-01,
1.02005e-01,4.21112e-02,-6.30012e-01,-3.36714e-01,-1.06478e-01,-6.15942e-02,2.61478e-01,3.91967e-01,4.41896e-01,-3.30955e-01,-3.71739e-01,2.68608e-01,3.92555e-01,2.34855e-01,4.33864e-01,2.99854e-01,1.71138e-02,1.45365e-01,5.05643e-01,2.19720e-01,8.64847e-01,-4.20698e-01,9.04290e-02,3.35704e-01,-5.87409e-02,
4.92105e-01,-2.39198e-01,-6.60175e-02,-1.53568e-01,7.59022e-01,-1.93647e-01,-8.76737e-01,-3.92871e-01,8.03945e-03,-6.36450e-01,-5.06488e-01,-1.81746e-02,-1.95552e-01,8.85814e-01,3.95677e-01,-1.57206e-01,-1.46949e-01,3.04823e-01,-1.17703e-01,-3.06493e-01,4.69086e-01,6.63148e-01,1.99444e-01,-1.70415e-01,1.18268e-01,
2.29020e-01,
-3.42381e-01,
-1.53887e-01,
8.68989e-02,
-2.31386e-01,
-1.50035e-01,
1.15050e-01,
2.39223e-01,
3.07781e-01,
6.83479e-03,
-1.80850e-01,
3.36807e-01,
7.09828e-03,
-2.29662e-01,
1.39940e-01,
2.02243e-01,
-5.91257e-02,
8.93810e-02,
-7.08440e-02,
-1.46402e-01,
7.28556e-02,
5.17429e-02,
2.40703e-02,
-2.17466e-01,
1.94991e-02,
2.51279e-01,-2.38349e+00,4.61705e-01,-4.79592e-01,3.05400e-01,-1.21583e-01,2.25116e-01,3.14174e-01,-1.56375e-01,-1.80422e-01,3.20132e-01,6.47896e-02,4.75847e-01,-2.81556e+00,-2.18092e-01,-3.15105e-01,-3.99343e-01,3.37440e-01,-1.36525e+00,-5.27017e-02,1.36666e-01,3.71489e-02,-4.96787e-01,-4.30048e-01,-4.38539e-01,
3.23664e-01,-1.50001e+00,9.27541e-02,7.61736e-02,-1.23226e-01,-3.02321e-01,1.40075e-01,5.34765e-01,-1.43658e-02,-2.74223e-01,7.78207e-01,4.23250e-01,4.11639e-01,-9.48787e-02,5.42541e-01,-1.12195e+00,-1.19643e+00,4.24769e-02,-3.22205e-01,-3.60930e-01,-3.95112e-01,-1.95978e-01,4.32386e-01,-4.41985e-01,5.31774e-01,
2.38429e-01,2.90219e-01,-1.47267e-01,2.00912e-01,-3.52926e-01,-1.55885e-01,1.28140e-01,-2.80417e-01,-2.27637e-01,3.85120e-03,-2.60423e-01,1.63111e-01,5.76462e-01,-4.90043e-01,-2.83343e-01,-1.44220e-01,4.64868e-01,1.61240e-01,-3.32238e-01,3.86071e-01,4.92251e-01,-3.06572e-01,-7.85065e-02,-2.69357e-01,2.62986e-02,
-3.41345e-01,-2.13298e-01,2.75335e-01,1.44004e-01,3.70623e-01,2.25226e-01,-3.22315e-01,-1.05412e-01,3.40570e-01,-1.53186e-02,-2.04516e-01,1.74969e-01,2.39828e-01,-1.59971e-01,2.21207e-01,3.57012e-01,1.26565e-01,-3.17337e-01,7.25636e-01,-1.39233e-01,-1.20136e-01,1.17930e-01,2.25217e-01,2.45157e-01,-3.15990e-01,
1.49733e-01,9.58831e-01,-2.62136e-01,-7.24283e-01,-2.43854e-01,2.64035e-01,-2.87976e-01,4.25936e-03,2.11570e-01,2.31471e-01,2.69725e-01,1.18231e-01,5.38747e-02,3.06764e-01,-8.68706e-02,-3.44649e-01,-6.29027e-01,4.62324e-01,-1.23805e+00,-1.70755e-02,-6.49835e-01,1.74225e-01,-2.44926e-01,-4.88047e-02,8.69917e-01,
-7.73680e-03,-2.43298e-03,-1.79174e-02,2.47940e-02,1.26183e-01,2.01855e-01,-2.49741e-01,-1.78334e-01,-1.98576e-01,2.77225e-01,-3.22386e-01,-1.02779e-01,-6.57514e-02,3.37483e-01,-4.01220e-02,-3.02555e-01,2.73246e-01,2.00724e-01,-5.76096e-02,1.18558e-01,-2.28559e-01,-1.82104e-01,2.16829e-01,1.15115e-01,8.49690e-02,
-3.26105e-01,3.16038e-01,1.61936e-01,7.48132e-02,-1.39135e-02,-5.32078e-02,-1.17372e-01,3.53870e-01,-2.82515e-02,-1.80347e-01,-6.19703e-01,-3.01994e-02,4.79264e-01,-2.22206e-01,-1.80449e-01,3.68883e-02,-2.85297e-02,-5.37142e-02,-3.57758e-01,3.36579e-01,7.78458e-01,-2.04442e-01,3.47662e-02,-5.17278e-01,-6.49834e-01,
1.25580e-01,-3.14606e-01,-8.91611e-02,4.70360e-01,-2.92868e-01,-3.17365e-01,4.29229e-01,-4.10220e-02,-2.05216e-01,3.62898e-01,-2.98470e-01,3.35984e-01,8.94532e-01,-1.75108e-01,-1.84840e-01,-2.37965e-02,5.20232e-01,-2.23703e-01,6.12205e-03,4.03767e-01,7.53945e-01,3.27725e-01,-1.50346e-01,-1.11740e-01,-4.48559e-01,
-3.66488e-01,9.05063e-02,-6.73133e-01,-6.34236e-01,1.73148e-01,2.40557e-01,4.29070e-02,-1.91591e-01,-1.51231e-02,2.40370e-01,-1.03379e-02,2.59658e-01,-1.44928e-01,1.59780e-01,2.63487e-01,-3.30983e-01,-1.80028e-01,1.45522e-01,-2.11421e-01,8.89968e-03,-2.11550e-01,3.09209e-01,8.62732e-02,1.61773e-01,3.44871e-01,
-2.12663e-01,2.45136e-01,-3.20086e-01,-2.66384e-02,-7.93315e-02,8.52821e-02,-1.83219e-01,1.45271e-01,-1.77000e-01,-6.83248e-02,-1.22700e-01,-1.54945e-01,2.10354e-01,-3.23829e-01,-2.16342e-01,-1.99807e-01,-2.60722e-01,-2.13417e-01,1.71393e-01,2.56701e-02,1.38730e-01,2.40875e-01,-5.43951e-02,1.25447e-01,2.88016e-01,
3.45852e-01,-2.90699e-01,-2.58433e-01,-5.39388e-01,2.18356e-02,2.51868e-01,8.76810e-02,1.44078e-01,1.92405e-01,1.73988e-01,-4.94488e-01,1.21799e-01,2.55723e-01,1.06162e-01,1.54295e-01,-1.08616e+00,-1.01319e+00,-3.91978e-02,-1.48679e-02,-1.37705e+00,-4.21188e-01,-3.03366e-01,2.75367e-02,-4.16923e-01,1.76289e+00,
-5.62184e-02,1.51266e-01,-1.42362e-01,3.13569e-01,1.27977e-01,1.90017e-03,-2.24621e-01,-2.00591e-01,3.54691e-01,-3.12794e-01,-3.84263e-01,-2.75362e-01,8.27711e-01,-2.82557e-01,3.15794e-01,4.28731e-01,1.09489e-01,1.52836e-01,1.36058e-01,-5.89201e-01,3.90984e-01,2.63579e-01,6.95489e-01,-2.46093e-01,-3.22415e-01,
-1.61118e-01,-1.79370e-01,3.22284e-01,1.09138e-01,6.37303e-02,3.08679e-01,-1.08320e-01,-1.79815e-01,-1.61462e-01,5.24553e-02,-2.25003e-01,-3.28867e-01,-2.34861e-01,-1.92999e-01,-3.20483e-01,1.73347e-01,-1.14260e-01,-2.76139e-01,1.85056e-01,-1.50846e-01,6.07395e-02,2.92215e-01,-1.89972e-01,1.31146e-01,-3.13216e-01,
3.38603e-02,2.72529e-01,-1.64452e-01,1.49663e-02,-1.38310e-02,-3.54748e-02,7.49803e-02,2.67523e-01,6.02490e-01,-6.25424e-01,-7.71678e-01,1.79664e-02,-5.25575e-01,-3.85066e-01,2.83578e-02,-4.98509e-01,2.26872e-01,9.89857e-02,4.29323e-01,3.49359e-01,6.84932e-01,-3.22865e-01,-2.46784e-01,1.48103e-01,4.24998e-01,
2.02085e-02,1.01153e-01,9.31119e-02,2.49303e-01,-1.42996e-01,-3.29897e-01,-3.06631e-01,-3.00201e-01,2.09472e-01,-1.22005e-01,1.83009e-01,-3.13441e-01,-5.35058e-02,-9.70066e-02,1.92356e-02,-2.54284e-01,-2.64281e-01,3.15780e-01,1.41670e-01,-1.96093e-01,-8.52654e-02,6.04409e-02,2.42356e-01,-3.31621e-01,-1.79297e-02,
-1.26028e-01,2.41034e-01,9.98220e-02,1.36277e-02,1.39778e-01,-1.87592e-01,3.61890e-01,4.56404e-01,-3.02483e-01,-4.53771e-01,2.27278e-01,8.30365e-02,-7.98339e-01,6.34798e-02,4.10530e-05,-3.72824e-01,-3.32564e-01,-1.21854e-01,-6.20884e-01,3.84951e-01,7.61427e-02,1.88202e-01,-7.76255e-01,-8.85919e-02,6.25075e-01,
3.12184e-02,-1.26947e-01,-2.19402e-01,1.22289e-01,1.92971e-01,-2.01683e-01,-2.09446e-01,-3.17821e-01,-1.31747e-01,-2.66077e-01,7.34577e-02,-1.48687e-01,-5.62988e-02,-1.04572e-01,-2.83992e-01,2.29027e-01,-2.19455e-02,1.28801e-01,-2.35418e-02,5.09972e-02,-3.45240e-01,2.23413e-01,-7.61285e-02,-1.87828e-01,-1.57118e-01,
-1.89017e-01,-5.72022e-01,1.62134e-01,-1.21924e-01,2.68903e-01,-1.99584e-01,-8.12512e-02,1.33869e-01,2.83085e-01,-1.33661e-02,3.76318e-01,1.02248e-01,-7.82351e-01,-1.21486e-02,2.24911e-01,-2.29541e-01,-2.09362e-01,1.34287e-01,1.39346e-01,-8.64867e-02,-5.43985e-01,-4.77569e-02,-1.69389e-02,1.92925e-01,3.39702e-01,
-1.66032e-01,3.82401e-01,2.23615e-01,-2.47206e-01,-3.11671e-01,-3.03415e-02,-4.56937e-01,-1.58178e-01,-5.79438e-02,8.41572e-02,-4.48658e-01,-3.96093e-02,-1.78111e+00,2.83473e-01,2.16915e-01,7.06708e-01,-3.89947e-02,-3.35387e-01,-7.91475e-01,7.23113e-02,-9.17822e-01,-1.21655e-01,6.59971e-01,2.58980e-01,-4.54033e-01,
2.37117e-01,9.32343e-01,-1.99330e-01,-5.33210e-01,2.21666e-01,1.87944e-01,5.82830e-02,-6.02837e-02,-2.20374e-02,4.72063e-01,-4.71820e-01,1.51595e-01,-1.26649e+00,6.35961e-01,1.75058e-01,-3.07630e-01,-1.38834e-01,-4.24133e-01,-1.59468e+00,2.76016e-01,-1.64492e-01,1.18119e-01,-3.49905e-01,4.34017e-02,-1.37543e+00,
-3.10585e-01,-1.34526e-01,1.32952e-01,1.65462e-01,5.78530e-02,8.63455e-02,-2.80723e-01,-1.31016e-01,1.00891e-01,1.77151e-01,-3.08791e-01,-8.47851e-02,4.83799e-01,-4.02453e-01,-2.92407e-01,2.90969e-01,3.82192e-01,1.23371e-01,6.83325e-01,9.43835e-02,5.31831e-01,-2.78525e-01,2.41640e-01,-1.30660e-01,-6.13588e-01,
1.61313e-01,1.14007e+00,-1.85514e-02,-1.77218e-01,-3.85000e-01,-1.25829e-01,-2.87207e-01,-5.13658e-01,9.90002e-02,1.53761e-01,-1.59197e-01,-8.85077e-02,-9.12790e-01,2.77044e-01,1.68655e-01,3.18597e-01,1.64753e-01,-1.24233e-01,1.22701e-01,1.46995e-01,-1.15616e+00,1.81111e-01,2.24802e-01,-3.99976e-01,3.45088e-01,
5.48721e-02,-8.42340e-01,2.69553e-01,1.21958e-01,4.50640e-03,-2.20309e-01,-1.36977e-02,1.42600e-02,-1.39922e-01,1.42694e-01,-1.57109e-01,1.94517e-01,-3.62680e-02,1.38829e-01,1.12557e-01,-2.03568e-01,4.12629e-01,-4.33600e-01,5.82609e-01,6.06198e-01,2.39186e-01,-1.02736e-01,4.40919e-01,-2.95042e-01,-5.33889e-01,
1.14175e-01,-1.54906e+00,-2.31709e-01,3.11123e-01,5.76665e-01,-3.08206e-02,1.02939e-01,-1.12502e-01,-2.99560e-01,1.53815e-01,3.01683e-01,-1.07455e-01,3.66717e-01,2.40829e-01,-3.64596e-01,-4.92582e-01,-1.56088e-01,-2.42319e-01,-1.68029e-01,-8.19936e-01,4.24019e-01,5.35389e-02,-2.22810e-01,-1.59256e-01,2.69772e-01,
3.05597e-01,-1.94607e-01,-2.11438e-01,5.28079e-01,-3.12899e-01,1.07294e-01,2.89734e-01,-4.25933e-01,3.30894e-01,2.70135e-02,-1.77923e-01,2.73184e-01,7.02963e-01,3.95567e-01,1.06170e-01,-2.46784e-02,6.78783e-01,-3.03196e-01,4.03078e-01,1.91999e-01,3.35216e-01,-1.95323e-01,1.75068e-01,-2.53136e-01,-5.07417e-01,
-4.06809e-03,
-2.53697e-01,
9.34538e-02,
-1.48964e-02,
2.89123e-01,
-3.52327e-01,
2.28258e-01,
-1.10355e-01,
3.01593e-01,
-2.18926e-01,
1.50319e-01,
2.01860e-01,
1.89255e-02,
-9.36677e-02,
-2.54783e-01,
3.02196e-01,
-2.94927e-01,
3.98078e-02,
1.73342e-01,
2.21319e-01,
1.68338e-01,
1.71290e-01,
6.78192e-03,
1.56923e-01,
-1.31089e-01,
-1.35831e-01,1.14209e-01,4.38205e-02,-2.16608e-01,2.76961e-01,-2.35386e-01,2.38236e-01,5.51538e-02,2.44658e-01,-3.37307e-03,-3.80003e-03,-8.73912e-02,9.73994e-02,-4.09873e-01,1.91497e-01,1.66725e-01,2.99398e-01,-2.53498e-01,-1.69340e-01,-1.12971e-01,7.63958e-02,-1.89208e-01,1.68573e-01,2.68377e-01,2.65041e-02,
3.69529e-01,5.60161e-01,1.63675e-01,-1.82590e-01,1.84684e-01,2.60846e-01,8.28621e-02,3.09090e-01,1.65318e-01,-2.93664e-01,5.20406e-01,-7.07656e-02,-3.17908e-01,1.94055e-01,-1.20755e-03,1.20693e-01,-5.93427e-02,-2.07433e-01,3.18419e-01,-8.14226e-03,4.79211e-02,-3.68520e-01,1.53876e-02,2.27787e-01,-2.40691e-01,
2.66506e-01,-8.32382e-03,-3.02383e-01,1.04611e-01,-8.73828e-02,8.47075e-02,2.13409e-01,3.14360e-01,-3.24305e-01,-2.15596e-01,1.79317e-01,-3.02128e-01,-1.71611e-01,-1.59193e-01,2.32092e-01,-1.35941e-01,9.35987e-02,-2.82765e-01,-3.41604e-02,1.50717e-01,-1.95593e-01,-1.82590e-01,-1.93717e-01,-2.21685e-01,2.00327e-01,
-2.98357e-01,-1.85278e-01,-5.73102e-02,1.46644e-01,-2.40607e-01,6.84806e-02,4.06609e-02,3.43654e-01,-7.21108e-02,2.58274e-01,-5.04479e-02,2.36248e-01,-3.59540e-02,-1.70994e-01,1.90429e-01,2.69083e-01,3.38246e-01,-1.26970e-01,-2.81103e-01,-3.33476e-01,-3.59608e-01,3.07400e-02,9.04880e-02,2.47656e-01,-1.35403e-01,
-2.24339e-01,-6.51869e-02,-1.21457e-02,1.49327e-02,-4.72738e-02,-2.81825e-01,1.06713e-01,-4.67951e-01,1.61049e-01,7.96748e-02,-4.26481e-01,3.46985e-02,1.18087e-01,-1.49969e-02,-8.86749e-02,2.11784e-01,-1.19452e-01,2.94437e-01,1.83179e-01,2.99686e-01,1.43394e-04,5.28721e-02,-1.29105e-01,4.78239e-01,-4.09597e-02,
-2.73225e-01,1.23798e-01,1.29470e-03,-1.14863e-01,9.80407e-03,2.57093e-01,-2.05627e-01,-2.71761e-01,-2.63358e-01,-1.21322e-01,-3.01514e-01,-1.76451e-01,-3.07048e-01,7.19656e-02,1.84432e-01,-1.43895e-01,-1.09017e-01,-1.68464e-01,-3.21182e-01,2.44362e-01,-2.36254e-01,8.12682e-02,-1.97522e-01,1.59621e-01,-2.77503e-01,
-4.88299e-01,-2.84010e-01,3.40808e-02,2.07724e-01,-3.83642e-02,-3.11591e-01,-5.23687e-02,2.07012e-01,-2.72596e-01,1.58988e-01,7.48498e-02,-2.95155e-01,-2.88122e-01,-1.37719e-01,1.29073e-01,-3.82426e-02,4.93050e-03,4.12204e-01,1.05832e-01,-6.32396e-02,1.04780e-01,3.84171e-01,-4.32692e-01,-2.46400e-01,1.75742e-01,
-5.40690e-01,-5.82911e-01,1.28301e-01,1.74007e-01,1.84418e-01,-1.60871e-03,5.77646e-01,3.44772e-01,1.10731e-01,-3.41278e-01,1.51192e-01,1.11295e-01,2.20178e-01,-6.09043e-01,-1.58104e-01,7.70983e-02,8.74922e-02,-5.14944e-01,-1.96781e-01,-9.26337e-03,3.03528e-01,-2.85287e-01,3.02726e-01,3.39681e-01,-1.01233e-02,
-4.39548e-01,-4.61078e-01,7.94514e-02,8.83366e-04,3.62159e-01,-6.69754e-03,1.81620e-02,-6.75260e-01,-4.54996e-02,1.17304e-01,4.06287e-01,-1.04262e-01,2.22300e-01,2.96402e-01,2.55225e-01,-2.52635e-01,2.40730e-01,-3.09707e-02,-1.58353e-01,3.80700e-01,1.13501e-01,6.53011e-02,7.57140e-03,1.09505e+00,-2.22543e-01,
-1.20359e+00,-1.81790e+00,-1.43167e-01,-6.10122e-03,2.80310e-01,2.23772e-01,9.40756e-02,-1.42650e-01,-2.81081e-02,-3.27128e-01,-2.58746e-01,1.33621e-02,-3.30478e-01,-3.08322e-01,-2.55613e-02,-4.26968e-01,3.24047e-01,-3.94392e-01,-3.22059e-02,9.13649e-02,-3.64067e-01,1.09185e-01,2.92433e-02,-1.70826e+00,-1.42651e-03,
-1.07187e-01,-1.84289e-01,2.07704e-01,1.69567e-01,1.28826e-01,2.02805e-01,-2.84922e-02,2.11120e-01,2.01714e-01,-3.89671e-02,5.74261e-01,7.33040e-02,8.65333e-02,-2.78764e-01,-3.38005e-01,3.61292e-02,1.64757e-01,-1.89927e-01,-2.92739e-01,2.53107e-01,-5.87380e-02,-3.83619e-02,1.01523e-01,2.08323e-01,7.55512e-02,
-8.01003e-01,3.79818e-01,2.27199e-02,-2.50198e-01,2.22084e-02,-1.55407e-01,-1.96984e-01,-2.07656e-02,2.67524e-01,8.59535e-02,3.33426e-01,1.38366e-02,-2.32868e-01,-3.90208e-02,-1.34831e-01,2.53097e-01,-1.44889e-01,3.32969e-03,-6.32571e-02,-2.04370e-01,2.11629e-01,-1.70681e-01,3.86074e-01,-2.25239e-02,-2.11930e-01,
3.03313e-01,2.81977e-01,-1.36391e-01,1.17003e-01,-1.82483e-01,-9.71110e-02,3.22749e-01,6.18487e-01,-1.17890e-01,-3.52057e-02,-4.95040e-02,-5.89987e-01,-9.47697e-02,-2.94048e-01,2.70413e-01,4.27606e-01,-2.67641e-01,4.81094e-03,3.44120e-01,3.88786e-01,-2.33030e-01,-4.13563e-02,1.97568e-01,-2.39121e-01,-2.39305e-01,
9.36997e-01,-1.33183e-01,2.23227e-01,4.02062e-01,7.14884e-03,6.73787e-02,4.36933e-01,5.28362e-01,6.77112e-02,2.73193e-01,-4.65790e-01,3.70796e-01,-1.37698e-01,4.09260e-02,-1.00195e-01,-3.21790e-01,1.56358e-01,-8.16999e-02,3.13764e-01,-3.98336e-01,3.44554e-01,1.65561e-01,8.85761e-02,-1.70977e-01,4.36767e-01,
1.24824e+00,6.71959e-01,3.13523e-01,-1.61703e-01,2.20552e-01,-2.48911e-01,-1.64493e-01,2.52952e-02,2.66985e-01,-1.25049e-02,6.50009e-01,-1.07543e-01,-2.11797e-01,4.93881e-01,-1.86677e-01,-2.06784e-01,-4.99256e-02,2.54949e-01,-2.44061e-01,2.16060e-01,1.64550e-01,-8.14267e-01,1.09769e-01,-2.43343e-01,-1.90503e-01,
1.01859e-01,-2.63924e-02,3.30916e-01,-3.43907e-01,4.15277e-01,1.75379e-01,2.41066e-01,-3.95564e-02,-1.46820e-01,6.32502e-02,5.69475e-01,-2.70319e-01,-3.19650e-01,-2.94421e-01,1.00334e-01,-2.05648e-01,2.64766e-01,2.28510e-01,-8.83086e-02,-8.28979e-02,1.85779e-01,-4.68915e-01,-2.60689e-01,-8.74221e-01,-1.11674e-02,
-3.36818e-01,3.03829e-01,-3.36906e-02,-2.97695e-01,-2.30503e-01,-2.46351e-01,-3.46226e-01,-4.54393e-01,-2.26390e-01,6.84382e-02,-7.39004e-04,-2.96009e-01,-1.41365e-01,4.36007e-01,-2.57432e-01,-3.40512e-01,-2.09854e-01,2.74044e-01,2.66463e-01,3.11757e-01,2.73050e-01,-9.80124e-02,-1.47031e-01,-3.21978e-02,3.83687e-01,
1.99418e-01,2.80774e-02,3.03796e-01,1.16812e-02,1.01506e-01,3.75107e-02,5.09392e-01,2.23593e-01,3.02303e-02,-3.15461e-01,-4.86445e-01,1.17060e-01,-1.48017e-01,4.62626e-02,8.77264e-02,1.57205e-01,-2.53398e-01,-2.36230e-01,1.90223e-01,-3.09526e-01,3.09310e-01,-5.31299e-02,7.79018e-02,-2.58499e-02,2.93365e-01,
2.32204e-02,-1.83534e-01,1.99441e-01,-6.65869e-03,1.18180e-02,-1.37944e-01,-2.15596e-01,-5.10122e-02,-6.02168e-02,1.51802e-01,1.20770e-01,4.80866e-02,1.35013e-01,4.89444e-01,1.36989e-01,1.37131e-01,-3.39729e-01,-2.37789e-01,-1.10840e-01,6.01558e-01,-2.41175e-01,1.84766e-02,-1.02762e-01,2.15446e-01,2.86919e-01,
3.31399e-01,-7.72811e-01,-1.85223e-01,9.49063e-02,3.50042e-01,2.96227e-01,-3.20177e-01,-6.70369e-01,2.66829e-01,-8.70302e-02,1.38252e-01,8.97244e-02,3.09251e-01,2.98154e-02,-3.41257e-01,-5.15186e-01,1.16568e-01,-7.13412e-02,4.00906e-01,7.46897e-02,1.79846e-02,-1.53501e-01,-1.73454e-01,8.12647e-01,-1.56954e-01,
2.73009e-01,-4.24198e-01,3.40645e-02,-2.57861e-01,2.91294e-01,1.52366e-01,-1.47553e-01,3.66535e-01,1.09476e-01,1.35028e-02,1.57636e-01,1.08528e-01,-3.10800e-01,4.51240e-01,6.53670e-02,-8.72536e-02,-3.30168e-01,-2.06921e-01,-1.02039e+00,3.66589e-01,-4.66666e-01,3.39706e-01,2.05011e-02,-2.98547e-01,5.98330e-02,
7.43632e-01,-2.10749e-01,-2.23138e-02,4.18439e-01,-4.61120e-01,-3.01659e-01,-1.94890e-01,1.09502e-01,2.57227e-01,2.75012e-01,-1.60318e-01,2.48529e-01,3.05386e-01,1.49545e-01,4.50778e-02,2.34432e-01,2.92439e-02,-1.23682e-01,2.76698e-01,1.04764e-01,9.54014e-02,-2.81385e-01,2.01794e-01,2.06172e-01,8.05046e-02,
9.45543e-02,-3.81784e-01,-3.05754e-01,4.43575e-02,4.45577e-01,-1.22881e-01,1.92494e-01,-7.80908e-01,1.60165e-01,-1.79869e-01,6.22225e-01,-6.60568e-01,-1.26715e-02,-1.32406e+00,3.05617e-01,-7.41443e-02,-2.37055e-01,3.44581e-01,1.35416e-01,-3.86539e-02,-4.30638e-01,4.11668e-01,2.29739e-01,-5.54182e-01,-8.47302e-01,
3.05234e-02,-1.08582e-01,1.45716e-01,-2.08066e-01,1.39654e-01,4.51545e-02,3.27000e-01,2.46622e-01,3.24987e-01,-1.55735e-01,4.06464e-01,-1.52045e-01,3.71237e-02,2.30685e-01,3.10198e-01,3.36549e-01,2.48869e-01,-2.15455e-01,-2.16844e-01,2.00969e-01,-6.31853e-02,-5.54483e-01,-3.58601e-01,-7.82349e-02,-8.20102e-02,
1.75073e-01,3.09945e-01,-1.45786e-01,2.09633e-02,3.31174e-01,-7.70683e-02,6.09034e-02,-6.88238e-01,4.06611e-01,-3.17420e-01,-3.64388e-01,-1.98312e-01,1.52344e-01,5.55990e-01,2.78737e-01,-1.38392e-01,1.61317e-03,-1.04761e-01,-3.58376e-01,3.26561e-02,-2.58909e-01,8.44708e-02,1.71509e-01,9.79722e-01,1.47049e-01,
2.64545e-01,
-1.81269e-01,
-2.73753e-01,
2.50619e-01,
5.90130e-02,
-1.63074e-01,
1.71495e-01,
-1.02127e-01,
2.19782e-01,
2.71266e-01,
-5.24516e-02,
-1.43290e-02,
-4.09257e-02,
-1.17980e-01,
-7.06015e-02,
1.40523e-01,
2.36108e-01,
-1.31807e-01,
1.12370e-01,
2.02667e-01,
-1.34992e-01,
-1.81602e-01,
2.66764e-02,
-3.36077e-02,
2.35291e-01,
1.69418e-01,-1.83611e-01,-2.87765e-01,2.61395e-01,1.51789e-01,-2.52819e-01,3.49348e-01,1.06274e-01,3.12203e-01,-1.54304e-01,-8.90785e-03,-3.35495e-01,-7.74270e-01,-6.82942e-01,1.27968e-01,1.29956e-01,2.83117e-01,6.29169e-01,1.84284e-01,2.50305e-02,2.61729e-01,4.82206e-01,-2.65658e-01,-3.44581e-01,3.32785e-01,
-2.42471e-01,-2.21049e-01,3.10763e-01,-1.97661e-01,-2.45486e-01,-2.60194e-01,3.63275e-02,3.14485e-01,3.13540e-01,1.23717e-01,5.33795e-02,-7.83114e-02,2.42142e-01,-2.69941e-01,-2.46974e-01,1.89988e-01,-2.53189e-01,2.66286e-01,-3.14350e-01,-1.46801e-01,-1.90668e-01,-3.06882e-01,-1.03991e-01,-3.08459e-01,-3.27967e-01,
2.94925e-01,-4.39653e-01,-1.33468e-01,3.19490e-01,-3.16770e-01,-3.32382e-01,1.15123e-01,1.77503e-01,-1.67726e-01,-2.25993e-01,-1.23673e-01,-7.37435e-03,3.06785e-01,3.46735e-01,1.46156e-01,2.18475e-01,2.12809e-01,-4.08418e-01,4.47396e-01,1.72889e-02,5.31861e-01,3.24639e-01,-7.83223e-01,6.39575e-01,1.38880e-01,
-2.77285e-01,-8.20907e-01,-1.32152e-02,-1.98517e-01,2.34158e-01,2.58461e-01,-2.79290e-01,-3.62361e-01,2.58477e-01,-1.72452e-01,2.04785e-01,-2.09767e-02,1.84624e-02,-9.67193e-01,3.57808e-01,-1.63774e-01,-3.25592e-02,-8.79455e-02,-1.26078e-02,3.12767e-01,3.28441e-01,-9.59587e-01,8.87362e-01,-6.61466e-01,3.20961e-01,
1.75785e-01,-3.49840e-01,-7.06071e-02,-1.00384e-01,-7.44243e-02,6.22339e-02,-1.48275e-01,3.31338e-02,1.39324e-01,-2.40283e-01,3.50615e-01,-3.19453e-01,4.29963e-01,4.07258e-01,7.61768e-01,1.81748e-02,-2.94121e-01,-3.36934e-02,-2.66314e-01,-3.51677e-01,2.81646e-01,-8.62956e-02,-4.55776e-01,9.16769e-01,-3.57620e-01,
-2.89210e-01,-1.84219e-01,-2.59288e-01,-8.91076e-02,2.48634e-01,-2.43198e-01,-1.03626e-01,8.49734e-01,-1.09317e-01,-1.39177e+00,-3.98380e-01,1.49254e-01,-4.28450e-01,-1.11811e+00,4.85500e-01,1.66778e-01,4.71533e-01,4.50792e-01,-1.23074e-01,3.52993e-01,6.62781e-01,-1.20238e+00,9.74651e-02,-2.30818e-01,4.21741e-02,
2.61432e-01,-3.66102e-01,7.28415e-02,-3.37135e-01,-2.80364e-01,3.09594e-01,2.32775e-01,-3.58200e-01,3.43471e-01,1.31324e-01,3.01747e-01,2.26638e-01,-3.23409e-01,-2.61931e-01,5.34829e-02,7.39603e-02,-2.00862e-01,-4.98575e-03,8.16927e-02,-7.73233e-02,-5.65891e-02,4.86454e-01,9.57033e-01,-8.08263e-02,-2.00229e-01,
2.94533e-01,-5.60063e-01,-9.96827e-02,9.83002e-02,2.16695e-01,-1.66494e-01,-1.18811e-02,-4.61077e-01,3.94187e-02,-1.25383e-01,1.19213e-01,-7.66614e-02,1.76118e-01,1.48556e-01,-3.90843e-02,-1.36475e-01,-8.72242e-02,7.56340e-02,-8.98029e-02,-7.87112e-02,-3.12601e-01,-1.56863e-02,-1.66113e-02,1.09078e-01,3.30295e-02,
3.31741e-01,-9.58542e-02,-2.87836e-01,2.65499e-01,-1.05194e-01,-2.68480e-01,-1.22855e-01,1.62599e-01,-3.88942e-03,-2.79005e-01,2.51813e-01,-6.16116e-02,-2.25778e-01,-3.63026e-01,2.18316e-01,3.33858e-01,9.41818e-02,3.85656e-02,-2.32130e-02,1.80454e-01,-1.28564e-01,3.47423e-01,1.91368e-01,-4.61611e-01,5.28378e-01,
-2.32969e-01,-2.15130e-01,2.57220e-01,-2.14368e-01,-2.14844e-01,-2.84902e-01,-2.80785e-01,-4.51850e-01,-1.22307e-01,-4.81771e-01,1.72854e-01,2.75923e-01,3.22817e-01,4.15617e-01,1.09119e+00,-4.26626e-01,-1.47380e-01,5.06511e-01,2.18196e-01,1.85903e-01,4.06221e-02,-5.03464e-01,-1.32078e-01,6.00650e-01,1.22210e-01,
3.68939e-01,-1.18868e+00,1.79746e-01,-3.81453e-01,-1.03567e-01,1.64077e-01,-7.80354e-02,-3.13734e-02,2.51800e-01,-7.21730e-01,-2.08695e-01,2.45706e-01,-1.26583e-01,-4.49446e-01,2.05659e-01,4.24960e-01,-8.99975e-02,2.93535e-01,2.50994e-01,-4.66554e-01,-8.80901e-02,4.72265e-01,6.70815e-01,1.39526e-01,-2.23244e-02,
8.46897e-02,-1.96598e-01,3.23219e-01,-3.53200e-01,-5.23767e-01,1.72338e-02,-6.49636e-02,-2.15471e-01,1.29498e-01,-3.33056e-02,-1.58589e-01,1.97284e-01,1.72019e-01,1.94985e-01,3.32022e-01,-4.37561e-02,3.40066e-01,-6.51628e-02,6.64894e-03,1.39116e-01,1.70679e-01,1.75983e-01,7.04297e-01,5.97133e-02,2.91067e-02,
2.98518e-01,5.45533e-01,6.21009e-02,-2.97609e-01,3.99490e-01,-2.73530e-01,-1.39170e-01,-9.07232e-02,-9.47016e-02,-4.47603e-02,-3.35327e-01,7.42301e-02,7.73577e-02,3.85486e-01,8.53116e-02,-2.68336e-01,2.91630e-02,2.08514e-01,-2.00924e-02,3.50814e-01,-2.03804e-01,6.22195e-03,5.61848e-01,4.50429e-01,-1.61163e-01,
-1.53100e-01,-1.93309e-01,-2.00021e-01,-1.39098e-01,2.70832e-02,-1.82434e-01,-1.35095e-01,-4.75268e-02,-2.08558e-01,-2.02974e-01,1.85937e-01,-9.16932e-02,7.35748e-01,6.23843e-01,2.78562e-01,-2.04305e-02,-1.58452e-01,-7.52964e-02,2.21436e-01,-1.72568e-01,7.68778e-01,1.19870e-01,-1.09667e+00,1.22607e+00,-3.88648e-01,
2.42018e-01,-6.75743e-02,1.29485e-01,-1.74173e-01,1.66435e-01,6.26132e-02,-2.20497e-01,-3.97023e-01,-4.55987e-02,-6.88070e-01,-1.75133e-01,3.35258e-01,-4.39635e-01,-8.03862e-01,-8.78688e-02,-3.79947e-01,9.52333e-02,3.76275e-01,8.17459e-02,4.66994e-01,8.15746e-02,-1.01088e-01,-4.81699e-01,-7.76584e-01,3.91180e-01,
8.91688e-02,5.34753e-03,-2.77417e-01,1.20339e-01,-9.07123e-02,-8.65688e-02,-1.96832e-01,-3.76469e-01,5.63252e-02,-2.39125e-01,7.08102e-03,-2.32524e-01,1.62132e-01,-2.15245e-03,3.26725e-01,-1.10989e-02,1.62358e-02,1.54103e-01,-2.40793e-01,2.96352e-01,9.47361e-03,7.61057e-02,-1.40005e-01,-2.20603e-01,-1.69905e-01,
4.60456e-02,-4.61878e-01,-1.63227e-01,-1.88871e-01,3.33616e-02,-7.28563e-02,-2.41537e-01,-1.82502e-01,7.42873e-02,-6.33366e-01,-4.45756e-02,-5.46759e-02,3.91525e-01,4.51096e-01,1.17322e+00,-2.11508e-01,-2.33677e-01,4.93293e-01,1.33561e-01,-1.26394e-01,-2.29880e-01,-3.36457e-01,2.90225e-01,9.66038e-01,3.14854e-02,
1.57460e-01,1.46369e-01,3.77399e-01,2.84607e-01,-2.34384e-01,-3.32977e-01,1.82581e-01,-1.87141e-01,-7.53787e-01,-1.09219e-01,-4.35513e-01,4.38256e-03,2.87313e-01,-1.74306e-01,3.64351e-01,-4.36797e-01,5.84650e-01,3.38486e-01,-8.11996e-02,-2.44422e-01,1.49913e-01,1.05388e-01,2.29298e+00,-3.45824e-01,-3.10765e-01,
3.10478e-01,-7.21332e-02,6.35172e-02,-1.64456e-01,-1.35049e-01,-2.46635e-01,1.48396e-01,-2.47096e-01,-1.81053e-01,-7.42549e-03,9.10536e-02,-2.36860e-01,1.53397e-01,-2.11878e-01,-3.20250e-01,-3.22606e-01,-2.49462e-01,-3.00267e-01,-2.33075e-01,1.34522e-01,1.85698e-02,1.48661e-01,2.63861e-02,-3.58800e-02,-2.17253e-01,
1.90635e-02,5.93497e-01,-1.92539e-01,-3.88055e-01,1.84236e-01,1.77357e-01,-3.17351e-01,-7.39502e-02,7.44008e-02,-1.39594e-02,3.49763e-01,2.59636e-02,1.63334e-01,6.72461e-02,-2.04592e-01,2.28412e-01,-1.48501e-01,-1.92870e-01,-2.26429e-02,1.76115e-01,3.57122e-01,1.96243e-01,-1.79801e-02,-2.22648e-01,1.45330e-01,
2.22415e-01,1.07941e-01,6.12211e-02,-5.85949e-02,1.76561e-01,-1.95356e-01,3.36967e-02,-1.89208e-01,2.39857e-01,1.50039e-01,-1.02083e-01,-1.96444e-01,2.48105e-01,-2.57877e-01,9.78169e-02,1.58423e-01,-1.33125e-02,-1.05421e-01,-2.36727e-01,2.05670e-01,2.37885e-01,1.84669e-01,1.87657e-02,-5.55324e-02,-1.77159e-01,
1.05908e-01,6.16100e-01,-1.76890e-01,-2.12036e-01,1.32770e-01,-2.19988e-01,-1.65183e-01,-8.00992e-02,4.23957e-02,2.95820e-01,1.96736e-01,1.62059e-01,7.05330e-02,3.05630e-01,-3.31988e-01,-1.46952e-01,-4.06481e-02,-3.74395e-01,2.13635e-02,3.62722e-01,1.05935e-01,5.98693e-02,-7.20071e-01,2.87918e-02,-2.90363e-01,
-7.31749e-02,-6.79409e-02,1.92935e-02,-2.67420e-01,-1.96928e-01,7.81242e-02,8.66617e-02,-9.26593e-03,-2.31632e-01,-1.41032e-01,7.79182e-02,3.28217e-01,-6.82445e-02,-2.98849e-01,-3.75152e-02,1.09586e-01,-3.41705e-01,1.88989e-02,3.40491e-01,-4.10379e-02,-2.19059e-01,3.05361e-02,-3.43468e-01,2.89928e-01,6.67489e-02,
-3.57333e-02,-2.73325e-01,2.06095e-01,-6.07385e-02,4.47893e-02,1.68429e-01,-6.80687e-02,-3.91428e-01,2.53965e-01,1.81301e-01,1.84383e-01,2.56834e-01,-3.58493e-01,-8.62281e-01,-3.14582e-01,-4.99559e-01,2.33629e-01,-2.34991e-01,3.91258e-01,5.44918e-01,-1.94564e+00,9.97840e-02,4.40792e-01,-1.57140e-01,-1.08243e-01,
2.89533e-02,4.49495e-01,1.73003e-01,8.60814e-02,-2.73777e-01,2.73516e-01,3.66766e-01,2.73011e-01,1.52034e-01,1.95842e-01,-3.60326e-01,4.04311e-03,-2.92221e-01,-1.91644e-01,-3.79654e-02,8.88425e-02,2.37383e-01,-8.00477e-02,1.04121e-01,-1.19465e-01,4.49358e-01,1.06028e-01,2.16366e-01,-2.41252e-01,2.05988e-02,
-5.69064e-02,
-1.01202e-01,
-1.18929e-01,
8.73266e-02,
1.83686e-01,
1.14272e-01,
2.32937e-01,
2.64364e-01,
2.23502e-01,
1.37245e-01,
-4.09928e-02,
-3.09513e-01,
-1.04669e-01,
4.39531e-02,
2.45605e-01,
-3.22266e-01,
-1.24231e-01,
-1.68529e-01,
-1.45774e-01,
1.52847e-01,
-2.12577e-01,
1.84661e-01,
-2.06081e-01,
1.17863e-01,
3.08126e-01,
-5.27490e-01,-3.58932e-01,6.24283e-01,-7.92837e-01,3.31243e-01,1.00163e+00,2.59895e-01,2.82356e-01,-1.11856e-01,3.99124e-01,5.50247e-03,-6.28991e-01,2.54044e-01,-5.25349e-01,-4.79831e-01,-2.97357e-01,-3.73451e-01,-3.32458e-01,-2.36971e-01,-2.22329e-01,-3.45803e-01,-3.27819e-02,2.49834e-01,-4.64515e-01,-3.34719e-01,
-4.76627e-01,-3.81923e-02,2.24222e-01,-6.81510e-01,2.90864e-01,9.66803e-01,-1.12798e-01,-4.19160e-01,-3.68145e-01,1.83940e-01,1.07414e-01,1.73543e-02,1.71986e-01,-2.75378e-01,-5.44234e-01,4.01491e-01,-4.62522e-01,1.74715e-01,4.64888e-02,2.24785e-01,1.70171e-01,-4.44346e-01,-1.22065e-01,-5.15170e-01,-4.65506e-01,
-4.32929e-01,-3.36056e-01,4.93740e-01,-3.63204e-01,3.67391e-01,7.79462e-01,-1.10751e-01,3.31291e-02,-2.40029e-01,3.13289e-01,1.35762e-01,-4.51252e-01,2.11804e-01,-4.83367e-01,-4.02306e-01,-1.79905e-01,-4.22130e-01,-3.80809e-02,-7.69669e-02,2.42887e-02,-3.96193e-01,-8.56465e-02,-1.17523e-01,-6.59099e-01,-1.07708e-01,
-3.82606e-01,-1.69143e-01,6.59115e-01,-5.09495e-01,-6.40884e-02,1.29360e+00,-9.99077e-02,-2.26244e-01,-4.88087e-01,-3.09984e-01,-4.92822e-01,-4.74750e-01,-8.54997e-02,-6.18635e-01,-6.92662e-01,-7.66733e-02,5.08138e-01,8.19103e-02,-2.50927e-01,2.32120e-01,-2.50748e-01,1.39295e-01,3.65187e-02,-5.32309e-01,-6.30350e-02,
-4.69380e-02,1.89424e-01,8.42366e-01,2.94793e-01,5.73930e-01,-2.11540e-01,-2.22592e-01,-1.12775e-01,-3.00310e-01,6.90928e-01,7.21641e-01,-1.12881e-01,2.75094e-01,-7.96165e-01,2.46976e-02,4.55777e-01,-7.68242e-01,-1.04186e-01,-1.50204e-01,-2.08831e-01,-3.44469e-01,1.62036e-01,1.15525e-02,-8.96850e-01,-2.86995e-01,
-1.98378e-01,
4.29762e-01,
-6.86158e-02,
2.80404e-01,
-1.41120e-01,
