// Neural Network File Format by Kyle Julian, Stanford 2016
6,5,5,25,
5,25,25,25,25,25,5,
0,
-56000.000000,-56000.000000,-3.141593,200.000000,200.000000
56000.000000,56000.000000,3.141593,200.000000,200.000000
-278.628049,0.000000,0.000000,200.000000,200.000000,-0.242819
112000.000000,112000.000000,6.283185,1.000000,1.000000,17.479225
8.78933e-01,-3.51693e-01,6.18288e-01,1.81878e-01,5.75243e-02,
-7.72160e-02,1.16008e+00,-5.60071e-01,-1.82163e-01,-1.83895e-01,
6.67230e-01,1.80050e-01,-7.02896e-01,-2.78771e-01,-8.45137e-02,
-8.42311e-01,-1.12402e+00,-7.37648e-01,-9.67370e-02,4.06326e-01,
-4.08544e-01,2.07925e+00,2.30923e-01,-1.62820e-01,1.67416e-01,
-2.02696e+00,1.05003e-01,1.72669e-01,-3.17916e-01,1.39017e-01,
8.97823e-01,-4.39770e-01,1.97002e-01,3.96888e-01,1.95906e-01,
1.08082e+00,-3.75015e-01,3.51641e-01,2.24757e-01,-3.30800e-01,
-2.01956e-01,-5.78232e-01,-2.60417e-01,-9.64391e-02,4.08446e-01,
2.01695e-01,-1.49191e-01,-1.67540e-01,-4.06068e-01,-3.97512e-01,
-1.94994e-01,5.88839e-02,1.98381e-02,-1.90514e-01,-8.37444e-02,
1.21480e+00,-2.44069e-01,-3.99454e-01,1.90687e-01,-2.51017e-01,
9.65149e-01,7.18643e-01,4.14620e-01,-2.92666e-01,-3.71960e-01,
6.37074e-02,1.96400e-01,2.90196e-01,-3.07128e-01,-4.14767e-01,
3.99481e-01,5.53812e-02,-1.13164e-01,9.24749e-02,1.16690e-01,
-6.43905e-02,-1.86633e-02,1.97264e-02,-3.13088e-01,-1.07668e-01,
-1.88158e+00,3.86756e-02,2.77346e-01,3.83884e-01,-3.50797e-01,
-2.28101e-01,-1.14842e+00,8.41386e-04,3.55653e-01,-3.19859e-01,
-2.04524e-02,1.57934e+00,4.78509e-01,-3.77688e-01,4.18976e-01,
4.24435e-01,1.09032e-01,-3.10412e-02,3.46363e-01,-4.21830e-01,
-4.31735e-01,-1.44474e+00,-1.50980e-01,2.09120e-01,3.57742e-01,
-4.33859e-01,-1.23746e+00,3.49227e-01,-2.80581e-01,1.68625e-01,
-7.81738e-02,2.00079e-01,-1.66389e-01,1.43920e-01,-1.04420e-01,
4.31185e-01,-1.06102e+00,7.42452e-02,-2.82511e-01,4.42053e-01,
1.23133e+00,1.03777e-01,2.92781e-01,1.47510e-01,-1.28566e-01,
-1.74354e-01,
3.28600e-02,
-1.31203e-01,
4.56187e-02,
7.90550e-02,
-6.73528e-02,
-5.37138e-02,
7.12610e-02,
1.64313e-01,
-2.60900e-01,
-1.22995e-01,
1.43144e-01,
6.99229e-02,
-2.64389e-01,
-3.15400e-01,
-1.96021e-01,
1.72668e-01,
2.60279e-01,
-1.24147e-01,
-2.50489e-01,
2.37455e-02,
5.40545e-02,
-2.86440e-01,
-2.05196e-02,
1.74268e-01,
7.37260e-02,2.46333e-01,-1.36657e-01,2.84336e-01,-2.42254e-01,1.06696e-01,-4.67052e-02,-1.10657e-02,3.05890e-01,3.80041e-02,9.80663e-02,-8.62353e-04,1.74007e-02,1.94816e-01,1.63197e-01,1.49034e-01,-6.70565e-02,-2.72834e-01,2.37326e-01,4.63201e-02,1.99059e-01,-3.73976e-01,-3.39669e-01,1.54161e-01,-9.20011e-02,
-4.60839e-03,-1.69478e-01,2.32488e-02,-1.09788e-01,6.07878e-02,-2.62097e-01,1.66040e-01,-1.62248e-01,-2.39141e-01,-2.80504e-02,-2.27858e-01,1.09512e-01,-2.77734e-01,1.28641e-01,7.10828e-02,2.98689e-01,-1.83109e-01,2.14642e-01,2.80453e-01,-2.39319e-01,-1.16112e-01,6.44763e-02,1.47701e-02,-2.72049e-02,-1.25688e-01,
-1.09837e-02,-1.06382e-02,-9.19278e-01,4.72482e-01,-1.01127e+00,-5.18553e-01,3.81112e-01,4.09100e-01,1.87472e-01,2.88882e-01,1.98958e-01,1.80160e-01,-2.70012e-01,-3.12102e-01,-5.50361e-02,-9.12238e-02,5.50432e-02,4.07632e-01,-1.85234e-01,1.11791e-01,2.66934e-01,-3.32771e-01,-2.83697e-01,-9.10896e-01,-2.21219e-01,
2.44292e-01,-2.97408e-02,3.19846e-01,1.65431e-01,-2.81732e-02,-4.96811e-02,1.03326e-01,-3.73732e-02,-5.12797e-03,1.33214e-01,1.66953e-01,-9.78756e-02,-3.80418e-01,1.75087e-01,2.47238e-01,1.11825e-01,2.55562e-01,-3.18424e-01,3.62059e-01,2.67467e-01,-3.62709e-01,3.26760e-01,-3.35219e-02,2.43418e-02,-2.35309e-02,
-2.08077e-01,-5.18181e-01,6.15779e-01,-3.15881e-01,-3.95444e-01,-2.05849e-01,-1.49704e-01,-8.90752e-02,-7.91883e-02,1.25957e-01,-1.35388e-01,-1.63159e-01,4.16480e-01,6.06910e-02,-2.55303e-01,-2.87456e-01,6.57839e-02,-1.10241e-01,3.14311e-01,-2.38416e-01,2.88088e-01,4.16615e-01,-1.89258e-01,-5.23016e-01,3.86662e-01,
3.54610e-01,4.76527e-01,-3.82536e-01,6.80871e-01,-2.05781e-01,-4.56978e-01,8.26596e-02,1.18909e-01,3.47879e-01,-2.17727e-01,3.26117e-01,5.87957e-02,-4.13783e-02,-8.44764e-02,2.80965e-01,1.98258e-01,1.68486e-01,1.24691e-01,5.30300e-02,-2.13708e-01,-1.43934e-02,1.78925e-01,-3.41327e-01,9.65105e-01,-8.65122e-02,
5.06622e-02,-2.83953e-01,-1.90695e-01,1.69817e-02,-9.59167e-02,2.91289e-01,-2.13801e-01,2.63137e-01,2.69157e-01,-1.45225e-01,6.12131e-02,2.99135e-01,3.99714e-01,-9.97673e-02,-2.79928e-01,-2.68473e-01,-2.43305e-01,-2.39750e-01,-2.65061e-01,-2.31909e-02,1.81410e-01,3.09563e-01,-5.44004e-02,-1.49562e-01,-1.09396e-01,
5.14559e-01,5.30489e-01,1.67446e-01,-1.07477e-01,-2.00390e-01,-1.60169e-01,4.58552e-01,5.60019e-02,9.93135e-02,-7.06246e-02,1.34722e-01,-2.85202e-01,-3.94644e-01,2.19250e-01,-1.18061e-01,4.60609e-02,1.84623e-01,-2.29326e-01,-6.39985e-01,-1.52144e-01,8.40620e-02,2.04762e-01,-1.02283e-01,7.13102e-01,-2.53387e-01,
2.16793e-01,-9.42302e-01,4.58329e-01,-3.41160e-01,4.20293e-01,-6.42035e-01,-3.57416e-01,-3.07629e-01,1.99898e-03,1.89958e-01,-8.52903e-02,-2.61202e-01,1.00882e-01,-8.17247e-02,-3.24352e-01,2.94423e-01,3.36904e-01,-2.69126e-02,-4.76937e-01,3.14546e-02,-1.85289e+00,3.06776e-02,2.21048e-01,2.18604e-01,-3.15170e-02,
2.71461e-01,8.72859e-02,-1.42018e-01,1.96893e-01,-2.58789e-01,3.28974e-01,-2.18996e-01,-9.33383e-03,-3.23742e-01,-1.30652e-01,2.04271e-01,4.85343e-03,-2.83859e-01,-2.43668e-01,3.56528e-02,-2.57257e-01,-4.33101e-01,1.88081e-01,6.80835e-01,-9.44994e-02,-3.26446e-02,-2.83189e-01,1.97908e-02,1.94766e-01,2.22073e-01,
-4.49675e-01,4.67752e-03,2.48590e-01,-4.02686e-01,-3.04065e-02,6.90750e-01,-1.30337e+00,-3.69130e-01,1.40278e-01,2.62011e-01,6.26976e-02,1.72874e-01,3.06620e-01,3.24108e-01,-5.16388e-02,-9.00055e-02,1.40322e-01,-3.03592e-01,3.07771e-02,-1.50146e-01,-1.91199e-03,-4.71852e-01,-8.60679e-02,-6.83442e-02,1.46613e-01,
1.30719e-02,-9.14550e-02,-2.12135e-01,-1.44740e-01,-1.09885e-01,2.34533e-01,4.04112e-01,-2.28551e-01,-3.42284e-02,3.04005e-01,-2.64757e-01,2.10569e-01,8.11709e-02,-3.50173e-02,1.50666e-01,-1.48026e-01,-2.20913e-01,1.47097e-01,9.03766e-02,3.42347e-01,9.93471e-02,-2.09616e-01,-2.84373e-01,-3.09115e-01,-3.20228e-01,
9.01656e-01,9.64589e-02,2.11281e-01,-1.47783e-01,6.77856e-04,1.50996e-01,5.57120e-01,-1.15937e-01,3.15774e-01,2.05727e-01,-1.98132e-01,-4.31434e-01,-4.30234e-01,3.43488e-01,1.83428e-02,7.89326e-03,3.77869e-01,1.86737e-01,-9.52738e-01,2.35920e-01,-7.31672e-02,3.05176e-01,-3.53774e-02,-5.08825e-01,-2.99608e-01,
2.89556e-01,1.24264e-01,6.50575e-01,-3.43191e-01,5.44773e-01,1.75312e-01,9.19790e-03,-4.93442e-01,-1.16951e-03,-2.91371e-01,-1.71079e-01,-1.37198e-01,-1.11159e-01,-2.92434e-02,2.18109e-02,-1.75499e-02,3.60903e-01,-4.43883e-01,1.59169e-01,-3.14498e-01,-4.33069e-01,-3.53337e-01,-3.11298e-01,2.53182e-01,-3.22132e-01,
2.49663e-01,1.01697e-01,2.10693e-01,-1.76285e-01,-3.55831e-02,-1.26037e-02,4.69671e-01,-3.32042e-01,9.32082e-02,1.56355e-01,3.18331e-01,-3.74300e-01,2.74637e-01,9.98679e-03,8.26098e-02,2.30536e-01,3.33672e-01,-1.77494e-01,1.44521e-02,-3.43055e-01,-3.86118e-02,2.07563e-02,-2.75028e-01,2.93376e-01,-6.59959e-03,
3.54898e-01,2.54793e-01,3.88613e-01,2.71884e-01,1.99683e-01,6.67619e-01,2.66110e-01,-2.85065e-01,2.06343e-01,-1.69281e-01,3.96639e-01,-2.11229e-01,3.83093e-01,1.57818e-01,4.73343e-02,2.86159e-01,3.13756e-01,-6.48964e-04,-3.55528e-01,-7.82896e-02,-1.14253e-01,-2.79176e-02,-2.18100e-01,1.90726e-01,-4.37075e-01,
-7.72834e-03,-1.22287e-01,1.44296e-01,-1.63761e-01,-2.53315e-01,1.43988e-01,-7.61631e-02,-2.31485e-01,-2.35139e-01,-1.67589e-01,-1.43282e-02,6.18406e-02,6.47446e-02,2.78747e-01,1.10523e-01,-2.77288e-01,-2.51068e-01,1.55841e-01,3.30803e-01,-1.79701e-01,3.30426e-01,-1.83414e-01,-1.15893e-01,-1.57084e-01,-3.01863e-01,
5.34369e-01,-1.38684e-01,-3.72760e-01,3.79510e-01,1.07794e-01,-3.52832e-01,7.14843e-01,1.38503e-01,-1.26780e-01,-2.68298e-01,7.79186e-02,8.32721e-02,-5.16400e-01,-2.08343e-01,4.71899e-02,-2.99834e-01,2.15660e-01,3.74837e-01,7.65103e-03,-2.36115e-01,2.05066e-01,-2.62593e-01,2.76836e-02,-1.56773e-01,-7.95118e-01,
-1.77959e-01,-1.09997e-01,3.86150e-02,2.71196e-01,3.00581e-01,2.01265e-02,2.92991e-01,-2.81183e-01,-1.34981e-01,-3.83742e-02,3.05593e-02,8.29306e-02,-3.28847e-01,6.57780e-02,3.22731e-01,-6.87736e-02,-2.11238e-01,1.00087e-01,-1.78623e-01,8.02499e-03,6.69428e-02,-2.42045e-01,-2.18859e-01,1.98818e-01,9.54692e-02,
-1.53422e+00,2.61833e-01,1.71267e-01,-8.07504e-01,3.11463e-01,7.57906e-01,-3.27317e-02,-8.07143e-02,2.04254e-01,2.19440e-01,8.29405e-02,2.14513e-01,1.00351e-01,3.19527e-01,-7.84642e-02,2.68879e-02,4.52266e-01,-2.35422e-02,3.70373e-02,7.84483e-02,4.29104e-01,-6.08148e-01,3.21889e-02,8.35645e-02,9.40391e-02,
-8.45789e-01,-2.51935e-01,2.71908e-01,-1.93790e-01,2.61903e-01,2.06137e-01,-3.61649e-01,3.80458e-01,1.58957e-01,1.02806e-01,5.13876e-02,-2.25994e-01,2.79866e-01,-1.99303e-01,-1.62973e-01,-7.11165e-02,-1.66243e-01,-2.36937e-02,-3.67215e-03,1.92359e-01,1.62523e-01,8.96026e-02,-2.23441e-01,-2.66603e-02,2.34645e-01,
-1.82272e-01,-1.62194e-01,2.12820e-01,-3.60838e-03,-3.59730e-01,-9.38373e-01,-2.03985e-01,3.24507e-02,9.98930e-02,-2.14679e-01,2.44437e-01,1.81928e-02,7.14125e-02,1.24905e-02,-2.86761e-01,1.71059e-01,3.56084e-02,2.89752e-01,4.35755e-01,2.16700e-01,2.28107e-01,-3.03212e-01,1.99977e-01,-2.25221e-01,2.68224e-01,
-2.81027e-01,-1.79033e-01,-4.34967e-01,4.25033e-02,-1.31496e-01,4.40283e-01,-1.32631e+00,2.48914e-01,1.36460e-01,8.46353e-02,2.10098e-01,4.71823e-01,4.86234e-01,-1.69446e-01,-3.36699e-01,-2.07550e-01,-2.69496e-02,2.84193e-01,-1.87172e-01,1.99677e-01,-7.74036e-01,-5.84558e-01,-5.49421e-02,-2.30362e-01,1.94871e-01,
5.09583e-01,2.19590e-01,-3.23505e-02,-2.40064e-01,-2.40988e-02,5.89742e-01,-2.82391e-03,-3.52890e-01,1.81001e-01,2.25192e-01,2.80329e-01,-1.22989e-02,2.74486e-01,2.47985e-01,-3.10794e-01,-8.92397e-02,-2.79342e-01,3.33302e-02,-1.56753e-01,3.27810e-01,-1.11484e-01,5.44740e-02,-1.48676e-01,3.59808e-01,-3.07190e-01,
-5.34996e-03,-1.99214e-01,1.10236e-01,9.11538e-02,7.58154e-02,2.24815e-01,-1.38851e-02,-1.77886e-01,-1.21473e-01,2.98553e-01,-5.05823e-02,-2.48414e-01,-1.07195e-01,2.77044e-01,2.03818e-03,-1.47463e-01,-3.05490e-01,-1.15755e-02,2.98859e-01,2.47012e-02,-3.25089e-01,1.32176e-01,1.40638e-01,-2.80536e-01,-2.19135e-01,
1.99263e-01,
-2.92419e-01,
-4.51175e-02,
2.05484e-01,
-2.71754e-02,
-8.28836e-02,
2.39380e-01,
2.07408e-01,
4.07203e-02,
1.72843e-01,
1.20475e-02,
2.02431e-01,
-2.24024e-02,
1.66179e-01,
1.81563e-01,
1.27188e-01,
3.83317e-04,
-1.57183e-01,
-3.76072e-01,
-2.03667e-01,
8.95917e-02,
-4.35366e-02,
-1.90160e-01,
1.08091e-01,
-2.05464e-01,
-2.44146e-01,2.61723e-01,4.27117e-01,9.41296e-02,6.00959e-01,-1.23256e-01,-3.42394e-02,1.38398e-01,-1.23134e+00,8.62759e-02,9.82237e-01,9.93955e-02,1.57154e-01,-1.15736e+00,3.38643e-01,-1.13207e-01,8.64417e-02,5.63248e-01,-8.15795e-02,-1.49800e-01,-4.51831e-01,4.05297e-01,6.50800e-01,-1.63959e-01,6.86162e-02,
1.48545e-01,1.42309e-01,-1.78904e-01,2.32455e-01,-1.18425e-01,-1.30894e-01,-1.00184e-01,2.71201e-01,5.47325e-03,5.82833e-02,2.33534e-01,3.06092e-01,-1.63550e-01,-3.90152e-01,-1.67300e-01,-2.73791e-01,2.34245e-01,3.02290e-01,-4.06890e-02,2.40124e-01,-6.60134e-02,-3.75035e-02,-8.73658e-02,1.06988e-01,2.05164e-01,
5.80083e-02,-3.24788e-01,2.50810e-01,-2.45583e-01,-1.31147e-02,1.52727e-01,2.23851e-01,6.96553e-02,3.27216e-01,-2.40865e-01,-5.84322e-02,-1.03476e-01,6.02282e-01,5.63332e-01,2.35784e-01,-1.26300e-01,-3.06141e-01,-5.55342e-01,2.41995e-01,3.91650e-02,-3.92574e-03,1.26731e-03,1.41900e-01,-2.44133e-01,-2.98620e-02,
2.19735e-01,-2.08446e-01,4.94360e-01,1.93801e-01,2.64275e-01,-3.48388e-01,1.53468e-01,-3.58122e-01,-1.64707e-01,3.05385e-01,-2.76824e-01,1.35639e-01,1.49457e+00,1.38057e+00,-3.41775e-01,6.75848e-02,5.03822e-02,1.61373e-01,-6.26505e-02,-3.66675e-01,-1.73858e-02,4.11231e-01,8.89713e-01,-3.01218e-01,-9.63796e-02,
1.78299e-01,2.60420e-01,-2.48665e-01,-1.97544e-01,1.64059e-02,1.43745e-01,-1.16826e-01,4.05284e-02,6.89581e-02,-2.70313e-01,-1.73790e-01,5.26491e-02,8.21166e-02,-2.66262e-01,9.51075e-02,6.04269e-02,2.08012e-01,2.91861e-01,-2.98600e-01,4.08928e-02,-3.29737e-01,6.93928e-02,2.94529e-01,-3.09286e-01,-2.32627e-01,
3.79072e-01,3.33480e-01,-3.43051e-02,1.36237e-01,1.26384e-01,2.07289e-01,-2.70344e-01,-5.97460e-03,-5.23677e-01,-1.39206e-01,4.10969e-01,-7.90217e-02,-2.15526e-01,-5.36113e-01,1.82878e-01,-3.40037e-01,2.80989e-01,1.54962e-01,1.35524e-01,9.66850e-02,2.41180e-02,-2.40283e-01,-3.96994e-01,7.46445e-02,-1.76750e-01,
1.96078e-03,-2.02246e-01,-2.64715e-01,-1.38609e-01,-3.07418e-01,-9.50532e-02,1.26585e-01,-1.32746e-01,-6.80140e-02,-2.13597e-02,2.23522e-01,1.18098e-01,-3.18313e-01,1.99919e-01,-1.94257e-01,-8.10556e-02,-1.32393e-01,-6.96430e-02,2.69075e-01,-4.63029e-02,-1.77462e-01,7.80393e-02,2.28954e-01,-2.06924e-01,-3.18293e-01,
-1.87742e-01,-1.75222e-01,4.17614e-01,-1.53818e-01,1.66308e-01,-1.45029e-01,-2.50013e-01,-3.96782e-01,6.42605e-02,4.23945e-01,-9.14654e-02,-2.93323e-01,7.71738e-01,7.85891e-01,-1.64591e-03,1.79215e-01,2.54281e-01,4.53990e-01,1.17504e-01,-3.30188e-02,6.43845e-02,-1.66142e-01,5.42649e-01,-8.84205e-02,1.29356e-01,
-4.93022e-02,-1.32926e-01,-7.26406e-02,1.38330e-01,-1.35404e-01,-1.02967e-01,-1.47117e-01,-1.16668e-03,4.28698e-02,8.01091e-02,6.62579e-01,-1.20271e-01,-5.14241e-01,-3.56924e-01,1.63777e-01,-9.67133e-02,2.88994e-01,4.41044e-01,-1.09796e-01,1.89827e-01,-2.32572e-02,-2.52632e-01,-6.38864e-01,-1.88324e-01,3.43277e-01,
-3.60548e-03,-3.99065e-02,-2.17262e-01,2.52070e-01,2.09206e-01,-2.50952e-01,3.43760e-01,-8.34504e-02,-3.63409e-01,2.17298e-01,8.45168e-03,3.28690e-01,-1.58799e-02,7.05318e-02,-3.17724e-01,1.63451e-01,-3.24127e-01,5.57811e-02,2.08245e-02,-2.90427e-01,-2.05301e-01,-8.39478e-02,8.76137e-03,2.54730e-01,-2.88397e-01,
-1.65369e-01,-7.19905e-02,2.81319e-01,-1.35688e-01,1.50717e-01,-3.35780e-02,1.12935e-01,-1.58706e-01,-3.17435e-01,-1.06201e-01,1.41151e-01,-1.97843e-02,1.51880e-01,2.86830e-01,-6.94486e-03,-1.55193e-01,2.87126e-01,-2.79419e-01,3.13870e-02,-2.78248e-01,-2.50615e-01,-3.00545e-01,-1.26397e-01,1.73335e-01,-2.24683e-01,
4.90259e-02,5.51003e-02,2.77954e-01,2.91781e-01,2.25343e-01,2.56911e-01,-2.50931e-01,2.06517e-01,3.62057e-01,1.70616e-01,-1.31508e-01,-1.86456e-02,-4.21659e-01,-4.91049e-01,-2.65577e-01,2.02991e-01,-3.21466e-01,2.51833e-01,-1.39675e-01,3.46081e-01,-2.78174e-01,1.11065e-01,1.80285e-01,6.13417e-02,9.21648e-02,
2.40146e-01,-3.44477e-01,3.51231e-01,3.10316e-01,-1.37004e-01,-1.90070e-01,3.62890e-01,2.48749e-01,5.48451e-01,-4.46494e-03,-3.51457e-01,2.53157e-02,-1.55414e-01,3.17568e-01,6.49700e-02,-7.04876e-02,2.03585e-01,1.63576e-01,-3.20613e-02,1.63664e-01,2.77681e-01,-2.77870e-01,4.61995e-01,-1.68211e-01,-1.70358e-01,
3.34050e-01,-2.86876e-01,6.97703e-01,2.38545e-01,6.13019e-02,4.13665e-01,3.40542e-01,8.23791e-02,-7.38385e-01,-9.03412e-02,-2.11830e-03,2.21143e-01,4.21471e-02,4.41401e-02,-2.52865e-01,-7.23433e-02,-3.03043e-01,-4.65717e-01,1.88207e-01,2.77134e-01,-1.24131e-01,8.08812e-02,5.60964e-01,-7.20317e-02,3.41510e-01,
-2.24796e-01,-3.16882e-01,-2.29553e-01,4.30178e-03,-8.23277e-02,1.65918e-01,4.48371e-02,-4.11556e-02,-3.41004e-01,2.08013e-02,2.31840e-01,-2.48293e-01,1.55894e-01,-2.55890e-01,-2.35728e-01,1.37824e-03,-2.78527e-01,-3.29538e-01,-9.05738e-02,1.92785e-02,2.35091e-01,-2.01693e-01,-2.76630e-02,2.87871e-01,-3.02875e-02,
-1.34887e-01,-1.79081e-01,-1.45612e-01,1.65654e-01,8.81603e-02,2.07160e-01,-2.92167e-01,-1.06383e-01,-7.31655e-01,-2.63830e-01,-1.94854e-01,1.09978e-02,8.98068e-01,9.40841e-02,1.98930e-01,-4.24706e-01,-1.12435e-01,-4.03480e-01,-2.13743e-01,4.66687e-02,-1.42834e-01,2.53438e-01,6.42820e-01,-2.78236e-02,-1.73809e-02,
3.57317e-01,2.78710e-01,4.87326e-02,-2.50888e-01,1.78838e-01,1.51255e-01,9.17695e-02,-2.61239e-01,-7.93992e-02,2.92639e-01,9.72966e-02,2.19643e-01,-7.74413e-01,-8.13791e-01,9.43462e-03,1.47655e-01,1.19081e-01,-2.92494e-01,-2.38127e-01,-9.11919e-02,-4.12704e-01,3.41438e-01,-1.64763e-01,-1.38629e-02,2.76261e-01,
-7.90095e-02,2.07616e-01,-1.55445e-01,1.56288e-01,5.13097e-01,2.41696e-02,-2.39844e-01,-1.99681e-01,-4.06555e-01,-2.43303e-01,1.70405e-01,1.02775e-01,-2.27563e-02,9.76432e-02,-9.01424e-02,1.43895e-01,7.98888e-02,-1.50862e-02,-1.84121e-01,2.57829e-02,-7.19980e-02,6.82227e-02,2.76095e-01,6.39432e-02,3.38515e-01,
1.92001e-01,-2.54532e-01,7.87660e-03,1.86195e-01,6.98822e-01,-1.44912e-01,4.62724e-02,2.29263e-01,3.44638e-01,-1.16497e-01,6.72262e-02,-3.67997e-02,5.03090e-01,5.26985e-01,-2.94904e-01,1.02038e-01,8.70334e-02,2.39439e-01,-1.39036e-01,-2.05606e-01,-1.06160e-01,-2.29042e-01,-1.21756e-01,5.00884e-01,-3.24143e-01,
-7.00422e-04,-3.19120e-01,2.25878e-01,2.45230e-01,-6.03702e-02,1.86833e-01,-1.33991e-01,3.70012e-01,-4.20412e-02,-2.87495e-02,-2.08091e-02,1.55256e-01,6.05572e-01,4.43830e-01,-2.58909e-01,9.79620e-02,2.48242e-01,-2.18987e-01,-5.54637e-02,-3.53738e-01,-3.06115e-01,-6.30133e-01,2.87129e-01,1.54425e-01,3.09295e-01,
2.81009e-01,3.38058e-01,1.98423e-01,2.61665e-01,1.11683e-01,2.50569e-01,5.49181e-03,-9.92321e-02,1.41036e-01,-1.13174e-01,-3.83467e-01,-2.55055e-02,-4.45933e-01,-2.68497e-01,1.35541e-01,8.66307e-02,2.58598e-01,-1.20059e-01,-2.89559e-01,7.04049e-02,1.42567e-01,-1.84102e-01,5.80346e-02,1.73331e-01,2.64486e-01,
1.58870e-01,6.53382e-02,-1.28927e-01,-1.25153e-01,-2.56324e-01,3.09924e-02,-1.99652e-01,1.92755e-01,5.34630e-01,3.59827e-02,5.71411e-01,2.01611e-01,-6.09926e-01,-9.93397e-01,1.69400e-01,1.08590e-01,-1.01991e-01,-1.53901e+00,-2.57985e-02,8.07998e-02,-3.24359e-01,2.64801e-01,-8.18062e-01,-1.05795e-01,7.49103e-02,
2.93378e-01,3.31932e-01,1.89725e-01,-1.52493e-01,-2.48246e-01,9.22994e-02,7.13090e-02,-7.10592e-02,1.27705e-01,3.60783e-01,-6.24764e-01,1.38332e-01,-5.40371e-01,-5.05519e-01,-3.59164e-01,-2.20485e-01,1.15293e-01,-6.17952e-01,2.43530e-01,4.85161e-01,-2.18527e-01,-9.42346e-03,3.09504e-01,2.97844e-01,2.96193e-03,
3.43096e-01,2.87331e-01,-2.75724e-01,-1.89842e-01,2.38569e-01,1.00273e-01,-5.79058e-02,1.06040e-01,2.01600e-01,-3.33766e-01,2.04799e-01,3.45865e-01,-1.78020e-01,-1.51852e-01,1.86142e-01,-2.57356e-01,-2.28361e-01,1.05652e-01,-2.99247e-01,-1.32571e-02,-8.00520e-02,2.38651e-01,-2.52588e-01,1.74216e-01,-1.42692e-01,
-2.67994e-01,8.04639e-03,4.46381e-01,-3.93905e-01,2.88077e-01,3.12270e-04,-1.88056e-01,-4.50161e-04,-7.56242e-01,-1.43869e-01,2.51797e-01,9.45795e-02,4.92819e-01,4.50133e-01,-1.69910e-01,-9.02216e-02,-3.27887e-01,1.13423e-01,2.75315e-01,-3.94222e-01,1.24815e-01,-7.32554e-02,4.35152e-01,1.20394e-01,1.02453e-01,
-4.41412e-02,
3.08225e-01,
-2.05907e-02,
-5.33806e-02,
-2.45275e-01,
1.31481e-01,
-1.87660e-01,
1.96346e-03,
1.80318e-01,
3.93656e-02,
-2.89132e-01,
1.39028e-01,
-1.81010e-01,
-2.49287e-01,
-3.10386e-01,
1.88344e-01,
-1.37189e-01,
2.02671e-01,
-1.96657e-01,
-4.44790e-02,
2.42597e-01,
1.19028e-01,
6.38198e-02,
-3.20313e-01,
1.84951e-01,
1.39741e-01,1.66362e-01,1.56992e-01,-4.01175e-01,1.82306e-01,6.55616e-02,1.22784e-01,4.98077e-01,4.51404e-01,6.39300e-02,3.02130e-01,2.51231e-01,-3.66623e-03,-6.72103e-02,-1.59933e-01,3.43920e-01,8.69205e-02,-1.66405e-01,-4.63706e-02,7.34123e-02,-1.45969e-01,-1.59645e-01,-6.88234e-02,3.12259e-01,-2.99431e-02,
1.76605e-01,-4.44898e-03,-3.07949e-01,-3.10424e-01,1.75172e-01,2.63526e-01,-2.00966e-01,1.70691e-02,1.26831e-01,3.27356e-01,2.16361e-01,-1.07338e-01,-7.25819e-02,-3.30160e-01,2.58185e-01,1.34595e-01,-1.75368e-01,-8.42787e-02,-1.83039e-01,1.35658e-01,-1.12759e-01,-6.35405e-02,4.69628e-03,2.01564e-01,-6.48554e-02,
5.06275e-01,8.63066e-02,6.74212e-02,-6.53472e-01,-2.44040e-01,-1.27311e-01,7.43914e-02,5.15810e-01,1.84019e-02,-2.53589e-01,-4.19953e-02,1.47214e-01,6.70850e-03,-6.89824e-02,1.05721e-01,-2.75872e-01,1.18421e-02,-3.40938e-01,3.73555e-01,1.71363e-01,1.63246e-01,1.59724e-01,9.86298e-02,2.25064e-02,-2.96962e-02,
2.26058e-01,2.08310e-01,-1.29379e-01,-7.68509e-02,-3.14802e-01,-2.07061e-01,-2.62089e-01,-1.96805e+00,-2.38744e-01,-1.05959e-01,2.12125e-01,3.38324e-01,-1.18769e+00,4.06422e-03,5.10560e-02,-1.00017e-01,3.27917e-01,2.25263e-01,-2.19208e-01,2.81200e-01,2.16743e-01,1.99109e-01,-1.35191e-01,3.26858e-01,-1.73871e-01,
9.14752e-02,-2.85715e-01,2.41732e-01,-1.59929e-01,1.13696e-01,-9.11842e-02,1.43285e-01,-5.03205e-01,-3.92842e-01,-3.24124e-01,2.07018e-02,1.25231e-01,1.66803e-01,-3.07920e-01,-3.27743e-01,3.99989e-01,2.67804e-01,3.92700e-01,-5.07287e-01,-3.76269e-01,1.99959e-01,-4.46020e-01,-2.17162e-01,5.02803e-02,5.10503e-02,
-6.41896e-02,-2.29978e-01,1.46260e-01,9.38332e-02,2.21937e-01,-3.86297e-01,-1.23553e-01,-4.02818e-01,-1.39088e-01,-3.64564e-01,-9.32367e-02,-1.56205e-01,5.86463e-01,3.91368e-02,-1.09788e-01,2.47940e-01,-1.81046e-01,1.25688e-01,-2.34872e-01,2.97201e-01,-4.57222e-02,-1.54173e-01,6.34201e-01,-1.68817e-01,-1.68861e-01,
1.48004e-01,-1.84490e-01,1.32531e-01,1.99343e-01,-3.80367e-02,7.10948e-02,3.41544e-02,1.93219e-01,-3.29600e-01,-2.66194e-02,3.33185e-01,5.05221e-01,3.62089e-01,-1.01686e+00,3.20653e-02,7.49216e-02,2.00452e-02,-2.48687e-01,-2.16750e-01,-5.91126e-02,-1.60571e-01,2.58742e-01,3.16399e-01,-4.48708e-02,8.99951e-02,
1.39886e-01,2.39112e-01,-9.16330e-02,-1.99842e-01,-2.13389e-01,1.53707e-01,-1.64835e-02,3.62377e-01,-2.08990e-01,1.30336e-01,-7.99468e-02,-2.19091e-01,-2.97368e-01,7.31706e-03,1.62295e-01,-6.85593e-02,-3.14544e-03,1.36988e-01,1.12490e-01,-9.26250e-02,2.29399e-01,8.47342e-02,-1.22269e-01,1.30017e-01,3.45111e-01,
4.51430e-01,-1.48235e-01,1.94552e-01,-5.11762e-02,-1.60754e-01,2.11434e-01,1.11055e-01,-3.19627e-01,-2.08311e-01,8.87148e-02,-2.09683e-01,-3.31045e-01,-1.20122e-01,3.42956e-02,-2.36475e-01,2.46442e-01,-2.03409e+00,-3.67964e-01,-5.20383e-01,6.34515e-01,-3.08991e-01,-6.13715e-01,-2.12796e-01,1.52881e-01,-2.32988e-01,
-3.78659e-02,-1.80361e-01,1.69563e-01,2.12081e-01,1.17128e-01,1.03402e-01,-1.36842e-01,-2.12718e-01,6.55923e-02,-1.67790e-01,-2.02491e-01,-3.27940e-01,-1.20310e-01,4.47466e-01,-1.84664e-01,-2.29248e-01,-4.19788e-02,-1.54143e-02,-4.61479e-01,4.75450e-01,9.75767e-03,-2.43396e-01,4.75376e-02,-1.30076e-02,1.72719e-01,
1.07856e-01,2.68118e-02,-4.91114e-02,-3.35901e-02,-1.71724e-01,-1.97004e-01,1.52156e-01,1.43418e-02,-7.47922e-02,-2.28727e-01,-1.06331e-01,-3.41728e-01,1.44628e-01,-2.39054e-01,-1.37235e-01,-1.01462e-02,9.73798e-02,-5.88995e-02,-2.20423e-01,6.44901e-02,1.54638e-01,2.13759e-01,-9.37369e-02,-2.37930e-01,-2.33484e-01,
-1.76270e-01,-5.34208e-02,-2.42802e-01,2.53125e-01,1.98014e-02,2.93622e-01,2.40069e-02,1.16798e-01,7.55158e-02,-2.64267e-01,-3.04548e-01,-3.21850e-01,-8.56335e-02,2.58434e-01,2.35341e-01,2.49473e-01,-2.58602e-01,4.99626e-02,-1.22536e-01,4.82512e-02,-1.53315e-01,-2.96748e-01,1.48511e-01,-1.03850e-01,-3.06675e-01,
-7.74377e-03,1.37060e-01,2.34274e-01,3.11563e-01,-3.32793e-01,2.66736e-01,1.65160e-01,-1.58338e-02,5.04854e-02,2.10083e-01,-1.51934e-01,4.80742e-02,-1.33016e-01,-3.58220e-02,2.32156e-01,2.04768e-02,-1.49128e-03,-3.11098e-01,3.17187e-01,-3.98330e-01,1.09075e-01,-4.65042e-03,-1.45118e-01,1.65205e-01,3.91309e-01,
-2.98471e-01,-2.38603e-01,2.26940e-02,-2.50941e-01,2.87031e-01,-7.20543e-02,2.12535e-01,2.61931e-01,-1.18557e-01,1.96730e-01,-7.08072e-02,-9.55698e-03,9.31152e-02,3.11891e-02,-1.20268e-01,-1.27379e-01,1.24021e-01,1.66546e-01,-2.50258e-01,3.43151e-01,-3.15026e-01,2.39125e-01,-7.01766e-02,-4.66355e-02,5.96882e-02,
4.95172e-02,2.22748e-01,-3.26620e-01,5.20257e-02,1.14917e-02,2.58091e-01,-2.62690e-01,1.07246e-01,1.95139e-01,2.65050e-01,-2.24226e-01,2.03397e-01,-2.77630e-01,-1.85046e-01,1.32826e-01,2.12725e-01,-4.56248e-01,3.08560e-01,9.92390e-02,-3.83650e-01,2.99003e-01,-2.43643e-01,7.33460e-02,-2.77576e-01,1.17022e-01,
6.61531e-02,-2.66923e-01,-2.84583e-01,-2.47474e-01,5.64595e-02,-5.80597e-02,1.22434e-01,3.40442e-01,1.16254e-02,-1.51718e-01,5.44271e-02,7.62244e-02,1.71826e-01,2.25867e-01,-1.23906e-01,1.21012e-01,-3.01807e-01,-2.11011e-01,-1.88465e-01,-1.45251e-01,1.07691e-01,2.24828e-01,-8.82679e-03,2.32420e-01,-6.65110e-02,
-4.36964e-01,3.12067e-01,2.47565e-01,9.37502e-01,-5.99591e-02,1.01600e-01,3.11235e-01,-6.00424e-01,-5.12481e-02,-6.24206e-02,-1.53626e-01,-1.06503e-01,2.32747e-01,5.62457e-02,-2.19403e-01,3.92147e-01,-1.76675e-01,-4.07462e-02,-5.65155e-01,1.39277e-02,-7.96790e-02,-2.45628e-01,-1.92149e-01,-2.14101e-01,2.30163e-01,
-7.79193e-02,2.13869e-01,2.14392e-01,-3.98566e-01,1.64248e-01,1.21735e-01,1.57099e-01,1.99942e-01,1.81565e-01,1.89220e-01,3.10292e-01,-3.08438e-02,-2.36384e-01,-3.49869e-02,-3.01169e-01,-2.28764e-01,9.08293e-02,3.08357e-01,-1.56187e-01,5.62113e-03,2.95293e-01,1.60002e-01,-1.32028e-01,-8.78041e-02,-2.81111e-02,
4.97159e-01,-1.21465e-01,1.73347e-01,-1.15216e+00,-4.09609e-02,-8.18871e-02,-6.60622e-02,-1.10214e+00,-3.86441e-01,-2.56532e-02,3.13794e-01,1.61792e-02,-1.05440e+00,-8.88487e-02,-3.45746e-01,-4.74139e-02,3.77169e-01,-8.27410e-01,-1.21376e+00,-1.65226e-01,-3.07631e-01,2.34127e-01,6.60542e-02,-1.39020e-01,-3.94532e-02,
1.42770e-01,2.58409e-01,-5.51747e-02,-2.21214e-01,3.97531e-02,-2.23481e-01,3.78008e-02,4.39118e-01,2.64086e-02,-3.04296e-02,-2.27407e-01,4.14887e-01,-1.96658e-01,-5.96265e-01,9.44503e-02,-4.12235e-02,3.76788e-01,-2.69012e-01,4.75174e-01,-2.84825e-01,1.94520e-01,3.48247e-02,5.07820e-02,-1.27683e-02,-1.81976e-01,
-1.39107e-01,1.64290e-01,-5.94890e-02,-6.30154e-02,9.38444e-02,8.57392e-02,1.99203e-01,2.91782e-01,4.11463e-01,2.85592e-02,-3.38128e-01,-5.05155e-01,6.86571e-02,6.56789e-01,1.67048e-01,1.75515e-01,6.37977e-01,-3.03528e-01,-3.01533e-01,5.16995e-01,-4.02106e-01,-2.78180e-01,1.56785e-01,1.61174e-01,1.06523e-01,
-2.49080e-01,2.99914e-01,-3.20781e-01,-2.76932e-01,8.63361e-02,2.12788e-01,-7.09724e-02,2.31103e-01,1.95511e-01,-2.02886e-01,-3.40583e-01,-2.84110e-01,5.99321e-02,1.48564e-01,-2.28646e-01,2.45458e-01,1.17318e-01,1.60110e-01,1.83231e-01,1.51500e-01,-1.07938e-01,-1.90250e-01,2.66156e-01,-2.48742e-01,-3.35159e-01,
-4.02276e-02,1.83353e-01,-2.87628e-01,1.62625e-02,2.28311e-01,-1.91562e-01,5.11338e-02,-9.18262e-02,3.85546e-02,-6.48256e-03,-2.05554e-01,-3.45570e-01,-2.92771e-01,5.34245e-01,2.32617e-01,-1.01077e-01,-1.24461e-01,2.13879e-01,-2.33432e-01,2.96457e-01,1.12690e-01,-2.81988e-04,-4.68166e-01,9.86561e-03,-2.02499e-01,
-3.18403e-01,2.72416e-01,1.69959e-01,2.34107e-01,1.59813e-01,-3.33257e-01,2.00659e-01,-1.48138e-01,3.10638e-01,2.27774e-01,-5.69229e-02,-1.02607e-01,-1.01987e-02,4.22767e-01,7.18778e-02,9.42334e-02,-4.67762e-02,-2.40155e-01,4.21700e-02,-4.65621e-02,1.53592e-01,-1.69064e-01,-2.03802e-01,-3.09111e-01,-8.33937e-02,
2.35201e-01,-1.39691e-01,-4.14135e-01,-4.85771e-01,-2.55506e-01,2.47695e-01,1.09894e-01,5.01807e-01,2.41586e-01,1.28560e-01,-2.12324e-01,-7.36678e-02,-3.78473e-03,3.11651e-01,1.48035e-01,1.83034e-02,2.46225e-01,1.92048e-01,-1.58748e-01,2.42325e-01,-2.91634e-01,4.22388e-02,-2.18281e-02,9.43494e-02,4.15703e-03,
-1.92236e-01,
-2.99605e-01,
1.47911e-01,
-2.43483e-01,
-5.79489e-02,
1.10091e-01,
1.46656e-02,
-8.03046e-02,
1.51421e-01,
7.12174e-02,
-2.55043e-01,
-3.04349e-01,
3.16578e-01,
-8.40112e-02,
-2.45773e-01,
-3.05474e-01,
-8.09284e-02,
1.97379e-01,
2.26222e-01,
4.82850e-02,
1.66704e-01,
-1.37306e-01,
2.51698e-01,
7.84897e-02,
2.33665e-01,
2.83089e-01,2.87290e-01,2.37399e-01,3.31896e-01,-7.88501e-03,-2.86845e-01,-2.49575e-01,-8.32528e-02,2.20348e-01,-1.22970e-01,1.02457e-01,-1.65621e-02,-1.98280e-01,-2.93937e-02,-1.33563e-01,-1.34028e-01,-7.72495e-02,-1.54288e-01,3.01670e-01,2.06673e-02,2.03754e-01,8.65428e-02,4.49960e-02,-1.75290e-01,5.84766e-02,
6.80935e-02,-2.20472e-01,1.67274e-01,4.77031e-02,-1.99915e-01,-2.03210e-01,-3.17811e-01,-5.24351e-03,7.61557e-02,-5.96225e-04,2.49436e-01,1.10459e-01,-1.48444e-01,-5.86444e-02,-6.16449e-03,2.02505e-01,-2.52302e-01,-3.16361e-01,7.23800e-03,1.46338e-01,-1.20422e-01,2.91960e-01,-3.00912e-01,2.88838e-01,-2.09790e-01,
6.04351e-03,1.07213e-01,-6.29882e-02,5.45459e-02,-6.10671e-02,-2.19418e-03,-8.24554e-02,6.49143e-02,4.54806e-02,1.83596e-01,2.00919e-01,-1.81159e-03,3.77835e-01,-1.20272e-01,1.28476e-01,2.73827e-01,-3.16983e-02,2.59755e-01,1.43639e-02,7.46395e-02,-3.37913e-01,2.29229e-01,2.57292e-01,2.62707e-01,2.16177e-01,
-2.41730e-01,2.53154e-01,-8.67588e-03,-1.90267e-01,3.18411e-01,2.60082e-01,2.14903e-01,-1.74823e-01,-7.57563e-01,-7.75567e-01,-2.21198e-01,-3.26521e-01,-2.21357e-01,1.73683e-02,-9.15410e-01,1.10062e-01,1.51524e-01,-1.93057e-02,-6.28401e-02,8.74699e-02,5.61029e-01,3.45347e-02,1.43856e-01,-8.38494e-02,-2.74778e-01,
2.37994e-02,3.35803e-01,-1.10093e-01,-1.91876e-01,2.33169e-01,-3.58945e-01,-2.23898e-01,-2.98833e-01,2.56968e-02,2.59369e-01,4.71056e-02,-1.45923e-01,-9.75037e-03,-1.11254e-01,3.37786e-01,3.32092e-02,-5.71576e-02,-2.07470e-01,1.97499e-01,2.71014e-01,-1.21870e-01,1.26615e-01,-1.31818e-01,-2.17993e-01,-3.23300e-01,
-2.11410e-01,1.96721e-01,5.53576e-02,-5.88128e-03,3.64394e-02,-3.46042e-01,-3.06821e-01,3.38612e-01,3.03061e-01,1.20937e-01,-2.92716e-01,-6.41809e-02,1.61988e-02,1.28637e-01,-1.19197e-01,-2.48461e-01,1.03511e-01,-2.00033e-04,1.91588e-02,-2.53327e-01,-4.50060e-02,2.83038e-01,-1.70168e-01,1.25171e-01,-9.29598e-02,
-1.62017e-01,-2.44844e-01,-1.69216e-01,-1.02150e-01,-2.50774e-01,1.54118e-01,2.25129e-01,-2.40459e-01,-2.92258e-01,2.61015e-01,2.82009e-01,-3.33261e-01,1.65539e-01,1.55696e-01,-4.71539e-02,-1.77372e-01,1.45993e-01,-3.10692e-01,-2.85161e-03,-5.31089e-02,-2.81882e-01,-1.73652e-01,-2.14274e-01,2.20563e-01,1.89677e-02,
-2.36274e-01,-3.17854e-01,-1.11238e-01,2.90983e-01,3.10869e-01,-3.45004e-01,-2.19933e-01,3.28285e-02,3.37510e-01,-3.16969e-01,-1.83970e-01,1.37187e-01,8.58348e-02,-2.11826e-01,-8.85648e-02,1.88024e-01,-1.23431e-02,-2.07025e-01,-2.28091e-01,1.24362e-01,-1.49100e-01,-2.66154e-01,8.87151e-02,4.16839e-02,-1.19930e-01,
-2.46283e-01,-1.54191e-01,2.77157e-01,2.31400e-01,-1.37425e-01,3.94341e-01,-1.02962e-01,2.03139e-01,-1.87539e-01,-4.89402e-01,1.69799e-02,1.63420e-01,2.58929e-01,2.46531e-01,2.45984e-01,2.66020e-01,1.39651e-01,1.86964e-01,2.32275e-01,8.60562e-02,-9.47118e-02,-8.75470e-02,1.34033e-01,-2.79826e-01,5.40440e-02,
1.24300e-01,1.95548e-02,6.25630e-02,-2.87936e-02,-2.96418e-01,-3.97045e-01,-1.27031e-01,-9.33825e-02,-1.84428e-01,-8.69609e-02,-3.08865e-03,-1.24188e-01,1.48877e-01,3.44844e-01,2.29996e-01,3.14760e-01,-6.64445e-02,3.85474e-02,-3.53332e-02,-6.12153e-02,-3.13587e-01,-5.47153e-02,2.51220e-01,-1.07352e-01,2.22951e-01,
2.00975e-01,2.91533e-01,2.44053e-01,-1.09664e-01,-2.82976e-01,6.25397e-01,-9.03248e-01,-1.01112e-01,-1.14466e+00,-1.66845e-01,-9.03919e-02,3.02173e-01,2.23055e-01,2.49735e-01,3.55246e-01,-2.37455e-01,-4.95669e-01,-3.64317e-02,-4.29281e-02,-2.05523e-01,3.85420e-01,2.96074e-01,-1.61262e-01,-1.47571e-01,2.11157e-01,
2.44226e-02,1.96083e-02,2.55374e-01,-1.72833e-01,-1.22632e-01,1.79655e-01,-9.99416e-02,-3.22113e-01,-1.24819e-01,-1.56126e-02,6.09643e-02,-2.96292e-01,-3.36838e-01,1.21208e-01,-2.67053e-01,-1.06594e-01,-5.92115e-02,2.52499e-01,3.23012e-01,3.17804e-01,-8.19492e-02,2.67661e-01,8.57172e-02,-1.37794e-01,1.36935e-01,
3.74108e-02,-9.50241e-02,2.27022e-02,-2.26509e-01,6.38984e-02,3.27302e-01,4.08849e-02,-2.44185e-01,-5.76112e-02,7.60237e-02,-3.31159e-01,1.82606e-01,3.46694e-01,-2.43818e-01,-9.18142e-02,-1.38435e-01,1.48614e-01,1.59808e-01,-8.51778e-02,2.78952e-01,2.49000e-01,2.21299e-01,3.58672e-01,-2.53909e-01,-3.42333e-02,
-1.05630e-01,8.01653e-02,1.91894e-01,-7.56146e-02,2.33640e-01,-2.11358e-01,9.74655e-02,9.73726e-02,1.16930e-01,1.83785e-02,-1.71156e-01,-3.34888e-01,-9.75230e-02,-2.06009e-01,-2.12655e-01,-2.25175e-02,-3.38747e-01,-2.74129e-01,-1.73541e-01,-1.23717e-01,-4.48199e-03,1.08015e-01,-6.38481e-02,2.54270e-01,-4.06207e-03,
-2.06475e-01,-4.92662e-02,-2.36276e-01,2.00098e-01,-1.97390e-01,-3.18155e-01,2.37367e-02,-3.86599e-02,1.18485e-01,1.19284e-01,-6.80932e-02,-2.27598e-01,8.49079e-02,-2.02897e-01,-3.08340e-01,5.87232e-02,-1.44396e-01,-1.99080e-01,-1.71706e-01,-7.79296e-02,-1.42195e-01,-3.46188e-01,2.08340e-01,3.02220e-01,8.02831e-02,
2.28663e-01,-2.80203e-01,-9.04292e-04,-3.38242e-01,2.03228e-01,2.12659e-01,-2.45327e-01,3.94838e-02,2.27875e-01,-1.08751e-01,2.76627e-01,-3.37974e-02,-3.27950e-01,2.93414e-01,2.00524e-02,1.16954e-01,3.14096e-01,2.64938e-01,1.70140e-01,-3.01072e-02,-2.84306e-01,-2.35991e-01,-9.95105e-02,-4.03408e-02,-1.33764e-02,
1.24065e-01,-3.44107e-02,-1.47875e-01,-2.57513e-01,1.88441e-01,1.32352e-01,-2.56157e-01,-3.02639e-01,-3.02540e-01,-1.70799e-01,-1.98807e-01,-1.97597e-01,-3.15108e-01,1.60275e-01,-1.17104e-01,-2.40352e-01,2.25864e-01,-9.26791e-02,-1.04711e-01,-1.39754e-01,-2.18451e-01,1.85245e-01,-1.79366e-01,9.91757e-02,-1.28429e-01,
1.51108e-01,-3.24342e-01,1.72973e-01,4.28657e-02,-3.55627e-01,1.09258e-01,5.16231e-03,-4.39265e-02,7.12971e-02,3.39102e-02,1.65536e-01,-1.94684e-01,2.74284e-01,-5.20422e-02,2.27956e-02,5.29664e-02,1.45753e-01,2.44541e-01,-2.83058e-01,2.98049e-01,-1.45399e-01,1.53363e-04,-8.51331e-02,-7.81356e-02,-8.04945e-03,
2.51437e-01,3.20158e-01,-6.38198e-02,4.38755e-01,-4.84475e-01,-9.55525e-02,-4.16427e-01,1.26994e-01,-2.50624e-01,-8.84449e-02,1.78717e-01,-1.29414e-02,2.02065e-01,-1.64668e-01,4.68743e-01,1.60378e-01,-3.64869e-02,-2.87329e-02,7.81808e-02,1.90220e-01,-1.89820e-01,-1.53829e-01,1.26511e-01,-2.69103e-01,-3.24028e-01,
-2.21971e-01,5.47251e-02,6.27994e-02,-3.23120e-01,2.37318e-01,-1.85089e-01,-1.30652e-01,-2.34893e-01,-7.55648e-02,-6.21314e-02,-3.23516e-01,4.57762e-02,-1.69788e-01,-2.56224e-02,5.49109e-02,1.08870e-02,1.71213e-01,-1.22414e-01,7.39208e-02,-1.79258e-01,1.19998e-01,-5.70938e-02,2.00439e-01,2.96449e-01,4.04606e-02,
1.11716e-01,2.14450e-01,-2.10945e-01,7.16731e-03,9.30587e-02,2.00443e-01,-9.01607e-02,3.45218e-05,2.08528e-02,2.18952e-01,3.38402e-02,-4.45630e-02,-1.42271e-02,-1.24154e-01,2.47564e-01,-3.40918e-01,1.74720e-01,-3.96850e-01,-2.75178e-01,3.28783e-01,-3.08148e-01,2.05282e-01,1.89537e-01,-3.97645e-01,-4.13262e-02,
-3.31837e-01,1.95886e-01,-1.27172e-01,1.85882e-01,1.78170e-01,-2.59950e-01,1.70764e-01,2.17922e-01,-2.50096e-01,-2.66262e-01,-1.59873e-01,1.46380e-01,-2.80484e-01,2.88391e-01,-3.10294e-01,1.49735e-01,-2.54025e-01,-7.42231e-02,-2.99325e-01,3.00315e-01,3.40207e-01,1.07327e-01,-1.52112e-01,-2.29637e-02,-8.80650e-02,
1.92761e-01,2.32050e-01,-2.26667e-01,6.23825e-02,5.34512e-02,1.30234e-02,4.36336e-01,2.31446e-01,7.86521e-02,-9.97639e-02,-2.45621e-01,-2.52246e-01,1.14643e-01,1.60005e-01,-1.55213e-01,-1.02911e-01,-4.42539e-01,-7.97629e-02,-3.30841e-02,-9.09959e-02,2.62687e-02,2.87663e-01,2.79333e-01,4.87128e-02,7.44921e-02,
-4.17500e-01,-1.90510e-01,-7.70043e-02,-1.41631e-01,-4.87360e-02,-2.54520e-01,-5.69854e-01,1.60480e-01,4.29717e-02,-5.62318e-02,-8.79108e-02,-1.10479e-01,-2.44227e-02,1.50072e-01,-3.50699e-01,1.78775e-01,-2.71634e-01,-1.29653e-01,2.60692e-01,-3.43169e-02,-1.31827e-02,3.00393e-01,-3.05787e-02,-1.09545e-01,-3.49257e-01,
1.61181e-01,1.96106e-01,3.11730e-01,-3.14416e-01,-2.79459e-01,-2.79187e-02,-1.24262e-01,2.60518e-01,-3.53229e-01,-2.41915e-01,-2.34997e-01,1.99091e-01,-2.77023e-01,-1.13046e-01,1.25067e-01,-3.04019e-01,3.22517e-01,-5.65920e-02,-1.56226e-01,3.38649e-01,-4.43585e-02,-2.99398e-01,2.25139e-02,-1.68931e-01,2.05826e-01,
-1.43477e-01,
-1.37282e-01,
-2.79409e-01,
7.48974e-02,
1.18221e-01,
-1.88410e-01,
-3.92539e-01,
-7.73236e-02,
3.50607e-01,
2.12334e-01,
-1.27220e-01,
-2.36475e-01,
2.75963e-02,
-7.02171e-02,
-3.09343e-01,
-3.05008e-01,
1.29441e-01,
2.00497e-01,
-3.13308e-02,
2.74876e-01,
-7.09495e-02,
6.12509e-02,
2.98402e-01,
2.30191e-01,
2.46521e-01,
1.01772e-01,5.39945e-02,-1.37933e-01,1.25618e-01,-4.11857e-01,3.66749e-02,-4.86911e-02,-3.19050e-01,-4.55105e-02,7.85173e-02,6.18086e-02,2.46497e-01,-2.57888e-01,2.67760e-01,-1.59199e-01,1.26779e-01,3.82148e-01,-2.01128e-01,-3.62221e-02,2.71424e-02,3.54111e-01,2.79168e-02,1.84146e-01,5.54483e-02,-2.75129e-01,
3.38196e-01,4.02725e-01,-3.42367e-01,-8.35669e-02,4.10834e-01,-9.62123e-02,-1.68679e-01,1.66372e-01,-6.91094e-03,1.88498e-01,-1.60349e-02,-1.42680e-01,-7.67958e-02,2.59392e-03,-3.13142e-01,3.02016e-01,2.24777e-01,7.41886e-02,-5.81484e-02,8.84263e-02,6.76825e-02,-7.45428e-02,-7.83947e-02,-4.24653e-02,-3.98423e-02,
1.62559e-01,-8.30784e-02,-1.44261e-02,-1.35635e-03,4.83070e-01,1.30488e-01,-9.39789e-02,2.49309e-01,-4.49278e-02,-4.98105e-02,1.81857e-02,-6.73753e-02,-1.93522e-01,-3.93217e-01,-2.26532e-01,2.83460e-01,-1.85050e-02,5.39893e-02,-1.66228e-01,4.97432e-02,2.47435e-02,7.54640e-02,-2.32618e-02,-1.52016e-02,3.30424e-02,
6.64804e-02,4.26563e-01,-8.90213e-02,4.56438e-02,1.08849e-01,-2.51149e-01,1.36075e-01,-3.13076e-01,-2.73272e-01,1.01553e-01,5.56196e-02,-2.25846e-01,-2.16051e-01,6.07946e-02,-1.73691e-01,1.27294e-01,3.88646e-01,-2.02425e-01,1.20640e-01,-3.56796e-01,4.45845e-01,3.13538e-01,-3.85346e-01,-2.67294e-02,9.38917e-02,
-2.76708e-01,1.72578e-01,2.19989e-01,-6.52780e-02,5.71839e-01,4.25168e-02,-2.92269e-01,1.50573e-01,-9.17986e-02,-2.89665e-01,-3.43294e-02,-2.25883e-02,1.75999e-02,-2.35778e-01,2.38789e-01,-2.51023e-01,3.53091e-01,-3.04850e-01,-2.07428e-01,-8.78128e-02,-2.88178e-01,-3.42522e-01,1.51449e-01,-5.56362e-02,4.12174e-01,
1.97826e-01,
9.11496e-03,
8.55335e-02,
5.19641e-01,
1.45564e-01,
