// Neural Network File Format by Kyle Julian, Stanford 2016
6,5,5,25,
5,25,25,25,25,25,5,
0,
-56000.000000,-56000.000000,-3.141593,200.000000,200.000000
56000.000000,56000.000000,3.141593,200.000000,200.000000
-278.628049,0.000000,0.000000,200.000000,200.000000,-0.242819
112000.000000,112000.000000,6.283185,1.000000,1.000000,17.479225
3.56329e-01,1.25701e+00,-4.38435e-02,-3.28059e-01,-4.43437e-01,
-5.56940e-01,-2.09859e-01,2.33322e-02,2.00801e-01,-3.95957e-01,
-9.53179e-02,-9.98643e-02,3.45692e-01,3.30429e-02,1.79358e-01,
1.53027e-01,8.86878e-01,4.12473e-01,-3.98294e-01,-1.82913e-01,
-3.91677e-03,1.16855e+00,-2.81064e-01,-1.44080e-01,3.77022e-01,
-3.07217e-01,1.34087e-01,4.45826e-01,-3.09903e-01,2.99388e-01,
4.46207e-01,2.95543e-01,-3.01736e-02,-1.65189e-01,-2.16190e-01,
-1.09188e-01,1.14876e+00,-3.22591e-01,-4.39432e-01,6.83440e-02,
6.70486e-02,4.64876e-01,-4.39783e-01,-4.37315e-01,-3.79071e-01,
2.74329e-01,-5.20414e-01,1.86381e-01,1.02665e-01,1.76750e-01,
-1.19814e+00,-2.74982e-01,-1.28163e-01,-4.09303e-01,-2.83811e-01,
2.42182e-01,-2.86324e-01,-2.49228e-02,-3.62654e-01,-2.57261e-01,
3.72555e-01,7.26208e-02,3.04827e-01,4.00714e-02,2.01383e-01,
6.22813e-01,4.76816e-01,2.01653e-01,2.57261e-01,-1.12165e-02,
-1.95084e+00,-1.35679e+00,-1.32282e-01,1.32233e-01,-2.37911e-01,
-4.43534e-01,2.31922e-01,4.77168e-02,4.25076e-01,-1.90504e-01,
-3.42728e-01,-6.29511e-02,-2.73190e-01,2.80347e-03,3.35522e-01,
-2.28077e-01,-4.48490e-01,-2.49429e-01,3.14177e-02,-1.38955e-01,
4.51902e-01,-1.92298e-01,-5.15297e-01,-3.03941e-01,3.02118e-01,
-1.47873e+00,-8.56827e-01,-7.54620e-01,-2.27963e-01,-3.93549e-03,
6.19153e-02,-2.39238e-01,-1.08045e-01,-2.87551e-01,-2.95212e-01,
-2.82618e-01,-5.89694e-01,-1.61601e-01,1.83352e-01,9.88967e-02,
7.86334e-01,6.67049e-01,3.40144e-01,2.48269e-01,-3.72286e-01,
6.90404e-01,-7.59434e-01,-4.94334e-01,8.87688e-02,-1.08012e-01,
-2.95275e+00,1.20713e+00,-2.78123e-02,2.71389e-01,1.52277e-01,
9.97550e-02,
1.30686e-01,
-3.14761e-01,
-7.13336e-02,
1.37518e-01,
2.29691e-01,
-2.89612e-01,
-3.89536e-02,
1.37006e-01,
1.83351e-01,
-3.59266e-02,
6.65432e-02,
-4.67131e-02,
-1.99521e-01,
1.04372e-01,
2.15434e-01,
-3.11558e-01,
1.28266e-01,
-7.17224e-02,
-3.74223e-02,
1.04275e-01,
1.36644e-01,
2.92683e-01,
3.16768e-01,
4.50560e-03,
1.46556e-01,1.43762e-01,-9.64159e-02,4.83042e-01,3.23382e-01,-3.40319e-01,2.50232e-01,-2.69822e-01,3.66486e-01,2.47299e-01,3.06424e-01,-1.31495e-02,1.47046e-01,1.59229e-02,-2.89113e-03,-1.81943e-01,3.19546e-01,-2.55353e-01,-2.35222e-01,-2.27824e-01,2.43440e-01,1.67915e-03,1.24786e-01,2.46765e-01,5.37284e-01,
2.70011e-01,1.53684e-01,2.05496e-01,-1.99267e-01,8.07947e-02,3.37801e-01,1.08088e-01,-4.50928e-01,-4.88572e-01,-4.58035e-02,4.87309e-01,1.23437e-02,-2.82485e-01,-9.12040e-02,-2.46092e-01,-3.33077e-01,-1.17435e-01,-3.29482e-01,4.72802e-01,4.93330e-01,1.81305e-01,-3.44238e-01,3.16569e-01,-2.48006e-01,3.56693e-01,
-1.09766e-01,7.83182e-02,3.08555e-01,-6.65631e-02,-3.51967e-01,2.50724e-02,-5.98820e-02,1.33887e-01,-2.23747e-02,1.91869e-01,-4.27454e-01,3.74654e-01,-7.04764e-03,4.89901e-01,2.14503e-01,1.60774e-01,-7.61936e-02,3.52589e-01,1.60805e-02,-5.47490e-01,1.61226e-01,5.31232e-01,1.02183e-01,7.12665e-02,5.43720e-01,
-8.72409e-02,8.39222e-02,2.59746e-01,1.58215e-01,1.58998e-01,9.41257e-02,-3.32504e-01,-2.51319e-01,-2.47937e-01,-1.43569e-01,-4.63994e-01,-3.49956e-01,-3.76006e-01,8.97507e-01,1.13417e-01,-1.86031e-01,3.05251e-01,-8.28884e-02,3.15461e-01,9.91286e-01,-1.89967e-01,-4.11980e-01,2.29073e-01,8.20241e-02,2.71893e-01,
1.50190e-01,-3.77723e-01,-7.67761e-02,-3.02531e-01,3.75500e-01,3.19132e-01,-3.06318e-01,-4.73492e-01,2.50554e-01,-2.11792e-01,7.04649e-01,-2.05363e-01,-2.30757e-01,-3.08110e-01,-2.86516e-01,2.39548e-01,3.33532e-01,3.76181e-02,-2.17691e-02,2.72996e-01,-2.35602e-01,2.10347e-02,3.83675e-01,-3.43449e-01,1.46436e-01,
1.85047e-02,2.18492e-01,-2.37954e-01,7.93422e-01,-1.86952e-01,-7.33530e-02,-1.91418e-01,-2.24147e-01,2.31707e-01,-1.30890e-01,-2.86534e-01,1.06534e-02,-1.91641e-01,-3.04743e-01,-3.46389e-01,-2.67021e-01,-5.43576e-02,7.55644e-02,-4.02737e-01,2.95752e-01,-1.13039e-01,2.01774e-01,3.73015e-02,3.64209e-01,-3.91749e-02,
1.26265e-01,-3.55059e-01,3.28426e-01,1.81890e-01,2.68493e-01,-1.38519e-01,1.57115e-01,-2.29818e-01,5.57419e-02,-4.49685e-02,1.07399e-01,3.04841e-01,-3.65706e-01,-1.15279e-01,-2.14257e-01,2.92269e-02,1.70685e-01,2.96174e-01,-1.85830e-01,-6.38125e-02,-1.38233e-01,1.42630e-01,2.38494e-01,-6.77952e-02,1.03815e-01,
-8.67838e-03,-2.69764e-01,-1.59684e-01,1.40925e-01,-3.09231e-01,-2.76093e-01,2.27899e-01,-1.59268e-02,9.88683e-03,-2.80020e-01,1.29727e-02,-2.79430e-01,-2.52718e-01,4.97864e-02,-1.33612e-01,-2.05645e-01,-3.30734e-01,4.24464e-02,-2.07057e-01,3.04015e-01,2.12134e-01,5.91698e-02,-2.20851e-01,-1.85061e-01,-4.80833e-02,
-2.70303e-01,-1.82995e-01,-2.40147e-01,2.24293e-01,-1.83436e-01,-3.86539e-01,-1.21896e-01,-1.87994e-01,-2.13891e-01,-1.07953e-01,3.62322e-01,-2.50523e-01,3.69145e-01,-8.32098e-01,3.60271e-01,-3.38196e-01,3.87428e-02,4.95327e-02,1.99793e-01,-4.84746e-01,-6.96461e-02,-2.29846e-01,1.98197e-01,3.49010e-01,5.01433e-01,
-3.12586e-01,3.42450e-01,-1.79816e-01,-1.29131e-01,-3.43989e-02,2.59366e-01,3.26781e-01,1.92177e-01,9.14174e-02,3.21231e-01,-1.76208e-01,3.20765e-01,-3.80375e-01,3.20699e-01,-2.78889e-01,1.34067e-01,-2.98769e-01,5.74905e-02,-8.04459e-02,1.01652e-01,-3.16597e-01,2.82364e-01,-1.69912e-01,1.72693e-01,3.44404e-01,
-1.15341e-01,5.46704e-02,2.38742e-01,-5.90260e-02,2.80168e-01,-3.61900e-01,6.24952e-02,-2.31975e-01,2.24056e-01,-1.61795e-01,4.44580e-01,2.95509e-01,-1.98166e-01,4.76297e-01,-1.31279e-01,-6.97842e-03,1.33426e-01,-1.81620e-01,-3.36795e-01,3.99420e-01,-3.47198e-01,1.62672e-01,9.33403e-02,-1.93282e-01,-5.26035e-01,
-2.15934e-01,1.32902e-01,-2.02146e-02,-7.71600e-02,1.94978e-02,3.37989e-01,6.85565e-02,3.84988e-01,2.54734e-01,3.42717e-01,-3.23794e-01,2.08312e-01,-1.19427e-02,-6.55864e-01,8.58136e-01,-5.29579e-02,-4.30226e-04,9.95802e-02,3.39121e-01,-1.59586e-01,1.99349e-01,3.10476e-01,-2.99012e-01,1.42537e-02,-5.67968e-01,
1.13472e-01,-2.40471e-01,-1.93208e-01,1.75539e-01,2.92909e-01,-2.28481e-01,-2.50373e-01,-4.10047e-01,-1.76974e-01,-1.35140e-01,4.42990e-01,4.39856e-01,-1.13820e-01,2.29169e-03,-6.37437e-01,1.08163e-01,1.62403e-01,2.06065e-02,3.48965e-01,-6.07143e-01,2.89381e-01,-2.10590e-01,3.96685e-01,4.79351e-01,1.10189e+00,
-2.77555e-01,-5.33220e-02,-2.18095e-01,1.37778e-01,4.28298e-02,-1.18562e-01,-2.16614e-01,-2.35807e-01,1.34066e-01,-2.13064e-01,1.03223e+00,-1.67912e-01,-1.34986e-02,4.84126e-01,-4.91254e-01,-3.37529e-01,-1.77356e-01,1.67928e-01,2.94318e-01,-5.62297e-01,-1.50013e-01,-1.05500e-01,1.06176e-01,1.46211e-01,1.15257e+00,
-8.70249e-02,-3.41229e-01,-1.40228e-01,2.41013e-01,-3.98345e-02,2.02923e-02,1.58755e-01,1.24878e-02,-1.08872e-01,-4.45090e-02,4.89221e-01,1.99309e-01,2.94219e-01,-1.46011e-01,1.70633e-02,3.16382e-01,-1.65456e-01,1.05266e-01,3.95408e-01,-4.15596e-01,-7.20908e-02,-1.86540e-01,1.07056e-01,1.18283e-01,8.00165e-02,
3.99945e-01,1.85410e-01,-4.68003e-02,-7.15140e-01,6.24365e-02,4.02916e-01,1.75178e-01,-5.05953e-01,-1.03052e-01,-2.40152e-01,3.47660e-01,-3.20253e-01,-3.06094e-01,6.83334e-01,-3.81051e-01,3.99571e-01,8.75658e-03,-5.16470e-01,1.51720e-01,1.87182e-01,7.70020e-02,-5.65228e-01,-1.39786e-01,1.84679e-02,-1.66759e-01,
3.64302e-02,1.52283e-01,-5.13005e-02,-4.23406e-01,3.13472e-01,1.07180e-02,-3.05237e-01,3.33316e-01,-1.94271e-01,-2.81373e-01,-5.41089e-01,-3.61995e-01,1.03329e-01,8.10955e-01,-3.86156e-01,-4.26579e-02,-1.27779e-01,2.58838e-01,-4.02056e-02,4.13596e-01,2.51913e-01,1.69195e-01,1.43153e-01,1.04919e-01,5.54779e-01,
-9.46726e-02,3.17857e-01,-3.45135e-01,-1.14234e+00,3.67113e-01,1.60431e-01,-3.36771e-01,2.86050e-01,3.67129e-01,-4.39015e-01,-1.75579e+00,1.58099e-02,-6.30498e-01,8.89773e-02,5.72304e-01,2.32645e-01,2.45806e-01,-4.08051e-02,7.76048e-02,5.57710e-02,-8.89834e-02,-1.05917e-01,-5.02588e-02,1.15466e-01,-4.77074e-02,
-1.33649e-01,1.43928e-01,-5.62036e-03,-2.21425e-01,3.29040e-01,1.33358e-01,2.30912e-01,-1.84715e-01,2.49692e-01,4.18377e-01,-2.03041e-01,-1.49664e-01,-1.48462e-01,-1.14669e-01,2.66582e-01,4.02584e-01,-3.02618e-01,-1.71737e-02,-1.09489e-01,-1.20316e-01,1.24345e-01,4.58002e-02,1.22914e-01,-1.81296e-01,-2.49304e-02,
-7.82780e-02,-3.22571e-01,1.12364e-01,-3.31811e-02,1.06128e-01,7.81497e-03,2.34545e-01,-2.31736e-02,3.54882e-01,-5.60247e-03,-5.92363e-01,3.73619e-02,1.60362e-01,3.89387e-02,-6.52641e-02,1.46073e-01,2.86854e-01,1.73909e-01,5.50137e-01,-7.87536e-01,-1.04461e-01,-1.77485e-01,3.43439e-02,3.74364e-01,-2.43548e-02,
-3.20004e-01,1.81599e-01,1.68605e-01,2.37483e-01,2.72698e-01,1.67833e-01,-1.28784e-01,-9.86898e-02,2.68043e-01,1.72664e-01,2.92708e-01,-3.42699e-02,8.86634e-02,-1.73493e-01,-6.39038e-02,-3.29621e-01,1.98236e-01,1.42012e-01,-2.84245e-01,-1.56704e-01,-3.45728e-01,-1.44119e-01,-1.56298e-01,-6.96223e-02,1.11516e-01,
3.22971e-01,2.80412e-01,-7.49298e-02,-6.19423e-01,2.93238e-02,3.26954e-01,-1.59353e-01,6.07017e-02,-9.00841e-02,4.84457e-02,-8.25660e-01,-2.52596e-01,-8.60052e-01,3.94536e-01,-1.16620e-01,1.98120e-02,-1.73752e-01,-4.77814e-01,2.51226e-02,6.69522e-01,2.64186e-01,-1.90081e-01,3.94505e-01,2.16664e-01,2.92775e-01,
-3.38458e-01,-1.81597e-01,-2.29900e-01,-6.23653e-02,-3.42809e-01,-3.21504e-01,-2.60805e-01,-2.41365e-01,6.43272e-02,-3.29389e-01,-2.13744e-01,-1.60197e-01,1.06663e-01,-2.82775e-01,-9.88173e-02,-3.44609e-01,-2.46824e-02,-2.57261e-01,2.56689e-01,9.11633e-02,2.07671e-02,-2.57049e-01,-6.45306e-02,1.55021e-01,-2.87781e-01,
3.53833e-01,-1.64006e-01,1.98059e-01,-1.48202e-01,2.36995e-01,5.28272e-01,-2.24059e-01,-2.20782e-02,2.81555e-01,3.59334e-01,3.17745e-01,2.88064e-01,-2.06829e+00,-1.71708e-01,3.32767e-01,-5.82900e-01,1.93914e-01,-9.05122e-02,5.84807e-01,-1.13593e-01,-2.76356e-01,-4.30343e-01,-8.15700e-02,-7.66912e-02,2.13432e-02,
-2.04177e-01,-5.93497e-02,-6.79956e-02,-2.96324e-02,2.66670e-01,-2.94468e-02,2.42952e-01,-1.31772e-02,3.12077e-02,2.16736e-01,2.96664e-01,-1.91154e-01,9.35505e-02,2.93451e-01,-7.74849e-02,1.67650e-02,5.95637e-02,-1.99404e-01,-2.60340e-01,-8.75893e-02,1.55601e-03,8.18039e-02,9.36503e-02,9.73975e-02,-7.29032e-02,
-6.13701e-02,
5.73968e-02,
-2.70951e-01,
8.47932e-02,
7.44876e-03,
-6.34705e-03,
2.17175e-01,
2.40379e-02,
1.59490e-01,
2.25398e-01,
2.03442e-01,
2.02252e-03,
-2.07888e-01,
1.49610e-01,
1.34983e-01,
1.17951e-02,
-3.00682e-01,
-3.15490e-01,
-1.01005e-01,
-6.71722e-02,
-2.88320e-01,
-2.97563e-01,
-6.11944e-03,
-9.34566e-02,
-2.79769e-01,
-5.85586e-02,-8.88602e-02,-3.52047e-02,2.78858e-01,-2.67077e-01,2.33562e-01,1.70481e-01,2.27882e-01,-5.10367e-02,-4.31859e-02,2.87817e-01,1.26926e-01,2.92670e-01,-4.80184e-01,-2.24381e-01,-1.62028e-01,-1.26021e-02,-4.65908e-02,1.46087e-01,-1.75772e-01,6.44289e-02,6.64357e-02,7.28071e-03,2.66420e-01,-1.19849e-01,
-3.84248e-01,-4.03755e-01,2.32704e-01,3.69166e-01,4.80992e-01,-1.92342e-01,2.57264e-02,2.51166e-01,-9.32430e-02,-6.11386e-02,-1.21998e-02,5.52688e-01,1.50082e-01,4.38807e-01,-8.07738e-02,-4.72368e-01,3.15093e-02,7.95766e-01,-6.83358e-02,-1.33740e-01,2.90220e-01,-2.88551e-01,-3.96562e-02,4.27796e-01,1.05183e-01,
-5.28397e-02,-1.13052e-02,1.22314e-01,-2.20511e-01,1.40712e-01,-2.12277e-02,1.32763e-01,2.03296e-01,-1.07627e-01,6.41409e-02,1.57323e-01,-2.56688e-01,-3.38516e-01,-2.67885e-01,-2.93916e-01,2.64222e-01,4.92811e-02,-8.67041e-02,-2.70128e-01,-2.68088e-01,-3.44812e-01,-2.13239e-01,-2.17601e-01,2.85354e-01,1.85373e-01,
-2.47050e-01,2.62538e-01,-4.53132e-01,3.64689e-03,-1.98851e-01,7.03144e-03,9.84666e-02,8.66314e-02,-4.34263e-01,-2.64694e-01,-2.17583e-01,3.06334e-01,7.59017e-01,-5.62423e-01,-1.30808e-01,-9.06542e-01,8.49510e-01,5.85587e-01,3.57966e-02,-5.94814e-01,-2.18170e-01,-1.12789e+00,-1.28147e-01,-1.43352e+00,-3.34953e-01,
-1.40415e-01,3.92168e-02,-8.49316e-02,-3.38763e-01,-1.74076e-02,1.80112e-01,9.74710e-02,-7.70036e-02,2.87402e-01,-6.25419e-02,-1.40931e-01,-2.97083e-01,-2.16323e-01,1.07198e-01,-2.66446e-01,-1.99269e-01,-1.84133e-01,8.75888e-02,-1.17454e-01,8.07559e-02,2.32162e-01,7.77318e-02,-4.77139e-02,-3.94703e-02,1.79676e-01,
-2.60319e-01,2.67361e-01,-7.33610e-01,-1.35592e-02,-4.24151e-01,3.77560e-02,-1.50401e-01,-3.17444e-01,1.78311e-01,3.37037e-01,-1.35889e-01,4.50586e-01,-1.05507e-02,2.63341e-02,1.41957e-01,-1.17001e+00,-6.35315e-03,-4.44929e-01,1.26125e-01,-1.43715e-01,3.40508e-01,4.00681e-01,3.07868e-01,-3.53814e-01,-4.81772e-02,
2.38147e-01,-4.82968e-02,2.16786e-01,2.43137e-01,-1.14070e-01,-2.22350e-02,5.57203e-02,-1.19809e-01,2.73276e-01,1.09418e-01,2.02100e-01,7.42470e-02,3.86124e-02,-2.42375e-01,3.23082e-01,2.33597e-01,-3.93626e-01,3.49618e-02,3.72994e-01,3.77973e-01,1.69230e-01,3.98706e-01,-2.88581e-01,-2.39730e-01,1.57953e-01,
-6.13278e-02,7.20954e-01,3.14286e-01,2.18595e-01,-8.87514e-02,3.09240e-01,1.62792e-01,3.76363e-02,2.87404e-01,2.33832e-01,1.79169e-02,-2.71667e-01,-2.77351e-02,1.99487e-01,2.88503e-02,5.80692e-01,2.46653e-01,4.14086e-01,1.54760e-01,-1.14379e-01,3.04389e-01,9.29947e-02,2.65967e-01,-7.73074e-02,-2.25692e-01,
2.76723e-01,6.95309e-01,7.35329e-01,-1.61493e-01,2.46661e-01,-1.78723e-01,-2.13658e-01,9.93937e-03,-4.87357e-02,-8.26612e-02,-1.89802e-01,3.95407e-01,2.51320e-01,-1.57590e-01,5.84277e-02,3.39709e-01,5.91961e-01,-6.29775e-01,-9.04503e-02,-4.14087e-01,1.20298e-01,6.10201e-01,-1.92649e-01,-1.34291e-01,-3.19970e-01,
2.98993e-01,1.43423e-01,-3.35146e-01,2.55033e-02,8.63439e-02,-2.39946e-01,3.08139e-01,-9.70264e-02,2.67202e-01,-6.14632e-02,1.37471e-01,-5.98407e-02,-2.34668e-01,1.39804e-01,9.69377e-02,-4.67111e-01,3.21078e-01,4.61909e-02,2.01903e-01,-2.99165e-01,2.33559e-01,3.31852e-01,3.57650e-02,-3.00173e-02,3.32321e-01,
-5.72931e-02,5.98210e-04,-1.94409e-01,-5.25646e-02,2.14818e-01,1.38345e-01,1.96319e-01,-2.55454e-01,-2.47582e-01,3.10677e-01,-1.65446e-01,4.06563e-01,-3.29522e-02,3.81427e-01,2.94424e-01,4.93890e-01,-2.08209e-01,-3.49589e-01,3.33058e-01,-6.41840e-02,1.83969e-01,4.64278e-01,2.51332e-01,-4.95996e-01,7.29517e-02,
3.92612e-01,2.75229e-01,3.07777e-01,1.59445e-01,-1.57079e-01,1.04576e-01,2.72559e-02,1.27870e-01,1.46396e-01,9.25286e-02,1.30217e-01,-2.09864e-01,2.11805e-01,-3.25101e-02,-3.46032e-01,-3.35550e-01,2.20390e-01,2.43480e-01,-1.08039e-01,-2.89297e-01,-2.30012e-01,-4.16541e-01,5.46224e-02,7.70316e-02,-8.09793e-02,
2.27550e-01,6.44659e-02,-8.28923e-02,-1.19750e-01,-3.85316e-01,1.48351e-01,-3.85718e-01,-4.99496e-02,8.79737e-02,-1.24030e-01,-1.19561e-01,-3.20407e-01,1.12990e-01,2.39490e-01,-9.11850e-02,-2.90699e-01,-1.26065e-01,-3.23384e-01,-2.46422e-01,-6.55367e-02,-2.84865e-01,-1.18877e-01,7.25245e-02,-2.30359e-02,1.36204e-01,
7.00684e-02,4.99826e-01,2.64320e-01,-8.79401e-02,1.36314e-01,3.11403e-01,-2.23687e-01,2.26632e-01,1.19323e-01,1.94114e-01,3.68259e-01,1.33091e-01,3.56358e-01,-1.06904e-01,-4.17560e-01,1.15141e-01,2.82381e-01,8.40017e-01,2.90281e-01,-2.57756e-01,1.30433e-01,-6.56847e-02,1.17928e-01,2.23306e-01,2.55329e-01,
-2.82030e-02,-5.05274e-01,2.21266e-01,4.58421e-04,-4.15388e-02,3.40442e-01,1.12890e-01,-8.54461e-02,4.10423e-02,-2.96824e-01,1.94716e-01,-7.48444e-02,6.54929e-02,1.43259e-01,8.63891e-02,-1.21365e-01,3.94376e-02,5.08975e-02,3.52711e-01,2.51537e-02,6.60240e-02,-2.32952e-01,-1.65568e-01,5.94686e-01,1.74811e-01,
2.25279e-01,7.07759e-01,7.75576e-01,3.73638e-01,-4.22273e-02,3.87936e-01,2.28298e-02,6.47936e-02,3.14283e-01,-1.21361e-01,2.62906e-01,3.83616e-01,1.32877e-01,1.35889e-01,4.31584e-02,-2.46794e-01,7.21021e-01,-4.59840e-02,8.04613e-02,8.07328e-02,-1.71728e-01,-3.44484e-01,-2.94195e-01,2.89151e-01,-1.66984e-01,
-1.03853e-01,-7.40803e-01,4.25642e-01,4.55488e-01,3.96086e-01,-3.59564e-01,8.95158e-02,-2.74619e-01,1.29114e-01,2.70923e-01,-1.47930e-01,-2.18683e-01,3.24743e-02,2.50964e-01,-1.20992e-01,1.07788e+00,-2.02883e-01,2.87120e-01,3.64812e-01,2.55436e-01,9.51521e-02,-1.89312e-01,-2.28370e-02,-3.50202e-01,-3.02461e-01,
-3.21435e-01,3.25671e-01,-1.93817e-01,-2.42419e-01,2.64443e-01,-6.29469e-02,-6.62379e-02,-2.73407e-01,4.59365e-02,1.67409e-02,-4.14189e-02,-1.94069e-01,-3.17755e-01,3.26321e-02,1.09091e-01,-1.51611e-01,2.12391e-01,-1.00418e-01,2.46991e-01,2.25723e-01,-3.31789e-01,-1.76998e-01,4.11451e-03,-2.46885e-01,3.19567e-01,
1.13390e-01,-8.68233e-02,2.50944e-01,-4.51168e-02,1.19952e-01,-1.50557e-01,-1.96501e-02,1.34951e-01,2.31651e-02,3.11392e-01,1.28591e-01,3.70463e-02,-1.39188e-01,-8.10834e-02,-9.46076e-02,-4.03258e-02,-3.55137e-02,4.01854e-01,3.90586e-01,2.05338e-01,2.50979e-02,-3.17254e-01,1.11980e-01,3.65416e-02,2.81454e-01,
2.41977e-01,8.88207e-02,-1.23720e-01,-3.36893e-01,1.28386e-01,-1.78674e-03,2.57704e-01,2.10915e-01,6.79570e-02,2.81542e-01,2.86546e-01,1.23268e-01,-3.51652e-01,1.93146e-01,2.73336e-01,3.38267e-01,-1.74992e-02,1.95202e-01,-1.16954e-02,-2.05598e-01,1.53736e-01,2.36567e-01,-1.25492e-01,-3.81201e-01,2.23761e-01,
-2.35531e-01,-1.46698e-01,-1.86859e-01,-8.52998e-02,-1.75474e-01,1.52636e-01,-1.46207e-01,-2.31280e-01,2.17537e-01,9.33844e-02,9.15198e-02,-3.02847e-01,-1.16905e-01,-2.44058e-01,2.25466e-01,5.69654e-03,-1.20910e-01,2.86182e-01,-1.47366e-01,-2.95825e-01,-2.37763e-01,2.34290e-01,2.70656e-01,1.74997e-01,-1.07660e-01,
2.28241e-01,-4.80382e-02,-3.40138e-01,-6.19018e-02,6.67488e-02,7.97428e-02,1.94599e-01,2.21333e-01,2.39597e-01,-1.12221e-01,-2.38664e-01,1.44830e-01,-2.50275e-01,-1.18443e-01,1.26477e-01,4.08603e-01,2.35114e-01,1.20457e-01,-1.63240e-01,2.23610e-01,2.95146e-01,3.23279e-01,4.43129e-02,9.72895e-02,-5.50607e-03,
-3.03678e-01,2.72047e-02,-1.00950e-01,-1.78350e-01,-4.34029e-02,-3.64962e-01,1.11357e-01,7.96148e-03,-1.48906e-01,-6.07785e-02,2.12945e-01,8.28589e-02,6.97200e-01,-1.12453e-01,-2.07206e-02,-3.81124e-01,1.47491e-01,-1.21573e-02,2.14074e-01,-1.92718e-01,9.40990e-02,1.48876e-01,1.82548e-01,1.85174e-01,4.74841e-02,
-1.73084e-01,3.61292e-01,-2.93875e-01,6.89987e-02,4.68348e-01,-3.53674e-02,1.61069e-01,-2.72810e-01,1.64934e-01,-2.02541e-01,-2.65452e-01,8.80575e-02,2.93924e-01,3.42353e-01,8.03627e-02,2.02711e+00,-8.90906e-02,-2.40581e-01,-2.20369e-02,-1.21821e-02,-3.22074e-01,-2.63887e-01,-6.69843e-02,3.88256e-01,-2.16466e-01,
1.03382e-01,2.11272e-01,-9.18254e-02,2.97396e-01,-2.98986e-01,1.29678e-01,-2.07550e-01,-2.33928e-01,1.71475e-01,2.32575e-01,-9.44173e-02,-1.79158e-01,2.37963e-01,-3.14737e-01,-8.24536e-02,-2.00252e-01,-3.06880e-01,-2.45614e-01,3.97485e-03,-2.01579e-01,3.23671e-01,-1.37609e-01,-2.90868e-01,2.32176e-01,-1.14695e-01,
1.48144e-01,
-1.37622e-01,
4.26497e-02,
2.30911e-01,
2.75465e-02,
-1.79408e-01,
2.37046e-01,
-8.01718e-02,
-1.35088e-01,
1.99080e-02,
-7.63938e-02,
3.22122e-01,
-2.23032e-01,
-9.89026e-02,
1.76223e-01,
-2.54653e-01,
-1.71288e-01,
-2.20364e-01,
3.81610e-01,
1.53986e-01,
-1.55571e-01,
2.57815e-01,
3.34836e-01,
-3.80457e-01,
-3.74187e-01,
-1.82019e-01,-1.56214e-01,6.72243e-02,-2.65106e-01,-1.86789e-01,-2.50327e-01,-7.49321e-03,-2.99448e-01,1.95547e-01,2.54424e-01,2.32811e-02,2.87867e-02,-3.93601e-02,-1.06846e-01,-2.74113e-01,1.56784e-01,-2.88620e-01,6.22902e-02,-3.29469e-01,-1.74669e-01,1.59995e-01,-1.92511e-01,5.82860e-02,-2.43944e-01,2.36171e-01,
-1.98842e-01,5.50199e-02,3.24728e-01,2.19910e-01,-2.53235e-01,-2.37189e-01,1.31539e-02,-5.48761e-02,3.25655e-02,-1.71871e-01,6.60129e-02,-1.95316e-01,8.57104e-02,-6.32875e-02,6.31728e-02,-2.29901e-01,1.57464e-01,-2.22345e-01,-2.88966e-01,-1.91027e-01,-1.47667e-01,-4.90089e-02,-3.50967e-01,1.26004e-01,9.97430e-03,
1.50947e-01,-2.78987e-01,1.04457e-03,1.72887e-02,2.65109e-01,-3.57997e-01,1.52877e-02,9.77881e-02,-2.64912e-01,1.40671e-01,1.81499e-01,-3.99830e-01,3.42428e-02,1.18583e-01,-8.51104e-02,2.86282e-01,2.92386e-02,-3.64779e-02,1.26657e-01,-2.01112e-01,3.84190e-02,1.16198e-01,-9.64028e-02,-1.41768e+00,1.33046e-01,
-3.77145e-02,5.92567e-03,-2.42271e-01,5.02157e-01,3.33735e-01,1.65781e-01,-3.15451e-01,-1.86141e-01,-1.77439e-01,3.79478e-01,-2.49022e-01,1.95780e-01,1.49204e-01,2.65843e-01,-1.19369e-01,-5.50153e-01,-1.79925e-01,1.78421e-01,1.55064e-01,2.67737e-01,5.49483e-02,-6.67089e-02,2.93372e-01,1.38455e-02,-5.88030e-02,
-2.46046e-01,2.81268e-01,-9.34908e-02,-1.06198e-01,-1.61217e-01,7.20447e-02,1.75408e-01,2.85403e-01,2.26469e-01,-3.17003e-01,-1.85894e-01,-1.93457e-01,-3.35956e-02,-1.70846e-01,1.80624e-01,-2.01796e-01,1.01795e-01,1.73386e-01,-1.79472e-01,-9.64093e-02,8.66496e-02,-1.45630e-01,1.43143e-01,-1.98596e-01,1.71743e-01,
-2.07255e-01,1.57522e-01,2.88884e-01,6.61428e-02,1.29270e-01,2.51150e-01,1.79011e-01,3.11688e-01,-4.34402e-03,1.08870e-01,3.27349e-01,2.27351e-01,2.75358e-01,-1.58775e-01,3.60784e-01,-3.08827e-01,-5.42540e-01,-1.58036e-02,2.95525e-01,1.27187e-01,1.72694e-01,2.49265e-01,-1.70186e-01,-4.74368e-02,-2.82006e-01,
-3.17631e-01,-7.90954e-03,-5.61595e-02,7.39582e-02,1.66225e-01,1.33256e-01,-9.63065e-02,-5.93788e-02,-1.39416e-01,-3.27914e-01,-1.24999e-01,-2.15426e-01,-1.40429e-01,-2.02834e-01,-6.91755e-02,-8.86655e-02,-3.43632e-01,2.36869e-01,9.71269e-02,1.43641e-01,1.75095e-01,-2.70318e-01,2.82702e-01,6.64985e-02,-3.07216e-01,
-2.59079e-01,2.31905e-01,-2.63136e-01,2.97271e-02,-3.15972e-01,-1.19033e-01,2.55113e-01,-1.61809e-01,-1.89628e-01,-2.38400e-01,-3.11843e-01,-2.14157e-03,9.46130e-02,-3.90280e-02,-1.63334e-01,-4.74581e-02,1.59277e-01,3.34317e-01,-1.62079e-01,1.93042e-01,-1.79633e-01,2.47425e-01,2.81532e-02,-3.66521e-02,3.06301e-01,
1.82391e-01,1.53829e-01,5.08580e-03,-1.03319e-01,1.02598e-01,-2.68830e-01,-1.04141e-01,3.99134e-02,2.80804e-02,-5.92682e-02,-3.99899e-01,-2.22859e-01,8.58206e-02,2.43228e-01,-1.10753e-01,2.17031e-01,-2.70077e-01,1.42378e-01,-1.18963e-01,-3.68023e-01,9.44655e-02,-3.72421e-01,-1.41156e-01,-2.69772e-01,2.90551e-02,
1.78455e-01,-1.98357e-01,2.40961e-01,1.53709e-01,-2.52352e-01,2.44824e-01,-1.62830e-01,-3.40211e-01,1.87972e-01,-5.00953e-02,-2.41794e-01,1.15516e-01,-6.67055e-02,1.66632e-01,1.15564e-01,-2.32409e-01,3.39566e-01,-2.86025e-01,-3.03125e-01,-1.06683e-01,3.74593e-02,-4.97397e-02,1.70034e-01,-1.13823e-01,-1.35338e-01,
-9.16566e-02,-1.31714e-01,2.93785e-01,-5.64290e-02,2.97382e-01,-1.76245e-01,-3.19046e-01,-3.40099e-01,3.41601e-01,-2.05180e-01,-1.74919e-01,3.16154e-01,1.68892e-01,3.07601e-01,-1.34746e-01,2.10693e-02,2.33575e-02,-2.61280e-01,-1.42317e-01,2.94048e-01,1.30851e-01,-2.72109e-01,-3.24487e-01,1.44335e-01,-3.42917e-01,
2.17645e-01,-2.22293e-02,3.09572e-01,2.35566e-02,-2.03388e-01,-1.46293e-01,-3.14459e-01,1.16292e-01,-1.41915e-01,-2.57366e-02,2.03831e-01,-3.35573e-01,-1.77946e-01,1.34570e-01,-4.35222e-02,-1.95688e-01,-3.29891e-01,-1.74086e-02,-2.65168e-02,2.70201e-01,-1.69526e-01,-1.63668e-01,7.74412e-02,3.09359e-01,-1.96148e-01,
-2.72789e-02,2.57842e-01,1.20357e-01,2.54802e-01,-1.91566e-01,1.55757e-01,-1.92359e-02,2.70994e-02,-5.16790e-02,-2.05763e-01,-2.48097e-02,8.28458e-02,-2.53851e-01,7.31982e-02,-7.23603e-02,-1.14510e-01,-2.98483e-01,3.41060e-01,3.02037e-02,-4.35412e-02,-3.15049e-01,-2.74415e-01,1.33481e-01,-1.51192e-01,1.51810e-01,
-1.85100e-01,-6.71292e-02,-6.26726e-02,2.21592e-01,3.04219e-01,-1.83757e-01,-2.79532e-02,-2.56407e-01,1.21588e-01,-1.94672e-02,-1.16312e-01,-3.17231e-01,-2.58753e-01,-3.69599e-02,-7.70890e-02,-1.49586e-01,-2.89137e-02,-1.14596e-01,3.18042e-01,-1.95115e-01,1.90457e-01,3.38848e-01,-3.08707e-01,-1.26241e-01,2.45527e-01,
2.35398e-01,-1.08080e-01,1.60533e-01,1.86398e-01,-5.00437e-02,8.70253e-02,-1.77283e-01,-2.27138e-02,4.47207e-01,-1.46184e-01,-3.45996e-01,3.05201e-01,2.94874e-01,-2.50495e-01,1.42455e-01,-2.26627e-01,4.27441e-01,2.44002e-01,1.05759e-01,-1.67946e-01,2.74639e-01,-1.79985e-02,-1.15843e-01,7.43168e-02,2.56880e-01,
6.74301e-02,1.05680e-01,-1.22458e-01,-2.55971e-01,2.44450e-01,7.28814e-02,-2.37796e-01,2.87640e-01,-2.15214e-01,1.30465e-01,-2.65952e-01,-3.52316e-01,-2.79403e-01,-1.28621e-01,-1.86872e-01,2.19544e-01,-1.80550e-01,-2.41490e-01,2.52629e-01,1.10881e-01,4.71720e-02,9.02257e-02,-3.57756e-01,-6.04402e-02,-3.19670e-01,
-1.43000e-01,2.72367e-01,-7.11754e-02,1.50670e-01,-2.99950e-02,-3.36824e-02,-1.31761e-02,3.35696e-01,-1.45892e-01,-3.33519e-01,-9.18731e-04,-1.97466e-01,-1.88180e-01,-1.07916e-01,7.65172e-02,-7.65249e-02,-3.05780e-01,4.51412e-02,-2.93527e-02,-1.97487e-01,-3.62216e-02,-1.71512e-01,1.24548e-03,9.63129e-02,1.73054e-01,
-1.40353e-01,-1.36044e-01,2.80804e-01,-1.98917e-01,-1.32107e-01,7.68659e-01,2.57326e-01,5.49045e-02,-3.07230e-01,1.97006e-01,1.13232e-01,1.13230e-01,3.19387e-02,7.21504e-01,-2.32080e-02,-8.48021e-02,-3.77320e-01,-1.53271e-01,-5.74105e-02,1.51332e-01,8.96025e-02,2.54068e-01,-1.77610e-01,1.43636e-01,2.04595e-01,
-1.12921e-01,2.16180e-01,1.07973e-01,1.66840e-01,-1.55097e-01,3.04165e-02,-2.36967e-01,-9.68772e-02,-1.67385e-01,3.16251e-01,-2.71654e-02,1.04498e-02,1.94080e-01,-3.34927e-01,-2.12282e-01,-8.49319e-02,1.60251e-02,4.08734e-02,-1.29822e-01,-1.57453e-01,3.09996e-02,-3.44657e-01,6.84398e-02,1.97113e-01,-2.73315e-01,
2.28737e-02,1.02433e-01,-1.39653e-01,-6.11790e-02,3.39634e-01,3.12323e-01,-2.10374e-01,1.07791e-01,3.33596e-01,-1.25522e-01,1.21434e-01,-1.58791e-01,2.84364e-01,2.86425e-01,-3.16121e-01,-3.05266e-01,-3.14228e-01,2.31563e-01,-1.59178e-01,-2.29205e-01,2.18467e-01,3.02497e-01,1.45998e-01,-1.20860e-02,-2.73202e-01,
2.76570e-01,3.78682e-02,-1.78436e-01,-1.31543e-01,-2.01029e-01,1.14336e-01,2.12036e-01,3.20803e-01,-3.31517e-01,-2.72207e-02,2.06522e-01,-3.07024e-02,3.05178e-01,1.68233e-02,-3.03214e-01,1.34460e-01,-9.64395e-02,-2.85459e-01,1.87810e-01,2.20072e-01,2.82787e-01,2.80294e-01,4.03743e-01,-1.36243e-01,2.49905e-01,
3.89226e-01,-3.66592e-01,-1.48684e-01,4.89356e-01,-2.89115e-01,-1.35099e+00,2.75248e-01,-3.97604e-01,2.37490e-01,-2.15828e-01,2.83407e-01,-7.98509e-02,2.15096e-01,3.34491e-01,1.83788e-01,-2.55365e-01,6.54320e-01,-1.91849e-01,-5.47607e-03,-1.30072e-01,-2.99121e-02,7.43187e-02,2.22997e-01,-1.12901e-01,2.31723e-01,
-3.17122e-01,2.04767e-01,2.54181e-01,4.25151e-02,-2.36660e-01,-3.34040e-01,-3.18802e-01,3.45202e-01,2.97841e-02,-3.24153e-01,-1.29336e-01,-1.77629e-01,3.22254e-01,2.25062e-01,1.89936e-01,-3.22225e-01,-1.18025e-01,3.80317e-02,-2.84195e-01,2.82926e-01,-9.75397e-02,8.33142e-02,9.78757e-02,-1.70395e-01,8.50889e-03,
-1.39317e-01,2.90804e-01,-2.59068e-01,-1.96063e-01,-1.00704e-01,-1.04198e-01,2.90623e-01,-1.75027e-01,2.37410e-01,-2.12896e-01,-3.07874e-01,3.36712e-02,4.76546e-02,1.54159e-01,-8.03978e-02,-2.66188e-01,-2.06217e-01,-3.13862e-01,-8.21971e-02,-3.75344e-01,-1.28613e-02,-1.87389e-01,3.10911e-01,1.02908e-01,-1.19859e-01,
7.41645e-02,-1.06980e-02,-2.64969e-01,-5.99388e-02,-9.59710e-02,2.10419e-02,3.44971e-01,2.65517e-01,-1.68812e-01,2.23197e-01,-2.52800e-01,-3.40528e-01,2.34344e-01,8.70494e-02,-2.93261e-01,-3.41045e-01,-1.42372e-01,-3.07950e-01,-1.24408e-01,-1.07244e-01,1.16820e-01,2.54824e-02,-2.76814e-01,1.81807e-01,1.82911e-01,
2.24252e-01,
3.33504e-01,
4.09774e-02,
-1.94093e-01,
1.55211e-02,
1.78057e-01,
-2.70248e-01,
-2.10684e-01,
2.09291e-01,
1.60688e-01,
-1.96395e-01,
-6.40727e-02,
-2.62269e-01,
-9.74984e-02,
2.81839e-01,
-1.10542e-01,
1.58972e-01,
-3.31346e-02,
-2.89610e-01,
-9.30441e-02,
2.80110e-01,
-3.22915e-01,
-6.28497e-02,
-6.22658e-02,
-2.03169e-01,
-2.80661e-02,3.24367e-01,3.71545e-02,1.89281e-02,-1.93433e-01,-2.30209e-01,1.82497e-01,1.32332e-01,2.39593e-01,-7.19241e-02,-2.48454e-01,5.83125e-02,-3.38027e-01,1.84066e-01,-2.28601e-01,-2.10822e-01,2.04734e-01,1.65230e-01,1.31825e-01,2.33622e-01,-3.19678e-01,-4.74902e-02,1.81295e-01,-1.19823e-01,4.22286e-02,
2.34063e-01,1.66457e-01,-1.08043e-01,-1.80148e-01,2.27696e-01,-3.00555e-01,2.81595e-01,-2.19231e-02,2.57203e-01,-9.08524e-02,-2.01373e-01,-8.13418e-02,-2.00862e-01,-1.39746e-01,1.64491e-01,7.87959e-02,1.98925e-01,1.33289e-01,1.88465e-01,3.65637e-02,-1.21223e-01,3.04448e-01,-1.45361e-01,-3.18009e-01,1.67475e-01,
2.72564e-01,-3.38688e-02,3.34011e-02,1.66382e-01,-1.18497e-02,1.89585e-01,7.02909e-02,-2.85906e-01,-2.72719e-01,-1.49581e-01,3.19835e-02,-2.56972e-01,-6.31666e-03,4.21688e-02,1.84784e-03,-4.36930e-03,-2.59818e-01,2.09189e-01,5.26677e-02,-1.95336e-01,1.92939e-02,-2.21295e-01,-1.93361e-01,2.59379e-01,-1.34480e-01,
9.00431e-02,3.64338e-02,-4.33534e-03,-2.07240e-01,1.11350e-01,-1.57760e-01,5.99547e-02,-2.40037e-01,9.78309e-02,1.23064e-01,2.80947e-01,-2.68210e-01,1.91170e-01,2.87580e-01,-5.25889e-02,2.53396e-01,1.63597e-01,-5.80203e-02,1.35685e-01,-1.21843e-01,-4.58133e-02,-8.58051e-02,1.70734e-01,3.45098e-01,-1.43774e-01,
-4.89471e-02,-2.89972e-01,7.10308e-02,-2.77241e-01,-3.26199e-01,5.33317e-02,1.63146e-01,-1.04244e-01,8.58760e-02,-8.61824e-02,1.61807e-01,-2.85313e-01,-3.44636e-01,2.87461e-01,3.32032e-01,3.37767e-02,-2.20004e-02,-1.93911e-01,2.84714e-01,-1.04756e-01,-2.51542e-02,7.65889e-02,-1.40720e-01,3.11434e-01,-2.17732e-01,
1.37810e-01,2.44877e-01,-2.18397e-01,-7.18209e-03,-2.23236e-01,-2.60444e-01,3.57579e-02,2.99532e-01,-1.21130e-01,-1.29457e-01,2.19082e-01,2.02687e-01,-2.88416e-01,3.41757e-01,-8.07307e-02,-1.47610e-01,-3.04450e-02,-2.44050e-01,-1.53522e-01,-3.36865e-01,1.39165e-01,-6.24206e-02,1.68661e-01,1.37691e-01,3.26075e-01,
-3.32512e-02,-2.98470e-01,-2.70680e-01,-2.75369e-01,-3.98952e-02,-2.02107e-01,1.44909e-01,-2.01219e-01,1.88121e-01,-2.26674e-01,-2.04629e-01,1.43229e-01,-2.90016e-01,-1.35579e-01,-1.05896e-01,-3.00313e-01,9.80586e-04,-5.15122e-02,-1.27802e-01,-1.09943e-01,1.35691e-01,-7.03647e-02,2.86705e-01,-1.60295e-01,-3.08847e-01,
-1.68508e-01,-1.91480e-01,-2.09054e-01,1.81563e-01,-4.41290e-02,2.86090e-01,1.41711e-01,-1.31701e-01,-3.23326e-02,1.55872e-01,-2.51565e-01,5.70282e-02,1.69482e-01,1.98072e-01,-1.52257e-01,-9.81764e-04,-3.43491e-01,2.54047e-01,-2.11279e-01,-2.51967e-01,-1.00307e-01,-4.74198e-01,-6.65528e-02,-1.28928e-01,1.85797e-02,
9.25592e-02,2.68627e-01,2.83420e-01,1.02892e-01,9.66437e-02,-3.21818e-01,6.25266e-02,-1.51770e-01,1.46576e-01,1.85746e-01,1.45460e-01,-1.02754e-01,2.19514e-01,6.72117e-02,-5.68038e-02,-2.72721e-01,-2.27262e-01,-3.24712e-02,5.95003e-02,-3.32893e-01,7.28788e-02,-2.61478e-01,1.32436e-01,-2.14061e-01,7.54708e-02,
2.14725e-01,-2.29739e-01,1.23530e-01,2.09389e-02,1.34238e-01,1.24544e-01,1.52225e-01,-3.42591e-01,-2.13423e-02,1.99597e-01,6.12798e-02,9.38337e-02,3.24049e-01,1.90231e-01,-5.14759e-01,-1.82966e-01,6.74917e-02,-4.80302e-01,3.42122e-01,-1.47590e-01,-1.21826e-01,-8.81022e-01,1.32657e-01,-9.96839e-02,-3.45211e-02,
-1.90560e-01,-7.55011e-02,5.86605e-02,-2.59355e-01,-1.27172e-01,-2.14116e-01,-1.59621e-01,-1.40894e-01,-2.43387e-01,-1.57843e-02,3.43736e-01,-3.56198e-02,-3.30851e-01,1.08706e-01,1.36590e-01,9.94001e-02,-1.95761e-01,4.64221e-02,-3.38266e-01,-6.82949e-03,2.22340e-01,1.76853e-01,-2.80300e-01,2.00262e-01,3.36306e-01,
-1.24671e-01,-1.55259e-01,-1.32291e-01,1.10149e-01,1.75016e-01,-1.87193e-01,-3.13029e-01,-3.07339e-01,2.75841e-01,2.55945e-01,-6.31070e-02,-3.00541e-01,-5.73112e-02,-2.73411e-01,1.04979e-01,-1.39466e-01,-2.52806e-01,-3.00069e-01,2.85897e-01,-3.03289e-03,-3.44549e-01,-2.73201e-02,1.26384e-01,-3.18581e-01,-1.86964e-01,
3.03680e-02,2.36789e-01,2.04073e-02,-9.91281e-02,1.89909e-01,1.75309e-01,-3.06089e-01,2.10818e-01,2.33572e-01,-2.11953e-01,3.16498e-01,2.54379e-01,5.05085e-02,-3.16229e-02,2.24829e-01,-5.93481e-02,-4.50953e-02,-1.23125e-01,2.37983e-03,-3.28703e-01,-2.43743e-01,-5.67247e-02,-2.03455e-01,-7.92539e-02,2.44680e-01,
-3.00014e-02,-1.00649e-01,2.93653e-01,2.06416e-01,2.70381e-01,4.62461e-02,-1.53657e-01,3.29821e-01,-3.40860e-01,2.65079e-01,2.39026e-02,2.22406e-01,-3.05576e-01,-3.02963e-01,-2.57091e-01,-2.51979e-01,6.78505e-02,-4.42542e-02,-2.54793e-01,-1.34557e-02,-7.21990e-02,-2.37918e-01,1.53799e-01,-3.18395e-01,8.03893e-02,
-2.32885e-01,1.22099e-01,-9.10780e-02,-2.63087e-02,-3.06677e-01,-2.92123e-01,-2.14120e-01,1.96333e-01,1.92253e-01,-3.55377e-02,-5.58864e-02,1.43161e-01,-3.14607e-01,2.16483e-01,-2.47212e-01,-3.19966e-01,-1.06170e-01,1.31399e-01,2.42113e-01,-2.48818e-01,-1.59807e-01,4.16311e-02,-3.31398e-01,-1.92011e-01,-7.82292e-02,
1.52332e-03,-8.01723e-02,6.73110e-02,-2.20605e-01,5.95629e-04,-2.10238e-01,2.50501e-01,-1.60773e-01,-1.73598e-01,1.04100e-01,-3.19513e-01,9.40955e-03,-4.56188e-02,2.98418e-01,-3.19636e-01,-3.19383e-01,-9.08570e-02,3.35411e-01,3.02676e-01,1.95361e-01,-3.09123e-01,2.80417e-01,-7.90502e-02,-2.40236e-01,-1.65880e-01,
-1.83375e-01,-1.86789e-01,-1.40070e-01,7.86128e-02,-1.44356e-01,1.71306e-01,2.01857e-01,-8.01134e-02,3.01438e-01,1.79799e-01,1.28858e-01,7.69088e-02,2.98284e-01,3.21655e-01,-8.47990e-02,-2.18734e-01,-5.15984e-02,8.80107e-02,2.79797e-01,2.78086e-01,2.81433e-01,1.65846e-01,2.09639e-01,1.73217e-01,3.11947e-01,
3.99007e-02,2.69907e-01,2.70489e-01,2.11902e-01,3.40457e-01,7.25806e-03,5.52146e-02,-2.96913e-01,7.93821e-02,-9.80714e-02,2.80357e-01,1.03706e-01,2.70479e-01,-2.20384e-01,-1.89809e-02,-3.65658e-02,-5.30368e-02,-2.08225e-01,2.06686e-01,3.37810e-01,2.60453e-02,3.02230e-01,-1.77474e-01,1.44635e-02,1.39128e-01,
-1.37324e-01,2.95949e-02,-5.76282e-02,1.16462e-01,-9.48868e-02,1.23580e-01,3.34086e-01,3.33935e-01,-4.44684e-02,1.91350e-01,-1.70547e-01,2.45714e-03,-2.03922e-01,3.39063e-01,-3.97692e-02,2.24894e-01,-6.32263e-02,2.10109e-01,1.03193e-01,2.02303e-01,1.00584e-01,-1.25943e-02,-1.03986e-01,-2.81663e-01,1.77204e-01,
2.44700e-01,2.58214e-01,3.44397e-01,1.48127e-01,3.34050e-01,1.91307e-01,2.52076e-02,-2.93890e-01,1.69793e-01,4.75464e-02,-5.79869e-02,1.61132e-01,3.00151e-01,1.86802e-01,1.45686e-01,-3.84596e-02,-2.05998e-01,-5.37005e-02,2.54085e-01,2.56691e-01,3.67051e-02,-3.77301e-02,3.19874e-01,-1.99328e-01,1.09242e-01,
2.50422e-01,-1.50178e-02,1.55432e-01,1.41206e-02,-1.72639e-01,2.38349e-01,3.41671e-01,-1.70897e-01,1.55931e-01,-5.18118e-02,2.43110e-01,3.23350e-01,2.53737e-01,-2.81931e-01,-2.86074e-03,1.82796e-01,-1.42158e-01,7.94044e-02,-9.98164e-02,-1.78343e-01,4.00747e-01,2.99132e-01,1.08559e-01,-3.00526e-01,1.86996e-01,
1.86654e-01,-2.31886e-01,2.14007e-01,-1.13728e-01,-2.28602e-01,-9.40122e-02,-1.22262e-01,-3.07201e-01,5.28685e-02,-2.02555e-02,1.06328e-01,-1.61564e-01,-2.99522e-01,1.38669e-01,2.79251e-01,2.43749e-01,3.06570e-01,1.62588e-01,-1.21295e-01,-4.18516e-02,2.21118e-01,-1.24951e-01,-1.82477e-01,3.02572e-01,2.85942e-01,
-1.42510e-02,-1.65698e-01,-3.13111e-01,1.34939e-01,-3.34035e-01,-3.69169e-01,-3.43396e-01,3.00963e-01,-3.60496e-01,-4.31376e-02,4.60802e-02,-2.14695e-01,-3.16846e-02,4.45443e-03,-2.53932e-01,1.57057e-01,3.27457e-01,-1.30025e-01,2.33201e-01,-8.94715e-02,1.91062e-01,-1.01253e-01,-1.58939e-01,-8.51718e-02,2.13552e-01,
1.17098e-01,-5.24186e-02,-1.39806e-01,2.20024e-01,7.46696e-02,4.27615e-01,-1.86594e-02,-1.46692e-01,1.85658e-01,-2.65957e-01,-2.98438e-01,-2.33766e-01,-2.88341e-01,1.59877e-01,2.87437e-01,2.97168e-01,3.18419e-01,-1.77224e-01,-8.63900e-02,-2.68139e-01,4.11219e-01,-1.35373e-01,3.43884e-01,-2.23813e-01,-6.34042e-02,
5.53483e-02,-6.42923e-02,-1.40384e-01,-2.42603e-01,-1.27666e-01,-1.74976e-01,-1.77965e-02,1.78941e-01,2.59557e-01,-2.27084e-01,-2.86095e-01,-2.67879e-01,3.80141e-02,-2.52786e-01,-3.81239e-01,3.64596e-02,-3.19155e-01,-1.68518e-01,3.19277e-01,8.63705e-02,2.43714e-01,-7.57777e-02,5.76127e-02,5.88655e-02,2.15597e-01,
2.69142e-01,
1.95766e-01,
-1.91134e-01,
-2.42923e-01,
-2.93667e-01,
-7.64416e-02,
-3.46278e-01,
3.24515e-01,
-1.37470e-01,
2.14956e-01,
-6.54076e-02,
-2.69617e-01,
-3.46230e-01,
-2.98138e-01,
-2.68333e-01,
-2.91068e-02,
-9.88005e-02,
-1.58101e-01,
-2.13188e-01,
2.03470e-01,
-1.37757e-01,
-3.23587e-02,
9.04825e-02,
1.29181e-01,
-6.88179e-02,
1.58853e-02,-2.82295e-01,-1.83945e-01,-3.61722e-01,2.99207e-01,1.67661e-01,3.25607e-01,4.74214e-01,2.00957e-01,5.14671e-02,5.84424e-03,-3.28819e-01,2.26576e-01,3.26301e-01,-1.82460e-01,-4.26868e-01,3.07369e-02,-1.86847e-01,1.30982e-02,3.77183e-01,2.07173e-03,2.58801e-01,-9.31051e-02,2.51957e-01,-3.55038e-02,
-1.81876e-02,1.70222e-01,3.24154e-01,-9.07013e-02,2.07038e-01,-2.19485e-02,3.60271e-03,-1.59981e-01,4.17810e-01,7.43323e-02,2.94732e-01,2.07940e-01,-4.00331e-01,2.08592e-01,2.20580e-01,4.07772e-01,1.49584e-01,3.39114e-01,1.32129e-01,1.92313e-01,-2.51504e-01,-2.48535e-01,1.58293e-01,9.21986e-02,6.41814e-02,
2.25072e-01,1.14041e-01,5.97007e-02,-2.47193e-01,2.17673e-02,1.05904e-01,1.04723e-01,-2.88515e-01,-4.42465e-01,1.32703e-01,-2.08565e-05,5.15946e-02,-1.74346e-01,1.90162e-01,4.12291e-01,9.23194e-02,2.43372e-01,4.10228e-01,1.38789e-01,6.39241e-02,-3.03803e-01,2.26933e-02,2.37870e-01,2.25639e-01,3.12900e-01,
2.12748e-01,4.99805e-02,4.97386e-01,-3.27474e-01,-3.20150e-01,3.81828e-01,-2.92955e-01,-3.30690e-01,-1.29582e-01,8.94099e-02,-4.15151e-02,-4.22121e-01,-3.43408e-01,-1.36611e-01,-1.19115e-01,2.08908e-01,-2.00402e-01,-1.68320e-01,2.06895e-01,-1.72463e-01,3.13337e-03,-1.40960e-01,-3.51309e-02,8.67172e-02,3.23077e-02,
2.37398e-01,2.68930e-01,1.88761e-01,8.40596e-02,1.74599e-01,1.97885e-01,-1.52381e-01,-6.43220e-02,1.15955e-01,-1.18784e-01,-3.34643e-03,3.34666e-01,-4.01640e-01,-3.17185e-01,-1.39719e-01,4.30112e-01,-4.38938e-01,-4.05619e-01,2.92356e-01,-9.16060e-02,-2.12437e-01,-5.62577e-02,2.38720e-01,-3.18252e-01,7.58059e-01,
-6.30550e-01,
3.01173e-02,
-1.06293e-02,
2.34594e-01,
5.65256e-01,
