// Neural Network File Format by Kyle Julian, Stanford 2016
6,5,5,25,
5,25,25,25,25,25,5,
0,
-56000.000000,-56000.000000,-3.141593,200.000000,200.000000
56000.000000,56000.000000,3.141593,200.000000,200.000000
-278.628049,0.000000,0.000000,200.000000,200.000000,-0.242819
112000.000000,112000.000000,6.283185,1.000000,1.000000,17.479225
5.03627e-01,-1.30217e+00,-2.96084e-01,4.10283e-01,4.34191e-01,
-6.49300e-01,1.65185e+00,9.62467e-02,8.26882e-02,4.17726e-01,
-3.18022e+00,-5.51565e-01,-2.22665e-02,1.80087e-02,2.42781e-01,
3.88748e-02,-8.70469e-01,-3.06410e-01,4.41380e-01,-2.06697e-01,
-3.91052e-01,-4.06184e-01,-3.09319e-02,-1.05610e-01,-2.21610e-01,
1.79325e+00,-1.36350e+00,7.34246e-03,3.93962e-01,-8.42284e-02,
-4.42099e-01,-4.47382e-01,2.49802e-01,3.66473e-01,2.55896e-01,
1.04742e-01,-1.56887e+00,-5.56477e-01,2.07151e-01,1.51653e-01,
8.06428e-02,5.93559e-01,6.84623e-01,9.94213e-02,2.20974e-01,
1.49589e+00,4.67453e-01,1.01998e-01,1.61318e-01,1.61978e-01,
-1.04605e+00,1.14224e+00,7.48025e-01,-3.13830e-01,9.47646e-02,
-1.71003e-01,2.86597e+00,-6.48436e-01,4.36435e-01,2.31816e-01,
4.07222e-01,6.45688e-02,-1.21458e-02,1.95812e-02,-8.08105e-03,
-2.63809e-01,3.22751e-01,-2.10441e-01,3.61636e-02,-1.92878e-01,
3.21237e-01,-1.96492e+00,-2.30102e-01,-3.05577e-01,-3.26480e-01,
-1.96661e+00,1.00436e+00,3.29811e-01,9.43920e-02,-3.33354e-01,
2.54965e-01,5.03097e-01,-2.16365e-01,3.86881e-01,-4.32165e-01,
-4.51621e-01,-2.03602e+00,-7.20655e-01,-3.53623e-01,2.54166e-01,
4.86718e-01,2.31992e+00,7.03471e-02,1.43062e-01,-2.68233e-01,
-1.56640e+00,-3.88104e-01,2.70609e-02,1.06067e-02,3.67359e-01,
4.13783e-01,-2.23833e+00,1.95480e-01,4.10715e-02,2.49003e-01,
-1.73610e-02,1.35485e-01,-1.21928e-01,-4.37778e-01,3.50776e-01,
1.71313e+00,2.24859e-01,-2.21796e-01,-1.44097e-02,2.27368e-01,
1.27266e+00,-1.04520e+00,1.03169e-01,-4.33637e-01,1.52984e-01,
-5.44131e-01,9.92167e-01,-2.48498e-01,4.13874e-01,-2.66288e-01,
2.01497e-01,
5.73747e-02,
1.67529e-01,
1.80750e-01,
2.53295e-01,
1.35358e-03,
3.05561e-01,
-7.88608e-02,
2.54307e-02,
-1.89949e-03,
7.34124e-02,
-4.85123e-02,
-3.36340e-01,
-3.13586e-01,
-8.09201e-02,
8.14043e-04,
1.34073e-01,
3.21231e-02,
8.67827e-02,
2.02784e-01,
2.43106e-01,
-1.29264e-01,
2.21643e-01,
-1.35465e-02,
2.51894e-01,
3.83614e-01,-4.91663e-01,-1.90062e-01,-2.28589e-01,1.10000e-01,-2.49509e-02,1.71206e-01,-5.00293e-01,-8.52813e-01,4.46339e-01,-1.06036e+00,-8.79555e-01,2.85627e-01,-1.23555e-01,-7.29565e-01,-5.11184e-02,1.61224e-01,5.30751e-01,-4.26159e-01,1.26594e-01,2.55482e-01,-6.63877e-02,1.44215e-01,-4.57115e-01,-2.73043e-01,
6.31992e-02,-5.31591e-02,2.33291e-01,-1.01380e-01,3.63527e-01,3.06953e-01,2.08608e-01,4.31743e-02,-2.14872e-01,-6.07129e-02,1.61157e-01,-1.61034e-02,-2.72031e-02,-4.11543e-02,-2.40735e-02,2.10811e-01,-4.61123e-01,1.83873e-02,3.15853e-01,3.47532e-01,-1.11091e-01,-1.37911e-01,-5.76976e-02,1.02710e-01,-5.05747e-02,
-8.28544e-02,4.85070e-01,-2.48464e-01,-2.13989e-01,-2.29063e-01,-3.44651e-02,3.44358e-02,-1.54020e-01,-2.94886e-01,-8.09466e-02,-8.08189e-02,-3.42240e-01,1.85053e-01,2.32094e-01,3.37776e-01,-3.50261e-01,-2.34772e-01,-1.04663e-01,2.58350e-02,-3.00451e-01,-1.62751e-01,-2.87778e-01,2.84728e-01,-3.71340e-01,1.78396e-01,
-1.21562e-01,-6.21805e-02,2.74597e-01,3.16631e-01,3.03257e-01,1.96334e-01,3.99985e-01,3.35169e-01,1.43995e-01,-8.22814e-02,-4.70175e-02,1.79762e-02,3.77437e-02,6.85856e-02,9.02779e-02,1.43039e-01,-2.09546e-01,-3.03069e-01,-1.70123e-02,2.39124e-01,1.06696e-01,5.81126e-02,2.02585e-01,-4.11775e-01,9.79940e-02,
1.55565e-01,1.93294e-01,7.20885e-02,-2.25630e-01,8.69098e-02,1.97358e-01,4.03457e-01,-8.69341e-01,5.28874e-01,-3.02208e-02,-1.85988e-01,2.18990e-01,1.70676e-01,-2.40189e-01,-5.98955e-02,-6.89518e-01,-3.91667e-01,-1.85495e-01,-4.27786e-01,2.11445e-01,4.53271e-01,-2.63826e-01,-1.87474e-01,-1.29010e-01,-5.77889e-01,
2.24717e-01,1.37218e-01,-2.32029e-01,-2.62321e-01,2.50056e-03,3.18844e-01,-2.53523e-01,-2.66487e-01,3.38731e-01,-8.48412e-01,5.47968e-02,-1.58876e-01,3.42424e-01,1.27623e-01,1.38573e-01,2.12951e-01,9.67423e-02,-1.60282e-01,2.77863e-01,-6.76258e-02,-2.22633e-01,-1.33312e-02,2.66230e-01,-9.26335e-03,2.18537e-01,
1.27541e-01,-1.86627e-01,-2.78702e-01,1.12277e-01,-2.73285e-01,3.12864e-01,2.53791e-01,-3.10754e-01,-5.94095e-02,-1.57540e-02,4.40995e-02,-8.26102e-03,-2.95037e-01,-1.38467e-01,-5.88588e-02,5.18772e-02,2.58733e-01,2.55771e-01,-1.42257e-01,-3.07448e-01,-1.28043e-01,-1.18047e-01,7.01952e-02,-3.95718e-01,-1.64896e-01,
2.91692e-01,2.14261e-01,-1.05933e-01,-5.29909e-03,2.37631e-01,4.77034e-01,-1.18967e-01,-6.25144e-02,-4.14541e-02,2.40748e-01,-1.36577e-01,-5.34567e-01,-8.00925e-02,-3.23466e-01,2.73527e-01,5.26463e-01,-2.32621e-01,1.99890e-01,2.13624e-01,2.71738e-02,-2.41107e-01,-1.42909e-02,-1.08714e-01,-5.84910e-01,2.34031e-01,
-9.04631e-02,-2.12929e-01,-9.44027e-03,-2.28740e-01,-2.46572e-01,1.86594e-01,-1.86425e-01,-3.40315e-01,2.84275e-01,-2.61505e-01,-4.57179e-02,6.19872e-02,-2.85923e-02,-1.60186e-01,3.33785e-01,-1.95413e-01,-1.66908e-01,-3.75749e-02,-1.06689e-01,-2.37793e-01,-2.36925e-01,-1.41009e-02,1.09278e-01,7.87170e-02,8.24349e-02,
-7.17214e-02,-9.94765e-02,-7.97104e-02,1.56221e-01,-2.83696e-01,-2.43067e-01,-5.56523e-02,2.42837e-01,-8.34322e-02,-2.36872e-01,-1.00193e-01,9.66708e-02,1.21406e-01,-6.79720e-02,-8.83663e-02,-7.30821e-02,1.03339e-01,8.29224e-02,-1.04510e-01,1.86507e-01,-1.65938e-01,1.94218e-02,-2.06032e-01,5.88314e-02,-1.75461e-01,
2.03635e-01,-1.53953e-01,-2.79844e-01,-7.45504e-03,-6.18883e-02,-2.09820e-01,-9.97002e-02,-2.79642e-01,1.83827e-01,-1.18922e-01,-1.52970e-01,2.33771e-01,2.95018e-01,2.51589e-01,8.71618e-02,9.65208e-02,2.91947e-01,1.83151e-01,-3.16756e-01,-1.09911e-01,1.13872e-01,1.67626e-01,8.64772e-02,1.09439e-01,-1.16718e-01,
-3.53881e-01,2.11491e-02,2.30652e-01,1.34809e-01,-9.42743e-02,7.87878e-02,-1.67221e-01,-1.72070e-01,3.66732e-01,1.56345e-02,1.88620e-01,4.54914e-01,2.47370e-01,2.24161e-01,-3.71633e-01,-4.05612e-02,2.73718e-01,2.14655e-01,-1.71938e-01,-1.26946e-01,1.05611e-01,3.25103e-01,-4.10634e-01,5.62868e-01,-1.77583e-01,
2.37882e-02,4.51091e-01,2.60047e-01,-9.22907e-02,1.94553e-01,-3.61751e-02,-1.75409e-01,-6.51210e-01,-7.49772e-02,2.96773e-01,2.37585e-01,1.91817e-01,2.84810e-01,-1.86688e-01,1.63538e-01,7.14394e-01,-8.93497e-03,5.41949e-01,2.80162e-01,1.30042e-01,9.34407e-02,1.63920e-01,-3.18751e-01,-4.13900e-01,-1.19354e-01,
1.70632e-01,2.36750e-01,2.74085e-01,2.35649e-01,-2.73434e-01,2.87102e-01,1.72943e-01,-4.46272e-01,-1.79531e-02,5.97036e-02,2.60088e-01,6.28542e-01,-2.38018e-01,2.90869e-02,-4.13049e-01,4.94117e-02,-2.58123e-01,6.15240e-01,-3.63305e-01,-1.96948e-02,-2.25152e-01,2.66095e-01,-4.30499e-01,8.09078e-01,3.78270e-01,
-2.63938e-01,-1.69937e-01,1.79961e-01,1.49460e-01,-4.16918e-02,-1.88884e-01,1.99002e-01,5.35168e-01,-1.73533e-01,-2.37762e-01,-2.19512e-02,-9.38378e-01,2.06446e-01,3.05003e-01,6.54140e-01,-6.61476e-01,-9.54254e-02,-1.21638e+00,2.77036e-01,-3.87355e-01,1.08851e-02,-2.53522e-01,3.18005e-01,6.36413e-01,-2.64606e-01,
3.26220e-01,2.03536e-02,-6.28176e-01,2.23592e-01,1.42841e-01,1.17998e-01,-5.79228e-02,-9.18611e-02,-1.54618e-02,4.06497e-01,-2.40209e-01,-4.52883e-01,3.45515e-01,1.20649e-01,2.11967e-01,3.64122e-01,4.14925e-01,-2.38406e-01,3.55010e-01,-3.09075e-01,7.09623e-02,-2.38510e-01,4.03868e-01,-7.53812e-01,1.64865e-01,
2.93466e-01,1.57486e-02,-5.93612e-01,2.01600e-01,-1.71778e-02,-2.03747e+00,-2.12018e-01,-8.34715e-02,-1.05158e-01,-1.82672e+00,1.27454e-01,-4.84434e-01,4.69619e-03,1.26613e-01,-1.80618e-01,-1.17882e+00,1.65234e-01,-4.87396e-01,2.43349e-01,-2.69419e-01,2.06335e-01,-2.01479e-01,1.45204e-01,2.27241e-01,-3.15400e-01,
3.48860e-01,-5.22431e-01,-3.86723e-01,1.78995e-01,-2.21771e-01,-1.08113e+00,2.54341e-01,-1.31255e+00,-2.83878e-01,-1.27729e+00,-6.67066e-01,-3.94453e-02,5.30460e-02,1.54494e-01,-1.43439e+00,-3.69094e-01,-3.46927e-01,6.37365e-01,-7.03831e-01,-2.74447e-02,3.36247e-01,8.80793e-02,2.58522e-01,-2.89853e-01,-3.93979e-01,
-3.02557e-01,1.32201e-01,1.89284e-02,-1.87034e-01,3.21372e-01,6.79176e-02,-7.48938e-02,2.41325e-01,-2.53366e-01,-3.46128e-01,1.29577e-01,2.55969e-01,-2.72382e-01,-7.44327e-02,1.23225e+00,9.87597e-02,-2.63745e-01,-2.96860e-01,5.89773e-02,2.00268e-01,-7.79922e-01,2.33868e-01,-2.04682e-01,8.84805e-01,6.94208e-02,
-3.05409e-01,1.89877e-01,2.58946e-01,-5.61963e-03,-1.51473e-01,3.13419e-01,-2.33014e-01,-3.08061e-02,-2.95718e-01,-1.01325e-01,1.98168e-01,-6.62030e-02,-3.17866e-01,1.30943e-02,-1.79577e-01,-3.36656e-01,-2.50880e-01,4.82510e-02,-7.46572e-02,-1.34143e-01,-1.82228e-01,2.87740e-01,2.25275e-01,-2.61337e-01,2.33970e-01,
-1.19558e-01,-2.75103e-02,-1.64391e-01,2.34207e-01,2.77114e-01,-2.86035e-01,-3.13785e-01,-1.64852e-01,1.76844e-01,2.57138e-01,-9.66913e-02,5.64582e-01,-1.73944e-01,-3.41619e-01,3.59756e-01,1.85671e-01,2.44171e-01,-2.58905e-01,-2.89730e-01,2.69000e-01,3.59469e-01,3.44777e-02,4.39035e-02,-1.10081e+00,2.93473e-02,
1.78827e-02,-6.41410e-02,-9.23905e-01,-2.74899e-01,3.43815e-01,1.58301e-01,-3.13893e-02,6.89863e-02,9.87667e-02,-1.13826e-01,1.08087e-01,-2.57918e-01,-4.90010e-03,-2.00006e-01,4.04544e-01,3.05945e-01,-3.83439e-01,4.41098e-01,1.28225e-01,5.39406e-01,-2.05657e-01,2.04857e-01,-1.90948e-01,2.72243e-01,4.94716e-02,
4.42297e-02,-5.59651e-01,-2.01754e-01,1.93520e-01,3.37376e-01,5.61944e-03,-1.75150e-01,-5.86280e-01,1.40780e-01,6.96292e-01,-1.90212e-01,-5.54793e-01,-7.46377e-02,-1.75444e-01,2.21337e-01,4.12919e-03,-4.67852e-02,5.97686e-02,-4.61837e-01,-4.96073e-02,4.16385e-01,-1.27073e-01,-1.31622e-01,-7.66065e-01,-1.64487e-01,
-2.45621e-01,-1.12500e-01,-5.84935e-02,-2.36646e-01,5.62178e-02,-3.84768e-01,-3.60736e-01,1.13819e+00,3.23101e-01,1.85015e-01,3.58358e-01,-1.44447e-01,2.33700e-01,2.56241e-01,-1.68010e-01,1.81497e-01,7.23140e-02,-5.61600e-01,2.85830e-01,-3.38169e-01,4.42094e-03,2.32977e-02,2.45407e-01,1.22395e-01,-1.18986e-01,
1.11850e-01,1.91686e-01,-3.37524e-01,1.18865e-01,-1.62767e-01,-2.66154e-01,2.26578e-01,-3.30385e-01,1.66029e-01,-2.85073e-01,-2.87564e-01,-2.34614e-01,-2.39456e-02,1.36207e-01,2.66462e-01,5.58180e-02,-3.00222e-01,-2.65888e-01,-2.18042e-02,-2.57453e-02,-1.20236e-01,4.85637e-02,-2.98298e-01,-1.63769e-01,1.58075e-01,
3.39026e-03,
-3.62503e-01,
3.37135e-01,
-2.33083e-01,
-2.85869e-01,
1.22094e-01,
1.57887e-01,
8.40732e-02,
4.71560e-03,
-2.17703e-02,
-3.40126e-01,
2.57673e-01,
1.34576e-01,
3.50656e-02,
3.15179e-01,
-1.07047e-01,
2.13522e-01,
1.50724e-01,
1.75942e-01,
-1.77028e-01,
-1.30985e-02,
-6.94133e-02,
2.36221e-01,
2.04729e-01,
-1.97158e-01,
2.24831e-01,1.37675e-01,6.36554e-02,-3.21188e-01,2.13762e-02,3.22443e-01,-1.27457e-01,-2.40849e-03,2.40102e-01,1.11540e-01,9.92211e-02,-2.27785e-02,1.42315e-01,-5.94302e-02,1.16874e-01,3.78765e-01,-7.32232e-01,-4.72761e-01,3.68293e-01,1.98299e-01,9.90748e-02,2.08718e-01,-1.63079e-01,4.90712e-02,9.52726e-02,
6.63443e-01,-7.20784e-02,-4.49039e-01,-4.89674e-02,5.28657e-01,-5.77584e-02,-4.54223e-01,-1.72426e-01,-1.90490e-01,-1.06837e-01,1.07300e-01,-9.32368e-02,1.13998e-01,2.40485e-01,-1.84387e-01,1.17676e-01,-2.93494e-01,5.57197e-02,1.04509e-01,2.64607e-01,2.85400e-01,2.81072e-01,-3.10880e-01,-8.15047e-02,-9.41872e-02,
7.17385e-01,-5.14597e-01,2.18800e-01,1.66561e-01,-8.95767e-02,-1.81836e-01,3.99399e-02,-1.91061e-01,2.20816e-01,-2.15456e-01,-1.67055e-01,2.53720e-01,2.53892e-01,4.59147e-01,-1.42743e-01,1.63301e-01,-9.69657e-01,-3.18722e-01,-1.95289e-02,1.25825e-01,1.64018e-02,1.13705e-01,3.77663e-01,-1.46627e-01,4.86820e-02,
3.05357e-01,1.75213e-01,6.08312e-02,-1.06336e-01,-1.98681e-01,-1.84886e-01,-5.71529e-02,7.48620e-02,-1.77159e-01,-3.26541e-01,9.59920e-02,1.15387e-01,-1.90338e-01,3.60617e-01,-1.62438e-01,3.86747e-02,-3.86995e-02,-1.80252e-01,-2.21661e-01,-2.72377e-01,-3.07300e-01,-3.69100e-02,-1.21094e-01,-5.31865e-02,1.22833e-01,
-2.87908e-01,3.41387e-01,3.12542e-01,-1.19335e-01,4.34906e-01,1.36641e-01,3.32201e-01,2.12793e-01,2.49241e-01,3.34290e-01,-3.04489e-01,-1.98041e-01,-1.82178e-01,7.09479e-02,-3.18852e-01,-2.68276e-01,-1.96269e-01,-1.11860e-01,-4.58771e-01,-1.42307e-01,9.44062e-02,-1.95604e-01,-4.32868e-02,-6.34875e-01,3.78401e-02,
-1.08732e+00,-1.80775e-01,2.40447e-01,8.35212e-02,-5.08340e-01,2.06126e-01,-1.56760e-01,2.11728e-01,2.31858e-01,-1.41747e-01,-8.81129e-02,-3.05806e-01,7.78017e-02,-3.93807e-01,3.15544e-01,3.40721e-01,4.01647e-01,-1.73036e+00,4.87456e-01,-3.96632e-02,-1.28186e-01,-1.79811e-01,8.96954e-02,3.02099e-01,2.02252e-01,
2.95511e-01,7.14715e-02,-1.69596e-01,-2.31337e-02,-1.22222e-01,-3.12026e-01,-2.65217e-01,-3.24115e-01,8.01444e-02,-2.28148e-01,-1.53233e-01,-3.22066e-01,1.84184e-01,1.82748e-01,-2.70903e-02,-2.15304e-01,-1.18809e-02,-2.24909e-01,6.15577e-02,2.49977e-01,-2.13862e-01,-1.10356e-01,-2.27028e-01,-1.50408e-01,7.22553e-02,
-8.37302e-01,-1.39034e+00,1.21303e-01,-2.39383e-01,-1.12944e+00,4.07953e-01,1.49319e-02,-2.41791e-01,-5.80025e-02,2.24930e-01,-6.60156e-02,2.19714e-01,-3.41260e-01,9.36069e-02,3.31869e-01,-1.05046e+00,9.50087e-01,2.89038e-01,-8.64886e-02,1.46131e-01,-4.85472e-01,-2.00029e-02,2.05212e-01,-1.85160e-01,-1.81665e-02,
-1.19870e-01,-4.09697e-01,3.36678e-01,7.52296e-03,4.68760e-01,-1.62622e-01,-2.65850e-02,-8.71933e-02,2.25946e-01,3.11027e-01,1.84703e-01,6.65150e-02,9.06637e-02,-3.93412e-02,2.56016e-01,-5.39655e-01,2.46531e-01,4.49286e-01,4.79472e-01,-2.49414e-01,-5.32534e-01,3.69798e-01,3.91093e-01,-1.86218e-01,1.25069e-01,
-1.36972e+00,-5.32504e-01,7.05692e-02,-3.29577e-02,-4.46424e-01,-2.68300e-01,2.79083e-01,1.20328e-01,-2.49995e-01,3.12262e-01,6.41790e-02,-4.23290e-01,-2.52114e-01,-5.54779e-01,-5.97182e-01,4.80012e-01,1.10289e+00,4.54270e-01,5.87436e-01,-3.02802e-01,2.72588e-01,-3.93557e-01,3.70520e-01,-8.46585e-01,-4.26690e-02,
2.75966e-01,2.44046e-01,1.14884e-01,5.36207e-02,1.19559e+00,4.47478e-01,3.91354e-01,2.35184e-01,2.88999e-01,-7.07091e-02,-2.29072e-01,-9.41443e-02,-2.59472e-01,3.83353e-01,-1.63132e-01,2.40756e-01,-1.43314e+00,-3.01922e-02,-3.42538e-01,-9.77833e-02,1.14126e-01,-8.15236e-02,-7.52414e-01,-1.34593e-01,-2.74480e-01,
6.74941e-01,1.36206e-01,-1.44993e-01,-3.62952e-01,-7.64352e-02,1.65531e-01,-2.23280e-01,2.68110e-01,1.04504e-01,7.50660e-02,-1.33040e-01,2.37238e-01,1.70730e-01,3.50504e-01,5.27161e-02,5.97675e-02,-6.37843e-01,5.01289e-01,-3.13735e-01,1.89819e-01,-3.75422e-02,-2.82662e-01,2.43425e-01,-1.08023e-02,3.12274e-02,
-1.57063e-01,1.72557e-01,7.21076e-02,-3.00036e-01,-1.54627e-01,-4.34896e-03,1.53251e-01,3.39246e-01,-3.00868e-01,-8.39466e-02,3.17652e-01,-2.61510e-01,-2.44888e-01,5.38777e-02,-1.25475e-01,-9.65541e-02,-8.25312e-02,8.77430e-02,9.71289e-02,1.87807e-01,2.22669e-02,-1.49013e-01,1.53553e-01,6.42636e-02,5.63403e-02,
9.69038e-01,5.73906e-01,-1.36337e-01,-2.98196e-01,-2.77592e-01,-2.19450e-01,-1.51017e-01,-2.87100e-01,-1.48286e-01,1.90710e-01,7.61605e-02,1.21113e-01,-2.57775e-01,-8.40925e-02,2.11748e-01,-1.61922e-01,-8.48746e-01,-9.52499e-01,4.37134e-01,9.87404e-02,2.76588e-01,2.45429e-01,4.50025e-01,1.70492e-01,-4.87764e-02,
7.93539e-02,-3.62032e-01,2.99780e-01,5.20122e-02,3.72017e-02,3.82253e-03,2.49460e-02,5.86197e-02,7.59944e-02,2.05165e-01,3.31597e-01,-4.61103e-02,-3.98173e-01,-6.23245e-02,1.13768e-01,-2.86950e-01,4.27601e-01,-8.32661e-02,-1.01624e-01,8.79513e-02,3.38980e-01,-4.80682e-02,-5.56494e-01,-3.81620e-02,-2.51162e-01,
3.95838e-02,-1.32448e-01,-2.21856e-01,-1.54945e-01,-9.89346e-02,2.80591e-01,2.95552e-01,2.74283e-01,-2.59597e-01,1.20733e-01,9.45136e-02,2.60744e-01,2.69208e-01,-2.17675e-02,1.07142e-01,-5.95097e-02,2.31875e-02,2.48054e-01,1.58014e-01,-8.03322e-02,3.97415e-01,-2.67115e-01,4.46832e-01,1.44955e-01,2.56673e-02,
2.04743e-01,1.52485e-01,4.33608e-02,-4.05573e-01,2.29673e-01,2.84745e-02,-2.17901e-01,5.08688e-01,-9.43687e-02,-3.42646e-01,-8.16067e-02,-1.24292e-01,-1.84310e-02,2.11168e-01,2.27952e-01,1.73064e-01,-3.37888e-01,-1.22362e-02,1.43536e-01,-3.19062e-01,-6.34044e-02,-1.05228e-01,-2.62750e-01,4.89024e-01,-5.21842e-03,
-2.93466e-01,2.23525e-01,3.38513e-01,9.75418e-03,9.41445e-03,-1.96445e-01,3.30520e-01,2.22122e-01,-3.31000e-01,-2.52922e-02,-7.99220e-02,7.99242e-02,-2.48384e-01,-3.64734e-01,2.89316e-02,-8.75708e-03,2.84169e-01,7.81088e-01,4.89210e-01,-1.60493e-01,-2.72542e-01,-4.09561e-01,2.00755e-01,1.75195e-01,-1.26313e-01,
-4.86439e-02,-1.53235e-01,1.01404e-01,1.86960e-01,3.02805e-01,1.45096e-01,1.98510e-01,-2.38014e-02,-6.42438e-02,1.73583e-01,2.50720e-01,-7.78762e-02,4.62261e-02,-7.99985e-02,-2.87748e-01,-1.01628e-01,8.56862e-02,1.35091e-01,-1.34567e-01,5.91248e-02,-1.91826e-01,-1.61775e-01,-7.12106e-02,-1.88086e-01,-1.77934e-01,
2.65622e-01,-8.12543e-02,3.01769e-01,-2.47542e-01,-3.19906e-01,-2.53285e-01,1.07598e-01,2.86721e-02,3.00541e-01,-9.99446e-02,4.05672e-02,1.31059e-02,5.78125e-02,-3.62899e-01,-1.34938e-01,-2.66605e-01,2.28630e-02,-9.88071e-02,-6.36511e-02,1.88487e-01,3.05189e-01,1.61509e-01,1.51661e-01,-1.32492e-01,-2.21386e-01,
-1.38073e-01,-2.12868e-01,1.62814e-01,1.68060e-01,1.46874e-02,-8.48992e-02,-2.33953e-01,-5.74927e-02,1.06210e-01,1.62590e-01,2.10350e-01,2.46557e-01,2.20647e-02,-1.90539e-01,9.82373e-02,-6.66329e-02,-2.72344e-01,-6.63790e-02,-6.88177e-02,2.82897e-02,-3.39461e-02,2.76703e-01,2.89263e-01,-1.07672e-01,-2.66631e-01,
-6.45586e-01,-7.49531e-03,1.37274e-01,-1.98730e-01,-3.30491e-01,1.58757e-01,1.59523e-01,2.70448e-01,3.19048e-01,-1.46679e-02,7.76986e-02,9.35308e-02,-1.54920e-01,-2.11865e-01,-1.04398e-01,-2.88378e-01,1.78357e-01,-2.26319e-01,-5.29942e-02,2.26177e-01,-9.69547e-02,1.50370e-03,2.79302e-01,1.87300e-01,-2.36676e-01,
1.12646e-01,-6.36451e-01,-2.95392e-02,3.17897e-01,2.03767e-01,3.43336e-01,-1.38603e-01,3.21498e-01,-2.55585e-01,-1.91412e-02,3.50076e-01,2.15221e-01,2.09597e-01,3.34856e-01,2.38760e-02,2.33244e-01,2.85943e-02,3.01648e-01,-3.97167e-01,-1.46537e-01,9.33413e-02,-9.39822e-02,1.73638e-02,-2.22825e-01,-2.29492e-01,
-5.70766e-02,-5.29413e-01,3.41174e-01,-4.88131e-02,-2.58131e-01,2.75198e-01,1.21025e-01,-1.04356e-02,-2.70819e-01,-4.73797e-02,-2.61431e-01,1.96438e-01,1.23991e-01,-4.79935e-01,3.73254e-01,-1.70036e-02,-5.71533e-01,1.12993e-01,5.95223e-01,-2.02464e-02,-5.82934e-01,9.11630e-02,-4.05749e-02,5.24984e-01,-5.46225e-02,
8.98310e-01,-3.41569e-01,-3.77978e-01,1.87428e-01,9.63604e-02,-3.89919e-01,2.06238e-02,-2.59496e-04,1.07647e-01,2.12268e-01,3.22840e-01,2.99492e-02,8.68016e-02,2.64877e-01,-2.24320e-01,2.05908e-01,-8.38431e-01,1.39029e-01,1.34984e-01,-2.55643e-01,2.47674e-01,-2.64636e-01,-2.09546e-01,-1.04971e-01,1.74338e-01,
2.11007e-01,
-1.08638e-01,
-2.19338e-01,
2.36302e-01,
2.18172e-01,
-5.05498e-02,
-2.55648e-01,
7.36688e-02,
-2.76847e-01,
6.84364e-02,
-1.91452e-01,
-1.02470e-02,
-2.05725e-01,
1.37977e-01,
2.63361e-01,
-2.05993e-01,
-1.39046e-01,
8.09139e-02,
2.87386e-01,
-1.92398e-01,
1.83420e-01,
1.35027e-01,
2.12990e-01,
-2.48212e-01,
1.76769e-01,
-1.09323e-01,2.48463e-02,3.96367e-01,4.44363e-01,-2.10190e-01,-5.09481e-02,3.34771e-01,2.10853e-01,2.14814e-01,-9.68033e-01,4.03622e-01,1.01916e-01,1.09060e-01,3.92838e-01,-8.81906e-02,1.65240e-01,1.02250e-01,-3.31575e-01,2.40265e-01,-2.14636e-01,-7.82822e-02,-1.73575e-01,-1.62288e-01,4.66789e-01,-1.71002e-01,
-1.50924e-01,-9.10894e-02,2.59995e-01,-1.44367e-01,-2.25764e-01,-1.10881e-01,-2.56945e-01,3.68595e-01,3.37110e-01,3.52783e-01,2.93029e-01,-3.03858e-01,-1.11890e-01,-1.27179e-01,3.76366e-01,3.66516e-02,5.35436e-02,1.30857e-01,2.34614e-01,-7.73388e-03,-1.15248e-01,1.21968e-01,2.60994e-01,-8.43968e-02,-1.69632e-01,
-1.58093e-01,-8.03818e-01,-1.02570e-01,-3.35415e-01,5.93436e-03,-9.68310e-02,-1.71597e-01,5.40046e-02,-2.69620e-01,-9.19382e-02,9.28741e-02,7.59066e-02,-1.83515e-01,3.12185e-02,-3.50394e-02,-1.85191e-02,1.11919e-01,1.30208e-02,5.43940e-02,7.07451e-02,2.72102e-01,1.79717e-01,-3.28788e-01,6.64817e-02,-2.41287e-03,
6.43130e-02,-2.06826e-01,3.83030e-01,2.07813e-01,-2.30414e-01,2.39428e-01,1.00518e-01,6.11072e-01,-7.51777e-01,5.27725e-01,3.61201e-01,-1.47508e-01,2.37852e-01,-1.69622e-01,-1.68630e-01,2.40084e-01,-3.54738e-01,2.23409e-01,1.54939e-01,7.30942e-02,-1.85431e-01,3.80399e-01,2.01197e-01,-4.93768e-02,-2.92328e-01,
2.16882e-01,-1.14661e-01,-3.02817e-01,3.17070e-01,1.48188e-01,2.52401e-01,1.73706e-01,-2.00854e-01,4.46119e-02,-3.54426e-01,-9.51743e-02,-4.36627e-03,-1.15264e-01,1.85634e-01,-1.62672e-01,2.24150e-01,-2.10149e-01,-1.83943e-01,1.21692e-01,-6.29693e-02,2.42786e-01,8.01074e-02,-2.69837e-03,7.19644e-02,3.44067e-01,
8.01170e-02,-1.19272e-01,-9.02253e-02,9.08019e-02,4.55882e-01,8.88559e-02,1.93435e-01,-2.48782e-02,1.33586e-01,2.96440e-01,-4.02846e-01,-2.64738e-01,9.64290e-02,-1.06584e-01,-3.32635e-01,1.63250e-02,5.77523e-02,2.54540e-01,1.55260e-01,1.94737e-01,8.84105e-02,3.38606e-02,-1.10241e-01,-1.52080e-01,2.01253e-01,
2.41115e-01,2.01635e-02,2.01845e-01,-1.24677e-01,-3.89482e-01,7.06244e-02,-2.47192e-01,-1.59587e-01,2.64476e-01,-3.12190e-01,1.52315e-01,-1.34127e-01,2.82864e-01,-4.15096e-01,2.85533e-01,-1.83853e-01,-9.13055e-03,1.54560e-01,-2.22354e-01,-1.43146e-01,1.75564e-01,-3.49447e-01,-3.04523e-01,-2.11847e-01,2.08184e-01,
-7.54977e-02,-3.67767e-01,6.95953e-02,2.09172e-01,6.10116e-02,7.70702e-01,3.12719e-01,-4.01622e-01,7.84520e-04,-9.70708e-01,-5.96052e-01,2.19744e-02,-1.58157e-01,2.33068e-01,-3.91156e-01,-3.94873e-01,-2.69660e-01,-8.43948e-02,-7.13207e-02,2.21440e-01,-2.29144e-02,-3.78782e-02,-2.16425e-01,2.16305e-01,1.27550e-01,
-3.31069e-01,-2.10094e+00,-6.57124e-01,3.24787e-02,-5.81819e-03,-1.90608e+00,-3.29852e-01,1.92956e-01,-4.18582e-01,1.76090e-01,3.19419e-01,-1.20590e-01,8.63180e-03,1.97174e-02,-1.75542e-01,1.13352e-01,6.14121e-01,-2.84619e-01,-6.90537e-02,-3.16516e-02,4.33831e-01,-3.53747e-02,1.05233e-01,2.71677e-01,-7.27202e-02,
-3.04841e-01,1.20505e-01,9.15751e-02,1.48588e-01,4.43418e-01,-1.57339e+00,4.20789e-02,4.19206e-01,-4.88182e-01,-8.67501e-02,-5.53293e-01,6.13014e-03,-1.01376e-01,9.28799e-02,1.40683e-02,-1.03889e-01,2.89400e-01,2.99917e-01,-1.35363e-01,3.07025e-01,-3.00173e-02,3.95219e-02,2.33629e-02,1.00206e+00,-2.90631e-01,
8.31171e-02,9.15267e-02,-1.15593e-02,4.84117e-02,-4.06493e-01,5.58444e-01,6.70480e-02,-1.82188e-01,8.99210e-02,-1.65353e+00,2.20830e-01,-2.83355e-01,-4.72983e-02,1.12067e-02,3.54626e-01,-5.04906e-02,-1.58680e-01,1.68535e-01,-3.05494e-02,5.10492e-02,8.65538e-02,4.91621e-02,3.31240e-01,-1.57542e-01,2.10087e-01,
-7.89432e-02,1.78255e-01,1.46001e-01,2.85240e-01,-1.46145e-01,-4.98422e-02,2.34356e-01,1.64988e-01,-3.81286e-02,-4.68386e-01,-1.22041e-01,2.99523e-01,3.16026e-01,-1.94760e-01,2.74234e-01,-1.61575e-01,4.36883e-02,3.03032e-01,-2.65279e-01,2.06830e-01,6.29330e-02,-2.47136e-01,4.22207e-02,-1.66622e-02,-3.16142e-01,
3.41668e-01,-3.68045e-01,-3.81110e-01,1.49884e-01,-2.37350e-01,-1.89816e-01,-2.85084e-01,-2.51913e-01,-3.28917e-01,5.24671e-01,4.53673e-01,4.86668e-02,1.63998e-01,3.77055e-01,-2.82234e-02,3.32363e-01,-2.84693e-01,-1.94146e-01,-5.15924e-02,2.71594e-01,1.76642e-01,5.73741e-02,3.27583e-01,3.82749e-01,2.68485e-01,
-2.33055e-01,1.50785e-01,1.40893e-02,9.25012e-03,1.00249e-01,-9.93522e-02,-2.36900e-01,2.27484e-01,-3.50609e-01,3.20393e-01,1.87232e-01,-1.53361e-01,-3.01675e-02,-1.24467e-01,1.16413e-01,2.12713e-01,2.84935e-01,1.25213e-01,1.38864e-01,7.37247e-02,2.49305e-01,2.23445e-01,-1.03819e-01,-1.63840e-01,-1.02567e-01,
-2.57189e-01,7.28940e-05,2.12552e-01,2.52950e-01,3.54059e-03,-1.59820e+00,-1.03148e-01,-4.99172e-01,3.00168e-01,-6.87031e-01,-4.52726e-02,-9.26742e-03,-4.10137e-03,2.42323e-01,2.49543e-01,3.33493e-02,7.48105e-03,-2.92686e-01,7.08519e-02,5.16117e-04,-3.24957e-01,-1.17330e-01,1.04127e-01,-2.60962e-01,-1.18556e-01,
2.34184e-01,-1.10462e+00,-4.54168e-01,2.70857e-01,-6.85179e-02,-1.53700e-01,2.96023e-01,-1.91755e-02,-4.95456e-02,6.36560e-01,1.83140e-01,1.70017e-01,1.71888e-01,1.04599e-01,1.77750e-01,-3.49456e-02,-1.26109e-01,-1.04572e-01,-4.81317e-02,-1.14238e-01,-4.85868e-02,5.33642e-03,-1.18931e-01,-5.73812e-01,-1.95173e-01,
-2.32322e-02,-1.54404e-01,4.73730e-01,9.94626e-02,4.40808e-01,-4.46693e-01,-2.04511e-01,-8.29866e-02,-3.63527e-02,-5.56746e-01,-5.09615e-01,3.47701e-01,3.14613e-01,2.00575e-01,1.60851e-03,-2.95704e-01,3.61651e-03,-4.92527e-02,1.35038e-01,1.40227e-01,-2.80871e-01,9.39297e-03,5.75894e-02,1.37445e-01,2.62871e-02,
6.19442e-02,-6.30428e-02,-1.36715e+00,-2.98163e-02,3.63511e-01,-3.44922e-01,-2.10850e-01,5.54209e-01,-8.97907e-01,5.18319e-01,3.53115e-01,-5.60337e-01,2.42174e-01,3.65683e-01,2.85672e-01,-1.63795e-01,2.22437e-01,-3.55047e-01,-1.30537e-01,-7.95757e-02,1.10238e-01,7.45144e-02,-3.75336e-01,6.84097e-02,-1.13588e-01,
-1.90898e-02,-1.32221e+00,-4.06947e-01,-1.94465e-01,-1.13907e-01,7.35324e-01,-1.17434e-01,-5.04916e-01,8.41677e-02,1.31207e+00,6.14885e-02,3.19938e-01,2.30998e-01,-8.28197e-01,-4.68343e-01,1.84019e-01,-2.40233e-01,5.42506e-01,-7.42478e-02,8.46648e-02,-2.31782e-01,-2.02451e-01,-3.31124e-01,-6.57705e-01,-1.49961e-01,
9.82273e-02,-5.18664e-01,2.48880e-02,-5.49455e-02,-1.75510e-01,-5.06064e-01,1.27244e-01,1.65133e-02,-7.10248e-02,4.36772e-01,-6.32509e-02,1.54533e-01,2.80973e-01,-8.32007e-02,1.33003e-01,-6.19717e-02,3.40052e-01,1.05104e-01,3.28264e-01,1.27065e-01,4.32551e-01,3.70680e-01,9.33459e-02,-1.76535e-02,-7.10075e-02,
7.61459e-02,-1.68853e-01,1.77067e-01,1.79930e-01,-4.92142e-02,-3.25122e-01,2.32601e-02,1.84363e-01,3.41962e-01,-3.45038e-01,-1.22969e-02,5.65851e-02,-2.10180e-01,-1.94759e-01,1.02415e-01,-2.13369e-02,4.69383e-02,2.74045e-01,-1.12391e-01,-1.89729e-02,2.89230e-01,2.88415e-01,-2.47274e-01,-5.45307e-02,-1.52594e-01,
-1.58557e-02,2.26799e-01,8.07671e-02,1.27491e-01,-9.37947e-02,6.23272e-01,-4.56370e-02,-3.35113e-01,1.03251e-01,-1.41278e+00,8.94733e-03,-5.74245e-02,1.88716e-01,3.23741e-01,-3.52027e-02,-5.94649e-02,-1.83640e-01,-3.16520e-01,1.66808e-01,2.98886e-01,-2.27896e-01,-2.67896e-01,3.09156e-02,6.94800e-02,-5.56187e-02,
-1.66726e-01,9.47897e-02,3.00654e-01,-9.18220e-02,-9.18201e-02,-6.77582e-02,-2.43816e-01,-2.09100e-01,-1.20788e-01,-2.07310e-01,1.69943e-02,-2.19230e-01,1.74428e-01,-1.82582e-02,1.26027e-01,-2.82923e-01,-1.85244e-01,1.21500e-01,-2.16893e-01,-9.69628e-02,3.13458e-01,-3.68188e-01,-3.55490e-01,-3.44306e-01,2.18704e-01,
-4.53917e-02,-2.13447e-01,2.21806e-01,-3.68387e-02,1.13833e-01,3.34221e-01,3.30536e-01,4.23643e-02,3.46359e-01,-2.31003e-01,-1.27817e-01,-1.52428e-01,-3.37337e-01,-3.13040e-01,-6.33771e-02,-2.36326e-01,-1.59377e-01,5.17422e-02,2.53214e-01,-1.92855e-01,-2.31743e-01,2.78729e-01,-1.56694e-01,-1.56458e-01,-8.39275e-02,
-2.28559e-01,3.42555e-01,-1.81864e-01,-1.93255e-01,-6.25852e-02,-3.19133e-01,1.19967e-02,-3.00602e-01,2.02360e-01,2.18291e-01,-1.89407e-01,-3.44593e-01,-9.12386e-02,-1.32935e-02,2.44607e-01,-2.18452e-01,-3.18227e-01,-2.44682e-01,1.64681e-01,1.67379e-02,1.41697e-01,9.86101e-02,2.71731e-01,-2.54388e-01,2.84161e-01,
-6.46513e-02,
7.95041e-02,
2.07212e-01,
-2.36279e-01,
2.37940e-01,
2.62271e-01,
2.68556e-01,
1.30855e-01,
2.95556e-02,
-3.32827e-03,
-2.15062e-01,
8.47186e-02,
-1.87231e-01,
1.65546e-01,
6.96533e-03,
2.76400e-02,
-2.06013e-01,
1.69077e-01,
2.17988e-01,
-1.94285e-01,
-3.38813e-01,
2.86627e-01,
7.91788e-02,
-3.16612e-01,
-2.55055e-01,
1.71152e-01,-7.65152e-02,1.66660e-01,3.18321e-01,1.69705e-01,-4.45323e-02,-2.52564e-01,4.71853e-02,1.23806e+00,-1.22949e-01,1.06713e+00,-2.12050e-01,2.74676e-01,-2.51375e-01,-4.14226e-03,-9.59905e-03,9.42456e-02,-1.65265e+00,7.29399e-01,-1.88308e-02,3.07383e-01,3.56297e-01,-4.76883e-02,-2.33995e-01,-3.79196e-01,
1.70941e-01,1.79126e-01,-2.35409e-01,-1.55835e-01,-2.73770e-01,-2.94925e-01,1.08246e-01,-2.07624e-02,1.35941e-01,-2.99026e-01,-2.97100e-01,-1.91107e-01,-2.02293e-01,-2.06231e-01,-6.55808e-02,3.27577e-01,2.54110e-01,-1.88410e-02,1.53114e-01,1.15873e-01,-2.77997e-01,2.08870e-01,-2.81971e-01,3.08658e-01,-2.13136e-01,
2.03003e-02,4.33098e-02,1.96154e-01,-1.57926e-01,-1.26683e-01,6.58095e-02,1.56161e-01,-2.26333e-01,-3.48202e-01,-2.49421e-02,-3.68913e-02,9.27707e-02,3.78404e-01,-4.36295e-02,1.04894e-01,-1.74450e-01,-4.85870e-03,-1.83104e-01,-1.68687e-01,-3.48829e-01,-7.52487e-02,1.19868e-01,1.46346e-02,-4.14028e-02,2.26888e-01,
6.51117e-02,5.54235e-02,1.35103e-01,1.88236e-01,-1.90114e-01,1.74866e-01,2.16124e-01,-5.17627e-01,-5.36800e-01,-2.06956e-01,-1.20371e-03,7.42105e-02,-1.11102e-01,1.03713e-01,7.76482e-02,-3.95340e-02,1.88171e-01,4.57881e-01,-1.30325e-01,2.13269e-01,-3.55612e-02,6.69521e-02,1.30879e-01,2.18924e-01,-3.01004e-01,
2.11979e-02,2.38081e-01,3.85542e-02,-2.80451e-02,9.53045e-02,-3.06281e-01,1.49646e-01,-1.28842e-01,-4.95410e-02,-1.54828e-01,-3.04872e-01,1.18226e-01,6.73335e-02,-2.10439e-01,-1.82733e-01,-1.18634e-01,1.02514e-01,2.94361e-02,2.17678e-01,-1.23784e-01,3.07079e-01,-3.28751e-01,1.85488e-01,2.91355e-02,-1.96149e-01,
-2.54119e-01,-9.59980e-02,-8.67381e-02,2.13459e-01,2.69035e-01,2.18926e-02,1.06177e-01,6.23176e-02,2.80478e-01,-5.73446e-01,-8.76162e-02,1.85954e-01,2.49771e-01,-2.12878e-02,2.01196e-01,7.52741e-02,-5.04198e-02,-6.70026e-01,-1.19912e-02,2.54303e-01,-1.85526e-01,3.40387e-01,3.58669e-01,1.46070e-01,1.41555e-01,
-4.41612e-02,-1.07971e-01,6.11041e-02,1.47943e-01,-8.82887e-02,2.30353e-01,-1.58756e-01,-1.38679e-01,-8.76855e-02,-2.39047e-01,1.26705e-01,-9.35684e-02,-2.08261e-01,-1.55860e-01,2.41017e-01,2.50399e-01,1.57094e-02,1.93965e-01,5.51013e-02,-2.80871e-01,3.75521e-02,2.87438e-03,5.50074e-02,1.50707e-02,2.70173e-01,
1.45347e-01,9.94931e-02,1.11659e-01,-5.98208e-02,2.99940e-01,7.87912e-02,1.53234e-01,-4.09449e-02,3.44932e-01,5.37232e-01,3.42542e-01,-1.38462e-02,-1.72038e-01,3.11069e-01,1.77378e-01,4.63888e-02,5.81597e-02,-1.68677e-01,1.75911e-01,1.59191e-01,-6.19180e-02,-2.58937e-01,-3.08616e-01,8.82380e-02,-3.50976e-01,
6.70743e-02,-1.05147e-01,-1.45975e-01,1.29391e-01,2.38779e-01,-3.27074e-01,2.06337e-01,-6.43515e-02,-1.57024e-01,-7.62367e-01,-8.89579e-02,9.85742e-02,-4.86386e-02,9.79502e-02,-5.47814e-01,-2.60590e-01,6.92721e-03,-2.24221e-01,-1.28164e-01,2.16428e-02,-1.67981e-01,2.24585e-01,-2.48449e-01,2.48233e-01,2.86795e-01,
5.98341e-02,2.12502e-01,2.98976e-01,5.71452e-02,3.66624e-01,6.08064e-02,-1.68013e-01,1.01208e-01,3.67278e-01,-2.38799e-01,3.77027e-02,8.38327e-02,-1.25879e-01,8.43510e-02,-2.42085e-02,6.24127e-02,9.11775e-02,-6.47065e-01,3.72659e-01,-1.84600e-01,1.89376e-01,2.57249e-01,-2.27111e-01,1.37518e-01,-3.81081e-01,
-1.17311e-01,-4.08874e-02,1.59963e-01,8.57002e-01,1.52828e-01,-2.65826e-01,3.00824e-01,1.33443e-02,-3.13759e-01,-9.00847e-02,-7.25852e-01,1.03695e-01,-2.34163e-02,-5.51885e-01,-2.46491e-01,1.58243e-01,6.05505e-02,-1.05786e+00,1.52665e-01,-3.79575e-01,2.89549e-01,2.05776e-01,1.40336e-01,-1.28602e-01,-1.45108e-01,
-2.77416e-01,2.24279e-01,-1.05523e-01,7.72389e-01,-1.10681e-01,-1.06786e-01,2.31915e-01,2.22278e-01,-5.77071e-01,-2.16747e-01,-3.82520e-01,7.20528e-02,-5.18067e-02,1.39686e-01,1.09159e-01,7.06478e-02,-1.04522e-02,7.19137e-01,-2.43261e-01,-1.28444e-01,2.66388e-01,1.57530e-01,-1.40963e-01,2.97115e-01,-1.51441e-01,
-1.74634e-01,-1.99977e-01,-6.12400e-02,2.55044e-01,-1.98826e-01,2.07229e-01,1.42936e-01,1.02429e-01,-3.13059e-01,2.62728e-01,-5.94284e-01,2.77839e-01,-1.73055e-01,4.32198e-02,-1.95905e-01,-1.51162e-01,1.47081e-01,6.40991e-01,-4.42933e-01,-1.37357e-01,2.53733e-01,1.54861e-01,-1.05382e-01,-2.75331e-01,-1.19602e-01,
3.91564e-02,3.30118e-01,-1.92642e-01,1.45136e-01,-8.63081e-03,-7.34873e-02,-1.92915e-01,-2.93201e-01,1.48671e-01,-2.33878e-02,-2.27791e-01,-2.36106e-01,-1.03708e-01,-2.08034e-01,-3.12213e-01,9.16121e-02,1.45604e-01,3.00785e-01,2.95843e-02,-1.21274e-02,1.86671e-01,-1.57255e-01,9.23821e-02,8.84716e-02,2.19568e-01,
-7.57050e-02,1.22294e-01,-1.02945e-01,-5.28816e-01,-1.13916e-01,3.29828e-02,8.35730e-02,3.04138e-01,-6.54406e-01,1.93297e-01,-7.45069e-01,5.89700e-02,1.87304e-01,3.08793e-01,1.13921e-01,7.99584e-02,-2.57274e-01,8.40925e-01,-3.22219e-01,1.30885e-01,3.01245e-01,-1.52498e-01,-9.95551e-02,-9.66398e-02,-1.54292e-01,
-2.06295e-01,3.68017e-01,2.14896e-02,1.51843e-01,-1.45682e-01,-1.51878e-02,8.26417e-02,2.15084e-02,-2.86262e-01,1.38586e-01,-3.38337e-01,-3.23834e-02,-2.17287e-02,-1.03438e-01,-8.18024e-02,1.11482e-02,4.59084e-01,1.04150e+00,-1.02764e-01,-2.17915e-01,2.23937e-01,6.77321e-02,-3.21827e-01,3.15946e-01,6.40299e-02,
-2.18957e-01,2.00677e-01,-2.13606e-01,-2.61642e-01,9.94382e-02,5.86213e-02,-2.44545e-01,-1.12126e-01,2.62432e-01,1.52054e-01,4.60780e-02,1.63583e-01,3.08318e-01,-1.99729e-01,5.99811e-01,-7.37422e-02,-1.92597e-01,-2.24971e-01,-2.55486e-01,1.08142e-01,-1.45958e-01,-1.40377e-01,-3.11279e-02,-2.34546e-01,-2.88635e-01,
-3.18482e-01,-2.35707e-01,-2.56127e-01,-9.59071e-02,2.82123e-01,-2.76370e-01,-1.45207e-01,-1.72625e-01,-2.18583e-01,1.90477e-01,1.57809e-01,4.20511e-03,-2.22734e-01,1.41841e-02,3.45253e-01,2.00091e-01,-2.48890e-01,-1.85508e-01,1.39662e-01,1.90694e-01,-2.82181e-01,-1.42198e-01,-9.93560e-02,-3.11652e-01,-1.27663e-01,
-2.21276e-01,-9.00547e-03,3.12697e-01,1.73651e-01,-1.14205e-01,4.41773e-02,-2.30168e-01,1.64796e-01,2.91067e-01,3.29459e-01,2.03656e-01,-1.15492e-01,-1.30737e-01,-1.42720e-01,8.14102e-02,-9.39542e-02,-2.15337e-01,-2.31339e-01,1.12478e-01,2.23133e-01,-2.50327e-01,2.48961e-01,-7.33880e-02,5.97405e-02,-2.04385e-02,
2.03060e-01,5.34135e-02,-6.88898e-02,-3.23744e-01,3.96733e-01,3.43732e-01,6.45870e-02,2.50721e-01,4.34889e-01,2.67386e-03,5.30699e-01,3.31658e-02,2.66797e-01,2.80796e-01,-2.50368e-01,1.84719e-02,8.48416e-02,-3.63278e-01,4.57821e-01,9.68219e-02,-1.99869e-01,2.73993e-01,-1.06535e-01,3.04628e-01,-2.53020e-01,
-3.02720e-01,3.22000e-01,-2.52486e-01,-3.27047e-01,-4.38583e-02,1.96131e-01,-1.36402e-01,-9.26788e-02,-1.10365e-01,-3.06403e-02,1.62954e-01,7.84308e-02,-2.27128e-01,-7.00921e-03,2.36965e-01,1.41749e-03,-1.34005e-01,1.67527e-01,1.85596e-01,-3.09790e-01,-2.27831e-01,5.12481e-02,1.48558e-01,-2.21972e-01,9.90857e-02,
-1.80514e-01,1.31756e-01,-1.53878e-01,2.89716e-01,-2.67666e-01,4.49446e-02,-3.93753e-01,-2.82726e-02,-1.31857e-01,-2.52441e-01,1.36670e-01,-1.65652e-01,-2.78334e-01,-2.06997e-01,1.92083e-01,-2.65537e-01,-3.09738e-01,-2.89537e-01,4.14327e-02,8.34339e-02,-1.99318e-01,-6.29479e-02,1.84133e-01,-1.53951e-01,-3.10849e-01,
-6.90020e-01,7.31687e-02,-2.08964e-01,-7.36784e-02,-8.55154e-02,-2.42173e-01,1.39743e-01,3.29763e-01,2.08276e-01,3.32460e-01,1.39696e-01,-1.73420e-01,-9.16886e-02,-2.13810e-01,6.19562e-01,-7.01527e-01,2.54921e-02,-1.06847e+00,1.12685e-01,4.98066e-01,-1.21459e-01,-1.90148e-01,1.43057e-01,-2.52125e-03,7.91308e-03,
-1.03779e-01,1.53442e-01,2.74673e-03,9.89811e-02,-1.97576e-01,-1.62387e-02,-4.56847e-02,8.28987e-03,4.07908e-02,-2.15296e-01,1.80104e-01,-3.11876e-02,1.69529e-01,5.08773e-02,-3.31010e-01,-2.37949e-02,-3.28840e-01,2.58534e-01,5.68626e-02,-1.22024e-01,2.04740e-01,-2.24177e-01,3.42983e-01,3.01507e-01,3.27205e-02,
1.67265e-01,2.59216e-01,-1.10269e-01,-1.21145e-01,1.35374e-01,2.87842e-01,-2.20624e-01,-1.79967e-02,4.95051e-02,4.92142e-02,1.15069e-01,-1.32596e-01,2.18753e-01,-6.57250e-02,-4.05643e-03,3.19290e-01,-2.27165e-01,4.23630e-01,5.30476e-02,-2.06282e-01,-5.30316e-02,-5.77635e-02,-1.64032e-01,-1.82009e-01,-7.70016e-02,
-5.82852e-02,
-2.65632e-01,
1.00467e-01,
2.17444e-01,
-7.30902e-02,
2.68606e-02,
-6.81086e-02,
9.03130e-02,
1.74390e-01,
-1.63432e-01,
1.66679e-02,
2.56274e-01,
2.17737e-01,
-2.71474e-01,
3.76230e-01,
8.50085e-02,
1.85693e-01,
-2.01488e-01,
-1.24282e-01,
3.62014e-01,
-2.65406e-01,
1.52727e-01,
1.78906e-01,
-2.96154e-01,
-1.40986e-01,
-3.68396e-01,-3.42421e-01,-2.31485e-01,-1.46553e-02,1.08574e-01,1.71650e-01,-3.30604e-01,-3.34664e-02,2.87083e-01,2.94738e-01,2.24942e-01,1.50290e-01,-3.01228e-01,3.31424e-01,-1.28321e-01,6.46187e-02,4.00963e-01,-1.61233e-01,-3.78314e-02,3.59883e-01,4.44486e-01,1.21516e+00,6.80991e-02,2.56828e-01,-1.70128e-01,
-2.75353e-01,3.09745e-01,6.57827e-02,-1.58376e-01,9.75953e-02,1.54479e-01,-1.03526e-01,-1.79586e-01,-6.00859e-02,1.71842e-01,-1.83531e-01,-2.17542e-01,-1.05582e-01,6.77149e-02,-4.13443e-01,-2.10422e-01,-2.98573e-01,-1.02897e-01,-4.10486e-01,-2.72939e-01,-5.20279e-02,9.74321e-01,-6.24847e-02,-1.34903e-01,1.11897e-01,
-3.50350e-01,3.34319e-01,1.62466e-01,-2.36936e-01,7.20517e-03,4.22203e-01,-6.85927e-02,2.90115e-01,2.79393e-01,3.18528e-01,-1.23778e-01,-3.19646e-02,-2.25974e-01,-3.63685e-01,-1.53335e-01,1.17122e-01,-2.02868e-01,-4.09318e-02,-2.42809e-01,-1.03365e-01,1.60785e-01,1.47258e+00,-1.32539e-01,-5.63227e-02,5.46260e-02,
-4.20664e-01,2.96131e-01,4.29257e-01,-4.42142e-02,-4.17506e-01,6.92198e-02,1.74832e-01,2.80234e-01,-2.27123e-01,9.67844e-02,1.33071e-01,-1.22167e-01,-1.25455e-01,3.63561e-01,1.76383e-02,-1.94614e-01,2.58462e-01,-1.88758e-01,-1.41608e-01,5.67518e-01,-6.12352e-02,-1.37738e-01,-5.05754e-03,3.55478e-01,-2.16241e-01,
-1.71034e-01,-2.39187e-01,3.87729e-01,3.81209e-01,2.34388e-01,2.27316e-01,-3.32169e-01,-1.44182e-01,2.59790e-01,5.66975e-01,-1.56701e-01,-1.67177e-03,8.51351e-03,1.37524e-01,2.07354e-01,8.47727e-02,-2.46121e-01,1.08094e-01,1.85619e-01,1.85766e-01,9.75111e-02,-2.77925e-01,8.45354e-02,-1.43896e-01,1.37030e-01,
-4.25635e-01,
6.16020e-01,
-9.40380e-03,
-5.68627e-01,
-4.86268e-01,
