// Neural Network File Format by Kyle Julian, Stanford 2016
6,5,5,25,
5,25,25,25,25,25,5,
0,
-56000.000000,-56000.000000,-3.141593,200.000000,200.000000
56000.000000,56000.000000,3.141593,200.000000,200.000000
-278.628049,0.000000,0.000000,200.000000,200.000000,-0.242819
112000.000000,112000.000000,6.283185,1.000000,1.000000,17.479225
-1.20653e+00,8.35098e-01,3.63503e-01,-3.78205e-01,8.68219e-03,
-3.13844e-01,-2.72311e+00,-2.24947e-01,2.79519e-02,2.16591e-01,
6.23266e-01,-7.57988e-01,4.77578e-01,3.47951e-01,1.54465e-01,
-8.57282e-01,6.48823e-01,-6.66504e-01,1.01371e-01,3.91016e-01,
-8.50288e-01,-2.99150e+00,6.42852e-01,2.50301e-01,-1.56783e-01,
-3.48814e-01,8.25160e-01,6.25979e-01,-2.52693e-01,-2.56168e-01,
1.81139e-01,8.79991e-01,-3.13127e-01,-2.89555e-01,2.42102e-01,
1.83627e+00,1.14955e+00,2.55262e-01,-7.76611e-02,8.12553e-02,
-1.04135e+00,2.68425e+00,-6.12719e-02,6.13887e-02,7.26562e-02,
-1.24735e+00,-6.66510e-01,-7.19650e-01,1.91328e-01,2.57672e-01,
2.72126e-02,-2.37247e-01,-1.70874e-01,-2.68308e-01,-1.73790e-01,
9.58508e-02,-1.97501e-01,3.39551e-01,3.28956e-01,1.35614e-01,
2.91072e-01,-1.96774e+00,-4.95981e-01,2.28282e-01,2.24332e-01,
2.47570e+00,-5.21131e-01,-8.75684e-02,3.56948e-01,-1.80179e-02,
-1.81513e+00,1.76376e+00,-4.57288e-02,2.17941e-01,2.52299e-01,
2.96899e-01,-2.22507e+00,1.66361e-01,-3.60590e-01,-4.35399e-01,
-2.77379e+00,1.03236e+00,6.32660e-03,6.71916e-02,-4.15115e-01,
1.30395e+00,2.54012e-01,-1.68146e-01,-3.18730e-01,-3.29775e-01,
1.70392e+00,9.92341e-01,-3.81832e-01,2.55566e-01,2.75615e-01,
3.53969e-01,8.75722e-02,6.68761e-02,2.98745e-01,-9.04855e-03,
1.13380e+00,1.14282e+00,6.73123e-01,-3.51267e-01,4.15522e-01,
-2.08035e-01,2.29967e-01,2.46504e-01,1.51758e-01,4.20004e-01,
2.18421e+00,-1.47282e+00,3.07439e-01,4.00410e-01,2.08784e-01,
2.46849e+00,1.15479e+00,-2.98175e-02,2.69978e-01,2.56457e-01,
2.08452e-01,-1.17789e+00,3.17482e-01,-3.23633e-01,7.59935e-02,
-1.96490e-02,
1.69990e-01,
2.33658e-01,
-1.29430e-02,
7.62993e-02,
4.04925e-02,
2.12045e-01,
1.52361e-01,
2.22411e-01,
1.74961e-01,
-2.76136e-01,
-3.38502e-01,
2.81176e-01,
-8.25809e-03,
3.29798e-01,
1.32311e-01,
1.54058e-02,
2.49453e-03,
1.86316e-01,
-2.75257e-01,
7.29221e-02,
2.06937e-01,
-7.06089e-02,
-2.78999e-03,
2.13617e-01,
-5.58056e-01,2.81188e-01,4.22080e-01,-1.26492e-01,2.36398e-02,3.18256e-01,-1.10902e-01,-2.53312e-01,-2.06018e-01,2.84524e-01,-3.08492e-01,-2.41492e-01,3.89407e-01,-2.24840e-02,3.34913e-01,5.73560e-01,1.38596e+00,5.43442e-03,-2.83374e-01,2.69383e-01,3.15632e-01,3.02414e-02,-8.81725e-01,-2.40680e-01,8.37889e-02,
1.23174e+00,-1.06541e-01,2.27878e-01,1.48911e-01,-1.73597e+00,-2.31007e-01,-3.66807e-01,4.15347e-01,-2.73614e-01,2.19375e-02,-1.89203e-01,3.65489e-02,1.52306e-01,-1.55111e-01,-9.10488e-01,-1.58262e-01,9.13808e-01,-1.25047e-01,-7.39155e-02,5.74955e-03,4.24102e-01,-3.52866e-01,2.84279e-01,3.30431e-01,-3.14510e-01,
2.29714e-01,3.72490e-01,-2.45513e-01,-1.27137e-03,5.11255e-01,3.31421e-01,-1.01676e-01,-2.78325e-01,2.32221e-01,7.97670e-02,-1.23734e-02,-1.11483e-02,2.43152e-02,1.21866e-01,1.94590e-01,-3.18723e-01,1.12675e+00,-3.51969e-01,8.15108e-02,1.75516e-02,4.60244e-01,1.95412e-02,2.81706e-01,-1.28270e-01,1.71031e-01,
-7.46813e-01,1.28605e-01,3.94965e-01,-8.27917e-01,3.87691e-01,-5.70848e-01,-2.97349e-01,-2.28057e-01,1.11896e-01,-5.25302e-02,2.17389e-01,5.90935e-03,2.10498e-01,1.13005e+00,-1.95607e-01,5.26717e-01,9.97362e-02,8.56926e-01,-2.47983e-01,2.20826e-01,-3.42315e-01,1.79444e-02,-3.53732e-01,9.07379e-01,2.04962e-01,
3.95454e-01,-2.40908e-01,2.94897e-01,-2.79743e-01,1.71567e-01,3.09566e-01,1.49009e-01,-2.99287e-01,7.14958e-02,-2.12000e-01,4.53481e-02,3.11678e-01,-1.71879e-01,3.40880e-01,2.03523e-01,-2.36670e-01,-2.56943e+00,2.58390e-01,3.54483e-01,1.01742e-03,-2.65158e-01,-6.98320e-02,3.87311e-02,-6.34281e-01,-3.07888e-01,
7.52631e-01,-6.94219e-02,3.60211e-01,-2.09309e-01,-4.26722e-02,-3.19161e-02,-1.35425e-01,2.23274e-01,-3.64837e-01,1.54285e-01,3.18772e-01,-9.78210e-02,2.15281e-02,1.09264e-01,-2.71591e-01,2.47175e-01,-4.94730e-01,8.69324e-01,1.16440e-01,-1.64535e-01,-3.18112e-01,3.06348e-01,-6.37633e-01,2.73796e-01,2.77942e-02,
5.20186e-02,1.32385e-01,4.00404e-01,-3.88058e-02,-1.60291e-01,1.74260e-01,3.21214e-02,4.32388e-01,3.07657e-01,-2.28072e-01,9.49255e-02,2.36474e-02,8.55100e-02,-1.16551e+00,3.03643e-01,-1.63414e-01,-1.32249e+00,2.26524e-01,-7.58829e-02,-3.11509e-01,4.56068e-01,2.53614e-01,5.84970e-01,-6.45933e-01,3.71937e-01,
-5.41936e-01,-3.96831e-01,-2.63750e-02,6.35740e-01,-6.05566e-02,2.73165e-01,1.91765e-01,-2.51889e-01,3.64564e-01,-1.70029e-01,-3.19189e-01,-2.49951e-01,-3.27799e-01,3.93339e-01,1.72583e-01,-3.34980e-01,8.46456e-01,-8.87426e-02,-1.04113e-01,-1.64876e-01,1.45982e-01,3.19453e-01,-9.09410e-02,8.13787e-03,-1.99731e-01,
-3.12483e-01,-4.19883e-01,-7.84945e-03,5.92303e-01,-3.48707e-01,3.84203e-01,1.01459e-01,3.42298e-02,4.86207e-01,-2.43354e-01,2.61282e-01,6.56722e-02,4.83214e-02,3.13519e-01,9.85293e-03,-3.85569e-01,-1.77949e-01,-2.68213e-01,2.44086e-01,1.85902e-01,2.55288e-01,1.40408e-01,-1.21588e-01,-1.03945e-01,-1.15323e-01,
-3.34168e-02,-1.02238e-01,-3.51750e-01,3.54764e-01,-1.68958e-01,4.33967e-02,7.97731e-02,-5.54726e-02,-6.04485e-02,2.81508e-02,4.00292e-02,2.52653e-01,1.63019e-01,4.22733e-01,3.15942e-01,2.71797e-02,2.61627e-01,8.33891e-02,4.60588e-02,-2.86158e-01,-4.38436e-02,3.28056e-01,4.19435e-01,5.10367e-01,-1.49167e-01,
-9.68058e-01,-3.33902e-01,-3.51879e-01,2.50477e-01,3.05564e-01,4.09315e-01,3.11323e-01,3.80324e-01,2.83942e-01,-1.09888e-01,5.54781e-02,2.62281e-01,-3.13287e-01,-3.57710e-01,-2.26651e-01,6.85279e-03,-9.34427e-01,-1.07662e-02,7.75626e-02,8.14695e-02,4.08132e-01,3.79344e-02,4.05330e-01,-5.54161e-01,-2.15697e-01,
-1.35102e-01,-2.53381e-01,-5.60204e-02,-5.44089e-03,-3.28123e-01,2.59132e-02,-1.11613e-01,-3.44155e-01,-7.02939e-02,-1.43810e-01,2.67046e-01,-3.01977e-02,-1.74423e-01,1.04651e-02,-1.76619e-01,-1.38088e-01,1.30111e-01,7.97047e-02,6.84239e-02,1.01895e-01,-2.83078e-01,-1.71995e-02,-1.24793e-01,2.99029e-01,7.13235e-03,
1.21144e-01,-2.54156e-01,-4.99642e-02,-3.59484e-01,-1.54718e-01,6.49420e-03,1.04645e-01,4.42424e-01,1.11907e-01,-1.35588e-01,-1.70032e-01,5.35322e-02,-2.25440e-01,1.76182e-01,5.88474e-02,-1.62235e-01,-3.89886e-02,3.17335e-01,2.89403e-01,1.22885e-01,1.65724e-01,-1.06663e-01,2.97179e-01,1.71212e-01,-3.31466e-01,
2.78376e-01,-5.95272e-02,1.08574e-01,2.07729e-02,8.65522e-02,2.74836e-01,2.29286e-01,-3.03032e-01,2.54088e-01,-9.25380e-02,5.28778e-02,1.56959e-01,-3.54054e-01,9.45188e-01,-1.35878e-01,1.02380e-01,1.19411e+00,6.45003e-01,-1.71432e-01,1.48608e-01,-3.01179e-01,1.88973e-01,-2.21582e-01,9.56579e-01,-9.26140e-02,
-4.63199e-01,-3.35959e-01,1.10414e-01,3.15815e-01,2.77183e-01,4.57746e-02,-2.56228e-02,-3.33759e-02,7.18200e-03,-8.62565e-02,-1.63110e-01,-5.72356e-02,-3.81672e-01,4.12129e-01,2.23858e-01,-3.47213e-01,9.60677e-01,1.89078e-01,-2.07059e-01,-2.03883e-01,1.15413e-01,2.69754e-01,-6.50355e-02,9.69514e-01,-1.99768e-01,
-2.38751e-01,1.89732e-01,3.01508e-02,-1.20781e-01,5.28662e-01,4.17377e-03,-1.18750e-01,-1.11095e-01,-2.08880e-01,-1.41641e-01,1.02828e-01,2.50847e-01,-1.81617e-01,7.40793e-01,-3.69765e-01,3.91339e-01,-1.15600e+00,9.93224e-01,2.66730e-01,3.24226e-01,2.77900e-01,6.49240e-02,8.38690e-01,4.74433e-01,-3.54651e-02,
4.74367e-01,4.11875e-01,1.39697e-01,-3.86333e-01,-2.92367e-01,-7.28829e-01,2.16195e-01,3.18068e-01,-2.49214e-02,2.68554e-01,5.46467e-02,3.19533e-01,1.60838e-02,5.80958e-02,-3.98355e-01,3.92585e-03,4.94209e-01,4.97161e-01,2.55367e-02,-1.78449e-01,-9.10831e-02,1.57093e-01,3.72546e-01,-8.69789e-01,-2.23427e-01,
2.88131e-01,-4.12236e-02,5.67498e-02,-5.36330e-01,-9.00715e-02,4.67397e-01,7.52433e-02,-1.63781e-01,3.94826e-01,-9.05528e-02,3.29488e-01,1.98355e-01,1.37922e-01,1.92063e-01,3.85495e-01,-9.47816e-01,3.35769e-01,-1.35830e-01,-2.55236e-01,3.40179e-01,-6.31093e-01,3.34861e-01,6.24736e-02,4.20580e-01,-2.00689e-01,
1.46194e-01,-2.14777e-01,-2.93732e-01,-6.84868e-01,-5.82887e-01,-2.67039e-01,-2.78445e-01,-5.70742e-02,1.88329e-01,-5.73916e-01,1.23593e-02,-1.85015e-01,-5.13242e-02,9.21163e-01,4.56178e-02,1.28356e-01,-3.62828e-01,-3.73016e-03,-8.05912e-02,3.31391e-01,3.97639e-01,1.31370e-01,-7.01817e-01,6.64216e-01,1.26732e-01,
7.30820e-01,3.06840e-01,4.08548e-01,-1.39901e-03,3.59932e-01,2.46378e-02,-2.86569e-01,2.24805e-01,-1.18972e-01,-2.12044e-01,-1.95015e-01,1.76333e-01,-2.11012e-01,5.03855e-01,3.74344e-01,4.61901e-01,-1.13275e-01,7.81427e-01,-3.51758e-01,1.54352e-01,9.61616e-02,1.58738e-01,-1.53553e-01,1.42475e+00,2.39868e-01,
1.18209e+00,-1.74235e-02,-3.98027e-01,-7.37059e-02,1.81027e-01,-1.08486e-01,4.32084e-01,-1.92114e-01,-1.08133e-02,3.28021e-01,2.23822e-01,2.86007e-01,-1.01165e-01,6.20526e-01,-1.61109e-01,-1.89450e-01,5.45740e-02,4.34205e-01,3.91196e-01,-1.59421e-01,7.87809e-01,-1.79174e-01,-5.12090e-01,5.60718e-01,-3.62372e-01,
8.99543e-01,1.54298e-01,9.94511e-02,-3.09870e-01,-2.73582e-01,-1.62141e-01,-2.44758e-01,-1.61605e-01,2.23380e-01,1.74218e-01,-2.83403e-01,2.73019e-01,1.84171e-01,6.76331e-01,2.60648e-01,1.47931e-01,1.05090e+00,-2.36763e-01,-3.46645e-01,1.19990e-01,-5.12787e-01,-2.49535e-01,-7.90471e-01,9.27200e-01,2.35769e-02,
-1.66230e-03,3.17911e-01,-9.39927e-01,-1.10254e-01,9.69538e-01,-8.11104e-01,2.86907e-02,1.78319e-01,-1.76663e-01,-1.65880e-01,-1.34385e-03,1.61104e-01,1.56885e-01,6.83628e-01,-1.68343e-01,-8.42441e-01,-5.01955e-01,-1.32398e-01,-2.71655e-02,2.31345e-01,-6.05043e-01,-2.18596e-01,-1.23780e-01,3.80934e-01,-3.82538e-01,
4.62051e-02,3.00290e-01,1.21741e-01,8.50457e-01,4.36965e-01,6.11210e-02,-1.98143e-01,-2.12447e-01,1.34706e-01,-6.29707e-01,6.52742e-02,5.65463e-02,-4.91115e-02,-2.08318e+00,1.27777e-01,1.89677e-01,1.63186e-01,7.33717e-01,-3.65260e-01,1.61638e-01,3.71435e-02,4.20785e-01,-7.06358e-01,-2.26259e+00,-3.06805e-03,
5.54006e-01,2.84222e-01,-3.39474e-01,-1.02748e-01,-9.15186e-02,-8.11207e-02,-9.93270e-02,-3.08742e-01,1.52217e-01,3.23219e-01,1.33881e-01,9.32225e-02,2.85803e-01,-1.01729e-04,1.36100e-02,2.95645e-01,-1.11541e+00,8.92698e-01,1.48061e-01,-4.27308e-02,3.38415e-02,1.66853e-01,-1.62954e-01,-2.70240e-01,1.37986e-01,
1.73164e-02,
-2.65859e-01,
2.07663e-02,
2.50974e-01,
2.64184e-01,
4.73803e-02,
-1.84093e-01,
1.58760e-01,
1.70167e-01,
5.77694e-02,
2.36740e-01,
5.66545e-02,
2.10388e-01,
6.67571e-02,
2.49071e-01,
2.56463e-01,
2.82224e-01,
-1.04951e-01,
2.29861e-01,
-1.41681e-01,
-9.67592e-02,
2.67220e-01,
9.15981e-02,
-8.80038e-02,
2.63282e-02,
4.44316e-01,-5.02424e-01,2.66431e-01,-3.22497e-01,-7.91313e-02,-2.43820e-01,-1.39518e-01,2.19824e-01,-2.71262e-01,-3.07701e-01,1.48277e-01,-2.45508e-01,-9.86055e-02,5.13572e-02,-2.50402e-01,-4.15667e-01,3.15669e-01,-8.44170e-01,-1.60510e+00,-7.37788e-02,2.65667e-01,4.42944e-02,-1.67350e-01,5.62908e-03,1.11577e-01,
3.72058e-01,-2.47978e-01,9.64708e-02,-2.13387e-01,3.48036e-01,8.09002e-03,-3.21644e-01,4.31002e-02,4.82504e-01,5.26582e-01,-2.35553e-02,2.20264e-01,9.88438e-02,6.88161e-01,-2.77077e-01,-9.98098e-02,3.76086e-01,-4.10565e-01,5.94748e-01,9.22319e-02,-4.52700e-01,1.99330e-01,4.91676e-02,-8.19884e-01,8.81282e-02,
2.84433e-01,-3.04162e-01,3.51572e-01,1.29670e-01,-2.28905e-01,2.45605e-01,-5.14167e-02,-3.36931e-01,-2.34365e-01,1.10105e-01,-4.18980e-01,-1.27617e-01,-1.95329e-01,4.54147e-01,1.10946e-01,9.35547e-02,1.72045e-01,-2.81637e-01,3.04675e-02,3.34972e-01,2.04386e-02,2.47785e-01,-6.89040e-01,3.18197e-02,-1.31854e-01,
-1.51025e-01,-1.49005e-01,-2.61470e-01,1.30251e-01,1.26236e-01,4.33949e-02,1.08352e-01,-6.72082e-02,-1.02377e-01,-3.37604e-01,-3.11522e-01,2.47834e-01,3.06955e-01,5.56096e-01,-2.87067e-01,2.02870e-01,-1.07859e-02,7.51746e-01,8.37626e-01,1.43858e-01,-1.15145e+00,-1.06039e-02,-5.51682e-01,1.43699e-01,-3.26806e-01,
-7.77539e-02,-2.28012e-01,-3.02187e-01,4.46421e-01,-2.66890e-01,2.97591e-01,-2.20851e-01,-3.53850e-01,-4.47341e-01,-9.44331e-02,-5.96241e-01,2.96968e-01,9.65896e-02,-9.67501e-01,-2.49343e-01,1.72077e-01,3.62256e-01,-8.36240e-01,-1.05402e+00,-5.68167e-01,-1.41650e-01,5.32280e-01,-9.22115e-01,4.04973e-01,2.67978e-01,
2.93291e-01,-1.22082e+00,3.02819e-02,3.61289e-01,2.06879e-01,3.08518e-01,-2.18608e-01,-1.18669e-01,-5.54798e-01,7.67882e-03,4.53990e-03,6.15559e-02,-4.25472e-01,3.99196e-01,-3.40926e-01,2.24008e-01,-7.89848e-02,7.11241e-02,-3.02629e-01,2.16731e-01,1.79107e-01,-3.45010e-03,-1.81683e+00,1.93984e-01,4.49628e-01,
1.31701e-01,-1.33383e-01,-4.67837e-02,2.66207e-01,8.34408e-02,3.43638e-01,5.03553e-02,-3.13787e-01,-1.03893e-01,6.72185e-02,-1.54219e-01,1.65775e-01,2.96014e-01,-1.48922e-01,-2.01008e-01,1.35557e-01,-2.57760e-01,8.33525e-01,-1.82912e-01,8.40039e-02,-3.24243e-01,5.16086e-02,-6.92495e-01,-3.58128e-01,6.95511e-02,
1.89731e-01,7.62970e-01,2.06108e-01,-2.02083e-01,1.87412e-01,-1.40525e-01,4.35434e-01,5.40743e-01,4.79603e-01,6.53281e-02,3.72340e-01,-9.09598e-02,3.21151e-01,2.27693e-01,8.87103e-02,-1.20013e-01,3.39076e-02,-2.59191e-01,5.88293e-01,-5.56420e-01,-4.20652e-01,-3.61752e-02,2.87760e-01,-3.83354e-01,1.47241e-01,
3.14988e-01,-2.40597e+00,-7.75896e-02,2.63071e-01,3.59724e-02,1.75002e-01,5.45317e-02,-2.69309e-01,-1.32376e-03,3.31294e-01,-1.14642e-01,1.42889e-02,-9.43097e-02,-7.38468e-01,-2.54836e-01,3.11777e-01,4.20654e-01,6.89306e-01,-2.23003e-01,-5.31583e-01,2.27610e-01,-3.66921e-01,-2.87859e-01,-3.86277e-01,1.32057e-01,
-3.41720e-02,-4.21854e-01,-1.95841e-01,2.80635e-01,-1.21382e-01,3.82236e-01,4.55187e-01,2.56621e-01,-2.40734e-01,-3.27040e-01,4.45127e-01,-2.55416e-01,-2.34048e-01,-2.28720e-02,6.80736e-03,2.73236e-01,-1.20091e-01,1.31896e+00,-2.05257e-01,5.47378e-01,-5.58658e-01,5.17499e-02,-2.05099e-01,-1.31569e-01,-3.27434e-02,
3.00775e-01,1.40181e+00,3.30924e-01,-2.30049e-01,3.11150e-01,9.35842e-02,2.08256e-01,7.34019e-02,-2.91309e-01,-4.20183e-01,-1.29096e-01,2.22983e-01,-1.84237e-01,-4.47535e-01,2.29854e-03,-1.42384e-01,-2.08614e-01,-1.84967e-01,-1.57000e+00,-7.18466e-01,3.75969e-01,1.69595e-01,-1.36805e+00,5.37038e-01,2.22635e-01,
2.34355e-01,-2.54774e-01,2.35515e-01,1.51427e-01,3.36088e-01,-2.80551e-02,5.61738e-01,5.16488e-02,2.22159e-01,-1.15398e-01,3.70791e-01,7.56840e-02,3.03340e-01,-8.15758e-01,1.65963e-01,3.09273e-01,-1.53776e-01,4.88739e-01,-5.60222e-01,-2.94069e-01,6.71447e-01,-2.43085e-01,-4.27104e-02,3.17380e-01,-3.00953e-01,
-9.48069e-03,1.19092e+00,2.30357e-01,1.05861e-01,2.59360e-01,6.62986e-02,-2.01260e-01,-5.00768e-01,-3.76374e-02,-3.29200e-01,6.01637e-02,-2.68068e-01,8.13198e-02,-4.58517e-01,-3.12410e-01,4.28132e-01,4.07632e-01,1.19901e+00,-3.46862e-01,-5.04820e-03,-3.38466e-01,-1.90992e-01,-9.34022e-01,1.05255e-01,3.98706e-01,
1.33578e-01,5.06907e-02,3.03734e-01,-2.74049e-01,-6.12944e-01,-4.78962e-01,-1.77945e+00,-1.56348e-02,4.35875e-02,-6.01292e-02,-7.36998e-02,-2.24582e-01,-5.01478e-01,9.09112e-02,-1.23452e-01,-2.67519e-01,1.93066e-01,-6.01834e-01,2.37560e-01,7.85928e-01,1.12801e-01,2.31510e-01,3.53795e-01,-1.32759e+00,3.15839e-01,
2.81523e-01,-1.10224e-01,-2.66200e-01,1.61717e-01,1.31202e-02,-4.36283e-03,-1.84535e-02,2.54222e-01,1.72518e-01,-2.67728e-01,-2.63827e-01,-2.08470e-01,2.08195e-01,4.39566e-01,4.09041e-01,-2.85133e-01,-1.95178e-02,-3.12651e-01,6.75047e-02,-4.99282e-02,-2.67074e-01,3.77897e-01,-3.33340e-01,-1.56441e-01,-2.19113e-02,
3.30350e-01,-6.46596e-01,4.21496e-01,3.39908e-01,-4.72666e-02,-3.68355e-01,-4.20682e-01,4.06693e-02,-2.11947e-01,9.67598e-02,3.34329e-02,-1.47948e-01,3.40368e-02,-4.01274e-01,-1.21949e-01,5.37457e-02,5.72579e-02,2.36235e-01,1.46288e-01,-1.60248e-01,2.98467e-01,1.95688e-01,1.37708e-01,-7.46413e-01,-2.73220e-01,
8.09574e-02,-2.10844e-01,-2.42675e-02,2.29758e-01,-2.05558e-01,-3.11390e-01,1.28266e-01,2.23284e-01,1.63448e-01,-2.91703e-01,2.09067e-01,-2.96897e-03,-2.72447e-01,1.08331e-01,-4.64268e-03,-1.07541e-01,-3.17590e-01,2.84272e-01,-3.00882e-01,-2.37903e-01,-2.89882e-01,-2.65611e-01,-2.90485e-01,1.77952e-01,-3.20258e-01,
1.70650e-01,-8.53494e-01,1.11494e-02,2.10410e-01,-2.28428e-01,1.00019e-01,2.77949e-01,3.57325e-01,3.84243e-01,1.49839e-01,2.49809e-01,-3.34346e-01,2.94756e-01,-5.38261e-01,4.55835e-01,5.14679e-01,2.09569e-01,1.53386e-01,-3.25809e-01,-2.48849e-01,5.61782e-01,-3.90696e-01,-3.98450e-01,-4.33034e-01,-1.99172e-01,
5.60944e-02,-2.34227e-01,1.68913e-01,2.84337e-01,5.63906e-02,1.11242e-02,-2.47264e-01,-1.72390e-01,2.61153e-01,1.33570e-01,3.66284e-01,6.01318e-02,-2.61916e-01,4.93813e-01,2.01747e-01,5.08596e-02,-4.24544e-02,2.50435e-01,-2.47985e-02,4.32496e-01,-4.50356e-02,9.90212e-02,4.76713e-01,-7.71181e-02,-2.07708e-01,
6.23687e-02,-8.73275e-01,1.29323e-01,4.06560e-02,1.78898e-02,-3.06052e-01,-3.08040e-01,-8.24428e-02,-3.47198e-01,3.68983e-01,-3.25028e-01,1.52028e-01,-1.32911e-01,5.17687e-01,2.37213e-01,3.28264e-01,-1.93501e-01,-9.97312e-02,-1.51600e-01,1.75506e-01,1.18524e-01,-4.32065e-01,-2.42715e-01,-2.11662e-01,-5.20478e-01,
2.00831e-01,-2.00550e-01,1.40047e-01,-1.32887e-01,-1.93080e-01,-3.15472e-01,-1.17861e-01,4.19400e-01,2.62444e-01,1.71197e-01,3.09864e-01,3.17581e-01,2.25123e-01,-2.67740e-01,3.82727e-01,-1.74953e-02,-2.48167e-01,-2.02857e-02,9.49147e-01,-1.25521e-01,-1.31605e-01,-3.37123e-01,9.02927e-01,-2.87888e-01,-2.91423e-01,
-6.92591e-01,-4.90704e-01,-1.94103e-01,1.01367e-01,3.06333e-01,-6.05409e-01,-1.37042e+00,2.26951e-01,-7.21935e-02,2.95085e-01,2.74704e-01,2.69572e-02,-9.14187e-02,2.05330e-01,2.71519e-01,-3.74550e-02,-9.33679e-02,-3.56587e-02,1.63737e-01,-4.27725e-01,3.60715e-01,-8.00765e-02,7.09897e-01,6.95865e-01,3.29645e-01,
1.42514e-01,-5.24356e-01,1.19249e-01,8.60444e-02,-2.98453e-01,-4.28147e-02,1.82723e-01,-4.40083e-01,-3.50154e-01,-1.21249e-01,8.17675e-01,2.94542e-01,-1.68844e-01,-5.09892e-01,-2.15760e-01,2.11516e-01,-2.57692e-01,-9.46883e-01,3.21772e-01,1.66051e-01,3.75414e-01,3.11639e-01,-6.71401e-01,-7.52103e-03,3.78893e-01,
4.85599e-01,-7.00142e-03,-2.58113e-01,1.70319e-01,-2.80632e-01,-2.87021e-01,1.34412e-01,5.79728e-01,6.02795e-01,-1.03418e-02,-1.37652e-02,-7.15544e-02,1.22452e-01,3.54749e-01,-1.94484e-01,-1.74025e-01,-7.06814e-01,2.13752e-01,4.20402e-01,-1.91519e-01,3.48318e-01,-1.74654e-01,3.61052e-01,2.03385e-01,-1.94836e-01,
2.52465e-01,-1.14067e-01,1.82212e-02,2.89684e-01,-3.24318e-02,2.27805e-01,5.54140e-01,-3.20343e-01,-3.88137e-01,-1.38501e-01,-2.98401e-01,-7.74257e-02,2.48754e-01,-6.50037e-01,1.70516e-01,3.47688e-01,1.76705e-01,1.14489e+00,-9.53396e-02,-2.21953e-01,2.96485e-01,-2.39019e-01,-3.74809e-01,3.07226e-03,8.37132e-02,
2.89006e-02,
-2.24906e-01,
-1.40844e-01,
1.50870e-01,
1.00728e-01,
-1.77292e-01,
2.79655e-01,
2.28130e-01,
1.46687e-01,
-1.64763e-01,
2.53913e-01,
9.28836e-02,
8.36415e-02,
-6.17723e-02,
-9.90872e-02,
7.42274e-02,
-2.22766e-01,
-6.64038e-02,
-2.81742e-01,
1.14937e-01,
2.82663e-01,
-1.97926e-01,
-4.59340e-01,
-2.12163e-01,
2.16249e-01,
7.39080e-01,7.08687e-01,9.35231e-01,-2.67465e-01,2.92652e-01,4.08729e-01,2.63258e-01,5.36537e-03,-3.30825e-01,3.93199e-01,-4.60904e-01,-3.59506e-01,-2.12413e-01,-8.10480e-01,-3.01286e-01,-8.62081e-02,-3.06987e-01,1.38338e-01,-5.95823e-01,-3.10128e-01,-1.94861e-01,4.65195e-01,-6.23168e-01,3.24340e-01,6.98565e-02,
-7.03529e-02,-1.39025e-01,-1.41406e-01,-2.56177e-01,9.90695e-02,-8.94799e-02,3.04424e-01,2.50358e-01,2.43063e-01,-6.71403e-02,2.75064e-01,1.03872e-01,-1.33639e-01,-6.00948e-01,-3.27425e-01,-1.60774e-01,6.52666e-02,3.13608e-01,2.97493e-01,2.35319e-01,-4.23853e-01,-3.70051e-01,-2.08044e-01,-2.17831e-01,-3.16306e-02,
-5.65048e-01,-8.24171e-01,-6.55581e-01,-5.53462e-01,2.35914e-01,-8.19895e-01,3.65155e-01,1.69279e-01,3.42422e-01,-4.21753e-01,2.40116e-01,3.66445e-01,8.74257e-02,-2.98627e-01,-1.19809e-02,1.58755e-01,-1.98159e-01,5.11586e-01,5.25824e-01,4.13511e-01,-2.32349e-01,-3.89263e-01,-1.77654e+00,-3.43439e-01,3.32317e-01,
-4.78004e-02,1.83743e-03,-6.99226e-02,-5.09786e-01,-1.77299e-01,5.06226e-01,1.27543e-01,1.70119e-01,2.32507e-01,2.02626e-01,8.70140e-02,-3.35088e-01,-5.82827e-01,-6.03848e-01,3.22162e-01,6.12745e-02,-3.52208e-01,1.56583e-01,3.26762e-01,-1.31291e-01,1.94687e-01,-7.52768e-03,-1.13709e-01,-2.47614e-01,-7.71729e-02,
6.53652e-01,-9.43741e-01,-2.69469e-01,-1.27023e-01,-9.48685e-01,5.32815e-01,2.70883e-01,-2.74282e-01,3.46821e-01,1.89922e-01,6.97674e-02,9.07349e-02,1.02758e-01,8.15570e-01,6.02279e-02,3.70427e-01,-1.49530e-01,2.35232e-01,2.53686e-01,-4.09940e-01,4.21717e-01,5.44483e-02,-1.24567e+00,3.55902e-01,2.15150e-01,
3.05791e-01,-3.85234e-01,-1.66846e-01,-1.71055e-01,-5.42162e-01,-8.10196e-02,1.27980e-02,4.73117e-02,4.85552e-01,-7.07931e-02,1.98105e-01,2.65572e-01,1.03426e-01,1.35343e-01,4.50624e-01,-1.30561e-01,-2.42561e-01,3.60002e-01,1.22878e-01,-9.16864e-02,-1.75784e-01,-3.57224e-01,-3.06766e-01,-1.00446e-01,3.79827e-01,
2.98123e-02,2.63274e-01,-3.18749e-01,2.05150e-01,-5.29681e-02,2.86119e-01,-1.69466e-02,1.90886e-01,-2.97667e-01,2.43490e-01,-4.80420e-01,-2.64885e-01,-3.53533e-01,4.45443e-01,6.26562e-01,-5.04825e-01,-2.36814e-01,1.50107e-01,-9.69488e-02,1.80791e-01,2.34243e-01,-4.97022e-01,1.22718e+00,-3.54980e-01,-2.07617e-01,
-9.47192e-02,-2.69294e-01,-3.47043e-01,1.03032e-01,-3.52365e-01,-7.07115e-04,1.44169e-01,-1.60554e-01,1.31455e-01,1.75360e-01,-9.08791e-02,-2.47541e-01,-1.56535e-02,-1.38567e-01,3.00365e-01,1.76278e-01,1.33698e-01,-2.41224e-01,1.56248e-01,-7.72823e-02,-1.03702e-01,6.02128e-02,-8.76943e-02,2.00616e-01,1.17606e-02,
-9.65609e-02,-6.36799e-02,4.08492e-01,-4.31291e-01,2.05511e-02,-2.97751e-01,1.59444e-01,-4.31707e-01,6.87536e-02,2.46765e-01,5.46413e-01,5.90648e-02,4.51604e-01,3.80593e-01,3.14142e-01,-2.75710e-01,9.98308e-02,2.07470e-02,4.79157e-02,4.63465e-01,-7.17228e-01,-1.59809e-01,-2.90732e-01,5.44372e-01,1.99719e-01,
-8.25652e-01,-2.53163e-01,-6.59944e-02,1.92742e-01,-4.51761e-01,4.06055e-01,-7.64256e-02,1.26143e-01,1.24059e-01,1.47509e-01,1.62411e-01,-1.65424e-02,-3.09475e-01,5.81250e-01,3.30685e-01,6.85796e-01,3.12770e-01,2.01022e-01,2.76540e-01,-3.24081e-01,3.85974e-01,-2.42075e-01,4.44798e-01,5.70184e-03,-9.62272e-02,
4.56257e-01,3.76466e-01,2.09539e-01,-2.50486e-01,-4.51948e-01,-1.53545e-01,1.62510e-01,2.15992e-01,-5.94598e-01,1.77468e-01,-7.23538e-02,-4.29941e-02,-1.24345e-01,-5.53947e-01,-3.53318e-01,-2.76417e-01,2.96227e-01,3.57334e-01,-2.41207e-01,1.85192e-01,5.55797e-01,4.60300e-02,-4.40529e-01,-5.38445e-01,-1.78070e-02,
2.63980e-02,3.08539e-01,4.98957e-02,4.45882e-01,-1.08561e+00,5.08172e-01,3.13117e-01,4.47797e-01,-3.83283e-01,-3.59843e-02,-3.36965e-02,-8.21151e-02,-5.20187e-01,3.31143e-01,-2.26821e-02,7.28735e-02,2.49708e-01,2.48784e-01,4.32457e-02,-3.11719e-01,4.43195e-01,-2.43351e-01,6.19794e-01,-2.91532e-01,-1.38201e-01,
-1.61238e-01,-2.82740e-01,-1.25807e-01,1.22362e-01,-1.27755e-01,-1.57783e-01,6.28242e-02,-1.74753e-01,-1.96273e-02,-1.07253e-01,1.38572e-01,-2.86167e-01,2.82551e-01,5.10213e-02,6.80788e-02,-3.54104e-01,-3.07951e-01,-1.54008e-01,-1.27899e-01,2.36297e-01,-3.86077e-03,2.17454e-01,5.62015e-02,-2.69594e-01,1.53719e-01,
6.44553e-02,1.48030e-02,-4.11265e-01,2.01928e-02,1.55260e-01,-2.58553e-01,-3.91170e-01,1.60413e-01,-2.99978e-01,8.47001e-02,-2.93383e-01,7.89164e-02,-1.16271e-02,5.65256e-02,-1.04965e-01,-1.39685e-01,-2.33739e-01,-3.96139e-01,1.35759e-01,-3.19872e-01,-2.89444e-01,1.41037e-01,-1.48324e-01,-1.53533e-01,2.01576e-01,
6.89389e-01,7.56357e-01,7.14153e-01,-2.95456e-01,1.53841e-01,7.03099e-01,-1.43936e-02,-3.22323e-01,1.01960e-01,4.64855e-01,-2.31522e-01,-4.75884e-02,-4.80348e-01,9.07651e-02,3.96699e-01,1.72058e-01,8.85204e-02,3.28470e-01,-3.68896e-01,-3.15214e-01,-2.09378e-01,-3.56225e-01,1.09756e+00,7.35822e-02,1.74559e-02,
-1.13925e+00,-3.05239e-01,4.85539e-02,-4.20324e-01,-3.45931e+00,4.34755e-02,3.58742e-01,-1.11799e-02,2.62787e-01,5.28951e-01,5.58746e-02,-5.13323e-02,-9.86524e-01,6.20656e-01,-6.29931e-01,-3.05434e-02,2.15568e-01,5.75900e-02,1.50511e-01,9.26317e-02,2.00390e-01,-2.65152e+00,-1.58666e+00,3.11253e-02,2.03571e-01,
-1.43779e-01,1.78663e-02,2.48881e-01,3.58362e-01,-1.08928e+00,4.24139e-01,-2.92377e-01,2.90652e-01,-1.05039e-01,-2.41435e-01,2.85580e-01,1.94086e-01,-6.44531e-01,-8.72795e-01,-4.12399e-01,2.09807e-01,1.03382e-01,2.53400e-01,1.29566e-01,-1.82276e-01,4.54969e-01,1.29802e-01,-7.19544e-01,-7.77610e-01,2.29636e-02,
6.47281e-01,1.43744e-01,-5.47632e-01,1.62502e-01,-3.48067e-01,-1.50529e-01,2.28211e-01,2.09227e-01,1.55199e-01,-1.84019e-01,3.87596e-01,1.26082e-01,8.76084e-02,-6.56934e-01,4.60784e-01,-6.49162e-02,2.89096e-01,-5.89987e-02,2.90947e-01,-1.22347e-03,-4.06809e-02,-2.09781e-01,8.72691e-01,-3.14856e-01,1.49558e-01,
-5.14097e-01,-4.80806e-02,9.66413e-02,9.01317e-02,-1.34564e+00,4.03337e-01,-1.50607e-01,3.03072e-01,2.84453e-01,1.18323e-01,6.95511e-01,3.10266e-01,-5.75016e-01,-1.96210e-01,-1.94450e-01,-4.28619e-01,-3.10729e-01,-4.21942e-02,-6.29781e-02,1.12885e-01,3.80163e-02,4.11609e-01,7.90336e-02,2.06761e-01,2.77828e-01,
-3.37649e-01,2.45772e-01,-2.89484e-01,-7.87455e-02,1.74238e-01,-2.29087e-01,3.12337e-01,-2.68299e-01,-1.23959e-01,2.01904e-01,-3.33461e-01,1.27959e-02,-1.45099e-01,3.12074e-01,1.41106e-01,-1.36139e-01,-3.08856e-01,-3.47097e-01,1.57214e-01,-3.34327e-03,-2.65862e-01,-2.20310e-01,-1.16553e-01,5.41348e-02,1.42234e-01,
4.53503e-01,2.12963e-01,4.51635e-01,8.08686e-01,4.03269e-01,-6.51523e-01,-2.18096e-01,1.26759e-02,3.45537e-01,4.40183e-01,1.49274e-01,-3.67086e-01,4.30881e-01,2.85973e-03,2.48655e-01,2.39950e-02,2.89507e-01,4.61766e-03,1.25896e-02,-8.99916e-02,-5.04352e-01,1.95935e-02,-4.07796e-03,-1.07681e-01,-2.76676e-01,
9.60381e-01,-7.32611e-01,1.88343e-01,7.53898e-02,3.82209e-02,-1.05443e-02,-3.94492e-01,-5.26464e-01,1.04782e-01,6.89624e-02,4.64062e-01,-2.05527e-01,2.14813e-01,-3.56930e-01,-1.31690e+00,4.26059e-01,-2.47960e-01,2.12076e-01,5.67503e-02,2.48300e-01,4.43522e-01,-1.64720e-01,-1.40926e-01,-1.13245e+00,-6.06595e-02,
7.53790e-01,4.38145e-01,6.05786e-01,5.18703e-01,-2.07430e-01,1.45933e+00,5.14642e-02,-4.71355e-01,-3.02117e-01,2.45204e-02,-2.53802e-01,-1.46068e-01,1.36073e-01,-5.81889e-02,1.14033e+00,6.40380e-02,1.21737e-01,5.47435e-02,-6.13378e-01,-2.62401e-01,8.34176e-02,-3.04079e-01,5.24204e-01,5.90117e-01,1.27576e-01,
1.21022e-01,1.26535e-01,-1.45561e-01,-2.44079e-01,-1.84938e-01,-3.43045e-02,-4.86947e-02,1.32494e-01,-2.63009e-01,2.35384e-01,1.17321e-01,-7.50598e-02,2.83608e-01,-2.04311e-02,4.96495e-01,-6.15280e-01,2.62572e-01,-3.00100e-02,-3.57733e-01,4.72894e-01,-3.60727e-01,-2.62247e-01,5.03014e-01,2.58630e-01,2.22022e-01,
6.64291e-02,-2.53561e-01,-1.39919e-01,1.55713e-01,-3.42167e-01,-7.88941e-02,8.78299e-02,-3.32669e-01,-2.83448e-01,-7.85606e-02,-2.14173e-01,-7.22801e-02,7.17971e-02,4.59112e-03,1.49779e-01,7.49146e-02,3.41163e-01,-1.41993e-01,-1.31901e-01,1.22823e-01,1.06649e-01,2.75020e-01,6.62965e-02,-2.66074e-01,6.80274e-02,
8.52994e-02,
1.73868e-01,
7.82043e-02,
-2.83748e-01,
-3.57844e-01,
3.88395e-01,
2.60858e-01,
-6.34711e-02,
2.48692e-02,
-3.31246e-01,
-1.28613e-01,
-1.65538e-01,
-1.02862e-01,
1.61689e-01,
-3.38510e-02,
-2.36285e-01,
-7.01174e-02,
-1.89421e-01,
-3.12707e-01,
-2.48558e-01,
5.75618e-02,
-1.98707e-02,
4.19499e-02,
-8.21321e-02,
3.93006e-02,
-1.17293e-01,9.54099e-03,2.75726e-01,1.35437e+00,-9.95053e-02,4.56297e-01,3.25561e-01,2.85255e-01,-4.17991e-01,-5.74461e-01,-2.52755e-02,-3.12721e-01,-3.17911e-01,2.50109e-01,3.15306e-01,-1.42941e-01,-7.54787e-01,-4.71384e-02,3.24356e-01,1.49146e-01,-7.52862e-01,-6.47340e-02,-6.58911e-01,-6.02114e-01,-1.48667e-02,
1.30288e-01,-2.29950e-01,9.54621e-02,-5.34635e-01,-2.51896e-01,-4.77645e-02,-1.64052e-01,-1.29597e-01,1.11024e-01,-7.62940e-02,-4.63223e-01,6.26415e-01,2.09643e-01,-1.67345e-01,4.13362e-02,3.88397e-01,2.15591e-01,-4.08486e-01,3.11031e-02,2.90091e-01,-1.96309e-01,1.62259e-01,6.18961e-02,-1.16379e-01,4.42853e-03,
1.24428e-01,1.73364e-01,3.25025e-01,1.00346e-01,1.32932e-02,-8.26760e-03,6.56060e-01,-5.55133e-03,4.29184e-01,-2.79055e-01,2.11083e-01,-5.00943e-01,-1.73368e-01,-2.95001e-01,2.18929e-01,5.39697e-02,-3.99289e-01,1.53933e-01,2.90094e-01,-1.15452e-01,-1.87414e-01,-3.89727e-01,1.23831e-01,-1.84028e-01,1.99008e-02,
7.26796e-03,2.13755e-01,-4.67692e-01,-6.75805e-01,-1.02572e-01,-3.00129e-02,8.63501e-01,-6.04616e-02,1.32596e-01,1.09147e-01,-3.81472e-02,-1.01213e+00,-2.27565e-02,-3.58127e-02,5.26883e-01,-1.45425e-01,-3.64053e-01,-9.17077e-02,1.55019e-01,-1.23756e-01,-2.05783e-01,-3.06020e-01,-7.98371e-02,-3.17146e-01,1.35693e-01,
-4.56510e-01,3.32507e-01,1.43644e-01,9.20504e-01,2.15696e-01,2.10426e-01,-1.12589e-01,-1.22702e-01,-2.82463e-01,-3.13597e-01,-2.78517e-01,-9.56400e-02,-1.92589e-01,1.88884e-01,-3.88921e-01,-1.53334e-01,5.74695e-01,-2.06281e-01,-8.37211e-01,3.39342e-01,8.73638e-02,8.70014e-01,-1.55253e-01,-3.31750e-01,-6.88764e-03,
-4.07795e-01,-3.74738e-02,2.17717e-01,1.11052e-01,-1.09475e-01,-4.11202e-02,-8.44863e-01,-3.05031e-01,-2.27643e-01,6.31195e-01,-5.36160e-01,3.93184e-02,3.02778e-01,8.01526e-02,-7.12847e-02,6.20128e-01,-3.55495e-01,2.37518e-01,6.26149e-02,3.00819e-01,-6.66406e-01,4.02846e-01,-9.65522e-01,-5.06206e-01,-2.94604e-01,
1.05344e-01,1.38459e-01,2.32680e-01,4.51634e-01,-1.85739e-01,2.62687e-01,3.06978e-01,-2.34192e-01,6.89483e-02,9.84284e-02,5.94147e-02,-3.33243e-01,3.34769e-01,-1.25616e-01,3.11280e-01,-4.38743e-01,1.14253e-01,-4.19433e-01,-1.58563e-01,1.49530e-01,1.73698e-01,1.35391e-03,-1.47488e-02,3.74105e-01,-1.36196e-01,
2.26755e-01,-1.39618e-01,-4.20541e-01,-3.89162e-01,-3.39397e-01,3.16436e-01,1.46735e-01,-1.42967e-01,7.62773e-02,3.84368e-01,-2.68654e-01,1.25163e-01,-2.59908e-01,3.32716e-01,1.40388e-01,-4.64240e-01,1.01973e-01,-3.67255e-01,3.26092e-01,2.59976e-01,1.14893e-02,-5.34805e-02,-1.14923e-01,-1.44126e-01,-3.50431e-03,
-4.47664e-01,9.24063e-02,2.43843e-01,1.73806e-01,-9.26108e-02,-3.80601e-01,4.96325e-02,-3.12036e-01,2.49230e-01,2.31341e-01,1.64058e-01,-1.79521e-01,-5.50570e-02,-2.03539e-01,2.23904e-01,-1.22944e-01,-5.97710e-02,-2.73016e-01,2.00952e-01,-6.34488e-02,-3.30408e-01,-2.09332e-01,-3.24871e-01,-1.64262e-01,-3.10227e-02,
3.01780e-01,-1.17046e-01,2.88966e-01,-1.99776e-01,-2.00890e-01,1.57138e-01,2.58438e-01,-9.18135e-02,1.03675e-01,1.19350e-01,3.63366e-01,-8.15637e-02,2.72846e-02,-1.71037e-01,-2.16898e-01,-3.66576e-01,-5.63059e-01,1.22027e-01,1.93186e-01,-1.90121e-01,-7.47341e-02,4.41305e-02,1.06478e-01,3.27995e-02,2.86225e-01,
-2.82188e-01,2.16630e-01,3.08206e-01,1.02225e+00,3.76898e-02,3.17691e-01,3.00785e-01,-2.77756e-02,-3.16375e-01,-7.44848e-01,-3.14713e-01,-2.31481e-01,-8.39650e-02,3.00342e-01,5.60547e-02,2.95925e-01,-3.11932e-01,-1.83680e-01,-1.91434e-01,3.00363e-01,-5.73565e-01,1.44094e+00,-5.24335e-01,-8.80004e-01,2.00189e-01,
2.67120e-01,1.49508e-01,3.89157e-01,1.19320e-01,2.14231e-01,-2.20398e-01,2.11199e-01,2.71364e-01,9.38513e-02,2.52167e-01,4.10532e-02,-1.99914e-01,1.34848e-02,2.69699e-01,-6.85943e-02,-1.66719e-01,-3.49287e-01,-4.63542e-01,-1.23888e-01,-1.80474e-01,2.57420e-01,1.55878e-01,-3.97981e-03,-6.87534e-03,-1.47449e-01,
1.85557e-01,-3.63386e-01,-7.74660e-02,-5.48029e-02,2.46222e-01,-2.29289e-01,2.59960e-01,1.39742e-01,-9.63952e-02,-1.93136e-01,-1.22757e-01,-7.18297e-02,-1.21450e-01,6.08806e-03,-6.75027e-02,4.08923e-01,3.43196e-01,-1.66405e-01,-3.21100e-01,4.71232e-02,-5.74340e-02,-1.92417e-01,3.04575e-01,-8.46684e-02,-2.89514e-01,
-5.00548e-01,1.93999e-01,2.01297e-01,-3.55365e-01,2.59911e-03,5.88372e-02,-1.02918e+00,2.18925e-02,2.53071e-01,8.90914e-01,-9.03325e-01,5.10016e-02,-2.47581e-01,1.95281e-02,4.66947e-02,1.16039e+00,2.26260e-01,4.21687e-01,-3.59650e-01,-1.95429e-01,-5.10940e-01,-1.70123e-01,-1.48429e+00,-1.71412e-01,-1.04436e-01,
1.86989e-01,-3.44106e-02,2.02231e-01,1.85927e-02,-3.52573e-01,-6.60107e-02,1.36088e-01,2.14622e-01,-1.68391e-01,5.26056e-02,1.12368e-01,3.66596e-02,2.09714e-01,-1.60999e-01,2.29236e-01,-9.41573e-02,-2.88508e-02,-2.71913e-01,-4.10284e-03,2.58465e-01,5.65200e-02,8.60819e-02,2.63245e-01,5.64646e-01,-1.06434e-01,
-1.86156e-01,2.67602e-01,-1.18066e-02,1.46946e-01,3.19674e-01,-1.09379e-01,-3.26743e-02,2.64341e-01,-2.00382e-01,1.67482e-01,-3.04778e-01,-1.80957e-01,5.12162e-03,8.60564e-02,-2.78132e-01,1.17651e-01,2.50689e-01,2.41575e-01,-2.32746e-01,3.06652e-01,1.57434e-01,1.38403e-01,-1.55303e-01,-1.77361e-01,3.08373e-01,
-4.08293e-01,-1.06771e-01,-4.64761e-01,-3.68057e-01,-6.00497e-02,-1.80218e-01,-8.98799e-02,3.13739e-01,1.19540e-01,1.33569e-01,-6.33135e-02,2.56810e-01,-1.72331e-02,5.85201e-02,1.75695e-01,-5.47952e-01,2.01751e-01,-2.12390e-01,8.32096e-02,-6.78901e-02,-2.34023e-02,-8.42527e-01,-5.03141e-02,-1.44860e+00,2.47375e-01,
-1.97040e-01,-2.20428e-01,-1.17757e-01,-2.91666e-02,-2.53903e-01,-3.07366e-02,-2.19522e-01,-8.97721e-04,1.72259e-01,8.98918e-02,-3.19551e-01,3.56057e-01,-3.02135e-02,4.87203e-02,2.21906e-01,-8.90197e-02,1.85883e-01,-1.72216e-01,1.57465e-01,-2.04253e-02,2.73742e-01,-6.82316e-02,-1.40065e-01,1.92267e-01,3.27838e-01,
-2.67223e-01,-1.84033e-01,3.41645e-01,-1.32283e+00,8.76470e-01,3.56125e-01,3.12527e-01,-2.33026e-01,-9.75323e-01,-6.58562e-01,-7.51213e-01,-6.58197e-02,-1.95995e-01,-2.88467e-01,-8.44431e-02,-4.98051e-02,4.87343e-01,1.83263e-01,-5.75245e-01,1.29335e-01,-3.33612e-01,-1.13623e-01,-4.36368e-01,4.13356e-01,-9.44371e-02,
1.18405e-01,-4.03877e-01,-1.97837e-01,2.60041e-01,3.25726e-01,1.20331e-01,-3.97001e-01,-4.56920e-03,6.29556e-01,1.12893e-01,-7.79642e-01,1.35923e-01,2.66133e-01,9.59179e-02,-4.13042e-01,7.70470e-01,-6.47370e-01,3.20067e-01,3.23595e-01,1.53475e-01,3.44208e-01,-5.48911e-02,-6.69930e-01,1.61245e-01,2.65394e-01,
2.25949e-01,-1.88623e-01,-8.21068e-02,-2.78354e-02,-4.67569e-03,-8.74372e-02,1.38475e-01,1.71599e-01,-6.22325e-02,1.76465e-02,-1.61080e-01,1.06303e-01,-3.22824e-01,2.97628e-01,2.06793e-01,1.34793e-01,-4.75477e-02,1.75165e-01,2.46602e-01,-5.81900e-02,1.77197e-01,-2.70139e-02,-1.14005e-01,4.03662e-01,2.02422e-01,
2.12110e-02,1.17224e-02,3.36326e-01,-3.46030e-01,2.04559e-01,-9.71073e-02,-3.70868e-01,1.63810e-01,-2.29997e-01,-1.82302e-01,4.96944e-01,-1.05058e+00,2.21356e-01,-1.81897e-01,4.24629e-02,7.71780e-01,-1.30043e+00,-3.34191e-02,4.79845e-01,-2.26360e-01,-5.58729e-01,1.96522e-01,-2.61172e-01,-1.08704e-01,5.18443e-02,
7.42360e-02,-3.51513e-01,1.19327e-01,3.24111e-01,7.03740e-02,-5.51091e-02,2.24332e-01,3.11853e-02,8.30463e-02,-2.60542e-01,2.62016e-01,-1.14071e-01,1.77962e-01,2.35637e-01,-1.89963e-01,4.21801e-02,-5.19946e-02,-4.36123e-02,-2.55250e-01,-2.76665e-01,2.50888e-02,-3.08636e-01,3.53303e-01,3.01278e-01,-7.95522e-02,
8.21134e-02,1.32299e-01,-6.40823e-02,-1.82506e-01,1.00650e-01,-3.06370e-01,-6.59196e-02,1.48619e-01,-3.67370e-01,-5.73511e-02,-7.72721e-02,6.87375e-02,-8.20059e-02,7.54871e-02,1.41679e-01,4.61811e-01,1.07401e-01,1.43525e-01,1.65133e-02,3.40403e-01,-8.87721e-02,1.81419e-01,8.21363e-02,1.32530e-01,6.70050e-02,
-3.19810e-01,-2.51972e-01,1.69252e-02,2.77687e-01,3.24859e-01,-1.98103e-02,-1.55031e-01,3.49537e-02,2.55223e-02,-9.83768e-03,-1.85455e-01,-9.42735e-02,-3.39709e-01,1.66498e-01,-1.19270e-01,9.83793e-02,2.18674e-02,-3.00236e-01,-8.99423e-02,1.79885e-01,2.03898e-01,-1.91563e-01,-4.78387e-02,6.85393e-02,3.30230e-01,
-7.93015e-02,
2.54188e-01,
-1.31071e-01,
7.43203e-02,
4.66192e-02,
3.13162e-01,
3.76628e-01,
-3.23861e-01,
-2.11814e-01,
5.59943e-02,
2.18219e-01,
-3.26461e-02,
2.26196e-01,
-1.65569e-01,
-1.36044e-01,
-2.72673e-01,
2.06752e-02,
3.33560e-02,
-2.09425e-01,
8.22350e-02,
1.54926e-01,
1.80201e-01,
1.15457e-01,
2.58623e-01,
-7.33701e-02,
-4.46504e-01,-8.44625e-02,5.32022e-02,-4.79047e-02,-5.06002e-02,-4.43968e-01,-1.67466e-02,-3.63259e-02,-1.51323e-01,7.04599e-02,-2.68421e-01,-7.46995e-02,2.25176e-01,-5.33327e-01,1.02918e-01,6.09335e-03,8.22348e-02,-8.58160e-02,-4.05651e-01,-4.34068e-01,1.15590e-01,-5.37687e-01,-3.05807e-01,-2.19613e-01,-2.86082e-01,
-4.07472e-01,5.73718e-02,-4.76368e-02,3.06639e-02,-6.73993e-02,-4.53511e-01,-4.35611e-02,-3.70144e-02,-2.27191e-01,-8.95391e-02,-1.99222e-01,1.19566e-02,-1.21817e-02,-6.77548e-01,9.36798e-02,-1.97326e-02,2.50046e-02,-1.32764e-01,-3.71981e-01,1.49953e-02,1.09651e-01,-1.72980e-01,-2.12019e-02,-2.00986e-01,-1.11038e-01,
-3.50077e-01,6.02185e-02,-5.60276e-02,6.11435e-02,-2.27358e-01,-3.25011e-01,-2.47925e-01,-4.37019e-02,-2.40437e-01,-3.13608e-01,-1.00783e-01,8.60605e-02,-1.50587e-01,-6.65895e-01,3.09082e-01,-1.77015e-01,-8.82366e-02,-1.73209e-01,-4.00265e-01,2.36245e-01,6.35430e-02,-4.87367e-01,6.41944e-02,-3.32450e-01,2.85609e-01,
-1.62323e-01,1.81151e-01,-1.21919e-01,4.07375e-02,-3.48832e-01,-3.71433e-01,3.32299e-01,-1.00479e-01,2.22960e-01,3.05839e-01,-3.05615e-02,-5.80826e-02,7.86733e-02,-1.17631e+00,-3.08510e-01,-1.26174e-01,8.99598e-02,7.54980e-02,-6.25967e-01,2.90718e-01,4.35615e-02,4.36576e-01,2.27867e-02,1.10290e-01,-1.34172e-01,
-6.29605e-01,1.96568e-01,-1.33632e-01,8.14596e-02,4.65117e-01,-3.27556e-01,1.88259e-01,3.41702e-02,3.30833e-01,-2.57288e-02,-3.43485e-01,4.54961e-02,-1.83174e-01,-6.48245e-01,-2.56975e-01,-6.46808e-02,3.57140e-02,-1.03703e-01,1.16797e-01,2.75958e-01,1.09164e-01,-7.76892e-01,3.03483e-01,1.45507e-01,-3.38262e-01,
4.30753e-02,
4.33692e-02,
2.68997e-01,
-3.93907e-01,
-2.16380e-01,
