// Neural Network File Format by Kyle Julian, Stanford 2016
6,5,5,25,
5,25,25,25,25,25,5,
0,
-56000.000000,-56000.000000,-3.141593,200.000000,200.000000
56000.000000,56000.000000,3.141593,200.000000,200.000000
-278.628049,0.000000,0.000000,200.000000,200.000000,-0.242819
112000.000000,112000.000000,6.283185,1.000000,1.000000,17.479225
1.66165e-02,1.19960e+00,-3.67728e-01,-1.89389e-01,2.72270e-01,
2.27392e-01,1.09643e+00,-2.55910e-01,-2.73625e-01,-3.43103e-01,
-2.87648e+00,1.39856e+00,-3.26456e-01,-8.73533e-02,-1.97131e-01,
-3.09574e-01,2.35924e-01,7.90145e-02,2.16915e-01,-4.18223e-02,
1.27985e+00,1.23919e+00,5.67491e-01,3.95908e-01,1.53180e-01,
1.89638e-01,-2.20300e+00,-3.30216e-01,1.11038e-01,1.27837e-01,
-7.12739e-01,-1.73470e+00,-4.95837e-01,9.50730e-02,3.14484e-01,
-5.83012e-01,-7.38491e-01,-8.95543e-01,1.67303e-01,-1.57436e-01,
6.47038e-02,1.55791e+00,5.81631e-01,1.72038e-01,1.85533e-02,
-9.82531e-02,1.64070e-01,-3.91501e-01,-3.98510e-01,-2.52245e-01,
2.14223e-01,1.19984e+00,7.27588e-02,1.77093e-02,-3.98372e-01,
-3.73948e-01,3.10248e-01,-1.96440e-02,3.56208e-01,1.15005e-02,
1.73270e+00,1.31461e+00,2.17005e-01,2.61090e-02,-3.29590e-01,
-5.07423e-01,-1.97069e-01,5.92738e-01,1.02130e-01,1.93270e-01,
-2.55396e+00,1.72754e+00,2.59831e-01,3.81281e-01,-3.34989e-02,
3.15566e-01,-4.42659e-02,-8.68385e-02,3.58523e-01,4.64583e-02,
-1.98952e+00,-9.31989e-01,1.51977e-01,2.42437e-01,-3.83264e-01,
-2.85092e-02,-3.18379e-02,-8.65282e-02,-1.87346e-02,-2.97246e-01,
-1.68175e-01,-1.39708e-01,1.33254e-01,2.00902e-01,-2.86344e-01,
-1.23844e-02,1.95903e+00,4.99651e-02,2.69864e-01,8.10526e-02,
-1.07318e-01,-2.28078e-01,2.42322e-01,9.93952e-02,3.58631e-01,
9.24960e-02,5.43289e-02,-3.36798e-01,2.35475e-01,2.18986e-01,
9.35749e-01,-8.87382e-01,2.09196e-01,-1.02871e-01,3.09056e-01,
-9.14687e-01,-1.75435e+00,3.74310e-01,2.99369e-01,-2.33468e-01,
9.63956e-03,1.50141e-02,2.93816e-01,3.54793e-01,3.70648e-01,
2.11192e-01,
1.50078e-01,
-2.81533e-02,
-2.99046e-01,
2.47148e-02,
2.31520e-03,
-6.34470e-03,
5.08239e-02,
-1.75479e-02,
-3.16352e-01,
2.14173e-01,
-3.45329e-01,
-1.09606e-03,
8.19795e-02,
8.98530e-03,
-2.06885e-01,
-4.58023e-03,
-1.72434e-01,
-3.01531e-01,
4.55438e-02,
-2.61039e-01,
-2.76684e-01,
-2.53049e-02,
2.44814e-01,
-2.74055e-01,
-4.49363e-01,5.98516e-02,-2.46088e-01,-8.70083e-02,-5.68838e-01,1.61324e-01,-1.38915e-01,4.61493e-01,9.98751e-01,2.13990e-01,-1.80618e-01,2.74649e-01,-2.51120e-02,-2.94173e-01,-4.34483e-01,-1.98041e-01,1.41207e-01,3.34576e-01,-3.10962e-02,-3.13408e-01,3.37761e-01,-8.48604e-02,3.77856e-01,1.02542e-01,2.01027e-01,
6.80318e-02,1.34960e-01,3.87247e-01,1.51326e-01,3.43548e-01,-6.95542e-01,1.50705e-01,8.55242e-02,-6.07553e-01,-1.63470e-01,1.17520e-01,3.03499e-01,1.25577e-01,2.59233e-01,-1.15244e-01,-2.33031e-01,-2.48950e-01,-3.05941e-01,-2.98626e-01,5.77639e-01,-3.31625e-01,-4.18143e-02,1.14434e-01,-5.05266e-02,-1.94331e-01,
2.28942e-01,-1.12442e-01,5.26002e-02,4.89829e-02,-1.35515e-01,8.72193e-01,9.40724e-02,2.18207e-02,2.34024e-01,3.25985e-01,-2.92883e-01,2.37753e-01,9.40208e-01,-1.92227e-01,5.14049e-01,2.62859e-02,1.05352e-01,-1.64474e-01,3.22417e-01,-5.08119e-01,7.11570e-02,-2.56876e-01,-4.56222e-01,-2.97304e-01,-5.84817e-03,
7.90361e-02,7.52404e-02,2.11376e-02,2.22934e-01,-2.27756e-01,-3.26987e-01,2.72366e-01,-4.49798e-01,7.53364e-02,2.32155e-02,-1.33851e-02,1.03162e-01,-2.18152e-01,2.70084e-03,-2.81721e-01,-1.11347e-03,-6.90049e-01,2.59888e-01,2.70895e-02,2.57818e-02,3.05150e-01,-2.58100e-01,3.10506e-01,2.43488e-01,-8.39078e-03,
3.89530e-01,-1.26221e-01,-2.31511e-01,1.78453e-01,3.39657e-03,2.83092e-01,-1.03235e-01,-3.96518e-01,6.68798e-02,-2.54933e-01,-5.52766e-02,-1.05145e-01,3.69526e-01,5.56760e-02,-1.16693e-01,-3.12219e-01,1.86714e-01,1.34975e-01,-8.44972e-02,1.53744e-01,-6.02503e-02,9.04995e-03,-2.81874e-01,-2.44318e-01,-7.02218e-02,
-1.41442e-01,1.88864e-01,3.83928e-01,2.18065e-01,-1.52074e-01,-1.88416e-01,-2.88764e-02,-5.36751e-01,3.48829e-01,1.59637e-01,-1.94861e-01,1.11857e-01,-4.34182e-01,2.05195e-01,1.31403e-01,2.03658e-01,1.75217e-01,1.36606e-01,-2.90820e-01,2.53779e-01,-2.92850e-01,1.58394e-01,-3.90449e-01,1.29831e-01,-1.61490e-01,
-2.59324e-01,-3.07416e-01,8.88905e-01,2.96810e-01,1.75229e-01,6.98223e-02,2.48675e-01,-1.92690e-01,-1.49933e-01,2.34552e-01,-2.52281e-01,5.13971e-03,-3.77752e-01,-1.06374e-01,-7.44373e-01,3.02747e-01,-1.36988e-02,2.62024e-01,1.43337e-01,-4.88801e-02,-2.62343e-01,3.20944e-01,-1.20349e-01,3.94835e-01,-1.49585e-01,
-3.20558e-01,-2.79250e-01,3.37024e-01,3.61620e-02,-2.89126e-01,1.50946e+00,2.12901e-01,-3.20963e-02,9.04306e-02,3.31145e-01,-3.26123e-01,-1.49679e-01,6.67942e-01,-2.87326e-01,5.46062e-01,1.26453e-01,7.06059e-01,1.24110e-01,2.41880e-01,-7.59848e-02,1.65268e-01,1.59894e-01,-9.19698e-01,1.14143e-03,1.00031e-01,
-1.76676e-01,-6.80823e-02,-3.11972e-01,-1.59667e-02,-1.23465e-01,-2.44082e-01,-5.88258e-01,3.31307e-01,1.50375e-01,-2.56127e-01,3.18705e-02,1.42692e-01,-2.68495e-02,-6.66308e-03,-1.93042e-01,-1.14198e-01,-1.16567e-01,2.88915e-01,-1.55073e-02,-5.67187e-03,-2.98460e-01,2.70796e-01,-3.38645e-01,1.70087e-01,-3.14925e-01,
3.58764e-01,-9.29846e-02,1.22853e+00,1.39065e-02,-9.94124e-02,-6.95081e-02,-1.73451e-01,-4.29399e-01,-1.17887e-01,2.56784e-01,2.95310e-01,-1.10549e-01,1.50754e-01,-1.78237e-01,7.05876e-01,1.77255e-01,1.26269e-01,1.42637e-01,-2.21961e-01,2.77389e-01,-3.33427e-02,-2.94238e-01,1.99897e-02,3.95237e-02,1.96931e-01,
-6.09930e-01,-4.88406e-01,7.20510e-01,-1.97879e-01,1.76575e-01,-6.72587e-01,8.19276e-01,1.86825e-01,-1.11267e-01,1.66990e-01,5.40607e-02,-1.10315e-01,-5.87622e-01,2.11259e-01,-3.96204e-01,-1.25894e-01,5.62868e-01,1.32911e-01,2.69079e-01,3.59979e-02,-1.93118e-01,1.01454e-01,2.01849e-01,1.35294e-01,2.57999e-01,
2.39365e-01,2.47729e-02,-9.91481e-01,9.91398e-02,-5.14963e-01,-3.53767e-01,-1.73820e+00,-1.84799e-01,-9.70164e-01,1.36651e-01,-3.44177e-01,8.87650e-02,-1.42372e+00,2.70269e-01,-1.77603e+00,-3.46179e-01,-2.34361e-01,-9.52943e-02,-6.27110e-02,1.18856e-02,1.23463e-01,2.09666e-01,-3.14844e-01,3.18218e-01,2.62934e-01,
-1.68176e-01,4.69618e-01,-1.29651e+00,-2.64838e-01,1.51888e-01,3.76736e-02,-2.88519e-01,7.32468e-01,1.30552e-01,-1.84020e-01,-1.08520e-01,2.67212e-01,-1.74690e-01,4.07066e-01,2.40016e-01,2.11041e-01,-3.69359e+00,-2.20556e-01,-3.40961e-02,-1.87503e-02,8.44795e-02,-2.93853e-01,5.03312e-01,-6.40467e-01,2.29160e-01,
2.32163e-01,-1.30713e-01,-7.91023e-01,-1.08384e-01,-6.58159e-01,-2.68850e-01,-6.35097e-01,1.53545e-01,7.75868e-01,4.38154e-04,1.20821e-01,2.46960e-01,-3.40518e-01,2.06065e-01,-5.59918e-01,-2.54629e-01,-4.40520e-01,1.97621e-01,-2.65123e-01,-1.78609e-01,-1.76428e-01,-1.98655e-01,1.84687e-01,-7.90472e-02,1.99271e-01,
6.27060e-02,8.57824e-02,1.44775e+00,-2.28534e-01,5.88790e-01,-3.64339e-01,1.44882e-01,1.31346e-01,5.53075e-02,-2.13455e-01,3.28521e-02,5.79842e-02,1.43457e-01,-5.92575e-02,8.53263e-01,-6.20005e-02,-8.83783e-02,-2.48690e-01,2.35324e-01,4.15976e-01,-1.12147e-01,-4.45052e-02,-4.07730e-02,-1.01163e-01,1.18854e-01,
1.44914e-01,-3.21801e-01,-1.10022e-01,-1.42740e-01,-4.76618e-01,8.82632e-01,-6.95269e-02,-1.64814e-01,-1.60203e-01,1.06702e-01,1.17123e-01,-2.24176e-03,7.52799e-01,-7.04912e-01,-3.97441e-01,1.85481e-01,-1.72090e-01,-2.90885e-01,-1.48703e-01,-2.39042e-01,-9.29058e-02,-2.56249e-01,-8.02070e-01,5.53880e-01,5.20339e-02,
-2.65115e-01,-5.44322e-01,6.51267e-01,1.96834e-01,-3.10966e-01,3.99196e-01,7.47181e-01,2.17191e-01,2.08369e-01,-5.88985e-02,1.73131e-01,2.45098e-01,4.13670e-01,-2.42898e-01,-5.83865e-02,-1.55853e-01,6.36605e-01,3.37941e-01,-1.90028e-01,-1.14991e-01,-2.80271e-01,1.85007e-01,-2.44614e-01,5.59142e-01,2.95394e-01,
-1.23990e-01,-1.43204e-01,3.11667e-01,-8.25006e-02,6.72851e-02,-3.90453e-01,-4.65459e-02,5.70729e-01,-1.64554e-01,2.49667e-01,2.63966e-01,2.77715e-01,1.83703e-01,-3.43499e-01,1.46157e-01,-1.87358e-01,-5.05725e-02,-2.31601e-01,-2.29842e-02,8.30939e-02,2.14930e-01,-4.59775e-02,-6.09484e-02,3.79801e-02,4.65259e-03,
-1.35167e-01,-1.67987e-02,6.64977e-02,-1.98902e-02,4.83193e-01,7.59499e-01,-9.80558e-02,-1.46886e-01,5.62061e-02,2.00759e-01,-1.72939e-01,1.03163e-02,8.63341e-01,-1.19746e-01,2.13173e-01,-2.00334e-01,2.04613e-01,-1.82556e-01,6.30109e-02,-2.60397e-01,2.00124e-01,-1.84018e-01,-6.93183e-01,4.69967e-01,-2.12825e-01,
-2.92570e-01,1.28732e-01,-4.93719e-01,-1.05434e-01,-8.15277e-02,-1.12454e+00,-1.10434e+00,6.47323e-01,1.85930e-01,-1.22643e-01,-3.09570e-01,-1.19469e-01,-4.79222e-01,1.10443e-01,-6.18006e-01,1.99110e-01,1.18372e+00,-3.06294e-01,3.07818e-01,3.36875e-01,-2.85672e-01,-2.25136e-01,2.17000e-01,7.32436e-02,-2.73552e-01,
-1.92766e-01,4.72997e-02,-3.98686e-01,-5.43630e-02,2.14924e-01,-4.71448e-02,-3.63794e-01,-2.47230e-01,1.75579e-01,-9.44855e-02,-1.20861e-01,-4.23501e-02,5.00642e-01,-3.53471e-01,-1.76649e-01,-4.76165e-02,-5.02123e-01,1.83504e-01,-1.43914e-01,-2.81097e-01,-7.66011e-02,-1.29650e-01,-2.60204e-01,-1.38751e-01,-1.45321e-01,
-4.53677e-01,-5.27579e-01,3.09007e-01,1.20285e-01,-4.16543e-02,3.41233e-01,1.52903e-01,5.73658e-01,-2.27218e-01,1.74276e-01,1.82613e-01,-1.95151e-01,-4.73935e-01,2.56821e-01,3.15518e-01,2.33826e-01,9.05101e-01,-1.44466e-02,2.83305e-01,-2.29592e-01,2.36973e-01,-2.25265e-01,-1.58185e-01,2.73557e-01,-3.01030e-01,
-9.35051e-03,-2.82731e-02,3.70870e-01,-1.95258e-01,-2.78832e-01,-6.48317e-01,1.95013e-01,4.05379e-01,-1.07060e-02,5.00996e-02,2.99549e-02,-2.37313e-01,1.00882e-01,-7.37240e-02,-3.51216e-01,-3.03600e-01,1.88931e-01,3.29528e-01,-9.43618e-02,4.23893e-01,-1.66041e-03,3.22034e-01,6.95044e-01,4.16962e-01,1.56329e-01,
-5.26450e-02,1.38337e-01,1.10549e+00,-2.07937e-01,-2.12143e-01,7.34577e-01,2.13616e-01,-3.31617e-01,2.66251e-02,1.80630e-01,-2.01260e-01,2.70160e-01,7.14673e-01,-2.12448e-01,6.48819e-01,3.91563e-02,3.33568e-01,-1.30181e-01,2.69959e-01,-2.85667e-01,-1.59861e-01,1.01747e-01,-7.43784e-01,6.31367e-02,1.65641e-01,
1.88840e-01,-4.05909e-01,2.75085e-01,-2.29109e-01,3.03896e-01,-5.01043e-02,-2.15565e-01,-1.91577e-02,-6.05583e-01,2.99748e-01,-1.31078e-01,-1.15319e-02,5.26487e-01,-2.10088e-01,5.48792e-01,2.75716e-01,2.70624e-01,-2.64155e-01,1.05052e-01,7.29516e-02,5.68268e-02,3.34551e-02,-1.91780e-01,-1.72481e-01,-4.54909e-02,
1.95106e-01,
1.92702e-01,
1.49877e-01,
1.57606e-01,
9.92764e-02,
-2.24305e-01,
1.04959e-01,
2.77869e-01,
2.34896e-01,
-7.14242e-02,
1.55103e-03,
9.18235e-04,
-1.24561e-01,
1.71390e-01,
1.57399e-02,
-5.70593e-02,
-3.52315e-01,
-2.63303e-01,
5.88924e-02,
3.19509e-02,
3.27926e-01,
-1.12886e-01,
-1.66573e-01,
1.39433e-01,
2.20268e-01,
4.17806e-01,-3.49130e-01,4.71512e-01,1.40518e-01,2.71697e-01,7.28845e-02,1.85555e-02,1.19889e-01,-2.90180e-01,2.23989e-01,-4.08780e-02,-4.54529e-01,-4.50027e-03,-2.68126e-03,-2.01284e-01,-9.73278e-02,1.52713e-01,1.69343e-01,1.73279e-01,-1.09612e-01,8.24158e-02,-3.28515e-01,1.44346e-01,-1.61974e-01,2.19756e-01,
9.04639e-02,-2.84534e-01,2.68392e-01,1.98967e-01,1.31268e-01,1.47383e-01,2.17099e-02,-3.15248e-01,-1.12431e-01,8.67296e-02,-1.30946e-01,5.22593e-03,1.39690e-01,-9.97177e-02,-5.11572e-02,3.45420e-02,1.19132e-01,1.33333e-01,1.08623e-01,5.32218e-02,1.45711e-01,8.49786e-02,2.10136e-01,1.69822e-01,-1.74090e-01,
5.23397e-02,7.49628e-03,-3.87217e-02,4.35692e-01,2.54848e-01,-5.11480e-01,-9.46100e-01,2.33075e-01,1.47971e-01,-3.56233e-01,-2.06488e+00,9.74847e-01,2.47068e-01,3.75524e-01,4.92649e-02,-7.69669e-01,5.81914e-01,3.63717e-01,-2.93549e-02,-3.69193e-02,-2.20119e-02,-3.88880e-01,-1.20646e-01,3.59048e-01,1.94474e-02,
1.68366e-02,-1.01472e-01,1.18536e-01,1.48915e-01,3.10737e-01,-1.67004e-01,3.43109e-01,-2.69622e-01,1.65792e-01,5.75845e-02,1.49365e-02,-7.77998e-01,1.34847e-01,9.53429e-02,3.25229e-01,-2.36775e-01,-3.72552e-02,-8.61955e-02,-2.43874e-01,4.12535e-01,3.77552e-01,-2.49701e-01,-9.28330e-02,1.76763e-01,4.78374e-02,
-2.41507e-01,6.68458e-02,-2.63460e-01,2.00668e-01,1.94844e-01,2.95635e-01,-3.00367e-01,2.01487e-01,2.45524e-01,5.68917e-02,-2.28547e-01,2.97145e-01,2.66532e-01,-1.12188e-01,2.52226e-02,-9.99541e-02,3.09588e-01,3.98707e-03,1.30301e-01,-3.05528e-01,5.28648e-02,-5.11272e-02,9.16042e-02,-2.04744e-01,-2.97139e-01,
4.50880e-01,1.06837e-01,2.75911e-01,-4.05833e-01,8.80588e-02,9.24753e-02,1.52726e-01,3.64879e-01,-5.57303e-02,-9.08867e-02,6.01186e-02,-1.12449e+00,-1.26049e-01,-1.90067e-01,9.50159e-02,7.43276e-02,-3.63323e-01,3.40976e-03,1.29289e-01,6.79223e-01,-7.87320e-02,7.04092e-02,-1.10096e-01,-3.04142e-02,2.73361e-01,
-3.91012e-02,-3.96741e-01,-3.56118e-01,-2.02966e-01,2.71799e-02,1.84737e-01,-1.43075e-01,2.21287e-01,2.18018e-01,1.99753e-01,-1.44901e-01,-8.18209e-02,-3.81911e-02,2.61154e-01,1.58171e-01,-3.07366e-01,-2.26167e-01,-2.08261e-01,1.07745e-01,1.69309e-01,1.63904e-01,4.95534e-02,-9.41974e-02,-2.73931e-01,-2.18264e-01,
4.48211e-01,-8.71632e-03,-3.71321e-02,-7.13826e-02,4.88774e-02,1.54227e-01,1.08554e+00,2.99530e-01,1.29143e-01,-6.27588e-02,4.26406e-01,2.32700e-01,-6.00194e-01,3.14790e-01,1.74262e-01,-2.82340e-01,-3.40608e-01,-2.43742e-01,-2.34416e-01,-1.37317e+00,1.37333e-02,-4.72950e-01,-3.45208e-01,2.73905e-02,-1.20088e-01,
1.82826e-01,5.14546e-03,1.66058e-01,1.56565e-01,3.85285e-01,-7.35690e-01,-5.92728e-02,1.63100e-01,6.56245e-01,3.58837e-01,3.45114e-02,4.53019e-01,-3.11741e-02,4.71283e-01,-1.28760e-01,-1.08104e-01,2.05084e-03,1.04468e-01,1.27422e-01,8.58208e-01,3.13893e-02,2.09080e-01,-1.65558e-01,-2.93248e-01,-2.45133e-01,
5.04780e-01,-1.11138e-01,-3.37298e-01,3.29286e-01,-1.46307e-02,-1.91887e-01,7.78775e-01,-1.13573e-01,3.10377e-01,9.06807e-02,6.28994e-01,9.72057e-01,5.59139e-01,4.45525e-01,-4.26628e-01,-9.35712e-01,-2.37385e-01,-6.48993e-02,-8.97357e-01,-1.07302e+00,-3.03156e-01,-1.75069e+00,-1.42918e+00,-2.50068e-01,-2.78120e-01,
3.23553e-01,2.29627e-01,1.48357e-01,7.18313e-02,1.96241e-01,-3.29801e-01,-1.71191e-01,-2.13578e-01,1.69768e-01,1.32360e-01,-1.10776e-01,-3.49336e-01,-9.54239e-02,-3.70791e-01,1.45052e-01,-9.54956e-01,-2.61925e-02,2.32690e-01,-7.36610e-02,5.21778e-01,2.41350e-01,1.74579e-01,-4.95426e-01,1.89740e-01,-7.93213e-02,
3.47185e-01,2.16653e-01,-3.88681e-01,2.32098e-01,-3.80784e-01,7.69181e-01,-3.79803e-01,-2.20551e-02,-2.32751e-02,-9.00570e-01,-6.42745e-02,-1.62534e+00,1.87604e-01,-2.31469e-01,3.66420e-01,1.14821e-01,2.35262e-01,5.78778e-01,2.74868e-01,-5.17942e-01,-1.08910e-01,-1.49451e-01,-2.09062e-01,2.32994e-01,9.29692e-02,
-4.05085e-01,4.20018e-01,-1.43992e+00,1.81804e-01,1.32798e-01,5.81772e-01,-2.79126e-02,-5.66330e-01,3.60500e-02,2.73025e-01,-8.87102e-01,6.33551e-02,-4.90970e-01,3.72922e-02,2.47711e-03,-1.20343e+00,-1.88088e-01,4.06286e-01,-9.33617e-02,2.49797e-01,2.65194e-01,-7.15618e-01,-9.55599e-01,-1.92696e-01,3.15543e-01,
-3.39603e-01,2.77880e-02,1.03811e-01,-5.44483e-02,1.44604e-01,9.58589e-02,-3.46326e-01,3.57915e-01,2.53171e-01,-1.38147e-01,-2.32132e-01,-4.65558e-01,6.17777e-01,-3.15803e-01,3.02904e-01,7.08375e-01,-2.21951e-01,-3.19271e-01,2.08854e-01,1.17971e+00,8.62420e-02,1.23940e-01,6.58536e-01,2.30603e-01,3.77071e-01,
-1.95333e-01,-4.27616e-01,3.92638e-01,-6.06280e-01,-1.67290e-01,-2.03551e-01,7.06778e-01,-1.08396e-01,8.85012e-02,3.17120e-01,-2.72448e-01,-1.03434e+00,3.69038e-01,-2.66386e-02,4.01932e-02,9.17151e-02,-1.38776e-01,-3.91910e-01,-6.77494e-02,4.34798e-01,-2.52898e-01,3.45606e-01,6.05684e-04,-2.40303e-01,9.71101e-02,
3.14951e-01,-4.56430e-01,4.62493e-01,5.68832e-02,-5.78562e-01,8.15551e-02,9.44781e-04,1.12515e-01,8.85945e-02,9.73695e-02,-3.96897e-03,4.38056e-01,-9.56827e-01,-1.04039e-01,-1.29697e-01,-4.28411e-01,-3.46789e-01,3.72010e-01,1.08048e-01,1.98499e-01,-2.68003e-01,2.04230e-01,-6.08598e-01,9.46778e-02,-2.47046e-01,
-2.76668e-01,2.31172e-01,-1.25459e-02,1.37389e-01,5.28042e-02,1.17422e-01,6.95321e-02,3.08265e-01,-4.22202e-01,-9.55495e-02,2.60745e-01,-4.27344e-01,-6.98917e-01,-1.49338e-01,6.47691e-02,4.96689e-01,-6.30536e-01,5.98880e-02,2.71719e-01,-9.12331e-02,-2.98856e-01,-1.77229e-01,4.30123e-01,7.14826e-03,-2.07939e-01,
-8.36666e-02,9.47753e-02,1.00369e-01,1.32756e-01,-2.43127e-01,3.08230e-02,-3.21949e-01,-4.11556e-01,3.54950e-01,-3.83896e-01,-9.59636e-01,-4.44594e-01,8.56115e-02,5.29200e-02,3.61096e-02,5.17760e-01,-4.10379e-01,1.00213e+00,-2.71908e-01,2.19946e-01,-4.52011e-03,1.84573e-01,-8.83899e-01,7.09389e-02,1.23213e-01,
9.29408e-02,2.55659e-01,-2.94298e-01,1.85352e-01,-2.26043e-01,5.64759e-01,3.07415e-01,2.98761e-01,1.05688e-01,-1.15462e-02,-2.00292e-01,7.57643e-01,-1.59656e-01,-8.60206e-03,2.02417e-01,2.56740e-01,-3.33493e-01,2.57121e-01,3.19403e-01,3.44402e-01,-1.58286e-01,-5.44030e-01,1.01068e+00,-2.97261e-02,-3.69889e-01,
3.15445e-01,2.82975e-03,2.12426e-02,-8.78318e-02,5.71195e-02,-1.15830e-01,-3.56807e-01,1.04901e-01,1.61219e-01,4.86688e-02,-7.43641e-01,-2.89033e-01,-6.81762e-01,-2.89204e-01,1.04036e-01,-1.65361e-01,1.16129e-01,-9.24605e-02,1.73947e-02,-1.12716e+00,1.09062e-02,4.00484e-01,3.18881e-01,-1.73466e-01,-1.95016e-01,
-1.83351e-01,7.05176e-02,-3.57427e-01,1.20370e-01,-3.82708e-01,-3.25577e-02,2.95005e-01,2.85948e-01,2.86663e-01,1.26773e-01,-9.97102e-01,7.35217e-01,7.28908e-02,2.44062e-01,9.30175e-02,-1.55706e-01,5.59609e-01,2.89782e-01,2.19979e-02,-9.93037e-01,7.38478e-02,-1.03056e-01,-1.94215e-01,-1.44967e-01,7.01106e-02,
1.19660e-01,2.60812e-02,2.44325e-01,9.53176e-02,1.59397e-01,-1.41963e-01,6.29942e-01,4.59866e-01,3.86230e-01,5.32894e-01,8.30930e-01,-2.49860e-02,-1.77396e-01,-1.09138e-01,-4.14761e-01,5.54024e-01,-1.01034e+00,-4.73582e-02,1.31653e-01,6.42965e-01,2.50664e-01,-4.91385e-01,7.20503e-01,1.97192e-01,-1.23383e-01,
4.34361e-02,1.56527e-01,-2.70474e-01,2.17334e-01,-9.09650e-02,2.53312e-02,-5.42786e-01,-1.60034e-01,-1.40149e-01,7.09524e-02,4.45620e-02,-3.65816e+00,1.79169e-01,-6.09309e-01,2.99171e-01,5.22254e-01,-2.67165e-01,-1.38527e-01,3.48080e-01,-2.30654e-02,1.20356e-03,5.08778e-01,4.78693e-01,-1.80589e-01,-1.47109e-01,
5.35502e-01,-1.90130e-01,1.18607e-01,-1.06123e-01,-2.19252e-01,-4.03144e-01,-7.21234e-02,2.93020e-01,-3.59228e-02,2.28799e-01,2.29588e-01,7.54902e-01,-6.26751e-01,8.42215e-02,-1.10926e-01,-5.47875e-01,-1.53233e-01,2.28776e-01,5.45862e-02,-3.79981e-01,3.33561e-01,-1.92872e-01,-4.20467e-01,-5.89540e-02,3.08299e-02,
-2.03922e-01,-3.11420e-01,-8.47267e-02,4.73247e-02,-3.25332e-01,2.78332e-01,-2.23220e-01,3.16527e-02,2.67553e-01,-1.35878e-01,1.74418e-01,2.36983e-01,6.56463e-02,-3.05135e-01,-1.13459e-01,-3.26316e-01,2.57845e-01,1.47894e-01,-3.44587e-01,1.50653e-01,2.77685e-01,2.21350e-01,2.12691e-01,-2.80312e-01,1.90004e-01,
7.84122e-02,
-3.76890e-01,
-1.16288e-01,
-8.36125e-02,
-2.06016e-01,
-2.63545e-02,
-3.49266e-01,
-6.35805e-02,
-3.41834e-01,
1.25978e-01,
-2.25943e-01,
-6.55491e-02,
-9.06648e-02,
-1.00049e-01,
7.19403e-02,
1.90182e-01,
1.37694e-01,
1.35867e-01,
-3.93835e-02,
1.88512e-01,
2.10840e-01,
-1.66395e-01,
1.23988e-02,
2.80424e-02,
-2.54270e-01,
-3.45061e-02,2.38165e-01,3.07803e-01,7.53595e-02,6.19255e-02,3.88249e-01,-3.39990e-01,-4.10275e-01,-1.44016e-01,-4.39849e-03,-2.00788e-01,1.16337e-01,2.01738e-01,3.34204e-02,-7.33944e-02,-2.74442e-02,4.43270e-03,-3.44547e-01,-7.20203e-03,-2.34717e-01,-2.72177e-01,1.93707e-01,6.22011e-02,-1.59386e-01,-2.42295e-01,
6.32040e-02,8.72951e-02,-1.91856e-02,1.64211e-01,-3.06358e-02,-1.51678e-01,1.89177e-01,-3.48437e-01,4.43209e-01,2.27485e-01,-3.77282e-01,2.60108e-01,-1.37378e-01,3.17793e-01,-8.01804e-02,1.79327e-02,1.38523e-03,-4.88498e-01,3.09698e-01,2.70186e-01,-3.15752e-01,-2.65785e-01,7.40047e-02,1.47050e-01,1.87274e-01,
1.08377e-01,8.59785e-03,1.13348e-01,2.21064e-01,3.80087e-02,-4.88441e-01,-2.30374e-01,3.97352e-01,3.34684e-01,-1.69404e-01,-3.15252e-01,-1.63115e-01,-6.29640e-01,1.35100e-01,-7.51535e-02,1.66195e-01,-1.13355e-01,-8.40783e-02,-1.69829e-01,2.72247e-01,-1.68939e-03,2.33345e-02,2.52220e-01,2.42662e-01,-1.40334e-01,
-3.99593e-02,-2.22114e-01,-3.24671e-01,-2.39460e-01,-2.13791e-01,3.29258e-02,1.66926e-01,-3.10365e-02,1.01134e-01,3.02675e-01,2.86724e-01,-6.54541e-02,-1.27525e-01,-2.07635e-01,-2.72944e-01,1.34061e-01,3.20657e-02,-2.75018e-01,1.99056e-01,4.35747e-02,-5.64291e-02,-5.24732e-02,-7.58608e-02,3.00990e-01,1.95422e-01,
-1.34830e-01,-2.52231e-01,-1.68883e-01,2.11850e-01,-1.37390e-01,2.87827e-03,3.44679e-01,-9.70578e-02,-1.54177e-01,4.24843e-02,1.12519e-01,-1.84244e-02,-9.14191e-02,-3.49833e-01,7.21969e-02,-2.46992e-01,1.33867e-01,-2.08920e-01,1.67891e-01,-1.20985e-01,-2.46131e-01,-2.10485e-01,3.07876e-01,-8.10906e-03,2.90637e-01,
-6.92796e-02,-1.53171e-02,4.99657e-01,-2.34638e-01,-2.67952e-01,-4.53290e-01,-5.17599e-02,4.14725e-01,-2.70458e-01,8.24255e-01,4.01968e-02,1.72878e-02,-1.16555e+00,-8.01303e-01,8.36369e-02,-2.25207e-02,-3.20710e-01,2.50199e-01,-2.43967e-02,-2.27061e-01,1.03268e-01,-1.71625e-01,-6.07238e-01,2.32077e-01,2.69276e-02,
-9.89736e-03,-4.02865e-02,4.07257e-01,-8.94278e-02,5.94803e-02,-2.91773e-01,2.97569e-01,1.64693e-01,2.81265e-01,-2.17090e-01,-9.76399e-02,-3.13350e-01,2.98432e-01,1.65988e-01,1.26864e-01,4.79666e-01,1.71973e-01,2.49317e-01,3.21406e-01,3.02609e-01,-1.15758e-01,1.12019e-01,1.92058e-01,4.36207e-01,-9.53240e-02,
2.32281e-01,4.44476e-02,8.75521e-03,3.53446e-02,9.76611e-02,-1.95758e-01,8.67753e-02,2.06439e-01,1.99532e-02,-2.73781e-01,-4.30633e-02,-2.46675e-01,7.15473e-02,-1.31613e-01,2.24230e-01,2.04290e-01,-4.05009e-01,9.97036e-02,2.07330e-01,-1.49966e-01,4.66521e-02,2.46099e-01,3.02960e-01,2.90002e-01,-4.09692e-03,
-2.39698e-02,1.88371e-01,1.15514e-01,-4.35061e-02,-2.19246e-01,-9.73473e-02,-6.75822e-02,-1.01271e-01,1.61237e-01,-2.60360e-01,-1.14474e-01,-2.32552e-02,2.19309e-01,2.75579e-01,1.83140e-02,6.45887e-02,3.23549e-01,2.58810e-01,1.78421e-01,2.60354e-01,-1.89794e-01,3.08438e-01,-2.39292e-01,-2.09375e-01,1.33543e-02,
-3.79564e-01,1.96128e-02,6.25093e-02,1.61192e-02,-1.47830e-01,2.78751e-01,1.97175e-01,-1.26560e-01,-7.79589e-02,1.48328e-01,-1.38451e-01,-1.35561e-01,4.74608e-01,1.53825e-01,4.03318e-01,-2.31527e-01,-9.93638e-02,-3.79363e-03,4.09529e-02,6.19296e-03,5.85485e-02,-3.38947e-01,-3.40062e-01,-5.11469e-02,1.75080e-01,
-1.00124e-01,2.12781e-01,2.38788e-01,-1.01292e-01,-9.88467e-04,2.81596e-01,1.06375e-01,1.54836e-01,2.63196e-01,4.22630e-01,2.46091e-02,-5.38449e-01,2.53031e-01,-6.97293e-02,-1.46983e-01,1.24015e-01,3.02405e-01,3.17539e-01,-5.96455e-02,2.01559e-01,2.34440e-01,-1.32073e-01,1.10486e-01,-1.57042e-01,-3.07448e-01,
2.05389e-02,1.47252e-01,2.76592e-02,1.98410e-01,3.98950e-02,1.54661e-01,3.14771e-01,1.05892e-03,-1.00198e-01,5.69295e-01,-1.41530e-01,-4.46355e-01,-2.10180e-01,-2.87890e-01,-2.08717e-01,2.71632e-01,-2.11307e-01,-1.13178e-01,3.49572e-02,1.80769e-01,-2.56498e-01,1.45784e-01,6.73128e-01,2.40468e-01,1.16881e-01,
1.24873e-01,3.14919e-01,7.96172e-02,-9.97203e-03,2.56136e-01,-2.09777e-01,9.33689e-02,-4.94572e-02,2.18094e-01,-6.98575e-02,-2.55423e-01,2.70825e-02,-2.53195e-01,2.31625e-01,-3.06830e-01,2.57816e-01,8.25294e-02,-3.45226e-01,1.00102e-01,-4.47612e-02,-2.82397e-01,8.99704e-02,2.11905e-01,2.55985e-01,2.15829e-01,
-1.59252e-01,2.42404e-01,-1.95771e-01,2.22613e-01,-1.67814e-01,9.52407e-01,-1.68504e-01,1.24007e-01,-1.77799e-01,6.91445e-01,8.70659e-01,2.77135e-01,6.57581e-01,-1.34930e+00,-9.44654e-01,-7.18356e-01,-2.93552e-01,2.31921e-01,3.01898e-01,3.92310e-01,2.73285e-01,-3.71972e-01,2.09869e-01,-8.50417e-02,-2.40919e-01,
1.19131e-01,-2.32490e-02,-2.28005e-01,1.28622e-01,-2.66056e-01,8.71588e-02,3.21145e-01,6.04420e-02,-9.74481e-02,5.66900e-01,-2.23311e-01,-9.50018e-02,2.61830e-02,-1.93148e-01,3.27878e-03,-7.83987e-02,-3.40410e-01,1.58561e-01,1.29648e-01,8.84296e-02,1.23838e-01,-1.80862e-01,2.62177e-01,2.16607e-01,-4.86969e-02,
2.25126e-02,1.32955e-01,1.70098e-01,-4.80122e-01,1.31451e-01,6.24923e-02,-3.36891e-01,-1.69961e-01,-2.08228e-01,4.18091e-01,6.68621e-01,1.05173e+00,-9.20486e-01,-1.13971e-01,6.15499e-01,-1.85717e-01,-2.90647e-02,2.77375e-01,-3.93780e-01,-2.79187e-01,-1.75373e-01,-2.27784e-01,-3.52537e+00,-3.58384e-01,-2.26717e-01,
2.96184e-02,1.43989e-01,-6.59175e-03,1.08734e-01,2.55078e-01,-2.73558e-01,-1.41824e-01,-3.54580e-01,1.68457e-02,-4.46877e-01,-2.46989e-01,2.80939e-01,7.72173e-01,3.62613e-01,-2.92651e-01,-8.72825e-02,9.37013e-02,2.55443e-01,1.57057e-01,1.36394e-02,-2.60191e-01,-3.63580e-01,-2.49051e-01,-1.01279e-01,6.07591e-02,
1.22949e-01,-2.35539e-01,-7.73242e-02,1.34770e-01,1.12096e-02,2.59570e-01,1.89414e-01,-2.90861e-01,-2.43294e-02,-5.43872e-01,-1.53111e-02,-6.20789e-03,7.17903e-01,-1.12076e-01,1.05086e-01,1.84039e-01,-2.62163e-01,8.10610e-02,2.65834e-01,-3.42858e-01,-4.88044e-03,2.87559e-02,-1.94432e-01,-6.89711e-02,5.68745e-02,
4.11680e-01,-5.49257e-02,1.09243e-01,1.27481e-01,-1.42165e-01,-1.28351e-01,3.37270e-01,-1.62794e-01,-1.45884e-01,-1.35693e-01,-2.37751e-02,-1.99790e-01,-5.29599e-01,3.25751e-02,3.15014e-01,-3.97575e-01,-4.23245e-01,-2.60180e-01,7.65879e-02,1.67102e-01,-5.23591e-03,-5.35327e-01,-1.58027e-02,2.62675e-01,-1.45050e-01,
5.04055e-03,2.92034e-01,-3.85252e-02,6.58923e-02,-2.07542e-01,-3.21478e-01,2.47002e-01,2.91871e-01,-6.85073e-02,-5.12060e-01,-1.24990e-01,-4.26509e-02,-2.92208e-01,1.78776e-01,-2.02588e-01,2.34545e-01,3.16976e-02,-9.36562e-02,-1.25800e-01,-4.01874e-02,1.05283e-01,1.32784e-01,2.20739e-02,1.83610e-01,9.94878e-03,
1.91105e-01,-1.55736e-01,-2.80250e-01,6.09145e-02,-9.05897e-02,-1.45939e-01,1.28722e-01,-1.55263e-01,3.32725e-01,2.96525e-01,2.62277e-01,3.12503e-01,1.20486e-01,2.01999e-01,-2.36521e-01,-2.43433e-01,9.16759e-03,-2.08566e-01,1.00512e-01,-2.69272e-01,4.36570e-02,-3.04150e-01,-3.10557e-01,-6.35116e-02,-1.95683e-01,
2.09020e-01,-1.51384e-02,2.63165e-01,-1.21346e-01,-1.14536e-01,1.16456e-01,-3.57792e-02,3.30410e-02,9.88191e-02,5.36256e-01,-3.34327e-01,-2.28830e-01,-1.35287e-01,1.53779e-01,-2.75138e-01,2.21083e-01,-2.71765e-01,-2.30940e-01,3.47995e-01,-3.00189e-01,-3.50249e-02,3.00533e-01,1.53445e-01,1.59007e-01,3.37403e-01,
-1.45200e-02,8.84111e-02,3.36551e-01,3.39620e-01,3.34113e-01,-1.33121e-01,1.95255e-02,3.97745e-01,-8.12615e-01,-5.23872e-01,-2.22081e-01,-1.02495e-01,2.34877e-01,-4.29078e-02,-1.18409e-01,-3.13858e-01,8.41308e-02,-5.59760e-02,-1.29467e-01,-1.71486e-01,-3.75360e-01,-6.07465e-02,-3.28206e-02,5.34194e-02,-2.27325e-01,
-1.66457e-01,-2.64607e-01,6.44908e-02,-7.63703e-01,1.97467e-01,1.15389e-01,-1.71636e-01,3.62207e-01,1.54060e-01,-2.98898e-01,6.48936e-01,-7.19730e-01,-8.99770e-01,-3.35993e-01,-1.61293e-01,2.44097e-01,-5.27162e-02,-2.54329e-01,6.58138e-02,5.84762e-02,7.16102e-03,5.09131e-01,3.46802e-01,2.32132e-02,-2.27945e-01,
-5.51248e-01,-4.15414e-02,-1.44593e-01,1.16337e-01,-1.34447e-01,-1.37734e-01,1.56611e-01,-2.32361e-02,-3.09754e-01,5.68756e-01,-7.56403e-02,-7.76477e-01,4.68415e-01,-3.91474e-01,-9.18338e-01,-6.41773e-01,2.07305e-01,-8.35247e-02,-1.30402e-01,-1.59802e-01,8.27903e-02,-4.78902e-02,1.62022e-01,-5.12455e-01,2.91100e-01,
9.75040e-02,
-6.25683e-02,
2.84692e-03,
-3.33883e-01,
-4.28792e-02,
-5.58119e-02,
-2.29361e-01,
4.48037e-02,
-2.30249e-02,
1.79783e-01,
-8.53482e-02,
7.87994e-02,
2.57508e-01,
-2.05171e-01,
2.57313e-01,
1.50556e-01,
1.16502e-01,
9.03521e-02,
1.39742e-01,
1.49035e-01,
-2.73877e-01,
5.77228e-02,
1.58822e-01,
-7.08781e-03,
1.11219e-01,
1.01639e-01,1.36921e-01,-6.83636e-02,2.44480e-01,-2.94342e-01,2.47401e-01,1.25402e-01,-2.46802e-01,-1.04876e-01,1.88092e-01,-1.47377e-01,1.06125e-01,-2.27819e-01,-3.30991e-01,-1.99123e-01,3.14457e-01,-2.75320e-01,1.37545e-01,-2.79025e-01,1.77927e-01,-1.08577e-01,9.66784e-02,-5.58922e-02,1.98203e-01,-1.19985e-01,
-2.28246e-01,-5.46305e-01,2.68092e-01,-9.68439e-02,-2.99936e-02,9.84141e-01,-6.21260e-01,4.75604e-01,-6.34166e-02,-2.03258e-01,-6.91072e-02,8.14527e-01,1.37631e-01,-5.91236e-01,4.08146e-01,-3.20173e-01,-7.75514e-02,-2.87546e-01,2.32032e-01,3.65673e-01,1.72866e-01,4.21555e-01,5.74609e-01,-8.68435e-01,-8.31779e-01,
2.94415e-02,-2.29147e-01,-2.22830e-01,2.11779e-01,1.94687e-02,-2.00035e-01,-9.71451e-02,1.81459e-01,1.05827e-01,2.33637e-01,1.33794e-01,2.72281e-01,2.59836e-01,-2.42192e-01,-1.32209e-01,8.49038e-02,-2.38598e-02,2.82398e-01,3.67775e-02,3.09228e-01,-2.95571e-01,1.23094e-01,3.18291e-01,-1.72619e-01,-1.50342e-01,
2.82708e-01,-6.53006e-02,2.39782e-01,-9.68158e-02,-2.24072e-01,8.04731e-02,-2.12450e-01,1.47497e-01,1.61517e-01,-1.84337e-01,-2.09670e-01,-6.21163e-02,7.60706e-02,-4.91789e-01,3.51404e-01,-2.73192e-01,-1.38163e-01,-1.22037e-01,1.09412e-01,-2.71723e-02,-1.88368e-01,-1.92750e-01,-2.93173e-03,3.52002e-01,-1.87801e-01,
4.21320e-02,5.09546e-02,5.52815e-02,1.30604e-01,-1.74288e-01,1.37596e-01,-2.70217e-01,1.40275e-01,3.51121e-01,6.50423e-02,-1.01762e-01,9.38281e-02,2.01666e-01,2.54690e-01,-9.50336e-03,3.29167e-01,8.55230e-02,-1.98675e-01,-7.71358e-02,2.70789e-01,-2.12548e-01,2.23470e-01,-3.15574e-02,-6.22482e-02,1.99127e-01,
4.75452e-01,1.26655e-01,-2.82824e-01,-2.46455e-01,-2.85224e-01,2.96229e-01,4.22439e-01,2.36441e-01,-4.47165e-01,2.48389e-01,-1.25553e-01,-1.48266e-01,-5.00596e-01,8.66728e-01,3.15368e-01,1.57652e-01,-4.02519e-01,-6.44246e-02,1.29447e-01,-4.63338e-01,2.70501e-01,-1.59389e-01,-4.25880e-01,2.86426e-01,4.86505e-01,
-1.47163e-01,1.55945e-01,-7.50536e-02,-3.03084e-01,2.37708e-01,-2.71477e-01,2.10318e-01,-6.16459e-02,2.29441e-01,3.11533e-01,1.20373e-01,1.58926e-01,-2.73409e-01,-2.09043e-01,-3.09391e-01,1.48814e-01,7.35803e-02,1.60945e-01,-2.51608e-01,1.17020e-01,1.11672e-01,-2.18725e-01,-1.03290e-01,-2.85088e-01,1.56109e-01,
-2.73759e-01,-1.13148e-01,-3.39370e-01,7.58096e-02,-1.90063e-01,6.66035e-01,3.46638e-01,2.81582e-01,-1.33010e-01,-1.55839e-02,-2.90079e-01,-3.68164e-01,1.98840e-01,-2.94631e-03,-2.11644e-01,6.11184e-02,-7.89433e-02,2.94194e-02,-1.90678e-01,2.38092e-01,-2.48539e-01,-1.21524e-01,-6.76053e-02,-1.77299e-01,1.97115e-01,
5.17147e-02,2.29161e-01,-3.29107e-01,-8.85622e-02,-2.93065e-01,-2.62127e-01,1.00116e-03,-2.21175e-01,-3.19621e-01,1.75098e-01,-1.70835e-01,-2.64316e-01,7.77825e-02,1.76308e-01,-2.64414e-01,1.46993e-01,-2.28671e-01,-6.14660e-02,-2.86355e-01,1.87295e-02,-1.80986e-01,-1.48140e-01,-2.03622e-01,-4.68288e-02,-1.96492e-01,
-2.35778e-02,2.00030e-01,1.31377e-01,8.73508e-02,-2.54510e-01,2.82073e-01,2.20070e-01,-1.14117e-01,6.28171e-02,-2.58287e-01,2.47777e-01,-6.53474e-02,-2.66498e-01,-2.93518e-01,-3.58332e-01,1.14649e-01,3.03834e-01,-3.15958e-01,-1.43089e-01,2.40184e-01,-4.43656e-02,-2.97852e-01,2.00418e-01,-3.42557e-01,-2.80722e-01,
-5.25219e-02,2.16243e-01,1.92639e-01,8.63383e-02,-3.18086e-01,-2.99642e-01,-6.61737e-02,1.31253e-01,-3.03362e-02,-3.55284e-01,-1.38535e-01,-7.70772e-02,2.66419e-01,-2.30173e-01,2.80768e-01,7.27583e-02,8.16364e-02,-2.84950e-01,1.67807e-01,3.20726e-01,3.21246e-01,2.91836e-01,1.11279e-04,1.85921e-01,1.69961e-01,
-2.33497e-01,-1.16359e-01,-1.70964e-01,2.79607e-01,-1.72519e-01,2.22672e-01,-1.68509e-01,-2.99624e-01,-3.86430e-02,-3.00834e-01,-2.91947e-01,-2.92192e-01,3.64511e-02,3.36295e-01,-1.45944e-01,-2.21388e-01,-2.18253e-01,2.86230e-01,-2.85477e-01,-3.23174e-01,1.76197e-01,1.69636e-01,3.00742e-01,-8.46371e-03,-2.60347e-01,
3.82087e-01,3.96002e-01,2.56176e-01,2.94845e-01,3.09166e-01,2.88197e-01,3.26796e-02,-3.42106e-01,-1.45094e-02,1.01410e-01,1.44404e-01,3.67853e-03,-1.66701e-01,-5.54944e-02,3.03172e-01,2.89051e-02,1.02796e-01,-3.11438e-01,7.93847e-02,-4.37260e-02,2.52147e-01,1.46131e-01,-4.02855e-01,6.07023e-03,-1.07463e-01,
2.03105e-02,-1.24887e-01,-1.99681e-01,2.58941e-02,-6.15068e-02,-3.78232e-01,4.09250e-01,-2.63569e-01,9.43233e-02,2.08366e-01,7.27167e-02,-1.57673e-01,-9.71153e-02,-1.40129e-01,-2.68740e-01,2.70802e-01,2.95460e-01,8.99213e-02,1.13722e-01,-1.47827e-01,-1.43189e-01,-1.75730e-01,-2.23111e-01,5.43122e-02,-1.90780e-01,
1.31121e-01,1.68298e-01,-2.28765e-01,2.02497e-01,2.67745e-01,8.09318e-03,-5.78604e-02,-4.31206e-02,2.65710e-01,1.04743e-01,-1.90183e-01,5.46769e-02,-1.43473e-01,1.81660e-02,2.48062e-01,-1.03942e-01,1.61518e-01,2.08554e-01,-7.23667e-02,2.80736e-01,1.54412e-02,-3.84079e-02,-1.70113e-01,9.52373e-02,-3.92790e-01,
2.38167e-02,8.76588e-02,1.70044e-01,1.04297e-01,1.62928e-01,-2.98294e-02,5.36035e-02,1.80416e-01,-3.23429e-01,3.79680e-02,-1.21397e-01,4.13524e-01,1.00622e-01,-1.14016e+00,1.80293e-01,-7.23775e-01,-3.40855e-01,2.53946e-01,2.63806e-03,2.17238e-01,2.13110e-01,-3.36714e-01,-1.18801e-01,-1.37399e-01,-1.13061e+00,
3.22349e-02,-1.37996e-01,2.30219e-01,4.38045e-02,-2.39310e-01,2.03564e-01,-1.97495e-02,2.45192e-01,1.15425e-01,-2.55232e-01,-5.59453e-02,-1.49817e-01,1.62162e-02,-8.01870e-01,-2.45788e-01,-2.39019e-01,1.54675e-01,-1.81358e-01,-1.32670e-01,2.89528e-01,3.43125e-01,-1.36824e-01,-2.16782e-01,-3.06950e-02,1.77460e-02,
-9.42123e-02,1.72569e-01,-5.80533e-02,2.66295e-01,1.66143e-01,2.56855e-01,4.87962e-02,-3.35744e-02,2.19131e-01,3.34928e-03,-4.04503e-01,1.92855e-01,-3.52335e-01,3.35226e-01,-3.49812e-03,-1.96507e-01,8.61265e-02,1.98473e-01,-9.78954e-02,7.37428e-02,-3.15811e-01,2.55418e-02,1.33505e-01,3.54415e-03,2.78533e-01,
-2.33230e-01,-3.04724e-01,-3.48736e-01,6.56363e-02,-2.72285e-01,-9.04303e-02,7.35569e-02,6.66869e-03,7.88519e-03,-3.13164e-01,-4.43532e-02,-1.34227e-01,-4.63691e-01,2.10732e-02,-1.82555e-01,-1.48111e-02,2.08885e-01,-3.94539e-01,-3.94351e-01,2.22107e-01,-6.55532e-04,-2.40359e-01,-1.44406e-01,-2.71538e-01,-1.38301e-01,
-1.65314e-01,1.06411e-01,-2.97173e-01,9.10446e-02,4.94464e-02,1.99589e-01,-1.79599e-01,1.40541e-02,3.26735e-01,2.54063e-01,8.09401e-02,-1.16469e-01,2.75173e-01,-1.46950e-01,1.74672e-01,2.90572e-02,-2.04364e-01,5.55882e-02,-1.27899e-01,-8.06844e-02,-3.14264e-01,-1.44333e-01,-1.47309e-01,-9.04131e-02,-1.29057e-01,
-2.36404e-01,-3.00617e-01,6.23794e-02,-1.00473e-01,-3.18182e-01,8.83511e-01,-4.41983e-01,-2.51402e-01,-1.19114e-01,1.67003e-01,1.13982e-01,3.79788e-01,2.35899e-01,-1.48471e-01,3.51260e-01,-9.49667e-01,1.33473e-01,-1.91459e-01,4.90668e-01,-2.82381e-01,-2.96490e-01,3.82684e-01,6.46015e-01,-3.93562e-01,-1.00097e-01,
-4.17250e-02,-1.08629e-01,-8.53328e-02,-2.61260e-02,1.91304e-01,-5.58878e-01,-1.58621e-01,2.12093e-01,3.53599e-02,2.05812e-01,-2.52757e-01,-2.34145e-01,2.37703e-01,-1.66480e-01,-2.27695e-02,-3.72911e-01,-2.88727e-01,2.28129e-01,-9.21764e-02,-6.99130e-02,-1.75222e-01,-2.91403e-01,-2.16688e-01,-8.24651e-02,-5.93222e-02,
9.75406e-02,3.25601e-01,9.77522e-02,9.43090e-02,-1.06526e-01,6.53657e-01,2.41447e-03,1.53853e-01,-2.22054e-01,-4.19445e-02,-2.38477e-01,6.89499e-02,2.48989e-01,-7.19016e-02,2.50818e-02,1.52317e-01,-2.46805e-01,-5.41927e-03,-2.12465e-01,-3.84016e-01,5.20770e-02,7.74009e-03,1.23371e-01,2.55871e-01,-3.21946e-01,
-2.16823e-01,-8.97898e-02,6.50013e-02,2.64034e-01,-4.85517e-02,1.49641e+00,-1.48761e-01,2.73032e-01,4.41409e-02,-2.50675e-01,-4.51166e-01,3.14587e-01,-3.97456e-03,-1.32473e+00,1.59111e-01,-8.39663e-01,-1.36991e-01,-9.19785e-02,-2.14438e-02,5.69226e-02,3.24232e-02,1.49314e-01,2.77432e-01,-4.72486e-01,-5.93725e-01,
-2.12814e-01,-3.37484e-01,3.45984e-01,-1.40275e-01,-1.08339e-02,-2.45226e-01,-1.50911e-01,2.72646e-01,9.02948e-02,-2.65509e-01,2.28794e-01,9.25242e-02,3.47639e-01,7.01767e-01,-2.87793e-01,-7.39706e-02,-2.87264e-01,-1.27338e-02,2.86374e-01,-3.82744e-02,5.08532e-02,1.35225e-01,6.44888e-02,1.84653e-01,3.97094e-01,
-3.23910e-01,
-2.48829e-01,
2.13531e-02,
1.49601e-01,
-1.20389e-01,
1.72377e-01,
1.96270e-01,
2.54213e-01,
4.86834e-02,
-3.37120e-02,
3.32138e-01,
-9.04115e-03,
8.58131e-02,
2.65551e-01,
3.62699e-01,
-1.19036e-01,
2.92279e-01,
1.55264e-01,
1.67913e-01,
3.21969e-02,
-1.50439e-01,
1.88731e-01,
2.29923e-01,
1.69528e-02,
2.10015e-01,
6.00533e-02,2.41622e-02,3.16692e-01,3.07993e-01,-3.77558e-01,-4.06998e-01,3.81381e-01,-2.56554e-01,2.11619e-01,7.15191e-02,3.32521e-01,1.60203e-01,-1.49017e-03,-2.24364e-01,4.08384e-01,-3.94986e-02,2.57881e-02,-2.33627e-01,-2.20359e-01,3.69876e-01,2.03231e-01,2.38303e-01,-1.82853e-01,2.43357e-02,1.07280e-01,
2.11413e-01,8.16917e-02,5.88564e-02,-7.47371e-02,-1.60291e-01,-3.81720e-01,6.44955e-02,-1.29419e-01,8.47718e-02,2.67633e-01,1.05009e-01,-3.67109e-01,-7.49583e-02,1.37003e-01,2.79696e-01,-6.28893e-01,2.89945e-01,-3.24772e-01,-2.81302e-01,-4.46992e-02,-1.88598e-04,6.56722e-02,9.14265e-02,3.50756e-02,-6.95797e-02,
-2.97920e-01,-9.07253e-02,1.38175e-01,-3.74911e-01,-1.27582e-01,-3.82638e-01,-7.12068e-02,-3.26374e-01,4.23945e-01,4.21795e-01,3.37460e-01,-6.08806e-02,-1.36566e-01,3.40924e-01,-4.42819e-01,-7.08760e-01,4.25794e-01,1.27779e-01,-7.78623e-04,6.39824e-02,3.08361e-02,3.30661e-01,1.99051e-01,1.24173e-01,-1.85027e-01,
-3.16279e-01,6.29423e-01,3.11984e-01,3.99968e-01,-3.10709e-01,-3.25580e-01,-1.15470e-01,3.60484e-01,-3.69230e-01,1.33026e-01,-1.98585e-02,-3.07974e-01,2.61226e-01,2.94462e-01,-1.89044e-01,-6.73837e-01,4.80783e-01,9.27801e-02,-4.20859e-01,1.83060e-01,-1.61147e-01,-2.43881e-01,2.35864e-01,-7.10450e-01,-2.69634e-01,
3.35116e-01,-3.78313e-01,2.86688e-02,3.71029e-01,-9.55050e-02,-8.24838e-02,1.81445e-01,-1.54567e-01,3.53718e-01,4.23969e-01,2.73517e-01,8.29588e-02,9.95795e-02,4.48495e-01,2.06272e-01,-7.25081e-01,-2.67420e-01,-1.15809e-01,-4.00679e-02,-3.62090e-01,-4.26146e-01,2.22109e-01,-3.60266e-01,6.65813e-01,7.89278e-02,
-5.15391e-01,
-2.20112e-01,
-2.84214e-02,
-2.75896e-01,
-2.65271e-01,
