// Neural Network File Format by Kyle Julian, Stanford 2016
6,5,5,25,
5,25,25,25,25,25,5,
0,
-56000.000000,-56000.000000,-3.141593,200.000000,200.000000
56000.000000,56000.000000,3.141593,200.000000,200.000000
-278.628049,0.000000,0.000000,200.000000,200.000000,-0.242819
112000.000000,112000.000000,6.283185,1.000000,1.000000,17.479225
-6.93968e-01,7.20364e-01,5.63668e-01,1.82353e-01,-3.43324e-01,
-9.85594e-01,1.79150e+00,2.27093e-01,3.31473e-01,1.48034e-01,
3.45479e-01,-3.97338e-02,7.72368e-01,-8.73410e-02,-1.80797e-01,
4.64295e-01,5.73732e-01,4.08309e-01,-5.69289e-02,1.53150e-01,
-1.52682e-01,1.05461e-01,-3.85019e-01,3.92242e-01,-4.16540e-01,
8.61645e-01,1.39210e+00,7.22565e-01,-3.19820e-01,4.12033e-01,
2.47715e-01,4.63873e-02,7.27998e-01,-3.30029e-01,-6.66458e-02,
-9.00743e-01,2.00938e+00,3.83817e-01,-3.87079e-01,1.79926e-01,
8.67392e-01,1.51660e+00,9.79015e-02,-2.70925e-01,-3.35103e-01,
3.00342e-01,5.23055e-01,2.85747e-01,4.02943e-01,-3.12176e-01,
6.90421e-02,-5.03081e-01,2.34828e-01,6.13130e-02,3.97628e-01,
-1.12712e-01,1.68350e+00,5.50170e-02,2.22772e-01,2.74690e-01,
-5.33950e-01,8.83076e-02,-7.22766e-01,-2.56107e-02,-3.29690e-01,
-1.49826e+00,9.68258e-01,-2.21626e-01,-3.08904e-01,-3.54479e-01,
-1.95662e-01,6.76708e-02,1.60771e-01,6.87969e-02,-1.74086e-01,
-4.30604e-01,1.10526e+00,6.09133e-01,-1.72003e-01,1.79447e-01,
5.31312e-02,-2.73602e-01,1.14874e-01,4.36851e-02,-9.66516e-03,
-1.59786e+00,2.99163e-02,2.95602e-01,-2.96955e-01,7.44475e-02,
-6.65357e-01,-1.46934e+00,3.67749e-01,1.52837e-01,-1.03948e-01,
-4.96057e-03,2.88170e-01,-2.60617e-01,-1.21098e-01,2.04414e-01,
-4.26674e-01,2.16087e-01,3.65064e-02,2.87646e-01,-3.94787e-02,
-8.78471e-01,7.68956e-01,-3.92310e-01,2.67025e-01,-1.84075e-01,
-2.42427e+00,-1.13349e+00,3.58725e-01,1.52734e-01,3.46582e-01,
-2.76401e-01,-7.06842e-01,-1.58104e-02,-1.32599e-01,-4.56821e-02,
-3.65732e+00,-9.19188e-01,1.26114e-01,-4.07965e-01,2.54584e-01,
-1.72973e-02,
1.74490e-01,
-2.18451e-01,
2.16347e-01,
2.10879e-01,
1.90770e-02,
-2.96084e-02,
7.67671e-03,
3.49326e-02,
1.40773e-01,
1.15170e-01,
-7.57313e-02,
-7.54580e-02,
1.56607e-02,
-2.67578e-01,
1.11621e-01,
-2.23801e-01,
1.94144e-01,
-3.42286e-03,
-3.05417e-01,
-2.73025e-01,
6.54599e-02,
6.27006e-02,
2.84051e-01,
1.15208e-01,
-1.75860e-01,4.61505e-01,-7.30083e-01,1.81732e-01,7.45023e-02,3.59499e-01,-2.50649e-01,-6.63256e-02,4.71742e-01,1.51249e-01,1.18688e-01,-5.66734e-01,2.06395e-01,-5.46470e-02,-2.75071e-01,2.58048e-01,2.19214e-01,3.25639e-01,6.67049e-02,2.73859e-01,6.19764e-02,9.75354e-02,-4.35345e-01,-2.01006e-01,2.98168e-02,
-6.69440e-02,-1.82206e-01,4.70914e-02,1.02453e-01,-2.48793e-02,1.60662e-01,-2.11020e-01,-9.00193e-02,-9.01487e-02,1.33637e-01,-3.02385e-01,-5.22579e-02,-6.90196e-02,-2.83840e-01,1.21120e-01,2.49174e-01,-2.81113e-01,-2.24993e-01,2.47039e-01,1.48570e-01,2.31097e-01,1.69219e-01,5.00949e-02,-2.30570e-01,1.94488e-01,
1.17916e-01,-4.67546e-01,2.49455e-01,-6.19819e-02,-3.04441e-02,6.38618e-02,1.30295e-01,4.89247e-01,-4.43212e-01,-5.15247e-02,3.34598e-01,9.76248e-01,-2.64386e-01,-5.71082e-01,2.42071e-01,-3.67557e-01,-1.30520e-01,-3.74807e-01,1.31477e-01,-1.67167e-01,7.20000e-03,-1.49266e-01,1.01723e-01,4.48348e-02,1.90296e-01,
3.60108e-01,2.72918e-01,-8.16512e-02,7.00277e-02,-1.95323e-01,-4.77273e-01,2.40378e-01,3.20661e-01,-3.97907e-01,-2.39892e-01,-3.23023e-01,1.82887e-01,-5.01884e-01,2.21112e-01,3.40301e-01,5.20877e-02,2.89064e-01,4.95065e-02,7.80392e-02,-1.92660e-01,9.86477e-02,4.24054e-01,-1.26821e-01,-1.84102e-01,2.41082e-01,
-1.99734e-01,2.52053e-01,-3.20251e-01,1.16003e-01,2.06564e-01,2.14049e-01,-1.79519e-01,-1.06998e-01,4.25153e-01,1.45407e-01,-3.82762e-02,-1.19411e+00,-3.96242e-01,-3.98229e-01,-1.93382e-01,-5.44853e-01,2.31099e-01,-2.84676e-01,5.88054e-01,-3.11443e-01,7.64769e-02,-1.55645e-02,3.52198e-01,-2.81156e-01,7.48753e-03,
7.93254e-02,-3.22156e-01,-5.59701e-02,2.25245e-01,1.36108e-01,-2.47449e-01,4.55258e-01,-1.37348e-01,-2.56635e-01,-2.88285e-01,-5.38825e-02,1.08863e+00,8.50283e-02,-2.97483e-01,-2.04587e-02,1.39945e-01,7.33573e-02,-2.85641e-01,1.28195e-01,-2.54507e-01,6.92731e-02,1.36259e-01,-8.95234e-01,1.10539e-01,8.50167e-02,
5.39027e-01,2.12677e-01,-3.74955e-01,-2.36539e-02,1.06420e-01,-1.35886e-01,1.20443e-01,-5.09562e-01,3.77489e-01,1.48492e-01,-7.59599e-02,-5.72581e-01,2.57248e-01,6.92481e-02,-2.42725e-01,2.06252e-01,3.01000e-01,1.77908e-02,2.28470e-01,-9.30468e-02,-2.18992e-01,1.15710e-01,2.51316e-01,2.57589e-01,-1.97234e-01,
2.81081e-01,-4.01165e-01,7.63028e-01,-9.55068e-02,-5.96359e-02,-4.59461e-01,4.37475e-01,-5.88284e-01,-3.61690e-01,-2.12522e-01,-7.71962e-02,1.44797e+00,1.28180e-01,1.21343e-01,1.85382e-01,1.20868e-01,-2.02356e-01,-5.68960e-02,4.04251e-01,2.41863e-01,-4.07600e-02,3.02997e-01,-2.79032e-01,1.29398e-01,5.97283e-02,
2.78602e-01,1.18225e-01,2.23216e-02,-2.46204e-01,1.13909e-01,-2.79789e-01,2.69246e-01,-4.70362e-01,-5.38863e-01,-7.43311e-03,-6.94396e-02,-1.27745e-01,-1.39923e-01,3.81271e-01,-1.83986e-01,-5.71944e-01,-1.92983e-01,3.07722e-01,3.05205e-01,-1.26657e-01,3.01349e-01,5.48933e-01,4.65405e-01,1.44109e-02,2.28997e-01,
-4.81319e-01,-7.36605e-01,6.78526e-02,9.67408e-02,1.17378e-01,-6.40081e-01,-3.46963e-01,-4.13714e-01,-3.03466e-01,-1.88884e-01,2.86518e-01,2.81395e-01,-3.13741e-01,-5.04832e-01,9.50279e-02,-5.95447e-01,-1.94392e-02,2.25409e-02,3.99756e-01,-1.26951e-02,-3.27866e-01,7.49067e-02,3.57585e-01,-3.92623e-03,1.95947e-01,
2.82025e-01,3.33079e-01,-2.87588e-01,1.75305e-02,-1.43222e-03,-4.60161e-02,8.09219e-03,4.61314e-01,-8.15096e-02,2.60213e-01,1.09333e-02,-1.28591e+00,3.24753e-01,7.23690e-01,-7.11406e-02,3.00145e-01,-2.59790e-01,2.08581e-02,2.15129e-01,1.31165e-01,-8.20309e-02,4.82696e-01,3.08965e-01,1.46891e-01,5.03668e-01,
-3.92063e-02,2.33768e-01,-2.72073e-01,-3.12284e-01,1.93775e-01,5.71829e-02,-1.65919e-02,2.44586e-01,1.98444e-02,-1.37347e-01,2.88213e-01,-3.63663e-02,-8.42222e-02,-3.54254e-01,-2.44763e-01,1.99799e-01,-5.96333e-02,-8.66173e-02,-4.15209e-01,3.03928e-01,-1.29954e-01,3.10077e-01,7.34030e-01,-1.30732e-01,1.11488e-01,
2.71066e-02,-2.23454e-01,1.99508e-01,-4.59834e-01,-3.63355e-01,1.26627e-01,2.90949e-01,8.07860e-01,1.34698e-01,-1.69257e-01,2.23842e-01,-3.58863e-01,5.17030e-01,8.54134e-02,-1.07562e-01,-5.35046e-02,2.14933e-01,-1.54393e-02,3.71312e-01,2.93419e-01,7.15286e-03,1.13471e-01,2.28164e-01,-2.72991e-01,2.30380e-01,
8.45054e-01,-7.95221e-02,-1.43181e+00,-4.44624e-02,2.43180e-01,-1.68674e+00,1.06467e-01,-2.71760e+00,-6.11307e-01,1.48323e-01,6.00356e-02,-7.44793e-01,-6.17200e-01,-5.61321e-01,-4.63493e-02,-5.49484e-01,-2.12915e-01,-2.30420e-01,1.22299e-01,-2.81703e-01,2.53224e-01,-2.44045e-02,-1.28319e-01,3.26957e-01,1.00224e-01,
1.19883e-01,-3.13313e-01,7.96303e-02,1.36972e-02,9.63444e-02,-1.87697e-01,-2.33810e-01,-2.48769e-01,3.23754e-01,3.45668e-01,-1.93986e-01,-2.31299e-02,-2.15407e-01,-1.60827e-01,-7.13316e-02,-1.35527e-01,-2.76630e-01,3.40211e-01,2.16572e-01,2.59785e-01,3.93848e-02,-3.15791e-01,-2.73080e-01,-1.74041e-01,-1.37057e-01,
-4.02440e-02,-3.44614e-01,-1.58906e-01,-3.53158e-01,2.76893e-01,2.00366e-01,9.91086e-02,2.49173e-02,2.34657e-01,2.50991e-01,1.92376e-01,5.21542e-02,2.82961e-01,-1.69885e-01,-3.20755e-01,-6.52794e-02,1.02019e-01,-6.73510e-02,-2.01618e-01,1.89237e-01,-2.95569e-01,1.17516e-01,3.06159e-01,2.49887e-01,1.02313e-01,
1.50368e-01,-6.61638e-01,4.54656e-01,-3.59898e-01,-5.51911e-02,-3.94667e-01,2.35815e-01,4.01843e-01,-5.88591e-02,-1.66970e-01,2.63746e-01,1.01279e+00,6.52110e-02,-3.19829e-01,4.90897e-02,-1.89775e-01,2.96429e-01,-2.93398e-01,9.42086e-02,-1.78508e-01,-1.46792e-01,1.18305e-02,3.83288e-01,2.26526e-02,5.08543e-01,
-5.66578e-01,2.04076e-01,-3.61831e-01,3.29227e-02,2.28214e-01,3.05464e-01,3.31372e-01,-2.43697e-01,2.19316e-01,-1.19613e-01,2.37325e-01,-2.29365e-01,1.00275e+00,1.39973e-01,2.81334e-01,2.27282e-01,9.40632e-02,4.16832e-01,4.58004e-01,2.48724e-01,3.16219e-01,1.37853e-01,-1.51392e+00,-3.56882e-01,-7.35658e-02,
-3.02646e-01,-1.38453e-01,3.57503e-01,2.92182e-01,-1.52904e-01,-1.90574e-01,-2.57607e-01,-3.56180e-01,6.57737e-03,-8.25052e-02,-1.74517e-01,4.32385e-01,-1.12784e-01,2.82824e-01,2.46200e-01,-1.83719e-01,-9.50236e-02,4.79849e-02,1.78803e-01,-2.38016e-01,1.81828e-01,3.24798e-02,-2.94592e-01,2.12011e-01,-3.32192e-01,
-2.70486e-01,2.15820e-01,2.23670e-01,-1.57084e-01,-1.16662e-01,-2.03832e-02,2.77575e-01,-3.75859e-01,-1.81355e-01,2.65746e-01,1.15398e-01,-6.16852e-01,1.76015e-03,2.78104e-01,1.76001e-02,-1.21708e-01,2.42624e-01,-7.65178e-02,3.65767e-01,6.20891e-02,5.99163e-02,-1.50470e-01,-5.35054e-02,-3.39464e-01,-1.28054e-01,
4.64358e-01,-2.69661e-01,8.53538e-02,1.52545e-01,-1.46329e-01,3.35901e-01,-1.55129e-01,1.75140e-01,1.46052e-01,-1.19461e-01,6.12747e-02,-8.28188e-01,-5.43052e-01,-9.48527e-01,2.79021e-02,-8.95200e-02,2.42361e-01,-1.71157e-01,1.00963e-01,3.05939e-01,1.26799e-02,-3.14704e-01,-5.29996e-01,3.88118e-01,-4.60211e-01,
2.76064e-02,1.74545e-02,6.09272e-01,-7.20444e-02,-1.27049e-01,-1.98985e-01,-1.54221e-01,2.98401e-01,1.91356e-01,-1.48567e-01,4.87838e-02,2.91335e-02,1.08188e-01,-2.01288e-01,-2.09662e-01,2.88330e-01,-2.97291e-01,-9.78139e-02,-6.64291e-01,-4.01136e-02,-1.46101e-01,-4.22687e-01,1.24351e-01,-1.83389e-02,-2.88464e-01,
-6.21372e-02,3.16304e-01,-7.04730e-01,2.93223e-01,-7.48358e-02,2.93904e-01,-9.61453e-01,-1.50001e-01,1.75038e-01,2.66518e-01,3.48403e-01,-5.46986e-01,3.75837e-01,2.06765e-01,-8.16844e-02,-1.36129e-01,6.22927e-02,-2.06086e-01,5.83667e-02,-2.70274e-01,-5.27970e-02,-3.62670e-01,-3.29348e-01,5.79530e-02,-5.39121e-01,
-2.94222e-01,4.95718e-01,-5.71178e-01,5.99155e-02,-2.83262e-01,2.60738e-01,-2.26333e-01,1.57628e-01,2.81324e-01,2.52159e-02,8.63940e-02,-2.90630e-01,1.99856e-01,5.33764e-01,2.41157e-01,-1.42008e-01,2.26763e-01,3.48327e-01,-4.40530e-01,9.37792e-02,2.74787e-01,1.24729e-01,1.36815e-01,-4.54479e-02,3.55613e-01,
-1.20257e-01,-2.51162e-01,1.24427e-01,-5.11934e-02,-2.98938e-01,-6.38521e-01,6.15062e-01,-1.98145e-01,3.07216e-01,3.81041e-01,2.49622e-01,-3.14210e-01,-3.83904e-01,-5.13949e-01,-2.31302e-01,-7.39089e-02,8.68267e-02,-3.10864e-01,-3.94694e-01,-2.34021e-02,6.55721e-02,-2.92428e-01,4.63757e-01,-9.18897e-02,-8.65882e-01,
-5.84166e-02,
-1.92768e-01,
2.87483e-01,
1.60648e-03,
1.33728e-01,
6.01888e-02,
3.17405e-02,
1.19637e-01,
8.12535e-02,
2.14039e-02,
-3.04051e-01,
4.34558e-02,
1.31337e-02,
1.03895e-01,
-3.02288e-01,
-3.42455e-02,
1.52147e-01,
-2.86075e-01,
2.52502e-01,
2.59602e-01,
1.02545e-01,
1.86443e-01,
-3.70082e-02,
-1.14202e-01,
3.05436e-01,
-3.38762e-01,-2.21962e-01,7.81166e-02,1.06475e-01,-4.15659e-02,1.25781e-01,-4.44212e-01,-3.16226e-01,8.22434e-02,-2.32081e-01,-1.30718e-02,-2.13039e-01,9.55891e-02,2.42547e-01,-1.58027e-01,-2.99975e-01,2.76053e-01,2.53210e-01,4.58838e-02,-2.25773e-01,5.91740e-01,5.39775e-02,-2.92335e-02,-1.55902e-01,-6.96136e-02,
6.81669e-03,1.10474e-02,-2.04642e-01,4.86103e-02,-5.57504e-02,4.65379e-02,-3.00989e-01,-1.66868e-01,1.48418e-01,-1.97548e-01,-2.86719e-01,-3.40039e-01,3.23284e-01,2.98966e-01,-3.53917e-03,-3.30498e-01,-1.88835e-01,1.15071e-01,2.31250e-01,-3.45620e-01,1.66402e-01,-1.24902e-01,-2.18814e-01,-1.26269e-01,-2.42492e-01,
1.04794e-01,1.20219e-01,1.74241e-01,1.65859e-01,-3.57918e-01,-3.82260e-04,-1.07356e-01,-1.45611e-01,-4.34224e-02,-2.56105e-02,9.17521e-02,8.92863e-02,-7.39222e-03,-2.44529e-01,1.12062e-01,1.60385e-01,2.32161e-02,-4.66260e-01,1.54813e-01,1.47414e-01,2.27846e-01,-3.23536e-01,-7.11456e-03,-3.69839e-01,-2.34353e-01,
-1.59568e-01,-2.47033e-01,4.07096e-01,-6.26027e-01,-3.71593e-01,-6.03493e-01,-9.29260e-02,6.59011e-02,-1.35161e-01,-1.93623e-01,2.61068e-01,2.83270e-01,9.55773e-02,7.53260e-01,-2.82550e-01,7.67982e-02,3.90102e-02,-1.80968e+00,-1.49026e-01,4.37451e-01,-1.02393e-01,-1.84492e-01,1.20078e-02,-5.96098e-02,3.61196e-01,
4.73351e-01,-3.05126e-01,2.63171e-01,-1.29927e-02,-2.06884e-01,2.36627e-01,2.21413e-01,6.52288e-03,2.01159e-01,6.45202e-02,-8.43720e-02,3.61256e-01,1.69291e-02,3.07412e-01,1.86732e-02,-1.62589e-01,-4.20795e-01,7.85391e-02,1.33048e-01,-8.48811e-02,1.48184e-01,-3.18460e-01,3.94966e-02,-3.57779e-02,-1.87253e-01,
-2.33689e-01,-1.66312e-01,9.76452e-02,-1.77745e-01,-2.52115e-01,2.99671e-02,-2.28739e-01,1.61006e-02,-2.89016e-01,-8.63550e-02,6.51921e-02,9.96193e-02,-2.12971e-01,-2.06321e-02,-9.47404e-03,-3.24857e-01,6.07882e-02,3.40769e-03,4.11237e-02,-7.01719e-02,-1.21646e-01,7.87659e-02,2.37592e-01,1.70314e-01,1.62952e-01,
-1.47227e-01,3.21011e-02,3.06419e-01,-2.02630e-01,1.23925e-01,-6.75997e-01,-2.16942e-01,5.19670e-01,5.20335e-01,-5.20259e-01,2.99356e-01,1.39553e-01,-3.12516e-01,8.51887e-01,-3.37059e-01,5.50548e-02,-3.98666e-01,7.73590e-03,-4.27233e-02,2.86988e-02,4.16879e-01,-3.22707e-01,-4.28023e-02,-4.38558e-01,-6.51604e-02,
2.86216e-01,1.18345e-01,-1.57364e-01,-3.39224e-01,1.50596e-01,1.06595e-01,7.12154e-02,-2.99671e-01,9.51746e-03,-4.95313e-02,-3.54479e-01,1.01546e-01,5.76079e-02,-4.36577e-01,3.13247e-01,1.06784e-01,2.28103e-01,1.45237e-02,-1.80285e-02,2.72420e-01,8.49509e-02,-1.76935e-03,-2.44220e-01,4.83970e-01,-3.00572e-01,
-4.88782e-01,1.84654e-01,4.77457e-01,-1.29608e+00,2.96789e-01,-1.35374e-01,-1.23490e-01,2.24683e-01,1.93405e-01,-7.92711e-01,1.15416e-01,3.90962e-01,-3.77661e-01,3.71537e-01,3.16651e-01,-2.76763e-04,-2.49652e-01,3.52580e-01,-1.17461e-01,-3.69016e-01,-1.06975e-01,2.53089e-01,5.35370e-01,-1.50506e-01,3.01474e-02,
2.07731e-01,1.88802e-02,-1.61772e-01,-8.19334e-02,1.92483e-01,-3.70992e-01,-1.03589e-01,1.85401e-01,1.13211e-01,-3.91245e-01,4.38974e-01,-4.12222e-01,-4.61636e-01,8.91073e-03,3.37884e-01,-3.81559e-01,1.93756e-01,7.73400e-01,-1.43812e-01,-1.20676e-01,-2.39490e-01,-1.57827e-01,4.03856e-01,6.60277e-03,2.43911e-01,
-2.86829e-01,-1.11201e-01,1.25656e-01,6.47216e-02,-2.86453e-01,1.11237e-01,-1.48446e-01,-1.20256e-01,1.37702e-01,-2.79803e-01,-2.53580e-01,2.25111e-01,-2.44156e-01,5.70890e-02,-2.45396e-01,9.96066e-02,-4.94129e-02,2.76333e-01,1.57625e-01,-1.26031e-01,-1.13192e-01,-2.99807e-01,1.95417e-01,-2.04762e-01,-1.11502e-01,
8.07618e-02,-3.21484e-01,2.03434e-01,-1.75544e-01,-1.80788e-01,1.59673e-01,-1.07833e-01,2.72116e-01,-2.06095e-01,2.11241e-01,1.61452e-01,-2.48506e-02,-8.72926e-02,2.71030e-01,-2.04728e-01,-2.79492e-01,-2.08565e-02,-1.55082e-01,1.06307e-01,1.68670e-01,-1.10847e-01,-2.67857e-01,-2.57685e-01,9.98540e-02,3.86204e-02,
-2.97537e-01,-3.04831e-01,-2.70420e-01,-1.64672e-01,-8.31380e-02,1.24856e-01,1.29832e-02,-2.97047e-02,9.29426e-02,-1.65291e-01,1.31893e-01,-2.30912e-01,6.01526e-02,1.59395e-01,2.34763e-01,-5.63808e-02,-2.08006e-01,-4.42800e-03,-1.02008e-01,-1.76692e-01,-2.14831e-02,-1.75920e-01,1.11174e-01,5.43587e-02,-1.11655e-01,
1.72297e-01,-5.98463e-02,-9.10855e-02,8.98512e-02,-4.36526e-02,-1.33280e-01,3.15086e-02,5.12547e-02,3.77340e-01,1.17318e-02,-3.77219e-01,2.49528e-01,3.09660e-02,6.16518e-02,1.50068e-01,1.46518e-01,-3.10315e-01,2.77415e-01,-2.35899e-02,-7.60301e-02,-1.25073e-01,2.32132e-02,4.78049e-01,1.35831e-01,7.19525e-02,
2.61019e-01,6.13647e-02,-2.35440e-01,-3.66379e-01,-5.64459e-02,1.10358e-01,-7.80317e-02,1.24805e-01,-2.73615e-01,7.64335e-02,6.49097e-02,3.91879e-01,-4.92523e-01,-3.73675e-01,4.69341e-02,1.52312e-01,4.82097e-01,-2.24719e-01,-3.19059e-01,-2.76811e-01,-3.07822e-03,1.72029e-01,5.83052e-01,1.57790e-01,1.35726e-01,
9.57169e-02,6.99209e-02,1.78177e-01,-7.01670e-02,-1.52005e-01,-1.42563e-01,-1.74497e-01,4.62380e-01,-9.89624e-01,1.08727e-01,3.29912e-01,-1.03014e-01,-5.74040e-01,-1.20667e-01,2.96755e-01,-4.04238e-01,-7.57238e-01,-5.35156e-01,-1.52423e-01,1.45134e-02,1.97011e-01,2.71855e-01,6.09234e-01,-2.41187e-03,-3.55479e-02,
-2.74350e-01,-9.85902e-02,-1.01300e-01,2.62452e-01,-1.22125e-01,6.71740e-02,2.19639e-01,2.15524e-01,1.10819e-01,1.11977e-01,-2.10658e-01,-2.52439e-02,3.33096e-01,1.61716e-01,-2.69265e-01,2.78780e-01,-4.39749e-01,5.10371e-01,2.66912e-01,6.25013e-02,2.81963e-01,2.60451e-01,3.43868e-02,1.72976e-01,1.34843e-01,
2.59605e-01,-1.24161e-01,-2.21333e-01,2.40717e-01,2.55773e-01,-1.02992e-01,-5.61009e-02,-6.39836e-01,-2.31401e-01,6.83431e-01,-4.65328e-01,2.28587e-01,6.79208e-02,-6.16988e-01,-4.64752e-02,-3.23215e-02,-6.10806e-02,-1.03713e-01,-2.87226e-01,3.41903e-01,-2.88577e-01,-2.53797e-01,-2.42599e-02,-1.01580e-02,2.23428e-01,
-3.09975e-01,2.52061e-01,1.66759e-01,-1.17976e-01,-1.84322e-01,-1.40276e-02,-2.57976e-01,4.62602e-01,-2.51035e-01,-1.52346e-01,3.90257e-01,-1.25049e-03,-1.96793e-01,2.30975e-01,-1.98738e-01,-2.50423e-01,3.94857e-02,-1.73119e-01,-2.83525e-01,-2.57593e-01,3.58042e-01,1.29034e-01,8.67502e-01,-1.00501e-01,4.34328e-01,
-9.71208e-02,-3.18865e-01,1.51386e-01,-2.01414e+00,1.04638e-01,-6.54274e-02,9.47846e-02,7.33057e-01,-3.06264e-01,-1.13970e-01,2.65193e-01,-4.03549e-01,-2.68064e-01,3.75386e-01,-1.86558e-02,-1.89084e-01,-3.57894e-01,2.00876e-01,-4.53347e-01,-1.88424e-01,2.39812e-01,-2.27617e-01,-3.42003e-01,-3.17179e-01,4.71135e-02,
3.27630e-01,9.79348e-02,-8.58550e-02,7.38154e-02,2.31914e-01,3.45205e-02,6.34931e-02,1.46786e-01,-1.30730e-01,-1.75824e-01,4.07115e-01,-1.87032e-01,-5.17637e-01,1.02405e-01,1.16971e-01,-3.16477e-01,8.46259e-03,4.18170e-01,-3.66851e-01,-2.68684e-02,-5.32145e-01,7.55402e-02,-3.11923e-01,-6.13450e-03,4.52534e-01,
9.09383e-02,2.79956e-01,3.33722e-01,3.38716e-01,2.33539e-01,2.35197e-01,-7.27534e-03,-1.35149e-01,8.26184e-02,2.43450e-01,7.04811e-02,1.02841e-01,1.07933e-01,8.74819e-02,9.35585e-02,-1.68055e-01,-3.06714e-01,-1.01559e-01,-1.25988e-01,-4.31053e-02,-1.52938e-01,1.71491e-01,-3.35093e-01,-3.11198e-01,-1.72624e-01,
-3.39841e-01,-1.84014e-01,7.57336e-02,1.14041e-02,1.32447e-01,-5.17805e-01,-1.15784e-01,-5.40969e-01,-7.57471e-02,-2.65350e-01,-3.43928e-01,-2.68478e-01,3.17194e-01,1.59420e-01,-8.09833e-02,-3.53486e-01,6.97168e-01,9.77441e-02,2.08146e-01,1.44352e-01,-3.93206e-01,4.87997e-02,-3.49057e-02,1.38962e-01,4.13692e-01,
3.30329e-02,-2.79634e-01,-8.98378e-02,-3.18624e-01,2.26153e-01,-8.26360e-02,1.95167e-01,1.16755e-01,-1.77702e-01,-2.51164e-01,2.16225e-01,-2.26002e-01,-9.58691e-02,-2.12536e-01,-3.17056e-01,1.02629e-01,1.66326e-01,2.11602e-01,-2.82161e-01,-1.80858e-01,1.35832e-02,-1.19660e-01,-2.14275e-01,1.83002e-01,-1.27378e-01,
-2.54957e-01,-1.80185e-01,-8.41328e-02,-3.10863e+00,-3.20519e-01,9.39155e-02,9.20206e-02,2.12442e-01,3.46992e-01,-3.56225e+00,-6.01100e-01,3.36253e-01,-1.05244e+01,5.77659e-01,2.52078e-01,-2.08358e-01,-1.00986e+00,3.93237e-01,5.46462e-03,1.37368e-02,-1.32138e+00,2.56607e-01,-1.31679e+00,4.40331e-01,1.46303e+00,
1.49413e-01,
-1.27279e-01,
1.87638e-01,
-1.27800e-01,
-2.53271e-01,
-2.65268e-01,
-5.89302e-02,
9.89402e-04,
-9.22633e-02,
2.12681e-01,
-2.43967e-01,
2.18266e-01,
-1.19530e-01,
8.22031e-02,
1.93362e-01,
-6.65036e-02,
-2.48572e-03,
1.52231e-01,
1.53508e-01,
1.44171e-01,
1.94535e-02,
4.56264e-02,
2.22902e-01,
2.57312e-01,
-6.48388e-02,
-2.16178e-01,2.50381e-01,2.69271e-01,2.68984e-01,-1.71968e-01,-2.67595e-01,-3.24080e-01,1.59732e-02,-9.78141e-02,-3.08991e-01,3.06458e-02,-2.36582e-01,2.45164e-01,6.39019e-02,3.06152e-01,-3.03629e-01,-3.40704e-01,1.71096e-01,-1.64165e-01,1.68483e-02,-1.31321e-01,-2.78076e-01,1.74628e-01,-1.83918e-01,-2.05574e-01,
6.64996e-02,2.83437e-01,-5.68836e-02,-2.06955e-01,8.42985e-02,-1.38052e-01,-4.01545e-01,-3.77481e-01,-1.55746e-01,-1.45510e-01,1.73203e-01,1.59498e-01,2.84270e-01,-2.04649e-01,1.06977e-01,9.79039e-04,-1.73819e-01,2.22193e-01,-4.04388e-01,1.15177e-01,-6.24666e-02,-8.06005e-02,1.62934e-01,1.92346e-01,2.79272e-01,
-9.13749e-01,1.94798e-01,2.60060e-01,8.01969e-01,1.05109e+00,-9.39018e-02,-1.12405e+00,-1.90706e-02,6.93244e-01,-1.25034e-01,-2.04408e-01,-1.47406e-01,-2.96438e-01,-2.90269e-01,-3.37004e-01,-2.76127e-01,-3.02992e-01,3.64848e-01,5.91895e-02,3.21365e-01,-2.81845e-01,1.31332e-01,-4.29504e-01,2.42619e-01,6.25878e-01,
2.00947e-01,4.71769e-02,1.97641e-01,5.18037e-02,8.45757e-02,5.24071e-02,9.43089e-01,-2.09372e-01,-4.02231e-01,3.83878e-01,-8.78227e-02,1.24245e-01,1.53321e-01,7.47682e-02,3.14954e-01,-3.16404e-01,1.80572e-01,-1.82296e-01,1.82845e-01,-3.60298e-01,1.80919e-01,4.36421e-03,-3.40965e-03,1.36377e-01,2.27279e-01,
3.64799e-02,-1.51858e-01,-1.37526e-01,3.52859e-01,3.59156e-01,2.58799e-01,-2.37471e-01,-1.21157e-01,-1.03526e-01,-1.97851e-01,1.74756e-01,6.07002e-03,-2.74341e-01,-9.94664e-02,1.05999e-01,-4.22024e-01,-6.63194e-03,-5.36850e-01,1.85245e-01,1.29338e-01,2.72681e-01,-1.90764e-01,5.50960e-01,-5.48415e-02,6.04905e-01,
-2.96526e-01,9.34508e-02,4.32848e-02,6.79500e-02,-2.17995e-01,2.34831e-02,-7.72620e-03,6.58413e-02,8.54683e-01,-7.86363e-03,-2.74785e-01,2.81911e-01,-9.89217e-02,2.17387e-01,6.24146e-02,9.79268e-02,1.34161e-01,2.38236e-02,1.59704e-01,1.23834e-01,-2.04479e-01,1.27405e-01,7.45808e-02,1.60011e-01,6.81500e-01,
5.49405e-02,1.74049e-01,-3.46436e-01,-3.10208e-01,9.95520e-02,1.57483e-01,2.46446e-01,-1.34430e-01,1.30094e-01,-3.20542e-01,4.03621e-02,-1.85709e-01,-2.26923e-01,-1.66646e-01,1.83999e-01,-2.07223e-01,1.39788e-01,-3.32870e-02,-3.04331e-01,8.54065e-02,2.38339e-01,1.10359e-01,-3.21077e-01,2.58320e-01,-3.10118e-01,
4.38354e-02,-1.64947e-01,1.92236e-01,4.64830e-03,-2.94953e-02,-2.37904e-01,-3.88682e-01,2.05925e-01,7.37357e-02,6.36825e-02,-2.30476e-01,-2.13881e-01,2.99551e-01,1.55845e-01,-1.90564e-01,9.24507e-02,1.89982e-01,-8.96679e-02,-9.23377e-02,3.15471e-01,-1.17382e-01,1.97021e-01,1.13447e-01,-1.87913e-01,6.32563e-01,
1.39824e-01,1.77516e-01,-1.50114e-01,1.74539e-01,2.21477e-02,2.53144e-01,9.34577e-01,-6.61040e-02,2.25266e-01,2.54011e-01,-8.44556e-02,2.14135e-01,-1.26167e-01,4.14931e-01,2.02120e-01,-1.36105e-01,-4.43572e-02,-2.63221e-01,4.15650e-01,-1.28438e-01,1.76269e-01,2.10992e-02,-9.99103e-02,2.89698e-01,-4.28594e-02,
-1.80545e-02,-1.86094e-01,-2.35708e-01,-1.35083e-01,-2.41239e-01,-3.32360e-01,3.23374e-01,1.19352e-01,2.96043e-01,-1.14078e-02,-2.72475e-01,-1.71700e-01,-3.12200e-01,-2.62056e-01,-3.08461e-01,-2.03985e-01,-1.06141e-01,-2.28600e-01,-3.29189e-01,2.35620e-01,1.78614e-01,-3.46518e-03,1.45498e-01,-2.80064e-01,1.64808e-01,
2.97168e-01,9.66167e-02,-1.74405e-01,-2.20350e-01,2.53992e-01,-7.08558e-02,1.21525e-01,1.75959e-01,-1.75898e-02,-2.34949e-01,-2.82641e-02,-1.93240e-01,1.18488e-01,-1.18857e-01,1.89011e-01,8.76676e-02,8.65144e-04,-1.73200e-01,3.40526e-02,-8.34542e-02,1.63085e-02,7.83893e-02,-8.13972e-02,-2.91381e-01,1.47874e-01,
2.09658e-01,5.93738e-02,5.01072e-01,2.76522e-01,-2.30441e-02,2.07141e-01,3.13037e-01,-1.32043e-01,4.70773e-01,-1.54025e-01,-9.47977e-02,-1.53927e-01,1.50777e-01,4.16418e-02,2.55112e-01,1.31441e-01,2.73364e-01,1.64074e-01,-2.59094e-02,-5.17547e-01,4.16376e-01,-1.04125e-02,3.88252e-02,3.14554e-01,3.42203e-01,
4.47260e-02,1.66022e-01,-3.16457e-01,7.85857e-03,-1.65761e-01,2.72455e-01,-1.34443e-01,-5.57271e-01,8.45947e-02,2.09623e-01,-1.84911e-01,-3.47373e-03,-5.59879e-02,-3.34839e-01,-2.38174e-01,-1.31013e-01,-2.64451e-02,-1.99514e-01,1.06389e-01,1.54490e-01,7.88092e-02,1.95673e-01,-1.37397e-01,-2.92820e-01,-3.65839e-01,
-4.86305e-02,2.18962e-01,-3.38311e-01,-3.36836e-01,4.98135e-02,3.31171e-01,2.46044e-01,3.11842e-01,2.59152e-01,5.89730e-02,-5.06888e-02,6.71401e-02,-2.33036e-01,-2.03928e-01,3.22479e-03,2.13583e-01,-2.10242e-01,-8.70599e-02,1.63527e-01,-2.98311e-01,-8.37474e-02,3.90609e-02,-2.75113e-01,-2.51620e-01,-1.12840e-01,
-2.35153e-02,-1.63199e-01,-7.59678e-02,-1.19490e+00,1.12213e-01,-7.16401e-02,-3.09963e-02,-7.26339e-01,7.23762e-03,2.75503e-02,-2.68380e-01,3.26193e-01,1.85009e-01,1.01784e-01,-2.45289e-01,-3.04546e-01,2.36371e-01,-1.79329e+00,-8.27637e-01,5.94916e-01,-1.51901e-01,2.64946e-01,3.30478e-02,-4.69152e-02,4.49591e-01,
3.01396e-01,-3.20115e-01,-1.95475e-01,2.33844e-01,-2.09137e-01,-1.67013e-01,-1.17755e-01,-1.27298e-01,1.42793e-02,-3.07917e-01,-1.81394e-01,4.85665e-03,2.37127e-01,3.13233e-01,-2.78752e-01,5.85779e-02,5.98434e-02,1.98725e-01,2.39727e-01,-2.83777e-01,2.59294e-01,2.95847e-01,-1.32544e-01,-3.32514e-01,6.74927e-02,
9.17489e-02,-2.48419e-01,-3.23725e-01,1.00753e-01,1.87756e-01,-3.21540e-01,2.74752e-01,-2.11014e-01,4.19631e-01,-1.06944e-01,3.17303e-01,-5.69200e-02,2.39290e-01,1.50474e-01,1.36536e-01,-1.58776e-01,-3.61138e-01,1.03785e-01,6.67270e-02,1.97330e-01,1.99755e-01,-1.44376e-01,-2.34927e-01,8.56042e-03,1.89685e-01,
-7.09521e-02,2.12179e-01,-3.21768e-02,-1.16985e+00,3.78025e-01,2.79736e-02,-5.00984e-01,-7.81428e-01,-1.92669e-01,1.19989e-01,-3.41017e-01,1.05145e-01,1.67789e-01,-3.06923e-01,-2.42456e-01,1.19978e+00,-2.42050e-01,-1.83680e-01,-7.73406e-01,6.30406e-01,-1.45876e+00,7.80247e-02,3.23873e-01,-6.14981e-02,-2.17572e-02,
1.66954e-01,-2.18480e-01,-3.56762e-02,3.13002e-01,2.83367e-02,2.92875e-01,-3.27118e-01,-3.74108e-02,3.16505e-01,-1.60926e-01,-7.63293e-02,-7.97336e-02,2.55914e-01,-2.29889e-01,-6.16335e-02,-3.91951e-02,7.87670e-02,-2.31286e-01,3.08240e-02,-1.96300e-01,-3.12250e-01,1.13366e-01,-1.91209e-01,-1.60062e-01,1.18842e-01,
3.23425e-01,8.75139e-02,3.35703e-02,3.20285e-01,-1.60316e-01,-2.98534e-01,-2.43638e-01,-2.10685e-01,1.56346e-01,-2.00058e-01,1.75833e-01,2.91874e-01,-6.48793e-02,5.72942e-02,-7.04716e-02,1.97977e-01,-3.20988e-01,-1.95195e-01,-7.24422e-02,-2.62921e-01,-1.98994e-02,-1.50776e-01,-2.34785e-01,-2.96860e-01,-5.23458e-02,
-2.45593e-01,1.42610e-01,-1.62715e-01,1.51570e-01,3.21295e-01,2.10396e-01,2.08848e-01,2.34590e-01,-1.72562e-01,-2.07652e-01,-3.25508e-01,-5.66409e-03,-5.65012e-02,-5.15160e-02,1.13960e-02,7.60293e-02,-6.18566e-02,9.12582e-02,9.33406e-02,-1.27019e-01,2.20005e-01,-3.17584e-01,9.49717e-02,1.77851e-01,-7.50014e-02,
-5.02641e-02,-1.46633e-02,2.83962e-01,-1.56500e-02,-3.59512e-01,-2.98136e-01,-5.25964e-02,2.66910e-01,2.21219e-02,7.89739e-02,-1.35157e-01,1.65488e-01,3.17644e-01,1.48300e-01,-1.04495e-02,5.72988e-02,2.71837e-01,-1.63330e-01,7.19523e-02,-9.04608e-02,-1.40773e-01,2.00593e-01,2.19472e-01,1.59376e-01,-5.56375e-01,
3.04206e-01,2.33710e-01,2.28072e-01,-4.02347e-01,-1.10948e-01,-2.23605e-01,-5.17211e-01,8.38244e-03,-9.78692e-01,-9.61086e-02,2.90651e-01,-1.34281e-01,2.46550e-01,-1.88002e-01,1.95264e-01,-1.69191e-01,3.76623e-02,4.19387e-01,-5.03337e-01,2.55973e-01,-3.05000e-01,1.34860e-01,-6.22203e-02,-2.47547e-01,-2.16503e-01,
-4.39713e-01,-2.74472e-01,1.85759e-01,3.58224e-02,-6.05729e-02,-8.00679e-02,1.88559e-01,1.10720e-01,-6.15026e-01,-3.22545e-02,1.70848e-01,9.84756e-02,-2.76973e-01,-1.33309e-01,3.01863e-01,2.28755e-01,-1.03876e-01,2.22862e-01,-2.95909e-01,-3.29909e-01,2.03399e-01,1.82450e-01,-9.86991e-02,3.85231e-01,2.48504e-01,
3.26517e-01,2.64099e-03,2.35108e-01,1.09603e-02,-1.05218e-01,3.84553e-02,4.79868e-03,3.27408e-01,-1.74530e-01,-1.30772e-01,1.12272e-01,-2.39062e-01,1.78607e-01,-1.07426e-01,-6.92739e-02,-2.34438e-01,-2.34542e-01,1.06489e-01,-1.68844e-01,-8.77885e-02,-2.42858e-01,-3.13175e-01,-3.25548e-01,2.85483e-01,3.12282e-01,
-1.23071e-01,
1.91498e-01,
3.82394e-02,
-1.51880e-01,
-6.96855e-02,
-1.23689e-02,
-1.33144e-01,
1.24503e-01,
-2.49103e-01,
-3.14225e-01,
-1.13734e-01,
-2.26352e-01,
-5.68488e-02,
-5.12614e-02,
-8.97801e-02,
-1.51963e-01,
1.83457e-01,
1.84961e-01,
-7.41708e-02,
-7.28600e-02,
-3.44585e-01,
1.88329e-01,
2.23017e-01,
-1.43378e-01,
-2.73786e-01,
1.91382e-01,2.21070e-03,-9.78691e-02,2.45886e-01,-2.08090e-01,-2.54584e-01,1.08883e-01,-1.18207e-01,-3.11097e-01,-7.29556e-02,2.20101e-01,1.89231e-02,-1.36095e-01,3.23879e-01,-1.01385e-01,-1.47366e-01,-3.62749e-02,-4.27907e-02,-1.51218e-01,-1.28256e-01,-4.07353e-02,2.64758e-01,1.33225e-01,1.61900e-01,2.78798e-01,
1.56754e-02,-6.16866e-02,-1.29044e-01,-2.31282e-01,-2.44683e-01,-3.34963e-01,2.94903e-01,-2.38595e-01,1.70139e-01,-2.09895e-01,7.28610e-02,2.74007e-02,2.73224e-01,-3.13455e-01,-3.39436e-01,-2.20906e-01,-1.18521e-01,2.78045e-01,-2.54515e-01,-8.97445e-02,-1.76097e-01,3.22098e-01,1.20085e-01,9.37305e-02,-2.37976e-01,
-4.66373e-02,3.04903e-01,2.39483e-01,3.00964e-01,1.50635e-01,-2.15073e-02,-1.90969e-01,2.58421e-02,-1.83053e-01,-9.05232e-02,-1.16394e-01,-4.30310e-02,-2.12818e-01,-1.90611e-01,-2.09239e-02,2.72213e-01,3.54625e-01,2.00770e-01,1.89385e-01,2.64633e-01,-1.84911e-01,2.67110e-01,1.24739e-01,-8.50103e-02,-3.39823e-01,
3.21105e-01,1.28547e-01,-3.43407e-01,2.50357e-01,1.06992e-01,-4.57354e-02,-1.71449e-01,2.17839e-01,-2.92647e-01,-1.57703e-01,-9.27375e-02,-2.38706e-01,2.11582e-01,-3.01436e-01,-1.06587e-01,-2.97899e-01,-2.93419e-01,-6.82323e-02,-1.76596e-01,2.57444e-01,-1.61228e-02,3.18348e-02,-1.80118e-02,-2.39463e-01,-2.88724e-01,
4.61777e-02,3.30234e-01,-2.07233e-01,-9.61502e-02,-1.96650e-01,2.21788e-01,1.51210e-01,3.91340e-01,1.75617e-01,1.84994e-01,2.69142e-01,-2.72355e-01,-8.56123e-02,-5.82761e-02,-5.91727e-01,-2.31815e-01,2.24995e-01,3.98127e-01,1.54077e-01,-7.50076e-02,2.29478e-01,-6.94216e-02,1.94350e-01,-4.00914e-01,7.54445e-02,
-1.50247e-03,2.00502e-01,-4.06041e-02,1.98462e-01,2.48651e-01,1.45359e-02,-1.35987e-01,-6.66933e-02,-2.41045e-01,-4.79135e-02,-3.78777e-02,1.17716e-01,2.83712e-01,1.77725e-01,-2.02420e-01,1.03853e-02,2.07833e-01,7.45461e-02,5.26820e-02,7.06923e-02,3.13796e-01,-2.85305e-01,1.40832e-01,1.92981e-01,-2.50562e-01,
3.04247e-01,-1.74385e-01,4.12732e-02,7.70217e-02,-1.84389e-01,8.91672e-02,-1.72535e-01,6.19950e-02,-3.16844e-02,-1.50611e-01,3.70056e-02,-1.07339e-01,2.57030e-01,6.47056e-02,8.41825e-02,1.51687e-01,-1.13398e-01,-2.32274e-01,-6.63572e-02,6.76203e-03,-2.55106e-01,2.88189e-01,-4.80796e-02,-1.78205e-01,2.90338e-01,
-3.08946e-01,-2.12795e-01,-3.50656e-02,-3.42887e-01,-9.99086e-02,2.46511e-01,-2.87567e-01,3.26486e-01,5.79433e-02,2.90563e-01,-2.10760e-01,1.62459e-01,-2.41648e-01,1.06598e-01,2.06225e-01,-1.45959e-01,2.30897e-01,3.97533e-02,1.43006e-01,-1.72339e-01,1.91849e-01,2.59179e-01,9.88091e-02,-5.94945e-02,2.14517e-02,
8.01626e-03,9.16763e-02,2.29216e-01,-4.16825e-01,-6.04293e-02,-3.83714e-01,1.18850e-02,-2.96556e-01,-1.17024e-01,2.65122e-01,7.77083e-03,-3.95242e-01,1.07523e-01,-2.39951e-01,-1.77687e-01,2.58369e-01,2.14598e-01,-7.76439e-02,-2.99150e-01,-2.73610e-01,2.93832e-01,-1.45509e-01,1.97155e-01,6.68692e-02,1.09866e-01,
-1.04884e-01,-1.85396e-01,-1.95802e-02,3.30489e-02,-2.92987e-01,-1.89143e-02,9.32400e-02,-1.95707e-01,-2.34093e-01,-1.92345e-01,1.10733e-01,7.83147e-02,1.30853e-01,8.22129e-02,-2.41690e-01,-1.60693e-01,-9.74151e-02,3.93825e-02,-2.80644e-01,2.50629e-01,1.15802e-01,-3.27085e-01,-2.09177e-03,1.66079e-01,1.26021e-01,
-8.87432e-02,1.46752e-01,9.50676e-02,7.45198e-03,2.61248e-01,-7.64346e-02,1.95228e-01,1.18653e-01,-1.02905e-02,5.52166e-02,-1.67249e-01,2.60726e-01,2.08779e-01,-1.43335e-01,4.30679e-02,1.65295e-02,9.20912e-02,-2.59960e-01,1.07017e-01,-2.43786e-01,-1.15201e-01,4.91254e-02,2.48659e-01,-2.26864e-01,3.05651e-01,
1.21855e-02,-8.21041e-02,2.37342e-02,-1.46600e-01,8.85883e-03,-2.71745e-01,5.58382e-02,-1.02917e-01,-1.26043e-01,-6.10136e-02,3.42962e-01,7.52312e-02,-2.34327e-01,-9.24232e-02,2.44929e-02,-2.25709e-01,-3.44082e-01,-2.29622e-01,3.11379e-01,-1.97517e-01,3.42381e-01,1.08638e-01,5.79717e-02,4.15908e-02,-2.54461e-01,
-1.55885e-02,3.52883e-01,-2.12553e-01,1.81514e-01,1.10817e-03,-1.38086e-01,2.57697e-01,2.04579e-01,2.18771e-01,-5.62093e-02,-9.13489e-02,-2.29444e-02,2.89602e-02,4.37864e-02,1.80212e-01,-2.66286e-02,1.55729e-01,-1.32328e-01,1.20849e-01,-1.18915e-01,-3.06773e-01,9.32499e-02,1.28410e-01,2.43624e-01,2.82858e-01,
2.17655e-01,2.41187e-02,1.66942e-01,-4.92970e-01,5.48940e-02,-3.06870e-01,-5.21422e-02,-3.89666e-01,-9.52506e-02,-8.61061e-02,-2.73644e-01,-3.01089e-01,-2.12824e-01,2.75084e-01,-2.01072e-01,-6.30695e-03,-3.95656e-01,4.37270e-02,8.81007e-02,1.47884e-01,-1.36159e-01,-6.77644e-02,-1.77906e-01,-1.74319e-01,2.21466e-01,
5.65535e-03,3.32699e-01,1.73965e-02,4.42568e-01,1.57488e-01,5.22238e-02,-4.13028e-02,7.11228e-02,-2.51961e-01,-3.22176e-01,2.16548e-01,-8.22218e-01,2.74942e-01,6.42645e-02,3.30066e-02,1.18282e-01,-8.06283e-02,-2.07366e-01,2.01943e-01,1.21655e-01,1.27678e-01,7.11628e-02,4.00567e-01,-2.59229e-02,-1.13783e-01,
-2.82878e-02,6.77693e-02,-2.85105e-02,1.48879e-01,2.34460e-01,-2.04485e-01,-3.89135e-02,-2.46529e-01,-9.70703e-02,2.58396e-01,-4.51990e-02,6.85076e-02,-2.16286e-01,1.59572e-01,-2.35152e-02,3.23099e-01,1.30564e-02,-3.37119e-01,-1.79829e-01,-2.44021e-02,2.49137e-01,1.39695e-02,9.64970e-02,1.68023e-01,-4.47700e-02,
-2.48357e-01,3.42846e-02,3.98002e-02,6.87103e-02,7.74398e-02,1.24004e-02,-2.20303e-01,-3.08134e-01,-4.06427e-01,-4.03970e-02,-3.48692e-01,7.36996e-02,-1.44163e-01,-2.34683e-01,2.97298e-01,-2.21390e-01,1.79222e-01,-4.33087e-01,-1.38073e-01,-2.03840e-01,1.39884e-02,-1.00163e-02,1.10655e-01,-5.96314e-02,2.74189e-02,
-2.57770e-02,-1.92973e-01,-9.19242e-02,-1.23741e-01,1.31333e-01,-2.31447e-03,2.57963e-01,-1.08035e-01,1.34263e-01,1.58143e-01,-1.93497e-02,1.85310e-01,1.85658e-01,2.11694e-01,5.17307e-01,1.33301e-01,-1.89176e-02,-3.53137e-01,-3.02252e-01,-3.22171e-01,3.17155e-01,2.71446e-02,4.53741e-01,1.87129e-01,-7.59790e-02,
-1.86273e-01,-3.08145e-01,-3.36711e-01,2.34719e-01,2.72491e-02,2.30499e-01,2.20559e-01,-2.63681e-01,1.14850e-01,-2.56363e-01,-3.23127e-01,1.35047e-01,1.82724e-01,-3.67932e-02,2.09138e-01,-2.65234e-01,-3.49367e-01,-1.47624e-01,-1.13582e-01,2.00599e-01,7.79243e-02,-1.52860e-01,6.15653e-02,-2.08542e-01,-7.53078e-02,
-1.42014e-01,1.71700e-02,6.69223e-02,-1.35740e-01,1.44455e-01,-2.21473e-01,3.70308e-02,-2.39685e-01,1.77166e-01,1.91941e-01,1.93218e-01,2.84320e-01,-2.97519e-02,2.33977e-01,-1.24620e-01,1.56404e-01,-1.03452e-01,3.32831e-01,-2.87889e-01,-7.94553e-02,3.10647e-01,1.64266e-01,-7.21302e-02,-1.11288e-01,1.35754e-01,
-7.82267e-02,-2.41856e-01,-3.39700e-02,2.90761e-01,-1.16420e-01,3.42418e-01,-1.10130e-01,2.21722e-01,-4.46620e-01,3.15503e-01,8.14345e-02,-1.63373e-01,-1.82171e-01,2.44407e-01,-4.85853e-01,-2.40672e-02,2.21462e-01,4.15061e-01,-1.89161e-01,-7.67074e-02,2.11978e-02,-2.33484e-03,-1.22430e-01,6.38972e-02,1.67526e-01,
-3.87944e-02,1.47170e-01,1.55665e-02,-7.96103e-02,1.82186e-02,1.79569e-01,3.29572e-01,-3.42604e-01,-2.26451e-01,-2.31541e-01,-6.75893e-02,1.23532e-01,-2.64527e-01,1.13715e-01,-1.02553e-01,1.57472e-01,-8.82456e-02,3.09568e-01,2.08956e-01,-5.75218e-03,-1.51974e-01,-9.64155e-02,-3.41644e-01,-2.79178e-01,3.31535e-01,
7.61733e-02,2.60181e-01,-1.16845e-01,-1.31054e-01,5.20550e-03,-9.75390e-02,1.09040e-01,1.13914e-01,3.84971e-01,5.72287e-02,-1.81271e-01,1.41374e-01,-4.17090e-02,-4.69058e-02,3.15928e-01,-1.82024e-01,-1.15653e-01,-8.85621e-01,2.17061e-01,-6.85684e-02,2.62785e-01,3.07955e-01,9.72291e-02,3.66784e-02,-8.76451e-02,
1.87650e-01,-1.98593e-01,5.95606e-02,-1.86568e-01,3.19005e-01,-1.75832e-01,-2.08874e-01,-3.25112e-01,-2.94140e-01,3.01490e-01,-9.00116e-02,-2.26027e-02,1.52709e-01,2.53355e-01,1.35231e-01,2.02640e-01,-3.19015e-01,-3.27674e-01,1.33127e-01,3.12195e-02,1.93673e-02,-1.05891e-01,-3.51625e-02,3.29319e-01,-2.29647e-01,
-2.91240e-01,2.58457e-01,-1.37030e-02,-2.99181e-02,-8.99585e-02,3.23250e-01,1.26606e-01,7.87368e-02,8.70523e-02,-7.43397e-02,-2.21881e-01,1.30730e-01,-7.52387e-02,-2.12170e-01,-2.13842e-01,1.38920e-01,3.09657e-03,8.86458e-02,-2.99426e-01,-1.86948e-01,-2.88059e-01,2.99614e-01,2.63630e-01,1.51475e-01,2.94592e-01,
-2.25654e-01,
-8.32126e-02,
-1.42564e-01,
-2.82119e-01,
-1.53128e-01,
9.40249e-02,
1.56755e-01,
-5.89630e-02,
3.11682e-02,
2.46221e-02,
2.59920e-01,
-2.49014e-01,
3.63680e-01,
1.88891e-01,
-1.66786e-01,
3.13867e-01,
7.19450e-02,
2.23339e-02,
-2.07744e-01,
-1.54351e-01,
1.33112e-01,
-1.08360e-01,
-1.29928e-01,
-1.75520e-01,
-4.63255e-02,
-1.65541e-02,-2.02328e-01,-1.80990e-01,6.33734e-02,-5.78574e-01,8.74467e-02,2.28148e-01,1.96185e-01,-4.16519e-01,-1.79213e-01,-2.65648e-01,7.67383e-02,7.73307e-02,-1.82895e-01,-1.52584e-01,3.39751e-01,2.02040e-02,-2.44212e-01,3.61527e-01,-3.58895e-01,1.67759e-01,5.13361e-02,-5.70105e-03,-2.54272e-01,2.06664e-01,
-2.46382e-01,3.79194e-01,1.75596e-01,1.43275e-01,-3.75864e-01,3.28023e-01,3.27768e-01,2.16686e-01,-2.70100e-01,4.46274e-01,-2.48985e-01,-3.08719e-01,-6.08126e-02,-3.73103e-01,3.72410e-02,9.90868e-02,3.03653e-02,2.02654e-04,-8.15587e-02,-2.96474e-01,-7.97217e-02,-3.59486e-01,1.39283e-01,2.32643e-01,-1.95945e-01,
4.11192e-01,3.01948e-02,2.54201e-01,2.70831e-02,-2.45236e-01,-9.84739e-02,1.79124e-01,3.37215e-01,3.42080e-01,2.04945e-01,-1.10261e-01,-5.92963e-02,1.86928e-01,-2.21122e-01,2.97781e-02,3.20815e-01,2.77728e-01,-6.30384e-02,2.54404e-01,1.10634e-01,-2.72753e-03,-1.69364e-01,-2.58105e-02,4.44348e-01,-2.66893e-01,
1.95368e-01,-3.71183e-01,2.59788e-02,-2.57375e-01,-3.41085e-01,2.97066e-02,-4.55831e-01,-3.86828e-01,-3.96893e-02,-1.69760e-01,-2.02542e-01,2.11309e-01,-5.06477e-01,3.60919e-01,1.67653e-01,-4.54317e-01,1.32246e-01,4.07992e-01,4.32646e-01,-1.89487e-01,2.96548e-01,-1.96209e-01,5.56014e-01,4.05054e-01,-3.74469e-01,
4.86166e-03,3.15482e-01,-3.06630e-01,2.43320e-01,-1.72510e-01,-6.06895e-02,-2.21171e-01,4.40348e-02,4.40932e-01,-4.77245e-02,-1.00376e-01,-4.26632e-01,-2.00954e-01,3.35864e-01,3.39535e-01,-1.28233e-01,4.15789e-02,5.34707e-02,-4.07695e-01,3.07531e-01,-5.05069e-01,-3.27952e-01,-3.02214e-02,7.58712e-02,-2.78852e-01,
-1.72474e-01,
4.53182e-03,
-1.92746e-01,
5.94434e-01,
4.30613e-01,
