// Neural Network File Format by Kyle Julian, Stanford 2016
6,5,5,25,
5,25,25,25,25,25,5,
0,
-56000.000000,-56000.000000,-3.141593,200.000000,200.000000
56000.000000,56000.000000,3.141593,200.000000,200.000000
-278.628049,0.000000,0.000000,200.000000,200.000000,-0.242819
112000.000000,112000.000000,6.283185,1.000000,1.000000,17.479225
2.69278e-01,4.78800e-01,-4.79438e-01,-1.32313e-02,2.17746e-01,
2.73451e-01,2.93514e-01,-3.16190e-01,1.52131e-01,-9.72357e-03,
4.16149e-03,4.77032e-01,-5.12533e-01,-1.94890e-01,-3.23237e-01,
2.85227e-01,-4.33550e-01,2.08194e-01,-1.59215e-01,1.55743e-01,
2.67700e-01,2.43743e-01,2.50673e-01,1.42849e-01,-3.26642e-01,
-5.34755e-01,5.73377e-01,-6.10660e-02,-3.13929e-01,3.83390e-01,
1.87025e-01,3.02569e-02,1.40598e-01,-3.68031e-01,3.39136e-01,
4.78780e-02,-8.12506e-01,1.73184e-01,-4.36663e-01,2.53699e-01,
5.37986e-01,-9.93719e-01,-6.17030e-01,-1.59443e-02,-1.85797e-01,
-4.64521e-02,2.81342e-01,-1.57281e-01,-3.18091e-01,1.20402e-01,
4.15873e-01,-1.35905e+00,1.34321e-01,2.43760e-01,-3.88969e-01,
6.56939e-01,3.78735e-01,-2.51119e-01,2.88082e-01,1.76434e-02,
1.59833e+00,-6.29188e-01,3.68610e-02,-7.54858e-02,4.19946e-01,
-5.59188e-01,-1.65441e-01,-5.70665e-01,-2.34642e-01,3.93803e-01,
-5.90169e-01,1.15925e+00,4.76679e-01,5.35563e-02,-1.87783e-01,
2.37990e-01,1.65044e-01,2.80270e-01,7.30119e-02,-1.37651e-01,
-5.34694e-01,1.19900e+00,-2.44846e-01,-2.10321e-02,1.29967e-02,
2.40870e-02,7.86960e-01,2.26687e-01,-1.99265e-01,4.02879e-01,
-4.10940e-01,-1.29598e+00,-5.24837e-01,-2.71528e-01,1.21958e-02,
-1.36627e-01,-3.50312e-01,9.42333e-02,1.61570e-01,-1.97223e-03,
1.61900e-01,-6.15453e-02,4.07814e-02,3.62721e-01,-2.15481e-01,
7.22048e-01,-1.72645e-01,-5.31051e-01,-7.79382e-02,-7.29670e-02,
8.20381e-01,-1.24068e-01,4.38273e-01,-1.42651e-01,2.13883e-01,
-1.24907e+00,-1.38156e+00,-1.33376e-02,4.06104e-01,-1.51873e-01,
6.90972e-01,-2.65131e-01,-2.64723e-01,3.14441e-01,1.99655e-01,
-2.24002e-01,
1.55448e-01,
-1.82539e-01,
2.91580e-01,
-3.15878e-01,
1.59310e-01,
-2.06179e-01,
1.72324e-01,
3.12126e-02,
-3.35272e-01,
9.56948e-02,
-9.79132e-02,
-1.33350e-03,
1.60166e-01,
-1.21578e-01,
1.17018e-01,
1.45168e-01,
3.06811e-01,
-3.04820e-02,
-3.35021e-01,
-2.25388e-01,
7.62255e-02,
8.74757e-02,
6.85019e-04,
2.74966e-01,
1.27867e-01,3.15933e-01,-1.71302e-01,-2.68023e-01,1.77205e-01,-3.41739e-01,8.52141e-02,3.46702e-01,-3.20364e-02,-2.94703e-01,-2.92577e-01,-1.20513e-02,1.66245e-01,3.05575e-01,2.92709e-01,-3.11165e-01,-4.44457e-02,-1.13264e-01,-2.86871e-01,1.81414e-01,-9.45622e-02,2.89982e-02,-1.15659e-01,-1.53247e-02,-2.55961e-02,
-4.55549e-01,-2.28402e-01,1.84900e-01,-2.64941e-01,-3.37580e-01,1.25972e-01,2.35174e-01,6.19272e-02,1.40905e-02,3.52358e-02,-2.67852e-01,-2.38699e-01,3.60647e-01,1.48719e-01,5.18620e-01,2.53421e-02,-3.39721e-02,-1.68509e-01,-3.06421e-02,-1.94207e-01,3.33074e-01,-1.11512e-01,1.32382e-01,6.28750e-01,1.46538e-01,
-3.25660e-01,-3.01970e-01,-5.30026e-01,1.34381e-02,-8.88775e-02,2.12059e-01,-3.05368e-01,-2.67990e-01,-1.59667e-04,-2.99222e-01,-2.30838e-01,3.01637e-01,-2.17942e-02,-1.46065e-01,-1.71027e-01,2.33006e-01,-9.65029e-02,1.23548e-01,-2.81588e-01,1.34465e-01,4.59418e-03,3.38642e-01,-3.45813e-01,1.35512e-01,2.50741e-01,
1.97980e-01,-3.54939e-01,-2.32608e-01,-8.33765e-02,3.07857e-01,-3.22205e-01,-8.67546e-04,-7.95787e-02,-5.61661e-02,1.21954e-01,3.43208e-01,-2.88043e-01,-3.88332e-01,-1.73731e-01,-2.95179e-02,3.44691e-01,3.36198e-01,-1.45298e-01,1.44265e-01,8.92738e-03,9.41450e-02,6.10558e-01,6.43683e-02,-2.82295e-01,5.42102e-03,
3.54437e-01,-2.22784e-03,3.03532e-01,-2.65485e-02,1.43635e-01,-9.04320e-02,-2.55053e-02,8.16705e-02,-1.48532e-01,-2.67134e-01,-2.66181e-01,2.90271e-01,2.66075e-02,4.07790e-01,3.38266e-01,-2.44219e-01,-2.09837e-01,2.71109e-01,3.46928e-02,-2.70777e-02,2.56806e-01,-2.38416e-02,6.57015e-02,-2.45893e-01,-2.29928e-01,
-8.99759e-01,-3.31785e-01,-3.36662e-01,2.38287e-01,-5.73835e-02,-3.58542e-01,2.78530e-01,3.40107e-01,3.93426e-01,2.38050e-01,1.89852e-01,-1.23301e-01,3.09763e-02,-8.59984e-02,-5.01029e-01,3.26228e-01,-2.57867e-02,-3.55310e-01,-1.04467e-01,-4.81135e-02,1.66142e-01,4.25910e-01,-3.03763e-01,-1.85346e-01,-2.37208e-01,
-2.30258e-01,-1.52293e-01,4.17896e-01,1.82344e-01,-2.17804e-01,-4.21401e-01,-2.14307e-01,-1.36462e-01,-9.45845e-02,-2.92107e-01,3.72310e-01,-1.35001e-01,3.69425e-02,3.32478e-01,-6.79901e-02,1.93544e-02,1.66553e-01,1.51012e-01,6.94242e-01,4.91626e-02,3.21835e-01,-4.78459e-01,2.99232e-01,-3.75996e-01,-7.59754e-02,
4.36071e-01,1.33331e-01,7.04450e-02,-1.00098e-01,-1.99534e-01,-3.42776e-02,-2.29603e-01,-2.60682e-01,-3.61040e-02,-2.32944e-01,2.63913e-02,-1.37136e-01,3.20290e-01,-2.29535e-02,1.07766e-01,1.42451e-01,4.04694e-01,2.30911e-01,-2.38481e-01,-2.25466e-01,-5.67105e-02,3.58548e-02,4.65967e-02,8.17126e-01,-1.76938e-01,
-9.54805e-02,-2.84532e-01,2.54562e-01,1.90793e-01,-2.22885e-01,-1.99602e-01,-2.03181e-01,-8.76252e-02,-1.79270e-01,4.98087e-02,4.00204e-01,4.68492e-01,-3.92572e-01,-2.07601e-02,-7.55753e-02,-1.62142e-01,-1.61734e-01,1.84142e-01,6.80690e-02,1.98781e-01,-3.17971e-01,-2.63337e-01,-3.96321e-02,6.45251e-02,1.99489e-02,
4.07775e-01,-1.74829e-01,3.65282e-01,3.38648e-02,-2.50456e-01,-1.85939e-01,1.72064e-01,2.13260e-01,-3.71994e-01,3.01770e-01,2.19321e-01,2.51006e-01,-3.40855e-01,1.95752e-01,2.41614e-01,-1.37356e-01,-4.06688e-01,2.60231e-01,3.06455e-01,3.04149e-01,1.69915e-01,5.43522e-02,2.52952e-01,-9.10378e-01,2.94292e-02,
-1.04497e-01,-5.81698e-02,-2.77222e-01,-1.87803e-01,1.16646e-01,-2.52079e-01,-2.08385e-01,-3.00522e-01,-3.06460e-01,-1.79956e-01,7.47921e-02,-7.27985e-02,-7.21128e-02,-2.97055e-01,2.65258e-01,-2.81603e-01,3.23030e-01,-2.27826e-01,1.62721e-01,2.31279e-01,-1.11359e-01,-1.43445e-01,-6.25301e-02,-3.24132e-01,-1.42059e-01,
2.21233e-01,2.87695e-01,-8.61312e-02,3.37213e-01,-3.31057e-01,1.55224e-01,-1.00087e-01,1.41704e-01,-4.25803e-01,8.05146e-02,-1.11116e-01,-2.32025e-01,1.39643e-01,3.33529e-01,1.20876e-01,1.17781e-01,7.67699e-02,5.87052e-02,-2.76461e-01,-1.47181e-01,-1.83534e-01,1.62057e-01,-2.77867e-01,-3.47885e-01,3.63054e-01,
-1.46192e-01,1.52980e-01,-5.64838e-01,2.16086e-01,-2.11097e-02,-1.35363e-02,-2.73333e-01,-9.70294e-02,1.81708e-01,5.35819e-02,-3.34626e-01,4.42461e-01,-1.17929e-01,-3.84339e-01,-4.27565e-02,2.44859e-01,-5.29328e-02,1.33541e-01,4.86197e-01,7.48592e-02,-1.29852e-01,2.01055e-01,-3.63522e-01,2.77057e-01,-3.67711e-02,
1.55431e-01,2.04094e-01,1.01134e-01,-3.52403e-01,-3.28869e-02,-1.90664e-01,-2.29763e-01,1.38820e-01,3.05587e-01,-2.39403e-01,9.60389e-02,-2.30996e-01,-1.08325e-01,2.52592e-01,1.93817e-01,-4.82828e-02,4.27084e-01,-3.37140e-01,1.59489e-01,-2.46703e-01,2.11862e-01,2.52039e-01,-3.61387e-01,1.31103e+00,1.83384e-01,
2.95119e-02,-2.74944e-01,-8.51493e-02,4.31541e-01,-3.40204e-01,9.28752e-03,-1.44574e-03,1.39703e-01,3.04500e-01,-9.16303e-02,-3.15909e-02,5.22682e-02,-2.72431e-01,2.97523e-02,-4.05008e-01,1.76193e-01,-2.62930e-01,-6.90454e-02,4.07292e-01,-5.20841e-02,2.64634e-01,2.07213e-02,-1.30995e-01,9.08034e-01,-2.51202e-01,
2.47101e-01,-8.56633e-02,-3.10426e-01,-2.35698e-01,-2.79329e-01,2.26268e-01,-1.72858e-01,7.34929e-03,7.49813e-01,-5.86957e-02,2.79635e-02,8.43963e-02,-1.99056e-02,2.28350e-01,-6.21284e-01,8.74019e-02,2.53694e-01,2.09549e-01,-2.23936e-01,3.06014e-01,-5.63860e-02,-3.51265e-01,5.42296e-02,-3.48765e-01,6.32324e-02,
-3.18874e-02,1.43353e-01,-6.51189e-01,-3.38322e-01,-5.84416e-02,-3.36655e-01,3.31949e-01,-1.31029e-02,-1.94616e-03,-2.93080e-01,-1.78233e-01,-2.96514e-01,2.56660e-01,-1.77614e-01,2.22820e-01,3.16338e-01,1.10394e-01,1.86519e-01,-3.57344e-01,9.87833e-02,2.53704e-01,5.87969e-02,-6.12414e-02,1.09348e-01,8.08577e-02,
2.05891e-01,3.20076e-01,2.36701e-01,3.09964e-01,-4.83831e-02,1.20451e-01,-1.02156e-01,1.22753e-01,-1.80071e-02,1.09880e-01,-7.93727e-02,-4.45967e-01,-2.31775e-01,3.12718e-01,-2.87978e-02,-1.93640e-01,-4.27901e-01,1.11725e-01,2.83828e-01,-1.47409e-01,-1.03585e-01,1.11975e-01,-2.77081e-01,2.33650e-01,2.90152e-01,
-2.83917e-01,-1.24498e-02,-1.38593e-02,-1.24359e-02,2.50953e-01,-1.62269e-01,-2.53195e-01,-2.27160e-01,-2.64893e-01,-2.21739e-01,3.25852e-01,1.57230e-01,-6.67574e-01,-2.58526e-01,-3.85294e-01,1.02985e-01,-1.18049e-01,-7.38923e-02,4.97054e-01,7.28914e-02,-2.56277e-01,5.28122e-01,-1.94264e-02,-2.49455e-01,-3.68308e-02,
2.13565e-01,-1.75207e-01,-3.18774e-01,-3.07049e-01,-4.51421e-02,3.01530e-02,2.21753e-01,2.01847e-01,-3.06903e-01,-2.47389e-01,-6.45449e-02,-1.93069e-01,-2.95000e-01,-1.91619e-01,1.57561e-01,3.03109e-01,-1.34901e-01,1.67308e-01,1.77913e-01,3.08834e-01,1.49279e-01,-1.33366e-01,-1.22997e-01,2.52870e-01,3.19335e-01,
-1.20509e+00,2.71247e-01,-6.88929e-01,3.80005e-03,-1.59214e-02,1.74236e-01,-1.96207e-01,2.44181e-01,6.70632e-01,-2.09350e-01,2.55029e-01,-8.59130e-02,2.77082e-01,-2.28177e-01,4.68194e-01,-4.56876e-02,-2.65728e-01,-3.08075e-01,-5.86491e-01,2.03266e-01,2.11169e-01,9.06747e-02,-6.12876e-02,3.21896e-01,5.99094e-02,
1.09558e-01,-2.22979e-01,2.37326e-01,-2.63346e-01,-1.49323e-01,-2.35045e-01,-2.61074e-01,5.18570e-02,1.55459e-02,-3.38531e-01,3.12334e-01,-1.85668e-02,-3.22545e-01,-1.31256e-01,-1.53272e-02,-6.71532e-02,-7.67793e-02,1.52882e-01,2.13897e-02,-8.21507e-02,1.94478e-01,-4.23690e-02,2.94695e-01,-2.30394e-01,-1.52736e-01,
1.32979e-01,1.90899e-01,1.49876e-01,1.26070e-01,7.54708e-02,-1.21253e-01,-5.67755e-02,3.59416e-02,6.40988e-02,1.79079e-01,-2.04718e-01,-2.85091e-02,2.42921e-01,-3.23541e-01,-3.15056e-02,-2.69946e-01,2.96296e-01,-2.62503e-01,1.57590e-01,3.29307e-02,-1.66772e-01,-7.81653e-02,1.16677e-01,-3.33978e-01,-3.33073e-01,
1.72290e-01,2.27607e-01,-2.21487e-01,3.23593e-01,1.38126e-01,2.79435e-01,-2.38439e-01,-2.18774e-02,-5.89774e-03,-4.48858e-02,-2.62277e-01,-3.14655e-01,-6.77980e-02,3.22910e-01,-2.96881e-01,2.37113e-01,3.50307e-02,-1.66404e-01,1.21045e-01,6.71553e-02,3.81606e-02,-3.30951e-01,-1.93733e-01,-3.17933e-01,1.01571e-01,
-2.45211e-01,1.00337e-01,2.38064e-02,-2.70706e-01,1.10204e-01,-3.46140e-01,2.80093e-02,2.42923e-01,6.81893e-01,1.77477e-01,4.01579e-01,7.59153e-02,-2.60099e+00,-1.36426e-02,-3.55015e-01,-2.72913e-01,-3.73090e-01,-3.80967e-01,-8.56542e-01,1.51738e-01,1.49733e-01,1.08516e-01,4.94840e-01,-1.71505e+00,-1.65153e-01,
-1.18716e-01,
2.20642e-01,
1.81672e-01,
1.09916e-01,
9.64940e-02,
7.62333e-02,
-2.72384e-02,
-2.91115e-02,
1.80420e-01,
-4.07719e-02,
-2.88742e-01,
2.18427e-01,
-2.23503e-02,
-1.78926e-01,
-2.28113e-02,
3.28259e-02,
2.82155e-01,
2.49241e-01,
2.41898e-01,
-3.14991e-01,
-2.61905e-01,
-8.25962e-02,
3.10399e-03,
-3.51521e-01,
2.35646e-01,
1.45573e-01,2.22774e-01,1.47961e-01,1.60670e-01,1.08217e-01,1.68671e-02,-1.12174e-01,-1.69924e-02,-3.36288e-01,-1.99433e-01,2.35049e-01,1.84613e-01,-2.39444e-01,8.54155e-02,2.05560e-01,3.31337e-01,-2.62921e-01,-3.00713e-01,-2.12989e-01,-7.36373e-02,-1.52650e-01,7.62613e-02,2.24563e-01,2.04173e-01,2.23229e-01,
2.69996e-01,3.04275e-01,-1.31730e-01,-1.45607e-02,4.10016e-02,2.07889e-01,2.13143e-01,-1.97204e-01,2.17649e-01,-1.38616e-01,-1.56043e-01,9.26616e-02,2.98453e-01,6.34894e-03,3.60980e-01,2.80653e-01,2.60557e-01,-3.05784e-01,3.30496e-02,9.02838e-02,-2.67828e-01,-7.59569e-03,2.63285e-01,-1.83022e-01,4.29583e-01,
6.93778e-02,1.32101e-01,-5.55010e-02,-3.07784e-01,2.12191e-01,2.52702e-01,1.62617e-01,1.89241e-01,8.17157e-02,1.50410e-01,-2.74699e-01,2.92861e-01,2.10015e-01,-1.26252e-01,1.35098e-01,2.61830e-01,-1.57891e-01,2.57456e-01,1.95672e-01,-1.61842e-01,-8.50902e-02,-3.43448e-01,1.75275e-02,-5.81983e-02,-1.17172e-01,
2.25503e-01,-1.63417e-01,-2.05405e-01,-2.71414e-01,-8.76078e-01,1.14512e-01,2.48331e-02,-6.57452e-02,2.43660e-01,3.90868e-01,-7.01492e-02,1.80510e-01,-9.25603e-02,1.89545e-01,2.77836e-01,-3.02185e-03,1.30719e-01,-1.99248e-01,3.07526e-01,2.17639e-01,-3.37504e-01,1.22386e-01,-2.08659e-01,2.66016e-01,-2.98490e-01,
1.89192e-01,-3.47208e-01,-2.95287e-01,-1.51461e-01,1.80088e-01,9.51620e-02,1.69533e-01,2.02281e-01,2.33845e-01,-3.26366e-01,3.27600e-01,5.53831e-02,-7.55447e-03,-9.95097e-02,-2.57883e-01,-9.64099e-03,-1.09083e-01,-3.50168e-01,-1.32227e-01,3.25078e-01,2.66959e-01,-9.34373e-02,-1.07924e-01,-1.82178e-01,1.49687e-01,
-2.06530e-01,2.35508e-01,1.46137e-01,6.25712e-02,-1.60183e-01,2.67698e-01,-1.52779e-01,1.30235e-01,1.95891e-01,-2.75034e-01,3.28328e-01,-1.20867e-01,1.48383e-01,-6.25297e-02,-3.32730e-01,-3.44189e-01,-3.37796e-01,-1.64771e-01,-8.39174e-02,-1.77333e-01,-3.18575e-01,3.20938e-01,-5.02228e-02,3.20113e-01,-5.98840e-02,
1.22350e-01,9.32672e-02,-3.24280e-01,9.94993e-02,-1.09169e-01,4.43626e-01,3.47824e-01,4.87337e-02,2.12911e-01,5.02577e-02,1.39459e-01,3.53681e-02,3.78754e-01,-4.22600e-01,5.21532e-01,1.07462e-01,-2.51035e-01,-2.76177e-01,-4.13588e-02,-1.60172e-01,-4.26279e-01,1.15611e-01,8.92890e-02,-7.54421e-02,-6.23998e-02,
1.19973e-01,-3.16972e-01,1.48661e-02,1.84235e-01,-5.33321e-03,-3.38181e-01,3.28387e-01,-1.68216e-01,1.93737e-01,-8.92021e-02,1.64197e-01,-2.24005e-01,1.57063e-01,1.49898e-01,-2.03486e-01,-2.46860e-02,3.08415e-02,-3.30348e-01,2.40495e-01,2.47767e-01,4.93784e-02,-2.11351e-01,2.42070e-01,1.09663e-01,2.91901e-01,
9.70571e-02,-2.65338e-01,-4.00250e-02,2.45394e-01,-7.79814e-03,-2.58020e-01,-3.22773e-01,5.52590e-02,-1.55715e-01,-1.75239e-01,-1.40885e-01,-2.79945e-01,-3.43699e-01,2.54860e-01,-2.51981e-01,-2.12084e-01,2.25593e-01,3.13561e-01,2.39467e-01,-2.50214e-01,-1.28795e-01,1.79209e-01,2.97938e-01,6.28350e-02,2.40350e-01,
2.90902e-01,-2.92939e-01,7.76529e-02,-1.04549e-01,-2.24796e-01,-1.37414e-01,-1.85754e-01,2.86898e-01,-3.71455e-02,2.29568e-02,3.20434e-01,-9.83809e-02,-8.41398e-02,1.04153e-01,2.40795e-01,-2.33348e-01,-2.67440e-02,-3.52351e-01,1.59455e-01,-8.26318e-02,4.46883e-02,2.81577e-01,-8.03877e-02,1.29982e-01,2.69318e-01,
1.70229e-01,-9.80862e-02,9.82441e-02,5.52202e-02,-2.27135e-01,1.47060e-01,-2.64673e-01,-1.13118e-01,7.47320e-02,-9.61584e-02,-9.54574e-02,-2.17200e-01,-1.96457e-01,2.58564e-01,-3.00408e-01,2.72977e-01,-1.27721e-01,7.08551e-02,-3.28611e-01,2.02766e-01,-3.22413e-02,-4.26219e-02,-1.20649e-01,3.08674e-01,3.00739e-01,
-1.30896e-01,8.57729e-02,-3.28262e-01,-3.96649e-01,-1.98852e-02,2.01938e-01,1.31006e-01,2.22114e-01,2.97013e-01,-7.28002e-01,3.41878e-01,-9.79434e-02,-5.58716e-01,1.09580e-01,1.88819e-02,-3.52793e-01,1.57346e-02,4.03019e-01,-5.49924e-02,-3.20409e-01,-1.64201e-01,7.09979e-02,5.57249e-02,-7.43605e-02,-2.47824e-01,
-1.40924e-01,-2.44672e-01,-1.05818e-01,-2.14785e-01,2.02632e-02,-1.26477e-01,9.99648e-02,-2.89431e-01,7.85405e-02,6.87584e-02,-6.79152e-02,3.09720e-01,-6.90665e-02,1.60119e-01,9.70805e-02,-2.82264e-01,1.29692e-01,3.12195e-01,7.77236e-02,3.65844e-03,1.44081e-01,-2.52396e-01,-1.02500e-01,-3.19176e-01,-6.92971e-01,
-2.77619e-01,-2.65587e-01,1.96249e-01,-1.87013e-01,-2.62167e-01,5.90790e-02,-2.66490e-01,-2.35162e-02,-3.25280e-01,-1.61835e-01,1.43641e-01,-1.43712e-01,-1.28050e-01,1.82027e-01,-5.96561e-02,2.97007e-01,1.00383e-01,6.59044e-02,-2.00761e-01,-7.85112e-04,1.59695e-01,-2.89739e-01,1.23277e-01,-1.32229e-01,2.76595e-01,
-1.14120e-01,2.53171e-01,2.74394e-01,3.30735e-01,-1.64246e-01,-1.82182e-01,3.92698e-01,-1.39846e-01,5.38126e-02,1.90668e-02,2.34281e-01,1.72550e-02,1.40738e-01,3.45075e-02,-1.29041e-01,2.91017e-01,3.35099e-01,-2.95340e-02,2.39435e-01,-1.16312e-01,6.84355e-03,1.32161e-03,-2.59059e-01,-1.09393e-01,2.54148e+00,
-1.76250e-01,3.28888e-01,-7.75836e-02,-1.27372e-01,3.43211e-01,4.00436e-01,9.01630e-02,-3.60189e-02,-2.54233e-01,2.22065e-01,-2.92416e-02,6.54013e-02,-1.16669e-01,-3.43307e-01,7.03422e-01,3.21417e-01,-9.06700e-03,3.50905e-01,3.28598e-01,-2.97784e-01,-1.87080e-01,-3.18060e-01,2.30587e-01,2.90531e-01,-2.37205e-01,
1.91546e-01,1.24124e-01,-1.90414e-01,-1.70608e-01,2.23101e-01,5.13166e-01,-3.52742e-01,-1.02584e-01,3.83566e-01,-2.38053e-01,-2.83392e-01,-5.34744e-02,2.14024e-01,2.86864e-01,1.77654e-01,2.67712e-02,2.18970e-01,-1.80465e-01,-1.41126e-01,2.06543e-01,-5.08201e-02,-1.30057e-01,-3.38604e-01,2.15652e-01,7.23960e-02,
-3.55169e-01,1.99291e-01,2.28156e-02,2.44180e-01,-4.40694e-02,-3.67297e-01,5.55664e-02,-4.06030e-01,-2.08226e-01,-1.05401e-01,-1.61701e-01,-3.23769e-01,-1.14824e-01,1.34240e-02,-5.06219e-02,1.51416e-01,3.66834e-01,1.82652e-02,4.07562e-02,-2.96606e-01,1.19624e-01,1.51784e-01,-3.22950e-02,3.22458e-01,-4.19846e-01,
3.20613e-01,-1.02563e-01,3.42019e-02,2.82460e-01,2.65457e-01,3.01100e-01,6.25056e-02,1.68193e-01,2.29779e-01,8.84147e-03,-4.38102e-02,2.59981e-01,-2.37664e-01,-1.56756e-01,2.80691e-01,1.14282e-01,-3.69655e-02,2.80170e-01,-1.81932e-01,1.46509e-01,-2.09530e-01,-7.43669e-02,2.18702e-02,1.09771e-01,9.48014e-01,
3.01679e-01,2.60278e-01,1.43310e-01,4.99127e-02,-2.45878e-02,7.48492e-02,-4.09834e-02,-2.32404e-01,-3.14429e-01,1.51209e-01,-1.46872e-01,7.87316e-02,1.54446e-01,-7.02078e-02,2.33046e-01,-2.85373e-01,1.46967e-01,-3.17055e-01,-1.29940e-01,1.41312e-01,1.76809e-02,-1.53858e-01,1.67585e-01,-1.74960e-01,9.12173e-01,
3.28105e-01,-2.80504e-01,2.24292e-01,2.33537e-01,-3.36997e-02,-9.70154e-01,2.49284e-01,-6.80673e-01,2.34124e-01,2.50412e-01,-7.56181e-02,-4.06492e-03,7.48280e-01,-2.15263e-01,-2.71391e-01,-1.27480e-01,-2.61875e-01,3.23083e-01,3.87025e-01,3.20424e-01,5.11681e-01,8.35655e-02,-2.66724e-01,2.87908e-03,1.24747e-01,
2.15162e-01,2.38657e-01,-1.41510e-01,-1.46142e-01,-2.03656e-02,-2.00073e-01,-3.93719e-02,-3.94273e-01,3.04312e-01,-6.51620e-02,2.99932e-01,2.87315e-01,6.76358e-02,1.97745e-01,-1.45326e-01,-1.59315e-01,3.39239e-01,2.09991e-01,1.57498e-01,2.81618e-02,2.72609e-01,-4.94159e-02,2.57088e-02,-1.89020e-01,1.37995e+00,
3.19451e-01,2.83543e-01,-2.51511e-01,-4.25846e-02,3.06433e-01,-2.81338e-01,3.37944e-01,-1.55030e-01,-2.22087e-03,-1.19131e-01,-5.32433e-02,2.32571e-01,3.12811e-01,-2.60593e-01,-3.21784e-01,-2.38676e-01,-2.74247e-01,-1.16056e-01,-5.48675e-02,-8.18136e-02,-1.65999e-01,-2.32254e-01,-8.63492e-04,-5.50750e-02,-1.16380e-01,
7.92869e-02,-5.93033e-02,-1.04673e-01,2.25588e-01,-1.29994e-01,-1.94262e-01,-5.76593e-02,1.04480e-01,-1.62255e-01,3.83950e-01,-1.44681e-01,2.51201e-01,-7.11200e-02,-2.32957e-01,-6.55509e-02,-1.59620e-01,2.84735e-01,2.95773e-01,4.05887e-03,9.70339e-02,2.39142e-01,1.15954e-01,-9.92817e-02,9.78044e-03,-8.64130e-01,
-5.01646e-02,3.23078e-01,2.80832e-02,2.63528e-01,1.87177e-01,2.17505e-01,-9.96565e-02,-1.85663e-01,2.98819e-01,-1.22502e-01,-2.62287e-01,2.83713e-01,-8.79139e-02,6.94041e-02,-1.52297e-02,4.27922e-02,-4.35017e-03,-2.25491e-01,2.89464e-01,-1.96736e-01,-2.17163e-01,-2.41851e-01,-1.03583e-01,3.51317e-01,-1.32168e+00,
-2.90130e-01,
2.35789e-01,
1.19229e-01,
-1.48797e-01,
-5.08910e-02,
-9.55001e-02,
-1.01497e-02,
-3.45332e-01,
-8.74722e-02,
-7.57326e-02,
-1.72273e-01,
-7.54770e-02,
1.81992e-01,
-2.76343e-01,
-1.81866e-01,
-3.08320e-01,
7.00539e-02,
9.50400e-02,
-2.58401e-01,
2.00788e-01,
-1.71813e-01,
-2.71141e-01,
-2.85907e-01,
2.13243e-01,
-1.76333e-01,
-2.04680e-01,-2.67324e-02,4.02453e-01,1.10911e-01,-2.96404e-01,1.70902e-02,2.06094e-02,-2.00655e-01,-2.75642e-02,-1.81728e-01,-2.79802e-01,1.18640e-01,1.06472e-01,-2.05908e-01,3.71853e-01,-4.01754e-01,2.08898e-01,-1.21623e-01,4.02421e-01,3.20513e-01,1.80194e-01,3.86486e-01,-6.72008e-02,-1.35830e-01,5.65752e-02,
-8.19469e-02,8.56840e-02,1.62002e-01,-5.54310e-02,3.12049e-01,3.39274e-01,1.32440e-02,3.38103e-01,-8.21131e-02,-3.08971e-01,-2.60201e-01,-1.66829e-01,-2.76416e-01,9.90345e-02,-7.72670e-02,9.12427e-03,2.14621e-01,-7.02524e-02,3.34540e-01,2.38516e-01,1.59573e-01,1.28621e-01,8.88708e-02,-1.27819e-01,1.62743e-02,
-2.43084e-01,1.32223e-01,1.40307e-01,3.04887e-02,6.26115e-02,3.07149e-01,6.13978e-02,-2.54452e-01,-1.82551e-01,2.66271e-01,-8.17123e-02,9.76825e-02,-7.11815e-02,3.47142e-01,1.89754e-01,-2.04232e-01,2.35390e-02,2.25112e-01,6.07103e-02,2.12814e-02,-2.49588e-01,2.70770e-01,3.23186e-01,-1.13936e-01,-4.51766e-03,
1.02981e-01,-3.17319e-01,-6.63369e-02,-1.44664e-01,2.01797e-01,1.38289e-01,-1.48376e-01,5.30988e-02,1.49357e-01,-5.68804e-02,3.06321e-01,2.07301e-01,5.95821e-02,-7.02238e-02,-1.39962e-01,2.45560e-01,-6.75259e-02,-3.69429e-01,7.14153e-02,-2.99925e-01,8.82812e-02,2.52882e-01,2.02014e-01,6.23291e-02,4.10791e-01,
1.93191e-01,2.66593e-01,4.51385e-02,-7.06043e-02,-6.90449e-02,-3.01994e-01,1.45123e-01,-8.27747e-02,-1.92391e-01,-1.69287e-01,-1.03413e-02,-2.20835e-01,-3.43965e-01,9.52379e-02,-2.16062e-01,-1.08422e-01,1.41167e-01,-2.82704e-01,2.28748e-01,-1.03804e-01,-5.50901e-01,-3.14993e-01,2.35240e-01,-3.15633e-01,-1.03636e-01,
1.84905e-01,2.58078e-01,3.15912e-01,2.79277e-01,1.61248e-01,3.21151e-01,1.53208e-01,-8.96496e-02,-5.96115e-03,2.22357e-01,-1.46551e-01,1.90918e-01,-1.81725e-01,-1.36573e-01,-4.99054e-02,-4.78711e-01,-1.84048e-01,-2.54468e-01,2.67051e-01,1.86236e-01,7.11730e-01,-9.31516e-02,2.50464e-01,-7.56599e-02,-2.73368e-03,
-1.74290e-01,-1.40215e-01,1.39177e-01,2.67174e-01,-1.01817e-01,1.81156e-01,3.85497e-01,-1.40704e-01,-1.24683e-01,1.26392e-01,-2.10562e-01,-7.24903e-02,1.56339e-01,2.09418e-02,-8.53798e-02,4.02809e-02,2.87626e-01,-1.15888e-01,4.15150e-02,-1.62502e-01,1.30639e-01,9.85580e-02,-3.03763e-01,1.83194e-01,-3.95228e-02,
1.01285e-01,2.32933e-01,1.96156e-01,1.30115e-01,1.32942e-01,3.17492e-01,2.10898e-01,5.68090e-02,2.61326e-01,2.85491e-01,1.20392e-01,-2.01480e-02,-2.23027e-01,3.18530e-01,4.29844e-01,-8.60088e-02,2.56466e-01,2.61328e-01,-1.44418e-01,1.35544e-01,-4.48893e-01,1.12429e-01,-1.23014e-01,-1.40157e-01,-1.29110e-01,
-2.23889e-01,-2.55873e-01,-2.08273e-01,-3.42599e-02,9.89940e-02,-3.09046e-01,-2.87367e-01,-3.32081e-01,3.03324e-01,-1.03464e-01,-5.50847e-02,1.26674e-01,1.25136e-01,-3.27460e-01,-3.27052e-01,-2.35842e-01,3.58095e-02,1.72704e-01,2.41406e-01,-3.06834e-01,1.41051e-01,1.40886e-02,1.09797e-01,-2.29945e-01,8.53515e-02,
1.11771e-01,-1.06271e-01,1.67666e-02,-1.16510e+00,9.63167e-03,-2.92920e-01,4.54494e-01,2.38278e-02,-9.90678e-02,-1.59585e-01,1.66443e-01,5.17792e-02,8.07823e-02,-2.85801e-01,2.77743e-01,-1.39317e-02,-1.49578e-01,2.00619e-01,9.40135e-02,4.76708e-02,-4.42396e-01,1.45844e-01,-1.21242e-01,3.33381e-01,3.73403e-01,
2.71438e-01,-1.82332e-01,-1.32172e-02,-2.79382e-01,4.12781e-02,1.70160e-01,2.03401e-01,3.13716e-01,1.60600e-01,4.50201e-02,3.17859e-01,-2.24319e-01,-3.21824e-01,-4.67599e-02,2.34575e-01,-2.62805e-01,2.81882e-01,2.47341e-01,7.47675e-02,1.20807e-01,8.11786e-02,-3.17391e-01,7.32909e-02,-2.32780e-01,-2.82889e-01,
-1.24515e-01,2.07457e-01,1.86840e-01,3.70876e-02,3.27759e-02,1.70288e-01,1.72691e-01,-2.09699e-01,-3.04298e-01,2.04679e-01,-2.52581e-01,1.88456e-02,4.36558e-02,1.44382e-01,-2.50353e-01,-2.16342e-01,-1.03176e-02,-3.27171e-01,-1.33672e-01,2.18607e-01,4.58638e-02,-2.95624e-01,1.08886e-01,-2.87959e-01,1.51387e-01,
2.89625e-01,1.41893e-01,-2.50579e-01,-1.92038e-01,-1.78452e-01,2.03093e-01,-3.01113e-03,-1.74890e-01,-2.49830e-01,-2.05995e-01,-5.02456e-02,1.61684e-01,-6.21661e-02,-7.77650e-03,4.36348e-01,1.45662e-01,3.06792e-01,-2.77709e-02,4.26189e-01,-1.07178e-01,1.74914e-01,-3.40482e-01,2.46263e-01,2.85792e-01,-1.07603e+00,
1.73132e-01,-1.55405e-01,1.79458e-01,-2.51136e-01,2.42451e-01,1.32822e-01,3.33446e-02,-2.31504e-01,2.80723e-01,-1.86799e-01,1.19704e-02,-7.27898e-02,-2.66069e-01,1.67214e-01,9.40022e-03,1.40588e-01,-2.40308e-01,2.70332e-01,1.30114e-01,1.80594e-01,-2.95111e-01,-9.10948e-02,-3.75975e-02,-8.47364e-02,6.51924e-02,
3.19182e-01,-1.74922e-01,2.76007e-01,-4.65436e-02,4.90142e-02,-1.98740e-01,2.39238e-02,2.96821e-01,1.87332e-02,8.74618e-02,1.81252e-01,3.42979e-01,2.30396e-03,-7.31241e-02,1.40317e-01,-9.80853e-02,-8.42147e-02,-2.68406e-01,7.34103e-02,7.01071e-02,-1.41304e-01,-3.41710e-03,3.04926e-01,-3.01302e-01,-1.62846e-01,
1.50353e-01,-2.04120e-01,3.39208e-01,1.86892e-01,2.02817e-01,-6.42024e-02,-2.41428e-01,1.80612e-01,-1.22968e-01,-3.02561e-01,2.71088e-01,-1.01669e-01,8.52512e-02,-1.92174e-01,1.26848e-01,9.06005e-02,-2.90715e-01,4.19533e-01,-1.34305e-01,1.35746e-01,2.51900e-01,1.14287e-01,-6.47583e-02,9.74504e-02,3.17511e-02,
3.84250e-02,-1.83071e-01,-3.29234e-01,2.58998e-02,-7.16639e-02,-8.79347e-04,2.12416e-01,1.84265e-01,9.28914e-02,-1.93890e-01,1.16717e-01,-1.40515e-01,-1.19913e-01,2.92420e-01,-1.43025e-01,-8.57066e-02,9.76178e-02,9.73700e-02,1.88737e-01,-2.98708e-01,-3.37410e-02,-2.23573e-01,-2.61094e-01,-1.91503e-02,2.97152e-01,
-2.50643e-02,-2.70248e-01,-2.71328e-02,3.14954e-01,3.79795e-02,2.68580e-02,-1.45508e-01,-8.99381e-02,6.70115e-02,2.68070e-01,2.69655e-01,1.69839e-01,9.05311e-02,2.37876e-01,-1.78476e-02,-1.10465e-01,-3.50946e-02,-1.76306e-02,-1.62438e-02,-2.66663e-01,-2.38625e-01,2.62283e-02,2.87112e-01,-1.34610e-01,8.71673e-02,
1.44189e-01,1.10824e-01,-1.13175e-02,-8.51726e-02,2.28972e-01,3.21192e-01,-2.28567e-01,2.59132e-01,-6.07143e-02,2.46208e-01,-3.39356e-01,3.02612e-01,2.77393e-01,-2.60905e-01,3.28181e-01,-3.19214e-01,-1.51387e-01,-2.54615e-01,4.45427e-02,3.46666e-03,8.70896e-02,3.76987e-02,1.08495e-01,1.52716e-01,-8.00928e-03,
-2.26412e-01,1.83184e-01,2.53487e-01,4.74225e-02,-1.03775e-01,-3.35987e-01,-1.23868e-01,-1.32372e-01,6.93446e-02,-2.63654e-01,-2.83360e-04,1.20813e-01,2.20694e-01,2.57303e-01,7.09355e-02,-2.20891e-01,2.95286e-01,1.77214e-01,-6.96533e-02,3.86228e-02,2.57174e-01,-9.76122e-02,-2.46749e-01,3.24065e-01,2.41155e-01,
2.37474e-01,-2.19099e-01,6.46983e-02,1.10092e-01,4.60550e-03,2.97069e-01,-2.99108e-01,-7.62908e-02,1.69864e-01,2.69240e-01,1.89887e-01,-3.50286e-01,-2.52973e-01,1.11878e-01,-3.86643e-01,-6.15259e-01,-3.87771e-01,1.27153e-01,-3.33147e-01,-3.94263e-01,-3.68822e-01,2.12451e-01,1.71726e-01,4.41424e-02,8.59345e-02,
3.20357e-01,-2.53058e-01,2.09951e-01,-3.47803e-01,3.38332e-02,2.02621e-01,-1.72513e-01,-2.23768e-01,-1.98121e-01,-2.15363e-01,-3.51917e-02,-4.04818e-01,-7.38111e-02,1.23988e-01,-5.61055e-01,-3.63463e-02,5.23620e-01,-1.69828e+00,2.73436e-01,-3.91225e-01,1.96742e-01,-5.47352e-02,1.16337e-01,-8.39813e-02,6.82005e-01,
3.23847e-02,-2.80367e-01,-3.13111e-01,3.01147e-01,2.72295e-02,-5.29540e-02,1.50210e-01,3.09186e-01,3.40703e-02,2.73023e-02,-2.43001e-01,-3.66658e-02,-1.38029e-01,-1.86622e-01,-1.42966e-01,6.82655e-02,-1.66328e-01,-2.84843e-01,-1.48260e-01,-3.23779e-01,2.58312e-01,2.26238e-01,-1.39882e-01,2.28794e-01,1.85922e-01,
3.00061e-01,-1.40855e-01,7.00808e-03,-7.61035e-02,-2.12067e-01,-2.31480e-01,2.84189e-01,1.76860e-01,1.08632e-01,-2.55569e-01,1.45307e-01,-1.60286e-02,-1.80398e-01,-1.39514e-01,-2.44869e-01,1.16673e-01,-3.29906e-01,-2.24405e-01,-1.57973e-01,-1.96964e-01,-2.80627e-01,-2.62258e-01,-3.08130e-01,1.47016e-01,-9.18635e-02,
-1.06164e-01,-2.35964e-01,-1.24040e-01,-1.04400e-01,-1.19413e-01,2.92084e-01,4.36354e-01,-2.59735e-01,-5.59085e-02,-2.50505e-01,-2.01208e-01,-2.92331e-01,5.67442e-03,1.96590e-01,-5.04071e-01,3.92904e-01,1.51527e-01,2.09462e-01,-3.02061e-01,1.96570e-01,-2.29772e-01,-4.39207e-01,-2.28091e-01,-3.00448e-01,1.39058e-01,
-2.74023e-01,
1.31720e-01,
2.95115e-01,
-5.48904e-02,
3.04470e-01,
-1.14884e-01,
1.69724e-01,
-5.97971e-02,
-1.65810e-01,
-2.22017e-01,
6.48045e-02,
7.15261e-02,
-1.39343e-01,
-1.45891e-01,
-3.36692e-01,
2.42034e-01,
-2.91998e-01,
-3.10306e-01,
3.35054e-01,
-3.50642e-02,
1.37544e-01,
2.85835e-02,
9.34145e-02,
-1.76266e-01,
3.15139e-01,
1.35950e-01,-2.55359e-02,7.82133e-02,-8.34773e-02,1.39008e-01,2.67436e-01,3.16626e-01,5.11762e-02,-1.29465e-01,-1.34673e-01,-1.42264e-01,-3.83621e-02,2.67232e-01,2.66181e-01,3.16671e-01,2.16805e-01,-6.92618e-02,-2.35293e-01,3.07517e-01,3.27713e-01,1.59386e-01,4.49307e-02,2.91598e-01,-1.23192e-01,5.10000e-02,
-3.12300e-02,-1.91804e-01,-2.24496e-01,-2.41348e-01,2.63469e-01,-2.87235e-01,2.73911e-01,3.10082e-02,1.26360e-01,-3.30967e-01,3.14083e-01,-1.62577e-01,-1.42141e-01,-8.29055e-02,-1.50092e-01,2.43277e-01,9.92676e-02,3.22140e-01,9.78700e-03,-1.22933e-01,2.32027e-01,-9.05691e-02,-1.34211e-01,2.27076e-01,-3.97761e-02,
4.85062e-02,3.39551e-02,-2.65241e-01,2.76479e-02,2.38054e-01,-2.48817e-01,3.34729e-01,-1.07235e-01,-4.87462e-02,2.48157e-01,8.32884e-02,-3.53973e-01,-1.08617e-01,-1.26647e-01,-1.42744e-01,2.96958e-01,2.39040e-01,1.18288e-01,-1.03333e-02,1.67590e-01,-8.00805e-02,-1.07398e-01,-1.69323e-01,-1.08321e-01,2.14611e-01,
-8.45722e-02,5.62073e-02,9.56469e-02,-6.47717e-02,2.73085e-01,-2.77854e-01,-2.87761e-01,-6.76952e-02,1.04874e-01,2.35119e-01,-2.45195e-01,-1.56968e-01,-2.99020e-01,-1.61527e-02,2.52509e-01,6.63476e-02,-1.47226e-01,3.28276e-01,2.02215e-01,3.03710e-02,-1.42002e-01,-1.95390e-01,2.95380e-01,-2.54715e-01,2.42395e-01,
-2.05361e-01,-1.49652e-01,-2.73449e-01,1.90260e-01,-3.00396e-01,-1.16116e-01,-1.20358e-01,8.54672e-02,-1.34222e-01,-2.60956e-01,-2.44221e-01,-2.82102e-01,2.00596e-01,1.91653e-01,8.99414e-02,3.32310e-01,7.41402e-02,-2.71611e-01,-1.91801e-01,-1.96739e-01,3.05351e-01,-2.81433e-01,5.32316e-02,2.02098e-01,2.62830e-01,
-2.04068e-01,6.02808e-02,-2.37134e-01,-3.12172e-01,3.31898e-01,3.32214e-01,-3.26886e-01,3.08333e-01,2.60847e-01,-1.90559e-01,3.13490e-01,1.23820e-01,1.56525e-01,2.14634e-01,-3.25585e-01,5.87943e-02,-1.98380e-01,-2.64915e-02,-1.20748e-01,5.31630e-02,-4.00663e-02,3.17949e-03,8.62063e-02,5.35029e-02,-1.96013e-01,
-2.39055e-01,-2.87551e-01,2.33513e-01,1.69655e-01,1.07789e-01,-5.53114e-02,1.92661e-01,-2.86736e-03,1.23906e-02,-2.99113e-01,-2.30738e-01,2.06366e-01,-5.20613e-02,-3.03200e-01,-2.30099e-01,-2.63613e-01,5.23367e-02,2.71261e-01,9.48522e-02,1.97916e-01,7.83379e-02,-3.14793e-01,2.42045e-01,1.54470e-02,-1.77904e-01,
-7.51533e-02,-6.96496e-02,5.96024e-02,2.23004e-01,-1.75279e-01,1.18775e-01,-2.17657e-01,9.56545e-02,-1.68673e-01,-2.93065e-03,-3.26201e-01,4.51845e-02,2.68658e-01,-7.85049e-02,4.44744e-02,-4.74333e-02,-2.38317e-01,-2.10346e-01,-3.74186e-02,-2.52288e-01,3.78847e-01,4.28963e-01,9.38163e-02,2.27298e-01,1.75060e-01,
-3.09869e-01,-5.15133e-02,2.66589e-01,-7.72313e-02,2.57616e-01,-1.55023e-01,-3.37806e-01,-2.23364e-01,2.57571e-01,-3.06312e-01,2.30865e-01,2.10667e-01,1.04447e-01,-2.43556e-01,1.90638e-01,-1.05513e-01,-1.15743e-01,-1.94176e-02,-1.75819e-01,2.67039e-01,1.87246e-01,1.10422e-01,-2.56028e-01,1.92491e-01,-3.44176e-01,
-1.71682e-03,2.32050e-01,-1.82640e-01,-2.38979e-01,1.90725e-01,-2.09836e-01,-2.60958e-02,2.12187e-01,3.39607e-02,-2.62938e-01,2.40489e-01,3.76573e-02,7.32911e-02,-8.91198e-02,2.92132e-01,-1.44553e-01,2.06910e-01,-2.96385e-01,-2.99495e-01,2.54140e-01,1.15218e-01,-1.45194e-01,1.07496e-01,2.10729e-01,3.95292e-02,
2.32924e-01,2.75622e-01,-1.82652e-01,-1.76806e-01,-1.36635e-01,1.13251e-01,1.20080e-01,-5.71333e-02,2.07434e-01,1.46816e-01,-3.10712e-01,6.56857e-02,2.95396e-02,2.84543e-01,1.58369e-01,6.47044e-02,-2.72324e-01,-4.47267e-02,-9.57247e-02,2.29540e-01,6.81725e-03,-4.14652e-02,1.09743e-01,2.03867e-01,-5.94814e-02,
-4.31519e-01,1.79563e-01,-5.01865e-03,-1.62510e-02,-3.93932e-01,2.30308e-01,1.55650e-01,1.10694e-01,3.43793e-02,7.55737e-02,4.16813e-02,1.46423e-01,3.64609e-02,-2.30210e-01,2.61176e-01,-5.44713e-02,3.58865e-02,-1.52958e-01,-3.30164e-01,5.13679e-02,-6.60277e-02,-3.27654e-02,7.92123e-02,-5.06197e-02,-4.26096e-01,
-2.08808e-01,1.13098e-01,1.45687e-01,1.22291e-01,-3.98424e-02,-2.93670e-01,1.81529e-01,1.64280e-01,-1.62305e-01,-2.87388e-01,-3.04733e-02,-1.86862e-01,-4.24620e-02,-2.30358e-01,1.31080e-01,-3.14131e-02,2.95699e-01,-1.92750e-01,2.55006e-01,-2.18645e-01,1.83288e-01,2.80461e-01,8.20293e-02,-1.16748e-01,2.83943e-01,
-1.52500e-01,5.11269e-02,-1.00765e-01,1.35733e-01,-3.25367e-01,2.26609e-02,-1.68686e-01,2.95647e-01,3.75692e-02,7.77071e-02,3.38430e-01,-1.98774e-01,-3.30162e-02,-1.63721e-01,1.12762e-01,-3.50466e-01,3.25231e-01,2.87064e-02,2.90631e-01,-2.32517e-01,-9.86177e-02,2.19871e-01,1.35586e-01,-3.06593e-01,-9.89569e-03,
1.28495e-01,-4.04611e-02,-2.61922e-01,-5.36914e-02,3.53496e-03,3.51810e-02,-2.73654e-01,-2.45011e-01,2.08740e-01,-2.07786e-01,-3.14530e-01,1.09442e-01,-1.23628e-01,-1.87923e-01,2.80207e-01,1.73907e-01,4.53506e-02,1.21507e-01,2.39621e-01,3.96219e-01,-3.63865e-02,-2.09632e-01,1.99201e-01,9.73185e-02,4.81806e-01,
7.50932e-02,-3.52169e-01,1.85362e-01,-1.29974e-01,2.05021e-01,-4.46261e-02,-3.04517e-01,2.84477e-01,-1.14879e-02,3.88289e-01,1.41975e-01,-2.94714e-01,-3.70635e-02,1.77055e-01,1.77008e-01,-1.20766e-01,1.66441e-01,5.87472e-02,1.85213e-02,-8.53545e-02,5.87397e-02,2.04437e-02,1.03013e-01,-5.37469e-02,-8.22252e-02,
-8.11037e-02,-2.89892e-01,2.73752e-01,3.08805e-01,-1.73439e-01,1.11330e-01,1.53129e-02,-6.67619e-02,3.92246e-02,-1.99028e-01,3.18463e-01,2.42715e-01,3.23682e-01,-2.23945e-01,2.90108e-01,-5.96601e-02,2.07307e-01,2.48323e-01,-1.01828e-01,2.81816e-01,-2.02743e-02,9.04388e-02,3.21903e-01,-2.18992e-01,-1.02137e-01,
-2.62968e-01,-1.59199e-01,-1.97351e-01,-8.71928e-02,1.28275e-01,-4.13672e-01,-5.39128e-02,-1.48395e-01,-3.25734e-01,3.38839e-01,-2.47815e-01,2.81014e-01,-3.29531e-01,-2.76059e-01,3.01545e-01,1.46324e-01,2.73212e-01,-3.05628e-01,-3.89071e-01,-1.19598e-01,-1.24743e-01,2.12526e-01,-8.09642e-02,9.76662e-02,4.45599e-02,
-2.05831e-01,-2.93953e-01,-2.76076e-01,-1.16508e-01,-7.35897e-02,3.11565e-01,-2.32078e-01,-2.25204e-01,-3.23315e-01,-4.31702e-02,3.18026e-01,2.98429e-01,3.25016e-01,-2.65813e-01,2.12882e-02,1.51791e-01,-9.00376e-02,2.46306e-01,-4.13877e-02,-3.18552e-01,3.34330e-01,3.28147e-02,1.62859e-01,2.01523e-01,2.41525e-02,
2.21743e-01,-2.37544e-01,-2.71568e-02,-5.50186e-02,2.25229e-01,-2.67483e-01,-1.29837e-01,1.15138e-01,-2.51763e-01,9.67002e-02,2.03396e-01,2.51793e-01,-3.65530e-02,-3.16227e-01,-4.04975e-03,1.65510e-01,3.39656e-01,-9.51772e-02,3.99184e-02,-1.71685e-01,5.91663e-02,2.78790e-01,-8.51034e-02,3.17318e-01,2.21200e-01,
-7.61213e-02,2.14959e-01,3.05374e-01,2.42882e-01,-7.97745e-02,8.15085e-02,2.22523e-01,-2.36883e-01,-8.17308e-02,-2.74325e-01,-1.26983e-01,1.37223e-01,1.08269e-01,-2.94395e-01,2.68148e-01,1.23811e-01,-2.34666e-02,1.04813e-01,1.38189e-01,2.79402e-01,-1.62088e-01,-8.98462e-02,-1.89881e-02,3.58196e-02,7.97331e-02,
1.02943e-02,-4.21364e-01,-3.00313e-01,-3.93291e-02,-8.49449e-02,-2.66811e-01,-1.77568e-01,7.30651e-02,-7.71149e-02,2.61047e-01,-1.60749e-01,-3.59089e-01,-1.26868e-01,2.25800e-01,3.09751e-01,2.38500e-01,3.07384e-01,3.04582e-01,-4.21123e-01,1.09990e-01,-2.27794e-03,9.11819e-02,-3.12572e-01,-2.56587e-01,-6.33618e-02,
-9.54681e-02,2.65309e-01,-2.28177e-02,5.32059e-02,1.98139e-01,-8.03536e-02,-1.47429e-01,-7.75254e-03,1.17870e-01,1.45490e-01,-3.39497e-01,-4.96218e-02,-1.08135e-01,-3.24979e-01,8.01622e-02,-1.12764e-01,-4.40837e-02,1.46586e-01,-3.09866e-01,-7.79185e-02,-4.16074e-02,8.04528e-02,-1.74975e-01,-2.25570e-01,-2.24592e-01,
-2.33055e-01,2.25122e-01,3.15821e-01,3.08962e-01,-9.60288e-02,-2.62043e-02,-2.59887e-01,-9.12415e-02,-3.43209e-01,2.58144e-01,-3.55549e-02,-1.60658e-01,2.72834e-01,-1.85171e-01,1.80149e-01,-2.83530e-01,-2.81469e-01,-2.31000e-01,-1.69452e-01,-4.30131e-03,9.66977e-02,3.33056e-01,-8.97942e-02,3.15788e-01,2.05935e-01,
1.61667e-01,-1.34959e-02,2.11732e-01,-2.08385e-01,-2.29324e-01,-2.17050e-01,9.42154e-02,1.14634e-01,-3.34194e-01,6.24106e-02,-7.87571e-02,2.74169e-01,1.36472e-01,-2.14603e-01,1.37582e-01,-2.07714e-01,1.93420e-01,-9.54009e-02,-1.03961e-01,2.24247e-01,-1.71987e-01,1.54779e-01,1.44826e-02,-1.53984e-01,-2.89074e-01,
9.56828e-02,
-1.16784e-01,
-3.54956e-01,
2.24563e-01,
9.49190e-02,
-2.24358e-01,
-3.54933e-01,
2.25263e-01,
-2.22641e-01,
-2.35906e-01,
-7.00736e-02,
1.85423e-01,
-3.09856e-01,
1.45951e-01,
3.32093e-01,
2.28523e-01,
-8.38248e-02,
2.30602e-01,
-3.41150e-01,
-1.55995e-01,
3.06897e-01,
2.64486e-01,
1.59954e-01,
-2.13964e-01,
-3.51428e-02,
-1.39271e-01,1.17154e-01,2.89584e-01,1.69458e-02,2.15094e-01,3.51876e-01,-1.58630e-01,-3.04893e-02,4.35265e-01,1.57155e-01,1.14670e-01,3.31182e-02,-5.05275e-02,1.81880e-01,-1.81968e-01,-1.15136e-01,1.48066e-01,-3.65812e-03,2.90575e-01,-8.00067e-02,-3.62767e-01,2.80221e-01,2.76437e-01,-2.18043e-01,3.11419e-02,
-3.97207e-01,-2.58688e-01,2.17675e-01,-4.25487e-01,-3.71057e-01,-4.97442e-02,3.81020e-01,-1.82567e-01,1.92523e-01,3.60627e-01,4.11917e-01,-2.17867e-01,4.21486e-01,-7.26064e-02,5.98890e-02,1.91948e-01,2.93468e-01,1.38571e-01,-4.17240e-01,-3.99749e-01,-1.64086e-01,-1.36598e-01,-3.86433e-01,2.61363e-01,-2.33648e-01,
4.27712e-01,1.24628e-01,-3.48017e-01,4.75233e-01,-2.96113e-01,-2.99208e-01,-2.15149e-01,7.19964e-02,-1.84164e-01,-6.00270e-02,-1.59417e-01,9.25467e-02,3.78715e-02,4.36041e-01,5.48748e-02,-2.05402e-01,8.33035e-02,-3.89751e-01,3.63515e-01,5.30192e-02,1.64012e-01,-3.13121e-01,-3.49464e-01,-9.08201e-02,1.22249e-03,
-5.61179e-02,-2.32675e-01,4.13153e-01,1.00691e-01,-2.66070e-01,2.17340e-01,1.52115e-01,5.44384e-02,1.23992e-01,-2.60063e-01,1.17914e-02,2.62627e-02,4.48224e-01,4.81962e-01,-7.40868e-02,6.11720e-02,-1.64680e-02,-1.19768e-01,-3.22366e-01,-3.13887e-01,2.96579e-01,2.30946e-01,1.17318e-01,8.62082e-02,-2.60887e-02,
6.92833e-02,-3.90272e-02,3.12430e-01,2.82348e-01,-3.10104e-01,4.26118e-01,2.63100e-01,3.68317e-02,-6.16479e-02,4.00527e-01,-1.56428e-01,1.81169e-02,-2.96918e-01,1.75767e-02,-2.09920e-01,3.79639e-02,-1.42109e-01,-3.81062e-01,-4.43319e-01,-3.54606e-01,3.82101e-01,1.43909e-01,-3.55747e-01,2.71116e-01,2.71694e-02,
4.75486e-01,
4.94825e-01,
-5.67998e-01,
-1.83426e-01,
-3.12611e-01,
