// Neural Network File Format by Kyle Julian, Stanford 2016
6,5,5,25,
5,25,25,25,25,25,5,
0,
-56000.000000,-56000.000000,-3.141593,200.000000,200.000000
56000.000000,56000.000000,3.141593,200.000000,200.000000
-278.628049,0.000000,0.000000,200.000000,200.000000,-0.242819
112000.000000,112000.000000,6.283185,1.000000,1.000000,17.479225
3.20867e-01,1.79631e-01,-1.74032e-01,-4.27471e-01,1.35439e-01,
-4.04587e-01,1.97944e+00,2.53096e-03,3.34923e-01,-2.99793e-01,
7.41645e-02,3.58743e-01,5.53138e-02,4.16600e-01,-3.40616e-01,
1.91827e-02,6.14957e-01,5.23944e-01,1.67050e-01,-3.98476e-01,
6.24359e-02,1.63257e-01,-3.84145e-01,2.05762e-01,3.19260e-01,
-7.90345e-02,-7.39277e-01,2.11078e-01,-4.23087e-01,4.11017e-01,
-2.09949e-01,-1.04695e-01,-6.77301e-02,2.50914e-01,3.56256e-01,
-7.76283e-01,-5.89674e-01,4.10815e-01,-2.35958e-02,-4.45790e-01,
-1.22951e-01,-4.88996e-02,3.49439e-01,-4.14359e-01,-4.32374e-01,
2.39307e-02,-1.31244e-01,6.82333e-01,1.92632e-01,-1.00200e-01,
-3.24621e-01,4.56851e-02,2.05956e-01,-1.19428e-01,-1.69081e-01,
-1.55587e-02,1.51614e-01,1.26713e-01,1.76151e-02,-3.57123e-01,
-2.74091e+00,8.84740e-01,-1.17092e-02,6.53636e-02,-4.44950e-01,
-1.10649e-01,-7.53138e-01,-2.08358e-01,-3.25979e-01,5.71077e-02,
6.56841e-01,1.03928e-01,1.82286e-01,2.67639e-01,-4.83808e-02,
3.70838e-01,1.26312e-01,1.56349e-01,4.41375e-01,-2.09563e-01,
-1.53599e+00,-1.54418e+00,1.35659e-02,2.28958e-01,-3.85865e-01,
-8.61595e-02,3.39355e-01,-2.91405e-01,3.34080e-01,-3.67113e-01,
-1.09553e-01,3.37973e-01,-3.61579e-01,4.67677e-02,-4.10033e-01,
6.09089e-01,-4.57014e-01,1.73358e-01,-2.82914e-02,-7.35495e-02,
8.50156e-02,2.22037e-01,1.15991e-02,-1.40844e-01,1.52166e-01,
-3.62072e-01,2.13900e-01,2.68780e-01,-3.54589e-01,1.81685e-01,
-1.46837e+00,1.64831e+00,6.74677e-01,-3.96841e-01,1.61551e-01,
-5.05152e-01,4.98049e-01,6.37396e-02,2.49527e-01,3.65005e-01,
5.78711e-01,7.95957e-01,-4.36318e-01,1.74071e-01,-2.33591e-01,
3.06520e-01,
-1.11579e-03,
-3.38972e-01,
3.62315e-02,
1.13281e-01,
9.44460e-02,
-1.51198e-01,
-1.29396e-01,
-2.48389e-01,
-4.81490e-02,
2.63530e-01,
1.44314e-01,
5.63559e-02,
2.09364e-01,
1.92551e-01,
2.70172e-01,
3.13677e-03,
-3.20386e-01,
2.79534e-01,
-1.25038e-01,
2.62598e-01,
-3.46550e-01,
-5.89717e-02,
3.38075e-01,
-1.37123e-01,
1.33134e-01,3.31822e-01,3.13930e-01,4.99998e-01,-1.84918e-01,-1.17104e-02,-2.25364e-01,1.14376e-01,2.20392e-01,-6.20669e-01,-1.22874e-01,1.21348e-01,-2.06083e-01,1.37160e-01,1.41307e-01,9.55304e-02,6.89584e-01,-2.87126e-01,9.83181e-02,-1.51783e-01,3.64157e-02,-6.32518e-02,6.36735e-02,-1.27323e-01,-2.11670e-01,
3.10512e-02,9.92695e-02,-7.32862e-02,-1.09113e+00,-9.90665e-02,7.64504e-02,3.61416e-01,8.88775e-01,-1.86241e-01,3.34721e-01,-1.45857e-01,4.05442e-01,3.27605e-01,2.51480e-01,-2.88003e-01,-7.86021e-02,5.88161e-01,2.14784e-01,-9.07919e-02,-6.90385e-01,1.23755e-01,5.15646e-02,-1.69255e+00,1.24665e-01,1.19171e-01,
-1.91872e-01,-2.72614e-02,-3.23121e-01,-2.10978e-01,3.58851e-01,1.40101e-01,-1.67931e-02,6.01524e-01,6.56755e-02,1.30065e-01,-2.99648e-01,5.96009e-02,-4.21695e-01,2.49393e-01,6.71322e-02,-2.06503e-01,-5.07275e-01,-1.07573e-01,-2.35440e-01,7.01337e-02,2.01523e-01,1.91448e-02,3.55759e-01,-3.51607e-01,-6.18375e-01,
-2.14765e-01,7.10555e-01,8.39402e-02,-2.86744e-01,-2.39433e-02,4.50193e-02,7.40583e-02,2.54193e-01,1.36119e-01,-2.93077e-01,1.27219e-01,-8.60879e-02,4.16774e-01,5.30739e-02,1.15887e-01,-2.52852e-01,3.19186e-02,-2.61762e-01,5.88987e-02,-1.36892e+00,2.79297e-01,7.34279e-02,4.22656e-01,-1.83184e-02,-2.23157e-01,
-2.53717e-01,4.55640e-01,-3.01607e-01,-6.73582e-01,-5.23531e-02,-3.02787e-01,-3.71609e-03,-1.12285e-01,1.17918e-01,3.32200e-01,2.44363e-01,-2.31589e-01,4.20892e-01,-3.71221e-01,8.91950e-02,1.07826e-01,1.49167e-03,-1.26332e-01,2.81997e-01,-1.31130e-02,1.76884e-01,-3.36586e-01,3.05923e-02,1.74617e-01,1.01649e-01,
-1.00411e-01,5.02243e-01,-2.02096e-01,-6.61607e-02,-6.38639e-01,3.20252e-01,8.93224e-02,1.26597e-01,-2.18086e-01,-1.14802e-01,3.17129e-01,1.53564e-02,2.28893e-01,-3.61144e-01,3.76810e-01,-7.15890e-02,7.93502e-01,-1.69817e-01,3.89962e-03,3.78755e-02,-1.39340e-01,-8.84954e-02,-1.51538e-01,1.59170e-01,1.35246e-02,
3.14934e-01,1.41660e-01,-2.73906e-01,1.68684e-02,-1.87905e-01,2.60029e-03,3.10629e-01,4.25926e-01,-1.39407e-01,-1.62870e-01,-5.87206e-02,1.05471e-01,-4.39692e-01,2.50156e-01,-3.30508e-01,-6.51915e-02,2.98997e-01,-1.54895e-01,1.90543e-01,2.41042e-01,3.26447e-01,-1.64317e-01,-1.48833e-01,1.33332e-01,-1.84609e-01,
8.97233e-02,1.44082e-01,6.67786e-02,-1.33758e-01,-3.10445e-01,-3.27572e-01,-2.95726e-01,-2.23594e-01,-2.55781e-01,5.77549e-02,1.16453e-01,9.57166e-02,-1.25203e-01,7.88828e-02,-3.85698e-02,-5.77544e-02,2.83860e-01,-2.97933e-01,-8.18101e-02,2.76528e-01,-2.40522e-01,-1.51125e-02,1.59945e-01,1.92560e-01,-1.44797e-01,
9.61509e-02,3.02099e-01,2.60045e-01,2.55614e-01,5.37726e-02,1.63107e-02,7.37287e-02,2.30703e-01,1.57851e-01,-7.92935e-02,3.34988e-03,-6.31655e-02,2.55220e-01,-1.20570e-01,1.08596e-01,-2.62792e-01,1.82721e-01,1.40458e-02,-2.88373e-01,-2.40998e-01,6.05021e-02,-2.73019e-01,-2.56830e-01,-3.89949e-01,-2.67141e-01,
2.84133e-01,-2.98515e-01,8.97511e-02,-3.38311e-01,2.43791e-02,-1.74912e-01,2.98562e-02,2.26518e-01,3.34405e-02,1.64671e-01,-3.30516e-01,-1.68331e-01,2.08908e-01,-2.31247e-02,-9.87216e-02,-1.49669e-01,-1.25940e-01,-1.38859e-01,-1.77950e-01,-7.01554e-02,-1.41153e-02,-1.19336e-01,3.32679e-01,-2.88256e-01,9.30235e-03,
-1.15703e-01,-3.32069e-01,2.83999e-01,8.85660e-02,7.07013e-03,2.74214e-01,1.21988e-01,-1.15424e-01,2.44146e-01,-1.97637e-01,4.86755e-03,-6.51303e-03,-5.59509e-02,1.23843e-01,1.61957e-01,8.17626e-02,-1.93544e-01,-1.74203e-01,2.69383e-01,1.44954e-02,2.94114e-02,1.80663e-01,6.66523e-02,3.08262e-01,-2.63889e-01,
-7.60894e-02,3.58066e-01,-3.72425e-03,-5.71152e-01,2.45308e-01,4.65479e-02,2.03005e-01,-1.07939e-01,-1.76105e-01,3.46765e-01,1.14865e-01,2.17937e-01,1.64235e-01,2.48403e-01,1.87107e-01,-1.90883e-02,7.59222e-01,1.34467e-01,-7.90853e-05,-5.79941e-02,6.60130e-02,-7.92990e-02,1.26073e-01,9.84600e-02,3.11036e-01,
-1.44862e-01,1.47390e-01,-4.43335e-02,2.24513e-01,-1.04005e-01,-7.21558e-02,-1.87298e-01,5.60990e-02,-1.43774e-01,3.01022e-01,1.84214e-01,1.61981e-01,-2.37514e-01,2.53919e-01,-2.04634e-02,2.75870e-01,1.51585e-01,2.07262e-01,1.67275e-01,-1.08155e-01,-3.06479e-01,-1.09159e-01,-2.16518e-01,-2.68852e-01,1.00792e-01,
-1.92155e-01,-5.31794e-02,-1.88097e-01,7.65235e-02,-2.72952e-02,-3.26916e-01,-2.44370e-01,-1.50045e-01,-2.11249e-02,5.89895e-02,1.13590e-01,-1.74632e-01,-1.59125e-01,-2.85873e-02,-3.16137e-01,-2.67126e-01,-2.95291e-01,2.34252e-01,-2.74248e-01,-9.46789e-02,9.79448e-02,2.90173e-01,1.09408e-01,-4.19250e-02,-2.44203e-01,
2.09820e-01,-2.66301e-01,-2.76165e-01,2.04704e-01,2.96402e-01,2.25258e-01,-6.48353e-02,-7.15777e-02,3.12257e-01,1.09732e-02,3.12618e-01,-3.41756e-01,3.15496e-01,2.45469e-01,1.26215e-01,3.08620e-01,-4.03883e-01,-5.15357e-02,-3.35877e-01,-2.12667e-02,2.17303e-01,1.40058e-01,1.49272e-02,-3.80775e-01,2.31769e-01,
2.19543e-01,1.76257e-01,-1.22392e-01,5.24912e-01,-2.09026e-01,1.64045e-01,1.42008e-01,1.91164e-01,-1.79167e-01,3.21694e-01,2.82931e-01,-5.27765e-02,2.90462e-01,3.57546e-01,-2.05026e-01,-2.15115e-01,-2.39261e-01,1.06371e-01,7.12526e-02,5.63942e-02,-1.86225e-01,-3.32015e-01,-4.58989e-01,3.47544e-01,6.19646e-01,
8.81822e-02,-3.26734e-01,-3.70966e-02,-1.77345e-01,2.47957e-01,-4.67910e-02,-2.64280e-01,-2.84832e-01,-4.32742e-03,2.52786e-01,-1.47139e-01,-3.37628e-01,-1.29969e-01,-7.07186e-02,-9.01623e-02,2.46926e-01,2.40687e-02,-1.55921e-01,-3.36474e-01,1.20087e-01,-3.14057e-01,-3.46301e-01,2.05592e-01,1.24253e-01,6.31659e-02,
-8.38160e-02,4.81281e-03,-1.03785e-01,-9.21458e-02,-8.44640e-02,-1.93876e-01,-4.13844e-02,-2.83099e-01,2.36032e-01,9.49781e-02,2.23453e-01,-2.03767e-01,-2.72854e-01,2.09344e-01,-2.48260e-02,-1.83081e-01,2.35209e-01,1.58495e-01,2.69993e-02,2.62070e-01,-8.91622e-02,-2.17745e-01,-1.48575e-01,1.53087e-01,-4.90093e-03,
-8.02207e-02,6.54437e-01,2.10362e-01,-5.03390e-02,-2.49041e-01,-2.52567e-01,-5.69722e-02,-2.24727e-01,-1.43598e-01,-8.12567e-02,-6.49512e-02,-1.32510e-01,2.21595e-01,-3.46389e-01,2.64354e-01,1.18655e-01,7.05345e-01,4.10507e-02,2.40528e-01,-1.81157e-01,2.74175e-01,-9.38423e-02,4.22847e-01,-1.88968e-01,-4.76005e-02,
-2.59942e-01,5.16393e-01,3.29611e-01,4.77697e-01,1.36663e-01,6.62958e-02,-1.26684e-01,3.04610e-01,-3.24062e-01,-8.70039e-02,-1.23194e-01,-1.69865e-01,-3.07691e-02,-6.75657e-02,9.63114e-02,1.59224e-01,1.75900e-01,7.42551e-02,2.63591e-01,-7.75607e-01,-5.12148e-02,6.08925e-02,3.60823e-02,7.67576e-02,4.98861e-02,
-1.27618e-01,1.45611e-01,1.67771e-01,5.94065e-01,2.37784e-01,-8.45354e-02,9.82893e-02,-2.00957e-01,-1.49517e-02,-7.00534e-01,-1.66561e-01,-7.73743e-02,2.35790e-01,3.37287e-01,3.16375e-01,5.61681e-02,3.42688e-01,-2.03884e-01,-2.90541e-01,-7.68836e-01,8.02020e-02,3.27431e-01,2.82336e-01,-4.73197e-01,-3.72091e-02,
-2.80254e-01,1.48274e-01,-2.38136e-01,-4.69523e-01,1.99480e-01,2.75555e-01,-1.14448e-01,1.52104e-01,-9.10505e-02,8.14499e-02,-2.37766e-01,-1.62257e-01,1.67905e-01,1.69259e-01,-3.73874e-01,4.20436e-03,2.44653e-01,4.53815e-02,2.34092e-01,1.00727e+00,-1.28009e-01,1.16663e-01,4.54001e-01,1.76839e-01,-5.95916e-02,
-4.06218e-03,4.12237e-01,-1.56086e-01,5.32883e-02,2.05634e-01,4.13875e-02,2.37976e-01,3.27959e-01,-3.92542e-02,-1.20756e-01,9.83895e-02,-2.78476e-01,-1.24420e-04,-3.68932e-01,5.98123e-02,2.59877e-01,1.07477e+00,6.57127e-02,4.35214e-02,-5.00151e-01,1.44354e-01,-2.39706e-01,-4.19573e-01,8.35286e-03,1.47189e-01,
-3.55721e-01,9.73702e-02,-1.68918e-02,1.94171e-01,-2.37936e-01,1.73371e-01,1.38070e-01,-3.30792e-01,-1.02739e-01,-1.02085e-01,1.95278e-01,6.54038e-02,-2.74733e-01,9.58864e-02,9.08840e-02,-1.27347e-01,-2.98689e-01,-5.36689e-03,-1.28926e-01,-2.90611e-01,2.65016e-01,-3.03853e-01,1.45962e-02,-4.24098e-02,2.82093e-01,
-2.13438e-01,-2.84753e-01,-1.64832e-01,-8.96652e-02,1.04976e-01,1.49405e-01,3.11245e-01,-8.41616e-02,2.95914e-01,2.12881e-01,3.92754e-02,1.37381e-01,-2.04242e-01,7.47802e-02,1.47485e-01,6.20669e-02,-1.25925e-01,1.75691e-01,-2.11403e-01,3.02316e-01,1.29775e-01,3.36387e-01,3.30994e-01,-3.38621e-01,1.52896e-01,
-2.88798e-02,
9.64511e-02,
2.52416e-01,
-3.22158e-02,
1.60756e-01,
4.50796e-02,
-3.65603e-02,
-3.33253e-01,
-2.41858e-01,
-1.65463e-01,
2.95113e-01,
6.57647e-02,
2.10736e-01,
2.32454e-01,
3.20494e-03,
-1.90117e-01,
-8.92615e-03,
-2.91398e-01,
1.36576e-01,
-1.74704e-01,
6.78785e-02,
2.01998e-01,
5.39992e-03,
-2.05719e-01,
-3.70153e-01,
9.13479e-03,-1.96248e-02,-2.90063e-01,2.27914e-01,2.17541e-01,1.49446e-01,2.93927e-01,1.22575e-01,-1.66261e-01,2.23615e-01,1.30531e-01,-6.35694e-02,-1.64822e-02,2.45858e-01,-1.51806e-02,4.13555e-01,-1.94800e-01,-3.16981e-01,3.30806e-01,-6.62504e-02,2.92123e-01,-3.00007e-01,3.27513e-01,2.20300e-01,1.03304e-01,
3.07951e-01,-6.89164e-01,1.77404e-01,-1.77666e-01,4.43509e-02,3.86553e-01,-2.50967e-01,2.42130e-01,-1.55034e-01,7.62672e-02,-2.21272e-01,1.04418e-02,-1.92988e-01,-1.95048e-01,1.85386e-01,4.70281e-01,-2.18702e-01,2.11801e-01,1.11883e-01,-3.12032e-01,2.70147e-01,-1.04301e-01,2.74889e-01,2.89971e-01,-3.23141e-01,
9.83403e-02,2.38318e-01,1.52983e-01,1.89509e-01,2.66701e-01,-9.77108e-02,-4.09172e-02,1.32135e-01,4.26688e-02,8.89899e-02,-1.01328e-01,3.60439e-01,1.32098e-01,3.41653e-01,-5.91374e-02,-1.31908e-01,-8.89575e-02,-2.11792e-01,4.20307e-01,-2.79322e-01,-3.91799e-01,2.39910e-02,2.51250e-01,-6.46520e-02,-2.09804e-01,
8.98409e-02,-8.36011e-02,1.71459e-02,-1.26123e-01,6.99726e-02,-1.73579e-01,-1.51488e-01,-1.45085e-02,-1.30244e-02,3.35881e-01,2.06007e-01,-9.82493e-02,-1.52630e-01,-8.51918e-02,1.05099e-01,-3.48210e-01,-2.04006e-02,3.27088e-01,2.10507e-01,-1.40159e-01,7.83280e-02,-1.86143e-01,-1.42515e-02,1.00057e-01,-2.81371e-01,
-2.26518e-01,7.28040e-02,-2.89642e-01,1.18539e-02,3.23261e-02,1.25079e-01,-1.86140e-01,-1.08502e-01,2.69067e-01,2.13784e-01,2.54811e-01,-3.31589e-01,-5.85572e-02,3.18485e-01,7.67479e-02,-1.82638e-01,1.28863e-01,2.18315e-01,-2.79053e-01,3.04200e-02,-1.45244e-01,-1.34843e-01,-1.93106e-01,2.90332e-01,-9.62415e-02,
-8.14358e-02,-2.70122e-01,-2.65627e-01,2.52255e-01,-2.66458e-01,1.60369e-01,-2.24639e-01,-2.32986e-02,1.81878e-01,-1.36685e-01,-2.40443e-01,2.48414e-01,-2.05155e-01,-1.34341e-01,-1.21093e-01,-2.74194e-01,-7.06051e-02,-3.12738e-01,-2.19707e-01,-8.56555e-02,2.73588e-01,2.75945e-01,-2.43352e-01,2.76602e-02,3.28611e-01,
-6.97974e-02,1.74114e-01,1.33039e-01,2.89090e-01,3.18099e-01,2.71293e-01,1.74122e-01,-2.68438e-01,-2.82094e-01,-8.81516e-02,-2.93887e-01,1.99770e-01,1.15134e-01,-2.04583e-02,-7.53732e-02,-3.20347e-01,1.31410e-01,2.19620e-01,1.80411e-01,-4.44442e-02,-1.83543e-01,-2.48403e-01,3.73636e-01,1.09449e-01,1.48126e-01,
1.36360e-01,1.66255e-01,-1.16544e+00,1.13209e-01,4.28324e-01,-2.85769e-01,4.22788e-01,2.59668e-01,2.74163e-01,-8.00775e-02,-9.91048e-02,-2.35528e-01,5.04879e-04,-2.19773e-01,-3.11870e-01,3.56493e-01,-3.22422e-01,-3.92275e-02,3.44233e-01,1.10568e-01,-3.27075e-01,1.82838e-01,1.01950e-01,3.12003e-01,9.34319e-02,
-2.75279e-01,-5.23323e-02,2.53307e-01,4.11921e-01,-2.68499e-01,5.57917e-01,-2.30064e-01,2.73304e-01,-3.88720e-02,2.09064e-01,-2.99053e-01,3.20754e-01,1.87228e-01,-2.26121e-01,-1.65985e-01,-1.94664e-01,8.96535e-02,-2.86090e-01,-3.70972e-01,2.62337e-01,-2.06824e+00,-1.64748e-01,-2.79389e-04,-3.34509e-01,2.87884e-01,
-4.08602e-01,1.55877e-01,-3.77691e-02,2.28636e-01,3.09951e-01,3.01896e-01,-2.51924e-01,5.21404e-02,-3.02646e-01,-1.57856e-01,1.43475e-01,2.48660e-01,2.71682e-01,5.01994e-02,2.43037e-01,-3.22322e-01,1.74574e-01,1.53588e-02,-2.89053e-01,-5.42016e-02,1.82289e-01,-1.59605e-01,1.64966e-01,1.76089e-01,2.77360e-01,
1.33043e-01,7.19095e-02,4.23335e-02,7.23652e-01,-2.50022e-01,-2.44676e-01,7.85445e-02,2.08991e-01,1.47109e-01,2.06344e-01,3.86030e-01,2.56795e-01,2.85229e-01,1.74152e-01,-2.42238e-01,2.33625e-01,-9.30187e-02,3.23303e-01,3.31061e-01,-6.68242e-01,-5.17916e-01,-5.38438e-02,3.93318e-01,1.81019e-01,-1.19979e-01,
-3.38626e-01,-2.14075e-01,-2.07734e-01,-1.05220e-01,-4.72778e-02,-3.10779e-01,1.70721e-01,-8.89737e-02,2.74953e-01,-1.61910e-01,2.71902e-01,2.13845e-01,1.57309e-01,2.56846e-02,-2.15717e-01,7.68489e-01,-1.15993e-01,-2.91374e-01,-3.46435e-03,3.35647e-01,9.29584e-01,7.93116e-02,-7.62124e-02,1.21536e-01,6.45549e-02,
-1.91341e-01,-3.38221e-01,-1.56261e-01,-2.73268e-01,-3.44040e-01,1.31939e-02,7.61478e-02,1.85483e-01,8.77784e-02,2.12633e-01,1.68639e-01,-3.16826e-01,-1.55368e-01,1.75896e-02,9.72901e-02,-2.63251e-01,-2.94568e-01,7.54783e-02,-2.79978e-01,-2.93495e-01,-2.73123e-01,1.70200e-01,-2.66623e-01,1.45396e-01,2.09965e-01,
-8.81288e-02,2.06642e-01,3.87193e-01,3.13880e-01,-1.48171e-01,-3.76093e-01,3.01827e-01,-2.25429e-01,8.59148e-02,1.12908e-01,5.11622e-02,-2.23286e-01,-1.01022e-01,-1.36428e-01,-3.42418e-03,-1.05061e-01,-1.94917e-01,1.38913e-01,1.14394e-02,4.98406e-01,-7.35501e-01,2.64064e-01,3.09605e-01,-1.84741e-01,1.63323e-01,
-1.90929e-01,1.20724e-01,2.02221e-01,3.46113e-01,-2.63167e-01,4.64517e-02,-1.13606e-01,1.01754e-01,1.92307e-01,-3.09136e-01,-2.86111e-01,1.64369e-01,-2.59078e-03,2.73951e-01,-1.07561e-01,-3.24758e-01,2.15660e-01,-2.90691e-01,-3.99551e-01,3.30241e-01,1.45087e-01,-3.07601e-01,1.11800e-01,-6.61015e-02,-2.57307e-01,
-1.32964e-01,-2.04076e-01,-3.52484e-01,-2.87296e-01,7.75609e-02,3.90015e-02,2.92964e-02,-1.80730e-01,-1.98830e-01,3.45597e-01,-2.57418e-01,-3.60120e-01,-2.59891e-01,-1.48942e-01,2.06081e-01,2.25238e-01,1.27062e-01,1.39485e-01,2.29381e-02,3.42635e-02,-1.29510e-01,9.40870e-02,-3.77344e-01,2.44690e-01,-1.36072e-01,
1.47516e-01,-3.39423e-01,1.44501e-01,-7.55623e-02,-2.85017e-01,-2.49480e-01,-2.91471e-01,3.15673e-01,2.46853e-01,-2.81985e-01,7.43947e-02,-2.67954e-01,-1.71867e-01,2.27659e-01,-2.59639e-02,6.70070e-02,9.42628e-02,-1.39490e-01,5.23955e-04,1.32669e-01,1.67485e-01,-2.28795e-01,-1.84420e-01,8.25668e-02,1.37148e-01,
-2.46885e-01,8.27857e-03,1.48582e-01,1.04597e-02,2.07173e-01,-3.72849e-02,-3.10900e-01,9.03789e-02,1.07315e-01,-1.12012e-01,-1.25480e-01,-1.17276e-03,4.92451e-01,-2.48274e-01,1.84723e-01,5.99812e-02,5.70197e-02,-1.32288e-01,2.55182e-01,-3.44773e-01,3.60251e-01,2.06665e-01,-3.39613e-01,-1.48380e-01,-1.24596e-01,
2.38862e-01,2.25052e-01,2.15036e-01,4.28787e-01,-3.12671e-01,-2.14125e-01,-1.12796e-01,-6.93283e-02,1.24683e-01,-3.09835e-01,1.07719e-01,2.29491e-01,-1.38791e-01,-3.25985e-03,2.26299e-02,2.73621e-01,-3.18611e-01,1.47162e-01,4.28518e-02,-7.57963e-02,-1.73698e-01,-8.06774e-02,2.62932e-01,4.82948e-03,-2.05061e-01,
2.75044e-01,-2.27793e-01,3.27109e-01,-3.91778e-01,-2.59657e-01,-3.62126e-01,3.49597e-01,-1.56236e-01,5.31188e-02,-2.58859e-01,2.56695e-01,-2.26409e-01,2.17954e-01,-2.01132e-01,1.22083e-01,1.54703e-01,8.84831e-02,-1.99337e-01,-1.82217e-01,1.41685e-01,-2.53011e-01,-9.50414e-02,-2.01880e-01,-3.76313e-01,1.99090e-01,
8.07651e-02,7.10110e-02,2.98852e-01,1.97788e-01,-3.08525e-01,-4.83360e-02,-2.19779e-01,2.39531e-01,2.97755e-01,2.62812e-01,-5.82020e-02,1.16928e-01,1.59215e-01,-3.04588e-01,-2.89542e-01,-2.97855e-01,-3.31246e-01,1.36602e-01,-3.28867e-01,-3.43428e-01,-5.19902e-04,9.36629e-02,-1.38655e-01,3.13953e-01,-3.22524e-03,
3.22317e-01,-1.20415e-01,2.90576e-01,-2.49015e-01,-1.65098e-01,2.26698e-01,2.05371e-01,1.21949e-01,-2.18199e-01,-1.08075e-01,-3.48875e-01,-2.21830e-01,-3.49684e-01,3.21282e-01,-1.60679e-01,1.78532e-02,-1.61452e-01,1.10719e-01,9.34957e-03,-2.25878e-01,-1.88303e-01,2.61611e-01,-1.00477e-01,1.35433e-02,1.87857e-02,
1.71198e-01,-1.12790e-01,-3.01734e-01,6.67383e-01,-1.46906e-01,-1.11622e-01,1.56004e-01,-1.38393e-01,-1.23658e-01,9.92844e-02,-2.91328e-01,-3.32690e-01,2.74629e-01,3.05573e-01,1.95284e-01,4.31372e-01,-2.17954e-01,8.71704e-02,-3.17162e-01,2.34595e-01,-1.07466e-01,-1.79714e-01,2.96774e-01,-3.12266e-01,1.92269e-01,
-2.32730e-01,-5.00585e-03,1.39101e-01,-1.07840e-01,-2.16458e-02,-1.89249e-01,2.91363e-01,1.63320e-01,3.15612e-01,-1.97488e-01,2.96741e-01,-6.02994e-02,9.56511e-02,2.40402e-01,2.71236e-01,-1.59951e-01,-1.32751e-01,1.44973e-01,7.38475e-03,1.28332e-01,-4.64017e-02,3.78568e-01,-1.86939e-01,-3.34148e-02,-2.01608e-01,
1.80819e-01,-1.55935e-01,-1.52709e-01,2.50468e-02,6.49482e-02,-6.25303e-02,2.49832e-01,-2.89079e-01,2.15759e-01,7.97209e-02,3.46238e-01,-1.96692e-01,2.51143e-01,-2.18665e-01,5.25644e-02,1.56442e-01,-1.75720e-01,7.92837e-02,1.32363e-01,4.14581e-02,-3.83587e-01,-2.35072e-01,9.37388e-02,1.08315e-01,-2.69560e-01,
3.42006e-01,
1.51666e-01,
-1.09755e-01,
-6.46245e-03,
-3.38319e-01,
-3.96060e-01,
-7.81044e-02,
-2.07102e-01,
-2.28085e-02,
-1.94022e-01,
-2.90269e-01,
-1.69320e-01,
-2.71124e-01,
1.25977e-01,
1.57000e-02,
1.95170e-01,
-2.31861e-01,
-3.16358e-01,
3.44085e-01,
-9.66988e-02,
-3.42167e-02,
8.84041e-02,
2.62014e-01,
2.69400e-01,
2.86016e-01,
-3.03078e-01,3.43349e-01,1.43086e-01,-7.25670e-02,3.28146e-02,-1.53348e-01,-5.55488e-03,1.85031e-01,-1.81363e-01,1.37345e-01,1.44599e-01,-1.64305e-01,1.03648e-01,1.93476e-01,-7.69398e-02,-2.74996e-01,2.10835e-01,-1.42183e-01,-2.87906e-01,-3.36088e-01,3.35384e-01,-1.23202e-01,-1.08102e-01,-1.83899e-01,-6.59091e-02,
-6.93572e-02,4.21935e-01,1.26005e-01,-6.21588e-01,-1.22569e-01,3.21537e-01,-1.33843e-01,-2.76779e-01,-6.97993e-01,2.39973e-01,2.48271e-01,6.83304e-01,-1.87450e-01,3.73983e-01,1.09396e-01,-1.88654e-01,-1.17461e-02,1.18599e-01,4.64158e-02,1.24564e-01,3.15797e-01,-4.10582e-01,-1.75153e-01,-2.38745e-01,5.39988e-02,
-2.86110e-01,-7.47118e-02,-2.46444e-01,-1.19679e-01,3.02399e-01,-3.26111e-01,6.61188e-01,3.64696e-01,-4.26626e-01,2.18659e-01,-2.50165e-01,4.82551e-01,1.81952e-01,4.22363e-02,2.17247e-01,2.47256e-01,1.28172e-01,1.99646e-01,-1.63740e-01,-4.90603e-01,-1.36326e-02,3.49384e-01,-1.79520e-01,1.44207e-01,1.51949e-01,
3.21694e-01,3.31724e-01,-5.91032e-02,2.12142e-01,3.27043e-01,-3.30191e-01,-5.04879e-01,5.90557e-03,8.09713e-01,-1.28960e-01,5.18621e-01,1.28848e-01,2.47329e-01,1.01286e-01,2.75204e-01,-2.24004e-01,5.86892e-02,-2.91871e-01,3.14579e-01,5.63098e-01,-1.59414e-01,-1.75552e-01,9.23129e-03,7.40949e-02,-2.24041e-01,
3.12864e-01,-2.31775e-01,2.30726e-02,-5.72824e-03,-5.80697e-02,-2.57557e-02,-4.85146e-01,2.79894e-01,5.97237e-01,-2.05268e-01,-9.22486e-02,3.12096e-02,3.05249e-01,-1.90842e-01,-2.11960e-01,-1.11480e-01,1.89924e-01,2.01254e-01,2.22516e-01,4.28135e-01,2.67025e-01,7.45067e-02,4.46987e-01,2.72940e-02,1.34381e-01,
-1.68581e-01,-4.68925e-02,3.68735e-02,7.12565e-02,2.32848e-01,-3.05992e-01,1.59597e-01,-1.65598e-02,2.31917e-01,2.64836e-01,-2.91284e-01,-3.18098e-01,-3.39678e-01,1.89016e-01,-1.80048e-01,-2.40936e-01,-1.55775e-01,-9.78340e-02,-1.67081e-01,-2.90453e-01,-2.88248e-01,-3.23991e-01,2.33099e-01,-1.53555e-01,-2.70323e-01,
-1.07492e-01,-3.00185e-02,-3.03941e-01,7.75348e-02,2.70143e-02,-9.62904e-02,3.25075e-01,-5.86226e-02,-2.83721e-01,-2.27199e-01,-1.00892e-01,-5.55208e-03,-3.42856e-01,-2.49859e-01,-2.18093e-01,1.89202e-01,-5.92771e-02,3.00809e-01,-1.80937e-01,-5.30811e-02,1.40612e-01,-1.20049e-01,-5.54877e-02,-1.55281e-01,2.06408e-02,
-1.47121e-01,2.65167e-01,2.26160e-01,-2.46211e-01,-2.88339e-02,-1.89502e-01,-3.03724e-01,-2.66272e-01,-5.58794e-02,-8.26274e-02,-3.04734e-01,3.18815e-02,1.61613e-01,-1.86682e-01,-1.68740e-01,-1.40881e-01,1.77371e-01,-1.34233e-01,-2.89488e-02,9.79139e-02,-1.97825e-01,1.62159e-01,-1.35892e-01,-9.66636e-02,8.22741e-02,
-2.23753e-01,1.15564e-01,-3.01702e-01,-2.69094e-01,-2.26289e-04,-2.87474e-01,1.89211e-01,6.18713e-02,5.56519e-02,-3.07384e-01,5.89913e-03,-1.21463e-01,-1.21481e-01,2.21613e-02,3.39696e-01,5.28267e-03,1.30572e-01,3.13725e-01,-8.47804e-02,7.22699e-02,1.13491e-01,-1.68238e-01,1.10799e-01,-2.88597e-01,3.29387e-01,
3.70457e-01,-2.46382e-01,-5.84541e-02,1.38133e-01,-2.74278e-01,-2.66337e-01,-1.44140e-01,-2.46426e-01,-5.24297e-02,-1.34726e-02,6.87625e-02,1.77062e-01,-4.03742e-02,-2.49151e-01,-6.69532e-03,-2.09831e-01,2.19231e-01,-2.52438e-01,-3.95363e-02,-2.03215e-01,2.02289e-01,-3.27904e-01,1.64938e-01,5.33404e-02,6.96384e-02,
3.35127e-01,-6.85397e-02,2.27299e-01,1.42037e-01,1.43560e-01,-1.60813e-01,-7.18211e-01,3.69554e-01,-1.91282e+00,5.81763e-02,4.88373e-02,-4.06450e-01,-2.02696e-01,-1.88619e-01,-2.54871e-01,-6.01099e-02,-1.19789e-02,-4.33415e-02,1.87715e-02,2.93913e-01,1.58175e-01,3.78700e-02,-2.19497e-01,-3.39512e-01,2.43612e-01,
-1.94240e-01,-2.29445e-01,-2.63512e-01,-1.57709e-01,9.22854e-02,-3.24941e-01,1.30855e-01,-3.28976e-01,2.52976e-01,3.25407e-01,3.34291e-01,3.78733e-02,-9.62740e-02,-9.60976e-02,2.84904e-01,-2.50026e-01,1.49239e-01,-5.01793e-02,7.81232e-03,-2.83877e-01,-3.31467e-01,-3.29149e-01,1.44940e-01,8.42963e-02,-1.29011e-01,
-8.20718e-03,-9.12415e-02,-3.52975e-01,-3.23178e-01,4.61266e-02,2.78884e-01,3.24418e-01,1.65705e-01,1.00928e-01,-2.39244e-01,-9.69355e-02,-1.33786e-01,-2.18609e-02,1.24559e-01,-1.21419e-01,-1.98468e-01,-1.87584e-01,1.33090e-01,-3.08448e-01,4.01126e-02,2.18430e-01,-1.44174e-01,-4.98383e-02,-4.33820e-01,2.47927e-01,
-7.96023e-02,2.41171e-01,-1.29648e-01,9.13041e-03,-3.09643e-01,-2.29476e-01,1.43001e-01,2.24606e-01,-2.24522e-01,4.16402e-02,-4.81565e-02,-1.99582e-01,-3.99974e-02,1.17490e-01,-2.61747e-01,1.84493e-01,2.88960e-01,-1.25284e-02,-2.05491e-01,1.49219e-01,-1.48576e-01,8.71042e-02,-2.26823e-01,1.49191e-01,2.37397e-01,
2.19148e-01,-1.97435e-02,1.66920e-01,-2.66775e-02,-3.23110e-01,-2.31574e-01,-1.32249e-01,2.40297e-01,-7.34098e-02,-1.28721e-01,1.99332e-02,-3.43193e-01,3.40044e-01,5.69993e-02,2.62529e-01,-9.64056e-02,-1.10853e-01,-2.90674e-01,-2.64610e-01,1.59456e-01,1.73886e-01,2.38536e-01,-5.55987e-03,-1.76598e-01,6.00136e-02,
1.26181e-01,3.24357e-01,2.08731e-01,1.22617e-01,-3.14447e-01,2.65321e-01,-1.76148e-01,-1.45666e-01,1.08530e+00,1.04053e-02,2.66214e-01,5.04091e-01,-1.59714e-01,-8.62477e-03,-7.22006e-02,1.36295e-01,2.32342e-01,-5.64503e-02,3.11498e-01,2.44423e-01,2.28537e-01,-1.14853e-01,-9.50535e-02,1.43101e-01,-1.58430e-02,
-3.37742e-01,-2.92954e-01,1.61400e-01,1.40813e-01,-1.10025e-02,-2.26210e-01,-2.39751e-01,6.19051e-02,1.04841e-01,3.06639e-01,2.29290e-01,-3.26710e-01,-6.19653e-02,-2.91662e-01,3.17709e-01,2.22715e-01,1.14648e-01,-1.27879e-01,-1.99558e-02,-2.10946e-01,-2.71482e-01,-1.96903e-01,-3.23535e-01,3.77002e-03,-3.24646e-01,
3.36325e-02,-2.84699e-01,2.93385e-01,-2.25554e-01,1.79438e-01,2.44899e-01,1.11947e-01,-2.19816e-01,-2.33706e-01,2.44841e-01,-2.55033e-01,-3.92294e-01,-9.19007e-02,-2.18451e-01,1.23753e-01,3.22566e-01,2.61269e-01,-1.84361e-01,2.33950e-01,-1.46116e-01,-1.47592e-01,1.25731e-02,6.58489e-02,5.39943e-02,-1.50346e-01,
-1.19152e-02,3.28654e-03,1.41112e-01,2.16391e-01,1.33971e-01,-2.60545e-01,1.65496e-01,-1.41816e-01,-2.05832e-01,-2.38435e-02,-2.29577e-01,-2.74845e-01,7.70825e-03,-1.85920e-01,-2.26083e-03,1.94157e-01,-1.73698e-01,2.01139e-01,1.25617e-01,-1.77377e-01,-2.32835e-01,-2.56589e-01,-1.72419e-01,1.30988e-02,1.13844e-02,
-3.47596e-01,-3.26271e-01,3.25076e-01,8.49800e-03,6.80920e-02,-1.47385e-01,-3.11774e-01,-2.60972e-01,1.20970e-01,-2.98191e-01,-1.69449e-01,-4.82784e-02,-3.26318e-01,3.28069e-01,-3.36784e-01,1.11638e-01,3.35204e-01,-3.32537e-01,-1.40033e-01,-3.52248e-02,6.12871e-02,-3.43982e-01,-1.17002e-01,2.05589e-01,-3.28929e-01,
-3.10712e-01,8.80285e-01,5.44996e-01,-1.75489e-01,-1.92260e-01,3.12048e-01,-4.92913e-03,-1.21014e-01,7.44287e-01,-2.22783e-01,2.48433e-01,-3.94593e-01,3.42342e-01,1.40940e-01,1.52899e-01,-1.52849e-01,3.30056e-01,4.15266e-02,-2.05097e-01,6.82663e-01,-1.03298e-01,2.84627e-01,-3.45790e-01,3.10002e-01,1.53548e-01,
8.76325e-02,1.64518e-01,1.42645e-02,-2.23312e-01,2.05677e-01,-3.61078e-02,-3.97905e-01,2.20381e-01,4.48907e-01,2.19088e-02,1.86564e-01,-6.65991e-02,1.57552e-01,2.39811e-01,-1.35034e-01,5.62703e-02,2.97583e-01,1.45576e-01,3.45101e-01,3.53694e-01,2.43506e-01,5.26345e-02,-1.59494e-01,1.15095e-01,3.07107e-01,
-1.73406e-01,-7.16312e-02,-1.20274e-01,2.30528e-01,3.38256e-01,-2.54299e-01,-3.44851e-02,-3.30531e-01,1.07514e-01,-2.46462e-01,2.26962e-01,1.35227e-01,-2.29851e-01,2.98782e-01,3.10321e-01,2.55046e-01,3.69446e-02,-2.73821e-01,1.56821e-01,-1.00835e-01,-1.47524e-01,2.99334e-01,2.00219e-01,-2.25007e-01,-3.63388e-01,
2.13000e-01,-9.53607e-02,2.29179e-01,-3.27063e-01,6.71357e-02,-1.06926e-01,3.24866e-02,-3.42296e-01,3.26624e-01,2.43873e-01,-2.59940e-03,-2.09494e-01,3.26104e-01,-4.31676e-03,1.06421e-01,1.17834e-01,-2.40143e-01,1.42201e-01,-3.81034e-01,-2.55918e-01,-1.46766e-01,-2.02958e-01,3.16425e-01,-1.60290e-01,-2.28659e-01,
-1.33279e-01,4.74659e-02,-2.09279e-01,2.62507e-01,-3.21880e-01,-2.33096e-01,2.07818e-01,-7.77573e-02,-4.20246e-02,-6.85442e-02,1.66456e-02,6.59123e-02,2.78920e-01,1.69437e-01,-1.99607e-01,-4.96792e-02,1.47490e-01,-5.12646e-02,3.69275e-01,-2.69557e-01,-2.53025e-01,-9.24369e-02,-7.25286e-02,2.95982e-01,-9.99857e-02,
5.88452e-02,
-1.49738e-02,
1.56942e-01,
-3.16891e-01,
6.86987e-02,
1.97424e-01,
1.71854e-02,
-2.72731e-01,
-1.70335e-01,
2.06108e-01,
-1.41506e-01,
-2.94200e-01,
2.19290e-01,
2.73081e-01,
-2.53577e-01,
2.27078e-01,
8.57943e-02,
3.31976e-01,
-2.53869e-01,
6.29942e-02,
-7.55334e-02,
-1.91812e-01,
-3.80948e-02,
-2.90964e-01,
1.38698e-01,
3.40612e-01,-1.32909e-01,-1.12350e-01,-2.28605e-03,-2.84038e-01,4.36240e-02,3.45552e-01,3.00862e-01,-3.02385e-01,-3.93358e-02,-1.35608e-01,-2.84510e-01,-1.49016e-01,3.18178e-01,-1.30607e-01,-6.72231e-02,-3.44520e-01,2.65100e-01,2.55499e-01,-2.92718e-02,-3.94079e-02,2.48008e-01,2.91315e-01,-2.53647e-01,-2.04269e-01,
1.43274e-01,2.14860e-01,1.25405e-01,-1.43170e-01,3.18054e-01,-2.94747e-01,1.36857e-01,2.55364e-02,-2.75576e-01,2.99575e-01,-1.39586e-01,9.29621e-02,1.27412e-01,-3.63378e-01,4.78595e-02,-1.25767e-01,2.31440e-01,-1.96380e-01,3.27031e-01,-1.78417e-01,-2.01868e-01,-3.84087e-01,-2.03747e-01,-2.10766e-01,2.71596e-01,
2.96347e-01,2.55055e-01,-2.07279e-01,2.45955e-01,4.89126e-02,-2.51465e-01,2.59226e-01,2.70165e-01,1.46178e-01,-3.45481e-01,1.47596e-01,1.26682e-01,-1.20759e-01,-6.91018e-02,1.87612e-01,1.22364e-01,-1.25224e-01,-2.52495e-01,1.93712e-02,1.21450e-01,-1.31525e-01,-1.27264e-01,9.36297e-02,8.17919e-02,-3.32553e-01,
1.19203e-01,9.03104e-02,8.31449e-02,-1.66578e-01,2.87575e-01,-2.26565e-01,-1.50364e-02,-2.08975e-01,-2.81994e-01,2.21335e-01,1.86229e-01,2.56515e-01,-3.37682e-01,1.31038e-01,-2.79494e-01,-2.18377e-01,3.69753e-02,2.08111e-01,-1.71311e-01,-2.89328e-01,2.73805e-01,1.09775e-01,-8.47648e-02,-6.27881e-02,-4.78797e-02,
-5.02140e-02,1.09082e-01,1.17514e-01,-1.66860e-01,1.79016e-01,-6.28705e-02,1.06838e-01,1.81025e-01,-2.37379e-01,2.28608e-01,-1.97358e-01,1.55243e-01,-2.15195e-02,1.96692e-01,7.56559e-02,1.94415e-01,1.08242e-02,1.62028e-02,-3.43139e-01,-1.09789e-01,4.01499e-02,1.14202e-02,6.10835e-03,-3.13854e-01,3.69964e-01,
-2.84388e-01,-4.20342e-01,1.57643e-01,-3.40128e-02,-3.26701e-01,-1.34109e-02,-8.71501e-02,-2.50609e-01,6.73696e-02,3.09326e-01,2.63827e-01,2.78177e-01,2.24182e-01,2.68852e-01,-9.04564e-03,1.55775e-01,-5.25509e-02,-3.01482e-01,1.87675e-02,3.17788e-01,4.32409e-02,2.61469e-01,-9.16240e-02,-3.37372e-01,9.51086e-03,
-1.16352e-01,-2.99331e-01,-5.35396e-02,6.58982e-02,-2.13213e-01,-1.00578e-01,-2.43184e-01,-1.44292e-01,-5.04099e-02,-5.20786e-02,2.23001e-01,2.05977e-01,-2.53462e-01,4.99840e-02,-6.38011e-02,-2.04891e-01,3.29260e-01,5.56657e-02,3.02570e-01,-7.68081e-02,-1.86361e-01,5.22246e-02,-2.91714e-01,3.40657e-01,-1.15335e-01,
-2.66185e-01,-1.01420e-02,-3.09411e-02,3.44556e-01,9.73109e-02,-8.18015e-02,3.36055e-01,4.03633e-02,7.44041e-02,-3.75310e-02,-1.69406e-01,2.83837e-01,7.51186e-02,-5.49271e-02,1.51143e-01,-1.01956e-01,-9.45185e-02,1.38343e-01,-1.37879e-01,2.21024e-01,-1.76090e-02,-3.98240e-01,-1.63304e-02,-1.64589e-01,8.67651e-02,
-2.82996e-01,-1.41267e-01,-2.46260e-01,1.84746e-01,-3.14200e-01,-2.69562e-01,3.45274e-01,9.51111e-02,3.30564e-01,-2.61687e-01,-8.56506e-02,-2.75346e-01,2.29113e-01,-5.71142e-02,1.24800e-01,-1.11942e-02,-1.62686e-01,8.44264e-02,2.50937e-01,-2.55798e-01,1.81660e-01,-3.14562e-01,2.13443e-01,3.73731e-02,-3.11218e-01,
2.05795e-01,2.99674e-01,-8.06453e-02,-4.03899e-01,3.91686e-01,-1.09034e-01,-1.47988e-01,-5.01000e-02,1.76853e-01,-1.95606e-01,4.38781e-01,-6.78741e-02,-2.65218e-01,-6.11634e-02,8.82238e-02,3.61331e-01,2.69209e-01,-5.60215e-02,-3.58550e-02,1.41327e-01,-2.23046e-01,1.46533e-01,-3.07879e-01,2.90812e-01,-2.44917e-01,
1.75258e-01,1.19389e-01,-8.95549e-02,-1.85660e-01,2.80070e-02,3.29151e-02,1.14534e-01,1.86246e-01,2.32584e-01,1.28527e-01,5.82571e-01,-4.10157e-02,-1.35073e-01,3.00859e-01,1.55554e-01,5.44854e-03,3.34968e-01,3.60552e-01,-2.19248e-02,3.01694e-01,-5.22129e-03,3.74766e-01,2.58533e-01,1.96948e-01,-1.89043e-01,
2.96202e-01,1.99647e-02,1.95236e-01,9.03047e-02,2.91757e-01,-6.09659e-02,-3.02541e-02,2.44232e-01,4.31659e-02,3.50618e-01,1.31509e-01,4.25729e-02,-3.83710e-02,6.04155e-02,-2.77939e-01,-2.08517e-01,8.29539e-02,2.97409e-01,2.45975e-01,2.98662e-01,3.67266e-01,7.78694e-02,1.25647e-01,-4.30870e-02,1.51671e-01,
-1.51712e-01,2.81618e-01,-1.35743e-01,1.41256e-01,-1.31777e-01,2.45208e-01,1.58477e-01,-3.22803e-01,-2.18094e-01,-4.97880e-02,-1.78750e-01,7.59574e-02,4.90673e-02,8.92643e-02,-3.28123e-01,-2.28309e-01,6.26515e-02,-1.29441e-01,-8.39334e-02,-3.28686e-01,-1.72714e-01,1.38518e-01,-1.83062e-01,9.04384e-02,-3.74267e-01,
-5.44653e-02,-2.82268e-02,1.60353e-02,-2.49590e-02,2.77602e-01,-2.58829e-01,-2.00897e-01,6.34907e-02,-4.60961e-02,3.03607e-01,3.52684e-01,-1.98234e-01,7.31570e-02,-1.64945e-01,1.01492e-01,3.85556e-02,-6.77786e-02,1.61425e-02,3.37048e-01,-1.94643e-01,-7.96428e-03,-1.19668e-01,5.14571e-02,2.01681e-02,5.37097e-02,
6.60895e-02,3.82533e-02,2.71350e-01,1.03597e-02,4.90821e-02,2.57866e-01,-2.93113e-01,1.59680e-01,-3.45196e-01,2.79127e-01,-2.04273e-01,1.65952e-01,-8.82688e-02,-1.43946e-02,-1.53742e-01,-1.02378e-01,1.51542e-02,1.48346e-01,-3.11853e-01,2.39575e-01,1.44908e-03,2.49310e-01,-3.12388e-01,-4.68449e-02,-1.75750e-01,
2.72994e-01,8.56324e-02,2.46089e-01,2.54328e-01,-2.34169e-01,2.21407e-02,1.92690e-01,2.91474e-01,1.82433e-01,-1.09716e-01,1.45350e-01,-6.07291e-02,1.92856e-01,1.13620e-01,1.30638e-01,-7.35178e-02,-1.17801e-01,-2.47373e-01,3.11403e-01,-9.99512e-02,-1.73644e-01,-2.25219e-01,1.59748e-01,-1.49475e-01,6.00769e-02,
3.36497e-01,1.43232e-01,1.89840e-01,7.98610e-02,2.16337e-01,-5.01659e-03,4.35790e-02,-9.98022e-02,3.50472e-02,1.13170e-01,-2.52760e-02,-6.17286e-02,-8.09184e-02,2.81633e-02,-2.03291e-01,-4.57071e-03,-3.21510e-01,2.86195e-01,-1.77881e-01,3.27456e-01,-1.81909e-01,-1.62596e-01,1.18451e-01,3.01197e-01,-8.58002e-02,
7.66003e-03,-2.96103e-01,-3.45507e-01,-1.70251e-01,-1.39641e-01,4.65494e-02,2.53014e-01,1.62558e-01,2.43804e-01,-1.77398e-02,-3.71821e-01,3.09353e-01,-6.09195e-02,2.71415e-01,2.28051e-01,-2.17361e-01,-2.13914e-01,1.94805e-01,-3.60041e-02,-3.07519e-01,-3.38418e-01,-3.89384e-01,-7.52260e-02,-1.05693e-01,1.39109e-01,
2.71026e-01,-3.23861e-01,-5.34708e-02,7.31572e-02,-5.35235e-03,1.83118e-01,-6.85196e-02,-1.26456e-01,8.45073e-02,-2.63407e-01,-3.01505e-01,-2.39811e-01,2.66537e-01,6.05265e-02,-1.46733e-01,-9.97498e-02,6.76355e-02,1.63012e-01,-3.18815e-01,-2.45782e-01,-2.62828e-01,-2.70944e-01,-3.52514e-02,-2.05833e-01,-2.17019e-01,
2.05085e-01,-1.63041e-02,-3.07861e-01,3.29741e-02,-8.32027e-03,-2.13141e-02,-3.00553e-01,-1.42096e-01,1.29140e-01,-1.91325e-01,-2.20307e-01,2.85038e-01,-2.15572e-01,3.37743e-01,7.95269e-02,-2.98088e-01,-1.01967e-01,5.07140e-02,2.83745e-01,1.41461e-01,2.48143e-01,-3.09658e-01,1.89843e-01,2.97789e-01,2.85472e-01,
6.13661e-02,1.16075e-03,-7.15664e-02,1.15394e-01,-7.19602e-02,-2.77093e-01,-1.93421e-01,2.36235e-01,-1.24638e-01,3.04054e-01,3.96959e-02,4.69067e-02,1.60000e-02,3.03266e-01,6.57749e-02,-1.99162e-02,1.65281e-01,2.58842e-01,-1.68197e-01,2.59041e-02,8.43100e-02,7.08188e-02,-1.84020e-01,-1.31663e-01,1.67825e-01,
-2.75861e-01,2.38684e-01,-2.84352e-01,2.00369e-01,2.84966e-01,1.21352e-01,-3.08642e-02,7.81432e-02,2.95145e-01,2.08373e-01,1.57532e-01,8.64692e-02,1.20360e-01,-7.78730e-02,1.17928e-01,-1.19494e-01,-1.73072e-01,6.94383e-02,-2.65482e-01,2.56982e-02,-6.65228e-02,-1.44936e-01,-2.89969e-01,-6.38206e-02,2.72212e-02,
-2.06089e-01,2.23923e-01,-3.19021e-02,1.65817e-01,-3.33225e-01,1.39217e-01,-9.83195e-02,-3.13286e-01,5.32038e-02,5.69953e-02,-2.48173e-02,-7.57480e-02,2.54239e-01,-7.89277e-02,1.57521e-01,1.01456e-01,2.61254e-02,-2.84011e-01,-2.14717e-01,-2.69243e-01,-7.20197e-02,-4.06568e-01,1.94047e-02,-3.24397e-01,1.49831e-01,
-2.22780e-02,1.42929e-01,2.99085e-01,2.71792e-01,-4.04258e-02,-7.22362e-02,-4.61012e-02,2.77362e-01,2.59605e-01,7.26597e-02,2.77133e-02,-2.70869e-01,-1.14233e-01,1.55845e-01,-1.27406e-01,-2.54720e-01,-1.95893e-02,2.08229e-01,-1.43127e-02,6.96526e-02,6.70891e-02,-3.06783e-01,-3.23057e-01,2.92985e-02,6.36319e-02,
-3.41055e-02,-2.47858e-01,-1.10138e-01,-1.52534e-01,-2.10489e-01,-1.99348e-03,-8.14771e-02,3.30592e-01,1.41198e-01,2.75363e-01,-8.90145e-02,9.20466e-03,-2.56039e-01,2.56223e-01,2.47409e-01,-1.37388e-01,-2.93299e-01,-2.75134e-01,6.07474e-02,2.40743e-01,-2.86585e-01,2.59592e-01,-7.46685e-02,1.81069e-02,-6.88261e-02,
-1.06878e-01,
-2.14836e-01,
-9.14025e-02,
-3.68858e-01,
-1.21230e-01,
1.52408e-01,
1.43967e-02,
1.18590e-01,
-2.87305e-02,
-1.82116e-01,
1.26787e-01,
1.14583e-01,
2.55402e-01,
-9.38019e-02,
6.94943e-02,
-2.19457e-01,
-9.82557e-02,
6.77679e-02,
1.87091e-01,
-1.34473e-01,
3.08472e-01,
-3.88083e-01,
-1.47384e-01,
-1.70563e-01,
-2.81824e-01,
-3.91538e-01,-5.80985e-02,4.24384e-01,-3.78105e-01,-7.23699e-02,-3.26654e-01,-5.02643e-02,-1.25975e-01,1.81019e-01,7.66645e-02,2.10255e-01,-6.53316e-02,3.27930e-01,1.45738e-01,-3.13824e-01,-2.32389e-01,-2.57731e-01,-1.38485e-02,3.38118e-02,3.26565e-01,-2.86779e-01,-4.40145e-01,3.76950e-01,-2.35946e-01,-2.71595e-01,
-4.37082e-01,1.53551e-01,-2.20046e-01,-4.01440e-01,-4.94889e-01,9.38519e-02,-1.46586e-01,-2.76501e-02,-4.47039e-01,7.47388e-03,-2.58030e-01,-3.60779e-01,-3.65671e-02,-1.39529e-01,-1.73008e-01,-2.41479e-01,1.22760e-01,7.49936e-02,2.47580e-01,-3.77384e-01,-1.72615e-01,3.70964e-01,3.90576e-01,2.45892e-01,3.90980e-01,
-2.59471e-01,3.46877e-01,1.38403e-02,-2.35001e-01,-3.08815e-01,1.43383e-02,2.72478e-02,-2.86166e-01,-2.33780e-02,1.15461e-01,-2.80603e-01,-2.33500e-01,3.61209e-02,2.10040e-02,1.92521e-02,-3.27774e-01,5.53558e-02,9.25198e-03,-1.98470e-01,-8.20213e-02,3.75474e-01,-1.98091e-01,2.60567e-01,3.52889e-01,4.28940e-01,
4.29098e-01,4.07603e-01,-1.63670e-02,-4.06248e-01,-4.44210e-01,-3.01348e-01,1.57515e-01,-6.04467e-02,3.45624e-01,-1.14549e-01,-3.17487e-01,2.76421e-01,1.79381e-01,1.31059e-01,1.82203e-01,-1.52157e-01,-2.52778e-01,-1.63397e-01,2.22850e-01,-1.17669e-01,-3.45110e-01,7.67758e-02,-9.56292e-02,-1.84594e-01,-2.33590e-01,
-3.76903e-01,2.46155e-01,-2.04003e-01,-1.04256e-01,4.30147e-01,1.60148e-01,-3.89167e-01,4.68218e-01,-1.36904e-01,7.04577e-03,3.74241e-01,-1.30842e-01,1.42971e-01,-4.65463e-04,4.21853e-01,-4.47087e-02,-2.61602e-01,5.16736e-01,-1.98866e-02,-1.09890e-01,5.01276e-02,3.36421e-01,-1.79347e-01,2.27281e-01,2.31281e-01,
3.42291e-01,
6.15140e-01,
1.06160e-01,
4.76219e-01,
-4.27480e-01,
