// Neural Network File Format by Kyle Julian, Stanford 2016
6,5,5,10,
5,10,10,10,10,10,5,
0,
-56000.000000,-56000.000000,-3.141593,200.000000,200.000000
56000.000000,56000.000000,3.141593,200.000000,200.000000
-278.628049,0.000000,0.000000,200.000000,200.000000,-0.242819
112000.000000,112000.000000,6.283185,1.000000,1.000000,17.479225
1.33524e-01,2.67008e-01,1.52542e-01,5.95620e-01,-2.44698e-01,
2.18377e-01,-2.59887e-01,2.27496e-01,3.69524e-01,6.18369e-01,
-2.04388e-01,-3.15717e-01,4.13765e-01,-7.46818e-02,4.80235e-02,
-1.23828e-01,8.47279e-02,-2.15563e-01,-3.63911e-01,-5.21306e-01,
-2.68074e-01,2.21576e-01,2.35528e-03,1.79659e-01,-3.48016e-01,
3.69492e-01,1.45727e-01,-1.31384e-01,-2.72228e-01,-3.93263e-01,
-3.53011e-01,-8.86153e-02,-1.92177e-01,5.70455e-01,3.87335e-01,
-8.06950e-02,-6.87196e-02,1.11724e-01,3.05067e-01,8.16115e-02,
-7.38501e-02,1.15503e-01,2.20623e-01,-3.69571e-01,4.31202e-01,
-2.79014e-01,3.84378e-01,-2.67530e-01,4.28367e-01,-6.10262e-01,
3.48055e-01,
-3.96782e-01,
-4.06457e-01,
-1.73729e-02,
-1.03627e-03,
-3.34506e-01,
-4.84791e-01,
1.97550e-01,
4.96192e-01,
4.64331e-01,
4.00644e-01,-2.28585e-03,-1.50252e-01,3.27096e-01,-2.15695e-01,-4.04499e-01,-9.31208e-02,-5.81990e-01,1.47289e-01,-1.12678e-01,
-3.23035e-02,3.48198e-01,-2.93463e-01,1.03205e-01,-1.94685e-02,-1.61434e-01,-5.90969e-02,1.13066e-01,4.04203e-01,7.47364e-03,
-2.72077e-01,-2.93922e-01,-5.02189e-01,-1.72279e-01,2.33459e-01,-1.09512e-01,2.50038e-01,-1.05149e-01,-3.94609e-01,1.80834e-01,
-3.28189e-01,4.51809e-01,-4.87098e-01,-4.18684e-01,-3.27835e-01,-5.28773e-01,7.83507e-02,1.18550e-01,-9.16513e-02,2.77342e-01,
-1.81749e-02,4.54213e-01,-1.15376e-01,2.49322e-01,2.08504e-01,4.57618e-01,4.38733e-01,2.91184e-01,1.12704e-01,3.52294e-01,
-1.35575e-01,1.56325e-01,3.60028e-01,2.93340e-01,-2.24509e-01,5.08008e-01,3.58952e-01,-3.59690e-01,4.12334e-01,2.08290e-01,
-1.89312e-01,-3.67951e-01,-1.15295e-02,-1.09988e+00,8.46134e-01,3.38664e-01,1.38959e-01,-3.06542e-01,-1.62000e-01,-4.61508e-01,
-1.23667e-01,-2.16142e-01,-4.27789e-01,-2.46653e-01,1.31104e-01,-4.24251e-01,3.46296e-01,-3.52765e-01,-2.21693e-01,-3.76207e-01,
4.94367e-01,-4.46413e-01,1.76589e-01,1.18229e-01,-3.43360e-01,-5.98832e-02,5.00204e-01,8.42528e-02,-1.15641e-01,-3.22756e-01,
1.79601e-01,-4.42724e-01,-5.30087e-01,-7.85281e-02,2.39321e-01,-2.62656e-01,1.62300e-01,4.42396e-01,-4.53836e-01,-4.51801e-01,
-3.59019e-01,
5.32393e-01,
2.94598e-01,
-3.26025e-01,
1.96053e-01,
3.79294e-01,
4.32726e-01,
1.91990e-01,
1.15836e-01,
-3.34448e-01,
6.71005e-02,3.88425e-01,1.96933e-01,-3.98059e-01,-2.93210e-01,1.42288e-01,4.19449e-02,3.73849e-01,-2.85365e-01,-3.34787e-01,
3.29390e-02,5.31708e-01,3.83896e-01,-6.19858e-01,3.64967e-01,6.10315e-01,-5.78823e-03,-9.70561e-04,7.37591e-02,-7.06390e-01,
-1.72311e-02,1.60294e-01,-4.34914e-01,3.89002e-01,4.87337e-01,-7.63395e-02,-5.54432e-01,-4.49858e-01,5.24183e-01,4.59402e-01,
1.82038e-01,2.63664e-01,1.43730e-01,9.12686e-03,-2.86944e-01,-3.24989e-01,-4.01621e-01,-3.30205e-02,8.02209e-03,-2.09896e-01,
-1.72211e-01,-4.86696e-01,1.41480e-01,-3.28706e-01,-1.80296e-02,6.64852e-01,3.49262e-01,-5.56312e-02,-4.64048e-01,-2.41998e-01,
-9.20111e-02,-1.06314e-01,-1.69215e-01,3.46940e-01,4.92920e-01,6.04337e-01,-2.72414e-01,-5.20086e-01,-1.61799e-01,-1.58455e-01,
-2.66360e-01,4.12973e-01,-7.86737e-02,4.06925e-01,-3.45206e-03,-1.03060e-01,-1.94910e-01,-4.43598e-01,1.77857e-01,5.05967e-01,
-3.21943e-01,2.62760e-01,3.01387e-01,-3.64810e-01,-3.78592e-01,-2.62046e-01,2.15167e-01,6.07025e-02,-3.37678e-01,1.41321e-01,
-1.43883e-01,-4.25369e-01,-1.25414e-01,-1.57691e-01,-1.13953e-01,3.86394e-01,-1.53683e-01,-3.50889e-01,-1.24327e-01,4.09830e-01,
-3.78040e-01,3.58084e-01,-7.79698e-02,-4.90365e-01,4.74344e-01,-6.01084e-01,-2.17071e-01,5.22129e-02,-1.00094e-01,1.30066e-01,
-1.61341e-01,
3.30103e-01,
-4.08543e-01,
-5.15601e-01,
1.81136e-01,
1.80275e-01,
-2.14580e-01,
1.72124e-01,
-1.70224e-01,
-4.93371e-01,
-1.87036e-01,3.15673e-01,-5.23434e-01,-4.70753e-01,-5.32781e-01,4.60234e-01,-3.54361e-01,6.48032e-02,2.89859e-01,-3.98826e-01,
-7.65209e-03,3.89530e-01,3.11795e-02,-1.86322e-01,-3.11583e-01,9.17376e-02,1.25758e-01,-2.94795e-01,1.27988e-01,1.88186e-01,
-1.93609e-02,3.77433e-01,2.27389e-01,-3.46940e-01,-2.83495e-01,2.81268e-01,-3.65731e-01,-7.08476e-03,5.03690e-01,-5.45771e-02,
3.71721e-01,4.87485e-01,7.97087e-02,-1.06338e-01,-1.78582e-01,-3.38035e-01,4.81410e-01,3.77362e-01,-2.68795e-01,-3.28774e-02,
-5.22019e-01,-9.00015e-02,1.95706e-01,4.56693e-01,-2.82774e-03,-8.74408e-02,-1.77480e-01,2.46851e-01,-6.35240e-02,-1.71161e-02,
5.47464e-01,3.84654e-01,-1.71995e-01,-1.23447e-01,-1.07685e-01,5.45929e-01,-4.12151e-01,-4.07784e-01,-3.39408e-01,-4.76100e-01,
-2.42302e-01,1.73733e-01,-4.24971e-01,8.22564e-02,1.50317e-01,-7.85891e-02,-2.25344e-01,9.53615e-02,3.47950e-01,-1.19118e-01,
-2.76817e-01,1.58594e-01,-3.00334e-01,4.23148e-01,-3.15777e-01,3.77696e-01,-5.55458e-01,-1.50772e-01,-2.02792e-01,1.28533e-01,
5.92018e-02,3.83381e-01,-5.37495e-01,-7.76480e-02,1.59547e-01,-1.20622e-01,2.74580e-01,6.39861e-02,-9.42659e-02,2.01528e-01,
-2.88805e-01,-9.47585e-02,-6.01709e-01,-4.48618e-01,-1.31779e-01,8.48384e-01,-1.41711e-01,-2.90308e-01,-3.94552e-01,-1.18268e-01,
4.00192e-01,
3.81446e-01,
1.03974e-01,
-4.25397e-01,
1.66947e-01,
2.27359e-01,
-3.93996e-01,
-4.79039e-02,
4.63081e-01,
-3.80780e-01,
5.22583e-01,-9.31195e-02,3.66200e-01,4.06835e-01,-3.42393e-01,-1.35998e-01,2.02905e-02,-1.09891e-02,-1.72896e-01,-6.77458e-04,
-8.29117e-03,3.72848e-01,1.87827e-01,3.45653e-01,1.48931e-01,1.87109e-01,3.33147e-01,-1.40313e-01,3.05580e-01,-4.50123e-01,
4.40473e-01,-4.13322e-02,-3.69170e-01,4.74873e-01,-5.31788e-01,-7.70394e-02,-3.50642e-01,2.56169e-01,-4.08973e-01,-4.36930e-02,
-2.33761e-01,3.39368e-01,-2.59213e-02,3.66771e-01,3.30338e-01,9.73861e-02,-5.52479e-01,-3.62109e-03,-1.93140e-01,-8.47128e-02,
2.64331e-01,8.31813e-02,4.16730e-01,-3.79943e-01,4.28871e-01,-3.27265e-01,-3.16967e-01,-1.81353e-01,5.50317e-01,1.08078e-01,
2.51771e-01,-4.17495e-01,4.49225e-01,-4.25128e-01,3.41404e-01,-4.30766e-01,-2.91723e-01,8.66188e-02,5.09718e-01,4.99192e-02,
4.56887e-01,-1.62454e-01,4.42403e-01,2.16733e-01,-5.40336e-01,3.81691e-01,-3.93728e-01,-3.69478e-01,4.61997e-01,1.52466e-01,
7.05674e-02,1.79722e-03,-1.05563e-01,-3.22045e-01,3.88163e-01,-4.91700e-02,6.72572e-02,4.97209e-01,5.57584e-02,-6.21820e-01,
-3.12546e-01,2.80977e-01,5.46444e-02,2.06991e-01,-2.19970e-03,5.76313e-01,1.58342e-01,1.52493e-01,3.93579e-01,2.61066e-01,
3.87209e-01,-5.09661e-01,-1.16521e-01,-2.61351e-01,3.59424e-01,2.86816e-03,-2.81444e-01,-3.71906e-01,-1.68489e-01,7.20437e-02,
-9.29297e-02,
5.34165e-01,
3.80765e-01,
-9.10507e-02,
-3.23429e-01,
2.28209e-02,
-1.21747e-01,
8.97002e-02,
-3.38144e-01,
1.68304e-02,
-3.98766e-01,-2.46876e-01,-6.53692e-02,3.17148e-02,-4.72728e-02,-3.15034e-02,2.07559e-01,-1.27035e-01,-2.57944e-01,-1.26164e-01,
-4.22781e-01,-3.04834e-01,-5.51363e-01,2.62025e-01,-4.45685e-01,5.61571e-02,3.34361e-01,-1.56447e-01,-1.37665e-01,-1.28206e-01,
1.10774e-01,1.82441e-01,2.75213e-01,-5.41089e-02,2.66502e-02,1.89905e-01,3.03640e-01,2.15850e-02,-3.48413e-02,2.76859e-01,
5.80541e-02,-3.34607e-01,-6.16484e-02,1.15823e-01,-1.26912e-01,8.16609e-02,5.51420e-01,-8.91771e-02,-3.19013e-01,4.19748e-01,
-1.35985e-01,1.86304e-01,-5.30417e-02,-6.59308e-02,9.56627e-02,-1.80557e-01,1.49979e-01,6.04065e-02,-2.70710e-01,5.54290e-01,
3.72228e-01,
5.96732e-01,
-6.21227e-01,
1.07296e-01,
5.36345e-02,
