// Neural Network File Format by Kyle Julian, Stanford 2016
6,5,5,10,
5,10,10,10,10,10,5,
0,
-56000.000000,-56000.000000,-3.141593,200.000000,200.000000
56000.000000,56000.000000,3.141593,200.000000,200.000000
-278.628049,0.000000,0.000000,200.000000,200.000000,-0.242819
112000.000000,112000.000000,6.283185,1.000000,1.000000,17.479225
1.90349e-01,-3.01663e-01,1.79552e-01,-2.14378e-01,-5.97573e-01,
5.48387e-02,1.38352e+00,-2.06867e-02,1.64948e-01,3.30928e-01,
-3.47598e-02,5.62776e-04,-1.26570e-01,-5.05259e-01,5.45926e-01,
-3.81439e-02,9.24527e-01,4.49828e-02,3.07020e-01,2.44863e-01,
-2.57883e-01,4.95516e-01,-3.41801e-01,-5.57839e-01,-2.25411e-01,
2.85969e-01,1.80975e+00,-7.76571e-02,-2.65687e-01,5.97596e-02,
3.19299e-01,8.08698e-01,4.48064e-01,-7.86031e-02,-5.70909e-01,
3.84113e-01,-2.84246e-01,2.59962e-01,-2.59521e-01,1.15314e-01,
-1.27754e-01,-3.04522e-02,5.13567e-02,2.50701e-01,2.26386e-01,
3.63289e-01,1.44192e+00,1.24261e-01,5.31422e-01,-5.87410e-01,
-4.25891e-01,
-1.70208e-01,
2.59457e-01,
-3.78589e-03,
1.93677e-01,
-3.75706e-02,
4.11242e-01,
-4.73090e-01,
3.68591e-01,
-1.61502e-01,
3.79148e-01,2.15753e-01,4.09227e-01,-2.02184e-01,-2.57061e-01,-1.31532e-01,1.74498e-01,4.65018e-01,-4.05606e-01,-5.91055e-01,
-5.36027e-01,-4.63058e-01,4.44802e-01,-2.04342e-02,3.43423e-01,-5.06551e-01,3.87506e-01,-7.59353e-02,2.58574e-01,4.91612e-01,
-9.13587e-02,-2.57379e-01,-2.10528e-01,3.43168e-01,-1.84883e-01,-7.92946e-02,-1.43960e-01,-4.98251e-01,1.77588e-01,4.16570e-01,
-2.24498e-01,-3.92390e-01,5.18755e-01,3.39987e-02,3.09386e-01,1.73818e-01,-1.11676e-01,7.41546e-02,-4.11252e-01,-4.24821e-01,
-1.41494e-01,4.88774e-01,-5.48487e-01,3.83944e-01,-1.84030e-01,2.47393e-01,3.43108e-01,-5.29700e-02,-6.00620e-01,-9.59856e-02,
3.58102e-01,-5.27083e-01,1.84267e-01,-1.10570e+00,-4.25635e-01,-1.02626e+00,-4.43572e-01,-2.35819e-02,-1.68693e-01,-6.03901e-01,
-2.11574e-02,3.61081e-01,-4.99267e-02,4.42641e-01,4.62237e-01,8.50487e-02,9.78182e-02,3.67445e-01,-1.14092e-01,-3.85119e-01,
4.65231e-01,2.72207e-02,4.08613e-01,-6.98313e-02,-4.87494e-01,6.93114e-02,-3.34565e-01,-3.27508e-01,-1.04034e-01,-2.03541e-01,
1.58298e-01,-3.46336e-01,-3.88068e-01,-1.75002e-01,-7.35194e-02,3.62808e-01,9.85991e-02,-4.85903e-01,-4.66586e-01,2.23087e-01,
-3.75804e-01,-3.32261e-01,-3.28511e-01,1.15630e-01,2.15497e-01,-5.01537e-01,1.36971e-01,1.26066e-01,-3.27937e-01,-3.19709e-01,
3.92883e-01,
-1.51191e-01,
-2.52098e-01,
-2.12272e-01,
2.09945e-01,
2.06842e-01,
-4.52013e-01,
-1.67151e-02,
5.74244e-02,
-1.86465e-01,
-2.38049e-01,-3.35454e-01,4.81608e-01,1.24216e-01,4.78069e-01,-2.92858e-01,1.48208e-01,3.03717e-01,1.13803e-01,-1.43230e-01,
1.66194e-01,2.88145e-01,1.27018e-01,4.59379e-01,2.86498e-01,-3.02517e-01,-5.01293e-01,-5.40914e-01,7.32657e-02,-2.07584e-01,
-1.27504e-01,-2.80660e-01,-1.03752e-01,-1.77043e-01,-4.25293e-01,-4.82197e-01,-5.18382e-02,-8.82988e-02,2.75673e-01,3.71909e-01,
-1.12584e-02,1.99829e-01,4.22895e-01,2.49279e-01,2.16764e-01,5.08805e-01,3.19320e-01,4.33373e-01,6.73487e-02,2.91786e-01,
-4.91918e-02,4.86592e-01,2.31858e-01,3.21013e-01,1.98890e-01,1.94542e-01,1.10955e-01,-6.78295e-02,-3.21895e-02,-3.27464e-01,
-2.01023e-01,-5.05916e-01,2.04930e-01,1.96716e-01,4.45707e-01,2.05551e-01,-3.52241e-01,1.61137e-01,2.09832e-01,3.46687e-01,
4.18273e-01,3.04080e-01,3.43700e-01,-2.66047e-01,-4.10118e-01,4.32836e-01,1.38756e-01,-3.58289e-01,-3.75487e-01,2.92204e-01,
-6.15252e-02,3.83337e-01,1.25384e-01,2.14243e-01,4.76965e-01,-2.31717e-01,1.31004e-01,4.03350e-01,-1.55694e-01,-2.63154e-01,
-2.90172e-01,4.57852e-01,4.41353e-01,-3.11525e-01,-4.66320e-01,1.20486e-01,-5.59181e-01,3.29872e-01,2.21270e-01,1.14560e-01,
3.53272e-01,2.05215e-01,-5.06040e-01,3.33757e-01,3.86416e-01,2.16122e-01,1.15798e-01,3.10899e-01,6.38735e-02,1.33178e-01,
4.00170e-01,
-3.36766e-01,
-5.11596e-01,
4.15833e-01,
-2.68002e-01,
1.25560e-02,
-1.75019e-01,
3.16422e-01,
-3.06311e-01,
3.79539e-01,
-2.59533e-02,1.17349e-01,-5.78449e-01,-1.20079e-01,-1.19401e-01,-2.95492e-01,-4.13859e-01,-4.22617e-01,3.24262e-01,2.45307e-01,
-8.08478e-02,3.84517e-01,4.48252e-01,-2.14411e-01,3.65280e-01,-2.33903e-01,2.00497e-01,4.50904e-01,-1.18790e-01,5.08881e-01,
2.00368e-01,-5.29276e-01,3.72881e-01,-3.87848e-02,8.90159e-02,-5.70883e-02,-3.04367e-01,-2.24209e-01,9.96952e-02,-8.57039e-03,
2.04180e-01,3.26132e-01,5.71070e-01,2.38895e-01,-1.98901e-01,5.34694e-01,5.64746e-01,3.04722e-01,-3.95677e-01,1.89316e-01,
-1.60212e-01,1.90496e-01,1.10437e-01,-1.31374e-03,4.41438e-02,3.77379e-01,-1.32223e-01,-3.08022e-01,6.86357e-02,3.68675e-01,
6.66892e-01,1.32028e-01,4.19100e-01,-1.59485e-01,1.49557e-01,-1.00131e-01,-2.25575e-01,2.54326e-02,-4.45121e-01,-5.94884e-01,
-1.00467e-01,1.33457e-01,3.56375e-01,-2.04648e-02,2.79959e-01,4.49365e-01,1.98050e-01,-3.74364e-01,-4.89455e-01,-5.10146e-01,
5.63795e-01,-4.46806e-01,-5.03111e-02,-4.95877e-01,1.98853e-01,4.92034e-01,-2.28099e-01,2.52715e-01,5.63594e-02,-9.38203e-02,
3.68975e-01,-4.37763e-01,-4.15241e-02,3.13874e-01,-2.39645e-01,1.08417e-01,2.41063e-01,2.22077e-01,-5.68022e-01,-8.86897e-02,
-3.42313e-01,-4.94639e-01,5.81576e-02,1.83356e-01,-1.56662e-01,-3.26954e-01,-3.45008e-01,4.46569e-01,2.03446e-01,-2.36938e-01,
-4.22577e-01,
-1.65594e-01,
4.11340e-01,
2.20135e-01,
7.14649e-02,
-4.35100e-01,
-1.29217e-01,
1.34143e-01,
4.99831e-02,
-8.04037e-02,
3.12889e-01,-1.84900e-02,6.66789e-02,3.10168e-01,3.83463e-01,-4.05554e-01,5.30049e-01,-3.34688e-02,-9.61000e-02,5.68893e-01,
-7.38909e-02,-2.28475e-01,1.79269e-01,1.75540e-01,-2.21079e-01,3.07147e-01,9.34749e-02,-9.40889e-02,1.12640e-01,-4.53478e-01,
7.67479e-02,-8.13889e-03,1.44534e-01,-3.76782e-02,-1.14676e-01,-4.63202e-01,-4.11903e-01,4.37358e-01,-1.75898e-02,-3.33846e-01,
-1.46240e-01,5.76742e-01,1.80231e-01,-6.03896e-01,-2.23288e-02,-6.77131e-02,-9.10130e-02,-1.52483e-01,-8.16011e-02,2.59160e-01,
1.98548e-01,-7.31788e-01,-5.06091e-01,5.02800e-03,2.85495e-01,2.80204e-01,4.43931e-01,3.74348e-01,9.36321e-02,1.79623e-01,
-3.15388e-01,3.29418e-01,3.65802e-01,-4.28893e-01,1.10287e-01,-3.10585e-01,2.60068e-02,3.79461e-01,-6.86415e-02,-4.30190e-01,
1.79980e-01,-3.95479e-01,-1.01981e-01,1.16865e-01,5.94974e-02,-3.06066e-01,-4.92621e-01,-3.96586e-01,2.81221e-02,-2.59897e-02,
2.24516e-01,-2.89011e-01,-2.79046e-01,3.07062e-01,-5.28393e-02,2.55631e-01,2.94518e-01,2.42641e-01,6.21859e-02,-3.72303e-02,
2.67049e-01,1.59694e-01,-4.01822e-02,-2.32349e-01,1.47804e-01,-4.22969e-01,-1.91272e-01,2.92175e-01,5.65487e-02,1.19441e-01,
1.52219e-01,2.72846e-02,2.60163e-01,1.80417e-01,2.54165e-01,3.44724e-01,-1.99542e-01,-2.79673e-01,-7.90065e-03,3.13864e-01,
-1.69927e-01,
-3.57284e-01,
2.22187e-01,
-3.55870e-01,
-8.21175e-01,
-1.61631e-01,
2.28939e-01,
3.58289e-01,
-5.62912e-01,
3.02260e-01,
-1.97420e-01,-2.51094e-01,6.40153e-01,-2.51879e-01,4.67869e-01,-2.26197e-01,-2.31813e-01,-4.85325e-01,-3.03948e-01,1.41589e-01,
-2.72582e-01,1.39746e-02,-3.40369e-01,4.55357e-01,4.50555e-01,-9.12265e-02,3.34836e-01,3.06718e-01,2.41158e-01,-3.60456e-02,
-5.13619e-01,-4.03985e-01,1.18382e-01,-2.07447e-01,4.42502e-01,2.41918e-01,4.62413e-01,1.10688e-01,-2.80237e-01,5.43117e-01,
4.36344e-01,4.57438e-01,3.42430e-01,2.70057e-01,2.60925e-01,2.30395e-02,-1.11177e-01,-1.26590e-01,-2.68709e-01,-1.57346e-01,
-3.61491e-01,-6.59936e-01,1.00438e-01,-6.09228e-01,3.81983e-01,1.77121e-01,-1.40175e-01,-5.13007e-01,-2.66013e-01,9.46399e-02,
-2.87661e-01,
5.75569e-01,
-6.58578e-01,
5.26156e-01,
-3.68569e-01,
