// Neural Network File Format by Kyle Julian, Stanford 2016
6,5,5,10,
5,10,10,10,10,10,5,
0,
-56000.000000,-56000.000000,-3.141593,200.000000,200.000000
56000.000000,56000.000000,3.141593,200.000000,200.000000
-278.628049,0.000000,0.000000,200.000000,200.000000,-0.242819
112000.000000,112000.000000,6.283185,1.000000,1.000000,17.479225
5.38857e-01,1.80749e+00,1.82288e-01,1.37785e-01,1.01230e-01,
-2.15889e-02,-8.44682e-01,-2.84274e-01,1.38301e-02,-1.33055e-01,
-1.13866e+00,-1.93294e+00,-7.80922e-02,2.41725e-02,2.24991e-01,
8.34540e-02,-9.23348e-01,-9.85964e-03,2.54614e-01,-5.96003e-02,
-5.16154e-01,-1.11131e-01,-1.96511e-01,3.85047e-01,4.03255e-03,
-6.41941e-01,1.32697e+00,3.27210e-03,-1.96131e-01,4.16210e-01,
-6.58597e-02,1.05838e+00,-1.94435e-01,-2.72068e-01,2.02519e-02,
2.83151e-01,-3.26557e-02,-3.55901e-01,-2.04475e-01,-4.98350e-01,
9.09997e-03,2.62353e-01,2.50732e-01,4.76437e-01,2.18098e-02,
-2.48753e-01,1.35541e+00,-2.99656e-03,1.27462e-01,4.49689e-01,
2.46407e-01,
4.85612e-01,
3.31061e-02,
-5.99837e-03,
-3.61350e-01,
1.65924e-03,
5.29434e-01,
-4.40248e-01,
1.33516e-02,
-6.71310e-03,
1.77220e-01,4.10619e-01,-4.91196e-02,-5.79297e-01,2.32998e-01,4.53825e-01,4.29565e-01,-4.79378e-01,4.25403e-02,-5.66507e-02,
-3.08722e-01,2.42035e-01,-4.49444e-02,-2.19628e-01,3.23727e-01,4.67041e-02,-6.43520e-01,-2.08293e-01,-2.37263e-02,-7.30476e-01,
-3.58052e-01,-2.03987e-01,3.63100e-01,-5.32283e-02,4.16095e-01,-1.10345e-01,-8.49194e-02,-4.20523e-02,-4.23612e-02,1.39063e-01,
-5.17800e-01,-3.15748e-01,-1.73620e-01,6.96621e-01,-3.16035e-01,2.84046e-01,-6.29581e-02,1.23737e-01,3.48967e-01,1.02550e-01,
2.54931e-01,-5.37236e-01,4.90580e-01,-5.22657e-01,4.82097e-01,1.09578e-01,-3.03099e-01,1.41917e-02,3.54549e-01,-5.31759e-01,
-3.78204e-01,5.97292e-02,1.42625e-01,-4.86994e-01,1.22263e-01,3.41633e-01,-4.98516e-01,2.71107e-01,-2.72824e-01,1.56978e-01,
2.59456e-01,3.27815e-01,-5.43077e-01,-7.26674e-01,-3.16173e-01,4.15896e-01,-3.10528e-01,-4.12521e-01,-2.10452e-01,-2.27150e-01,
-9.37002e-02,1.32394e-01,4.42574e-01,3.51794e-01,2.41162e-01,2.49894e-01,5.42458e-01,-3.24095e-01,-7.17844e-01,3.05064e-01,
-6.16382e-01,-1.81429e-01,6.51857e-01,-4.34125e-02,-4.15371e-01,1.52604e+00,1.43141e-01,5.16071e-01,4.89888e-01,-9.77921e-01,
4.91450e-01,1.73369e-01,-5.91848e-02,1.75728e-01,-4.20645e-01,-3.02935e-01,-2.26677e-02,2.88668e-01,1.72093e-02,-1.41460e+00,
2.80545e-01,
3.01324e-01,
4.33651e-01,
3.08582e-01,
-2.74210e-01,
-1.37356e-02,
4.04892e-01,
1.78350e-01,
1.39602e-01,
-1.90136e-01,
1.72986e-01,-1.09602e+00,5.06536e-01,4.11295e-01,1.81215e-01,-4.52149e-01,1.64131e-01,-7.81165e-02,-5.90845e-02,6.38970e-01,
-1.40558e-01,-7.47496e-01,2.04271e-01,4.50492e-01,3.22406e-01,4.64745e-01,-3.51381e-01,3.59712e-01,-3.18724e-01,3.33640e-01,
-4.00441e-01,-2.03500e-01,-4.82082e-01,-1.63536e-01,-2.63145e-02,-3.51187e-01,-1.17844e-02,5.29732e-01,-4.73410e-01,7.90858e-02,
4.12272e-01,-7.31771e-01,1.71394e-01,3.18186e-01,-7.72399e-02,-4.79712e-01,-2.44964e-01,5.17382e-01,-7.35818e-01,1.18502e-01,
4.51314e-01,6.04495e-01,4.45975e-02,-4.15239e-01,2.54233e-01,5.05079e-01,1.90773e-01,1.18178e-02,6.14986e-01,-1.22034e-01,
-5.78081e-02,-2.22542e-01,3.23863e-01,8.84972e-01,2.05398e-01,-5.25576e-02,-4.96381e-01,4.42846e-02,1.62930e-01,6.23319e-01,
3.68987e-01,7.68616e-01,4.19463e-02,1.68139e-01,-1.93410e-01,5.35902e-02,5.35671e-01,-3.70110e-01,3.85995e-01,3.16348e-01,
3.97667e-01,1.11238e-01,2.47983e-01,-6.72490e-01,-1.82424e-01,-9.08122e-02,3.20211e-01,2.77436e-01,-7.57079e-02,3.24930e-01,
1.63126e-01,-3.43996e-02,-8.14566e-02,5.96037e-02,5.52332e-03,4.14762e-01,-4.84444e-01,4.24929e-01,2.27822e-01,6.76172e-01,
8.80166e-01,-1.64091e-01,3.95605e-01,-4.46159e-01,-2.02371e-01,2.57513e-01,1.60455e+00,7.71105e-01,-2.24541e-01,-3.91408e-01,
1.46448e-01,
3.52071e-01,
-1.28574e-01,
4.44931e-01,
6.89895e-02,
2.22594e-01,
-1.59532e-01,
2.79934e-01,
3.51162e-01,
1.58541e-01,
4.97689e-01,4.78229e-01,4.36565e-01,1.64456e-01,-2.44429e-01,2.02733e-01,-6.30592e-02,-1.87207e-01,2.80804e-01,2.99786e-01,
9.41718e-02,5.19468e-01,2.11100e-01,2.35883e-01,-4.70895e-01,5.93240e-01,4.16896e-01,5.47219e-01,2.82358e-01,2.38881e-01,
3.77422e-01,-1.24875e-01,-4.89229e-01,-1.73861e-01,-5.39689e-01,-3.25104e-01,-9.18316e-02,-2.51005e-01,-3.60690e-01,1.50768e-01,
-4.82840e-01,-3.29249e-01,-1.73259e-01,-2.93023e-01,4.43673e-01,2.76162e-01,-3.01386e-01,-4.64657e-01,-1.93266e-01,3.45496e-01,
2.32570e-01,-3.99140e-01,-3.65701e-01,6.20115e-01,-1.21876e-01,-2.33007e-01,-5.62239e-02,-4.55569e-01,2.35391e-01,2.41055e-01,
-1.67644e-01,3.06535e-01,-4.96367e-01,-5.53736e-02,5.11166e-01,-4.22065e-02,6.26868e-01,1.54340e-01,-2.15884e-01,-2.95607e-01,
-1.13517e-02,5.84765e-01,4.42188e-01,3.45023e-01,-3.12680e-01,5.82590e-01,-5.74656e-02,-3.51732e-01,1.44721e-01,5.14311e-01,
-5.43241e-01,3.21580e-01,-1.57122e-01,-8.93767e-02,-3.68753e-01,-1.98034e-01,2.98792e-01,3.73574e-01,2.43685e-01,-5.32426e-01,
-2.93141e-01,1.02427e-01,-2.78512e-01,-2.45973e-01,-2.43235e-01,5.43297e-02,1.77538e-01,-5.54511e-01,-3.96274e-01,5.00399e-01,
5.09008e-01,2.21678e-01,-4.31334e-01,2.33256e-01,-2.19625e-01,-5.90373e-03,-1.89053e-01,-3.21464e-01,1.24227e-01,2.01908e-01,
4.92781e-01,
-5.16500e-02,
3.68403e-01,
-7.98327e-02,
4.88876e-01,
2.49071e-01,
-1.23794e-01,
-2.63105e-01,
1.22334e-01,
3.42545e-02,
-3.46415e-01,-9.94914e-02,-7.93665e-02,2.60537e-01,2.66396e-01,1.30680e-02,-1.87568e-01,-8.72088e-02,3.33726e-01,-2.00273e-01,
1.50491e-01,7.87724e-02,-2.99629e-01,-1.90595e-01,-4.31075e-01,-4.52841e-01,-1.05564e-01,3.11008e-02,1.72262e-01,-3.22099e-01,
-1.59889e-01,4.08912e-01,1.94514e-01,3.36486e-01,-4.00474e-01,-6.96306e-02,3.76247e-01,-4.87364e-01,2.96537e-01,-4.85573e-01,
-7.68906e-02,9.03796e-03,2.17080e-01,-4.42021e-01,-1.23667e-02,1.93995e-01,4.34585e-01,4.97879e-02,9.53054e-02,-1.95669e-01,
2.93497e-01,2.24080e-01,4.37942e-01,5.30243e-01,-4.65130e-01,-3.10067e-01,-1.09639e-01,-5.08709e-01,2.07717e-01,-4.78904e-01,
-1.85318e-01,-2.32822e-01,3.38738e-02,-4.00819e-01,3.92946e-01,1.50939e-02,-1.45253e-01,-3.26150e-01,4.52426e-01,-2.25983e-02,
3.24011e-01,5.87488e-01,-4.69857e-02,-2.14010e-01,-1.59208e-01,1.52088e-01,3.88211e-01,-3.34463e-01,-1.06051e-02,-3.89394e-01,
5.27427e-02,-5.45132e-01,-1.89933e-01,4.24612e-01,-4.31843e-01,-2.80143e-01,-1.59666e-01,3.56336e-01,3.61593e-01,4.48139e-01,
3.42462e-01,-3.18051e-01,-3.19677e-01,-2.24334e-01,3.87394e-01,-2.50401e-01,4.83471e-01,-1.29350e-02,7.20164e-02,4.36668e-01,
-1.63987e-01,4.48603e-01,5.12694e-01,1.17984e-01,-5.20048e-01,1.93550e-01,-4.15945e-01,-5.36434e-02,-2.13748e-01,-1.81156e-01,
1.27400e-01,
2.82127e-01,
-2.26399e-01,
-3.78753e-01,
-4.05971e-03,
5.76099e-02,
1.82366e-01,
-4.65631e-01,
-8.05195e-02,
1.37888e-01,
-1.79058e-01,-5.51017e-01,-1.86221e-01,5.43022e-01,4.33057e-01,5.01192e-01,-4.13128e-01,-2.94713e-01,-3.39241e-01,-4.43377e-02,
2.51358e-01,4.21835e-01,5.51096e-01,4.95524e-01,2.04153e-01,-6.24317e-02,-1.13417e-01,-3.04489e-01,6.34464e-03,2.63349e-01,
-4.62606e-01,5.09419e-01,-2.46257e-01,-2.95333e-01,6.34178e-01,1.04986e-01,-1.16799e-01,-3.75273e-01,-1.26564e-02,6.71386e-01,
5.91799e-01,3.68483e-01,-4.37141e-01,-2.02325e-01,-3.22375e-02,1.27952e-02,-3.48477e-01,-1.78711e-01,1.66658e-02,-2.63006e-01,
4.79101e-01,3.91073e-01,-2.99366e-01,3.49449e-01,-3.53422e-01,-2.24689e-01,1.18466e-01,-1.17920e-01,2.66811e-02,-4.18410e-01,
6.25022e-01,
1.23539e-01,
1.32260e-01,
3.51982e-01,
-1.26859e-01,
