// Neural Network File Format by Kyle Julian, Stanford 2016
6,5,5,10,
5,10,10,10,10,10,5,
0,
-56000.000000,-56000.000000,-3.141593,200.000000,200.000000
56000.000000,56000.000000,3.141593,200.000000,200.000000
-278.628049,0.000000,0.000000,200.000000,200.000000,-0.242819
112000.000000,112000.000000,6.283185,1.000000,1.000000,17.479225
-5.43588e-01,-1.79504e-01,4.47363e-01,-1.22247e-01,-6.69899e-02,
-6.53764e-01,2.61836e-01,-1.07374e-01,1.91232e-01,-1.73956e-01,
2.22772e-01,1.28663e-01,2.94897e-01,5.66801e-01,3.05771e-01,
2.41795e-02,-3.29029e+00,-5.45385e-01,3.99890e-02,-4.49530e-01,
2.88778e+00,4.64141e+00,4.32028e-01,3.13797e-01,-6.02104e-01,
2.75096e-01,-4.50821e+00,7.77941e-01,-1.85503e-01,-4.79885e-01,
-3.82832e-01,6.32239e-01,1.45062e-02,-5.65024e-01,5.14172e-01,
1.33814e-01,4.80419e-01,-1.25582e-01,3.26699e-01,1.55943e-01,
6.19965e+00,-3.93458e+00,4.06198e-01,4.70426e-01,-7.76063e-02,
-2.94156e+00,6.30492e-01,-1.98241e-02,-3.47508e-01,3.77218e-01,
-5.08832e-01,
4.66709e-01,
-3.92597e-01,
6.15733e-03,
3.24578e-01,
4.04191e-01,
-4.93843e-01,
-4.76179e-01,
3.74492e-01,
7.37527e-03,
5.44746e-01,-5.18698e-01,-1.65806e-01,9.58898e-01,5.41631e-01,4.26595e-01,4.97244e-01,-3.47789e-01,3.29884e-01,1.65571e+00,
-3.92284e-01,-3.60846e-01,-2.63576e-01,4.52810e-01,-5.90261e-01,6.75804e-01,-4.32183e-01,-2.09870e-01,-3.81375e-01,5.39610e-01,
4.28193e-01,-5.53642e-02,3.92578e-01,4.88231e-01,7.58001e-01,1.11499e-01,5.21431e-01,-5.44024e-01,-4.39074e-01,1.62776e+00,
4.59464e-01,-5.46553e-02,3.55607e-01,9.16678e-01,4.64368e-01,-3.15714e-01,6.27357e-03,-2.86015e-01,-4.60747e-01,3.41316e-01,
1.35885e-01,-3.00683e-01,1.83820e-01,1.28672e+00,3.40932e-01,2.54797e-01,-3.46819e-01,-2.19292e-01,6.34977e-01,1.07124e+00,
1.03565e-01,1.64790e-01,8.61025e-02,-5.09480e+00,3.68712e-01,2.57197e-01,3.03572e-01,7.47791e-02,2.52522e-01,1.29897e+00,
-2.91447e-01,-6.68916e-03,2.11815e-01,6.04678e-01,-1.47193e-01,7.61432e-01,1.63375e-01,-5.34878e-01,-5.82530e-01,8.82940e-01,
-5.04809e-01,1.87492e-01,-2.53732e-02,3.47254e-01,-1.85589e-01,-1.13111e+00,-1.70047e-01,1.57140e-01,6.78751e-01,1.63518e-01,
-2.55051e-01,2.09835e-02,-7.98328e-02,-4.84300e-01,5.52212e-01,-6.20821e-01,-3.73966e-01,5.43673e-01,1.69979e-01,3.31721e-01,
3.59500e-01,-2.83238e-01,5.20138e-01,9.45089e-01,4.33265e-01,-7.52163e-01,-8.12149e-03,-5.68579e-02,4.86481e-01,1.58159e+00,
-1.93497e-01,
4.61671e-01,
3.42458e-01,
3.06938e-01,
-3.80014e-01,
-1.97906e-01,
4.03946e-01,
5.67276e-04,
2.26017e-02,
1.58645e-01,
1.82441e-01,5.15885e-01,1.79901e-01,9.69757e-02,1.80131e+00,1.87214e+00,6.06103e-01,-6.03465e-01,3.58166e-01,1.89302e-01,
-9.23392e-02,-3.90820e-01,-7.46186e-02,-5.29984e-01,-1.38319e-01,-1.79213e-02,-4.45560e-02,-2.31849e-01,-1.06037e-02,-3.04587e-01,
8.00898e-01,3.98413e-01,-2.33047e-01,1.14548e+00,-5.02671e-01,-1.00472e-01,-1.93834e-01,-7.65407e-01,5.67107e-01,3.89577e-01,
-1.58896e+00,-7.44339e-01,2.25065e-01,-3.36283e-01,7.03752e-01,4.12935e-01,6.76370e-02,1.39858e-01,-1.43929e+00,-9.25330e-01,
2.63083e-01,2.99644e-01,-3.03161e-01,-3.15925e-01,-3.78399e-01,-4.05752e-01,-1.25209e-01,4.19536e-01,-1.68267e-01,3.12307e-01,
-1.25459e-02,-1.05837e+00,3.78359e-01,-5.37087e-01,-9.11559e-01,5.03906e-01,-1.11333e-01,1.14769e-02,2.58483e-02,7.05080e-01,
7.58260e-01,4.08827e-01,-1.40292e-01,8.04026e-01,-7.64944e-01,4.12880e-03,-2.14790e-02,-1.50090e+00,1.76649e-01,1.32274e+00,
-2.34712e-01,-4.63581e-01,4.26900e-01,-3.55211e-02,-2.65097e-01,6.23169e-01,-7.80301e-02,7.49022e-01,-4.15865e-02,-2.03487e-01,
-1.14256e+00,-3.88234e-02,-1.54078e-01,-7.73946e-01,-1.44694e+00,-2.94169e-01,-1.23923e-01,-1.37179e-01,-1.25562e+00,1.13261e+00,
-1.33337e+00,-9.66256e-01,2.50975e-01,-3.12806e-02,1.10958e+00,3.52132e-01,-4.52920e-01,2.80416e-02,-1.24138e+00,-6.54614e-01,
-2.99073e-01,
-4.11028e-02,
3.36381e-01,
6.38126e-01,
-5.10165e-01,
-4.85510e-02,
3.77422e-02,
-1.01704e-01,
4.10971e-01,
5.68944e-01,
-3.21603e-01,-2.52914e-01,-1.70911e-01,2.18331e-01,-2.54542e-03,-2.85683e-01,-6.39759e-01,7.36643e-01,5.78415e-01,6.68249e-01,
5.41790e-01,-7.52824e-02,-9.38630e-02,-5.66811e-01,2.60845e-01,-2.50719e-01,-5.20905e-02,3.96734e-01,-5.90026e-01,-1.43142e+00,
-4.23117e-01,1.18840e-01,-3.76858e-01,-9.00945e-01,1.57598e-01,1.53088e-01,-2.22494e-01,-6.09165e-02,2.80435e-01,9.77229e-01,
-5.35761e-01,-1.66583e-01,-3.32109e-01,-3.43945e-01,-5.14065e-01,-8.93679e-01,-3.33859e-02,2.12699e+00,4.98549e-01,4.47168e-01,
6.07172e-01,2.21512e-01,-2.17647e-01,4.09273e-01,-3.32296e-01,-5.46881e-01,6.67186e-01,1.26069e+00,-4.21385e-01,2.16885e-01,
2.48928e-01,3.36646e-01,3.95520e-01,-4.69687e-01,1.80172e-01,-2.35424e-01,-1.37961e-01,-1.73642e-01,-1.00407e+00,-9.86255e-01,
-2.32431e-01,-2.07813e-02,4.21630e-01,4.24488e-01,-2.02939e-02,-5.10648e-01,-5.22021e-01,4.80663e-01,-6.04391e-01,1.55294e+00,
9.94664e-02,-1.87921e-01,4.01045e-01,-5.48795e-01,-5.46797e-02,-1.54304e-02,4.83480e-01,-1.53301e-01,-2.77712e-01,-1.67711e+00,
4.08575e-01,-2.72003e-02,-4.74920e-01,-7.38552e-01,-9.56613e-02,1.24506e-01,3.26607e-01,4.94538e-01,3.07203e-01,-2.17058e+00,
3.12356e-01,-4.72437e-02,-1.77942e-02,4.72811e-02,-3.68789e-01,2.02560e-01,-5.99250e-01,-1.38800e-01,-1.05741e-01,2.50174e-02,
5.07869e-01,
1.88090e-01,
5.74073e-01,
4.26616e-01,
-4.34917e-01,
1.68832e-01,
2.92478e-01,
-1.36458e-02,
5.82576e-02,
-3.33757e-01,
-3.64410e-01,-1.96471e-01,-3.05651e-01,1.95141e-01,-5.03200e-01,-6.74712e-02,-2.60088e-01,-4.31277e-01,-3.29581e-01,6.92333e-02,
6.17175e-01,9.83582e-01,1.38142e+00,2.42403e-01,-2.76041e-01,-5.97853e-01,2.22588e-01,4.97828e-01,-2.65548e-01,-4.09106e-01,
-7.70539e-01,-2.94208e-01,8.66722e-01,3.16085e-01,-6.70209e-02,7.20950e-01,2.44054e-01,-6.81183e-02,4.99250e-01,4.30871e-01,
4.72230e-01,8.88275e-01,9.35212e-01,-1.11310e+00,-4.51503e-01,-1.13993e+00,7.74786e-02,-2.85601e-01,4.25574e-01,7.94408e-03,
-6.24901e-03,-2.77802e-01,-5.81015e-02,1.70938e-01,-5.00145e-01,3.26720e-01,-4.86178e-02,-3.50053e-01,1.34604e-02,4.90889e-01,
8.91664e-01,1.07401e+00,8.98502e-01,-1.02399e+00,-9.79458e-01,-1.21221e+00,6.70624e-01,1.53881e-01,7.28920e-02,2.68182e-01,
6.82682e-01,9.20339e-01,2.68475e-01,-3.07540e-01,8.99940e-01,-1.07592e+00,1.06275e+00,2.18704e+00,-1.58122e-01,-2.58359e-01,
3.13186e-02,1.47163e+00,-4.83551e-01,6.99658e-02,-2.41709e+00,-1.26099e+00,-4.37035e-01,-2.40837e-01,2.96376e-01,-4.63553e-01,
-9.58390e-02,3.29528e-01,-4.47541e+00,-1.40036e+00,-5.16877e-02,-3.81375e-01,-2.84997e-01,1.90347e-01,-4.80751e-01,-4.82925e-01,
2.94924e-01,4.24014e-01,-1.13686e-01,4.09810e-01,-5.89189e-02,-1.07993e+00,1.30352e+00,2.56446e-01,3.53165e-01,1.18439e-01,
-4.43776e-01,
3.68140e-01,
2.39941e-01,
1.23017e-01,
-3.28933e-01,
8.57016e-02,
-6.58151e-02,
2.84074e-01,
6.75373e-02,
-1.79513e-01,
2.91759e-01,-4.02014e-01,3.65820e-01,-2.17487e+00,4.31555e-01,9.81192e-02,-5.72027e-01,4.80796e-02,4.47975e-01,-7.72137e-01,
-6.35688e-02,-1.02562e-01,2.81276e-01,-1.24896e+00,-2.30788e-01,-4.36858e-01,-3.60141e-01,9.64655e-01,7.76058e-01,-5.17820e-01,
2.89852e-01,8.27228e-02,-7.29900e-02,-5.76982e-01,-2.28152e-01,-7.56176e-01,-3.34656e-01,4.66512e-01,-1.28679e-01,-6.95575e-01,
-3.07329e-01,6.13751e-02,4.54932e-01,-1.18758e+00,4.62442e-01,-8.68093e-03,-1.10963e+00,7.83362e-01,9.81436e-01,-6.30380e-01,
3.01151e-01,-6.40839e-01,5.57400e-01,-1.85476e+00,-3.04535e-01,-1.06577e+00,3.75525e-02,7.23052e-01,2.48305e-04,6.31618e-01,
6.72148e-01,
2.57353e-01,
3.29072e-01,
7.87376e-01,
1.28553e-01,
