// Neural Network File Format by Kyle Julian, Stanford 2016
6,5,5,25,
5,25,25,25,25,25,5,
0,
-56000.000000,-56000.000000,-3.141593,200.000000,200.000000
56000.000000,56000.000000,3.141593,200.000000,200.000000
-278.628049,0.000000,0.000000,200.000000,200.000000,-0.242819
112000.000000,112000.000000,6.283185,1.000000,1.000000,17.479225
8.14462e-01,2.42567e+00,-2.03564e-01,8.90794e-02,4.44566e-01,
-5.17979e-01,-1.46744e+00,-2.29679e-01,1.63390e-01,1.34366e-02,
4.47518e-01,2.91288e-01,-4.19549e-01,-7.65100e-02,-5.11101e-03,
-5.79657e-01,-8.22507e-01,-6.21010e-02,1.56378e-01,8.05863e-02,
-2.25833e-01,-5.17066e-01,1.31778e-01,2.58438e-01,-1.40400e-01,
-1.18629e+00,3.40415e-01,4.70637e-01,-1.07907e-01,3.97319e-01,
-2.36785e+00,2.87442e+00,1.39425e-01,-1.00572e-01,-3.83070e-01,
1.28642e+00,-2.93942e+00,-5.71789e-01,1.77340e-01,1.52503e-01,
1.37925e+00,4.19306e-01,9.13208e-02,-2.11492e-01,4.19880e-01,
-1.07463e+00,-1.85739e+00,8.97115e-02,-2.71225e-01,1.45798e-01,
1.71107e+00,6.82182e-01,-6.29223e-01,-4.29940e-01,3.63552e-01,
2.07690e+00,-2.54135e+00,-1.96942e-01,3.49954e-01,1.28592e-01,
-4.86017e-01,5.92142e-01,9.54227e-01,1.89703e-01,-2.97422e-01,
2.76753e-02,1.43705e+00,-6.58467e-01,-5.44142e-02,-1.04789e-01,
-1.94015e+00,-4.14202e-01,4.01153e-01,4.20723e-01,1.33060e-01,
-7.95678e-01,-2.61281e-02,-5.88368e-01,-5.63586e-02,9.64325e-02,
2.05734e+00,3.06775e+00,4.55536e-01,2.75281e-01,-3.52015e-01,
4.29077e+00,1.77949e+00,5.84132e-01,-3.01095e-01,1.41268e-01,
-1.45089e-01,7.39542e-01,-7.36669e-01,-2.99196e-01,-3.70551e-01,
-1.78284e+00,-4.77435e-01,-4.67126e-01,-8.92946e-02,-4.29951e-01,
2.07561e+00,2.66059e+00,4.30895e-02,-1.63678e-01,1.02080e-01,
-4.06952e+00,-9.26954e-01,-5.57915e-01,-4.27515e-01,9.53376e-02,
-8.74454e-02,1.89192e+00,-3.85748e-01,2.13206e-01,4.23590e-01,
-5.50198e-01,-2.47663e+00,-8.92636e-01,1.38601e-01,4.27366e-01,
-1.29962e-01,1.42050e+00,4.18492e-01,2.22960e-01,2.94376e-01,
-4.05457e-02,
-2.00022e-01,
2.12280e-01,
-2.01491e-01,
-1.45405e-02,
2.38885e-01,
3.21588e-04,
-1.35903e-01,
9.30183e-02,
-5.79160e-02,
-1.23224e-01,
-7.00998e-02,
1.41419e-01,
-2.22662e-01,
1.37005e-01,
1.36532e-01,
1.88483e-01,
2.41288e-01,
7.26156e-02,
1.57804e-03,
-1.20901e-01,
-1.16052e-01,
-2.48217e-01,
6.35075e-03,
-1.43491e-01,
9.47003e-02,-2.54391e-01,-9.02832e-02,3.15227e-01,1.31683e-01,1.32981e-01,-3.89142e-01,1.19109e-01,-2.40182e-01,-5.66865e-02,-9.19921e-02,4.98767e-02,2.46847e-01,-1.38202e-01,3.45283e-02,-8.80467e-02,-2.81445e-01,-3.24424e-01,1.30115e-01,-3.90739e-01,1.19440e-01,3.23906e-01,-5.62650e-02,-3.69694e-02,-1.02036e-01,
7.53443e-01,1.97539e-01,-4.97422e-02,8.27757e-02,3.82314e-02,-5.79529e-02,-1.46727e+00,2.45517e-01,5.01634e-01,-6.65143e-01,7.53293e-01,4.37758e-01,-2.65231e-01,6.19905e-02,-6.26604e-01,2.54361e-01,5.27947e-01,4.36151e-01,2.02566e-01,-2.22374e-01,1.28933e+00,-6.06603e-01,1.71379e-01,-3.04507e-02,-1.05003e-01,
-3.91237e-01,1.05351e-01,-1.79111e-01,2.98989e-01,-1.04324e-01,1.33208e-02,-1.04850e+00,2.81590e-01,-1.39277e-01,1.24269e-01,-4.62435e-01,7.10803e-01,4.09839e-01,-5.50143e-02,-8.16304e-02,-1.51115e-01,4.52479e-02,1.54740e-02,1.43568e-01,-2.33628e-02,-4.79512e-01,-7.78036e-02,-4.54482e-01,1.47151e-01,1.30059e-02,
-5.70549e-01,3.75382e-01,-8.59978e-02,8.16828e-02,5.10222e-02,3.07467e-01,7.12972e-01,-7.23830e-02,-3.61342e-02,6.90934e-02,1.29875e-01,-5.19389e-01,5.86266e-02,9.76796e-02,-2.20126e-01,1.57979e-02,-4.52432e-01,-5.75806e-01,3.60170e-01,7.96682e-01,-5.54634e-01,7.34066e-01,1.26057e-01,7.26056e-01,-2.43042e-01,
-1.01239e-01,2.33761e-01,2.98841e-01,3.92336e-02,-2.46366e-01,1.43888e-01,3.30969e-01,3.01406e-01,1.91310e-01,1.86139e-01,2.12844e-01,-2.90508e-01,-1.54022e-01,3.18284e-01,2.47074e-01,-1.15139e-01,-3.79109e-02,-4.56994e-02,3.75785e-01,-3.92887e-02,1.71052e-01,-1.77813e-02,2.72143e-01,2.90920e-01,-7.45504e-02,
4.19694e-01,2.61342e-01,1.34636e-01,-9.37656e-03,-1.20965e-01,1.02556e-01,1.00685e-01,3.39060e-02,-3.29882e-01,1.90091e-01,3.34194e-01,8.58465e-02,-1.50903e-02,-2.97645e-02,-2.49625e-01,-7.80246e-02,-1.20135e-01,5.38901e-02,8.71729e-02,1.44940e-01,1.86334e-01,4.41343e-01,8.42638e-02,2.30658e-01,-6.73442e-02,
-4.23886e-01,1.87538e-01,-1.56421e-01,3.44523e-01,4.14559e-01,-3.54041e-01,-1.57737e-01,-3.97393e-02,-6.47599e-02,-7.68490e-02,-1.82485e-01,3.91196e-01,1.12333e-01,-2.29365e-01,-3.33994e-01,-3.89231e-01,-3.72947e-01,3.94464e-01,-2.31917e-01,4.06121e-02,3.42238e-01,-1.24312e-01,3.51499e-01,-2.04977e-02,4.03323e-01,
-1.22987e+00,3.11287e-01,-2.67942e-01,1.02719e-01,2.69271e-01,3.75817e-01,1.11229e+00,-3.74704e-02,-2.64030e-01,3.02041e-01,-3.66032e-01,-5.08290e-01,2.23530e-01,-3.26271e-01,6.95627e-01,4.36614e-01,-5.39382e-01,-5.62679e-01,-3.75744e-01,4.62628e-01,-1.12494e+00,5.18806e-01,-8.26173e-02,2.12175e-01,6.51473e-02,
-3.38027e-01,8.58879e-02,-3.90212e-01,-1.35897e-01,8.11046e-02,7.61934e-02,-7.55358e-01,-1.91727e-01,2.54501e-01,-1.38722e-01,-1.73868e-02,7.31357e-02,-1.35755e-02,-3.84685e-01,-1.57212e-01,-1.40232e-01,6.31786e-02,4.61702e-01,-5.50311e-01,-2.69679e-01,5.74679e-02,-3.54660e-01,1.61736e-01,-4.10750e-01,1.61585e-03,
3.52460e-03,2.97068e-01,-2.74906e-01,-2.73750e-03,-1.56064e-01,-5.15706e-02,-2.69885e-01,-1.76357e-01,-1.43936e-01,7.85566e-02,-4.58885e-02,-1.10517e-01,-1.91980e-01,3.79227e-02,2.58211e-01,-2.85070e-01,5.35359e-02,-1.99250e-01,2.21633e-02,-3.01991e-01,1.21216e-01,1.79391e-01,-2.31334e-01,-3.64055e-01,1.92168e-01,
3.03588e-01,1.27126e-01,1.28301e-01,-3.12238e-01,6.98062e-02,1.94596e-02,-9.00880e-01,-7.06388e-02,5.72454e-01,-4.26497e-01,2.22330e-01,1.53277e-03,5.69468e-01,-3.92815e-01,2.42904e-02,-4.80735e-01,6.28221e-01,5.32583e-01,-4.69475e-01,-1.14045e+00,7.56893e-01,-9.85613e-01,-1.83839e-01,-1.05762e+00,3.71913e-01,
-3.57419e-01,-4.00645e-01,-3.39925e-01,2.31882e-01,-2.76293e-01,3.81757e-01,-6.35702e-02,-4.07406e-01,-1.60767e-01,-6.42482e-02,-9.31535e-02,-4.59702e-01,3.64402e-01,1.96245e-01,3.49317e-01,-2.87178e-01,4.33791e-01,-2.29557e-01,-3.61147e-01,1.80445e-01,-7.06723e-02,-5.29734e-02,2.12284e-01,-5.44933e-01,-1.94380e-01,
1.46158e-01,-3.26684e-01,9.41714e-02,2.34627e-01,-1.05112e-01,1.80412e-01,4.80474e-01,-1.00997e-01,1.17709e-01,-2.68818e-01,6.37985e-02,1.31828e-01,-3.20574e-01,-1.36668e-01,1.26149e-01,3.96468e-01,1.57247e-01,5.36114e-01,1.99969e-01,-1.54828e-01,4.08847e-01,-4.13264e-02,1.83759e-01,3.54596e-02,-2.41333e-01,
-1.55789e-01,-3.32603e-02,-1.02821e-01,3.19577e-01,1.34486e-01,1.89431e-01,-2.52603e-01,1.58218e-01,3.03468e-02,3.23168e-01,-1.47325e-01,2.34348e-01,3.19156e-01,-3.46684e-01,1.08453e-01,-4.30767e-01,1.70657e-01,-5.62534e-02,-2.47667e-01,-4.75499e-01,-1.55217e-01,-1.51813e-01,-1.49679e-01,2.20489e-02,1.64740e-01,
-7.37360e-02,-9.72032e-02,5.39632e-02,1.65739e-01,-2.67572e-01,-3.09243e-01,4.00344e-01,1.00981e-01,-3.35804e-01,3.21531e-02,-2.31136e-01,-6.60680e-02,-2.82221e-01,-6.98915e-03,-2.49020e-01,-7.55008e-02,-1.75285e-01,-1.96694e-01,-2.52488e-01,-8.91657e-02,4.85452e-02,1.19217e-01,3.50085e-01,-1.43874e-01,-3.74117e-02,
-7.20987e-02,4.27931e-02,1.60616e-01,-1.49988e-01,-1.54897e-01,-2.22914e-01,5.05641e-01,-2.24599e-02,9.48280e-02,-1.42173e-01,-2.92715e-01,-1.93151e-01,-6.18017e-02,-1.02537e-01,-1.29272e-01,-2.06586e-01,-2.74738e-01,-6.81435e-02,-5.89160e-02,-1.89318e-01,-2.04085e-02,-3.54970e-02,-1.22170e-01,-3.21790e-01,2.29190e-01,
-1.68201e+00,-1.70555e-02,8.43253e-02,3.11252e-01,-2.13413e-01,-7.77268e-02,-3.63650e+00,4.68569e-01,5.30283e-02,3.84793e-01,-3.09580e-01,1.22976e+00,-1.76627e-01,-6.86523e-01,-1.01381e-01,-3.56829e-01,-4.91055e-01,-1.08453e-01,-2.22224e-01,-1.76346e-01,-7.70210e-01,-1.45364e-01,-4.49722e-01,4.75278e-01,-2.98804e-01,
-6.59264e-02,-1.73317e-01,1.19993e-01,-1.82668e-01,3.29846e-02,-9.24457e-02,-2.66172e-01,-2.02990e-01,1.70786e-01,-1.82028e-01,1.06228e-01,1.07710e-01,4.82180e-02,-2.16559e-01,-3.79463e-01,2.44534e-01,1.49504e-01,-3.65600e-01,-5.91447e-02,1.53779e-02,3.56888e-02,4.07230e-01,5.54084e-03,-3.35116e-01,1.25918e-02,
3.11355e-01,3.15830e-01,-2.90418e-01,1.65009e-01,1.46806e-01,4.63186e-02,4.67699e-02,-2.44448e-01,1.96141e-01,-3.18667e-01,4.45598e-01,1.09505e-01,9.03536e-02,2.44205e-01,-4.22958e-01,2.55094e-01,3.55843e-01,-1.47732e-01,-2.06621e-01,-3.58813e-02,-9.45187e-02,2.63060e-01,1.51991e-01,1.33208e-01,-6.70005e-02,
6.20539e-02,2.42479e-01,2.59437e-01,2.60379e-01,-1.65185e-01,-3.23370e-01,1.56660e-01,1.75627e-01,1.62612e-01,-3.25455e-01,-1.96312e-01,-2.71410e-01,2.48149e-01,3.12413e-01,1.98483e-01,-1.09792e-01,-7.59185e-02,-1.14281e-01,-2.23578e-02,3.35848e-01,-2.86536e-01,3.46848e-01,-2.74085e-01,1.75675e-01,-6.87778e-02,
8.64910e-02,-3.70535e-01,-1.01857e-01,-8.00519e-02,2.65726e-01,1.20873e-01,3.18790e-01,-2.75459e-01,7.69452e-03,-3.35371e-01,2.51675e-01,-4.45837e-01,2.98962e-01,1.96425e-01,-7.23570e-02,-1.14942e-01,-9.60611e-02,1.41442e-01,4.39682e-01,5.01962e-01,3.09299e-02,-1.15966e-01,2.65342e-01,-1.64131e-01,1.51645e-01,
2.35539e-01,1.35921e-01,1.89990e-01,-5.17579e-03,1.82435e-01,3.59737e-01,-2.49540e-01,4.45926e-03,-6.20677e-02,1.53629e-01,-4.24781e-02,-1.37286e-01,-2.55810e-01,-5.80040e-02,3.32766e-01,1.95553e-01,2.57910e-02,2.76288e-02,2.07215e-01,-2.23746e-01,2.71434e-01,-3.03004e-01,-1.40079e-01,2.00183e-01,-2.36142e-01,
2.14446e-01,-1.52981e-02,3.01129e-02,-1.36488e-02,5.50995e-02,-9.52034e-02,6.29888e-02,-3.32218e-02,2.98260e-01,-8.49016e-02,-1.11565e-01,-5.08221e-02,-1.05138e-01,1.31370e-01,1.09954e-01,1.65316e-01,3.34354e-02,-1.03064e-01,1.04963e-01,-1.07849e-01,4.91864e-02,-1.68003e-01,1.82203e-01,-4.09634e-01,-2.69311e-01,
3.65046e-01,-2.02023e-01,-3.63554e-01,3.23746e-01,1.95246e-01,3.65253e-02,-1.52973e-01,-3.24412e-03,-4.80486e-02,2.10957e-01,-7.30650e-02,3.17218e-01,-2.76147e-01,2.32842e-01,-2.83054e-01,-1.95990e-01,2.51331e-01,1.92174e-01,8.92821e-02,1.73788e-01,8.60700e-02,-3.22851e-01,1.45125e-01,1.67676e-01,2.53706e-01,
8.51514e-01,-4.24321e-01,-1.76455e-01,-7.94959e-03,-2.46600e-01,5.26622e-01,3.15856e+00,-1.03263e+00,-9.09499e-02,-1.18121e-01,-5.75004e-01,-1.54639e+00,5.04581e-01,-2.65956e-01,7.38457e-02,-3.52568e-01,5.14265e-01,-1.68265e-02,1.15904e-01,-1.97772e-01,2.66521e-01,2.05124e-01,2.62856e-01,-1.32882e+00,4.96033e-01,
1.39021e-02,
3.21698e-01,
6.59433e-02,
-4.85141e-03,
4.36480e-02,
-3.15401e-01,
7.31505e-02,
3.67104e-01,
-3.68209e-01,
-2.80807e-01,
4.15111e-02,
-1.90601e-01,
-2.93062e-01,
-2.83094e-01,
9.89421e-02,
9.09781e-02,
4.70054e-02,
-1.74382e-02,
3.44330e-02,
3.12090e-01,
-5.17630e-02,
-2.59209e-01,
2.65632e-01,
-1.36029e-01,
2.56921e-01,
-1.21665e-01,1.18033e-01,-4.26766e-01,-1.27787e-01,-1.78901e-01,-1.35520e-01,-3.01171e-01,3.64968e-02,-2.74751e-01,-4.17909e-01,-2.63813e-01,-4.48992e-01,7.74188e-02,-1.62360e-01,-2.81947e-01,1.10050e-01,-8.49776e-02,-9.00349e-02,7.10313e-02,2.40879e-01,-7.63740e-02,-6.66602e-03,2.83912e-01,-3.12496e-03,-5.79955e-01,
-1.24382e-01,-2.72429e-01,-7.94142e-01,4.49250e-02,1.21084e-01,-2.01134e-01,-3.41485e-01,-1.27644e-01,-1.72687e-01,-2.45884e-01,-2.77403e-01,-2.27379e-01,-2.01117e-01,-1.92672e-01,-3.64421e-02,-4.12095e-01,-7.79056e-01,-1.25003e-01,2.48461e-01,-1.15921e-01,3.23210e-02,2.10715e-01,-3.95832e-01,3.42041e-01,-1.63978e-01,
-4.89441e-02,-7.12191e-02,-1.67684e-01,-6.40465e-02,9.36742e-03,2.53633e-02,-2.87150e-01,-3.37737e-02,-2.19564e-01,7.67819e-05,-2.51932e-01,-3.16142e-01,8.01918e-02,-1.14452e-01,-3.54700e-01,1.99107e-01,-7.67814e-02,-6.27681e-03,-4.60237e-02,-2.45604e-02,3.53381e-02,-2.29692e-01,-5.40595e-02,-3.12521e-01,-4.13600e-02,
-2.17168e-01,-2.03096e-01,1.27843e-01,-2.86038e-01,-3.11810e-01,-2.91352e-01,-1.62975e-01,-1.54902e-01,3.21738e-01,-1.72371e-01,-4.75531e-02,8.02647e-02,7.72769e-02,-1.41737e-01,-1.04091e-01,2.01941e-01,-8.37275e-01,-4.30658e-03,-4.07095e-01,-2.32794e-01,1.87237e-01,-7.80685e-02,3.86801e-01,-2.25147e-01,6.17861e-02,
-8.09911e-02,-1.95723e-01,-6.15498e-01,-2.56048e-01,8.37964e-02,-1.98481e-01,-4.04025e-01,-1.90957e-01,-7.29118e-02,-2.66969e-01,6.55856e-01,-7.00898e-03,2.33372e-01,-3.71723e-01,2.36111e-02,-9.00419e-02,-7.81947e-01,3.33518e-01,1.24524e-01,-2.87133e-01,-5.11382e-02,-2.47313e-02,2.61341e-01,-1.34007e-02,3.86249e-01,
-2.95630e-02,1.73599e-01,1.56528e-02,-2.45227e-01,1.77130e-01,-1.05411e-01,2.04599e-02,-3.92434e-02,-9.39649e-02,-2.37242e-01,3.05381e-01,-7.16179e-02,-1.54099e-02,3.51803e-01,-3.95719e-01,-2.94850e-01,3.40868e-01,1.98468e-01,-3.94690e-01,1.18370e-01,-2.08845e-01,-6.64356e-02,-1.18434e-01,1.38564e-01,-2.56791e-01,
1.11448e-01,-5.93414e-02,-1.01642e-01,-2.76276e-01,3.95699e-01,1.66602e-01,-1.43230e-01,2.99030e-01,-2.76363e-01,-1.73136e-01,1.82018e-01,-2.52396e-02,1.07735e-01,2.99291e-02,3.97546e-02,1.63754e-02,-1.32139e-01,3.52663e-02,2.27881e-01,-3.16789e-01,1.64082e-01,-9.50620e-02,8.22340e-02,-1.89461e-01,1.00078e-01,
-1.68228e-01,-1.97180e-01,2.34190e-01,5.04958e-01,3.12834e-02,8.02445e-02,1.04160e-01,2.01309e-01,-2.64676e-01,-2.52708e-01,1.61212e-02,1.35380e-01,-3.19299e-01,1.06193e-01,2.34810e-01,1.31831e-01,-2.01204e-02,1.80747e-01,-1.19983e-01,-2.46257e-01,4.84459e-02,-9.59894e-02,3.12759e-01,-3.26927e-01,-3.83179e-01,
-1.42566e-02,1.90977e-01,5.63873e-01,3.05596e-02,-1.53338e-01,9.34073e-02,2.36668e-01,1.84120e-01,-8.73104e-02,8.45944e-02,2.49368e-01,3.34318e-02,9.19592e-03,-1.39723e-01,-1.97626e-01,2.30733e-01,2.08522e-01,-4.64456e-02,-4.08606e-01,-1.76369e-01,3.16547e-02,1.27553e-01,9.96035e-02,-9.31640e-02,-1.24708e-01,
5.93875e-01,5.66280e-01,-5.68703e-01,5.21123e-01,8.10097e-02,1.99046e-01,1.43094e-01,-1.87208e-01,-8.13291e-01,-1.72744e-01,-3.77869e-01,-3.24307e-01,-2.55601e-01,-4.94324e-02,6.53086e-02,-2.64259e-01,9.10779e-01,1.32097e-01,2.96663e-01,-5.84355e-02,-1.78312e-01,-5.83891e-02,-2.65878e-01,-2.63759e-01,-5.40494e-01,
-8.92241e-02,-2.00320e-01,-2.82626e-01,-2.81017e-01,-1.14328e-01,9.60770e-02,-1.70149e-01,-1.30234e-01,-1.19621e-01,2.47983e-02,3.16799e-01,-6.15577e-02,-3.10304e-01,-9.05439e-02,7.22287e-02,-5.13797e-02,-4.08357e-01,-1.16539e-01,-2.51314e-02,2.74560e-01,6.66182e-02,-1.68846e-01,-1.39065e-01,1.15582e-01,-9.53328e-03,
4.27882e-02,-1.67213e-01,-2.92835e-02,-1.32612e-01,-7.93184e-02,8.55029e-03,1.74760e-01,-2.01582e-01,-8.00221e-02,2.82992e-02,-6.03680e-02,6.96960e-02,-2.29248e-01,-3.30934e-01,-1.57609e-01,7.28353e-02,2.07569e-01,1.80024e-01,4.72101e-02,-9.24719e-02,-9.70359e-02,-1.48177e-01,-6.41798e-02,7.20983e-02,-3.27475e-01,
-3.41132e-01,6.21818e-01,-3.82257e-01,-7.22631e-01,3.48205e-01,-1.80344e-01,-1.48198e-01,-2.04855e+00,-2.70625e-01,-5.03723e-01,8.97808e-01,-3.21099e-01,-7.01339e-03,-4.23123e-01,-3.78783e-01,-4.25491e-01,-1.80376e-01,2.00915e-01,-1.48512e-01,-1.35439e-01,1.91150e-01,3.68269e-01,3.94593e-01,4.06354e-01,-6.21103e-02,
3.89613e-01,2.08673e-01,3.24867e-01,-1.26709e-01,-3.37150e-02,1.88591e-01,5.43410e-01,3.42710e-01,-4.09103e-02,3.78639e-01,-1.39568e-02,-3.88751e-01,-6.80288e-01,4.35659e-01,1.42501e-01,-1.70115e-01,8.24842e-01,-3.87588e-01,-2.02300e-01,-1.64196e-01,-2.11657e-01,2.31824e-01,-6.16079e-01,2.41708e-02,-1.16603e-01,
-5.44323e-02,1.12740e-01,5.49900e-01,8.17957e-02,1.67339e-01,-3.00738e-01,-1.37349e-02,-1.00730e-01,-3.32952e-01,-5.53114e-01,1.16339e-01,-4.23222e-01,-6.60570e-02,-7.57676e-02,2.61585e-01,5.68245e-02,9.35805e-02,1.03960e-01,9.40927e-02,3.01375e-01,1.25582e-03,1.68950e-01,-8.37260e-02,-4.50365e-02,4.09984e-01,
1.90169e-01,-2.33955e-02,-2.33397e-02,1.77681e-01,-3.62054e-01,3.49590e-01,9.26114e-02,-1.22233e-02,1.33719e-02,-1.81358e-01,-8.14896e-01,5.92843e-02,1.16426e-01,1.74011e-02,2.56014e-01,2.74567e-01,-9.62288e-02,-2.31422e-01,1.74839e-01,-1.74498e-01,1.51804e-01,-2.98281e-03,1.40508e-01,-1.41206e-01,4.70938e-01,
3.63061e-01,2.58155e-01,2.35308e-01,-2.75885e-01,1.40561e-01,2.44975e-01,3.65808e-01,-2.30922e-01,-1.49241e-01,-1.11981e-02,3.94660e-01,9.26048e-02,-1.46172e-01,4.02546e-01,-5.73485e-02,3.05538e-02,4.59918e-01,-1.24592e-01,3.46783e-02,-2.06792e-01,2.06288e-02,-1.27488e-01,2.41337e-01,1.77973e-02,-1.73672e-01,
-1.77153e-02,-4.45997e-01,-2.30019e-01,1.86088e-01,3.12197e-01,-2.88026e-01,7.45205e-02,3.58274e-01,3.80874e-02,-7.22116e-02,3.56705e-01,1.76767e-01,4.70754e-01,-4.05682e-01,-4.07199e-02,3.07316e-01,-9.68629e-01,-6.25009e-01,2.03105e-01,-1.41624e-01,-5.34204e-02,-1.35706e-01,1.88876e-01,7.45090e-03,3.52209e-01,
1.12395e-01,-3.86398e-01,-5.29661e-01,-2.34983e-01,3.58140e-01,-9.35382e-02,-1.62272e-01,6.17396e-01,-1.12982e-01,1.68538e-01,-6.63895e-01,2.83757e-01,2.91130e-01,-1.85010e-01,4.07502e-01,2.38699e-02,-1.14888e+00,3.44091e-01,2.82528e-01,1.92161e-01,1.20519e-01,-1.17905e-01,5.97983e-02,1.12809e-01,8.27523e-01,
-8.33105e-03,-1.27806e-01,-1.14622e-01,2.06255e-01,3.10761e-01,1.19190e-01,-2.26701e-02,2.92898e-01,-3.80019e-02,-2.85791e-01,-4.30409e-01,-4.08150e-02,1.41777e-01,1.39141e-01,-1.20414e-01,1.51436e-01,-1.07841e-01,1.50958e-01,1.38349e-01,1.05104e-01,7.62999e-02,8.97884e-02,2.35120e-01,1.26031e-01,1.86148e-01,
4.21980e-01,-5.96395e-01,-5.54611e-01,6.07958e-01,6.64615e-01,1.51989e-01,-7.18246e-01,1.82356e-01,-7.59299e-01,-2.14401e-01,-1.00835e+00,-4.35880e-01,-3.61231e-01,-5.63614e-01,3.05856e-01,-1.28521e-01,8.93327e-01,-2.37566e-01,-2.00339e-01,5.15078e-02,1.27334e-01,1.05119e-01,2.15713e-01,-5.90561e-01,-1.02441e+00,
2.38886e-01,-1.96612e-01,1.62459e-02,9.42509e-02,-1.19751e-01,1.14413e-01,-1.33034e-01,-1.20728e-01,2.60206e-01,8.45633e-02,3.80628e-01,2.84293e-01,-1.13129e-01,4.02520e-03,1.57146e-01,1.31937e-02,-1.87760e-01,1.09174e-01,1.36840e-01,-2.90426e-01,8.36191e-03,2.47490e-01,-7.29761e-02,1.18956e-01,4.78928e-01,
1.01125e-01,-5.15743e-02,1.03100e-01,-1.44016e-01,-1.60942e-01,1.16570e-01,2.16593e-01,2.80944e-01,-1.01410e-01,3.39158e-02,-1.04449e-01,-1.27814e-01,-1.22129e-01,6.01424e-03,3.03202e-01,8.90062e-02,3.28448e-01,7.79258e-02,8.78105e-02,2.69872e-01,5.09084e-02,-2.64721e-01,-1.97352e-01,4.30526e-02,4.43127e-01,
1.98993e-02,-8.49763e-02,1.13752e-01,1.80036e-01,-1.24636e-02,3.62932e-01,4.61975e-02,1.76432e-01,2.02512e-01,-2.00669e-01,1.24861e-01,1.98049e-01,2.31186e-01,-4.15717e-03,-6.66316e-02,1.84624e-01,-2.03836e-02,1.51150e-01,-1.58410e-01,-8.70529e-02,1.18731e-01,1.95940e-03,1.63565e-01,-2.28734e-01,3.12248e-02,
-2.23910e-01,1.20577e-01,-3.15145e-01,1.74742e-02,1.19979e-01,1.35687e-01,-2.99887e-01,-1.61628e-01,-7.09814e-02,-1.07896e-01,-2.38073e-01,-2.79150e-01,1.97232e-01,6.39255e-02,7.93334e-03,-2.49857e-02,-1.69320e-01,3.71151e-01,2.41998e-01,5.25770e-02,7.63612e-02,3.11728e-01,3.25165e-01,1.56285e-01,2.61630e-01,
5.47160e-01,
4.26457e-02,
5.70394e-01,
2.90464e-02,
2.22748e-01,
3.59897e-01,
-3.96342e-01,
2.72501e-01,
-2.02782e-02,
-1.68843e-01,
-4.26179e-02,
3.50177e-01,
-2.39158e-01,
-5.25874e-01,
-9.94463e-02,
-4.15448e-01,
2.47421e-01,
1.36225e-01,
-1.57853e-01,
3.17455e-02,
-7.09193e-02,
-9.51819e-02,
-2.40727e-01,
4.27111e-01,
-1.88040e-02,
-3.48172e-01,1.90782e-01,-1.19342e-01,-2.11761e-01,-1.24464e-01,3.61002e-01,8.55489e-02,6.28037e-02,-4.00798e-01,-9.72843e-02,4.96965e-02,-1.03207e-01,-3.91704e-02,5.46423e-01,2.50018e-01,-1.74292e-01,-3.64936e-01,2.06921e-01,9.50272e-03,3.39050e-01,5.83968e-02,4.22023e-01,2.68507e-01,1.32645e-01,-3.44210e-01,
2.80288e-01,1.13532e-01,-3.09590e-01,6.15327e-02,-4.97833e-02,-2.42075e-01,-1.92967e-01,6.95374e-03,-2.07038e-01,3.42201e-01,-7.15352e-02,-1.65038e-01,2.57704e-02,1.59172e-01,-3.86317e-01,-2.85140e-01,-1.28902e-01,-2.20156e-01,-1.87838e-01,-3.89191e-01,2.45457e-01,8.96732e-02,4.20893e-02,4.55242e-01,-3.83830e-01,
-9.04832e-02,2.59074e-01,1.53643e-01,1.44743e-01,-2.02628e-01,3.29367e-03,3.05435e-02,-1.39088e-01,3.30874e-01,1.98813e-01,2.50433e-02,1.37870e-02,-2.04138e-01,3.01969e-01,3.21226e-01,1.42276e-01,-4.06188e-01,5.07730e-01,-5.20162e-02,-3.22190e-02,5.27538e-01,1.58566e-01,1.12999e-01,-2.03395e-01,1.22313e-01,
3.55558e-01,-1.65497e-02,2.69985e-01,-2.67908e-01,-3.38818e-01,-3.36859e-01,7.02950e-02,3.76116e-02,1.72564e-01,1.18218e-01,-6.26514e-02,-2.11351e-01,3.09957e-01,-2.94773e-01,-1.52813e-03,-1.52637e-01,-1.26379e-01,-1.95500e-01,-1.73768e-01,-2.80094e-01,5.75476e-03,2.18644e-01,1.61828e-01,1.27751e-01,6.92756e-02,
-1.23657e-01,3.50822e-01,1.96563e-01,-1.05096e-01,-2.12149e-01,-9.38840e-02,-2.95831e-01,5.36110e-02,8.94802e-02,7.15909e-04,-6.05234e-02,2.01087e-01,2.32622e-01,8.60188e-02,4.78419e-02,-3.78238e-01,-1.73348e-01,-2.03432e-01,1.43887e-02,2.37389e-01,-1.58521e-01,-7.91083e-02,1.76560e-01,-4.79699e-01,-2.97197e-02,
3.36167e-01,1.70885e-01,-1.70582e-02,-3.78922e-01,9.36341e-02,6.42566e-01,-1.47358e-01,1.80936e-01,2.52194e-01,-4.99422e-02,-3.12273e-01,1.93604e-01,-3.66810e-01,-1.04766e-01,-1.91275e-01,-1.47319e-01,-1.90415e-01,-1.35568e-01,1.78878e-02,-1.62589e-01,2.10123e-03,-2.55744e-01,2.31133e-01,-3.36958e-01,4.06903e-02,
4.36601e-01,-4.37605e-02,-4.13179e-01,-1.02498e-01,-4.13315e-01,2.00984e-01,2.72997e-01,-9.59162e-02,-1.28860e-02,1.14455e-01,7.42959e-02,-8.92489e-02,7.95883e-01,-2.73749e-01,-5.92442e-01,-3.56155e-01,2.40461e-01,-3.17656e-02,-5.35693e-01,-4.16117e-01,-1.76793e-01,9.86046e-03,-9.68056e-03,-3.47949e-01,-5.39460e-02,
-5.71145e-02,-1.81821e-01,-1.98111e-01,1.35117e-01,1.80114e-01,-3.37152e-02,6.41016e-02,2.64074e-01,1.49246e-01,-1.62915e-01,5.47909e-02,-8.46258e-02,4.92814e-01,-1.48551e-01,-1.06689e-01,-1.38525e-01,1.30446e-01,1.37057e-01,-1.44667e-01,-1.35910e-01,-6.74721e-01,1.64046e-01,-2.48178e-02,-1.22643e-01,-4.62312e-01,
-8.16374e-03,-2.72963e-01,1.74415e-01,1.11542e-01,-2.19239e-01,7.87015e-02,-5.50287e-03,-3.98884e-02,1.72146e-01,1.34611e-02,-7.89412e-03,5.60238e-02,8.37934e-02,3.08770e-01,1.77660e-01,1.04019e-01,-2.37359e-01,-2.16233e-01,-8.86319e-02,1.19892e-02,1.95948e-01,-3.87052e-02,-8.92508e-02,2.00799e-01,-2.55534e-02,
8.42646e-02,1.15885e-01,-4.43540e-02,1.93029e-01,1.44767e-01,-3.88761e-03,-1.96864e-01,-1.12019e-01,2.35867e-01,2.85002e-01,1.51885e-01,-1.58505e-01,-2.01276e-01,2.93257e-01,-3.78915e-01,-1.83228e-02,-5.54601e-03,-2.36924e-01,-2.72732e-02,3.98136e-01,-1.65094e-01,3.08152e-01,-8.76444e-02,-8.86112e-02,2.01198e-01,
1.81849e-02,8.89427e-02,1.55322e-01,-2.46309e-01,3.52286e-01,1.74477e-01,-1.77885e-01,2.59657e-01,-2.57030e-01,-3.40923e-01,-9.37698e-02,9.45895e-02,8.64593e-02,-1.65332e-01,2.47837e-01,3.19206e-01,-1.58404e-01,-1.90097e-01,3.55570e-01,-7.45714e-02,1.05922e-01,-1.06603e-02,-4.43145e-01,-5.17363e-01,5.24814e-01,
-6.41911e-02,1.55741e-01,-2.77721e-01,2.92151e-01,2.35144e-02,-7.38199e-02,-3.48354e-01,3.31355e-01,-4.71989e-01,-8.40787e-02,1.71934e-01,4.98906e-02,-1.45841e-01,-6.59002e-02,3.90384e-02,-4.97503e-02,-7.69431e-02,2.20094e-01,2.65598e-01,-6.64402e-02,5.43025e-02,-8.65391e-02,-1.14400e-01,1.28858e-01,4.15498e-01,
3.48627e-01,-3.41730e-01,-2.85093e-01,1.92204e-01,-2.44716e-01,-1.12059e-01,-2.06630e-01,-6.24150e-02,-2.03359e-01,5.43255e-01,3.05367e-01,-1.15794e-01,-1.15505e-02,3.22402e-01,-3.43480e-01,-1.47722e-01,4.57629e-01,-1.12960e-01,-2.03191e-01,-3.90421e-01,-1.01054e-02,4.33755e-01,-5.95665e-03,2.38896e-01,7.86562e-02,
-4.77081e-01,-6.18387e-02,-5.38704e-01,1.33726e-01,1.38991e-01,-9.50589e-02,-6.56971e-02,-7.69808e-02,-1.34978e-01,-6.69491e-01,1.95850e-01,-1.40155e-01,2.53755e-01,7.40254e-01,6.23522e-02,3.97750e-01,-7.94683e-02,3.41609e-01,5.65827e-01,-2.94222e-01,-6.03394e-01,2.06948e-01,2.64085e-01,-3.28205e-01,2.52725e-01,
1.71054e-01,1.21879e-01,-1.76045e-01,6.87679e-01,-3.05114e-01,1.72358e-01,-5.90063e-02,3.70274e-01,1.85419e-01,3.98113e-01,-1.96495e-01,-1.90256e-01,-3.99393e-01,1.98077e-01,-8.58484e-02,-3.60073e-01,-1.95300e-01,2.76204e-02,-1.53885e-01,-4.05722e-01,8.85758e-02,2.94749e-01,1.44654e-01,-4.55117e-02,-4.22349e-01,
3.00891e-01,-4.86103e-01,-1.79043e-01,-5.77779e-01,1.85562e-01,1.62301e-01,5.64389e-01,3.16147e-01,2.24790e-01,-4.19394e-01,3.42320e-01,-8.70824e-02,-4.86320e-01,6.85242e-01,9.93950e-02,-8.72072e-02,3.88581e-01,-3.74025e-01,-2.69079e-01,8.93707e-02,-6.01849e-01,-1.09934e-01,-2.79097e-01,5.56672e-01,-3.78552e-01,
-1.08557e-01,3.04732e-02,2.60302e-01,-1.51166e-01,1.32800e-01,1.26320e-01,-2.18479e-01,3.03005e-01,1.35749e-01,1.99388e-01,-3.45639e-02,-3.71481e-01,2.26787e-01,5.03736e-01,-1.26912e-01,2.60638e-01,3.98529e-01,8.17092e-02,-2.43263e-01,1.04221e-01,-2.86027e-01,-2.55684e-01,2.30882e-01,2.47073e-02,-2.20492e-01,
1.66964e-01,-3.36827e-01,3.26404e-01,2.30921e-01,-3.98824e-01,3.81761e-01,-2.11424e-01,-9.35216e-03,-2.38880e-02,4.62008e-01,-1.70416e-01,-1.07014e-02,-2.96183e-01,1.28723e-01,3.15450e-01,4.10750e-02,-3.60574e-01,-6.56961e-02,2.48120e-01,1.40084e-01,2.56804e-01,1.98297e-01,5.52152e-02,5.09522e-01,-3.05092e-01,
-3.05102e-01,-7.28582e-03,3.42699e-01,3.11130e-01,-3.10164e-01,1.50850e-02,-1.11750e-01,-2.22152e-01,3.59535e-01,6.45300e-02,-1.73899e-01,2.78983e-01,-4.52282e-01,1.57935e-01,5.58733e-02,-2.59482e-01,1.88632e-02,2.70464e-01,3.20849e-01,3.13692e-01,-3.50327e-01,1.76659e-01,6.84560e-02,-8.77664e-04,3.20631e-02,
1.38716e-01,-1.48975e-01,-3.76190e-01,-1.30292e-01,2.19186e-01,-1.30317e-01,2.21083e-02,-8.62196e-02,1.91252e-01,-2.25737e-01,1.12580e-01,1.58941e-01,3.00133e-01,4.17853e-02,-1.63070e-01,-1.68158e-01,7.98303e-02,-5.97131e-02,1.54835e-01,1.27269e-01,2.37117e-01,-3.08921e-01,2.45148e-01,3.31608e-01,-3.98118e-01,
1.84279e-01,-1.07732e-01,1.74222e-01,-2.16135e-01,-1.44987e-01,-2.83020e-01,1.68132e-01,1.45215e-01,2.99273e-01,3.16918e-01,1.87790e-01,1.18325e-01,5.34738e-02,1.09889e-01,2.34233e-01,2.95222e-01,-1.02383e-01,3.62375e-01,3.28762e-01,3.16816e-01,-1.70622e-01,1.91057e-01,1.40472e-01,1.91884e-02,-2.01776e-01,
2.85541e-01,-2.95046e-01,-2.20732e-01,1.31309e-01,-8.40963e-02,-2.99316e-01,2.17330e-01,-1.88895e-02,-1.17708e-01,-9.62002e-02,2.59507e-01,-3.84168e-01,2.24476e-02,1.58830e-01,2.02020e-02,-3.08154e-02,5.34473e-02,-3.66104e-01,-2.50557e-01,-2.31244e-01,-2.93680e-01,-1.71680e-01,6.85928e-02,-2.60285e-01,-2.94612e-01,
-2.30208e-01,-3.19280e-01,5.67763e-02,4.30289e-02,-2.51747e-01,-1.33997e-01,2.78169e-01,-2.04426e-01,-2.10326e-01,7.37138e-02,-1.64481e-01,-3.13792e-01,6.01579e-02,-9.44980e-02,-9.01465e-03,-1.36946e-01,1.00672e-01,1.11199e-01,-9.76455e-02,2.85805e-01,1.93298e-01,-2.96160e-01,-1.96053e-02,-3.16670e-01,-9.78294e-02,
1.74334e-02,-4.78756e-01,9.53612e-02,-3.99827e-01,1.23972e-01,-4.40225e-01,-2.22281e-01,1.25038e-03,1.87061e-01,3.96161e-03,-3.30616e-01,9.40215e-02,-2.63354e-01,1.38187e-01,9.63967e-02,5.74520e-02,-3.84369e-01,-1.87913e-01,3.38571e-01,2.57964e-01,-9.43861e-02,-4.08290e-01,-3.39345e-02,-2.52198e-02,3.32616e-02,
-1.04345e-01,5.43495e-02,-7.49532e-02,4.29779e-01,-2.13565e-01,-1.81864e-01,-1.59540e-01,-1.29642e-01,1.84838e-01,2.06066e-02,-2.99472e-01,3.19436e-01,-4.03804e-01,2.75758e-01,1.63981e-01,-3.07195e-01,-1.43516e-01,1.69392e-01,4.65301e-01,-1.17471e-01,-2.19763e-01,-8.18031e-02,6.50254e-02,2.86654e-01,1.29246e-01,
2.01081e-01,
8.85023e-02,
-2.04693e-01,
5.79392e-01,
-3.75612e-01,
-1.74913e-01,
-4.90577e-01,
1.48162e-01,
-1.67990e-01,
-5.08410e-02,
-1.44950e-01,
2.57082e-01,
1.68376e-01,
-2.15719e-01,
-1.03489e-01,
2.75698e-01,
-9.72302e-02,
1.30658e-01,
4.24830e-01,
-3.05105e-01,
1.72997e-01,
7.93045e-02,
-3.59129e-01,
-1.31894e-01,
3.04091e-01,
-2.67561e-01,1.61844e-01,2.73057e-02,1.01250e-01,-1.77743e-02,-3.65970e-02,9.89862e-02,-2.54584e-01,-7.43836e-02,8.32308e-02,1.90187e-01,1.07425e-01,1.21877e-01,2.91498e-01,2.34997e-02,3.86115e-01,1.62679e-01,2.52238e-01,-3.62518e-02,1.47113e-01,2.13347e-01,-1.58794e-01,6.02357e-02,-1.33339e-01,2.31883e-01,
2.71684e-01,-3.18885e-01,1.46611e-04,7.56442e-02,-2.03650e-01,-5.64147e-03,6.10538e-01,4.24108e-01,1.38761e-01,4.32428e-02,-2.97707e-01,2.78653e-01,5.94216e-01,4.52395e-01,-3.26868e-01,-7.07949e-03,-2.18615e-01,4.56568e-02,-2.08889e-02,5.31531e-02,3.48271e-02,7.43975e-02,-1.01670e-01,9.27995e-02,2.65656e-01,
4.02343e-01,-1.76419e-01,3.08340e-01,-2.44093e-01,-1.04740e-01,1.51550e-01,-2.43593e-01,-2.31798e-01,2.64407e-01,9.35003e-02,-1.78325e-01,1.10921e-01,-8.88492e-02,3.36912e-01,2.28541e-01,1.34061e-01,-3.11254e-01,3.38246e-01,-2.73406e-01,-5.28478e-01,3.93657e-01,-2.46834e-02,-6.53692e-02,-5.25661e-01,-1.37215e-01,
2.11995e-01,1.38230e-01,-2.13496e-02,-1.76381e-01,-9.04698e-02,3.55038e-01,-5.04324e-01,-7.97592e-02,6.35795e-03,1.07351e-01,2.62905e-01,2.04279e-01,-3.88683e-01,3.30032e-01,5.50351e-01,1.28221e-01,2.42464e-01,2.95925e-01,-5.18977e-01,1.29623e-01,-2.01947e-01,3.82712e-02,3.55580e-01,5.31522e-01,3.60655e-01,
2.14367e-01,3.05078e-01,-1.52850e-01,-2.29431e-02,2.28843e-02,1.33280e-01,-1.64016e-01,1.35414e-01,9.40535e-02,-2.83169e-01,1.57436e-01,1.36829e-01,6.13568e-02,-7.16977e-02,3.23793e-01,-3.72727e-01,1.29580e-01,1.51067e-01,-7.10440e-03,2.38662e-01,2.85097e-01,-2.56760e-01,-9.70522e-02,-4.40813e-02,-5.91235e-01,
-3.47718e-02,1.89705e-01,-7.37507e-02,5.96643e-01,1.53716e-01,9.22344e-02,6.70917e-01,-3.39103e-01,-1.72240e-01,-9.70329e-02,-6.69057e-02,5.43254e-02,2.21399e-01,-5.32451e-01,3.82854e-01,-4.69321e-02,-3.08315e-01,3.66523e-01,-2.73786e-01,2.88329e-02,-8.24608e-03,-3.96776e-01,2.08442e-01,-3.80712e-01,2.62063e-01,
-2.35334e-01,-7.82663e-02,2.69738e-02,3.27538e-01,2.50264e-01,-1.26480e-01,-6.75592e-02,4.36799e-02,2.81909e-01,4.33053e-02,-2.13770e-01,-1.43613e-01,2.01905e-01,3.98889e-03,1.25355e-01,-2.52622e-02,-2.03531e-01,6.89329e-02,-8.20533e-02,2.91047e-02,3.39619e-01,-2.31081e-01,3.33863e-01,-2.63596e-01,4.04694e-02,
-7.53257e-02,-1.49429e-01,9.45414e-02,-4.28849e-02,8.66302e-02,-1.25623e-01,1.71887e-01,-5.96411e-02,-1.42848e-01,-3.73978e-01,-2.48348e-01,1.48795e-01,-3.11817e-01,2.53048e-01,3.88036e-02,-3.10089e-01,1.56742e-01,-4.48608e-02,-1.56690e-01,9.81906e-02,1.54545e-02,-4.05377e-01,-3.64579e-01,2.26503e-01,1.21019e-01,
1.84617e-01,-3.84087e-01,1.49511e-02,-6.97206e-01,1.06926e-01,7.31248e-02,-3.43737e-02,-1.83015e-01,1.88481e-01,2.50146e-01,-6.16061e-02,-7.39302e-02,2.74024e-02,6.78908e-02,-3.74392e-01,1.28664e-01,7.48369e-02,-1.77316e-01,-9.52071e-02,2.21400e-01,-5.59336e-02,1.61993e-01,9.49141e-02,-1.62802e-01,2.63931e-01,
1.36602e-01,2.51495e-01,-2.33111e-01,8.80900e-02,-1.38747e-01,1.76888e-01,1.44587e-01,1.07583e-01,6.53719e-02,-2.44837e-01,-1.25006e-01,3.87737e-01,-7.93281e-02,-2.28095e-01,-3.05889e-01,-1.20678e-01,2.65189e-01,-3.52892e-01,-1.71459e-01,-2.14219e-01,7.02814e-02,3.03344e-02,2.10116e-01,5.93821e-02,2.76439e-01,
-1.92607e-01,-5.92824e-02,1.68246e-01,-1.90134e-01,1.16556e-01,-2.80511e-02,3.29531e-01,-7.83961e-02,2.70501e-03,2.19577e-01,2.19181e-01,2.32857e-01,3.12724e-01,2.30165e-01,1.27038e-01,2.79503e-02,-1.33881e-01,2.88468e-02,6.49005e-02,-2.21408e-02,-2.10602e-02,1.66636e-01,1.30186e-01,2.95348e-01,-4.88766e-02,
-2.22328e-02,-3.16564e-02,-1.32296e-02,-3.09812e-02,-4.57109e-01,1.86239e-01,1.59741e-01,9.77953e-02,2.49761e-01,2.71541e-02,6.93407e-02,1.50277e-01,-3.25219e-01,2.17898e-01,-1.68176e-01,2.22974e-01,-2.09779e-02,1.41090e-01,2.61815e-01,-2.62571e-01,-7.65578e-02,2.62843e-02,4.59443e-01,1.16681e-02,4.43508e-01,
-4.46264e-02,-2.53970e-01,-8.50039e-02,-2.29862e-01,-4.01977e-01,-1.79906e-01,7.36708e-02,2.63955e-02,1.77563e-01,2.10713e-01,-4.90673e-02,-2.09147e-01,-2.75479e-01,-1.07652e-01,-1.55006e-01,1.09955e-01,1.44529e-02,2.51200e-01,-3.56101e-01,-3.98103e-02,1.71551e-01,9.65554e-02,2.52905e-01,-3.04018e-01,1.03877e-01,
3.81500e-02,2.57352e-01,3.00364e-01,-2.38776e-02,-2.71499e-01,4.03006e-01,-1.09293e-01,1.20370e-02,1.52373e-03,4.24044e-02,1.75516e-01,-2.55140e-02,-9.08400e-02,-1.58494e-02,-8.93627e-03,4.77054e-02,-6.70755e-02,3.25613e-01,-4.84365e-02,1.09295e-01,9.03791e-02,-1.52605e-01,1.05496e-01,-2.07887e-01,-2.76583e-01,
5.48406e-02,9.02148e-02,-2.59276e-01,5.52890e-02,2.18707e-01,-2.39741e-01,-9.22068e-02,-1.27281e-01,6.83893e-02,-2.30125e-01,2.79044e-01,-3.17497e-01,-7.33833e-02,9.23206e-02,-1.06788e-01,9.67908e-02,4.61357e-02,1.64413e-01,-9.30473e-02,2.70399e-01,9.90029e-02,-3.28266e-02,-1.02453e-01,-3.77083e-01,2.88098e-01,
-2.99220e-01,4.79797e-02,2.06971e-01,8.76600e-03,3.82066e-01,-2.51547e-01,-3.03346e-01,2.76707e-01,2.37848e-02,7.60703e-02,-8.63518e-02,7.49699e-02,7.95733e-03,-4.81515e-01,-5.26041e-02,2.07895e-01,3.46552e-01,-2.94951e-01,2.57968e-01,-4.56717e-02,-8.52279e-02,-8.35786e-02,-3.85553e-01,2.26956e-01,-3.55644e-01,
-1.42400e-01,-7.38968e-02,-3.24030e-01,-1.45441e-01,-3.25278e-01,-2.26451e-01,-1.51591e-01,-5.51954e-01,-1.27821e-02,-3.77245e-01,-1.81506e-01,-2.76893e-01,-3.82400e-01,5.28672e-01,-4.57064e-01,-1.29043e-01,-2.14844e-01,-1.39672e-01,1.35867e-01,-2.98215e-01,-8.93620e-02,3.62295e-01,-2.82205e-02,-5.23574e-01,1.50220e-01,
6.98230e-02,8.18685e-02,-2.07346e-01,-2.29479e-02,-3.96461e-01,-1.58680e-03,3.83359e-02,-1.58455e-01,2.04646e-01,-2.42747e-02,1.63802e-01,-6.94605e-03,1.87242e-01,-1.27143e-01,7.23330e-02,-2.29395e-01,2.07626e-01,2.19755e-02,3.09684e-01,3.70553e-01,-3.64017e-01,-1.12377e-01,1.90726e-01,2.48810e-01,-3.17798e-01,
-1.22421e-01,-2.50923e-01,4.99378e-02,1.45337e-01,3.78475e-02,-4.97640e-01,-3.16557e-01,1.55773e-01,-4.02291e-01,-6.49007e-02,4.30561e-01,2.32786e-01,2.59243e-01,6.99236e-03,3.33424e-02,-3.40696e-01,1.09077e-01,2.58097e-01,6.08668e-01,4.50478e-01,7.20177e-02,-1.07885e-01,-2.35571e-01,-5.41103e-02,-2.59862e-01,
-5.04556e-01,-4.15954e-01,5.80236e-02,5.14380e-01,8.26157e-02,-5.46909e-01,2.35474e-01,-5.65111e-01,-2.05618e-01,-3.68693e-01,-2.46432e-01,1.09110e-01,4.64835e-02,1.14502e-01,7.08898e-02,-6.34634e-01,-1.56728e-01,-2.42566e-01,3.68540e-03,1.86609e-01,5.24719e-01,-2.80203e-01,2.37557e-01,-3.72230e-01,-4.05510e-01,
-2.09639e-01,7.63482e-02,2.82522e-01,-7.79464e-03,-3.72251e-02,1.08163e-02,1.72278e-01,-2.86246e-01,-5.95613e-02,-1.81481e-01,2.82777e-01,-1.81539e-01,1.25602e-01,-2.04060e-02,1.20360e-01,-4.23960e-02,-1.70895e-01,2.59314e-01,2.89103e-01,3.77320e-02,-2.62568e-01,2.65710e-01,-1.75593e-01,1.13386e-01,-1.22589e-01,
3.48241e-02,-3.02854e-01,2.99044e-01,-4.70195e-02,-3.31543e-02,-2.33427e-01,-3.55833e-02,-5.58230e-01,-2.47030e-01,-1.05350e-01,-3.66865e-01,4.04030e-01,-3.22724e-01,8.25273e-01,-3.92332e-01,1.13433e-01,-3.84769e-01,-2.09006e-01,6.98673e-03,-3.05924e-02,8.28898e-02,2.42143e-01,-2.10479e-01,-1.22751e-01,7.17310e-02,
2.33056e-01,-1.37581e-01,-7.31442e-02,-3.24028e-01,-6.30467e-02,2.58382e-01,-7.73206e-02,1.65686e-01,7.09810e-02,-1.91970e-01,1.76373e-01,-1.70020e-01,-1.97059e-01,7.36703e-02,-1.27652e-01,2.39827e-01,1.34522e-01,3.35913e-01,-2.04028e-01,1.52860e-01,-2.10975e-01,-2.77304e-01,-2.94535e-01,1.81292e-01,-4.12530e-02,
2.09558e-01,-4.68073e-03,1.10045e-01,3.12731e-01,-1.55558e-01,2.71426e-02,-2.12881e-02,-7.30413e-02,2.45451e-01,2.72463e-01,-1.87463e-01,2.25417e-01,2.22167e-03,5.48634e-02,9.39577e-03,3.62595e-01,5.36687e-03,-2.30528e-01,9.83823e-02,1.63375e-01,-2.24044e-01,1.27213e-01,-6.74642e-02,3.15918e-01,-6.22495e-02,
-3.26804e-01,-2.59356e-01,-7.37548e-02,1.78210e-01,9.09915e-02,2.08754e-01,1.54825e-02,1.07681e-01,-2.82837e-01,2.99135e-01,2.83708e-02,-2.14886e-01,-2.32852e-02,-1.27439e-01,1.75965e-01,-3.27392e-02,-1.67149e-01,-8.45642e-02,-3.38622e-01,2.44004e-01,-1.75212e-01,2.35860e-01,1.49181e-01,2.93780e-01,2.02460e-01,
4.67695e-02,
4.46643e-01,
3.73501e-01,
-1.85255e-01,
5.11736e-02,
2.46856e-02,
2.16310e-01,
7.77859e-02,
-2.19439e-01,
4.81859e-02,
5.92908e-03,
2.51396e-01,
-2.71060e-01,
1.12878e-01,
-4.52862e-01,
-2.66908e-01,
3.48937e-01,
-5.97440e-03,
-2.16612e-01,
7.86958e-02,
2.99351e-01,
-2.87081e-02,
4.48770e-02,
-1.35655e-01,
1.62152e-01,
1.46083e-01,2.40135e-01,2.82936e-01,2.61936e-01,-8.85421e-02,2.73508e-01,-1.32103e-01,-8.61473e-02,-1.27962e-02,1.82784e-01,2.36095e-01,-1.02240e-01,2.60654e-01,-8.80175e-02,1.92133e-01,-6.92269e-02,-1.50722e-01,4.04810e-02,-1.84410e-01,8.16687e-02,-9.22305e-02,7.74883e-02,-1.36263e-01,-1.73288e-01,-7.38660e-02,
8.62634e-02,2.22571e-01,1.98615e-01,2.04181e-01,-2.42967e-01,2.26891e-01,-6.85701e-02,-9.77274e-04,2.09581e-02,-6.78033e-02,-2.32604e-02,-2.27545e-01,1.09593e-01,-5.11172e-02,6.12490e-02,-1.30945e-01,-1.87111e-01,-9.89605e-03,-1.44384e-01,1.10677e-01,-5.25947e-02,6.24870e-02,-9.32615e-02,-1.66953e-01,2.09345e-03,
-4.17741e-03,2.94626e-01,2.12904e-01,2.23317e-01,-2.09807e-01,2.18505e-01,-7.06797e-02,1.41364e-01,2.20321e-01,-1.14678e-01,1.66870e-01,-1.92731e-01,1.23256e-01,1.44822e-01,2.30016e-01,2.98306e-02,-1.24463e-01,1.48817e-02,-1.73927e-01,1.20069e-01,-8.67861e-02,8.46771e-02,-1.90164e-01,-3.50630e-02,9.84297e-02,
4.90206e-02,7.16472e-02,1.43741e-01,1.69347e-01,-4.13167e-01,2.59633e-01,-5.67575e-02,-1.08933e-01,-3.50189e-01,-2.12428e-01,-2.90263e-01,-3.11413e-01,1.11418e-01,-3.03736e-01,-7.35025e-02,-4.59720e-01,-3.67167e-01,-5.28493e-02,1.37122e-02,9.49784e-02,-7.61041e-02,-1.01255e-01,3.36618e-02,-3.29698e-01,-6.72580e-02,
2.83094e-01,2.93100e-01,1.07483e-01,1.72899e-01,-2.15281e-01,1.14581e-01,1.38509e-01,9.31457e-02,1.57590e-01,1.07706e-01,-2.83552e-01,-2.14283e-01,-1.14985e-01,4.16301e-03,-8.68317e-02,6.84336e-02,9.93885e-02,-1.30512e-02,-2.73973e-01,6.42027e-02,2.02867e-01,1.99010e-01,-2.33307e-02,-1.72698e-01,-8.59834e-02,
2.92317e-01,
1.07605e-01,
4.36981e-01,
-3.07625e-01,
-3.20396e-01,
