// Neural Network File Format by Kyle Julian, Stanford 2016
6,5,5,25,
5,25,25,25,25,25,5,
0,
-56000.000000,-56000.000000,-3.141593,200.000000,200.000000
56000.000000,56000.000000,3.141593,200.000000,200.000000
-278.628049,0.000000,0.000000,200.000000,200.000000,-0.242819
112000.000000,112000.000000,6.283185,1.000000,1.000000,17.479225
-1.02362e-01,6.32371e-02,1.43636e-01,-1.47570e-01,4.47142e-01,
-1.61555e-02,1.79089e-02,-9.99154e-04,1.04240e-01,2.79296e-02,
7.96591e-03,-1.06715e-02,-2.16955e-03,3.20766e-01,-3.76215e-01,
-1.55420e-01,-6.20569e-02,-1.14372e-01,-3.40873e-01,1.46632e-01,
-2.36627e-01,2.38664e-01,1.38398e-01,-4.02015e-01,-2.57591e-01,
2.54744e-01,-3.90374e-02,-5.79415e-02,2.76194e-02,-1.28083e-01,
-3.22593e-02,7.07545e-03,1.11084e-01,-2.38384e-01,-2.15566e-01,
7.20483e-03,-3.42056e-02,-4.45212e-03,1.98335e-01,8.21543e-02,
-3.78850e-02,7.03562e-02,-3.14830e-02,-2.65873e-01,-1.81974e-01,
-3.73754e-02,1.26727e-01,1.91990e-02,-1.90781e-01,-2.76085e-01,
1.59686e-02,-5.91098e-02,2.89255e-02,-6.54620e-02,-3.23946e-01,
7.10712e-02,-1.71865e-01,-2.27472e-01,3.72513e-01,8.01017e-02,
-4.62033e-02,6.36886e-02,3.43983e-03,3.43233e-01,3.64357e-01,
-2.30438e-01,-1.48382e-04,1.52884e-01,3.27096e-01,-3.07352e-01,
-1.68935e-01,-1.25741e-01,-8.43342e-02,5.28280e-02,2.35203e-01,
-2.09552e-01,6.61665e-02,-1.42809e-02,-2.11012e-02,3.46996e-01,
1.64584e-01,-9.24755e-02,-5.64200e-02,-3.55249e-01,3.43870e-01,
1.54587e-01,-6.13448e-02,8.02490e-02,-1.49362e-01,-4.37828e-02,
2.16561e-01,-1.50699e-01,-2.64333e-02,3.41265e-02,1.44021e-01,
-1.07052e-01,-2.28623e-01,-2.83820e-02,-4.38448e-01,-2.52844e-02,
-4.22697e-01,-1.96876e-01,-1.23096e-01,-1.31892e-02,1.80644e-01,
7.26589e-02,-2.40143e-02,1.30388e-01,3.24808e-01,7.92459e-02,
-1.73159e-01,5.51322e-02,1.19317e-01,2.46938e-01,1.63600e-01,
2.73505e-01,2.90839e-01,7.99704e-02,-2.84186e-01,4.15546e-03,
-7.23138e-02,1.95087e-01,1.03918e-01,4.89993e-02,-2.68308e-01,
-8.23928e-02,
-3.46408e-04,
1.19560e-04,
-1.55978e-01,
-4.35825e-03,
-1.08689e-01,
3.56693e-04,
-1.63076e-01,
9.00558e-02,
8.97629e-02,
-3.24324e-02,
-1.49537e-02,
-1.18041e-01,
-1.18171e-01,
9.24741e-03,
-1.15701e-01,
-1.21116e-03,
-1.27748e-01,
5.69341e-02,
-2.31862e-03,
1.91428e-01,
5.11627e-02,
2.21698e-01,
-1.31920e-01,
1.72335e-01,
-1.42886e-01,9.24715e-02,-5.72246e-02,-1.26269e-01,2.17892e-01,1.23975e-01,-6.71672e-02,-5.37820e-02,1.61765e-01,-3.05255e-01,-1.21457e-01,-2.92265e-01,-3.03818e-01,-2.99180e-01,-1.48591e-01,2.81322e-01,-1.12172e-02,-7.35696e-02,1.80900e-01,5.79785e-04,-3.59810e-01,-1.81799e-01,-1.39471e-01,-4.72707e-02,3.78895e-02,
2.06520e-01,8.41104e-02,-3.56661e-02,1.39573e-01,7.02594e-02,2.41041e-01,1.17271e-01,-2.39241e-01,-5.11189e-02,1.10555e-01,4.64852e-02,1.74447e-01,-2.43130e-02,2.55117e-01,-1.64062e-01,1.32665e-01,1.37927e-01,-2.12401e-01,-8.68445e-03,1.33280e-01,-1.05557e-01,-1.95580e-02,9.15931e-02,-8.88279e-02,-3.35515e-01,
-1.24109e-01,-1.23950e-01,-1.75718e-01,2.79246e-02,-1.35637e-01,-5.34339e-02,-1.30695e-02,7.88720e-02,-1.38613e-01,-2.21603e-01,2.47825e-01,-3.96557e-01,1.24270e-01,-2.83471e-01,3.74261e-01,-9.51923e-02,1.35186e-01,1.08877e-01,-1.95704e-01,7.09921e-02,3.33395e-02,2.39633e-02,-5.52001e-02,5.73895e-02,9.73010e-02,
1.39886e-01,5.64872e-02,4.97528e-02,-9.72847e-02,2.07233e-01,-7.17981e-02,-2.66492e-01,-1.15096e-01,1.19574e-01,-3.07223e-01,-3.30292e-01,2.76570e-01,1.24736e-01,1.55887e-01,9.30678e-02,1.09652e-01,4.74766e-02,7.10378e-02,4.62449e-02,3.23141e-01,-1.13877e-01,8.12541e-05,7.36277e-03,1.74695e-01,2.42258e-01,
8.63066e-02,5.64995e-02,1.93575e-01,-3.54842e-01,6.42941e-02,-1.99181e-01,-2.79477e-01,-2.42171e-02,2.86440e-01,-6.47561e-02,2.37453e-01,7.11850e-02,-7.69250e-02,-2.29179e-02,1.79490e-03,-1.03112e-01,3.15782e-01,-2.56118e-01,2.06668e-01,-1.64794e-01,6.63656e-02,1.25249e-01,6.38384e-02,-1.80309e-01,2.43738e-01,
1.09852e-01,8.05037e-02,-1.25786e-01,-1.12491e-01,3.20820e-01,1.43573e-01,2.52312e-01,-1.58363e-01,-2.13335e-01,-9.05618e-02,2.93323e-01,1.50710e-01,-8.45666e-02,-2.15223e-01,-1.28319e-01,-1.28427e-01,-7.83536e-02,1.52320e-01,2.63832e-02,3.97330e-01,7.14406e-02,-3.79239e-01,-2.74418e-01,-6.81092e-02,2.82298e-01,
-2.65734e-01,-3.63030e-01,9.31494e-02,2.71354e-02,3.04042e-01,-2.34195e-01,2.55348e-01,5.89963e-02,-2.59664e-01,-2.52276e-01,-3.51129e-01,-2.95575e-01,-1.30711e-01,-1.20340e-01,-7.67531e-02,-8.17074e-02,1.41672e-01,-7.07616e-02,-1.66225e-02,-3.14284e-02,-7.80885e-02,-2.78707e-01,-1.05159e-01,-5.08761e-02,-2.70774e-01,
1.52869e-01,-1.28272e-02,1.03121e-02,2.20647e-01,-1.83799e-01,3.16164e-01,2.57129e-01,-2.16903e-01,-1.75504e-01,-3.47286e-01,3.51719e-01,4.15477e-02,-1.17725e-01,-7.62076e-02,-1.02644e-01,3.42500e-01,1.99562e-01,5.03408e-02,-3.80426e-01,1.24482e-01,-2.52018e-01,-2.49047e-01,1.05345e-01,2.79610e-01,8.39792e-02,
2.99088e-01,3.39680e-02,9.23146e-02,-1.79239e-01,-1.89765e-01,3.46079e-01,4.74492e-01,2.85135e-01,2.49998e-01,-2.55136e-01,2.69439e-01,-8.44100e-02,2.73642e-01,-1.02016e-01,-2.77834e-01,2.68967e-01,-4.96247e-03,-2.83044e-01,-3.07295e-01,6.36906e-02,1.69212e-01,-2.53181e-01,5.49606e-02,2.15527e-01,-3.54903e-01,
2.52789e-01,-6.33650e-02,3.29116e-02,3.76479e-01,3.54927e-01,2.64362e-02,1.67978e-01,-6.36685e-02,1.17989e-02,-3.61292e-01,-2.43467e-01,8.42540e-02,1.80528e-01,-1.64793e-02,-1.26242e-01,-2.58472e-01,-2.41881e-01,3.57995e-02,-8.81787e-02,-2.31800e-01,-2.76489e-01,-8.25677e-02,-4.54491e-02,-2.52438e-01,-4.04044e-01,
-1.31070e-01,-1.03126e-02,-3.19202e-02,1.83453e-01,-2.10224e-01,3.00408e-01,-1.82757e-01,1.08133e-01,2.95409e-01,1.98378e-01,2.82744e-01,-3.27570e-02,5.21186e-02,1.38504e-01,1.59302e-01,3.37898e-02,-9.45272e-02,-4.11341e-02,1.58703e-01,-3.34362e-01,-1.73674e-01,3.02085e-01,-6.05590e-02,2.63119e-01,3.37924e-01,
-2.82942e-01,7.58919e-02,-1.67082e-02,1.09615e-01,4.32737e-01,-2.48689e-02,-2.59795e-01,2.44079e-02,-4.75452e-02,-1.28827e-01,-4.95825e-02,4.96010e-02,-1.16344e-01,-1.90073e-01,-6.57536e-02,-2.25220e-01,-1.47680e-01,1.04712e-01,-2.23018e-01,1.97574e-01,-1.51028e-01,1.27269e-01,1.48716e-01,2.07908e-01,-5.36330e-02,
-6.52121e-02,2.39809e-01,-4.33918e-02,-3.12230e-01,-2.83155e-02,4.27523e-02,2.42931e-01,-1.61649e-01,-1.78877e-01,-2.73182e-01,2.94685e-01,1.02451e-01,2.23003e-01,4.32637e-03,-1.94133e-01,-2.43221e-01,-3.07740e-01,-3.34839e-01,-2.61296e-01,2.94080e-01,-1.37692e-01,-2.50799e-01,3.54450e-02,-1.25130e-02,-2.60702e-01,
-1.59040e-01,-5.16578e-02,1.28554e-02,-2.15068e-01,5.70176e-02,-1.66018e-01,9.93134e-02,-1.08373e-01,-2.81377e-01,-1.60710e-01,3.70466e-01,-2.35156e-01,-1.74359e-01,-8.28393e-02,2.28045e-02,-1.45953e-01,-1.24478e-01,-2.50529e-01,-3.24733e-01,-5.43696e-02,6.09036e-02,-1.65048e-01,-1.69815e-01,4.56172e-02,-3.69225e-01,
1.09559e-01,-6.00128e-02,4.90226e-02,-2.23639e-01,2.09363e-02,-6.00442e-02,-1.64405e-01,-2.32529e-01,-3.38437e-01,-2.90019e-01,-2.39866e-01,4.60178e-02,3.00605e-02,3.48232e-02,4.85969e-02,-5.40302e-02,-5.06486e-02,2.99687e-01,-1.39396e-01,-3.04911e-01,2.07244e-03,-2.79222e-01,-3.27676e-01,8.60019e-02,1.17318e-01,
1.30541e-01,3.85554e-01,5.36511e-02,1.65695e-01,-7.79022e-02,1.16107e-01,-3.38629e-01,3.61555e-01,-3.25722e-01,2.61458e-01,-2.88375e-01,1.25289e-01,3.24769e-01,1.36255e-01,2.46584e-01,2.09843e-01,-2.48549e-01,1.76847e-01,2.68848e-01,4.45182e-01,-1.47016e-01,-8.38927e-02,1.32909e-01,3.32394e-01,1.64735e-01,
-5.80856e-02,-2.90369e-01,-5.91564e-02,-5.21954e-03,2.08006e-01,-8.16160e-02,-2.38266e-01,2.26010e-01,-2.64896e-01,-3.06443e-01,3.07379e-01,1.25237e-01,-1.89834e-01,2.59228e-01,1.88054e-01,6.80904e-02,8.39000e-02,-9.28814e-02,-2.22447e-01,1.42298e-01,-2.16628e-01,-2.20166e-01,4.31105e-03,2.83020e-01,-1.52523e-01,
3.42698e-01,1.29002e-01,1.87557e-02,-2.02947e-01,-2.58659e-01,8.70512e-02,1.91947e-01,-2.27986e-01,-6.28336e-02,-2.62062e-01,2.38504e-01,2.73672e-01,-2.09113e-01,-1.49073e-01,1.53057e-01,3.97435e-01,-2.16281e-01,-7.27711e-02,-2.81813e-01,3.66286e-01,-1.86154e-01,8.97959e-02,-2.35853e-01,7.14723e-02,2.78691e-01,
-1.64294e-02,5.56815e-01,-9.80376e-02,-1.54131e-01,1.84611e-01,3.51004e-01,1.84574e-01,2.13162e-01,-3.54954e-01,1.44901e-02,-2.38869e-01,3.07951e-01,-2.37532e-01,1.04443e-01,-3.34759e-01,2.39887e-01,1.74590e-02,2.12567e-01,1.94820e-02,1.83649e-01,2.42729e-01,-3.47809e-01,1.99059e-01,2.53359e-01,1.16125e-02,
1.41187e-01,-2.22631e-01,7.82046e-02,-1.57953e-01,1.86677e-01,2.42231e-01,1.66133e-01,-1.56643e-01,1.92684e-01,-2.48226e-01,-7.52582e-02,1.86193e-01,1.25977e-02,-2.52432e-01,-2.46495e-01,-1.72192e-01,7.65055e-02,2.23984e-01,-2.16695e-01,2.94449e-01,2.37972e-01,-1.48239e-01,2.10714e-01,8.61776e-02,6.68124e-03,
2.68174e-01,1.27191e-02,-4.57798e-03,-6.69340e-02,1.37477e-01,1.44755e-01,1.43443e-01,-2.59619e-01,1.84022e-01,2.02024e-01,-8.31176e-02,4.72030e-02,-3.33576e-01,2.35791e-01,1.12975e-01,1.41915e-01,-4.28621e-02,5.22727e-02,1.51750e-01,2.13580e-02,-9.49292e-02,-2.69711e-01,-2.16213e-01,-3.31421e-01,-1.89677e-01,
3.68650e-02,-2.30535e-02,2.98468e-02,5.61360e-02,1.46521e-01,-1.29526e-01,-1.22330e-01,2.33165e-01,8.29731e-03,-1.91113e-01,-1.55671e-01,8.11876e-02,4.20667e-02,-2.02151e-01,-2.28049e-01,-2.34441e-01,-1.11602e-01,1.33678e-01,-1.44453e-01,3.85601e-02,-3.19535e-01,-2.19997e-02,-2.74952e-01,1.73454e-01,2.24073e-02,
-6.50116e-02,-7.40330e-02,4.81287e-02,-1.31985e-02,1.40898e-02,-4.00896e-01,-3.16519e-02,1.56564e-01,-1.80350e-01,-4.64936e-02,-2.29573e-01,1.07610e-01,8.55323e-02,7.98924e-02,-1.48026e-01,-1.69539e-01,1.48755e-01,1.23671e-01,1.58879e-01,-2.45235e-01,3.33488e-01,-5.41240e-02,2.01844e-01,2.00613e-01,-1.29118e-01,
-8.91338e-03,8.02830e-02,2.86297e-01,2.52867e-01,7.05532e-02,2.17751e-01,-2.12513e-01,1.09729e-02,2.78536e-02,-1.13694e-01,-2.03580e-01,1.32831e-01,1.51385e-01,-1.06304e-01,-3.10940e-01,-2.24184e-01,1.37073e-01,3.46118e-01,-2.49037e-01,-3.02535e-01,3.26344e-01,3.39593e-01,3.32076e-01,-3.59598e-02,-7.21163e-02,
1.09150e-01,-1.57191e-01,8.22700e-02,-2.67368e-01,-1.27583e-01,3.09939e-01,-1.42137e-01,-9.14474e-02,-2.64992e-01,9.59011e-03,-2.36302e-01,2.90827e-01,-2.32140e-01,5.21605e-02,7.12595e-03,-1.91837e-01,-2.08272e-01,-4.04349e-02,-2.49899e-01,6.60326e-03,-2.32398e-01,8.90003e-02,-1.89861e-01,1.30649e-01,9.23269e-02,
-8.84942e-03,
1.80119e-01,
2.20604e-02,
3.94588e-02,
-2.51982e-01,
1.64716e-03,
4.38662e-02,
1.61597e-01,
1.80879e-01,
2.00971e-01,
4.82115e-02,
3.68584e-03,
2.33926e-02,
1.63118e-01,
9.52859e-02,
2.08920e-01,
2.17706e-01,
6.25587e-02,
7.60741e-02,
-8.51602e-02,
-2.04617e-01,
2.52948e-01,
4.15999e-01,
-3.80207e-02,
5.71361e-02,
-2.63017e-01,4.15556e-02,-2.86321e-02,3.17617e-01,-5.80968e-02,3.02996e-01,-4.75409e-02,1.22954e-01,2.59279e-03,2.74351e-03,8.85897e-02,5.65342e-03,1.84167e-01,6.90724e-02,1.43006e-01,4.48539e-03,7.69909e-02,-2.89445e-03,-1.90594e-02,-7.87028e-02,-2.30701e-01,-9.25060e-02,2.76740e-01,2.34573e-02,1.31619e-01,
-1.64112e-02,1.47961e-01,-1.43096e-01,-1.99447e-02,-1.47840e-01,-1.67660e-02,-4.53679e-02,1.57830e-01,-2.09851e-01,1.22636e-01,1.00215e-01,-1.31417e-01,1.44276e-01,-2.59396e-01,4.40457e-01,-1.78182e-02,1.40792e-01,1.37434e-01,-4.90477e-02,1.32089e-01,2.26758e-01,3.65272e-02,-2.53016e-03,3.27997e-02,-2.70648e-01,
4.04152e-02,-4.85897e-02,-1.32544e-03,-2.47528e-01,3.53079e-02,-2.85425e-01,3.13374e-02,-2.54325e-01,1.40464e-02,5.41831e-02,5.26269e-02,2.89005e-02,2.57538e-02,-2.10606e-01,-2.12147e-02,-9.68551e-03,1.00560e-02,1.72075e-01,4.51814e-02,1.26687e-01,-3.46157e-02,-4.15995e-02,-4.65452e-02,-4.34515e-02,-7.72316e-03,
-2.49385e-01,-2.10394e-01,6.80995e-02,-2.94765e-01,-5.54390e-02,3.27436e-02,1.23084e-01,-8.91609e-02,1.50523e-01,-1.39812e-01,8.29243e-02,1.02401e-01,-4.32200e-02,-1.63860e-01,-3.13180e-02,-2.89496e-03,-2.31825e-02,1.42410e-01,1.25282e-01,-9.01541e-02,9.40043e-02,2.80290e-01,-2.18031e-01,4.35389e-02,-1.80401e-01,
1.40166e-01,2.25408e-02,-8.87566e-02,2.81657e-01,3.38182e-02,-1.79753e-01,-9.44435e-02,1.81411e-01,-1.22146e-01,3.71656e-02,-2.03207e-01,-1.52472e-01,-2.61320e-02,2.10720e-01,-1.23856e-01,-2.02500e-03,5.49017e-02,-1.19791e-01,-7.71211e-02,7.59987e-02,1.33190e-01,-2.02015e-01,-2.16155e-01,2.19950e-02,-7.03424e-02,
2.11729e-01,7.94719e-02,-2.46825e-02,8.93025e-02,3.86280e-02,-1.27826e-01,-4.80161e-02,-1.40618e-01,8.07498e-02,-9.04402e-02,-2.34085e-01,1.87745e-01,1.35007e-01,-2.47046e-01,-1.42479e-01,-3.27645e-03,1.21279e-01,1.25703e-01,-4.01866e-02,-1.83497e-03,-1.05898e-01,-6.33375e-03,-1.81795e-01,5.51434e-02,3.29890e-02,
-9.98631e-02,-7.90311e-02,-1.13088e-01,1.70081e-01,8.08034e-03,3.72043e-01,-1.11354e-01,-7.54107e-03,1.55040e-01,4.88202e-02,-2.32433e-01,1.49979e-01,9.02630e-03,-2.24739e-01,-2.40231e-01,-2.50261e-02,2.41964e-02,-1.59516e-01,-1.34939e-01,-2.05681e-01,-2.51168e-02,2.61703e-01,1.20577e-01,-5.58756e-02,2.37300e-01,
2.66719e-01,2.23448e-01,-2.79409e-02,-2.51547e-01,8.78192e-02,-1.69447e-01,-8.58524e-02,3.25659e-01,-3.04722e-02,6.77428e-02,-9.14333e-02,4.65127e-02,-1.40105e-01,-1.31121e-01,4.11665e-02,2.81465e-02,-7.82262e-03,-9.91231e-03,-4.21484e-02,1.01345e-01,-1.19472e-01,-2.87841e-01,1.35957e-01,-1.07428e-02,-7.75527e-02,
1.48803e-01,-1.16985e-01,-3.11102e-02,-2.47977e-01,8.78061e-03,4.97634e-02,4.49762e-02,-1.42027e-01,2.67706e-01,-4.11988e-02,9.71678e-02,2.02542e-01,-1.16471e-01,2.24577e-01,-2.19114e-01,7.33446e-03,-4.30888e-02,2.08352e-01,7.08365e-03,-2.05030e-01,2.88870e-01,-1.63220e-01,2.98602e-01,-4.21723e-02,2.42219e-01,
-3.18123e-01,-1.83061e-01,1.36901e-01,-1.38553e-01,-2.40449e-02,1.23867e-01,8.66034e-02,-2.61978e-01,6.80373e-02,-1.08000e-01,1.44920e-01,2.70339e-02,7.09440e-02,6.32844e-02,1.80960e-01,1.18246e-02,-5.48181e-02,7.92625e-02,1.05251e-01,-4.58805e-02,-1.63015e-01,-8.91333e-03,3.66814e-01,-2.44133e-03,-1.03569e-01,
1.03526e-02,3.71837e-01,-9.78666e-02,-2.04791e-01,-1.46746e-01,-1.27786e-01,1.28406e-01,1.84139e-01,-4.84092e-02,8.86482e-02,1.25836e-01,-1.98350e-01,-7.22132e-03,1.02223e-03,5.69425e-02,-6.32477e-02,4.90779e-02,-9.60754e-02,1.11626e-01,5.65279e-02,-3.35609e-01,-1.04422e-01,-1.35569e-01,3.26567e-02,-2.05232e-01,
5.27174e-02,4.34976e-01,1.00239e-02,2.94473e-02,4.17565e-02,1.36750e-01,-4.78240e-04,-2.49598e-01,1.15288e-01,-4.53420e-02,1.95050e-01,-1.89154e-03,-1.03487e-01,3.93571e-01,-2.34579e-01,1.64016e-02,-5.52002e-02,4.34600e-02,5.59398e-03,-6.90640e-02,-8.68022e-02,3.50482e-01,4.99024e-01,-3.40148e-02,2.35825e-01,
-1.40628e-01,1.19703e-01,-5.38454e-02,1.70573e-01,2.43531e-02,6.28133e-02,-1.27935e-01,-2.86513e-01,-1.68997e-01,7.45679e-02,1.30812e-01,5.17374e-02,1.15102e-02,3.14161e-01,1.76564e-02,3.27364e-02,3.36427e-02,7.49816e-02,-5.24490e-02,1.30016e-01,-4.63463e-02,1.99727e-01,-8.15221e-03,1.16699e-02,3.64013e-02,
-1.95088e-01,-6.50494e-02,1.93731e-01,8.10785e-02,-3.30829e-02,-3.37387e-02,9.81200e-02,-2.49863e-01,5.85465e-03,-5.42916e-02,1.84914e-01,7.46277e-02,7.60035e-02,6.92342e-02,6.85510e-02,2.06547e-02,-8.19453e-02,4.98797e-03,1.29789e-01,-4.76810e-02,-3.69180e-01,-1.86169e-01,3.11027e-01,-6.01291e-03,1.70046e-01,
2.76535e-02,-1.55595e-01,-3.93747e-03,2.90613e-03,-8.68169e-02,1.16738e-01,5.49921e-02,3.20202e-01,-2.05464e-01,1.56864e-01,-6.44052e-02,-1.44115e-01,1.33216e-01,2.58445e-01,2.42303e-01,-1.62839e-02,-3.42671e-02,-1.01051e-01,-1.27765e-02,-2.16467e-02,-2.41794e-01,-2.74075e-01,-4.29519e-02,-2.43491e-02,-2.39955e-02,
-1.98235e-01,-1.60204e-01,2.28557e-02,-3.27380e-01,-4.60068e-02,1.27422e-01,1.10396e-01,1.12654e-01,-3.47182e-02,7.38727e-02,3.55686e-02,-2.55765e-02,-4.01571e-02,1.50424e-01,1.34288e-01,-4.08822e-03,-7.48003e-02,8.45470e-02,4.76166e-02,-2.85905e-02,7.81380e-02,2.27032e-02,-2.05483e-01,-2.41011e-02,-1.50773e-01,
-1.40862e-01,-7.66860e-02,-3.72427e-02,-1.34780e-01,-1.12855e-02,1.45253e-01,4.09845e-02,-9.87040e-03,1.14269e-01,1.55113e-02,-1.03154e-01,4.46470e-02,-7.20864e-02,-3.99077e-03,-1.21176e-01,-1.39350e-02,-1.73501e-02,5.44309e-02,2.44393e-02,-1.12223e-01,-3.50997e-01,2.34815e-01,1.43751e-02,-1.30817e-02,-5.64246e-02,
8.99878e-02,5.66168e-02,3.38791e-02,-3.61101e-01,-7.56832e-02,-1.08023e-01,1.15503e-01,3.14767e-01,-9.86583e-03,-2.64102e-05,-1.13303e-01,2.02770e-01,1.89919e-03,-3.37959e-01,-1.02144e-01,-2.42666e-02,-3.85134e-02,6.87919e-02,3.27806e-02,-6.10153e-02,-8.02209e-02,-2.19872e-01,1.53859e-01,-8.24556e-03,-1.66915e-02,
2.66966e-02,3.02969e-01,-5.28216e-02,1.79083e-01,-1.26775e-02,4.05708e-02,-6.86052e-02,2.38964e-01,6.40487e-02,-5.79853e-02,2.10900e-01,9.51570e-03,-2.63955e-01,-9.38819e-02,-2.91727e-01,3.19968e-02,5.20419e-03,-3.27424e-03,7.95912e-03,5.08646e-02,1.46365e-01,-2.11039e-01,-6.57622e-02,3.95415e-02,8.03242e-02,
3.14402e-01,-2.89534e-02,6.17759e-02,-1.29944e-01,1.52135e-02,-1.63031e-02,-8.15659e-03,1.76491e-01,-1.11756e-02,1.36826e-01,1.55838e-01,-1.48870e-01,-8.99656e-03,-3.43190e-01,2.83742e-01,4.13546e-02,-3.26333e-02,1.62534e-01,-5.93612e-03,8.42114e-02,3.36502e-01,-3.26959e-01,1.46746e-01,-2.47436e-02,-1.95181e-01,
5.98262e-02,-2.45065e-01,1.42027e-01,-2.87747e-01,-2.43205e-03,-1.36166e-01,6.14981e-02,-3.01017e-01,-1.34635e-02,-8.78717e-02,1.97350e-01,-8.06147e-02,-2.72214e-03,1.48161e-01,2.20208e-01,3.45734e-02,-6.51029e-02,1.74977e-01,1.20471e-01,6.09325e-02,-2.41457e-01,-1.65676e-01,1.82682e-01,3.82812e-04,-1.20732e-02,
-2.61477e-01,-4.01358e-01,-9.84815e-02,1.35477e-01,-6.04743e-02,1.25360e-01,-8.99597e-02,-5.15673e-02,-1.05810e-01,6.07377e-02,-2.61340e-01,3.81855e-02,9.43353e-02,2.09631e-01,1.62667e-01,-2.03224e-02,7.15735e-02,1.13876e-02,-8.16719e-02,-4.99138e-02,1.38591e-01,1.55145e-01,-2.65504e-01,2.47708e-02,-1.09585e-01,
-1.00469e-01,-1.98619e-01,1.52756e-01,-1.24451e-01,3.94798e-03,-9.48261e-02,1.13830e-01,-2.60409e-01,-4.85869e-02,-2.90452e-02,1.64765e-01,-1.45684e-01,6.64707e-02,4.92038e-02,6.91886e-02,1.31360e-02,-7.63025e-02,1.61161e-02,1.24279e-01,6.45998e-02,-1.80425e-01,-1.88588e-01,1.08859e-01,-6.50727e-03,-6.21988e-02,
2.77549e-02,1.21793e-01,-1.72323e-01,-8.93321e-02,-1.01440e-01,2.12821e-01,-7.51264e-02,-3.44690e-01,3.14917e-01,1.20773e-01,-1.71916e-01,3.69917e-01,-3.37353e-02,-1.99977e-01,-1.53275e-01,-2.35759e-02,1.19248e-01,9.61569e-02,-4.26828e-02,-2.83545e-01,-2.78837e-01,-2.17366e-01,-1.80880e-01,1.82289e-02,3.44015e-01,
6.80968e-02,-3.35475e-01,5.88089e-02,-2.67835e-01,1.45734e-03,1.06098e-01,-1.72640e-04,-2.84698e-01,8.91936e-02,4.08206e-02,-1.80733e-01,8.02671e-02,4.47512e-02,-1.36189e-01,1.63688e-01,3.20616e-03,-2.58071e-02,1.45514e-01,5.20630e-03,-9.67027e-02,-1.84075e-01,-1.23280e-01,2.50971e-01,-1.87555e-02,-5.93540e-02,
-1.92515e-01,
8.77884e-02,
4.46675e-02,
1.37502e-01,
4.87781e-02,
9.11474e-02,
-4.95240e-02,
-4.30978e-02,
-9.27461e-02,
-2.26079e-01,
-2.38881e-02,
-8.42600e-02,
-1.00060e-01,
-2.38470e-01,
-8.09727e-02,
-7.99090e-02,
-2.35180e-01,
-7.17731e-03,
7.72671e-02,
1.08172e-01,
-1.43254e-01,
1.81736e-01,
-2.14235e-03,
4.14977e-02,
2.67959e-01,
-1.11672e-01,2.80287e-02,-2.11955e-02,8.87625e-02,1.74685e-01,-9.07942e-02,-4.95147e-02,5.23633e-03,-1.79723e-01,7.99380e-02,-5.29294e-02,2.28157e-01,2.00656e-04,1.15994e-01,-1.85659e-01,1.91410e-01,-3.85616e-02,2.52490e-02,-1.91861e-01,5.21140e-02,-5.96621e-02,3.93759e-02,-1.25596e-01,1.20396e-01,-1.70602e-01,
-6.53123e-02,1.92729e-01,-6.16675e-02,-7.13204e-02,1.38102e-02,-4.28058e-02,1.18964e-01,8.20921e-02,2.49068e-01,-3.01690e-01,-1.44526e-01,-2.33517e-01,-5.21692e-02,1.51423e-01,1.08558e-03,-1.44528e-01,1.46724e-01,6.78165e-02,-8.14838e-02,-1.08715e-01,7.39645e-02,5.52193e-02,3.09805e-01,-1.71628e-02,-1.67818e-01,
-3.80027e-01,1.00323e-01,-8.87261e-02,-2.19331e-01,1.99269e-01,5.02515e-02,-1.24988e-01,-5.70216e-02,-3.55934e-01,3.03559e-01,-7.91224e-02,2.86503e-01,-1.47247e-02,7.27000e-02,-5.83250e-02,3.16829e-01,2.25951e-01,-1.11538e-01,-8.07112e-02,-6.43543e-02,1.45302e-01,-7.92174e-02,-1.23700e-01,3.26357e-01,-2.48730e-01,
-5.14422e-02,6.72406e-02,1.15861e-01,4.64951e-02,-1.54108e-01,2.77634e-02,-1.67714e-01,1.31810e-02,-9.26159e-02,1.07609e-01,-1.36566e-01,2.70582e-01,-2.05747e-01,6.66932e-02,1.87433e-01,-6.12430e-02,6.46874e-02,-1.78833e-02,1.76581e-01,-3.68199e-02,-2.60986e-01,2.52430e-01,-8.87308e-02,-6.37837e-02,5.85843e-02,
-7.79393e-02,-3.56483e-01,1.19331e-02,2.54560e-02,7.50694e-02,-5.45143e-02,-2.80806e-01,-1.61487e-01,-2.28531e-01,7.86449e-02,-1.44325e-01,-2.13629e-01,-2.08709e-01,-3.60448e-02,3.16150e-01,1.57473e-01,-1.95286e-01,-2.16320e-01,-3.49359e-02,1.14938e-01,-2.11448e-01,-1.83920e-01,-2.76133e-01,2.26321e-01,-3.65341e-01,
-1.84172e-01,1.48717e-02,-1.12627e-01,-1.64937e-01,-2.66069e-01,4.68737e-02,1.70716e-02,-1.31087e-01,-9.26300e-02,-1.47974e-01,1.01865e-02,2.21484e-02,1.72661e-02,-1.32775e-01,1.57406e-02,-1.22321e-01,1.90170e-01,-4.02766e-03,1.78071e-01,7.23257e-03,-1.52222e-01,5.57498e-03,3.54847e-01,-9.65142e-02,3.15337e-01,
-4.88289e-02,9.86247e-03,-7.30068e-03,-1.46116e-02,-1.84909e-01,6.38879e-02,5.55855e-02,2.50558e-02,9.13429e-02,-2.79807e-02,6.06003e-02,-2.11274e-01,8.63075e-02,-7.12387e-02,4.22453e-02,3.44470e-02,1.88423e-01,-1.55441e-01,6.41556e-02,-8.33860e-02,-1.16537e-01,-1.91008e-02,1.60827e-01,-8.94827e-02,2.35734e-02,
-6.21932e-02,-1.90340e-02,4.64168e-02,-7.39578e-03,-7.47546e-02,1.93366e-02,7.15967e-03,3.42945e-02,-4.87291e-02,1.15317e-01,-1.28161e-02,-8.92513e-02,4.13022e-02,-3.00201e-02,1.10594e-01,7.88312e-03,-7.49285e-02,-2.89604e-02,4.40124e-02,-2.74397e-02,-1.35275e-01,-1.04329e-01,2.97941e-02,3.77765e-02,-7.65278e-02,
9.78015e-02,1.88118e-01,2.43186e-01,1.72904e-01,2.47400e-01,-1.41963e-01,1.96192e-01,-3.15889e-03,4.19493e-03,2.48474e-01,-1.39096e-01,-3.34830e-01,1.95449e-02,-9.62426e-02,3.25054e-01,-1.65343e-01,6.67912e-02,-9.67041e-02,1.45591e-01,-2.31229e-01,1.06390e-01,-5.79710e-01,-1.30113e-01,5.23456e-02,1.27521e-01,
2.00964e-01,-5.81337e-02,9.33353e-02,-2.85256e-01,-2.37197e-01,-2.01019e-01,-3.22226e-01,-8.79588e-02,9.66146e-02,-2.68924e-01,-1.18183e-01,-2.91750e-01,-1.52659e-01,-8.61851e-02,-1.94518e-01,8.39221e-02,2.52548e-01,-1.58108e-01,1.36059e-01,-2.14623e-01,9.80820e-02,1.02742e-01,-5.29375e-02,-2.26751e-02,1.50901e-01,
-1.46888e-01,-9.57299e-02,1.00161e-01,-3.49622e-01,-7.58194e-02,2.08056e-01,3.09830e-02,-1.71173e-01,-1.44486e-01,3.07695e-01,-3.57948e-02,-1.81461e-01,2.47531e-02,-1.12788e-01,1.52631e-01,-6.40239e-03,3.81420e-01,9.67741e-02,2.09988e-01,5.12194e-02,3.09141e-01,5.90475e-02,-2.43765e-02,8.17129e-02,-3.04448e-01,
1.30371e-02,-1.99991e-02,1.15987e-02,-5.56152e-02,-1.93324e-01,-1.37749e-01,-2.51702e-01,-6.42950e-02,-7.45634e-02,3.87926e-02,-7.53210e-03,2.25071e-01,3.36010e-02,-3.53295e-01,6.63540e-02,-3.03040e-01,7.85055e-02,7.55899e-02,2.30618e-02,-4.62757e-02,-3.10982e-01,-7.33708e-02,2.28587e-01,-1.48582e-02,3.39087e-01,
-9.02317e-02,-1.07313e-01,4.47767e-03,5.40279e-05,-1.81052e-01,-1.09339e-02,-1.47359e-01,-2.86986e-02,1.95948e-02,1.98188e-01,-4.42683e-02,-1.92416e-01,1.15565e-01,-3.92455e-03,1.86748e-01,-1.00929e-01,-9.45052e-02,7.48575e-02,3.37474e-02,1.35740e-02,-7.52688e-02,3.66200e-02,-3.27408e-01,3.34775e-02,7.46321e-02,
1.69949e-03,1.03688e-01,-8.38104e-02,1.57925e-01,5.11724e-01,2.94229e-03,9.82133e-02,-1.05026e-01,7.64705e-02,-5.94773e-02,-4.91224e-02,1.48483e-02,1.92269e-01,2.78625e-02,1.10189e-01,4.38764e-02,3.46635e-01,2.11671e-02,-1.23709e-01,1.82407e-01,1.37873e-01,-3.95550e-01,5.63223e-02,1.80211e-02,-1.04611e-02,
-5.03654e-02,-1.02504e-01,-2.67282e-02,-2.08247e-01,-2.45663e-01,3.65230e-02,-2.50406e-02,1.09967e-02,8.54133e-02,3.84951e-01,4.58820e-02,-1.98129e-01,3.08777e-02,-1.50712e-01,-1.58324e-02,-8.79048e-02,-4.33201e-02,-5.00668e-02,-5.87718e-02,9.92582e-02,-1.61218e-01,-8.51417e-02,-2.84546e-02,9.47905e-03,-1.91208e-01,
-2.36700e-02,4.76522e-02,1.22385e-01,9.75429e-02,3.29790e-01,-1.23617e-01,-1.52311e-02,-1.51770e-01,-3.30517e-01,-1.04329e-01,-5.42048e-02,3.03738e-01,-1.25255e-01,2.59906e-01,-2.18064e-01,6.94586e-03,6.51648e-02,1.87369e-01,-2.10656e-01,2.38894e-01,-2.35414e-02,-9.68930e-03,-2.84949e-01,7.54979e-02,1.17239e-01,
1.19588e-01,-5.56200e-02,-1.19289e-01,7.43993e-02,7.58852e-02,-4.54890e-02,1.48423e-01,-4.59280e-02,-1.23743e-01,-3.02431e-01,-4.34246e-02,-2.28567e-01,-1.46772e-02,-5.31232e-02,-2.73790e-01,2.50831e-01,4.32533e-01,2.94903e-03,-1.41247e-01,1.63277e-01,2.37162e-01,4.79528e-02,1.92045e-01,3.23425e-02,-1.47780e-01,
-1.02571e-02,-4.22638e-02,-5.92384e-03,-1.80016e-01,3.66370e-01,2.82849e-01,1.25662e-01,1.73198e-01,-5.68021e-02,6.71497e-02,3.64572e-02,-2.06785e-01,-2.37153e-02,-9.81068e-03,2.93089e-01,4.61325e-01,3.44739e-01,-2.02129e-01,-2.89313e-02,-1.81003e-01,3.92046e-01,-3.26575e-01,-3.51241e-01,3.67943e-02,1.05592e-01,
7.36012e-02,1.54789e-01,-4.20502e-02,1.51801e-01,-9.88575e-02,-1.03785e-01,4.51295e-02,3.55530e-02,1.03399e-01,-2.10727e-01,7.95698e-02,2.90499e-01,4.22838e-02,8.41578e-02,-2.50493e-01,-2.26180e-01,-1.67737e-01,1.41911e-01,-6.10337e-02,5.98815e-02,-1.46211e-01,1.80493e-01,1.94993e-01,-1.31690e-01,2.63992e-01,
7.78428e-02,-1.63211e-02,2.02474e-01,1.36983e-01,2.10625e-01,-5.65675e-02,-1.30937e-01,-1.08951e-02,1.62951e-01,2.20194e-01,-1.13556e-02,1.87692e-01,-8.38314e-03,-8.66207e-02,3.16660e-01,-3.72924e-01,2.54838e-01,2.30872e-02,-1.86823e-02,1.65144e-01,5.11699e-02,1.15203e-01,2.25835e-03,7.32749e-02,-2.79696e-01,
2.14669e-03,1.60625e-01,-7.15734e-02,-2.50740e-01,-2.71965e-01,-1.02895e-01,-2.72818e-01,3.04798e-03,1.93009e-02,-1.34293e-01,-1.29447e-01,-3.16393e-01,4.10365e-02,6.54960e-02,-1.99886e-01,1.45655e-01,-9.77261e-03,-5.25788e-03,-3.98402e-02,-1.98646e-01,-1.71075e-01,-2.12098e-01,2.35988e-01,2.79928e-01,-4.13724e-02,
-1.90311e-01,-2.67390e-02,2.25100e-02,-3.43946e-01,-1.96227e-01,1.66467e-02,-1.30687e-01,1.23672e-01,-2.59848e-01,2.87044e-01,2.51540e-02,2.98598e-01,-2.38353e-01,-1.66640e-01,5.77245e-02,-5.93505e-02,1.16911e-01,1.72010e-03,-7.36902e-02,2.37704e-02,-5.77212e-02,1.80680e-01,-1.14546e-01,1.48597e-01,1.23343e-01,
1.32034e-01,-2.25789e-01,5.83660e-02,-2.07258e-01,-3.89700e-01,7.47919e-02,2.04843e-02,1.26719e-01,-1.61091e-01,-1.65624e-02,1.47654e-01,2.80797e-02,-4.39673e-02,-6.42416e-02,-2.43339e-01,2.22526e-01,-3.11150e-01,9.27799e-02,6.07176e-03,6.66452e-02,-1.88698e-02,3.16957e-01,1.80407e-01,6.49807e-02,-1.94303e-01,
1.30685e-02,-1.04111e-01,-1.34978e-01,-3.19985e-01,-3.07672e-01,2.55511e-01,-1.14321e-01,-1.08397e-01,1.34185e-01,-2.36145e-01,1.61636e-01,-2.87315e-02,-1.51075e-01,-9.30006e-02,2.65848e-01,-2.62131e-01,-8.16729e-02,-9.66020e-02,3.12084e-01,5.43769e-02,-5.27781e-03,8.59061e-02,2.80906e-01,-7.25737e-02,3.80014e-01,
-1.51772e-01,1.39543e-01,-8.48812e-02,-3.00374e-02,-9.80664e-02,-3.97968e-02,-1.41805e-01,5.71336e-02,-2.06048e-01,3.93045e-01,-2.71195e-01,1.79254e-01,-6.54315e-02,-2.58422e-01,1.73951e-01,-2.41962e-01,3.63149e-01,1.46608e-01,4.67909e-02,1.20045e-02,-5.62713e-02,6.23529e-02,3.17905e-01,1.90719e-01,-3.64786e-01,
-8.21031e-02,
1.03002e-01,
1.20591e-01,
-1.15064e-01,
2.62883e-01,
-1.72244e-01,
6.52235e-02,
5.11106e-02,
1.09683e-01,
5.38987e-02,
2.27725e-01,
-2.72397e-01,
2.27757e-02,
1.12395e-01,
9.82798e-02,
-9.58152e-02,
2.04605e-01,
2.47646e-01,
-2.17964e-02,
4.19368e-02,
9.78959e-02,
-1.43817e-01,
-7.72813e-03,
-2.28215e-01,
6.12103e-02,
-2.84261e-01,-1.09466e-01,6.92718e-02,8.78735e-02,-2.02504e-01,-2.52974e-01,9.43035e-02,1.71376e-01,-2.00819e-01,-2.32209e-01,-2.62997e-01,-2.16349e-01,-1.49587e-01,2.98526e-01,-2.21535e-01,-1.13988e-01,-1.63727e-01,-7.86192e-03,2.38918e-01,-2.23534e-01,9.56048e-02,1.07593e-02,-1.30225e-01,-9.31013e-02,1.73572e-01,
-1.36965e-02,1.98412e-01,1.77907e-03,7.61004e-02,1.62039e-01,-4.37561e-02,1.03214e-01,2.93762e-02,-1.82740e-01,-9.74246e-02,-1.15905e-01,3.06079e-01,3.12853e-01,-1.56755e-01,6.06744e-02,2.03675e-01,-7.57391e-02,2.35095e-01,2.44879e-01,-2.38430e-01,-2.58400e-01,-2.53427e-01,3.47640e-03,1.59328e-01,-6.97027e-02,
1.90363e-01,2.11775e-01,-3.77518e-02,-1.72638e-01,1.83357e-01,2.36129e-01,-2.57517e-01,8.51740e-02,5.83255e-02,4.33533e-02,1.36520e-01,1.67896e-01,6.84331e-02,-1.04107e-01,1.62593e-01,1.20083e-01,3.12014e-01,2.32538e-01,9.18784e-02,2.01299e-01,1.54322e-01,-3.55361e-01,2.78182e-01,-1.21202e-01,-2.33999e-01,
7.07015e-03,6.25035e-02,-2.94058e-01,-1.66253e-01,7.80944e-02,-1.42644e-02,-3.48118e-01,-2.26756e-01,-2.67244e-02,1.61776e-01,1.15632e-01,-3.07981e-01,9.17454e-02,2.83971e-02,-2.96370e-01,-1.66441e-01,-2.06960e-01,1.24078e-01,1.94289e-01,2.20084e-01,2.57074e-02,-1.48615e-01,6.81900e-02,3.13505e-01,-2.72932e-02,
-1.42614e-01,-7.63463e-02,-9.82933e-02,-1.78332e-01,3.85013e-03,-2.36498e-01,1.15998e-01,7.14324e-02,-2.91318e-01,6.80210e-02,-3.01686e-01,-4.27722e-01,5.11410e-02,8.17075e-02,-3.21315e-01,-3.09940e-01,-1.20495e-01,-2.34100e-01,1.81158e-01,-1.01331e-02,-9.76308e-02,3.34257e-01,-6.59882e-02,-1.15973e-02,4.60191e-01,
6.79002e-02,7.13812e-02,-2.54060e-01,4.90470e-02,1.52102e-02,4.68662e-02,-1.56784e-01,2.64269e-01,-3.05336e-01,5.00277e-02,-6.28817e-02,2.65574e-02,-2.34992e-02,8.02052e-02,1.87209e-01,-4.54166e-02,8.91962e-02,-2.64688e-01,-1.64342e-01,-2.77843e-02,-3.83418e-02,-4.14456e-02,-2.36667e-01,-1.30599e-02,2.16019e-01,
-8.56853e-02,5.74880e-02,-1.01676e-01,2.01408e-01,-2.63008e-01,2.26693e-01,2.26017e-02,4.73942e-03,2.86393e-01,-2.21225e-01,2.07737e-01,1.95093e-01,6.45781e-02,-8.85841e-04,7.22555e-02,-5.02744e-02,-3.00730e-01,3.10528e-01,1.80508e-01,-1.21220e-01,-2.85230e-01,-3.67351e-01,1.62287e-01,-5.61839e-02,1.99225e-01,
8.07355e-02,-2.90033e-01,2.47920e-01,-1.28357e-01,3.07386e-01,2.52301e-02,1.46939e-01,6.65424e-02,1.41150e-01,-1.87144e-01,-2.08536e-01,2.00210e-01,-1.73466e-01,3.58960e-02,1.18193e-01,1.25055e-01,-8.85768e-02,-2.16254e-01,-1.51062e-01,-2.93745e-01,-1.26251e-01,1.23244e-01,1.75149e-01,2.09934e-01,2.88729e-02,
1.24568e-02,1.71710e-01,-3.96153e-01,3.54569e-02,1.46413e-01,1.12758e-01,1.31713e-01,-1.69020e-01,3.81489e-03,2.54864e-01,3.65223e-01,-1.69603e-01,1.94654e-01,-2.69778e-01,-2.64600e-01,3.99353e-01,4.13122e-01,-1.32716e-01,-2.95948e-01,-4.54229e-03,3.37809e-01,-2.28393e-01,-1.21360e-01,1.34915e-01,2.06005e-01,
3.57509e-02,1.46436e-01,-2.27641e-01,-3.03822e-01,3.91039e-01,-1.50614e-01,2.91607e-01,-1.94405e-01,1.05497e-01,-1.63109e-01,3.27825e-01,2.02369e-01,-2.39282e-02,5.97683e-02,5.36515e-02,-2.40891e-01,2.56670e-01,-1.21035e-01,1.59514e-01,-3.21926e-01,-2.67027e-01,-2.49860e-01,1.59138e-01,-2.22467e-01,2.61083e-01,
-1.93555e-01,-1.07952e-01,-7.84418e-02,1.64027e-01,-2.77307e-01,-2.10514e-01,9.11975e-02,8.10441e-03,1.64808e-01,8.58235e-02,-2.42073e-01,-1.66645e-01,-2.65101e-01,3.58891e-02,7.61015e-02,-1.30121e-02,-1.71850e-01,-8.78804e-02,-1.16101e-01,2.72065e-02,-5.26583e-02,2.32719e-01,-3.89929e-02,5.76502e-02,-9.88576e-02,
2.54444e-01,-1.39093e-01,-3.60998e-01,1.61277e-01,-1.84596e-01,-7.13510e-02,-2.56912e-02,1.92564e-01,-1.92199e-01,-2.88606e-01,3.29206e-01,2.75239e-01,-1.40584e-01,-2.09381e-01,-3.58501e-01,4.41014e-02,2.48498e-01,-4.32133e-01,-3.96052e-01,-2.67858e-01,-1.04506e-01,-3.85631e-01,-2.36023e-01,9.04336e-02,2.55245e-01,
-9.75100e-02,-2.45834e-01,7.38956e-02,-2.77079e-01,-2.87325e-01,1.68331e-01,-1.34187e-01,-1.97052e-01,-6.05231e-02,5.29035e-02,-1.89533e-01,1.70892e-01,3.56229e-01,2.77625e-01,9.20453e-02,1.44094e-01,-3.41856e-01,6.80757e-02,-6.90792e-03,-1.04219e-01,3.68120e-01,3.32013e-02,1.20867e-01,2.19706e-01,-1.66182e-01,
-2.23629e-01,-3.48208e-02,-1.36224e-02,1.33591e-01,-1.62969e-01,2.37522e-01,-1.64713e-01,2.02061e-01,3.60227e-01,1.30649e-01,5.20650e-02,1.78636e-02,-6.66071e-02,7.33204e-03,1.88017e-01,1.69240e-01,2.29664e-01,-1.39046e-01,7.64499e-02,-6.51281e-02,5.64463e-02,-1.20512e-01,2.35708e-01,1.75503e-01,-2.27003e-01,
-4.87371e-02,1.30596e-01,4.27873e-01,-1.02626e-01,-6.83638e-02,1.35027e-01,-9.96599e-02,8.74734e-02,6.58883e-02,-1.30693e-01,2.36415e-02,1.48370e-02,-2.62602e-02,1.74823e-01,-3.96866e-02,-4.99737e-02,2.64683e-01,-1.45506e-02,9.93772e-02,8.77963e-02,2.92731e-01,3.03345e-01,-4.77007e-02,-1.62379e-01,-2.07205e-01,
-2.70345e-01,-2.33409e-01,-1.30995e-01,-2.33932e-02,2.59039e-01,2.61192e-01,8.82962e-02,1.31989e-01,-1.48696e-01,1.49892e-01,2.00907e-01,5.47872e-02,1.55378e-01,3.52801e-02,3.96016e-01,1.10437e-01,-3.35450e-01,2.66003e-01,2.46180e-01,-2.07134e-01,-6.43594e-02,-2.72083e-01,2.05194e-01,1.49061e-01,1.59115e-01,
4.53611e-02,-2.01922e-01,1.18867e-01,2.06993e-01,-2.09176e-01,1.82986e-01,2.80574e-01,-1.19211e-02,-4.60456e-02,2.38658e-01,3.20072e-01,-2.39720e-01,1.34332e-01,-2.87258e-01,-1.41929e-01,7.74861e-02,3.20942e-01,2.70325e-01,-1.10096e-01,2.21986e-01,-1.22458e-01,5.19797e-02,-1.36199e-01,-3.34904e-01,-3.09701e-01,
-1.11649e-02,1.47439e-01,1.14821e-01,-6.84998e-02,-3.13995e-01,-9.61184e-02,-2.54461e-02,1.05104e-01,-6.60575e-02,1.48307e-01,2.75681e-01,1.48903e-01,9.88713e-02,-5.85893e-02,-1.47667e-01,-1.52136e-01,1.88641e-01,7.98323e-02,-7.57872e-02,-1.06453e-01,6.74192e-02,-1.33940e-01,9.76498e-02,2.18764e-01,-3.19892e-01,
2.14044e-01,-2.86216e-01,4.79664e-02,-1.29003e-01,-1.34648e-01,2.91266e-01,-3.19452e-02,-2.31022e-01,7.20201e-02,1.04777e-02,9.40786e-02,2.66387e-01,7.00261e-02,2.54591e-01,-1.93906e-01,-3.15890e-02,4.09441e-02,-3.08635e-01,9.90379e-02,-7.42229e-02,3.35950e-01,1.91005e-02,-3.26181e-01,1.41373e-01,2.57654e-01,
1.72030e-01,2.68358e-01,-9.70817e-02,2.69459e-02,-1.44970e-01,-2.28716e-01,4.43802e-02,-3.74948e-02,-3.76519e-02,-4.55121e-02,2.00841e-01,6.02728e-02,1.92646e-01,-2.65325e-01,1.06624e-02,-1.54322e-01,-1.52402e-01,4.62154e-02,-6.17253e-02,-5.66449e-02,1.79297e-01,1.67364e-01,1.88939e-01,-2.78203e-01,2.09277e-01,
-3.12341e-01,7.77614e-03,2.31089e-01,1.85321e-01,1.42778e-02,-1.77073e-01,1.03737e-01,5.79115e-03,9.76216e-02,1.22307e-01,7.32024e-02,-1.22246e-01,3.02545e-01,-7.59628e-03,-1.36816e-01,7.25738e-02,-2.21538e-01,2.07325e-01,1.71735e-01,-2.51293e-01,-1.26956e-01,1.32046e-01,-4.16160e-02,2.01320e-01,1.63638e-01,
-2.30411e-02,1.41096e-01,4.36979e-01,4.41723e-02,1.76094e-01,-1.51747e-01,2.94969e-01,1.11756e-01,-2.24319e-01,-2.75459e-01,-1.92814e-02,2.97307e-01,3.39433e-01,-1.54269e-01,-1.61819e-01,1.54137e-01,-1.62250e-01,2.25587e-01,-1.87292e-01,-4.22420e-01,-2.67300e-01,-1.83558e-01,1.17521e-01,4.90918e-02,2.41158e-01,
1.24729e-01,1.20697e-01,-2.38435e-01,-2.72323e-01,-2.32581e-01,3.84441e-01,6.77844e-03,4.07349e-01,6.52176e-02,4.00890e-01,-7.63794e-02,-1.53226e-01,2.67357e-02,9.23893e-02,1.81397e-02,1.88156e-01,3.80972e-01,7.59987e-02,2.38446e-01,2.07581e-01,-1.19330e-01,1.53644e-02,3.27521e-01,-3.14603e-02,-1.36957e-01,
5.83254e-02,-2.73136e-01,-3.55809e-02,2.17617e-01,-4.20315e-02,-9.86509e-02,1.59972e-01,7.65090e-02,-1.63418e-01,6.39784e-02,-6.21881e-02,-1.60011e-01,-2.24613e-01,-2.49527e-01,-8.51398e-02,2.22945e-01,-1.16935e-01,1.42231e-01,-1.04305e-01,1.27648e-01,4.05632e-01,-1.76827e-01,1.19284e-01,-4.72123e-02,8.28510e-03,
-2.17723e-01,-1.69736e-01,-2.94583e-01,-1.00691e-01,-7.46020e-02,1.56368e-02,7.91834e-02,-1.15714e-01,-8.27771e-02,6.93273e-02,3.00991e-01,3.84662e-02,-6.42259e-02,-2.25263e-01,-1.73479e-01,-1.38917e-01,-3.15861e-01,2.14516e-01,8.62289e-02,-6.02690e-02,1.78806e-01,-2.30270e-01,9.61797e-02,-1.97831e-01,3.22923e-01,
-2.96929e-01,
-2.08470e-01,
2.41790e-01,
-3.40837e-01,
-6.88542e-02,
-1.19932e-01,
2.01648e-01,
-2.87282e-01,
-2.64510e-01,
-1.25123e-01,
-2.45851e-01,
2.02448e-01,
-3.23073e-01,
1.47762e-01,
-1.87983e-01,
8.76008e-02,
-1.98482e-01,
-2.39686e-02,
-2.35951e-01,
-2.24890e-01,
-2.73519e-01,
2.07331e-01,
-5.26661e-02,
-3.17221e-01,
1.35337e-01,
-2.43214e-01,-7.43675e-02,-3.56959e-01,-9.67219e-02,6.32502e-04,4.06076e-01,2.46220e-01,9.43334e-02,3.76308e-02,1.22646e-01,-3.87540e-01,-1.04354e-01,2.99841e-01,2.28922e-02,3.90216e-02,-4.24589e-01,-4.85530e-02,8.42825e-02,-3.24192e-01,-2.51773e-01,1.18536e-01,-8.14640e-02,1.13034e-02,2.76772e-01,1.16727e-01,
4.32653e-01,-1.25670e-01,-3.75954e-01,2.69778e-01,-2.91866e-01,1.88976e-01,-3.45872e-01,3.71004e-01,1.31790e-01,-3.19403e-02,1.35583e-01,5.57024e-02,5.70224e-02,-7.15572e-02,-1.51223e-02,1.81240e-01,3.19241e-01,-7.19749e-02,-1.14842e-02,4.06192e-01,-2.32686e-01,-3.32201e-02,1.41011e-01,-3.44067e-01,1.40278e-01,
-1.23537e-01,-6.42231e-02,-3.35638e-01,-2.53416e-01,-7.33238e-04,-2.93094e-01,-2.62699e-01,-4.53215e-01,-1.05501e-01,-3.26528e-02,-3.70359e-01,4.83218e-02,2.96417e-02,2.95464e-01,-1.67777e-02,6.47817e-03,-2.06927e-01,-1.56583e-01,-1.95094e-01,-2.46244e-01,-6.41864e-02,1.13952e-01,2.49518e-03,-6.77510e-02,2.50970e-01,
1.45052e-01,-1.38149e-01,4.57704e-01,-4.64867e-01,2.51602e-01,2.01029e-01,-1.49243e-01,1.53724e-02,1.37360e-01,-2.77628e-01,1.41486e-01,-5.62712e-02,2.18037e-01,4.32233e-01,-3.25986e-01,-2.89356e-01,7.40662e-02,3.25277e-01,-2.85732e-01,-2.14850e-01,-2.07438e-01,1.53710e-01,-4.61436e-01,-5.73864e-01,2.66155e-01,
2.86225e-01,-7.18037e-02,1.36752e-01,-2.45094e-01,-3.59781e-04,-3.83163e-01,-2.42003e-02,1.17905e-01,1.01663e-01,-2.83692e-01,-2.95746e-01,-1.47809e-02,-1.86646e-01,-1.88975e-01,-3.89150e-01,1.61656e-01,-7.42935e-02,1.83470e-01,5.09368e-02,1.46452e-01,-4.65859e-02,-2.65511e-01,-5.68330e-03,-2.81813e-01,-1.01768e-01,
1.22182e-01,
5.55288e-01,
-5.99803e-01,
-5.01309e-01,
-2.49573e-01,
