// Neural Network File Format by Kyle Julian, Stanford 2016
6,5,5,25,
5,25,25,25,25,25,5,
0,
-56000.000000,-56000.000000,-3.141593,200.000000,200.000000
56000.000000,56000.000000,3.141593,200.000000,200.000000
-278.628049,0.000000,0.000000,200.000000,200.000000,-0.242819
112000.000000,112000.000000,6.283185,1.000000,1.000000,17.479225
4.58104e-01,-8.88739e-01,-1.63095e-01,-1.42555e-01,-2.40361e-01,
5.07372e-01,-2.69236e+00,-2.58246e-01,3.99251e-01,-4.40971e-01,
1.50157e+00,-3.96588e+00,-1.65289e-01,2.69091e-01,-2.04077e-01,
-4.49559e-02,-1.00416e+00,-4.76485e-01,-1.18718e-01,2.22697e-01,
1.10499e-01,2.87507e+00,3.50460e-01,-1.83756e-01,-4.46447e-01,
6.39025e-01,8.49770e-01,-1.14754e-01,4.16549e-01,-3.80028e-01,
1.73121e+00,1.54290e+00,2.01358e-01,1.60167e-01,2.27684e-01,
-1.48918e+00,-1.84490e+00,-3.20797e-01,-3.63375e-01,1.26216e-01,
1.63442e+00,1.96456e+00,1.06817e-01,7.30804e-02,3.92095e-01,
-1.51989e+00,-2.92007e+00,-3.39120e-01,2.45582e-01,-2.55895e-01,
1.67649e+00,1.80001e+00,1.28831e-01,2.68357e-01,2.26388e-02,
3.66878e-02,-2.82831e-01,-1.72252e-01,1.02562e-01,-2.41374e-01,
-2.17150e+00,-1.03130e+00,-2.96475e-01,4.19442e-01,3.63481e-01,
2.36568e+00,1.05271e+00,4.00847e-01,-3.99884e-01,1.55039e-02,
7.43200e-01,-7.47723e-02,1.85258e-02,3.95753e-01,-1.30422e-01,
-1.61897e-01,-1.57472e+00,-3.22772e-01,-4.24399e-01,3.66916e-01,
4.62591e-01,-1.60091e+00,-3.48459e-01,3.33514e-01,2.31048e-01,
-2.35620e-01,3.01318e+00,4.95699e-01,2.75036e-01,1.87115e-01,
1.70956e+00,9.60810e-01,-2.46108e-01,-2.81308e-01,-5.14000e-02,
6.79562e-01,1.08899e+00,4.80343e-01,-1.83754e-01,8.12212e-02,
1.05561e+00,2.12463e-01,2.84392e-01,-1.06638e-01,4.04574e-01,
-6.36621e-02,-9.82654e-01,-2.36004e-01,4.30649e-02,-5.57568e-02,
-2.36853e-01,-2.09645e+00,-4.11956e-01,-3.04683e-01,3.87398e-01,
-4.73649e-01,2.38096e+00,1.98419e-01,2.71583e-01,2.76248e-01,
-1.96699e-01,-2.59075e+00,-3.88834e-01,-4.15172e-01,-2.89370e-01,
3.69085e-01,
-1.43981e-01,
1.69092e-01,
-5.35242e-02,
1.37282e-02,
1.16069e-01,
1.50488e-02,
-2.32227e-01,
6.07812e-02,
-2.25031e-02,
1.64625e-01,
-1.65175e-01,
-1.78433e-01,
2.96401e-02,
1.78215e-01,
1.42585e-01,
-5.84650e-02,
1.47851e-01,
-1.93995e-01,
-1.26571e-01,
2.96401e-02,
-1.42514e-01,
-1.31436e-01,
4.21906e-02,
1.46148e-01,
2.98640e-01,6.72367e-02,1.30229e-01,2.69457e-01,-1.25356e-01,-2.62787e-01,1.29806e-01,-1.26073e-01,-4.43422e-01,9.98234e-02,-3.25546e-01,-5.52085e-02,-1.84673e-01,-2.91538e-01,-2.56936e-01,-1.70196e-01,4.91626e-02,2.08314e-01,-2.08275e-01,1.53988e-01,-3.65648e-01,-1.14112e-01,1.03565e-01,1.54670e-01,2.52999e-01,
-1.24324e-01,2.73530e-01,-1.45623e-01,-3.12230e-01,1.51521e-01,-1.79109e-01,1.37574e-01,-2.12305e-01,-1.42248e-01,-2.34504e-01,-2.21618e-02,1.59521e-01,-3.47052e-02,-9.88147e-02,-3.43638e-01,-2.89002e-01,-6.10752e-03,4.91179e-02,2.45600e-01,5.53484e-01,1.00256e-02,-2.01911e-01,-2.60215e-01,1.83287e-02,-1.42155e-01,
-2.73462e-01,1.45555e-01,1.19053e-01,1.18008e-02,2.08924e-01,-2.23176e-01,-1.67565e-01,1.52269e-01,-1.25119e-01,3.85874e-01,8.14575e-02,-1.12881e-01,-1.97069e-01,-3.41713e-01,-2.49095e-01,2.09886e-01,-1.04225e-01,2.71998e-01,5.52217e-02,1.17075e-02,2.75315e-01,-2.47819e-01,-7.65888e-03,-2.74297e-01,-1.14773e-01,
2.26690e-01,1.47806e-02,4.77027e-01,2.85991e-01,-7.23571e-01,-2.05048e-01,-8.77042e-01,5.26201e-01,-2.37253e-01,9.26943e-01,-4.67990e-01,-8.57113e-02,2.57756e-01,-2.75056e-01,2.98950e-01,3.92688e-01,5.39986e-01,-4.79413e-02,-4.77326e-01,-9.31502e-02,1.11236e-01,2.05146e-01,1.01184e-01,-3.97142e-01,5.97079e-01,
-2.78166e-01,-3.31267e-02,3.81359e-01,8.74380e-02,2.72462e-02,-1.11511e-01,-8.76823e-03,2.54101e-01,4.14901e-02,2.39348e-01,2.87621e-01,2.53869e-01,1.54215e-01,2.00418e-01,-3.08628e-01,-1.43501e-01,1.52515e-01,-1.92640e-01,2.31645e-01,-1.36380e-01,1.49749e-01,2.33861e-01,2.12231e-02,-1.08854e-01,-2.29786e-01,
-3.02516e-01,-4.13426e-02,8.41249e-02,1.47017e-02,-2.96663e-01,3.71919e-02,4.62414e-01,-2.09243e-01,-6.08311e-02,-3.28102e-01,1.77873e-01,3.76782e-01,-1.91132e-01,-3.65637e-01,3.65760e-01,-2.34156e-01,4.82196e-01,1.01531e-01,-1.86002e-01,3.29733e-01,-5.06774e-02,3.06426e-02,2.36717e-02,-3.08504e-01,-2.15555e-01,
3.06772e-01,1.34024e-01,-2.51561e-01,-3.66468e-02,-7.83950e-02,-9.75310e-03,-1.90166e-01,3.43760e-01,3.97050e-01,-9.33024e-02,3.84962e-01,-9.98755e-02,-4.54948e-01,3.93203e-01,9.30645e-02,2.24472e-01,-2.25414e-01,3.10334e-03,8.62199e-02,-3.08024e-01,-1.76428e-02,-2.84969e-01,1.11782e-01,9.67691e-02,1.43382e-01,
-9.66188e-02,1.63356e-01,-1.19820e-01,9.39328e-02,4.94322e-01,6.93253e-03,-6.31568e-02,2.83074e-02,-3.97409e-02,-9.14801e-02,-1.17265e-01,2.81177e-01,-3.28047e-01,1.51551e-01,-3.67766e-01,-3.95332e-01,1.07353e-01,3.10098e-02,1.06558e-01,2.63955e-01,-1.73172e-01,1.99571e-01,2.65304e-01,-1.70458e-01,-1.04630e-01,
3.84789e-01,-6.67251e-02,1.08208e-01,-3.10290e-02,9.23149e-02,3.19282e-03,2.57113e-01,-1.47119e-01,3.24281e-01,1.51467e-01,3.15101e-01,-2.33255e-01,-7.19578e-02,-4.42988e-01,1.93453e-01,1.87513e-01,-2.71563e-02,-9.90648e-02,-1.32923e-01,1.39036e-01,3.74651e-02,1.64284e-01,1.97883e-02,-1.23278e-02,1.86517e-01,
2.50006e-03,3.26973e-01,5.61245e-01,3.57361e-01,-1.39556e+00,-3.94242e-01,-1.63384e+00,4.41356e-01,-1.50703e+00,2.05436e+00,-4.44490e-01,-4.64583e-02,4.85782e-01,-6.86215e-01,7.47141e-02,3.86348e-01,7.17094e-01,-1.15642e+00,-5.94999e-01,-1.53618e-01,-1.50882e-01,3.71978e-01,7.89253e-01,-1.50036e+00,5.09222e-01,
2.44490e-01,-1.32680e-01,2.37408e-01,2.15203e-01,-3.15410e-01,3.01604e-01,4.43154e-02,1.17705e-01,-2.77935e-01,9.37998e-02,2.15193e-01,-2.67172e-01,4.68185e-02,-5.13155e-02,-7.32578e-02,-1.29600e-02,8.89462e-02,1.97586e-01,2.29644e-01,2.47727e-02,1.00084e-01,-2.64244e-01,-1.74696e-01,1.93656e-02,-5.48639e-02,
-1.67042e-03,4.64849e-01,3.24862e-01,2.88383e-01,-9.44816e-01,-2.06832e-01,-4.90436e-01,3.50140e-01,-1.83147e-01,6.54523e-01,-4.76059e-01,2.61494e-01,-2.39786e-02,-7.42291e-02,-2.00141e-01,5.16228e-01,7.91573e-02,-4.52200e-01,-4.37076e-01,1.05081e-01,1.03136e-01,-1.58019e-01,-9.44420e-02,-3.84254e-01,5.87304e-01,
1.85109e-01,5.75381e-01,1.02976e+00,2.27626e-01,-3.74090e-01,-4.04608e-02,1.38867e+00,-7.20455e-01,8.57026e-01,-7.67175e-01,5.13179e-01,7.10070e-02,-7.46969e-01,1.08958e+00,3.99298e-01,4.52992e-01,6.91943e-01,-5.84402e-01,4.87025e-01,8.21025e-02,6.90920e-01,2.29419e-01,7.83042e-02,-8.52295e-01,3.11507e-01,
4.61154e-01,7.60114e-01,1.40567e+00,1.67790e-01,-1.20886e+00,3.11006e-01,2.21615e-01,-1.22708e-01,1.14492e-01,1.12733e-01,6.25064e-02,-2.10875e-01,-6.16849e-01,4.56921e-01,3.12321e-01,5.89558e-01,6.37654e-01,-2.99627e-01,1.44977e-01,-1.28348e-01,4.44475e-01,-2.44370e-01,2.81641e-01,-1.06099e+00,6.15683e-01,
-1.54572e-02,1.00550e+00,9.20355e-01,5.63254e-01,-1.77989e+00,-1.45182e-01,-1.65341e+00,9.89779e-01,-1.35612e+00,1.89200e+00,-9.63197e-01,3.54160e-01,8.11970e-01,-1.10393e+00,-2.85195e-01,6.12293e-01,1.20204e+00,-9.99415e-01,-8.85828e-02,-7.09668e-01,-7.94471e-01,6.49403e-01,1.01834e+00,-1.01957e+00,6.79842e-01,
3.24146e-01,2.85862e-01,-1.75590e-01,1.26581e-01,-1.33245e-01,1.47304e-01,-6.55220e-01,1.34776e-01,-2.75017e-01,-1.51654e-01,7.15887e-02,-3.20732e-01,-9.48944e-02,-2.51677e-01,-1.36313e-01,4.11411e-01,-5.89238e-02,-5.07765e-02,-4.63242e-01,1.61440e-01,-2.97293e-01,-3.22576e-01,-1.48299e-01,-1.90274e-01,2.58739e-01,
-1.54653e-01,5.02715e-02,-6.60004e-01,-1.68280e-01,-1.86519e-01,-1.55527e-02,2.96637e-01,3.36323e-01,1.15779e-01,3.70171e-02,2.14481e-01,-2.08805e-02,3.67192e-01,-1.65965e-01,-1.13029e-01,-5.62745e-01,1.33561e-01,-2.38379e-01,2.57428e-01,5.32066e-01,2.18933e-01,9.63410e-02,5.38449e-02,-4.94855e-01,-7.88050e-02,
-4.24355e-01,-2.59032e-01,-2.26620e-01,2.25062e-01,8.65836e-02,-4.16076e-01,-3.57912e-01,2.53651e-01,9.73004e-02,-2.26247e-01,-4.33636e-01,1.59891e-01,-3.46865e-02,-2.08553e-01,-2.64864e-02,-4.47522e-01,3.31501e-01,-4.27905e-01,-8.43664e-02,8.27032e-02,1.17730e-01,-1.03477e-01,-1.75213e-02,-1.38573e-02,-4.88042e-02,
2.75093e-01,-2.62484e-02,-2.39388e-01,1.02267e-01,8.81567e-02,-1.72454e-01,-1.60342e-01,2.35876e-01,-2.31621e-02,2.88434e-01,-3.78887e-01,-1.60507e-01,-8.98297e-02,-3.40214e-01,-1.92972e-01,1.96934e-01,-1.30123e-01,-3.16379e-01,8.59373e-02,-7.69623e-02,5.48799e-02,-1.99135e-01,3.23284e-01,-2.83856e-01,2.28439e-01,
4.05841e-01,-2.98533e-01,1.26206e-01,1.37720e-01,-1.20538e-01,-3.26483e-02,2.53621e-01,1.96520e-02,6.19307e-01,-1.20361e-01,1.70053e-01,3.50814e-01,-2.42379e-01,-2.22929e-02,8.18258e-02,-2.57423e-01,1.81730e-01,-2.12306e-01,-1.57177e-01,1.32793e-01,5.27386e-02,-2.51034e-01,-1.79712e-01,2.72820e-01,-5.77926e-02,
-1.11375e-01,1.31699e-01,-1.69644e-01,-1.77650e-01,5.56949e-01,-1.22302e-01,2.46840e-01,-9.50073e-02,4.88057e-01,-3.79717e-01,2.00221e-01,2.21123e-01,-3.39551e-01,4.61768e-01,-1.86273e-01,-4.07774e-01,-5.79076e-01,4.00909e-01,-4.08559e-02,4.86619e-02,3.92467e-01,9.79401e-02,8.24033e-02,4.77458e-01,-1.59699e-01,
-3.76903e-01,-3.77503e-01,-7.98243e-02,2.93978e-01,3.08093e-01,2.28997e-01,6.50429e-01,-3.81480e-01,6.22691e-01,-5.09350e-01,3.46501e-01,-3.52511e-01,-3.60002e-01,3.80462e-01,1.77597e-01,-1.10955e-01,-4.13212e-01,-9.79531e-03,1.71898e-01,4.92397e-01,3.03178e-01,-3.80537e-01,-4.40399e-01,3.57143e-01,-9.78280e-02,
-2.50242e-01,-3.88870e-01,-4.05447e-01,2.48606e-01,5.67883e-01,1.43322e-01,8.83470e-02,-4.11335e-01,5.11556e-01,-1.93227e-01,4.87463e-01,-1.53319e-01,-9.60601e-02,-1.64556e-01,1.00852e-01,-3.46857e-02,-6.69545e-02,3.00764e-01,-9.31427e-02,-1.59507e-01,-1.46585e-01,1.38917e-01,-1.02560e-01,3.04131e-01,-1.76574e-01,
1.21318e-03,-3.34460e-02,1.17049e-01,4.69285e-02,1.29271e-01,3.25264e-01,-4.57183e-01,8.50348e-02,-1.59464e-01,2.82181e-01,5.35260e-02,1.90286e-01,-7.98646e-02,-2.51982e-01,4.18315e-02,3.27203e-01,4.02462e-01,-1.24709e-01,-1.51518e-01,-3.17466e-01,8.28562e-02,-2.97159e-01,-4.74347e-02,-9.78230e-02,-3.97668e-02,
1.80354e-01,3.05473e-01,8.76441e-02,-2.67593e-01,-3.10520e-01,-2.27260e-01,-1.80833e-01,5.02645e-02,-1.40884e-01,-6.48615e-02,-3.38286e-01,2.75979e-01,3.96657e-01,1.53899e-01,-9.46474e-02,6.20232e-02,6.20628e-01,-1.06887e-01,-1.19743e-02,3.93824e-02,-2.96525e-02,1.81631e-01,5.18162e-01,-5.70332e-01,-1.30792e-01,
-1.18334e-01,
1.82296e-01,
-3.25419e-01,
1.06837e-01,
5.09660e-02,
8.25770e-02,
-2.07190e-01,
-4.69396e-02,
1.60345e-01,
2.97625e-01,
-2.46679e-01,
-1.47031e-01,
4.44640e-01,
-6.19614e-02,
4.95167e-02,
-2.14670e-01,
1.39641e-01,
6.79642e-02,
-1.77153e-02,
-1.91557e-01,
-6.53086e-02,
-6.19682e-02,
-5.94416e-02,
-9.86268e-02,
3.15739e-02,
-1.57587e-01,-1.07332e-01,-3.17612e-01,-2.73375e-02,-5.49085e-02,1.79081e-01,-2.17483e-01,-1.86446e-02,-1.42112e-01,3.82212e-02,-1.28476e-01,-2.25022e-01,1.29575e-01,-2.71932e-01,8.13005e-02,9.25410e-02,-1.37886e-01,3.21931e-01,9.08002e-02,1.73623e-01,-4.25745e-02,-2.89914e-01,-3.27092e-01,-3.57673e-01,-3.30132e-01,
2.80468e-01,-3.64799e-01,8.24126e-02,4.81631e-01,3.36803e-01,-3.19939e-01,-5.45496e-01,-3.76718e-02,-2.05065e-01,3.82126e-01,-3.09214e-01,7.38523e-01,1.51559e-01,7.33317e-02,-3.43622e-01,3.53672e-01,2.38235e-01,3.02380e-01,3.60643e-01,9.04096e-03,-4.35554e-01,-4.84363e-01,-2.98463e-01,8.70256e-02,7.21095e-01,
-1.82806e-01,3.09815e-03,-1.10810e-01,5.40424e-02,1.51837e-01,1.10984e-01,-5.78456e-02,1.65341e-01,3.06578e-01,-3.36608e-01,4.26499e-01,3.88840e-01,1.93978e-01,-7.77789e-02,8.51629e-02,-1.02651e-01,2.53078e-02,-8.79295e-02,1.97078e-01,2.97376e-01,5.18210e-02,5.66194e-02,-2.22914e-01,-5.72174e-02,-3.16777e-01,
7.02346e-02,1.70480e-01,2.76219e-01,-2.21143e-01,-6.79777e-02,1.64604e-01,1.88590e-01,4.69270e-02,3.59414e-01,4.83610e-02,9.77416e-02,3.96332e-01,1.42606e-01,8.11454e-03,1.16778e-01,-2.48180e-02,-1.00781e-01,2.31124e-02,1.88280e-01,-1.86202e-01,1.27100e-02,1.91975e-02,-1.70402e-02,1.17596e-01,8.70632e-02,
-1.34723e-01,-7.66454e-02,-2.40728e-01,-4.68591e-03,-1.09598e-01,-7.49025e-02,8.35839e-02,-1.61240e-01,2.35910e-01,-2.44481e-01,-3.44337e-01,-2.25191e-01,-6.53068e-02,-2.87744e-02,3.13091e-02,4.49648e-02,-1.68233e-02,8.28659e-02,4.62785e-03,-2.73944e-01,-1.26769e-01,-4.00218e-02,-9.46522e-02,4.52342e-02,2.51261e-01,
-1.70660e-01,6.25190e-02,2.19047e-01,1.03818e-01,3.29960e-01,-6.26230e-02,-1.29054e-01,2.76650e-01,-3.09444e-01,-1.00332e-01,1.34694e-01,2.24632e-01,4.43538e-01,1.16070e-01,-1.12189e-01,-5.18017e-02,-4.53782e-02,5.52569e-01,2.42136e-01,-4.17444e-02,8.73924e-03,-3.19619e-02,5.87711e-01,3.03103e-01,1.68346e-01,
-1.43028e-01,-8.28223e-02,-3.33105e-02,-3.07344e-02,-1.33929e-01,-3.72959e-01,2.24472e-02,-2.97129e-01,-3.37554e-02,1.17553e-01,4.65977e-01,-2.10286e-01,-8.77175e-02,-3.05258e-02,2.41432e-01,6.45325e-04,-3.89986e-01,3.51104e-01,-6.62256e-02,1.35665e-01,4.51080e-02,1.78118e-01,-2.01745e-01,5.63479e-04,1.45929e-01,
8.59447e-02,-3.18415e-01,2.97571e-01,7.32034e-02,-1.22915e-01,-2.28679e-01,1.46577e-01,-3.86392e-02,-1.77548e-01,-1.17338e-01,-1.52767e-01,3.16455e-02,-1.47685e-01,4.27686e-02,2.16482e-01,4.86805e-02,7.91589e-02,1.43870e-01,-9.37918e-02,3.18738e-01,-6.76116e-02,2.82104e-02,1.69024e-01,1.69011e-01,1.63700e-01,
4.22665e-01,-2.10798e-02,3.25291e-02,-2.55572e-01,7.02687e-02,3.49176e-01,-1.58777e-01,1.90152e-01,9.33029e-02,-1.58680e-01,1.83692e-01,-6.68751e-02,1.80419e-03,-2.43687e-01,-1.04925e-01,3.83437e-01,2.87516e-01,2.09941e-01,-3.33312e-01,2.34015e-01,3.58650e-02,2.23539e-01,1.29544e-01,5.47378e-04,3.31337e-01,
9.13949e-02,-4.86803e-02,7.40439e-02,-1.18270e-01,1.09130e-01,1.99430e-01,-5.34571e-02,1.74194e-01,1.80835e-01,1.87236e-01,5.46210e-02,-1.01845e-01,9.33431e-02,-8.44912e-02,4.55724e-01,1.48381e-01,1.32829e-01,-4.79396e-02,2.47219e-01,-1.65815e-01,3.20909e-02,4.17334e-02,2.30788e-01,-1.27618e-01,-3.79677e-02,
1.59270e-01,1.01325e-01,-8.15912e-02,6.76167e-02,-1.71700e-01,-1.74314e-01,1.42369e-01,1.08344e-01,2.87779e-01,1.57099e-01,-2.82396e-01,1.96371e-01,-3.72605e-01,-4.19902e-02,-2.01980e-01,-7.86869e-02,1.33718e-02,4.24756e-01,-9.21949e-02,1.87060e-01,2.38725e-02,9.81367e-02,1.60520e-01,7.94162e-02,-8.59642e-02,
2.13748e-01,-5.36802e-02,-4.31724e-02,1.78790e-01,3.73079e-01,5.35579e-02,4.20221e-02,-3.87998e-01,3.19141e-02,-4.84668e-01,2.31124e-01,4.23936e-01,1.32002e-01,3.69619e-01,2.27008e-01,-2.80118e-01,-2.96977e-01,-6.41199e-01,-3.09801e-01,3.39750e-01,-9.67829e-02,-9.97370e-02,-1.33691e-01,3.32537e-01,2.67827e-01,
3.51488e-02,1.42873e-01,-3.38813e-01,4.71969e-01,2.51634e-01,1.86493e-01,3.29991e-01,-1.78148e-01,-2.38650e-01,5.73567e-02,5.99404e-02,-4.90005e-02,-1.25253e-01,5.94125e-02,7.56526e-02,2.14626e-01,3.76268e-02,-1.50851e-01,-1.03092e-01,-2.76441e-01,8.07685e-02,-9.45579e-02,1.31586e-01,-3.82959e-01,1.73799e-01,
4.13678e-01,-1.29285e-01,1.91130e-02,5.85316e-02,-1.10978e-01,-1.71559e-01,-2.26385e-01,-1.76458e-01,2.40896e-02,-3.16379e-01,-3.05592e-01,6.90123e-02,7.42418e-02,2.26950e-02,-3.19564e-01,8.71632e-02,2.45271e-01,1.41115e-01,2.20597e-01,-8.65996e-02,-2.35755e-01,9.61627e-02,-4.77408e-03,4.25047e-02,3.73137e-01,
4.22017e-01,-1.80596e-01,2.55617e-01,3.93579e-01,2.81091e-01,-4.23004e-01,2.73943e-02,-5.68590e-02,-6.25836e-02,1.80905e-01,6.63258e-01,7.22104e-01,3.05654e-01,6.86851e-03,-4.77943e-02,2.86726e-01,-2.13883e-02,4.78485e-01,5.07417e-01,4.10927e-03,-2.53680e-01,-9.49386e-02,-2.56734e-01,4.66766e-01,-4.34297e-02,
3.17989e-01,-3.69572e-01,3.51137e-01,2.86864e-01,-2.62831e-02,-3.64248e-01,1.41542e-01,-9.18336e-02,3.27659e-02,1.67748e-01,-3.29999e-01,-5.16600e-03,3.00209e-01,1.23834e-01,-2.13205e-01,-2.20733e-01,1.88423e-01,-1.68854e-02,-1.35953e-01,4.53150e-01,1.11173e-02,-2.80964e-02,2.09786e-01,4.52543e-01,3.34856e-01,
-2.53046e-01,2.48633e-01,-2.07227e-01,-8.30081e-02,-1.34782e-01,-2.10491e-01,1.35952e-01,-2.76968e-01,1.80018e-01,-6.31301e-02,6.95271e-03,-1.83621e-01,-5.32635e-01,-1.19609e-01,1.53546e-01,-5.60356e-02,-1.11683e-01,5.87977e-02,1.21309e-01,-1.50493e-01,-7.61092e-02,-1.06264e-01,-6.54194e-02,2.22798e-01,-1.24739e-01,
9.25204e-02,-9.60816e-02,-3.50116e-02,2.57203e-01,6.72418e-01,-2.25569e-02,4.58755e-02,4.40003e-01,-2.66829e-01,2.40581e-01,1.89964e-01,5.67694e-02,2.50049e-01,-1.82426e-01,-2.70621e-01,-1.55887e-01,1.44264e-02,-2.26424e-01,3.59979e-01,3.08630e-01,1.79250e-01,3.00408e-01,3.70425e-02,1.55804e-01,2.32233e-01,
4.78537e-01,-6.53787e-01,-2.84162e-01,7.72703e-01,-1.73738e-01,-4.79251e-01,-3.33230e-01,-5.43092e-01,6.10058e-02,8.78236e-01,-1.19883e-01,5.70252e-01,-4.67199e-01,1.06803e+00,3.44778e-01,3.35529e-01,-5.36656e-01,-1.88841e-01,7.50102e-02,1.91315e-02,-7.92252e-01,-4.21388e-01,-6.12526e-02,9.32485e-01,2.34979e-01,
-1.55555e-01,1.13862e-01,-5.40443e-02,-2.65985e-01,2.02308e-04,-3.66173e-02,1.78705e-01,-1.57184e-01,2.74650e-01,2.33495e-01,2.22892e-01,-2.60679e-01,-3.82521e-01,-1.59002e-02,-2.33061e-01,-1.10200e-01,6.74214e-03,-2.57561e-01,3.41431e-01,-9.82913e-02,1.00172e-01,-1.16849e-01,-1.61272e-01,2.04746e-01,4.17573e-03,
6.92445e-02,9.83713e-02,3.09511e-01,-5.45778e-02,2.11806e-01,-3.43467e-02,-1.65616e-02,3.31660e-02,9.24031e-02,-8.20445e-03,7.70205e-02,2.77790e-01,5.20265e-02,9.67767e-02,-1.26425e-01,5.62138e-02,-3.28752e-02,7.07225e-02,-9.22922e-02,2.49254e-01,-6.36183e-02,-7.76606e-03,-1.92502e-01,7.88488e-02,3.45197e-01,
5.04782e-02,-3.70778e-02,3.60950e-01,4.87653e-01,9.35818e-02,-1.01744e-01,-2.83253e-01,-1.45444e-01,-1.01115e-01,1.11648e-01,-1.05227e-01,4.09992e-01,-2.24799e-01,5.87714e-01,8.43710e-02,2.69739e-01,-1.67840e-01,1.01965e-01,4.39927e-01,-4.39836e-01,-2.19351e-01,-4.45132e-01,-6.03616e-01,7.36033e-02,3.12132e-01,
2.72812e-01,4.01920e-02,5.83234e-02,-1.01757e-01,1.73353e-01,1.51422e-01,-2.79076e-01,1.33852e-01,3.43543e-01,1.68939e-01,-4.17116e-01,1.92025e-01,-2.44053e-01,-8.26322e-02,-1.47916e-01,5.84361e-02,1.41327e-01,-1.53286e-01,-1.20920e-01,2.42091e-02,-2.40273e-03,1.00102e-01,-1.21226e-01,1.76768e-01,-1.77691e-01,
-8.19675e-03,2.22128e-01,-6.96736e-02,1.49192e-01,3.57179e-01,-1.13592e-01,-5.10556e-01,9.36324e-02,1.81567e-01,-4.29453e-02,-1.21237e-01,5.33121e-02,2.19692e-01,-3.22664e-02,-1.77903e-01,-8.80466e-02,9.99589e-02,1.38587e-01,1.40969e-01,2.50268e-01,-9.58487e-02,-1.61115e-02,-9.22911e-03,-4.57026e-02,-1.27166e-01,
1.94655e-01,-1.34998e-01,1.64643e-01,1.56315e-01,7.96403e-02,-9.91494e-02,-1.81462e-01,-1.33558e-02,1.74351e-01,-1.53575e-01,-3.71709e-01,4.16711e-01,-1.84641e-01,2.05760e-01,-2.22182e-01,-1.79131e-01,-3.15381e-01,7.33729e-02,-1.37428e-01,3.51923e-01,-6.99499e-03,-9.89456e-02,2.63100e-01,-4.11811e-02,-9.39456e-02,
-1.93702e-01,
8.67618e-02,
8.81515e-06,
3.36523e-02,
2.34320e-01,
1.40170e-02,
2.42881e-02,
2.26998e-01,
1.21951e-01,
-6.47994e-04,
9.09418e-02,
1.80395e-01,
4.01516e-02,
7.13291e-02,
6.25779e-02,
1.99163e-01,
9.36747e-02,
3.63403e-02,
4.87749e-01,
-5.26275e-02,
1.74554e-01,
-2.34565e-01,
2.90199e-01,
-1.49295e-01,
1.41117e-01,
1.35843e-01,1.02942e-02,3.28390e-01,-3.57630e-01,-3.55138e-01,-5.33000e-02,9.19064e-02,-3.06464e-01,1.92177e-01,4.59919e-02,-2.00404e-02,-7.12594e-02,-3.13947e-03,1.08363e-01,-9.32688e-02,8.21762e-02,-4.50900e-01,-1.52949e-02,5.31166e-02,3.10526e-02,1.17104e-01,4.06991e-01,8.05577e-03,9.35604e-02,1.16521e-01,
-2.38832e-02,-1.07053e-01,-1.46106e-01,-7.67978e-03,3.98847e-01,-2.56857e-02,1.15149e-01,-1.48273e-01,-2.42345e-01,-7.60534e-02,5.19992e-02,2.14498e-02,1.17714e-01,2.46584e-01,1.73519e-01,1.35505e-02,4.32819e-02,-1.19201e-01,2.56200e-02,1.25371e-01,-1.80281e-01,-2.71691e-01,4.08157e-01,-1.86158e-01,1.27602e-02,
-6.84626e-02,-4.54142e-02,3.00369e-01,1.31675e-01,3.45065e-01,-1.52271e-01,3.76590e-02,8.00133e-02,4.98534e-02,3.27271e-01,-5.81433e-02,5.13086e-02,3.40088e-02,-1.31187e-01,-4.21269e-02,-8.38401e-02,1.36390e-01,-1.70062e-01,3.08298e-01,-3.10001e-01,-6.22996e-02,-2.59218e-01,-1.10850e-01,3.12509e-02,-8.71349e-03,
3.04398e-02,-1.87364e-01,8.56401e-02,-2.05357e-01,2.15632e-01,-8.82172e-02,5.82174e-02,6.44660e-02,6.07889e-03,-1.75168e-02,2.07870e-01,-8.71883e-02,-4.78729e-02,1.35693e-01,-1.27973e-01,-1.86484e-02,1.96360e-02,-3.67446e-02,1.73189e-01,2.12822e-01,1.03714e-01,2.45856e-01,2.62155e-01,-1.18466e-01,-2.46245e-03,
-8.96117e-02,-2.81396e-02,3.30412e-01,-2.69556e-01,2.23668e-01,1.91356e-02,5.82324e-03,3.24873e-01,-3.54382e-02,8.61746e-02,-5.79606e-02,-1.93467e-01,-1.04020e-01,-4.11247e-01,-2.27692e-01,-8.97516e-02,3.71667e-01,-6.41119e-02,1.96881e-01,6.40995e-02,2.52958e-01,3.50727e-01,3.71188e-01,-1.34479e-01,5.23084e-02,
-1.89397e-02,-1.26432e-01,-9.85602e-02,2.74062e-04,-7.00205e-02,1.11241e-02,-1.27504e-02,7.99147e-02,-1.37107e-01,3.22501e-01,1.20463e-01,2.66888e-02,5.76554e-02,-1.14623e-01,-1.99015e-01,1.59704e-02,5.00428e-01,-9.27504e-02,-5.08758e-02,3.55058e-02,2.66344e-01,1.19540e-01,-1.29129e-01,-8.85190e-02,1.14210e-01,
3.99748e-01,2.30098e-01,-1.93754e-01,-1.94029e-01,-3.29147e-01,2.36667e-01,-8.50486e-02,-1.48282e-01,-6.45817e-02,2.35187e-02,-5.94004e-01,-2.96074e-02,-1.39739e-01,2.22933e-01,2.26791e-01,1.19893e-01,-3.28070e-01,2.71975e-01,-1.34130e-01,-1.47732e-01,-1.12690e-01,-2.72407e-01,-5.60144e-01,-3.46252e-02,-4.93606e-02,
-1.32419e-01,2.91930e-01,-2.04493e-01,3.22715e-02,1.87625e-01,5.25832e-02,-8.23595e-02,-2.27459e-01,1.55313e-01,-2.43856e-01,4.17789e-02,1.72383e-02,-1.68587e-02,-6.31567e-02,1.82931e-01,6.37933e-02,-2.67571e-01,1.44366e-01,-2.20783e-01,6.52034e-02,-1.63985e-01,3.21471e-02,-8.14099e-02,-1.81265e-02,2.22875e-01,
1.03658e-01,-1.76619e-01,-2.61336e-02,1.97314e-01,2.62589e-01,3.29268e-02,1.39049e-01,3.96821e-02,8.82760e-02,-1.06267e-01,-3.59618e-01,-1.57937e-01,-2.66622e-03,-1.71822e-01,-5.11555e-02,9.01905e-02,-1.03434e-02,1.19586e-01,4.00551e-01,-2.03100e-01,-5.77882e-04,-3.82170e-01,1.32655e-01,2.00918e-01,-1.73907e-01,
-8.22630e-02,-7.98918e-02,-6.34055e-02,4.09342e-02,-2.06768e-01,-2.99984e-02,-9.27030e-02,-1.75389e-01,2.55943e-02,-2.23740e-01,2.13779e-01,3.10767e-02,3.31806e-02,2.10488e-01,-3.54478e-02,-5.17164e-02,3.84395e-02,1.16970e-01,5.56720e-03,6.78465e-02,-1.16429e-01,2.11523e-01,-7.49945e-02,-1.13461e-02,1.53620e-02,
4.00676e-03,8.82013e-02,1.84273e-01,-1.19076e-01,-7.59428e-02,-7.90596e-02,3.18422e-02,-2.78638e-01,-5.00225e-02,-1.78228e-02,7.52623e-03,8.49660e-02,7.09873e-03,2.24627e-01,5.58725e-02,4.58260e-02,5.08673e-01,-2.10345e-01,-9.32105e-02,-5.65432e-02,1.16143e-02,2.04525e-01,2.14878e-01,-8.88935e-02,1.12847e-01,
2.56279e-01,1.58166e-01,1.79982e-01,5.02642e-02,-1.98438e-02,5.56281e-01,-1.00208e-01,-5.89504e-02,-3.89007e-02,-5.02761e-02,-2.73589e-01,1.61064e-02,-2.20292e-01,1.60978e-01,6.41879e-02,6.48601e-02,-5.91076e-01,3.56210e-01,-1.43453e-01,-4.70968e-01,-1.20745e-01,-2.13837e-02,-5.40224e-01,4.94872e-01,-1.85609e-01,
-1.77386e-01,-8.05277e-01,-1.66130e-01,-4.77098e-01,1.33187e-01,1.84390e-01,-3.60466e-01,2.83810e-01,3.16019e-01,1.73959e-01,-2.72773e-01,2.37123e-01,1.42463e-01,-2.65847e-01,8.16538e-02,-7.80270e-02,-2.93948e-01,-3.19975e-01,1.69315e-01,-2.41080e-01,3.47374e-01,3.57098e-01,-3.17739e-01,-9.58544e-02,-1.46252e-01,
-1.74497e-01,9.85016e-02,-2.13977e-01,2.61940e-01,3.40580e-01,-4.13238e-01,1.32658e-02,3.19765e-01,6.90220e-02,-2.26392e-01,1.48052e-01,1.85133e-01,2.04179e-02,-1.79408e-01,2.37339e-02,-2.12356e-01,2.21681e-01,-2.23644e-01,-1.21715e-01,5.24603e-02,-3.36401e-01,3.18504e-02,1.49397e-01,-4.38280e-01,1.69785e-01,
-1.12298e-01,2.76917e-02,7.63378e-02,-2.38330e-01,-7.81704e-02,3.18150e-03,-9.37220e-02,-2.30477e-01,1.38702e-03,5.03772e-02,1.33845e-01,-1.21601e-01,-4.10632e-02,6.40959e-02,-8.91606e-02,2.01307e-02,3.07998e-01,-3.70027e-02,1.26447e-01,8.14237e-02,3.63247e-01,1.77473e-01,2.02519e-01,-1.24524e-01,9.91807e-02,
1.25056e-02,4.45087e-02,3.30636e-02,-1.72314e-01,2.90785e-01,-1.05936e-01,1.78517e-01,1.43772e-01,-1.16644e-01,2.99823e-01,-1.26913e-01,6.69570e-02,-2.14525e-02,-1.26926e-01,7.90866e-02,-4.89146e-02,3.09318e-01,-1.85899e-01,-2.18777e-01,-1.12061e-02,3.74450e-02,-9.35353e-02,2.24385e-01,-1.44709e-01,9.89269e-03,
6.15936e-02,-2.57385e-02,-8.44231e-02,4.16589e-01,-6.71305e-02,2.21133e-02,-4.89706e-02,2.62456e-01,-5.67127e-02,-1.05825e-01,5.57606e-03,9.63281e-02,1.02361e-02,-7.62032e-02,-4.58763e-02,-1.29503e-01,-2.27140e-01,3.04946e-02,1.94320e-01,-1.71975e-01,-1.83473e-01,-3.27096e-01,-1.58164e-01,5.59299e-02,-4.10251e-01,
-7.88949e-02,1.56292e-01,7.84122e-02,4.31263e-02,3.21119e-01,7.74945e-03,2.32773e-01,-2.28771e-01,1.89302e-01,-2.23874e-02,3.68542e-01,1.82274e-01,-4.67968e-02,1.89266e-01,1.08364e-01,6.97957e-02,1.61627e-01,-1.40000e-01,-1.92157e-01,5.82170e-02,-7.27616e-02,-1.61639e-01,3.29050e-01,-2.06092e-01,1.86919e-01,
7.85282e-02,-1.64491e-03,1.00353e-02,2.07694e-01,-1.41829e-01,2.97410e-02,6.09713e-02,3.02478e-01,-8.45534e-02,4.49508e-01,-1.08409e-01,6.03043e-02,2.37376e-02,-9.00036e-03,-1.25820e-01,-1.61904e-03,7.78562e-02,-6.52396e-02,-2.08756e-01,-3.27789e-02,2.17478e-01,-2.42405e-01,-1.90880e-01,6.26094e-02,9.80194e-02,
-1.07242e-02,1.05891e-01,2.46407e-01,-9.79577e-02,-1.31301e-03,2.77886e-01,3.56411e-02,5.64017e-02,6.60207e-02,-1.62540e-01,-2.97842e-01,-8.73837e-02,-4.96555e-02,-2.77873e-02,1.83676e-01,1.64705e-02,-2.07854e-01,5.06766e-02,-1.44928e-02,-2.45592e-01,-3.28019e-01,-1.27219e-01,-8.93121e-02,3.24542e-01,4.02328e-04,
2.69564e-01,-7.29447e-02,1.55248e-01,-1.05868e-01,-3.25071e-01,3.26214e-01,2.28575e-01,3.14562e-01,5.21148e-02,-3.65515e-02,-2.12018e-01,2.82162e-01,-9.79705e-02,4.21053e-01,-4.75960e-01,-2.12786e-01,4.99448e-02,9.46877e-02,2.39005e-01,-1.40407e-01,3.28591e-02,2.26383e-01,-1.16128e-01,-4.59011e-02,-2.91173e-01,
-6.34430e-02,-5.19144e-02,1.34155e-01,-4.71930e-02,2.08055e-01,4.10986e-02,-5.64560e-02,2.86805e-02,6.60165e-03,-1.16131e-01,1.03243e-01,-1.32173e-01,6.02931e-03,-2.18944e-01,5.55351e-02,4.61515e-02,7.47389e-02,-1.88331e-01,1.93964e-01,2.85515e-02,8.47209e-02,-4.00090e-01,4.52250e-02,8.10088e-02,4.02223e-02,
-2.33970e-01,1.47680e-01,-4.59582e-02,-2.94638e-01,1.93359e-01,-6.44411e-02,9.67502e-02,-2.54725e-01,2.87130e-01,-3.52931e-01,3.49626e-02,-3.15638e-02,-5.39473e-02,5.14311e-02,1.61618e-02,-8.59899e-02,-3.91956e-01,6.91702e-02,-2.22803e-02,1.47858e-01,-2.36999e-01,3.54110e-01,5.80293e-02,6.47558e-02,1.17820e-01,
-6.55247e-02,2.57964e-02,-8.46560e-02,-1.17427e-01,2.45493e-01,-1.11123e-02,1.03040e-01,1.34851e-01,-9.44324e-02,1.11941e-02,-9.95676e-02,1.56920e-01,2.58687e-02,-4.87476e-02,1.82871e-01,-3.88325e-02,-9.95112e-02,-9.94474e-02,-1.71661e-01,-5.35923e-02,-2.39991e-01,-9.89189e-02,-5.22955e-02,-2.34430e-02,7.04230e-02,
-1.04490e-01,-6.37033e-02,3.38485e-02,7.37925e-02,2.15659e-02,-3.63183e-03,5.66371e-02,5.23016e-02,1.14108e-01,1.11974e-01,-4.10397e-04,-1.62995e-02,-9.59281e-03,-8.06402e-02,-1.95025e-01,-4.28675e-02,5.27215e-01,-1.45399e-01,6.20578e-02,3.19678e-02,3.87436e-02,1.61500e-01,-2.99482e-02,-1.21753e-01,8.42241e-02,
1.04768e-01,
-1.19979e-01,
-2.27509e-01,
-8.82853e-02,
-1.27727e-01,
8.38613e-02,
1.52570e-01,
1.02915e-01,
-3.27013e-01,
8.87695e-02,
3.88198e-02,
-9.56190e-02,
2.72496e-02,
1.51881e-01,
3.20240e-02,
-2.40488e-03,
-1.08719e-01,
-8.10988e-02,
-1.46029e-02,
-7.40932e-02,
6.87352e-02,
-2.68711e-01,
8.52064e-02,
4.83113e-02,
2.87091e-03,
-1.35097e-01,3.97218e-03,-5.08074e-02,5.76607e-02,-8.44533e-02,-1.59869e-01,-4.48193e-02,-1.92082e-01,-2.59529e-01,-2.16637e-01,2.33016e-02,-3.26820e-01,-1.60882e-01,2.27904e-02,-1.78648e-02,8.95581e-02,-4.31407e-02,2.27771e-01,-1.23201e-01,2.66053e-01,1.09981e-01,1.81870e-01,-3.09089e-01,1.96416e-01,-1.25249e-01,
-2.49573e-02,1.63990e-02,4.01673e-01,9.06340e-02,-1.21022e-01,3.51014e-01,-1.11201e-01,-5.23229e-01,2.79812e-01,1.89319e-01,-1.48130e-01,-2.80495e-01,2.19751e-02,1.35941e-01,-2.02841e-01,7.53585e-02,-5.67550e-02,-1.55464e-01,1.23262e-01,-6.15844e-03,7.31646e-01,-1.70511e-01,-8.36878e-02,-6.27125e-02,3.24226e-01,
-1.68766e-01,1.57086e-01,-8.17374e-02,1.98700e-01,-2.67677e-01,2.11797e-01,2.57601e-01,2.19208e-01,-2.77697e-01,-6.36578e-02,-6.47502e-02,-1.90642e-01,8.77502e-02,2.61157e-01,6.27942e-03,2.22726e-02,-4.36569e-01,1.93476e-01,-1.79669e-01,1.82476e-02,-1.35272e-02,-1.10526e-01,3.06905e-01,4.22453e-02,-3.41040e-01,
-2.04030e-01,-3.25077e-02,1.36598e-01,-1.09902e-02,-1.19125e-02,3.19647e-01,1.34542e-01,-6.15462e-01,2.28798e-01,-4.73875e-01,-1.01582e-01,-1.51774e-01,1.24083e-01,-8.34278e-02,-4.26410e-01,3.93796e-01,3.87885e-01,-1.62099e-01,7.84012e-01,2.20865e-01,1.55363e-01,-2.36084e-02,-7.39812e-01,-1.79973e-03,1.27459e-01,
1.98857e-01,3.54315e-01,2.66689e-02,1.44308e-01,-3.16741e-01,4.03686e-01,3.85955e-02,-1.97449e-01,4.77916e-02,-1.42103e-02,-1.20276e-01,-3.45764e-01,2.48073e-01,-1.74137e-01,-3.48017e-01,7.95188e-02,-2.05677e-01,-3.77286e-01,3.23799e-01,-3.11243e-01,-4.32031e-01,1.41153e-01,-3.69988e-01,2.10314e-01,-3.42695e-01,
-1.12743e-01,2.82735e-01,-4.44754e-01,1.00582e+00,2.42201e-01,1.05713e+00,-1.74217e+00,-1.73361e-01,-7.09507e-01,3.77943e-01,4.47440e-01,-9.16687e-01,2.92030e-01,6.29110e-01,4.33488e-01,4.35093e-01,-6.56325e-01,8.21861e-02,-1.52596e-01,-1.82959e+00,5.17185e-01,-4.52111e-01,1.21435e-01,1.38320e-01,6.67907e-01,
-1.71131e-01,1.08119e-01,2.51369e-01,-5.47327e-02,-8.43929e-02,6.75000e-02,-1.05879e-01,-4.91039e-01,2.79985e-01,-4.42345e-01,-1.55194e-01,-2.28780e-02,-4.66955e-02,2.72685e-02,-2.70025e-01,2.69121e-01,4.80612e-01,-4.26563e-02,3.01008e-01,4.06129e-02,3.13123e-02,8.11267e-02,-7.51648e-01,1.86231e-01,4.51322e-02,
-1.20622e-01,2.67671e-01,-1.78170e-01,-3.81936e-03,-2.70936e-01,8.42037e-02,1.21104e-01,-5.34890e-01,6.60574e-02,-1.73934e-01,2.85918e-01,6.33849e-02,-1.07060e-01,-2.10787e-01,1.83876e-01,2.16350e-01,-3.36402e-03,-1.40370e-01,3.76186e-02,8.13342e-03,1.40126e-01,1.36216e-02,-2.64744e-01,-1.20995e-02,2.68903e-01,
-3.06667e-01,1.44553e-01,1.71329e-01,-3.04707e-01,2.15599e-01,1.37412e-01,4.49289e-01,1.75616e-01,1.64123e-01,-1.91640e-01,5.87432e-02,-1.51757e-01,4.23597e-02,-3.18357e-01,-1.78397e-01,1.68838e-01,1.86540e-01,2.60151e-01,1.90532e-01,2.38839e-01,-4.19163e-01,-3.08497e-01,1.59777e-01,1.55567e-01,3.21188e-01,
-5.28344e-02,-2.20872e-01,-3.01892e-01,-2.07857e-01,-5.22807e-03,5.84206e-02,-8.73308e-02,2.49198e-01,2.58386e-02,8.86215e-02,1.23673e-01,6.35698e-02,-3.56639e-01,-1.90651e-01,2.82651e-01,-3.38060e-01,1.31332e-01,1.07324e-01,-3.13680e-01,-1.31844e-01,-1.89928e-01,-3.91741e-02,1.93498e-01,1.76048e-01,-1.55639e-01,
2.18025e-01,5.55294e-02,-1.66527e-01,7.48666e-03,1.31636e-01,-7.63659e-02,-7.09309e-02,-4.05960e-01,-3.05672e-02,-3.10437e-01,2.30473e-01,2.28641e-01,3.46887e-01,9.40088e-02,1.80183e-01,4.47894e-02,3.14567e-01,1.47484e-01,1.74862e-01,-1.04783e-01,2.36819e-01,4.78333e-02,2.29759e-01,-2.73123e-01,-1.08582e-01,
1.29737e-01,1.59586e-01,-3.33157e-01,-3.64651e-02,-1.66971e-01,-2.17631e-01,-2.88208e-02,2.23728e-01,1.74192e-02,3.56613e-01,-3.53968e-02,2.14271e-01,-1.02110e-01,-3.52610e-01,2.74128e-01,2.40847e-01,-3.50489e-01,-2.02514e-01,-3.62482e-01,-6.30952e-02,-3.66821e-01,-2.01170e-01,-8.74834e-02,-1.98766e-01,1.02663e-01,
-1.97621e-01,-4.41182e-02,3.72620e-01,-8.98304e-02,1.44431e-01,-3.32350e-01,2.00484e-02,5.67480e-01,6.03445e-02,9.32946e-02,3.01121e-01,1.15731e-01,-4.76257e-02,-1.32454e-01,2.83551e-01,3.82545e-01,-6.04296e-02,2.09391e-01,5.41889e-02,-1.55414e-01,-1.92554e-01,5.24872e-02,3.73703e-01,3.83743e-02,-1.19642e-01,
-7.14122e-02,-1.89622e-01,-5.86024e-02,-5.92653e-03,1.40226e-01,8.21613e-02,-2.03590e-01,-2.41363e-01,9.90075e-02,1.33638e-01,-1.74907e-01,4.84271e-02,3.67843e-01,4.69300e-02,-2.35502e-01,9.54436e-02,1.84526e-01,-1.96400e-01,3.33390e-01,-2.70666e-01,5.06414e-04,7.42458e-02,-1.15984e-01,-3.06790e-01,-1.16011e-01,
-2.06244e-01,2.86046e-02,-8.89058e-02,1.76529e-02,-2.51008e-01,-3.57425e-01,-2.87342e-01,2.76917e-01,1.62205e-01,4.19104e-01,-1.71673e-01,-5.57854e-02,5.57403e-02,3.80477e-02,5.16430e-01,9.30655e-02,-4.13140e-02,3.97412e-01,-3.24396e-01,8.65032e-02,6.51963e-02,4.16933e-01,-7.34948e-02,-3.96861e-01,1.55736e-01,
-1.66889e-01,-2.58767e-01,2.18533e-01,-3.44309e-01,8.04081e-02,-1.09860e-01,4.97664e-01,2.83981e-01,1.77452e-01,1.00523e-01,-1.11884e-01,-1.20199e-01,-8.53714e-02,-4.13356e-02,-2.06464e-01,2.61437e-02,4.23962e-01,1.31820e-01,-1.77883e-02,-3.82159e-02,-1.74995e-01,3.76091e-01,3.56621e-01,9.34649e-02,-1.34481e-01,
2.92025e-02,4.76695e-02,-1.34501e-01,1.65261e-01,-1.74091e-01,8.62454e-02,3.68732e-01,1.22331e-01,-7.62854e-02,-6.01845e-02,2.53408e-01,-1.51970e-02,-3.36661e-01,7.83124e-02,-4.50391e-02,3.92556e-02,-8.18377e-02,-1.05049e-01,1.32913e-01,-1.22708e-01,-2.56229e-01,-2.80980e-01,-8.82753e-02,-8.60487e-02,6.29390e-02,
-1.69800e-01,2.40853e-01,2.13057e-01,-1.25966e-01,-2.32530e-01,1.61321e-02,1.98966e-03,-2.30592e-02,-4.06356e-02,1.16318e-01,3.25451e-01,-5.32709e-02,2.31494e-01,1.44097e-01,-2.42469e-01,-2.10843e-01,-1.83270e-01,1.20586e-01,-1.11548e-01,-2.69980e-01,-2.38115e-01,9.40181e-02,-1.01260e-01,1.48577e-01,1.06269e-01,
2.56948e-01,1.83964e-01,-7.92794e-02,-1.00435e-01,1.73464e-02,9.97565e-02,-2.16152e-01,-1.16055e-01,7.84712e-03,-1.07354e-01,2.28284e-01,1.68103e-01,-7.97795e-02,3.18668e-01,-7.18386e-03,-2.22099e-01,-1.38936e-03,-2.85570e-01,1.60102e-01,-3.28092e-01,-4.93088e-02,2.53796e-01,2.50692e-03,-6.25810e-03,1.40636e-01,
-9.26689e-02,7.93562e-02,-1.41607e-01,3.50875e-01,1.67718e-01,1.05570e-01,-3.06515e-01,-5.29116e-01,-3.29247e-01,1.09794e-01,1.07785e-01,-2.41660e-01,4.64130e-01,-2.94592e-01,-3.83425e-01,-1.17354e-01,8.37493e-02,8.62397e-02,-6.04796e-02,3.75757e-03,1.00056e-01,1.03394e-01,-1.60741e-02,1.16878e-01,2.02769e-01,
1.43605e-02,-1.51644e-01,5.26107e-02,2.48390e-01,3.00974e-01,-1.85868e-02,-1.16967e-01,-2.62262e-01,-2.79600e-01,2.79094e-02,-4.72596e-02,-2.63276e-01,2.63243e-02,2.42348e-01,1.81494e-01,-3.12652e-02,-2.18491e-01,-7.00077e-02,3.47396e-01,2.19664e-01,-6.67478e-02,-1.78128e-01,2.41649e-01,-9.36245e-02,2.39780e-01,
3.95687e-01,-5.45145e-01,7.41124e-02,3.10016e-01,4.47373e-01,4.06518e-02,3.05221e-01,3.28451e-01,-8.32319e-02,5.40996e-02,4.21436e-01,-1.98922e-02,4.43872e-01,-1.94955e-01,-1.62607e-01,-3.87645e-01,8.82632e-03,-2.10997e-02,-3.26624e-02,1.78562e-01,5.05653e-01,-2.60762e-01,8.06310e-01,-8.14578e-02,-8.46189e-02,
-2.47185e-01,1.34102e-01,-3.13355e-01,1.79422e-01,3.97192e-02,1.96626e-02,1.28473e-02,1.94070e-01,2.05323e-01,2.59287e-01,-3.28617e-01,-1.90429e-01,-5.18012e-02,1.01235e-01,-2.67221e-01,5.10927e-02,-2.02864e-01,2.85661e-01,7.80564e-02,-6.00220e-02,-4.58993e-01,3.65821e-01,4.50116e-02,-1.73136e-01,-1.17151e-01,
2.87922e-01,-1.88564e-01,-2.71701e-01,1.50302e-01,-1.80311e-01,-1.54214e-01,-1.44123e-01,-2.19054e-02,3.36563e-01,-2.50997e-01,2.14138e-01,1.87886e-01,-8.18822e-02,1.03006e-02,1.35822e-01,-1.64451e-01,-1.77976e-01,1.04623e-01,-2.12058e-01,2.43271e-01,2.65247e-01,2.24579e-01,-4.02381e-01,7.90702e-02,1.28392e-02,
-1.83647e-01,3.28709e-01,2.49272e-01,3.52724e-01,-5.94980e-02,-5.66623e-02,-3.53256e-01,2.91421e-01,-4.66588e-01,-1.30632e-01,3.21684e-01,1.27167e-01,3.49466e-01,-4.82735e-02,1.15142e-01,2.80660e-01,-5.21552e-01,2.21857e-01,7.95936e-02,-4.77828e-01,-3.74915e-01,-3.57207e-01,4.26075e-01,-3.59041e-01,-2.90931e-01,
-2.94445e-01,
-3.50352e-01,
2.74921e-02,
-7.52852e-02,
3.54212e-02,
2.74118e-01,
2.02520e-02,
2.68197e-01,
-2.19600e-01,
2.42455e-01,
-8.35969e-02,
2.74655e-01,
-7.10381e-02,
-3.79320e-02,
9.24454e-02,
1.12630e-01,
-1.57584e-01,
-2.59396e-01,
1.45674e-01,
-2.20169e-01,
-1.73421e-01,
-1.95813e-01,
2.72594e-01,
-3.54351e-01,
1.57131e-01,
-3.37043e-01,6.25325e-02,1.49766e-01,7.91640e-02,-1.36263e-01,4.33393e-01,-9.36197e-02,4.38052e-02,-2.00400e-01,2.67931e-01,-1.21403e-01,-9.91106e-02,-2.50337e-01,4.98784e-01,1.19818e-02,-3.66763e-01,-4.98582e-02,-4.71364e-01,-2.64809e-02,4.14668e-01,-7.49425e-02,1.05048e-01,7.14816e-02,-2.23275e-01,2.42305e-02,
-8.51038e-02,4.66351e-01,1.08573e-02,-5.72573e-02,1.20201e-01,3.45339e-01,-2.50581e-01,-1.21376e-01,6.62460e-02,-2.73830e-01,2.47779e-01,3.14015e-01,-2.26579e-03,1.08430e-01,-1.14200e-01,-3.63108e-02,-2.28526e-01,-5.84040e-02,-3.94501e-01,2.34776e-01,4.95469e-01,2.45208e-01,-9.41487e-02,4.59386e-01,1.26295e-01,
9.09799e-02,1.49104e-01,-1.84849e-01,4.98456e-02,1.46751e-01,4.70441e-01,-5.91451e-01,1.43211e-01,2.18821e-01,-8.95263e-02,-1.33032e-01,-2.87740e-01,-3.58381e-02,2.55552e-01,-9.92856e-02,-3.30458e-02,8.46719e-02,-3.51811e-01,1.36660e-01,3.58696e-01,-1.50440e-01,5.02128e-02,7.46834e-02,2.35080e-01,5.47388e-02,
-9.00683e-02,3.93929e-01,3.35663e-03,-1.53172e-01,-4.43062e-01,2.17592e-01,-1.40258e-01,-3.21432e-01,-1.77745e-01,-3.06463e-01,1.72339e-01,-4.66672e-01,3.74588e-01,-6.82672e-02,1.34097e-01,-5.99518e-02,7.33418e-02,-6.05189e-02,-5.56243e-02,3.06990e-01,-9.05439e-02,2.48916e-01,-4.54375e-01,-1.07828e-01,-6.52903e-02,
2.70196e-01,-2.09517e-01,-3.53269e-02,2.22399e-01,1.88106e-01,3.95528e-01,-9.63395e-02,-2.51302e-01,1.98560e-01,-3.32153e-01,4.04209e-01,2.40047e-01,-9.57303e-03,4.87182e-01,2.37237e-02,-2.99976e-02,3.19613e-01,2.14288e-01,-2.67043e-01,3.24635e-01,1.24758e-01,-1.61388e-01,-1.67700e-01,3.29434e-01,-3.90950e-01,
-2.77522e-01,
3.21554e-01,
-5.68345e-02,
3.29902e-01,
4.65786e-01,
