// Neural Network File Format by Kyle Julian, Stanford 2016
6,5,5,25,
5,25,25,25,25,25,5,
0,
-56000.000000,-56000.000000,-3.141593,200.000000,200.000000
56000.000000,56000.000000,3.141593,200.000000,200.000000
-278.628049,0.000000,0.000000,200.000000,200.000000,-0.242819
112000.000000,112000.000000,6.283185,1.000000,1.000000,17.479225
-9.73185e-02,-2.14293e-01,-1.85746e-01,5.22363e-02,4.46442e-01,
-4.14997e-02,-9.83042e-02,2.85953e-01,-1.90832e-01,3.00629e-01,
4.95765e-02,2.92235e-02,2.69675e-01,2.33064e-01,-2.57032e-01,
-4.37158e-03,-2.78534e-01,-3.22290e-01,4.04842e-01,-1.82175e-01,
-5.30638e-02,1.70014e-01,2.28917e-01,6.42121e-03,-3.66881e-01,
-1.67587e-03,-1.16670e-01,1.30353e-01,4.32195e-01,2.29466e-01,
1.10051e-01,-7.26465e-02,7.04819e-02,1.87995e-01,-3.63414e-01,
3.08155e-01,8.86851e-02,-2.24834e-01,-4.03003e-01,6.10128e-02,
5.40774e-02,-2.87717e-01,2.14695e-01,2.32827e-01,-2.00152e-01,
2.95555e-01,5.67028e-02,-7.52178e-02,-4.54414e-02,3.80543e-01,
2.03800e-01,-1.39126e-01,1.43543e-01,2.83756e-01,-2.46439e-01,
8.02563e-02,1.77402e-01,8.66286e-02,2.73340e-01,-8.55885e-02,
1.73623e-01,1.74838e-02,2.13493e-01,3.02562e-02,-9.03767e-03,
-1.04636e-02,-1.88179e-01,-9.07621e-02,-2.23331e-01,2.18769e-01,
6.64255e-02,1.80142e-01,-1.25554e-01,2.09824e-01,7.13351e-02,
8.83307e-02,-2.49339e-01,8.56792e-02,-7.28729e-02,-2.10462e-01,
-3.48961e-01,-1.05442e-02,-1.29866e-01,2.08657e-01,-9.67857e-03,
5.28166e-02,-1.62489e-01,8.24839e-02,-1.10131e-01,-3.80215e-02,
-4.36626e-02,-2.53901e-01,-3.05772e-02,4.12697e-01,-1.50394e-01,
1.81206e-01,-1.06110e-01,3.36621e-01,2.21538e-01,1.98526e-01,
1.38240e-01,-1.63684e-01,1.13068e-01,3.89758e-01,1.08098e-01,
-1.41781e-01,-1.25476e-01,-3.35995e-02,-2.06086e-01,-2.41037e-01,
4.13814e-01,1.19231e-02,9.22166e-02,-2.98122e-01,1.50926e-01,
1.92461e-01,-9.90917e-02,2.70201e-01,-4.13127e-01,-1.85848e-01,
-4.10071e-01,-6.35892e-02,1.70277e-01,-4.14854e-01,-3.16048e-01,
-5.61739e-02,
-1.79368e-01,
-1.16321e-02,
8.05294e-02,
-2.24292e-01,
-8.94100e-02,
-1.88849e-01,
-1.10488e-01,
1.32202e-01,
2.54308e-03,
-5.20572e-02,
-1.66589e-01,
-2.16895e-01,
1.93282e-01,
-2.05974e-01,
6.27536e-02,
-1.09430e-01,
1.66369e-01,
2.49628e-01,
-2.46287e-02,
2.56697e-01,
-2.71824e-01,
1.15332e-01,
2.44544e-01,
-3.63429e-01,
2.25289e-01,1.73816e-01,2.42437e-01,-6.20928e-02,1.55754e-01,2.41633e-01,2.64621e-01,-8.70069e-02,3.35070e-01,-4.41881e-01,-1.57890e-01,4.14700e-03,-3.77442e-01,3.05339e-01,2.63399e-01,2.77863e-02,-2.28697e-01,2.23159e-01,1.19449e-01,-7.73238e-02,2.57841e-01,2.26310e-01,-1.74842e-01,2.16430e-01,-1.29561e-01,
-3.65313e-02,-2.69324e-01,-3.99194e-02,-2.57595e-01,-3.30086e-01,2.46123e-01,-2.24883e-01,8.17224e-02,-5.61329e-02,-2.69192e-02,6.83175e-02,-2.60473e-01,-3.87000e-02,-2.22812e-01,1.13125e-01,5.07546e-04,-6.72624e-02,1.47285e-01,2.37573e-01,-1.39102e-01,1.07275e-01,-1.84525e-01,-1.58893e-01,1.24325e-01,2.59196e-01,
-1.08714e-01,2.35403e-01,6.02033e-02,2.83472e-01,-2.67161e-01,9.78713e-02,-1.92118e-01,2.03330e-01,2.38382e-01,2.05630e-01,-3.93704e-01,-3.01456e-01,1.30454e-01,1.52037e-01,1.71277e-01,-3.07978e-02,-4.03865e-02,-1.99722e-01,3.73247e-01,1.28686e-01,5.26303e-02,-3.63983e-01,7.74515e-02,2.20367e-01,2.33366e-01,
-7.39032e-02,-1.74922e-01,-4.44517e-02,-1.90907e-01,3.87073e-02,1.73919e-01,5.83759e-06,-3.95197e-02,1.68937e-01,-1.57747e-01,2.34593e-01,-2.51437e-03,-3.15237e-02,-2.73912e-01,1.53697e-01,-2.60761e-01,-2.11256e-01,2.93994e-01,-4.98243e-02,-5.11727e-02,-1.23273e-01,-2.40807e-01,-1.66203e-01,1.01077e-01,6.76100e-02,
-1.56643e-01,1.03201e-01,1.46404e-01,1.34365e-01,-2.71119e-01,-8.47023e-02,-2.64034e-01,3.28356e-01,2.38097e-01,-2.35841e-01,-1.87582e-01,-1.47478e-01,1.09067e-01,-3.81262e-02,-1.93976e-01,-2.89412e-01,3.38711e-01,-3.44984e-01,8.61376e-02,1.08433e-01,-2.99913e-01,2.27972e-01,1.64078e-01,1.36669e-01,6.31773e-02,
1.74468e-02,-1.42255e-01,-1.18884e-01,1.46136e-01,2.23883e-01,5.34960e-02,1.22287e-01,1.59672e-01,-5.00541e-03,-1.13721e-01,-3.07476e-01,-2.69240e-01,-3.41355e-02,-3.08339e-01,1.60170e-01,-1.37505e-01,-2.35083e-01,8.93826e-02,-2.04947e-01,1.49592e-01,2.67920e-01,-9.39244e-02,1.19841e-01,1.45228e-01,1.21006e-01,
-2.81021e-01,-8.45734e-02,1.23183e-01,1.81356e-01,-2.81994e-02,-3.97227e-01,5.13891e-02,2.34978e-01,2.07095e-01,-7.96937e-02,-2.83963e-02,-1.24872e-01,1.84572e-01,-2.11405e-01,1.33273e-01,1.73141e-01,-2.31922e-01,2.17176e-01,3.29392e-01,-3.94287e-01,-2.32124e-01,-1.57651e-01,1.77663e-01,3.84545e-03,-1.68542e-03,
1.31843e-01,-2.32135e-01,8.47753e-02,1.83615e-02,3.64613e-01,-3.12218e-01,9.79677e-02,2.76893e-01,5.74891e-02,-2.32277e-01,1.72724e-01,-2.15089e-01,9.04319e-02,-6.77122e-02,3.75082e-02,-1.62674e-01,3.00893e-01,2.32097e-01,-1.05175e-01,3.38848e-02,2.28717e-01,5.03502e-02,6.53818e-02,8.92192e-02,1.53362e-02,
-2.22462e-01,-7.77471e-02,1.35243e-01,1.61962e-01,1.06465e-01,-2.55646e-01,3.80666e-02,2.24810e-01,8.38877e-03,-2.89514e-01,2.78110e-02,-2.59520e-01,1.26929e-01,-3.40386e-01,3.72794e-01,7.22171e-02,6.16365e-02,2.79469e-02,1.24976e-01,-1.73523e-01,1.61684e-01,2.72503e-01,1.10063e-01,1.96384e-01,1.74530e-01,
-1.03963e-01,-2.20691e-01,-2.08677e-01,-1.04901e-01,4.76906e-02,-2.08188e-01,-3.15278e-01,1.05856e-01,2.26725e-01,-1.95548e-01,-1.14650e-01,1.75304e-01,6.74791e-02,3.50319e-01,-3.47755e-01,3.71404e-02,-2.30161e-02,1.61939e-01,-8.87492e-02,-9.38075e-02,1.43365e-01,2.53631e-01,-3.03173e-01,2.28645e-01,-2.03736e-01,
-2.72589e-01,6.77979e-02,4.81220e-03,2.70339e-01,-2.47000e-02,-3.59545e-01,1.65621e-01,2.52816e-01,1.91122e-01,1.45647e-01,2.21138e-01,1.84258e-01,5.52106e-02,1.90231e-01,2.67117e-01,2.60043e-02,1.09119e-01,1.18825e-01,3.28304e-01,-4.48206e-03,-2.99829e-01,-3.13776e-01,2.19279e-01,-1.88885e-01,-2.41474e-01,
8.79124e-02,-2.74719e-01,-1.10201e-01,1.93183e-01,-2.49963e-01,-2.43614e-01,1.00976e-01,-2.69117e-01,1.59270e-01,-3.32459e-01,-4.74211e-04,1.16263e-01,-1.11414e-01,-3.47708e-01,1.04071e-01,2.36544e-01,2.88299e-01,-2.52597e-01,2.35018e-01,2.44688e-01,-2.17544e-01,-2.40495e-01,-1.40511e-01,-3.27748e-01,2.53417e-01,
-2.41752e-01,2.52019e-01,2.95878e-01,1.75423e-01,-1.32846e-01,-2.36192e-01,1.44842e-01,1.01176e-01,-3.17598e-01,-5.29373e-04,-1.65330e-01,-1.14805e-01,3.94165e-02,1.72749e-01,2.56722e-01,-1.08811e-01,-2.65194e-01,2.16499e-01,1.36495e-01,2.47851e-01,2.79267e-02,1.36972e-01,1.25756e-01,-2.82415e-01,3.88563e-01,
4.04768e-01,2.91258e-01,6.25505e-02,-2.52599e-02,7.56517e-02,1.88907e-01,-1.61324e-01,-2.55118e-01,-5.74813e-02,-1.44658e-02,7.12419e-02,2.70726e-01,3.15866e-01,4.39447e-02,3.40549e-01,2.07228e-01,-2.03476e-01,-1.26221e-01,2.39658e-01,-2.80633e-01,-1.77063e-01,-3.09594e-01,1.61573e-01,-2.83310e-01,5.45912e-02,
-4.71160e-02,-1.53849e-01,-2.25049e-01,-3.42715e-01,-3.64932e-02,9.50875e-02,-2.36940e-01,3.80383e-02,6.05850e-02,5.12252e-01,3.49067e-01,3.62399e-01,2.51902e-01,2.00696e-01,-2.56026e-01,9.36199e-02,7.89033e-02,3.22814e-02,2.47557e-01,2.49460e-01,-3.68292e-01,3.74682e-01,-3.74512e-01,-3.71736e-01,-9.66605e-02,
3.11109e-01,8.89197e-02,-2.44965e-01,-9.16804e-02,1.72525e-01,2.17233e-01,1.12953e-01,-1.55205e-01,-1.61895e-01,6.37233e-02,3.01403e-01,-2.78003e-01,-2.92764e-01,-3.06648e-01,-1.38645e-01,-2.59354e-01,2.70623e-01,-8.36869e-02,7.68461e-02,-8.10150e-02,3.13992e-01,-3.26974e-01,-4.13205e-02,3.30610e-01,-2.49523e-01,
9.65719e-02,-1.74430e-01,-3.42519e-02,-4.65297e-02,-1.08925e-01,-3.20554e-01,-7.77322e-02,7.11321e-03,7.46279e-02,-8.54202e-02,-1.35160e-01,2.30358e-01,1.36016e-01,2.15871e-01,-3.19669e-01,-7.31053e-02,-8.60716e-03,-2.10470e-01,3.10217e-01,1.15130e-02,3.11086e-01,-1.39794e-01,-2.99301e-01,-1.00069e-01,-2.30921e-01,
4.26409e-02,-1.34912e-03,2.14311e-01,-2.21083e-01,-3.62572e-02,1.10442e-01,-2.19547e-01,4.52491e-02,2.60228e-01,8.69034e-02,-2.25103e-01,-2.79396e-01,1.18582e-01,3.42508e-02,-1.57190e-01,-3.37172e-02,-2.70582e-01,2.77756e-01,2.29243e-02,8.54873e-02,1.04674e-01,-7.77146e-02,-2.46497e-02,-3.64329e-01,3.96032e-02,
-1.06440e-01,-2.22600e-01,-3.08290e-01,3.01386e-01,4.38560e-02,-3.20072e-03,1.96822e-01,-3.40343e-01,-1.22295e-01,-1.15921e-01,-6.06016e-02,5.68732e-02,1.12763e-01,2.86095e-01,2.60880e-01,2.22104e-01,-6.26292e-02,1.90312e-03,2.43943e-01,-2.20809e-01,3.15172e-01,1.35755e-01,1.76235e-01,-9.71500e-02,-2.58899e-02,
-8.93789e-02,9.34446e-02,1.63206e-01,1.98554e-01,8.47102e-02,1.50554e-01,1.26453e-01,1.64035e-02,-1.62434e-01,1.60100e-01,2.67459e-01,-9.17550e-02,-2.88877e-01,2.23686e-01,-1.89993e-01,-2.97929e-01,-8.85449e-02,2.49800e-01,2.58229e-01,-1.25378e-01,-2.44326e-01,2.18902e-02,2.88215e-02,-2.80833e-01,2.22582e-01,
-3.00199e-01,1.33397e-01,-5.93055e-02,4.82051e-02,1.51523e-01,-2.05246e-01,2.21202e-01,4.34697e-02,-3.49640e-01,4.17246e-01,1.33318e-01,-2.79372e-01,-9.07113e-02,-7.37310e-02,-1.96299e-01,-2.21967e-01,2.84468e-01,2.13670e-01,-3.81982e-02,-2.11379e-01,2.10899e-01,-6.30583e-03,2.63030e-01,1.07875e-01,3.11622e-01,
-3.99723e-01,5.34522e-02,-5.01576e-02,1.88398e-01,-2.04429e-01,-2.66292e-01,2.22925e-01,-5.25043e-02,1.54305e-01,-5.88011e-02,1.99416e-01,1.52460e-01,-3.04647e-01,-3.17045e-01,-3.14170e-01,-3.60983e-01,2.99758e-01,2.47027e-01,-9.33325e-02,-1.66323e-01,1.49951e-01,9.74901e-02,-7.70590e-02,2.90684e-01,-2.09060e-01,
-1.39318e-01,2.00380e-01,1.42434e-01,-2.04918e-02,-2.16337e-01,-1.17521e-01,1.25327e-01,1.78229e-01,-8.10231e-02,3.28383e-01,1.95470e-01,-1.59591e-01,-2.33209e-01,-1.73953e-01,-2.66667e-02,-1.98453e-01,-2.42553e-01,-1.33102e-01,-1.58763e-01,-1.18762e-01,2.70714e-01,2.80077e-01,-2.45639e-01,7.78255e-02,2.93334e-01,
-1.98594e-01,-3.18724e-02,3.20311e-01,5.45557e-02,1.72299e-02,-4.03606e-02,-1.82408e-01,1.98985e-01,-6.80703e-03,-4.49163e-01,1.18860e-01,-3.47334e-01,-2.93474e-01,-1.18537e-02,1.28110e-01,2.84055e-01,-4.03674e-01,2.02981e-01,5.70503e-02,-7.71048e-02,-1.96886e-01,-2.78330e-01,-1.11112e-01,-1.00807e-01,3.08923e-02,
-3.98453e-01,-1.51111e-01,4.51882e-01,2.79687e-01,9.87063e-02,-2.62806e-01,4.80426e-02,-2.37621e-01,-3.18257e-01,5.28131e-03,-1.45031e-01,-7.78364e-03,-2.50852e-01,1.75940e-01,-1.92524e-01,4.74907e-02,4.73444e-02,-1.49007e-02,1.26510e-01,2.74982e-01,-1.18276e-01,-1.55554e-01,2.02394e-01,-2.57292e-01,-1.25680e-01,
-1.64173e-01,
-1.92528e-01,
-2.82787e-01,
-2.16260e-03,
2.58745e-01,
1.63209e-01,
-1.91792e-01,
3.85956e-02,
1.25196e-01,
-1.27478e-01,
-1.12996e-01,
1.11116e-01,
2.58940e-01,
1.93279e-01,
2.21886e-01,
-2.39816e-01,
-1.28846e-02,
-1.34196e-01,
-2.72851e-01,
1.37896e-01,
3.90625e-02,
-2.35587e-01,
1.53274e-01,
-2.00499e-01,
-2.32172e-01,
-6.37603e-02,5.06115e-02,2.90700e-01,-7.86811e-02,1.74514e-01,-2.90627e-01,-7.58896e-02,-5.40972e-03,-3.68448e-02,1.16349e-02,3.00448e-01,-1.42860e-01,1.50237e-01,-3.06304e-02,-2.78833e-02,1.05817e-01,-5.72773e-02,-4.83122e-02,-1.84612e-01,-3.26262e-01,-8.53612e-03,-1.03312e-01,3.36461e-03,8.99502e-02,3.98203e-02,
-2.86981e-02,4.93054e-02,-2.13080e-01,-3.55754e-04,2.04082e-01,-3.27233e-01,1.15244e-01,9.21180e-02,-6.85501e-02,-1.48766e-01,5.53384e-02,-1.58554e-01,-1.46073e-01,-1.64002e-01,-6.90159e-02,2.26833e-02,-2.23324e-01,-1.39656e-01,2.09005e-01,-2.54106e-01,6.79660e-02,-4.23341e-03,8.54169e-02,-1.00450e-01,-4.16228e-03,
-1.46209e-02,-1.65357e-01,2.49928e-01,-3.90705e-02,1.66960e-01,-1.66250e-01,1.36071e-01,-2.35656e-02,-1.13871e-01,-1.64719e-02,-1.25320e-01,-1.60961e-01,-2.33666e-01,1.17673e-01,-3.05695e-02,1.42432e-01,-2.53090e-01,1.84962e-02,-1.45090e-01,2.25459e-01,2.17314e-02,-1.15084e-01,-4.40424e-02,1.59596e-01,1.83068e-01,
-3.86863e-02,-2.07612e-01,-9.07495e-02,7.81678e-02,1.69865e-01,2.42487e-01,3.68998e-02,6.55638e-02,-6.47768e-02,-3.19980e-01,1.36326e-02,-6.26203e-02,-3.14639e-01,-2.77270e-02,-6.60926e-02,-1.04508e-01,-1.21175e-01,-1.05690e-01,9.04405e-02,-1.63269e-01,8.08101e-02,1.82258e-02,-2.28541e-02,-1.43213e-01,-2.32543e-02,
1.38577e-02,1.02435e-01,-7.82707e-03,-2.47192e-01,-1.94184e-01,3.27020e-01,-1.30891e-01,-1.79461e-02,5.59757e-02,1.69272e-01,-4.56507e-02,1.07684e-02,-2.26532e-01,1.09145e-01,9.39358e-02,2.31534e-02,1.61960e-02,-1.86127e-01,1.94466e-01,2.25838e-01,4.01451e-02,1.17627e-04,5.87281e-02,9.94751e-02,-3.25161e-02,
9.39692e-02,-2.02011e-01,9.57057e-02,-2.25803e-01,3.94797e-02,3.93008e-01,-2.68004e-01,-5.75070e-02,1.05007e-01,3.17679e-01,9.56796e-03,2.81472e-01,1.40708e-01,2.77510e-01,2.94668e-02,1.80933e-02,3.85162e-01,-1.02518e-01,-9.55232e-02,3.76808e-01,-1.95995e-02,-4.04524e-02,-8.96921e-02,1.19255e-01,-1.71613e-01,
1.22077e-01,7.01663e-02,-1.20291e-02,7.78576e-02,-2.90525e-01,1.94511e-01,1.49915e-01,-4.39705e-02,5.84254e-02,1.33888e-01,1.98530e-01,9.21702e-02,5.86424e-02,-8.29032e-02,2.88165e-02,-9.20766e-02,-5.56899e-02,1.94519e-01,2.27204e-01,2.02964e-01,-6.78079e-02,1.31339e-01,-5.31362e-02,-1.12537e-01,5.47849e-02,
-9.54885e-02,-3.21719e-02,-2.82513e-01,-6.74036e-02,-6.35844e-02,-1.42022e-01,-1.97054e-01,7.03378e-02,-1.48650e-01,3.37097e-02,-6.11269e-02,-2.44612e-01,-2.36831e-01,2.45163e-01,6.37841e-02,1.31271e-01,-6.82157e-02,-7.39127e-02,2.92425e-01,-6.35924e-02,-9.75360e-02,-1.47163e-01,1.14784e-01,2.79955e-01,-3.07650e-01,
2.37530e-01,2.95110e-03,4.29182e-02,-1.49146e-01,1.46313e-01,-5.14568e-03,-2.63958e-01,-3.97314e-02,6.16153e-02,1.67822e-01,9.89069e-02,7.45378e-02,1.59752e-01,2.80154e-01,6.04701e-02,4.43104e-02,3.57716e-02,3.55107e-01,-6.76734e-02,-1.63043e-02,2.04877e-02,-8.04364e-02,8.85864e-03,1.70702e-01,3.25508e-02,
-6.99080e-02,6.52993e-02,1.78535e-01,-1.13880e-01,2.65001e-01,2.21974e-01,1.38990e-01,-5.77778e-02,-1.19084e-02,-7.92346e-02,-1.70315e-01,1.82458e-02,-3.02302e-02,7.73903e-02,1.76737e-02,3.57721e-02,-1.70604e-01,2.19751e-01,-3.71398e-02,-6.10471e-02,1.37160e-02,3.85724e-02,-5.14223e-02,2.80279e-02,2.27513e-01,
1.08712e-02,1.18263e-01,1.49040e-01,-2.39215e-01,-2.52097e-01,1.31811e-01,-2.82164e-01,-1.46609e-01,6.40600e-02,-1.59810e-01,1.04104e-01,9.53103e-02,2.20566e-01,3.25150e-01,2.21366e-01,1.61696e-01,-2.22927e-01,-3.76035e-01,-6.54081e-02,-1.63925e-02,3.43098e-02,-1.43467e-01,1.41550e-02,4.20098e-01,1.54742e-01,
-1.46777e-01,2.74761e-01,2.43266e-01,2.37127e-01,-2.82475e-01,1.66834e-01,1.47641e-01,-1.37552e-01,-8.78648e-02,-3.12830e-01,1.44854e-02,3.12774e-01,9.12326e-02,-1.78116e-01,1.03216e-01,-1.28667e-01,-2.48803e-01,1.42154e-01,-5.69025e-02,1.49052e-01,-3.13849e-01,1.52534e-01,-1.51208e-01,4.22726e-03,1.16851e-01,
-3.37547e-02,1.95170e-03,1.02703e-01,1.67324e-01,1.90213e-01,-2.00896e-01,1.96278e-02,8.99997e-02,-1.00217e-01,1.40631e-01,-3.02669e-01,1.07165e-01,-1.40687e-02,7.02288e-02,-6.92503e-02,-1.37963e-02,7.49362e-02,5.47048e-02,1.86583e-01,-9.76164e-02,5.39137e-02,-8.02852e-02,6.62050e-02,-5.98485e-02,-4.87730e-03,
1.83275e-01,-4.20391e-01,1.05730e-01,9.81212e-02,3.31154e-01,3.02943e-01,-8.91114e-02,-2.16441e-02,-9.35121e-02,8.00312e-02,2.27126e-01,2.28804e-01,-2.52395e-02,1.45104e-01,-1.68138e-01,7.23483e-02,6.35302e-02,-1.06874e-01,-2.63341e-01,3.02963e-01,-2.47187e-01,-1.04429e-01,-1.85341e-01,-1.43781e-02,-3.08750e-01,
-6.52981e-03,1.29492e-01,2.19340e-01,3.13113e-02,3.18623e-01,-2.44076e-02,-6.85752e-02,2.82679e-02,5.68148e-02,-1.08368e-01,1.37771e-01,-3.34247e-02,4.61342e-02,-9.67109e-02,-6.66983e-02,-6.70980e-02,2.89616e-01,1.90900e-01,-2.83904e-01,1.19199e-01,-3.65952e-02,-2.62683e-02,-6.71701e-03,-1.03816e-01,-1.65201e-01,
1.09189e-02,2.14314e-01,-1.35051e-01,-2.81410e-02,-5.35932e-02,-2.50033e-01,-3.46558e-01,3.37903e-02,-7.29762e-02,-2.08391e-01,2.47522e-01,-1.79442e-01,1.07256e-01,-3.46111e-01,-1.52416e-03,6.67939e-02,1.52676e-01,-3.81764e-01,-3.86601e-01,2.63074e-01,-2.75051e-01,-4.30393e-02,9.75566e-04,5.51648e-02,-4.65889e-01,
1.13221e-01,1.27410e-01,-1.73201e-01,-7.10068e-02,2.29814e-01,1.81467e-01,3.25776e-01,5.74171e-02,-6.19195e-03,1.51974e-01,-2.60983e-01,-1.53433e-01,-1.40265e-01,-7.88094e-02,-1.37477e-01,1.35659e-01,-2.39007e-01,-3.00247e-01,1.74738e-01,-1.98047e-01,-9.36131e-02,8.11398e-02,1.01524e-01,-2.09612e-01,-1.81342e-01,
-1.65115e-01,-5.16237e-01,-2.23629e-01,2.64808e-01,8.48729e-03,-1.63338e-02,1.47356e-01,-3.46901e-02,1.41394e-02,2.71411e-01,1.52610e-01,2.01150e-01,-1.31766e-01,1.03883e-01,-1.88061e-01,2.33612e-01,1.64855e-01,1.99858e-01,-2.51414e-01,1.66422e-01,-2.89575e-01,-1.39613e-01,-6.14711e-02,1.22364e-01,-2.37209e-01,
2.10940e-01,-5.86252e-02,2.31173e-01,1.15113e-01,-3.52801e-01,-1.65933e-01,2.06184e-01,6.74207e-03,3.98088e-02,1.53568e-02,-2.14067e-01,4.97645e-02,-3.41505e-01,-2.82915e-01,1.51991e-02,-8.38957e-02,-2.01235e-01,1.58259e-01,1.24418e-01,1.26561e-01,1.73460e-01,9.82189e-02,1.25185e-03,-1.20269e-01,3.23904e-01,
-9.01939e-03,5.57830e-02,-2.17763e-01,1.26547e-01,-1.42879e-01,2.81960e-01,-3.45475e-01,6.28815e-02,5.00533e-02,1.88357e-01,2.86900e-01,4.91105e-02,-5.68251e-02,7.45719e-03,2.07947e-02,-1.76334e-01,-9.17311e-02,3.26005e-01,1.79819e-01,2.19213e-01,-2.99324e-02,-6.76520e-04,8.48075e-02,-1.58534e-01,-1.35337e-01,
-1.49853e-01,-1.20233e-01,-3.00098e-01,1.69061e-01,2.88790e-01,-1.75631e-01,2.39200e-01,1.08589e-01,-4.98294e-02,-8.81662e-02,-1.69534e-01,-1.63435e-01,-2.94708e-01,-2.02084e-01,-1.67854e-01,4.92225e-02,3.37695e-01,1.53899e-01,1.62661e-01,-1.06970e-01,-2.66497e-02,7.36275e-04,7.97505e-02,-1.62971e-01,-1.12051e-01,
1.65555e-01,-1.24732e-01,-3.83896e-01,-4.53338e-01,-1.89797e-01,4.03523e-01,-1.77363e-01,-1.52836e-01,3.32205e-01,1.06041e-01,1.86698e-01,1.46643e-02,3.07528e-01,-2.98156e-02,1.32162e-01,2.58266e-02,2.42842e-01,-4.68279e-02,-3.25398e-01,1.05141e-01,-5.11095e-02,2.46214e-01,-1.34009e-01,5.62897e-02,-1.94158e-01,
3.51807e-04,1.55347e-01,3.82728e-01,3.37384e-01,-4.22113e-01,1.36601e-01,-1.67920e-01,9.59742e-02,-7.94690e-02,-1.00800e-01,-4.07071e-02,1.80888e-01,4.07792e-03,1.85329e-01,3.45457e-02,-2.19967e-01,1.72744e-01,-4.14850e-01,1.46170e-01,-3.03250e-01,9.51373e-02,-1.44081e-01,1.01421e-01,-5.11768e-02,-1.05738e-01,
-7.71705e-03,-1.60287e-01,1.84506e-01,-1.16733e-01,-1.68272e-01,1.52255e-01,2.90623e-02,-4.09671e-03,3.26866e-02,1.09142e-01,-2.14893e-01,-7.29608e-02,-2.84352e-01,3.01375e-02,5.04977e-02,-3.72508e-02,1.75971e-01,5.25159e-02,2.28303e-01,2.08137e-01,1.65858e-01,2.24599e-02,-3.71415e-04,2.47473e-02,1.52612e-01,
-4.37837e-02,-1.79945e-02,1.41578e-02,1.08371e-01,-7.82518e-02,-2.02061e-01,1.39973e-01,2.30821e-03,6.97750e-03,7.67729e-02,-8.81357e-02,7.00595e-02,1.16478e-01,-8.43629e-02,-3.22500e-02,1.61788e-02,1.63524e-02,-5.85577e-02,-1.42680e-01,1.26425e-02,-5.66372e-03,-2.17377e-04,-1.56532e-03,-3.26714e-02,3.52547e-02,
2.75213e-02,
2.95961e-01,
6.84894e-02,
7.18636e-02,
-2.35656e-01,
2.60299e-03,
3.80795e-02,
9.57201e-02,
-1.00168e-01,
1.36111e-01,
1.01005e-01,
1.51630e-01,
-1.15437e-01,
-2.37619e-01,
-1.83626e-01,
-5.18870e-02,
3.26021e-02,
-1.45083e-01,
2.11855e-01,
-3.12429e-02,
3.39499e-02,
-2.09497e-01,
1.36345e-01,
-3.20043e-02,
-8.56284e-02,
3.26223e-02,-2.22290e-01,-2.29035e-02,2.24760e-01,2.09528e-01,-1.53176e-01,1.68856e-01,-6.44021e-02,-5.50295e-02,-2.86011e-01,-4.04341e-02,-7.00529e-02,3.66427e-01,-8.20237e-02,-5.80594e-03,3.17567e-02,-1.00677e-01,1.05262e-01,3.39722e-02,-2.11131e-01,-1.85807e-01,2.57097e-02,-7.58251e-02,-2.27931e-01,-2.47986e-01,
-5.96413e-02,-2.01801e-01,-2.81537e-02,1.30964e-01,-1.23195e-01,1.23214e-02,9.70857e-02,-6.39898e-02,2.93074e-02,-2.31836e-01,7.88591e-02,-1.60085e-02,4.01751e-02,-1.07148e-01,2.61112e-02,8.75410e-03,8.02076e-02,-1.74920e-02,-1.13463e-01,-7.36939e-02,-4.02302e-02,-1.29675e-01,-1.54513e-01,-6.37943e-03,-2.03199e-01,
-1.14624e-01,-3.63183e-01,-1.40053e-01,-2.63228e-01,1.85260e-01,-1.51657e-01,-2.84018e-01,-1.39825e-01,-1.13114e-01,8.17398e-02,-1.80353e-01,-8.97164e-02,-2.76908e-01,-1.43456e-02,-8.64969e-02,4.16366e-02,3.04072e-02,1.18065e-01,-3.15073e-02,-9.73828e-02,-9.70968e-02,-1.60049e-01,1.04178e-01,5.10485e-02,-4.71712e-01,
-3.64048e-01,3.46720e-01,-3.26361e-02,-1.96836e-01,-1.29710e-01,-2.42373e-01,-6.03440e-02,-6.32897e-02,1.23185e-01,-1.97006e-01,2.17683e-01,7.16164e-02,-1.21614e-01,2.25929e-01,1.27743e-01,-8.06722e-02,-4.76063e-02,-2.63339e-02,-2.04063e-02,-9.06064e-02,1.88298e-01,5.33565e-02,7.99807e-02,1.85929e-01,-2.63935e-01,
-1.14476e-02,2.34492e-01,1.95750e-01,-1.27068e-01,5.57133e-02,6.54985e-02,8.49353e-02,-8.86026e-03,2.18729e-02,2.25064e-01,1.47960e-02,-1.31326e-02,-4.26716e-02,4.41173e-02,-4.84443e-02,4.04641e-02,-5.59619e-02,-3.49743e-02,8.45965e-02,7.28507e-02,1.82407e-01,1.26260e-01,2.09090e-01,-1.60536e-01,1.49953e-01,
-1.69958e-02,2.01934e-02,2.26324e-01,8.13616e-03,5.27522e-03,-3.64571e-02,7.89017e-02,-1.14267e-02,-6.00440e-02,-1.01797e-03,-2.94276e-02,2.29559e-02,1.96722e-01,-4.27682e-02,3.38233e-02,1.24462e-02,8.15917e-03,4.66191e-03,-7.78607e-02,3.11814e-02,-2.72873e-02,1.47694e-01,9.32637e-02,4.07133e-02,-1.12538e-02,
-9.55299e-02,7.66086e-02,-2.93843e-02,-1.89900e-01,-2.50269e-01,7.07514e-03,-1.35375e-02,9.29075e-03,-1.88869e-01,2.34219e-01,3.80284e-03,-7.98329e-02,4.14867e-02,6.11884e-02,-1.83660e-02,5.34414e-02,-3.94028e-02,1.60870e-02,-6.49681e-03,-5.37558e-04,-5.96778e-02,4.79182e-02,7.59912e-02,1.20744e-01,-3.42450e-01,
-5.87101e-03,-2.00049e-01,-2.94676e-01,-3.31100e-02,1.56391e-01,-2.81957e-01,-7.05492e-02,6.89726e-02,-1.56402e-02,1.34589e-01,8.76713e-03,-9.65377e-02,-1.18269e-01,2.81240e-01,-4.42745e-02,3.40998e-02,-8.64836e-02,-9.64077e-02,-2.88148e-02,-4.23357e-02,-1.09354e-03,-7.14870e-02,-1.14526e-01,2.21886e-01,4.26631e-01,
2.39221e-01,1.20776e-01,9.89508e-02,8.13272e-02,-2.35236e-01,1.33538e-01,7.95516e-02,-8.25973e-02,1.09474e-01,-7.26852e-02,1.05073e-01,1.25738e-01,3.02114e-01,-9.31604e-02,-1.27545e-01,5.54481e-02,3.62830e-02,2.70294e-02,-2.02430e-02,5.79183e-02,1.95864e-01,1.82020e-01,6.04029e-02,9.53188e-02,-1.87009e-01,
3.54367e-02,1.83116e-01,8.08101e-02,2.33405e-01,-3.21998e-02,3.35433e-01,-7.12106e-02,4.77955e-02,8.25844e-02,-7.31313e-03,-1.34285e-01,7.48112e-02,-2.14347e-01,-1.45585e-01,1.13093e-02,2.08347e-02,7.89047e-02,4.69476e-02,7.27929e-02,4.37841e-02,-1.99115e-01,-8.09685e-02,-7.35583e-04,-2.58848e-03,2.66062e-01,
7.56549e-02,9.45947e-02,6.55067e-02,1.31253e-01,1.89769e-01,6.11754e-03,1.74267e-01,1.40887e-02,-1.24263e-02,2.13050e-01,-9.46566e-03,-2.41906e-02,1.24331e-01,-1.73777e-02,2.80538e-02,4.82616e-02,-8.95643e-02,1.16207e-02,-3.33771e-02,4.73077e-03,4.67684e-02,7.75591e-02,3.76530e-02,-9.32517e-02,1.04811e-01,
-1.07888e-01,1.93903e-01,3.20583e-02,-2.00320e-01,1.05883e-01,-1.26827e-01,-5.03458e-02,-7.88640e-02,-9.39588e-04,8.27802e-02,-7.07579e-02,-2.49804e-02,-1.77206e-02,1.15657e-01,-4.09218e-02,-3.69631e-02,-5.66767e-02,4.32025e-02,-2.83331e-02,-3.34833e-02,-8.02602e-02,4.36593e-02,9.55352e-02,-6.34849e-02,-1.50191e-01,
1.65352e-02,2.77810e-01,7.75084e-02,-1.47381e-01,2.46263e-01,-2.15167e-01,-4.11211e-01,-2.16293e-01,1.11793e-01,-3.94260e-01,-1.54269e-01,1.88824e-01,5.72801e-02,3.84595e-02,-5.53535e-03,-8.88719e-02,4.35834e-02,8.63984e-02,-1.20722e-01,4.04580e-02,-2.95673e-01,3.97615e-02,-8.51319e-02,1.66454e-01,-2.56943e-01,
2.05596e-01,-3.63907e-01,1.64158e-01,1.65858e-01,2.51725e-01,-2.25358e-01,-5.95684e-03,-4.25344e-02,-4.53122e-02,-2.72096e-01,1.09891e-01,8.84627e-02,3.35834e-01,1.02268e-01,-4.70227e-02,-6.35068e-02,-1.12669e-02,-9.37433e-02,-2.15228e-02,8.34837e-02,2.35122e-01,1.72548e-01,-7.58496e-02,-1.07411e-02,6.18956e-02,
-2.05519e-01,2.11688e-01,1.64248e-01,7.62335e-02,1.69716e-01,-2.95060e-01,2.61162e-01,-1.07445e-01,1.50361e-01,2.68616e-01,-3.21086e-03,-7.94847e-02,3.09271e-01,-8.72490e-02,2.88815e-02,2.39981e-01,-7.05855e-02,2.14485e-01,-1.41325e-01,-2.51289e-02,-1.69316e-01,1.08380e-01,3.65326e-02,2.40993e-01,5.52548e-02,
-3.33464e-02,7.81284e-02,7.51042e-02,2.42520e-01,4.06926e-01,-9.77555e-02,8.06956e-03,-7.62379e-02,2.28584e-01,3.15608e-01,-5.10178e-02,1.16791e-02,7.47523e-02,5.15314e-02,3.54646e-02,1.15568e-01,-1.28980e-01,-1.91159e-02,6.78360e-02,-8.52818e-02,1.96438e-01,1.13224e-01,1.03460e-01,-2.51555e-01,-2.50587e-01,
1.05320e-02,-1.57524e-02,-1.85693e-01,1.77651e-01,7.16077e-02,-1.19917e-01,-2.74019e-03,6.69055e-02,-1.63155e-02,-3.69609e-02,1.00125e-01,1.63771e-02,1.43376e-01,4.52274e-02,1.61083e-01,-1.49057e-02,2.30395e-02,8.39767e-02,5.98423e-02,-5.66771e-02,-1.80379e-01,-9.62884e-03,-1.02061e-01,1.19070e-01,1.08003e-01,
-8.11148e-02,-2.69674e-02,4.90277e-02,-1.24732e-01,4.11418e-01,-3.32551e-01,8.52647e-02,5.89614e-02,-9.63008e-02,3.11578e-02,-5.84541e-02,-1.09448e-01,1.33604e-01,2.14283e-01,1.87069e-01,-1.26297e-01,-1.19919e-01,-1.00788e-01,-5.54647e-02,-3.02050e-02,-1.45634e-01,6.61648e-02,-6.72510e-02,-2.74953e-01,1.99319e-01,
-2.20407e-02,-1.29158e-01,-1.97066e-02,1.18162e-01,6.73152e-02,-5.80538e-02,4.12581e-02,-5.19634e-03,1.30681e-01,-1.22381e-01,-1.52939e-02,1.23432e-02,-8.26063e-02,1.88257e-02,6.16229e-03,-2.59991e-02,1.26738e-02,-8.78659e-02,-1.24267e-01,-4.66196e-02,5.00176e-02,-7.54196e-02,-6.80714e-02,4.17129e-02,2.54264e-01,
-3.98641e-02,2.39389e-01,1.49621e-01,-2.78672e-01,-2.32184e-02,-1.67872e-01,-1.14194e-01,-3.91379e-03,-1.17864e-01,-3.85706e-02,-4.12986e-02,5.64951e-02,1.70855e-01,1.06770e-01,6.46735e-02,-9.11415e-02,-4.58627e-02,1.93622e-02,-5.92400e-02,1.04332e-01,-8.16236e-02,2.06639e-01,6.92147e-02,1.47666e-01,-8.62888e-02,
-1.50338e-01,-1.72499e-01,3.60363e-01,1.79275e-02,3.52421e-03,1.28203e-01,6.83661e-02,-9.19816e-02,4.62810e-02,-2.23699e-01,-2.53975e-02,-3.88312e-02,-2.81016e-01,-8.55183e-02,-9.25213e-03,-7.70182e-03,1.75589e-02,-1.12319e-01,-1.10299e-01,2.72831e-02,1.98277e-01,-6.52034e-02,4.77661e-02,-1.27443e-01,1.78082e-01,
5.75582e-02,-1.77456e-01,-3.80972e-03,-1.15032e-02,1.69231e-01,5.65528e-02,-1.93734e-01,-1.27710e-02,-1.00719e-02,-2.02687e-01,-7.14163e-02,4.36692e-02,-1.57560e-01,-5.21241e-02,6.79299e-03,-1.20207e-01,8.02057e-04,-2.09557e-02,1.10855e-01,-1.97986e-02,9.73610e-02,-9.26201e-02,-9.86770e-02,-2.28057e-01,-2.20181e-01,
1.27799e-01,-2.23459e-01,6.78950e-02,8.02922e-02,3.58193e-01,-2.10369e-01,2.62939e-02,2.59776e-02,-2.08712e-01,-8.65425e-02,-6.24003e-02,-4.43063e-02,3.48287e-01,1.22789e-02,5.21960e-02,-9.71782e-02,-7.62308e-02,-1.27263e-02,-9.95171e-02,5.48163e-02,-1.94173e-01,9.03691e-02,-1.51620e-01,-2.21562e-01,3.65167e-01,
-4.44098e-02,-6.38291e-02,2.79231e-01,-5.02486e-02,-2.98244e-01,3.28951e-01,1.90419e-02,1.58119e-02,-1.65812e-01,-1.29357e-01,6.71829e-02,1.34045e-02,-1.03275e-01,-2.10537e-01,9.72200e-02,-1.33710e-02,5.66584e-02,-2.95617e-02,9.93508e-02,3.56198e-02,1.79561e-01,-1.27134e-02,3.91400e-02,-1.37400e-01,-2.88670e-01,
4.02847e-02,-2.02532e-01,-3.50901e-02,-1.05934e-01,-2.10193e-01,-1.00891e-01,-4.72185e-02,6.29854e-02,-1.47141e-01,-2.41889e-01,2.69302e-02,-2.59036e-02,-2.29883e-02,8.05277e-03,-6.95031e-03,-9.85360e-02,8.15948e-02,-1.41637e-02,-6.51721e-02,6.20100e-02,-1.46279e-01,-3.00075e-02,-8.77812e-02,1.32205e-01,2.05432e-01,
1.93473e-01,
2.69316e-02,
5.90025e-02,
-1.88365e-02,
-9.52770e-02,
2.37763e-02,
-1.21254e-01,
1.72666e-01,
-1.11938e-01,
-1.16611e-01,
5.75821e-03,
1.50464e-02,
1.61446e-01,
2.28386e-01,
1.11225e-01,
1.27252e-02,
1.09712e-01,
2.43929e-01,
8.29167e-02,
4.01724e-02,
-2.15804e-02,
2.73707e-02,
2.79181e-01,
-2.03330e-01,
9.10420e-02,
-9.19590e-03,1.10727e-01,3.03357e-01,-7.35542e-02,3.31545e-01,2.04970e-01,-6.11190e-01,2.80043e-01,1.21604e-01,-1.31747e-01,3.40724e-02,1.87253e-02,-5.10733e-02,-2.92237e-01,-1.04561e-01,2.75447e-01,3.95002e-01,-3.87641e-01,3.92638e-01,5.75622e-01,8.39678e-02,-1.08715e-01,-7.64267e-03,1.23978e-01,-2.24035e-02,
-1.38924e-01,-1.05923e-01,-2.99087e-01,-1.88144e-01,-2.06045e-01,-3.50607e-01,2.52363e-01,1.10626e-01,-4.92268e-03,-1.42963e-01,-2.47507e-01,1.19015e-01,-1.84689e-02,2.37872e-01,-1.13671e-01,9.72591e-02,-7.83439e-02,-1.01170e-01,2.92912e-01,-2.99104e-02,-2.96824e-01,-2.09730e-02,-1.48955e-01,-2.12067e-01,2.66361e-01,
-1.08260e-01,1.33478e-02,2.57498e-01,5.01114e-02,-1.20466e-02,-3.69475e-02,-2.65223e-01,-1.94086e-01,2.09706e-01,1.41801e-01,1.69806e-01,1.71184e-02,-1.17630e-01,1.49032e-01,1.82565e-01,2.23659e-02,-2.42792e-02,1.09104e-01,-5.68295e-02,-3.32336e-01,-4.19549e-02,-7.52932e-02,2.28174e-01,3.05278e-01,-8.74494e-02,
1.67713e-01,1.47068e-02,-9.54627e-03,3.39933e-01,1.32824e-02,2.72689e-02,-1.35742e-01,2.00063e-01,1.49432e-01,-2.26422e-01,-2.82646e-01,-1.18259e-01,-1.91778e-01,-1.97371e-01,2.95458e-01,1.35382e-01,2.99187e-01,2.40182e-01,-1.62590e-01,-1.85676e-01,-8.77004e-02,-1.04305e-03,-1.38282e-01,-2.35994e-01,-2.65272e-01,
1.45856e-01,9.02267e-03,2.44565e-01,-2.46538e-01,-2.48688e-01,-8.37600e-02,-1.27948e-01,6.18660e-02,-1.66966e-01,8.24461e-02,-3.70101e-01,-3.49964e-02,4.94835e-04,2.13167e-01,3.07555e-01,1.11628e-01,-1.34442e-01,-2.20916e-02,-1.41547e-01,6.89117e-02,-4.01754e-02,1.19418e-02,1.72908e-01,3.26731e-01,-1.12321e-01,
-2.52055e-01,-2.48333e-01,2.58952e-01,4.37764e-01,-3.38303e-01,-1.01440e-01,9.03320e-02,-1.27707e-01,1.49975e-01,-7.62032e-02,-1.30501e-01,-5.23405e-01,9.98446e-02,1.75494e-01,6.54703e-02,-1.33788e-01,-1.54419e-01,2.13743e-01,-1.24747e-02,-1.52845e-01,-1.35361e-01,-2.22289e-01,3.98716e-01,1.72869e-01,1.78221e-01,
1.63363e-01,3.27807e-02,-7.95646e-03,-2.83423e-03,5.02043e-02,-1.19218e-01,-4.77866e-02,-2.59845e-01,2.35699e-02,1.59632e-01,-2.36138e-01,9.24627e-02,-2.21485e-01,1.49085e-01,-1.45408e-02,-3.05297e-01,1.50446e-01,-2.26566e-01,-2.84460e-01,-1.25507e-01,-1.77969e-02,1.10339e-01,1.27170e-01,1.21729e-01,-2.75682e-01,
-1.83758e-02,7.38817e-02,2.82159e-01,-1.99864e-01,3.57475e-02,9.10951e-02,-1.61458e-01,1.33193e-01,-1.84251e-01,2.93827e-01,2.15065e-01,1.08388e-01,-8.77823e-04,8.82180e-03,3.91250e-01,1.91333e-01,-2.28845e-02,2.44293e-01,-4.00992e-02,-3.32951e-01,2.32071e-01,-2.98758e-01,2.42826e-01,1.64970e-01,-1.48764e-02,
-3.11346e-01,-9.82856e-02,-1.79965e-01,1.88961e-01,1.71529e-01,-1.15680e-02,-2.29669e-01,-2.93363e-01,-5.50347e-04,-6.11617e-02,-2.33280e-01,-1.30288e-01,-1.68041e-01,8.25216e-02,-2.03941e-01,1.95132e-01,4.75539e-02,-3.32874e-01,1.49740e-01,8.10773e-02,-1.59371e-01,1.40722e-01,1.57059e-01,1.20762e-01,2.17015e-01,
7.64351e-02,-2.87627e-01,-7.18708e-03,6.57689e-02,-8.58912e-02,-2.80578e-01,2.07836e-01,2.41133e-01,3.19403e-01,-1.46420e-01,-2.83562e-02,-1.77448e-01,3.34610e-01,3.19395e-02,-2.48524e-01,-2.43727e-01,3.37781e-01,6.57372e-02,1.50750e-01,1.55344e-01,4.06446e-02,3.05580e-02,5.09461e-02,-1.42866e-01,-2.21757e-01,
-1.82917e-01,1.93150e-01,-8.00998e-02,1.46302e-01,2.13499e-01,-2.47826e-02,1.70781e-01,2.01147e-01,-1.54237e-01,4.62620e-02,3.13492e-01,2.02115e-01,1.44409e-01,-1.21738e-01,2.79495e-01,3.00684e-01,-3.54291e-03,9.45782e-02,-3.15993e-01,-3.21597e-01,1.26599e-01,-3.39760e-02,-2.99749e-01,-1.47083e-01,-2.87915e-01,
2.34540e-01,1.15846e-01,2.46561e-01,1.96785e-01,-5.94634e-02,1.94304e-01,5.60814e-02,-3.05221e-01,1.87702e-01,8.41834e-02,-2.77603e-01,1.66463e-01,-1.33094e-01,-8.26890e-02,-1.75973e-01,-1.20599e-01,-1.85674e-01,1.67407e-01,-9.77863e-02,2.39211e-03,-5.33252e-02,-4.43355e-02,-1.73779e-01,-9.14320e-02,-2.22358e-01,
1.39819e-01,1.49613e-01,-3.27549e-01,3.20789e-01,1.44211e-02,3.37259e-01,2.58141e-02,-1.46748e-01,-5.37501e-02,-2.26439e-01,-1.16315e-02,-2.38626e-01,1.65670e-01,-9.08832e-02,-2.42882e-01,1.40342e-01,-3.58346e-01,2.10312e-01,-3.36988e-02,-1.29958e-02,-2.70411e-01,1.99877e-01,-9.55583e-02,-3.31587e-01,-3.31961e-02,
1.49904e-01,-1.21699e-01,2.75359e-01,-2.11423e-01,1.96060e-01,2.72736e-02,-1.11345e-01,-3.65913e-02,-1.56521e-02,-3.17457e-02,5.14019e-02,-2.44214e-02,-2.95565e-01,-1.26727e-01,2.99031e-01,9.39839e-02,1.38294e-01,-2.84290e-01,-1.56078e-01,2.63860e-01,-1.74181e-01,-3.13020e-01,2.24485e-01,8.76385e-02,1.24161e-04,
-2.80267e-01,-1.53227e-01,-2.33552e-01,1.24765e-01,-1.95293e-01,2.64497e-02,1.71736e-01,8.46415e-02,2.27162e-01,-2.37922e-01,5.15282e-02,1.34001e-01,1.51842e-01,-1.31729e-01,-8.79193e-02,2.50291e-02,-6.54426e-02,4.05773e-03,1.29520e-01,-1.10114e-01,-2.02268e-01,3.77370e-02,-9.47599e-02,-1.32759e-02,2.04939e-01,
2.06258e-01,2.61475e-01,2.48371e-01,1.33525e-01,2.57016e-01,-4.88456e-02,3.66547e-01,2.73397e-01,-2.78126e-01,-4.98475e-02,5.39022e-02,-1.76198e-02,-1.40216e-01,3.37065e-02,3.83929e-02,-1.10160e-02,-1.11883e-01,1.81804e-01,1.67529e-01,-5.90747e-03,-1.58772e-01,-2.59782e-02,1.35250e-01,1.00569e-02,-3.90235e-02,
-1.66593e-02,1.19316e-01,-1.85608e-01,-4.00561e-01,-2.62741e-01,-8.67105e-02,-5.48960e-02,-1.86529e-02,-8.81756e-02,2.39161e-01,-1.45385e-01,-3.12071e-03,2.33191e-01,-6.11500e-03,2.34867e-01,-2.16797e-01,5.05156e-02,2.63724e-01,-3.81914e-02,-2.87263e-01,2.20315e-01,1.45402e-01,7.85889e-02,-6.61381e-02,-2.79898e-01,
1.82483e-01,-2.53290e-02,2.68114e-02,-1.25685e-01,-2.62908e-01,-8.50841e-02,2.71388e-01,9.76945e-02,3.66663e-01,1.91672e-02,1.04326e-01,2.08402e-01,2.69487e-02,-3.06669e-01,3.67198e-01,-1.43155e-01,-3.11661e-02,2.92096e-01,-3.44036e-02,-2.54811e-01,-1.80679e-01,1.34590e-01,-1.29161e-02,-1.63253e-01,-4.85685e-02,
1.08523e-01,-2.32513e-01,-1.92719e-01,-2.00291e-01,1.27210e-01,-2.23621e-01,-2.97332e-01,2.43649e-01,-7.92082e-02,-2.67706e-01,3.08286e-01,-2.15809e-01,-3.06740e-01,4.50249e-01,7.67202e-02,-1.83302e-02,2.78128e-01,-3.23320e-01,-3.11106e-01,8.81711e-02,-7.49186e-02,-2.16488e-01,1.10986e-02,2.62697e-01,1.88224e-01,
-4.83578e-02,-1.53726e-01,2.65887e-01,-1.81397e-01,-1.85220e-03,1.38092e-02,2.54872e-01,4.22280e-02,2.60762e-01,2.00748e-01,-1.13943e-01,-1.19395e-01,-8.14580e-02,1.03861e-01,-2.55092e-01,-2.03218e-01,-1.01050e-01,2.36081e-02,7.85173e-02,4.03843e-01,-1.17378e-01,-2.42083e-01,6.87121e-02,2.07288e-01,1.05529e-01,
-1.67913e-01,-2.44753e-01,2.38924e-01,-2.35116e-01,-1.36975e-02,-1.68136e-01,1.16642e-01,3.46383e-01,5.90625e-02,1.15999e-01,-3.58663e-02,-9.71054e-02,1.34462e-01,-5.02299e-02,3.21294e-01,-2.64814e-02,2.04318e-01,1.29754e-01,2.38840e-02,2.06845e-01,-2.51236e-01,-3.44584e-01,-6.27169e-02,5.01256e-02,-1.39716e-01,
-1.61954e-02,-1.71437e-01,-3.10224e-01,-1.61323e-01,2.96676e-01,-1.13506e-01,-1.47019e-01,-6.10569e-02,-9.30247e-02,-2.39634e-01,1.06867e-01,-4.75784e-02,2.48909e-02,1.41566e-01,-2.48053e-01,2.76294e-01,2.17920e-01,-2.18798e-01,-2.21460e-01,1.26142e-01,2.53719e-01,-1.19023e-01,-2.19222e-01,-1.27540e-01,-1.37661e-01,
-4.63001e-02,1.55332e-01,1.22342e-01,-5.99969e-02,-2.26889e-01,-2.46633e-01,2.28492e-01,2.92313e-01,2.42636e-01,-3.48574e-02,-4.60520e-02,1.43648e-02,-3.00906e-01,-8.30379e-03,1.96524e-01,-1.27623e-01,1.08038e-01,-1.95657e-01,1.01435e-01,8.67192e-02,8.22751e-02,3.20496e-02,6.84244e-02,3.03498e-02,2.29843e-01,
-8.14832e-02,-6.42038e-02,-2.92264e-01,-1.89537e-02,2.61363e-01,2.84915e-02,2.54731e-01,-2.05068e-01,-1.38757e-01,-3.51617e-01,-1.98561e-02,1.45244e-01,8.99513e-02,-1.34851e-01,-3.47433e-01,4.74521e-02,-5.61591e-02,-2.12689e-01,5.35646e-02,1.33806e-01,-2.14576e-01,4.80266e-02,-6.29451e-02,-1.06568e-01,-7.06209e-02,
2.31901e-01,-4.83489e-01,-4.10628e-01,2.84309e-01,-3.87003e-02,3.92561e-01,-3.19004e-01,6.83293e-03,2.56374e-01,-1.29771e-01,5.29097e-02,2.27832e-01,-4.72635e-01,-2.39354e-01,8.94313e-02,3.47589e-01,-1.53233e-01,2.37816e-01,-2.15047e-01,-3.72705e-01,1.07176e-01,4.77025e-01,1.28680e-01,2.84929e-01,1.69478e-01,
1.57813e-04,
-1.76273e-01,
-4.88697e-02,
-2.81280e-01,
-1.50091e-04,
-2.17162e-04,
-1.73057e-01,
-2.13789e-01,
2.11826e-01,
-2.88785e-01,
2.52072e-01,
2.73114e-01,
-5.45829e-02,
2.74801e-01,
2.20182e-01,
9.26884e-02,
2.46295e-01,
2.59834e-01,
1.50228e-01,
1.76949e-01,
-1.55180e-01,
2.81186e-01,
-2.50067e-01,
-1.41318e-01,
1.91190e-05,
1.89758e-04,7.34702e-02,-1.33778e-01,5.93372e-03,7.00812e-03,8.06863e-05,-4.35455e-01,-1.81848e-01,3.06918e-01,2.59818e-01,3.96308e-01,3.50240e-01,-2.44687e-01,3.96786e-01,7.11461e-02,8.66659e-02,4.39540e-01,-5.48827e-02,2.80311e-01,1.60192e-01,-4.34263e-01,-3.49228e-01,-2.58720e-01,-1.06005e-01,-6.12965e-04,
-3.08886e-01,-2.42813e-01,2.18755e-01,1.77649e-01,1.33829e-01,-4.68903e-01,-1.93344e-01,2.70993e-01,1.14986e-01,3.28536e-01,-2.93575e-01,-1.15784e-01,1.98363e-01,2.10593e-01,3.59544e-01,-1.20078e-01,-2.92780e-01,-3.83418e-01,-1.30066e-01,-8.76328e-02,-1.04210e-02,-6.25570e-02,2.61247e-01,-8.65805e-02,-1.30342e-01,
-2.57830e-04,-2.17138e-01,-1.73222e-01,-3.26605e-01,-5.38638e-04,-7.03147e-04,1.29966e-01,1.69975e-01,3.07734e-01,-6.89049e-03,-1.73615e-01,3.59262e-01,1.60026e-01,-1.14387e-01,2.91657e-01,2.60968e-01,2.19324e-02,1.59921e-01,5.11108e-02,-3.28321e-01,3.78868e-01,3.72381e-01,1.91631e-01,-2.35577e-01,-5.24301e-04,
-1.68772e-04,5.84971e-02,2.50430e-01,-2.65488e-01,-1.69981e-01,-4.56201e-03,-1.24656e-01,-6.04401e-02,-1.59942e-01,2.84003e-01,1.49976e-01,3.41301e-01,1.83973e-01,1.41245e-01,-3.11458e-01,-1.33522e-01,2.36788e-01,-4.45933e-01,1.31577e-01,-3.15600e-01,3.16870e-01,-3.68799e-01,3.57412e-01,3.36433e-01,1.68069e-01,
-1.63041e-03,-4.42258e-02,-2.17259e-01,4.07607e-02,8.35145e-02,3.54600e-03,-1.46136e-01,4.22815e-01,3.26387e-01,1.37425e-01,8.99373e-02,1.77376e-01,3.23372e-02,-3.09590e-01,-4.33502e-01,-2.89687e-01,-1.44536e-01,2.38274e-01,2.53678e-01,3.98691e-02,-3.43985e-03,-2.79990e-01,1.45249e-01,4.17841e-01,-3.09920e-02,
-6.37374e-01,
3.79172e-01,
-2.63421e-01,
3.41935e-01,
2.82061e-01,
