// Neural Network File Format by Kyle Julian, Stanford 2016
6,5,5,25,
5,25,25,25,25,25,5,
0,
-56000.000000,-56000.000000,-3.141593,200.000000,200.000000
56000.000000,56000.000000,3.141593,200.000000,200.000000
-278.628049,0.000000,0.000000,200.000000,200.000000,-0.242819
112000.000000,112000.000000,6.283185,1.000000,1.000000,17.479225
2.86793e-01,1.00669e+00,4.26217e-01,2.65779e-01,3.52441e-01,
6.19652e-01,1.13397e+00,-1.90997e-01,-3.76507e-01,-1.67369e-01,
-7.95019e-01,-5.29519e-01,-6.56839e-01,-3.04850e-01,-3.31113e-01,
-4.28965e-01,9.48698e-01,2.95388e-01,-4.87694e-02,1.41229e-01,
8.13380e-01,-1.67112e-01,1.85622e-01,6.89248e-02,-7.79422e-02,
6.75552e-02,-9.35630e-01,3.95681e-01,-1.02114e-01,3.28103e-01,
6.89930e-01,2.52253e-01,4.26805e-01,2.93941e-01,1.63800e-01,
1.81680e-01,-1.66594e+00,-9.52137e-01,1.66499e-01,-4.80317e-02,
8.09457e-01,1.29623e+00,-2.50518e-02,2.17506e-01,-1.96562e-01,
-3.42569e-01,1.18143e-01,2.30520e-02,1.49091e-01,8.74606e-02,
-1.56205e-01,6.10755e-01,-3.50260e-01,-3.70966e-01,3.18444e-01,
4.83435e-02,-1.94719e+00,2.98934e-02,4.22763e-01,3.04159e-01,
-1.40349e-01,8.28026e-01,-2.24894e-01,1.91123e-01,-3.66533e-01,
6.88522e-01,-2.91939e-01,1.75534e-02,2.13079e-01,1.02220e-01,
9.04858e-01,-4.30025e-01,4.45935e-01,3.89783e-01,-1.56778e-01,
-4.30154e-02,4.81832e-01,1.89094e-01,-4.13132e-01,1.78766e-01,
-1.98165e-01,1.19829e+00,2.14010e-01,-3.76939e-01,2.50949e-01,
6.26907e-01,-8.52026e-01,4.15796e-01,-2.43543e-01,-3.15408e-01,
-3.24449e-01,2.85899e-01,3.04298e-01,4.03457e-01,-4.36369e-01,
-5.37238e-01,-1.08231e-01,6.24138e-01,3.36743e-01,3.76893e-01,
8.42979e-01,5.42775e-01,2.99898e-01,-1.18750e-01,4.72337e-02,
-4.28328e-02,-2.84950e-01,9.00819e-02,-4.23615e-01,2.56339e-01,
-5.60104e-01,4.22234e-01,7.45829e-02,3.79342e-01,3.36958e-01,
7.30956e-01,2.59898e-01,-1.51007e-01,-2.75226e-01,-2.28007e-01,
-5.38950e-01,1.56278e-01,2.48498e-01,3.44866e-01,-4.28811e-01,
-2.44476e-01,
-5.42580e-02,
2.56966e-02,
2.20349e-01,
2.55187e-01,
-1.34341e-02,
-1.75119e-01,
9.07252e-05,
7.47088e-03,
1.32550e-01,
6.47615e-02,
5.08407e-04,
2.78611e-01,
1.59162e-01,
2.13316e-01,
1.06757e-01,
1.38210e-01,
-1.51694e-03,
1.15935e-01,
-2.74340e-02,
1.72131e-01,
7.81469e-02,
1.69239e-01,
-7.73503e-02,
1.94021e-01,
-3.08201e-01,-9.92859e-02,-3.21354e-03,9.90863e-02,-1.28226e-01,-2.85258e-01,-3.82828e-01,-2.93557e-01,5.66420e-01,2.70813e-01,-2.23947e-01,-2.20406e-01,-2.03445e-01,3.46895e-01,-2.04416e-01,2.88306e-01,-9.28054e-02,4.23854e-02,-3.41373e-01,2.28658e-01,-1.58574e-01,1.28084e-01,-1.46844e-01,4.84435e-01,-1.26409e-02,
-7.12885e-01,4.24478e-02,8.65826e-03,3.00587e-01,-2.12112e-01,-1.93136e-01,-1.81236e-01,7.76579e-01,6.05985e-02,-1.66440e-01,-3.95077e-01,5.09397e-01,3.54785e-01,1.87060e-01,-5.84026e-02,2.08528e-01,2.00921e-01,-1.85217e-01,1.87732e-01,1.41910e-01,9.87391e-02,-1.65791e-01,3.53843e-01,4.20151e-01,-1.37024e-01,
5.00562e-01,-1.66448e-01,2.02617e-01,-2.38574e-01,-1.16002e-01,3.68379e-01,2.32180e-01,-6.46197e-02,-1.11593e-01,2.87264e-01,-3.25863e-02,3.68474e-01,1.52356e-01,1.45571e-02,-6.66302e-02,-2.05997e-01,1.81949e-01,3.98602e-01,2.32698e-01,-2.54900e-03,-5.12181e-01,-3.26691e-01,-1.62225e-01,5.50199e-01,-2.48810e-01,
-8.62518e-01,6.95362e-04,-4.40743e-02,-2.80233e-01,7.88632e-02,6.67201e-01,-1.75554e+00,3.23523e-01,1.48907e-01,-2.02237e-01,1.42676e-01,1.33779e-01,3.57111e-01,3.13120e-01,-1.09400e-01,-3.48246e-01,9.43374e-02,-4.37217e-01,6.28923e-01,-6.57272e-01,-2.31029e-01,-2.36744e-01,-1.16780e-01,4.13854e-01,-4.92644e-02,
-8.12508e-01,-5.26160e-01,-4.79835e-01,1.54959e-01,2.20942e-02,-3.69851e-01,-8.64294e-02,-1.28342e+00,6.86869e-01,2.10467e-01,-4.96305e-01,3.83609e-01,-1.46620e-01,1.60601e-03,1.46376e-01,-5.92293e-02,3.35467e-01,-3.41575e-01,4.23359e-01,2.61710e-02,-2.43120e-01,2.63408e-01,3.79675e-01,5.78668e-01,5.39998e-02,
3.12109e-01,5.64013e-03,-2.46533e-01,1.03006e-01,-2.57772e-01,-1.02886e-01,3.31517e-01,-1.73412e-02,3.21047e-02,-2.15742e-01,7.49489e-02,-1.77453e-02,-3.73871e-01,-4.25268e-01,-3.90019e-01,-1.94329e-01,1.88471e-02,2.65349e-01,7.70987e-02,2.16921e-01,-1.73460e-01,2.34211e-01,-1.40281e-01,7.97173e-02,-3.72683e-01,
4.09195e-02,2.31492e-01,-1.54991e-01,1.16835e-01,1.18206e-01,-5.09839e-02,-3.30987e-01,1.27409e-01,-4.58578e-01,-2.47028e-01,-2.03804e-01,-3.08173e-01,1.46118e-02,-6.82473e-02,-1.63287e-01,7.31494e-02,4.85282e-03,6.24472e-02,-1.68626e-01,1.03608e-01,-2.21654e-01,2.76055e-01,-1.62506e-01,5.26854e-01,2.72835e-01,
5.66979e-01,-8.98740e-01,-4.38860e-01,-3.54800e-01,9.13720e-02,8.82708e-02,-4.59838e-01,1.05815e-01,1.03907e+00,1.71999e-01,-1.24207e-01,4.43723e-02,-2.60367e-01,3.48848e-01,3.48643e-01,-2.99496e-01,-3.92248e-01,-2.38554e-01,-2.49743e-01,4.80014e-01,-1.13632e-01,2.41933e-01,-3.25311e-01,-1.43403e+00,-3.20734e-01,
9.95614e-03,-1.10747e+00,7.18146e-02,2.05343e-01,-1.72044e-01,2.06009e-01,-1.54360e+00,1.27113e-03,-3.43123e-01,2.61118e-02,1.33572e-01,9.39254e-01,2.44506e-01,3.25347e-01,8.78808e-02,-2.63540e-01,-5.81607e-02,-2.78971e-01,2.67702e-01,-7.43336e-01,-5.34082e-01,-7.92142e-02,1.26056e-01,1.22551e+00,3.46605e-01,
-9.31828e-02,3.75573e-02,-4.42904e-01,-1.92643e-02,1.04504e-01,3.81631e-01,2.93519e-01,-1.09530e-01,6.79154e-02,1.86190e-01,-3.79848e-02,2.84342e-01,1.04283e-01,-7.01103e-02,-1.62634e-01,-1.11438e-01,-1.89671e-02,1.07812e-01,2.00113e-01,-1.26926e-01,5.90586e-02,-5.35185e-02,-2.65648e-01,-3.44430e-02,5.89670e-02,
-7.39641e-01,-7.24047e-02,-8.42050e-02,-4.56256e-02,-3.35716e-01,-3.71981e-01,4.87225e-01,-3.24661e-01,5.65199e-01,-1.17320e-01,-6.17053e-02,9.67871e-01,2.52755e-02,-2.58303e-01,6.22701e-02,-1.37189e-01,-3.72448e-01,-5.31409e-01,1.00487e-01,7.57796e-01,-2.62773e-01,-9.23779e-02,1.96101e-01,4.84903e-01,1.02993e-01,
-2.54504e-01,2.25578e-02,3.41600e-01,1.92660e-01,-1.35139e-01,3.46048e-01,7.33761e-02,2.14387e-01,-1.46228e-01,-6.28917e-02,-1.57226e-02,-8.73645e-02,-1.57235e-01,-3.34950e-01,2.67223e-01,3.01964e-01,-3.18048e-01,2.56791e-01,1.24548e-01,-1.31234e-01,-2.79794e-01,-1.16217e-01,-3.37829e-01,4.66292e-01,4.10621e-02,
7.86528e-02,-2.13211e-01,-4.94615e-01,4.34331e-02,-1.11992e-01,7.11737e-02,-3.91779e-01,-4.87956e-02,1.26773e-02,3.57345e-02,-3.41628e-01,4.60122e-01,7.39331e-02,1.91985e-01,1.81304e-01,-6.14436e-01,-7.57691e-01,7.92245e-02,-5.53429e-02,-1.68191e-01,-2.55099e-01,-1.62550e-01,3.16547e-01,6.56061e-01,-2.99499e-01,
5.23224e-01,1.49826e-01,-5.64361e-01,-4.24759e-01,1.65873e-01,1.22139e-01,3.26529e-01,1.83031e-01,-2.87112e-01,6.36420e-03,2.97547e-01,1.06636e-01,-2.90549e-01,-1.57631e-01,2.21436e-01,1.67987e-01,-4.30180e-01,-7.83794e-02,3.89851e-02,7.53651e-01,7.86771e-02,-2.18511e-02,-3.83308e-01,-4.67835e-01,-3.27460e-01,
-2.08886e-01,-1.22270e-01,2.83190e-01,2.68148e-02,-4.56018e-01,-2.69206e-01,-2.74358e-01,1.02534e-01,3.02632e-01,1.71328e-02,-2.96798e-01,3.32064e-01,1.17569e-01,2.40171e-01,1.42809e-01,1.25479e-01,2.23733e-01,-5.46019e-01,3.03705e-01,7.09654e-01,-5.04897e-01,-1.27772e-01,1.27996e-01,7.53787e-01,2.77692e-01,
1.43574e-01,3.78527e-01,2.17698e-01,-9.61928e-02,1.85095e-01,4.89122e-01,2.97937e-01,2.18304e-01,-6.67460e-01,2.72974e-01,2.47401e-01,-1.85151e-01,-1.96860e-03,-3.80560e-01,2.02534e-01,-2.22228e-01,1.80346e-01,8.25365e-02,9.10630e-02,-1.01195e-01,-6.55128e-02,-7.74806e-02,-2.04822e-01,-3.73376e-02,-5.72501e-02,
1.17427e+00,1.01706e-02,4.02701e-01,-2.90671e-01,1.85918e-01,1.53741e-01,2.80997e-01,2.28346e-01,-1.43919e-01,1.03684e-01,-9.18798e-02,-1.31461e-01,-1.79193e-02,-2.66463e-01,-1.35461e-01,-2.59248e-01,-4.06567e-01,3.85586e-01,1.26502e-01,5.07724e-01,-4.09334e-01,-1.64038e-01,-2.62885e-01,1.26963e-02,1.19395e-01,
4.12303e-02,6.16815e-02,1.99397e-01,7.24235e-02,1.27980e-01,-3.10778e-01,-3.15117e-01,8.22133e-03,2.04172e-02,1.64007e-01,-9.38394e-02,2.19632e-01,-2.90235e-01,-2.73118e-03,-1.31306e-01,2.94283e-01,2.01857e-01,-1.81765e-01,-2.64145e-01,-2.09185e-01,2.75082e-01,-3.48110e-01,-1.36695e-01,-2.97437e-01,1.46816e-01,
-5.12767e-01,5.74753e-01,-1.58792e-01,3.99828e-01,6.45020e-02,-3.71016e-02,-2.46320e-01,4.49927e-01,-4.01231e-01,-1.30452e-01,-2.79536e-02,5.40766e-01,2.63260e-01,5.47012e-03,-2.72280e-01,1.93653e-01,1.28188e-01,-7.15060e-01,1.86099e-01,4.10950e-01,-2.18519e-01,2.56517e-01,3.21003e-01,1.09302e-01,3.07358e-01,
-2.27477e-01,-1.35544e-02,1.17380e-01,-1.70122e-02,2.73584e-01,-1.24895e-01,-3.74297e-01,-4.41439e-01,4.44460e-01,7.82347e-05,6.78175e-02,-1.64794e-01,-9.66200e-02,9.05019e-03,4.12170e-02,3.93568e-02,-1.90329e-01,-3.06581e-01,-3.64199e-02,-4.92879e-01,1.99199e-01,-2.78606e-01,2.77709e-01,8.23524e-02,1.15060e-01,
6.75651e-01,1.14396e-01,-1.33810e+00,2.79246e-01,-9.53303e-02,-9.79939e-02,-1.14805e-02,-1.52919e-01,2.96867e-02,-1.01046e-01,-1.08526e-01,2.05701e-01,-7.42249e-02,-2.43018e-01,1.06876e-01,2.55250e-01,3.33947e-01,-8.20981e-01,1.13204e-01,-2.15299e-01,-2.79878e-01,-5.72669e-01,-1.66679e-01,3.66182e-02,-2.62924e-01,
3.07160e-01,-3.97901e-01,-1.73183e+00,5.74980e-02,4.43046e-01,9.03388e-02,-1.91960e-01,-4.96301e-01,-7.20653e-02,2.18173e-02,4.67200e-01,-1.68881e-01,4.11826e-01,3.70777e-01,2.35198e-01,-2.25481e-01,-6.54570e-02,-1.62923e-01,1.22485e-01,-1.87455e-01,-1.33129e-01,2.74089e-02,-1.85424e-01,-2.08086e-01,-1.90647e-01,
3.38865e-01,9.19018e-02,-4.86331e-01,2.31044e-02,8.02838e-02,-8.25247e-02,1.86543e-01,-1.15543e-01,-9.62007e-02,-1.98359e-01,1.31916e-01,2.16414e-01,1.19316e-01,-1.72671e-01,1.82992e-01,1.25585e-01,5.20691e-02,2.42301e-01,6.28831e-02,-5.58562e-01,-1.86063e-01,7.04308e-02,8.44513e-02,-1.04896e-01,1.52969e-01,
2.70969e-01,4.25586e-02,-1.32958e-01,-5.77611e-01,2.96524e-01,8.04014e-02,-1.70600e-01,-3.89594e-01,2.10404e-02,1.10375e-01,3.22011e-01,1.79098e-01,-4.10681e-01,7.70643e-02,9.49783e-02,-3.05470e-01,-5.99870e-02,2.83506e-01,-1.54453e-01,-1.93156e-01,-5.76524e-02,-7.84411e-02,-8.93779e-02,-1.74960e-01,-2.02678e-01,
1.87385e-01,6.82882e-01,4.56089e-01,3.02765e-01,-1.71831e-01,-3.98414e-01,1.38374e-01,-5.27934e-01,-9.54069e-02,4.11969e-01,5.53707e-02,4.81376e-01,-1.91823e-01,-1.05798e-01,-4.77639e-01,-2.45197e-01,2.01427e-01,-1.94860e-01,1.27042e-01,5.38547e-01,-4.80363e-01,6.52521e-02,2.02499e-01,1.20380e+00,2.24180e-01,
1.80107e-01,
-4.34942e-02,
1.22208e-02,
-8.93851e-02,
-2.16122e-01,
2.04444e-01,
2.24622e-01,
2.12302e-01,
-1.71435e-01,
2.95078e-01,
2.82655e-01,
-1.69752e-01,
-1.61031e-01,
5.55485e-02,
-1.45241e-01,
1.96399e-01,
8.12018e-02,
-3.23790e-01,
-2.98559e-01,
1.52171e-01,
-7.98430e-02,
-1.71861e-01,
2.63366e-01,
-3.67177e-01,
7.13084e-02,
4.25618e-02,-3.94914e-02,3.34215e-02,-1.43137e-01,-2.87885e-01,1.87701e-01,9.55023e-02,-5.16211e-01,-1.22960e-01,1.10288e-01,-2.28080e-01,-2.13388e-01,6.14935e-01,-3.40317e-01,1.80722e-01,3.89651e-01,-2.51968e-01,2.97792e-01,-2.08299e-01,-1.50640e-01,4.73354e-02,3.99446e-01,-2.95598e-01,5.06572e-01,-1.21509e-01,
3.62155e-01,-7.00219e-02,5.23502e-01,4.10151e-01,1.40554e-02,7.79216e-02,2.84537e-01,2.37362e-01,-9.91878e-02,3.09873e-01,-1.50744e-01,-3.96047e-02,-2.25872e-01,4.87432e-02,-9.47406e-02,-1.46314e-01,3.43364e-01,-5.43230e-02,1.90386e-01,1.40911e-02,2.38705e-01,-1.75433e-01,-1.36400e-01,-1.19209e-01,3.19676e-01,
1.65228e-01,-1.53111e-01,-1.89574e-01,-5.86820e-02,3.23776e-01,7.48196e-02,-6.21188e-01,1.08508e-01,1.60876e-01,-3.40308e-01,-2.20907e-01,-5.95039e-03,-1.46514e-01,-7.62655e-01,-2.18218e-01,-6.12467e-01,-3.21280e-01,-1.74005e-01,-7.62576e-01,4.13406e-01,2.46262e-01,3.68115e-01,2.30905e-01,-8.93515e-02,2.57853e-01,
-2.32083e-01,1.27985e-01,1.25419e-01,3.98050e-02,1.56959e-01,-2.13419e-01,-1.74013e-01,-2.46970e-01,-2.78014e-01,2.79293e-01,-1.83880e-01,-2.60878e-01,-2.96796e-02,-7.43478e-02,1.36144e-01,1.38199e-01,-2.34952e-01,3.43156e-03,1.01068e-01,-2.63635e-01,8.76786e-02,2.04060e-01,-3.45431e-01,1.91912e-01,-3.29649e-01,
-2.21210e-02,3.77259e-01,2.06232e-01,-2.10549e-01,-2.33044e-01,-1.87097e-01,2.53353e-01,2.13603e-01,-4.03841e-01,-2.53795e-02,-2.65196e-01,3.83105e-01,-3.19715e-01,-2.21195e-01,1.22206e-01,-1.09497e-01,-1.25787e-02,3.31302e-01,-1.29720e-01,-2.43721e-01,-4.81616e-03,2.41540e-01,2.39686e-01,-3.62096e-02,-3.14647e-02,
-4.21459e-01,-1.70015e-02,5.48600e-01,-2.12851e-02,-6.74275e-01,-6.43677e-02,-1.02138e-01,-1.52876e-01,-4.86696e-01,-2.55097e-01,-1.65242e-02,2.21963e-01,-4.29725e-01,-4.11059e-01,-1.34170e-01,-3.73992e-02,-1.70517e-01,6.38660e-02,6.70048e-02,1.24402e-01,8.00405e-02,4.29285e-01,1.24617e-01,1.33047e-01,-1.43531e-01,
-7.89047e-02,1.09526e-02,-5.23439e-02,-1.89399e-01,2.73210e-02,-2.40143e-01,2.47663e-01,1.41855e-01,2.72627e-01,-3.17628e-01,-1.19337e-01,-7.74150e-02,-1.20369e-01,2.97731e-01,2.49483e-01,-3.51716e-01,3.07710e-02,-8.71408e-02,1.13150e-01,2.72119e-01,1.15204e-01,2.28496e-02,-1.28922e-01,-1.92264e-01,5.66756e-02,
1.38158e-01,1.05240e-01,8.71256e-02,-7.10514e-02,2.16197e-01,1.82769e-01,-3.99730e-01,-3.00777e-01,2.25582e-05,8.11383e-02,2.61641e-01,1.14087e-01,-2.92094e-01,-7.62008e-02,-6.76744e-02,-2.55459e-01,-6.20203e-03,-1.83381e-01,1.24768e-01,-2.27400e-01,1.96290e-01,2.06017e-01,1.27692e-01,-2.85846e-01,-1.84714e-01,
9.18428e-02,-2.42477e-01,-3.45812e-01,4.87898e-01,1.35290e-01,-1.02878e-01,-2.54278e-01,1.34607e-01,2.96981e-01,-2.00159e-03,-5.01013e-02,-2.06489e-01,7.28978e-02,7.77927e-02,-3.34216e-01,8.79517e-02,2.23120e-02,2.21331e-01,2.08350e-01,-2.80955e-01,2.09261e-01,-1.55831e-01,-6.05395e-02,1.91452e-01,4.50416e-01,
-6.19937e-02,-2.94875e-01,1.85781e-01,3.23239e-01,1.02811e-01,1.72851e-01,-2.56373e-01,-1.77361e-01,2.80123e-02,6.42824e-02,2.38189e-01,-2.20244e-01,-3.62898e-02,6.72734e-02,-1.34752e-01,2.11077e-01,-2.06564e-01,-3.02239e-01,2.87995e-01,6.61839e-02,2.80666e-01,2.90574e-02,-2.68760e-01,2.47258e-01,-1.63111e-01,
9.29157e-02,-1.45408e-01,1.62636e-01,-1.65656e-01,8.79302e-03,-2.62615e-01,8.76067e-03,1.73093e-01,-9.54754e-02,8.03706e-02,-2.77633e-03,2.44261e-01,-1.17988e-01,-4.40301e-02,1.34933e-01,-2.27150e-01,3.02585e-02,1.48429e-01,2.48543e-01,2.29845e-01,1.51523e-01,-2.77126e-01,-1.70122e-01,-3.47031e-02,-3.34821e-01,
1.47286e-02,4.25823e-01,2.20860e-01,-9.73854e-02,-2.65886e-01,-7.01521e-02,-4.77272e-02,-1.46569e-01,-1.20516e-01,1.61052e-01,1.52974e-01,-1.21261e-01,-5.30236e-01,5.63072e-02,2.05321e-01,7.92741e-02,-3.27521e-01,-3.17212e-01,-4.43235e-01,-1.57511e-01,-2.78654e-01,3.30249e-01,-6.22227e-03,-2.22248e-02,-2.92394e-02,
3.06790e-01,3.81528e-01,6.18991e-01,-4.03780e-01,-4.76497e-01,9.61468e-02,1.59759e-01,7.21560e-02,1.01868e-01,2.22853e-01,-8.44405e-01,1.58497e-01,-7.48046e-01,-2.40219e-01,-2.55295e+00,-1.73477e-01,-9.28547e-01,1.52188e-01,1.80763e-01,4.28147e-01,-3.98869e-01,4.11482e-03,2.26041e-01,1.42096e-01,-6.91042e-01,
8.10520e-02,4.79277e-02,-1.68722e-01,1.96593e-01,1.69363e-01,-1.09418e-01,-1.32806e-02,2.09102e-02,-2.95071e-02,1.13442e-01,-1.54385e-01,-2.23598e-01,5.50826e-02,3.44367e-01,1.52233e-02,1.30118e-02,4.84267e-01,3.02231e-01,1.50006e-01,2.39953e-01,3.63936e-01,-9.98430e-02,-1.32542e-01,1.64619e-01,1.82942e-01,
4.98196e-02,-4.11620e-03,-2.15177e-02,4.65791e-01,-3.97266e-02,3.55668e-01,-2.17626e-01,5.59652e-01,3.99952e-01,2.30011e-01,3.69558e-01,-1.62329e-01,-1.39562e-01,1.80375e-01,8.10705e-02,-1.36973e-01,3.57121e-01,1.12324e-01,-3.47433e-01,2.41470e-01,-3.33453e-01,-6.77268e-02,3.04883e-01,-1.04917e-01,1.03506e+00,
-8.58397e-02,7.57921e-03,-1.31430e-01,-8.63635e-02,3.32882e-02,8.97831e-02,1.62857e-02,-4.25211e-01,-8.44751e-02,-6.41402e-03,-6.01801e-02,-1.96304e-02,7.58290e-02,-8.61443e-03,3.07694e-01,3.03999e-01,1.60243e-01,-2.70603e-01,-6.75806e-02,4.83347e-02,-1.29174e-01,1.04925e-01,2.72391e-01,-2.02358e-01,-3.95652e-01,
2.65882e-01,7.20411e-02,-2.69041e-01,-2.10721e-01,3.07220e-01,-3.58655e-01,-2.79845e-01,4.81622e-01,2.17086e-01,4.89668e-02,2.55570e-01,-6.38455e-02,-2.27255e-01,1.84879e-01,-4.14752e-01,-1.25451e-01,1.15622e-01,1.67164e-01,4.92293e-02,1.29651e-01,-1.78731e-01,-3.29971e-01,-1.98851e-02,3.16921e-01,4.27865e-01,
-1.06552e-01,-7.61002e-04,5.32979e-03,-1.86021e-01,-5.18254e-01,1.09693e-01,-9.56886e-02,-5.89803e-01,-1.67485e-01,3.09760e-01,-2.98296e-01,-1.79870e-01,2.24185e-01,-1.96866e-01,3.60672e-01,2.44329e-01,-3.93055e-02,-2.40787e-01,-2.09563e-01,-1.29537e-01,-3.61717e-01,2.83657e-01,-1.77870e-01,-3.31617e-01,-9.50897e-02,
1.45729e-01,1.23272e-01,2.79850e-01,2.88992e-01,1.52741e-01,3.53234e-02,-2.07389e-01,3.99331e-01,9.56983e-02,-9.80487e-02,-5.75838e-02,-1.39016e-01,2.02031e-01,1.04160e-01,1.49665e-01,-3.26726e-01,-2.62184e-02,-3.99842e-02,1.05416e-01,3.06829e-01,5.41300e-01,-2.37934e-03,-2.17609e-01,-2.89041e-02,1.91683e-01,
3.43176e-01,2.35323e-01,-1.21426e-01,-2.47599e-01,-4.88710e-01,2.84911e-01,-2.43285e-01,-1.22570e-01,-7.24259e-01,3.65607e-01,-2.12401e-01,-3.73462e-02,-5.95912e-01,-3.76554e-01,4.49945e-02,3.58925e-01,5.48391e-02,-2.40058e-01,3.14806e-02,6.46097e-02,-2.33429e-01,2.28832e-01,1.14620e-01,-8.83084e-02,-3.73694e-01,
-1.27669e-01,-3.25552e-01,1.95791e-01,2.06194e-01,2.29986e-01,-3.41960e-02,-1.62927e-01,2.06325e-01,-1.81908e-01,-3.83002e-01,8.34436e-02,-1.76450e-01,-1.67242e-01,3.40696e-01,1.52366e-01,8.78605e-02,1.69285e-01,2.12765e-01,1.23837e-01,1.72674e-01,1.00936e-01,-1.49279e-02,4.47824e-02,2.95858e-01,7.64598e-02,
1.73246e-01,-3.52806e-01,-2.06338e-01,2.12589e-01,-3.43182e-01,-2.18930e-01,-2.45952e-01,-1.67817e-01,-1.51130e-02,2.93800e-01,-3.51444e-01,-3.17494e-01,-1.88564e-01,1.65982e-01,-4.93642e-02,1.47887e-01,3.00103e-01,1.37288e-01,3.05612e-01,-1.45926e-01,2.74997e-02,-2.05056e-01,-2.95923e-02,2.19530e-01,2.74916e-01,
1.07518e-01,3.10562e-01,-3.88963e-02,-4.77456e-01,2.84461e-01,1.89185e-01,-1.11359e-01,3.39136e-01,2.93753e-01,1.74559e-01,1.70156e-01,-2.40152e-01,4.27413e-03,1.33623e-01,-1.20202e+00,1.56935e-01,3.12350e-02,-1.63077e-01,-1.15397e-01,-2.20484e-01,-1.77382e-01,-5.61466e-02,-3.31596e-01,-5.18323e-01,1.23563e+00,
2.18779e-01,-3.56733e-01,2.77362e-01,-7.97277e-01,-1.42298e-01,-7.90439e-02,-2.23529e-01,-8.49285e-02,7.27765e-01,8.17357e-02,-5.11984e-02,-5.61159e-01,-2.11996e-01,6.32114e-01,-9.86975e-01,-2.64957e-01,-1.47470e+00,6.80267e-02,-1.93462e+00,-1.45451e-01,-6.31215e-01,5.17049e-02,1.10465e-01,-4.10444e-02,-9.66708e-01,
1.89014e-01,-2.32737e-02,-3.93552e-01,9.41187e-02,2.19362e-01,-2.08057e-01,-1.27265e-01,-3.56628e-02,2.53228e-01,2.81892e-01,4.70637e-02,2.83274e-04,1.44411e-01,1.18286e-01,2.29152e-01,-4.01138e-02,5.74307e-02,-3.00159e-01,-1.47521e-01,2.41167e-01,-1.05155e-01,-7.61079e-02,-2.84251e-01,1.84877e-01,-8.14824e-02,
2.05081e-01,
-2.68782e-01,
-1.94320e-02,
-3.12051e-01,
1.15109e-01,
1.35499e-01,
-2.27557e-01,
-2.18830e-01,
1.91111e-01,
1.18689e-01,
2.46769e-01,
-5.24981e-02,
-2.47948e-01,
-3.16828e-01,
-2.22413e-01,
1.32958e-01,
1.18217e-01,
1.62041e-01,
-4.75960e-01,
-1.61472e-01,
-1.69800e-01,
-2.05831e-01,
4.29663e-02,
2.95382e-02,
1.19627e-01,
-1.19177e-01,-1.93229e-01,-3.03633e-01,-6.31895e-02,3.04868e-01,2.18547e-01,2.42967e-01,4.78976e-01,1.26634e-01,-2.82440e-01,-1.86648e-01,3.12688e-01,-2.28918e-01,2.10501e-01,1.80390e-01,2.49798e-01,1.67838e-01,3.97486e-01,-9.36918e-03,1.08326e-01,5.18661e-02,3.20733e-03,-3.74266e-02,-1.85122e-02,4.57204e-01,
-9.04528e-02,4.38834e-02,3.46890e-02,-1.89271e-01,1.17989e-01,9.68443e-02,3.85648e-01,-3.19542e-01,2.29285e-01,-1.56691e-01,2.81683e-01,7.43955e-02,-3.90034e-01,-1.48507e-02,5.11665e-02,1.04728e-01,-8.08089e-02,2.33144e-01,1.12994e-01,-1.42703e-01,3.17777e-01,9.92579e-02,-1.34160e-01,7.19118e-02,1.96041e-01,
2.73764e-01,2.63483e-01,-9.52306e-02,-1.60741e-01,1.71542e-01,-2.20748e-02,1.59108e-01,1.40555e-01,1.10746e-01,-2.24395e-01,-3.36079e-02,9.29099e-02,-5.31555e-01,1.71376e-01,1.82409e-02,1.85408e-01,1.78186e-03,-1.77230e-01,4.70634e-01,1.92587e-01,1.76963e-01,-8.20810e-02,-8.10228e-02,-1.41766e-01,-3.60757e-02,
-4.01820e-01,4.31374e-01,2.69600e-01,1.36243e-01,-3.13044e-01,-2.24420e-01,3.45355e-01,-1.19396e-01,1.22943e-01,-7.31807e-02,1.84142e-01,-4.87907e-02,3.48001e-01,-8.01180e-01,-6.41768e-01,-1.27714e-01,-3.57502e-02,-3.07741e-01,-6.23736e-01,-1.38430e-02,-2.78217e-01,-1.54605e-01,2.57469e-01,2.16063e-01,-2.06296e-02,
2.64317e-01,2.32948e-02,-1.06513e-02,2.51200e-01,1.27892e-01,-3.59049e-01,1.90866e-01,1.82103e-01,-2.64626e-01,-3.30203e-01,-2.93387e-01,-4.05284e-01,4.37316e-02,-1.76076e-01,-1.14779e-01,2.55154e-02,-1.42206e-01,-4.45653e-01,3.36754e-01,9.73503e-02,-4.46870e-02,-3.15466e-01,-1.46714e-01,4.92013e-03,-3.31914e-01,
-1.92678e-01,1.18765e-01,-2.89583e-01,1.68553e-01,1.46117e-01,-1.86706e-01,-2.30006e-01,1.87380e-01,2.03358e-01,-1.81945e-01,2.28024e-01,-9.97040e-02,-2.14462e-01,3.41411e-01,-7.32236e-02,2.07412e-01,-2.31533e-01,2.04182e-01,1.64682e-01,-1.33481e-01,2.72852e-01,-2.22694e-01,-2.52978e-01,3.01987e-02,-1.26927e-01,
-2.23295e-01,3.45987e-01,1.91816e-01,4.37082e-02,-1.33761e-02,1.36928e-01,-8.16326e-02,-1.62128e-01,1.80174e-01,-8.75545e-02,-3.14442e-01,-5.09986e-02,1.17283e-01,-1.89547e-01,-6.05512e-02,1.78712e-01,1.77227e-03,-2.49244e-01,-2.35521e-01,-4.37866e-01,-3.07542e-01,8.82208e-03,-2.25504e-01,4.24307e-01,1.63116e-01,
-2.59076e-01,-1.89831e-01,3.75264e-02,1.95180e-01,6.15360e-02,-6.86270e-02,-1.87989e-01,5.34840e-02,-5.90323e-02,1.40121e-01,-1.31693e-01,-1.78316e-01,1.76554e-02,1.36873e-01,1.51962e-01,1.19751e-02,-1.00991e-01,2.29788e-01,-3.83460e-01,-1.68376e-01,-1.92174e-01,4.62169e-02,-9.22677e-02,2.42974e-02,3.00268e-01,
-3.00086e-01,4.42013e-02,-1.72734e-01,-2.28068e-01,-1.06565e-01,-8.13246e-03,5.39996e-02,9.50198e-02,3.08044e-01,2.15950e-01,-2.47866e-01,-3.45693e-01,-1.70006e-01,1.38527e-01,-2.28297e-01,-2.32423e-01,-3.73564e-02,-2.50356e-01,1.26224e-01,2.35932e-01,5.86649e-02,2.33721e-01,1.21325e-01,1.64860e-02,-2.62952e-01,
-3.29696e-01,-2.59278e-01,2.62263e-01,-1.39113e-01,-2.35952e-01,8.76207e-02,-1.38371e-01,1.68041e-01,2.48798e-01,-2.05516e-01,-2.78449e-01,3.00985e-01,-6.29077e-02,1.52438e-01,-1.14188e-01,-2.21068e-01,1.87254e-01,-6.17079e-02,-1.89628e-01,-1.08435e-01,-1.59430e-01,-7.01571e-02,-1.59084e-01,2.55056e-01,-2.79136e-01,
-9.47645e-02,4.27865e-01,-2.07467e-01,-1.34254e-01,3.09970e-01,2.72291e-01,3.97343e-02,-5.49504e-03,-3.10733e-01,1.07390e-02,-3.38169e-01,3.19233e-01,3.67247e-01,-7.90459e-02,-3.11657e-01,-3.33151e-01,8.77729e-02,7.58416e-02,1.80112e-01,8.56813e-03,-2.30346e-01,-2.82271e-01,3.56416e-01,2.89491e-01,-2.11988e-01,
-4.90067e-02,-3.46531e-01,3.52115e-01,-1.48631e-01,2.07393e-01,-2.55208e-01,-2.85387e-01,-1.59228e-01,1.97157e-01,-1.45988e-02,2.94182e-01,3.97797e-02,2.96045e-01,-7.08801e-01,-7.47107e-01,1.31537e-01,3.43909e-01,-2.43611e-01,-4.02492e-01,-3.09390e-02,-1.63085e-02,6.63229e-02,3.85850e-01,3.41798e-01,3.19462e-01,
-1.37310e-01,1.10828e-02,1.42245e-01,6.72943e-02,3.45378e-01,1.53252e-02,-2.61825e-02,-2.74827e-01,1.42416e-01,3.76379e-02,1.20090e-01,-5.91264e-02,2.44491e-01,1.48610e-01,-3.22744e-01,-2.67065e-01,-3.60372e-02,-1.93935e-01,-1.77038e-01,1.53222e-01,-2.65978e-01,8.08195e-02,1.36275e-01,9.10197e-02,-1.59113e-01,
-3.50572e-01,-7.04861e-02,-2.12112e-01,2.20809e-01,-3.80043e-01,-9.60796e-02,4.74467e-02,-1.74577e-01,5.00221e-02,-3.35708e-02,-3.03470e-01,-3.60711e-01,-1.07278e-01,1.11641e-01,-2.40836e-01,2.59671e-01,-2.24749e-01,9.80483e-03,2.23734e-01,1.43451e-01,1.94120e-01,2.53233e-01,1.81293e-01,3.22446e-02,-2.10289e-01,
1.45509e-01,-9.19667e-02,-1.18764e-01,8.21709e-02,1.19812e-01,-1.68919e-01,-2.22807e-01,1.15910e-01,2.40880e-01,1.30149e-01,-3.99375e-01,2.83487e-01,3.54140e-02,4.39898e-02,7.59277e-02,-3.67766e-01,2.25675e-02,5.78586e-03,2.75683e-01,-6.04612e-01,1.28789e-01,-1.20256e-01,4.96296e-02,2.83046e-01,-6.74722e-02,
4.94561e-02,-1.64110e-01,-1.04700e-01,-3.77343e-02,1.62774e-01,9.62974e-02,-4.13230e-01,1.56880e-01,3.70666e-02,-5.14197e-02,-9.41584e-02,1.66128e-01,2.84802e-01,1.11876e-01,1.97396e-01,3.11359e-01,-1.28708e-01,-1.44570e-01,-1.92384e-01,-2.85915e-02,-3.52207e-01,9.94623e-02,1.65372e-01,1.11797e-01,2.70007e-01,
-3.88841e-01,3.93423e-02,-2.51124e-01,1.07317e-02,-1.30292e-01,-4.65940e-02,1.22401e-01,3.18275e-01,-2.68240e-01,6.74804e-02,-2.72672e-02,-2.25159e-01,4.45044e-02,3.45846e-02,-2.32777e-01,1.34004e-01,-3.43691e-01,7.87790e-02,6.93876e-03,1.63206e-01,-1.62273e-01,3.30952e-01,1.97852e-01,-1.70491e-01,-2.31979e-01,
1.89250e-01,1.87850e-01,2.16764e-01,3.02094e-01,2.67099e-01,-3.19150e-01,-2.06966e-01,1.41661e-01,-1.82386e-01,-3.19455e-01,2.79109e-01,-6.86815e-02,3.35626e-01,2.06842e-01,-2.47561e-01,2.45815e-01,-9.11564e-02,2.42118e-01,1.83819e-01,-1.61993e-01,-6.89925e-02,2.38971e-02,1.14190e-01,-3.77792e-02,-3.55108e-01,
8.45866e-02,-1.52802e-01,-3.34202e-01,1.08896e-01,1.25264e-01,3.57046e-01,3.19870e-01,6.31895e-02,1.81820e-01,-1.30839e-01,-1.77567e-01,1.40191e-01,-1.49202e-01,2.93247e-01,-7.47738e-02,-1.70461e-01,-3.53050e-01,-3.68293e-01,1.82629e-01,1.37287e-01,-3.15789e-01,5.49270e-02,1.49960e-01,-3.11910e-01,-2.98192e-01,
3.00467e-01,-1.28916e-02,1.44954e-01,2.52047e-01,2.29515e-01,1.02910e-01,-2.56371e-01,1.06353e-01,-1.92710e-01,9.49521e-02,-2.86510e-01,-2.91821e-01,-2.38466e-01,1.80885e-01,1.45315e-01,-1.04970e-01,-7.43950e-02,-1.91681e-01,3.46141e-01,-1.51138e-01,9.66987e-03,-1.05959e-01,-3.20610e-01,-2.35637e-01,2.13979e-01,
-9.88952e-02,-2.15246e-01,1.09168e-01,3.37077e-01,-2.14622e-02,-2.79862e-01,-3.14527e-01,-4.65918e-03,1.07457e-01,1.87825e-01,-3.30801e-01,2.71782e-01,2.69279e-02,5.28448e-02,-9.57534e-02,1.52217e-01,-1.94917e-01,-1.50512e-01,1.42126e-01,3.43489e-01,-8.25030e-03,3.15626e-01,-1.74455e-01,2.53250e-01,-7.69445e-02,
2.38628e-01,2.68787e-01,6.42850e-02,3.24148e-02,-1.94977e-01,-2.69391e-01,-1.29499e-01,-2.91953e-01,2.71316e-01,-2.46777e-01,3.02057e-01,-2.08629e-01,3.37082e-02,-3.31063e-01,-2.80843e-01,1.38510e-01,1.64811e-01,2.31723e-01,-5.45864e-02,-2.47489e-01,9.44755e-02,-7.30455e-02,2.32851e-01,-3.42099e-02,1.95072e-01,
3.43830e-01,-3.42228e-01,-1.16585e-01,-1.94858e-01,-9.22993e-03,-9.57281e-02,-1.18197e-01,1.21653e-01,-1.38376e-01,-1.86610e-01,8.84878e-02,-3.12578e-01,1.36534e-01,1.13157e-01,-3.20881e-01,-2.35775e-02,-3.35068e-01,-1.39356e-01,1.53051e-01,1.95317e-01,-1.77821e-01,-2.69276e-01,-1.08225e-01,-1.00783e-01,-2.13754e-01,
7.75910e-01,1.80571e-01,-1.73228e-01,6.19833e-02,-4.36289e-01,-2.02565e-01,7.22820e-02,-3.78248e-03,-4.95838e-01,-4.03071e-01,-3.17225e-01,4.17195e-01,1.46626e-01,3.42467e-01,1.05953e-01,-3.58573e-01,1.52451e-01,6.16725e-01,1.30571e-02,3.72751e-01,-3.10697e-01,-3.15263e-01,5.77082e-03,1.34565e-01,1.84322e-01,
-1.94121e-01,-1.26807e-01,-1.32025e-01,8.35963e-02,-3.10765e-01,5.98860e-02,-2.01246e-01,-1.21119e-01,-5.93431e-02,-3.17493e-01,-1.93106e-02,-3.37124e-01,9.01759e-02,1.47059e-01,-2.67521e-01,6.55198e-02,-3.39103e-01,-1.07304e-01,-8.21421e-03,-3.38854e-02,-5.58282e-02,-3.39071e-01,2.41542e-01,-1.69084e-01,-1.59903e-01,
-2.53215e-01,
2.60353e-01,
-2.52439e-02,
1.98760e-01,
1.40461e-01,
-2.40297e-01,
1.36408e-01,
2.05238e-01,
-6.69057e-02,
-1.76709e-01,
1.09352e-01,
-1.54350e-01,
-1.75069e-01,
1.05323e-01,
5.08979e-02,
5.52177e-02,
1.04317e-01,
-2.61606e-01,
-4.18636e-02,
-4.33681e-02,
-1.63580e-01,
-3.02688e-01,
-9.23642e-02,
-1.47715e-01,
-1.11204e-01,
-5.54591e-02,1.36340e-01,1.36511e-01,-6.32994e-01,-2.80170e-01,-2.94209e-02,-1.31142e-01,2.19700e-01,1.85012e-01,3.35550e-01,-4.92053e-01,-3.74993e-01,2.11286e-01,-2.83102e-01,-1.17618e-01,-3.15811e-01,2.74115e-01,3.43889e-01,2.28079e-04,3.14379e-01,5.92929e-02,-2.44787e-01,1.66375e-01,1.22807e-01,-7.39331e-02,
-5.22916e-02,-8.68076e-02,2.03088e-01,6.01586e-02,-5.22784e-02,-1.58136e-01,1.30783e-01,-2.16109e-01,-9.17903e-03,2.98894e-01,-1.58701e-01,1.97681e-01,9.02103e-02,-2.62308e-01,-1.05890e-01,-7.52585e-02,-2.63112e-01,1.84681e-01,-1.52471e-01,-1.34444e-01,1.61309e-01,2.98919e-01,1.71240e-01,-2.44376e-01,-2.03259e-01,
-1.78428e-01,-1.14307e-01,-7.47621e-02,-1.20633e-01,2.73978e-01,4.62924e-02,-1.12747e-01,-5.18627e-02,-2.95036e-01,-1.30912e-01,-3.25610e-01,2.99661e-01,-2.20256e-01,3.10753e-01,-2.31806e-01,-6.01977e-03,3.24058e-01,2.51124e-01,3.71552e-02,3.14718e-01,2.58135e-01,2.23524e-01,-3.35672e-01,5.22630e-02,-7.83066e-02,
1.50520e-02,1.08391e-01,2.47269e-01,-2.27556e-01,2.97851e-01,1.29962e-01,-1.62464e-01,1.02475e-01,-1.22072e-01,2.91045e-01,-9.78046e-03,-1.87129e-01,-2.26563e-01,3.94840e-02,-2.09760e-01,1.07259e-01,-3.87696e-02,8.54744e-02,-6.84493e-02,-3.91204e-02,-5.39617e-02,1.62686e-01,-7.65785e-02,1.19340e-01,-1.53172e-02,
-6.37924e-02,5.41206e-02,-7.71744e-02,-7.47062e-02,2.70782e-02,-1.55569e-01,3.14078e-01,3.51952e-01,1.28724e-01,6.27492e-02,3.57078e-02,-9.10704e-02,-3.36266e-02,2.77440e-01,1.18610e-01,3.16796e-01,8.06429e-02,4.83971e-02,3.22813e-01,1.72346e-01,3.36273e-01,2.59963e-01,2.75533e-01,-9.07268e-02,3.31227e-01,
-6.48631e-02,2.07943e-01,-3.26225e-01,-2.08003e-01,-1.69112e-01,3.40829e-01,-2.61495e-01,1.72568e-01,-2.16102e-01,-1.82028e-01,-5.91471e-02,9.07335e-02,-1.90938e-01,1.50882e-01,-7.03064e-02,-1.08548e-01,1.72768e-02,-2.28110e-01,2.14637e-01,-1.05076e-01,-6.62467e-02,2.08176e-01,1.89669e-02,-6.12884e-02,1.67113e-01,
2.75645e-01,4.29396e-02,-2.51765e-01,-2.24086e-01,-1.89011e-01,-3.05778e-01,2.91373e-01,4.02206e-02,-1.19697e-01,-3.33147e-01,-4.74447e-02,3.04928e-01,-3.32767e-01,1.07234e-01,6.28474e-02,-1.72415e-01,2.37529e-01,-4.02041e-02,6.98370e-02,2.67769e-01,-2.41294e-01,-2.13727e-01,-2.84197e-01,3.19892e-01,3.35567e-01,
-2.13226e-01,-5.24731e-02,-2.70361e-01,6.73653e-02,-2.27032e-01,2.53968e-02,-1.74524e-01,1.48094e-01,1.95006e-01,1.77396e-01,-3.16988e-01,-2.36301e-01,-2.10056e-01,3.80570e-02,9.24410e-02,-3.12510e-01,-9.30459e-02,-1.88044e-02,2.05768e-01,2.94246e-01,1.25777e-01,1.26126e-01,9.35451e-02,-9.20998e-02,1.97791e-01,
-2.54049e-01,-7.07600e-02,-9.26118e-02,2.74284e-01,-2.43386e-01,3.16172e-01,7.67350e-02,1.65435e-01,-2.30060e-01,2.37736e-01,-4.04067e-02,7.08538e-01,1.90009e-01,1.34422e-01,9.69335e-02,-1.06375e-02,2.32489e-01,1.39989e-01,1.80383e-02,2.93553e-02,1.19487e-01,-6.73198e-02,1.24952e-01,3.22160e-01,1.48385e-02,
2.05714e-01,1.23365e-01,-1.14917e-01,2.01088e-01,2.19594e-04,-1.82469e-01,1.41198e-01,-6.19421e-02,-2.56602e-01,-3.45070e-01,6.76220e-02,2.51156e-01,-2.60380e-01,1.70206e-01,-2.17056e-01,-9.74459e-02,2.13011e-01,3.15324e-01,3.70858e-01,-2.78753e-01,1.99569e-01,-7.00530e-02,2.44995e-01,5.84344e-02,-1.68381e-01,
-3.43364e-01,-2.21748e-01,-4.51324e-01,-1.72035e-01,-2.35359e-01,1.06652e-01,1.33342e-01,-5.13866e-01,-1.11331e-01,-4.83045e-02,5.67072e-02,-3.99244e-01,1.26067e-01,-3.19346e-03,1.19107e-01,-1.96930e-01,2.64726e-01,2.88256e-01,-1.43735e-01,-3.28774e-02,1.44385e-01,2.45356e-01,2.18111e-01,-2.79860e-01,-2.19623e-01,
-1.76920e-01,1.99463e-01,1.63611e-01,1.87424e-01,-2.23374e-01,2.95453e-01,-2.22469e-02,2.84352e-01,5.47578e-02,2.72707e-01,-3.11028e-02,-1.35229e-01,2.35324e-01,-2.40032e-01,3.97819e-02,1.98653e-01,-3.06986e-01,3.43323e-01,-2.66337e-01,-1.00728e-01,2.50633e-01,-1.40608e-02,-2.49325e-01,2.33411e-01,8.70900e-02,
6.36023e-02,2.08477e-01,9.76342e-02,-1.44019e-01,-8.70954e-02,-2.43815e-01,-3.41689e-01,-3.09293e-01,1.03164e-01,-1.02379e-01,1.12531e-02,6.41720e-01,3.40347e-01,-4.95120e-02,-2.27059e+00,-3.78969e-02,4.17900e-02,2.80993e-01,1.11046e-01,2.15929e-01,-9.89071e-02,2.60781e-01,-1.16885e-01,-3.79052e-01,-2.60322e-01,
-2.60619e-01,-4.94154e-03,2.02822e-01,-2.55611e-01,1.75900e-01,-2.56344e-02,3.16449e-01,8.08872e-02,1.96984e-01,1.96129e-01,-2.32358e-01,2.17110e-01,-2.66770e-01,-1.35744e-01,5.30398e-02,1.72935e-01,9.63347e-02,1.84229e-02,-3.35250e-01,2.18373e-01,-2.18047e-01,9.10029e-02,-1.04578e-01,-2.87892e-01,-1.13467e-01,
-3.58340e-02,-8.92422e-02,1.87461e-02,-3.10961e-01,3.18000e-01,-1.99446e-01,2.87532e-01,-3.46651e-01,-2.57918e-01,-2.27181e-01,-3.57887e-01,-3.00860e-02,-5.89281e-04,8.45823e-02,-3.37422e-01,2.03207e-01,-2.75905e-01,9.31457e-02,-3.24275e-01,-1.69030e-01,1.49386e-01,-9.55075e-02,-1.48125e-01,-1.84349e-01,-7.34430e-02,
6.51151e-02,2.42038e-01,-1.65005e-01,4.64462e-02,1.31571e-01,-1.50306e-01,1.55121e-01,3.01672e-02,-1.76416e-01,-2.21477e-01,-6.51650e-02,1.44743e-01,2.77166e-01,1.82298e-01,-1.59705e-01,-9.69649e-02,1.80287e-01,-1.81968e-01,2.08964e-01,-3.29566e-01,-2.13600e-01,-2.33171e-01,1.29987e-01,-1.74883e-01,2.95761e-01,
7.57094e-02,2.35014e-01,-1.16302e-01,-4.87235e-02,-1.65701e-01,3.46674e-01,-3.16963e-01,-1.72836e-01,-1.01438e-01,-3.28789e-01,8.84831e-03,3.22821e-01,1.37374e-01,-1.67837e-01,1.61588e-01,-3.15972e-02,-1.46343e-01,2.59003e-01,1.28363e-01,2.75960e-01,3.06900e-01,-3.44212e-01,-9.31540e-03,-2.83764e-01,2.88285e-01,
3.30761e-01,4.12349e-03,4.77548e-01,4.68392e-01,5.59869e-02,1.02614e-01,2.93665e-01,3.11105e-01,2.84288e-01,2.13686e-01,2.41511e-01,2.66571e-01,1.14560e-01,2.67270e-01,1.07786e-01,3.28569e-01,-3.11309e-01,-5.16147e-02,-1.65281e-02,1.70240e-01,-2.08222e-01,4.42981e-03,3.26285e-01,-1.34991e-01,7.57637e-02,
2.91966e-01,1.49772e-01,-5.25977e-02,1.59960e-01,4.97078e-03,-3.18205e-02,-2.54710e-01,-3.01896e-01,3.40438e-01,-1.36587e-01,-1.53307e-01,-4.51158e-01,-1.40527e-03,-3.00893e-01,5.28884e-02,2.50186e-01,2.45515e-01,5.75578e-02,-3.00730e-01,8.03419e-02,4.35102e-02,1.15159e-01,1.47977e-02,-8.64457e-02,1.75269e-01,
3.08646e-01,-2.41612e-01,1.78765e-01,1.91182e-03,1.46913e-01,3.62674e-02,5.98003e-02,1.40288e-02,-2.06334e-01,2.92010e-01,1.75741e-01,-1.44285e-01,3.03962e-02,-1.72895e-01,2.38368e-01,3.29494e-02,2.37128e-01,4.60246e-02,-2.55866e-02,-3.22174e-01,1.64499e-01,-2.82865e-01,7.00502e-02,-1.77784e-01,9.91792e-02,
-3.65664e-01,2.56680e-01,1.71158e-01,-5.26360e-03,4.90638e-02,-1.97970e-01,-1.00180e-01,2.71387e-01,7.53783e-02,-1.66523e-01,3.51586e-02,9.70603e-02,5.30190e-02,-4.46486e-02,-1.45680e-01,2.20944e-01,-9.64534e-02,-1.47298e-01,3.07860e-02,2.15612e-01,9.84073e-02,-9.67209e-03,-1.32148e-01,-8.98978e-02,2.12576e-01,
-6.26629e-02,3.20261e-01,3.06837e-03,3.16387e-01,-3.41965e-01,-2.64043e-02,-1.63376e-01,-2.39907e-02,1.10206e-01,-1.43474e-01,8.18361e-02,-6.24477e-02,-1.32477e-01,-1.86610e-01,-2.22009e-01,1.72666e-01,-5.22937e-02,3.08962e-01,-3.26650e-01,2.09036e-01,-2.80510e-01,2.52015e-01,2.61408e-01,-9.22888e-02,1.04351e-01,
-3.25944e-01,-1.90857e-01,1.18515e-02,1.88674e-01,-6.99506e-02,-2.19198e-01,-2.27011e-01,1.05905e-01,-5.42288e-02,1.00205e-01,-2.82878e-01,-1.83733e-01,1.92713e-01,2.52407e-01,-2.75779e-01,-5.13902e-03,-1.69430e-01,6.37833e-02,2.69382e-01,3.04547e-01,2.61043e-01,3.29656e-01,-1.94316e-01,-9.37261e-02,2.40474e-01,
1.89515e-01,2.34828e-01,1.79073e-02,6.76790e-02,3.50050e-02,4.80791e-04,1.62447e-01,3.81964e-01,2.72164e-01,-2.72515e-01,5.74796e-02,2.21049e-02,-7.89184e-02,2.23268e-02,-5.62091e-02,4.20046e-01,2.52616e-01,1.19280e-01,-2.48293e-01,5.51345e-02,-1.41206e-02,2.41622e-01,-2.61244e-01,-1.83565e-01,3.17003e-01,
1.77299e-01,1.30344e-01,-2.14901e-01,-1.57243e-01,8.90225e-02,-1.56445e-01,-7.25536e-02,3.36838e-01,6.35524e-02,1.50999e-01,2.72726e-01,-9.37994e-02,4.49020e-02,-2.04674e-01,-4.06072e-02,8.38771e-02,1.82575e-01,8.65278e-02,-2.35980e-01,3.52840e-02,-1.79074e-01,-2.25170e-01,-1.20123e-01,-1.22249e-01,3.13564e-01,
-8.15358e-03,
-3.42330e-01,
-2.73094e-03,
6.84430e-02,
1.52713e-01,
3.11977e-01,
-1.02782e-01,
2.03464e-01,
1.74812e-02,
7.46265e-02,
1.59198e-01,
3.55791e-01,
-2.28897e-02,
-2.80912e-01,
-3.93894e-03,
3.55994e-02,
-9.43152e-02,
-1.87453e-01,
3.27445e-01,
-2.30387e-01,
-7.73155e-02,
1.06356e-01,
-2.09372e-01,
-2.52949e-01,
1.28057e-01,
-2.50052e-01,2.86080e-01,4.75527e-02,-2.43156e-01,-1.05940e-01,9.14983e-02,-4.57898e-01,1.12727e-01,-1.94430e-01,1.45628e-01,-6.48067e-01,-3.70987e-01,4.30213e-02,3.94982e-01,-3.23228e-01,-3.71883e-01,1.04642e-01,1.09654e-02,-2.81608e-01,-4.84857e-02,1.15431e-01,-2.91991e-01,3.92074e-01,3.57772e-01,-2.78509e-01,
4.16526e-02,-1.06851e-01,3.83790e-01,1.19183e-02,-1.41368e-01,-4.06990e-01,4.93070e-01,-2.42486e-01,1.76743e-01,-4.47610e-01,4.39815e-01,-4.19767e-01,-6.77816e-03,-1.68846e-01,4.01330e-01,2.80204e-01,1.16840e-01,-3.74757e-01,7.50799e-02,-3.15393e-01,-2.06191e-01,2.02080e-01,2.82120e-02,4.94243e-01,-3.16578e-01,
-1.70871e-01,1.08915e-01,1.43303e-01,2.49574e-01,1.76108e-01,1.51799e-01,6.74737e-01,7.35436e-02,-8.35517e-02,1.40242e-01,5.09869e-01,5.63527e-02,2.94981e-02,-1.24136e-01,-7.79737e-02,-3.21759e-01,-2.16385e-01,-4.90260e-04,-2.10308e-01,3.42578e-01,-3.62295e-01,3.68708e-01,1.10511e-01,7.45296e-02,-1.78209e-01,
-8.82309e-03,9.69005e-02,-4.11438e-01,1.02351e-01,-2.71474e-01,-2.56557e-01,5.34964e-01,3.24748e-01,-7.46191e-02,1.57898e-01,3.03867e-01,-1.88469e-01,5.68400e-03,-2.75506e-01,3.24342e-01,-3.94417e-01,1.08834e-01,-2.75230e-02,-2.76381e-01,-2.61653e-01,-2.81318e-02,-6.89386e-02,-1.25709e-01,4.43724e-01,-2.54259e-02,
9.47280e-02,1.02015e-01,6.30145e-02,9.43149e-02,-3.14112e-01,2.51497e-01,4.98454e-01,-2.66962e-02,-8.98364e-02,-1.24867e-01,5.54952e-01,2.46941e-01,-7.25690e-02,2.34125e-01,1.89767e-01,4.57604e-02,-3.74287e-01,-1.20574e-02,-3.49369e-01,-5.97570e-02,-4.22261e-01,-3.12774e-01,1.83223e-02,2.88763e-01,-2.12189e-01,
4.95573e-01,
4.82234e-01,
-7.86624e-02,
3.91776e-01,
1.91693e-01,
