// Neural Network File Format by Kyle Julian, Stanford 2016
6,5,5,25,
5,25,25,25,25,25,5,
0,
-56000.000000,-56000.000000,-3.141593,200.000000,200.000000
56000.000000,56000.000000,3.141593,200.000000,200.000000
-278.628049,0.000000,0.000000,200.000000,200.000000,-0.242819
112000.000000,112000.000000,6.283185,1.000000,1.000000,17.479225
-3.78610e-02,-3.88810e-01,-1.66302e-01,-2.37665e-01,8.59281e-02,
-5.28784e-01,-2.57457e+00,-4.68490e-01,-3.41689e-01,2.34950e-01,
-2.59086e+00,-8.98296e-02,4.58248e-01,3.09542e-01,3.22743e-01,
-6.17555e-01,-4.80056e-01,2.73091e-01,2.89690e-01,2.05887e-01,
1.48015e+00,-4.74709e-01,-3.48294e-01,3.49825e-01,2.78180e-01,
-1.62147e+00,2.26048e+00,-2.23305e-01,-1.21184e-01,-3.69654e-01,
6.41178e-01,-1.10887e+00,-4.21087e-01,3.83435e-01,-3.18536e-01,
2.02348e+00,1.14828e+00,-5.06496e-02,-1.10939e-01,-3.02672e-01,
7.67283e-02,1.14804e-01,-8.11760e-02,1.69831e-01,3.84443e-01,
-5.90635e-01,4.21979e-01,-4.98052e-02,3.94524e-01,1.71962e-01,
-1.80281e+00,-3.21427e-01,1.98376e-01,-4.01247e-01,3.07202e-01,
3.38648e-03,2.70618e+00,6.19740e-01,3.70319e-01,-2.19049e-01,
-2.00593e+00,5.75651e-02,-6.11335e-01,-1.05864e-01,-6.76060e-03,
-9.40447e-02,6.17557e-02,3.13944e-01,-3.68120e-01,-3.14403e-01,
-6.64801e-01,2.63625e+00,1.54050e-01,2.57425e-01,-4.41036e-01,
-1.82340e-01,-4.19705e-01,-6.07777e-01,-3.68898e-01,-3.55465e-01,
1.36801e-01,-1.49867e+00,5.02473e-01,-2.68939e-03,1.11124e-01,
-4.95361e-01,1.92906e-01,-2.08945e-01,2.39314e-01,-7.17129e-02,
6.13796e-01,5.65432e-01,3.73317e-01,2.37903e-01,-4.36154e-02,
-2.74885e-01,1.09341e+00,-5.41826e-01,1.75735e-01,-4.39734e-02,
1.50765e-01,1.63168e+00,4.05689e-01,-9.72411e-02,3.64790e-01,
-1.71219e+00,1.18891e+00,2.09434e-01,1.30619e-01,-1.15224e-01,
7.77063e-01,1.13813e-01,-5.26712e-01,-2.24197e-01,3.60707e-01,
1.51125e-01,1.32138e+00,-2.45843e-01,-8.28286e-02,-5.77192e-02,
-1.26538e+00,7.75489e-01,1.01343e+00,6.93238e-02,-2.90698e-01,
-2.79273e-01,
1.36444e-02,
7.57002e-04,
1.75110e-01,
7.73108e-02,
4.96189e-02,
9.30487e-02,
3.10233e-03,
-1.68188e-01,
1.70493e-01,
-4.22266e-02,
6.49775e-02,
8.31845e-02,
-2.19538e-01,
2.84600e-01,
-5.29449e-02,
-1.71446e-01,
1.85313e-01,
1.98679e-01,
-1.27892e-01,
-4.72944e-02,
-3.90956e-02,
2.57711e-01,
1.25786e-01,
3.20107e-02,
-1.45039e-01,-1.81678e-01,-1.05456e+00,3.10529e-01,1.92819e-01,7.29303e-01,-3.71582e-01,2.91389e-01,-7.40815e-02,9.42961e-02,7.66818e-01,2.64447e-01,3.92606e-01,-1.86685e-01,4.71718e-01,-1.15259e-01,5.00471e-01,1.59302e-01,-2.36093e-01,1.27328e+00,2.48847e-01,-1.22358e+00,-5.93690e-02,-8.42387e-03,2.56379e-02,
6.75363e-02,3.64481e-01,3.06664e-01,3.49358e-01,-6.24729e-01,5.93195e-01,-3.62080e-01,-3.59748e-01,2.75997e-01,3.13750e-01,-4.91683e-01,9.71666e-03,3.27727e-01,5.76515e-02,2.76743e-01,5.17734e-01,-4.89075e-02,3.45265e-01,-1.37628e-01,1.29400e+00,-4.51337e-01,-2.69394e-01,-3.31900e-01,2.37965e-01,2.11642e-01,
1.44783e-01,3.24720e-01,3.70142e-01,3.69827e-03,3.82189e-01,-8.16655e-01,2.47766e-01,5.68129e-01,3.03308e-01,-3.80957e-02,-6.23044e-01,2.55406e-01,-3.13920e-01,1.87089e-01,1.34578e-01,-5.29165e-01,-4.27636e-01,3.66952e-01,-2.41760e-01,-2.47772e-01,4.76756e-01,1.56886e-01,3.16319e-01,2.65832e-02,-1.80530e-01,
2.85453e-01,2.11081e-01,4.14164e-01,-2.20403e-01,-2.66342e-01,1.92793e-02,2.87794e-01,4.74836e-02,-2.40464e-01,2.08121e-01,-3.67672e-02,-5.11571e-01,4.81044e-01,1.33289e-01,1.56264e-01,2.65323e-01,4.80340e-02,2.55064e-01,-6.29969e-01,-1.53194e+00,-3.19818e-01,2.84418e-01,-1.86523e-01,-6.18741e-02,7.39658e-01,
-9.93724e-02,7.07550e-01,3.24270e-01,-1.12023e-01,-4.59428e-01,-3.25138e-01,-6.65222e-01,-5.69062e-01,-9.20856e-02,3.61999e-02,4.82673e-01,2.63777e-01,4.08569e-01,1.50812e-01,3.75767e-01,3.16420e-01,-4.97915e-01,8.48620e-02,2.12965e-01,2.64942e-01,5.02091e-04,1.14147e-02,1.16322e-01,3.63032e-01,-1.36060e-01,
-6.72400e-02,1.55968e-01,1.17194e-02,-1.45303e-01,2.22453e-01,3.50908e-01,-1.16984e-01,-1.74338e-01,-2.62724e-02,1.65213e-01,2.92326e-01,7.47219e-03,8.98270e-01,-1.53725e-01,-1.88013e-01,-4.42402e-01,-4.42642e-01,2.68274e-01,-2.55640e-01,7.20011e-01,-3.17481e-01,1.48848e-01,3.59721e-01,2.33142e-01,1.54658e-01,
3.01494e-01,-7.79730e-02,2.58021e-01,2.82320e-02,-3.33210e-01,3.52985e-01,2.36331e-01,6.47126e-01,4.25449e-02,1.40165e-01,-5.79822e-02,2.56155e-02,-4.74692e-01,-1.19986e-01,-4.88660e-02,6.32872e-02,-2.20078e-01,-5.67974e-02,1.92193e-01,6.69909e-01,-7.48230e-01,1.28712e-01,-3.13571e-01,9.47397e-02,-1.39323e-02,
8.79328e-02,-6.82287e-02,-1.58057e-01,-2.43012e-01,3.00469e-01,-1.47832e-01,2.38832e-01,-4.72959e-02,-1.76875e-01,3.52551e-02,-9.77819e-02,-3.16868e-01,1.13506e-01,2.12990e-01,2.70092e-01,-8.15189e-02,1.00505e-01,-2.06595e-01,-9.09506e-02,-2.39206e-01,-6.48399e-02,2.64565e-01,-3.25467e-01,-9.94879e-02,2.67996e-01,
-2.02753e-01,-1.37196e-01,3.62773e-01,7.73357e-02,-1.74718e-01,4.47270e-01,-5.52535e-02,1.36208e+00,3.35320e-01,1.24692e-01,5.62462e-01,3.78065e-01,-2.57709e-01,8.34754e-02,8.16112e-02,4.82363e-02,-8.42839e-02,1.53485e-01,6.56103e-02,-3.85206e-01,1.40744e-01,-2.30821e-01,-1.81991e-01,3.29038e-01,-2.36583e-01,
-3.16701e-01,-3.16330e-01,7.43497e-02,-2.24220e-01,-1.34725e-01,-1.32736e-02,-8.93642e-02,5.35659e-01,-9.53238e-02,-1.77685e-01,2.29182e-01,5.06060e-01,7.61079e-02,3.37619e-01,1.41728e-01,4.18165e-01,7.50541e-01,-9.31855e-02,-2.26214e-01,-1.61211e-01,-4.21597e-01,-2.06800e-01,3.39768e-01,2.70483e-01,-8.62829e-02,
-1.95576e-01,-1.01497e-01,3.28105e-01,-2.30562e-01,-3.71813e-01,2.34314e-01,2.73898e-01,1.53605e-01,3.03637e-01,1.22430e-01,-6.90746e-01,-3.81818e-01,1.28610e-01,-2.64851e-01,-4.07546e-02,-1.71813e-01,2.22838e-01,3.03735e-01,-2.16588e-01,2.26839e-01,-1.69467e-01,1.76334e-01,-4.53077e-02,-3.28288e-01,2.77914e-01,
2.78276e-01,2.63464e-01,-7.09371e-02,2.99423e-01,2.74390e-02,4.34403e-01,-1.84709e-01,1.90995e-01,-4.83480e-02,-1.23675e-01,-1.38653e+00,3.00142e-01,5.03269e-02,-1.75895e-01,2.73879e-01,-1.17511e+00,-1.23264e+00,-2.66907e-01,1.24982e-01,-1.51946e+00,2.55015e-01,3.69118e-01,9.96358e-02,2.07616e-01,6.85030e-02,
-1.99088e-01,3.17772e-02,-8.84582e-01,-8.26135e-02,-3.34293e-01,5.89068e-02,-3.13336e-01,7.48476e-01,2.29690e-02,-1.53565e-01,5.79219e-01,5.78421e-02,4.26588e-01,2.71364e-01,2.69579e-01,3.01452e-01,3.04878e-01,-7.31539e-02,3.38613e-01,-2.03556e-01,2.64539e-01,1.06528e+00,3.26377e-01,-6.50382e-01,1.70603e-01,
-3.30484e-01,-1.87506e+00,-1.03827e+00,2.14726e-01,1.38783e-01,8.51823e-02,-4.01390e-01,-1.61221e-02,-8.78894e-02,2.90711e-01,3.93392e-01,4.94527e-01,2.79181e-01,8.11026e-02,3.57288e-01,1.03062e+00,-6.93443e-01,8.27313e-02,1.17730e-01,1.02493e+00,-5.61036e-01,-2.69740e-01,2.98284e-02,1.75660e-01,1.31809e-01,
2.35758e-01,6.08187e-01,-2.13927e-01,7.02886e-02,-4.80516e-01,5.50493e-01,-2.23015e-01,1.12473e-01,-1.47453e-01,3.18165e-01,4.41124e-01,5.81489e-01,2.97025e-02,9.12692e-02,-2.16497e-02,-1.06741e-01,-2.29009e-01,3.03156e-03,-9.77752e-02,-5.42879e-03,5.70540e-01,3.19496e-01,1.79115e-01,-3.96719e-02,-2.97280e-01,
2.71733e-01,-2.63300e-01,-1.56071e-01,-8.35332e-02,2.42801e-01,-1.85352e-02,1.42982e-01,1.93145e-01,-1.22150e-01,1.08250e-01,6.08965e-01,2.53238e-01,1.23594e-01,2.02303e-01,3.64806e-01,3.07728e-01,1.85765e-02,-9.98520e-02,2.76973e-01,4.68155e-01,-8.09204e-01,-1.25464e-01,3.68852e-03,1.81536e-01,2.17636e-01,
1.88829e-01,4.92336e-01,7.81084e-02,3.24056e-01,-3.04861e-02,3.39024e-02,5.08369e-02,3.80293e-01,-1.13044e-01,-7.03494e-02,-2.16011e-01,-1.61061e-01,6.76822e-02,1.84838e-01,-4.47398e-01,-3.61132e-01,6.54667e-01,8.35661e-02,-3.15925e-01,-3.27092e-01,-8.79435e-01,-1.19048e+00,-1.78953e-01,-4.72559e-03,2.85609e-01,
-1.60518e-01,2.09565e-01,-1.71800e-01,1.68857e-01,-3.75408e-02,8.88208e-02,1.81057e-01,3.11491e-01,-9.37257e-02,-1.84558e-01,-1.67026e-01,-1.84154e-01,3.31436e-01,3.07451e-01,3.09390e-01,-1.49057e-01,-2.63339e-01,-2.10792e-01,-2.70477e-01,2.35182e-01,-2.44696e-01,2.23323e-01,-1.92175e-01,-2.94172e-01,3.22306e-01,
3.23865e-01,2.86326e-01,-1.40404e-01,-3.34754e-01,-2.63042e-01,3.87226e-01,2.18745e-01,-1.10292e+00,2.38141e-01,2.57286e-02,4.76992e-01,-3.09105e-01,6.96546e-01,-3.23382e-01,-8.63841e-03,1.52489e-01,-4.83741e-02,2.13405e-01,-2.29839e-01,-4.61637e-01,-4.27875e-01,1.64725e+00,-1.29925e-01,-1.26794e-02,3.34180e-01,
-2.55240e-01,6.61527e-01,3.36992e-01,8.21795e-02,1.57420e-01,-6.58447e-01,1.00942e-01,7.36206e-01,9.68590e-03,1.28115e-01,4.46831e-01,-5.64200e-01,-1.43629e-02,1.42162e-01,-3.49246e-01,-2.95175e-01,-6.35349e-01,-2.33528e-02,-1.61984e-01,-2.27397e-01,-1.55993e-02,1.01371e+00,1.71976e-01,2.88853e-01,-1.10543e+00,
-2.57808e-01,2.33921e-01,7.16211e-01,1.78382e-01,1.90326e-01,3.70899e-01,2.98967e-01,1.24599e-01,-8.70577e-02,-3.75031e-01,3.49072e-01,6.07221e-01,-1.39546e-01,-2.43063e-01,7.46503e-02,7.61630e-01,-1.04574e+00,2.83914e-01,-2.91509e-01,4.31577e-01,-2.72726e+00,-1.58050e+00,5.91029e-02,2.85485e-01,-4.53127e-01,
5.61322e-02,3.22482e-01,-2.12203e-01,2.13977e-01,-2.62606e-01,-3.49288e-01,-7.92265e-02,1.42620e+00,2.45228e-01,1.88942e-01,-2.59871e-01,-9.84548e-02,3.51327e-01,1.44012e-01,-1.61906e-01,-3.48237e-01,-6.16015e-01,6.13775e-02,-5.87408e-02,3.76615e-01,-1.42603e-01,3.12935e-01,-3.59284e-01,-3.62885e-01,-2.17877e-01,
2.87617e-01,6.12708e-02,-5.38520e-01,2.61096e-01,-2.35894e-02,-3.65276e-01,3.96318e-01,-1.67393e-01,-4.76467e-02,2.75116e-01,8.97189e-01,3.65932e-02,-5.10334e-01,-2.11909e-01,2.76327e-01,-3.30095e-01,2.65189e-01,1.97305e-02,1.28273e-01,-4.33914e-01,-2.97579e-01,6.57019e-01,4.08308e-01,3.94767e-01,5.74074e-02,
-3.08485e-01,-2.72040e-01,2.61008e-01,1.37719e-01,2.89345e-01,-5.51694e-01,-3.41118e-01,-6.77658e-03,1.87958e-01,-1.46253e-01,9.71885e-01,2.65801e-01,3.15006e-01,1.65799e-01,-1.29599e-01,4.64963e-01,2.97809e-01,2.36059e-01,-3.02016e-01,-1.37381e-01,-4.34027e-01,-5.21101e-02,-3.38946e-01,1.17593e-01,1.03820e-01,
-3.08067e-01,2.13347e-01,3.74700e-02,1.21772e-01,2.92237e-01,-2.50844e-01,3.02520e-01,-8.33082e-01,-6.67524e-02,-1.04346e-01,-5.05333e-01,-2.12752e-01,2.83253e-01,1.51192e-01,8.71548e-02,-1.37782e-01,-5.77497e-01,2.77679e-01,2.02594e-01,-4.29541e-02,5.66736e-01,-8.45178e-02,4.04236e-02,3.15952e-01,1.79928e-01,
-3.19304e-01,
-1.54675e-01,
-7.74709e-02,
-1.72148e-01,
-2.29736e-01,
2.00761e-01,
1.63719e-01,
-1.86927e-01,
3.56457e-02,
-6.26084e-02,
2.24927e-01,
-2.67838e-01,
-1.27608e-01,
-1.56096e-01,
-2.31102e-01,
3.84567e-02,
1.58239e-01,
-2.70611e-01,
1.48776e-02,
1.50459e-01,
-3.89367e-01,
1.89107e-01,
-2.27355e-01,
1.76377e-01,
-2.91006e-02,
-4.17617e-01,6.97354e-01,-3.67986e-02,1.27373e-02,-6.29767e-01,2.36866e-01,3.21053e-01,1.78115e-01,3.84244e-01,-1.22358e-01,2.18196e-01,4.12273e-01,-5.74018e-01,2.38921e-01,-4.45153e-01,-1.21352e-01,-2.15533e-01,-2.57728e-01,-3.84393e-01,2.95153e-03,1.79127e-01,-2.50625e-01,3.67130e-01,1.99839e-02,-1.24540e-01,
4.35597e-01,5.36490e-01,1.42629e-01,-6.15347e-01,-1.18973e+00,1.15010e-01,-4.16715e-01,-2.95575e-01,-1.23590e-01,-4.37648e-01,-2.97059e-01,2.97863e-01,1.15138e-02,-1.45582e-01,-4.16876e-01,-1.99815e-01,3.16933e-01,-1.71910e-02,2.19496e-01,9.99525e-03,-1.02048e-01,1.88527e-01,8.27715e-02,6.04275e-01,-4.71097e-03,
-7.82327e-02,-4.14215e-01,-2.45073e-01,2.35626e-01,-2.07454e-01,3.10364e-01,-2.00338e-01,-3.37526e-01,2.03747e-01,-3.83077e-01,-5.30476e-02,-7.46031e-02,1.47628e-01,-2.29443e-01,1.50572e-01,-1.87905e-01,-1.36903e-01,3.13554e-01,-3.47746e-01,2.11153e-01,8.86556e-02,2.59808e-01,9.12527e-02,1.82214e-01,-1.73084e-01,
-1.11295e-01,-1.35039e+00,-4.97799e-01,-4.83991e-01,6.46249e-02,-3.47470e-02,-1.12273e-02,-1.84321e-01,-3.02551e-01,-1.09590e+00,-2.23736e-02,-2.83956e-01,4.94846e-01,7.71827e-01,-5.29782e+00,2.34105e-01,-4.05044e-01,2.13579e-01,4.20920e-02,-1.03829e+00,-3.66634e-01,-2.68600e-02,3.62041e-01,2.29225e-01,3.40879e-01,
1.98760e-01,-1.45422e-01,2.85333e-01,-2.13955e-01,1.11770e-01,3.12156e-01,2.86719e-01,-2.72389e-01,9.09950e-02,-2.70850e-01,2.36864e-01,-1.47058e-02,3.03794e-01,-2.57511e-01,-5.28423e-01,2.91846e-01,3.92292e-01,-3.07569e-01,-3.10293e-01,2.26668e-01,4.76089e-01,6.50829e-02,2.35143e-02,2.51746e-02,3.81146e-01,
-5.79100e-01,-3.16413e-01,2.02257e-01,-4.37931e-01,3.48035e-01,2.92430e-01,-9.14454e-02,-2.71758e-01,-3.96662e-01,5.45797e-01,1.61989e-01,3.63051e-02,3.06488e-01,-4.78218e-01,-6.25301e-01,-1.46539e-01,-1.72374e+00,-1.87378e-01,-2.24878e-01,3.28244e-01,4.99660e-01,-4.84703e-02,1.08650e-01,1.76125e-01,3.60302e-01,
9.26811e-01,-1.61463e-02,-9.50762e-02,1.39102e-01,-5.32138e-01,-1.54731e-01,5.50899e-02,1.13249e-01,1.40049e-01,-8.56083e-02,2.71244e-01,5.02572e-01,-6.07294e-01,-2.76428e-01,-3.13239e-02,2.27603e-01,4.44577e-01,1.75462e-01,-4.53787e-01,-1.33705e-01,4.28701e-01,1.59340e-01,3.35412e-02,4.96205e-01,-2.82861e-02,
5.46791e-01,8.20873e-02,3.43432e-01,6.06456e-01,-1.07390e+00,2.32047e-01,-1.62641e-01,-2.65867e-01,4.27757e-01,1.69657e-01,-3.73259e-02,-5.35621e-01,-8.56620e-02,-8.03350e-01,-2.32870e-01,-3.49462e-01,1.06628e-01,2.10495e-01,3.84289e-03,2.22464e-01,-4.09733e-02,-1.44985e-01,-1.71567e-01,3.21292e-01,1.12465e-01,
4.31613e-02,-1.38496e-01,-6.52184e-01,-1.55046e-01,7.07821e-02,-6.08838e-02,-2.02447e-01,-2.15091e-01,8.11690e-02,-6.02240e-02,3.75071e-02,1.03202e-01,7.97237e-01,-3.41615e-01,-6.42468e-02,-1.78712e-01,9.30554e-01,-4.33250e-02,3.91261e-01,9.29105e-02,-3.21571e-01,3.68092e-01,-2.26834e-01,-1.20850e-01,-3.13066e-01,
-3.04042e-02,-5.48975e-01,-1.49052e-01,1.36626e+00,6.20777e-01,-1.08756e-01,-1.68535e-01,-1.57900e-01,3.23802e-02,-2.16349e-02,1.34557e-01,4.30041e-01,3.87746e-01,1.87990e-01,8.24566e-01,3.03499e-01,1.52324e-01,9.93323e-03,5.59618e-01,-8.95429e-01,1.79372e-01,3.91501e-01,3.26693e-01,-9.10941e-02,-1.75321e-01,
-3.25045e-01,1.07717e-01,1.06596e-02,1.08666e-01,8.30393e-01,2.49341e-01,2.81546e-02,1.49247e-01,4.20394e-02,5.46894e-01,-1.82615e-01,9.21935e-02,9.98391e-03,2.74539e-01,-5.50758e-01,1.90280e-01,-3.46851e-01,-1.44838e-01,-4.90491e-01,-3.79637e-01,1.83616e-02,2.79478e-01,-2.11549e-02,-3.62445e-01,1.96717e-02,
1.69724e-01,8.42982e-01,3.92916e-01,-1.86901e-01,2.89205e-01,-1.72429e-01,-2.58047e-01,2.82517e-01,3.37793e-01,8.20219e-02,-6.96049e-02,1.66384e-01,-7.14678e-01,5.27870e-01,-3.84847e-02,-5.46738e-02,1.39751e-01,-2.77538e-01,9.28913e-02,-3.95577e-01,4.24101e-01,3.27266e-01,3.43400e-01,-9.16486e-02,2.81114e-01,
-5.92268e-01,-8.47547e-01,-3.98645e-01,-1.46036e+00,8.91473e-02,3.16981e-01,1.50183e-01,5.64100e-02,1.16983e-01,-2.12691e-01,-2.75642e-01,-2.24444e-01,-1.43421e-01,6.23532e-01,1.43127e-01,-2.28369e-02,-6.11213e-01,3.17572e-01,-2.98247e-01,-6.79634e-01,-5.90565e-01,-1.04414e-02,-1.80994e-01,3.28873e-01,-3.09281e-01,
5.81627e-02,-2.52542e-01,-1.65754e-01,1.20987e-01,-2.17932e-01,1.06455e-01,-1.35932e-01,-1.46842e-02,-2.45562e-01,-1.42504e-01,-2.15747e-01,-2.25723e-01,9.07304e-02,-1.46379e-02,1.92509e-01,-2.31612e-01,-2.58920e-01,1.55997e-01,1.70577e-02,-1.44940e-02,-1.74079e-01,-3.04291e-01,1.82815e-01,-5.48066e-02,1.04196e-01,
3.21412e-01,-3.22437e-02,-4.13032e-01,-8.46145e-03,3.57203e-01,-2.01928e-01,-1.27475e-02,-2.54219e-01,-2.59688e-02,4.72855e-01,-4.77725e-01,-4.20196e-02,4.74427e-01,1.14644e-01,-6.55192e-01,1.11623e-01,2.23714e-01,4.98683e-01,-8.67121e-02,2.49113e-01,-6.89485e-03,2.71759e-01,-8.70431e-01,-1.21867e-02,3.74233e-01,
7.75580e-01,-1.58931e-02,6.39298e-02,-3.11264e-01,-1.79997e-01,2.00905e-01,-2.46232e-01,-1.50212e-01,2.38467e-01,-3.38966e-01,1.59853e-01,4.58463e-01,-2.07188e-01,2.57983e-01,-4.23404e-01,-1.34383e-01,3.00935e-01,2.28765e-01,3.35874e-01,2.62759e-01,9.31718e-02,6.77487e-02,-1.24628e-01,-1.11003e-03,1.52261e-01,
2.29474e-01,4.92166e-01,6.38791e-02,5.82563e-02,-1.10219e-01,-1.02981e-01,3.82518e-02,-3.27894e-01,1.72899e-01,-4.16239e-01,-2.48269e-01,6.17195e-01,-6.25423e-01,1.64177e-01,-1.10944e+00,1.83854e-01,3.77661e-01,3.34449e-01,5.12238e-02,-5.50209e-01,3.54614e-01,2.70410e-01,7.97270e-02,2.20503e-01,-1.80382e-01,
-5.00201e-01,1.77420e-01,-1.55703e-01,-7.24044e-01,-2.22453e-01,2.91179e-01,-3.81705e-01,2.16843e-01,-4.94460e-01,3.74741e-01,-6.23977e-02,3.24702e-01,-1.67509e-01,-1.36117e-01,-4.94421e-01,-3.14394e-01,2.73823e-01,1.71879e-01,3.20894e-01,3.39947e-01,-2.53841e-01,2.71521e-01,-1.56980e-01,-8.01600e-02,-3.46376e-02,
-7.49241e-01,3.85602e-01,2.15263e-01,1.30588e+00,-6.13815e-01,-2.14033e-01,3.44399e-01,3.14020e-01,7.86961e-03,5.57453e-02,-2.89438e-01,-4.50046e-01,-5.10094e-01,2.97585e-01,-4.42476e-01,-5.64902e-02,1.69465e-01,3.10234e-03,-1.38830e-01,-4.35855e-01,6.88537e-01,6.72062e-01,-3.29851e-03,-3.48934e-01,-4.65595e-01,
-2.22356e-01,-2.12295e-01,1.08605e-01,-3.05841e-01,-5.49373e-02,-1.56550e-01,-4.42360e-02,7.95001e-03,4.07450e-02,-7.24263e-02,-2.53212e-01,-3.41530e-02,2.89920e-01,-1.57597e-01,-6.19599e-02,2.77671e-01,-2.33704e-01,1.11278e-01,-1.08461e-01,-1.01241e-01,-2.20580e-01,-1.20715e-01,1.24810e-01,-1.90535e-01,1.78426e-01,
1.99282e-01,-2.62023e-01,-3.21379e-01,-1.70614e-01,-3.33329e-01,1.40394e-01,-2.44821e-01,2.08905e-01,2.24421e-01,7.94788e-01,-8.14842e-03,4.25179e-01,-3.88614e-01,7.45067e-02,-1.77265e+00,-2.37543e-01,1.01963e-01,2.63836e-01,-5.16280e-01,2.90656e-01,7.63073e-01,2.53636e-03,-7.09656e-01,-9.75029e-02,-3.07624e-01,
-5.05630e-01,4.56386e-01,5.84168e-01,-1.79142e-01,1.50016e-01,-1.96079e-01,-5.56491e-02,1.52114e-01,4.32637e-01,-8.44112e-01,-1.73593e-01,4.17206e-01,-3.96510e-01,5.87684e-01,5.92908e-01,2.96310e-01,2.50724e-01,1.22780e-02,1.04167e+00,-5.68653e-01,-3.21011e-01,1.79423e-01,1.18863e-01,2.93174e-01,-2.41185e-01,
-9.77698e-01,-7.59976e-01,6.32529e-02,-4.22642e-01,7.47296e-01,2.80383e-01,-3.34238e-02,-2.21230e-01,-2.99975e-01,4.14147e-01,1.30701e-01,-2.15334e-01,-5.58373e-01,-5.74582e-03,8.74143e-01,2.69791e-01,1.97661e-01,-9.45393e-02,-5.82033e-01,-4.87247e-01,2.10968e-01,1.32124e-01,-1.07754e-01,-1.55083e-02,-1.79681e-01,
-2.55929e-01,-3.05785e-01,-1.77519e-01,-1.96096e-01,1.70176e-01,-1.27432e-01,-1.46576e-01,3.08148e-01,-1.19375e-01,2.82270e-02,-2.53824e-01,3.19341e-01,2.38515e-01,-2.07165e-01,2.31389e-01,-6.81449e-02,2.49318e-01,-9.63939e-02,3.12143e-01,7.00959e-02,-2.47385e-01,2.30846e-01,-1.90346e-01,-3.14293e-02,-1.56502e-01,
4.28316e-01,1.07828e-01,-2.89210e-01,1.72495e-03,-2.15164e-01,-3.10901e-01,-3.77111e-01,2.65648e-01,-2.48798e-02,2.79422e-01,-1.48499e-01,5.21505e-02,1.84251e-01,-1.54577e-01,1.25098e-01,1.83220e-01,1.13020e-01,-1.71550e-01,4.98250e-01,4.30334e-02,-3.14975e-01,2.08471e-01,6.49141e-02,4.87313e-02,2.19267e-01,
-2.71932e-01,
-1.04861e-01,
-2.39697e-01,
5.26988e-02,
-2.51724e-01,
-8.97744e-02,
5.42553e-02,
-3.13295e-01,
2.90818e-01,
2.56558e-01,
2.41255e-01,
-9.65946e-02,
1.32740e-01,
-2.44564e-01,
-8.16580e-02,
2.77386e-01,
-1.80375e-01,
-6.09710e-02,
1.64859e-01,
-3.46152e-01,
1.36665e-01,
-9.51747e-02,
9.82404e-02,
-2.47959e-01,
-1.70320e-01,
-6.14705e-02,3.30278e-01,2.83943e-01,-1.34209e-02,1.83157e-02,1.13804e-01,-3.39220e-01,1.94023e-01,-3.42323e-01,-1.46040e-01,-3.89482e-01,-1.04910e-01,-3.35621e-01,-1.03070e-01,1.98625e-01,-4.28140e-01,1.97120e-01,-2.19497e-01,8.21784e-02,-2.62323e-01,-7.69982e-02,2.43068e-01,-1.25951e-01,7.43365e-02,-1.21279e-01,
3.43542e-01,-4.82483e-02,-1.22228e-01,-5.30879e-01,-2.61270e-01,1.29313e-01,1.08125e-01,-6.59491e-02,-3.35460e-01,4.02365e-02,-1.44666e-02,-2.39007e-01,6.05217e-02,-4.02623e-02,7.53724e-02,2.01167e-01,4.28334e-01,2.58967e-01,6.20289e-01,4.96713e-02,-3.34256e-01,1.45872e-01,-1.29175e-01,-2.47596e-01,4.87045e-02,
3.06345e-01,1.32304e-01,-2.49924e-01,3.42102e-01,-2.46348e-01,1.56784e-01,-1.41434e-01,8.05412e-02,-1.29682e-01,-1.37566e-01,-2.90428e-01,-3.03111e-01,2.12816e-01,-1.54148e-01,-2.19531e-01,1.89600e-01,-2.41052e-02,7.48448e-02,5.89001e-02,-1.03309e-01,-4.86142e-02,-2.15758e-01,-3.47184e-01,7.68395e-02,4.43283e-02,
7.43394e-02,1.27809e-01,-3.36208e-02,2.06624e-01,-2.30271e-03,1.15656e-01,-2.05175e-01,3.16298e-01,1.06303e-01,-3.24723e-01,1.30297e-01,2.77490e-01,-6.84458e-02,-2.78503e-01,-9.68018e-02,-2.53964e-01,-1.22024e-01,1.77735e-01,-1.20203e-01,-5.21869e-02,-2.13389e-01,-1.22158e-01,-1.02783e-01,-2.70928e-01,-7.89213e-02,
-1.48690e-01,-5.21243e-02,1.40313e-01,1.31494e-01,-8.50029e-02,2.01587e-01,-1.78072e-01,-1.41358e-02,-2.07490e-01,2.52075e-01,-9.69388e-02,2.16655e-01,2.63241e-01,1.28630e-01,-1.45676e-01,-1.74948e-01,-1.67603e-01,-3.86968e-02,-4.80171e-02,-2.03861e-01,-4.52147e-03,-1.44208e-01,-1.11909e-01,-4.96030e-03,-3.15234e-01,
1.28348e-01,-1.07283e-02,-4.99187e-02,1.08701e-01,-2.11414e-01,1.20992e-01,-1.33215e-01,-1.63163e-01,-1.55887e-01,-7.21643e-02,-1.79646e-01,1.13215e-01,-3.19838e-01,3.36479e-01,2.51211e-01,-3.02438e-01,-1.53924e-01,-1.34594e-01,-2.86632e-01,1.53730e-01,4.83643e-02,-1.31260e-01,1.18899e-01,-1.29147e-01,-4.83920e-02,
-1.02996e-01,4.48716e-03,2.25137e-01,-1.63235e-01,1.05938e-01,-2.58965e-01,-1.16122e-01,2.43612e-01,-2.89067e-01,-6.93346e-02,-2.32795e-02,2.47326e-01,2.68181e-01,-1.60939e-01,1.59516e-01,-2.19604e-01,-2.19681e-01,1.32413e-01,2.08305e-01,3.30975e-01,2.51455e-02,-1.61677e-01,-2.18741e-01,1.23527e-01,-1.47759e-01,
-1.92669e-01,2.43373e-02,1.33187e-01,1.24664e-02,1.41882e-01,-6.85707e-02,-1.45209e-03,-2.32343e-01,-2.78964e-01,-1.22914e-01,1.32999e-01,-4.49584e-01,-2.15118e-01,1.14388e-01,-9.02288e-02,9.07790e-02,-5.41595e-01,2.45012e-01,3.12130e-01,-2.85566e-03,-5.76423e-02,6.63937e-02,-3.26512e-01,1.88166e-01,-1.11101e-01,
3.57798e-01,5.05547e-03,7.81498e-03,-2.25714e-01,1.12447e-01,-2.50820e-01,2.04710e-01,-2.78586e-01,-1.94358e-01,-5.10433e-02,-4.59315e-02,-2.14612e-01,2.77455e-02,7.65197e-02,1.39193e-01,1.77658e-01,-1.33983e-01,1.34473e-01,1.08227e-01,1.24079e-01,-2.43253e-01,4.24599e-01,-3.16582e-01,-2.03989e-01,-3.62880e-02,
-4.64846e-01,1.92893e-01,-2.90605e-01,1.04613e-01,-1.89979e-01,7.54188e-02,-3.41592e-01,3.17525e-01,-5.94811e-01,-8.50942e-02,2.19945e-01,-1.20269e-01,-1.60737e-01,1.06417e-01,7.78590e-02,-2.56485e-01,5.42171e-01,4.14301e-01,-2.20850e-01,1.78307e-01,-2.57530e-02,-6.39467e-02,-3.18272e-01,-1.68625e-01,3.33252e-01,
5.58380e-02,7.55053e-01,3.94668e-01,5.30331e-01,-3.19221e-01,3.90567e-02,6.03738e-03,2.80909e-01,-5.26887e-02,2.78932e-01,-7.18453e-02,8.42908e-02,3.17731e-01,-1.98301e-01,5.95924e-03,9.06514e-02,-1.17616e-01,2.19137e-01,-2.97088e-01,-7.27097e-02,2.40773e-01,2.69587e-01,-4.36312e-01,-3.11425e-01,-3.91947e-01,
3.72801e-01,-8.48964e-01,-1.09423e-01,4.61472e-01,-2.72963e-01,1.98586e-01,5.95061e-01,3.63747e-01,2.16236e-01,-6.84824e-02,-3.16545e-01,-1.30049e-01,-5.17723e-01,1.77451e-01,5.12185e-01,3.32395e-02,-3.85206e-01,-4.32704e-02,-4.53251e-02,-4.59251e-02,-3.15938e-01,-4.62995e-01,-2.33619e-01,-5.66247e-02,-5.67359e-01,
5.37718e-01,-1.95387e-01,-2.21435e-01,-3.99659e-01,3.18270e-01,-4.54794e-01,2.33278e-01,-3.87731e-01,-3.14494e-02,-9.18894e-02,1.90758e-01,-2.65866e-01,3.89154e-01,2.62445e-01,-8.52733e-02,3.34573e-01,4.77020e-02,2.16227e-01,-8.59518e-02,-3.14502e-01,-3.80007e-01,8.06925e-01,-1.13328e-02,-6.19374e-02,6.35266e-01,
-5.17292e-03,3.13871e-01,3.02026e-01,6.58142e-01,2.54554e-01,-1.03816e-01,-1.37988e-01,-2.92173e-01,-2.60678e-02,1.28450e-01,3.94215e-01,-5.22965e-01,2.81558e-01,-3.25150e-02,-4.01090e-01,2.71631e-01,-3.25692e+00,-6.80196e-02,1.32745e-01,-2.09450e-02,-4.71086e-02,-8.91245e-02,3.10333e-01,-3.12220e-01,-4.06513e-01,
3.33792e-01,-1.33359e-01,-1.41480e-01,-3.26321e-01,-1.20284e-01,-1.18116e-01,-1.99175e-01,1.19368e-01,2.03846e-01,1.37204e-01,-2.30576e-01,-3.31093e-02,1.62072e-01,3.17082e-01,-8.78440e-02,-1.07530e-01,1.99737e-01,-2.60656e-01,-2.80450e-01,9.19622e-02,3.00358e-01,-1.70839e-01,-1.77081e-01,1.78013e-02,2.02779e-02,
-2.51253e-01,-3.43187e-01,-9.64536e-02,1.49240e-01,8.29902e-02,-4.94652e-01,-5.48117e-01,-7.03875e-01,2.39889e-01,-1.06612e-01,3.09782e-01,3.93022e-02,7.47651e-02,6.41462e-02,4.08026e-01,-4.13930e-01,-3.37127e-01,-1.80202e-01,-1.84958e-01,1.10833e-02,-2.69486e-01,-2.02805e-01,-2.88692e-01,-3.11045e-01,1.97648e-01,
-2.26359e-01,6.69818e-02,-2.88767e-01,2.75027e-01,-2.90871e-01,4.02045e-02,7.04993e-02,-2.22249e-02,-1.38302e-01,-3.94824e-02,-1.59713e-01,-1.43553e-02,1.82470e-01,6.81594e-02,2.96376e-01,8.12227e-02,1.11323e-01,-7.27078e-02,1.49002e-01,-2.35346e-01,8.37496e-02,-1.28561e-02,-2.42043e-01,-6.58438e-03,-9.79456e-02,
-5.00047e-01,-6.56177e-01,2.14533e-01,-2.06580e-02,8.95505e-02,2.51339e-01,-3.97817e-01,1.58910e-01,3.62837e-01,1.51452e-01,2.27047e-01,6.20020e-02,-2.11154e+00,2.01118e-01,-3.37073e-01,1.15298e-01,1.15415e-01,-5.88546e-01,-1.60796e-01,-2.12301e-01,2.90425e-01,-6.90660e-01,-3.64879e-01,-2.06534e-01,-9.24585e-01,
1.04838e-01,-2.08435e-01,-1.55208e-02,-3.46635e-02,4.06806e-02,1.37136e-01,1.50816e-02,-3.23684e-01,3.31796e-02,2.60444e-01,-2.57956e-01,-3.23099e-02,-1.28947e-01,-2.34039e-01,-1.08657e-01,-3.13436e-01,-1.92072e-01,-8.47095e-02,-2.79625e-01,-6.36653e-02,2.66088e-01,-2.34206e-01,-4.29720e-03,1.47294e-01,-1.54137e-01,
5.50505e-01,-1.54106e-01,-3.48156e-01,-2.74293e-01,1.78567e-01,-2.39960e-01,-2.38117e-01,-1.83769e-01,-7.47492e-02,-4.32147e-01,-2.72330e-01,1.76691e-01,-2.24971e+00,-8.92254e-02,2.38644e-01,-1.47024e-02,-1.96946e+00,2.27849e-02,-9.03402e-02,-2.32358e-01,-3.86914e-02,4.15835e-01,-4.23715e-01,2.12742e-01,-4.07275e+00,
6.89371e-01,4.27844e-01,2.16454e-02,4.95176e-01,-6.55018e-02,1.37180e-04,2.06795e-01,2.53655e-01,-7.54348e-02,1.44402e-01,4.01127e-01,-8.78255e-01,2.61273e-01,-1.11312e-01,2.52617e-01,-1.25920e-01,1.32282e-01,2.60322e-01,-6.00198e-01,3.13785e-01,-1.24583e-01,-1.55645e+00,4.36753e-01,3.14722e-01,-3.91103e-01,
5.90707e-02,1.35810e-01,2.71494e-01,-2.23955e-01,-4.29153e-02,2.78034e-01,1.05715e-01,-7.11242e-02,2.33631e-01,-3.73586e-01,2.78577e-01,-1.11457e-01,-8.75396e-02,6.23747e-02,5.80268e-02,3.21024e-02,-1.14929e+00,-3.74351e-01,-2.95687e-01,-9.42265e-02,5.66728e-01,1.19287e-01,7.68964e-02,2.97773e-01,-1.87838e-01,
-5.39230e-01,8.41977e-02,1.10301e-01,5.95226e-01,-2.51453e-01,-2.51286e+00,-9.98527e-02,9.43405e-01,-8.91952e-01,2.28847e-01,1.49645e-01,-3.24358e-01,7.59747e-01,-1.31926e-01,-8.89970e-01,-3.43487e-01,1.25150e-01,5.12523e-01,-1.16509e-01,2.42722e-01,5.06528e-01,4.45854e-02,-1.94496e-01,1.01098e-01,-8.38919e-02,
-7.94424e-02,-4.68333e-01,-1.69605e-01,1.29331e+00,-2.08638e-01,-1.81160e-01,4.96050e-01,-8.26475e+00,3.21170e-01,5.82613e-03,-2.60026e-01,-1.34327e-01,-1.29209e+00,4.54800e-02,-2.54173e-02,7.25188e-02,-7.08792e-01,-1.49411e-02,-9.62068e-02,2.97321e-01,-1.64507e-01,-7.38349e-02,2.72722e-01,2.52292e-01,-1.16383e+00,
4.59621e-01,-1.42594e-01,-1.89829e-01,-8.48076e-01,4.93850e-02,-2.19721e-01,2.29424e-01,-2.88001e-01,-3.58241e-01,-3.28680e-02,-8.20844e-02,-2.99145e-01,9.39321e-03,3.82580e-02,1.68519e-01,2.10500e-01,1.09529e-01,3.38266e-01,4.21546e-01,-4.83268e-02,-4.60480e-01,4.52086e-01,-4.90030e-01,6.76041e-02,7.88549e-02,
9.47704e-02,
9.28133e-02,
-8.54015e-02,
-2.68542e-01,
-1.03544e-01,
-1.34556e-01,
-2.33851e-01,
1.14753e-01,
1.46125e-01,
2.60346e-01,
-1.63419e-01,
-6.38953e-02,
3.66233e-01,
-2.61775e-01,
-3.29460e-01,
-9.31812e-02,
1.91138e-01,
-2.09939e-01,
-1.93548e-01,
1.29327e-01,
-1.11216e-01,
-1.99712e-01,
3.71163e-02,
-3.22374e-01,
-3.68211e-02,
1.16015e-01,-8.80995e-03,-2.79352e-01,2.35219e-01,-1.25854e-01,-7.16652e-02,-2.15272e-01,-3.20018e-01,-3.48155e-01,2.94105e-01,8.46626e-02,2.73074e-01,2.10188e-01,-2.48352e-01,1.22508e-01,3.14564e-01,2.06590e-01,2.61524e-01,2.01756e-01,-3.13228e-01,-1.67521e-01,-2.00057e-01,2.75235e-01,2.90288e-01,-1.39387e-01,
-2.66369e-01,-5.22219e-02,5.96947e-02,-2.75039e-01,-1.67822e-01,-1.52603e-03,2.60859e-01,2.60383e-01,1.82088e-01,3.07410e-02,-1.36939e-01,2.00539e-01,9.55637e-02,-1.97681e-01,-1.28224e-01,7.27810e-02,-1.27967e-01,3.41326e-01,1.20243e-01,7.69568e-02,-4.88452e-01,-1.07538e-02,8.15709e-02,1.78954e-02,-6.80975e-02,
-2.64887e-01,1.35315e-01,3.00138e-01,-3.29879e-01,-4.35414e-02,-1.66736e-01,-4.87485e-02,-2.81649e-01,1.57298e-01,-2.06203e-01,1.42061e-01,-3.34419e-02,-1.94061e-01,-3.60260e-02,2.49579e-01,3.03763e-01,-2.04791e-01,4.29041e-01,-3.41790e-01,-1.79716e-01,-1.20534e-01,3.70862e-01,-2.88631e-01,1.12890e-01,7.93475e-02,
2.22212e-01,3.34572e-04,-2.49891e-01,2.73137e-01,2.01352e-01,-2.40960e-01,-3.43202e-01,8.49365e-03,-1.18468e-01,4.60203e-01,-8.83558e-02,-2.55418e-01,-1.92156e-01,-6.64652e-01,-2.25718e-01,2.40040e-01,-1.16517e-01,8.72091e-02,-2.57541e-01,1.16638e-01,-1.94124e-01,-2.66984e-01,-1.09455e+00,-1.62716e-01,1.08354e-01,
-2.28619e-01,-7.93864e-02,-3.18702e-01,2.32188e-01,-2.43305e-01,-1.96487e-01,-2.01634e-01,-9.37698e-02,1.94092e-01,-6.01962e-02,2.56074e-01,-1.66424e-01,-1.23747e-01,-2.16185e-01,3.42520e-01,-3.00103e-01,-3.29656e-01,1.50235e-01,-1.68721e-01,2.96072e-01,1.01882e-01,-4.88560e-02,6.85165e-02,1.05075e-01,1.54234e-01,
1.59499e-02,-1.63915e-01,-2.35980e-01,-3.38073e-02,2.21338e-02,-1.02761e-01,-6.91997e-02,-6.05078e-02,-6.07560e-02,-1.05656e-01,-2.06770e-01,-1.20682e-01,-5.16939e-02,-2.10050e-01,-7.02267e-02,-1.05567e-01,-3.03287e-01,2.44900e-01,4.43095e-02,-1.95031e-01,-8.74028e-02,-1.54179e-01,-3.60574e-02,1.40339e-01,2.69881e-01,
-2.06627e-01,1.77245e-01,1.28334e-01,-1.30236e-01,-1.96817e-01,3.34498e-01,6.98204e-02,3.69791e-01,1.78314e-01,-2.68288e-02,-1.72318e+00,-2.28672e+00,-3.30396e-01,1.58056e-01,-4.29963e-02,5.08508e-02,-3.45638e-01,5.63778e-02,-1.24531e-01,4.65820e-01,1.13838e+00,-3.14109e-01,8.75671e-02,-2.35340e-01,-4.08539e-01,
-1.82754e-01,-1.85831e-02,-1.60511e-01,2.89166e-01,3.38539e-01,2.53587e-01,4.11661e-02,-1.33491e-02,1.20264e-01,1.72072e-01,1.84989e-01,2.35060e-01,-3.62755e-02,5.25750e-02,1.43280e-01,-1.44565e-01,2.26839e-01,-2.45496e-01,1.64604e-01,-5.28723e-02,1.77740e-02,2.32150e-01,1.56851e-02,1.50145e-01,1.57670e-01,
-4.65629e-02,8.76091e-02,-2.77365e-01,-3.26107e-02,-5.26845e-02,-2.60583e-01,-2.23455e-01,-3.45452e-01,-8.70998e-02,1.96534e-01,2.51021e-01,1.88281e-01,-3.32836e-02,9.25809e-02,-1.07483e-01,1.14326e-01,-2.92661e-01,-1.37605e-01,-2.22869e-01,1.03002e-01,2.43675e-01,-5.76016e-02,-5.71600e-02,1.33727e-02,1.14179e-01,
-2.28780e-01,-7.80642e-04,-1.90411e-01,2.97580e-01,2.83043e-01,1.94534e-01,-9.26881e-02,-1.87144e-01,-1.19859e-01,2.91819e-01,-1.11362e-01,-3.89449e-02,-2.93324e-01,4.18248e-02,8.14552e-02,-3.25091e-01,2.35650e-01,1.10163e-02,-1.95195e-01,-2.24916e-01,1.80276e-01,5.03219e-02,8.80019e-02,-3.06777e-01,-1.76042e-03,
2.33032e-01,1.91895e-01,-2.57047e-01,-4.17288e-02,-3.30973e-01,3.39488e-01,2.22302e-01,-3.25177e-01,-1.19634e-01,-1.97770e-01,1.71524e-01,-1.75374e-01,-2.81429e-01,-4.16050e-02,-1.02527e-01,2.73938e-01,1.51602e-01,2.86652e-01,1.85374e-01,2.99733e-02,3.30832e-02,-1.15632e-01,1.03399e-02,2.51685e-01,9.19884e-02,
2.68091e-01,2.30258e-01,-5.57641e-02,-5.14629e-02,1.92851e-01,7.03688e-02,-3.42071e-01,2.07034e-01,8.17229e-02,-9.20884e-02,3.47874e-01,1.42289e-01,3.27289e-01,-2.98048e-01,-9.44501e-02,-1.32522e-01,-2.49463e-01,2.43632e-01,2.49760e-01,6.93442e-02,-9.37072e-01,2.12856e-01,2.75640e-01,9.69082e-02,7.16930e-02,
1.47932e-01,-1.55298e-01,2.54058e-02,2.93999e-01,3.42566e-01,9.97451e-02,1.39460e-01,-2.26934e-01,-2.62225e-02,4.59988e-01,-1.42424e-01,-3.27565e-01,-3.27258e-01,-2.03549e-01,-2.91493e-01,1.96077e-01,-7.04584e-02,-3.99361e-03,3.40401e-01,9.72466e-02,3.90148e-01,-3.27453e-01,-1.03998e+00,-1.62710e-01,1.94246e-01,
-9.73111e-02,1.34468e-02,2.40734e-01,-1.32801e-01,-2.08654e-02,-1.39824e-01,-9.25214e-02,1.19954e-01,3.36006e-01,-1.53233e-01,9.94313e-02,-1.39249e-01,1.41574e-01,2.88811e-01,-1.73667e-01,6.11360e-02,-1.93421e-01,-1.02583e-01,2.94546e-01,5.00314e-02,3.34022e-01,2.77799e-01,-1.46949e-02,6.82093e-02,1.93195e-01,
1.00967e-01,3.60487e-01,-7.22623e-03,2.11614e-01,1.51989e-01,-2.14825e-01,2.01962e-01,2.50807e-02,2.48936e-01,-3.93789e-01,1.54385e-01,-5.66551e-02,-1.50865e-01,6.35670e-02,-2.59454e-01,-1.57587e-01,-8.89283e-03,-2.07342e-01,1.87369e-01,-1.42433e-01,-6.27883e-01,2.46547e-01,2.69934e-01,3.97827e-01,-4.48836e-01,
-2.53912e-01,1.56298e-02,3.27566e-01,2.21680e-01,2.25969e-01,3.11121e-01,-2.51093e-02,1.02186e-02,-3.84288e-02,-1.79342e-01,1.66949e-01,2.85506e-01,3.69632e-01,1.72427e-01,-3.07744e-01,-1.39261e-01,-1.69961e-01,2.67140e-01,-3.31538e-02,1.42365e-01,5.41202e-02,4.12917e-02,-1.08697e-01,9.32607e-02,1.39124e-01,
-2.45081e-01,2.71898e-01,-3.18938e-01,1.62424e-01,-3.18659e-01,-2.48243e-01,2.63672e-01,-1.71364e-01,-1.76286e-01,-1.90515e-01,-1.87775e-01,-2.17030e-01,-3.09152e-01,-1.01158e-01,3.34037e-01,2.20214e-01,-2.71255e-01,1.19050e-02,-3.00048e-02,2.86619e-01,2.99566e-01,-1.61528e-01,2.46760e-01,-7.23927e-02,-6.63672e-02,
1.95911e-01,-1.74685e-01,-1.40564e-01,1.49603e-01,9.33491e-02,1.84766e-01,1.37247e-01,2.49148e-04,-8.07839e-02,-1.66406e-01,-1.00191e-02,9.19786e-02,5.25373e-02,2.88052e-01,2.42040e-01,-1.46264e-01,5.03311e-02,1.42470e-01,-3.43820e-01,6.82033e-02,-3.46607e-02,2.56450e-03,-2.22058e-01,3.71225e-01,-8.74710e-02,
2.68345e-01,2.61281e-01,-1.55570e-01,1.83089e-01,-2.96818e-01,2.74011e-01,-6.20885e-02,-1.69789e-01,-6.17022e-03,-3.32665e-02,3.81702e-02,1.53639e-01,1.88273e-01,1.37790e-01,1.97971e-01,-7.98371e-02,1.59516e-01,6.08135e-02,-2.84075e-01,7.89227e-02,2.75067e-01,1.27999e-01,-1.88450e-01,-6.33448e-02,-1.19853e-01,
-5.11266e-02,2.02617e-01,-1.51796e-01,2.19887e-01,2.58459e-01,2.73280e-01,2.16191e-01,7.97232e-02,8.07986e-02,-2.45245e-01,1.93727e-01,3.15413e-01,-2.86371e-01,4.79506e-02,-2.02250e-02,5.10825e-02,-2.97727e-01,-4.28255e-02,-2.38668e-01,3.10751e-01,8.16404e-02,-1.37520e-01,9.64362e-02,1.22493e-02,3.24559e-01,
-2.10455e-01,-3.61404e-01,7.97550e-02,2.54905e-01,7.26415e-02,-3.29059e-01,-1.20442e-01,-7.73157e-02,-1.62027e-01,2.23755e-01,-2.62801e-01,4.04964e-02,1.69344e-01,1.73723e-01,1.57647e-01,2.58361e-01,1.71540e-01,-1.30861e-01,1.94595e-01,-2.40811e-01,2.08388e-01,-2.36833e-01,-1.43970e-01,-9.56066e-02,2.16515e-01,
1.41378e-01,5.26701e-01,3.43336e-01,2.67757e-01,3.39001e-01,-2.91969e-01,1.10647e-01,-3.89277e-02,1.99611e-01,-5.01763e-01,6.04208e-01,-5.12264e-02,-8.20090e-02,-8.38236e-02,9.92542e-02,-3.09503e-01,-4.01604e-01,3.29674e-01,2.01503e-01,2.11120e-01,3.58929e-01,3.37769e-02,1.84646e-01,4.41594e-01,-1.53474e-01,
-2.10306e-01,-1.64606e-01,-2.84212e-01,-2.32625e-01,-1.92864e-01,-5.79704e-02,-3.82333e-02,3.44079e-01,3.44295e-01,-1.31876e-01,1.54343e-01,-1.24793e-01,-2.63024e-01,4.63240e-02,3.00280e-01,1.91757e-01,1.84129e-01,2.51959e-01,1.12718e-01,-1.46293e-01,-1.82803e-01,2.60423e-01,-6.25794e-02,-2.72559e-01,-2.04713e-01,
-7.24452e-02,1.22340e-01,-2.93023e-01,-3.19731e-01,-1.40855e-01,2.37644e-01,-6.33544e-03,1.39977e-01,-7.00145e-02,2.79037e-01,-2.82354e-01,3.11081e-01,-1.77113e-01,1.84012e-01,-1.02419e-02,-6.53242e-02,3.63610e-02,-2.17170e-01,2.92614e-01,-1.42384e-01,2.41462e-01,-1.05425e-01,-3.08406e-01,-1.53561e-01,-4.03034e-02,
2.36953e-01,1.76641e-01,7.80714e-02,-1.73127e-01,3.67309e-02,-1.90589e-01,-1.68282e-02,1.64589e-02,2.14391e-01,-2.52051e-01,-2.21430e-01,1.45584e-01,9.99286e-02,2.77856e-01,-1.32076e-01,4.30012e-02,2.20535e-01,-3.20723e-02,-1.49864e-01,-1.24913e-01,4.29367e-02,9.16886e-02,-1.35408e-01,1.61049e-01,-3.81320e-01,
-3.00561e-01,
1.22520e-01,
-5.70825e-02,
1.98735e-01,
-2.65847e-01,
-4.71890e-02,
5.29127e-02,
-3.46469e-01,
-2.62902e-01,
-3.38835e-01,
2.47359e-04,
3.03825e-01,
3.06997e-01,
-2.88498e-02,
1.53824e-01,
-2.34841e-01,
-2.76072e-01,
3.10505e-01,
7.33966e-02,
-2.44028e-01,
2.15472e-01,
-1.33013e-02,
-3.33697e-01,
-3.08894e-01,
9.01012e-02,
-9.43234e-02,2.56411e-01,-2.90371e-01,-9.28313e-02,6.71794e-02,-3.95927e-02,-3.91017e-01,-3.78593e-01,3.59019e-02,-1.39989e-02,4.56436e-02,3.94139e-01,5.07256e-01,1.24940e-01,2.44400e-01,-6.69065e-03,-2.87106e-01,4.17035e-01,2.31995e-01,-1.78449e-01,-1.64966e-01,-3.08339e-01,-1.00459e-01,1.61807e-01,3.30582e-01,
-1.89397e-01,3.10644e-01,6.46409e-01,-2.65485e-01,-2.45013e-01,2.93799e-01,-5.56687e-02,-4.23333e-01,3.05159e-01,2.06527e-01,3.90485e-01,3.45364e-01,2.63525e-01,-2.59561e-01,1.47449e-01,-2.30786e-01,-2.03527e-01,-1.76555e-01,-1.84317e-01,4.13644e-01,2.82857e-01,1.29844e-01,-1.06043e-02,1.10219e-01,7.47765e-02,
-3.90405e-01,4.41130e-01,1.31620e-01,-2.09095e-02,-1.44251e-01,-3.82106e-01,-3.03836e-01,2.90396e-01,-4.05873e-02,-2.49056e-01,-1.53094e-02,1.55759e-02,-3.26514e-03,-9.60531e-02,4.28711e-01,7.15611e-02,4.22919e-01,-1.89979e-01,1.07214e-01,-3.65334e-01,2.13619e-01,-5.05046e-02,-3.62030e-01,1.49155e-02,-2.73373e-01,
-1.81248e-01,-2.22078e-01,4.00940e-01,-8.74452e-01,3.10649e-01,-8.21699e-02,-7.26245e-02,5.12436e-01,3.79057e-01,2.89585e-01,-3.26786e-01,4.05101e-01,9.96537e-01,-1.13570e-01,1.18185e-01,9.48756e-02,-1.38929e-01,-2.21803e-01,-3.53683e-01,3.74708e-02,-2.73391e-01,-4.10894e-01,-2.64411e-01,-7.18027e-03,2.44441e-02,
-9.30693e-02,1.97763e-02,2.58020e-01,5.22215e-01,-4.43924e-01,-2.20602e-01,-7.35370e-01,3.46482e-01,-4.04054e-01,2.05267e-02,-1.59435e-01,-2.75211e-01,-7.25547e-01,-2.17012e-01,1.50680e-01,6.79739e-01,1.77790e-01,-5.05321e-01,-4.07937e-01,4.10520e-01,-1.11499e-01,-2.07832e-02,-3.56583e-01,3.83785e-01,1.53972e-01,
-5.62636e-01,
-2.32310e-01,
-1.07450e-01,
4.27028e-02,
4.09134e-01,
