// Neural Network File Format by Kyle Julian, Stanford 2016
6,5,5,25,
5,25,25,25,25,25,5,
0,
-56000.000000,-56000.000000,-3.141593,200.000000,200.000000
56000.000000,56000.000000,3.141593,200.000000,200.000000
-278.628049,0.000000,0.000000,200.000000,200.000000,-0.242819
112000.000000,112000.000000,6.283185,1.000000,1.000000,17.479225
-2.37538e+00,-3.36404e-01,4.63448e-01,-2.76119e-01,-3.17134e-01,
-1.24262e+00,-2.22541e+00,4.25290e-01,-4.05278e-02,3.40383e-01,
-1.82706e-01,-2.79548e-01,-4.48375e-02,-3.68555e-01,3.41238e-01,
1.18843e+00,-1.26808e+00,1.65309e-02,1.20317e-01,3.05536e-02,
-1.73050e+00,2.87259e-01,-3.47243e-01,-2.26387e-01,3.25272e-01,
2.06195e+00,-9.73916e-02,8.33795e-02,-7.01643e-02,8.49290e-02,
-3.04796e-01,1.09374e-01,6.68614e-02,-3.37003e-01,3.77076e-01,
3.28872e-01,8.61288e-01,5.48920e-01,3.95869e-01,1.17120e-01,
1.27321e+00,1.43263e+00,1.38062e-01,-2.10336e-01,4.10692e-01,
2.87248e-01,9.41947e-01,6.35438e-01,4.04208e-01,9.40311e-02,
-8.18273e-01,7.96911e-01,1.04697e-01,2.31232e-02,2.18756e-01,
1.22851e+00,-6.46372e-01,8.45501e-01,-1.12444e-01,4.00239e-01,
-5.62942e-01,1.79584e+00,4.94502e-01,1.14388e-01,-3.65050e-01,
1.56473e+00,1.04238e+00,-4.05327e-01,-1.30960e-01,-8.81664e-02,
1.53761e+00,-1.33898e+00,-6.45539e-01,-3.56856e-01,-1.73142e-01,
1.88365e+00,-8.76022e-01,5.36541e-01,1.16983e-01,-3.44238e-02,
1.40756e-01,2.25610e+00,6.46163e-01,4.31246e-01,6.20762e-02,
-5.91430e-01,1.26138e+00,2.35816e-01,-1.44324e-01,-1.98887e-01,
-1.15008e+00,-1.23780e+00,2.12396e-02,1.80900e-02,3.34963e-01,
3.71932e-02,1.21913e-01,1.59493e-01,3.88820e-02,7.48144e-02,
-8.99217e-01,2.26433e+00,-6.14342e-01,3.30888e-01,4.44975e-01,
-2.06996e-01,-3.20541e-02,8.31957e-02,3.92789e-01,-8.66106e-03,
-2.21923e+00,1.03788e+00,1.95148e-01,-5.05173e-02,3.73913e-02,
-3.94352e-01,-3.23208e-02,1.76881e-01,3.32970e-01,-1.45668e-01,
-7.51144e-01,-2.41900e+00,-3.79786e-02,-3.73382e-01,6.01857e-02,
-3.04180e-03,
5.94199e-02,
-2.91753e-01,
-9.38828e-03,
2.30247e-01,
-2.66159e-03,
-2.40675e-01,
6.49806e-02,
-5.61193e-03,
4.75980e-02,
-1.11520e-01,
-6.08672e-02,
1.60277e-02,
1.98721e-01,
5.59279e-02,
2.74306e-01,
8.23031e-03,
1.86102e-01,
2.05085e-01,
-1.51370e-01,
9.72661e-02,
-1.46181e-01,
5.16750e-02,
-3.06603e-01,
2.24702e-01,
-4.58403e-01,-4.19924e-01,-2.53731e-01,-4.07981e-01,-1.30033e-01,-3.94484e-02,2.45623e-01,2.99368e-01,6.83497e-01,-1.13869e-01,-5.47385e-01,-9.87851e-03,3.83693e-01,-1.56295e-01,-4.48024e-01,-3.81409e-01,6.64699e-01,3.14490e-01,-1.54611e-01,-3.18271e-01,-8.92549e-02,2.56634e-01,3.30068e-01,2.45664e-01,2.82822e-01,
4.74029e-01,1.91694e-01,3.23143e-02,3.85751e-01,4.62727e-02,5.59241e-01,-3.44473e-01,-7.74172e-02,3.24155e-01,1.79700e-01,-7.44900e-01,-3.34591e-01,4.70125e-01,-3.57784e-01,-3.23939e-01,-2.47044e-01,3.47456e-01,-7.04055e-02,2.02298e-01,3.42676e-01,7.31936e-02,1.08548e-01,2.11938e-01,1.07367e-01,3.55088e-01,
7.86933e-02,9.97803e-02,1.34432e-01,8.84755e-01,-3.60616e-02,8.43752e-01,2.68520e-01,-3.12300e-01,6.09618e-01,-5.89188e-01,1.47198e+00,5.39631e-01,-4.58255e-01,-1.65881e-02,2.84306e-01,-3.94226e-01,3.81921e-01,-1.42435e-01,-3.81186e-02,-1.09477e-01,5.49441e-01,-8.86956e-03,-4.25276e-01,2.61018e-01,1.75541e-01,
2.27676e-01,1.39812e-02,-1.08494e-01,2.79044e-01,3.23174e-01,2.27617e-01,1.58991e-01,-1.62871e-01,1.18488e-01,3.50775e-01,-5.78146e-01,-1.64829e-01,4.52065e-01,1.88175e-02,-4.34294e-01,-4.85895e-04,-1.02438e-02,-8.86279e-03,1.77784e-01,-1.94624e-01,-1.96407e-01,-2.68134e-01,3.05707e-01,-7.36843e-02,4.75181e-02,
-3.11301e-01,-5.89125e-01,-2.08924e-01,-1.14855e-01,3.34087e-02,-1.90929e-01,-2.96592e-01,-1.47104e-01,5.43476e-01,9.71554e-02,5.19311e-01,-5.78305e-01,3.88548e-01,-1.15518e-02,4.83716e-01,-2.89377e-01,3.82256e-01,-1.10781e-01,1.11345e-01,2.30328e-01,-1.63594e-01,1.73443e-01,2.20555e-01,-1.54738e-01,1.71720e-01,
6.08045e-01,3.84447e-01,-2.97412e-01,-2.60844e-01,4.22070e-02,3.51340e-01,-2.22198e-01,2.24372e-01,-1.52508e-01,-1.69191e-01,-3.71908e+00,-9.05268e-01,-1.16931e+00,1.89775e-01,-4.88843e-02,-1.98410e-02,-2.37909e+00,-4.26794e-02,-2.17144e-01,1.90844e-01,6.69288e-02,-3.50032e-01,1.71503e-01,1.80063e-01,2.14009e-01,
-1.06379e+00,6.25772e-01,-1.71004e-01,4.34012e-01,7.63445e-02,1.85145e+00,1.90768e-01,-3.65711e-01,2.10692e+00,-5.96600e-01,6.15142e-01,-1.59278e+00,-3.29158e-01,3.76574e-01,2.42412e-02,-2.80619e-01,-5.77010e-01,-1.71373e-01,4.74494e-01,1.08488e-01,3.64636e-02,2.03979e-01,-7.83035e-01,-3.13707e-01,2.19810e-01,
5.11072e-01,1.81834e-01,1.78834e-02,4.87594e-01,-5.84245e-02,5.71742e-01,-1.16804e-01,-2.11144e-01,-5.58165e-01,5.66721e-02,-2.63101e+00,-3.15967e-02,-1.50020e-01,-1.06344e-01,-2.40207e-01,-2.58634e-02,-2.02612e-01,2.98387e-01,2.92369e-01,2.26267e-01,-6.90813e-03,1.31270e-01,-1.47758e-01,2.19918e-01,-1.98568e-02,
8.39474e-01,7.71630e-03,1.42843e-01,1.06303e-01,3.16579e-01,9.99122e-02,2.83528e-01,-1.10792e-01,4.22827e-01,-3.41016e-01,-3.87383e-01,2.52980e-01,-3.31286e-02,-2.91363e-01,1.08159e-01,-2.46014e-01,2.14224e-01,-3.38484e-02,4.28596e-01,-3.43050e-01,-3.95420e-02,1.75576e-01,1.75462e-01,3.41863e-01,2.93142e-01,
-1.33633e-01,8.26446e-01,-5.20630e-02,8.62555e-01,-2.70008e-01,3.25719e-01,-2.74905e-01,1.75066e-01,6.15144e-02,4.73226e-01,-1.15118e+00,2.11271e-01,-7.80684e-01,3.37845e-01,3.49379e-01,-4.93088e-01,-6.91294e-01,3.69442e-01,-3.90227e-01,-9.12853e-02,5.46420e-01,-1.84988e-01,4.11478e-01,-2.75173e-01,-3.65420e-01,
4.06224e-02,7.11260e-02,-2.20751e-01,-5.17289e-02,1.55417e-01,-7.22975e-01,-2.26176e-01,1.12466e-01,-7.01094e-01,-2.49037e-03,-1.32523e+00,6.50186e-01,-3.45510e-01,1.08855e-01,1.11964e-01,-1.38552e-01,3.78664e-01,2.54585e-01,-2.60501e-02,-2.67183e-01,5.33515e-01,-3.32036e-01,6.94125e-02,6.84783e-02,1.13712e-01,
-1.09963e-01,-1.88328e-02,1.55184e-01,-1.99744e-01,-8.91594e-02,-1.92274e-01,-3.27811e-01,7.85010e-03,2.50819e-01,2.08535e-01,6.15457e-02,-3.57039e-01,1.41593e-01,-1.03072e-01,3.83239e-02,-1.35804e-01,3.33641e-02,-2.77868e-01,-1.91275e-01,3.33894e-01,-2.83411e-01,-2.96592e-01,-7.07281e-02,6.73327e-02,1.02987e-01,
4.93684e-01,-3.82524e-01,-2.52095e-02,3.48650e-01,1.20503e-01,1.85308e-01,4.66017e-02,-2.15202e-01,1.30849e-01,2.10920e-01,-1.90781e+00,-2.25814e-01,-1.31019e-01,-1.34273e-01,2.47697e-01,-1.11062e-01,4.22348e-01,1.79169e-01,1.41800e-01,-1.50775e-01,1.84178e-01,-1.76672e-01,-2.36949e-01,2.52031e-01,-2.23776e-02,
-3.27565e-01,2.93130e-01,3.12567e-01,-1.05930e-01,-7.54384e-02,1.79404e-01,-4.25366e-03,3.36868e-01,9.59559e-01,-1.71872e-01,1.54498e+00,-3.66549e-01,1.31377e-01,-2.81681e-01,1.95936e-01,-2.33673e-02,-1.30630e-01,3.43967e-01,2.57386e-01,-5.39891e-02,-5.05193e-01,1.05578e-03,4.34490e-01,-2.09982e-01,1.07652e-01,
8.61249e-01,-3.15225e-02,-3.77868e-02,-3.90243e-02,3.22989e-01,7.79144e-01,3.03000e-01,3.99969e-01,-4.53312e-02,-4.19507e-01,-2.40461e+00,-1.85170e-01,6.57037e-01,-1.52147e-01,-8.45031e-02,-4.44564e-01,1.66914e-01,2.39792e-01,4.27227e-02,-3.44107e-02,5.63643e-02,-1.68502e-01,3.79036e-01,5.24021e-02,-1.50798e-01,
4.27873e-01,-6.67792e-02,-1.05902e-01,-3.24248e-01,6.16976e-03,4.23544e-01,1.68644e-01,-2.26092e-01,4.95555e-01,3.32072e-02,2.77097e+00,9.55174e-02,-4.82422e-01,-1.59360e-01,4.65530e-01,4.72818e-01,-3.97560e-01,1.79179e-01,7.04741e-02,6.66855e-02,-2.50591e-01,-2.86131e-01,-6.64072e-01,-8.48673e-02,3.43537e-01,
4.65272e-01,-2.86442e-01,-1.92340e-01,-4.20253e-02,2.56952e-01,2.96131e-01,-1.99075e-01,9.49031e-01,-5.43875e-01,4.54620e-01,-1.26695e+00,-1.01756e+00,4.09492e-01,1.25915e-01,-2.54262e-01,-2.66958e-01,1.68069e-01,3.09485e-01,-3.58730e-01,-2.60417e-01,2.80895e-01,4.04219e-02,2.05931e-01,-3.16655e-01,-3.25330e-01,
-2.65495e-01,4.10853e-01,-1.91782e-01,4.29835e-01,-5.79748e-02,-5.49275e-02,-4.85435e-02,2.53489e-01,7.00303e-01,-4.13974e-01,-1.31836e+00,-4.39658e-01,1.19681e-01,4.93431e-01,1.46850e-01,1.20856e-01,7.27165e-01,-2.09341e-01,-2.49930e-01,2.71712e-01,1.27582e-01,-2.11047e-01,-1.17882e-01,1.23553e-01,-5.08666e-01,
-9.20611e-02,6.55562e-01,-2.86232e-01,6.85792e-01,2.94864e-01,5.07066e-01,-1.49164e-01,-3.41482e-02,-4.56243e-01,-1.02435e-02,-1.21899e-01,3.65823e-01,-1.52819e-01,-1.20443e-01,6.75781e-02,9.55105e-02,1.60095e-01,2.66829e-01,-1.11066e-01,-4.88422e-02,-4.60356e-02,-2.01639e-01,-8.08758e-03,2.72988e-01,2.28492e-01,
-8.03840e-01,-5.53775e-02,-1.84563e-01,-1.70593e-01,-5.04542e-01,1.88631e-01,1.06120e-01,2.36899e-01,2.88858e-01,1.54335e-01,2.74047e-01,-1.09239e-01,-2.78989e-01,1.30359e-01,-2.60957e-01,1.44239e-01,-3.61560e-01,8.51123e-02,-1.06906e-01,1.08792e-01,-2.80441e-01,-1.43801e-01,-3.24795e-01,2.59983e-02,-8.64136e-03,
-2.35941e-03,5.58019e-01,3.33760e-01,2.00698e-01,6.52989e-02,5.89186e-01,1.49826e-01,-3.18123e-01,-3.43374e-01,5.25833e-02,3.48610e-02,3.85332e-01,1.91237e-01,-2.77460e-01,-3.90407e-03,2.66235e-01,2.75727e-01,1.00064e-01,-1.33081e-01,-3.38354e-01,9.99385e-01,1.04393e-01,-8.26364e-01,7.73759e-02,-3.64666e-01,
-8.06440e-02,-1.77064e-01,8.66183e-02,5.27926e-02,5.61980e-02,-2.73388e-01,1.37820e-01,-2.03078e-01,1.48381e-01,-1.67042e-02,1.42312e-03,-7.24622e-02,-1.70421e-01,-2.44834e-01,-2.26173e-01,1.51600e-01,1.33562e-01,-1.25049e-01,-1.75763e-01,-4.52859e-02,3.46383e-01,2.49163e-02,7.72621e-02,-2.11025e-01,-1.06463e-01,
4.83240e-01,3.74035e-01,3.27579e-01,3.17762e-01,3.60219e-01,2.49206e-02,1.68315e-01,1.43166e-01,-3.39988e-01,-3.74168e-01,-2.51262e+00,-3.86241e-02,3.74980e-01,-6.44538e-02,-3.03425e-01,-2.40129e-01,1.03958e-01,-3.54717e-01,1.25413e-01,-2.72118e-01,-2.96364e-01,-1.01862e-01,1.76310e-01,3.12113e-01,-1.31637e-01,
-6.12683e-02,1.50830e-01,-1.84246e-01,5.44061e-01,-3.85451e-01,4.86295e-02,-3.03612e-01,-9.01519e-02,5.83552e-01,-3.02871e-01,-3.05068e-01,-7.88928e-02,2.11268e-01,-4.80118e-02,-4.35446e-01,1.47005e-01,4.26401e-01,5.30016e-03,8.41135e-02,-1.19094e-01,-3.03598e-01,-2.58230e-01,4.15546e-01,-9.25381e-02,-4.96413e-02,
-6.95588e-01,-5.86066e-01,4.03327e-02,5.39782e-01,-1.09362e-01,-1.00577e-01,8.02214e-02,-1.32269e-01,4.99922e-01,-5.30136e-02,-4.97542e+00,-1.05872e-01,-1.67458e-01,1.06195e-01,-8.19786e-02,3.95056e-01,4.44377e-01,7.81342e-02,1.59318e-01,2.19474e-01,-3.39039e-01,-3.18207e-01,-3.10024e-01,-3.25528e-01,-3.20845e-01,
2.00577e-01,
1.50059e-01,
1.91436e-01,
2.09837e-01,
3.20332e-01,
1.68845e-01,
-4.91456e-02,
1.02093e-01,
7.66060e-02,
-1.71715e-01,
-1.18708e-01,
-9.18168e-02,
4.37821e-02,
2.01599e-02,
2.37575e-02,
-1.63123e-01,
-1.36382e-02,
2.47710e-01,
-1.80404e-02,
2.39501e-01,
-2.22985e-01,
-2.62875e-01,
2.57415e-01,
8.53625e-02,
1.49519e-02,
-1.48613e-01,4.29996e-01,1.45895e-01,2.70744e-01,-1.53929e-02,4.68994e-01,3.36898e-01,2.50905e-01,2.94976e-01,-4.15906e-01,1.97738e-01,2.34263e-01,-1.00302e-01,2.11857e-01,-1.24619e-01,5.03139e-01,-7.22677e-01,-3.65380e-01,2.87201e-01,-4.19804e-01,4.76992e-01,1.88726e-01,1.65255e-01,-5.41326e-01,-8.56515e-03,
2.85960e-01,1.38077e-01,-4.87302e-03,6.14438e-02,-8.83452e-01,2.28861e-01,1.21937e-01,2.31784e-01,7.75276e-02,9.71123e-02,-7.06847e-01,-2.83108e-01,2.32302e-01,-2.80972e-01,7.74113e-01,6.10685e-01,3.39855e-01,2.73115e-01,1.59139e-01,9.57631e-02,2.08275e-02,9.67015e-02,-1.38198e-01,1.53614e-01,-2.31614e-01,
2.81280e-01,1.14195e-01,-2.92351e-01,-2.59722e-01,-3.20905e-01,2.56701e-01,3.09059e-02,7.55851e-02,-7.68851e-02,-3.65776e-02,-3.39110e-01,1.83406e-01,1.09762e-01,-2.77584e-01,-1.88520e-03,7.51882e-02,-2.46606e-01,-2.81596e-01,-1.01914e-01,-2.40950e-01,8.46276e-02,-3.35707e-01,1.53883e-01,1.27646e-01,2.67395e-01,
-2.45938e-02,-2.56849e-01,-1.69340e-01,-3.08310e-01,1.41098e-01,2.69184e-01,-1.81659e-01,-9.57149e-01,8.00745e-02,3.78786e-01,2.99118e-01,2.04514e-01,-1.83168e-01,1.10578e-01,1.26954e-01,2.01970e-01,3.17082e-01,-1.46515e-01,4.88783e-02,-1.62011e-01,2.15059e-02,5.26169e-02,1.92030e-01,-1.64833e-01,1.37418e-01,
2.77635e-01,-3.54047e-01,2.31454e-01,2.34453e-01,-2.39510e-01,2.70927e-02,4.30982e-03,-2.52235e-01,1.11935e-01,-2.14540e-02,1.07644e-01,8.99882e-02,1.03534e-02,-4.71025e-01,-7.50744e-02,1.81642e-02,-7.04036e-01,-8.02420e-02,-2.12174e-02,-6.01083e-01,-1.23394e-01,2.42841e-03,5.12052e-02,-2.48586e-01,2.90237e-01,
2.68777e-01,1.71389e-01,9.39168e-02,1.78380e-01,3.34998e-01,-1.97888e-01,5.93871e-01,3.39246e-01,1.11277e-01,-3.51945e-01,4.75157e-01,1.29152e-01,2.91905e-01,-3.60691e-01,5.93834e-01,6.98781e-01,3.11534e-01,-9.58456e-02,-2.56826e-02,1.41475e-01,2.76654e-01,9.03229e-02,-2.32775e-01,3.41270e-01,3.46884e-01,
-1.65655e-01,8.71333e-02,4.17194e-01,1.61695e-01,3.25878e-01,-1.00860e-01,6.56449e-02,-1.20032e-01,6.52974e-02,8.06736e-02,-3.06391e-01,-7.25710e-02,1.46081e-01,-2.38617e-01,4.25102e-01,6.09885e-01,1.04885e+00,1.58559e-01,2.09995e-01,1.11037e-01,-4.23014e-01,1.31965e-01,2.32406e-01,9.75796e-02,5.00051e-01,
-6.17833e-02,-2.37608e-01,1.87994e-01,-2.73582e-01,2.31800e-01,-2.25514e-01,-2.20000e-01,2.23108e-01,7.51670e-02,-3.01756e-01,-2.39873e-01,-3.17466e-01,1.39675e-01,2.86423e-01,-1.12900e-02,2.51891e-02,6.95084e-02,-2.37368e-01,-3.16632e-01,3.96473e-02,1.18931e-01,-2.66005e-01,-3.44822e-01,-2.98734e-01,2.48439e-01,
-6.23546e-02,-3.01829e-01,-1.95674e-01,6.90597e-02,-1.68185e-01,6.04865e-02,-1.67921e-02,4.99997e-02,1.27196e-01,-2.56401e-01,9.49094e-02,-7.22353e-02,-1.95334e-01,9.23121e-02,-3.31863e-02,2.52337e-01,1.42010e-01,2.93373e-01,-4.17213e-01,2.73765e-01,-4.25042e-01,2.22435e-01,3.96961e-01,-4.51060e-02,4.20283e-01,
-1.76809e-01,-5.94746e-02,1.57962e-02,2.53549e-01,-3.31155e-01,-1.27977e-01,1.29261e-01,2.29204e-02,-3.46755e-02,1.21901e-01,-9.34584e-03,3.31234e-01,1.37604e-01,1.42903e-01,2.81661e-01,1.92333e-01,4.62295e-01,2.98769e-01,3.88593e-01,3.18038e-01,-1.06757e-01,9.45366e-02,-6.60740e-02,5.50770e-02,-2.65932e-01,
6.19134e-02,3.76920e-01,8.94463e-02,5.10559e-02,1.72765e-01,-4.96974e-01,-2.75663e-02,1.36259e-01,7.48953e-02,-1.95351e-01,5.94123e-01,1.01181e-01,4.04119e-01,-7.55780e-02,1.17899e-01,-3.30424e-01,1.25041e-01,1.76707e-01,1.64864e-01,-1.87548e-01,2.45702e-01,2.76454e-01,-4.50189e-02,9.45981e-02,5.95391e-01,
1.44004e-01,-2.89334e-01,1.54401e-01,1.84705e-01,1.94738e-01,1.18892e-01,2.87823e-01,2.86646e-01,2.49711e-01,-6.41704e-01,-4.57545e-02,-1.37277e-01,1.53796e-01,-1.96521e-01,3.56284e-01,4.28068e-01,-5.31504e-01,2.97772e-01,5.82182e-02,6.58052e-02,2.42037e-01,6.70112e-02,-2.25949e-02,-8.70369e-02,7.85709e-02,
3.04641e-02,-9.83360e-02,4.82628e-01,7.02566e-02,-1.50235e-01,-3.61281e-02,1.78524e-01,-5.34657e-02,2.99115e-01,2.90577e-01,-3.16587e-01,1.80713e-01,-1.15175e-01,-1.40739e-02,6.45264e-01,6.94184e-01,4.29514e-01,-5.63533e-02,-1.52203e-01,-5.06375e-01,3.63390e-02,-1.62289e-01,-1.46815e-02,2.74667e-01,7.35417e-01,
-1.70358e-01,-4.63517e-01,-4.42293e-01,1.07489e-01,1.42624e-01,-1.09728e-01,7.93789e-02,7.15452e-02,-1.63073e-03,-9.26769e-01,1.00568e-01,-3.25785e-01,-2.38397e-01,-3.94883e-02,-6.98769e-01,-1.29647e+00,7.18523e-02,4.23476e-01,-1.70401e-01,4.08342e-01,4.60418e-01,2.89581e-01,-2.96976e-02,-5.35525e-01,-1.39538e+00,
-2.58298e-01,-2.41350e-01,-1.32691e-01,1.90042e-01,3.23604e-01,-1.70675e-02,4.09525e-01,2.98962e-01,-1.48032e-01,-3.46013e-01,-2.06251e-01,2.65604e-01,-3.07330e-01,-2.33892e-01,-8.42396e-02,-1.91440e-01,1.16487e-01,-2.76189e-01,9.15747e-02,2.52020e-01,-6.32885e-02,-1.32196e-01,-1.81071e-01,3.03426e-01,2.25330e-01,
-1.94049e-01,-1.73907e-01,1.62662e-01,-1.40899e-01,9.18405e-02,2.27166e-02,4.89436e-01,1.55285e-03,-7.46641e-02,-6.18223e-02,1.19740e-01,-1.78910e-02,5.98682e-02,-1.20059e-01,2.04454e-01,-3.19694e-01,-3.56309e-01,-1.61658e-02,-2.45963e-01,-1.36628e-01,-9.76459e-01,-4.64519e-02,1.71614e-01,6.79736e-01,5.77932e-01,
-2.17206e-01,-1.51047e-01,2.68722e-02,2.05573e-01,1.79705e-01,-1.35468e-01,-3.29185e-01,-2.49472e-01,2.38611e-01,1.95872e-01,-7.60094e-02,2.06650e-01,-3.91756e-01,-1.07069e-01,2.15354e-01,1.96651e-01,-2.54831e-01,-9.48439e-02,-2.38095e-01,-3.06947e-01,9.46264e-02,2.33942e-01,-1.68385e-01,2.49129e-01,1.18662e-01,
7.85520e-02,1.58269e-01,3.74792e-01,-2.60500e-01,-7.81855e-02,2.66937e-01,-1.64919e-01,6.11227e-01,-1.64994e-01,4.66276e-01,1.37274e-01,2.60212e-01,2.77059e-01,2.04157e-02,2.44123e-01,-1.50428e-02,1.65147e-01,-1.59049e-01,-1.17571e+00,-2.89366e-01,2.00697e-01,-1.81592e-01,3.73958e-01,-4.55615e-01,1.09899e-01,
1.00689e+00,-8.58688e-01,2.85000e-01,-6.56865e-02,2.99594e-01,-1.79616e-01,4.05643e-01,-3.47685e-01,3.28307e-01,5.38325e-01,-3.16156e-01,1.82628e-01,-1.01549e-02,-6.56901e-02,7.53878e-02,-5.80112e-01,-8.22324e-01,-1.73714e-01,4.34106e-01,-2.31972e-01,-1.38621e+00,-3.35165e-01,-2.32053e-01,-2.26329e-01,3.25646e-01,
3.73272e-01,-1.13241e-01,-1.47472e-01,2.46236e-01,-1.74955e-01,-4.84167e-01,-3.96333e-01,8.00385e-03,-1.66545e-01,9.04961e-01,-8.45954e-02,-1.86372e-01,1.46500e-01,9.59592e-02,-3.96859e-01,3.49306e-01,8.00166e-01,2.98460e-01,-1.46535e-01,8.20292e-02,-1.20208e-02,-2.97617e-01,5.46775e-02,-2.83594e-01,-6.48259e-01,
-1.43751e-01,-6.04276e-02,1.62281e-01,-3.62241e-01,-1.68044e-02,3.33211e-02,-3.10532e-01,-3.45317e-01,-2.58560e-01,1.01779e-01,-1.08182e-01,7.57689e-02,-2.46950e-01,3.01361e-01,1.18617e-01,-3.19083e-01,3.46188e-02,2.83411e-01,5.53584e-02,2.85234e-01,-3.06286e-01,6.93357e-03,-3.81707e-02,-2.46558e-01,-2.23289e-01,
4.43724e-01,5.70706e-01,4.40560e-01,1.45845e-01,5.20698e-01,-5.63987e-01,4.12268e-01,-6.19243e-02,3.46371e-02,7.07546e-02,3.28771e-01,-2.22820e-01,5.08075e-02,5.36607e-01,7.36328e-01,8.09512e-01,1.62450e+00,2.26387e-01,-1.07924e-01,-3.47719e-01,-4.05404e-01,2.45366e-01,2.16793e-01,-4.53013e-01,1.47164e+00,
1.15956e-01,1.98698e-01,-1.99408e-01,-2.05144e-01,1.14491e-01,4.02114e-01,4.01958e-02,3.59006e-01,2.43148e-01,-3.72119e-01,6.83162e-03,1.29409e-01,3.23575e-02,9.51470e-02,2.71537e-01,6.24386e-01,-1.79864e-01,7.47341e-02,1.09462e-02,2.65229e-01,-3.26674e-02,-1.25818e-01,2.68403e-01,1.76408e-01,-1.37691e-01,
2.69094e-01,6.05359e-02,5.07329e-01,-7.73103e-02,1.52497e-01,1.25522e-01,4.34057e-01,-1.60399e-01,-1.56336e-01,2.96397e-01,3.45610e-01,-1.30784e-01,-2.21113e-01,-2.87659e-02,4.06046e-01,-9.54017e-02,4.54142e-01,4.59634e-01,3.34867e-01,-6.85861e-01,4.69518e-01,-1.49699e-01,2.50145e-01,1.56445e-01,6.64742e-01,
-3.02945e-01,4.89400e-03,-1.51428e-01,2.53961e-01,4.12472e-01,-9.74962e-03,-1.54732e-01,-1.36070e-01,-3.39673e-01,5.06693e-01,1.71701e-01,-1.62686e-02,-2.12002e-01,-2.87048e-01,1.44431e-01,-4.26125e-01,1.72040e-01,-5.33618e-02,2.76274e-01,-2.16856e-01,-6.89550e-02,-9.14455e-02,1.76360e-01,4.28409e-01,-1.60081e-02,
-2.81818e-01,
-7.34236e-03,
-8.73785e-02,
3.21766e-03,
2.35840e-01,
-2.39381e-01,
-4.04425e-02,
-3.13351e-01,
-1.33459e-01,
4.23324e-01,
3.28040e-01,
1.95427e-01,
1.82510e-01,
1.85228e-01,
2.84983e-01,
2.39275e-01,
-3.82546e-01,
-1.55860e-01,
-1.00506e-01,
2.80860e-01,
-7.53747e-02,
-2.97662e-01,
6.32492e-02,
-2.38411e-01,
1.33132e-01,
9.40896e-02,1.13976e-01,-2.63935e-03,2.16218e-01,3.17807e-01,2.71796e-01,2.55582e-01,2.59233e-01,4.70892e-03,-3.14524e-01,-1.48988e-02,-1.33584e-01,-3.12322e-01,-8.05872e-02,2.81464e-02,1.15451e-01,-9.48752e-02,-9.17691e-02,1.08849e-01,2.80753e-01,3.06278e-01,-5.35376e-02,-3.94230e-02,9.38358e-02,-1.90664e-01,
8.57806e-01,-4.03220e-01,3.10190e-01,1.14093e-01,2.12121e-01,3.32886e-01,4.64485e-02,3.54870e-02,1.26160e-01,-2.06232e-01,-5.02309e-02,-1.63527e-01,3.50449e-01,-3.97495e-01,1.38109e-01,4.42498e-01,-2.92386e-01,6.01102e-01,-5.48305e-01,9.61507e-02,-2.75488e-01,5.60164e-01,6.90596e-02,-5.61726e-01,3.77800e-01,
1.81568e-01,-2.02864e-01,-1.24502e-01,1.11419e-01,-6.72531e-02,-1.48329e-02,-3.14199e-01,8.95411e-02,1.17779e-01,-1.48077e-01,-4.56886e-02,-1.41984e-01,2.30546e-01,4.80950e-02,1.52074e-01,1.08421e-02,5.24707e-02,-2.70373e-01,3.23355e-01,-8.14560e-02,-2.81520e-01,1.75114e-01,-8.90440e-02,-3.18290e-02,3.05125e-01,
-3.45626e-01,9.59320e-02,1.51840e-01,-7.67919e-02,-1.12765e-01,-2.96437e-01,-3.22491e-02,-3.27646e-01,-2.05601e-01,2.57472e-01,1.89403e-02,-2.39448e-01,2.10515e-01,-2.93482e-01,-2.38715e-01,-2.82335e-01,4.93218e-02,-1.95829e-01,3.22366e-01,-3.26842e-01,-9.95563e-02,2.89716e-03,4.04016e-02,-1.37042e-02,-8.65551e-02,
1.00529e+00,-2.15462e-01,-1.22793e-01,-1.62667e-02,-9.43890e-02,1.21768e-01,3.68683e-02,-1.32660e-01,-1.03164e-01,-2.53515e-01,2.92716e-01,1.99429e-01,1.82234e-01,2.56211e-01,-2.75764e-02,3.86090e-01,-2.52931e-01,-1.64260e-01,-2.14368e-01,2.54206e-01,-1.03275e-01,4.86191e-01,-8.52375e-02,-6.03840e-01,-1.81453e-01,
-3.12211e-01,2.38714e-01,-1.02174e-01,2.68539e-01,-3.34248e-01,2.68566e-01,-1.23665e-01,3.28948e-01,-7.06807e-02,-1.75487e-01,-1.50230e-02,-1.81167e-01,-2.13501e-01,1.29957e-01,-4.77225e-03,1.18475e-01,-1.90790e-01,-1.77875e-02,-3.96608e-02,-2.99419e-01,-3.44499e-01,-1.26674e-01,-1.42819e-01,2.69712e-01,2.82560e-01,
-1.74117e-01,1.25240e-01,-4.80811e-02,2.13367e-01,1.84611e-01,9.94414e-02,1.59011e-02,2.81079e-01,2.69502e-04,-3.51952e-01,2.81570e-01,2.36087e-01,1.47752e-01,8.76053e-02,-1.54839e-01,1.96914e-01,-2.49554e-01,1.93485e-01,2.13606e-01,7.68443e-02,1.73066e-01,-2.95383e-01,1.63751e-01,-3.37000e-01,-3.44411e-01,
4.36487e-01,-4.02775e-02,1.88116e-01,-4.52800e-01,2.18001e-01,3.08349e-01,1.52260e-01,-1.41087e-01,3.87883e-01,-6.02907e-02,6.27401e-02,1.03533e-01,-1.45757e-01,-2.82039e-01,3.46909e-01,4.03146e-01,1.28264e-01,4.69499e-01,-5.43949e-02,-9.97027e-02,2.87204e-01,-4.79516e-01,3.95316e-01,7.83484e-02,2.36562e-01,
2.24844e-01,-4.60728e-01,-1.25179e-01,-7.02884e-02,-5.64393e-02,-2.51339e-01,1.48073e-02,7.68155e-02,1.58083e-01,3.32676e-01,9.49947e-03,-1.83228e-01,1.07337e-01,1.43231e-02,2.61895e-01,-1.03546e-01,1.55788e-01,1.61293e-01,-1.01182e-01,1.79325e-01,3.09516e-01,6.03842e-01,2.63338e-01,-2.09805e-01,5.04241e-02,
2.78630e-01,-3.65711e-01,-1.91035e-01,3.13805e-01,2.52214e-02,6.60088e-02,2.46034e-01,-2.23327e-01,2.38217e-01,-1.48610e-01,-2.27862e-01,3.02558e-01,8.82165e-03,-1.09386e-01,1.65320e-01,2.86762e-01,4.64382e-02,4.62310e-01,-1.24247e-02,-3.56989e-02,-1.67524e-01,2.86688e-01,2.37334e-01,-2.11619e-01,2.16803e-01,
7.57964e-01,-1.91040e-01,1.60480e-01,1.55196e-02,8.84935e-03,2.08317e-01,3.16150e-01,-4.52043e-02,-1.22041e-01,-2.03186e-01,-2.68805e-01,-2.24948e-01,1.12435e-01,-1.66585e-01,9.57177e-02,-4.29251e-02,1.84895e-01,-2.20412e-01,2.44185e-02,8.02793e-03,1.51104e-01,1.93875e-01,-1.80287e-01,-3.90821e-02,1.51887e-01,
5.23778e-01,-3.43709e-02,-1.46257e-01,-4.55921e-02,-2.23295e-01,1.94512e-01,-2.30425e-01,-8.61528e-02,5.35235e-01,1.04874e-01,1.18398e-01,2.01581e-01,3.43251e-02,9.26325e-02,1.70587e-01,-2.70032e-01,-6.75696e-02,2.77615e-01,4.39293e-01,-1.49423e-01,-1.89478e-01,-4.71073e-01,8.85011e-02,1.67884e-01,2.35228e-01,
-3.41455e-01,-3.36562e-01,-2.10300e-01,-2.01411e-01,-1.97240e-01,-6.93274e-02,-3.41274e-01,3.11521e-01,-5.10183e-02,1.69496e-01,-1.27030e-01,-3.21026e-01,1.33636e-01,2.72551e-01,-2.29017e-01,2.07228e-01,6.70984e-02,-1.87972e-01,-2.91487e-01,-1.07121e-01,-1.86096e-01,1.09244e-02,-3.07132e-01,5.40801e-02,-3.90109e-02,
-1.98277e-01,2.50773e-01,1.79672e-01,4.38872e-01,3.28276e-01,-3.65768e-01,-1.19167e-01,2.49256e-01,4.53887e-01,-2.15902e-01,-1.22159e-01,2.69672e-01,2.16705e-01,2.63427e-01,1.62694e-01,2.47218e-01,-1.25380e-01,-9.94654e-01,-6.70230e-02,3.36536e-01,2.74240e-02,-3.85857e-01,2.11179e-01,2.39289e-01,1.76191e-01,
-1.58417e-01,-6.99030e-02,1.16998e-03,6.02607e-02,-1.70646e-01,-1.57103e-01,-1.65433e-01,-2.00497e-01,2.26305e-01,-1.47074e-01,-1.88623e-01,1.32885e-01,-2.38522e-01,6.73970e-02,-1.66564e-01,-2.19078e-01,2.83371e-01,8.51795e-02,-3.36227e-01,-1.45286e-01,9.04286e-02,1.39095e-01,-3.34122e-01,8.01894e-02,2.64038e-01,
-1.94370e+00,8.36977e-01,-2.02913e-01,3.56115e-01,3.87582e-01,-3.23297e-01,-2.43468e-01,7.44425e-02,-3.28812e-01,-2.92243e-01,7.19789e-02,-1.59757e-01,-3.35793e-01,3.67354e-01,2.41177e-01,2.56363e-01,-9.86380e-02,-5.03143e+00,2.32933e-01,3.82403e-01,-1.63543e-01,-7.90642e-01,-2.64058e-01,5.49315e-01,2.69870e-01,
-7.47113e-03,1.66548e-03,2.18292e-01,-1.22015e-01,2.83864e-01,1.64245e-01,-1.56841e-01,1.75447e-01,4.64058e-01,1.86080e-01,2.06888e-01,2.45877e-01,-2.23681e-01,3.47048e-01,2.63983e-01,-1.58724e-01,-3.23423e-02,2.85941e-01,1.48898e-02,8.27143e-02,3.14526e-01,2.46201e-03,2.54764e-01,1.44180e-01,-7.80469e-02,
1.19522e-01,6.49593e-02,1.84394e-01,-1.62879e-01,-3.61107e-01,-1.19854e-01,2.19719e-01,2.29563e-01,3.88300e-01,7.89029e-02,2.98159e-01,-1.30952e-01,-6.40774e-03,-8.73304e-02,-4.36333e-02,-1.71691e-01,3.36148e-01,-4.27882e-01,-4.02911e-01,3.20813e-01,-1.75315e-01,2.09578e-01,-2.24131e-01,2.22019e-01,4.05749e-02,
-5.29357e-01,3.91140e-02,2.83224e-01,1.97745e-01,-1.59249e-01,-1.72273e-01,-2.52892e-01,-2.29373e-01,-2.77615e-01,-6.75756e-02,3.34630e-01,-3.88132e-01,-6.48595e-01,7.42835e-01,-2.60184e-01,-3.47299e-01,-2.11618e-01,4.48963e-03,-5.02036e-01,5.13770e-01,1.17118e-02,-7.30144e-01,1.17452e-01,2.59079e-01,2.43276e-01,
-2.32151e-01,1.33594e-01,1.93643e-01,1.44948e-02,3.65045e-02,-5.54457e-02,-1.63050e-01,-2.25430e-01,1.43146e-01,1.65389e-01,3.22924e-01,2.84780e-01,-1.31403e-01,1.03423e-01,-8.93610e-02,1.89744e-01,3.25598e-01,1.96908e-01,-6.14543e-02,1.67051e-02,2.57586e-01,-1.56078e-01,5.00478e-02,-1.32125e-01,2.96758e-02,
6.43180e-02,-2.23310e-01,2.71873e-01,2.70453e-02,-2.01346e-01,-2.78048e-02,-8.56986e-02,1.58623e-01,1.52161e-01,-1.77987e-02,-2.13787e-02,8.95265e-02,-1.11649e-02,2.93695e-01,-2.73062e-01,-9.72339e-02,-1.71668e-01,2.53460e-01,1.82724e-01,4.96204e-02,-9.38940e-03,-3.40174e-01,-4.76765e-02,2.39823e-02,-1.06964e-01,
-3.65259e-01,-4.10930e-02,-1.40344e-01,-4.05405e-01,1.44870e-01,3.98865e-02,1.78560e-02,-1.70668e-01,-1.40079e-01,3.01675e-01,1.27770e-01,-1.95567e-01,-1.04535e-01,2.22401e-01,5.11442e-02,1.31773e-01,1.53951e-01,2.44814e-01,-8.38753e-01,1.60189e-01,5.35134e-02,2.04951e-01,2.17614e-01,2.03561e-01,1.95314e-01,
6.97813e-01,-9.52172e-01,-1.33901e-01,-9.57572e-01,-2.03489e-01,4.64452e-01,4.33438e-01,7.53804e-02,-2.82256e-02,5.93892e-03,3.48210e-01,-1.30611e-01,1.17882e-01,-7.39957e-01,-3.60826e-01,-3.86221e-01,-2.25984e-01,-1.87505e+00,-8.35618e-01,3.06522e-01,3.42588e-01,1.17855e+00,1.84608e-01,-6.01558e-02,3.36978e-02,
-4.97442e-02,5.61306e-02,5.39864e-02,-2.83298e-01,-9.04955e-02,-8.41978e-03,-2.71743e-01,2.85622e-01,-8.76115e-02,-3.68961e-02,-2.82393e-01,-4.95238e-02,5.24155e-02,1.56941e-01,1.77046e-01,-3.03166e-02,2.29605e-01,-1.65614e-01,9.86418e-02,1.00002e-03,-3.39043e-01,-2.45084e-01,1.54777e-01,1.87996e-01,-3.41341e-01,
4.91405e-02,-5.22896e-02,-2.78800e-01,-2.81018e-01,-1.71665e-01,-2.44614e-01,3.38836e-01,-7.86156e-02,3.04973e-03,3.60221e-02,-2.60513e-01,1.81502e-01,-9.16294e-02,-2.50887e-01,-4.80862e-02,-2.42488e-01,-1.35436e-01,3.09182e-01,1.80436e-02,-2.43085e-01,4.39730e-02,-2.48493e-01,-3.02380e-01,-2.40799e-01,1.64872e-01,
-2.33580e-01,
-7.04541e-02,
-1.56088e-01,
-5.54265e-03,
-2.57576e-01,
-1.26758e-01,
-2.96901e-01,
-4.33465e-03,
-1.59509e-01,
1.34182e-02,
2.10378e-01,
2.12281e-01,
1.43872e-01,
1.67337e-01,
2.33013e-01,
3.24276e-01,
-2.84825e-01,
-1.17764e-01,
3.61344e-01,
3.04304e-01,
-2.97968e-01,
-1.06701e-01,
3.51663e-01,
-3.09364e-01,
-3.03353e-01,
-2.57775e-01,-2.93790e-01,3.22943e-01,-9.57480e-03,1.77302e-01,1.87284e-01,-1.32066e-02,2.26347e-01,1.79832e-01,-2.01989e-01,3.15227e-02,-4.00531e-01,-2.16127e-02,1.48026e-01,3.22875e-01,1.79442e-01,2.62811e-01,-2.67462e-01,-2.56298e-01,-3.65544e-01,2.76727e-01,-3.94191e-01,2.61591e-01,-3.46084e-01,1.93111e-01,
2.25368e-01,3.41135e-01,4.08795e-02,1.74930e-01,4.38798e-02,-3.31703e-01,-4.42412e-02,4.24846e-01,-8.94244e-02,2.30453e-01,4.67652e-02,-4.53754e-03,9.73456e-02,-1.88158e-01,-1.31419e-01,-6.16440e-01,-4.20061e-02,1.41693e-01,-1.91683e-02,4.06162e-01,-1.24130e-02,2.69319e-01,1.65115e-01,1.48667e-01,2.07311e-01,
-2.02232e-02,-4.02136e-01,-1.97965e-01,-1.04688e-01,-1.45877e-01,-9.12113e-02,2.70723e-03,2.75162e-02,-1.97272e-01,-1.57074e-03,3.26241e-01,4.61565e-02,-1.61470e-01,-3.48979e-02,-1.95761e-01,1.30596e+00,-1.96803e-02,1.91650e-01,6.55928e-01,3.27565e-01,-3.20645e-01,1.97115e-01,-4.64770e-02,1.94433e-02,-3.18440e-01,
-2.50854e-01,-7.91222e-02,3.27235e-01,3.13499e-01,3.13898e-01,-2.81881e-01,1.51329e-01,-3.00380e-01,-1.26380e-01,-3.31925e-01,-4.25483e-02,1.74247e-01,2.14377e-02,1.80774e-01,2.23697e-01,6.73723e-03,-1.07293e-02,-2.37786e-01,2.31524e-02,-1.45909e-01,-3.45321e-01,-3.01880e-01,2.76905e-01,8.65468e-03,3.15370e-01,
6.73423e-02,9.16321e-02,-2.78859e-01,-1.23479e-01,-6.61724e-02,-3.35293e-01,3.51984e-01,2.79201e-01,-2.77397e-02,-6.05682e-02,-8.61504e-02,2.54677e-01,6.56372e-02,-6.22587e-03,3.17504e-01,-1.56052e-01,1.11190e-01,1.15099e-01,-1.55341e-01,-1.46228e-01,-1.12335e-01,4.52356e-02,4.43021e-01,1.65690e-01,-2.95265e-01,
1.55741e-04,4.99029e-02,-1.00692e-01,1.71769e-01,-1.49009e-01,2.33253e-01,-2.44878e-01,3.53334e-01,1.56291e-01,-2.63550e-01,3.38226e-01,3.54362e-01,-1.29545e-01,9.58834e-02,3.02597e-01,-7.02564e-02,3.36081e-01,3.89427e-02,1.03301e+00,2.62028e-01,1.46306e-02,-3.33697e-02,-9.37059e-02,2.12139e-01,-2.80318e-01,
8.73614e-02,6.04335e-02,1.71510e-01,3.22994e-01,6.12888e-02,2.73620e-01,-2.88397e-01,3.29377e-01,3.27291e-01,4.66453e-01,-9.60721e-02,3.43742e-01,-8.75459e-02,2.62384e-01,1.76914e-01,-5.26725e-01,2.15324e-01,2.60014e-01,-1.78015e-01,2.47016e-01,-1.60532e-01,2.47249e-01,1.17542e-01,-2.21628e-01,-2.10298e-01,
-1.26182e-01,1.76876e-01,2.93237e-01,-7.90285e-02,2.54450e-02,-6.87113e-02,-3.13358e-01,2.45217e-02,6.29365e-03,2.52213e-01,1.34666e-01,1.00974e-01,-5.52539e-02,-5.93177e-02,-2.18978e-01,5.90519e-01,-3.30428e-01,1.37414e-01,-1.18068e-01,3.73581e-01,-1.59422e-01,7.22436e-02,-4.28615e-01,3.40294e-01,-2.50844e-01,
2.46349e-01,-1.80996e-02,2.67779e-01,-3.34321e-01,-2.19254e-01,3.00719e-01,-2.74358e-01,2.26978e-01,-5.87532e-02,-2.25644e-01,1.81520e-02,9.20830e-02,-2.39392e-01,-3.30507e-01,2.96053e-01,2.93793e-01,-2.85914e-01,-9.90902e-02,-1.71312e-01,1.75516e-01,-5.49046e-02,3.26188e-01,-1.80380e-01,8.88000e-02,-7.95608e-02,
-1.95488e-01,-3.23702e-01,-3.11351e-01,-1.53225e-01,-3.25411e-01,-1.90781e-01,-1.31396e-01,1.42694e-01,-3.69837e-01,-1.49309e-01,2.89404e-01,-2.46126e-01,8.78175e-02,8.11794e-02,1.66164e-01,-7.67634e-01,1.26398e-01,-3.72262e-01,-1.69875e-01,-2.38539e-01,1.33254e-01,-6.96485e-02,1.97648e-01,-2.52912e-01,-3.16543e-01,
-1.56214e-02,7.49137e-02,-1.92568e-01,-1.40618e-01,1.20100e-01,2.48083e-01,-2.99919e-01,1.26861e-01,1.42684e-01,-1.39028e-01,2.57869e-01,2.89405e-01,4.77996e-02,-2.62809e-01,-2.40568e-01,-4.57691e-01,2.71392e-01,-2.34114e-01,-1.00902e+00,-1.44589e-01,-2.57149e-01,1.36262e-01,1.19158e-01,-1.85990e-01,-1.54619e-01,
1.12870e-01,9.88502e-02,-2.43263e-01,1.25694e-01,8.45681e-02,8.77260e-02,-7.52139e-02,1.88949e-01,1.96287e-01,1.61229e-01,-2.65245e-01,-9.84521e-02,1.67636e-02,3.37446e-02,-6.27482e-02,1.17606e-01,1.82401e-01,-1.58630e-01,-2.62306e-01,1.18404e-01,1.85278e-01,1.52072e-01,9.63984e-02,2.49556e-01,3.38356e-01,
-2.70838e-01,-3.59031e-01,-4.98465e-02,-8.96933e-02,-2.86172e-01,3.43600e-01,7.67933e-02,-3.01115e-01,1.38294e-01,1.47856e-02,2.51970e-01,-1.20888e-01,-2.18304e-01,-1.50378e-01,-2.52041e-01,1.37782e-01,-3.51274e-01,2.91540e-01,-1.07989e-01,-2.95796e-01,1.58153e-01,1.10538e-01,-2.96103e-01,2.42966e-01,2.79417e-01,
3.17988e-01,-2.30333e-01,2.03936e-01,-2.08482e-01,7.93602e-02,1.68340e-02,-4.78792e-02,1.13666e-01,-1.98934e-01,-1.08891e-01,-2.91268e-01,-3.52911e-01,2.81691e-01,2.35112e-01,-1.09212e-01,1.32808e-02,-8.27656e-02,6.33343e-02,2.39676e-01,1.76415e-01,-2.95639e-01,-1.96339e-01,-1.72697e-01,-2.88793e-01,2.72820e-02,
3.18939e-01,2.57773e-03,-2.85784e-01,2.08856e-01,-1.42098e+00,-1.31142e-01,-3.42713e-01,5.38499e-01,-3.12973e-01,3.74712e-01,-7.92439e-01,2.09251e-01,-2.84146e-01,-1.29048e-01,-1.00637e-01,-1.43209e-01,1.35381e-01,-2.89284e-01,-5.46599e-02,-4.68780e-02,-1.03024e-01,-3.54399e-01,-4.69482e-01,-1.05539e-01,2.99790e-02,
-3.07287e-02,4.24274e-03,1.42689e-01,3.05583e-01,-3.76500e-02,-1.28131e-01,-3.20696e-01,-1.03624e-01,1.73740e-01,-1.02472e-02,4.00275e-01,1.97335e-01,-9.48435e-02,-1.18836e-01,-3.32919e-01,8.81895e-01,1.24205e-01,-9.04173e-02,-6.65665e-02,4.60093e-01,-5.05739e-02,2.41642e-01,1.17486e-01,3.05659e-01,-2.89398e-01,
3.30542e-01,2.07770e-01,1.98786e-01,2.22540e-01,1.82001e-01,3.08555e-01,2.49746e-01,3.49588e-02,-5.73583e-05,8.32986e-02,-1.47294e-01,5.73535e-02,1.84238e-01,2.50077e-01,-6.54349e-02,-5.77290e-01,-3.10540e-01,-1.43035e-01,-5.02201e-01,-5.48083e-02,-1.82932e-01,1.44055e-01,3.95728e-01,9.38458e-02,-4.01378e-04,
2.76969e-01,1.26505e-01,-9.29506e-02,-6.81577e-02,-2.89838e-01,1.75657e-01,1.49324e-01,-1.48900e-02,3.14352e-01,-8.75208e-02,-1.77390e-01,9.16913e-02,1.76226e-01,-1.80936e-01,-3.40649e-01,3.18725e-01,9.99101e-02,2.22176e-02,2.16170e-01,-2.81034e-01,-1.28946e-01,-2.64439e-01,4.74838e-02,-7.54243e-03,8.80755e-02,
2.50855e-01,-3.05276e-01,9.76038e-02,1.89915e-01,5.93581e-02,3.18358e-01,3.41991e-02,1.89586e-01,-2.14264e-01,-1.33534e-01,-4.57112e-02,6.45401e-02,-1.20745e-01,-1.61562e-01,7.95760e-02,6.34884e-02,4.41782e-02,1.77186e-01,-1.64675e-01,-5.28842e-02,1.98774e-01,-1.27034e-02,4.00440e-01,1.34783e-01,-3.32382e-02,
2.28589e-01,-1.13079e-02,-3.16044e-01,-2.80243e-01,9.09665e-02,-2.19492e-01,-5.61460e-02,-1.10234e-01,4.45598e-02,3.26951e-01,9.94603e-02,1.89017e-01,2.22674e-01,-2.61953e-01,-2.21595e-01,-6.09995e-01,-1.16356e-04,-1.00228e-01,-3.11543e-02,2.82392e-01,2.69042e-01,-1.61934e-02,1.75659e-01,3.31989e-03,-1.11324e-01,
1.83548e-01,-4.42724e-01,-2.48697e-01,-7.72487e-02,-2.12654e-01,-2.32446e-01,1.14892e-01,-3.37134e-01,3.60048e-01,-1.69121e-01,3.37169e-01,-2.65546e-01,6.74958e-02,-1.71292e-01,-3.01778e-01,5.04457e-01,9.31409e-02,-7.65090e-01,1.80921e-01,5.67645e-02,1.65564e-01,2.78092e-01,5.28192e-02,-1.58419e-01,-1.24161e-02,
-3.04253e-01,-1.57252e-01,6.97163e-03,-1.06572e-01,-2.00592e-01,-2.68602e-03,-3.31869e-01,1.52629e-01,-5.17718e-01,-7.13371e-01,-1.65584e+00,4.12173e-01,1.69845e-01,3.07563e-01,1.45499e-02,1.72527e-01,-1.00865e-01,3.68389e-01,6.82357e-01,3.10136e-01,9.84076e-02,7.15251e-02,-3.54695e-01,-2.91098e-01,1.78976e-01,
-7.46590e-02,2.13071e-01,-1.54352e-01,-8.83307e-02,1.69643e-01,3.05345e-01,-1.80813e-01,1.00009e-01,-1.15357e-01,6.39508e-02,-4.51931e-03,1.27427e-01,-5.76112e-03,4.05869e-04,1.39231e-01,1.14865e-01,4.76356e-02,-3.13919e-01,2.62650e-01,1.21283e-01,1.34362e-01,-1.54637e-01,-3.10094e-01,-1.94299e-01,-3.10582e-01,
2.17092e-01,-1.22323e-01,-8.49496e-02,3.33408e-01,1.15780e-02,-3.25664e-01,-2.12467e-01,-2.80460e-03,-4.20833e-02,9.26503e-02,-2.64061e-02,4.88774e-02,5.32852e-02,-3.47244e-01,7.77984e-02,-8.05558e-01,-1.38355e-01,2.20854e-01,1.33924e-01,2.01567e-01,1.59816e-02,-3.34990e-01,7.03107e-02,4.61244e-02,-8.72159e-02,
-1.52942e-01,8.70773e-03,1.36544e-01,3.20126e-01,-1.94214e-01,2.76384e-02,7.34531e-02,-1.78049e-01,-1.94095e-01,1.03910e-02,2.28917e-01,-3.08546e-02,-3.10716e-01,-4.87910e-02,-2.35585e-02,-1.18688e-01,-1.11561e-01,2.75091e-01,-1.05647e-01,2.67841e-01,3.25167e-01,-2.83833e-01,2.53689e-01,-2.11060e-01,2.49509e-01,
-7.98697e-02,
1.90076e-01,
2.55309e-01,
-2.36832e-01,
-2.32455e-01,
-1.37108e-01,
-2.48338e-02,
-2.13887e-01,
-1.56939e-01,
1.81558e-01,
-2.36324e-01,
-3.94062e-02,
1.21619e-01,
-1.04161e-01,
2.86719e-01,
3.51902e-01,
-1.71112e-01,
-4.54304e-03,
-4.27875e-02,
-2.13662e-01,
2.15119e-01,
2.93426e-02,
-3.45121e-01,
2.78496e-01,
4.27162e-01,
-4.20702e-02,1.52608e-01,-5.57572e-02,2.16404e-01,2.16166e-01,-2.28221e-02,2.01390e-01,-8.98653e-03,-3.75117e-01,-2.09488e-01,6.45178e-02,3.02619e-01,-1.08905e-01,-6.20819e-02,-6.06199e-01,-1.95909e-02,-5.71683e-02,-4.05779e-01,-1.59399e-01,-2.32923e-01,-7.01694e-01,-2.77280e-01,-3.53004e-01,8.89906e-02,3.24514e-01,
3.83743e-01,3.24577e-01,-3.47329e-01,-2.91478e-01,1.90758e-01,-7.92041e-02,-1.91848e-01,3.70589e-01,4.43529e-01,-1.23267e-01,-2.85423e-01,-3.95693e-01,3.61304e-01,1.59677e-01,-5.13038e-01,4.17550e-02,-2.00136e-01,-8.90152e-02,3.26569e-01,2.65080e-01,-7.33884e-01,-3.11182e-01,3.16716e-01,-2.60758e-01,-3.87909e-01,
2.71535e-01,3.25006e-01,-4.76397e-02,-2.76699e-01,3.25453e-01,-2.69746e-01,-2.82457e-01,2.41928e-01,3.54075e-01,-2.58833e-01,-4.60124e-02,-2.66402e-01,9.88638e-02,-7.75340e-02,-6.65528e-01,-5.82617e-02,5.30374e-02,8.93860e-02,6.82048e-02,-7.23077e-02,-5.93407e-01,-3.55588e-01,1.67190e-01,2.19069e-01,-4.02102e-01,
1.53308e-01,4.18720e-02,-4.67890e-01,-4.22630e-01,3.76086e-01,-3.16414e-02,3.91087e-01,6.25461e-01,-3.42667e-01,-3.44548e-02,-6.12131e-02,1.94876e-01,3.17176e-01,2.78310e-02,3.28137e-01,-2.99087e-01,-4.44144e-01,2.39556e-01,-6.98334e-02,-4.73552e-01,-8.48823e-01,7.88910e-02,1.73523e-01,3.23022e-01,1.21298e-01,
2.24542e-01,-1.81681e-01,-5.01755e-01,1.11688e-01,2.20866e-01,-3.40859e-01,1.33527e-02,3.96637e-01,-2.46997e-02,-3.22039e-01,2.12911e-01,1.09581e-01,-2.18237e-01,4.01587e-03,-1.16376e+00,-2.54216e-01,-2.19785e-01,3.58619e-02,4.23277e-01,-2.19789e-01,6.00437e-01,-4.46441e-01,6.99055e-01,-2.74461e-01,2.05811e-01,
-6.07736e-01,
3.19475e-01,
2.59246e-01,
-6.31973e-02,
5.20038e-01,
