// Neural Network File Format by Kyle Julian, Stanford 2016
6,5,5,10,
5,10,10,10,10,10,5,
0,
-56000.000000,-56000.000000,-3.141593,200.000000,200.000000
56000.000000,56000.000000,3.141593,200.000000,200.000000
-278.628049,0.000000,0.000000,200.000000,200.000000,-0.242819
112000.000000,112000.000000,6.283185,1.000000,1.000000,17.479225
-2.57465e-01,-1.82686e-01,-2.91041e-01,4.87213e-01,5.19849e-01,
-3.23349e-01,-4.86149e-01,-7.07664e-01,-5.75285e-02,3.53032e-02,
-1.51130e+00,1.66621e+01,-8.36687e-01,-1.64898e-01,1.86544e-01,
3.65439e-03,1.15579e-01,-1.66554e-01,-2.28537e-01,1.06358e-01,
-2.80674e-01,2.62420e-01,-3.48626e-01,3.41266e-01,5.39178e-01,
2.62076e-02,3.66524e-01,6.36976e-02,2.89507e-01,5.56860e-01,
-5.17198e-02,-1.00217e-01,-1.49816e-01,-3.97968e-01,-1.03037e-02,
-5.61929e-01,-4.86912e-01,-5.73192e-01,5.17506e-01,1.56894e-01,
2.85621e-02,2.23578e+00,1.63607e+00,9.77783e-02,-5.90662e-01,
-6.66611e-02,-1.91698e-01,-8.08979e-02,-6.14246e-01,4.61133e-01,
3.13343e-01,
3.18112e-01,
2.58966e-01,
1.37037e-01,
5.16184e-01,
-2.98308e-01,
2.60895e-01,
-3.35253e-01,
-1.23833e-02,
5.56693e-01,
3.93005e-01,-2.77922e-01,1.29803e-01,4.13362e-01,-3.57104e-01,4.64196e-01,-3.78808e-01,7.58308e-03,1.21776e-01,-1.50720e-01,
2.07728e-01,1.20271e-01,-1.11535e+00,-5.05076e-01,6.12711e-02,1.67760e-01,-7.93353e-02,-3.06122e-01,1.80622e-01,-8.17328e-02,
-9.47522e-02,-1.46783e+00,1.10686e+00,1.31073e-01,-8.81625e-02,5.27148e-01,-6.78489e-01,-9.23697e-01,5.00450e+00,1.33717e-01,
1.86085e-01,-2.16536e-01,5.07892e-01,3.24149e-01,-5.22078e-01,4.46670e-01,2.30440e-01,6.28483e-02,7.97305e-02,-4.07298e-01,
-2.62927e-01,-3.97205e-02,-1.52047e+00,1.86818e-01,-3.43171e-01,-5.02022e-02,2.42071e-01,3.36307e-01,-1.54132e-01,-5.80982e-01,
1.41417e-01,-2.03913e-01,4.29519e-01,2.61945e-01,1.68695e-01,-3.04492e-01,-1.62822e-01,-1.94526e-01,-4.58003e-02,2.03123e-01,
-4.54778e-01,4.71205e-01,4.07568e-01,-3.31001e-01,-2.18868e-02,8.87730e-02,-3.14992e-01,1.42296e-01,5.14038e-02,-3.88854e-01,
-3.09704e-04,-2.07105e-01,-6.59458e-01,-4.01183e-01,3.87449e-01,-2.82483e-01,5.39363e-01,-8.65979e-02,-2.94906e-01,-4.00477e-01,
-4.10702e-01,3.08580e-01,5.04887e-01,3.04044e-01,-3.28973e-01,3.49711e-01,2.78387e-01,2.80294e-01,-1.76557e-01,7.07570e-02,
1.53393e-01,-1.75601e-01,6.07584e-01,3.89515e-01,-5.82172e-02,-2.18290e-01,-4.02105e-01,1.61778e-01,4.27319e-01,-1.02028e-02,
-2.10936e-01,
-5.21996e-01,
-1.50304e-01,
4.82543e-01,
-4.76643e-02,
-1.10354e-01,
4.80227e-01,
1.08819e-01,
5.67430e-02,
-3.77144e-01,
-4.33877e-01,-2.16065e-01,-4.59084e-01,-3.93023e-01,5.82382e-01,7.67255e-02,-5.47260e-01,1.08282e+00,-8.03902e-01,-3.69622e-01,
2.43936e-01,-2.66999e-01,-3.65935e-02,-6.52800e-01,-5.15430e-01,-2.11623e-01,-2.81958e-01,-1.39430e-01,2.65280e-01,5.98296e-01,
3.52925e-01,1.66358e-01,-4.16627e-01,1.31817e-01,-2.51244e-01,-3.06531e-01,2.04006e-01,1.86394e-01,-4.17762e-01,-3.32306e-01,
5.20436e-01,7.33061e-01,-3.79750e-01,-2.84596e-01,-7.25184e-01,-2.55922e-01,-7.82737e-01,-2.30439e-01,2.27135e-01,-3.41706e-01,
-6.32616e-01,3.63168e-01,-9.31874e-01,-1.79380e-01,-5.11586e-01,2.94260e-01,2.01587e-01,-5.44708e-01,3.37635e-01,-1.84436e-01,
9.86689e-02,-3.19332e-02,4.98940e-01,8.12725e-03,3.01531e-01,4.50799e-01,1.81065e-01,-8.49923e-01,-5.20548e-01,-5.74575e-02,
-4.40432e-01,-3.93192e-01,-4.22768e-01,-2.18405e-01,-3.78178e-02,3.37361e-01,3.99876e-01,-4.20573e-01,1.04095e-01,-2.24433e-01,
3.68838e-01,2.82575e-01,3.58610e-01,-2.45850e-02,-5.19934e-01,-2.37789e-01,-2.43725e-01,-2.75777e-01,-4.07500e-01,-1.46642e-01,
-4.43877e-01,1.84985e-01,-5.33977e-01,9.81288e-02,-4.27365e-01,-1.00349e-01,-2.95006e-01,8.70664e-02,-9.22450e-02,-8.26690e-02,
4.94783e-02,-3.98498e-01,-4.33476e-02,-1.14175e-01,-2.56597e-01,-2.02936e-01,7.41298e-02,-6.83791e-02,3.27778e-01,4.64367e-01,
4.86634e-01,
-6.55901e-01,
-4.81176e-02,
-6.35124e-01,
3.61207e-01,
5.26390e-01,
2.81568e-02,
1.91320e-01,
9.24109e-02,
4.13731e-01,
5.40987e-01,1.59102e-01,4.16730e-01,-4.18756e-01,7.94021e-02,-4.51250e-02,3.63561e-01,2.57157e-01,-3.01044e-01,-3.17331e-01,
-1.25088e+00,7.26185e-02,-1.15700e+00,-1.07315e+00,1.08755e+00,7.47513e-01,-6.16262e-01,1.50846e+00,-3.23896e-01,1.57574e-01,
-8.78619e-02,-4.50811e-01,3.33642e-01,-2.65108e-01,2.50374e-01,-1.43611e-01,-4.26760e-01,2.04982e-02,-4.61549e-01,2.86452e-01,
4.18698e-01,-3.74824e-01,2.29573e-01,2.28043e-01,1.40166e-01,2.32162e-01,1.58749e-01,2.32585e-01,4.93515e-01,-2.73954e-01,
-7.02795e-02,-4.06092e-01,5.26362e-01,3.69163e-02,4.12124e-01,1.99899e-01,2.12896e-02,-2.39299e-01,8.09049e-02,-1.45341e-01,
5.70315e-01,-5.93801e-02,1.87733e-02,1.90465e-01,2.79289e-01,5.33320e-01,-2.39138e-01,-6.82390e-01,-2.91977e-01,2.95955e-01,
-3.02909e-01,-2.66929e-01,-4.55988e-01,1.47689e-01,3.54463e-01,-3.05350e-01,2.94412e-01,4.07844e-01,-4.48397e-01,-4.42188e-01,
-2.56453e-02,5.91626e-01,-1.40239e-01,5.42206e-01,-7.53862e-01,-3.14301e-01,5.56147e-01,3.78340e-01,-2.41634e-01,4.69204e-01,
-4.62892e-01,2.95668e-01,-9.09868e-02,4.59899e-01,-3.74543e-01,-1.83472e-01,4.02934e-01,-1.42204e-01,1.20822e-01,-4.21505e-02,
-1.43945e-01,2.27465e-01,1.38051e-01,4.55783e-02,-5.43807e-01,-2.46831e-01,2.54622e-01,1.94671e-01,4.17538e-01,-2.36433e-01,
-5.26529e-01,
3.19619e-01,
-1.29253e-01,
1.61138e-01,
7.67414e-03,
1.28087e-01,
-4.00099e-02,
3.37431e-01,
-2.28197e-01,
4.44636e-01,
2.79729e-01,-3.34832e-02,9.44548e-01,-5.58932e-01,6.95510e-02,-1.50522e-01,2.20919e-02,-2.20627e-01,3.11044e-01,-2.30571e-01,
-7.34371e-02,9.25566e-02,3.81199e-01,-3.45282e-01,6.25499e-02,1.68647e-01,3.23400e-01,2.00083e-02,-1.54648e-01,-5.01884e-01,
-5.61144e-01,7.34024e-02,4.38077e-01,2.94715e-01,-1.67524e-01,4.67849e-01,-3.24284e-01,2.39934e-01,-4.01959e-01,-1.27680e-01,
2.77950e-01,-5.63663e-01,1.00659e-01,-3.81098e-01,-2.16842e-01,-2.03842e-01,-3.13715e-01,-6.48620e-02,-3.22791e-01,-2.51546e-03,
-7.81339e-01,1.84510e-01,-2.94703e-01,4.53885e-01,3.75463e-01,3.98916e-01,1.32276e-01,2.61944e-01,-4.97905e-01,1.27396e-01,
3.79211e-01,1.90079e-01,6.13291e-02,5.04523e-01,8.48879e-02,-5.57174e-01,6.85509e-01,6.78145e-01,2.38118e-01,2.15488e-01,
-6.95065e-01,-4.35304e-01,9.19733e-01,1.10978e-02,-3.36881e-01,-7.89183e-02,-3.22012e-01,-5.47741e-01,4.43853e-02,-1.95360e-01,
-3.52525e-01,2.64843e-01,-5.46935e-01,6.37958e-01,-4.56302e-02,3.60387e-01,1.58427e-01,6.37720e-01,-4.29536e-01,5.67140e-01,
-3.83307e-01,-6.00190e-01,-1.59772e-01,5.24887e-01,-2.30142e-02,7.32685e-03,4.59810e-01,1.43058e-01,7.54071e-02,-1.02441e-03,
-3.23444e-01,1.11187e+00,-9.26315e-01,6.34826e-01,2.35475e-01,-5.25694e-01,1.06179e+00,5.28050e-01,-7.19859e-01,4.56021e-03,
-5.18260e-01,
-3.25655e-01,
2.21344e-01,
1.19607e-01,
9.96447e-02,
-2.12574e-01,
-1.81619e-02,
2.47653e-01,
3.63656e-01,
-6.77368e-02,
3.47374e-01,5.47168e-01,-2.45511e-01,8.51621e-01,2.12029e-01,-5.23573e-01,-9.60483e-02,1.82684e-01,-8.32350e-01,-1.30699e-01,
4.78899e-01,2.19932e-01,-4.71556e-01,7.01296e-01,4.01957e-01,-4.76459e-01,5.87630e-01,5.68331e-01,-3.52531e-01,2.23412e-01,
-4.81706e-01,4.49952e-01,-2.77921e-01,-2.36571e-01,-1.85646e-01,8.33329e-02,4.91653e-01,3.43933e-01,-5.49743e-01,-4.76112e-01,
5.23982e-01,8.77818e-02,2.44843e-01,1.05073e+00,1.44496e-01,-6.03681e-01,4.00498e-01,-1.77887e-02,1.26811e-01,7.17054e-01,
-3.13718e-01,1.67295e-01,7.24884e-02,-4.09503e-01,2.07557e-01,3.39650e-01,9.56834e-02,-2.26247e-01,-8.19384e-01,-7.32894e-01,
3.81701e-01,
-3.31034e-01,
1.07337e-01,
-5.63397e-01,
3.52894e-01,
