// Neural Network File Format by Kyle Julian, Stanford 2016
6,5,5,25,
5,25,25,25,25,25,5,
0,
-56000.000000,-56000.000000,-3.141593,200.000000,200.000000
56000.000000,56000.000000,3.141593,200.000000,200.000000
-278.628049,0.000000,0.000000,200.000000,200.000000,-0.242819
112000.000000,112000.000000,6.283185,1.000000,1.000000,17.479225
2.11547e-01,1.08453e-01,-3.10539e-01,2.28534e-01,2.49714e-01,
8.72766e-01,-2.35217e-01,-3.55837e-01,1.81711e-01,3.32794e-01,
5.84416e-01,4.59935e-01,-6.01121e-03,-2.38364e-01,1.74736e-01,
-6.11868e-01,-9.79489e-01,4.11235e-01,1.54011e-01,1.91630e-01,
1.42664e-01,-1.87736e-01,-5.83557e-02,-2.18901e-01,-4.11963e-01,
-2.58598e-01,1.21805e+00,-2.37714e-01,-2.84617e-01,-6.52297e-02,
4.28082e-01,1.75893e+00,6.66698e-01,-3.09491e-01,-2.36988e-01,
-2.94644e-01,-5.03110e-01,3.95998e-01,1.30372e-01,-1.68107e-01,
-2.77114e+00,-2.57813e-01,2.66851e-03,1.96989e-01,-1.31469e-01,
4.43344e-01,-9.78291e-01,-1.71148e-02,-1.03053e-01,1.94937e-01,
-9.21359e-02,3.65446e-01,2.49224e-01,2.92511e-01,1.22275e-01,
5.53808e-02,1.60748e-01,3.43639e-01,-9.01161e-02,1.64880e-01,
8.33270e-01,-5.17358e-01,1.99203e-01,-1.61045e-01,-2.45463e-01,
8.29179e-01,-1.92579e+00,1.77160e-02,-3.34252e-01,3.18763e-01,
3.70064e-01,2.42904e-01,2.81844e-02,-2.95444e-01,2.29177e-01,
7.18745e-02,-2.54167e-01,-1.76108e-02,2.10510e-01,-2.05191e-01,
4.61727e-02,-2.88858e-01,-1.20089e-01,-3.15429e-01,2.60873e-01,
4.08288e-01,7.75135e-01,1.58925e-02,1.66183e-01,-1.71338e-01,
-1.22281e+00,5.52283e-01,4.93114e-01,-1.66388e-01,4.35920e-01,
4.15966e-01,-7.57490e-01,2.21582e-02,-3.14528e-01,4.34443e-02,
-3.02594e-01,-3.38113e-01,1.03664e-01,1.53941e-01,1.31878e-01,
-4.19469e-02,-1.88392e-01,-6.14016e-02,1.35476e-01,-7.52977e-02,
-2.85788e-01,-1.33725e+00,-2.02161e-01,4.35504e-01,1.18852e-01,
-2.77470e-01,-4.35014e-01,-2.78443e-01,-3.81220e-01,-2.09597e-02,
-1.95082e-01,-1.19357e-01,-1.02991e-01,-2.08781e-01,-1.75061e-01,
1.23350e-01,
1.48846e-01,
-7.70654e-02,
-1.60160e-01,
-2.23899e-01,
-8.25393e-02,
2.03280e-02,
3.33163e-02,
6.68995e-03,
-1.78891e-01,
1.34972e-01,
-2.59576e-01,
-7.97834e-02,
9.84950e-04,
-2.69167e-01,
-3.01593e-01,
-2.24920e-01,
9.41259e-02,
-5.51831e-03,
5.09663e-02,
1.07713e-01,
-2.21839e-01,
2.20093e-01,
2.21946e-01,
-2.96135e-01,
-4.77506e-02,3.76888e-01,3.50462e-01,4.11728e-01,-1.66941e-01,-6.64722e-02,1.76108e-01,-4.75412e-01,2.01644e-01,-1.41720e-01,-4.22237e-01,2.14373e-01,-2.60929e-01,3.77894e-01,-1.74392e-01,-3.10120e-01,1.84340e-01,-3.10002e-01,8.38583e-01,-7.81214e-02,-2.54193e-01,-1.20146e-01,1.27018e-01,3.16956e-01,-2.87593e-01,
-1.03005e-01,1.18203e-01,-1.23459e-01,-2.18704e-01,2.42144e-01,1.43634e-01,1.33526e-01,-1.84273e-01,-4.03098e-01,4.58165e-01,8.25651e-02,-1.63144e-01,-1.48307e-01,-5.54530e-01,1.23007e-02,-1.89040e-01,-3.00541e-01,-1.37178e-01,1.31525e-01,6.07472e-01,-2.99785e-01,-2.19575e-01,2.05569e-01,-2.37764e-01,1.71066e-01,
2.02841e-01,1.44094e-01,4.43063e-01,-7.46695e-02,1.54415e-01,-3.61154e-01,2.43058e-01,3.84509e-01,-1.90693e-01,2.54904e-01,9.18815e-02,2.53734e-01,-2.69160e-01,-1.69423e-01,7.83516e-02,-3.40860e-02,-2.30777e-01,-3.86311e-01,-4.50669e-01,4.06883e-01,1.73942e-02,-3.04672e-01,-2.31835e-01,-1.69393e-01,-3.14726e-01,
-4.49335e-02,1.11816e-01,-2.03602e-01,-2.83909e-01,-1.47042e-01,-2.31499e-01,-1.97365e-01,-4.10478e-02,9.89691e-04,2.96288e-01,1.02761e-01,8.96139e-02,3.14691e-01,-2.79998e-01,-1.83301e-02,-2.22064e-01,-1.37221e-01,5.26424e-02,2.12862e-01,1.27295e-01,-1.79841e-01,4.92090e-03,-1.43683e-01,-8.23297e-02,1.18020e-01,
-7.56448e-02,-2.21674e-01,1.38446e-01,2.21893e-02,1.10151e-01,1.57532e-01,-1.91096e-01,-2.63763e-01,-1.85150e-01,-2.84217e-01,2.55345e-01,1.81767e-01,-3.18491e-01,-3.00348e-02,-2.08657e-01,2.14762e-01,5.56377e-02,2.44094e-01,2.31934e-01,-4.43429e-04,-1.76304e-01,3.36509e-01,9.80136e-02,-2.01130e-01,-1.39292e-01,
-4.84568e-02,2.52562e-02,2.53236e-01,-3.08260e-01,3.24658e-01,1.08550e-02,-1.01461e-01,-8.67889e-02,1.45288e-01,-3.14257e-01,-2.30426e-01,5.36221e-02,-1.28476e-01,9.46664e-02,-2.19285e-01,3.24869e-02,1.36353e-01,8.13613e-02,1.22276e-01,1.46814e-01,-1.61168e-01,-5.37625e-03,-8.15196e-02,1.90786e-01,7.05756e-02,
-2.05139e-01,4.79775e-01,-2.07551e-02,9.09468e-01,3.38738e-01,8.18096e-02,-3.97659e-01,-1.21809e-01,3.22350e-01,2.21265e-02,-1.98744e-01,-2.96996e-01,-3.05394e-01,-1.97281e-01,-3.17003e-01,-1.09603e-01,2.59135e-01,-1.27823e-01,-4.20463e-01,1.45324e-01,-9.89555e-03,5.66767e-02,1.41090e-01,-1.83239e-01,-4.29724e-02,
-3.05254e-01,1.44736e-01,-7.64242e-02,-1.31613e-01,2.19064e-01,-3.29711e-01,-2.68929e-01,3.06356e-01,-1.48697e-01,-1.67231e-01,-3.12195e-01,1.84293e-01,-2.74484e-01,5.53861e-03,-1.69697e-01,2.90594e-01,-2.52722e-01,6.96416e-02,-8.17852e-02,2.88207e-01,-2.43527e-01,1.40097e-01,-2.78053e-01,1.63619e-01,-2.74762e-01,
9.11236e-04,-1.50386e-01,-7.01205e-02,-2.74010e-01,8.45340e-02,-3.33402e-01,-2.50864e-01,1.80676e-01,-1.21884e-01,-3.26784e-01,-4.71727e-02,-6.75713e-02,-2.15932e-01,4.60720e-02,3.03441e-01,-1.14326e-01,-1.34860e-02,-4.87494e-02,1.17326e-01,-2.47342e-01,-5.02180e-02,-2.83406e-01,-1.26057e-01,-2.39614e-01,2.92985e-01,
2.75815e-02,4.64859e-01,-2.65069e-01,-4.37667e-01,-3.40970e-01,-5.52982e+00,-7.71447e-01,3.15901e-01,1.28956e-01,-6.69742e-02,3.78295e-02,-4.64305e-02,-8.32640e-01,1.54445e-01,-2.50888e-01,2.66123e-03,7.19233e-02,2.94217e-01,-4.69854e-01,1.75250e-01,-3.19128e-01,-6.93976e-02,3.69569e-01,-2.09466e-01,-2.19911e-01,
-7.28367e-02,-3.17795e-01,3.00409e-01,2.02941e-01,-1.69518e-01,-2.64616e-01,-3.67890e-01,-1.91131e-01,-7.51504e-01,6.16368e-02,5.00619e-02,1.73223e-03,-2.54691e-02,-2.20304e-02,1.30099e-02,3.20429e-01,-1.49513e-01,-1.98054e-01,5.66821e-01,3.22466e-01,7.30871e-02,-3.94529e-02,-1.24304e-01,-1.79756e-01,-2.64937e-01,
-1.79025e-01,8.64013e-02,1.03596e-02,1.88622e-01,2.81054e-02,2.11368e-01,-7.98889e-02,8.08912e-02,9.77772e-02,2.37078e-01,6.33551e-02,3.12433e-01,2.87284e-02,-1.62864e-01,-3.36378e-01,3.16282e-01,2.58253e-01,-3.07074e-02,-7.50943e-02,1.71294e-01,-8.94685e-02,-2.92624e-01,7.25601e-02,8.50433e-02,1.41407e-01,
-8.01846e-02,4.98853e-02,5.36877e-02,-3.18269e-01,8.06049e-02,2.61729e-01,-8.70168e-04,-1.16973e-01,-1.21861e-01,-2.43195e-01,1.83533e-01,3.02895e-01,-3.12638e-01,-6.99549e-02,1.15767e-01,-2.17189e-01,-2.59300e-01,-3.21438e-01,-5.67076e-02,-2.67585e-01,-2.14477e-01,-2.15841e-01,-1.74746e-01,-9.18469e-02,-5.38386e-02,
-3.68893e-01,-2.34440e-01,3.73128e-01,-1.14481e+00,-5.01603e-02,-6.26486e-01,-5.01905e-01,3.20237e-01,-3.41886e-01,-5.91012e-01,3.40136e-01,-2.80041e-01,5.36197e-01,-3.54403e-01,1.80747e-01,3.15119e-01,8.22774e-02,1.77908e-01,-6.95768e-01,-5.02042e-02,4.76518e-02,-2.53272e-01,5.82167e-02,-1.87709e-01,-1.28835e-02,
1.49434e-01,-1.30213e-01,1.06753e-01,-9.60778e-02,-2.04511e-01,-8.55843e-01,2.07150e-01,4.78822e-01,-6.51416e-01,4.26771e-01,1.33070e-01,-3.63940e-01,2.71273e-01,-3.30506e-01,2.00736e-01,-1.82454e-01,-6.97619e-02,-3.38269e-01,6.05946e-01,-2.10450e-02,2.04495e-01,-7.23673e-02,-2.09059e-01,1.66863e-01,-1.77006e-02,
4.53655e-01,2.55573e-01,-5.16905e-01,3.91747e-01,2.48198e-01,-3.11610e-01,1.20804e-01,3.74412e-01,4.77270e-01,4.87853e-02,1.49392e-01,-2.80847e-01,-3.16169e-01,1.88264e-01,3.20890e-01,-2.00541e-01,-8.41696e-02,2.30546e-01,-5.28256e-02,-6.38013e-03,-4.56310e-01,-1.29193e-01,-3.91747e-01,2.01037e-01,1.70214e-01,
2.09044e-01,1.97428e-02,7.05947e-02,-3.57140e-01,-9.31745e-02,6.72273e-01,1.01943e-01,7.83541e-02,1.04652e+00,-5.99350e-01,2.51699e-01,-3.17917e-01,-1.74011e-01,1.04932e+00,2.63306e-01,1.32416e-01,2.60753e-01,-3.66239e-01,-6.08921e-01,1.75767e-01,1.83267e-01,-8.91966e-02,-1.21216e-01,-2.30267e-01,-2.65779e-01,
3.31587e-02,1.23119e-01,-4.38956e-01,2.92460e-02,4.69798e-02,3.58631e-01,6.08623e-01,-6.84116e-01,-1.19706e-01,9.34186e-02,-2.90359e-01,1.56063e-02,-7.55693e-01,3.80017e-01,-7.52102e-02,-1.50142e-01,-1.51453e-01,3.90908e-01,-2.72045e-01,-4.22825e-01,-7.21449e-02,-1.44525e-01,-3.72822e-01,-3.34114e-01,-2.45490e-01,
1.03755e-01,-5.58154e-02,6.69101e-02,-2.67321e-01,-2.65992e-01,-1.19908e-01,-1.06784e-01,-4.06679e-01,-2.66350e-01,9.16812e-02,1.25519e-01,7.37719e-02,2.35148e-01,2.45341e-01,1.25317e-01,-1.03012e-01,-2.37914e-01,-2.37807e-01,1.98530e-01,6.59333e-02,1.07972e-01,2.45398e-01,-1.44920e-01,2.29263e-01,-2.29273e-01,
-8.25885e-02,8.86849e-03,-2.51632e-02,2.67366e-01,2.81358e-01,-5.46552e-01,-4.35864e-02,3.21471e-01,6.76727e-01,-2.43012e-01,1.40062e-01,-1.52308e-01,-2.83415e-01,1.91564e-01,-1.96001e-01,-2.51846e-01,-2.38869e-01,9.94250e-02,-1.76511e-01,-6.93476e-02,-1.82313e-01,-9.48939e-02,2.58338e-01,1.33282e-02,-1.89431e-01,
1.23135e-01,-2.70158e-01,-1.82872e-01,1.57558e-01,4.29751e-02,-4.62360e-01,-3.76507e-01,-9.82230e-02,-1.01156e-01,-3.51932e-01,8.66468e-02,2.17881e-01,-1.60057e-02,2.96617e-01,-2.40701e-02,-8.78029e-02,-2.20045e-03,1.08231e-01,3.11850e-01,3.11117e-01,-3.62300e-01,2.34831e-01,-2.67233e-01,2.06932e-01,-8.21719e-03,
3.32390e-01,-5.93640e-02,3.18897e-01,-3.88363e-01,-2.01056e-01,-2.27617e-02,1.72098e-01,5.31785e-01,6.52842e-01,-3.67456e-01,1.71830e-01,2.85187e-01,-3.37229e-02,5.36568e-01,-1.34949e-01,-1.45819e-01,-3.23059e-01,5.75034e-02,-1.01182e-01,4.19590e-02,-8.21958e-02,2.71021e-01,1.87538e-01,2.79244e-01,-2.92588e-01,
2.55642e-02,-2.04088e-01,-2.50332e-01,5.00380e-01,2.23417e-01,-7.53891e-02,-1.17808e-01,-1.69224e-02,4.03219e-01,3.94608e-02,2.83304e-01,1.38725e-02,-1.38321e-01,4.45265e-01,2.55270e-01,9.96287e-02,1.40671e-01,5.88407e-02,9.49154e-03,1.88314e-01,-3.31084e-01,9.89855e-02,-3.71402e-01,2.72735e-01,-2.36364e-01,
2.67525e-01,2.84902e-02,-7.20487e-02,3.38820e-01,3.37276e-01,-3.36193e-01,1.61103e-01,2.09898e-01,-7.08857e-01,-2.22305e-01,-8.68042e-02,-7.74325e-02,8.36684e-01,-5.73217e-01,-2.18138e-01,3.13237e-01,2.49312e-01,-3.52748e-01,1.03437e-01,-3.69200e-01,-1.96034e-01,1.81218e-01,-1.58263e-02,2.87230e-01,3.46265e-01,
-1.29892e-01,2.39354e-01,-4.48711e-01,-1.29886e-01,-1.92170e-01,-7.90528e-02,-1.88676e-01,1.41613e-01,-6.96867e-01,2.28382e-01,2.22489e-01,1.72213e-01,1.60838e-01,-4.42954e-01,-2.44345e-01,-8.27398e-02,1.28458e-01,-1.01170e-01,5.85956e-02,-1.02820e-01,8.47720e-02,2.96311e-01,-5.24717e-02,-5.69903e-02,3.99060e-02,
-5.47994e-02,
2.12736e-01,
4.26935e-02,
-4.85536e-02,
-2.60029e-01,
-2.28136e-01,
4.43407e-02,
-3.34629e-01,
-2.38677e-01,
-2.56908e-01,
2.38155e-01,
-2.58177e-01,
-1.62431e-01,
9.65457e-02,
1.56265e-01,
-1.26293e-01,
5.28189e-02,
1.69565e-01,
-3.08248e-01,
8.39768e-02,
2.72222e-01,
-2.05450e-01,
8.01324e-02,
1.58006e-01,
2.63684e-01,
2.94073e-01,-2.22847e-01,-7.19174e-02,2.76252e-01,-2.73018e-01,-1.07411e-01,-1.02840e-01,2.87247e-01,5.54901e-03,1.22887e-01,-1.31809e-01,2.13341e-01,1.14146e-01,2.25674e-01,-1.70345e-01,-5.58871e-02,-1.18172e-01,2.19315e-01,4.98780e-02,-1.34130e-01,-1.19239e-01,-4.14742e-01,5.84259e-01,6.95327e-02,-3.05488e-02,
-1.31392e-01,2.85049e-01,1.96847e-01,-2.51075e-01,2.29497e-01,-3.07299e-01,1.45913e-01,1.83941e-01,2.00214e-02,-5.86222e-02,-2.20818e-01,-3.61933e-02,-1.08500e-01,-1.52317e+00,4.75615e-02,-6.48682e-02,2.96478e-02,-9.27644e-02,-2.69326e-01,-1.48715e-01,3.33557e-01,1.68553e-01,-1.88357e-01,-1.46915e-01,1.36276e-01,
-3.26783e-02,2.91456e-01,4.60928e-01,2.79949e-01,7.96441e-02,-2.89291e-01,8.55216e-02,-1.92701e-01,-3.24356e-01,-4.78622e-02,6.94927e-02,1.05240e-01,-2.70116e-02,-1.26525e-01,-6.30201e-02,-2.61450e-01,-1.42630e-01,2.40939e-01,-1.28744e-01,4.33272e-02,9.37916e-02,3.79276e-01,1.61039e-02,-4.03038e-01,1.58118e-02,
-5.61755e-02,-3.23351e-01,-1.35652e-01,-2.85090e-01,-2.15676e-01,2.37519e-01,1.31079e-01,-7.59074e-03,-2.69687e-02,-1.69243e-01,2.36934e-01,-1.70864e-01,1.38583e-01,4.00061e-01,-2.26166e-01,3.47382e-02,3.58488e-01,8.28483e-01,-2.56532e-01,-9.43506e-02,-4.33589e-02,-2.24963e-02,1.90892e-01,-3.34140e-01,-1.02521e-01,
-2.17128e-01,-2.55082e-01,-4.30286e-02,3.07671e-01,-2.96527e-01,2.15027e-01,1.23567e-01,6.22631e-02,2.56228e-02,2.56801e-01,2.54650e-01,9.14548e-02,-2.46394e-01,4.60556e-01,1.01064e-02,4.48706e-01,-1.98774e-01,-1.04668e-02,-2.44390e-01,-3.46909e-01,1.77879e-01,4.18439e-01,-1.60605e-01,-3.73640e-01,-1.38125e-01,
-5.46672e-01,-4.18241e-01,2.44921e-01,2.08012e-01,-2.90715e-02,3.02620e-01,7.33014e-02,-2.95550e-01,2.41264e-01,6.59964e-01,1.82472e-01,-3.01013e-02,3.17216e-04,-1.14869e+00,2.93496e-01,5.59569e-02,1.73008e-01,-1.43741e+00,-1.15307e-01,1.20374e-01,-2.67256e-02,3.41669e-02,2.97295e-01,2.84810e-01,-1.71480e-01,
-1.47270e-01,2.03819e-01,1.27038e-01,6.13527e-02,1.87427e-01,-3.03271e-01,3.07118e-01,-9.04658e-02,-1.99135e-01,-1.80571e-01,-2.46169e-01,1.54774e-02,-2.80116e-01,-1.36781e-01,-3.07382e-02,-6.69737e-02,5.20643e-02,-2.93838e-01,-2.51357e-01,-2.02169e-01,-3.14984e-01,7.75888e-02,-2.07358e-01,1.08510e-01,1.75503e-01,
-1.10149e-01,-3.30975e-01,-4.26385e-02,1.10546e-02,-2.59221e-01,-2.69676e-01,-3.42242e-01,1.25673e-02,2.24270e-02,2.45232e-01,-1.46585e-01,-1.38172e-01,2.86695e-01,-2.82439e-01,3.10883e-01,7.74771e-02,3.01826e-02,-2.99469e-01,3.32361e-03,1.79929e-01,7.34721e-02,-3.07852e-01,-6.69543e-02,2.00411e-01,1.53553e-03,
1.46870e-01,-1.80357e-01,-1.11149e-02,6.45929e-02,3.07526e-01,-3.10950e-01,-1.57544e-01,-7.37970e-02,2.60700e-01,3.19318e-01,-2.20200e-01,1.10487e-02,-2.81716e-01,1.45421e-01,9.76769e-02,-8.90361e-02,-2.66275e-01,2.64827e-01,1.69343e-01,6.11674e-02,1.59973e-01,-3.08347e-01,-2.63381e-02,-7.05445e-02,-3.10733e-01,
-3.47778e-01,1.70328e-01,4.99069e-01,-2.37726e-01,-1.45214e-02,-1.87723e-01,2.69693e-01,-1.96342e-01,2.45773e-01,1.32818e-01,-1.31934e-01,-2.33976e-01,-2.43053e-01,-3.48603e-01,-2.50091e-01,6.61920e-01,-1.72489e-01,-4.81201e-01,1.00171e-01,-1.74140e-01,1.13030e-01,4.45865e-01,2.25317e-02,1.33315e-01,3.03557e-01,
-3.57914e-01,1.46635e-01,1.99488e-01,-1.27123e-01,-2.29502e-01,-6.23692e-02,-2.61155e-01,1.85675e-01,-5.35354e-02,6.06242e-01,2.75093e-03,-3.05149e-01,-1.14155e-01,4.95870e-01,1.45336e-01,2.19524e-01,-6.64499e-02,-4.13907e-01,-1.44965e-01,-2.15511e-02,2.88486e-01,1.50837e-01,-1.03113e-01,2.57116e-02,2.83788e-01,
2.64286e-02,-1.98464e-01,1.95213e-01,-3.24936e-01,-2.10723e-01,-3.39174e-01,1.47629e-01,-2.18892e-01,1.82568e-01,-7.71973e-01,2.03467e-01,2.28305e-02,-2.60546e-02,2.06087e-01,-2.29885e-01,5.12535e-01,3.45824e-01,3.69234e-01,2.87776e-01,8.61374e-02,-4.62487e-01,2.86704e-01,-1.22997e-01,-7.34576e-02,-5.24284e-01,
3.31267e-01,2.13445e-01,3.49953e-01,-5.20131e-02,-2.22827e-02,8.69876e-03,-4.24021e-01,6.32235e-02,-2.73702e-01,-5.46532e-01,-4.25621e-01,-3.02402e-01,-2.89315e-02,1.06546e-01,-1.03088e-01,-3.66019e-01,3.34604e-01,-2.95050e-03,-2.03080e-01,-7.29293e-02,-1.47804e-01,-7.02196e-01,-1.18213e-01,-2.60283e-01,-2.60310e-01,
-1.31439e-01,-7.23751e-02,-1.96379e-01,2.53550e-01,-2.46551e-01,2.18043e-01,9.68460e-02,-2.93613e-01,-1.29559e-02,-7.85590e-02,-1.54811e-01,-2.85295e-02,-7.13263e-02,-6.76428e-01,-3.21228e-02,-1.40500e-01,2.84667e-01,5.93127e-01,1.35065e-01,2.49792e-01,2.13963e-01,-5.19088e-02,3.49914e-01,-1.08804e-01,-1.23499e-01,
-3.99037e-02,7.83393e-02,2.61525e-01,3.37929e-01,-5.56903e-02,-2.02643e-01,2.92286e-01,1.79297e-01,7.65438e-02,-6.38972e-02,-4.05110e-02,1.26542e-01,-1.41370e-01,-3.74506e-02,-6.09642e-02,-2.28513e-01,-3.37743e-01,-2.60381e-01,-1.55126e-01,-3.22068e-01,2.63191e-01,-2.18226e-01,-4.97543e-02,-1.49136e-01,1.91222e-01,
-5.06262e-01,2.49550e-02,-1.07871e-01,2.17734e-01,2.84296e-01,3.08034e-01,1.49567e-01,-4.09759e-02,-2.06818e-01,4.42963e-01,-2.33351e-01,2.65735e-01,-9.98086e-02,-3.07063e-02,-3.93233e-02,6.98090e-01,-7.38316e-02,-3.02832e-01,3.27533e-01,1.11337e-02,1.67107e-02,4.31121e-01,-1.51231e-01,1.39442e-01,3.09813e-01,
8.80266e-02,-2.39076e-01,1.18939e-01,-2.28075e-01,2.42686e-01,-1.04583e-01,-2.91401e-01,3.25155e-01,2.16523e-01,-1.96972e-01,8.50336e-02,-3.22487e-01,3.34198e-01,-2.34048e-01,-3.26789e-01,1.98648e-01,-1.43792e-02,-8.26843e-02,3.16021e-01,-1.20766e-01,-1.32111e-02,-2.06015e-01,-3.11408e-01,7.17836e-02,-5.50461e-02,
4.64488e-01,-3.19979e-01,-3.44388e-01,-1.77048e-01,-8.51356e-02,2.73886e-02,1.29110e-03,6.94448e-02,2.65330e-01,-8.37710e-01,-1.32788e-01,-1.89479e-01,-2.96817e-01,6.68972e-01,-3.14682e-01,-2.50480e-01,-2.76992e-01,2.30421e-01,-2.57140e-01,-3.57310e-01,5.60382e-02,4.20926e-01,-2.30620e-01,-3.37350e-02,1.48166e-01,
2.00259e-01,-2.94552e-01,-1.83826e-01,2.43071e-02,1.07909e-01,2.07569e-01,-3.59184e-01,-7.60766e-02,2.51204e-01,-1.60369e-01,-6.62983e-02,-2.95029e-01,1.36804e-01,-6.69512e-01,2.05456e-01,-1.28264e-03,2.26989e-01,-7.59257e-02,-2.32708e-01,2.99730e-01,2.80895e-01,-4.61453e-01,-2.97247e-01,1.73092e-01,-2.27369e-01,
2.60323e-01,-3.25400e-01,1.20295e-01,-1.72489e-01,3.02908e-01,2.93846e-01,1.18569e-01,-1.87920e-01,-2.03175e-01,6.70626e-02,-3.75947e-01,2.71864e-01,2.04931e-01,-4.10553e-01,2.13171e-01,-2.59820e-01,-1.01155e-01,-3.64300e-01,-1.47188e-02,-3.40675e-01,-1.36284e-01,6.80824e-02,-3.19381e-02,1.27904e-01,1.34090e-01,
-1.69101e-01,2.82645e-01,-6.00923e-02,-2.01560e-01,-2.36707e-01,6.75128e-02,-1.44916e-01,2.66602e-01,-1.83905e-01,4.37867e-02,7.10424e-02,1.24674e-01,-2.11945e-01,2.60486e-01,3.43696e-03,-9.28894e-02,2.80113e-01,6.40008e-02,2.60283e-01,-3.49186e-01,4.59237e-02,2.07822e-01,5.23694e-02,1.38696e-01,-8.19788e-02,
-5.28839e-02,-3.38420e-01,-2.94430e-01,2.10950e-01,2.50764e-01,-3.08844e-01,-8.73639e-02,3.13313e-01,-1.68720e-01,-4.50583e-02,1.29131e-01,-3.00367e-01,4.99694e-02,-6.09698e-02,-1.37742e-01,-2.03690e-02,2.61403e-01,7.78481e-01,1.75986e-02,2.91552e-01,2.51052e-01,-1.84304e-01,2.49893e-01,-1.30100e-01,-2.89521e-01,
-6.15167e-01,8.56220e-02,1.41853e-01,1.18622e-01,-1.06484e-01,-4.03594e-02,1.07470e-01,-8.65437e-02,1.28028e-01,6.47369e-01,4.31672e-01,2.44007e-01,-5.33990e-02,-1.01253e-01,-2.86643e-01,1.24885e+00,-4.11243e-01,-4.82440e-01,1.31757e-01,2.17316e-01,2.92131e-01,-9.37669e-02,-2.72324e-01,1.92711e-01,-2.31647e-01,
3.36528e-01,-3.28484e-01,3.86940e-02,3.05951e-01,1.19992e-01,-1.47954e-01,-4.42929e-02,2.36050e-01,1.48691e-01,-4.43476e-02,1.61863e-01,9.26898e-02,6.66680e-02,4.22219e-01,5.61029e-02,-6.57671e-02,-3.90986e-01,1.32137e-02,1.65579e-01,1.13668e-01,2.60418e-01,1.52158e-01,-2.87317e-01,1.48842e-01,-3.59633e-01,
-1.83192e-01,-5.15259e-02,1.18849e-01,-1.94955e-01,-1.65520e-01,-2.33985e-01,1.12463e-01,-8.05951e-02,-1.01385e-01,2.84764e-01,-9.78503e-02,-2.22083e-02,-3.45642e-01,5.17993e-01,6.30945e-02,5.17861e-02,9.87232e-02,1.65011e-01,3.08000e-01,-1.41811e-01,2.79837e-01,6.76088e-02,-1.92550e-01,-6.74492e-02,-2.58899e-01,
2.15765e-02,
-3.11322e-02,
2.36756e-01,
1.39877e-01,
1.70901e-01,
-1.69417e-01,
1.52089e-01,
-1.89591e-01,
-3.01724e-01,
1.14534e-03,
3.61007e-02,
-2.24203e-01,
1.73822e-01,
-5.58488e-03,
-2.43118e-01,
-2.69036e-02,
-3.37268e-01,
1.57131e-01,
8.01620e-02,
1.73216e-01,
-3.04413e-01,
1.28287e-01,
5.55664e-02,
1.88234e-01,
3.28461e-01,
-1.22089e-02,-3.07969e-01,3.07207e-01,-3.58438e-01,9.48398e-02,6.43247e-01,3.81820e-02,2.30754e-01,-2.74430e-01,-1.77934e-01,-3.33028e-01,2.26750e-01,-2.38985e-01,-4.33197e-02,2.98909e-01,-3.66486e-01,2.77714e-01,-2.38813e-01,-3.59055e-01,3.10976e-02,-1.84163e-01,3.84914e-01,3.02517e-02,2.38338e-01,2.05459e-01,
-6.46780e-02,6.32165e-02,2.66034e-01,1.44003e-01,7.16061e-02,-2.39612e-01,-2.50668e-01,-1.60680e-01,-1.07404e-01,-1.95248e-01,-1.30388e-01,-1.84952e-01,-2.21108e-01,-3.03555e-01,-1.29617e-01,2.70233e-01,-2.93230e-02,9.54930e-02,9.24467e-02,1.06477e-01,1.46342e-01,-2.36346e-01,-2.55686e-01,2.82899e-01,5.13253e-02,
4.12851e-02,9.38545e-02,-8.26359e-02,2.92356e-01,-2.46924e-01,-2.05183e-01,-1.11225e-01,-1.66970e-01,4.46185e-02,-1.61633e-01,4.07214e-02,2.38290e-02,-5.51929e-01,1.91009e-01,1.11120e-01,1.03970e-01,2.05992e-01,-1.70833e-01,-2.99567e-01,8.50761e-02,1.99077e-01,-6.66543e-02,-1.18929e-01,3.91176e-02,-2.55820e-02,
-2.29850e-01,-2.46858e-01,-2.12003e-01,7.71379e-02,-1.32428e-01,1.03855e-01,2.34984e-01,1.33391e-01,1.27264e-01,-3.78138e-01,7.86628e-02,1.96420e-01,2.05937e-01,8.18513e-02,-2.58389e-01,-2.94790e-01,-2.72732e-01,2.22001e-01,1.09599e-01,1.29822e-01,3.35802e-01,-5.96015e-02,-3.21778e-01,2.13663e-01,-2.97983e-01,
4.44399e-01,-1.11532e-01,4.97817e-02,-7.56560e-02,1.58514e-01,-1.02928e-02,2.16684e-01,-2.48315e-01,1.31785e-01,3.47753e-03,-9.57548e-02,9.31494e-02,2.07742e-01,-3.83961e-01,-1.65853e-01,9.68517e-03,3.81584e-02,6.00434e-02,2.19699e-01,-1.27636e-01,3.08105e-01,1.02048e-01,-2.41795e-01,-1.20596e-01,-8.19268e-02,
1.91783e-01,2.60204e-02,-4.38334e-03,1.36200e-01,-3.66193e-02,1.08634e-01,1.84986e-01,-1.53015e-01,3.33935e-01,2.58611e-02,2.92155e-01,-1.56646e-01,-1.70696e-01,-6.79087e-02,-1.34275e-02,2.13492e-01,4.70229e-02,3.35563e-01,-6.54950e-03,-1.43422e-01,1.65883e-01,-1.26969e-01,-2.50011e-01,1.87997e-01,-2.26054e-01,
-1.02246e-01,-4.96699e-02,-2.70207e-01,-1.42981e-01,8.12690e-02,-1.92780e-01,-8.66984e-02,-3.23121e-01,-1.61448e-01,7.31132e-02,-8.75529e-02,1.41000e-02,1.98525e-03,2.22703e-01,-1.47845e-01,1.13199e-01,-1.74580e-01,1.97739e-01,-4.56424e-02,-2.29200e-01,1.89612e-01,-1.58472e-01,-7.57602e-05,-2.60188e-01,2.68059e-01,
2.06613e-02,-6.83166e-02,3.20755e-01,-2.41727e-01,-2.37669e-01,3.30093e-01,-3.05447e-01,-6.07556e-02,-8.23500e-02,5.52794e-03,-2.31074e-01,-1.53526e-01,-2.71163e-01,-1.10411e-01,1.08875e-01,-2.17054e-01,3.97817e-02,1.51425e-02,-3.03652e-01,2.12273e-01,3.32475e-01,-2.48577e-01,-8.94227e-02,-6.62436e-02,4.86451e-02,
3.33182e-02,-8.24935e-01,-2.56910e-01,-1.95967e-01,1.58001e-01,5.20327e-01,1.74769e-01,2.35649e-01,-2.14135e-02,-9.44008e-03,-2.06075e-01,-1.74438e-01,6.95496e-01,6.21514e-02,-1.17101e-02,-1.32650e-01,5.68841e-02,1.68444e-01,1.75397e-01,7.27471e-02,-2.07575e-01,2.44718e-01,-4.51180e-01,9.46691e-02,-4.45939e-01,
4.18954e-01,-1.25125e-01,2.34492e-01,1.01419e-01,-3.26127e-01,1.57311e-02,-2.89987e-01,-3.22728e-01,-3.96484e-02,1.20668e-01,2.45671e-01,-1.84010e-02,1.94964e-01,-2.80880e-01,-2.69934e-01,-8.56736e-02,-2.32758e-01,-1.04970e-01,2.79904e-01,1.42606e-01,1.40104e-01,1.42810e-01,3.25799e-01,2.03972e-01,-1.82735e-01,
1.94924e-01,3.44617e-01,-3.63226e-01,4.74710e-01,1.46259e-01,-2.86523e-01,2.48422e-01,2.69635e-01,6.56244e-02,1.14080e-01,9.70698e-02,-5.05399e-01,-4.54559e-01,4.30115e-01,2.16496e-01,1.48257e-01,-1.09426e-01,-1.39328e-01,-3.55564e-01,6.32426e-02,1.26263e-01,-3.97042e-01,1.12293e-01,9.07548e-02,-1.78632e-01,
-2.99940e-02,9.35600e-02,-5.01146e-02,-1.82724e-01,-2.68614e-02,5.10687e-02,-1.25463e-02,-3.06572e-01,-3.46410e-01,1.29641e-01,-2.53725e-01,-8.80032e-02,6.03356e-02,-2.89161e-01,8.57034e-03,2.81556e-01,6.61086e-02,1.43106e-01,-2.47133e-01,-2.61069e-01,-2.39174e-01,3.28206e-01,9.40488e-02,-4.27158e-01,-1.12124e-01,
-2.70380e-01,-5.72144e-02,1.30599e-01,1.93298e-01,-3.24682e-01,2.50281e-01,-2.03700e-01,-6.11857e-02,-3.00204e-01,-1.81822e-01,1.20116e-01,2.99907e-01,6.27699e-02,3.31829e-02,-6.47571e-02,-2.07550e-01,-4.46134e-02,2.98280e-01,9.63253e-02,-2.65215e-01,-2.54512e-01,-2.20799e-01,-3.22944e-01,-1.51948e-02,-4.60294e-02,
2.05973e-01,3.33197e-01,-2.56006e-01,1.65730e-01,1.89701e-01,-3.45871e-01,-4.73677e-02,-1.43738e-01,-5.41399e-02,2.39319e-01,-2.64040e-01,-1.66114e-01,-1.56341e-01,-1.57317e-01,-2.97930e-01,-3.21449e-01,2.98647e-01,2.40246e-01,-4.55046e-02,-1.75556e-01,-1.45554e-02,-3.04809e-01,-2.04593e-01,-2.39812e-01,2.67901e-01,
2.90162e-01,-2.56904e-01,2.16757e-01,4.62803e-02,-3.64506e-01,-1.85221e-01,7.53621e-03,-3.16649e-01,2.41840e-01,1.82195e-01,-1.33342e-01,-2.32650e-01,5.21181e-02,7.28877e-02,-2.44396e-01,2.22150e-01,2.97484e-01,1.16805e-01,-9.24322e-02,-2.32237e-01,-7.27937e-02,1.09789e-01,9.85183e-02,-2.08157e-01,-2.07841e-01,
2.54804e-02,8.80263e-02,1.10755e-01,1.34490e-01,1.91300e-01,2.89534e-01,-1.05944e-01,-6.01138e-02,2.78926e-01,4.86617e-02,-1.65735e-02,-6.39636e-02,1.90900e-01,-1.83637e-01,3.10077e-01,4.82413e-02,-1.25193e-01,2.09444e-01,-1.65332e-01,5.02966e-02,-3.18873e-01,-1.98497e-01,2.60512e-01,2.91713e-01,-1.61898e-01,
-1.16847e-01,-2.28889e-01,-2.20867e-01,-2.90087e-01,-2.92112e-01,-6.14703e-02,1.53354e-01,-3.28851e-01,-3.33261e-01,-1.62561e-01,-3.30473e-01,-2.38455e-01,-2.64170e-01,7.46571e-02,3.19943e-01,-1.09215e-01,2.90230e-01,-2.24781e-01,6.08200e-02,-1.88880e-01,1.61759e-01,-3.23353e-01,-1.97648e-01,2.46012e-01,2.40750e-01,
2.67107e-02,2.21778e-01,-2.50053e-02,-3.23454e-01,-2.65010e-01,-2.00846e-02,5.17916e-02,-8.15484e-02,2.88190e-01,2.17964e-01,2.77056e-01,1.23846e-01,-3.16189e-01,-3.22883e-01,7.00556e-02,-2.97576e-02,-3.38071e-01,-1.43449e-01,-1.08548e-01,2.17808e-01,-1.03014e-01,-2.81832e-01,-2.45690e-01,-2.31729e-01,-3.43018e-01,
1.47858e-01,-2.94141e-01,3.13439e-01,1.17035e-01,1.62118e-01,-1.72647e-01,3.09204e-01,-1.52701e-01,-2.57578e-01,1.44284e-01,2.01017e-01,-2.10421e-01,-2.50737e-01,1.14459e-01,-1.99550e-01,1.47919e-01,-2.61695e-01,5.57219e-02,1.62329e-01,6.76796e-04,1.05572e-02,-7.39896e-02,3.01344e-01,-9.67168e-02,-3.68364e-02,
8.89826e-02,-5.56820e-02,-2.53761e-01,-2.71880e-02,-1.94171e-02,-2.32728e-01,4.93793e-02,3.12373e-01,3.24801e-01,-1.19974e-01,2.25749e-01,-3.40423e-01,3.65810e-02,-1.96554e-01,-1.78055e-01,2.64540e-01,4.34066e-02,8.37712e-02,2.74214e-01,-1.54539e-01,-3.19827e-01,-1.44062e-01,-2.02158e-01,-3.12792e-01,2.46776e-01,
2.24487e-01,1.61566e-02,2.53225e-01,1.32700e-01,-9.91900e-02,2.23582e-02,-4.04020e-02,2.88305e-01,3.41180e-01,-1.48848e-01,2.11789e-01,1.56063e-01,2.55237e-01,-1.49432e-01,-2.57583e-01,-1.46072e-01,-7.42202e-02,-1.39771e-01,-6.04042e-02,6.43673e-02,1.76906e-01,-1.57535e-01,-2.11901e-01,2.97848e-01,-3.23197e-01,
2.36869e-01,2.94385e-01,2.26555e-01,5.54282e-01,-1.25262e-01,-3.69776e-02,1.77950e-01,-2.45891e-01,1.95528e-01,9.47139e-02,-1.38078e-01,-2.06556e-01,-1.19680e-01,-7.04098e-02,-5.13353e-02,-2.66684e-01,5.67104e-02,-3.63877e-01,1.13904e-01,1.07884e-01,1.30544e-01,-4.59703e-01,8.54030e-02,5.57701e-02,-1.89271e-01,
8.10790e-02,-3.95407e-01,-1.27913e-01,2.23088e-02,2.08757e-01,-2.41170e-01,2.88055e-01,2.52427e-01,-2.21080e-01,-6.22119e-02,3.10990e-02,-3.16735e-01,-4.03430e-02,-3.36672e-01,-1.21571e-01,-3.08435e-01,-1.30167e-01,1.41495e-01,-3.08637e-01,1.69283e-01,-3.43987e-01,4.54540e-02,-1.34081e-01,-3.49646e-01,-3.73313e-01,
9.29815e-02,1.76012e-01,9.36872e-02,-9.12522e-02,-6.84805e-02,-1.33790e-01,2.77665e-01,-2.85693e-01,-4.68516e-02,3.53477e-02,9.20547e-02,-5.78910e-02,-2.98563e-02,2.29246e-01,-3.89770e-03,8.04037e-03,1.84355e-01,-1.64030e-01,9.51681e-02,4.73201e-02,1.74184e-01,2.35617e-02,-7.87311e-03,2.28791e-01,2.54311e-01,
1.01618e-01,3.06388e-01,-5.59979e-02,-1.57542e-01,2.29045e-01,-1.32781e-01,3.36367e-03,-8.88022e-02,-2.21449e-01,-2.54312e-02,1.35760e-01,1.04660e-01,-6.95373e-02,-3.68939e-01,1.62421e-01,-3.29994e-03,-2.28533e-02,1.42093e-01,-2.31156e-01,-5.65433e-02,1.91883e-01,2.85053e-01,-2.23485e-01,-1.46227e-01,1.40385e-01,
-3.96437e-02,
-2.70282e-01,
8.84940e-02,
1.63734e-01,
1.48442e-01,
-1.96014e-01,
2.99536e-01,
-2.34248e-01,
1.82536e-01,
-4.69945e-02,
1.05917e-01,
1.63849e-01,
-2.36577e-01,
-2.60212e-01,
-2.44317e-01,
-1.78321e-01,
-9.22410e-02,
-2.18142e-01,
-1.51101e-01,
-1.84477e-01,
9.16602e-02,
1.45305e-02,
1.41633e-01,
1.70704e-01,
2.72517e-01,
1.33713e-01,1.22423e-01,1.59697e-01,1.49254e-01,-1.38590e-01,2.41604e-01,3.31182e-01,1.00040e-01,-3.12409e-01,2.64096e-01,1.60295e-01,-2.61574e-01,-3.36713e-01,-2.51869e-01,-3.01770e-01,-7.26616e-02,-2.21093e-01,-8.86532e-02,-2.85416e-01,-2.04104e-01,-6.55045e-02,1.70543e-01,-6.14317e-02,2.39713e-01,-2.85455e-01,
-1.49330e-01,-7.24085e-02,3.00273e-01,2.47249e-02,-7.14294e-02,1.15814e-01,2.21003e-01,3.25543e-01,2.43039e-01,5.78663e-02,7.86995e-02,-2.69649e-01,-2.01792e-01,1.33303e-01,-1.76714e-01,-2.24540e-01,-2.88905e-01,-3.54626e-02,-6.49850e-02,-2.05996e-01,-2.31484e-01,-4.97165e-02,2.34623e-01,-5.15069e-02,2.69485e-01,
4.50051e-03,1.84765e-01,-8.93265e-02,1.87670e-01,-2.21449e-01,1.83689e-01,1.56575e-01,1.82741e-01,7.46040e-02,-7.53118e-02,-6.97211e-02,8.48597e-02,2.65177e-01,-1.93458e-01,-1.91109e-01,-2.74050e-01,-1.14261e-01,-2.68058e-01,2.58968e-01,-5.45462e-02,6.87186e-02,8.18956e-02,-1.17476e-01,1.36014e-01,2.09912e-01,
9.45995e-02,-2.50047e-01,1.73025e-01,2.45112e-01,-3.01889e-02,1.76075e-03,-2.14229e-01,-1.18459e-01,-9.14832e-02,5.03958e-02,-1.21976e-01,-2.11449e-01,-1.56486e-01,-3.07719e-01,1.96480e-01,1.78569e-01,-2.42676e-01,4.84818e-02,-1.37826e-01,-3.44602e-01,1.35728e-01,-1.43180e-01,2.96618e-01,2.94483e-01,-2.19646e-02,
1.62145e-01,3.00228e-01,-2.54006e-02,2.11845e-01,2.54673e-01,-8.10283e-02,-1.90916e-01,-9.27556e-02,-1.02159e-01,5.09301e-02,2.29214e-01,1.97742e-01,-2.95515e-01,-2.51453e-01,-5.81105e-02,-1.77345e-01,7.70635e-02,-8.43804e-02,-2.46404e-01,-2.76829e-01,-2.08281e-01,-5.78426e-02,-2.02613e-01,-2.50194e-01,2.92314e-02,
-9.37338e-02,-2.37951e-01,-1.71401e-01,-3.81909e-02,-8.08013e-03,-1.85789e-01,-2.45995e-01,2.81794e-01,-2.18092e-01,2.45391e-01,-3.39562e-01,-1.68210e-01,-1.36721e-02,2.72675e-01,1.71621e-01,2.79232e-01,4.34056e-02,4.98375e-02,4.89601e-03,-3.26004e-01,-1.49618e-01,2.32933e-01,2.78963e-01,2.15216e-01,-1.23450e-01,
1.87075e-01,-1.66763e-01,-4.87527e-02,-2.76498e-02,2.98933e-01,-1.16881e-01,1.64581e-01,2.78798e-01,-4.49909e-02,-1.03168e-01,-3.32593e-01,-1.80500e-01,3.15163e-01,-3.64176e-02,-1.32563e-01,-2.55033e-01,-2.15020e-01,1.92229e-01,-3.12503e-01,1.23759e-01,1.86395e-01,5.85338e-02,-3.72212e-03,-7.56615e-02,-1.80291e-01,
4.40274e-02,-2.07615e-01,-1.18036e-01,2.63584e-01,3.21810e-01,6.61438e-02,2.74594e-01,2.67824e-01,-4.82581e-01,3.42696e-01,-3.05279e-01,-3.30340e-01,-3.34908e-02,1.29972e-01,9.90407e-02,3.21989e-01,1.95927e-01,-6.18091e-02,-2.29508e-01,5.82006e-02,1.51510e-01,-3.71401e-01,2.10033e-01,1.32608e-01,6.03753e-02,
-2.70113e-01,1.56220e-01,-2.77692e-01,-2.73007e-01,1.64733e-01,-7.05153e-02,-1.55468e-01,1.16624e-01,2.97478e-01,-5.90566e-02,3.23615e-01,-2.25935e-01,2.00441e-01,2.05085e-01,3.17149e-01,1.53972e-01,1.42386e-01,-2.09164e-01,2.13157e-01,-7.04389e-02,-3.45476e-01,-2.05781e-01,-3.31674e-01,-2.44905e-02,-1.42972e-01,
-1.52894e-01,2.48214e-01,2.11484e-01,-1.94627e-01,-2.38373e-01,-3.09408e-01,3.18406e-01,-3.11835e-01,1.95173e-01,1.22996e-01,-2.78863e-01,-2.37116e-01,-2.59453e-02,-1.58586e-01,3.94042e-01,-8.74658e-02,-3.38387e-01,3.32997e-01,-1.47102e-01,-2.75362e-01,-1.32878e-01,-2.64376e-01,-2.12664e-01,1.42459e-01,1.71339e-01,
-7.74479e-02,4.24275e-02,-8.33299e-02,-3.12774e-01,8.07513e-02,-7.45164e-02,3.14629e-01,3.26857e-01,-3.45155e-01,-2.93789e-01,-2.15386e-01,-1.61338e-01,-6.17956e-02,1.14880e-01,1.55976e-01,-7.72388e-02,7.41771e-03,-3.30900e-01,3.15529e-01,2.43359e-01,2.48361e-01,-1.40938e-01,-1.38248e-01,-2.21528e-01,-3.21696e-01,
-2.95570e-01,3.78501e-02,-3.21796e-01,-6.69733e-02,-2.51999e-01,8.05668e-02,1.71133e-01,7.41536e-02,2.55131e-01,4.24483e-04,1.81637e-03,-3.13000e-01,-2.18431e-01,-4.14125e-02,1.50370e-01,-1.81023e-01,2.81358e-01,-2.69099e-01,-5.07320e-02,-7.03727e-02,-4.60718e-02,-3.47713e-01,-1.57043e-02,-2.47481e-01,-4.06019e-01,
-3.13993e-01,-1.50421e-01,-1.65980e-01,-3.19002e-01,-4.14224e-01,-2.18825e-01,-1.31481e-02,-1.84228e-01,-8.55916e-04,2.41024e-01,3.02478e-01,-1.27825e-01,3.40666e-01,6.30106e-02,-2.85512e-01,9.07096e-02,-7.16141e-02,1.31207e-01,-2.47451e-02,1.31185e-01,1.68194e-02,-1.27334e+00,-2.29735e-01,-2.38474e-01,-2.28668e-01,
-1.06610e-01,7.77603e-02,1.59822e-01,6.16541e-02,-1.28952e-01,-2.24981e-01,-1.14692e-01,-2.63735e-01,3.11668e-01,3.22455e-01,-3.29234e-01,-1.73433e-01,-2.45929e-01,-1.70500e-01,-1.08244e-01,2.77150e-01,1.62313e-01,-3.36142e-01,-1.70706e-01,1.70691e-01,2.40404e-01,2.47343e-01,1.53971e-02,3.93694e-01,3.41307e-01,
-1.09978e-03,-1.29597e-01,-7.17697e-02,2.94293e-01,-3.61406e-02,9.60074e-02,3.55554e-01,-1.72529e-02,1.16035e-02,-9.59482e-02,4.45087e-01,-1.48976e-01,-1.15791e-01,2.67233e-01,-1.49120e-01,-3.03004e-02,-2.03850e-01,-6.07323e-02,1.58252e-01,-1.80715e-01,-2.37774e-01,4.08926e-01,1.74548e-01,-8.01978e-02,-1.20573e-01,
-2.65789e-01,7.61841e-02,-3.79311e-01,-2.31294e-01,-1.43697e-02,1.79767e-01,-2.95120e-01,-2.72728e-01,2.04051e-01,-2.67022e-01,-3.42693e-01,-8.71610e-02,2.21602e-01,-9.40073e-02,-9.81413e-02,-2.22287e-01,-3.17147e-02,1.42168e-01,1.73900e-01,-8.54177e-02,-1.10052e-01,2.01009e-01,-2.48920e-01,-3.36004e-01,1.03219e-01,
1.51327e-01,-2.26231e-02,-1.85461e-01,7.37402e-02,1.94535e-02,2.97174e-01,1.98316e-01,-3.24325e-02,-1.03484e-01,-9.77026e-02,2.62002e-01,6.98884e-02,3.34766e-01,-2.43487e-01,-2.83191e-02,1.70267e-01,3.40716e-01,-2.12443e-01,1.87301e-01,2.31187e-01,1.70286e-01,2.15613e-01,-3.22815e-02,-1.35970e-01,-2.39553e-01,
1.67064e-01,2.72952e-01,-2.84866e-01,-1.58731e-01,-2.37059e-01,-1.67215e-01,-1.31429e-01,1.72181e-01,7.91098e-02,-2.49969e-01,1.23400e-01,4.73631e-02,2.89274e-01,9.13762e-02,3.21186e-01,-2.27009e-01,-1.95640e-01,1.73458e-01,-1.89799e-01,6.77474e-02,2.56454e-01,-5.98255e-02,-3.07699e-01,-3.42421e-01,-3.02319e-01,
6.21752e-02,-1.43637e-01,-2.92627e-02,2.71356e-01,1.05358e-01,-7.14588e-02,1.52141e-01,2.46346e-01,4.15233e-02,-1.55916e-02,1.40420e-01,-7.20192e-03,-2.80588e-01,1.47637e-01,1.05418e-02,1.94093e-01,-3.31965e-01,2.06342e-01,2.03370e-01,-1.53669e-01,1.00305e-01,-1.24114e-02,3.36830e-02,1.24899e-01,1.51787e-01,
4.10870e-02,-1.95084e-01,2.27492e-01,-5.99193e-02,2.88657e-01,3.25971e-01,-6.47050e-02,-1.78098e-01,3.22324e-01,-2.71535e-01,3.16936e-01,-5.12023e-02,-1.98194e-01,-2.57657e-01,2.50160e-01,-2.71845e-01,2.27047e-01,-7.72661e-03,3.29933e-01,-1.41637e-01,2.98790e-01,2.15501e-01,-6.95108e-02,1.44045e-01,2.50765e-01,
-5.53814e-02,-2.79598e-01,-1.24935e-01,2.36730e-01,-1.12440e-01,-3.36919e-01,-6.69687e-02,-2.55644e-01,4.81081e-02,8.83794e-02,4.92289e-01,3.54979e-01,-1.42062e-01,4.32359e-02,2.97294e-01,-2.98355e-01,8.07977e-02,2.87851e-01,-2.12417e-02,2.77781e-01,2.75614e-01,-3.91483e-02,1.93134e-01,-5.59016e-02,1.10934e-01,
2.13981e-01,-1.28779e-01,-8.11289e-02,-1.00587e-01,1.00108e-01,3.20873e-01,-9.21502e-02,-1.12414e-01,-1.73141e-01,1.88931e-01,-2.95098e-01,1.69516e-01,1.33086e-01,-2.50682e-01,-2.92898e-01,2.16046e-02,5.32954e-02,2.04913e-01,-1.12971e-01,-4.64113e-02,4.06374e-03,3.21791e-01,-1.99909e-01,1.07165e-01,-1.80411e-01,
9.22792e-02,-1.66849e-01,-2.02027e-01,1.86084e-01,-4.68793e-02,3.30890e-01,-1.92099e-01,-2.81532e-01,9.09687e-02,-3.40782e-01,-2.91080e-01,1.49813e-01,-8.72792e-02,1.38399e-02,1.60810e-01,2.15604e-01,2.51137e-01,2.59830e-01,2.39146e-01,-2.41975e-02,3.90746e-04,1.19786e-01,-5.06436e-02,-1.83199e-01,2.42399e-03,
1.37679e-02,1.43688e-02,1.68998e-01,-1.24695e-01,-2.81961e-01,3.37854e-01,2.29438e-01,7.88225e-02,2.51945e-01,-3.17239e-01,3.40844e-01,1.46300e-01,1.53298e-01,2.35300e-01,2.45480e-01,2.07643e-01,3.45276e-01,1.83855e-01,-1.69131e-01,1.64855e-01,-2.98082e-01,-2.92050e-02,7.47698e-02,1.14236e-01,-1.41515e-01,
-5.16695e-02,1.72005e-01,-2.99474e-01,8.90202e-02,-2.57176e-01,1.56670e-01,2.71889e-01,2.84299e-01,2.94366e-01,-3.39720e-01,-2.98050e-01,-2.74495e-01,3.48339e-02,-1.76768e-01,-3.27701e-01,-3.11019e-02,1.38816e-01,-6.39956e-02,-2.97047e-01,-1.40575e-01,-5.45723e-02,2.31584e-01,-3.27044e-01,-3.11643e-01,1.29346e-01,
-3.09475e-01,
2.06748e-01,
2.11371e-01,
-3.09963e-01,
1.89526e-01,
2.77350e-01,
-7.97012e-02,
-1.86935e-01,
-3.11488e-01,
3.77887e-01,
-1.87369e-01,
1.50157e-01,
2.15867e-01,
-2.03879e-01,
-7.85687e-03,
1.72393e-01,
1.95013e-01,
2.01785e-01,
2.10594e-02,
-1.53964e-01,
-2.17273e-02,
2.72012e-01,
1.88246e-01,
-2.87217e-01,
-3.28504e-01,
-9.18981e-03,-4.34464e-01,3.00606e-01,-5.18744e-02,2.12288e-01,-2.40227e-01,-5.11016e-01,9.85924e-02,-3.59811e-02,1.03409e-01,5.19838e-02,4.29546e-01,-1.20687e-01,1.47374e-01,2.37946e-01,3.11458e-01,-3.55221e-01,-3.47537e-01,-3.25868e-01,-5.79408e-02,-5.87016e-02,-4.00736e-02,3.91556e-02,4.13633e-01,2.86745e-01,
-4.28963e-01,-3.17868e-02,-2.44085e-01,-3.62478e-01,2.84879e-02,1.79480e-01,2.05479e-01,-5.82975e-02,3.32960e-01,-2.75905e-02,2.52876e-02,-3.40489e-01,-1.27850e-01,-1.26938e-01,6.06584e-02,2.16145e-01,-2.85954e-01,1.04535e-01,-5.31711e-03,1.62347e-01,1.03160e-01,3.76954e-02,-3.86615e-02,1.76725e-01,8.09816e-02,
-2.86650e-01,-5.33406e-02,-4.05440e-01,3.67823e-01,-3.47416e-01,-1.91944e-01,1.68207e-01,-6.44719e-02,6.98034e-02,-4.53259e-01,1.22066e-01,-4.31020e-01,-4.73112e-02,2.36163e-02,6.23526e-02,2.52632e-01,-4.01418e-01,-1.98969e-01,-9.03787e-02,-1.30744e-01,-2.37609e-02,-1.33861e-01,9.62200e-02,-1.78445e-01,-6.09688e-02,
-2.21466e-01,-2.93341e-01,4.37720e-01,-2.13218e-01,2.48361e-01,6.18465e-02,2.79898e-01,-1.53140e-01,6.18798e-02,5.04301e-01,3.43620e-01,-2.64967e-01,9.60898e-02,-1.22472e-01,8.13736e-02,-2.14893e-02,-1.63086e-01,4.20354e-01,3.84571e-01,1.61669e-01,3.19324e-02,2.69534e-01,-2.14254e-01,-2.28072e-01,3.10104e-01,
-7.97538e-02,1.72678e-01,3.81872e-01,1.26623e-01,3.20637e-01,2.72211e-01,5.02636e-02,4.61975e-03,2.85121e-01,1.45243e-01,9.90310e-02,2.21025e-01,-4.60589e-02,-5.65181e-02,-3.14316e-02,3.00046e-01,2.33339e-02,3.24830e-01,-1.35095e-01,1.12518e-01,9.69991e-02,1.26914e-01,-1.82556e-02,2.33721e-01,-1.54420e-01,
1.39086e-01,
1.09588e-01,
5.78247e-01,
-4.49408e-01,
-3.57862e-01,
