// Neural Network File Format by Kyle Julian, Stanford 2016
6,5,5,25,
5,25,25,25,25,25,5,
0,
-56000.000000,-56000.000000,-3.141593,200.000000,200.000000
56000.000000,56000.000000,3.141593,200.000000,200.000000
-278.628049,0.000000,0.000000,200.000000,200.000000,-0.242819
112000.000000,112000.000000,6.283185,1.000000,1.000000,17.479225
6.09583e-01,3.58369e-01,-1.28249e-01,1.08635e-01,4.09691e-01,
7.82500e-01,2.80535e-01,-1.74492e-01,-4.25795e-01,2.24869e-01,
-1.69774e-01,-9.37099e-02,-2.49500e-01,-7.82840e-02,2.06469e-01,
1.72846e-01,1.33204e+00,2.59410e-01,2.03761e-01,-3.98037e-02,
3.10768e-01,2.46711e-01,-2.58718e-01,6.90399e-02,-4.09794e-01,
-1.17252e-01,-1.49159e-01,3.48265e-01,-2.81839e-01,4.44351e-01,
-2.69161e-01,1.12710e-01,3.74557e-01,-3.51000e-02,-2.10794e-01,
-3.40582e-02,-2.05669e-01,-1.26640e-01,1.15034e-01,4.28024e-01,
-8.70285e-01,9.20913e-01,-4.12266e-01,-2.45494e-02,-1.11578e-02,
9.22360e-01,-8.96001e-01,3.96203e-01,-1.50808e-01,-3.95298e-01,
-7.80551e-03,4.66366e-01,4.15030e-02,-3.57404e-01,-1.25963e-01,
-2.14508e-03,-3.33256e-02,1.53469e-02,-4.12152e-01,-3.43276e-01,
2.92910e-02,-1.81001e-01,-2.21531e-01,6.30837e-02,3.84281e-01,
6.91219e-01,-5.18662e-02,-1.82663e-01,1.26714e-01,-4.36063e-01,
7.99383e-01,-1.29251e+00,-3.17023e-03,-8.26370e-02,1.04535e-01,
-5.51214e-01,9.15646e-01,4.88437e-01,6.73811e-02,-2.55076e-01,
-2.17152e-01,5.59807e-01,-2.62208e-01,-6.18878e-02,2.27325e-01,
-1.61205e-01,-1.00389e+00,-3.69914e-01,7.13109e-02,4.05174e-01,
-5.83287e-01,-1.49863e+00,-3.21683e-02,3.12455e-01,-3.94804e-01,
-1.98147e-01,4.16374e-02,1.21088e-01,3.52993e-01,2.13037e-01,
-6.30062e-01,3.43608e-01,2.47124e-01,-3.70740e-01,1.79436e-01,
-1.77313e-01,3.63927e-01,1.84165e-01,-2.58118e-01,-3.98190e-01,
-8.83097e-01,9.16828e-01,2.50966e-02,-5.07942e-02,-3.00988e-02,
-3.36674e-01,1.15792e-01,-9.66697e-02,-1.64191e-02,3.94415e-01,
1.23146e+00,4.94862e-01,-2.64815e-04,-3.40597e-01,1.67270e-01,
2.63121e-01,
-3.70935e-02,
-2.30992e-01,
3.02732e-02,
1.30463e-01,
-3.22497e-01,
-3.39014e-01,
-2.00965e-01,
1.40533e-01,
-1.41574e-01,
8.20817e-02,
-2.44820e-02,
-2.77079e-01,
6.79396e-02,
-1.42184e-03,
3.97676e-02,
2.10245e-01,
4.46289e-02,
2.00640e-03,
-2.57598e-01,
1.05227e-01,
-2.95666e-01,
7.33530e-02,
1.45912e-01,
-3.24668e-03,
3.47186e-01,-2.98985e-01,2.52629e-01,1.01780e-01,4.46648e-02,-1.21679e-01,2.65453e-01,1.57803e-01,1.79751e-01,-6.07737e-01,4.43487e-01,2.86162e-01,-1.45595e-01,-6.75154e-02,5.81242e-01,1.29677e-01,2.31846e-01,3.16961e-01,-1.04226e-01,-2.99258e-01,8.17592e-02,-1.23671e-01,4.36423e-02,9.01917e-02,4.51458e-01,
2.69789e-02,2.75040e-01,-1.94576e-01,-4.05409e-01,-2.08718e-01,1.45372e-01,1.65614e-01,2.52307e-01,2.01925e-01,5.81038e-01,9.88759e-02,2.20005e-01,-9.44941e-02,-1.58661e-03,-4.41714e-01,-3.84991e-01,5.05840e-02,-6.15728e-02,-8.13331e-03,4.45749e-02,3.52447e-01,9.33452e-02,-5.11634e-01,3.22208e-01,-3.03153e-01,
-1.66417e-01,3.94006e-01,-6.81876e-02,1.49009e-01,3.49731e-01,-8.23175e-02,2.30297e-01,-2.01564e-01,2.55332e-01,-8.89977e-01,-4.01849e-01,-2.27145e-01,3.45623e-01,-2.11590e-01,7.64640e-01,2.41292e-01,3.59857e-01,-1.61801e-01,2.46133e-01,-1.07759e-01,6.92742e-02,1.20656e-01,1.84924e-01,-1.80805e-01,3.75499e-01,
2.43098e-01,6.92282e-01,-1.53892e-01,-5.01284e-02,-2.65285e-01,-2.40968e-02,-3.39960e-01,-2.11136e-02,-1.55586e-01,3.92831e-01,2.48926e-01,1.88611e-02,-3.27300e-01,-1.26647e+00,4.97246e-01,1.99702e-01,3.51941e-01,-8.37918e-01,2.03518e-01,-2.08383e-01,3.03841e-01,-1.09355e-02,5.32434e-02,-1.08497e-01,-4.33713e-01,
-2.42647e-01,4.57750e-03,1.71677e-01,-1.02088e+00,-1.11548e-01,1.69741e-01,1.00705e-01,-2.21967e-01,3.55463e-01,-5.84297e-01,3.77596e-02,2.13208e-01,-2.92816e-01,-2.81655e-02,1.68274e-01,-2.22451e-01,2.99718e-01,4.77153e-03,4.91785e-01,3.08892e-01,1.32342e-01,-1.08749e-01,4.73944e-01,2.33590e-01,1.98374e-01,
3.21161e-01,-2.02417e-01,-1.37949e-01,-7.33696e-02,-1.18821e-02,-1.03334e-01,2.77282e-01,1.68100e-01,6.35977e-02,4.20298e-02,-2.53781e-02,-2.88523e-01,-1.94081e-01,-9.70274e-02,1.15118e-02,2.61440e-01,1.05907e-01,-2.80235e-01,3.48707e-01,3.45420e-01,2.32465e-01,-1.82352e-01,-1.23260e-04,-2.67042e-01,-1.69542e-01,
-4.39123e-02,1.65767e-02,1.63570e-01,7.64871e-02,1.02920e-01,-5.82033e-02,-4.89690e-02,-2.30461e-01,-3.19196e-01,2.29609e-01,2.46289e-02,1.07963e-01,-4.16206e-02,-2.18447e-01,-1.94165e-01,1.54103e-02,-3.35633e-01,-1.47207e-01,2.24463e-01,8.56570e-02,-1.31144e-01,3.44263e-01,5.00636e-02,-3.39243e-01,-1.25480e-01,
1.50952e-01,4.84166e-01,5.32429e-02,-2.70277e-03,6.03788e-02,3.32914e-01,-3.92464e-02,5.39199e-02,1.23224e-01,-4.07002e-01,-3.91813e-01,1.29159e-01,-1.95830e-01,-1.80904e-01,-1.48053e-01,-8.91043e-02,-1.25120e-01,-2.79571e-01,8.24260e-02,1.28185e-01,2.63733e-01,1.06562e-01,-5.10662e-02,-1.17871e-01,1.12809e-01,
3.10247e-01,2.40975e-01,-1.69623e-01,-1.57573e-01,1.18083e-01,7.58412e-02,-8.44128e-02,-2.79271e-01,3.06832e-02,-3.84045e-01,1.32158e-01,-3.45112e-01,2.42181e-01,2.43718e-01,-5.65662e-01,-1.98343e-02,2.76721e-01,2.52095e-01,-1.68424e+00,-8.64535e-02,5.87932e-01,-9.69756e-03,3.64111e-01,-5.90700e-02,4.32082e-02,
1.97832e-01,-1.83270e-02,-1.60599e-01,1.05900e-01,-2.44285e-01,1.15040e-03,-1.58619e-01,-8.26800e-02,-1.87469e-01,-1.45965e-01,-1.98051e-01,7.89840e-02,3.37570e-01,-1.83809e-01,3.16613e-01,-1.60141e-01,1.46055e-02,-1.21139e-01,4.67204e-01,-1.90644e-01,-2.42961e-01,-8.83333e-02,-4.26416e-01,-2.05912e-01,-2.64492e-02,
3.30359e-01,6.34624e-01,3.29547e-01,1.97483e-01,3.82167e-02,2.11940e-01,9.30581e-02,-1.24579e-01,-3.71777e-01,7.57341e-01,-1.35618e-01,-2.90620e-01,-2.77111e-01,4.61224e-02,-5.85840e-01,-1.43867e-01,-1.95156e-01,-2.91877e-01,-5.26248e-01,-3.00942e-01,-1.93112e-01,1.23860e-01,2.45548e-02,-1.43238e-01,-8.95684e-01,
2.22511e-01,-7.92492e-02,1.74284e-01,2.56678e-01,-2.23562e-01,-1.32043e-01,-2.51294e-01,-1.48473e-01,2.22314e-01,-7.88358e-01,2.99927e-01,1.20606e-01,8.43765e-02,-3.01041e-01,4.63976e-01,2.89827e-01,3.08745e-01,-2.61201e-01,6.06532e-01,1.87532e-01,-2.09610e-02,-2.63969e-01,2.16735e-01,3.71610e-01,4.62699e-01,
2.41019e-01,-1.54877e-01,3.52879e-02,-4.45248e-01,-1.54186e-01,-1.87977e-01,-2.21316e-01,5.70957e-02,4.32133e-01,-5.12011e-01,4.83693e-02,3.09874e-01,-3.18051e-01,3.21752e-01,-1.13562e-02,-7.47724e-01,1.39329e-01,-8.29370e-03,4.30012e-01,-6.66804e-02,-4.25166e-02,1.62432e-01,3.95553e-02,3.16112e-01,3.70494e-01,
-3.45840e-01,-3.84458e-02,-2.53487e-01,1.33689e-01,-2.99100e-01,-2.10318e-01,-3.15248e-01,7.02124e-02,-7.79404e-02,-1.11620e-01,3.44673e-01,6.57327e-02,2.60168e-01,-1.66906e-01,-4.91597e-02,-4.10746e-02,2.36751e-01,-3.43279e-01,-2.73919e-03,-3.15348e-01,1.49354e-01,-2.84522e-01,-3.27326e-01,3.45715e-01,3.31875e-01,
-3.23172e-01,5.09792e-03,2.08457e-01,2.44874e-01,-5.34079e-02,5.25814e-02,2.23096e-01,1.61019e-02,4.62926e-01,-1.39760e-01,3.16657e-01,2.69387e-01,-2.23979e-02,-3.94613e-01,1.03597e-01,5.26542e-01,-1.78450e-01,-1.90819e-01,2.47369e-01,2.88736e-01,3.25243e-01,3.12246e-01,3.21296e-01,4.11122e-01,-2.57225e-01,
-3.30883e-01,1.81242e-01,-5.43797e-02,2.10293e-01,2.37380e-01,-1.61483e-01,2.55488e-01,-7.23348e-02,1.27771e-01,-3.19913e-01,1.44173e-01,-5.85688e-02,4.88303e-02,-1.42986e-01,1.28222e-01,1.15882e-01,-3.13162e-01,2.60136e-01,-4.25368e-01,-1.13627e-02,-6.74741e-02,-1.57303e-01,1.69021e-01,2.85779e-01,-9.45793e-02,
-1.14726e-01,1.42261e-01,7.45301e-02,-4.06898e-02,-3.25473e-01,-9.70717e-02,2.69931e-01,2.92895e-01,-2.44933e-01,-7.79926e-02,3.25425e-01,-7.17395e-02,1.90987e-01,1.59335e-01,8.08422e-02,1.27924e-01,-1.70805e-01,1.22013e-01,1.30472e-01,-1.24956e-01,-2.06513e-01,-3.34858e-01,3.31255e-01,1.34638e-01,2.31406e-01,
-2.85710e-01,6.11798e-02,-1.45360e-01,4.78605e-01,3.46032e-02,-2.19603e-01,-3.02138e-01,1.71765e-01,3.93822e-01,-2.41705e-01,9.33536e-03,-2.17016e-01,-2.53581e-01,-2.44053e-01,5.72560e-01,3.75698e-01,-1.15590e-01,2.67776e-01,-2.31299e-01,1.24246e-01,-2.18392e-01,-3.07833e-01,1.39209e-01,2.20614e-01,-1.72827e-03,
1.20450e-01,-2.22260e-03,1.17545e-01,4.88381e-01,2.61572e-01,1.86892e-01,-3.03152e-01,1.96156e-01,-2.79413e-02,-1.80998e-01,-1.62856e-02,-1.43678e-01,-1.54907e-01,1.83776e-01,-3.54665e-02,4.04790e-01,-5.95281e-02,1.23508e-01,-3.02802e-01,-1.36794e-01,-3.14305e-01,2.45481e-01,-3.10685e-01,-2.01388e-01,1.16146e-03,
-3.98806e-02,-5.01855e-01,8.04480e-02,4.65921e-01,1.88727e-01,-1.72554e-01,-5.30451e-02,2.23343e-01,1.55012e-01,-3.50582e-01,2.04232e-01,-2.82073e-01,1.75664e-01,2.90666e-01,-1.85865e+00,-4.19445e-02,2.55662e-02,6.95680e-01,-1.68720e+00,-2.67352e-01,8.30276e-02,-2.98197e-01,-3.50596e-01,-2.20081e-01,-1.55536e+00,
3.75076e-01,-2.90772e-01,8.58349e-02,2.18356e-01,-2.62816e-01,-7.92325e-03,2.03466e-01,1.55804e-01,3.99380e-02,4.53750e-01,-4.62475e-03,2.66227e-01,-2.14925e-02,-7.88170e-02,-2.46343e-01,2.28640e-02,-2.70557e-01,3.16077e-01,-3.43198e-02,-3.10745e-01,5.44260e-02,-1.00669e-01,-2.45849e-01,1.24428e-01,2.54524e-01,
-2.99101e-01,4.62274e-01,-3.57128e-01,-3.33046e-01,1.94504e-01,9.68634e-02,-1.88098e-01,2.48784e-01,2.33893e-01,-8.29886e-02,1.11478e-01,8.67064e-02,-5.11408e-02,-2.06779e-01,4.77785e-01,-2.61657e-01,1.38539e-02,1.05153e-01,1.41956e-01,9.77835e-02,4.48716e-01,2.54581e-02,8.88873e-02,1.54766e-01,-6.75965e-02,
1.10369e-01,4.70393e-01,3.00261e-01,-2.73875e-01,-6.99773e-02,-3.58829e-02,-2.71460e-01,-2.59968e-01,3.11078e-01,9.01437e-03,-8.40253e-02,1.82603e-01,-2.66554e-01,-2.23561e-01,1.37911e-01,-9.73614e-02,-1.85962e-01,-2.74996e-01,8.61106e-03,-7.13552e-02,1.71090e-02,4.59680e-02,-8.95726e-02,-2.58382e-01,3.47074e-02,
2.37759e-01,-1.10849e-01,-2.18874e-01,5.36967e-02,-2.38701e-01,8.63847e-02,-3.04604e-01,-1.58436e-01,-7.68118e-03,1.67386e-01,2.74814e-01,2.91134e-01,3.23757e-01,1.24007e-01,-2.00946e-01,-5.60909e-01,1.03752e-01,-3.30474e-01,3.58076e-01,-4.01641e-02,-3.12337e-02,-3.50264e-01,2.30029e-01,-3.21110e-01,3.29174e-01,
2.48043e-01,-1.49320e-01,2.29322e-01,-2.75371e-02,-1.39843e-01,1.57791e-01,-4.18753e-02,-2.97928e-03,8.61238e-02,2.22279e-01,-1.63919e-01,-2.76103e-01,6.85088e-02,-1.05310e-01,-1.63875e-01,-9.82084e-02,2.33219e-01,4.96295e-01,-1.54133e-01,-1.24137e-01,9.55339e-02,-3.28944e-01,-1.99208e-01,1.46329e-01,-2.49090e-01,
-2.24980e-01,
3.40109e-02,
-8.23820e-02,
-1.98780e-01,
-1.61704e-01,
1.44982e-01,
-8.31207e-02,
1.76462e-01,
-2.93664e-01,
1.39045e-01,
6.44181e-02,
-3.11611e-01,
-1.05681e-01,
-3.34536e-01,
-3.32997e-03,
2.55376e-01,
-2.35172e-01,
1.53642e-01,
5.68164e-02,
-8.23554e-03,
-2.92992e-02,
-1.12137e-01,
1.08276e-01,
5.64172e-02,
1.47202e-01,
9.80600e-02,-3.10609e-01,-8.67852e-02,-3.38341e-02,-1.20687e-01,-3.01457e-01,7.49269e-03,2.14800e-01,-8.51270e-02,2.29698e-01,-9.56006e-02,-2.42559e-01,2.80849e-01,-6.75023e-03,-1.46186e-01,-3.12293e-01,-1.27643e-02,3.12577e-01,-1.63616e-01,8.22892e-02,-1.77607e-01,-2.32473e-01,-3.33483e-01,-8.74113e-02,-1.66967e-01,
1.02889e-01,2.30582e-01,-6.38337e-01,-6.68459e-02,-2.76056e-02,2.62961e-01,-1.38185e-02,-1.15907e-01,-1.59455e-01,-4.40078e-01,-7.46316e-01,1.00481e+00,1.16497e-01,-1.39798e-01,-1.41667e+00,1.35770e-01,-3.19734e-01,-3.25426e-01,7.92222e-02,1.58628e-01,1.27757e-01,-1.07407e-01,-4.68066e-02,2.31041e-03,1.56572e-01,
-5.19224e-01,-3.01124e-01,2.28595e-01,5.26630e-01,-2.79616e-01,-2.19850e-01,7.31398e-02,9.14182e-02,-1.49798e-01,-1.86729e-01,1.56550e-01,6.22057e-01,1.85247e-01,-1.26561e-01,-2.93129e-01,-1.90885e-01,3.69996e-03,-2.44653e-01,-1.45039e-01,7.16787e-02,2.67029e-01,1.87358e-01,-2.56674e-01,-2.15533e-01,7.67743e-02,
1.85756e-01,1.03461e-01,1.33916e-02,-4.89229e-01,-2.45158e-01,-1.01406e-01,1.45513e-01,3.24112e-01,-2.37439e-01,-2.30485e-01,1.18002e+00,-1.08768e-01,1.93456e-01,1.56082e-01,2.80560e-01,-7.03669e-02,2.67491e-01,-7.68240e-02,1.52851e-01,-1.41267e-02,-1.30860e-01,3.57797e-01,1.69230e-01,6.81741e-02,-1.37755e-01,
3.02824e-01,7.06859e-02,3.94765e-01,5.13239e-01,-3.26468e-01,-1.12142e-01,-3.26135e-01,2.31097e-01,-1.02926e-01,-4.07030e-01,-2.65687e+00,-3.62812e-01,-1.04687e-01,-3.39959e-01,-8.69965e-02,3.19490e-01,-1.11772e-01,2.76481e-01,5.44285e-02,-2.73135e-02,-8.39014e-02,3.50442e-01,-2.35326e-01,-3.11770e-01,5.50662e-02,
-3.08323e-01,-2.54016e-01,1.11937e-01,-1.23372e-01,-4.25192e-02,-3.74765e-01,-2.39429e-01,-4.88472e-02,5.93298e-02,4.64571e-01,6.66758e-01,4.03972e-01,1.40801e-01,2.74020e-02,1.70297e-01,2.32819e-01,-3.11646e-01,-4.00021e-01,5.34195e-02,5.87132e-01,-3.73761e-01,-2.70561e-01,1.15212e-01,-1.27806e-01,-1.07126e-01,
9.77044e-02,1.51492e-01,-2.03052e-01,4.40342e-02,-3.13058e-02,6.06122e-02,3.31581e-01,1.60469e-01,-2.35377e-01,-1.26987e-01,3.41105e-01,-3.44596e-02,-3.28376e-02,-2.13106e-01,2.06318e-01,-2.83362e-01,-2.32667e-01,9.91887e-02,2.55617e-02,-3.10684e-01,-4.75207e-02,-8.94397e-02,-2.82462e-01,-6.38090e-02,3.06967e-02,
2.96583e-01,1.33749e-01,-1.22926e-01,5.60774e-01,-1.73476e-01,1.59205e-02,-1.87569e-01,-3.19895e-01,1.50697e-01,3.25927e-03,4.58033e-01,2.57028e-01,2.47676e-01,-2.03357e-02,1.86035e-01,-2.14274e-02,-3.06409e-01,-4.29729e-01,-3.99019e-01,6.42718e-01,-6.87184e-02,-1.88364e-01,2.50597e-01,-5.64806e-03,-3.10450e-01,
-3.03257e-01,-9.24239e-02,-1.78557e-01,-6.19261e-01,-2.47775e-01,1.17148e-01,1.64899e-01,1.57223e-01,4.15279e-01,-2.12994e-02,-2.56306e-01,2.36450e-02,-1.32622e-01,-3.04269e-02,3.03671e-01,2.90273e-02,2.67854e-02,-2.26790e-01,-4.10338e-02,3.37244e-01,-2.52317e-03,2.42427e-01,8.74478e-02,1.81550e-01,-2.39295e-01,
-1.26028e-01,2.11779e-04,-2.98432e-01,4.45289e-01,-1.84928e-01,-3.69631e-01,4.95429e-02,6.92895e-02,5.41431e-01,1.20355e-01,6.09176e-02,3.61879e-01,-1.61972e-02,-3.79212e-02,-3.13981e-01,1.70071e-01,1.55938e-01,3.12274e-02,5.15959e-02,5.20599e-02,-6.16142e-02,2.44995e-03,-1.44793e-02,-3.83519e-01,-2.88772e-01,
-6.35684e-02,1.21157e-01,-3.76137e-01,-3.52642e-01,-7.52894e-01,-2.11745e-01,3.37317e-02,1.02371e-01,-5.39184e-01,2.40087e-01,3.23484e-01,3.15332e-01,5.44371e-01,9.28917e-02,-9.85400e-02,-2.98310e-01,-2.37743e-01,2.38512e-01,-2.86430e-01,3.78129e-01,-3.76272e-02,-2.61419e-01,8.11005e-02,7.23234e-03,-1.18766e-01,
2.60860e-01,-8.42791e-02,-2.76460e-02,4.63896e-01,1.25683e-01,2.72667e-01,2.75203e-01,2.82453e-01,5.69609e-01,2.02435e-01,-4.83901e-01,-2.18265e-01,-1.68431e-01,1.64439e-01,2.12399e-01,1.12108e-01,2.65798e-01,-1.09170e-01,4.79885e-02,-4.19141e-01,-2.46006e-01,2.51546e-01,2.81847e-01,-1.85317e-01,-1.27547e-01,
3.73043e-01,1.92064e-01,-3.23105e-01,-5.34351e-01,-3.98520e-02,-2.03600e-01,-1.37709e-01,6.52710e-02,-4.41249e-01,-4.35916e-02,3.32737e-01,-3.70846e-01,4.24800e-02,2.97804e-01,3.57974e-01,-2.85988e-01,2.85061e-01,8.39492e-02,2.25288e-02,-1.68874e-02,9.07021e-03,-8.12386e-02,-3.08577e-01,1.16892e-01,-3.43790e-01,
-9.27557e-03,2.86926e-01,-1.03836e-02,-3.13564e-01,-2.00567e-01,-1.50253e-01,1.62850e-01,-3.23988e-01,1.33528e-01,2.17455e-01,1.60321e+00,4.26188e-01,4.27728e-01,2.83800e-01,-3.55321e-02,6.66977e-02,-2.06029e-01,1.13994e-01,-5.68083e-01,2.79134e-01,-6.23869e-02,-6.88806e-01,1.86890e-01,-1.71663e-01,3.51411e-01,
2.53207e-01,-4.33995e-02,1.65290e-01,-1.90044e-01,-3.25995e-01,-2.28218e-01,-5.35069e-02,4.89673e-02,1.05017e-01,7.18256e-02,1.64452e-01,1.00272e-01,-3.21931e-01,-2.08094e-01,-6.81693e-02,6.72326e-04,6.78734e-02,-2.80856e-01,2.80026e-01,2.17813e-01,-3.20787e-01,-1.22840e-01,7.13013e-02,2.96154e-01,-1.35277e-02,
-3.21421e-01,8.70082e-02,2.77216e-01,-4.98774e-01,-5.76677e-01,-2.90456e-01,7.28200e-02,5.87479e-02,7.22073e-02,-2.98593e-01,9.28878e-01,7.57140e-02,9.55055e-02,-3.37011e-01,-3.59708e-01,-1.73292e-01,-1.23327e-01,2.34955e-01,-2.28904e-01,7.45660e-01,-2.87570e-01,2.32791e-01,1.78922e-01,-1.44618e-01,3.69074e-02,
1.08917e-01,4.37942e-01,3.49366e-01,2.13609e-01,2.57073e-02,1.99876e-01,-2.50087e-02,-2.55146e-02,2.57642e-01,3.41387e-02,-6.81419e-03,-1.81125e-01,-2.48117e-01,-4.92515e-02,-1.66636e-01,8.76465e-02,-2.78036e-02,-2.17762e-01,2.61165e-01,-2.42076e-01,-1.00906e-01,7.49659e-02,1.97189e-02,-1.90762e-01,8.98993e-02,
-1.17769e-01,2.75261e-01,4.18278e-02,-3.11542e-01,-1.87533e-01,3.29514e-01,-2.10628e-01,2.11088e-01,-3.06620e-01,2.16760e-01,-2.49850e-01,6.85522e-02,-2.35979e-01,-1.51762e-02,1.44772e-01,-3.02586e-01,3.45055e-01,5.15173e-02,2.38742e-01,-2.86110e-01,2.65647e-01,4.55457e-02,5.24385e-02,-3.36080e-01,1.31930e-01,
-2.80029e-01,-1.70801e-01,-5.26614e-01,4.86353e-01,5.50361e-02,-3.19317e-01,8.93417e-02,2.71730e-02,4.77408e-01,1.13040e-01,2.47875e-01,2.08331e-01,1.51180e-01,8.82530e-03,2.70506e-01,1.41932e-01,1.28933e-01,1.74294e-01,2.01640e-01,-5.93662e-01,-5.21202e-01,2.85608e-01,-1.41073e-01,-4.51992e-01,8.71907e-02,
5.71002e-02,-2.55277e-01,8.07527e-02,3.63609e-01,2.84798e-01,3.23330e-01,-3.36307e-01,8.64865e-02,6.20868e-01,-1.66009e-01,-2.67655e+00,-2.97104e-01,-1.90216e-02,-7.15571e-02,-1.15092e-01,3.25751e-01,1.77381e-01,2.09896e-01,2.45101e-02,5.40180e-01,-2.26293e-01,-1.08452e-01,1.48404e-01,-1.54686e-01,1.48891e-01,
1.87915e-01,-1.97575e-01,-4.02798e-01,-5.92701e-01,-6.91922e-02,2.57904e-01,2.46596e-01,-2.19721e-03,-9.07544e-02,-6.43177e-02,3.40476e-01,1.65949e-01,8.86932e-02,-6.18097e-02,-1.40374e-01,7.60077e-02,2.03014e-01,-1.12837e-01,-3.17327e-01,1.54888e-01,7.60444e-02,-3.17539e-01,1.24428e-01,2.40089e-01,2.84270e-01,
-4.45106e-01,1.55237e-01,3.53548e-01,4.43332e-01,-3.34619e-02,5.62554e-02,3.46025e-01,6.92572e-02,8.95165e-01,-3.07884e-01,-9.68374e-01,-2.83078e-01,-2.64572e-01,3.22031e-01,-5.08477e-01,-1.00398e-01,2.44278e-01,-7.82725e-02,-2.74861e-02,-3.98976e-01,-8.21386e-02,-2.10535e-01,1.36056e-01,-3.00023e-01,-3.12790e-01,
2.43263e-01,-2.03381e-01,-1.87059e-01,-6.85842e-02,3.08969e-01,-2.05868e-01,7.98548e-02,-8.73428e-02,-9.62642e-02,-6.05621e-02,-1.53368e-01,2.51524e-01,1.68560e-01,-4.99086e-02,-3.86886e-02,-3.48680e-01,-1.35594e-01,2.38181e-01,3.11125e-02,-2.53834e-01,-2.70342e-01,-3.48240e-01,6.99235e-02,4.23605e-02,2.74844e-01,
-1.74029e-01,1.50897e-01,1.97112e-02,1.43250e-01,3.28818e-01,-4.82745e-02,1.36951e-01,2.16652e-01,5.70648e-01,-7.63147e-02,-4.44618e-01,-1.68678e-01,-2.97060e-01,-1.93369e-01,-2.35530e-01,9.50881e-02,-1.34264e-01,-8.31117e-02,3.09074e-01,-9.65630e-02,1.15885e-01,3.41822e-01,-1.09429e-01,2.91865e-01,2.59587e-02,
1.75464e-01,-3.29725e-01,-3.58521e-01,1.73627e-01,3.22767e-01,-5.43361e-02,-2.54853e-01,-6.49938e-02,-4.58753e-01,-6.82892e-02,-1.66649e-01,6.83925e-02,1.51179e-01,-1.66051e-01,-9.16454e-02,-6.16455e-02,-3.24516e-01,1.64954e-01,1.71010e-01,-3.27395e-01,-2.27229e-01,-6.52205e-03,9.66218e-02,-1.27122e-01,-9.68115e-02,
-2.59965e-01,
-8.33387e-03,
2.41647e-01,
-3.28806e-02,
-1.24865e-01,
1.09820e-01,
-1.48250e-01,
1.89050e-01,
2.14700e-01,
1.80295e-01,
1.64378e-01,
1.52155e-02,
2.56376e-01,
-6.90704e-02,
-3.40315e-01,
2.00154e-01,
8.94528e-02,
-3.11496e-01,
1.81512e-02,
-1.79462e-01,
1.72753e-01,
2.70151e-01,
-2.62019e-01,
-7.75070e-03,
2.53822e-01,
-1.00983e-01,-3.99182e-01,3.82290e-01,-2.68458e-01,-1.07323e-01,-4.44023e-01,6.54000e-02,-1.86843e-01,-9.55778e-02,4.71396e-02,-3.47869e-02,3.41873e-02,1.82320e-01,-8.86683e-02,3.07628e-01,-2.47192e-01,3.11246e-02,1.39667e-02,7.85523e-02,6.45321e-01,-2.28560e-01,3.19417e-01,-3.29399e-01,3.73768e-02,-2.65657e-01,
-7.98918e-02,2.96767e-01,5.15622e-01,-2.57694e-01,-2.41155e-01,2.23042e-01,-3.26822e-01,1.13036e-01,-1.12824e-01,-8.83238e-02,3.41303e-02,2.03835e-01,4.06487e-01,2.10634e-02,-2.17974e-01,-2.36119e-02,-1.67238e-01,-2.14985e-01,2.56614e-01,7.56205e-03,-2.22388e-01,-9.52234e-02,2.91364e-01,4.22939e-02,2.03331e-01,
2.01809e-02,1.66077e-01,2.61860e-01,-1.88966e-01,1.47324e-01,-2.04383e-02,1.62545e-01,-3.19894e-02,5.73569e-02,1.84676e-01,2.55171e-01,2.41629e-01,2.19654e-01,3.59693e-01,1.84386e-02,-3.40915e-02,-2.45801e-01,-3.36158e-01,-8.03803e-02,-3.00380e-01,-1.83935e-01,-2.04036e-01,2.74396e-01,-1.02430e-01,1.86705e-01,
2.76535e-01,5.41210e-02,-1.21223e-01,4.37719e-01,1.53103e-01,5.88024e-02,-2.12464e-01,1.51464e-01,1.84661e-01,1.57603e-01,-1.85768e-01,2.27764e-01,-3.25586e-02,-2.77514e-03,3.15064e-01,7.04096e-02,6.77819e-02,2.37268e-01,-3.12075e-01,-9.08732e-02,-1.74859e-01,8.88701e-02,2.60566e-02,2.90243e-03,-1.01976e-01,
-2.90889e-01,1.75228e-01,3.13408e-01,8.09334e-02,-2.78950e-01,-1.83193e-01,1.28765e-01,-2.82758e-01,-1.21530e-01,-1.71263e-01,-2.50353e-02,1.96469e-01,1.87696e-01,1.11928e-01,-9.61029e-02,8.31403e-02,4.18512e-02,-8.04355e-02,-7.85255e-02,1.95035e-01,-3.34490e-01,-1.60378e-01,-1.84265e-01,1.20572e-01,1.82372e-01,
-2.54789e-01,-3.46483e-01,1.47286e-01,1.32696e-01,3.28141e-01,-3.99976e-02,-7.30359e-02,2.20365e-01,2.24843e-01,2.64533e-01,-1.13653e-01,-2.05185e-01,3.88692e-03,-3.74354e-01,2.05089e-01,2.52572e-01,-1.06054e-01,-4.08544e-02,-2.94379e-02,2.10837e-01,1.97111e-01,-1.57071e-01,1.95819e-01,9.86834e-02,2.35571e-01,
-3.35841e-01,-2.01833e-01,2.13175e-01,7.77356e-02,8.03382e-02,2.84751e-01,-2.69215e-02,2.71508e-01,2.38412e-01,4.03275e-02,-2.91976e-01,-1.85104e-01,-6.63551e-02,-8.01622e-01,-5.91051e-02,1.78896e-01,-1.65380e-02,9.08601e-02,1.50935e-01,3.55495e-01,-4.38076e-02,1.08078e-01,8.90183e-02,2.67923e-01,2.17367e-01,
3.75235e-03,-4.66833e-01,3.02187e-02,-1.31043e-01,4.00813e-02,-2.84062e-01,-1.91870e-01,-2.73351e-01,-1.74682e-02,-2.26390e-01,-3.26367e-03,1.51782e-01,1.89943e-02,-3.34677e-01,2.67203e-01,-2.27650e-01,2.33588e-01,-1.38809e-01,-2.65553e-01,4.69161e-01,2.54097e-01,3.32596e-01,6.97345e-02,1.14332e-01,-1.24739e-01,
-1.19480e-02,1.80983e-01,1.27861e-01,3.09528e-01,-9.75700e-02,1.89783e-01,2.45079e-01,4.15497e-01,-2.69340e-01,-2.67183e-01,3.65041e-01,-1.13761e-01,1.72882e-01,-1.59569e-01,1.36569e-02,-7.52569e-03,2.50296e-01,-3.08556e-03,5.33070e-01,-2.62708e-01,3.31559e-01,8.67658e-02,-2.67497e-01,-2.49489e-02,-8.85893e-02,
-1.27110e-01,-1.58819e-01,-1.27923e-01,2.54648e-02,-4.65832e-02,3.10732e-02,2.82855e-01,2.68120e-02,-1.38124e-01,2.53885e-01,6.51471e-02,-9.37448e-02,-3.53391e-02,-5.38542e-02,-9.07654e-03,6.11320e-02,3.51451e-01,3.01285e-01,-3.67833e-02,7.48284e-02,1.04703e-01,-2.95285e-01,-1.83580e-01,-1.93675e-01,3.75700e-01,
8.62922e-02,1.44221e-01,-6.17804e-02,7.26633e-02,-4.30877e-01,1.62956e-01,2.70572e-01,8.55498e-02,-3.09872e-01,-1.09808e-01,-3.12456e-01,9.12063e-02,1.87279e-01,7.40176e-02,3.42135e-01,1.83680e-01,-1.92720e-02,3.11596e-01,2.02103e-01,2.79498e-01,-8.92996e-02,1.72218e-01,2.31401e-01,2.72081e-01,-2.25531e-01,
-1.31401e-01,-9.14322e-02,3.06262e-02,2.25960e-01,2.34563e-01,1.54470e-01,-3.41758e-01,-2.81604e-02,-2.63847e-01,-3.19450e-01,-3.88603e-01,2.48682e-01,-1.28519e-01,-7.29677e-01,3.02946e-01,-1.30963e-01,4.34334e-02,-2.91509e-01,-1.10121e+00,-9.96010e-01,5.38372e-02,3.56173e-01,9.85676e-02,-1.71015e-02,-3.16276e-01,
-2.50507e-02,6.81338e-02,2.51019e-01,-3.26706e-01,-2.62355e-01,-2.24100e-01,-2.17455e-03,2.83377e-01,-7.44967e-02,1.34190e-01,6.83602e-02,1.22504e-01,-1.82779e-01,1.35061e-01,-2.44571e-02,-3.30217e-01,2.81847e-02,2.47739e-01,1.96321e-02,1.94249e-02,-3.57748e-01,-1.13308e-01,2.05436e-01,2.10872e-01,9.93273e-02,
-6.19073e-02,2.02962e-01,2.01611e-01,1.76644e-01,5.33326e-02,2.71201e-01,7.33376e-02,5.54280e-03,1.25062e-01,2.02912e-01,-1.83683e-01,-2.68024e-01,-3.14252e-01,-9.79880e-02,-2.97646e-01,-9.98758e-02,-5.64698e-02,-2.20152e-01,1.29121e-01,8.13721e-04,-2.45217e-01,-2.22346e-01,-2.16292e-01,-1.79743e-01,-2.55280e-01,
-1.44675e-01,-3.28138e-01,-2.63704e-02,-6.99723e-03,1.57087e-01,-1.27834e-01,-3.11868e-01,2.22904e-01,-1.34438e-01,-3.38380e-01,2.34308e-01,5.07228e-02,-7.88574e-02,-2.54136e-01,1.62623e-01,-7.88220e-02,3.02204e-02,-4.13782e-02,-3.08284e-01,2.26237e-02,-3.11517e-01,3.81764e-02,-5.59276e-02,1.64888e-01,-1.54855e-01,
-2.29189e-01,2.56794e-02,3.10708e-01,-1.74737e-01,2.18620e-01,2.55496e-01,2.40885e-03,3.05980e-01,-3.37501e-01,-2.55238e-01,1.50939e-01,-3.90279e-01,-1.46227e-01,-4.71882e-01,2.04833e-01,8.51733e-02,5.69584e-02,-1.76071e-01,3.34375e-01,-3.41532e-01,-5.92982e-02,-3.39524e-01,2.82750e-01,2.49634e-02,-1.62196e-01,
1.63913e-01,-2.75700e-01,-4.47863e-03,9.64325e-02,3.07211e-01,-2.41088e-01,-3.22586e-01,1.46653e-01,-1.56456e-01,-3.37159e-02,-2.42774e-01,5.86438e-02,1.07758e-02,-3.43104e-01,2.18655e-01,5.57377e-02,-3.44005e-01,-1.94561e-01,-3.35294e-01,-3.10300e-02,9.09723e-02,-1.74548e-01,1.93960e-01,2.77010e-01,1.21102e-01,
-2.77915e-01,3.37980e-02,1.28068e-02,-4.11228e-01,-1.98485e-01,4.18763e-01,6.70288e-02,-5.42656e-02,-1.91117e-01,-2.27777e-01,-2.93198e-01,3.63467e-02,-1.43489e-01,2.64619e-01,-2.16621e-03,3.70016e-03,-2.11014e-01,1.45589e-01,2.33820e-01,-5.82928e-02,-1.03041e-01,-1.58262e-02,-2.89589e-01,2.39651e-01,-2.74950e-02,
1.64206e-01,-1.99217e-01,2.75149e-01,6.39531e-02,-1.39415e-01,-9.69538e-02,-1.33672e-01,9.53788e-02,-3.14407e-01,1.75475e-02,-7.55568e-03,3.14770e-01,2.18911e-01,4.15600e-02,-3.78403e-02,-2.53512e-01,1.24309e-01,3.08143e-01,-3.45072e-01,2.45662e-01,8.38297e-02,-1.23532e-01,1.47278e-02,1.63593e-01,-8.02858e-02,
-1.03186e-01,2.72904e-01,-1.81088e-01,-5.39054e-03,3.11578e-01,-5.34170e-02,-2.48694e-01,-1.53399e-01,1.47865e-01,-2.32254e-01,-3.23743e-01,-3.45639e-01,-2.30922e-01,-5.36905e-02,-2.20503e-01,2.95041e-01,-3.48225e-01,-1.04396e-01,3.04127e-01,-2.76730e-01,-1.77305e-01,-2.75134e-01,4.74883e-02,-1.37498e-01,-1.41968e-01,
-3.08297e-01,-1.09559e-01,-6.63373e-02,-2.41479e-01,-2.15987e-01,2.06628e-01,-1.81929e-01,-1.08247e-03,-2.02450e-01,9.89302e-02,2.85271e-01,-2.69792e-01,1.74301e-01,-4.68908e-01,-9.02765e-02,4.52083e-01,1.61923e-01,3.09931e-01,6.43476e-01,-2.19933e-01,-8.75705e-02,1.96958e-01,-3.21939e-01,1.43740e-01,-3.54785e-01,
3.24706e-01,6.53305e-03,2.21007e-01,2.71807e-01,-3.45826e-02,-2.34584e-01,1.37851e-01,-2.88153e-01,1.51772e-01,1.64393e-01,6.41139e-02,-2.54592e-01,2.62445e-01,1.17071e-01,2.23730e-02,8.44266e-02,2.18642e-01,-9.67272e-02,9.16411e-02,2.03887e-02,1.05994e-02,-3.53672e-02,-3.03353e-01,-2.53982e-01,-3.33982e-01,
3.08593e-01,4.75056e-01,-2.47619e-01,3.91454e-01,9.66934e-02,5.94960e-01,3.22657e-01,2.96206e-01,3.08250e-01,-8.30691e-02,2.02511e-01,-1.07921e-01,3.62440e-01,-3.14494e-01,-7.05657e-02,-1.58036e-01,2.36795e-01,-1.04788e-01,-2.23107e-01,2.25538e-01,-2.74774e-01,-2.81360e-01,-1.85948e-01,-2.98750e-01,7.66995e-02,
-2.20609e-01,2.70054e-01,2.82360e-01,2.92364e-01,1.74195e-01,1.74755e-01,-2.97957e-01,3.63515e-01,1.41176e-01,1.91931e-01,6.45633e-02,1.78548e-01,-6.97508e-02,9.11396e-02,1.03195e-01,-2.09048e-01,2.64748e-02,-3.30904e-01,-2.36321e-01,-3.65728e-02,-2.77683e-01,-2.55542e-01,2.16976e-01,1.41437e-01,3.31461e-01,
-2.74829e-01,-7.21763e-01,-1.58914e-01,-3.28068e-01,-1.50898e-01,-5.07718e-01,-9.52549e-02,-6.09916e-01,-5.36124e-02,-7.57375e-01,1.24851e-01,-2.80060e-02,-1.09692e-01,1.17241e+00,-9.97178e-02,-2.44098e-01,-3.24990e-01,-4.11182e-02,1.31211e-01,-5.18041e-01,-6.82349e-02,5.64472e-02,-3.42194e-01,1.81022e-01,7.47502e-02,
8.08025e-02,
-2.32330e-01,
2.83374e-01,
4.82687e-02,
-1.82495e-01,
-9.20970e-02,
-6.23026e-02,
1.19490e-01,
-1.10721e-01,
-8.53386e-02,
2.38276e-01,
9.48706e-02,
1.43102e-01,
2.29909e-01,
-1.18387e-01,
1.59478e-01,
-3.35354e-01,
1.47973e-01,
3.33064e-03,
7.57706e-02,
3.56006e-02,
1.09301e-02,
-4.58040e-02,
1.82174e-01,
7.42261e-02,
1.05991e-01,-2.82009e-01,1.53724e-01,2.31471e-01,-1.36771e-01,-1.30285e-02,-2.49149e-01,-2.75309e-01,-7.30183e-02,2.28314e-01,4.76608e-02,-2.86953e-01,2.05720e-01,-3.01191e-01,6.52531e-03,-4.94244e-02,-3.61917e-02,2.33807e-01,1.98865e-01,1.24903e-01,8.13041e-02,-3.12312e-02,-9.05790e-02,1.85041e-01,-2.65453e-01,
1.30290e-01,-1.34645e-01,-1.70719e-01,-4.03299e-01,2.44203e-01,1.59962e-02,-3.39896e-03,1.28801e-01,-1.32565e-01,4.99143e-02,1.26304e-01,-1.38511e-01,4.24293e-02,-2.41500e-01,-1.69339e-01,-1.15663e-01,-1.43131e-01,-6.16986e-02,8.33231e-03,2.81911e-01,3.46726e-01,-2.88092e-01,-2.96851e-01,-1.11912e-02,-1.13009e-01,
1.03274e-01,-2.53914e-01,1.44089e-01,-4.30700e-02,-2.05775e-01,-1.81449e-01,1.24835e-01,-1.07019e-01,7.80818e-02,-5.50647e-02,2.60299e-01,-1.51449e-01,-2.24271e-02,-1.32698e-01,1.98425e-02,-4.01149e-02,-2.14297e-01,1.43620e-01,2.72096e-02,-2.43708e-01,-1.46863e-01,2.05784e-01,-2.20576e-01,-1.78743e-01,-1.12795e-01,
1.17973e-01,1.84883e-01,-5.02920e-03,1.15021e-01,-2.73523e-01,-2.87596e-01,-2.24188e-01,-1.16291e-01,-3.21495e-01,2.51971e-01,-2.45860e-01,9.54544e-02,9.82775e-02,2.89851e-01,3.11879e-01,-8.85802e-02,2.34323e-01,-8.90818e-02,-1.86569e-01,-7.97804e-02,-5.57938e-02,3.38741e-01,-2.46209e-01,4.93723e-02,-9.28034e-02,
1.93677e-01,-1.62648e-01,1.32202e-01,-6.58233e-01,-8.20403e-02,-1.85290e-01,4.46603e-01,-4.28276e-01,9.59597e-02,3.19454e-01,9.39739e-02,-7.70387e-01,-2.91686e-01,-1.16591e-01,-3.07714e-01,-1.20200e-01,-1.87415e-01,1.59626e-01,-9.75392e-02,-2.51407e-01,-5.56589e-01,-2.01065e-02,-8.05187e-02,-1.17811e-01,2.24708e-01,
-1.00911e-01,9.46091e-02,1.32721e-01,-2.16282e-02,-2.95270e-02,-3.82816e-02,6.42397e-02,2.00972e-01,6.27673e-02,-1.84905e-01,2.37891e-01,-7.38727e-02,-4.23560e-02,2.07861e-02,-7.95600e-02,2.00386e-02,-2.57496e-01,-1.93936e-01,1.11462e-01,-2.27105e-01,1.15065e-01,-1.53130e-01,-6.40216e-02,-1.34452e-01,4.09562e-02,
-3.60361e-03,-3.62292e-02,2.66233e-01,1.03260e-01,-7.13013e-02,8.97074e-02,-1.99752e-02,-3.48292e-01,-2.36036e-01,2.71127e-01,1.01090e-01,8.52251e-02,1.28292e-01,1.23203e-01,2.24610e-01,1.61744e-01,8.85122e-02,-2.38139e-01,-2.49999e-01,-6.09970e-02,1.05172e-02,-2.90666e-01,-1.24833e-01,-2.28479e-02,-8.47846e-03,
-9.87448e-02,2.17248e-01,-8.34110e-02,-2.01439e-01,2.21529e-01,-6.93023e-02,4.69599e-02,-2.27591e-01,1.09447e-01,-1.09744e-01,2.31733e-02,-1.04298e-01,-2.71161e-01,1.56844e-01,-2.49629e-01,-2.78519e-01,4.47734e-02,-3.31049e-01,4.37089e-02,-1.96318e-02,-2.69877e-02,-4.54464e-01,-9.91621e-02,-3.29391e-01,3.53889e-01,
1.74161e-01,-1.32478e-01,2.29886e-01,1.00029e-01,3.35319e-01,2.05489e-02,1.34438e-01,3.08178e-01,-1.55663e-01,-4.27404e-02,-6.36424e-02,-2.44374e-01,1.47632e-01,-3.18904e-01,-1.99105e-01,2.62008e-01,-1.00861e-01,7.56163e-02,-2.85358e-01,2.40298e-01,2.70020e-01,-3.23522e-02,2.05314e-01,-1.08718e-01,-3.93808e-03,
-2.14456e-02,-2.50656e-01,2.17678e-01,-2.33690e-01,1.11795e-02,9.36898e-02,-1.19380e-01,2.25202e-01,1.71521e-02,1.72226e-01,1.04761e-02,-1.36903e-01,2.27260e-01,-1.46997e-01,-2.25322e-02,2.10042e-02,2.15893e-01,3.55613e-01,1.73933e-02,3.44462e-01,-2.22547e-01,2.75498e-01,2.59447e-01,3.52477e-01,1.60028e-02,
-2.47858e-01,8.43643e-02,-2.40703e-01,-5.78268e-02,2.39239e-01,-2.88311e-02,3.09320e-01,-2.71042e-01,-3.21562e-01,-3.15125e-01,-2.21821e-01,-1.38735e-01,-3.02129e-01,-3.25501e-01,1.89596e-01,2.79177e-01,1.67167e-01,9.28490e-02,-5.37893e-02,-1.58997e-01,-1.44014e-01,-3.39480e-01,-2.19287e-01,-4.89344e-02,-1.70880e-01,
1.59773e-01,-4.01675e-01,8.68366e-02,7.76828e-02,-3.22331e-01,1.14776e-01,1.10178e-01,4.81598e-02,-1.60423e-01,1.43600e-01,1.98888e-01,-1.67591e-01,2.02581e-01,7.47852e-02,-8.41402e-02,9.46095e-02,-2.39865e-01,3.17338e-01,4.85398e-02,2.79781e-01,7.57958e-02,3.94727e-01,9.80613e-03,-7.00052e-02,-1.23942e-01,
6.38574e-01,-2.74870e-01,-3.43981e-01,-2.85878e-01,4.03600e-03,-2.46642e-01,-9.58567e-02,-3.95565e-01,-3.26396e-01,1.75747e-01,1.26313e-01,-1.91116e-01,-1.81860e-01,-8.04386e-02,-1.46732e-01,3.48318e-01,2.95879e-02,-2.24194e-01,2.41522e-01,-1.39481e-01,-6.20191e-01,-2.98278e-01,4.66535e-01,-1.49773e-01,5.86649e-01,
-3.78553e-01,-1.65609e-01,1.61591e-01,2.89490e-02,3.08126e-01,1.62143e-01,-1.32294e-01,2.97870e-01,-5.04741e-02,2.95586e-01,-1.38609e-02,1.35884e-01,2.49607e-01,-3.76588e-02,-3.02460e-01,-1.64721e-02,2.02647e-01,6.34929e-02,-4.04058e-02,-2.29529e-01,-8.44891e-02,1.45117e-02,3.92095e-01,-1.24485e-02,-2.83153e-02,
9.66395e-02,2.89158e-01,1.01317e-01,-2.15955e-01,-1.56504e-01,-1.51407e-01,3.62495e-01,2.72473e-01,2.64436e-01,8.74849e-02,-3.11242e-01,1.96769e-01,2.50797e-01,-3.46714e-02,-2.18295e-01,-3.48541e-02,-3.45351e-01,1.47529e-01,-1.96711e-01,-1.82211e-02,-3.15478e-01,9.92434e-02,2.28082e-01,-3.44666e-01,-6.53135e-02,
2.69717e-01,-1.70862e-01,-2.75343e-01,-3.75202e-02,-6.48595e-02,2.23062e-01,-2.85546e-01,1.01457e-01,1.08550e-02,2.53853e-03,-3.82958e-01,8.08132e-02,8.06096e-02,3.42774e-01,-2.70176e-01,9.37880e-03,6.66249e-02,1.30479e-01,5.86433e-04,1.62584e-01,-4.78639e-02,1.58694e-01,2.13535e-01,2.37572e-01,9.56058e-02,
-2.55482e-01,-1.78313e-03,-3.12375e-01,-1.52957e-01,-2.68630e-01,3.76107e-02,-3.32263e-01,-1.06617e-01,-2.44543e-02,6.75054e-02,2.22187e-01,2.69841e-01,1.26736e-01,-2.76150e-01,-6.49576e-02,2.86686e-01,-3.29216e-01,1.91325e-01,-2.45118e-01,-2.64734e-01,-2.29807e-01,1.13360e-01,3.00751e-01,-2.61575e-01,1.02350e-01,
2.50465e-01,3.56419e-01,3.11293e-02,2.18176e-01,1.05218e-01,3.01864e-01,3.87929e-01,3.89608e-01,-5.99496e-01,-4.55608e-01,2.97867e-01,1.56388e-02,-2.20185e-02,-4.51352e-02,-7.80193e-02,-1.00139e+00,2.60454e-01,4.27221e-02,1.29958e-01,9.66908e-03,-3.64747e-01,3.13683e-01,8.94045e-02,-9.27320e-02,-2.02651e-01,
-2.10000e-01,2.70422e-01,-3.28893e-02,-1.60194e-01,9.01907e-02,-2.05992e-01,8.07822e-02,3.28560e-01,1.39683e-01,-2.26586e-01,-9.73570e-03,-2.23533e-01,-3.22128e-01,1.00486e-01,2.67348e-01,1.57924e-01,-7.37678e-02,-1.97129e-01,-1.19240e-01,3.21277e-01,-2.18923e-01,-4.82793e-02,-1.11356e-01,-2.97198e-01,-1.73062e-01,
1.67017e-01,1.60741e-01,1.01920e-01,-1.36468e-01,-1.52122e-01,8.00053e-02,-5.99160e-02,2.10728e-01,1.84100e-01,-1.20742e-01,3.41373e-02,1.66754e-02,-1.64303e-01,1.61390e-01,-2.81578e-02,-1.06036e-01,1.78581e-01,7.51585e-02,-1.02720e-01,-1.92061e-01,-1.28827e-01,1.44489e-01,-1.29187e-01,2.54689e-01,5.83298e-02,
-1.51962e-02,-1.71777e-01,-2.53600e-02,1.55129e-01,3.42855e-01,2.57000e-01,1.98847e-01,-2.63769e-01,5.61753e-02,-2.61403e-01,1.88621e-01,3.28604e-01,-1.19150e-02,1.80298e-01,-3.74485e-02,-3.55878e-03,2.71804e-01,3.12792e-01,-2.41945e-01,2.86819e-01,3.05172e-01,-2.74499e-02,-1.24254e-01,-2.50724e-01,1.50166e-01,
3.26867e-02,3.34511e-01,-1.01528e-01,-3.42253e-01,3.22659e-01,-2.92851e-02,1.67527e-01,-3.48180e-01,1.54253e-01,7.21348e-02,1.05132e-01,2.84062e-01,-1.02554e-03,-2.78943e-01,1.35540e-01,-3.19117e-01,-2.48218e-01,-3.50747e-01,-3.41519e-01,-6.52367e-02,2.37459e-02,3.97782e-02,-9.11348e-02,1.51001e-01,1.22026e-02,
2.38152e-01,-3.66214e-01,-9.92133e-02,-1.69408e-01,1.89719e-02,-8.08739e-02,-4.73519e-02,6.09242e-02,1.93081e-01,-1.18656e-01,-8.55797e-02,-2.10769e-02,-6.92614e-02,-1.61279e-02,1.63516e-01,3.74663e-02,7.09720e-02,2.14754e-01,2.42892e-01,-4.49551e-02,-3.18511e-01,2.93772e-01,1.73669e-01,-2.59217e-02,1.24424e-01,
1.89633e-01,1.88366e-01,-3.33547e-02,-7.00155e-02,-2.97495e-01,-1.54365e-01,-2.17814e-01,-2.23564e-01,8.15442e-02,-8.11088e-03,4.63089e-02,5.37543e-02,-2.08431e-01,-4.67512e-03,-3.06410e-01,3.15555e-01,-1.92291e-01,1.94185e-01,-2.52624e-01,3.24981e-01,3.22932e-01,-2.44619e-02,7.60690e-02,-2.99852e-01,-4.19113e-03,
-1.48887e-01,1.77384e-01,1.46528e-01,-4.22516e-02,-3.20706e-01,5.69699e-02,1.75986e-01,-1.04673e-01,-1.14477e-01,3.77588e-01,6.10073e-02,1.37876e-01,-1.25144e-01,-2.83221e-02,-1.42417e-01,3.37364e-01,1.39766e-01,2.41722e-02,-3.71294e-02,3.83084e-03,2.22125e-01,2.49330e-01,2.22634e-01,1.50695e-01,6.97528e-02,
-3.38114e-01,
-2.72554e-02,
3.40666e-01,
-2.87762e-01,
9.31977e-02,
2.99991e-01,
2.49932e-01,
1.36605e-01,
-2.06612e-01,
-1.82621e-01,
1.83612e-01,
1.14847e-02,
2.02216e-01,
2.05485e-01,
8.46846e-02,
6.58481e-02,
-2.09244e-01,
-1.38555e-01,
-3.09489e-01,
1.88287e-01,
-1.79015e-01,
3.07690e-02,
4.50807e-02,
-3.32367e-02,
-6.97787e-02,
2.12333e-01,-6.20000e-01,3.08227e-01,4.10733e-02,9.74233e-02,3.98315e-01,1.15369e-01,-5.84804e-01,3.95084e-01,5.93472e-02,2.90215e-01,7.13895e-02,-1.13793e-01,3.51762e-01,-5.66783e-03,1.85392e-01,3.53278e-01,8.95069e-02,-4.70662e-02,-3.09550e-01,-3.23326e-01,2.40154e-01,-2.14138e-02,3.19369e-01,-1.19536e-01,
-1.10708e-01,2.57308e-01,3.50492e-01,1.46811e-01,-1.06017e-01,-5.29989e-02,9.97102e-02,2.16952e-01,-3.30009e-01,-5.13172e-02,-7.04667e-02,-2.83185e-01,9.95685e-02,2.15854e-01,-5.52814e-02,7.52003e-02,-2.20621e-01,5.27539e-02,2.53001e-01,4.00467e-01,-1.33582e-01,-5.76980e-02,-2.92814e-02,5.82358e-02,8.94063e-02,
-2.54336e-01,7.69923e-02,2.08382e-01,-2.85996e-01,1.53638e-02,-1.04407e-01,-7.61789e-03,4.58799e-01,2.60878e-01,-4.35502e-02,2.61981e-01,-7.91559e-02,1.76740e-03,5.19038e-02,-6.66485e-03,1.46478e-01,1.25679e-02,4.85697e-02,3.91493e-01,-1.65127e-01,4.18246e-01,3.28929e-01,-5.55226e-02,-4.39827e-01,-3.34244e-02,
2.60820e-01,3.12401e-01,3.00604e-02,-2.31260e-01,5.76796e-02,4.88147e-01,5.66377e-02,-3.54247e-02,-3.21810e-01,-8.84853e-02,-3.20380e-01,1.46562e-01,4.62198e-02,3.16960e-01,6.81677e-02,3.60469e-02,3.56791e-01,-1.09540e-01,4.30120e-01,4.83007e-01,1.73736e-01,-3.30166e-01,-1.19286e-01,-2.49888e-01,8.78617e-02,
-5.64861e-03,5.02391e-02,1.67898e-01,-2.97552e-01,3.41162e-02,-4.07650e-01,-2.76606e-01,4.25449e-01,2.97543e-01,4.61638e-02,-5.80636e-03,-1.12634e-01,1.66070e-02,-1.64966e-01,1.05756e-02,1.76931e-01,-1.56598e-01,3.88096e-02,-2.98701e-01,-4.14123e-01,1.97008e-01,2.12875e-01,-2.55625e-01,4.03239e-01,-5.03299e-03,
-3.09899e-01,
-2.89582e-01,
1.86985e-02,
-4.78667e-01,
3.75736e-01,
