// Neural Network File Format by Kyle Julian, Stanford 2016
6,5,5,25,
5,25,25,25,25,25,5,
0,
-56000.000000,-56000.000000,-3.141593,200.000000,200.000000
56000.000000,56000.000000,3.141593,200.000000,200.000000
-278.628049,0.000000,0.000000,200.000000,200.000000,-0.242819
112000.000000,112000.000000,6.283185,1.000000,1.000000,17.479225
3.15975e-01,-2.23242e+00,1.08855e-01,2.87856e-01,3.45340e-01,
-5.95049e-01,3.44119e-01,2.07824e-01,-3.16212e-01,2.24899e-01,
-2.11583e+00,-8.86087e-02,5.05307e-01,-2.43794e-01,3.71009e-01,
-2.06090e+00,8.49455e-01,-4.64741e-01,-8.94217e-02,-2.79301e-01,
-5.66227e-01,1.82485e+00,5.46932e-01,1.36874e-02,-6.16127e-03,
-2.20324e+00,8.11892e-01,1.53853e-01,1.59317e-01,1.39340e-01,
-1.79059e-02,5.36164e-02,-4.11468e-01,-4.05044e-01,-3.57608e-01,
-3.59949e-02,9.02985e-02,1.93187e-01,9.48299e-02,-3.43176e-01,
8.97461e-01,6.77008e-01,2.21408e-01,4.72576e-02,-1.89593e-01,
-1.12916e+00,-1.81762e+00,-5.86802e-01,-4.07684e-02,-2.55203e-01,
-1.80059e-01,-2.73139e-01,2.03084e-01,3.57457e-01,-3.18962e-01,
2.30246e+00,-8.76618e-02,1.09386e-01,3.64648e-01,2.02766e-01,
6.15800e-02,-1.07484e+00,-7.28984e-01,-2.83778e-01,-2.79345e-01,
4.73882e-01,2.71227e+00,-9.87299e-02,1.91303e-01,1.37530e-02,
1.16398e+00,-1.62358e+00,8.73368e-01,-1.89714e-01,1.30008e-01,
-1.31210e-01,2.73109e-01,3.09157e-01,-3.51084e-01,1.44860e-01,
-3.23066e-01,1.51552e+00,3.72353e-01,3.20872e-01,-3.25501e-02,
-2.21078e+00,5.28420e-01,9.82989e-02,-5.39599e-02,-2.92273e-01,
1.57241e+00,-3.49610e-01,-8.08085e-01,-3.97896e-01,-1.21257e-01,
-1.59384e+00,-1.46784e+00,9.55221e-02,1.20338e-01,3.50828e-01,
1.26374e+00,1.33581e+00,-2.02226e-01,5.14573e-02,4.29696e-02,
1.45212e+00,1.50295e+00,4.26401e-01,4.09796e-01,-4.40096e-02,
1.00464e+00,1.48873e+00,1.15149e-01,-4.19142e-01,2.02069e-01,
1.13426e+00,-7.04836e-01,3.20854e-02,1.04851e-01,7.62959e-02,
-2.62962e-01,-5.76299e-01,1.54065e-01,-7.15827e-02,-2.05214e-02,
1.23077e-01,
1.41840e-01,
-4.40552e-03,
-5.02769e-02,
7.23955e-02,
3.28362e-03,
-2.95963e-01,
-1.97513e-01,
1.73433e-01,
2.22822e-01,
-2.66179e-01,
-1.36015e-03,
-7.35697e-02,
5.88502e-02,
-1.11958e-01,
-3.06329e-01,
1.96161e-01,
-5.93003e-02,
1.15924e-01,
-2.51883e-02,
1.77416e-01,
1.51793e-01,
1.87256e-01,
1.54227e-01,
2.06795e-01,
1.94824e-01,-3.66050e-01,3.33377e-01,-1.15820e+00,-1.64330e-01,-1.11342e+00,-2.54818e-01,7.87230e-02,-8.02699e-02,3.51574e-02,2.26597e-01,-3.97988e-01,-4.70059e-01,-3.37805e-01,6.58257e-01,3.34181e-01,-2.93597e-01,-3.32057e-01,4.97053e-01,-9.18887e-01,-4.48301e-02,6.02374e-02,-3.76431e-01,1.70460e-01,-1.39599e-01,
-3.51760e-02,-3.34114e-01,-8.78817e-03,-2.48127e-01,-5.22642e-01,-1.75419e-01,-3.07277e-01,1.94844e-01,1.60423e-01,1.99919e-01,3.40366e-01,3.83703e-01,-1.23927e-01,-5.61192e-01,4.19257e-01,-8.71509e-04,1.26571e-01,6.74901e-02,3.77395e-01,2.49595e-01,-3.98887e-01,-1.29393e-01,-2.28715e-01,-3.22947e-01,-1.61851e-01,
1.14728e-01,-1.52964e-01,6.87787e-01,-7.89265e-01,-5.60581e-01,6.24143e-02,2.64185e-01,5.78181e-02,-8.68672e-03,-1.50824e-01,8.99795e-02,2.80234e-01,4.16381e-01,-1.24784e-01,3.48984e-01,-3.88220e-01,6.28046e-02,-1.43683e+00,4.73038e-01,1.13716e-01,-5.77215e-03,-2.29715e-01,2.56519e-01,8.09372e-02,-5.01499e-01,
-1.24931e-01,-6.43313e-03,-4.09634e-01,6.19427e-01,9.65567e-02,-1.11861e+00,8.96132e-02,2.83051e-01,2.34642e-01,3.33448e-01,-1.14050e-01,4.11036e-01,-1.89472e-01,-1.60821e-03,-8.72713e-02,-1.82844e-01,-1.15724e-02,1.40242e+00,-4.36720e-01,1.63335e+00,2.19846e-01,8.32165e-03,-2.38250e-02,7.78574e-02,3.55576e-01,
-1.85465e-01,-2.24451e-01,-3.16593e-01,8.39694e-01,-2.99449e-02,6.19668e-01,2.54696e-01,-6.52353e-02,3.10921e-01,-3.74538e-01,9.80889e-02,2.14074e-01,-1.04125e-02,2.52061e-01,-4.50818e-01,1.97624e-01,2.37610e-01,-1.13636e+00,2.82291e-02,8.69125e-01,-9.56726e-03,1.21340e-01,-2.99852e-01,1.45956e-01,-2.39433e-01,
-6.55035e-02,5.36734e-03,1.93813e-01,-1.57757e-02,-2.26953e-01,3.14774e-01,-2.47100e-01,-2.86211e-01,-2.72857e-01,-3.43343e-01,-1.39742e-01,1.68231e-01,-1.25107e-01,-2.82342e-01,1.22190e-02,-2.56405e-01,-2.34291e-01,-2.81432e-01,-1.06315e-01,2.07147e-01,-3.44987e-01,-3.18456e-02,-1.95434e-01,-1.68902e-02,-3.47447e-01,
1.85000e-01,-8.31135e-02,6.23344e-01,-1.56011e+00,-3.76745e-01,7.61649e-01,2.82275e-01,-3.22812e-01,1.26686e-01,-7.67086e-01,-2.04754e-01,-6.19261e-02,9.60218e-01,5.09439e-01,4.79505e-01,3.13214e-01,-2.90535e-01,-1.92075e+00,-5.14671e-01,4.66063e-01,-2.62495e-02,-6.82028e-02,-8.20491e-02,2.82966e-01,-1.12508e-01,
3.87386e-01,-1.53831e-01,1.18272e-01,-7.88054e-02,-6.05371e-01,4.75267e-01,7.01796e-02,-2.76050e-01,1.82916e-01,5.34629e-01,-2.95193e-01,9.28469e-01,-6.09994e-01,-5.53994e-01,-9.84356e-01,1.22615e-01,-2.38201e-01,8.06491e-01,1.28015e-01,-8.08423e-01,2.15424e-01,-2.14979e-01,-1.67271e-01,2.15187e-01,-2.31355e-02,
2.02443e-01,2.95598e-01,-2.58062e-02,3.14352e-01,5.14769e-01,4.49046e-01,-3.05700e-01,2.53535e-01,-5.37533e-02,-7.30655e-02,2.58240e-01,4.06817e-01,4.18557e-01,1.36119e-01,-4.16667e-01,3.14903e-01,2.54883e-01,-1.32872e+00,-3.87322e-01,1.00717e-01,-3.85940e-01,4.76015e-03,-2.18410e-02,-2.05215e-01,3.41925e-01,
-1.11254e-01,-1.71846e-01,-9.03907e-02,-2.89360e-01,-2.65646e-01,-2.50580e-01,-2.30110e-01,1.77296e-01,-2.38066e-01,-1.04370e-01,-7.22899e-02,2.34492e-01,-5.87113e-03,-1.86566e-01,-5.15485e-02,-3.19915e-01,-8.46401e-02,1.84072e-01,2.68656e-01,-1.77596e-01,-2.81080e-01,3.27558e-01,-7.86725e-02,-7.68219e-02,-2.19277e-01,
-2.64638e-02,1.20038e-01,5.37614e-01,2.27757e-01,-3.13538e-01,2.64359e-01,-9.07046e-02,-1.42313e-01,-3.40646e-01,1.89177e-01,-1.75369e-01,-5.58216e-02,-1.73934e-01,-4.47741e-01,3.68100e-01,2.20509e-01,-3.16920e-02,-3.17053e-01,1.12416e-01,7.67573e-01,-3.31230e-01,-2.49025e-01,-4.15613e-01,-2.04044e-01,5.68414e-02,
-1.35081e-02,3.58156e-01,9.73042e-02,-5.25342e-04,-1.82520e-01,-1.25057e+00,9.92142e-02,2.16480e-01,-1.19237e-01,1.66691e-01,1.89110e-01,-8.59995e-01,1.07443e-02,-1.01441e-01,8.01186e-01,1.37155e-02,-1.07228e-01,8.28724e-01,1.23347e-01,1.45895e-01,5.50274e-02,-3.00511e-01,-3.95356e-01,-4.39599e-02,2.06190e-01,
1.23276e-01,-2.71861e-01,2.53505e-01,-1.06842e+00,6.98711e-02,-1.01152e+00,3.38732e-01,-2.30262e-01,2.50995e-01,3.73270e-01,2.11540e-01,-8.64891e-01,-5.07689e-01,3.18094e-01,-1.07352e-01,-2.68380e-01,-3.58368e-01,7.27091e-01,-7.59669e-02,-1.62513e+00,-3.16111e-01,-8.11818e-02,-1.68244e-01,1.39398e-01,-6.76389e-02,
3.04077e-01,-5.20290e-02,-2.02333e-01,-9.52029e-01,-4.77607e-02,8.01794e-01,-2.23379e-02,3.43064e-02,3.69306e-01,1.74593e-01,1.19066e-01,-1.83204e-01,2.49302e-01,-2.39653e-01,-3.48893e-01,1.59260e-01,1.53709e-01,1.48998e+00,6.94997e-01,2.90346e-01,4.37972e-01,2.71020e-01,-1.75381e-01,1.49058e-01,1.60855e-01,
-8.82362e-02,-2.68349e-01,-5.30393e-01,5.96916e-01,2.83864e-01,3.48707e-02,1.73768e-01,-1.58007e-01,4.11937e-01,2.22322e-01,-4.94090e-03,3.53003e-02,3.85530e-01,8.86585e-02,3.23291e-01,-1.51063e-01,2.02960e-01,6.26214e-01,-2.04831e-01,1.02127e-01,1.33364e-01,1.11928e-02,3.67647e-01,-1.49895e-01,-1.12986e-01,
3.05518e-01,1.60053e-01,-4.27122e-02,-2.22582e-01,-1.56000e-01,-7.11451e-01,-1.22008e-01,-1.01936e-01,-9.98269e-02,1.66096e-01,1.56635e-02,-9.00701e-01,8.20637e-01,-4.63114e-01,-2.42486e-01,2.04904e-01,-5.94473e-02,-2.09412e+00,-3.18218e-01,-1.20009e+00,-2.56953e-01,-8.48524e-02,-1.74027e-01,8.39977e-02,1.97514e-01,
4.72550e-01,-2.75523e-01,-1.42250e-02,4.30686e-02,-5.64871e-01,-5.98675e-01,2.12941e-01,2.38001e-01,-2.45276e-01,5.40893e-02,-1.11646e-01,1.27097e-01,-5.13097e-01,-1.43500e-01,-1.62227e+00,7.01751e-03,-2.27334e-02,-6.70994e-01,-2.15025e-01,-1.39571e+00,1.08158e-01,-2.12292e-01,-1.48401e-01,1.37387e-01,-2.01649e-02,
-5.79480e-02,2.50825e-01,4.97673e-01,-2.10071e-01,-2.12795e-01,7.61904e-01,2.10352e-01,1.85809e-01,2.51419e-01,-4.62917e-01,-1.83197e-01,-3.56648e-01,-7.97687e-02,2.27003e-01,-4.14485e-01,-3.32001e-03,1.81879e-02,-1.50842e+00,4.64974e-01,-5.86222e-01,5.45012e-02,-2.35577e-01,3.36943e-02,1.66027e-01,-2.18181e-01,
-1.52389e-01,-8.38417e-02,-1.44837e-01,-8.44930e-01,1.67002e-01,5.87297e-01,2.29925e-03,2.34925e-01,-1.20323e-01,2.51234e-01,-1.83554e-01,6.35511e-02,3.97683e-01,3.73282e-02,-1.76208e-01,-2.84495e-01,-1.08428e-01,-8.76595e-02,8.60900e-02,-6.58346e-02,-2.85139e-01,-1.51213e-01,-1.48721e-01,-1.71176e-01,6.10048e-02,
-4.95665e-01,-1.82375e-01,1.27703e+00,-2.51933e-02,-2.46302e-01,2.29914e-03,1.58426e-01,-1.39602e-01,-3.70486e-01,2.13906e-01,1.42427e-01,-1.30908e+00,7.75160e-01,5.59753e-02,-3.97160e-02,1.53664e-01,-1.21829e-01,-1.57347e+00,-7.83604e-02,-1.55781e+00,-9.66387e-02,-1.09320e-01,9.12791e-02,-2.90035e-01,-7.28225e-03,
-4.74046e-02,1.03601e-01,-2.74321e-01,-3.99523e-01,2.96022e-01,-1.21825e-01,1.69710e-01,-1.08622e-01,3.24928e-01,-1.76106e-01,3.05483e-02,-1.28148e+00,3.20068e-01,4.56458e-01,4.58334e-01,-3.23082e-02,1.69259e-01,2.70339e-01,-2.52670e-01,1.13142e+00,1.65233e-01,-2.08092e-02,2.42852e-01,2.12085e-02,2.28369e-01,
2.40752e-01,3.15955e-01,3.84374e-01,-2.40979e-01,2.92982e-01,-1.68822e-01,1.76884e-02,-1.46835e-02,3.20157e-01,-5.02691e-02,-1.65320e-01,-8.28971e-01,1.51196e-01,-9.70012e-02,-3.17733e-01,-2.72792e-01,-1.33465e-01,4.62951e-01,4.11424e-02,5.02876e-01,2.79077e-01,-1.59818e-01,2.46230e-01,-6.15454e-01,-4.41829e-03,
-6.97206e-01,1.18591e-01,-1.52462e-01,-8.51487e-01,2.91022e-01,1.04426e+00,-1.40625e-01,-2.72388e-01,-1.63152e-01,6.50977e-02,-1.42847e-01,-5.50236e-01,9.32912e-02,5.06562e-01,1.04407e+00,1.87763e-01,-6.63241e-02,-4.16475e-01,4.31555e-01,-2.07946e+00,2.69717e-01,-2.74176e-01,1.37753e-01,-2.28669e-01,-2.71137e-01,
-3.01899e-01,-5.41305e-02,5.15541e-02,-2.00257e-01,1.16771e-02,2.76952e-01,5.13116e-02,1.53462e-01,-1.95614e-01,-2.14029e-01,1.78577e-02,-3.42435e-01,-1.26918e-02,-9.20347e-02,3.42895e-01,-2.71428e-01,-1.26423e-01,-1.23550e-01,2.80500e-01,6.18794e-02,2.57881e-01,4.05423e-02,-1.63226e-01,-9.52304e-02,-2.58691e-01,
2.46839e-01,7.89854e-02,-2.09246e-01,1.52284e-01,-6.61770e-02,3.41012e-01,-3.32741e-01,1.00008e-01,3.27164e-01,-1.16442e-01,-1.28875e-01,-1.60080e-01,-1.25775e-01,1.51213e-01,-5.04900e-01,-3.07902e-01,-1.78134e-01,-1.99383e-02,-1.27161e-01,9.07421e-02,-6.92295e-02,3.70308e-01,1.33370e-01,5.34257e-02,-2.78030e-01,
1.58991e-01,
1.97273e-01,
-1.56056e-01,
-9.38228e-03,
2.27421e-01,
7.21181e-02,
-2.29376e-01,
-6.55709e-02,
2.43508e-01,
-2.06626e-01,
2.46632e-01,
1.30161e-01,
2.62692e-01,
-2.46312e-01,
-2.86714e-01,
1.25874e-01,
2.31289e-01,
2.01183e-01,
-9.87404e-02,
2.31760e-01,
-9.04343e-02,
-2.34949e-01,
-1.47170e-01,
-2.10596e-01,
3.06341e-01,
4.03233e-01,-1.96046e-01,-9.53793e-02,2.33608e-01,2.88069e-01,-7.97319e-02,5.05837e-01,1.29957e-01,2.12174e-01,-2.59035e-01,1.99665e-01,-4.02865e-02,-4.54445e-01,-2.07143e-01,-1.89545e-01,-6.26426e-02,-2.49105e-01,6.78068e-02,9.32979e-02,-1.43730e-01,1.85288e-02,6.66909e-02,8.99083e-01,2.42566e-01,-3.01309e-01,
-3.68503e-01,-7.49885e-02,1.39048e-04,-4.10288e-01,-2.71246e-01,3.06673e-01,-5.39036e-01,3.97141e-01,-3.14722e-01,1.27913e-01,-5.34409e-01,-1.60356e-02,5.43471e-02,4.11543e-01,2.31927e-01,6.25516e-01,4.65595e-02,3.54811e-02,3.99390e-01,-4.97615e-01,6.23580e-02,2.99770e-01,-8.02597e-01,-9.40392e-02,-3.02931e-01,
4.36100e-02,-2.44785e-01,7.96264e-02,-1.58908e-01,-2.71238e-01,2.69537e-01,1.05329e-02,-3.42757e-01,-9.06520e-02,-2.92102e-01,-2.16769e-01,-2.61075e-01,-2.94647e-01,4.46568e-02,-1.28399e-01,2.90090e-02,2.63439e-01,-1.19461e-01,2.27301e-02,-3.11751e-01,-9.95161e-02,1.49725e-01,1.48136e-01,-1.02557e-01,2.79135e-01,
-6.65927e-01,-2.43577e-01,2.63837e-01,1.54406e-01,-2.32946e-01,-1.28595e-01,-3.92976e-01,-1.90085e+00,1.32864e-01,-3.11038e-01,-5.58926e-01,1.31483e-01,-1.20931e-01,-3.95030e-01,-5.45363e-01,-1.10227e-01,6.07552e-01,-4.98404e-01,-2.00579e-01,-2.22872e-01,1.46322e-01,6.57257e-02,5.67406e-01,1.77958e-01,-1.14214e-01,
-6.52233e-01,3.11464e-01,-1.73517e-01,-2.89328e-01,-3.11522e-01,2.89750e-01,7.20423e-02,-6.82203e-02,-1.00784e-02,1.79919e-01,-1.73432e-02,-1.75744e-01,-2.40097e-01,-3.75252e-01,1.62206e-01,-5.98686e-02,2.86492e-01,-2.39539e-01,-8.31074e-02,3.38535e-01,-1.52833e-01,-4.65610e-02,-4.69700e-01,-1.43024e-01,4.13609e-02,
5.70011e-03,3.17183e-01,1.28763e-01,4.58951e-02,-2.98546e-01,6.21294e-02,3.61289e-01,3.77200e-02,-6.04018e-01,-2.15068e-01,-1.32645e-01,3.51346e-02,-3.02797e-01,4.83071e-02,-2.23014e-01,4.36619e-03,-1.69124e-01,-4.07424e-01,3.18064e-01,-1.85003e-01,1.70260e-01,-1.31309e+00,1.68635e-01,-2.80991e-01,-3.77317e-01,
-5.39122e-01,1.44840e-01,-2.73053e-01,-5.99732e-02,-1.04480e-01,3.13334e-01,7.82482e-01,5.34945e-01,3.52852e-01,-2.57661e-02,1.21530e+00,-4.75316e-01,1.05522e-01,-9.63198e-02,2.04934e-01,-3.84826e-01,1.72679e-01,2.05145e-01,2.27603e-01,-1.97265e-02,-4.59844e-01,3.25696e-01,-4.56050e-01,-1.65291e-01,-9.29524e-02,
1.45244e-02,-1.08937e-01,7.65996e-02,3.46542e-01,-2.31308e-01,1.97782e-01,8.63826e-01,-7.83746e-02,1.15709e-01,-3.31030e-01,2.26259e-01,1.00551e-01,-7.16125e-01,1.05555e-01,-1.82913e-01,-1.49780e-01,3.73204e-01,1.46062e-01,3.45807e-02,-9.12657e-02,-6.40905e-02,-1.99471e-01,-2.86727e-01,-3.32856e-01,3.45108e-01,
-1.06456e+00,5.12417e-02,-3.63214e-02,1.40387e-02,4.80304e-01,1.01896e-01,-7.08885e-03,-8.08136e-01,2.97822e-01,-2.98303e-01,-4.72529e-01,-3.09166e-03,-8.37179e-01,-1.58321e-01,-9.64029e-02,-3.04406e-01,1.09271e+00,3.10471e-01,3.01336e-01,7.00579e-01,-3.88448e-03,1.12357e-01,2.61658e-01,-2.12671e-01,9.79427e-03,
4.50258e-01,-6.75383e-01,-5.49689e-01,4.82137e-01,-1.25586e-01,-8.04345e-02,1.34908e+00,3.95364e-01,-1.61652e-01,1.25723e-01,1.19867e+00,7.56314e-02,4.04442e-01,2.99720e-01,-3.14716e-01,-8.86696e-02,1.96360e-01,-2.23180e-01,-1.03762e-01,-2.56892e-02,1.22745e-01,-4.33873e-01,-5.62977e-01,3.29766e-01,2.42288e-01,
-5.56251e-02,1.90395e-01,-1.54931e-01,9.08588e-02,2.56654e-01,-7.71618e-02,8.64844e-02,9.33331e-02,-1.87168e-01,-1.46940e-01,2.03273e-01,2.39027e-02,-1.54023e-01,-2.26624e-02,-3.87264e-01,-2.12006e-01,-2.62472e-01,5.36211e-02,-3.27217e-01,1.40971e-01,-3.65429e-01,2.61137e-01,1.37563e-01,2.21998e-01,-2.42502e-01,
3.07139e-01,-1.30149e+00,-1.54974e-01,2.10776e-01,-3.85322e-01,-2.86961e-01,-8.17537e+00,-6.34382e-01,3.28238e-03,1.63406e-02,-9.09792e-01,4.41391e-02,3.72954e-01,-5.65049e-01,-4.64097e-01,3.82512e-01,3.75944e-01,-3.10523e-01,6.19540e-02,-5.25317e-01,-7.88807e-02,-8.50739e-02,-5.69220e-02,-1.88711e-01,-2.20029e-01,
-1.50979e+00,5.37996e-01,8.69895e-01,2.17855e-01,-1.09726e-01,3.09717e-01,-3.14286e-02,-1.14209e+00,2.02633e-01,2.38013e-02,-1.42177e+00,-4.51138e-02,7.29180e-02,-4.20229e-02,-8.00494e-01,-4.52891e-01,-4.28508e-01,2.40598e-02,3.00630e-01,8.93454e-01,6.82365e-02,-1.91941e-02,1.18298e-01,1.24601e-01,2.48646e-01,
-1.92242e-01,-3.72934e-01,6.73891e-01,1.03540e-01,-3.52439e-01,1.00079e-01,1.51572e-02,-2.70994e-01,1.99329e-01,-2.79898e-01,-4.77301e-01,4.25909e-01,4.52119e-01,1.10865e-01,-1.78816e-01,4.01374e-01,-1.92310e-01,3.22073e-01,3.42054e-02,5.78905e-02,1.27095e-01,-2.54802e-01,-6.19682e-02,-1.87416e-01,1.96760e-01,
-8.48715e-02,-1.89689e-01,2.90121e-01,3.72711e-02,2.72799e-01,-1.90253e-01,1.25689e-01,-1.65794e-01,1.86342e-01,1.95673e-03,-1.33729e-01,1.81908e-01,-3.29511e-01,8.39186e-02,-1.63011e-01,-1.36390e-01,-2.37076e-01,-1.16661e-01,-2.06421e-01,8.30649e-02,1.41212e-01,-8.87425e-02,-7.36460e-01,-2.17833e-01,-2.43175e-01,
-2.62254e-01,5.72685e-01,1.94102e-02,2.90101e-01,6.73199e-02,1.46283e-01,5.31765e-01,-5.34078e-02,8.89862e-02,4.43409e-02,6.42980e-01,-6.23618e-01,-2.65892e-01,-2.73169e-01,-1.62373e-01,1.36801e-01,-9.80764e-02,-2.81004e-01,-1.24092e-01,-1.82720e-01,-4.10523e-02,1.00599e-02,4.56449e-01,-8.42977e-03,2.19813e-01,
2.38750e-02,9.25784e-02,-1.26492e-01,3.00253e-01,1.78386e-01,7.24347e-02,2.85873e-01,2.28054e-01,2.51027e-01,-3.91939e-02,2.56278e-01,-4.26012e-01,-3.52117e-01,4.43455e-01,-3.56881e-01,-2.81543e-01,2.05703e-01,1.86311e-01,-8.58852e-02,6.05837e-01,1.79299e-01,-6.34470e-01,5.64543e-01,-2.01187e-02,3.02736e-01,
1.89987e-01,-1.04131e-01,8.39762e-02,2.50533e-01,8.97797e-02,-1.82882e-02,1.76809e-01,-1.38071e-01,1.27075e-01,-1.83416e-01,6.28397e-02,1.77564e-01,7.77371e-02,1.17200e-01,-2.91164e-01,3.35133e-02,-3.19649e-01,-1.51500e-01,-3.76969e-01,-1.29762e-02,5.83023e-02,-2.08138e-01,4.20691e-01,-3.72775e-02,-2.30886e-02,
1.67395e-01,2.72777e-01,-5.93464e-01,3.27742e-01,-3.58830e-03,-1.69082e-01,-2.57859e-01,-1.06962e-01,1.84233e-01,-2.91815e-01,4.90168e-01,-3.83541e-01,2.27978e-01,4.83380e-02,-2.58414e-01,-5.74078e-01,3.37197e-01,-1.76105e-01,5.02219e-01,2.72967e-01,-1.85425e-01,-1.41616e-01,6.85413e-01,-2.36175e-01,3.65435e-01,
4.73760e-01,-7.77597e-01,-6.52071e-01,1.14808e-01,-3.80356e-02,-8.93719e-02,-1.29409e-01,4.93203e-01,-2.83791e-01,3.13093e-01,9.68754e-01,1.51082e-01,-2.68056e-01,3.48870e-01,-1.27650e-01,6.27883e-01,2.27973e-01,1.07893e-01,-4.00421e-01,-1.27323e-01,-5.52327e-01,2.49155e-01,-1.02482e+00,2.58535e-01,-1.86132e-01,
-7.52058e-01,9.51252e-02,8.05409e-01,4.63049e-01,4.79603e-01,3.11285e-01,7.00058e-01,3.28485e-03,-5.84112e-02,-6.20140e-02,-5.13763e-01,5.21368e-01,-4.51595e-01,-3.13628e-01,-1.79367e-01,-1.57515e-01,2.10403e-01,-3.10227e-02,-2.69469e-01,8.16241e-02,-5.87759e-01,6.60166e-01,3.22290e-01,6.42292e-02,2.91359e-01,
1.07105e+00,1.91966e-01,-3.44914e-01,1.22591e-01,3.77025e-01,-3.50978e-01,5.06910e-01,3.48516e-01,-2.96540e-02,1.64239e-01,6.80003e-01,-2.27054e-03,1.71844e-01,1.19468e-01,-2.44032e-01,5.14363e-01,-5.72678e-01,-4.31365e-01,-3.43048e-02,-1.62025e-01,1.84088e-01,-5.25973e-02,-2.89523e-01,-2.23966e-01,3.58838e-01,
2.49187e-02,-2.50397e-01,-7.85082e-02,2.96144e-01,6.21471e-02,-1.83913e-01,-1.28099e-01,-3.12321e-01,-3.28703e-01,-2.71004e-01,2.56443e-02,-3.01502e-01,-1.78488e-01,-1.90923e-01,8.00009e-02,3.10222e-01,-2.82258e-01,-1.52981e-01,4.16045e-02,3.04698e-01,-2.43326e-02,-1.78076e-01,-6.70959e-02,2.05031e-01,-1.35670e-01,
1.76710e-01,4.95462e-02,5.46693e-01,-3.78334e-01,3.44911e-01,2.35102e-01,-3.02024e-01,-2.10614e-01,4.81741e-01,-8.78154e-02,-2.95464e-01,-3.94961e-01,-4.65823e-01,-3.24708e-01,-1.17463e-01,-8.92309e-01,-2.92628e-03,-9.00390e-02,-6.50860e-02,-1.02163e-01,4.25649e-01,-2.54967e-01,-1.25774e-01,2.77773e-01,1.85909e-01,
8.79208e-02,2.56371e-01,5.58751e-02,-6.11970e-02,-1.39204e-01,-1.68628e-01,-5.29335e-01,-1.78734e-01,3.78099e-02,-7.03838e-02,-5.43068e-01,-1.07924e-01,3.99547e-01,-1.85474e-01,-9.53741e-02,1.52494e-04,-2.26176e-01,1.01404e-01,1.75222e-01,-3.62152e-01,1.81834e-01,2.06623e-01,-5.04359e-01,-2.29816e-01,1.33370e-01,
1.18199e-01,
1.91607e-01,
-6.51568e-02,
2.57049e-01,
1.21848e-01,
-2.47534e-01,
3.30711e-03,
-4.34566e-01,
-2.50152e-01,
-5.02146e-02,
-3.19038e-01,
1.95699e-01,
3.42701e-03,
5.79685e-02,
2.28944e-01,
2.47461e-01,
-1.24002e-01,
1.45074e-01,
-3.01742e-01,
1.01231e-01,
-1.31360e-01,
-1.02379e-01,
-7.87256e-02,
2.43312e-02,
3.14194e-01,
2.16901e-01,-3.77918e-01,1.29729e-01,-2.56586e-01,3.68368e-01,-7.65211e-02,-3.02632e-01,1.22043e-01,4.24706e-02,4.07496e-01,-2.42304e-01,7.38299e-01,-3.83491e-02,3.03692e-01,-1.60964e-02,1.62601e-01,-1.66319e-01,-3.80339e-02,7.88487e-03,-3.28786e-01,-7.95482e-02,9.91892e-02,-2.91981e-01,-2.92707e-01,4.56067e-01,
7.10734e-02,-6.84475e-02,-3.07698e-01,5.53763e-01,-1.43272e-04,9.26101e-02,-1.59984e-01,-2.44222e-01,-7.20436e-02,2.41919e-01,2.96830e-01,-3.05205e-01,5.01333e-01,2.14819e-01,2.57094e-02,2.40945e-01,2.73148e-01,-1.70030e-01,-2.46401e-01,-1.63604e-01,-1.76750e-01,-3.04911e-01,-9.42173e-02,-1.56963e-02,-3.06798e-01,
-2.79311e-02,-5.39835e-02,9.83663e-02,6.50375e-02,-5.69977e-03,-5.02988e-02,5.98675e-02,-2.77812e+00,6.97408e-02,-3.51981e-01,2.53422e-01,-3.44617e-01,2.34994e-01,4.46969e-01,2.40142e-02,-2.22434e-02,-1.10041e-01,1.63432e-01,7.09104e-01,5.76907e-02,-9.42270e-02,1.66892e-01,1.69190e-01,-3.32564e-01,2.81686e-01,
1.63204e-01,8.16438e-01,-1.86114e-01,-1.81974e-01,-3.26081e-01,5.80057e-01,1.87011e-01,1.02955e-01,-1.25485e-01,8.04167e-01,-6.96254e-02,-1.43753e-01,-2.53826e-01,-1.08691e-01,2.18424e-01,2.97371e-01,1.85645e-01,3.90488e-01,4.41015e-01,4.61918e-02,-3.47243e-01,-9.08337e-02,3.03951e-03,5.44482e-01,3.88709e-01,
1.04462e-01,4.85474e-02,3.30369e-01,-4.31516e-05,-1.08908e-01,-2.05265e-01,-3.57612e-01,4.59702e-02,-1.64311e-01,1.31372e-01,1.81096e-01,-2.99521e-01,-3.41823e-01,-2.84310e-01,1.76910e-01,-6.15157e-02,-2.19759e-02,5.23773e-02,-5.12036e-02,-1.54764e-01,-2.45502e-01,1.88358e-01,-3.38840e-01,1.65646e-01,-1.94511e-01,
-1.09745e-01,-1.72508e-01,1.24152e-01,1.28671e-01,-2.04323e-01,3.91727e-01,-1.30645e-01,1.25388e-01,3.50403e-01,1.26271e-01,4.27840e-02,3.83021e-01,2.90370e-01,1.56193e-01,-2.73769e-01,-6.63314e-02,1.78622e-01,-4.01473e-01,-3.24781e-01,3.71517e-02,-3.35094e-01,1.18593e-01,-1.74937e-01,-5.67208e-01,2.08063e-01,
5.83976e-02,9.81047e-02,-2.20762e-01,1.29887e-01,1.98572e-01,6.95674e-02,-1.05486e-01,-1.32940e-03,-1.33794e-03,2.58074e-01,-1.88197e-01,-6.29050e-02,-1.45503e-01,-2.39109e-01,1.71523e-01,2.83751e-01,2.76299e-01,2.01113e-01,-4.01690e-01,9.34763e-02,-1.34337e-01,-2.29886e-01,1.43352e-01,-2.83961e-01,-1.25321e-02,
-3.34156e-01,1.18793e-01,2.17614e-02,1.35516e-01,3.36241e-01,5.96025e-02,1.34638e-01,1.63192e-01,2.70435e-01,4.43164e-02,1.91907e-01,1.10683e-01,5.01704e-03,-2.38827e-02,-1.38749e-01,-2.62118e-01,-2.22932e-01,7.70786e-03,7.63388e-02,-3.34335e-01,-4.51525e-02,1.56343e-01,-1.77805e-01,-1.67616e-01,-2.95507e-01,
4.54101e-02,-1.32063e-01,-1.06450e-01,-3.19245e-01,-7.49865e-01,-2.15749e-01,-2.07031e-01,-3.70541e-01,-5.19574e-01,-4.67230e-01,2.77684e-01,1.70175e+00,-3.70962e-01,8.09490e-03,-7.54316e-02,2.49991e-01,-1.50289e-02,-3.13654e-02,-3.54626e-02,2.55266e-01,-1.05966e-01,5.59929e-02,-2.72792e-02,3.12842e-01,-3.84596e-01,
-3.51896e-01,-5.11792e-02,-2.44892e-01,2.16480e-02,-2.95528e-01,-1.44112e-01,9.73173e-03,-2.83519e-01,2.49703e-02,4.92255e-02,-6.58120e-02,7.40651e-02,-1.02600e-01,-2.09435e-01,1.66918e-01,2.51524e-01,1.57907e-01,1.90612e-01,-3.24811e-01,-2.29856e-01,-7.76907e-03,-3.62015e-02,-2.71490e-01,1.31226e-01,-1.42698e-03,
-7.47283e-02,-2.78527e-02,1.25920e-01,-2.87694e-01,-1.82771e-01,-8.17688e-02,-1.86637e-01,-1.03536e+00,-8.86308e-02,1.23290e-01,9.52238e-03,1.07778e-01,-1.97624e-01,2.97334e-01,2.58576e-01,-2.53767e-01,-1.73512e-01,-2.44914e-01,7.69900e-01,-4.47720e-01,8.74989e-02,-8.11054e-02,2.10420e-01,1.01886e-01,2.15763e-01,
-1.04420e-01,-4.89951e-02,-2.69477e-01,8.49043e-02,-5.83860e-03,-1.38414e-01,3.25619e-02,-1.01306e-01,4.79682e-02,3.47107e-03,2.43693e-01,-1.99476e-01,2.31024e-01,4.95870e-02,-2.24149e-02,2.59182e-01,1.11415e-02,4.55651e-02,-4.48110e-02,-3.48175e-01,3.63375e-01,-1.90504e-01,-8.26794e-02,4.35880e-02,-5.73636e-02,
2.65991e-01,3.10382e-02,-4.70570e-03,-2.40873e-01,-2.29404e-01,-3.75193e-01,-1.65278e-01,1.47153e-01,6.91304e-03,-2.62153e-01,-1.21858e-01,1.93682e-01,-2.31468e-01,-1.72949e-01,2.22398e-01,-1.52545e-01,-1.00189e-01,5.82560e-02,3.47909e-01,-6.41462e-02,1.00932e-01,8.20038e-02,1.51799e-01,4.98877e-01,-1.37690e-01,
-4.74187e-02,-1.98289e-02,3.18697e-01,1.91555e-02,2.04182e-01,-1.20288e-01,1.52816e-01,-3.53204e-01,3.82951e-01,1.20796e-01,2.43373e-01,1.39716e+00,-5.18201e-03,2.61114e-01,1.66194e-01,-1.08950e-01,1.28203e-01,2.53093e-01,1.97853e-01,-5.37481e-01,2.48766e-02,2.07461e-01,2.30186e-01,-3.55759e-01,-6.11357e-02,
8.49349e-02,2.24767e-02,1.69185e-01,4.70768e-02,-1.52335e-01,3.22745e-01,2.27192e-01,1.20497e+00,3.25894e-03,3.68064e-01,-3.51231e-01,3.25224e-01,4.23821e-01,-7.52282e-02,3.08544e-01,-4.22149e-02,2.14306e-01,-3.06764e-01,-8.64159e-01,1.24924e-01,2.48172e-01,4.32547e-01,2.43084e-01,3.39078e-01,-3.30426e-01,
8.47177e-02,8.42007e-02,1.99745e-01,9.85427e-01,3.17146e-02,2.36674e-01,1.87415e-02,-3.83158e-01,4.37851e-01,1.37725e-01,2.73666e-01,5.01668e-01,-1.82242e+00,3.80050e-02,1.86379e-02,6.64551e-02,1.08414e-01,9.05852e-02,-1.20030e-01,-9.81614e-02,-9.92236e-02,-3.79824e-03,4.77027e-02,-1.49375e-01,1.90090e-03,
-1.96476e-01,3.28298e-02,2.95176e-02,-5.43715e-01,9.50807e-02,4.04295e-01,-1.74127e-01,2.19083e-01,6.64601e-01,-4.30693e-02,1.76335e-01,-1.09561e-01,-7.64840e-01,2.10650e-01,2.21082e-01,-2.10080e-01,-3.24807e-01,6.13318e-02,2.96483e-01,9.79880e-02,-2.44723e-01,-8.23690e-02,-1.20320e-01,-4.91866e-01,3.16057e-01,
1.78069e-02,-1.83010e-01,6.62253e-02,-2.42654e-01,-5.39178e-01,-1.19304e-01,1.93687e-02,1.02546e+00,2.59225e-02,-7.15946e-01,-1.31797e-02,3.57788e-01,-1.96917e-01,1.85443e-01,1.69202e-01,-2.90071e-01,-3.29642e-01,8.87688e-02,1.11867e-01,6.12423e-01,-4.26571e-01,-1.96183e-01,3.16586e-01,1.82961e-01,1.61595e-03,
9.89253e-03,4.14011e-02,-3.32429e-02,-2.69799e-02,-3.70453e-02,-2.18048e-01,-3.06899e-01,-8.47973e-01,-3.70188e-01,4.32050e-01,2.24653e-01,-8.03071e-02,7.02776e-01,-1.50202e-01,1.26271e-02,1.93064e-01,5.80218e-01,2.21068e-01,-2.99818e-01,-4.55570e-01,-4.53216e-02,-2.95980e-01,1.72538e-01,-1.16528e-01,5.80118e-02,
1.27093e-01,-2.94956e-01,-1.37263e-01,5.81567e-02,2.04395e-01,3.08359e-01,-2.27646e-01,9.47588e-02,-1.07943e-01,1.70638e-02,-2.45846e-01,-3.25382e-01,1.99195e-01,-2.12734e-01,-2.99606e-01,-2.14118e-01,-2.86430e-01,-2.12356e-01,-4.20392e-02,1.05047e-01,7.90254e-02,-1.64267e-01,1.18850e-01,-1.44179e-01,-1.23798e-01,
-5.54378e-01,-1.01866e+00,-2.29430e-01,-5.19732e-01,2.46640e-01,1.86953e-01,-6.38184e-01,-2.95632e-01,-1.45899e+00,8.92601e-02,-2.18249e-01,-8.30056e-01,2.37185e-01,1.95586e-01,-2.53569e-01,-3.41679e-01,-1.09545e-03,1.89011e-01,-2.14114e-01,-2.60374e-01,-5.27442e-01,-7.01179e-02,5.19850e-02,-3.85735e-01,-1.39398e-01,
2.99734e-02,-6.69980e-02,-4.74421e-02,-8.23204e+00,2.97655e-01,-3.94559e-01,3.98859e-01,3.83714e-01,-1.25748e+00,-2.47661e-02,-2.00260e-01,2.14001e-01,-1.51582e+00,-3.99000e-01,-5.55556e-01,-1.04968e-01,2.52834e-01,-1.42938e-01,-5.27684e-01,4.23676e-01,1.22288e-01,1.84546e-01,7.06249e-02,8.41086e-01,1.57760e-01,
-2.48866e-01,6.75353e-01,2.37145e-02,4.81951e-01,3.09664e-01,5.84874e-01,-1.60142e+00,2.00834e-01,-1.55536e+00,-4.69154e-01,-1.57827e-02,4.97180e-01,6.27324e-01,-2.08017e-01,2.84513e-01,2.11764e-01,-1.84313e-01,-2.99563e-01,1.82276e-02,-2.65529e+00,-3.26451e+00,-4.97983e-01,1.34807e-01,-8.07126e-01,-2.34369e-01,
-3.61882e-01,-1.16426e+00,-6.41774e-02,2.52490e-01,-2.51600e-01,-1.38246e-01,-1.46989e+00,-1.37819e-01,1.76609e-01,-3.58792e-01,2.13500e-01,4.20412e-01,-6.07322e-01,2.95495e-01,-6.34921e-02,-4.56945e-01,1.59628e-01,9.90608e-02,-3.74246e-01,1.29713e-02,-2.16172e-01,1.58284e-01,-9.87794e-02,-1.21444e+00,2.05314e-01,
-9.51035e-02,-5.74238e-02,2.57088e-01,-5.06041e-01,-1.47579e-01,-3.32489e-01,3.28715e-01,7.32670e-02,-6.48406e-02,1.03367e-01,-1.25996e-01,-5.42009e-01,4.59157e-01,-1.66641e-01,1.68082e-01,2.76548e-01,4.11782e-01,-2.98302e-02,-5.47775e-01,-4.99596e-03,1.90400e-01,1.91425e-01,6.91527e-02,-1.27011e-02,1.28173e-01,
-9.50207e-02,
2.27561e-01,
-7.66101e-02,
3.79888e-01,
2.31810e-01,
2.90526e-01,
3.50736e-01,
-1.43108e-01,
2.46112e-01,
2.61114e-01,
2.96924e-01,
2.93170e-01,
2.71370e-01,
-2.80469e-02,
6.85811e-02,
-1.03540e-01,
3.27406e-01,
1.82973e-01,
-1.95117e-01,
-3.20037e-01,
1.62896e-01,
-1.81132e-01,
3.12450e-01,
9.33955e-02,
-6.23915e-02,
-2.51321e-01,-2.39520e-01,6.49036e-02,-3.16701e-01,-6.36828e-03,-1.47086e-01,2.98056e-01,6.70998e-02,1.57180e-01,-2.10903e-01,-1.23195e-01,1.88853e-01,2.76150e-01,-3.40506e-01,-6.08360e-02,8.03470e-02,1.80924e-01,2.43727e-01,-9.37561e-02,1.75553e-01,-5.89511e-01,-1.93640e-01,-1.69157e+00,-4.44011e-01,2.64448e-01,
1.11230e-01,2.15450e-01,-2.67346e-01,-8.92505e-02,-2.06378e-01,-1.27990e-01,1.02771e-01,3.39498e-01,7.76341e-02,-3.66724e-02,3.98713e-02,2.44796e-01,-9.38727e-02,2.49884e-01,4.16336e-02,-4.71092e-01,2.83936e-01,-3.01025e-01,-4.26767e-01,-2.27483e-02,6.59348e-01,4.82812e-01,5.23635e-02,1.21453e+00,-7.07960e-02,
-7.80818e-02,3.21027e-01,2.61017e-01,-2.36604e-01,-2.80591e-01,1.41743e-01,-1.76319e-01,-1.68295e-01,-1.32579e-01,-3.04185e-01,-2.92158e-01,-7.82117e-02,6.03149e-02,-2.82969e-01,2.98400e-02,-3.42720e-02,2.75146e-01,-2.50700e-01,1.62975e-01,-2.41043e-01,2.68158e-01,-1.05122e-01,3.40637e-01,3.31132e-01,-1.49982e-01,
1.45544e-01,2.39640e-01,3.37247e-01,-1.94448e-01,-1.15923e-01,1.50298e-01,-3.01235e-01,-3.02545e-01,4.71478e-02,-1.47509e-01,-7.21444e-02,-3.42127e-02,-2.75776e-01,-5.32198e-03,-1.92230e-01,2.64853e-01,9.29038e-02,2.83091e-01,-1.70108e-01,-2.35371e-01,1.08595e-01,-1.90599e-01,1.26814e-01,-5.93388e-02,1.14614e-01,
-3.13950e-01,9.44283e-02,-1.68228e-01,1.56755e-01,-1.73947e-02,-1.53586e-01,4.72868e-02,-3.14816e-01,-3.09507e-01,-3.70469e-01,-8.86267e-02,-8.76831e-02,8.61314e-02,-2.42327e-01,-8.84018e-02,-3.69192e-01,-2.24946e-01,2.97766e-01,1.53815e-01,-3.02398e-01,-3.32191e-01,2.90089e-01,5.79793e-02,1.91559e-01,1.13173e-01,
1.31815e-01,-6.38468e-02,-8.10220e-02,-2.59326e-01,1.85772e-02,-2.05405e-01,6.12315e-02,2.87675e-01,2.41276e-01,-2.98811e-01,1.71879e-03,1.56123e-01,-1.56691e-01,-1.55190e-01,4.82155e-02,5.56240e-02,-3.15200e-02,2.75262e-01,-3.08904e-01,-1.03153e-01,-1.61387e-01,2.62313e-01,-3.31714e-01,3.22354e-01,-5.76261e-02,
2.66017e-01,2.31823e-01,-2.05028e-01,-2.71835e-01,-2.08885e-02,-1.81601e-01,8.54835e-02,-2.11759e-01,3.51388e-01,-6.25344e-02,-1.86337e-01,7.51041e-02,-7.38704e-03,2.60581e-01,1.78632e-01,-1.37567e-01,2.85624e-01,1.74765e-02,-1.86480e-01,3.41754e-01,-1.01551e-01,1.52161e-01,-1.87123e-01,-3.13383e-01,-4.14527e-02,
6.37149e-02,-1.97509e-01,2.47549e-01,2.81326e-02,-1.56801e-02,2.18283e-01,3.09564e-01,-9.83277e-02,3.54067e-01,-3.09963e-01,1.82911e-01,2.22264e-01,1.11943e-01,2.95630e-01,2.60157e-01,6.68556e-01,4.95324e-01,3.35635e-01,-5.35323e-01,3.13260e-01,-2.56866e-01,2.56696e-01,-7.14767e-01,1.50145e+00,-1.87256e-01,
-2.11954e-01,1.67382e-01,-1.14410e-01,2.56606e-01,-1.45541e-01,-1.91940e-01,2.95646e-01,-5.56821e-02,-1.61941e-01,7.49501e-03,3.14080e-01,2.79293e-01,4.63699e-01,-1.93885e-01,4.08770e-01,-1.34477e-01,4.92354e-01,-2.81494e-01,-2.39564e-02,1.83985e-01,-9.60225e-01,1.83789e+00,-1.87808e+00,-6.47539e-01,9.72567e-01,
2.52340e-02,3.25805e-01,-2.08348e-02,1.48897e-02,3.16232e-01,2.38822e-01,-5.30074e-02,-6.32844e-02,3.89436e-01,2.58155e-02,-1.28373e-01,1.16193e-01,1.53889e-01,1.89211e-01,2.45551e-01,2.65383e-02,2.51935e-02,-3.01385e-03,-6.95828e-02,-3.01173e-01,2.47485e-01,-1.66151e-01,3.78329e-01,-5.67884e-01,4.54314e-01,
-9.07415e-02,1.22003e-01,2.63298e-01,-1.34890e-01,7.72019e-02,-1.81434e-01,-3.35145e-01,1.42182e-01,1.04460e-01,-1.54689e-01,-1.13559e-01,-1.69396e-04,-6.13656e-02,2.14179e-01,-3.08762e-01,-1.49629e-01,-1.52694e-01,-1.39798e-02,-9.01938e-02,-1.03208e-01,2.61645e-01,-1.45842e-01,-2.87547e-01,-1.25479e-01,5.29338e-02,
-1.42216e-01,8.54220e-02,-1.66859e-01,-2.10167e-01,2.46427e-01,-1.50505e-01,4.87571e-04,1.78483e-02,2.50791e-01,1.34175e-02,-5.02741e-02,1.31388e-01,2.02447e-02,1.15015e-01,-1.17791e-01,-1.27682e-01,2.67873e-01,1.29146e-02,4.18643e-01,1.97782e-01,-1.14585e-01,3.16757e-01,-4.47462e-01,-8.55868e-01,1.84201e-01,
2.73077e-01,1.34314e-01,2.99693e-01,-9.37946e-02,1.18539e-01,2.21237e-01,2.47889e-01,-1.72024e-01,-3.93780e-01,2.98880e-01,3.16640e-01,8.69165e-02,1.05791e-01,2.17191e-01,-1.32647e-01,-1.58428e-02,1.11878e-01,-2.49694e-01,3.08929e-01,1.43696e-01,3.39130e-01,5.65037e-01,-7.94559e-01,1.67695e+00,-4.69564e-01,
-3.30718e-01,2.43561e-01,2.50302e-01,1.90199e-01,1.99767e-01,6.57237e-02,3.08267e-01,2.62322e-01,3.94330e-02,-5.82397e-02,1.67622e-01,-1.21868e-02,2.30526e-01,-1.24468e-01,1.01274e-01,-1.04708e-01,1.80605e-02,1.08713e-02,-1.71810e-01,-9.41126e-02,7.61653e-01,4.29743e-01,-1.10185e+00,-1.83113e+00,1.40343e-01,
2.99435e-02,5.06138e-01,-1.33788e-01,-2.66349e-01,-1.44033e-02,2.55131e-01,1.47619e-01,1.02840e-01,4.83539e-02,-2.68784e-01,1.44220e-01,-9.87558e-02,3.85972e-01,8.72063e-02,1.35114e-01,-1.91209e-01,7.41964e-02,-7.02479e-01,-7.82326e-01,1.76693e-02,-1.87362e+00,7.27270e-01,9.24200e-02,-1.92696e-01,2.97244e-01,
-2.33662e-01,-2.79040e-01,3.25036e-02,-1.41647e-01,-7.04281e-02,-2.60743e-01,-2.30286e-01,-9.81793e-02,3.35687e-01,3.20804e-01,-2.79746e-01,3.25190e-01,-2.91861e-01,-3.12499e-01,1.24510e-01,5.26973e-02,-2.72692e-01,1.47575e-01,3.71633e-03,-2.05119e-01,-1.84091e-01,1.28027e-01,8.67956e-02,-7.92032e-02,-7.40509e-02,
3.37403e-01,-1.33398e-01,1.03854e-01,-2.39381e-01,-2.07463e-01,-1.68380e-02,1.20434e-01,-1.12247e-03,1.75322e-01,-3.25501e-01,-1.30160e-01,1.74879e-02,-1.63739e-01,3.16017e-01,-2.14765e-01,-5.83747e-01,-1.85110e-01,2.08821e-01,2.33155e-01,-2.69824e-01,1.29774e+00,2.21451e-01,5.85736e-01,7.96223e-01,-6.39593e-01,
-1.00753e-01,-4.81828e-02,8.74954e-02,-1.45510e-01,2.29639e-01,1.75046e-01,-3.83437e-02,1.75976e-01,-6.85722e-02,7.48366e-03,-1.91545e-01,1.44254e-01,-2.48397e-01,3.01607e-01,1.48912e-01,-5.54531e-01,-3.46389e-01,-2.76025e-01,1.52082e-01,-1.98842e-01,1.63841e+00,7.85001e-02,1.21146e+00,3.15492e-01,-4.91609e-01,
2.27790e-02,2.74981e-01,1.65260e-01,-3.71221e-01,-1.07639e-01,-1.47040e-01,2.50736e-01,1.94828e-01,-6.94790e-02,-3.11906e-01,-2.48351e-01,8.02011e-02,2.30203e-02,2.28324e-01,1.59124e-01,-2.39469e-01,-2.37455e-01,-4.05976e-02,8.37954e-02,1.52269e-01,4.10002e-02,-2.51731e-01,-1.34504e-02,2.67532e-01,2.76510e-01,
-2.43952e-01,-1.68284e-01,-1.97546e-01,2.06144e-01,1.28152e-01,-2.01365e-01,-3.28155e-01,-2.09278e-01,1.56344e-01,1.14912e-01,1.77810e-01,-2.23671e-01,-1.01184e-01,-9.21553e-03,5.48749e-02,1.44432e-01,-2.14448e-01,3.06023e-01,-2.00261e-01,2.84964e-01,-2.29025e-01,3.22051e-01,5.62383e-02,-5.36539e-02,-1.45165e-01,
-2.22503e-01,-2.78465e-02,2.41869e-01,2.50723e-01,-5.09775e-02,-4.04925e-02,2.83376e-01,2.18120e-01,-4.16042e-02,2.37244e-01,-8.04884e-02,2.42295e-01,-3.48629e-02,-2.44705e-01,3.17793e-01,-1.22060e-01,1.76035e-01,-1.68636e-01,1.70083e-01,-3.45374e-01,-3.03446e-01,-1.25495e-01,-2.69207e-01,-2.53869e-01,-1.31442e-01,
4.85886e-01,4.03736e-01,1.32179e-01,-1.82094e-01,-2.93997e-01,1.65057e-01,1.64783e-01,1.50477e-01,1.00557e-01,1.02734e-01,1.78092e-01,6.21532e-02,1.91998e-01,1.95610e-01,-2.60133e-01,-6.32896e-01,-1.50903e-01,1.33644e-01,-5.40787e-02,2.99554e-01,3.28059e-02,-2.07682e-01,4.35542e-01,2.78303e-01,-1.72991e+00,
-2.56412e-01,3.51957e-01,3.29538e-01,-1.65439e-01,6.01912e-02,1.34988e-02,-2.49164e-02,-2.63052e-01,6.50047e-02,2.71798e-01,-2.51091e-01,1.45071e-01,-1.56149e-01,-1.18830e-01,6.14254e-02,-6.41695e-01,-1.39975e-02,-3.34743e-01,4.20773e-01,1.85624e-01,-5.04740e-01,-8.75314e-02,1.95683e+00,-1.80637e+00,1.76714e-01,
-1.97504e-01,1.27279e-01,-2.56375e-02,8.11510e-02,-2.99325e-02,4.92873e-02,2.17502e-01,-3.07361e-01,4.11373e-01,2.02099e-01,-1.61792e-01,-1.21980e-01,2.82794e-01,-4.82631e-02,1.04785e-01,-2.97755e-01,-3.06319e-01,1.86978e-01,4.79881e-02,-2.50809e-01,5.20218e-01,-2.31406e-01,-6.08117e-01,-1.66527e+00,4.28684e-01,
1.07137e-01,-1.71861e-01,-9.56498e-02,-3.64621e-01,2.57364e-01,-1.78384e-01,1.65412e-01,-1.25486e-01,-5.37043e-02,-2.22264e-01,-1.36935e-01,-1.45962e-01,-2.59685e-01,3.19436e-02,2.99520e-01,-4.66380e-02,2.02615e-01,2.23428e-01,7.59985e-02,-2.68370e-01,-1.10886e-01,2.29070e-01,2.67698e-01,-1.33812e-01,-9.61138e-02,
2.45726e-01,
8.64280e-02,
2.30791e-01,
5.97876e-02,
-3.11820e-01,
-9.43057e-02,
-2.95516e-01,
2.32022e-01,
4.19225e-02,
-2.79877e-01,
-2.18906e-01,
2.67980e-01,
3.96346e-02,
-2.56768e-01,
-1.31764e-01,
-2.86772e-02,
3.50797e-02,
3.11856e-01,
-3.57611e-01,
-1.76438e-01,
1.38104e-01,
-9.95310e-02,
-7.59650e-02,
-2.32954e-01,
-1.01717e-01,
-2.15540e-02,-7.35995e-02,-4.59069e-01,-4.37380e-01,-3.51340e-01,3.27359e-01,-4.80936e-01,-1.75063e-01,3.67224e-01,3.45295e-01,-3.02503e-01,3.63642e-01,-9.30243e-02,2.45593e-01,-3.82601e-02,4.12690e-01,8.75466e-01,6.46133e-02,-3.68069e-01,-1.30230e-01,2.76574e-01,-3.64565e-01,-1.86465e-02,-5.04903e-01,-4.03763e-01,
1.00494e-01,9.21446e-02,5.15523e-01,3.71311e-01,2.96877e-01,-2.78021e-02,3.20823e-02,-2.70439e-01,3.72241e-01,3.56111e-01,7.86052e-02,-1.42759e-01,-3.23012e-01,2.60427e-01,-9.21999e-02,8.77392e-02,6.73713e-01,-2.41232e-01,1.15008e-01,-3.46458e-01,-4.30925e-01,-4.78999e-01,3.29044e-02,-5.35652e-01,2.11991e-01,
1.08541e-01,-1.58303e-01,2.89262e-01,3.61088e-01,1.08799e-01,2.61988e-02,3.86122e-01,-3.02243e-01,2.16251e-01,2.93732e-01,-2.91853e-01,1.01251e-01,-2.64773e-01,1.71584e-02,1.41868e-01,1.43437e-01,9.85643e-01,-1.38442e-01,2.09732e-01,-6.36622e-02,1.82454e-03,-5.10321e-01,-1.14513e-01,-5.19225e-01,2.69859e-01,
-1.26384e-01,-1.16293e-01,5.17075e-01,2.96769e-02,-1.22095e-01,-1.83539e-01,3.13284e-01,1.17298e-01,1.57776e-01,-5.97901e-02,2.61589e-01,2.10846e-01,-1.54780e-01,-1.74685e-01,7.01630e-02,4.27483e-01,8.19045e-01,-5.62271e-01,2.85242e-01,3.80500e-01,6.11827e-02,-6.92891e-01,2.66306e-01,-8.02645e-02,2.16969e-01,
1.21747e-01,-4.79311e-01,4.20661e-01,1.26284e-01,3.61679e-01,-3.72164e-01,9.25118e-01,-5.82182e-01,-2.36051e-01,2.62095e-01,-6.92351e-02,3.07101e-01,-3.61064e-01,-4.42559e-01,5.81356e-01,-1.56843e-01,2.61306e-01,6.48025e-02,-1.23361e-01,3.21681e-01,3.01692e-01,-6.56765e-01,-6.24647e-01,-5.71428e-01,5.22860e-01,
-5.39881e-01,
1.47376e-01,
5.64820e-02,
-1.62786e-01,
6.30795e-01,
