// Neural Network File Format by Kyle Julian, Stanford 2016
6,5,5,25,
5,25,25,25,25,25,5,
0,
-56000.000000,-56000.000000,-3.141593,200.000000,200.000000
56000.000000,56000.000000,3.141593,200.000000,200.000000
-278.628049,0.000000,0.000000,200.000000,200.000000,-0.242819
112000.000000,112000.000000,6.283185,1.000000,1.000000,17.479225
3.26880e-03,-3.53131e-01,5.51971e-01,-3.41366e-01,2.69490e-01,
3.63401e-01,-1.27583e-02,-3.00934e-01,-4.15681e-02,-3.92246e-01,
-7.15387e-01,-6.23057e-01,4.17839e-01,3.35949e-01,-3.75438e-01,
7.58456e-01,1.65881e+00,-3.50492e-02,-1.20288e-02,-1.56611e-01,
6.93688e-01,4.89537e-01,-3.75264e-01,1.09972e-01,2.25534e-01,
-7.38494e-01,-5.30659e-01,-1.46650e-01,-3.06339e-01,-3.29344e-01,
-7.42221e-01,-4.81646e-02,4.61334e-02,-3.80687e-01,-3.04649e-01,
1.68106e-01,-8.93071e-01,-2.80651e-01,1.06021e-01,2.89641e-01,
5.05423e-01,-6.31133e-01,2.60741e-01,2.73807e-02,-1.79181e-01,
-1.25921e-01,1.19993e+00,4.12459e-01,-1.99680e-01,-3.68254e-01,
8.94539e-01,3.50789e-01,2.31814e-01,1.27624e-01,-3.11220e-01,
5.81815e-01,-6.54376e-01,7.67040e-02,-3.76813e-01,-1.23247e-02,
-9.29986e-01,1.02155e+00,1.14332e-01,7.75141e-02,-3.30061e-01,
-5.51531e-01,-4.27129e-01,-2.48934e-01,2.59096e-01,4.21995e-01,
5.60780e-02,5.32220e-01,-2.60534e-01,-4.28266e-01,8.16329e-02,
2.59903e-01,7.84626e-01,-4.13691e-01,2.55558e-02,-1.01029e-01,
-5.20500e-01,1.59135e-01,6.74041e-02,-4.37792e-01,4.36054e-01,
-1.08410e-01,2.48411e-01,4.04157e-01,2.42216e-01,-3.58636e-02,
-1.42275e+00,1.12293e-01,-3.62468e-01,-2.95243e-01,-1.27449e-01,
-9.97935e-01,1.17534e+00,8.23022e-02,3.86235e-01,-3.31303e-01,
-4.24309e-01,5.89991e-01,5.39050e-01,-2.68336e-01,5.22714e-02,
-2.47418e-01,1.85702e-01,-2.31553e-01,2.72645e-01,-3.97261e-01,
1.26272e+00,-2.73177e-02,-4.91520e-02,-3.74979e-01,-4.18970e-01,
5.99118e-02,-9.27894e-01,-4.13668e-01,3.12529e-02,-4.08068e-01,
-1.66906e-01,-3.16755e-02,4.90406e-02,-1.24306e-01,4.24139e-01,
-8.45036e-02,
-9.11453e-02,
-1.15465e-01,
5.70258e-02,
-1.94214e-01,
-1.10880e-01,
3.37994e-01,
1.31854e-01,
9.27432e-02,
-3.21630e-02,
1.31218e-01,
6.82505e-02,
-1.00322e-01,
-3.59350e-02,
1.22332e-01,
2.06179e-01,
2.68531e-01,
-3.39366e-01,
-3.18052e-03,
-3.17807e-02,
2.34359e-02,
2.48364e-01,
-2.06184e-02,
-2.22831e-01,
-2.65843e-01,
4.57659e-02,7.07499e-01,3.11202e-01,1.39504e-01,4.96589e-02,-6.77556e-01,3.18389e-01,-1.64532e-01,1.86728e-02,1.73256e-01,5.65463e-03,-2.51415e-01,5.79075e-01,-3.41103e-01,2.17662e-01,-1.99239e-01,2.88013e-01,1.44519e-01,1.13654e-01,-1.12072e+00,-1.83921e-01,-2.21068e-01,1.48194e-01,5.64873e-01,1.12745e-01,
-1.84995e-01,-2.31846e-01,3.24657e-01,2.09647e-01,-3.96014e-01,-3.25798e+00,-2.60157e-01,9.17197e-02,2.58091e-01,1.29706e-01,2.67424e-01,-9.48718e-02,1.44979e-01,-2.51152e-01,2.41060e-01,2.33562e-02,-3.29674e-02,-2.25438e-02,1.63458e-01,-2.49039e-01,-1.35464e+00,-1.87702e-01,-2.19052e-01,-8.42084e-01,-5.62629e-02,
2.78667e-01,5.66596e-01,-5.87572e-01,-1.61631e-01,5.58109e-01,5.05072e-01,2.71919e-01,-3.09715e-01,-1.38340e-01,4.16683e-01,3.65615e-03,1.22230e-01,2.09827e-01,-1.61857e+00,-4.27923e-01,-3.49721e-01,-3.05615e-01,-1.91235e-02,6.29514e-01,-2.93137e-01,-2.51153e-01,2.01939e-01,3.25630e-02,-1.01702e-01,3.38252e-01,
4.73814e-01,-3.53155e-02,4.60124e-01,-1.09930e-01,-2.40968e-01,-3.22178e-01,3.03827e-02,2.34822e-01,-2.60117e-01,-2.35525e-01,1.03322e-01,-5.55238e-03,4.64730e-02,2.65848e-01,-4.09236e-02,2.58387e-01,1.25857e-01,1.39514e-01,-4.36498e-01,-9.45689e-02,4.85551e-02,-2.20241e-01,-2.65817e-01,-3.96938e-01,-2.61961e-01,
-7.03028e-02,5.75809e-02,-1.18332e-02,-5.41217e-02,2.77176e-01,-5.76754e-01,1.39894e-01,-3.33472e-01,2.95873e-01,-2.92395e-01,-3.59273e-01,2.04895e-01,7.48745e-02,2.84349e-01,1.20869e-01,-2.52740e-01,3.75730e-02,-8.68134e-02,1.07033e-01,-3.14875e-01,1.83260e-01,7.88632e-02,4.00076e-02,1.96302e-01,2.94062e-01,
-3.96555e-01,-1.72496e-01,2.71990e-01,3.62828e-03,-1.79136e-01,7.60457e-01,-1.48834e-01,3.67117e-01,-7.42525e-02,-9.60709e-02,-5.26295e-02,2.76026e-02,-8.11074e-01,9.92597e-02,-6.29741e-02,1.74686e-01,-1.69451e-01,2.93862e-01,-6.76745e-01,1.47524e+00,1.03322e-02,-3.20266e-01,1.64968e-01,-7.97672e-02,-2.84822e-02,
2.20862e-01,8.96992e-02,2.19431e-01,2.11653e-01,-6.27043e-01,3.54310e-01,-2.47307e-01,2.08600e-01,3.56021e-02,7.97169e-02,2.62298e-01,-8.69488e-02,-4.27220e-01,3.24156e-01,1.40989e-01,-2.32109e-01,-2.07397e-01,1.00212e-01,5.87092e-02,5.06939e-01,-8.51735e-01,-2.80802e-01,7.71121e-02,5.46436e-01,1.85526e-01,
-1.81323e-02,1.79510e-01,-3.56644e-02,1.53188e-01,5.81757e-02,9.52273e-02,1.06730e-01,3.77417e-02,1.53725e-01,3.17041e-01,1.72488e-02,-3.14983e-01,-8.66075e-02,-6.10514e-02,1.53385e-01,-2.29141e-01,2.34554e-01,-2.62500e-01,-1.73935e-01,2.88125e-01,7.38393e-03,8.18953e-02,3.69140e-01,3.81098e-02,2.24343e-01,
-8.62282e-02,-2.02800e-01,-3.53202e-02,1.68455e-01,-6.19379e-03,-1.45802e-01,2.41934e-01,2.71750e-01,-2.54193e-01,3.13575e-01,-3.44767e-01,-1.46000e-01,-1.53679e-01,-8.55324e-02,-1.08738e-01,-8.49009e-04,-1.28521e-01,-9.37140e-03,1.91964e-01,-4.40342e-02,-2.40561e-02,-3.36592e-01,-1.82831e-01,6.61809e-02,9.83796e-02,
-5.74120e-01,-4.81317e-01,2.02116e-01,2.75275e-01,3.09163e-01,4.33445e-02,-2.05583e-01,-4.48066e-01,2.77201e-01,3.94070e-01,9.38545e-02,-6.63263e-01,7.28206e-03,4.55795e-01,1.03039e-01,1.60381e-01,2.23639e-01,3.24913e-01,-1.31932e-01,-7.09882e-02,1.19440e-01,7.58125e-02,-1.71160e-01,-2.50646e-01,1.38678e-01,
2.61234e-01,3.30525e-01,-5.52567e-01,-7.81082e-02,-1.13894e-01,-5.09276e-01,3.16399e-01,3.46140e-02,-3.26490e-02,-7.78437e-02,-2.31373e-01,-3.31843e-01,-7.70058e-01,1.17748e-01,1.79627e-01,2.51941e-01,2.33024e-02,-1.29119e-01,-5.86427e-01,4.24158e-01,6.00756e-01,2.92746e-01,2.90248e-01,-4.43887e-01,1.66850e-01,
-5.40886e-02,-2.46767e-01,3.67424e-01,-4.01100e-01,-4.59280e-01,-1.09693e-01,3.18087e-01,4.03297e-01,2.94438e-01,-1.92317e-01,-2.33213e-02,3.93239e-01,3.87996e-01,3.57076e-01,1.73848e-01,-8.17102e-02,-2.54865e-02,2.58780e-02,-1.53511e-01,-6.35804e-01,-1.31560e-01,2.65211e-01,3.47156e-01,2.85878e-01,2.80770e-01,
6.49359e-02,8.30989e-02,-3.00631e-01,2.21210e-01,1.34230e-01,-4.84143e-02,2.76520e-01,-2.20506e-01,1.56181e-01,-1.10186e-01,8.12303e-02,-2.73656e-01,-8.53608e-02,-2.17699e-01,3.15838e-01,-3.58186e-01,-3.34458e-01,-3.25686e-01,-2.10490e-01,9.67678e-02,2.72874e-01,-8.02548e-02,-1.44726e-01,-2.25426e-01,-3.39877e-01,
2.96192e-01,-1.30441e-01,-1.49469e-01,3.62522e-01,-1.13191e-01,2.78133e-01,2.27536e-01,-6.08441e-02,-2.02242e-01,-1.59877e-01,3.56363e-01,-1.27120e-02,1.35337e-01,4.38161e-01,-2.26204e-01,-7.33489e-01,1.49102e-01,3.10748e-01,2.11853e-02,5.35544e-01,-1.82789e-01,-4.02047e-01,5.21689e-01,4.37259e-01,1.00387e-01,
3.21167e-02,-1.77671e-01,2.98094e-01,-1.12802e-01,3.37878e-01,-5.25404e-01,1.25770e-01,-3.82484e-02,-1.93733e-01,1.77439e-01,-1.77250e-01,4.39836e-02,4.27475e-01,-1.66297e-01,1.67401e-01,-2.31280e-01,2.65678e-01,-1.49437e-01,2.52628e-01,-3.08535e-01,-2.12715e-02,1.92863e-01,4.33361e-01,5.55749e-01,-1.00188e-01,
6.12148e-01,4.52054e-01,-2.81870e-01,-1.59050e-02,2.64289e-01,-2.37904e-01,7.48339e-02,-1.09985e-01,-2.52486e-01,-2.35326e+00,-1.11687e-01,3.55057e-01,-1.80448e+00,3.69468e-01,-3.47418e-02,2.26886e-01,-1.29617e-01,-1.73317e-01,-6.89132e-01,-9.88310e-01,-4.86800e-01,-1.63743e-01,-6.41767e-01,-4.66277e-01,-3.28750e-01,
-1.61486e-01,6.43748e-01,4.38854e-01,-6.60676e-01,9.86749e-01,3.18593e-01,4.95631e-02,2.32777e-01,1.87146e-01,-4.61503e-02,-8.82632e-02,1.16267e-01,2.75571e-01,-3.00341e-02,6.23190e-02,-2.07725e-01,3.07155e-01,6.96667e-02,-3.66290e-01,6.27499e-01,-3.89256e-01,6.30626e-02,2.66357e-01,2.16548e-01,-2.70367e-01,
2.41005e-01,3.60850e-01,1.00379e-01,-1.74978e-01,-1.06713e+00,-1.69237e-01,1.74325e-01,-5.19054e-02,8.97608e-02,-2.24133e-01,2.04718e-01,-2.70029e-01,3.83880e-02,4.98998e-01,-1.89195e-01,-5.33556e-02,2.66611e-01,-2.72472e-01,-3.25976e-01,3.61879e-01,-4.35269e-01,-9.55937e-02,-2.91402e-02,2.09064e-01,-7.11289e-02,
-2.98589e-01,-1.25360e-01,3.84068e-01,-2.63320e-01,9.74449e-02,-3.09509e-01,-1.74368e-01,3.58000e-01,-1.78535e-01,-2.10551e-01,2.13365e-01,-6.43486e-03,-1.14074e-01,-7.57698e-02,1.27549e-01,-1.34000e-01,1.84734e-01,-1.15501e-01,4.65392e-01,-3.01707e-02,2.71945e-01,-1.23961e-01,-9.22988e-02,1.79531e-01,-2.48488e-01,
1.13929e+00,3.61028e-01,8.43922e-01,4.97021e-01,6.41556e-01,-4.79928e-02,-1.25543e-01,-1.43565e-03,-8.76330e-02,-2.83219e-01,-2.63460e-01,-2.35427e-01,-8.83084e-01,-4.91439e-01,2.22795e-01,3.83382e-01,3.07307e-01,-1.15316e-02,-2.43823e-03,-4.24266e-01,-1.29081e-02,3.91007e-01,-1.01385e-01,5.05636e-01,-3.87511e-02,
-3.07196e-01,-7.13699e-02,4.27242e-01,-2.58865e-01,-5.56714e-01,2.23954e-01,-3.28501e-01,2.56943e-01,5.39481e-02,6.07527e-02,-8.18391e-02,6.05062e-02,2.14749e-01,3.31464e-01,-1.57686e-01,1.33928e-01,-4.85112e-01,2.28048e-01,-1.41001e-01,2.39249e-01,6.42920e-01,1.34960e-01,-2.51594e-02,-3.77999e-01,8.36675e-02,
1.62709e-02,2.14398e-01,-1.02131e-02,-1.85638e-01,-3.97224e-02,-3.31481e-01,-3.01572e-01,1.62339e-01,3.51703e-02,2.24713e-01,-9.69204e-02,-2.63759e-02,1.30408e-01,-5.99016e-01,-8.33088e-02,-1.28474e-01,9.38929e-02,9.90838e-02,-1.18814e-01,1.74522e-01,3.16062e-02,7.17793e-02,3.80741e-01,-3.60836e-01,-9.03594e-02,
1.06419e-01,-2.18392e-02,5.14696e-01,-3.95494e-01,-5.24457e-02,3.46491e-01,-6.02378e-02,1.77482e-01,1.34236e-01,-3.43854e-02,-1.95034e-01,-2.06230e-01,2.98747e-01,1.85426e-01,-8.19737e-02,-3.28790e-01,8.82242e-02,-2.50936e-02,1.87624e-01,3.90134e-01,8.47527e-02,-2.54145e-01,6.56183e-01,6.13063e-01,-1.10720e-01,
-4.33326e-01,-9.52186e-02,-1.30233e-01,5.14591e-03,2.94256e-01,-3.07655e-01,-2.02003e-01,-1.55727e-01,-3.08987e-01,2.70576e-01,2.12219e-01,3.15037e-01,-2.31135e-01,1.98045e-01,1.64055e-01,-1.98284e-01,-1.08201e-01,7.73234e-02,-1.25937e-01,2.81315e-01,1.75739e-01,-2.08997e-01,-7.70064e-02,-1.47078e-01,8.98183e-02,
-1.07954e-01,-2.85866e-01,-1.04298e-01,4.04856e-01,5.96398e-02,-3.43606e+00,-3.09267e-01,-1.33953e-01,4.91294e-01,1.55169e-01,3.03258e-01,2.83274e-01,-8.05063e-01,-1.42188e-01,2.93759e-01,1.90702e-01,3.53708e-02,-1.87350e-01,1.17283e-01,4.54850e-02,-7.28305e-02,2.71981e-01,-6.85727e-01,1.51947e-01,1.00911e-01,
1.73772e-01,
7.36385e-02,
1.29309e-01,
1.24713e-01,
1.50985e-01,
2.24522e-01,
1.69562e-01,
7.77138e-02,
-1.37095e-01,
-9.48896e-02,
-2.18190e-01,
-1.43772e-01,
-2.24416e-01,
-7.32651e-02,
3.47951e-02,
1.53867e-01,
-9.98565e-02,
2.80209e-02,
1.12559e-01,
-2.53241e-01,
2.35675e-01,
1.91552e-01,
-3.43932e-01,
2.13314e-01,
-1.58389e-01,
-1.95499e-01,-1.86958e-01,-1.90603e-01,1.28183e-01,3.67362e-02,-8.44786e-03,3.17660e-01,-1.60344e-01,-4.45080e-02,4.80037e-01,8.13847e-01,-3.07554e-01,-1.65923e-01,-1.00621e-01,7.09138e-02,2.38850e-01,-4.44058e-01,-1.61806e-01,2.44832e-01,-3.74354e-01,2.13943e-01,1.83080e-01,1.76719e-01,1.72606e-02,4.74873e-01,
-1.30139e-01,2.57768e-01,-7.94939e-01,4.96850e-02,1.49224e-01,-1.58138e-01,2.55959e-01,1.79972e-01,9.88046e-02,2.11044e-01,2.10097e-01,-2.56200e-02,2.80775e-03,-4.78774e-01,1.13181e-01,-1.23243e-01,1.16627e-01,2.50287e-02,-4.16606e-01,-2.83792e-01,2.78336e-01,1.51735e-01,3.24101e-01,2.89484e-01,-1.41296e-01,
-6.02643e-02,6.50203e-01,4.31035e-01,1.77863e-01,-3.00159e-01,8.01939e-02,4.14363e-02,-2.04335e-01,-3.05764e-01,-7.77783e-02,-1.22845e+00,-5.57013e-02,-1.30765e-01,3.59035e-01,1.99827e-01,2.88123e-01,2.60397e-01,4.07903e-01,4.05949e-02,4.49805e-01,-4.72415e-01,-1.80447e-01,-7.58392e-03,-3.40897e-01,-8.40230e-01,
3.05020e-01,2.44463e-01,-5.83564e-02,2.79694e-01,1.91869e-01,1.64262e-01,-2.30993e-01,-2.30106e-01,-1.40798e-02,-2.14501e-01,1.32325e+00,3.24504e-01,1.08436e-01,1.02134e-01,-1.01709e-01,2.27460e-01,-5.16421e-01,1.67551e-01,2.92734e-01,-4.80574e-01,2.97272e-01,2.88845e-01,-3.71680e+00,-3.45804e-01,8.83244e-01,
-7.46477e-03,1.66980e-01,2.68158e-01,1.58083e-01,9.48069e-02,2.21112e-01,-2.92624e-02,2.81454e-01,-7.65386e-02,-5.51691e-01,-3.42086e-01,3.04610e-01,8.44614e-02,-3.33727e-01,-1.56973e-02,-4.13346e-01,-1.20227e-01,-1.44533e-01,-2.38317e-01,-2.05449e-01,3.73277e-01,-7.79670e-02,1.76856e-01,-3.29557e-02,1.45176e-01,
-3.93891e-01,2.73984e-01,3.02521e-01,2.42455e-01,1.99114e-01,-1.73271e-01,-4.76790e-01,-1.61307e-01,2.45654e-02,5.13495e-01,4.48689e-01,3.64898e-01,7.85696e-02,-4.32622e-01,-3.06112e-01,-2.55270e-01,4.14520e-01,-1.70766e-01,-2.24199e-02,1.64049e-01,5.60158e-02,5.44449e-02,3.77450e-01,-1.65428e-01,-5.24188e-01,
-7.27898e-02,1.48353e-01,2.79825e-01,6.06324e-01,-3.14419e-01,-4.33552e-01,-1.86810e-01,-4.27861e-01,-7.48046e-02,1.10388e-01,-2.05267e-01,3.14283e-01,1.02585e-01,5.12176e-01,1.20016e-01,3.00895e-01,2.29267e-01,8.32530e-02,4.61090e-02,-3.07062e-02,-1.55394e-01,-2.29203e-01,-2.76795e-01,-7.01628e-03,7.23217e-01,
-1.71872e-01,2.88351e-01,-1.91002e-01,-4.61444e-02,-2.85408e-01,-2.88736e-01,-1.01959e-01,-1.85529e-01,2.94482e-01,3.32633e-01,-2.51234e-01,1.43674e-01,-4.56482e-02,8.90595e-02,-2.31934e-01,5.33725e-02,1.76665e-01,-2.51592e-01,1.25071e-01,-3.16199e-01,5.19654e-02,-2.61936e-01,2.89026e-01,-1.10703e-01,-1.58353e-01,
-3.55874e-02,-1.09988e-01,-9.44081e-02,1.07457e-01,1.84569e-01,-2.64063e-03,-5.75956e-02,2.77317e-01,1.24222e-01,-7.23914e-02,3.84178e-01,1.31978e-01,1.40080e-01,-7.51619e-02,2.60744e-01,-1.06497e-01,-1.46531e-01,-2.85138e-01,2.12151e-01,-1.72927e-01,-1.81733e-01,-3.13381e-02,-8.26032e-02,1.37145e-01,3.42029e-01,
-2.55980e-01,5.88080e-02,-4.84158e-03,-1.96866e-01,2.34582e-01,-1.52938e-01,-3.33767e-01,-3.58850e-01,-5.17448e-02,-7.69592e-01,4.82843e-01,6.87942e-02,-1.51510e-01,-5.78299e-01,1.71061e-02,-4.38901e-01,-5.27887e-02,2.05496e-02,1.79517e-02,-4.54099e-01,2.32071e-01,2.16126e-01,-1.28552e+00,1.37586e-01,7.53253e-01,
-2.70358e-01,-3.21973e-01,7.53154e-02,7.51482e-02,-1.03695e-01,-2.14816e-01,-3.44772e-01,2.07653e-01,-2.99031e-02,-1.90045e-01,-2.88526e-01,-1.74802e-01,-2.18420e-01,3.45685e-01,-1.27920e-01,2.45887e-01,6.82711e-02,-4.35143e-02,-1.35222e-01,-2.88588e-01,3.27675e-01,-2.49072e-01,-1.85006e-01,-2.15499e-01,-3.18217e-01,
-3.24219e-01,-1.31554e-01,1.09346e-01,-1.50201e-01,-3.79729e-01,2.60909e-01,-1.12084e-01,5.88604e-03,-9.66484e-02,-6.54322e-01,-3.75537e-02,6.42302e-02,-3.02633e-01,-5.00375e-01,7.74961e-02,-1.87160e-01,-2.09726e-01,1.62051e-01,1.25259e-01,-4.42176e-01,3.14185e-01,2.62342e-01,8.13573e-02,1.49796e-02,9.93084e-01,
-2.07593e-01,-6.04358e-02,-2.48983e-01,2.60155e-01,1.25429e-01,-7.14577e-02,1.76651e-01,3.36794e-03,-2.36947e-01,1.04469e+00,-6.45319e-01,-3.45655e-01,-1.05252e-01,3.67282e-01,-5.66054e-02,5.92383e-03,1.35917e-01,2.38276e-01,1.58853e-01,5.02051e-01,2.72910e-02,2.07309e-01,-5.69301e-02,-3.10269e-01,-7.89786e-01,
6.68183e-02,-6.68145e-01,-3.61332e-01,2.09496e-01,4.16511e-01,-2.71518e-01,8.78195e-02,-1.15169e-02,6.69380e-02,-5.19091e-01,-1.64808e-01,3.10023e-02,2.38508e-01,1.90374e-01,1.03308e-01,1.79450e-01,-5.87031e-01,3.59504e-01,5.03882e-02,8.73552e-02,-1.18332e-01,-2.33278e-01,-5.65052e+00,-1.48484e-01,4.16880e-01,
-3.51488e-01,-3.11950e-02,3.53369e-01,1.08367e-01,5.99653e-02,1.16619e-01,1.92376e-01,-1.09266e-02,1.54258e-02,-1.10351e-01,-4.43388e-01,4.61800e-02,3.04398e-01,-8.91185e-03,-4.05207e-01,5.63779e-01,-2.12952e-01,7.48781e-02,-2.58097e-01,7.87088e-02,5.58859e-02,-3.31815e-01,-4.66243e-01,2.06526e-01,-5.61364e-01,
2.85490e-02,2.50745e-01,-1.96153e-02,2.75503e-01,-2.01978e-01,-1.94558e-01,3.46430e-02,-2.28357e-01,-9.76553e-02,4.79502e-01,-2.26322e-01,-1.48516e-01,-5.64653e-02,1.79237e-01,2.39177e-01,-7.40451e-01,1.86359e-01,-2.54085e-01,9.28605e-02,3.00650e-01,-1.67919e-01,1.99472e-01,-4.22206e-01,-1.23276e-01,-4.84450e-01,
3.30466e-02,-2.19199e-01,1.53531e-01,3.22861e-01,-4.88400e-02,-7.32625e-02,3.02897e-01,-1.27726e-01,2.37048e-01,-2.53533e-01,-6.93440e-03,-1.62626e-01,2.77695e-01,-1.69046e-01,-2.79214e-01,-2.97575e-01,-4.86814e-02,-1.50654e-01,-2.74892e-01,-1.26142e-01,-1.25824e-01,-2.48393e-01,-3.13103e-01,-8.18249e-02,-5.23226e-02,
4.91987e-02,-1.10917e-01,-2.71410e-01,-1.71324e-01,-2.84643e-01,1.43071e-01,-2.89776e-01,-3.77238e-01,-7.99258e-02,3.25085e-02,-1.77826e-01,1.98767e-02,-1.80229e-01,2.52024e-01,-1.59291e-01,1.63361e-01,-1.90492e-01,8.38933e-02,-1.50929e-01,2.48405e-01,3.42661e-01,-2.70983e-01,2.87243e-01,-2.56062e-01,1.78358e-01,
-3.67779e-02,-9.50128e-04,2.48917e-01,-3.21932e-01,2.36166e-01,-2.60159e-01,-9.81614e-03,-3.37328e-01,-4.57981e-02,5.33187e-03,-2.19939e-02,-2.45910e-01,-3.09437e-01,-7.56143e-02,-5.14829e-02,-1.87136e-01,4.58324e-02,8.10333e-02,2.40271e-01,3.27142e-01,1.00379e-01,2.32073e-01,-1.87927e-03,1.06231e-02,-2.01037e-01,
-3.25724e-01,-1.38897e-01,1.24000e-01,-1.90441e-01,1.47398e-01,-2.57742e-01,-1.31589e-01,-2.78312e-01,3.20380e-01,2.80364e-01,1.01316e-02,1.30458e-01,1.24356e-01,-2.75893e-01,9.65378e-02,2.47938e-02,2.90770e-01,1.16942e-01,1.40710e-01,-3.03019e-01,2.10734e-01,1.09588e-01,-3.31319e-01,1.87797e-01,-1.40860e-01,
9.26544e-02,2.89822e-01,-3.26119e-01,-3.24799e-01,-2.48982e-02,-2.19272e-01,-3.27572e-02,2.69847e-01,9.30955e-02,-5.71503e-02,3.14183e-01,1.54064e-03,2.72610e-01,-1.13217e-01,8.80607e-02,1.05028e-01,1.55767e-01,-1.97944e-01,-5.98539e-02,-4.79491e-02,-2.12255e-01,1.11993e-02,-2.04910e-02,-8.86296e-02,2.16895e-02,
-3.35841e-01,-2.21728e-01,-7.15999e-02,1.82321e-01,-7.11905e-02,1.26121e-01,-1.96181e-01,1.57620e-01,-8.20574e-02,-1.54213e-01,5.42590e-01,2.26768e-01,-1.08803e-01,7.09355e-02,-2.97175e-01,2.39819e-01,1.07514e-01,2.71497e-01,-1.62997e-02,-1.80186e-01,1.12718e-01,-9.10421e-02,2.31652e-03,1.82095e-01,6.86224e-01,
-4.67488e-02,-5.36677e-02,1.87790e-01,-4.46940e-02,4.92315e-01,-1.82031e-01,1.71907e-01,-8.76043e-02,-2.93600e-01,4.89311e-01,9.06088e-02,-1.30589e-01,-3.17455e-01,3.75521e-02,4.01494e-01,-2.92341e-01,4.21094e-01,2.63502e-01,2.80396e-01,2.77661e-01,-2.25678e-01,-8.08589e-02,-3.58226e-01,-4.15557e-01,4.84569e-01,
-3.27511e-01,-2.88767e-01,9.66061e-02,-2.90047e-01,-3.87124e-02,-3.26653e-01,-2.82433e-01,4.02018e-02,1.21703e-02,-2.14291e-01,-1.87229e-01,-3.20622e-01,-3.10849e-01,2.48209e-01,-3.00829e-01,3.43120e-01,7.14074e-02,2.11434e-01,2.06491e-01,-3.28949e-01,2.47631e-01,-2.18244e-01,-1.98800e-01,5.93054e-02,1.43263e-01,
2.80889e-01,1.67036e-01,1.79496e-01,6.37375e-02,1.82934e-01,-2.34398e-01,2.45176e-01,-2.11509e-01,-3.00292e-01,-3.29607e-01,-1.41335e-01,-2.28428e-01,-1.03931e-01,1.97616e-01,1.19489e-01,-4.08255e-02,3.29798e-01,1.29772e-01,-2.53343e-01,1.26303e-01,4.37609e-02,9.34587e-02,7.84269e-02,-9.95909e-02,3.14102e-01,
-3.88183e-02,
3.88165e-02,
2.31462e-02,
-2.22102e-01,
6.56699e-02,
6.19962e-02,
-6.01960e-02,
-8.54811e-02,
3.23302e-01,
1.95814e-01,
-2.84609e-01,
1.04513e-01,
2.22403e-02,
-8.51303e-02,
1.50221e-01,
7.92248e-02,
7.93284e-03,
-6.25731e-02,
-7.31536e-02,
-2.53469e-01,
2.04490e-01,
3.87641e-02,
-1.54218e-01,
-1.30072e-01,
-2.82257e-01,
-2.75329e-02,3.37272e-01,-1.36025e-01,1.23508e-01,2.53022e-02,-3.21543e-01,3.26588e-01,3.32670e-01,-1.90777e-01,-1.03524e-01,-3.37416e-01,4.77693e-02,-2.58843e-01,3.36566e-01,-1.10754e-01,-4.57436e-02,-2.89158e-01,1.05485e-01,-3.32376e-01,-2.07418e-01,-9.64340e-02,-2.06359e-01,-1.38435e-01,-2.81826e-01,-5.49481e-02,
8.99890e-02,3.26966e-01,-6.65586e-02,3.82786e-01,6.90391e-02,4.20704e-01,2.47489e-02,-1.32929e-01,2.19556e-01,2.63833e-02,-3.29333e-01,-1.12449e-01,2.21113e-01,-2.01703e-01,1.35038e-01,5.75332e-02,5.96128e-02,2.64725e-02,1.11902e-01,-1.48769e-02,1.19329e-01,6.51952e-03,5.46059e-02,2.98471e-01,5.17252e-02,
-1.59817e-01,7.37494e-03,-1.37567e-01,2.15902e-01,-4.12813e-03,1.77907e-02,-2.42034e-01,1.98618e-01,-1.56110e-01,3.08063e-01,1.81818e-01,-1.68677e-01,-5.56830e-02,-1.62984e-01,-6.11519e-02,8.57646e-02,-2.68875e-01,2.59801e-01,2.88905e-01,-2.58882e-02,-2.02796e-01,2.70396e-01,-1.06797e-01,2.15247e-03,9.01342e-02,
-1.26964e-01,2.46821e-01,-3.71779e-02,-1.99091e-01,-2.33858e-01,4.66415e-03,-1.02711e+00,3.12639e-01,1.63720e-02,-2.00272e-01,-3.35815e-01,-1.87950e-01,2.44216e-02,1.20182e-01,-2.74631e-01,5.66488e-02,-1.15212e-01,6.36363e-02,-4.15584e-02,-2.79827e-01,2.64746e-01,-1.37949e-01,-3.42771e-01,-1.87233e-01,2.58344e-01,
8.24910e-02,3.57606e-01,5.72948e-01,-6.51382e-02,2.66800e-01,-1.41141e-01,-6.31778e-02,3.00170e-01,4.01002e-01,3.49954e-01,3.02822e-01,5.74294e-02,-1.94518e-01,-1.71951e-01,-1.17020e-01,-3.06558e-02,1.54841e-01,2.26547e-01,-7.44525e-02,2.96353e-01,3.08139e-01,-1.08809e-01,6.65011e-02,-2.07433e-01,-2.01096e-01,
-1.80368e-01,-3.12979e-01,-2.60703e-01,-2.84918e-01,3.07164e-01,2.63169e-01,2.71603e-01,-2.59883e-01,-2.10160e-01,-3.56873e-02,-3.13943e-01,3.10413e-01,3.34469e-01,-1.64956e-01,-1.74988e-01,-8.35078e-02,3.03565e-01,-4.50161e-02,-2.17039e-01,7.40615e-02,-1.00312e-02,3.38770e-01,-2.36792e-01,-1.76085e-01,-2.57371e-01,
2.23725e-01,1.52429e-01,8.45236e-02,-1.91927e-01,-2.42322e-01,-3.38616e-01,3.29182e-01,-2.99511e-01,-3.29983e-03,2.35365e-01,-1.85499e-01,-1.26867e-01,-2.98744e-01,1.01058e-01,9.30989e-02,9.71378e-02,2.35149e-01,-1.91027e-01,-1.97807e-01,2.20372e-01,5.39850e-02,-1.16871e-01,-1.35782e-01,2.29037e-01,1.91788e-01,
3.24476e-02,6.06390e-02,1.24037e-01,2.96463e-01,2.80003e-01,-2.28684e-01,-2.32070e-02,2.26171e-01,-2.34542e-01,-1.25308e-01,3.43316e-01,-3.12202e-01,2.69634e-01,2.26510e-02,-1.49868e-01,2.71500e-02,-2.47746e-02,2.44927e-02,2.14742e-02,-1.30856e-01,-1.62583e-01,-1.98623e-01,-4.65894e-02,2.90951e-01,3.02030e-01,
-1.64138e-01,1.44538e-01,-2.22657e-01,-3.54175e-02,3.43721e-01,-2.58432e-01,1.33645e-01,1.58365e-01,3.23299e-01,1.59204e-01,-2.95090e-01,-1.24862e-03,8.31472e-02,3.86493e-01,-4.05049e-02,-2.79933e-01,-1.31213e-01,2.29828e-01,-2.60350e-02,2.61919e-01,1.82741e-01,1.13931e-01,2.58130e-01,-3.03948e-01,-1.45177e-01,
-2.44274e+00,-1.08482e+00,-6.34452e-01,-1.78728e-01,-1.24401e-01,-9.95046e-01,-6.43430e-01,-2.75338e-01,4.13304e-01,2.10386e-01,-2.46664e-01,-5.38470e-01,2.18606e-01,-2.81551e-01,-9.48810e-01,1.23197e-01,1.13469e-01,7.99663e-02,1.82004e-01,-1.96467e-01,2.87186e-01,-4.17062e-02,-7.07347e-01,-8.96744e-02,-2.65292e-01,
6.48545e-02,1.69984e-01,1.23806e-02,2.89511e-01,-6.48587e-02,-2.86335e-01,8.76108e-02,1.80435e-01,-5.41591e-02,-1.41073e-01,6.61832e-02,-2.25526e-01,1.89876e-01,-1.25296e-01,1.65641e-01,-1.60389e-01,2.33299e-01,4.73193e-02,-3.15326e-01,6.25847e-02,4.62882e-02,-1.20578e-01,-2.92175e-02,-1.08145e-01,1.27765e-01,
-1.92591e-01,-2.31235e-01,3.79517e-01,-3.11508e-01,-4.02227e-01,2.65995e-01,3.80419e-01,-1.02705e-01,1.96527e-01,1.55404e-02,-1.52279e-01,-7.77731e-02,2.74304e-01,-3.77848e-01,9.46031e-02,-1.71487e-01,5.47451e-03,-3.04280e-01,-2.10245e-01,2.00762e-01,-1.20697e-01,-3.01098e-01,7.58929e-02,1.95940e-01,2.87320e-01,
-1.50653e-01,1.64653e-02,8.14749e-02,-3.49979e-01,2.34983e-01,2.06752e-01,-6.97190e-01,1.15346e-01,1.90778e-01,-1.17829e-01,3.41300e-01,-9.78902e-02,-2.47901e-01,8.57928e-02,-1.85845e-01,3.01586e-01,7.27642e-02,-2.37480e-01,-1.35005e-02,-2.22138e-01,2.74819e-01,-3.76989e-02,1.57295e-01,3.04011e-01,3.19108e-01,
-3.92184e-02,8.65482e-02,2.50109e-01,1.69174e-01,-5.89430e-02,1.23176e-01,4.23096e-01,-3.30328e-01,1.39319e-01,1.13010e-02,7.59572e-04,2.17634e-01,-1.96760e-01,-2.49056e-01,-3.21407e-01,-8.49198e-02,1.79746e-01,1.64072e-01,2.80601e-01,-3.22068e-02,-3.25326e-01,1.24305e-01,-1.30770e-01,3.23830e-01,4.99063e-02,
-1.21128e+00,-2.10720e-01,6.25609e-01,-1.29914e-01,-3.76459e-01,-1.04489e-01,-1.14082e+00,-1.89401e-01,1.32991e-01,1.97523e-02,1.46621e-01,-5.15797e-01,-2.64599e-01,1.88747e-02,1.82548e-01,2.30588e-01,9.45155e-02,8.41783e-02,1.53689e-01,6.15049e-02,-2.33801e-01,-5.71581e-01,1.26993e-02,2.78778e-02,1.87778e-01,
1.97211e-01,-1.77291e-01,5.04179e-01,4.78682e-01,3.90961e-01,-2.99836e-02,2.12366e-02,2.39632e-01,2.13678e-01,2.54467e-01,-5.69955e-02,3.03682e-01,-9.86094e-02,-1.80040e-02,-3.23666e-01,4.76461e-01,3.33797e-01,-7.42292e-02,-1.57984e-01,-8.17540e-02,3.08688e-03,1.68228e-01,9.88824e-02,-3.16355e-01,-2.46401e-01,
-4.13806e-02,-4.10396e-02,-4.19900e-01,-4.18056e-01,-1.05879e-01,2.47894e-01,1.30704e-01,-4.53648e-02,-1.42509e-01,-8.83325e-02,5.59560e-02,1.53521e-01,2.04878e-01,6.08911e-02,3.20674e-01,-2.31773e-01,1.37531e-01,2.19487e-03,2.82681e-01,-2.55930e-01,-2.86255e-01,-2.56792e-01,-9.18922e-02,-1.20240e-01,2.08130e-01,
1.10084e-01,-2.02146e-01,3.58292e-01,7.91829e-02,2.06676e-01,1.74429e-01,-1.37536e-01,3.29236e-01,3.01669e-01,2.97704e-01,-1.05273e-02,8.54405e-02,-3.15739e-01,2.75685e-01,-1.79575e-01,2.09699e-01,2.09448e-01,-1.16805e-01,-1.51677e-01,2.08971e-01,2.66946e-01,2.46031e-01,-9.75461e-03,2.06009e-02,2.59140e-01,
1.07599e-01,1.02266e-01,-2.10560e-01,-2.03502e-01,-1.62606e-01,-1.37216e-01,2.29372e-01,2.26107e-01,-2.62457e-01,2.35812e-01,6.33196e-02,9.41769e-02,-1.40305e-01,-1.62375e-01,-3.48589e-01,1.12993e-01,-1.62781e-01,8.71637e-03,-1.85363e-01,-2.32326e-01,-9.40762e-02,-8.78129e-02,-1.28362e-01,2.90145e-01,3.02707e-01,
1.49953e-01,2.99029e-02,5.28205e-01,1.20787e-01,-4.24559e-02,-1.65991e-01,1.08846e-01,-2.32532e-01,1.28623e-01,2.83963e-01,-9.45354e-02,5.98138e-02,5.22115e-02,-1.72673e-01,-6.01398e-02,3.25532e-01,1.62771e-01,2.89198e-01,1.38819e-01,6.44886e-02,2.61565e-01,3.06720e-01,-4.19019e-02,6.38989e-03,-3.34765e-01,
1.08050e-01,-2.38558e-01,8.65390e-02,2.22474e-01,3.00509e-02,-1.76637e-02,-3.55289e-02,-2.87092e-01,1.29597e-01,1.34879e-01,2.66760e-01,-3.31719e-01,2.36700e-01,1.70354e-01,2.80150e-01,-7.43223e-02,9.82817e-02,1.60793e-01,1.64263e-01,-2.20330e-01,6.91899e-02,-2.29630e-02,1.45389e-01,1.71701e-02,1.32181e-01,
2.32228e-01,8.70769e-02,1.01222e-01,1.31564e-02,-2.54254e-01,1.04903e-01,8.75274e-02,6.50325e-03,-1.26750e-01,3.99560e-04,-1.35619e-01,-1.42172e-01,2.96133e-01,-2.54456e-01,-2.80941e-01,-2.52386e-02,3.20999e-01,-1.30718e-01,-4.35244e-02,3.06105e-01,2.75479e-02,1.61093e-01,-3.02855e-01,-1.86428e-01,1.07417e-01,
-3.17939e-01,3.12961e-01,8.44161e-02,-1.61887e-02,-1.52985e-01,3.22166e-01,3.11292e-01,-2.30444e-02,-2.03530e-01,2.71910e-01,1.10387e-01,-3.37121e-01,-3.33391e-01,3.41982e-01,-2.61601e-01,-2.09076e-01,-1.08019e-01,-1.78595e-01,2.27270e-01,2.51869e-01,1.88851e-01,4.59869e-02,8.29020e-02,1.41153e-01,1.50378e-01,
-2.72970e-01,-2.72808e-02,-1.30220e-02,1.29125e-01,-1.87291e-01,-8.33746e-02,-1.50276e-01,1.49673e-01,2.84015e-01,-9.02824e-03,-2.39801e-01,2.73361e-01,-2.39661e-01,2.00570e-01,1.17561e-01,3.37943e-01,-3.46404e-01,-1.00479e-01,1.85686e-01,2.55008e-01,-2.05664e-01,-3.18347e-02,5.20496e-02,1.41173e-01,2.01027e-01,
6.28593e-01,-5.70189e-03,7.19331e-01,8.03901e-01,9.68611e-02,-2.20382e-01,1.13965e-01,1.90165e-01,-1.93011e-01,3.82955e-01,7.70283e-02,-2.60168e-02,-4.10255e-01,-9.93236e-02,-5.94112e-01,4.03175e-01,-3.05699e-01,1.63236e-01,7.74720e-02,-3.25829e-02,1.47190e-01,1.47106e-01,1.89472e-01,-3.45921e-01,-3.54592e-02,
-8.65442e-03,
-3.21182e-01,
-7.90953e-02,
1.90437e-02,
-2.82563e-01,
1.30162e-01,
-1.75627e-01,
-9.90024e-02,
2.39465e-01,
-1.85558e-01,
3.88947e-01,
1.02314e-01,
2.28442e-01,
1.75881e-01,
4.40043e-02,
-1.66360e-01,
2.24803e-01,
2.36648e-01,
1.03927e-01,
1.03287e-01,
2.59384e-01,
-2.86849e-01,
-1.84028e-01,
3.01497e-02,
5.90224e-03,
1.37542e-01,3.21370e-01,-8.56712e-03,-1.88941e-01,-2.56472e-01,-5.96077e-02,-1.49129e-01,-2.48886e-01,1.26070e-01,2.79059e-01,-2.82523e-01,2.22740e-01,-6.10045e-02,-4.15469e-01,-5.85343e-02,1.28396e-01,-1.15174e-02,-3.60841e-01,-9.87735e-02,2.00740e-01,-3.05697e-01,7.80055e-02,1.10422e-01,-1.87706e-01,1.43012e-01,
-3.17865e-01,-3.67633e-01,-2.65766e-01,1.41476e-01,-9.02979e-02,3.11104e-01,2.77631e-01,1.24402e-01,3.76168e-01,-3.99417e-02,3.88936e-01,1.73913e-01,-2.31643e-01,2.34294e-01,-1.39831e-01,5.72200e-02,-1.47920e-01,-2.35164e-02,-2.98143e-01,1.81277e-01,2.90658e-03,-2.55553e-01,-2.73400e-01,3.53255e-01,1.71151e-01,
2.95439e-01,-2.09444e-01,1.43377e-02,-2.32597e-01,-9.96467e-02,-1.36003e-01,-1.86967e-01,1.07190e-01,-2.68612e-01,-2.79996e-01,-2.33989e-01,2.52574e-01,-2.30060e-01,3.52324e-02,-7.26104e-02,-2.94005e-02,7.65326e-02,-3.03383e-01,2.43920e-01,3.23874e-01,4.62282e-02,2.38281e-01,-1.10860e-02,3.78761e-03,3.00960e-01,
9.41246e-02,1.10204e-01,-8.13997e-02,3.88784e-02,5.57635e-02,5.95527e-03,3.86274e-02,9.18244e-02,-2.40557e-02,6.60801e-03,6.89801e-02,1.41327e-01,-2.79994e-01,9.00693e-03,2.66562e-01,2.20585e-01,-2.29431e-01,-3.93202e-01,3.07198e-01,-2.89157e-01,-1.29517e-01,-1.20230e-02,-2.89493e-01,1.78481e-01,2.48366e-01,
6.99993e-02,7.41213e-02,9.21997e-02,-1.87414e-02,2.63683e-01,-6.92075e-03,2.26242e-01,-2.55466e-01,2.37824e-01,8.33621e-03,-2.27691e-02,2.20542e-01,-3.22089e-01,1.42312e-01,4.81475e-02,1.32653e-01,6.86814e-02,2.52583e-01,2.51430e-01,-1.10754e-01,-2.57979e-02,-1.72899e-01,3.19284e-01,1.34269e-01,2.30291e-01,
-2.37140e-01,-1.81850e-01,-4.56259e-02,2.23491e-01,-1.11121e-01,1.75293e-01,-9.57521e-02,-2.92862e-01,8.93341e-02,1.23569e-01,2.54140e-01,8.23107e-02,3.37575e-01,-3.56508e-03,3.50745e-01,1.94367e-01,9.75711e-02,9.72538e-02,-1.23632e-01,1.04087e-02,-2.94287e-02,2.77175e-01,3.42260e-01,3.58910e-01,-1.32279e-01,
1.78774e-02,-3.57525e-02,-7.21891e-02,-2.44512e-01,1.51402e-01,-7.53704e-02,-6.49128e-02,-2.90504e-01,-2.37650e-01,9.60722e-02,4.40008e-02,2.73721e-01,2.91214e-01,-3.05399e-01,-1.74734e-02,1.23685e-01,-1.14114e-01,-2.94878e-01,1.93886e-01,1.17987e-01,-1.77287e-01,-2.64914e-01,-3.37183e-03,-2.23236e-01,7.01859e-02,
2.02650e-01,-9.65058e-02,-1.83659e-01,1.55846e-01,2.45294e-01,4.97423e-03,2.18194e-02,1.75163e-01,1.94206e-01,1.10704e-01,-8.00105e-02,3.42299e-01,2.90847e-01,-7.86296e-02,7.29050e-02,1.98043e-01,3.74651e-02,-1.46715e-01,-3.22281e-01,1.10316e-01,1.82032e-01,3.25449e-01,-1.19371e-01,5.73907e-02,1.30074e-01,
-2.33401e-01,-3.07168e-01,-1.47190e-01,3.40187e-01,7.30737e-03,-7.78342e-02,1.32526e-01,-3.03490e-01,3.39511e-01,1.07185e-01,4.23962e-01,4.99790e-02,1.57266e-01,3.11788e-01,5.62220e-02,-1.15987e-03,2.08894e-01,-7.71293e-02,-1.09515e-01,1.05799e-01,3.02411e-01,2.77116e-01,2.76637e-01,2.00620e-01,1.04688e-02,
1.90305e-01,-2.18860e-01,-7.39480e-02,-1.52876e-01,-3.98710e-01,-1.43194e-01,2.63605e-01,-2.07481e-01,2.31831e-01,2.09595e-02,-3.29198e-01,-1.72461e-01,1.67953e-01,1.19368e-01,1.24363e-01,-1.89294e-02,-1.05413e-01,-2.39744e-01,-2.15149e-01,1.47956e-01,1.50131e-01,-3.78123e-02,-1.27799e-01,-2.27551e-01,-1.74467e-01,
1.67865e-01,2.98384e-02,1.22031e-01,1.93903e-01,1.73284e-01,-7.15473e-02,2.88239e-01,-3.15393e-01,-2.03088e-01,1.09735e-01,1.09647e-01,-2.42312e-01,-1.05842e-03,2.53354e-02,1.80057e-01,2.42780e-01,-2.40528e-01,1.48137e-01,-1.44729e-01,8.49680e-02,-3.12542e-01,-3.04865e-01,-1.63673e-01,-2.11171e-01,2.34693e-01,
1.62130e-01,5.41733e-02,2.42328e-01,8.70796e-02,-3.79715e-01,-1.85676e-01,-1.66119e-01,-2.47494e-01,-3.88008e-01,3.30038e-02,-1.28228e-04,-1.95382e-02,2.69842e-01,8.13790e-02,2.36966e-01,-1.21922e-01,1.20128e-01,-1.99833e-01,1.48251e-01,-8.33167e-02,1.56938e-01,2.22467e-01,1.45245e-03,-2.47088e-01,-3.09086e-01,
-1.93138e-01,-1.49097e-02,-1.42483e-01,3.56513e-01,-3.10108e-01,-9.90123e-02,2.84464e-01,-6.49951e-02,1.21377e-01,9.69541e-02,-3.23009e-01,-3.03080e-01,-2.39935e-01,-1.08288e-01,-8.10779e-03,-1.35097e-01,-7.58138e-02,-1.06461e-02,3.06055e-01,2.25229e-01,-1.05085e-01,-2.11274e-01,-2.27325e-01,1.61186e-01,2.13524e-01,
-2.52952e-01,2.31692e-01,5.90296e-02,3.00433e-01,2.75127e-01,-5.92803e-02,-2.89107e-01,1.41429e-01,-3.23060e-01,2.43067e-01,-3.33468e-01,-3.17143e-01,-3.07035e-01,-1.87674e-01,-2.65065e-01,1.52612e-01,2.65184e-01,3.61119e-02,-9.00865e-02,4.40021e-02,-3.00253e-01,-7.41808e-02,3.68297e-03,7.97017e-02,1.91212e-01,
-2.27357e-01,7.56470e-02,2.59363e-01,2.82845e-01,8.29681e-02,-3.92172e-02,-2.39820e-01,9.68294e-02,3.02771e-01,7.63067e-02,8.69704e-02,9.59974e-02,8.09660e-02,1.31930e-01,4.12676e-01,-2.04522e-01,1.53943e-01,3.25400e-01,2.17990e-01,2.61508e-01,-1.31912e-01,-2.74460e-01,2.15236e-01,-1.44238e-01,9.29150e-02,
8.63185e-02,6.35862e-02,1.81975e-01,5.07687e-02,1.02031e-01,-1.45373e-01,3.22120e-01,-1.59760e-01,-9.09071e-02,2.62134e-01,-6.98560e-03,-2.74525e-01,1.48247e-01,2.05695e-01,-1.95339e-01,-4.79716e-02,-5.88266e-02,2.30591e-01,9.25050e-03,1.73356e-01,1.72988e-01,1.26660e-01,2.99918e-01,1.95958e-01,-1.26972e-01,
-2.28749e-01,-2.58080e-01,8.64486e-02,3.42226e-01,-1.20858e-01,2.55574e-01,1.42735e-01,4.73890e-03,1.12710e-01,-2.53373e-01,-2.63755e-01,2.62808e-01,-2.79360e-01,8.45103e-02,1.86888e-01,-3.70864e-01,-3.41631e-02,-1.66404e-01,1.20029e-01,3.00115e-02,-1.01432e-02,8.32893e-02,2.64302e-01,-2.33458e-01,-1.79737e-01,
-7.69638e-02,1.61670e-01,-9.71538e-02,-2.22465e-01,-8.17889e-02,-2.10110e-01,-3.06203e-01,-8.31085e-02,1.60972e-01,-1.55328e-01,-4.55016e-03,2.14408e-01,-1.38950e-01,-1.78057e-01,-8.56969e-02,2.50786e-01,2.01867e-01,-9.43580e-03,3.10383e-01,6.54009e-02,-3.11583e-01,1.18434e-04,-1.18879e-01,-1.46771e-01,-1.77155e-01,
-2.62123e-01,-4.92649e-02,-1.64461e-01,-1.89229e-01,-1.36851e-01,3.05817e-01,-1.88353e-01,2.56336e-01,5.82518e-02,3.45538e-02,3.18950e-01,4.66933e-02,3.50025e-01,1.59108e-01,-1.48006e-02,-1.74000e-01,3.24816e-01,1.28809e-01,3.09549e-01,9.72116e-03,3.01702e-01,-1.53584e-01,2.56449e-01,3.24164e-01,-6.85758e-02,
1.11851e-01,1.22084e-01,-2.54381e-01,-2.68900e-01,1.67981e-01,2.54003e-01,2.83621e-01,-3.46227e-01,1.49522e-02,-8.28058e-02,-2.66471e-01,-1.86855e-01,-1.68223e-01,2.17739e-01,-1.93093e-02,4.29985e-02,-2.11840e-01,1.02302e-01,1.05974e-01,-1.18128e-01,-1.94617e-01,1.90339e-01,1.62654e-01,1.42024e-01,1.19466e-01,
3.34918e-01,1.33823e-01,1.39380e-01,3.26486e-02,-4.38755e-02,2.21235e-01,-6.10859e-02,9.02110e-02,1.62490e-02,-1.18320e-01,8.58046e-03,1.69743e-01,1.06446e-01,1.60968e-01,3.84636e-01,-1.23071e-01,2.16980e-01,6.36921e-02,-3.03168e-01,-1.76738e-01,-2.20709e-01,-2.05215e-01,2.94438e-01,2.48084e-01,-5.64357e-02,
-5.85634e-03,-1.82169e-01,-3.09296e-01,9.15378e-02,1.51093e-01,-7.45512e-02,3.24150e-01,5.94551e-02,-1.47694e-01,-3.15874e-01,-3.11594e-01,1.62890e-01,-1.66014e-01,1.44808e-01,-8.63245e-02,-5.24809e-02,-7.41875e-02,-3.29607e-01,-9.32835e-02,-8.03448e-02,2.72110e-01,-3.37405e-01,-2.74679e-01,2.21549e-01,-2.95712e-01,
-2.16824e-01,2.21693e-01,2.96292e-01,2.60442e-01,3.63146e-02,-1.40721e-01,1.90804e-01,1.65940e-01,9.38976e-02,1.24111e-01,-2.44975e-02,7.16490e-02,-3.32094e-01,-8.46387e-02,-1.45838e-01,-1.69882e-02,-8.12868e-02,2.76431e-01,-1.45704e-01,-2.15070e-01,2.36459e-01,1.84371e-01,-4.78011e-02,1.40863e-01,-2.94006e-01,
-6.49611e-02,2.13286e-01,-1.15505e-01,1.18982e-01,1.91794e-01,5.94928e-02,-2.47877e-01,-1.23128e-01,7.01993e-02,-2.92628e-01,2.64583e-01,2.87588e-02,3.28784e-02,-8.44194e-02,-2.71127e-01,1.17495e-01,-2.70519e-01,-2.55954e-03,3.05422e-01,-2.37322e-01,-2.48981e-01,1.56739e-02,1.90197e-01,-3.29157e-01,1.61270e-01,
-2.93883e-01,-1.49055e-01,2.97581e-01,7.97288e-02,-1.72072e-01,1.33309e-01,9.42547e-02,-2.96427e-01,2.40198e-01,5.25045e-02,-2.00067e-01,-7.69225e-03,7.86169e-02,1.14727e-01,1.67198e-01,-1.15978e-01,-9.95562e-02,7.50571e-02,-1.77167e-01,-1.72815e-01,-2.05562e-01,-2.76875e-02,2.93540e-01,2.73851e-01,2.99273e-02,
2.43835e-01,
-2.72068e-02,
-2.45225e-01,
2.32209e-01,
-3.47040e-01,
1.67766e-02,
8.49201e-02,
-2.02085e-01,
-1.68306e-01,
3.90067e-02,
-1.10140e-01,
9.44020e-02,
3.00189e-01,
3.35192e-02,
-1.04892e-02,
-8.32484e-03,
-1.41519e-02,
-1.92881e-01,
-2.76433e-01,
-1.35189e-01,
1.58791e-01,
6.80459e-02,
6.41205e-02,
-4.09782e-02,
1.85722e-01,
3.09125e-01,4.78755e-01,3.09396e-01,-5.00640e-01,1.44760e-01,4.70830e-01,-2.63426e-01,-8.78023e-02,1.70223e-01,1.33897e-01,2.92012e-03,-3.32585e-01,-1.13825e-02,2.37973e-01,3.46023e-01,6.83980e-02,-6.11144e-02,-2.97383e-01,-3.57598e-02,2.20788e-01,-8.16254e-02,4.09670e-02,3.38520e-01,3.53710e-01,8.02401e-02,
3.92855e-01,-1.09281e-01,2.50365e-01,2.74935e-01,3.98110e-01,2.65315e-02,-2.04811e-02,-2.57045e-02,-3.03723e-01,1.39051e-01,-1.16488e-01,3.52612e-01,-1.75480e-01,4.39289e-01,-1.83469e-01,8.72873e-02,-9.10560e-02,-4.96525e-02,-3.74552e-01,3.14405e-01,9.55992e-02,-1.77961e-01,1.13108e-01,4.19541e-01,-1.62461e-01,
3.19133e-01,-4.08707e-02,4.44903e-01,1.40617e-01,1.63399e-01,6.26970e-02,3.75332e-02,-8.98521e-02,-8.64145e-02,-1.74505e-01,-2.25205e-01,-1.58007e-02,-4.75354e-02,-4.33221e-01,1.29052e-01,-1.59862e-01,-2.79309e-01,2.21408e-01,1.36477e-01,1.85926e-01,-2.78221e-01,1.71797e-01,1.89068e-02,4.07740e-01,1.31952e-01,
6.26700e-02,-1.42428e-01,-2.72524e-01,3.56238e-01,-2.39261e-01,-4.31042e-01,-2.58511e-01,2.37187e-01,-3.96383e-02,1.87983e-01,-2.53043e-01,3.66688e-01,2.76905e-01,8.71199e-02,-2.54055e-01,-4.03387e-01,4.09177e-01,1.19834e-01,-3.61520e-01,4.63827e-02,2.98391e-01,3.06693e-01,1.97732e-01,-4.00907e-01,3.30051e-01,
3.13427e-01,-1.89045e-03,1.29943e-01,1.62513e-01,3.14484e-01,-2.17562e-01,-3.02664e-01,1.52916e-01,1.67525e-01,1.31100e-01,1.49226e-01,1.37750e-01,1.01321e-01,5.70410e-02,-1.98426e-01,3.15997e-01,3.50277e-01,-1.38476e-01,-1.87673e-02,-2.78616e-01,4.10026e-01,2.79171e-01,-1.04036e-01,2.91215e-01,-2.05578e-01,
-5.95018e-01,
3.38077e-01,
2.18475e-02,
3.26416e-01,
-1.15299e-02,
