// Neural Network File Format by Kyle Julian, Stanford 2016
6,5,5,25,
5,25,25,25,25,25,5,
0,
-56000.000000,-56000.000000,-3.141593,200.000000,200.000000
56000.000000,56000.000000,3.141593,200.000000,200.000000
-278.628049,0.000000,0.000000,200.000000,200.000000,-0.242819
112000.000000,112000.000000,6.283185,1.000000,1.000000,17.479225
6.66602e-01,-4.85713e-01,2.53910e-01,-6.11575e-02,1.72236e-01,
-2.77101e-01,3.70968e-01,1.95609e-01,4.18184e-01,-5.88852e-03,
6.83776e-01,9.54604e-01,-4.46615e-01,-1.57549e-01,2.55913e-04,
-6.15394e-01,5.72745e-01,3.08576e-01,5.00905e-02,3.37082e-01,
1.77374e-01,5.50448e-01,-3.61107e-01,-3.07795e-01,2.82492e-01,
1.68260e-01,4.07688e-01,2.75610e-01,3.62637e-02,-2.43669e-01,
-2.33231e+00,-2.64647e+00,1.76783e-01,2.46011e-01,-3.03881e-01,
2.43711e-01,-4.87805e-01,-2.41242e-01,1.70185e-01,-4.11241e-01,
3.67719e-01,-1.38101e+00,-6.37353e-01,4.86517e-02,-1.23321e-01,
7.48410e-02,1.19298e+00,5.43383e-02,1.35399e-01,1.79009e-01,
-2.16623e-01,-2.04508e-01,1.65552e-01,-3.40104e-01,-1.15942e-01,
-1.01078e+00,6.99329e-01,-2.52183e-01,3.02931e-01,-2.09449e-02,
-3.01083e-01,3.63510e-01,5.09089e-01,2.31364e-01,3.98293e-01,
9.67855e-01,-1.50903e+00,-5.71426e-05,-2.49804e-02,-2.50247e-01,
-2.14768e-01,4.59123e-01,-6.46159e-02,-3.80268e-02,3.39632e-01,
-2.18563e+00,6.65654e-01,5.76452e-01,1.35420e-02,3.32060e-01,
5.42942e-01,-1.36162e+00,9.10499e-03,3.24658e-01,-4.19742e-02,
-3.90710e-02,1.68584e-01,-4.68746e-01,-4.27318e-01,-3.46053e-01,
-6.57984e-02,3.16272e-01,-5.66157e-01,-2.93863e-01,1.12191e-01,
-4.49722e-02,2.58587e-01,-1.70102e-01,-3.14669e-02,-2.08596e-01,
-1.17861e-01,2.48527e-01,-3.17477e-01,4.25523e-01,-1.51086e-01,
-1.09032e+00,-1.19528e+00,-1.47850e-01,5.19889e-02,4.64062e-02,
1.95254e-01,3.59652e-01,-2.03058e-01,-2.71848e-03,-1.75631e-01,
5.50727e-01,-6.49367e-01,-9.76486e-02,-3.71128e-01,-2.82433e-01,
-1.02166e+00,-8.66746e-01,-8.18186e-01,-2.56838e-01,-2.32824e-02,
-1.34069e-01,
1.60798e-01,
5.18354e-02,
1.25351e-01,
-5.98992e-02,
1.20036e-01,
6.78263e-02,
1.36418e-01,
4.93327e-02,
9.31421e-02,
1.78722e-01,
-8.10433e-02,
-1.01980e-01,
6.19715e-02,
6.16601e-02,
4.58205e-03,
1.42734e-01,
-2.88825e-02,
3.09992e-02,
-3.21959e-01,
-1.66695e-01,
-4.72366e-02,
2.57414e-01,
1.05583e-01,
6.16120e-02,
-1.53204e-01,-2.78393e-01,3.38977e-01,-1.82906e-01,-8.63853e-02,-1.91812e-02,-2.48763e-01,9.57561e-02,3.13250e-02,-5.55769e-03,-2.03456e-01,1.00329e-01,3.30097e-01,-1.58318e-01,-2.85109e-01,-1.05585e-01,1.44146e-01,3.01648e-01,-8.66997e-02,-9.94305e-02,7.04233e-02,1.54041e-01,-3.28266e-01,-1.03463e-01,-2.00084e-01,
6.61327e-01,1.33082e-01,-1.55719e-01,2.19528e-01,-5.53954e-02,-2.31540e-01,4.71233e-01,-3.40417e-01,-5.82546e-01,1.80826e-01,-8.87257e-02,-2.56038e-01,-4.05617e-01,2.47966e-01,-1.31281e-01,2.97505e-01,3.51947e-02,2.41571e-01,6.07302e-01,7.98766e-02,-2.46138e-01,-5.84986e-01,1.20101e-01,1.02261e-01,2.76767e-01,
6.57666e-01,-2.12593e-01,1.51163e-01,1.96601e-01,-3.68942e-01,-2.48375e-02,4.08886e-01,6.32983e-02,-5.48003e-01,-1.62380e-02,2.32065e-02,1.70260e-01,2.03316e-01,-3.07812e-01,-1.99046e-02,-8.64924e-03,3.54874e-02,2.47716e-01,2.28079e-01,2.44911e-01,9.26925e-01,-1.03339e-01,-3.53653e-01,-3.84459e-02,4.57380e-01,
3.11621e-01,2.37183e-01,-2.81872e-02,4.97705e-02,-3.64525e-01,1.12235e-01,4.37794e-01,-4.87179e-03,-2.11513e-01,-9.66640e-02,1.39053e-01,2.47212e-01,-3.67892e-01,-3.31266e-01,-4.04905e-01,4.51139e-02,2.60083e-01,5.81232e-02,1.38447e-01,1.96604e-01,1.75143e+00,-5.30922e-01,1.07042e-01,-2.55726e-01,2.23143e-01,
6.18500e-01,2.11196e-01,-5.40175e-01,-7.29856e-02,2.53010e-01,-7.34640e-03,5.42697e-01,-3.92209e-03,4.91974e-01,-3.84896e-01,3.00537e-01,8.26382e-01,-1.46801e-01,1.14791e-01,1.84691e-01,-6.56764e-02,2.74219e-01,6.66611e-02,1.47138e-01,1.32436e-01,-1.40269e-01,-1.10897e-02,1.12212e-01,-2.57117e-01,-1.52332e-01,
-1.53484e-01,-3.54364e-01,-1.48749e-01,-2.26538e-01,5.29784e-02,6.13585e-03,2.31395e-01,2.70306e-01,-2.45624e-01,1.46220e-01,-4.74928e-02,-8.27048e-01,4.24516e-01,7.07427e-02,-1.40266e-02,7.57883e-02,1.52736e-01,-2.30314e-01,1.05357e-01,2.51563e-01,-2.82848e+00,-1.78001e-01,1.73067e-01,2.03422e-01,1.57742e-01,
-2.41701e-01,2.55897e-01,4.52232e-02,-1.45857e-01,3.24584e-02,3.40324e-01,2.05536e-01,1.67241e-01,9.95336e-02,3.30416e-01,3.17042e-01,2.39791e-01,-9.37024e-02,2.96010e-01,3.57888e-01,-7.12403e-02,1.09566e-01,-2.22932e-01,-3.94868e-01,-3.22890e-01,-9.20404e-01,3.85069e-02,-1.20961e-01,2.65999e-01,6.43184e-01,
-6.13104e-02,-3.07932e-01,4.62442e-01,-2.28266e-01,-4.91268e-01,8.41152e-02,2.11300e-01,2.43215e-01,-1.43095e-01,-3.48162e-01,-2.58252e-01,8.74850e-01,9.68857e-01,1.21144e-01,-1.30680e-01,-3.67954e-01,-1.81749e-01,-1.84870e-01,6.68341e-03,3.21297e-01,1.00789e+00,-2.52268e+00,-3.43097e-01,-3.20195e-01,3.60268e-01,
4.24885e-02,-2.17765e-01,-3.09627e-01,-5.59559e-03,2.48189e-01,-1.16537e-01,3.84335e-02,-2.64021e-01,-1.54947e-01,-3.32727e-01,8.18878e-02,-2.40905e-01,1.03712e-01,-1.27338e-01,-7.41782e-02,-2.99407e-01,4.06738e-02,-2.17753e-01,-2.80289e-01,8.78502e-02,9.36487e-02,-2.08715e-01,-3.73592e-02,8.73071e-02,2.71133e-01,
-1.03553e-01,3.17701e-01,3.07693e-01,9.96729e-02,-3.77774e-01,2.41963e-01,4.61261e-01,-3.26681e-01,-3.11896e-01,2.96960e-01,-2.87342e-02,1.02927e-01,-1.13005e-01,-5.46433e-01,1.64181e-01,-5.59154e-01,-3.48200e-01,-8.40077e-02,2.58732e-01,-9.34325e-02,5.72149e-01,-7.56186e-02,-1.95073e-01,-3.34886e-01,3.35658e-01,
-2.34111e-01,-1.31297e-02,1.01823e-01,5.35294e-02,3.34311e-01,1.04187e-01,-3.09525e-01,9.82972e-02,-1.37405e+00,7.25924e-02,-3.97838e-02,3.79109e-01,7.08800e-02,1.47144e-01,-1.04972e-01,-1.94945e-02,9.96566e-02,3.65040e-01,4.97179e-02,1.84877e-01,-3.60450e-01,8.24717e-01,2.55727e-01,1.92285e-01,-9.27215e-01,
-1.28509e-01,-3.13066e-01,2.78870e-01,-6.22568e-02,1.11232e-01,-1.70477e-01,3.00661e-01,1.38028e-01,4.54635e-02,2.24245e-01,-1.64457e-01,5.65710e-01,-9.77670e-01,-2.61847e-01,1.32064e-02,-4.14232e-01,2.28809e-03,-1.01090e-01,-1.90748e-01,-3.09709e-01,5.98082e-01,-3.25941e-01,2.33342e-01,2.87613e-01,-8.31536e-03,
1.36109e-01,-4.42288e-02,1.29841e-01,2.29313e-01,-9.20787e-03,1.40753e-01,1.51603e-01,2.02846e-01,-2.76001e-01,-5.30175e-03,4.46822e-02,6.32449e-01,1.32586e-01,2.31865e-01,-1.71481e-01,7.98549e-03,-1.61693e-02,1.20470e-02,2.12806e-01,4.89024e-02,-8.28168e-01,1.72847e-01,-6.95388e-02,-1.43909e-01,1.80152e-03,
7.66552e-01,-1.40180e-01,2.18493e-01,4.18596e-01,-1.29241e-01,6.06097e-02,1.12991e-01,-7.60762e-02,-5.77511e-01,1.51754e-01,1.70419e-01,-5.18601e-02,3.87775e-01,-5.97089e-01,2.05720e-01,-7.71895e-01,-5.26163e-01,-1.84969e-01,4.21040e-01,-2.25078e-01,-8.36907e-01,1.14266e+00,3.77523e-01,-4.79470e-01,-1.57985e-01,
-2.05921e-01,1.55059e-01,1.78741e-01,-5.22646e-02,1.13896e-01,8.81512e-02,-5.63991e-02,-2.65356e-02,1.42897e-01,8.30735e-02,-4.15882e-01,1.11750e-01,-2.89314e-01,5.93908e-02,-1.96310e-01,-7.11702e-02,1.98354e-01,-1.18261e-01,-4.87122e-02,-3.58897e-02,2.44855e-01,-3.30812e-02,-3.85726e-01,-2.35251e-01,3.57902e-02,
-2.55984e-02,6.05734e-02,-3.11381e-01,-6.14151e-02,1.55537e-01,3.69980e-01,-5.82607e-01,-9.06898e-02,1.17211e-01,-1.48026e-02,-2.48836e-01,-9.21098e-02,1.63729e-01,2.22568e-02,-3.23343e-01,1.13175e-01,-1.06984e-02,-9.16816e-02,-1.33388e-01,1.14931e-01,-1.43331e-01,9.05626e-01,2.39530e-01,1.34076e-01,-1.10294e-01,
-2.45791e-01,-1.89637e-01,-2.69708e-01,-1.92562e-01,4.44746e-01,5.61074e-02,-3.84960e-01,-8.90128e-02,8.01377e-03,-3.27123e-01,2.25685e-01,-2.26074e-01,-3.72996e-02,-2.13133e-01,2.07291e-01,4.58724e-01,1.49470e-01,2.19319e-01,-3.99859e-02,-4.54935e-02,-9.29816e-01,-1.09235e+00,1.64197e-01,8.51361e-02,1.10534e-01,
8.83547e-01,-1.66856e-01,-8.01770e-01,4.23671e-01,-6.16108e-02,-2.55053e-01,1.14492e-01,-1.54890e-01,4.37714e-01,-4.15919e-01,2.47431e-01,1.16456e+00,-1.55037e-03,-8.40983e-02,-2.84047e-01,-3.62470e-01,2.70536e-01,-1.31880e-01,4.94162e-01,-3.03134e-01,1.22568e+00,3.53565e-01,2.48503e-01,2.51287e-01,-5.74546e-01,
-2.76566e-01,2.31705e-01,2.51820e-01,1.31219e-01,1.41777e-01,-8.87862e-03,-2.49601e-01,1.37881e-02,2.59528e-02,2.31195e-01,9.86466e-02,2.13991e-02,5.68949e-03,1.14241e-01,-3.70784e-02,-4.69693e-01,2.16829e-02,-2.09563e-01,-2.04510e-01,-2.97219e-01,3.31278e-01,4.52625e-01,2.09732e-01,-4.27888e-02,-1.42004e-01,
4.24688e-01,8.30754e-03,3.10343e-01,1.38796e-01,2.70797e-01,1.67964e-01,-3.61244e-01,-3.39027e-01,2.25274e-01,-1.69526e-01,4.45600e-02,6.30703e-01,-6.03698e-02,4.76112e-03,1.98445e-01,2.05954e-01,-8.73410e-02,-1.05476e-01,-3.66343e-01,-2.40258e-01,1.45647e+00,1.37195e+00,-1.00758e-01,-3.08383e-01,-1.71719e-01,
-5.06656e-01,-6.59455e-02,1.90966e-01,-4.86633e-01,-2.28801e-01,-1.15456e-01,-2.71291e-02,3.81409e-02,-1.10884e-01,-1.47160e-01,2.74228e-01,3.48814e-01,4.36041e-02,1.73265e-01,-6.91820e-03,1.06292e-01,-1.49501e-01,7.07410e-02,-1.60467e-01,-1.42741e-01,-3.28013e-01,5.84698e-02,1.25285e-01,-4.91432e-02,-2.51570e-01,
2.45268e-02,-1.76979e-01,-7.40668e-02,4.79507e-02,4.98162e-01,-9.20977e-02,6.19074e-01,3.54954e-01,-2.50365e-01,-5.21522e-02,1.16077e-01,4.05745e-01,1.39191e-02,-2.83661e-01,1.84087e-01,7.85022e-02,2.18968e-01,1.04748e-01,9.49665e-02,-2.71029e-01,-7.36487e-01,-8.90364e-01,2.17457e-01,-2.38163e-02,3.22062e-01,
-2.16859e-01,-1.51983e-01,3.38924e-01,-2.64589e-01,3.13378e-01,-2.48329e-01,-3.22883e-01,-1.12865e-01,2.73904e-01,-3.10291e-01,-2.18778e-01,-2.12332e-01,5.97008e-01,-1.33012e-01,2.49086e-01,1.43642e-01,-1.03151e-02,-4.86955e-01,-4.36683e-01,8.96478e-02,-1.70736e+00,8.52466e-01,2.39901e-01,-3.07089e-01,-4.26111e-01,
-3.42411e-01,-1.49059e-01,-5.99444e-02,-1.80170e-01,-2.98142e-03,-1.95007e-01,-2.38128e-01,3.18248e-01,-2.55974e-01,1.55078e-01,-1.74882e-02,-2.31130e-01,1.39658e-02,2.80872e-01,5.70002e-02,2.15224e-01,3.93607e-02,2.69380e-01,-2.14124e-01,-7.51082e-02,1.49522e-01,-2.12185e-01,-7.32558e-02,1.34240e-01,3.88732e-02,
-3.07797e-02,-9.84988e-01,1.13866e-01,-2.26443e-01,-4.74896e-01,-2.59186e-01,2.00790e-01,3.06256e-03,8.58752e-02,5.89413e-01,-1.54337e-01,8.82930e-01,6.25447e-01,2.27772e-01,1.77966e-01,6.36368e-02,3.13757e-01,-3.90077e-01,-2.42041e-01,3.92373e-02,1.24746e+00,2.91969e-01,-3.40337e-02,2.40776e-01,-2.57357e-01,
-9.68823e-02,
-1.66553e-01,
1.25880e-01,
2.82939e-01,
-1.23016e-01,
2.92500e-02,
-2.31142e-01,
2.22163e-01,
-2.01087e-01,
3.72448e-02,
-2.90981e-02,
2.29422e-02,
1.10964e-01,
-3.17279e-02,
-6.90995e-02,
1.39491e-01,
5.91352e-02,
-7.89772e-02,
2.94739e-01,
1.18815e-01,
2.22025e-01,
-6.66152e-02,
2.65910e-01,
-3.03279e-01,
-2.52846e-01,
5.63459e-02,-1.64783e-01,9.23605e-02,-2.15209e-01,-2.45954e-01,-1.14774e-01,-4.04341e-01,-6.01842e-02,2.80237e-01,-5.40980e-01,2.01524e-01,-4.77137e-01,2.59652e-01,6.27306e-01,-2.42308e-01,1.92852e-01,2.95655e-01,2.05059e-01,-2.99799e-02,-1.14360e-01,2.25270e-01,3.73139e-01,2.63350e-01,2.65042e-01,-9.97197e-02,
-1.81212e-01,2.92125e-01,1.80164e-01,1.88415e-01,-2.95216e-01,-7.31977e-02,-2.21239e-02,-2.04590e-01,-2.77604e-01,-2.50955e-02,-3.25265e-01,2.48044e-01,-7.20042e-02,2.80109e-02,9.63829e-02,-2.18978e-01,-3.34579e-01,-2.25579e-01,2.33207e-01,-2.76193e-01,2.77415e-01,-2.30753e-01,-4.05250e-02,8.66271e-02,1.37501e-01,
2.03907e-01,3.32368e-01,-3.79495e-01,-1.79837e-01,5.29927e-01,1.38412e-01,-4.32197e-02,-2.84609e-01,6.05670e-03,5.24024e-01,-2.80595e-01,-1.97838e-01,3.03571e-01,-5.10226e-01,3.10520e-01,2.32210e-02,-2.29525e-01,-3.04687e-01,1.92882e-01,2.66863e-02,1.14226e-01,-2.99513e-01,-1.39218e-01,8.62331e-02,-3.03279e-01,
-3.23137e-01,2.27083e-01,-2.72288e-01,1.82133e-01,-2.38022e-02,2.62194e-01,1.38261e-01,1.35811e-01,-2.15380e-02,-1.23750e-01,-1.14144e-01,-1.16082e-01,-1.61381e-01,2.95460e-01,1.00604e-01,-1.97141e-01,-2.24629e-01,9.31141e-02,-1.14945e-01,-2.53746e-01,5.15931e-02,1.84362e-01,1.00638e-01,1.67717e-01,-2.33626e-01,
-1.77203e-01,8.26035e-02,-5.49214e-02,2.13603e-01,-2.04195e-01,3.44406e-01,9.86758e-02,8.76578e-02,-1.41387e-01,-1.29034e-01,2.52148e-01,-1.10778e-01,-6.52269e-02,-1.94310e-01,2.86525e-01,-1.79304e-01,-9.32499e-02,-2.28719e-01,-2.11846e-01,1.16538e-01,-1.43409e-01,-1.52326e-01,2.38798e-01,1.30591e-01,1.42726e-01,
1.72739e-01,-1.43777e-01,3.45798e-01,1.88494e-01,6.60375e-02,-4.51519e-01,1.44802e-01,4.17590e-01,3.34108e-01,3.29358e-01,4.63923e-01,2.53921e-01,6.74458e-03,-1.25606e-03,2.69707e-01,1.20870e-01,3.55098e-02,-1.04531e-01,-2.39742e-01,-4.90750e-01,1.28038e-01,-2.21222e-01,1.38491e-01,3.29858e-01,8.78086e-02,
5.73992e-02,-2.86172e-02,1.00242e-01,1.63341e-01,-7.44063e-02,1.49214e-01,1.02697e-01,2.33733e-02,-2.74892e-01,-4.46387e-01,-3.90538e-01,-5.42836e-02,3.26102e-02,3.88050e-01,-3.31265e-01,-3.88214e-02,2.35982e-01,5.75142e-02,-8.19088e-02,3.86236e-02,1.46121e-01,-2.99417e-01,-1.47933e-01,1.75902e-01,1.14534e-01,
2.29076e-01,-3.11473e-01,2.37953e-01,-7.13760e-02,-9.57445e-01,1.36150e-01,3.67555e-01,7.40978e-02,-1.67962e-01,-6.30261e-01,3.49884e-01,-3.44012e-01,-1.03452e-02,8.20865e-01,1.66922e-01,-2.38837e-01,-1.17444e-01,3.97784e-01,-2.60544e-01,1.05755e-01,3.10745e-02,-2.43190e-02,-3.07287e-01,-2.83567e-01,-3.13853e-02,
1.20089e-01,2.55331e-01,-1.46881e-01,6.76617e-02,1.10605e-01,1.74133e-01,-3.79989e-01,-2.99119e-02,1.72597e-03,-1.84960e-01,-1.17789e-01,-3.45805e-02,-2.18211e-01,-2.36438e-01,-8.78114e-02,9.65105e-02,7.88671e-02,2.00055e-02,-1.72681e-01,1.80321e-01,-2.29194e-01,-3.35652e-01,-1.70260e-01,1.63239e-01,1.64272e-01,
1.78513e-01,3.73163e-01,2.71670e-01,1.32226e-02,-5.29154e+00,-7.06462e-02,-6.44220e-01,-1.38626e-01,-1.76491e-01,-1.95312e-01,-3.36133e-03,4.39015e-01,-2.26158e-02,3.49721e-01,-5.26658e-02,-8.22818e-01,-2.09308e-01,-4.90748e+00,-3.11440e-01,-2.53629e-01,-2.72622e-01,1.61694e-01,1.65590e-01,3.02688e-01,-1.48896e-01,
2.08781e-01,-3.67021e-01,2.25532e-01,-1.16218e-01,1.10395e-01,-3.82150e-02,-2.77090e-01,1.21395e-01,4.31655e-02,4.11691e-01,2.80924e-01,-8.68031e-03,1.88003e-01,-3.00366e-02,1.81430e-01,-3.23897e-01,-1.87113e-01,-6.12586e-03,-4.83097e-02,-1.38751e-01,-1.97420e-01,3.95545e-02,1.66922e-01,2.24882e-01,3.87854e-02,
-6.53103e-03,1.07205e-01,2.54636e-01,2.30409e-01,-6.86239e-01,2.71238e-01,-8.96449e-02,-6.24300e-01,2.01042e-01,-6.36644e-01,-7.03854e-02,1.19256e-01,2.03247e-01,5.97141e-01,1.63428e-01,3.26723e-01,-1.75556e-01,4.47747e-01,1.64685e-01,-3.84025e-02,2.87075e-01,1.13207e-02,-2.09075e-01,-1.46751e-01,-3.17847e-01,
-2.29146e-01,5.44050e-01,-1.73118e-01,-3.90283e-01,3.88048e-01,-8.94701e-03,-1.03459e-01,2.15076e-01,-3.79393e-02,2.39858e-01,-3.37532e-02,9.83727e-02,-3.02850e-01,-4.83105e-01,2.42879e-01,1.85788e-01,-8.41748e-02,-4.85941e-02,4.23652e-02,2.91242e-01,-8.86524e-03,-8.49812e-02,-4.21424e-02,-3.31419e-01,-4.37172e-01,
4.14786e-03,-4.70182e-01,2.69380e-01,2.39275e-01,-1.00257e+00,-1.81591e-01,-4.69392e-01,8.70614e-02,-1.38418e-01,-3.29682e-01,3.74549e-01,2.51822e-01,1.42041e-01,2.70464e-02,2.63910e-02,-1.24322e-01,2.01315e-02,9.83808e-01,-3.02607e-01,1.50896e-01,-1.76683e-01,2.00726e-01,-4.81934e-01,-5.52069e-02,-5.73719e-01,
-2.43964e-01,1.44860e-01,2.56800e-01,5.30504e-02,-2.89188e-01,-3.14748e-01,-4.02850e-02,-3.54392e-01,-5.86140e-02,1.79988e-01,2.87070e-01,2.21882e-01,9.20979e-02,-3.55641e-02,8.61755e-02,2.99239e-01,1.75229e-01,2.63684e-01,-2.56329e-01,-2.96227e-01,-2.68214e-01,-3.57181e-01,2.49119e-01,-1.62734e-02,2.17450e-01,
-3.02188e-01,1.59074e-01,2.20487e-01,5.55670e-02,-1.53031e-01,2.03082e-01,-8.29689e-02,7.59105e-01,3.00107e-01,6.61012e-02,9.66532e-02,1.80219e-01,-2.77238e-01,7.82400e-02,1.73076e-01,-4.15445e-01,8.16304e-01,1.66458e-01,3.17079e-01,2.08731e-01,-2.04885e-01,-7.94960e-02,-9.68609e-01,-3.43293e-01,2.03826e-01,
-1.27044e-01,-3.10447e-01,1.44876e-01,2.52668e-01,-3.19554e-01,1.72107e-01,2.24644e-01,1.25867e-01,-1.25749e-01,-1.85461e-01,-1.12728e-01,-3.48180e-01,-2.66488e-01,-1.98392e-01,-4.37234e-02,-7.15330e-02,-2.53621e-02,2.74157e-01,9.34555e-02,2.92520e-01,-1.51585e-01,-1.31123e-01,-1.24453e-01,-9.96266e-02,1.18372e-01,
-1.36368e-01,2.34587e-01,-4.22046e-01,-6.75571e-02,2.23096e-02,4.54430e-02,1.18171e-01,1.25280e-01,-1.22554e-01,-9.11310e-02,-5.29653e-01,2.73042e-01,-1.10295e-01,3.27629e-01,-2.61421e-01,2.97109e-03,1.42173e-01,4.63618e-01,7.69749e-02,2.52419e-01,-2.20868e-01,1.13099e-01,-4.22932e-02,4.90349e-02,-6.08472e-01,
1.74081e-01,-6.85498e-03,4.75538e-01,8.75080e-02,3.95861e-01,-1.04755e+00,7.21210e-02,-9.80991e-01,3.03551e-01,1.00848e-01,5.30907e-02,7.97147e-02,-3.61329e-01,-8.62612e-02,7.37048e-02,5.44508e-02,-4.57957e-02,-2.53716e-01,1.09177e-02,2.05412e-01,-2.24027e-01,8.05076e-02,-1.00911e-01,4.60080e-02,1.60426e-01,
1.17375e-01,-2.43657e-01,2.79850e-01,6.97508e-03,-2.86298e-01,-3.04216e-01,2.11667e-01,-4.71785e-02,6.71368e-02,-3.30288e-01,1.39126e-01,-1.08559e-01,2.17226e-01,1.65092e-01,-4.67300e-01,-1.85123e-01,-1.52022e-02,2.42631e-01,-1.52656e-02,-6.75088e-02,-3.49655e-02,-1.17054e-01,1.94079e-01,2.66934e-01,2.59198e-01,
3.45655e-01,-9.47002e-03,-9.17345e-02,-3.54849e-02,-2.09673e-02,-1.74444e-01,-1.69193e-01,5.56380e-03,1.50513e-01,2.56734e-01,3.39697e-01,1.91640e-01,1.09181e-01,-1.81488e-01,2.86307e-01,-3.04622e-01,2.68647e-01,-1.71600e-01,-1.88394e-01,-2.60443e-01,-2.77952e-01,3.07412e-02,4.10164e-02,-2.39435e-01,3.38624e-01,
-2.97014e-01,1.06168e-01,-2.38760e-01,1.41535e-01,3.11787e-01,-2.44491e-01,1.08934e-01,3.34344e-01,3.10531e-01,5.86107e-01,-2.25732e-02,1.57324e-01,1.31387e-01,-1.88894e-01,2.25006e-01,3.88183e-01,2.27793e-01,2.85723e-01,1.61786e-01,4.35421e-01,3.58103e-01,-5.20072e-02,1.83565e-01,2.18729e-01,-5.52716e-01,
7.31594e-02,3.15382e-01,9.98118e-02,-3.18343e-01,-2.61460e-01,1.67858e-01,2.76294e-01,1.79046e-01,-3.34849e-01,-2.46184e-01,-6.40893e-02,1.62338e-01,-3.38909e-02,1.30990e-02,-4.66761e-02,1.06803e-01,3.38631e-01,-3.19207e-01,-1.76497e-01,1.64817e-01,2.45774e-02,-3.41538e-02,-1.48372e-01,1.69996e-01,-1.45361e-01,
-9.61611e-02,1.19582e-01,-2.34378e-01,-3.32949e-01,1.35830e-02,-2.47933e-01,-3.03739e-01,-3.03774e-01,9.08636e-02,-7.60974e-02,-1.30815e-01,8.11106e-02,-2.35702e-01,-1.79008e-01,-8.23087e-02,-2.78298e-02,1.91497e-01,-1.41735e-01,1.38136e-01,-3.31734e-01,-1.39457e-01,1.11873e-01,1.91543e-02,-2.86682e-01,1.52206e-01,
-4.05102e-02,-1.85087e-01,3.08351e-01,-3.75957e-02,1.31760e-01,8.41039e-02,-1.07811e-01,-3.06427e-01,4.24318e-02,4.59992e-02,1.07271e-01,7.39561e-02,1.58401e-01,8.52047e-03,1.63674e-01,2.70661e-01,-3.12156e-02,1.01372e-01,-2.77175e-01,-1.53677e-01,-7.79932e-02,-3.69571e-02,-1.60965e-02,-2.36881e-01,2.89218e-01,
6.14310e-02,
-2.73210e-01,
1.78232e-01,
1.32775e-01,
-3.42654e-01,
1.40080e-01,
1.21142e-01,
2.67791e-01,
4.10659e-02,
1.52989e-01,
1.70840e-01,
-2.42489e-01,
2.19692e-01,
5.01396e-02,
-1.93585e-02,
-2.42952e-01,
-3.48267e-01,
2.24681e-01,
-3.38357e-04,
4.04391e-02,
-1.41823e-01,
-2.52148e-01,
-2.71369e-01,
-2.39087e-01,
-2.00088e-01,
-2.72005e-01,-2.09223e-01,2.53269e-01,6.92335e-02,-1.71795e-01,-2.10429e-01,-1.62316e-01,-1.75698e-03,8.55996e-02,-4.86960e-01,3.32198e-01,-1.23247e-01,1.07719e-01,1.80291e-01,-3.81341e-02,-1.84774e-02,-9.28525e-03,-1.09153e-01,-2.08525e-01,1.80638e-01,1.09503e-01,7.02166e-02,-1.73366e-01,6.07627e-02,1.73846e-01,
1.13892e-01,-6.61774e-02,1.08992e-01,-1.36396e-01,-3.43360e-01,1.10039e-01,-1.57956e-01,1.29924e-01,7.02481e-02,-1.45074e-01,3.54888e-02,-3.14793e-02,-7.18849e-02,-5.28182e-02,-1.78927e-01,-1.08509e-01,2.99832e-01,-2.00804e-01,-7.10238e-02,9.21633e-03,-3.53248e-02,-1.06341e-01,-1.21182e-01,-1.87259e-01,2.50465e-01,
2.73140e-01,4.64603e-02,-2.05392e-01,2.56993e-01,-1.63204e-01,-2.63058e-01,-2.40372e-01,1.56805e-01,-1.17079e-02,1.93125e-01,-9.44331e-03,2.35391e-01,-2.10656e-01,-2.33137e-01,-1.37095e-01,-4.03368e-02,2.49629e-01,2.67780e-01,7.52254e-02,2.15454e-01,9.15188e-02,-1.26338e-01,2.00142e-01,6.14855e-03,-3.52450e-01,
-4.01041e-01,3.20372e-01,3.63083e-01,-3.77531e-01,2.05500e-01,-5.20975e-01,-2.28143e-01,1.65043e-01,-1.34521e-01,-1.76593e-01,-8.99767e-01,4.19561e-01,-2.11262e-01,-7.96429e-01,-1.96100e-01,1.26319e-01,3.59809e-02,-1.19806e-01,1.43590e-01,-2.29871e-01,-1.02261e-01,-3.11939e-02,-3.84242e-02,-1.00936e-01,3.25908e-01,
-2.59850e-01,-3.05673e-01,-3.70297e-01,9.81224e-02,5.82049e-02,-9.52499e-02,-1.61291e-01,-3.33439e-02,-2.30369e-02,-1.40200e-01,-1.52806e-01,1.08398e-02,1.67202e-01,-9.83250e-02,-2.50701e-01,-5.87498e-02,-1.86676e-01,1.49519e-01,2.55631e-02,5.50400e-02,-8.31932e-02,4.60195e-02,7.33339e-02,3.22259e-02,-1.16212e-01,
2.25767e-01,1.27184e-01,-2.66505e-01,-6.72791e-01,-3.20819e-01,-2.14383e-01,8.65579e-02,3.38620e-01,3.54308e-03,1.71296e-01,-1.09056e-01,-1.61421e-01,9.74758e-02,1.34242e-01,5.01561e-01,1.22069e-01,9.79303e-02,-1.52759e-01,1.04280e-01,1.38924e-01,-2.72750e-01,2.73787e-02,-9.28242e-02,3.15078e-01,3.82789e-01,
9.45244e-02,-1.88389e-01,-1.34854e-01,-1.79876e-01,1.38755e-01,2.23325e-01,-1.72864e-01,2.53417e-01,7.48912e-02,-3.70257e-01,7.08256e-02,4.05654e-01,-2.68237e-01,-6.15906e-01,-2.85770e-01,1.43897e-01,-5.42950e-02,-3.01377e-01,1.10860e-02,3.54561e-01,-3.25438e-01,-5.10824e-01,-2.98615e-02,1.98103e-01,9.35173e-02,
-1.40050e-01,-1.42950e-01,-2.24493e-01,1.39609e-02,-1.99290e-01,1.74279e-01,1.29762e-01,-1.12351e-01,2.47572e-01,4.87737e-01,-7.32319e-02,-1.60488e-01,2.11131e-01,-2.07470e-01,-1.58075e-01,-1.47096e-01,2.12573e-01,1.90672e-01,1.44835e-01,-4.21182e-02,-9.05658e-02,-5.54719e-02,-2.15668e-01,-1.28372e-01,1.67325e-02,
-2.52084e-01,2.96367e-01,-3.13515e-01,-3.45390e-01,-2.60801e-02,-7.51300e-02,-8.32193e-02,2.04847e-01,-6.79723e-02,9.89199e-02,-2.14211e-01,-3.39847e-01,-3.19424e-01,-3.43268e-01,2.82683e-01,-1.01600e-01,-2.23393e-01,-2.92814e-01,1.89749e-01,-2.67790e-01,2.11976e-01,1.46414e-01,-1.66433e-01,-4.19259e-02,-2.99965e-01,
-5.51834e-02,-1.09082e-01,-1.65312e-01,7.36058e-02,1.03317e-01,1.46046e-01,-3.41661e-02,4.26604e-02,2.01429e-01,3.29369e-01,4.70794e-02,-2.11654e-01,1.37008e-01,2.35059e-01,-6.39013e-02,-2.36957e-01,1.98730e-01,-1.43652e-01,-2.16991e-01,1.98999e-01,2.04888e-01,2.97476e-01,4.34612e-02,-1.52302e-01,2.95938e-01,
3.13133e-02,-1.52442e-01,-1.75576e-01,3.18506e-01,2.80086e-01,2.43272e-01,3.56333e-01,1.61423e-01,3.47286e-01,-3.25745e-01,-6.71999e-02,2.79432e-01,-8.45179e-02,-3.41693e-01,9.32136e-02,5.12363e-02,-1.90379e-01,-1.53080e-01,1.09108e-01,2.94386e-01,6.32459e-02,1.90543e-01,-1.94815e-01,2.27382e-01,2.30481e-01,
1.42515e-01,1.25083e-01,-2.79667e-01,-2.08790e-01,7.23807e-02,3.41734e-02,-9.20157e-03,3.17539e-01,1.23995e-01,1.44198e-01,-9.97122e-02,4.81335e-01,-2.19023e-01,1.42948e-01,8.41831e-02,-7.88358e-03,-2.28623e-01,-4.49148e-02,6.59519e-03,2.14661e-01,-1.55389e-01,-2.40128e-01,3.21532e-01,-3.43940e-01,1.22158e-02,
-1.47538e-01,1.03601e-01,-2.87416e-01,4.36687e-04,1.71460e-01,1.31516e-01,1.74204e-01,-1.86045e-02,-7.94944e-02,1.57821e-01,2.94150e-01,8.14724e-02,3.19754e-02,2.54801e-01,1.28347e-02,-1.66035e-01,-1.44246e-01,-2.62246e-01,-4.07278e-02,-2.17207e-01,-2.63103e-01,-9.08112e-02,2.54738e-01,-2.98731e-01,3.12995e-01,
5.10641e-02,1.07933e-01,-2.98454e-01,1.17163e-01,-3.18066e-01,-2.90982e-01,-1.47521e-01,2.04123e-01,-1.20322e-02,9.96433e-02,-2.84540e-01,-2.93360e-01,3.70823e-02,-3.54360e-01,-2.49558e-01,5.10631e-01,2.86017e-01,-1.03892e-01,2.30271e-01,-9.92308e-02,2.98256e-02,-1.80628e-01,-1.23222e-01,3.99689e-02,-1.43820e-03,
-3.69655e-01,1.30207e-01,4.17735e-01,2.19530e-01,-2.68570e-01,-1.76931e-01,2.82447e-02,1.47878e-01,-2.58434e-02,9.59379e-02,-7.90709e-03,-2.93961e-01,-3.38622e-01,-2.61553e-01,-2.18946e-01,1.59724e-01,4.02182e-03,-4.03671e-02,3.58666e-01,-1.62107e-01,2.02313e-01,-3.88494e-01,2.34353e-01,7.04100e-02,1.38146e-02,
5.40823e-03,-2.19308e-01,1.60416e-01,-1.45412e-01,-3.30587e-01,-2.31259e-01,-3.71164e-01,1.39737e-01,-7.83885e-02,1.84485e-01,8.66234e-02,8.18179e-02,-2.42752e-03,2.03328e-01,-1.15417e-01,9.19551e-02,1.02765e-01,-1.91521e-01,2.77969e-01,1.00677e-01,5.23053e-02,-2.52984e-01,-4.53518e-02,-1.54520e-01,-1.69963e-01,
-4.04057e-01,-1.02259e-02,1.71421e-01,1.47891e-02,-1.31147e-01,1.85907e-01,-1.12863e-01,-3.49597e-02,1.92607e-02,4.46422e-01,1.54814e-01,-4.25344e-01,-1.08603e-01,-3.10063e-01,-3.64988e-02,4.85493e-02,1.13301e-01,-4.24090e-01,-1.51798e-01,8.63486e-02,-7.63072e-02,-3.08398e-03,-9.34768e-03,-1.56433e-01,3.56252e-01,
-7.22331e-01,2.21072e-02,3.75929e-02,-3.74215e-01,3.07201e-01,-9.04666e-02,2.00720e-01,-3.17213e-01,-1.58253e-01,-3.58235e-01,3.42862e-02,1.28954e+00,-5.66035e-02,3.97798e-01,2.78710e-01,-5.64021e-01,-3.25918e-01,-5.09880e-01,4.85502e-01,-8.58302e-02,3.07637e-01,-2.83922e-01,-3.49466e-02,1.29306e-01,-1.44286e-01,
1.81579e-01,-1.71569e-01,4.36303e-01,7.26159e-02,1.61566e-02,-2.24233e-01,-1.70508e-01,-4.90134e-01,5.37506e-02,3.33280e-01,8.96919e-02,1.26169e-01,2.87881e-01,3.80831e-01,4.09558e-01,3.40498e-01,-9.12107e-02,2.91520e-01,-1.65305e-03,-2.11855e-01,9.66547e-02,3.32053e-02,-1.34104e-01,-2.57977e-01,-2.69599e-01,
2.27710e-01,-2.87719e-01,2.40907e-01,4.06976e-02,3.15191e-01,-2.90119e-02,-3.66679e-01,-2.84622e-01,2.52760e-01,5.60451e-02,2.66806e-03,-3.16679e-01,-3.58485e-01,-2.76078e-01,7.05766e-02,-3.15870e-02,-1.47362e-01,-3.05864e-01,-8.17991e-02,3.22091e-02,9.53452e-02,2.59995e-01,-3.79246e-02,-2.81648e-01,-2.38008e-01,
2.41123e-01,3.25852e-01,-2.19268e-02,1.54773e-01,-1.57668e-01,-3.22076e-01,2.37065e-01,2.11476e-01,2.13620e-01,-2.01890e-01,8.79265e-03,9.03512e-02,2.87940e-01,3.72634e-01,2.56018e-01,3.28855e-01,3.26342e-01,4.47378e-02,5.07189e-02,3.64973e-02,2.69415e-02,2.29353e-01,-4.40750e-02,-2.12774e-01,-1.68161e-01,
-2.13464e-01,1.98505e-02,7.98869e-02,-7.02830e-02,1.32939e-01,2.82869e-01,2.54741e-01,-1.79399e-01,2.48758e-01,-2.44427e-01,2.20638e-01,-3.63445e-01,1.28776e-01,4.27003e-01,2.72034e-01,-1.56852e-01,2.02138e-01,-5.19951e-02,-3.31428e-01,-1.57773e-01,9.26647e-02,2.20272e-01,-2.46616e-02,-3.64465e-02,1.53857e-01,
-1.68808e-01,-1.05514e-01,2.97489e-01,-2.66345e-01,-2.50382e-01,2.07165e-01,-3.48730e-01,-2.79036e-01,2.76128e-01,9.48467e-02,-1.88761e-01,1.83375e-01,2.97420e-03,1.26377e-01,2.71008e-02,-3.23083e-01,2.14658e-01,-3.15474e-01,-1.75943e-01,9.60420e-02,-1.72379e-01,-1.94851e-03,-2.87027e-01,8.90488e-02,-1.78672e-01,
-7.71128e-02,3.34537e-01,2.39019e-01,-3.37524e-01,1.19319e-01,-2.08593e-01,4.60414e-02,-1.35803e-02,1.91807e-01,3.42682e-01,1.69950e-01,-1.05671e-01,-1.09505e-01,-1.29831e-01,-3.15667e-01,-2.79331e-01,-1.76741e-01,-2.93681e-01,3.09824e-01,2.80702e-01,-2.59729e-01,-2.91602e-01,4.88046e-03,-2.06985e-01,2.35276e-01,
2.47983e-01,-3.26530e-01,-8.86963e-02,-3.29280e-01,-2.34563e-01,-2.36603e-01,-1.50420e-01,-5.97473e-03,-2.04385e-01,-1.40249e-01,1.64123e-01,-2.03976e-02,1.74489e-01,1.75191e-01,7.94866e-02,2.00469e-01,-8.13551e-02,1.49399e-01,4.61294e-02,-1.87274e-01,1.48765e-01,-3.19175e-01,-1.11334e-01,-5.46527e-02,5.35457e-01,
4.01237e-02,
1.62018e-01,
3.03427e-01,
1.50794e-01,
1.19844e-01,
-6.04815e-04,
8.89619e-02,
2.72482e-01,
-2.33029e-01,
2.14281e-02,
-3.12273e-02,
-1.02627e-02,
-1.31063e-01,
2.58035e-01,
-4.25428e-02,
1.22097e-01,
9.95275e-02,
1.35104e-01,
-8.10289e-02,
-6.19827e-02,
-3.86202e-02,
-4.59159e-02,
2.47310e-01,
-2.58569e-01,
1.21028e-01,
2.43474e-01,-3.35236e-01,-1.51465e-01,9.77076e-02,-3.04248e-01,3.36505e-01,-3.43118e-01,-1.29326e-01,-7.01150e-02,-8.73083e-02,-8.55297e-02,-2.77220e-01,2.48372e-01,3.42896e-02,1.26319e-01,1.60903e-02,2.26658e-01,1.76419e-01,8.86927e-02,2.87688e-01,-2.41362e-01,2.78042e-01,6.33889e-02,-2.70158e-01,-2.60274e-01,
3.68644e-01,-3.23934e-01,-2.43464e-01,3.25685e-01,-1.91172e-01,2.87961e-01,6.63056e-03,-7.69256e-02,-2.28881e-01,-2.95135e-01,1.98549e-01,-6.37874e-02,-2.40538e-01,3.54575e-01,8.91535e-02,1.55204e-01,-3.95238e-01,4.35343e-01,-1.92146e-01,-2.26191e-01,2.23068e-02,-4.33030e-01,2.12857e-01,-2.54799e-01,-4.03872e-01,
-1.10951e-03,-2.93463e-01,-1.89204e-01,3.30046e-01,8.26287e-03,5.08140e-02,-2.06729e-02,2.91143e-01,3.17541e-01,-6.72316e-02,9.58268e-02,-8.28732e-02,-1.65743e-01,1.98256e-01,-3.16773e-01,1.90619e-01,-2.69380e-01,-2.50771e-01,-2.50336e-02,1.05110e-01,-1.04450e-01,-4.11260e-02,-1.71171e-01,-3.01059e-01,1.25512e-01,
2.11248e-01,1.12306e-01,-3.21734e-01,-3.10492e-01,7.36478e-02,-2.75413e-02,-1.58285e-01,9.08015e-02,6.39891e-02,-2.27064e-01,-1.73568e-01,1.51817e-01,3.33669e-01,-1.05419e-01,-2.60059e-01,-4.63486e-02,2.44260e-01,-2.91438e-01,-2.33958e-01,2.56183e-01,1.69091e-01,1.57837e-01,-1.09288e-01,-2.85752e-01,-1.94936e-01,
1.88583e-01,-5.06659e-02,-1.89381e-01,5.68168e-02,1.95396e-01,-3.71281e-01,1.69268e-01,4.85485e-02,7.10515e-02,3.85822e-02,2.46354e-01,3.32956e-01,-2.67101e-01,2.36672e-01,1.80408e-01,-2.02467e-01,2.52023e-01,-3.03533e-02,3.85911e-01,1.18584e-01,1.63274e-01,-9.84350e-02,-2.85836e-01,3.45260e-01,2.59509e-02,
2.67403e-01,-3.13965e-01,-2.54781e-01,2.15176e-01,-2.94647e-02,5.63352e-02,-6.67501e-02,-3.14326e-01,-1.28893e-01,-2.20652e-01,-2.85135e-01,-2.76532e-01,2.21890e-01,-3.11705e-01,5.45782e-02,-3.05361e-02,-1.06663e-01,1.28945e-01,9.41738e-03,1.97406e-01,1.99265e-01,2.82031e-01,2.84548e-01,1.06543e-01,2.80075e-01,
-2.78195e-01,1.21823e-02,-3.77141e-01,-3.06039e-01,8.54513e-02,7.96436e-02,3.00903e-01,-2.08708e-01,-1.73845e-01,-3.46534e-01,-1.84747e-01,-1.46758e-01,-2.29353e-01,-6.78940e-02,9.07556e-02,2.62676e-02,1.99022e-01,-2.90172e-01,-9.61461e-02,1.32198e-01,-1.22820e-02,7.33733e-02,1.61333e-01,1.73615e-01,-3.47985e-01,
1.16254e-01,-2.82922e-01,-1.68817e-01,-1.51098e-01,-2.55998e-01,-4.04497e-02,1.22235e-01,5.78956e-02,4.97934e-02,-3.19806e-01,-2.67263e-02,3.16540e-01,6.01351e-02,2.74298e-01,2.47816e-02,1.89529e-01,1.25308e-01,-2.21167e-01,3.60174e-03,-1.00266e-01,-7.80844e-02,3.15579e-01,-2.54422e-01,3.19011e-01,2.46146e-01,
-5.20897e-02,-1.88958e-02,1.65029e-01,-1.72326e-01,1.72895e-01,5.70324e-03,-1.05182e-02,8.06387e-02,2.60192e-01,2.56693e-01,-1.78891e-01,1.77632e-02,-1.02320e-01,-1.63590e-01,-7.73594e-02,1.36981e-01,2.42961e-04,-1.55355e-02,-3.89141e-01,2.00151e-01,1.24239e-01,-1.06868e-01,3.58321e-01,2.41810e-01,-6.99996e-02,
-1.71665e-01,-1.01653e-01,2.05534e-01,6.03669e-01,4.09421e-01,8.44924e-02,-7.61242e-01,8.12981e-02,-1.21679e-01,-2.57821e-01,-6.54696e-02,-1.51082e-01,-2.51141e-01,3.40370e-01,-1.20087e+00,-1.62523e-01,3.17107e-01,3.94422e-01,-4.49111e-01,3.24761e-01,-2.72282e-01,3.78701e-01,-3.26919e-01,-2.74637e-01,-1.87295e-01,
-4.05675e-01,7.65237e-03,-2.02659e-01,2.43148e-01,4.95897e-02,-3.88801e-02,-1.84613e-01,-3.79015e-01,-3.22532e-01,-3.30079e-01,4.65152e-02,3.19604e-01,1.24754e-01,-4.16560e-01,3.06385e-01,-1.89044e-01,8.96186e-02,1.28933e-01,-1.19314e-01,-1.23521e-01,-3.09261e-01,-4.47902e-01,3.94981e-02,3.17138e-01,-1.84851e-01,
1.34709e-01,-2.67167e-01,-4.12757e-02,1.08793e-01,8.89097e-02,-1.58525e-01,7.19488e-02,2.08849e-01,-8.30611e-02,1.48142e-01,6.05233e-02,2.22110e-01,2.75012e-01,3.51127e-01,1.46890e-01,9.47571e-03,-4.09752e-02,1.94571e-01,-1.14879e-01,7.69968e-02,1.03179e-01,1.99806e-01,-1.46552e-03,2.63502e-01,-9.85421e-02,
-3.34257e-01,-3.23019e-01,-1.85967e-01,2.71892e-01,1.58247e-01,2.94793e-01,1.41604e-01,-1.12093e-02,3.25607e-02,2.08404e-01,-1.39665e-01,2.74268e-01,-9.01389e-02,3.88782e-02,4.21015e-01,1.49472e-01,-2.68067e-01,1.24543e-01,-1.80056e-01,1.89305e-01,-2.93196e-01,9.38653e-02,-3.58960e-01,2.53387e-01,2.13831e-01,
1.43039e-01,9.86857e-02,-2.04447e-01,-2.16074e-02,2.17482e-01,-3.39976e-03,1.86488e-01,1.35802e-02,2.50834e-01,-1.28635e-01,-1.39308e-01,-2.93876e-02,-1.23249e-01,-1.45401e-01,4.64736e-03,-1.43186e-01,1.71890e-01,-2.87449e-01,-1.26414e-01,-2.00627e-01,2.12907e-01,3.00455e-01,-4.30238e-02,9.67653e-02,-2.08713e-01,
-1.27564e-01,-1.97061e-01,2.00399e-01,-7.10955e-02,-1.48284e-02,-6.62240e-01,-7.86194e-01,2.73645e-01,-1.44497e-01,-1.37353e-01,-1.82088e-01,9.83336e-02,-1.68878e-01,-1.46071e-01,7.22360e-01,1.57394e-02,-3.28032e-01,7.16699e-02,3.17773e-01,-4.52630e-02,4.44700e-01,-3.00889e-01,-2.01757e-01,1.90251e-01,-1.13694e-01,
2.81588e-01,-1.76154e-01,-1.40028e-01,-1.35355e-01,8.95713e-02,-1.05478e-01,3.23845e-01,-2.56233e-01,2.68991e-01,3.51680e-02,7.84924e-02,1.26262e-01,3.22892e-01,-2.94731e-01,4.51583e-02,2.98558e-01,1.30273e-01,7.44030e-02,2.42549e-01,2.16060e-01,3.38914e-01,1.09372e-01,-5.46755e-02,-7.24380e-02,-2.69642e-01,
-2.92551e-01,1.66799e-01,2.75105e-01,5.50659e-02,1.54596e-01,-1.79747e-01,7.21070e-02,1.70113e-01,-1.24956e-01,3.88077e-01,-3.27059e-01,-4.19150e-02,-2.54945e-01,-2.55571e-01,5.48361e-02,1.43965e-01,-3.47949e-01,1.42141e-01,-1.89899e-01,-1.76799e-01,-2.09681e-02,2.90438e-01,7.09701e-02,8.11034e-02,-1.75790e-01,
2.98190e-01,-5.72824e-02,1.65347e-01,-3.71691e-01,1.15955e-01,-9.57202e-02,3.26919e-01,9.35843e-03,-8.08027e-02,-2.51147e-01,2.41232e-01,-2.16645e-01,2.82014e-01,3.05391e-01,2.58135e-01,-2.11923e-01,1.80502e-01,1.30057e-01,-4.02150e-01,-1.35964e-01,-6.18846e-02,3.00092e-01,1.34830e-01,2.05029e-01,-1.14743e-01,
-1.69721e-01,1.83548e-03,-1.61148e-01,3.09870e-01,-6.03299e-03,-2.59522e-01,1.59198e-01,2.38770e-01,1.76776e-01,-2.09334e-01,6.38511e-02,9.10064e-02,1.83740e-01,6.62920e-02,-3.30388e-01,-3.11990e-01,-3.59881e-01,-3.36179e-01,-3.49346e-01,2.95997e-01,1.00115e-01,-1.41306e-01,2.76050e-01,7.59447e-02,7.00746e-02,
-1.44510e-01,-1.64672e-01,-9.27060e-02,-3.50350e-01,1.87391e-01,4.31301e-02,-3.84538e-01,1.73841e-01,1.24106e-01,-4.15862e-01,2.03500e-01,1.49906e-01,-1.23612e-01,-3.05513e-01,-1.93280e-01,-1.87197e-01,-7.07508e-02,-7.20787e-02,-8.14226e-02,2.41093e-01,6.31698e-02,2.04619e-01,-1.63976e-01,1.02680e-01,-3.55066e-01,
2.12172e-01,2.72592e-01,8.17998e-02,-1.03846e-01,3.68136e-02,-1.38299e-01,-1.41366e-01,2.31193e-01,5.13377e-02,2.18619e-01,-4.75465e-03,-3.98782e-02,1.98828e-01,1.91966e-02,-1.39730e-01,-8.58072e-02,8.08265e-03,-9.81968e-02,-1.34920e-01,2.46984e-01,1.95029e-01,1.02342e-01,1.69508e-01,-2.01346e-01,-2.12666e-01,
-6.20418e-02,2.98774e-01,3.46138e-01,-1.20621e-02,7.25287e-02,-1.58718e-01,7.73507e-02,2.74796e-01,2.00296e-01,-1.97669e-01,8.60332e-02,-1.79507e-01,2.12778e-01,-9.27235e-02,8.53147e-02,-6.19873e-02,-5.68038e-02,-1.13646e-03,2.05683e-01,4.77151e-02,2.99178e-01,9.89908e-02,-1.95755e-01,-2.92265e-01,7.37025e-02,
2.42881e-01,2.16751e-01,-3.24452e-01,1.69505e-01,6.18940e-02,2.18319e-01,-2.03975e-01,-2.52602e-01,-3.26340e-01,6.96620e-02,-1.49396e-01,-9.86613e-02,2.05705e-01,1.32860e-01,8.74195e-02,-1.63785e-01,-3.42042e-01,-8.36087e-02,3.05632e-01,2.42731e-01,-2.30216e-01,-1.46774e-01,6.71039e-02,-1.71007e-01,1.47614e-01,
-3.33573e-01,-2.28733e-01,2.68150e-01,-2.12440e-01,-1.19465e-02,2.54963e-01,1.58590e-03,-2.34534e-01,-1.31730e-01,-9.28834e-02,-1.77361e-01,9.94356e-02,-2.87768e-01,-4.68375e-02,-2.20022e-01,2.89747e-01,2.37411e-01,-3.08807e-01,-1.34291e-01,5.74054e-02,1.94169e-01,1.98233e-01,-5.91382e-02,2.82210e-01,-1.68981e-01,
-7.20496e-02,1.43393e-01,-1.97467e-01,2.68121e-01,-1.72110e-01,-2.10948e-01,1.95359e-01,6.32939e-02,1.06357e-01,2.57477e-01,-1.12401e-01,5.48288e-03,2.26928e-01,1.08995e-01,2.04127e-01,2.66982e-01,-2.03083e-03,1.46890e-01,1.04794e-01,2.59109e-02,-2.01304e-01,1.06365e-01,2.37232e-01,1.27446e-01,-1.58051e-01,
-1.76254e-01,
9.55535e-02,
-2.17115e-01,
1.62823e-01,
2.02604e-01,
-2.80398e-01,
1.36028e-01,
-8.62356e-02,
-1.77814e-02,
-5.00420e-02,
2.08060e-01,
1.80692e-01,
2.05842e-01,
-1.24422e-01,
-5.09161e-02,
-3.34939e-01,
-7.97969e-02,
-2.10533e-01,
-9.45931e-02,
-1.15658e-01,
-5.36001e-04,
8.40789e-02,
-2.74402e-02,
-2.86341e-01,
5.51997e-02,
-2.23933e-01,-6.11479e-02,1.91743e-01,1.40487e-01,-1.40112e-01,4.07379e-01,3.22390e-01,3.39477e-01,-4.70771e-02,-1.74701e-02,-3.57952e-01,-1.58703e-03,1.92144e-01,3.18463e-01,2.85671e-01,-2.82075e-01,-8.75523e-02,3.42162e-01,-3.38464e-01,-1.63547e-01,3.40586e-01,-3.85187e-01,8.46266e-02,2.76399e-01,-3.77811e-02,
-1.49694e-01,2.17043e-03,-1.23912e-01,8.38523e-02,-2.50146e-01,3.14741e-01,-3.08176e-01,-3.01266e-01,-7.41761e-02,7.62605e-03,3.87643e-01,5.57014e-02,1.38191e-01,-7.29355e-03,-1.14606e-02,2.22161e-01,-2.57623e-01,-4.55589e-01,3.47108e-01,1.16445e-01,3.13241e-01,4.48970e-01,-4.29433e-01,-3.78572e-01,2.35070e-01,
-1.59037e-02,-1.89664e-02,9.88159e-02,-1.76554e-01,-1.80036e-02,-1.95797e-01,-9.49997e-02,-2.19961e-01,-1.65780e-01,1.22036e-01,5.62445e-02,-2.39008e-01,1.45618e-01,2.86028e-01,-7.90277e-03,9.78604e-03,-1.44964e-01,-2.69517e-02,-1.69238e-01,1.77272e-01,3.19368e-01,5.26233e-02,1.78088e-01,-3.60734e-01,1.35406e-01,
-6.75256e-02,-1.43321e-01,1.86740e-01,-2.99902e-01,-1.18891e-01,-1.60989e-01,-6.82456e-02,-1.58124e-01,-2.50183e-01,-2.16851e-02,4.00299e-01,3.06073e-01,-1.58500e-01,1.95443e-01,3.92626e-03,4.21136e-01,1.05082e-01,-5.08695e-02,-2.03240e-01,4.15569e-01,4.07388e-02,-3.54725e-01,-1.73525e-01,2.34557e-01,-1.48044e-01,
1.47677e-02,1.58715e-01,7.34432e-02,1.21971e-01,2.52758e-01,-9.36247e-02,-4.04084e-02,-6.07864e-02,-4.68895e-03,1.42313e-02,2.96293e-01,-3.43085e-01,9.54796e-04,-2.65862e-01,-4.35281e-03,-3.71316e-01,2.75481e-01,-2.93997e-01,1.29049e-01,8.05123e-01,-4.43628e-01,-4.00397e-01,-3.22823e-01,3.49795e-01,-2.63149e-01,
8.56286e-02,
-1.57619e-01,
2.22620e-02,
1.06268e-01,
2.39679e-01,
