// Neural Network File Format by Kyle Julian, Stanford 2016
6,5,5,25,
5,25,25,25,25,25,5,
0,
-56000.000000,-56000.000000,-3.141593,200.000000,200.000000
56000.000000,56000.000000,3.141593,200.000000,200.000000
-278.628049,0.000000,0.000000,200.000000,200.000000,-0.242819
112000.000000,112000.000000,6.283185,1.000000,1.000000,17.479225
-6.74835e-01,1.40643e+00,-7.29540e-01,-3.38881e-01,-4.20071e-01,
-1.17816e-01,-1.76531e-01,1.62059e-01,9.23762e-02,-2.85806e-01,
1.20074e-01,-1.20512e+00,6.80833e-01,2.02518e-01,3.73647e-01,
7.68675e-02,-1.88006e+00,-7.51567e-01,3.29448e-01,-3.14938e-01,
-1.57630e-01,-2.17365e+00,7.06715e-01,-2.63292e-01,-3.51602e-01,
1.54293e-01,1.35522e-01,-3.76606e-01,2.68203e-01,2.81812e-02,
1.00379e+00,7.88318e-02,7.28369e-01,-2.29501e-01,-2.09896e-01,
-2.12548e-01,3.12441e+00,6.07923e-01,-3.13709e-01,-2.02146e-01,
-3.65595e-01,2.59087e+00,8.24309e-01,1.39207e-01,3.62373e-01,
-1.53509e+00,1.40060e+00,-6.12058e-02,4.93433e-02,-3.39798e-02,
1.01761e+00,-3.07090e-01,2.20816e-01,1.19739e-01,3.52194e-01,
2.53925e-01,-1.20251e-01,-2.27554e-01,-2.63255e-01,3.89750e-01,
-3.74357e-01,4.71608e-01,3.64824e-02,-1.89665e-01,-1.71814e-01,
-6.06498e-02,-1.32895e+00,6.45612e-02,1.06000e-01,1.03212e-01,
1.09492e+00,1.75857e+00,-5.41049e-02,-3.59179e-01,-2.87130e-01,
-1.32299e+00,-5.96690e-01,6.79448e-01,3.94180e-01,1.23545e-01,
-2.77987e+00,-8.76227e-01,4.66873e-01,-2.26961e-01,-1.44191e-01,
-1.52044e+00,-1.47446e+00,1.20108e-01,2.09414e-01,-3.55741e-03,
4.51542e-01,-1.81807e+00,-4.65290e-01,-2.56516e-01,2.95389e-02,
-2.25458e-01,7.11480e-01,-3.49489e-01,1.48049e-01,2.54734e-01,
-1.07269e-01,2.82355e-01,2.98975e-02,-4.21285e-01,1.40529e-01,
3.75631e-02,-1.48908e+00,-2.48696e-01,2.17467e-01,-1.04937e-01,
-2.59076e-01,2.84199e-02,8.81311e-02,-2.26736e-01,-2.36033e-02,
1.58260e-01,1.83972e+00,2.70088e-01,-3.89494e-01,-3.80897e-01,
1.42414e-01,1.85559e-01,-3.10034e-01,2.73153e-01,-9.10491e-02,
-3.76208e-02,
1.37342e-01,
-5.72604e-02,
3.81278e-02,
-2.76240e-01,
-2.76104e-01,
8.22989e-02,
2.70303e-02,
4.57461e-02,
6.85744e-02,
9.58597e-02,
-2.53689e-01,
7.55796e-02,
1.00126e-01,
5.52719e-02,
-1.25976e-01,
1.20500e-01,
1.63517e-01,
-2.31259e-01,
1.79819e-01,
-3.16484e-02,
-2.81684e-03,
7.85540e-02,
-1.72107e-01,
1.57296e-01,
1.70672e-01,1.08968e-01,2.69740e-01,-4.53192e-01,-3.56521e-01,-1.39234e-01,5.41757e-02,-2.81706e-01,3.95108e-01,1.55679e-01,4.18145e-02,4.44431e-03,1.16062e-01,-2.04682e-01,8.02037e-02,-1.09245e-01,1.98581e-03,-2.52062e-02,1.57903e-01,1.56064e-01,1.86863e-01,4.60489e-01,5.65965e-02,2.40901e-01,2.81351e-01,
2.59241e-01,-6.66817e-02,3.94747e-01,-3.99847e-01,-1.90533e-01,7.46708e-02,-4.48115e-01,-6.13174e-02,1.15339e-01,-5.22173e-01,-1.24998e-01,2.56779e-01,5.59515e-02,-1.85655e-01,2.16222e-01,-3.57043e-01,6.69535e-02,1.05815e-01,-4.82639e-02,-3.52450e-02,-1.48053e-01,6.18924e-01,4.89922e-02,3.42282e-02,-3.51938e-02,
-4.98166e-02,-1.98867e-01,1.67434e-01,2.56229e-03,4.67863e-01,-3.88216e-01,5.04047e-02,-4.27175e-02,3.95151e-02,2.47453e-01,1.32541e-01,-7.27815e-02,-2.13184e-01,4.06667e-02,5.37886e-02,5.07995e-02,-5.18687e-02,-1.13640e-01,-1.70735e-01,2.03747e-01,2.28090e-01,-2.25496e-01,-2.18863e-01,-1.76993e-02,7.66804e-02,
4.78195e-01,-3.63492e-01,-2.46476e-01,9.50708e-02,-8.47373e-03,-6.52708e-02,1.76121e-01,1.76485e-01,3.87335e-01,8.64407e-01,1.38117e-01,2.78588e-01,-3.94116e-01,7.92208e-02,-2.59756e-01,3.93379e-01,1.79954e-01,-7.39869e-02,1.99284e-01,-3.46388e-01,5.61461e-01,2.12694e-01,-3.83736e-01,-4.08549e-01,1.26776e-02,
-2.57347e-01,8.14320e-02,3.35429e-02,3.40145e-01,8.66633e-01,1.49741e-01,-4.09200e-03,1.56986e-03,-1.78435e-01,-7.29311e-02,2.73657e-01,1.94422e-01,-7.51302e-02,-1.31223e-01,2.29752e-01,2.17326e-01,-1.77078e-01,-7.47794e-02,7.58603e-02,1.81865e-01,-2.13065e-01,3.01772e-01,2.32689e-01,2.22709e-01,1.73964e-01,
6.37076e-01,3.07004e-01,4.95642e-01,3.01702e-01,-8.22907e-01,-3.23016e-01,3.75769e-01,1.20841e-01,2.12481e-01,1.55701e-01,2.10208e-01,1.70169e-01,2.36817e-01,-1.69071e-01,6.96804e-03,-2.90256e-01,-7.39534e-02,-1.37283e-01,-1.51106e-01,-3.62951e-01,-3.75757e-02,3.40657e-01,4.43867e-02,7.76785e-01,-8.72975e-02,
-1.97215e-01,1.08068e-01,1.85716e-01,-3.86693e-01,5.11854e-01,1.27152e-01,-2.43985e-01,9.90610e-02,4.77773e-01,4.22978e-01,-1.24056e-01,9.25948e-02,-1.07185e-02,-8.66516e-02,2.14455e-01,2.09518e-01,1.14349e-01,1.65095e-01,6.10102e-01,-1.69948e-01,1.08799e-01,-3.88532e-01,4.08475e-02,-6.15754e-01,-4.50564e-02,
4.64073e-01,1.88088e-01,2.67917e-01,-1.71736e-01,-2.00655e-01,2.86141e-01,1.26891e-01,8.50054e-02,-2.87263e-01,2.25109e-01,3.10157e-01,2.92332e-01,2.55143e-01,-3.01255e-01,2.12714e-01,-2.72540e-01,-2.96307e-01,-2.74565e-01,-2.95928e-01,-2.99150e-01,-1.61155e-01,3.37399e-02,2.03581e-01,-2.98969e-01,-2.38223e-01,
1.00674e-01,-1.50192e-01,-1.79033e-01,-2.72125e-01,-7.45174e-01,-1.60214e-01,-1.36877e-01,-5.33181e-02,3.89102e-01,4.99885e-01,-3.60105e-01,9.47263e-02,-2.60977e-01,-1.29303e-01,-1.02012e-01,2.19822e-01,1.55674e-01,-2.44295e-02,-4.87756e-01,-7.38616e-03,5.83399e-01,2.88201e-01,2.72957e-02,-4.21644e-01,9.92098e-02,
4.70065e-01,1.49702e-02,3.29549e-01,1.38751e-01,-4.27414e-03,5.73529e-01,-2.56621e-01,-5.98599e-01,3.99447e-01,-3.11315e-01,-3.39207e-02,2.08034e-01,-2.67958e-01,-6.91291e-01,3.72159e-01,-5.74711e-01,-4.94125e-01,-4.06474e-02,-1.84571e-01,9.19675e-02,-7.84542e-02,4.49438e-01,-4.00966e-01,-1.57859e-01,1.25090e-01,
-6.20492e-01,1.08911e-01,-5.81971e-01,-1.52293e-02,2.32827e-01,-3.04384e-01,3.14793e-01,4.58084e-01,2.14702e-02,-5.89811e-01,6.16515e-02,1.64935e-01,7.47207e-02,-2.23506e-01,2.87872e-01,9.11348e-02,-5.14407e-01,-4.22148e-01,3.19619e-02,1.91508e-01,1.66748e-01,-9.93373e-03,-1.26689e-01,-3.77354e-01,-1.96139e-01,
-1.52195e-01,1.56108e-01,2.84098e-01,4.34421e-01,-1.75279e-01,-8.22435e-02,-3.42406e-02,-1.11804e+00,-8.46957e-01,-7.29833e-03,-3.60767e-01,2.71049e-01,-1.75608e-01,1.32854e-01,-6.34082e-01,-7.13947e-02,6.57815e-02,3.31343e-01,3.76641e-02,-3.34534e-02,-2.42365e-01,-1.21947e+00,3.32060e-02,-3.31941e-01,-1.67918e-01,
-4.42599e-01,3.29523e-01,-4.43570e-01,1.75018e-01,5.86854e-01,-1.18443e-01,-3.29369e-02,-2.20860e-01,-2.89705e-01,-5.01858e-01,3.29392e-01,-2.31107e-01,-3.16586e-01,3.08212e-01,-8.02966e-02,8.23873e-01,-8.11602e-01,1.08555e-01,-6.62915e-01,-6.25217e-02,1.75645e-01,6.07420e-01,-1.91405e-01,1.13787e-02,-1.22452e-01,
-2.55045e-01,6.74717e-02,2.04624e-01,-1.27355e-01,-1.30435e+00,1.89871e-02,-2.79037e-01,-9.12200e-02,-1.09219e-01,-2.49136e-02,-4.06673e-01,1.46953e-02,-3.91518e-01,-2.73339e-01,-1.62987e-01,-6.84207e-01,-4.03969e-01,-5.42497e-01,-3.87199e-01,1.57345e-01,1.85921e-01,7.89431e-01,6.33172e-02,4.26277e-01,2.33806e-01,
-3.75484e-01,-3.50273e-01,6.43630e-01,1.47434e-02,8.15836e-01,1.80943e-01,-3.28321e-01,-3.80116e-01,-3.94295e-01,-3.43077e-01,2.69978e-01,1.59779e-01,-1.24110e-01,8.01551e-02,3.01952e-02,1.19558e-01,3.21388e-02,-3.52249e-01,5.62012e-01,2.27917e-02,3.33941e-01,-9.33315e-01,-7.64969e-02,4.46993e-01,-9.28423e-02,
-4.68115e-02,-3.34087e-01,-5.72624e-02,3.88387e-01,1.49461e-01,1.47542e-01,-2.85911e-01,4.83436e-01,-5.56625e-01,1.64285e-01,2.07308e-01,3.60409e-02,1.37657e-01,1.22470e-01,-1.54570e-01,-1.50771e-01,6.47826e-02,2.03299e-01,8.02360e-02,-1.80160e-01,3.76390e-01,-9.07970e-01,3.22456e-01,2.76213e-01,3.44340e-01,
-5.11810e-01,-2.50146e-01,-4.73548e-01,-3.87911e-01,-7.03137e-01,2.95199e-01,-5.12859e-01,-1.13151e-01,-4.51439e-01,-2.93471e-01,-1.66676e-01,4.38405e-02,2.55884e-01,1.15905e-01,-2.77199e-03,1.63965e-01,-1.51694e-01,-5.98187e-01,1.94078e-01,-4.62585e-02,-2.05226e-02,1.44197e-01,4.74513e-03,7.01352e-02,-1.94408e-01,
-2.18483e-01,-2.53177e-01,-2.76246e-02,-1.49377e-01,3.07523e-01,8.62647e-02,-3.26215e-01,1.00578e-01,-1.44784e-01,2.42025e-01,-3.28709e-01,3.25120e-01,2.17230e-01,2.11854e-01,-1.43112e-01,4.38352e-01,1.58942e-01,2.05212e-01,-1.91953e-02,1.45333e-01,9.73290e-02,3.11596e-01,-1.94007e-01,3.07824e-02,1.79262e-01,
8.68739e-03,-1.09565e-01,-5.63702e-02,1.17700e-01,-1.19312e-01,-1.86145e-01,-1.17511e-01,-8.48524e-02,-6.41941e-02,3.52164e-02,-2.70890e-01,1.97954e-01,2.27082e-01,9.76086e-02,1.67796e-01,-1.97510e-02,2.83538e-01,-1.66573e-01,-8.33815e-02,-6.56014e-02,-1.61827e-01,-5.44131e-02,1.66950e-01,-5.07848e-01,-2.94887e-01,
8.17245e-02,-1.09355e-01,-2.66100e-01,9.74630e-02,-8.60503e-01,2.93022e-01,-1.04095e-01,-1.17029e+00,-8.70220e-01,-4.60666e-01,-3.47282e-01,-2.20837e-01,-2.27360e-01,2.45080e-01,1.39942e-01,-7.41738e-02,1.72814e-01,-4.42268e-01,6.71232e-02,3.25085e-02,2.46952e-01,-3.86393e-01,8.83693e-02,-5.34968e-01,-1.14277e-02,
-8.05156e-02,-3.95905e-02,-5.33170e-01,-1.75395e-01,-4.00560e-01,1.22420e-01,2.84332e-01,-1.35595e-01,1.12137e-01,8.42106e-03,3.58351e-02,1.57118e-01,2.81278e-01,-4.59828e-02,-9.49302e-01,1.85177e-01,2.43040e-01,4.58960e-02,3.74229e-01,2.68445e-01,1.75601e-01,3.74833e-03,2.08102e-01,-1.59337e-01,7.54148e-02,
3.42772e-01,2.79521e-01,7.13243e-01,3.45309e-01,-5.56689e-01,-4.35407e-02,-3.08855e-01,-1.81718e-01,3.03447e-01,1.03381e+00,-3.05074e-01,-1.61884e-01,2.22542e-01,-4.58883e-02,-1.70997e-01,1.83442e-01,6.14660e-01,3.40720e-01,-7.12168e-02,2.39537e-01,1.94806e-01,-1.44131e-01,1.39269e-01,3.72380e-01,-1.65688e-01,
-1.07934e-01,9.72852e-02,1.84936e-02,7.25858e-01,5.23116e-01,3.63653e-01,2.27270e-01,2.46747e-01,5.07070e-02,-2.86592e-01,-2.16907e-01,-1.29586e-01,1.23843e-01,2.37812e-01,-7.71446e-02,6.77922e-01,1.89537e-01,-2.24652e-01,-4.20027e-01,9.10094e-02,1.70776e-01,-7.21823e-04,1.81346e-01,2.37864e-01,1.09296e-01,
4.28831e-01,4.75452e-02,-2.13102e-01,9.17826e-02,-3.23145e-01,-1.09093e-03,-2.01421e-01,-1.22304e+00,-8.20995e-01,2.20983e-01,-6.48770e-02,-1.87116e-01,2.84882e-01,3.36230e-01,-4.89331e-02,-2.78042e-01,-2.57398e-01,2.22993e-01,-8.75030e-03,4.40362e-01,2.80421e-01,-5.73512e-01,-2.15874e-01,5.11764e-02,2.15220e-01,
4.24370e-01,-1.04906e-01,-5.23561e-01,-6.84908e-01,-8.47272e-01,-1.81692e-01,5.24935e-01,4.92179e-01,4.44826e-01,3.69297e-01,-3.82183e-01,3.37155e-01,1.62318e-01,-3.17785e-01,1.82568e-01,-4.40016e-01,-3.82098e-01,2.75772e-01,1.53876e-02,2.25713e-01,-1.35572e-01,4.32118e-01,-1.95728e-02,-4.78661e-01,3.89058e-01,
3.03760e-01,
1.88480e-01,
-2.28618e-01,
-9.69603e-02,
4.23570e-02,
-2.46113e-01,
1.96327e-01,
1.31253e-01,
-9.25899e-02,
-1.40547e-01,
1.10898e-01,
7.47364e-02,
8.47636e-02,
-1.41425e-01,
3.22636e-01,
1.13978e-01,
2.13226e-01,
-1.40242e-01,
2.72524e-01,
-1.77632e-01,
-9.75905e-02,
-2.45681e-01,
1.06062e-01,
5.35970e-02,
-1.45297e-01,
-3.84656e-01,8.17996e-02,-1.30883e-01,-5.37456e-02,-3.74431e-01,2.08252e-02,-2.05136e-01,-1.02460e-01,-1.31748e-01,6.19677e-01,2.08417e-02,6.20292e-01,-3.29885e-01,3.16890e-01,1.30132e-01,3.64653e-01,4.59980e-01,6.11251e-02,-7.76865e-02,-3.06150e-02,-4.67257e-02,-2.01339e-01,1.25243e-01,7.94034e-02,-1.06482e+00,
-2.02448e-01,1.38291e-01,1.83490e-01,2.89981e-01,1.79735e-01,-3.74193e-01,-2.00310e-01,3.11422e-01,-3.60582e-02,3.02683e-01,-2.01368e-01,2.38225e-02,-7.62557e-01,-1.88311e-01,3.74661e-01,-1.71906e-01,-1.90034e-01,-3.00029e-01,-1.03344e-01,1.81599e-01,3.96524e-02,1.85978e-01,1.10986e-03,-7.12066e-02,-2.69678e-01,
2.23833e-01,-9.42958e-02,8.14491e-02,1.76018e-01,1.65443e-01,1.28578e-01,2.46131e-02,-2.12372e-01,-3.83509e-01,-6.41028e-02,-3.43195e-01,-1.59685e-01,-6.56804e-01,-8.08367e-02,1.78948e-01,-1.23955e-02,-2.78687e-02,5.88036e-02,-1.48921e-02,3.55193e-02,3.68679e-02,-2.07841e-01,-2.89657e-01,8.12469e-02,-2.19412e-01,
-2.66708e-01,-8.16269e-02,9.24133e-02,-8.45520e-02,1.60656e-01,-2.69291e-01,-1.71941e-01,-3.45719e-01,-1.32277e-02,-1.41354e-01,3.16572e-01,6.36132e-02,5.64102e-01,-1.38018e-01,7.69315e-02,2.14732e-01,1.80756e-02,-2.81950e-01,3.31644e-01,1.34197e-01,-4.09616e-02,3.19170e-01,-3.56953e-02,2.08226e-01,1.69891e-01,
2.99892e-02,-2.33967e-01,1.86857e-01,-3.49119e-01,-1.57681e-02,-3.16331e-01,-1.61328e-01,-2.62825e-02,4.52177e-03,-5.79663e-01,-6.87891e-01,7.42006e-01,2.82925e-01,-5.35674e-02,-1.55556e-01,4.59282e-01,5.57334e-02,-2.61940e-01,5.05633e-02,-2.60202e-01,3.44757e-01,3.43840e-01,7.17208e-02,5.00722e-01,3.82020e-01,
-9.59591e-02,-3.70855e-02,1.20111e-01,-2.09255e-01,-5.00662e-02,-3.35703e-01,-2.54928e-01,1.02018e-01,1.26814e-01,3.70927e-01,2.87539e-01,-4.05262e-01,6.59723e-01,4.02222e-01,-4.82473e-01,-6.55749e-02,-1.32837e-01,3.36141e-01,-1.59396e-01,-4.29306e-02,-5.07112e-01,7.50464e-01,1.50969e-01,-2.07964e-01,-1.58511e-02,
3.06747e-02,-9.09306e-02,-7.21664e-02,-1.37063e-01,1.71221e-01,-2.28181e-02,1.95825e-01,-9.06817e-03,8.69064e-02,-1.93191e-01,4.59902e-01,-1.95181e-01,6.28489e-02,4.11049e-01,1.83723e-01,-2.28738e-01,-1.28080e-01,-2.30177e-01,1.42099e-01,3.59299e-01,-1.37004e-01,2.83808e-01,1.52989e-01,-4.51222e-01,2.07469e-01,
2.05462e-01,2.43498e-01,-3.61805e-01,2.81831e-01,1.94579e-02,1.44497e-02,2.16508e-01,1.52239e-01,-3.80940e-01,3.51497e-01,-4.14231e-01,1.11562e-01,-2.96193e-02,-1.65537e-01,1.85403e-02,-1.41430e-01,-2.77973e-01,3.42295e-01,9.63388e-02,-3.61862e-03,1.50553e-02,-3.49502e-01,-2.10395e-01,7.90759e-02,1.34029e-01,
2.33263e-01,-1.04999e-01,1.18834e-01,-1.55567e-01,2.36388e-01,4.11893e-02,-2.08831e-01,1.69358e-01,-6.60637e-02,-7.35816e-02,-1.55724e+00,3.49654e-01,-1.52792e+00,-6.77867e-02,3.34349e-01,2.55180e-01,1.07891e-01,-8.74384e-02,1.13518e-01,3.14601e-01,2.01017e-01,-1.79648e+00,-2.28475e-01,4.34170e-01,-1.11937e+00,
-8.66142e-03,-2.17054e-01,2.13715e-01,-5.75990e-01,-4.58993e-01,-5.74323e-01,3.62534e-01,-4.87044e-01,-2.50998e-01,-3.46378e-02,-2.14265e-01,-4.10491e-01,-6.64151e-02,-4.17304e-01,3.23391e-01,-2.44212e-01,3.91873e-02,-3.66673e-02,2.01238e-01,-3.57480e-01,1.90946e-01,3.06888e-01,7.73786e-02,-3.64939e-01,6.98858e-01,
-4.54952e-01,-1.38169e-01,4.25314e-01,1.44060e-01,1.79383e-01,-3.38478e-01,2.18013e-01,-5.58079e-03,-1.36143e-01,1.82991e-01,3.38170e-01,5.63382e-01,3.37515e-01,-3.26128e-01,-1.71132e-01,-2.84583e-01,-2.12246e-02,-1.37928e-01,-4.39485e-02,-2.45802e-01,1.28988e-01,1.74432e-01,-2.32406e-01,2.89810e-01,2.95759e-01,
-3.35196e-01,3.19369e-03,2.57301e-01,-3.44241e-01,-3.03486e-02,-6.41332e-02,-2.73733e-01,-1.11304e-01,-1.09736e-01,-6.65993e-01,6.15875e-01,1.55254e+00,-3.46461e-01,3.40054e-01,2.92273e-01,3.24449e-01,8.44476e-01,1.23638e-01,1.71982e-01,5.06233e-01,6.04126e-01,-7.06148e-01,5.15946e-02,4.53344e-01,-9.40658e-01,
-1.85354e-01,9.26390e-02,2.04311e-01,-3.97217e-01,1.91042e-01,-6.00489e-02,-2.91618e-01,-3.89875e-01,1.47808e-01,1.70075e-01,5.06106e-01,2.03670e-01,1.86244e-02,2.26596e-01,4.91744e-03,-3.76582e-01,-3.41679e-01,3.41152e-01,6.35772e-02,-2.46367e-02,1.98173e-01,9.14424e-02,9.41538e-02,6.97475e-02,1.01712e-01,
-2.79368e-03,6.17756e-02,-1.98485e-01,2.46356e-01,-9.14785e-02,-1.76683e-01,-3.13826e-01,-4.77152e-01,4.25149e-02,-2.22836e-01,6.84191e-01,-4.16938e-02,1.12891e-01,-2.79224e-01,-1.32610e-01,-1.91163e-02,-2.82741e-01,-9.77486e-02,-2.47043e-01,-1.51787e-02,2.24153e-01,3.16021e-01,-1.55586e-02,-1.54135e-03,-2.84239e-01,
-2.14345e-02,2.11715e-01,-3.14255e-01,-4.02892e-01,-2.85242e-01,-4.36421e-01,-2.85963e-01,1.95441e-01,-1.94094e-02,4.98808e-01,5.57323e-01,-3.25956e-01,-3.57619e-02,3.96994e-01,-1.59940e-01,-9.66221e-02,1.71084e-01,2.25748e-01,-8.08922e-02,-9.86168e-02,-1.45002e-01,1.48418e-01,-1.70295e-02,1.29838e-01,-2.98064e-01,
2.49299e-01,2.55193e-01,-1.82774e-01,3.24040e-02,-1.58005e-01,4.22898e-01,1.25503e-01,-1.78770e-01,2.87232e-01,-3.68631e-01,-3.91094e-01,-9.88756e-01,2.68583e-02,1.10345e-01,-7.25146e-02,-1.39713e-01,3.34581e-01,-6.28102e-02,1.17544e-01,3.14156e-01,-3.30672e-01,-4.06027e-01,-3.02601e-01,8.83100e-02,-4.10410e-01,
-2.79765e-01,2.78179e-01,-4.72104e-02,-3.29770e-01,8.85443e-02,3.65305e-01,-2.81895e-01,-1.38420e-01,2.89694e-01,-5.60825e-01,2.48038e-01,-1.45461e-01,-8.24369e-02,-6.12313e-03,-2.88921e-02,1.42539e-01,-7.80279e-02,3.52388e-01,-5.27052e-02,5.96771e-02,1.65508e-01,6.48222e-02,-1.31181e-01,-1.92616e-01,-2.88067e-01,
3.56498e-03,-1.43632e-02,1.82562e-02,-2.53175e-01,-1.87480e-01,3.87324e-03,-2.90657e-01,4.28418e-02,2.06397e-01,-2.14485e-04,3.57004e-02,5.32146e-01,2.25888e-01,-1.83760e-01,-2.90246e-01,2.15766e-03,-4.59040e-01,-2.69239e-01,2.51679e-01,-8.03411e-02,2.83542e-01,-5.12356e-02,2.95594e-01,1.14387e-01,1.51745e-01,
2.20569e-01,-2.32527e-01,-7.77635e-02,-5.32412e-01,-1.05739e-01,-1.28844e-01,-1.87035e-01,-6.40819e-02,-9.90419e-01,5.81706e-01,-7.24165e-02,-6.11764e-01,1.07284e+00,-4.38593e-01,-2.48026e-01,-1.20928e-01,-1.19186e-01,2.73648e-01,2.15285e-01,5.71656e-01,2.43224e-01,5.63363e-01,-4.48793e-01,3.53526e-01,7.37385e-01,
2.48921e-01,-1.42920e-01,9.84753e-02,3.61553e-02,1.56322e-02,-1.72079e-01,8.62995e-02,2.61785e-01,-3.99394e-01,-2.33889e-02,1.30992e-02,3.34930e-01,-7.08517e-01,-1.10161e-01,3.08628e-01,-2.72367e-01,6.35903e-03,4.63890e-02,-1.02163e-01,2.78496e-01,3.68904e-01,-9.99506e-02,2.32169e-01,1.02682e-01,2.29164e-01,
2.29765e-01,-1.94088e-01,-7.87855e-02,-1.83075e-01,3.32740e-01,-2.59374e-01,2.23923e-01,1.47569e-01,-1.39537e-01,1.12917e-01,7.81718e-02,-3.81612e-02,-7.08787e-02,-3.28935e-01,2.70799e-01,2.90644e-01,-2.56047e-01,1.10569e-01,2.04912e-01,-1.17421e-01,-3.28535e-02,-1.38440e-02,5.90436e-02,3.64872e-02,3.76594e-01,
1.87445e-01,2.03936e-01,-2.18373e-01,2.62792e-02,2.84487e-01,9.62561e-02,1.60434e-01,-1.08223e-02,3.28552e-03,-3.50569e-01,-1.46551e-03,4.34199e-01,2.84888e-01,3.67163e-01,-3.23410e-01,6.51084e-02,2.05033e-01,-3.48809e-02,-4.44085e-01,-1.65524e-01,-2.71516e-01,-4.64969e-02,2.00917e-01,-9.33934e-03,-2.65456e-01,
-2.70476e-01,-1.70599e-01,3.45561e-01,1.99002e-01,1.75822e-01,-6.40124e-02,3.00174e-01,-6.56423e-02,-2.28830e-01,-1.99442e-01,2.28778e-01,3.52760e-01,-3.13728e-01,2.29379e-01,2.76361e-01,2.22532e-01,-4.10620e-01,1.33615e-01,-1.23992e-01,-1.92308e-01,2.26666e-01,7.31189e-02,1.36274e-01,1.15944e-01,3.07581e-01,
1.52735e-01,5.94061e-02,2.41138e-01,-1.94061e-01,-2.45678e-01,3.38865e-01,1.19549e-01,1.04793e-01,2.35588e-01,2.42707e-01,-5.65837e-01,-9.68147e-01,-9.91385e-03,3.30937e-01,-7.05389e-02,4.09022e-01,1.20403e-01,2.99462e-01,3.43338e-01,-9.79197e-02,-2.81376e-01,-2.86481e-01,-3.09017e-01,-8.07835e-02,-4.06914e-02,
7.72932e-03,-2.34662e-01,1.78886e-01,-1.83038e-01,3.32200e-02,-2.18721e-01,3.10737e-01,2.37907e-01,-9.60308e-02,3.38484e-01,2.66480e-01,3.07370e-01,3.98231e-01,-1.62891e-01,-3.51264e-01,-3.46095e-01,-1.37341e-01,-6.01581e-02,-7.62003e-02,1.89372e-02,-3.38794e-02,3.69415e-01,-2.55435e-01,8.98839e-04,8.98408e-02,
8.09931e-02,
-3.91429e-02,
2.89686e-01,
2.26843e-01,
-1.67502e-01,
1.14562e-01,
3.03151e-01,
-6.68527e-02,
-5.87900e-02,
-3.14082e-02,
-6.73425e-02,
6.65715e-03,
-4.51527e-02,
-6.34389e-03,
1.50753e-01,
2.32623e-01,
8.84859e-02,
2.21503e-01,
-2.85206e-01,
6.50629e-02,
-2.82201e-01,
2.87239e-01,
6.41872e-02,
3.33104e-01,
1.27812e-01,
-6.01571e-01,9.29975e-04,1.73508e-01,-9.99830e-02,-1.56896e-01,-7.93697e-01,1.48554e-02,2.38738e-01,-4.61956e-01,-3.85952e-01,-2.38606e-01,-2.08489e-01,4.19458e-02,2.84970e-01,5.05444e-01,-4.50751e-01,2.11991e-01,-1.65960e-02,7.53695e-02,7.13819e-02,3.01397e-01,1.47928e-02,-1.93636e-01,5.67825e-02,-1.35276e-01,
3.60162e-02,2.18358e-01,2.80511e-01,1.54414e-01,-3.61602e-01,-1.32159e-02,-5.03622e-02,2.07857e-02,-4.69452e-02,-9.53602e-01,-2.02726e-02,1.54675e-01,5.37154e-02,-3.98980e-01,-1.74438e-01,-1.67473e-01,5.24960e-01,2.62637e-01,-4.45841e-01,-6.38677e-03,-1.35949e-03,-2.45848e-01,1.86659e-01,2.97768e-01,-1.73228e-01,
-1.91138e-01,-2.04283e-01,8.62104e-02,-1.18740e-01,-3.58658e-01,-1.09860e-01,-1.51815e-01,-1.74352e-01,3.16737e-01,5.33520e-02,9.18548e-02,4.99397e-02,2.46377e-01,3.14815e-01,-2.53223e-01,-2.17606e-02,2.09864e-01,-3.56346e-01,-2.54241e-01,-3.21721e-01,-1.17747e-02,-2.26632e-01,-1.65254e-01,-1.35529e-01,-1.76984e-01,
-1.40722e-01,-2.66361e-01,-3.04958e-01,-3.11162e-01,1.85578e-01,-4.59262e-01,-2.31995e-01,4.88378e-01,-2.09987e-01,3.63258e-01,2.73731e-01,-7.06816e-02,9.20636e-03,-1.09908e-01,5.15989e-01,-2.14969e-01,-4.82621e-01,1.55220e-01,-7.03400e-01,-5.41518e-01,-1.28698e-01,9.24728e-03,-3.66576e-01,-2.23219e-02,3.36946e-01,
-1.86927e-01,3.03042e-01,8.40815e-02,-1.75616e-01,-4.05395e-01,9.43572e-02,-2.74592e-01,2.32244e-02,8.97182e-02,-4.90287e-01,2.70753e-01,-1.58280e-01,-2.44403e-02,1.87943e-01,-5.91839e-02,1.11152e-01,7.38066e-02,-1.26562e-01,-7.01942e-01,-8.53134e-02,1.23825e-01,2.29968e-01,2.20587e-03,3.54829e-01,7.20371e-02,
-7.30165e-01,-2.22194e-01,-2.96013e-01,-1.13554e-01,2.62381e-01,-9.95410e-01,9.14601e-02,5.14795e-01,-1.92936e-01,2.89162e-03,-1.18950e-01,1.68406e-01,2.18359e-01,-4.80939e-01,1.79284e-01,2.32624e-01,-2.91328e-01,-2.21017e-02,-4.72299e-01,-4.01319e-01,-2.45467e-01,-1.92484e-01,-4.56399e-01,1.36532e-01,2.41712e-01,
1.67876e-02,2.99452e-01,2.12539e-01,7.65540e-02,-2.89558e-01,-4.60916e-01,3.10171e-02,-3.44981e-01,-1.16852e+00,-3.33214e-01,1.97277e-01,-4.95638e-01,-1.79114e-01,1.13738e-01,-1.15841e-01,1.92681e-01,9.31064e-02,-2.35703e-01,1.96495e-01,-5.09123e-02,-3.21191e-01,1.91744e-01,-2.64672e-01,7.68995e-02,-1.12840e-01,
-3.73888e-02,1.60245e-01,2.01091e-01,-1.68825e-01,-5.11337e-01,3.30680e-01,-3.49148e-01,3.17906e-01,-2.49832e-01,-1.36201e-01,3.81479e-01,1.71941e-01,-8.58053e-02,1.01045e-01,-5.09274e-01,-4.03050e-01,1.03865e-01,-2.36333e-01,-9.12984e-02,-3.35609e-01,-1.65225e-01,2.56768e-01,-9.27052e-02,1.71467e-01,1.29510e-01,
-6.63702e-01,-6.33014e-02,2.87201e-01,2.25882e-02,-4.13512e-01,4.48492e-01,1.17246e-01,1.76521e-01,9.07682e-01,1.98490e-01,1.92545e-01,6.70969e-01,1.32875e-01,-4.41240e-01,-5.71825e-01,-1.21418e-02,8.59108e-02,-8.77657e-02,-7.28526e-02,4.48714e-01,-2.23740e-01,-1.78097e-01,-1.06851e-01,-2.02795e-01,-1.47853e-01,
3.70375e-01,1.05379e-01,-5.54966e-02,-2.97393e-02,1.16090e-01,-6.59926e-01,1.41515e-01,-4.16030e-01,-1.28329e-01,1.56874e-01,-3.83523e-01,-2.15316e-01,1.24999e-01,3.28774e-01,6.28779e-01,-1.15707e-01,-2.10420e-01,4.95247e-02,-2.81974e-01,-7.96741e-03,-2.30851e-01,-1.61840e-02,3.30004e-01,-2.56980e-01,6.50045e-03,
-6.13236e-02,-2.06417e-01,-1.94883e-01,-4.79105e-02,3.07607e-01,1.73423e-02,8.35774e-04,-1.31855e-01,-2.15423e-01,-1.29926e-01,1.51905e-01,2.07380e-01,-5.20095e-02,-2.34169e-01,4.07666e-01,-3.95062e-01,1.37926e-01,1.39127e-01,-4.15054e-01,2.19104e-01,-1.13235e-01,-3.32994e-01,1.45367e-02,-5.52064e-02,4.08127e-02,
-2.75575e-01,2.12812e-01,1.46892e-01,-4.79104e-02,-2.00950e-01,-1.12624e-02,-8.06284e-02,-6.02125e-02,-1.26187e-01,9.08147e-02,5.58488e-02,6.40543e-02,3.48623e-01,4.83351e-02,-6.44157e-01,-2.43751e-03,3.57254e-01,-3.14071e-01,1.76453e-01,-3.61399e-01,-9.96039e-02,-3.60681e-01,-1.47497e-01,-3.23486e-01,2.12614e-01,
1.86419e-01,3.23680e-01,2.22263e-01,-1.65512e-01,-6.19865e-01,3.65276e-01,-4.06416e-02,1.52080e-01,5.40368e-01,-6.45845e-01,2.03524e-01,-5.64782e-01,1.55428e-01,-2.40096e-01,-3.55653e-01,2.76100e-01,-2.49276e-02,1.89799e-02,-4.18375e-01,5.43715e-02,-5.17679e-02,1.64037e-02,-1.05092e-01,-3.78316e-02,-4.09015e-01,
-2.37738e-01,-1.57201e-01,3.68119e-02,-2.95926e-02,5.20033e-01,5.35553e-01,2.53728e-01,7.33267e-02,2.61368e-02,-5.45255e-01,-1.83213e-01,1.18047e-01,2.07273e-01,-3.13337e-01,-2.65387e-01,2.62685e-01,3.98828e-01,1.67234e-01,-8.60011e-01,-3.10058e-01,8.93739e-02,2.92662e-01,-3.40299e-01,3.57417e-01,-5.74757e-01,
4.54732e-01,-2.11597e-02,5.71530e-02,-2.72644e-01,-2.85340e-01,-9.31012e-03,-5.12224e-02,1.67746e-01,1.91489e-01,-5.88377e-01,-4.30134e-01,-1.38530e+00,-4.17694e-01,-3.55175e-01,-7.44816e-02,4.00985e-01,-2.04340e-01,-7.56674e-02,-6.91845e-01,8.83784e-03,-1.60414e-01,-3.06961e-01,-1.59903e-01,3.76840e-01,-7.03780e-02,
-1.75779e-01,2.25029e-01,2.79613e-01,-3.57008e-02,-4.27800e-01,3.58488e-01,-2.72548e-01,-5.68057e-02,1.66001e-01,6.50444e-02,3.02796e-01,-3.23330e-01,4.71521e-01,1.55012e-01,-8.35755e-02,-9.57445e-02,-6.55024e-02,1.90540e-01,-1.55658e-01,6.47488e-02,-8.49881e-02,-1.18320e-01,2.78542e-01,-3.00289e-01,-1.86999e-01,
-2.59650e-01,-8.18818e-03,2.78203e-01,1.84329e-01,-2.02545e-01,-1.43548e-02,1.50677e-01,8.92715e-02,-1.76851e-01,1.27957e-02,-7.04682e-02,-1.67904e-01,2.08686e-01,7.24297e-02,2.98609e-01,-1.82517e-01,1.04376e-01,1.94496e-01,-4.61020e-02,1.44889e-01,-3.31506e-01,-3.83804e-02,4.93317e-02,2.53749e-01,2.23638e-01,
2.18525e-01,1.79123e-01,-2.57826e-01,2.14496e-01,-3.36863e-01,4.67150e-04,-2.33783e-01,1.81453e-01,5.19701e-01,-1.39272e-01,-4.07114e-01,-1.03427e+00,-2.80229e-01,-5.57241e-01,1.87380e-01,5.46665e-02,-3.60244e-02,-1.88215e-01,-6.30076e-01,3.99848e-01,1.97399e-01,-1.29962e-01,-1.35681e-01,2.62241e-01,2.40387e-01,
4.97688e-01,-2.40101e-01,2.49265e-01,2.88520e-01,-3.95904e-01,1.62487e-01,3.01720e-02,1.40547e-01,2.32547e-02,-2.35106e-01,-2.58194e-02,2.65610e-01,-1.56605e-01,-2.45673e-01,-6.08524e-01,9.14084e-02,-7.30072e-02,-3.41047e-01,-2.79983e-01,3.34858e-01,-3.97181e-02,-2.66197e-01,2.23150e-01,1.59144e-01,2.35549e-01,
3.29679e-01,2.90447e-02,8.73035e-02,4.04540e-01,-6.14422e-02,-4.49031e-01,1.81624e-01,1.00610e-01,-2.42956e-01,3.11587e-01,1.50022e-01,-1.19557e-01,1.67400e-01,2.92641e-01,5.08005e-01,1.32526e-01,1.75686e-01,1.07023e-01,-6.75557e-02,7.19349e-02,6.64324e-02,-3.30379e-02,-4.23374e-02,4.03811e-02,2.77125e-01,
-3.43903e-01,8.91612e-02,-1.41655e-01,-2.13789e-01,-1.15837e-01,-1.21515e-01,2.32147e-02,1.87951e-01,3.93434e-01,1.29668e-01,2.78894e-02,-4.34469e-01,3.32482e-01,-1.84425e-01,-3.03958e-01,-2.37228e-01,-1.54729e-01,-3.31771e-01,1.97487e-01,2.27612e-01,1.03405e-01,-1.34961e-01,6.34795e-02,-1.99024e-01,-2.89540e-01,
-1.25377e-01,2.44657e-01,2.07665e-01,1.39826e-01,1.34970e-01,-1.74690e-01,1.87572e-01,9.31759e-02,5.73519e-03,2.59234e-01,7.33996e-03,3.01504e-02,4.41422e-02,1.89104e-01,2.60001e-01,-1.09532e-01,-2.05518e-01,2.15230e-01,-7.97070e-02,-3.21787e-02,1.89259e-01,1.60218e-01,-2.43325e-01,-4.41377e-02,-3.64056e-03,
4.42399e-01,2.65314e-01,2.76740e-01,2.23043e-01,3.18843e-01,-2.42910e-01,2.32390e-01,5.59223e-03,-5.55925e-03,2.17586e-01,1.76833e-01,-9.80084e-02,-1.50729e-01,-3.03760e-01,3.03392e-01,-2.95502e-01,1.11661e-01,-3.29801e-01,-2.71731e-01,-2.33330e-01,-1.50201e-01,1.38243e-01,-1.02227e-01,-6.79331e-02,1.07594e-02,
-4.79354e-01,-4.59685e-02,3.08260e-01,2.24904e-01,-5.47299e-03,-4.87256e-02,-2.70793e-01,2.13471e-02,-2.73563e-01,-4.29289e-01,-2.53534e-01,4.02542e-01,-1.52290e-01,-2.31689e-01,2.81579e-02,1.61967e-02,-3.69245e-02,-2.23535e-01,-3.95269e-01,-1.51992e-01,-3.09351e-01,1.28253e-02,2.70296e-01,1.03576e-02,-1.75027e-01,
2.66725e-01,-1.62038e-04,-2.25081e-01,2.14579e-01,2.47827e-01,-2.28973e-01,1.82476e-01,3.91147e-02,-5.28196e-03,2.25720e-01,-2.33960e-01,-2.15606e-02,-2.58290e-01,2.94040e-01,-1.33970e-01,2.09701e-01,4.75730e-02,1.17820e-01,5.34761e-01,-2.09885e-04,1.08554e-01,3.04696e-01,-2.11986e-01,-6.20747e-02,1.04219e-01,
-2.90028e-01,
-2.12431e-01,
2.40135e-01,
1.65968e-01,
1.55883e-01,
7.32171e-02,
4.80080e-02,
1.00250e-01,
-1.32227e-01,
-1.79086e-01,
-3.30659e-01,
-1.64188e-01,
2.93088e-01,
-3.14125e-01,
2.69446e-02,
-2.60538e-01,
2.48383e-01,
-1.60948e-01,
1.46681e-01,
-2.67017e-01,
1.94343e-02,
1.94039e-01,
-1.62300e-01,
-1.84667e-01,
-1.32630e-02,
-7.76849e-02,1.24340e-01,7.47054e-03,4.50140e-02,-1.61651e-01,3.02156e-01,-4.28197e-02,1.35375e-01,-1.22138e-01,-3.28682e-01,-7.01851e-02,-2.14867e-01,-3.32446e-01,-3.36909e-01,4.82485e-01,1.02447e-01,-7.62716e-02,-4.13868e-01,1.27263e-01,-7.94611e-02,9.94079e-02,-1.99826e-01,3.55941e-01,-5.73789e-02,-2.22660e-01,
-1.57680e-01,3.05929e-01,2.58682e-01,1.96123e-01,-7.41825e-02,3.15163e-01,8.84855e-02,3.29621e-01,6.52771e-02,8.84314e-02,2.55692e-02,-1.97704e-01,-1.60761e-01,1.80590e-01,-3.74716e-01,-1.75786e-01,-3.29650e-01,-5.13843e-02,-2.57468e-01,1.37362e-01,6.14700e-02,2.79423e-01,-4.16430e-02,5.77396e-02,-2.72484e-01,
2.17182e-01,5.32074e-01,-6.63869e-02,-2.71771e-01,2.42381e-01,6.05010e-01,-2.69149e-01,8.96768e-02,-1.91828e-01,-7.02474e-02,-7.36633e-02,1.39417e-01,2.15149e-01,-3.19971e-01,1.05882e-01,-1.33742e-01,-3.54436e-01,-1.68082e-01,2.21389e-01,-3.46193e-01,7.85124e-02,-2.22988e-01,-3.98841e-02,4.66171e-01,-7.17492e-02,
-1.77143e-01,1.12635e-01,-2.80578e-01,-1.47167e-01,1.00748e-01,-1.39908e-01,1.98399e-02,-3.53647e-01,1.22719e-01,1.16860e-01,-3.99053e-01,-3.14433e-01,-2.09427e-01,1.24180e-01,2.68213e-01,-7.09304e-02,3.00515e-01,1.82267e-01,-3.15878e-02,-1.80762e-01,-1.35024e-01,2.51245e-01,-1.16749e-01,2.35627e-01,3.26204e-01,
2.15463e-01,-2.85199e-03,-8.60116e-02,1.40299e-01,-2.08199e-01,-2.71225e-01,1.96542e-01,8.73898e-02,2.58711e-01,1.33390e-01,1.38129e-01,-2.35169e-01,1.52843e-01,-2.19687e-01,-1.17827e-01,4.70825e-01,1.10120e-01,-2.58189e-01,-3.19754e-01,8.42048e-02,1.85166e-01,-1.47879e-01,1.80682e-01,3.01926e-01,-3.97768e-01,
5.09744e-01,7.26987e-02,-2.06820e-01,-1.16536e-01,-4.28813e-01,-6.83912e-02,4.26075e-01,-1.22446e-01,-2.55243e-01,3.80801e-01,4.84857e-02,-1.34956e-01,-2.71656e-01,2.13815e-01,-2.28535e-01,-1.04079e-01,-1.73452e-01,-2.44216e-02,-2.45623e-01,3.59251e-01,-8.67597e-02,2.21649e-01,-1.87257e-01,-2.69495e-01,1.16610e-01,
-2.85150e-01,-4.86524e-02,-4.59624e-02,1.56902e-01,1.65034e-01,-2.49990e-01,-1.45339e-01,6.06773e-02,-1.43711e-01,-4.10658e-02,-6.19498e-02,-3.91220e-01,1.52349e-01,-1.50829e-01,-3.12665e-01,7.41279e-02,-5.13093e-02,9.72935e-03,-1.09043e-01,-1.56121e-01,-1.06430e-01,-1.50526e-02,-1.25486e-01,9.24944e-02,-2.03435e-01,
-1.05390e-01,2.67638e-01,-1.18045e-01,-5.37183e-02,-2.84728e-01,3.11562e-01,-2.72713e-01,1.40864e-01,2.25555e-01,-2.95050e-01,2.36267e-02,1.77333e-02,3.39500e-01,-2.85744e-01,-1.13579e-01,3.46174e-01,2.50853e-01,-4.79276e-02,-1.98851e-01,-4.79121e-01,1.21252e-01,6.02365e-02,4.33728e-02,2.19393e-01,2.12037e-01,
-2.55599e-01,2.41143e-01,2.92888e-03,-3.38002e-01,-3.19979e-01,-3.91225e-01,-2.70800e-01,-1.70406e-01,6.99139e-02,7.33112e-02,-1.38828e-01,2.79644e-01,-1.78337e-01,-3.03075e-01,2.60907e-01,5.96874e-02,-1.27953e-01,1.12075e-01,-9.36542e-02,-2.39133e-02,2.99624e-02,-2.90457e-01,3.17038e-01,-2.71925e-03,-1.00007e-01,
-2.25287e-01,1.59372e-02,-2.13138e-01,-1.44976e-02,-2.59724e-01,2.62391e-01,-3.34157e-01,1.61303e-01,2.43582e-01,1.69228e-01,-1.20421e-01,-2.84536e-01,2.63115e-01,1.08347e-01,-8.08288e-03,-3.50680e-01,1.80171e-01,-3.61037e-02,3.55363e-01,1.01128e-01,-3.44604e-01,-3.94490e-02,7.69187e-02,2.43054e-02,2.71031e-01,
-4.92759e-02,1.31558e-01,9.86538e-03,2.63962e-01,3.42959e-01,-5.01268e-01,3.79729e-01,1.67826e-01,-3.41078e-01,7.68405e-02,4.31392e-01,1.92188e-02,-2.01657e-01,3.74761e-01,9.32518e-01,-8.92387e-02,1.35776e-01,2.93028e-01,-1.45888e-01,-8.19348e-02,-1.19013e-01,-1.62117e-01,-2.88189e-03,-1.10283e-01,2.00976e-02,
-5.88668e-02,1.13533e-01,-4.95138e-02,3.08369e-01,-5.96275e-02,-3.55852e-01,-1.73324e-01,-2.81989e-01,-1.08066e-01,-3.10102e-01,-3.35845e-01,1.07992e-02,2.63047e-01,7.25258e-02,-8.72110e-01,-2.21472e-01,3.43640e-01,2.61544e-01,2.50275e-01,-3.38927e-01,-1.50322e-01,-2.41390e-01,1.40941e-01,-3.09457e-01,4.56060e-02,
-4.40606e-01,-1.20426e-01,-3.70713e-01,-3.56508e-01,-1.01326e-01,-5.62247e-01,-3.79784e-01,-1.41834e-01,4.63313e-01,1.46915e-01,-2.48174e-01,1.06395e-01,1.30463e-01,2.48494e-01,1.28061e+00,-3.27381e-01,-2.04638e-01,-5.91122e-01,1.62058e-01,1.29016e-01,-2.09825e-01,2.52551e-01,-2.75648e-03,-3.92945e-01,2.77057e-01,
-1.66941e-01,1.69611e-01,-1.16657e-01,-5.02140e-02,-1.90142e-02,1.03674e-01,2.37233e-02,2.10159e-01,-1.85851e-02,8.02639e-02,-1.87567e-01,-8.00197e-02,-1.12302e-02,-5.36828e-02,-1.06290e-01,-1.27901e-01,3.92951e-02,1.43477e-01,2.33066e-01,1.47418e-02,-1.17189e-01,3.02081e-01,-8.27846e-02,1.43475e-01,-5.05216e-02,
2.11736e-01,-2.90861e-01,-9.65100e-02,2.49287e-01,1.98316e-01,-2.49430e-02,3.53683e-01,-1.60083e-01,-3.27531e-01,-2.93430e-01,-4.06861e-02,-3.70463e-01,-5.27509e-02,-4.10518e-01,-1.03005e-01,-2.39197e-01,-1.53948e-01,-6.81583e-02,-7.52009e-02,-3.61562e-01,-3.40153e-01,3.43195e-01,-2.36875e-01,-2.64098e-01,-2.36003e-01,
-5.88882e-02,9.63306e-02,3.08774e-01,-2.89422e-01,3.09722e-01,-1.02151e-01,-3.16793e-01,2.01294e-01,-4.29263e-01,-3.47648e-01,-2.35572e-01,8.91840e-02,5.74279e-01,-5.22114e-01,-2.60512e-01,3.11325e-01,-3.60807e-02,-5.60354e-01,2.75490e-01,-5.78027e-01,-2.84153e-01,-1.08929e-01,-2.36956e-01,-3.44778e-01,-3.15156e-01,
-2.91132e-01,1.73155e-02,-2.69617e-01,2.30650e-01,2.28616e-01,6.33672e-02,-9.38369e-02,-1.72405e-01,2.56681e-02,-3.48826e-01,-1.48621e-01,1.50237e-01,1.33615e-01,-2.42250e-02,-6.16813e-01,1.73903e-01,1.67391e-01,8.75197e-02,-3.01919e-01,-2.39445e-01,2.45248e-01,8.50583e-02,7.29401e-02,-1.73691e-01,-3.32306e-01,
-1.99635e-01,-2.39506e-01,-1.23753e-01,2.19257e-01,-1.65202e-01,8.87817e-02,1.05586e-01,-3.04664e-01,1.34931e-01,1.49133e-01,-7.69355e-02,-1.40306e-01,-2.94232e-01,3.33019e-01,-3.71689e-01,3.08861e-01,3.67519e-02,3.16388e-01,-3.72343e-01,-3.96767e-01,2.43008e-02,-6.09258e-03,2.09487e-01,3.71193e-01,1.53502e-01,
3.70302e-01,1.10143e-01,-1.08274e-01,5.38782e-02,4.14225e-02,-9.65910e-02,7.48251e-02,2.89507e-01,1.56872e-01,4.06519e-01,-2.37531e-01,2.62805e-01,-2.49426e-01,1.15754e-01,1.36973e-01,8.66583e-02,4.95391e-02,-1.53545e-01,-2.49264e-01,-1.96219e-01,2.76476e-01,-3.20793e-01,2.94247e-01,-4.39052e-02,1.68173e-01,
2.31612e-01,-1.81967e-01,5.54135e-02,4.18701e-01,4.72668e-01,1.62255e-01,-2.37001e-01,2.68568e-01,1.52253e-03,-1.82742e-01,-2.24803e-01,-1.89782e-01,-4.56239e-01,-3.64148e-02,-1.68979e-01,2.74993e-01,1.93137e-01,-1.94658e-01,-5.72633e-02,-4.23010e-02,2.36160e-01,-1.82087e-01,3.37647e-01,-1.55825e-01,6.90506e-02,
-8.39712e-02,-2.51573e-01,-3.70741e-01,-1.53644e-01,2.86925e-01,2.36135e-01,-4.95307e-01,2.92131e-01,-4.68028e-03,-1.17355e-01,2.47143e-01,-6.24560e-02,3.60855e-02,1.43740e-01,-2.65445e-01,3.47121e-02,-2.62450e-01,-6.10149e-01,1.38538e-01,2.13172e-01,-9.32400e-02,-1.05965e-01,-4.80391e-02,3.16056e-01,-4.63112e-02,
-1.34359e-01,1.17335e-01,-1.13533e-01,-8.10033e-02,3.05840e-02,-2.53355e-02,3.42869e-02,4.28433e-02,1.54870e-02,2.97290e-01,1.71337e-02,-1.78790e-01,6.59833e-03,1.47226e-01,-2.09271e-02,2.01299e-01,-6.28011e-02,-2.57061e-01,-7.42145e-02,2.51777e-01,7.55403e-02,-1.61090e-01,2.03486e-01,2.62411e-01,-4.37356e-02,
-2.85208e-01,-3.54471e-02,8.16289e-02,5.60887e-01,2.10618e-01,7.17490e-01,1.98769e-01,6.30962e-02,-3.59058e-01,8.37167e-02,2.50435e-01,2.34332e-01,-2.85155e-01,1.68048e-02,-1.93519e-01,-2.15187e-01,5.04821e-03,2.34572e-01,-2.40773e-01,2.04826e-01,2.01338e-01,-1.93067e-01,2.17112e-02,3.74975e-01,-1.02168e-01,
3.68406e-01,1.35978e-02,-8.45418e-02,8.56610e-02,-2.20753e-01,1.61915e-01,-5.71964e-03,-2.55122e-01,-2.09238e-01,2.30380e-01,-6.34115e-02,-1.76183e-01,-3.57866e-01,3.14593e-02,4.89596e-01,9.66769e-03,-1.82407e-01,-1.03454e-01,-4.59470e-02,-2.01577e-01,-2.21916e-01,9.70593e-02,3.29373e-02,-1.11991e-01,-2.88119e-01,
-1.22742e-01,3.75971e-01,1.25027e-01,1.96642e-01,5.06739e-02,2.83110e-01,1.03028e-02,-1.90922e-01,-1.72312e-01,-2.17816e-01,-1.64992e-01,-2.43191e-01,2.90185e-01,-3.60639e-01,9.56090e-02,-1.90925e-01,2.90457e-02,3.41536e-01,-4.18182e-01,-1.87629e-01,-1.13011e-01,2.66420e-01,-4.97973e-01,1.53309e-01,-3.34797e-01,
1.39661e-01,
-1.75005e-01,
2.59370e-01,
1.45217e-01,
1.46336e-01,
6.66035e-02,
-2.46383e-02,
-2.62185e-01,
-2.96208e-01,
-9.01176e-03,
-7.51399e-02,
-1.51741e-01,
-2.41128e-01,
1.51584e-01,
-2.45517e-02,
-8.67148e-02,
2.24113e-02,
-2.64518e-01,
-3.67342e-01,
-8.39989e-02,
-1.88262e-01,
2.87548e-01,
1.37883e-01,
1.38676e-01,
-9.05168e-02,
8.56969e-02,-4.72111e-02,-1.78209e-01,-6.07453e-02,-7.41175e-02,-7.44027e-02,1.11869e-02,-1.68928e-01,1.96056e-01,5.36815e-02,-3.72973e-01,3.67630e-02,-1.83996e-01,-2.20212e-01,3.95612e-02,-7.73139e-01,-5.48050e-02,-2.83382e-01,3.89513e-01,-6.75700e-02,-2.63801e-01,2.00916e-01,-2.71348e-01,7.48283e-02,4.82563e-02,
-2.88995e-01,3.87782e-01,-1.01865e-01,-4.21396e-01,-1.69402e-01,-1.65226e-01,-1.25056e-01,4.81756e-01,1.63001e-01,-3.64366e-01,-4.07182e-01,6.71023e-03,-4.39271e-02,-5.39450e-02,-1.57615e-01,-8.08735e-01,-9.19025e-02,4.63115e-01,4.02023e-01,-1.73647e-01,2.22459e-01,-1.57263e-01,1.24949e-01,-1.71233e-01,-9.21507e-02,
-2.59898e-01,-2.66072e-01,-2.41811e-01,4.75311e-01,2.47236e-01,-9.70085e-02,3.09966e-01,1.52518e-01,-1.68563e-01,1.25818e-01,-2.09557e-01,3.70147e-02,-1.87017e-01,2.99441e-01,3.56009e-01,-7.15732e-01,3.48561e-02,-1.22095e-01,-2.76214e-01,-3.56271e-01,2.98025e-01,1.79697e-01,-3.16237e-01,-8.92693e-02,-4.07400e-02,
-4.03741e-01,1.84233e-01,4.55762e-02,-1.23547e-01,-4.30855e-01,3.94986e-02,1.82351e-02,-4.00767e-01,-2.71528e-01,2.68070e-01,-6.33549e-01,7.64210e-02,-6.12389e-01,-2.00460e-01,1.46854e-01,-1.68108e-01,1.02927e-01,-5.26005e-02,-2.91078e-01,4.25283e-01,-3.73815e-01,-1.11929e-02,2.94970e-01,1.82518e-01,-9.00600e-02,
3.82751e-01,-1.40018e-01,-7.43746e-02,-4.62161e-03,-2.57523e-03,-4.06427e-02,2.55806e-01,1.97532e-01,1.44077e-01,2.72588e-01,6.40342e-01,-9.72334e-03,-2.83663e-01,-1.02735e-01,3.25724e-01,-9.62291e-01,-5.71551e-02,-3.53189e-01,2.40653e-01,4.56279e-01,2.17030e-01,2.60153e-01,-4.51425e-02,1.15810e-01,1.35097e-01,
7.90610e-02,
4.58337e-01,
-4.83885e-01,
2.32645e-03,
-6.17753e-02,
