// Neural Network File Format by Kyle Julian, Stanford 2016
6,5,5,25,
5,25,25,25,25,25,5,
0,
-56000.000000,-56000.000000,-3.141593,200.000000,200.000000
56000.000000,56000.000000,3.141593,200.000000,200.000000
-278.628049,0.000000,0.000000,200.000000,200.000000,-0.242819
112000.000000,112000.000000,6.283185,1.000000,1.000000,17.479225
-1.10561e+00,5.34700e-02,-1.58512e-01,-1.49269e-01,2.12745e-01,
-4.26537e-01,1.27958e-01,7.13138e-02,3.44424e-01,-3.99644e-01,
1.05161e+00,7.29358e-01,-1.89651e-01,2.03637e-01,8.85336e-02,
9.13494e-02,-5.42716e-01,-4.61290e-01,5.44550e-02,2.81721e-01,
-6.81575e-01,-7.51119e-01,5.40005e-02,9.73099e-02,2.14774e-01,
6.68106e-02,6.83944e-01,3.74633e-01,-9.70006e-02,-2.69881e-01,
-4.85594e-01,-9.45096e-02,-3.85040e-01,-2.27170e-01,1.57830e-01,
1.50555e-01,-8.57243e-01,5.52995e-01,1.28168e-01,-2.31536e-01,
-4.36019e-01,7.58728e-01,-2.05514e-01,1.50376e-01,7.66184e-02,
4.01033e-01,-6.31792e-01,-6.49100e-01,4.03185e-01,-2.14270e-01,
9.83673e-01,4.83040e-01,1.64889e-01,-2.60824e-01,-4.12001e-01,
-1.59160e-01,3.50441e-01,4.15568e-02,-6.31407e-02,-2.47806e-01,
5.40905e-01,1.66832e+00,1.78064e-02,-4.34376e-01,2.44779e-01,
-7.57815e-01,4.23901e-01,4.08204e-01,2.00856e-01,2.14623e-01,
3.63166e-01,1.15509e+00,-4.34858e-01,2.11746e-01,-1.35229e-01,
2.71845e-01,-6.22996e-01,-2.72615e-01,-4.44752e-01,3.10434e-01,
1.15363e+00,-1.23205e+00,-4.37647e-03,-1.91206e-01,4.33620e-02,
1.71829e-01,1.43591e+00,-3.43289e-01,-3.21972e-03,2.52439e-01,
6.94167e-01,-4.83565e-01,-1.94490e-01,6.38620e-02,2.65542e-02,
-1.86672e-01,9.02406e-01,-4.36557e-01,4.29645e-01,1.17706e-01,
1.41353e+00,-1.51592e+00,-3.36612e-01,3.49620e-01,1.80346e-01,
-3.56034e-01,-1.58073e-01,-5.63699e-01,2.51621e-01,-7.58350e-02,
6.70188e-01,6.36371e-01,5.46645e-01,3.95180e-01,-1.77099e-01,
-3.53110e-01,-2.98117e-01,-1.77210e-01,-2.76423e-01,-3.42135e-01,
3.53904e-01,2.45170e-01,3.97136e-01,-1.68838e-01,3.98862e-01,
-1.12708e-01,
-2.41365e-01,
1.61451e-01,
3.56006e-02,
1.84204e-01,
-2.19852e-01,
-1.15924e-01,
-3.04197e-02,
1.15750e-01,
1.26663e-01,
1.42452e-01,
-1.40364e-01,
1.05507e-01,
-4.30830e-02,
-2.25473e-01,
1.45674e-01,
-2.33850e-03,
1.44517e-01,
-9.86435e-02,
-3.42608e-02,
2.66694e-03,
7.53892e-02,
-5.63526e-02,
2.12079e-01,
-2.74433e-01,
-4.16669e-01,1.16921e-02,-2.10223e-01,-1.81077e-01,-3.80459e-01,6.60714e-02,-7.25856e-02,-1.80283e-01,-8.03494e-02,-3.63594e-01,-2.04367e-01,2.18145e-01,1.06544e-01,-3.40692e-01,9.38345e-02,2.34571e-01,8.41723e-02,-2.39094e-01,5.92985e-01,6.49552e-01,-1.03162e-01,2.35097e-02,3.26818e-02,2.24004e-01,-1.91003e-01,
-3.17587e-01,-2.92908e-01,2.65257e-01,1.50333e-01,-3.83473e-01,1.32317e-01,3.19088e-01,-1.95130e-01,3.14297e-01,9.28367e-03,5.17869e-02,3.40518e-01,4.29641e-01,-2.77711e-01,1.35804e-01,-2.08803e-01,5.10790e-01,3.10169e-01,-1.64347e-01,-1.80887e-01,-2.94387e-01,-1.59751e-01,4.23073e-01,-1.61597e-02,3.35729e-01,
-3.86181e-02,-1.75373e-01,2.21035e-01,-6.80247e-02,-2.24234e-01,-3.53012e-02,2.65733e-01,-5.83097e-01,3.47397e-01,-8.85433e-02,-1.71419e-01,-3.56822e-01,2.91913e-01,4.17242e-01,-5.86649e-01,-2.49405e-01,-3.04086e-01,1.00180e-01,-2.51411e-01,6.56514e-02,-1.20330e-01,-3.18329e-01,-2.47734e-01,2.25135e-01,-5.31624e-01,
2.93787e-02,-1.24236e-01,2.86682e-01,3.13073e-01,-3.78503e-01,-2.70513e-01,2.95268e-01,-4.26304e-01,3.49243e-02,-2.37447e-01,3.35965e-01,-9.83281e-02,-3.13309e-01,2.65670e-01,-2.25157e-01,1.92844e-01,-1.95092e-01,-1.92598e-01,4.13478e-02,-2.27744e-01,-1.80198e-01,-8.50345e-02,3.49537e-01,-1.03800e-01,3.04489e-01,
-1.33468e-01,7.51215e-02,-6.10439e-02,1.55990e-01,1.02092e-01,-1.70678e-01,-6.84097e-02,1.62925e-02,3.05057e-01,-3.28706e-01,3.15301e-01,-9.10416e-03,-2.03027e-01,5.88883e-01,1.96016e-01,1.62427e-01,2.64379e-01,2.60200e-01,-3.99613e-01,2.63167e-01,-1.46707e-01,1.65524e-01,-1.18304e-01,6.37017e-02,-2.87560e-01,
-4.11573e-01,-2.06925e-01,1.40517e-01,2.91511e-02,-6.60933e-03,-3.88879e-01,-4.15203e-01,-7.25450e-02,5.66472e-02,2.34252e-01,3.98298e-01,-3.21999e-01,-3.19831e-02,3.20614e-01,7.13155e-02,1.72647e-01,-3.26238e-01,3.07673e-01,6.71865e-01,1.14144e-01,-5.78358e-01,-9.80176e-02,-7.24380e-02,9.88652e-02,-6.24738e-02,
-3.91494e-01,-3.61323e-01,1.68033e-01,2.64917e-01,-1.19719e-01,9.34864e-03,-1.76573e-01,3.88037e-02,2.33776e-03,-2.10908e-01,-6.27960e-02,1.23106e-01,-2.93727e-01,-3.04601e-02,1.45363e-01,-5.49908e-02,1.98526e-01,-8.59037e-02,1.85862e-01,-7.31723e-01,-6.76854e-03,-1.83168e-01,-2.72943e-02,1.06134e-01,-2.22029e-01,
2.96526e-01,-7.97043e-02,1.70662e-01,-2.26912e-01,-9.60976e-02,-8.90641e-02,1.96732e-01,6.89029e-02,-1.70872e-02,2.28678e-01,1.00525e-01,1.98370e-02,7.04421e-02,-3.87242e-01,-2.92454e-02,1.44524e-01,8.98938e-02,-3.62560e-01,-1.81937e-01,2.49600e-01,-3.05157e-01,2.49558e-01,1.60482e-01,1.93125e-01,-6.58418e-03,
1.72110e-02,2.59884e-01,-5.15725e-02,1.53895e-01,-4.07947e-02,-4.59264e-02,4.33912e-02,2.64571e-02,-3.64413e-01,4.30625e-02,-6.74234e-02,3.79180e-02,-2.37457e-02,6.77325e-01,3.25902e-01,-1.24437e-01,-2.98354e-01,4.67399e-02,1.98214e-01,3.73969e-01,2.15820e-01,7.30667e-02,7.80588e-02,1.20920e-01,-1.94402e-01,
3.93002e-02,6.19053e-02,2.24331e-02,-5.41327e-01,-3.47698e-01,2.15582e-01,2.35330e-01,1.52493e-01,-4.05075e-01,-1.06795e-01,1.36212e-01,1.39802e-01,3.61999e-01,2.42139e-01,1.79208e-01,2.58477e-01,2.86303e-01,1.79219e-01,2.10249e-01,-2.10456e-01,-1.75316e-01,2.16459e-01,-4.33788e-01,-2.43650e-01,2.93497e-01,
-4.15037e-01,-3.57327e-01,2.42431e-01,-7.00376e-02,3.68575e-01,-2.21793e-01,-2.70904e-02,-4.17490e-01,-1.68928e-01,3.16328e-01,-3.52870e-02,-7.95809e-02,-4.01159e-01,2.70250e-02,-1.94436e-01,-1.33363e-01,7.04509e-01,-1.04014e-01,-2.24796e-01,-1.05973e-01,-1.14777e+00,3.54583e-01,-4.16129e-01,1.59686e-01,-4.68848e-02,
-5.82194e-02,3.45230e-01,8.03370e-02,1.94670e-01,4.73784e-01,7.61855e-02,1.52384e-01,-4.15546e-01,2.36016e-01,-3.64850e-01,-3.24967e-01,2.80315e-01,1.64138e-01,5.93107e-01,2.55607e-01,-6.47672e-02,-9.52436e-03,1.32283e-02,1.07418e-01,2.70867e-01,2.01101e-01,-5.34355e-02,3.36029e-01,4.09881e-01,-8.37757e-02,
8.26998e-02,-5.23576e-02,2.20468e-02,2.96966e-01,-2.19454e-01,9.39416e-02,-1.90616e-01,-9.59673e-01,-1.03488e-01,2.33889e-02,5.79920e-02,-9.37002e-02,-5.06398e-02,-2.42967e-01,2.52393e-01,1.35059e-01,4.17429e-01,4.90110e-01,-7.57414e-01,-2.88788e-01,4.70232e-01,-2.34378e-01,-1.39361e-01,2.76268e-01,-8.48974e-02,
-3.97310e-01,3.54446e-02,-1.05004e-01,-3.54554e-03,5.84552e-02,-2.30358e-01,-2.65709e-01,-1.17642e-01,2.54556e-01,2.89732e-02,-1.28569e-01,5.30084e-03,-2.65963e-01,4.92892e-01,-2.33266e-02,4.30664e-01,2.02390e-01,-2.86807e-01,-3.86965e-02,-2.95385e-01,-4.15393e-01,5.29787e-01,-1.11076e-01,2.88349e-01,-2.71595e-01,
3.69377e-01,-2.28967e-01,2.24403e-01,-1.18110e-01,1.65708e-01,1.43694e-01,9.88411e-02,-1.13630e-01,1.50175e-01,-1.15080e-01,1.84366e-01,6.61054e-02,3.14632e-01,-1.16706e-01,2.80665e-01,-3.82519e-01,2.27138e-05,1.28265e-01,3.87955e-01,2.16194e-01,-1.36758e-01,-2.20811e-01,-2.24026e-01,2.65626e-01,1.78401e-01,
-2.82958e-02,7.42952e-02,1.81758e-01,5.04012e-01,9.11327e-03,-2.66828e-01,-1.64768e-01,6.84332e-01,-2.75600e-01,-2.30897e-01,1.85103e-01,3.21671e-01,-1.14390e-01,-3.81611e-01,-1.06127e+00,3.06062e-01,-5.82018e-02,1.11264e-01,6.35235e-02,-1.05153e-01,-6.49463e-02,-8.75361e-02,-3.91395e-01,2.20951e-01,1.69360e-01,
-1.61059e-01,-9.74853e-02,-2.28038e-01,-2.71886e-02,6.66234e-02,-1.91730e-02,9.92811e-02,-4.83768e-02,9.12426e-02,-3.13409e-01,-1.15591e-01,2.15809e-02,-3.17150e-01,-1.88898e-02,2.51551e-02,2.66418e-01,2.46419e-01,2.38553e-01,4.09494e-01,-2.61091e-01,-1.05513e-02,2.71635e-01,-4.36974e-02,-2.88852e-01,-2.42715e-01,
-6.51257e-02,-1.20092e-01,-2.89008e-01,1.57483e-01,-2.40491e-01,-6.47188e-02,-3.36374e-01,3.15511e-01,-2.39476e-01,-1.95728e-01,3.24030e-01,-2.16385e-01,-2.02328e-01,-7.55620e-02,-1.64316e-01,-3.95703e-01,-1.10083e+00,-6.09892e-02,-1.26409e-01,1.88877e-01,-3.41538e-01,-3.80505e-01,-2.88221e-01,1.00861e-01,-2.91112e-01,
3.30139e-01,-3.99457e-03,1.58099e-01,2.30674e-02,-3.55482e-01,-1.96127e-01,-7.95636e-02,1.93970e-01,-3.04065e-01,-1.34923e-01,2.21755e-01,-1.21468e-01,2.17714e-01,-1.67784e-01,-3.64341e-01,2.51788e-02,-2.17258e-01,-3.28545e-01,6.46535e-01,3.81483e-01,-3.98135e-01,-1.09748e-01,-4.30149e-01,2.51473e-01,2.78439e-01,
-1.01695e-01,-1.52097e-01,3.40677e-02,-3.54508e-01,-2.70400e-01,1.36881e-01,-1.55779e-01,-5.68807e-01,-6.17731e-01,6.53993e-02,2.46872e-02,2.71185e-01,2.26787e-03,8.15877e-01,-1.87728e-01,-5.14412e-02,8.30964e-01,-3.85220e-01,-8.34011e-01,4.26034e-01,-4.61391e-01,-3.65288e-01,-2.86888e-01,1.70846e-01,2.55134e-01,
1.52071e-01,1.59706e-01,2.68864e-01,-5.21295e-01,-4.33320e-02,2.21319e-01,1.91603e-01,2.70478e-01,-2.31700e-01,-2.35018e-01,1.87725e-01,1.63091e-01,-1.28234e-01,-4.68840e-02,-3.72894e-01,-3.41194e-01,-7.86507e-02,1.75825e-01,2.53279e-01,6.23667e-01,-1.32376e-01,2.47410e-01,-5.17535e-01,-1.49335e-01,-3.59216e-02,
1.67783e-01,-9.14375e-02,3.05308e-01,-2.04512e-01,-1.38317e-01,-2.11546e-01,2.69796e-01,-1.67685e-01,-1.83476e-01,3.29235e-01,1.42554e-01,-2.40113e-01,-8.19274e-02,1.18657e+00,-5.84103e-01,-1.53797e-01,1.09052e+00,2.44127e-01,-6.42466e-01,2.78733e-02,5.45534e-02,-1.74588e-01,-6.68544e-01,-3.20157e-01,1.05533e-01,
2.16757e-01,-3.28455e-01,-1.11084e-01,-3.41500e-01,-2.37662e-01,2.51410e-01,-2.32748e-01,-4.62753e-01,-3.21756e-01,2.08517e-01,-1.93825e-01,-2.77481e-01,-4.07016e-02,5.12272e-01,4.23391e-01,-1.37416e-01,8.61629e-01,-2.18868e-02,-6.36323e-01,-1.94688e-01,2.96166e-01,-4.62788e-02,-3.16470e-01,7.07895e-02,2.76756e-01,
-1.15634e-02,2.61952e-01,2.13037e-01,3.40974e-01,1.73755e-02,1.68281e-01,-2.41436e-02,7.89329e-02,9.80529e-02,1.19079e-01,2.70736e-01,-1.71253e-01,2.91400e-01,-1.11412e-01,7.46974e-02,7.03144e-03,7.99569e-02,-3.21348e-02,3.83631e-02,-5.82365e-02,-7.47346e-02,-3.87385e-01,1.94827e-01,1.59771e-01,1.52250e-01,
-3.75193e-01,-1.32079e-01,3.07744e-01,-1.37752e-01,-2.39659e-01,1.34081e-01,-1.54302e-01,-6.20586e-01,8.28694e-02,-6.17833e-01,1.64767e-01,-1.82871e-02,-5.64909e-02,-6.17188e-02,-5.32397e-01,-2.17855e-01,-3.10210e-01,-1.60244e-01,-2.29876e-02,2.53699e-01,4.10171e-01,-2.49923e-01,5.24524e-01,-1.87354e-01,2.65423e-01,
2.08625e-01,
-5.65586e-02,
-1.05537e-01,
1.40252e-01,
-6.37725e-02,
-1.34653e-01,
-5.07181e-02,
-9.02889e-03,
2.46393e-01,
1.09733e-01,
-1.28025e-01,
-1.48660e-01,
-1.93171e-01,
-1.49841e-01,
4.34678e-02,
-1.03256e-01,
-1.60212e-02,
1.72225e-02,
7.24567e-02,
-2.80477e-01,
1.39777e-01,
7.19019e-02,
2.65334e-01,
2.59691e-03,
-7.41389e-02,
-1.59336e-01,4.67114e-01,-8.32668e-02,1.96187e-01,3.31963e-02,1.12737e-01,4.08600e-01,-7.14447e-02,-6.46570e-02,3.16632e-01,2.99959e-01,3.82750e-01,-6.99703e-02,-2.69336e-01,-3.77787e-02,4.25252e-01,4.86037e-02,2.59912e-01,1.01170e-01,5.34794e-02,-2.54493e-01,2.16060e-01,8.63270e-03,3.53187e-01,-2.95478e-02,
1.69415e-01,-1.27192e-01,6.51339e-02,3.55504e-01,-1.45127e-01,-8.80076e-02,-1.93454e-01,1.93558e-01,1.94515e-02,-1.34170e-01,-6.42323e-02,2.57305e-01,2.18208e-01,1.36750e-01,-2.20877e-01,-3.84492e-01,2.57937e-02,-3.39908e-01,1.84114e-01,2.59128e-02,1.15651e-01,8.44385e-02,2.71173e-01,2.87510e-01,3.80083e-01,
-2.40521e-01,-1.50745e-01,2.35083e-01,-1.21543e-01,2.48244e-01,-4.19319e-01,1.72806e-01,-1.00972e-01,-2.67779e-01,1.62583e-01,-2.52948e-01,-6.46125e-01,1.14462e-01,3.77367e-01,-3.76139e-01,1.07116e-01,-1.28566e-01,-1.61484e-01,1.03852e-01,-2.01981e-01,4.86049e-02,3.39834e-02,-6.06957e-02,-2.13351e-01,-4.96552e-02,
2.11602e-01,-1.10498e-01,-1.36494e-01,4.65072e-02,-8.73115e-02,-1.92715e-01,2.18336e-01,-1.85692e-01,-1.28654e-01,4.08909e-01,6.84372e-01,1.97015e-01,6.16608e-02,-3.66285e-01,3.26267e-01,1.36711e-01,1.10517e-01,7.87537e-02,-6.38655e-02,2.80428e-01,3.31709e-01,1.47443e-01,-1.72752e-01,5.81080e-02,-2.80773e-02,
1.27327e-01,-3.80697e-01,4.03719e-01,-2.84088e-01,-2.38927e-01,2.38668e-01,-3.30636e-01,2.08785e-01,1.81989e-01,2.41402e-01,-3.11315e-01,-2.98590e-01,3.95554e-02,-5.75086e-03,1.55626e-01,-4.63545e-03,-1.72325e-01,6.61495e-02,3.19074e-01,2.61447e-01,2.04026e-01,4.04045e-02,-1.52478e-01,7.16303e-02,-1.78640e-03,
-3.02740e-01,2.09149e-01,5.75001e-01,2.36722e-01,-1.23488e-01,-1.29242e-01,3.76702e-01,-8.58024e-02,-2.86309e-01,9.80252e-03,-7.13379e-01,-3.14512e-01,5.00881e-01,-1.64077e-01,-4.05912e-01,7.94976e-02,-3.32384e-01,-1.29639e-01,-3.36426e-02,-3.20048e-01,-1.35469e-01,-2.34283e-01,3.13511e-01,2.25222e-01,-9.17708e-02,
1.62845e-01,5.61555e-03,-9.13859e-01,-5.54970e-03,2.30660e-01,1.04785e-01,-1.10140e-01,-2.69708e-01,3.71341e-01,2.81863e-01,-5.54035e-02,-5.73419e-02,-1.74658e-01,6.25886e-02,1.64948e-01,-2.83251e-01,-4.28624e-01,1.24419e-01,2.85273e-01,3.38175e-01,4.38997e-03,-6.27830e-02,2.18260e-01,-4.98271e-02,3.28796e-01,
4.71368e-02,-1.75745e-02,9.55334e-02,1.98055e-03,-4.01096e-01,2.19682e-01,1.19606e-01,-8.70906e-02,-2.85316e-01,1.53461e-01,-9.53009e-02,7.38484e-02,1.06403e-01,1.19175e-01,-1.82635e-01,-3.29368e-01,-1.95446e-01,1.38527e-01,4.97809e-01,2.72694e-02,-1.51458e-02,1.31376e-01,-3.32018e-01,7.83232e-03,6.68019e-03,
-2.50257e-02,2.41432e-01,2.82585e-01,1.02267e-01,-5.64465e-01,-4.90536e-01,-8.34687e-02,2.97321e-02,-6.25661e-02,5.71019e-02,-1.13570e-01,2.80360e-01,-1.20866e+00,-7.47941e-02,-2.71298e-01,1.24876e-01,-2.93303e-01,2.19985e-01,1.64010e-01,4.11362e-01,-2.28350e-01,-8.48871e-02,-4.88634e-02,2.28847e-01,6.12190e-01,
5.92783e-03,3.01928e-01,-3.77297e-01,-2.60998e-01,2.82846e-01,8.76843e-02,2.43746e-02,1.95837e-01,1.88759e-01,-2.68890e-01,-1.07221e+00,-4.22319e-01,-1.41528e-01,4.00720e-01,-6.86381e-02,-1.89910e-01,-9.15076e-02,-2.75963e-01,1.28909e-01,3.35602e-01,1.80251e-01,-1.14978e-01,2.35778e-01,-4.61361e-01,9.73689e-02,
9.83135e-02,-2.88798e-01,9.22132e-02,-2.31249e-02,-2.69092e-01,3.75409e-01,-2.79575e-01,2.03157e-01,7.21992e-02,-1.39580e-01,-1.13760e+00,-4.89001e-01,-4.74235e-01,-3.96224e-02,3.45886e-01,-2.85729e-01,-5.12389e-01,-2.38946e-01,-6.92961e-02,-4.82017e-01,-2.62225e-01,2.76323e-01,-3.40089e-01,3.34846e-01,-2.22926e-02,
2.97044e-01,-4.25673e-01,4.93838e-01,2.91128e-01,-2.18204e-01,-1.66198e-01,5.09739e-02,3.21386e-02,1.55074e-01,-1.85429e-02,-1.06981e+00,2.07504e-02,-1.75227e-01,-4.34925e-01,1.13506e-01,4.29928e-01,6.49745e-03,-3.80493e-01,-1.63352e-01,-2.15025e-01,-2.06518e-01,-9.26506e-02,-3.23393e-01,1.00713e-01,-5.46120e-01,
-1.70631e-01,4.88511e-01,3.87458e-02,1.32394e-01,-7.18900e-02,3.76469e-01,-1.53871e-01,2.77827e-02,2.39210e-01,1.31922e-01,9.38036e-01,4.12217e-01,-1.60375e-01,-3.50805e-01,-1.25254e-01,-6.52589e-02,1.67504e-01,-3.61856e-01,3.23428e-02,2.12584e-02,-1.32539e-01,3.66735e-01,1.51612e-01,2.41450e-01,5.14874e-02,
2.06983e-02,-4.46958e-01,2.25825e-01,-2.34850e-02,-2.05567e-01,1.32231e-01,-1.56326e-01,1.68563e-01,-3.91416e-01,6.10143e-01,-5.75773e-01,-2.73346e-01,7.79823e-01,2.76487e-01,-1.43300e-01,7.76812e-02,2.76326e-02,4.36158e-01,3.20145e-01,-3.41324e-02,2.77381e-01,-1.29659e-01,-4.62530e-01,-1.53101e-01,4.28347e-01,
-1.41030e-01,-3.38058e-01,1.26725e-01,2.40726e-01,5.97255e-02,2.36516e-01,2.27181e-01,6.06651e-02,6.46445e-02,4.46239e-02,-3.49287e-02,-1.94848e-01,2.41578e-01,1.58975e-02,1.40755e-01,1.17789e-01,-1.21562e-01,-2.50808e-02,1.19668e-01,1.52613e-01,-2.95622e-01,-3.17023e-01,2.01927e-01,-1.89055e-01,2.37947e-01,
3.17944e-01,1.36831e-01,1.34683e-01,3.06535e-01,3.39824e-01,4.02815e-01,-1.68937e-01,3.30574e-02,2.74543e-01,-1.61929e-01,5.47834e-01,5.97227e-01,9.29345e-03,-1.88561e-01,-1.98242e-01,5.83905e-02,1.19659e-01,-1.60418e-01,-3.92246e-02,1.61202e-01,2.91667e-01,1.16798e-01,-1.26756e-01,2.39353e-01,-1.02673e-01,
-3.17924e-01,-2.43458e-01,-1.71471e-01,2.01619e-01,-7.05759e-02,1.69990e-01,1.58263e-01,-2.04254e-01,-4.06138e-02,2.21070e-01,-7.52890e-01,-1.36815e-01,5.49657e-02,1.58676e-02,2.27153e-01,-4.54584e-01,3.25997e-01,-2.60858e-01,-1.00189e-01,2.04667e-02,1.36087e-01,1.89759e-01,-7.59887e-02,-2.58377e-01,3.75245e-01,
1.33822e-01,-2.30531e-01,-2.43713e-01,-2.13885e-01,4.15985e-02,1.33090e-01,2.77660e-01,-2.60539e-01,-3.64666e-01,-1.02945e-01,-2.40103e-01,1.09636e-01,-1.97518e-01,2.83137e-01,3.33588e-01,-1.84200e-01,4.55881e-01,4.38204e-01,9.94061e-02,-2.19019e-01,4.67607e-01,-2.97354e-01,-2.51431e-01,1.01780e-01,-4.55218e-02,
-2.53835e-01,5.99515e-01,-4.19330e-02,-2.39678e-01,-8.37777e-02,1.22266e-01,1.62289e-02,1.28840e-01,1.11368e-01,5.78088e-01,6.27807e-01,3.82935e-01,-2.15595e-01,1.61855e-01,1.74386e-01,-1.14003e-01,1.36073e-01,-2.04550e-01,-1.42133e-01,2.86221e-01,1.70453e-01,4.81925e-01,3.10932e-01,3.43084e-01,-4.87196e-01,
-2.13643e-01,3.24859e-01,3.43120e-01,1.15593e-02,-1.78362e-01,3.12273e-01,3.52615e-01,-1.48179e-01,6.99185e-02,2.33534e-02,1.93431e-01,3.31898e-02,3.93665e-01,3.43091e-01,-2.60367e-01,4.16296e-01,-1.72293e-01,-1.34303e-01,-1.81749e-01,2.24122e-01,-4.06936e-01,-2.54743e-01,-1.32368e-02,-1.25961e-01,-3.61176e-01,
6.54851e-02,1.99850e-01,-4.07637e-04,4.67784e-02,2.36856e-01,1.31087e-01,-8.42639e-02,-1.91840e-01,-3.83141e-01,-2.78701e-01,5.15186e-01,2.49083e-01,1.40861e-01,2.14756e-02,-2.61554e-01,8.94785e-02,3.97028e-01,1.77285e-01,1.09348e-01,1.35812e-01,-1.34103e-01,1.79535e-01,-1.46552e-01,-1.54241e-01,-5.94447e-02,
-2.58095e-01,3.41448e-01,1.97424e-01,-2.79549e-01,-2.66618e-01,-1.39883e-03,-1.51719e-01,-9.18533e-03,-2.83246e-01,-6.31440e-01,3.68488e-01,2.36522e-01,-3.10259e-02,-1.88064e-01,1.40302e-01,1.40213e-01,-2.25879e-01,-6.98743e-02,-1.62047e-01,1.13499e-01,-3.08832e-01,-4.30746e-02,-5.92053e-03,-1.79927e-01,-5.66328e-02,
1.48983e-01,-2.25318e-01,4.36359e-01,3.40245e-01,-4.06659e-01,-8.80955e-02,-5.54845e-02,3.90303e-01,-3.77584e-01,3.01474e-01,7.74840e-01,-4.04989e-01,2.14218e-02,4.16211e-01,1.81355e-01,-2.10147e-01,1.34523e-02,2.19794e-02,-4.49223e-02,1.41073e-01,-3.65578e-01,-1.13016e-01,-1.13433e-01,1.88146e-02,-1.15538e-01,
1.88449e-01,-6.46122e-02,9.40987e-02,-3.06694e-01,-6.42551e-02,2.50964e-01,-4.40159e-02,2.52887e-01,2.04690e-01,-1.56420e-01,-7.33076e-01,-9.28156e-02,-9.92706e-03,1.14388e-01,-2.61398e-01,1.98657e-01,6.57970e-02,2.71493e-01,-1.12574e-01,-4.43487e-02,-1.23196e-01,-2.03607e-01,-3.24677e-01,2.46614e-01,-7.64081e-02,
-1.83601e-01,-3.12084e-01,1.86217e-01,-1.40643e-01,2.65723e-01,3.41285e-01,-4.79140e-02,1.10897e-01,-9.61001e-02,-2.56719e-01,-6.05571e-01,4.64307e-02,4.84458e-02,-2.64573e-02,-2.25568e-01,5.61799e-02,2.90027e-01,-6.25384e-02,-3.15127e-01,-3.51072e-01,-3.99444e-01,-1.84222e-01,-1.30579e-01,2.58309e-01,1.37258e-01,
-1.96074e-02,
3.20724e-01,
-4.32467e-02,
6.73226e-02,
1.46496e-01,
-8.09584e-02,
-1.04971e-01,
1.67404e-01,
2.61524e-02,
1.81885e-01,
-5.57201e-02,
-1.19278e-01,
-1.24881e-01,
2.03695e-01,
2.53219e-01,
-1.40881e-01,
9.65726e-02,
-1.65909e-01,
-1.94763e-01,
1.36131e-01,
2.73145e-01,
2.53600e-01,
1.31389e-01,
2.63196e-01,
2.40603e-01,
-2.22667e-01,1.21721e-01,-1.20578e-01,-1.36185e-01,1.05633e-01,4.58885e-02,-3.78395e-01,1.96131e-01,2.99610e-01,-1.65868e-01,1.47066e-03,3.86174e-01,-2.31525e-01,2.34537e-01,-3.29259e-01,2.96344e-02,-2.92572e-01,3.28644e-01,2.53937e-01,2.98391e-02,9.98390e-02,-3.18136e-01,-3.89581e-01,1.99992e-01,2.64756e-01,
-1.41920e-01,1.51578e-01,-1.28485e-01,-3.13730e-01,2.68821e-01,2.34852e-01,-1.24115e-01,3.40943e-02,3.50460e-01,2.84523e-01,-2.06777e-02,2.14704e-01,-5.12219e-01,1.88464e-01,2.97855e-01,-1.82566e-01,2.68374e-01,8.34434e-02,5.99688e-01,-1.53981e-01,-4.67608e-02,-2.12705e-01,1.82828e-01,2.58634e-01,-3.17903e-02,
-1.38616e-01,1.50943e-01,1.11999e-02,6.25379e-02,2.49811e-01,-8.23259e-03,-3.74103e-01,2.86182e-01,1.10733e-01,-2.39392e-01,1.19465e-01,-1.24227e-01,-7.09247e-02,1.05928e-01,-1.19059e-01,-2.03034e-01,-3.47572e-01,2.81571e-01,4.25473e-01,-2.57998e-01,-1.62073e-01,3.23468e-01,1.02815e-01,2.33438e-01,2.39047e-02,
1.30369e-01,2.75374e-01,-2.59998e-01,2.00214e-02,-1.52962e-01,-2.63065e-01,1.49080e-01,-5.13022e-03,-2.68553e-01,3.23988e-01,-1.52920e-01,1.42225e-01,1.70303e-01,2.19511e-01,-2.05063e-01,1.26153e-01,1.12114e-01,1.45922e-01,-4.05235e-01,1.81592e-01,1.95049e-02,-1.64617e-01,6.86818e-02,9.19515e-02,-2.35290e-01,
8.45583e-02,1.27755e-01,2.74941e-01,-3.75823e-01,-1.77693e-01,7.08170e-02,3.32344e-02,9.74993e-02,1.25808e-01,2.07829e-01,-2.04632e-02,-5.91692e-02,5.36677e-01,3.50688e-03,1.80954e-01,1.42457e-01,-3.17946e-01,-3.28191e-01,-6.81258e-01,-1.34558e-01,2.68341e-01,-3.23522e-01,-3.14340e-01,5.44908e-02,1.58547e-01,
-1.52254e-01,-1.10056e-01,1.63367e-01,-2.94913e-01,-1.13893e-01,-2.44104e-01,9.46593e-03,2.37903e-01,1.95579e-01,6.61064e-02,5.00069e-01,1.96939e-01,-1.59728e-01,3.33499e-01,1.13193e-01,-1.66982e-02,1.60195e-01,8.95848e-02,4.41674e-01,1.16248e-02,-5.99942e-02,-2.46130e-01,-2.28304e-01,2.61754e-01,2.13173e-01,
-3.93739e-02,1.32964e-01,9.31660e-02,-1.34231e-01,-1.72307e-01,6.50892e-02,6.60309e-02,3.19612e-01,1.89216e-02,-3.78391e-01,-3.94876e-01,1.22098e-01,-3.57616e-01,5.03476e-01,1.76135e-01,1.42770e-01,1.24101e-01,-9.28570e-02,4.57885e-01,-2.25512e-01,-9.68841e-02,7.39917e-02,1.73154e-01,3.72370e-01,8.17201e-02,
-3.57818e-01,3.56474e-02,1.87871e-01,1.62804e-01,2.08455e-01,-1.49758e-01,2.12202e-01,-7.79733e-02,5.83418e-01,2.34236e-01,-1.41411e-01,-2.89087e-01,-3.28664e-01,1.13134e-01,-3.17726e-01,-3.36512e-01,-2.02701e-01,5.98384e-02,5.77632e-01,2.51810e-01,2.00629e-01,-2.63931e-01,-8.96473e-02,3.00720e-01,2.30408e-01,
-3.23716e-01,-4.18204e-02,2.39687e-01,1.43488e-01,7.91990e-04,6.26872e-01,1.40093e-01,1.58329e-01,3.44932e-01,3.92449e-01,-9.55923e-02,2.04352e-01,5.91568e-01,-7.00183e-02,-1.74725e-01,1.78037e-02,-1.69836e-01,-2.81647e-01,-3.21659e-01,-2.32732e-01,-3.05656e-01,2.51555e-01,1.53829e-01,1.71612e-01,2.90735e-01,
1.90868e-01,2.82072e-01,-2.97396e-01,-4.69306e-02,-1.97862e-02,1.00325e-01,-3.94106e-01,1.36715e-01,-4.30212e-02,2.30715e-01,7.99993e-02,-9.15346e-02,-1.54579e-01,8.51879e-02,-8.10720e-02,1.37651e-01,-7.20494e-02,-3.15020e-01,-4.41329e-02,-2.18579e-01,2.77988e-01,-1.90462e-01,-2.41290e-02,-1.06478e-01,2.74514e-01,
2.91232e-01,2.55826e-01,-2.21548e-01,1.81591e-01,-1.50835e-01,-3.49470e-02,-4.22430e-01,2.84904e-01,-5.96242e-04,-1.89546e-01,3.02088e-01,2.49920e-01,-1.61381e-01,2.01205e-01,2.19394e-01,8.42004e-02,-8.41761e-02,-3.98604e-01,-1.84388e-01,4.03668e-01,2.64513e-01,2.86112e-01,2.41032e-01,-3.84845e-02,3.43479e-01,
-2.48383e-01,-1.26722e-01,2.58167e-01,6.91924e-02,-2.90235e-01,-6.48078e-02,7.57707e-02,-4.82183e-02,1.32656e-01,1.02937e-01,4.50721e-01,3.25135e-01,1.06240e-01,4.30058e-01,-1.63084e-03,-2.68639e-01,2.53972e-01,-1.59736e-01,5.12285e-01,-8.79475e-02,2.29375e-01,1.69160e-01,-1.51541e-01,-1.25264e-01,3.15382e-02,
-7.10004e-02,-4.75399e-02,-1.96504e-01,-1.35444e-02,1.39997e-01,-5.27312e-02,7.08107e-02,-2.91920e-01,2.24409e-01,-4.16329e-02,1.26070e-01,1.58736e-01,-4.36663e-01,-1.76681e-01,-1.19281e-02,7.12352e-02,2.48298e-01,-1.82943e-01,1.15905e-01,3.13497e-01,2.74800e-01,-1.60523e-01,-2.11933e-02,-3.24864e-01,1.37959e-01,
3.19268e-01,3.12334e-01,-1.68427e-01,9.00112e-02,2.61187e-02,-4.65431e-01,2.00300e-01,2.50617e-01,-2.38755e-02,-2.16822e-01,8.58623e-03,-3.08322e-01,-3.73975e-01,2.71776e-01,1.96470e-01,3.11144e-02,-2.88336e-01,2.68713e-01,1.31056e-01,-1.63733e-01,2.33700e-03,8.07361e-02,1.13453e-01,2.60178e-01,-2.01155e-01,
7.44668e-02,-4.07321e-01,1.19145e-01,-2.49395e-01,-1.03606e-01,-1.16736e-01,-2.50746e-01,-3.85439e-01,3.59322e-01,-4.31650e-02,-5.65049e-01,6.61191e-02,1.23473e-01,-2.58404e-01,-8.73728e-02,-3.59050e-02,-2.89875e-01,-4.90882e-02,-1.25282e-01,3.34808e-01,1.81867e-01,-1.35427e-01,4.49372e-02,-2.61960e-01,1.85212e-02,
-3.69533e-01,1.47114e-01,-2.39872e-01,-7.92612e-02,1.24495e-02,8.55094e-02,-4.72000e-02,1.05481e-01,2.10033e-01,6.91258e-02,-3.42704e-01,2.77155e-01,-1.24813e-01,2.08588e-01,-2.89278e-01,1.91910e-01,1.30498e-01,-2.31195e-01,2.02111e-01,2.33414e-01,-3.68016e-01,-8.81201e-02,1.04779e-01,-3.01419e-02,2.22089e-01,
-2.41333e-01,-4.03036e-02,1.49385e-01,3.20209e-01,-1.81161e-02,-1.95275e-01,2.14921e-01,2.24050e-01,1.69632e-02,-1.06501e-01,1.04258e-01,2.92687e-01,-1.79935e-01,2.94404e-01,7.69266e-02,-2.77268e-01,2.85857e-01,2.45741e-01,2.77790e-01,-5.34880e-01,3.54589e-02,-4.39592e-01,-1.74465e-01,-1.67857e-01,-2.36958e-01,
3.32264e-01,-1.54032e-01,-2.11842e-01,-4.99622e-03,-1.14733e-01,1.46595e-01,-1.93337e-02,-2.43675e-01,-1.26288e-01,-2.10495e-01,-3.67477e-01,1.41914e-01,2.34045e-01,-1.56525e-03,2.78226e-01,5.46618e-02,-3.28978e-01,3.46045e-01,-2.70265e-02,-1.38933e-01,2.00765e-01,-2.85972e-01,-4.96377e-01,-2.12771e-01,3.41077e-01,
2.55195e-01,-2.13772e-01,-1.47906e-01,1.46791e-01,-2.19352e-01,4.45247e-01,-2.01912e-01,1.67793e-01,-1.44080e-01,2.73299e-01,1.95490e-01,4.67391e-02,-6.12986e-02,-9.95296e-02,-3.60495e-01,4.92666e-02,2.56148e-01,2.07128e-02,2.97467e-02,-2.62856e-01,2.53211e-01,-1.71128e-01,8.08223e-03,2.06013e-01,1.27806e-01,
4.40968e-01,-3.54850e-02,-2.91351e-01,1.53673e-01,3.94540e-01,6.55654e-02,8.52001e-03,2.12535e-01,-2.34583e-01,8.27991e-02,4.71421e-01,-7.45135e-03,2.29713e-01,2.94233e-01,-1.29362e-01,-1.62250e-01,-1.72525e-01,2.99187e-01,-3.38922e-01,1.39507e-02,2.45641e-02,-1.93243e-01,-3.39501e-01,4.05048e-01,-6.11011e-02,
1.80832e-01,-1.99758e-01,1.50345e-01,-1.13042e-01,-2.54625e-01,-2.95402e-01,-2.53987e-01,1.74162e-01,1.84999e-01,-2.83957e-01,-2.68147e-01,-1.52342e-01,-3.35291e-02,3.49883e-01,2.57975e-01,-4.06930e-02,1.25211e-01,-3.35991e-01,2.58539e-01,3.84444e-02,-2.19247e-01,-2.32036e-01,-4.24688e-01,-6.64613e-02,-1.94562e-01,
-3.48459e-01,-8.91934e-02,-1.10542e-01,2.29280e-01,1.08626e-01,-2.08653e-01,1.51533e-01,-3.14779e-01,1.11740e-01,1.86332e-01,2.88914e-01,-1.78354e-01,-1.37816e-02,-8.11094e-01,2.10619e-01,4.65668e-01,1.52812e-01,6.62788e-02,5.85541e-02,-2.08962e-01,2.83042e-01,-4.80538e-02,-2.29590e-02,2.48774e-01,2.93214e-01,
-3.48860e-01,3.38760e-01,-1.89938e-01,1.44092e-01,3.14588e-01,4.75557e-02,1.69738e-01,-1.02989e-01,2.67372e-01,-2.14910e-01,3.52000e-02,1.68262e-02,-1.93637e-01,-5.17728e-04,2.17559e-01,-3.27933e-02,-2.41103e-01,-1.69491e-01,3.97129e-01,-1.38376e-01,-1.18308e-01,1.78003e-01,-2.89945e-01,3.40329e-01,1.49509e-01,
4.67390e-02,1.45911e-01,-5.35680e-02,1.67645e-01,1.39369e-01,-1.21339e-01,2.31715e-01,2.48291e-01,-3.20428e-01,-3.11440e-01,-1.23566e-01,-3.03402e-01,2.72366e-01,-8.86785e-02,-1.99625e-01,-2.33398e-01,5.37514e-02,2.16541e-01,-9.89844e-02,3.35574e-02,1.17990e-01,1.52865e-01,-1.49031e-01,1.37734e-01,-1.24957e-01,
1.42972e-01,-2.49370e-01,-3.00222e-01,3.74007e-01,-3.32967e-01,1.36266e-01,-1.74159e-01,-5.15589e-01,1.04156e-01,-5.02383e-02,-4.82713e-02,-3.48587e-02,-4.69419e-01,7.95793e-02,-2.30088e-01,1.33009e-01,-1.54655e-01,9.23815e-02,1.99643e-01,8.60404e-02,3.37053e-01,4.35092e-01,5.47134e-02,-3.01146e-01,2.34717e-01,
6.88352e-02,
-2.18460e-01,
-3.01324e-02,
-2.48352e-02,
-2.06879e-01,
-4.49149e-02,
-1.85753e-01,
-7.49055e-02,
-2.69021e-01,
7.69174e-02,
-2.51786e-01,
-3.59075e-01,
1.82779e-01,
4.43189e-02,
2.89133e-01,
7.32185e-02,
9.02292e-02,
-2.75876e-01,
2.85840e-01,
-1.69044e-01,
-1.91705e-01,
-3.08490e-01,
-2.48159e-01,
1.74839e-01,
1.07032e-01,
-3.36813e-01,1.20800e-01,2.76469e-01,1.36999e-02,4.02509e-01,-4.54637e-01,2.99459e-01,3.03924e-01,1.69642e-02,-3.46745e-01,2.72991e-01,2.93840e-01,-2.29647e-01,1.74104e-01,-5.86626e-02,1.74029e-01,1.32602e-01,-2.60423e-01,-3.61778e-01,1.77446e-01,-1.39881e-01,3.09207e-01,-1.50069e-01,-1.91709e-01,5.00451e-02,
-3.69279e-01,1.13132e-02,-2.05195e-01,-2.26571e-01,-2.59529e-01,-1.44555e-01,-4.23489e-03,9.84899e-02,-2.39303e-01,3.29588e-01,6.17751e-02,-2.10644e-02,-2.25653e-01,-2.32166e-01,-3.10143e-01,4.54039e-02,-8.48347e-02,1.72243e-01,2.82678e-01,-4.64976e-01,3.07728e-02,-1.79685e-01,8.35547e-02,-2.73811e-01,7.73064e-02,
2.50796e-01,-1.78055e-02,1.02679e-01,-3.24256e-01,2.77608e-01,5.55446e-02,-1.23695e-02,-1.69580e-01,3.68843e-01,2.93199e-02,1.02611e-01,-7.92736e-02,1.43005e-01,-2.71512e-01,1.92528e-01,-2.33859e-01,-1.50612e-01,2.85078e-01,2.10014e-01,-1.57891e-01,-3.20262e-01,1.72835e-01,2.01251e-01,9.52391e-02,7.14126e-02,
-4.26005e-02,3.01756e-01,-7.06343e-02,2.86333e-01,1.29152e-01,1.21321e-01,-1.71135e-01,3.75471e-02,2.71429e-01,5.59635e-03,-2.80604e-02,-2.34440e-01,1.29964e-01,1.63593e-01,2.34225e-01,-1.15588e-02,-2.95056e-01,1.10124e-01,-1.18173e-01,6.94424e-03,-2.03149e-01,-3.04079e-02,-5.87430e-02,2.53192e-01,5.19531e-02,
5.79169e-02,-4.36973e-02,-2.62278e-01,3.74572e-04,2.75895e-01,-7.16452e-01,2.49518e-01,3.57131e-01,-3.32167e-01,4.91653e-03,7.77428e-03,-2.52196e-01,1.29345e-01,-5.82190e-03,2.44965e-01,2.43344e-01,3.31740e-01,3.46090e-01,-2.95976e-01,-7.14185e-01,2.96781e-01,2.84143e-02,-1.40304e-01,1.65581e-01,-8.41665e-02,
-1.70404e-01,1.47871e-01,3.95340e-02,3.21393e-01,-1.16773e-01,1.98519e-01,1.78174e-02,9.30467e-02,-1.54878e-01,-2.44181e-01,3.89481e-02,-1.05531e-01,2.28538e-01,1.53362e-01,2.07715e-01,2.05300e-02,-1.01418e-01,1.73264e-01,-5.25225e-03,7.15074e-02,3.08107e-01,-2.27494e-01,1.22117e-01,-2.99409e-01,2.49452e-02,
-3.43654e-01,-1.00495e-01,-2.42589e-01,-2.05274e-01,3.07794e-01,-2.47030e-01,-2.88101e-01,-2.04951e-01,6.76468e-02,4.79522e-02,-3.85506e-01,-1.28356e-01,1.01671e-01,1.26931e-01,-7.34830e-02,-2.78731e-01,2.07341e-01,-1.19009e-01,-3.36053e-01,-1.19540e-01,3.22030e-01,4.03838e-02,7.24860e-02,1.21180e-01,2.48090e-01,
2.54660e-01,-5.81776e-02,3.01312e-01,-6.29321e-02,-2.17696e-01,2.63068e-01,-3.17213e-01,-3.82739e-02,-1.86146e-01,2.03829e-01,6.78836e-02,-6.69298e-02,3.31351e-01,2.31059e-01,1.51857e-01,5.91144e-02,-2.50501e-02,-1.57032e-01,1.84462e-01,-2.29228e-01,2.28253e-01,1.43521e-01,1.41678e-02,6.29253e-02,1.00922e-01,
1.88697e-01,1.38532e-01,-1.79726e-01,3.07973e-01,1.40102e-01,4.65651e-02,-2.90619e-01,-1.88482e-01,-1.60502e-01,-2.56837e-01,3.46782e-01,1.86328e-01,-1.16900e-01,3.11051e-01,-4.23081e-01,1.08684e-01,-9.30021e-02,-2.05539e-01,1.76043e-02,-1.97160e-01,-6.58479e-02,5.33446e-02,3.02592e-02,1.79610e-01,-1.04860e-02,
2.33076e-01,1.81760e-01,-2.21271e-02,-2.63261e-01,3.23212e-01,1.36441e-01,-1.68127e-01,1.13846e-01,2.93361e-01,-5.58905e-02,4.35688e-01,-1.60119e-01,-1.21546e-01,-3.37522e-01,2.05821e-01,1.79819e-01,-4.87129e-01,1.35367e-01,1.13047e-01,4.56065e-02,1.44503e-01,1.45139e-01,1.97435e-01,-3.16728e-01,1.71140e-01,
-3.35372e-01,-7.58062e-02,-1.93453e-01,1.74350e-01,1.00019e-01,-4.33799e-02,2.85311e-01,-2.12179e-01,2.29617e-01,-2.50718e-01,-7.36231e-02,-2.12976e-01,-2.09602e-01,-1.26073e-01,3.54360e-01,-1.71998e-01,-1.40810e-01,-5.34963e-02,-2.96444e-01,2.14915e-01,1.38114e-01,1.78879e-02,-2.14731e-01,-5.78277e-02,-4.49467e-02,
2.12746e-01,7.27424e-02,-2.24134e-01,-2.80780e-01,7.33347e-02,9.18287e-02,2.92559e-01,-1.42495e-01,-1.63060e-01,-2.62758e-01,1.54695e-01,-3.32066e-01,1.34550e-01,-2.20069e-01,9.42675e-02,-6.85800e-02,2.59651e-02,-3.23720e-01,-4.47765e-02,1.68069e-02,2.18574e-01,-2.88914e-01,-9.37603e-03,-1.25228e-01,2.58348e-01,
-3.88136e-01,-3.82075e-01,-2.61035e-01,-1.54969e-01,3.24085e-01,1.62532e-01,2.50806e-01,1.30432e-01,-1.37071e-01,-3.96887e-02,-6.74253e-02,-6.07948e-02,-1.62291e-01,-1.94913e-01,5.01631e-02,-1.84979e-01,-3.03274e-01,-3.71557e-02,-1.76755e-01,2.46822e-01,-1.64357e-01,5.78046e-02,-1.96857e-01,1.05825e-01,-1.02203e-01,
7.88221e-02,9.75803e-02,1.11697e-01,-3.17283e-01,-1.56342e-01,-1.59997e-01,-6.30432e-02,5.02554e-02,1.48206e-01,1.67071e-01,-2.18803e-01,3.13582e-01,1.54677e-01,2.17937e-01,-2.28211e-01,-2.64346e-01,7.70706e-02,1.64543e-01,-3.45862e-01,1.39313e-02,3.71139e-02,-5.71528e-02,-7.37843e-03,1.78024e-01,8.00764e-02,
-2.65175e-02,-4.36874e-01,-1.69577e-01,-1.59537e-01,-2.68227e-01,-5.33758e-01,-4.24139e-01,-6.18016e-01,-2.95858e-03,-2.36985e-01,-2.96992e-01,-1.22144e-01,2.64547e-01,1.12689e-01,-3.41109e-01,-1.85532e-01,1.74915e-01,2.29247e-01,2.36636e-01,1.30719e-01,-4.00465e-02,-1.75397e-01,-9.49295e-02,2.54166e-01,1.24761e-01,
9.30561e-02,1.23193e-01,1.79253e-01,-1.92028e-01,-2.32648e-01,2.04867e-01,1.89261e-01,-2.59597e-01,2.26411e-01,-6.87698e-02,-1.95639e-01,-3.18616e-01,-1.48435e-01,3.45232e-02,1.56994e-02,1.65492e-01,-2.21916e-01,-1.98078e-01,2.50198e-01,2.17481e-01,-1.27701e-01,-1.93986e-01,-6.70350e-02,-1.73960e-01,-3.60783e-01,
4.98781e-01,2.92355e-01,-9.23104e-03,1.18094e-01,-5.93719e-03,1.75135e-01,-3.65466e-01,-3.24337e-01,1.10380e-01,1.76738e-01,-1.07231e-01,7.05841e-02,1.40209e-01,-6.84841e-02,1.30485e-01,-1.53464e-01,-2.23020e-01,1.57271e-01,-2.52323e-01,-2.17947e-01,2.47957e-01,-1.96978e-01,-3.09336e-02,2.78909e-01,-3.59824e-01,
-1.83514e-01,-3.33303e-01,-3.46308e-01,-2.25020e-01,-2.37855e-01,-2.90911e-01,-1.70648e-01,-1.21208e-01,-2.57992e-01,-1.10867e-01,-1.22847e-01,-9.44409e-02,1.73214e-01,7.64040e-02,-3.34422e-01,-3.06229e-01,-1.15566e-01,-1.43030e-02,1.79144e-01,-9.57041e-02,1.35188e-01,-3.06914e-01,1.03656e-01,-7.86459e-02,-2.44263e-01,
6.99109e-02,6.07114e-01,6.43845e-02,-8.55215e-02,-1.50297e-01,4.35848e-01,7.70243e-02,9.27150e-02,-3.08642e-01,9.21553e-02,8.23676e-02,-7.21023e-02,1.42727e-02,1.13272e-02,-4.33755e-02,2.97381e-01,1.71735e-01,-1.26999e-01,1.36959e-01,-4.26801e-01,-3.59205e-01,-4.43578e-01,3.88839e-02,2.53818e-01,2.88678e-03,
-1.16055e-01,1.65861e-01,1.29549e-01,3.38429e-01,-1.16001e-01,2.96457e-01,-2.34451e-01,7.64490e-02,3.99504e-02,6.20396e-02,-7.68554e-02,-3.73589e-01,3.55511e-01,1.88484e-01,2.03306e-01,2.07001e-01,-1.37302e-01,-2.28458e-01,2.00209e-01,-1.95601e-01,-2.28532e-03,-2.11371e-01,9.43234e-02,-4.80717e-02,1.79121e-01,
1.20934e-01,5.12906e-01,-3.54333e-03,-8.00374e-02,4.77559e-02,1.53538e-01,1.24761e-02,3.84999e-01,-4.12050e-01,3.05984e-01,2.13884e-01,-2.74819e-01,-7.72580e-02,7.49421e-02,-1.93890e-01,1.98357e-02,-1.63061e-01,4.57689e-02,-1.10629e-01,-5.51815e-01,1.70335e-01,-5.01655e-01,1.88638e-01,-9.54753e-02,6.05913e-01,
-1.59224e-01,6.74026e-02,7.71144e-02,-3.50173e-01,2.79754e-01,-3.21529e-01,5.64151e-02,-2.25936e-01,1.79904e-01,-2.79200e-01,-6.74944e-02,-8.80530e-03,1.39933e-01,-1.90754e-01,-5.02811e-02,-1.36485e-01,2.90230e-02,4.68787e-01,1.70255e-01,3.53833e-01,3.85469e-01,9.61000e-02,-1.43986e-01,1.49768e-01,-1.44909e-01,
-2.51797e-01,1.01288e-01,-3.15721e-01,1.57082e-01,-1.43980e-01,-1.84088e-01,1.21184e-01,-2.39046e-01,3.63179e-02,-1.80329e-02,-4.21386e-01,-2.62047e-03,-6.25396e-02,1.92884e-01,-1.83367e-01,-3.01902e-01,-4.82678e-01,7.77708e-02,-3.84575e-01,1.21729e-02,3.35652e-01,1.31330e-01,-3.51443e-01,2.61718e-01,1.97935e-02,
3.93971e-02,-2.15901e-01,1.47526e-01,-3.29500e-01,1.43226e-01,-1.42998e-01,6.66967e-02,-8.12476e-02,-2.23538e-01,3.52920e-01,6.67361e-02,1.44250e-02,1.98445e-02,1.28448e-01,-2.17041e-01,-1.49397e-01,-4.94504e-02,-2.35435e-01,5.90264e-02,-1.17969e-01,7.81539e-05,1.34511e-01,2.13189e-01,2.30196e-02,2.21836e-02,
-1.94014e-01,-2.34930e-01,3.84851e-02,-3.36479e-01,1.31868e-01,2.21932e-02,-1.27220e-01,2.41390e-02,1.57682e-01,7.93359e-02,-3.40190e-01,3.06800e-01,2.58301e-01,-2.91086e-01,-1.31666e-01,-8.15435e-02,3.45418e-01,2.00329e-01,2.43223e-02,-2.00981e-01,5.28003e-02,-6.27189e-02,-7.66506e-02,-2.36169e-01,-3.81342e-01,
2.93036e-03,
-1.18994e-01,
-3.23305e-01,
3.56989e-01,
3.76048e-02,
2.00636e-01,
-2.26805e-01,
-2.41113e-01,
-1.27801e-01,
1.22353e-01,
2.33288e-01,
-5.47707e-02,
3.88462e-02,
2.98998e-01,
-8.51234e-02,
-2.52665e-01,
-1.16322e-01,
-1.80331e-02,
-1.92143e-01,
2.10864e-02,
-1.11225e-01,
1.84788e-01,
8.28367e-03,
3.23386e-01,
9.04927e-02,
2.15241e-01,-3.42400e-01,1.95955e-01,1.84139e-01,8.82153e-02,-2.79176e-01,1.02598e-01,3.57886e-02,-1.84250e-01,-1.57891e-01,-2.87956e-02,-1.64282e-01,-3.52784e-01,-2.72707e-01,4.79555e-02,1.07868e-01,-2.40146e-01,-2.57281e-01,-2.24254e-01,-2.34901e-01,3.19126e-01,-2.02544e-03,1.02664e-01,-7.79514e-02,2.15433e-01,
-8.08122e-01,-6.49272e-01,-4.66912e-01,-9.72615e-02,5.23087e-02,2.89462e-01,8.41938e-02,-1.39963e-01,-3.97644e-01,1.72876e-02,1.87820e-02,-1.03056e-01,-2.06804e-01,-1.17680e-01,3.89784e-02,-5.35092e-01,-2.17342e-01,-2.58905e-01,9.72279e-02,-1.06903e-01,-1.51958e-02,-6.32340e-03,2.02687e-01,3.40853e-01,2.01991e-01,
1.63845e-01,-1.34650e-01,-2.74955e-01,-2.55363e-01,-8.21449e-02,-1.43641e-01,-3.55237e-01,-1.57982e-01,-9.49525e-03,1.25918e-01,8.44645e-02,1.99168e-01,3.61701e-01,2.40394e-01,-1.30207e-01,-1.49619e-01,1.90859e-02,2.82005e-01,-5.51729e-02,2.29823e-01,1.81471e-02,4.34399e-02,-2.84009e-01,-1.63065e-01,-2.04208e-01,
1.14806e-01,2.35379e-01,-1.72822e-01,-3.39317e-01,1.09645e-02,1.78222e-01,-1.72251e-01,5.62525e-02,5.46630e-02,-6.39611e-02,2.02054e-02,2.38034e-01,-2.34572e-01,-9.89377e-02,3.37905e-02,-1.67586e-01,9.08806e-01,-4.51134e-02,-1.96506e-02,-4.18376e-02,3.37761e-02,4.85177e-04,3.53879e-01,-5.28970e-02,-3.48040e-01,
-4.22936e-01,-3.20009e-01,-2.49948e-01,3.52121e-01,-8.26162e-03,-1.60802e-01,-4.09708e-01,-2.47789e-01,-5.24311e-02,1.17600e-02,7.80311e-02,2.57278e-02,-3.27603e-01,1.65039e-02,5.62814e-03,6.05691e-02,1.26530e-02,3.02189e-02,-4.29664e-02,4.26484e-01,-8.13061e-02,6.03020e-02,-2.82370e-01,3.33228e-01,-3.50663e-02,
1.61278e-01,
-1.47156e-01,
8.02982e-02,
2.01982e-01,
-4.31933e-01,
