// Neural Network File Format by Kyle Julian, Stanford 2016
6,5,5,10,
5,10,10,10,10,10,5,
0,
-56000.000000,-56000.000000,-3.141593,200.000000,200.000000
56000.000000,56000.000000,3.141593,200.000000,200.000000
-278.628049,0.000000,0.000000,200.000000,200.000000,-0.242819
112000.000000,112000.000000,6.283185,1.000000,1.000000,17.479225
-8.34780e-01,-5.26946e-01,-7.47339e-01,2.74947e-01,4.01346e-01,
-1.92099e-01,-3.81912e+00,-1.18588e+00,-7.35987e-02,-5.98550e-01,
2.67304e+00,-1.03063e+00,-7.58102e-01,2.33103e-01,3.97613e-01,
-1.65322e+00,1.88582e+00,-1.22213e-02,3.13739e-01,-4.47836e-01,
-2.51415e-01,5.83564e-01,1.84233e-01,4.85926e-01,4.86392e-01,
-2.16773e+00,-2.06371e+00,-6.18992e-02,5.42380e-01,2.30973e-02,
-4.27034e-01,-4.04315e+00,-1.04559e+00,-4.82955e-01,2.05815e-04,
5.68370e-02,-3.80828e-01,1.49589e-02,8.80895e-02,4.23814e-01,
-2.25483e-01,1.83981e-01,3.81895e-02,9.34350e-02,-4.07599e-01,
-3.49264e-01,3.25147e-01,-1.38887e-01,4.98169e-01,2.21640e-01,
1.92164e-01,
2.59017e-01,
3.53955e-02,
1.16854e-03,
-4.10614e-01,
6.43336e-03,
-7.64583e-02,
-2.82667e-01,
-2.06407e-01,
-3.07321e-01,
1.88048e-01,3.86584e-01,-1.71552e+00,-1.08974e+00,-9.74887e-02,-2.16338e+00,8.01660e-01,-3.80818e-01,-5.30285e-01,3.21489e-01,
6.28914e-01,3.26737e-01,-6.30723e-02,-7.86601e-01,-1.47813e-02,-3.82366e-01,-1.21032e+00,-1.08517e-01,3.75869e-01,4.85525e-01,
7.05346e-01,3.51434e-03,1.74166e-01,3.66211e-01,-1.88650e-01,-2.36027e+00,-4.07247e-01,-4.33056e-01,5.01271e-01,5.87665e-02,
6.89975e-01,6.81598e-01,-7.69933e-01,-1.68201e+00,2.58947e-01,-1.01919e+00,-6.43830e-01,4.94120e-01,-2.44082e-01,-4.10241e-01,
3.36544e-01,-7.72925e-01,-1.19132e-01,-1.86793e-01,-1.42150e-01,-1.70641e-01,7.97152e-01,-1.53702e-01,4.11391e-01,4.50998e-02,
2.07028e-01,7.69941e-01,-4.82949e-01,-1.28092e+00,-1.75937e-01,-2.18951e-01,-3.17387e+00,2.68300e-01,-9.40728e-02,-1.35912e-01,
-2.71289e-01,3.04549e-01,2.96308e-01,5.95923e-01,-3.33236e-02,1.05849e-01,7.88037e-02,-3.87461e-01,-7.59153e-02,-5.43316e-02,
-4.44610e-01,3.98697e-01,1.92008e-01,7.00840e-01,-2.16469e-02,-3.14712e+00,-6.15323e-01,2.64714e-01,2.37253e-01,8.44491e-02,
-3.99173e-01,2.66322e-01,-9.50947e-02,-2.24659e-01,-1.23004e-02,-5.44966e-01,-4.07432e-01,8.48228e-02,1.47658e-01,9.36458e-02,
4.13522e-01,-2.91759e-01,-3.79605e-01,-8.44430e-02,1.16518e-02,3.98633e-01,-6.82580e-02,-5.19244e-01,3.46194e-01,7.34183e-02,
5.73578e-03,
3.68763e-01,
-2.84696e-01,
-2.47764e-01,
5.47372e-01,
-1.68781e-01,
-3.71794e-01,
-6.10460e-02,
-8.09501e-02,
-5.22916e-01,
2.55887e-01,1.24287e-01,-1.69635e-01,2.17738e-01,-2.99435e-01,4.88280e-01,-3.86357e-01,1.45039e-01,7.61935e-02,1.98316e-01,
1.60868e-01,-1.07122e-01,1.87856e-01,3.84702e-01,2.77990e-01,-4.93929e-01,-2.30965e-01,1.04919e-01,1.96122e-01,-3.41728e-01,
2.44056e-01,2.02451e-02,2.95835e-02,-7.80536e-01,-6.18050e-01,1.48530e-01,1.76000e-02,-4.98509e-01,-4.25890e-01,1.71210e-01,
2.50665e+00,-3.35467e-01,-1.81998e-01,7.64031e-01,-5.25448e-01,1.29823e-01,-1.53064e-01,-3.34415e-01,1.20387e-01,-3.82045e-01,
1.92070e+00,-3.97821e-01,8.12872e-01,-6.10477e-01,5.75549e-01,-2.02680e+00,2.18767e-01,7.44710e-01,2.34403e-01,1.82538e-01,
7.02509e-01,6.93448e-01,-7.50924e-01,-2.61428e-01,3.11288e-01,-1.96813e-01,6.65507e-03,-1.71123e-01,-3.26311e-01,-2.48083e-01,
1.90535e+00,3.25284e-01,1.29727e-02,-4.38060e-01,5.82168e-01,8.00788e-01,4.65505e-03,3.54165e-01,-3.90255e-01,-2.29846e-01,
-4.10371e-01,-3.36099e-01,-5.35200e-01,-2.62775e-01,1.62913e-01,5.32121e-01,-2.10421e-01,-3.81653e-01,-4.89906e-01,-9.11667e-02,
-9.90836e-01,-6.15140e-02,3.93010e-01,1.22848e+00,1.75890e-01,-2.64841e+00,6.69664e-03,3.39673e-01,2.26163e-02,-3.84557e-01,
1.73969e-01,-2.96959e-01,3.95280e-01,-2.56012e-01,2.03058e-03,2.59180e-01,-1.43172e-01,-4.94694e-01,-4.06646e-01,3.99246e-01,
-1.54200e-01,
-3.39869e-01,
1.96493e-01,
5.25412e-01,
7.25268e-02,
5.11644e-01,
-1.48372e-01,
-4.38913e-01,
2.02203e-01,
-1.25360e-01,
3.75754e-01,-2.09280e-01,1.68099e-01,4.60005e-01,-3.80906e-01,-4.41146e-01,8.26835e-01,3.62525e-01,3.27942e-01,4.90204e-01,
-4.48580e-01,7.89782e-02,1.55310e+00,-7.28282e-01,1.63655e+00,3.46481e-01,1.59458e-01,-1.55741e-01,3.94291e-01,-5.21059e-01,
8.15461e-02,-2.65042e-01,1.53674e+00,8.23542e-02,3.27573e-01,2.04390e-01,6.18116e-01,-6.39308e-02,2.74420e-01,-4.65253e-01,
5.28837e-01,3.92745e-01,3.48589e-02,1.65463e-01,3.09313e-01,-4.48531e-01,4.10435e-01,2.25419e-02,-5.11035e-01,2.04995e-01,
-3.50904e-01,3.70295e-01,-1.66117e-02,-4.42492e-01,5.82245e-01,3.46060e-01,-4.21117e-01,-9.77970e-02,3.17036e-01,-4.91679e-01,
1.06282e-01,4.70884e-01,3.54961e-01,-4.59776e-01,-1.86630e-01,-1.60228e-01,-1.00470e-01,-4.45176e-01,-5.35991e-01,-4.53670e-01,
-4.96948e-01,-1.71840e-01,1.33018e+00,2.24020e-01,-2.74001e-01,3.16549e-01,1.06265e-02,2.67741e-01,2.33012e-01,-5.07210e-02,
-3.82984e-01,3.40107e-01,-4.96695e-01,-3.60720e-01,9.76644e-02,-4.31068e-01,-7.36607e-01,-3.82152e-01,2.78867e-01,2.32629e-02,
-2.60886e-01,1.75631e-01,2.58138e-01,-5.01079e-01,-2.68858e-01,-1.97426e-01,-3.81750e-01,-1.72050e-02,-1.19240e-01,-4.21272e-02,
2.88531e-01,5.31973e-01,1.24766e-01,-1.56769e-01,2.04551e-01,-5.10454e-01,-3.37854e-01,5.25091e-01,-2.32431e-01,-3.81268e-01,
5.22717e-01,
5.18584e-01,
-3.58900e-01,
-3.67529e-01,
2.51837e-02,
5.09117e-01,
4.80386e-01,
4.43706e-02,
-4.60991e-01,
1.54452e-01,
-1.70896e-01,-8.02672e-03,5.78502e-03,-3.60936e-01,3.75215e-01,9.08887e-02,-2.27478e-01,2.81752e-01,1.14092e-01,3.33366e-01,
3.65967e-01,-4.76611e-01,-2.08250e-01,-7.87073e-02,-2.97111e-03,-3.75816e-01,-2.82461e-01,-6.52257e-02,-2.12487e-01,2.10910e-01,
-1.48331e-02,-2.73060e-01,-5.58035e-01,-1.80931e-01,3.85227e-01,-3.57002e-01,-9.56343e-02,-3.43166e-01,-3.55839e-01,4.64836e-01,
-1.27920e-01,6.60433e-01,-1.31371e-02,2.89656e-01,1.50287e-01,-1.75384e-01,3.86993e-01,-4.39585e-01,-5.02778e-02,-4.21791e-01,
-3.83857e-01,-1.31462e-02,1.26501e-01,-2.55829e-01,-2.69527e-01,2.77677e-01,-4.87158e-01,2.78685e-01,5.30507e-01,-3.29799e-01,
2.35163e-01,5.23840e-02,2.64808e-01,-5.09246e-01,-2.74592e-01,-2.11167e-01,9.21951e-03,1.75573e-01,-3.71825e-01,-4.86544e-02,
4.63397e-01,5.00472e-01,4.86051e-01,-4.56835e-01,2.52482e-01,-1.78761e-01,3.67837e-01,-2.18267e-01,3.80243e-01,-1.63506e-01,
-3.15810e-01,1.41224e-01,-2.24766e-01,4.09787e-01,3.14665e-01,-7.05310e-01,4.21282e-01,8.70300e-02,-2.77128e-01,-8.67954e-02,
-2.56117e-01,-3.32431e-01,9.93549e-02,9.48424e-02,-3.76730e-02,5.39955e-01,2.91338e-01,-1.17515e-01,-3.23852e-01,3.55844e-01,
4.31819e-01,-5.72259e-01,-1.88069e-01,4.47980e-02,1.77207e-01,-4.93219e-01,-1.39067e-01,-5.55678e-02,3.65367e-01,-2.40401e-01,
-1.21708e-01,
-2.40753e-01,
1.98920e-01,
-1.17240e-01,
-3.30212e-01,
1.91257e-02,
3.74202e-01,
9.25176e-03,
-1.64395e-01,
1.59425e-01,
-3.45967e-01,3.64971e-01,-2.00173e-01,-1.40150e-01,-7.16063e-02,-6.72997e-01,2.30789e-01,1.84571e-01,4.99308e-01,2.79520e-02,
-3.49564e-02,-1.15573e-01,-1.40054e-01,-3.86218e-01,4.17915e-01,-3.36829e-02,5.18023e-01,5.94886e-01,-6.20298e-01,5.26220e-01,
9.24014e-03,3.81402e-01,-4.70204e-01,1.94710e-01,4.18649e-01,2.54621e-02,-2.52168e-01,5.20134e-01,5.29950e-01,-3.79975e-01,
3.81711e-01,2.17542e-01,-1.62667e-01,-5.88748e-01,-6.86520e-02,-2.63629e-01,8.75618e-02,4.97736e-01,-4.55747e-01,3.35597e-01,
-5.45868e-01,-3.06899e-01,-2.89364e-01,3.61423e-01,-5.23104e-02,6.77071e-02,5.65103e-02,6.00061e-02,4.27307e-01,-5.06991e-01,
-1.09956e-01,
-4.42445e-01,
-1.03721e-01,
2.20753e-01,
-3.80597e-01,
